BIGRAM: method Katz, cutoff 1
  coef[7]: 0.000000 0.642627 0.728276 0.776851 0.807617 0.893548 0.872649

TRIGRAM: method Katz, cutoff 1
  coef[7]: 0.000000 0.514608 0.632893 0.730875 0.759696 0.847770 0.803800

\data\
ngram 1=6103
ngram 2=27651
ngram 3=36405

\1-grams:
-5.5058	!!UNK
-5.0287	'EM
-1.0604	</s>	-0.4469
-99.9900	<s>	-1.3216
-1.7426	A	-0.8516
-5.5058	ABBREVIATE
-5.5058	ABDOMEN
-5.5058	ABIDES
-4.8069	ABILITY	-0.2706
-3.4724	ABLE	-1.0369
-5.5058	ABLY
-5.5058	ABOLISH
-5.5058	ABORIGINE
-5.5058	ABORIGINES
-2.7530	ABOUT	-0.7615
-3.5102	ABOVE	-0.5353
-4.8069	ABRUPTLY	-0.0895
-5.5058	ABSENCES
-4.2506	ABSENT	-0.1222
-4.1836	ABSOLUTE	-0.1011
-5.5058	ABSOLUTION
-4.2271	ABSORBED	-0.1957
-5.5058	ABSORPTION
-4.2754	ABSURD	-0.1615
-4.8069	ABSURDLY	-0.4218
-4.7277	ABYSS	-0.2773
-5.5058	ACADEMIC
-5.5058	ACCELERATING
-5.5058	ACCELEROMETER
-5.5058	ACCELEROMETERS
-4.6027	ACCENT	-0.5868
-4.4644	ACCEPT	-0.1919
-5.2048	ACCEPTANCE	-0.4376
-4.9038	ACCEPTED
-4.9038	ACCESS	-0.3318
-4.1836	ACCIDENT	-0.1754
-5.5058	ACCLAIM
-5.5058	ACCLAIMED
-5.0287	ACCOMMODATE
-5.2048	ACCOMPLISH
-5.2048	ACCOMPLISHED
-5.0287	ACCOMPLISHMENTS	-0.2034
-4.3297	ACCORDING	-0.4355
-5.0287	ACCORDINGLY
-3.5236	ACCOUNT	-0.7671
-4.5058	ACCOUNTS	-0.2030
-5.5058	ACCREDITATION
-5.0287	ACCURACY
-4.9038	ACCURATE
-5.5058	ACCUSATIONS
-5.2048	ACCUSE	-0.4395
-5.5058	ACCUSINGLY
-5.5058	ACE
-5.5058	ACHES
-5.5058	ACHIEVE
-5.5058	ACHIEVED
-4.6607	ACKNOWLEDGE	-0.6220
-5.2048	ACKNOWLEDGED	-0.4383
-5.0287	ACQUIESCENCE	-0.2034
-5.2048	ACQUIRE
-4.9038	ACRES
-5.5058	ACROPOLIS
-3.4089	ACROSS	-0.7365
-3.9873	ACT	-0.2029
-3.8724	ACTION	-0.2795
-4.4267	ACTIONS	-0.2255
-5.5058	ACTIVATED
-5.5058	ACTIVITIES
-4.9038	ACTIVITY
-5.0287	ACTOR
-5.2048	ACTORS
-5.2048	ACTS
-4.6607	ACTUAL
-4.1441	ACTUALLY	-0.1310
-5.5058	ADAGE
-5.5058	ADAPTATIONS
-4.1836	ADD	-0.2387
-4.0909	ADDED	-0.1998
-4.6027	ADDITION	-0.2022
-5.5058	ADDITIVES
-3.7576	ADDRESS	-0.4250
-4.3297	ADDRESSED	-0.2661
-5.2048	ADEQUATE
-5.5058	ADHESIVE
-5.5058	ADJOURNED
-5.5058	ADJUSTABLE
-5.5058	ADJUSTMENTS
-4.8069	ADMINISTRATION	-0.2638
-5.5058	ADMINISTRATIVE
-5.5058	ADMIRE
-4.5516	ADMITTED	-0.2285
-5.5058	ADMITTING
-4.6607	ADOPTED	-0.0678
-5.5058	ADULT
-5.5058	ADULTERERS
-5.5058	ADULTHOOD
-5.5058	ADULTS
-4.1256	ADVANCE	-0.1173
-4.2754	ADVANCED	-0.0516
-5.2048	ADVANCES
-4.1441	ADVANTAGE	-0.7294
-4.7277	ADVANTAGES	-0.1852
-4.1634	ADVENTURE	-0.2287
-4.3017	ADVENTURES	-0.2300
-5.2048	ADVERTISING
-3.7816	ADVICE	-0.3348
-5.5058	ADVISABLE
-4.7277	ADVISED	-0.0652
-5.5058	ADVISEMENT
-5.5058	AERIAL
-4.8069	AFFECT
-4.9038	AFFECTIONATE
-5.5058	AFFIRMATIVE
-5.5058	AFLOAT
-3.8156	AFRAID	-0.6773
-2.9544	AFTER	-0.6229
-3.9744	AFTERNOON	-0.2488
-3.7134	AFTERWARDS	-0.2589
-2.9821	AGAIN	-0.4828
-3.2410	AGAINST	-0.8156
-3.8826	AGE	-0.2824
-4.9038	AGENCY	-0.3948
-5.0287	AGENDA	-0.5656
-4.4267	AGENTS	-0.0526
-5.5058	AGGLOMERATION
-5.5058	AGGRESSIVE
-5.5058	AGLOW
-3.5816	AGO	-0.4586
-4.4644	AGONY	-0.6531
-4.3597	AGREE	-0.7060
-4.2048	AGREED	-0.3737
-5.2048	AGRICULTURAL
-5.5058	AHAH
-4.5516	AHEAD	-0.2493
-4.2048	AID	-0.1961
-4.9038	AIDED
-5.5058	AIDS
-5.2048	AIM
-4.9038	AIMED	-0.3399
-5.5058	AIMLESS
-4.3597	AIN'T	-0.0718
-3.6137	AIR	-0.5121
-5.5058	AIRBORNE
-5.5058	AIRCRAFT
-5.5058	AIRFIELDS
-5.5058	AIRPLANES
-5.5058	AL
-3.7898	ALARM	-0.1946
-5.5058	ALCOHOL
-5.5058	ALCOHOLIC
-5.5058	ALCOHOLICS
-5.5058	ALCOVES
-4.3017	ALERT	-0.1119
-5.5058	ALFALFA
-5.5058	ALGAE
-5.5058	ALGEBRAIC
-4.6027	ALIBI	-0.4327
-4.4267	ALICE	-0.0961
-5.5058	ALICE'S
-5.5058	ALIEN
-5.5058	ALIGNING
-5.5058	ALIMONY
-5.5058	ALKALINE
-2.4027	ALL	-0.3817
-5.5058	ALLERGIES
-5.5058	ALLEVIATE
-5.5058	ALLIGATORS
-5.5058	ALLOT
-4.1079	ALLOW	-0.2883
-5.5058	ALLOWABLE
-4.6607	ALLOWANCE	-0.2514
-4.1256	ALLOWED	-0.2655
-5.5058	ALLURE
-5.5058	ALMONDS
-3.8826	ALMOST	-0.2663
-3.5713	ALONE	-0.4229
-3.6425	ALONG	-0.3189
-4.3297	ALOUD	-0.6746
-3.3691	ALREADY	-0.0977
-3.3566	ALSO	-0.2177
-5.5058	ALTERNATED
-4.3919	ALTERNATIVE	-0.3257
-4.1256	ALTHOUGH	-0.2032
-4.2271	ALTOGETHER	-0.1718
-5.5058	ALUMINUM
-5.5058	ALUMNI
-3.3240	ALWAYS	-0.1090
-2.8546	AM	-0.5181
-4.7277	AMATEUR
-5.0287	AMAZE
-4.6027	AMAZED	-0.0725
-5.5058	AMBASSADOR
-5.5058	AMBASSADOR'S
-4.9038	AMBER	-0.3036
-5.5058	AMBIDEXTROUS
-5.5058	AMBIGUITY
-5.5058	AMBIGUOUS
-5.5058	AMBITIONS
-5.2048	AMBITIOUS
-5.5058	AMBLED
-5.5058	AMBULANCE
-3.9618	AMERICAN	-0.1625
-5.5058	AMMO
-5.5058	AMOEBAS
-3.5564	AMONG	-0.6739
-5.5058	AMORIST
-4.5516	AMOUNT	-0.2493
-5.5058	AMOUNTS
-4.6607	AMPLE	-0.1229
-2.5744	AN	-0.7708
-5.5058	ANAESTHESIA
-4.3919	ANALYSIS	-0.1854
-5.5058	ANALYTICITY
-5.5058	ANARCHY
-5.5058	ANATOMICAL
-5.5058	ANCHOR
-4.6607	ANCIENT
-1.5838	AND	-0.3135
-5.5058	ANDREI'S
-5.5058	ANECDOTAL
-4.1256	ANGER	-0.2528
-5.5058	ANGORA
-4.8069	ANGRILY	-0.3824
-4.2271	ANGRY	-0.1779
-5.5058	ANGULAR
-4.4267	ANIMAL	-0.0097
-5.5058	ANIMALS
-5.2048	ANKLE
-5.5058	ANNOUNCING
-5.5058	ANNOYING
-5.5058	ANNUAL
-5.5058	ANONYMOUS
-3.3755	ANOTHER	-0.1787
-3.5281	ANSWER	-0.3624
-3.2340	ANSWERED	-0.5887
-4.5058	ANSWERS	-0.0862
-5.5058	ANT
-5.5058	ANTAGONISTIC
-5.5058	ANTARCTIC
-5.5058	ANTELOPE
-5.5058	ANTI
-5.0287	ANTICIPATED
-5.5058	ANTIGEN
-5.5058	ANTISEPTIC
-5.5058	ANTITHESIS
-5.5058	ANTS
-4.3297	ANXIETY	-0.1525
-2.8624	ANY	-0.3427
-5.5058	ANYBODY
-3.9873	ANYHOW	-0.3964
-3.5236	ANYONE	-0.3085
-5.5058	ANYONE'S
-3.1962	ANYTHING	-0.4657
-4.7277	ANYWAY	-0.3321
-5.5058	APARTMENTS
-4.4644	APOLOGY	-0.0566
-4.2506	APPARENTLY	-0.0287
-5.0287	APPEALING
-3.8156	APPEAR	-0.5812
-3.7734	APPEARANCE	-0.4311
-3.4765	APPEARED	-0.6248
-3.8156	APPEARS	-0.6522
-4.8069	APPETITE
-5.5058	APPETITES
-5.5058	APPETIZERS
-5.0287	APPLE	-0.2337
-5.5058	APPLES
-5.5058	APPLIANCES
-5.5058	APPLICABILITY
-5.2048	APPLICATION
-5.5058	APPLICATIONS
-4.6607	APPLIED	-0.1554
-5.5058	APPLIES
-4.5058	APPLY	-0.3484
-5.2048	APPLYING
-5.2048	APPOINTED
-4.1836	APPOINTMENT	-0.1765
-5.5058	APPRAISAL
-4.8069	APPRECIATE	-0.2921
-5.2048	APPRECIATED
-5.5058	APPRECIATIVELY
-4.3919	APPROACH	-0.1469
-3.9376	APPROACHED	-0.3897
-5.2048	APPROPRIATE
-5.5058	APPROVAL
-5.5058	APPROVED
-4.7277	APPROVINGLY	-0.4459
-5.5058	APPROXIMATED
-5.5058	APPROXIMATION
-5.5058	APRONS
-5.5058	APTITUDE
-5.5058	AQUATIC
-5.0287	ARBITRARY
-5.5058	ARBITRATE
-5.5058	ARBOREAL
-5.5058	ARC
-5.2048	ARCADE
-5.5058	ARCHEOLOGICAL
-2.5028	ARE	-0.3649
-4.8069	AREA	-0.0895
-5.5058	AREAS
-5.5058	AREN'T
-4.5058	ARGUE	-0.1814
-4.6027	ARGUED	-0.2049
-4.6027	ARGUMENT	-0.0365
-5.0287	ARISE
-5.5058	ARISES
-4.8069	ARISTOCRATIC
-3.8337	ARM	-0.4348
-3.9744	ARMCHAIR	-0.3634
-4.3919	ARMED	-0.3037
-3.9495	ARMS	-0.2938
-4.4267	ARMY	-0.3247
-4.7277	AROSE	-0.1017
-4.2048	AROUND	-0.2115
-4.6027	ARRANGE	-0.0760
-4.2506	ARRANGED	-0.1351
-4.3017	ARRIVAL	-0.3548
-4.3297	ARRIVE	-0.2111
-3.8526	ARRIVED	-0.2330
-5.2048	ARRIVING	-0.4444
-4.5516	ART
-4.3919	ARTICLE	-0.2423
-5.5058	ARTICULATION
-5.2048	ARTIFICIAL
-4.6607	ARTIST	-0.1229
-5.2048	ARTISTIC	-0.4073
-5.5058	ARTISTS
-2.0934	AS	-0.9015
-4.2754	ASHAMED	-1.2595
-5.5058	ASHTRAY
-4.3297	ASIDE	-0.0372
-3.2990	ASK	-0.6026
-3.0892	ASKED	-0.6707
-4.3017	ASLEEP	-0.1271
-4.7277	ASPECT	-0.2773
-5.5058	ASPECTS
-5.5058	ASSAIL
-4.7277	ASSASSIN
-5.5058	ASSAULTS
-5.2048	ASSEMBLED
-5.5058	ASSEMBLING
-5.0287	ASSERT	-0.2343
-5.5058	ASSIGN
-5.5058	ASSIGNMENT
-3.9495	ASSISTANCE	-0.5145
-4.8069	ASSISTANT
-4.3597	ASSOCIATED	-0.2068
-4.7277	ASSOCIATES
-5.2048	ASSOCIATIONS
-4.8069	ASSUME	-0.0895
-4.6027	ASSUMED	-0.0990
-3.8069	ASSURE	-0.9319
-4.0434	ASSURED	-0.4606
-5.0287	ASSUREDLY
-4.9038	ASSURES	-0.6484
-5.2048	ASSURING
-5.5058	ASTHMA
-5.5058	ASTONISHINGLY
-5.5058	ASTRONOMY
-5.5058	ASTROPHYSICS
-2.1269	AT	-1.3613
-5.2048	ATE
-5.5058	ATHEISTS
-5.2048	ATHLETIC
-4.3919	ATMOSPHERE	-0.2968
-5.5058	ATOMIC
-5.5058	ATOMS
-5.5058	ATOP
-5.2048	ATTACH
-4.2506	ATTACK	-0.2228
-4.4267	ATTACKED	-0.2486
-4.5516	ATTEMPTED	-0.2771
-5.2048	ATTENDANCE
-5.5058	ATTENDANTS
-3.5868	ATTENTION	-0.6361
-4.6027	ATTITUDE
-4.5058	ATTRACTED	-0.1274
-4.9038	ATTRACTIVE
-5.5058	ATTRIBUTED
-5.5058	ATYPICAL
-5.5058	AUBURN
-5.0287	AUDIENCE	-0.2034
-5.5058	AUDIO
-5.5058	AUDITION
-5.5058	AUDITORS
-5.5058	AUDITORY
-5.5058	AUDITS
-5.5058	AUGMENTED
-5.5058	AUNT
-4.8069	AUSTERE	-0.1284
-4.9038	AUTHOR	-0.3972
-5.5058	AUTHOR'S
-4.6607	AUTHORITIES	-0.0766
-4.6027	AUTHORITY	-0.1740
-5.5058	AUTHORIZATION
-5.5058	AUTHORIZED
-5.5058	AUTISTIC
-5.5058	AUTOFLUORESCENCE
-5.5058	AUTOGRAPHS
-5.5058	AUTOMATIC
-5.5058	AUTOMOBILE
-5.5058	AUTONOMY
-4.8069	AUTUMN
-5.2048	AVAILABLE
-5.5058	AVALANCHE
-5.2048	AVERAGE
-5.5058	AVOCADO
-5.5058	AVOCADOS
-4.4267	AVOID	-0.0906
-5.0287	AVOIDED
-5.5058	AVOIDING
-5.5058	AVOWED
-5.5058	AW
-5.5058	AWARDS
-3.8156	AWARE	-0.7829
-3.0103	AWAY	-0.5796
-5.2048	AWE
-4.6027	AWKWARD	-0.0365
-4.9038	AWOKE
-5.5058	AXIS
-5.5058	BABBLED
-5.5058	BABOON'S
-2.8130	BACK	-0.6465
-4.6027	BACKED	-0.0760
-5.5058	BACKGROUNDS
-4.2506	BACKWARD	-0.5136
-5.5058	BACKYARDS
-5.5058	BACTERIA
-3.6863	BAD	-0.2391
-5.5058	BADNESS
-5.5058	BAFFLE
-4.0745	BAG	-0.3878
-5.5058	BAGPIPES
-5.0287	BAGS	-0.5263
-5.5058	BAKE
-4.4644	BALANCE	-0.1149
-5.5058	BALE
-5.0287	BALEFUL	-0.2426
-4.6607	BALL	-0.0486
-5.5058	BALLET
-5.5058	BALLETS
-5.5058	BALLOONS
-5.5058	BALLPLAYER
-5.5058	BALLS
-5.5058	BALLYHOO
-5.5058	BANDAGED
-5.5058	BANDAGES
-4.1836	BANK	-0.2642
-5.0287	BANKERS
-4.9038	BANKS
-5.5058	BARB
-5.5058	BARB'S
-5.5058	BARBARIC
-5.5058	BARBECUE
-5.5058	BARBED
-4.6607	BARE	-0.1623
-5.5058	BARELY
-5.5058	BARGAINS
-4.7277	BARK	-0.0954
-5.5058	BARLEY
-5.5058	BARN
-5.5058	BAROMETRIC
-5.5058	BARRACUDA
-4.8069	BARRELS
-5.5058	BARRICADES
-5.5058	BARRIERS
-5.2048	BASE
-5.5058	BASEBALL
-5.5058	BASEBALL'S
-5.2048	BASED
-5.5058	BASIC
-4.7277	BASIS
-5.5058	BASKETBALL
-4.4644	BATH	-0.2708
-5.5058	BATHE
-5.5058	BATHING
-5.5058	BATHS
-5.5058	BATHTUBS
-5.5058	BATTERY
-5.5058	BATTING
-4.7277	BAY	-0.0652
-5.5058	BAYED
-5.5058	BAYONET
-5.5058	BAYOU
-5.5058	BAZAAR
-2.2648	BE	-0.3360
-5.2048	BEACH
-5.5058	BEANS
-4.0745	BEARD	-0.2058
-4.1634	BEAT	-0.1462
-5.5058	BEATNIKS
-3.9873	BEAUTIFUL	-0.1915
-5.0287	BEAUTIFULLY
-4.3297	BEAUTY	-0.1897
-5.5058	BECALMED
-3.9148	BECAME	-0.1929
-3.4566	BECAUSE	-0.6492
-5.5058	BECKONS
-3.9873	BECOME	-0.4748
-4.4267	BECOMES	-0.0918
-4.8069	BECOMING
-3.4930	BED	-0.3599
-5.5058	BEDLAM
-3.6425	BEDROOM	-0.4071
-4.5516	BEDROOMS	-0.0939
-5.2048	BEDS
-5.5058	BEEFSTEAK
-2.4688	BEEN	-0.3628
-5.5058	BEEP
-5.2048	BEER
-5.5058	BEERS
-2.6949	BEFORE	-0.7528
-4.0145	BEG	-0.6589
-3.6485	BEGAN	-0.7309
-4.6607	BEGGAR	-0.1510
-4.1441	BEGIN	-0.4080
-4.0007	BEGINNING	-0.5230
-4.8069	BEGINS	-0.2381
-5.0287	BEHAVED
-5.5058	BEHAVIOR
-3.2963	BEHIND	-0.9107
-3.3755	BEING	-0.2385
-5.5058	BELCHED
-3.4414	BELIEVE	-0.5894
-4.3597	BELIEVED	-0.4120
-5.5058	BELLHOPS
-5.5058	BELLOWS
-5.5058	BELLS
-4.8069	BELONG	-0.4106
-4.4644	BELONGS	-0.3406
-5.5058	BELOVED
-4.0145	BELOW	-0.3426
-5.5058	BELT
-5.2048	BENCH
-4.0007	BENEATH	-0.3955
-4.7277	BENEFIT	-0.0954
-5.5058	BENEFITS
-5.5058	BEQUESTS
-5.5058	BEREFT
-3.5420	BESIDE	-0.9353
-3.9148	BESIDES	-0.2043
-3.3952	BEST	-0.2641
-4.6027	BET
-5.5058	BETIDE
-4.6027	BETRAYED	-0.2594
-3.3155	BETTER	-0.2607
-3.2410	BETWEEN	-0.6915
-5.5058	BEVERAGE
-5.5058	BEVERAGES
-3.7500	BEYOND	-0.2530
-5.5058	BIASED
-5.5058	BIBLICAL
-5.5058	BIBLIOGRAPHIES
-5.5058	BICKERING
-5.5058	BIDDING
-4.0745	BIG	-0.0576
-5.5058	BIGGER
-5.5058	BIKE
-4.5058	BILL	-0.1163
-5.5058	BILLOWED
-4.8069	BILLS
-5.5058	BINOMIAL
-5.5058	BIOLOGICAL
-5.5058	BIOLOGISTS
-5.5058	BIOLOGY
-5.5058	BIRACIAL
-4.5058	BIRDS	-0.0483
-4.9038	BIRTH	-0.3317
-5.5058	BIRTHDAY
-5.5058	BISCUIT
-4.0434	BIT	-0.2825
-5.5058	BITES
-4.3017	BITTER	-0.1416
-5.5058	BIVOUAC
-4.8069	BIZARRE
-3.5816	BLACK	-0.2186
-5.5058	BLACKENED
-4.3017	BLAME	-0.3290
-4.6607	BLANK
-5.5058	BLANKETS
-5.5058	BLASPHEMOUS
-5.5058	BLASTDOWN
-5.5058	BLEACHERS
-5.0287	BLEND
-5.5058	BLEU
-4.7277	BLEW	-0.1952
-5.5058	BLINDNESS
-5.5058	BLISSFUL
-5.5058	BLISTERED
-5.5058	BLITZ
-5.5058	BLOAT
-4.6027	BLOCK	-0.0668
-5.5058	BLOCKADE
-5.2048	BLOCKS
-5.2048	BLONDE
-4.9038	BLOODED
-5.5058	BLOUSES
-3.8431	BLOW	-0.2169
-5.5058	BLOWERS
-4.6607	BLOWING
-4.0007	BLUE	-0.3021
-5.5058	BLUEJAY
-5.5058	BLUES
-5.5058	BLUFFS
-5.5058	BLUING
-5.5058	BLUISH
-4.8069	BLUNT	-0.2494
-5.5058	BLUNTLY
-4.3017	BOARD	-0.1247
-5.5058	BOARDINGHOUSES
-3.9744	BOAT	-0.2267
-5.5058	BOAT'S
-5.0287	BOB
-5.5058	BOBBY
-5.5058	BOBCAT
-5.5058	BODIED
-5.5058	BODIES
-3.5146	BODY	-0.4360
-5.5058	BOG
-5.5058	BOGGED
-5.2048	BOIL
-5.2048	BOILING	-0.4469
-4.6027	BOLD
-4.8069	BOLT
-5.5058	BOMB
-5.5058	BOMBS
-4.7277	BONE	-0.1908
-4.3919	BONES	-0.2588
-5.5058	BONFIRE
-5.5058	BONGOS
-3.7500	BOOK	-0.2978
-4.0287	BOOKS	-0.2611
-5.5058	BOOM
-5.5058	BOOMERANG
-5.5058	BOOST
-5.5058	BOOTLEGGERS
-3.9376	BOOTS	-0.2388
-4.9038	BORED
-5.5058	BORING
-5.0287	BORN
-5.2048	BORROW
-4.3919	BOSS	-0.0949
-5.5058	BOSTON
-3.3628	BOTH	-0.1940
-5.2048	BOTHER
-5.5058	BOTHERS
-4.2754	BOTTLE	-0.1142
-3.9744	BOTTOM	-0.7036
-5.5058	BOTTOMED
-4.3297	BOUGHT	-0.1475
-5.5058	BOUNCE
-4.7277	BOUNDED	-0.0960
-5.2048	BOUNDS
-5.5058	BOURGEOISIE
-5.2048	BOWL
-3.4765	BOX	-0.2600
-3.6798	BOY	-0.1419
-4.8069	BOY'S
-4.3297	BOYS	-0.0732
-5.5058	BRACELET
-5.5058	BRAIDING
-3.9261	BRAIN	-0.2802
-5.5058	BRAKES
-5.0287	BRANCH	-0.2337
-5.0287	BRAND
-4.7277	BRAVE	-0.1033
-5.0287	BREAD	-0.2314
-3.8826	BREAK	-0.4309
-5.5058	BREAKDOWN
-3.7205	BREAKFAST	-0.3150
-4.2271	BREAKING	-0.1869
-4.0909	BREAST	-0.3134
-4.0909	BREATH	-0.2851
-5.2048	BREATHED
-5.5058	BREATHLESSLY
-5.5058	BREED
-5.5058	BREEZE
-4.4267	BRICK	-0.1301
-4.6607	BRICKS	-0.1229
-5.5058	BRIDAL
-4.8069	BRIDE	-0.0895
-5.2048	BRIDE'S
-4.0287	BRIDGE	-0.3394
-5.5058	BRIDGES
-4.7277	BRIEF
-4.9038	BRIEFLY
-4.0587	BRIGHT	-0.2410
-4.7277	BRIGHTER	-0.1040
-4.5516	BRIGHTLY	-0.1093
-5.5058	BRIM
-3.5816	BRING	-0.4926
-4.6027	BRINGS
-5.5058	BRISTLES
-5.5058	BROCCOLI
-5.5058	BROCHURE
-5.5058	BROIL
-3.7576	BROKE	-0.5228
-3.7500	BROKEN	-0.1238
-5.5058	BRONC
-3.6137	BROTHER	-0.2493
-5.2048	BROTHER'S
-3.2936	BROUGHT	-0.5935
-3.9744	BROWN	-0.0986
-4.2506	BROWS	-0.2584
-5.2048	BRUISES
-5.0287	BRUSH
-5.5058	BRUSHY
-5.5058	BUBBLES
-5.5058	BUCKLE
-5.5058	BUDDIES
-5.5058	BUDDY
-5.5058	BUFF
-5.5058	BUFFALO
-5.5058	BUGEYED
-5.5058	BUGGED
-5.5058	BUGLE
-5.0287	BUILD
-5.5058	BUILDERS
-4.0434	BUILDING	-0.2453
-5.0287	BUILDINGS
-4.3597	BUILT	-0.2350
-5.5058	BULGED
-4.6027	BULL	-0.2656
-4.3017	BULLET	-0.1869
-4.9038	BULLETS
-5.5058	BUM
-5.5058	BUMP
-5.5058	BUNGALOW
-5.5058	BUNKS
-5.5058	BUNS
-5.5058	BUREAUCRACY
-4.2506	BURGLAR	-0.0908
-4.9038	BURN	-0.3850
-4.2048	BURNED	-0.0961
-5.5058	BURNER
-4.2754	BURNING	-0.1895
-4.0287	BURST	-0.4853
-5.2048	BURSTING
-5.0287	BURY	-0.2414
-5.2048	BUS
-5.5058	BUSHEL
-3.2482	BUSINESS	-0.3315
-4.1634	BUSY	-0.1432
-2.1517	BUT	-0.7723
-5.5058	BUTCHER
-5.2048	BUTTER
-5.5058	BUTTERFLY
-5.5058	BUTTERSCOTCH
-5.5058	BUTTONHOLES
-4.8069	BUTTONS	-0.0895
-4.4644	BUY	-0.1577
-5.5058	BUYER
-5.2048	BUYING
-5.5058	BUYS
-5.5058	BUZZ
-5.0287	BUZZING	-0.2358
-2.5683	BY	-0.6224
-5.5058	C'MON
-3.5146	CAB	-0.3189
-5.5058	CABINETS
-4.7277	CABLE
-5.5058	CAFE
-5.5058	CAFETERIA
-4.8069	CAGE	-0.3824
-5.5058	CALCIUM
-5.5058	CALENDAR
-5.5058	CALENDARS
-5.5058	CALF
-5.5058	CALICO
-3.5764	CALL	-0.5444
-3.6607	CALLED	-0.3400
-4.5058	CALLING	-0.0579
-4.5516	CALLS	-0.0274
-4.5516	CALM
-2.7751	CAME	-0.7314
-5.5058	CAMEO
-5.5058	CAMERA
-4.6607	CAMP	-0.1229
-5.5058	CAMPING
-5.5058	CAMPUS
-2.6126	CAN	-0.6749
-3.6250	CAN'T	-0.3042
-5.5058	CANDIES
-4.7277	CANDLES	-0.0932
-5.5058	CANDY
-5.5058	CANISTER
-5.5058	CANNED
-3.3127	CANNOT	-0.3677
-5.5058	CANOES
-5.5058	CANTALOUPE
-5.5058	CANTEEN
-5.5058	CANTER
-5.5058	CAP'N
-4.3017	CAPABLE	-0.5928
-5.5058	CAPILLARY
-4.2754	CAPITAL	-0.2027
-5.2048	CAPITALISTS
-5.5058	CAPITALIZE
-5.5058	CAPSULE
-4.5058	CAPTAIN	-0.0675
-5.0287	CAPTURED
-4.6027	CAR	-0.0990
-5.5058	CAR'S
-5.5058	CARAWAY
-4.8069	CARDBOARD	-0.2493
-4.1441	CARDS	-0.1204
-3.7424	CARE	-0.4787
-5.5058	CAREFREE
-4.1256	CAREFUL	-0.4075
-3.9495	CAREFULLY	-0.1901
-5.5058	CARL
-5.5058	CAROL
-5.5058	CARPENTER
-4.0007	CARPET	-0.2749
-3.6798	CARRIAGE	-0.1669
-3.6546	CARRIED	-0.4216
-5.5058	CARRIES
-3.9261	CARRY	-0.2841
-4.2271	CARRYING	-0.2440
-5.5058	CARS
-4.3919	CART	-0.1914
-5.5058	CARTILAGE
-5.5058	CARTOON
-5.5058	CARTOONS
-5.0287	CARVED
-2.9137	CASE	-0.4450
-3.6798	CASES	-0.2170
-5.0287	CASH
-5.5058	CASHMERE
-5.5058	CASSANDRA
-4.1441	CAST	-0.2072
-5.5058	CASTOR
-5.5058	CASTORBEANS
-5.2048	CASUAL
-5.5058	CASUALLY
-4.5058	CAT	-0.0769
-5.5058	CAT'S
-5.5058	CATASTROPHIC
-4.0434	CATCH	-0.2410
-5.5058	CATEGORIES
-5.5058	CATKINS
-5.5058	CATS
-4.8069	CATTLE	-0.0895
-3.6929	CAUGHT	-0.6529
-5.5058	CAULIFLOWER
-3.9148	CAUSED	-0.5004
-4.6607	CAUSES	-0.0486
-5.5058	CAUSEWAY
-4.6027	CAUTION	-0.1740
-5.5058	CAVITY
-4.8069	CEASE	-0.1177
-4.2754	CEILING	-0.2696
-5.5058	CELEBRATE
-5.5058	CELEBRATES
-5.5058	CELLOPHANE
-5.0287	CELLS
-5.5058	CEMENT
-5.5058	CENSORSHIP
-5.5058	CENSUS
-4.9038	CENT	-0.1288
-5.5058	CENTERED
-5.5058	CENTERING
-4.2506	CENTRAL	-0.1972
-3.8069	CENTRE	-0.7103
-5.5058	CENTRIFUGE
-5.5058	CENTS
-4.8069	CENTURIES
-4.4267	CENTURY	-0.0097
-5.5058	CERAMIC
-5.5058	CEREAL
-5.5058	CEREBRAL
-3.5974	CERTAIN	-0.3197
-3.2831	CERTAINLY	-0.2726
-5.5058	CHABLIS
-3.9873	CHAIN	-0.3264
-3.2910	CHAIR	-0.5921
-4.3597	CHAIRS	-0.1114
-5.2048	CHALLENGE
-5.2048	CHALLENGED
-4.0587	CHAMBER	-0.1830
-3.4846	CHANCE	-0.4300
-3.7816	CHANGE	-0.3518
-4.3017	CHANGED	-0.2218
-4.7277	CHANGES
-5.0287	CHANGING
-5.5058	CHAOS
-3.7816	CHARACTER	-0.3176
-4.9038	CHARACTERISTICS
-4.9038	CHARACTERS
-3.9495	CHARGE	-0.3448
-4.9038	CHARGED	-0.3402
-5.5058	CHARLIE'S
-4.8069	CHARM	-0.1198
-5.5058	CHARMER
-4.6027	CHART	-0.1255
-5.5058	CHASES
-5.5058	CHASING
-5.5058	CHASTITY
-5.0287	CHATTERING
-5.5058	CHAUFFEUR
-5.5058	CHAW
-5.5058	CHEAP
-5.2048	CHEATING
-4.0745	CHECK	-0.2101
-5.5058	CHECKED
-4.8069	CHEEK	-0.0895
-5.5058	CHEESE
-5.5058	CHEETAL
-4.3597	CHEMICAL	-0.3101
-5.0287	CHEMICALS
-4.2506	CHEST	-0.3319
-5.0287	CHESTNUTS	-0.2034
-5.5058	CHESTS
-5.5058	CHEW
-5.0287	CHICKEN	-0.2034
-4.4644	CHIEF	-0.0659
-5.5058	CHIEFLY
-3.8526	CHILD	-0.2730
-4.9038	CHILDHOOD	-0.3036
-4.0007	CHILDREN	-0.2769
-5.2048	CHILLED
-5.5058	CHILLS
-5.2048	CHIP
-5.5058	CHIPPER
-5.5058	CHIVES
-5.5058	CHLORIDE
-5.5058	CHLORINE
-5.5058	CHOCOLATE
-5.5058	CHOICES
-5.5058	CHOIR
-5.5058	CHOKE
-4.2271	CHOOSE	-0.3854
-4.7277	CHOOSING	-0.1000
-5.5058	CHOP
-5.5058	CHOPPED
-5.5058	CHOREOGRAPHER
-5.5058	CHORTLED
-5.5058	CHORUSED
-4.4644	CHOSE	-0.1239
-4.2506	CHOSEN	-0.2382
-5.5058	CHROME
-5.5058	CHRONICLERS
-5.5058	CHRONOLOGICAL
-5.5058	CHRONOLOGICALLY
-5.5058	CHUCK
-4.2271	CHUCKLED	-0.6664
-4.2271	CHURCH	-0.2122
-3.8931	CIGAR	-0.3469
-4.1079	CIGARETTE	-0.3103
-4.4267	CIGARETTES	-0.0906
-5.5058	CINCH
-5.5058	CINEMATIC
-4.1634	CIRCLE	-0.3544
-5.2048	CIRCLED
-3.9744	CIRCUMSTANCES	-0.1621
-4.7277	CITIZEN	-0.1571
-5.5058	CITIZENSHIP
-3.8724	CITY	-0.2447
-4.6607	CIVIL	-0.8950
-5.5058	CIVILIAN
-5.0287	CIVILIZATION	-0.2034
-4.9038	CIVILIZED
-4.9038	CLAIMED
-5.5058	CLAMP
-5.5058	CLAMS
-5.5058	CLAMSHELL
-4.9038	CLAPPING	-0.1668
-5.5058	CLARIFICATION
-5.5058	CLARIFIED
-5.5058	CLARIFY
-5.5058	CLASHED
-5.2048	CLASP	-0.4468
-4.8069	CLASPED
-4.2506	CLASS	-0.3394
-5.5058	CLASSICAL
-5.5058	CLASSROOMS
-4.9038	CLATTER	-0.6422
-5.5058	CLAUSE
-4.6607	CLAY	-0.0486
-4.1634	CLEAN	-0.2957
-5.0287	CLEANED
-5.5058	CLEANERS
-5.5058	CLEANING
-5.5058	CLEANS
-3.1614	CLEAR	-0.4023
-4.0007	CLEARED	-0.1706
-4.5516	CLEARER	-0.0812
-4.3017	CLEARING	-0.3179
-3.8337	CLEARLY	-0.1559
-5.5058	CLERK'S
-4.6607	CLERKS
-4.3597	CLEVER	-0.1749
-5.2048	CLIFF
-5.5058	CLIFF'S
-5.5058	CLIMATES
-5.5058	CLIMAX
-4.6607	CLIMBED	-0.0868
-5.2048	CLIMBING
-5.5058	CLINCHES
-5.2048	CLING
-5.5058	CLOCKWORK
-3.5713	CLOSE	-0.4723
-4.8069	CLOSER	-0.1176
-5.5058	CLOSET
-4.3597	CLOSING	-0.2424
-5.5058	CLOT
-4.7277	CLOTH	-0.1571
-3.8826	CLOTHES	-0.2582
-5.5058	CLOTHESHORSE
-4.9038	CLOTHING
-5.5058	CLOTTED
-4.2271	CLOUD	-0.2235
-5.5058	CLOUDBURST
-4.4644	CLOUDS	-0.0540
-5.5058	CLOVERLEAF
-4.1079	CLUB	-0.1038
-5.0287	CLUMSY
-5.0287	COACH
-5.5058	COAGULATING
-4.5058	COAL	-0.3017
-5.5058	COALITION
-4.9038	COALS
-4.5516	COAST	-0.1146
-3.8931	COAT	-0.3392
-5.5058	COAUTHORS
-5.5058	COBBLER'S
-5.5058	COCONUT
-5.5058	COCONUTS
-4.7277	CODE
-5.5058	CODES
-5.5058	COEDUCATIONAL
-5.5058	COEXIST
-4.1836	COFFEE	-0.1851
-5.5058	COFFERS
-5.0287	COIL
-5.5058	COIN
-5.5058	COINCIDED
-4.8069	COINS
-5.5058	COKE
-3.8156	COLD	-0.2642
-5.5058	COLESLAW
-5.5058	COLLARED
-5.2048	COLLEAGUES
-4.6607	COLLECTION	-0.1229
-5.5058	COLLECTS
-5.5058	COLLEGES
-5.5058	COLLIE
-5.5058	COLLUSION
-5.5058	COLOR
-5.5058	COLORED
-5.5058	COLORFUL
-5.2048	COLOSSAL
-4.2048	COLUMN	-0.3204
-5.5058	COMBINE
-5.2048	COMBUSTION
-2.6883	COME	-0.7412
-3.6546	COMES	-0.1871
-3.4684	COMING	-0.3582
-4.4644	COMMAND	-0.1249
-5.0287	COMMENT
-5.5058	COMMERCIAL
-3.8826	COMMON	-0.1676
-4.3017	COMMONPLACE	-0.0666
-5.5058	COMMUNISM
-4.6027	COMMUNITY	-0.0990
-5.5058	COMPACT
-4.2754	COMPANIONS	-0.0686
-3.7500	COMPANY	-0.3178
-4.8069	COMPANY'S	-0.1290
-5.5058	COMPARABLE
-4.6607	COMPARE	-0.0794
-5.0287	COMPARISON	-0.2337
-4.9038	COMPENSATION	-0.1288
-5.5058	COMPETENTLY
-5.5058	COMPETING
-5.5058	COMPETITION
-5.5058	COMPETITIVE
-5.5058	COMPETITORS
-5.5058	COMPILE
-3.7816	COMPLETE	-0.1950
-4.3597	COMPLETELY	-0.1701
-4.4267	COMPLEX	-0.1458
-5.5058	COMPLEXITY
-5.2048	COMPLIANCE
-4.9038	COMPLICATED
-5.5058	COMPLICITY
-5.5058	COMPOSE
-5.2048	COMPOSITION
-5.5058	COMPOSITIONS
-5.5058	COMPOST
-4.7277	COMPOSURE	-0.1932
-5.5058	COMPOUND
-5.5058	COMPOUNDED
-5.5058	COMPOUNDS
-5.5058	COMPRESSES
-5.5058	COMPULSION
-5.5058	COMPULSORY
-5.5058	COMPUTER
-5.5058	COMPUTERS
-4.4644	COMRADES	-0.2507
-4.9038	CONCEIVABLY
-4.9038	CONCEIVED	-0.3228
-5.5058	CONCEPT
-4.5516	CONCERN	-0.0274
-4.9038	CONCERNS
-5.2048	CONCERT
-5.5058	CONCESSIONAIRE
-3.9261	CONCLUSION	-0.4516
-4.3597	CONCLUSIONS	-0.1220
-5.5058	CONCRETE
-5.5058	CONCURRENT
-5.5058	CONDEMNS
-4.2506	CONDITION	-0.2348
-4.6607	CONDITIONS	-0.0486
-5.5058	CONFABULATION
-5.5058	CONFERENCES
-3.8069	CONFIDENCE	-0.4257
-5.0287	CONFIDENT	-0.5573
-5.2048	CONFIDENTIAL
-5.5058	CONFIGURATION
-5.5058	CONFINES
-5.0287	CONFIRM
-5.5058	CONFIRMATION
-5.5058	CONFORMATIONAL
-5.5058	CONFORMISTS
-4.6607	CONFRONTED	-0.2914
-4.8069	CONFUSION	-0.2380
-5.5058	CONGESTION
-4.3297	CONGRATULATE	-0.7348
-5.5058	CONGREGATION
-5.5058	CONJURED
-5.0287	CONNOISSEUR
-4.3297	CONSCIENCE	-0.0613
-4.5516	CONSEQUENCES	-0.1618
-5.5058	CONSERVATISM
-3.9873	CONSIDER	-0.3947
-3.9744	CONSIDERABLE	-0.0792
-4.4644	CONSIDERABLY	-0.0752
-4.3919	CONSIDERED	-0.1658
-4.6607	CONSIDERING	-0.0795
-5.5058	CONSISTENTLY
-4.9038	CONSISTS	-0.6422
-5.5058	CONSOLIDATION
-5.0287	CONSPICUOUS
-4.9038	CONSTANTLY	-0.1612
-5.5058	CONSTRUCTION
-5.5058	CONSTRUCTIONS
-5.5058	CONSUME
-5.5058	CONSUMERS
-5.2048	CONSUMING
-5.0287	CONSUMPTION	-0.2337
-4.6607	CONTACT	-0.6277
-5.5058	CONTAGIOUS
-5.0287	CONTAIN
-4.3597	CONTAINED	-0.1106
-5.5058	CONTAINER
-5.5058	CONTAINS
-5.5058	CONTEMPORARY
-5.5058	CONTENTEDLY
-5.5058	CONTINENTAL
-4.3919	CONTINUE	-0.4275
-3.8931	CONTINUED	-0.2202
-5.5058	CONTINUES
-5.2048	CONTINUING
-5.2048	CONTINUOUS
-5.5058	CONTINUOUSLY
-5.5058	CONTRADICTORILY
-4.0434	CONTRARY	-0.2182
-4.5516	CONTRAST	-0.2712
-5.5058	CONTRIBUTE
-5.5058	CONTRIBUTED
-5.5058	CONTRIBUTIONS
-5.5058	CONTRIBUTORY
-4.6027	CONTROL	-0.0990
-5.0287	CONTROLLED
-5.5058	CONTROLS
-4.6027	CONVENIENT	-0.2353
-5.5058	CONVERTED
-4.8069	CONVEY
-4.4644	CONVICTION	-0.1156
-4.9038	CONVINCE	-0.1609
-4.9038	CONVINCING
-4.5058	COOK	-0.0202
-5.5058	COOKED
-5.5058	COOKIES
-5.5058	COOKING
-4.5516	COOL	-0.2074
-5.5058	COOPERATED
-5.5058	COOPERATES
-4.7277	COOPERATION	-0.0652
-5.5058	COOPERATIVE
-5.5058	COP
-5.0287	COPPER
-5.5058	COPRA
-4.1836	COPY	-0.3594
-5.5058	CORDIAL
-5.5058	CORDUROY
-5.5058	CORN
-3.6485	CORNER	-0.5009
-5.5058	CORNERED
-5.5058	CORNMEAL
-5.5058	COROLLARIES
-4.0007	CORRECT	-0.2155
-5.5058	CORRUGATED
-5.5058	CORSAGE
-5.5058	CORY
-5.5058	COSMETICS
-4.4267	COST	-0.2740
-5.5058	COSTLY
-5.5058	COSTS
-4.9038	COSTUME	-0.1288
-5.5058	COSTUMES
-3.9744	COTTAGE	-0.1891
-5.5058	COTTON
-5.5058	COUGH
-2.4789	COULD	-0.6812
-5.5058	COULD'VE
-4.1256	COULDN'T	-0.1079
-5.0287	COUNT
-5.2048	COUNTED	-0.4266
-4.9038	COUNTIES	-0.1683
-3.4451	COUNTRY	-0.3021
-4.6027	COUNTRYSIDE	-0.0365
-4.4267	COUNTY
-5.5058	COUPLES
-5.5058	COURIER
-3.1694	COURSE	-0.4309
-4.0007	COURT	-0.3888
-4.9038	COURTS	-0.3948
-5.0287	COURTYARD
-4.1079	COVER	-0.1012
-5.5058	COVERAGE
-4.0145	COVERED	-0.2242
-4.9038	COVERS	-0.1480
-5.2048	COW
-4.8069	COWARD	-0.2099
-5.5058	COWBOY
-5.5058	COWBOY'S
-5.5058	COWLING
-4.6607	COWS	-0.2534
-5.5058	COY
-5.5058	COYOTE
-5.5058	CRAB
-5.5058	CRACK
-4.7277	CRACKED
-4.7277	CRAFT
-5.5058	CRANBERRY
-4.7277	CRASH	-0.0652
-5.2048	CRASHED
-5.2048	CRASHING	-0.4460
-5.5058	CRAVE
-4.8069	CRAWLING
-5.5058	CRAYONS
-5.5058	CRAZILY
-4.9038	CRAZY
-4.9038	CREAM	-0.1288
-5.5058	CREATE
-5.0287	CREATED
-5.5058	CREATION
-4.1079	CREDIT	-0.2050
-5.2048	CREEPING
-5.5058	CREOLE
-4.6607	CREPT	-0.0868
-5.5058	CREST
-5.2048	CRESTFALLEN
-4.7277	CREW
-4.8069	CRIMSON	-0.2099
-4.5516	CRISIS	-0.0812
-5.5058	CRISP
-5.5058	CRISS
-5.5058	CRISSCROSSED
-5.2048	CRITICAL
-5.5058	CROOKED
-5.5058	CROPS
-4.0434	CROSS	-0.1348
-4.2754	CROSSED	-0.1873
-5.5058	CROSSINGS
-5.5058	CROSSROADS
-4.4644	CROWD	-0.1046
-4.7277	CROWN	-0.1571
-5.0287	CRUCIAL
-5.5058	CRUCIFIED
-5.5058	CRUDE
-5.5058	CRUDELY
-4.5058	CRUEL	-0.1064
-4.9038	CRUELTY
-5.5058	CRUNCHED
-4.6607	CRUSHED
-5.5058	CRUSHERS
-3.7898	CRY	-0.3786
-5.5058	CRYSTALLINE
-5.5058	CRYSTALLIZING
-5.5058	CUBIC
-5.5058	CUISINE
-5.2048	CULTIVATED
-5.5058	CULTURAL
-5.5058	CULTURES
-5.5058	CUPCAKES
-5.5058	CUPS
-4.7277	CURE	-0.2773
-5.5058	CURED
-4.1441	CURIOSITY	-0.2822
-3.8526	CURIOUS	-0.0549
-5.2048	CURIOUSLY
-5.5058	CURLY
-5.5058	CURRENT
-5.2048	CURRY
-4.4267	CURVE	-0.2142
-5.5058	CURVES
-4.7277	CUSTODY	-0.1908
-4.9038	CUSTOMER	-0.1591
-5.5058	CUSTOMERS
-3.5868	CUT	-0.2341
-5.5058	CUTBACKS
-4.9038	CUTS
-5.0287	CUTTING	-0.2383
-5.5058	CYCLICAL
-5.5058	CYNICS
-4.6607	DAD	-0.0863
-4.7277	DAILY
-5.5058	DAMAGE
-5.5058	DAMAGED
-4.8069	DAMP
-4.8069	DANCE
-5.5058	DANCERS
-5.5058	DANCES
-3.6137	DANGER	-0.3216
-3.8931	DANGEROUS	-0.1182
-4.8069	DANGERS	-0.0895
-5.5058	DANNY
-5.5058	DAPHNE'S
-3.4340	DARK	-0.2352
-3.8826	DARKNESS	-0.5499
-5.0287	DARNED
-4.9038	DASH
-4.3597	DATA	-0.1843
-4.1441	DATE	-0.1510
-5.5058	DAVY
-4.6027	DAWN	-0.0365
-3.0103	DAY	-0.5041
-5.5058	DAYDREAMED
-3.3787	DAYS	-0.4322
-5.2048	DAYTIME
-3.3385	DEAD	-0.5683
-5.5058	DEADLINE
-3.6929	DEAL	-0.4567
-5.5058	DEALERS
-5.5058	DEANS
-3.5920	DEAR	-0.5337
-3.3628	DEATH	-0.4060
-5.2048	DEBTS
-5.5058	DEBUT
-5.5058	DECADENT
-5.5058	DECAYING
-5.5058	DECAYS
-5.5058	DECEITFUL
-5.5058	DECEIVING
-5.2048	DECEMBER
-4.5516	DECIDE	-0.3538
-4.9038	DECIDED
-5.5058	DECIDES
-5.5058	DECISIONS
-5.2048	DECISIVE
-4.5516	DECK	-0.3673
-5.5058	DECKING
-4.6607	DECLARED	-0.3649
-5.2048	DECLINING	-0.4466
-5.5058	DECORATE
-5.5058	DECORATED
-5.5058	DECORATIVE
-5.5058	DECORATOR
-5.5058	DECREASE
-5.5058	DEDUCT
-5.5058	DEDUCTIBLE
-4.3597	DEED	-0.4263
-3.7134	DEEP	-0.2118
-4.4644	DEEPER	-0.2752
-4.1441	DEEPLY	-0.2166
-5.2048	DEER
-5.5058	DEFECTS
-5.5058	DEFEND
-5.5058	DEFENDED
-4.8069	DEFENSE
-5.5058	DEFENSIVE
-5.0287	DEFIANTLY
-4.9038	DEFINE	-0.1480
-4.1836	DEFINITE	-0.0945
-5.2048	DEFINITELY
-4.5058	DEGREE	-0.2177
-5.2048	DEGREES
-5.5058	DELEGATED
-5.5058	DELETE
-4.1836	DELICATE	-0.0399
-5.5058	DELICIOUS
-4.3297	DELIGHT	-0.3670
-5.5058	DELIGHTFUL
-5.5058	DELINEATING
-5.5058	DELIVERING
-4.6607	DEMAND	-0.0768
-5.0287	DEMANDED
-5.0287	DEMANDS	-0.2034
-5.5058	DEMINERALIZATION
-4.9038	DEMONSTRATION	-0.1288
-4.9038	DENSE	-0.1682
-5.5058	DENSITY
-5.5058	DENUNCIATION
-4.4267	DENY	-0.6170
-5.2048	DEPARTMENTS
-4.4267	DEPARTURE	-0.0906
-4.3597	DEPEND	-0.4454
-5.5058	DEPICTS
-5.5058	DEPLETION
-5.5058	DEPRECIATION
-5.5058	DEPRIVE
-5.5058	DEPUTY
-5.5058	DERELICTION
-5.5058	DERIVED
-5.5058	DERIVING
-4.5058	DESCRIBE	-0.2223
-4.1079	DESCRIBED	-0.2189
-5.5058	DESEGREGATE
-5.5058	DESEGREGATION
-5.5058	DESERVES
-4.6607	DESIGN
-5.5058	DESIGNER
-5.0287	DESIRABLE
-3.9744	DESIRE	-0.3402
-4.7277	DESIRES	-0.4741
-4.1256	DESK	-0.3068
-5.5058	DESOLATION
-4.1079	DESPAIR	-0.4552
-5.0287	DESPERATELY
-5.5058	DESPISED
-5.5058	DESPITE
-5.5058	DESSERT
-5.5058	DESSERTS
-4.8069	DESTINY	-0.0895
-4.7277	DESTROY	-0.2407
-5.2048	DESTROYING
-4.1441	DETAIL	-0.1826
-4.8069	DETAILED	-0.2493
-3.6997	DETAILS	-0.4262
-5.5058	DETECTABLE
-5.2048	DETECTIVE'S
-4.6607	DETERMINATION	-0.2454
-4.6027	DETERMINE	-0.0990
-3.8724	DETERMINED	-0.5719
-5.5058	DETRACT
-5.5058	DEVELOP
-5.2048	DEVELOPED
-5.5058	DEVELOPING
-4.2506	DEVELOPMENT	-0.3480
-4.6607	DEVICE	-0.0486
-5.5058	DEVOUR
-5.5058	DEW
-5.5058	DIAGNOSED
-5.5058	DIAGNOSIS
-5.5058	DIAGONALLY
-5.5058	DIAGRAM
-5.5058	DIANE
-5.5058	DIARRHOEA
-5.5058	DICE
-5.5058	DICTATORS
-5.2048	DICTIONARY
-2.7409	DID	-0.7328
-3.7898	DIDN'T	-0.2162
-4.2271	DIE	-0.0622
-3.7898	DIED	-0.3103
-5.5058	DIET
-5.5058	DIFFER
-4.4644	DIFFERENCE	-0.3435
-5.5058	DIFFERENCES
-3.8931	DIFFERENT	-0.2331
-5.5058	DIFFERENTIATE
-5.5058	DIFFERENTLY
-3.7983	DIFFICULT	-0.4314
-5.5058	DIG
-4.6027	DIGNITY	-0.2962
-4.5058	DIM	-0.3333
-5.2048	DIME
-5.5058	DIMENSIONS
-5.5058	DIMES
-5.5058	DIMINISH
-5.5058	DIMINISHING
-5.5058	DINGO
-4.0909	DINNER	-0.2940
-5.5058	DIPLOMA
-3.6485	DIRECTION	-0.5579
-5.5058	DIRECTIONAL
-4.5058	DIRECTIONS	-0.1975
-5.5058	DIRECTOR
-5.5058	DIRECTORY
-5.5058	DIRT
-4.5058	DIRTY	-0.0202
-4.0587	DISAPPEARED	-0.3178
-4.5516	DISAPPOINTED	-0.2413
-5.5058	DISAPPROVAL
-5.5058	DISAPPROVES
-4.9038	DISASTER	-0.1288
-5.5058	DISCARD
-5.0287	DISCIPLINE
-5.5058	DISCIPLINED
-5.5058	DISCLAIMER
-5.5058	DISCOUNT
-5.5058	DISCOURAGED
-5.5058	DISCOURAGING
-3.9618	DISCOVERED	-0.2285
-5.5058	DISCRETIONARY
-4.7277	DISCUSSION	-0.1874
-5.5058	DISCUSSIONS
-4.3297	DISEASE	-0.0700
-5.5058	DISEASES
-4.5058	DISGUISE	-0.1417
-5.5058	DISGUSTING
-4.8069	DISH
-5.5058	DISHES
-5.5058	DISK
-5.5058	DISLIKED
-5.5058	DISLIKES
-5.5058	DISOBEYED
-5.5058	DISPEL
-5.5058	DISPENSING
-5.5058	DISPERSED
-5.5058	DISPLACEMENT
-5.2048	DISPLAY	-0.4376
-5.5058	DISPLAYED
-4.9038	DISPUTE	-0.1288
-5.5058	DISPUTES
-5.5058	DISREGARDING
-5.5058	DISREPAIR
-5.5058	DISSOLVE
-3.8931	DISTANCE	-0.2204
-5.5058	DISTANCES
-5.5058	DISTASTE
-4.6027	DISTINCT	-0.0760
-4.4644	DISTINGUISHED	-0.1964
-4.9038	DISTORTED
-5.0287	DISTRACTED
-5.0287	DISTRESS	-0.5263
-5.5058	DISTRIBUTED
-5.5058	DISTRICTS
-4.7277	DISTURB	-0.0973
-5.5058	DITCHES
-5.5058	DIVE
-5.5058	DIVERSITY
-4.6607	DIVIDED	-0.0880
-5.5058	DIVINITIES
-5.0287	DIVISION
-5.5058	DIVORCE
-5.5058	DIVORCED
-5.5058	DIVORCEE
-2.5195	DO	-0.8039
-3.5191	DOCTOR	-0.2942
-5.0287	DOCTORS
-5.5058	DOCTRINE
-5.5058	DOCUMENTED
-4.3597	DOCUMENTS	-0.1060
-5.5058	DODGING
-3.3853	DOES	-0.6719
-4.9038	DOESN'T
-3.6798	DOG	-0.2483
-5.5058	DOGMATICALLY
-4.8069	DOGS	-0.2099
-5.2048	DOIN'
-3.6082	DOING	-0.3134
-5.5058	DOLL
-4.6607	DOLLAR
-4.7277	DOLLARS
-5.5058	DOLPHINS
-5.5058	DOME
-5.5058	DOMESTIC
-5.2048	DOMINANT
-5.5058	DOMINATED
-3.0375	DON'T	-0.6291
-5.5058	DONATE
-5.5058	DONATED
-3.0230	DONE	-0.4939
-2.8310	DOOR	-0.5850
-4.1079	DOORS	-0.1578
-5.5058	DOORWAYS
-5.5058	DORMITORIES
-5.5058	DOSES
-4.3597	DOUBLE	-0.1089
-3.1878	DOUBT	-0.4999
-5.2048	DOUGH
-5.5058	DOUSED
-2.6997	DOWN	-0.7599
-5.5058	DOWNPOUR
-4.0287	DOWNSTAIRS	-0.2951
-5.5058	DOWNTOWN
-5.0287	DOWNWARD
-4.1079	DOZEN	-0.1234
-5.5058	DRAIN
-4.5516	DRAMATIC	-0.0598
-4.5516	DRANK	-0.0582
-5.5058	DRASTICALLY
-3.9038	DRAW	-0.1834
-3.9618	DRAWING	-0.3795
-5.5058	DRAWLED
-3.6308	DRAWN	-0.2534
-4.6027	DREAM	-0.2962
-4.8069	DREAMS	-0.2099
-5.5058	DRENCHED
-3.8931	DRESS	-0.1415
-4.2048	DRESSING	-0.6228
-5.5058	DRESSY
-3.6425	DREW	-0.4293
-4.7277	DRIED	-0.1954
-5.2048	DRIFT
-4.6027	DRIFTED	-0.2838
-4.7277	DRIFTING
-4.0587	DRINK	-0.1742
-5.5058	DRINKERS
-3.7424	DRIVE	-0.1398
-4.0145	DRIVEN	-0.1477
-5.5058	DRIVERS
-4.2271	DRIVING	-0.0917
-4.0909	DROP	-0.1725
-3.8246	DROPPED	-0.1800
-4.9038	DROPS	-0.3339
-5.5058	DROUGHT
-3.7424	DROVE	-0.2923
-4.7277	DRUG	-0.0932
-5.5058	DRUG'S
-5.0287	DRUGS
-5.5058	DRUGSTORE
-4.3919	DRUNK	-0.0684
-5.0287	DRUNKARD	-0.2034
-5.5058	DRUNKARDS
-5.5058	DRUNKENNESS
-4.3297	DRY	-0.0746
-5.5058	DRYING
-5.5058	DUBIOUS
-5.5058	DUCK
-5.5058	DUCKS
-4.2271	DUE	-0.5069
-5.0287	DUG
-4.3597	DULL	-0.0416
-5.2048	DUMB	-0.4073
-5.5058	DUMPED
-4.5058	DUPLICATE	-0.2098
-3.3986	DURING	-0.8704
-4.1256	DUST	-0.1924
-5.5058	DUSTING
-5.5058	DUTCH
-3.8826	DUTY	-0.1353
-5.5058	DWARF
-4.8069	DWELL
-5.5058	DYEING
-4.1836	DYING	-0.2985
-5.5058	DYNAMICS
-5.5058	DYNASTIC
-3.3269	EACH	-0.5026
-4.1634	EAGERLY	-0.3618
-4.5516	EAGERNESS	-0.0939
-4.1836	EAR	-0.5875
-4.3919	EARLIER	-0.2280
-3.7205	EARLY	-0.2982
-4.5516	EARN	-0.0466
-4.1836	EARNESTLY	-0.2451
-3.9376	EARS	-0.3231
-3.7576	EARTH	-0.1593
-5.5058	EARTH'S
-5.5058	EARTHENWARE
-5.2048	EARTHLY
-5.5058	EARTHQUAKE
-4.5058	EASE	-0.0483
-5.5058	EASED
-4.2754	EASIER	-0.2507
-3.9873	EASILY	-0.1628
-4.7277	EASTERN
-3.6997	EASY	-0.4458
-5.5058	EASYGOING
-4.3919	EAT	-0.1300
-4.9038	EATEN
-5.5058	EATING
-4.9038	ECCENTRICITY	-0.1288
-5.2048	ECHO
-5.5058	ECONOMIC
-5.5058	ECONOMICALLY
-5.0287	ECONOMY	-0.2034
-5.5058	ECUMENICAL
-4.0287	EDGE	-0.6921
-4.8069	EDGES	-0.1198
-5.5058	EDGY
-4.8069	EDUCATION	-0.2099
-5.5058	EDUCATIONAL
-3.7655	EFFECT	-0.4057
-4.6607	EFFECTIVE	-0.1229
-4.5058	EFFECTS	-0.4072
-5.5058	EFFICIENCY
-5.2048	EFFICIENT
-4.1634	EFFORT	-0.1605
-4.8069	EGG
-4.8069	EGGS
-5.5058	EGO
-5.5058	EGOTIST
-3.6863	EIGHT	-0.4671
-5.0287	EIGHTEENTH	-0.2429
-3.4724	EITHER	-0.2248
-5.5058	ELABORATELY
-5.5058	ELBOWING
-4.3017	ELDERLY	-0.6452
-5.5058	ELECTION
-4.5058	ELECTRIC	-0.5837
-5.5058	ELECTRICAL
-5.5058	ELECTRICITY
-5.5058	ELECTRON
-5.5058	ELECTRONIC
-5.5058	ELECTROSTATIC
-5.2048	ELEGANT
-5.2048	ELEMENT
-4.9038	ELEMENTARY	-0.1666
-5.5058	ELEMENTS
-5.5058	ELEVATOR
-3.8246	ELEVEN	-0.4669
-5.5058	ELLIPSOIDS
-4.6607	ELM	-0.2967
-5.5058	ELONGATION
-3.3755	ELSE	-0.3368
-4.3919	ELSEWHERE	-0.3509
-5.5058	EMBANKMENT
-5.2048	EMBLEM
-5.5058	EMBODIMENT
-5.5058	EMBRACING
-5.2048	EMERGE
-5.0287	EMERGENCY	-0.2034
-4.2271	EMOTION	-0.3361
-5.2048	EMOTIONAL
-5.5058	EMOTIONALLY
-4.4644	EMOTIONS	-0.0847
-5.0287	EMPEROR
-5.5058	EMPHASIS
-5.5058	EMPHASIZE
-5.5058	EMPHASIZED
-5.5058	EMPHYSEMA
-5.5058	EMPIRICAL
-5.5058	EMPLOYEE
-5.5058	EMPLOYEES
-4.5058	EMPLOYMENT	-0.0675
-3.8526	EMPTY	-0.4140
-5.5058	ENABLING
-5.5058	ENACT
-5.5058	ENAMEL
-5.5058	ENCAMPED
-5.5058	ENCLOSED
-5.5058	ENCOUNTERED
-5.2048	ENCOURAGE
-5.5058	ENCOURAGED
-5.5058	ENCYCLOPEDIAS
-3.1836	END	-0.6265
-5.5058	ENDEAVORED
-4.2048	ENDED	-0.3871
-5.5058	ENDOSPERM
-4.3597	ENDS	-0.0303
-5.5058	ENDURANCE
-4.2754	ENEMY	-0.2919
-3.8526	ENERGY	-0.2679
-4.6027	ENGINE	-0.1379
-4.7277	ENGINEER	-0.1908
-5.5058	ENGINEERING
-5.5058	ENGINEERS'
-5.5058	ENGULFED
-5.5058	ENIGMA
-4.6607	ENJOY	-0.2679
-5.0287	ENJOYED
-5.5058	ENLIGHTENMENT
-5.5058	ENLISTED
-4.5058	ENORMOUS	-0.0596
-3.1010	ENOUGH	-0.7727
-5.5058	ENRICH
-5.5058	ENSUE
-4.0745	ENTER	-0.3558
-5.5058	ENTERTAINING
-5.5058	ENTHUSIASTIC
-5.0287	ENTIRE
-3.7734	ENTIRELY	-0.0983
-5.5058	ENTITLE
-5.5058	ENTITY
-5.0287	ENTRIES
-5.5058	ENTROPY
-5.0287	ENTRY	-0.2034
-3.9495	ENVELOPE	-0.2769
-5.5058	ENVIRONMENT
-5.5058	ENVIRONMENTS
-5.5058	ENZYME
-5.5058	EPHEMERAL
-5.5058	EPIDEMIC
-4.8069	EPISODE	-0.2099
-4.6607	EQUAL	-0.0768
-4.2271	EQUALLY	-0.1716
-5.5058	EQUATION
-5.5058	EQUIPMENT
-5.5058	EQUIPPED
-5.5058	EQUIVALENT
-5.5058	ERA
-4.9038	ERECT
-5.5058	EROTIC
-5.5058	ERRORS
-5.5058	ERUPTION
-5.5058	ESCALATOR
-3.8826	ESCAPE	-0.2422
-5.5058	ESOTERIC
-4.1836	ESPECIALLY	-0.2291
-5.5058	ESSAY
-4.1634	ESSENTIAL	-0.2805
-5.5058	ESSENTIALLY
-5.2048	ESTABLISH
-4.4644	ESTABLISHMENT	-0.2507
-5.0287	ESTIMATE	-0.2337
-5.5058	ESTIMATES
-5.5058	ETC
-5.5058	ETERNAL
-5.5058	ETERNITY
-5.5058	ETIQUETTE
-5.5058	EVACUATE
-5.5058	EVALUATE
-5.5058	EVALUATED
-5.5058	EVALUATION
-5.5058	EVASIVE
-3.2678	EVEN	-0.3937
-3.2990	EVENING	-0.4002
-5.5058	EVENLY
-3.7655	EVENTS	-0.2404
-5.5058	EVENTUALITIES
-4.4267	EVENTUALLY	-0.0399
-3.1329	EVER	-0.2476
-3.0810	EVERY	-0.4715
-5.0287	EVERYBODY	-0.2367
-4.2754	EVERYONE	-0.1031
-3.6137	EVERYTHING	-0.2842
-3.6193	EVIDENCE	-0.3134
-3.8624	EVIDENT	-0.4771
-5.5058	EVOCATIVE
-5.2048	EVOLVE
-5.5058	EXACERBATED
-5.5058	EXACERBATIONS
-3.5420	EXACTLY	-0.7505
-4.8069	EXAGGERATED	-0.2613
-5.5058	EXAM
-3.8526	EXAMINATION	-0.5796
-3.6425	EXAMINED	-0.4451
-3.9873	EXAMPLE	-0.2615
-5.2048	EXAMPLES
-5.5058	EXBOYFRIEND
-3.7655	EXCELLENT	-0.2155
-4.2048	EXCEPT	-0.2798
-4.5058	EXCEPTION	-0.2016
-5.5058	EXCESS
-4.8069	EXCHANGE
-4.6027	EXCHANGED	-0.1306
-4.0434	EXCITED	-0.1142
-4.0145	EXCITEMENT	-0.3009
-5.5058	EXCITING
-5.5058	EXCLAIMING
-5.5058	EXCLUDED
-5.5058	EXCLUSIVE
-5.5058	EXECUTE
-4.9038	EXECUTION
-5.5058	EXECUTIVE
-4.4267	EXERCISE	-0.0961
-5.5058	EXERCISES
-5.0287	EXHIBITED
-5.5058	EXHIBITS
-5.5058	EXHUSBAND
-5.5058	EXIST
-4.8069	EXISTED	-0.0895
-4.1079	EXISTENCE	-0.3545
-5.2048	EXISTING
-5.5058	EXISTS
-5.5058	EXOTIC
-3.7576	EXPECT	-0.3761
-4.9038	EXPECTATIONS
-3.8431	EXPECTED	-0.4337
-4.4644	EXPECTING	-0.1855
-5.2048	EXPECTS	-0.4355
-4.6607	EXPENSE	-0.1229
-5.0287	EXPENSIVE
-3.8724	EXPERIENCE	-0.2772
-4.9038	EXPERIENCED
-4.6027	EXPERIMENT	-0.2042
-5.5058	EXPERIMENT'S
-5.5058	EXPERIMENTAL
-5.0287	EXPERIMENTS
-5.5058	EXPERTISE
-5.5058	EXPERTLY
-4.8069	EXPERTS
-3.9148	EXPLAIN	-0.4290
-5.2048	EXPLAINS
-3.8069	EXPLANATION	-0.3002
-5.5058	EXPLICITLY
-5.2048	EXPLORING
-4.9038	EXPLOSION
-5.5058	EXPORT
-4.6607	EXPOSED	-0.0768
-4.6027	EXPOSURE	-0.1973
-3.7134	EXPRESSION	-0.5703
-5.5058	EXPRESSWAY
-5.2048	EXQUISITE
-4.6607	EXTENDED
-5.2048	EXTENDING
-5.5058	EXTENSIVE
-4.3919	EXTENT	-0.1798
-4.9038	EXTRA
-3.7898	EXTRAORDINARY	-0.1474
-4.3919	EXTREMELY	-0.0057
-5.0287	EXULTANTLY	-0.5263
-3.6798	EYE	-0.2950
-5.2048	EYEBROW	-0.4073
-5.5058	EYEDROPS
-5.0287	EYELIDS
-3.0215	EYES	-0.5818
-5.5058	EYESTRAIN
-5.5058	FABRIC
-5.5058	FABRICS
-2.8507	FACE	-0.4925
-4.0587	FACES	-0.2272
-3.4888	FACT	-0.5643
-5.5058	FACTIONS
-4.9038	FACTORS	-0.1653
-3.4055	FACTS	-0.4131
-4.8069	FACULTY	-0.2099
-4.9038	FADED	-0.1665
-4.0587	FAIL	-0.5140
-4.0007	FAILED	-0.6359
-5.2048	FAILS
-4.8069	FAILURE	-0.2099
-4.3919	FAINT	-0.2588
-4.0587	FAIR	-0.1127
-3.9873	FAIRLY	-0.1564
-5.5058	FAIRY
-4.6607	FAITH	-0.1229
-3.8069	FALL	-0.3225
-4.0587	FALLEN	-0.1123
-5.5058	FALLOUT
-5.0287	FALLS
-4.2754	FALSE	-0.4154
-5.5058	FALTERS
-4.7277	FAME
-4.0145	FAMILIAR	-0.5040
-5.5058	FAMILIARITY
-3.7655	FAMILY	-0.2944
-4.3919	FAMOUS	-0.0404
-5.5058	FAN
-5.5058	FANCIER
-3.7576	FANCY	-0.4603
-5.0287	FANGS
-3.1184	FAR	-0.5396
-4.3919	FARM	-0.1952
-5.5058	FARMER'S
-5.2048	FARMERS
-5.5058	FARMHOUSES
-5.5058	FARMLAND
-5.5058	FARMYARD
-3.9873	FARTHER	-0.2759
-5.5058	FASCICULATIONS
-5.5058	FASCINATING
-3.6082	FASHION	-0.5197
-4.8069	FASHIONED
-4.2271	FAST	-0.3155
-5.0287	FASTER
-4.5058	FAT	-0.2477
-3.3415	FATHER	-0.2917
-4.2506	FATHER'S	-0.0560
-5.5058	FATHERS
-5.0287	FATIGUE
-5.5058	FATIGUED
-5.5058	FATIGUES
-4.2048	FAULT	-0.1978
-5.5058	FAULTS
-5.5058	FAVOR
-5.5058	FAVORABLE
-5.5058	FAVORITE
-5.5058	FAWN
-3.4303	FEAR	-0.4485
-3.9495	FEARED	-0.3371
-4.9038	FEARFUL
-4.5058	FEARS	-0.0202
-5.0287	FEASIBLE
-5.5058	FEAST
-4.9038	FEATHER
-5.5058	FEATHERED
-5.5058	FEATHERS
-3.6137	FEATURES	-0.6261
-5.5058	FEED
-3.7898	FEEL	-0.3497
-3.9376	FEELING	-0.2223
-4.4644	FEELINGS	-0.2047
-5.5058	FEELS
-3.4089	FEET	-0.3477
-3.6308	FELL	-0.7100
-5.5058	FELLA
-5.2048	FELLOWSHIP
-3.6027	FELT	-0.3576
-5.0287	FEMALE
-5.5058	FENCED
-5.5058	FENCES
-5.5058	FERMENTED
-5.5058	FERRIES
-5.5058	FERTILIZERS
-4.3017	FEVER	-0.2651
-5.5058	FEVERISHLY
-3.1899	FEW	-0.7493
-5.5058	FEWER
-5.5058	FIBERS
-5.5058	FIBROSIS
-5.5058	FICTION
-5.5058	FIDDLES
-4.1836	FIELD	-0.1466
-4.2506	FIELDS	-0.3648
-5.5058	FIELDWORK
-4.9038	FIERCELY
-5.5058	FIERCEST
-5.0287	FIERY
-4.2271	FIFTEEN	-0.1667
-4.7277	FIFTH	-0.1046
-4.0745	FIFTY	-0.1263
-4.3597	FIGHT	-0.1064
-5.5058	FIGHTS
-3.7655	FIGURE	-0.2908
-5.2048	FIGURED
-4.1079	FIGURES	-0.1607
-5.0287	FILE
-4.9038	FILES	-0.6422
-4.5058	FILL	-0.2084
-4.9038	FILLING	-0.1612
-5.5058	FILM
-5.5058	FILMS
-5.5058	FILTERED
-5.5058	FILTERING
-4.3597	FINAL
-3.7277	FINALLY	-0.2539
-5.5058	FINANCING
-3.0665	FIND	-0.5840
-3.9873	FINDING	-0.2812
-4.3297	FINDS	-0.1952
-4.0587	FINE	-0.0177
-3.8624	FINGER	-0.2974
-5.5058	FINGERPRINTS
-4.2754	FINGERS	-0.2747
-4.5058	FINISH	-0.1851
-5.5058	FINISHING
-3.5015	FIRE	-0.5670
-5.5058	FIREBUG
-5.5058	FIRECRACKERS
-4.6027	FIREPLACE	-0.2007
-5.5058	FIRES
-5.5058	FIRING
-4.8069	FIRMLY	-0.2099
-5.0287	FIRMNESS	-0.2034
-5.2048	FIRMS
-2.9483	FIRST	-0.2407
-5.5058	FISCAL
-5.0287	FISH
-5.5058	FISHERMEN
-5.5058	FISHING
-5.2048	FIST
-4.8069	FISTS
-3.9744	FIT	-0.1354
-5.5058	FITFULLY
-3.3475	FIVE	-0.4326
-4.4644	FIX	-0.1355
-4.0434	FIXED	-0.2577
-5.5058	FJORDS
-4.8069	FLAG
-4.8069	FLAME
-4.6027	FLASH	-0.4208
-4.8069	FLASHING	-0.1286
-4.4644	FLAT	-0.2830
-5.5058	FLAWLESS
-5.5058	FLAXSEED
-4.3017	FLED	-0.2058
-5.2048	FLEECY
-5.5058	FLESH
-4.3919	FLEW	-0.3074
-5.5058	FLEXIBILITY
-5.5058	FLEXIBLE
-5.5058	FLICKERED
-5.0287	FLIES
-5.5058	FLIMSY
-5.5058	FLIP
-5.5058	FLOAT
-5.5058	FLOC
-5.0287	FLOOD	-0.5566
-3.5281	FLOOR	-0.4304
-5.5058	FLOORBOARDS
-5.2048	FLOPPED	-0.4460
-5.5058	FLOURISH
-5.5058	FLOURISHES
-5.5058	FLOW
-5.0287	FLOWER	-0.2428
-5.5058	FLOWERPOT
-4.6607	FLOWERS	-0.3340
-5.5058	FLU
-5.5058	FLUENT
-5.2048	FLUID	-0.4073
-5.5058	FLURRIES
-5.0287	FLUTTERED
-4.6607	FLYING	-0.0486
-5.2048	FOAM
-5.5058	FOAMY
-5.0287	FOCUS
-4.1441	FOG	-0.1975
-5.5058	FOIL
-4.8069	FOLD	-0.0895
-4.5516	FOLDED	-0.0657
-5.5058	FOLDS
-3.6929	FOLLOW	-0.3934
-3.4846	FOLLOWED	-0.3975
-4.1256	FOLLOWING	-0.1599
-4.7277	FOLLOWS
-4.2271	FOOD	-0.2192
-5.5058	FOODS
-4.2506	FOOL	-0.1725
-5.5058	FOOLING
-4.4267	FOOLISH
-5.5058	FOOLS
-3.6929	FOOT	-0.3071
-5.5058	FOOTBALL
-5.0287	FOOTFALL
-5.5058	FOOTNOTES
-2.1043	FOR	-0.7869
-5.2048	FORBIDDEN
-3.8069	FORCE	-0.2246
-4.0909	FORCED	-0.2688
-4.7277	FORCES	-0.0954
-5.5058	FORECASTS
-4.1836	FOREHEAD	-0.1534
-4.3297	FOREIGN	-0.4190
-5.2048	FOREIGNERS
-5.2048	FOREST
-3.9261	FOREVER	-0.3146
-5.5058	FORGED
-4.7277	FORGERY	-0.3349
-4.0587	FORGET	-0.2799
-4.9038	FORGIVENESS	-0.3036
-4.6027	FORGOT	-0.1462
-4.0007	FORM	-0.2126
-5.5058	FORMALITY
-5.5058	FORMATION
-4.0287	FORMED	-0.1793
-4.3919	FORMER
-4.3919	FORMS	-0.1754
-5.5058	FORMULA
-5.5058	FORMULATION
-4.5516	FORTH	-0.0598
-4.1079	FORTUNE	-0.4086
-3.9148	FORTY	-0.2671
-3.5816	FORWARD	-0.4034
-5.5058	FOSTERS
-5.0287	FOUGHT
-4.4644	FOUL	-0.4750
-2.9718	FOUND	-0.5599
-3.3886	FOUR	-0.3279
-4.6027	FRAME	-0.1293
-5.0287	FRAMEWORK	-0.2337
-5.5058	FRANKFURTER
-5.5058	FRANKFURTERS
-4.9038	FRANTICALLY
-5.5058	FREED
-4.6027	FREEDOM	-0.1162
-4.6607	FREELY	-0.0846
-5.5058	FREETHINKERS
-5.5058	FREEWAY
-4.9038	FREQUENT
-4.3597	FREQUENTLY	-0.0415
-3.6929	FRESH	-0.1944
-3.2005	FRIEND	-0.2516
-3.7134	FRIENDS	-0.1681
-4.0145	FRIGHTENED	-0.1667
-4.6607	FRINGE	-0.6213
-5.5058	FRIVOLOUS
-2.3704	FROM	-0.8775
-3.3566	FRONT	-0.8006
-5.0287	FROST
-5.5058	FROSTBITE
-5.5058	FROWNINGLY
-5.5058	FROZE
-4.9038	FRUIT	-0.1288
-5.5058	FRUSTRATION
-5.5058	FUDGE
-5.5058	FULFILLING
-5.5058	FULFILLMENT
-3.7424	FULL	-0.3149
-5.5058	FULLNESS
-4.6607	FULLY	-0.0881
-5.5058	FUMBLED
-5.5058	FUMING
-5.0287	FUN
-5.2048	FUNCTION
-5.5058	FUNCTIONAL
-5.5058	FUND
-5.5058	FUNDING
-4.9038	FUNDS
-5.5058	FUNGICIDES
-4.9038	FUNNEL	-0.1682
-4.6607	FUNNY
-5.5058	FUR
-4.5516	FURIOUSLY	-0.0274
-4.9038	FURNISH
-5.5058	FURRIER
-3.7816	FURTHER	-0.1568
-5.0287	FUSS
-4.0007	FUTURE	-0.1675
-5.5058	GAB
-5.5058	GADFLY
-5.5058	GADGET
-5.5058	GAG
-4.3017	GAIN	-0.0538
-4.2048	GAINED	-0.2683
-5.5058	GAIT
-5.2048	GALLANT
-5.5058	GALLON
-5.5058	GALOSHES
-5.5058	GALVANIC
-3.8931	GAME	-0.3016
-4.1836	GANG	-0.2561
-5.5058	GANGPLANK
-5.5058	GARAGE
-5.5058	GARBAGE
-3.6193	GARDEN	-0.4198
-4.7277	GARDENS	-0.0985
-5.5058	GARLIC
-5.5058	GARRISONED
-4.4644	GAS	-0.1838
-5.5058	GASHES
-5.5058	GASSING
-4.8069	GATES	-0.4622
-4.9038	GATEWAY
-4.4267	GATHERED	-0.1867
-4.8069	GATHERING	-0.1290
-5.5058	GAUDY
-3.3723	GAVE	-0.7588
-5.5058	GAY
-4.2754	GAZED	-0.2432
-5.2048	GEAR
-5.5058	GEEING
-4.3919	GEESE	-0.0791
-4.2754	GENERAL	-0.0597
-5.5058	GENERAL'S
-5.5058	GENERALIZATIONS
-5.5058	GENERALIZE
-4.3297	GENERALLY	-0.0389
-5.5058	GENERALS
-5.5058	GENERATIONS
-5.2048	GENEROUS
-5.5058	GENEROUSLY
-4.7277	GENTLE	-0.1046
-3.6485	GENTLEMAN	-0.2695
-4.3919	GENTLY	-0.0404
-5.5058	GENUINELY
-5.5058	GEOCENTRICISM
-5.5058	GEOGRAPHICALLY
-5.5058	GEOLOGICAL
-4.4644	GEORGE	-0.0635
-3.0375	GET	-0.5158
-4.3597	GETS
-3.8431	GETTING	-0.2110
-5.5058	GHETTO
-5.5058	GHETTOS
-4.9038	GHOST
-5.5058	GHOSTLIKE
-4.7277	GIANT
-5.5058	GIANTS
-5.2048	GIFT
-5.5058	GIFTED
-4.6027	GIFTS	-0.1271
-4.7277	GIGANTIC
-5.2048	GIN
-5.5058	GIRAFFES
-3.6366	GIRL	-0.1498
-5.5058	GIRLIE
-5.5058	GIRLISHLY
-5.0287	GIRLS
-3.0649	GIVE	-0.7707
-3.4888	GIVEN	-0.4458
-4.1634	GIVES	-0.3171
-5.5058	GIVIN'
-5.5058	GLAND
-3.7983	GLASS	-0.2827
-5.5058	GLAZE
-5.5058	GLAZED
-5.5058	GLAZING
-4.1634	GLEAM	-1.0917
-4.7277	GLEAMED
-4.6607	GLEAMING	-0.0852
-5.5058	GLEE
-4.0745	GLIMPSE	-1.4221
-5.2048	GLISTENED
-5.0287	GLISTENING
-4.3597	GLOOM	-0.1138
-5.5058	GLORIES
-5.5058	GLORIFIED
-5.0287	GLOSSY
-4.6607	GLOVES	-0.0861
-4.9038	GLOW
-5.0287	GLOWED
-5.5058	GLUE
-5.5058	GLUED
-5.5058	GLUTTONS
-2.9680	GO	-0.5875
-4.9038	GOAL
-5.5058	GOALS
-5.5058	GOAT
-3.9744	GOES	-0.1716
-5.0287	GOIN'	-0.5545
-3.4124	GOING	-0.5757
-4.1836	GOLD	-0.1516
-5.5058	GOLFING
-3.2225	GONE	-0.4630
-5.5058	GONNA
-2.9365	GOOD	-0.3932
-4.7277	GOODNESS	-0.1853
-5.2048	GOODNIGHT
-4.1836	GOOSE	-0.0841
-5.5058	GOOSEBERRY
-5.5058	GORGEOUS
-5.5058	GOSH
-3.1027	GOT	-0.4031
-5.5058	GOULASH
-5.5058	GOVERN
-5.5058	GOVERNING
-4.2048	GOVERNMENT	-0.1098
-4.6607	GOVERNOR
-5.5058	GOWNS
-5.5058	GRAB
-5.5058	GRACEFULLY
-5.5058	GRADE
-5.5058	GRADES
-4.4644	GRADUALLY
-5.5058	GRADUATION
-5.5058	GRAINS
-5.5058	GRANDMOTHER
-5.5058	GRANTS
-5.5058	GRAPH
-5.2048	GRATEFUL
-5.5058	GRAYING
-5.2048	GRAZING
-5.5058	GREASING
-3.2857	GREAT	-0.1849
-4.2506	GREATER	-0.1316
-5.5058	GREATLY
-5.5058	GREEDILY
-4.1079	GREEN	-0.0918
-5.5058	GREENNESS
-4.7277	GREETED	-0.2391
-5.5058	GREG
-4.9038	GREGORY
-5.5058	GRIEVANCE
-5.5058	GRIEVANCES
-5.5058	GRILL
-4.8069	GRIN	-0.2099
-5.2048	GRINNED
-4.1441	GRIP	-0.2581
-5.5058	GROIN
-4.6027	GROOM	-0.0365
-5.2048	GROSS
-4.6027	GROTESQUE
-3.6798	GROUND	-0.3644
-5.5058	GROUNDHOG
-4.5516	GROUP	-0.2411
-4.9038	GROUPS	-0.3339
-4.5058	GROW	-0.1175
-4.9038	GROWING
-4.4644	GROWN
-5.5058	GROWNUPS
-4.6607	GROWS	-0.2901
-5.5058	GROWTH
-5.5058	GRUDGINGLY
-5.5058	GRUNT
-5.5058	GUARANTEED
-5.5058	GUARANTEES
-3.9261	GUARD	-0.1926
-5.5058	GUERRILLA
-5.5058	GUERRILLAS
-3.7350	GUESS	-0.2283
-5.2048	GUIDANCE
-4.2271	GUIDE	-0.1447
-5.5058	GUIDEBOOK
-5.2048	GUIDES
-4.3597	GUILT	-0.1248
-4.0745	GUILTY	-0.1206
-5.5058	GUM
-5.5058	GUMS
-3.9744	GUN	-0.2130
-5.5058	GUNMAN
-5.5058	GUNPOINT
-5.5058	GUNPOWDER
-4.8069	GUNS	-0.2099
-5.5058	GURGLE
-5.5058	GUS
-5.5058	GUSHED
-5.5058	GUTTURAL
-5.5058	GUY
-5.5058	GUYS
-5.5058	GWEN
-5.5058	GYRO
-5.5058	GYROCOMPASS
-3.9618	HA	-0.3918
-4.2048	HABIT	-0.4418
-2.0344	HAD	-0.6763
-5.5058	HAFTA
-4.3017	HAGGARD	-0.4144
-5.5058	HAILS
-3.8069	HAIR	-0.3713
-4.8069	HAIRED	-0.1276
-3.2506	HALF	-0.5016
-5.5058	HALLOWEEN
-5.5058	HALLWAY
-5.2048	HALVES	-0.4440
-4.9038	HAM	-0.6399
-2.8575	HAND	-0.4516
-5.5058	HANDBAG
-3.6733	HANDED	-0.5389
-5.5058	HANDFUL
-4.2048	HANDLE	-0.1908
-4.6027	HANDLING	-0.1589
-3.1274	HANDS	-0.5059
-4.2271	HANDSOME	-0.0474
-4.8069	HANDY
-5.5058	HANDYMAN
-4.1836	HANGING	-0.2232
-5.5058	HANGOVERS
-4.3297	HAPPEN	-0.4697
-3.5974	HAPPENED	-0.4116
-5.2048	HAPPENING
-5.5058	HAPPIER
-5.2048	HAPPILY
-3.7576	HAPPY	-0.4718
-3.5564	HARD	-0.3619
-3.2678	HARDLY	-0.2463
-5.5058	HARDY
-5.5058	HARMLESSLY
-5.5058	HARMONIZE
-5.5058	HARMONY
-5.5058	HARMS
-5.2048	HARSH	-0.4467
-2.5618	HAS	-0.5260
-5.2048	HASTILY
-3.7277	HAT	-0.3481
-4.4644	HATE	-0.1502
-4.6607	HATED	-0.0851
-4.4267	HATRED	-0.1107
-5.2048	HATS
-5.5058	HAUGHTY
-5.5058	HAULING
-4.9038	HAUNTED	-0.1672
-2.0457	HAVE	-0.7303
-4.6607	HAVEN'T
-3.4124	HAVING	-0.1786
-5.5058	HAWING
-5.5058	HAY
-5.5058	HAZARDS
-4.7277	HAZE	-0.0932
-1.7835	HE	-0.8621
-4.5516	HE'D	-0.1800
-4.3017	HE'LL	-0.2065
-3.9744	HE'S	-0.2566
-3.1795	HEAD	-0.4784
-5.2048	HEADACHE
-5.5058	HEADACHES
-4.7277	HEADING
-4.6607	HEADQUARTERS	-0.0486
-4.1836	HEADS	-0.2426
-5.5058	HEALING
-4.2754	HEALTH	-0.1100
-5.5058	HEALTHFUL
-5.5058	HEALTHIER
-4.8069	HEALTHY
-4.8069	HEAP	-0.2402
-3.3155	HEAR	-0.5083
-3.0510	HEARD	-0.6569
-3.3853	HEART	-0.3842
-4.3017	HEARTILY	-0.3340
-4.6607	HEAT	-0.1590
-5.5058	HEAT'S
-5.5058	HEATER
-5.5058	HEATING
-5.5058	HEAVE
-4.2048	HEAVEN	-0.2065
-4.3297	HEAVENS	-0.1525
-5.5058	HEAVIER
-3.6670	HEAVY	-0.1900
-5.5058	HECK
-4.0287	HEELS	-0.3144
-4.9038	HEIGHTS	-0.1591
-3.4684	HELD	-0.5138
-5.5058	HELIUM
-4.5516	HELL	-0.1057
-5.2048	HELLO	-0.4073
-3.2857	HELP	-0.5341
-5.2048	HELPFUL
-4.6607	HELPING	-0.1945
-4.3919	HELPLESS	-0.1306
-5.2048	HELPS	-0.4457
-5.5058	HEM
-5.5058	HEMORRHAGE
-5.5058	HEN
-5.5058	HENCEFORTH
-4.8069	HENRY	-0.2494
-5.5058	HEPATITIS
-2.4562	HER	-0.2897
-5.5058	HERB'S
-5.2048	HERD
-5.5058	HERDIN'
-2.7500	HERE	-0.6163
-4.2754	HERE'S	-0.6769
-5.5058	HERITAGE
-5.2048	HERO
-5.5058	HEROES
-5.5058	HEROIC
-5.5058	HEROISM
-3.9744	HERSELF	-0.1781
-5.0287	HESITATE
-5.5058	HEY
-5.5058	HIBACHI
-4.3297	HIDE	-0.0343
-5.5058	HIDES
-3.9495	HIDING	-0.6615
-5.5058	HIERARCHIES
-3.7734	HIGH	-0.1281
-4.6027	HIGHER	-0.1385
-4.3597	HIGHEST	-0.0736
-4.8069	HIGHLY
-5.0287	HIGHWAY
-5.5058	HIKING
-4.7277	HILLS	-0.0652
-5.5058	HILLSIDE
-2.2221	HIM	-0.5689
-3.0287	HIMSELF	-0.4083
-5.5058	HINDU
-4.5058	HINT	-0.2399
-5.2048	HIRE
-4.8069	HIRED	-0.1211
-5.5058	HIRES
-5.5058	HIRING
-1.9732	HIS	-0.6680
-5.5058	HISPANIC
-5.5058	HISTORIANS
-5.0287	HISTORICAL
-5.5058	HISTORICALLY
-4.1836	HISTORY	-0.3435
-4.3597	HIT	-0.2849
-5.0287	HOARSE
-3.6929	HOLD	-0.3259
-4.1256	HOLDER	-0.4630
-4.2506	HOLDING	-0.1772
-4.9038	HOLDS	-0.1681
-4.1441	HOLE	-0.4198
-5.5058	HOLES
-4.8069	HOLIDAY	-0.4104
-5.5058	HOLIDAYS
-3.4414	HOME	-0.3895
-5.5058	HOMES
-5.5058	HOMOGENEOUS
-4.4267	HONEST	-0.2557
-5.0287	HONESTY
-5.5058	HONEY
-5.5058	HONEYBEES
-5.5058	HONOR
-5.2048	HOOD
-4.7277	HOOFS	-0.1852
-4.4644	HOOK	-0.0996
-5.5058	HOOKING
-3.3723	HOPE	-0.3194
-4.1634	HOPED	-0.4279
-4.9038	HOPEFUL
-4.4644	HOPELESS	-0.1809
-4.6027	HORIZON	-0.2656
-3.7898	HORROR	-0.3376
-3.6607	HORSE	-0.2685
-5.0287	HORSEBACK
-5.5058	HORSEPLAY
-4.1441	HORSES	-0.1938
-5.5058	HOSPITALIZATION
-5.5058	HOSPITALS
-4.6027	HOST	-0.0720
-5.5058	HOSTAGES
-4.1634	HOT	-0.1226
-3.8246	HOTEL	-0.3297
-4.8069	HOTELS	-0.6763
-3.2728	HOUR	-0.3731
-3.7205	HOURS	-0.2811
-2.8112	HOUSE	-0.4774
-4.0587	HOUSEHOLD	-0.1258
-5.5058	HOUSEHOLDER
-3.9261	HOUSES	-0.2555
-5.5058	HOUSEWIVES
-5.5058	HOUSEWORK
-5.5058	HOUSING
-2.8095	HOW	-0.6185
-5.0287	HOW'S	-0.2343
-3.0062	HOWEVER	-0.3680
-5.5058	HUB
-4.3919	HUGE	-0.0452
-5.5058	HUGGED
-5.5058	HUGGING
-5.5058	HULL
-4.1441	HUM	-0.8451
-3.9261	HUMAN	-0.1361
-5.5058	HUMANISM
-5.5058	HUMID
-5.5058	HUMIDITY
-5.5058	HUMOR
-5.5058	HUMOROUS
-3.3919	HUNDRED	-0.6244
-4.0745	HUNG	-0.1983
-5.5058	HUNGARIAN
-4.0745	HUNTER	-0.1942
-4.5516	HURRIEDLY	-0.0274
-4.1079	HURRY	-0.1818
-4.1836	HURT	-0.0885
-5.5058	HURTS
-3.5713	HUSBAND	-0.3474
-4.3919	HUSBAND'S	-0.0450
-5.5058	HUSBANDRY
-5.2048	HUSKY
-4.3297	HUT	-0.2779
-5.5058	HYACINTHS
-5.5058	HYENA
-5.5058	HYENAS
-5.5058	HYPOCRITES
-5.5058	HYPOTHALAMIC
-5.5058	HYPOTHETICAL
-5.5058	HYSTERICAL
-1.5399	I	-1.1750
-3.8246	I'D	-0.2523
-3.2628	I'LL	-0.4851
-3.6798	I'M	-0.4128
-3.5281	I'VE	-0.4929
-4.9038	ICE
-5.5058	ICES
-5.5058	ICICLES
-5.5058	ICY
-3.4972	IDEA	-0.5480
-5.5058	IDEAL
-5.5058	IDEALLY
-4.8069	IDEAS
-5.2048	IDENTICAL
-5.5058	IDENTIFIABLE
-4.7277	IDENTIFIED	-0.1012
-4.9038	IDENTIFY	-0.1480
-5.5058	IDEOLOGICAL
-5.5058	IDEOLOGY
-5.5058	IDIOSYNCRASIES
-5.5058	IDIOTIC
-5.5058	IDIOTICALLY
-5.5058	IDLY
-5.5058	IDOLIZE
-2.4114	IF	-1.2810
-5.5058	IGNORE
-5.5058	IGNORED
-5.5058	IGNORES
-5.5058	IGUANAS
-3.9873	ILL	-0.1466
-5.0287	ILLEGAL
-5.5058	ILLEGALLY
-4.3919	ILLNESS	-0.0404
-5.5058	ILLNESSES
-5.0287	ILLUMINATED
-5.5058	ILLUMINATING
-5.5058	ILLUMINED
-5.5058	ILLUSIONS
-5.0287	IMAGE	-0.5566
-5.5058	IMAGES
-4.3919	IMAGINATION	-0.0460
-3.6425	IMAGINE	-0.5366
-4.0434	IMAGINED	-0.3360
-5.2048	IMITATE
-5.2048	IMMATERIAL
-4.3919	IMMEDIATE	-0.0451
-4.1256	IMMEDIATELY	-0.1973
-5.5058	IMMORTAL
-5.5058	IMPACT
-5.5058	IMPERFECT
-5.5058	IMPERSONAL
-5.5058	IMPLAUSIBLY
-5.5058	IMPLICATIONS
-5.5058	IMPLIED
-5.2048	IMPORT
-3.6250	IMPORTANCE	-0.4689
-3.7424	IMPORTANT	-0.1796
-5.5058	IMPORTS
-5.5058	IMPOSES
-3.6670	IMPOSSIBLE	-0.5365
-4.4644	IMPRESSIONS	-0.1046
-4.7277	IMPROVED
-5.5058	IMPROVING
-5.5058	IMPULSES
-1.7892	IN	-0.9460
-5.0287	INADEQUATE
-5.5058	INADVISABLE
-5.5058	INANIMATE
-5.2048	INARTICULATE	-0.4468
-5.5058	INAUGURAL
-4.5516	INCH	-0.1594
-5.5058	INCLUDE
-5.2048	INCLUDED
-5.2048	INCLUDING
-5.5058	INCLUSIONS
-4.5516	INCOME	-0.1905
-5.0287	INCOMPLETE
-5.5058	INCORPORATED
-5.2048	INCREASE
-4.3919	INCREASED	-0.1564
-5.5058	INCREASES
-5.5058	INCREASING
-3.3691	INDEED	-0.2765
-5.5058	INDEFINABLE
-5.2048	INDEFINITE
-5.5058	INDEMNITY
-4.7277	INDEPENDENT
-5.5058	INDEX
-4.4267	INDICATE	-0.1694
-4.3919	INDICATED	-0.2985
-5.5058	INDICATES
-5.0287	INDISPENSABLE
-4.3017	INDIVIDUAL	-0.0986
-5.0287	INDIVIDUALS
-5.5058	INDULGE
-5.2048	INDUSTRY
-5.5058	INEFFECTIVE
-5.5058	INERTIA
-4.8069	INEVITABLE	-0.2737
-5.5058	INEXACT
-5.5058	INEXCUSABLE
-5.5058	INEXHAUSTIBLE
-5.5058	INFANCY
-5.5058	INFECTION
-5.5058	INFECTIOUS
-5.5058	INFECTIVE
-4.5058	INFERENCES	-0.3089
-5.5058	INFERIORITY
-5.5058	INFIDELS
-5.5058	INFIELD
-5.5058	INFILTRATION
-5.5058	INFLAMMATORY
-5.5058	INFLATED
-5.0287	INFLUENCES	-0.2034
-3.7655	INFORMATION	-0.3701
-5.5058	INFORMATIVE
-4.1836	INFORMED	-0.3094
-5.5058	INFREQUENT
-5.5058	INFURIATION
-4.8069	INGENUITY	-0.1177
-5.5058	INGREDIENT
-5.5058	INGREDIENTS
-5.5058	INHABIT
-5.2048	INHERITED
-5.5058	INHIBIT
-5.5058	INHIBITOR
-4.9038	INHUMAN
-5.5058	INITIATIVE
-5.5058	INJECTED
-5.5058	INJECTION
-4.6027	INJURIES	-0.0365
-4.8069	INNOCENCE	-0.2099
-4.4644	INQUIRED	-0.1404
-3.8624	INQUIRY	-0.1579
-5.5058	INSECTICIDE
-5.5058	INSECTICIDES
-5.5058	INSERT
-3.6308	INSIDE	-0.5343
-4.6027	INSIST	-0.3034
-5.5058	INSPIRING
-5.5058	INSTABILITY
-5.5058	INSTALLATIONS
-5.5058	INSTALLED
-4.6607	INSTANCE	-0.2153
-3.2780	INSTANT	-0.4401
-5.5058	INSTANTANEOUS
-4.2754	INSTEAD	-1.2212
-4.5516	INSTINCT
-4.5058	INSTRUCTIONS	-0.1142
-4.4644	INSTRUMENT	-0.1219
-4.8069	INSTRUMENTS	-0.0895
-5.0287	INSUFFICIENT	-0.2429
-5.5058	INSULATE
-5.5058	INSULATOR
-5.5058	INSURANCE
-5.5058	INTEGRATED
-5.5058	INTEGRATION
-5.5058	INTEGRITY
-4.4644	INTELLIGENCE
-4.7277	INTELLIGENT
-5.2048	INTELLIGIBLE
-4.9038	INTENT
-5.5058	INTERCHANGEABLY
-3.4303	INTEREST	-0.5994
-4.0909	INTERESTED	-0.3696
-3.7983	INTERESTING	-0.2639
-5.2048	INTERIOR	-0.4376
-5.5058	INTERNAL
-5.2048	INTERPRETATION	-0.4073
-5.5058	INTERPRETATIONS
-4.8069	INTERVALS	-0.1198
-4.1079	INTERVIEW	-0.1580
-5.5058	INTERVIEWEE
-5.5058	INTERWEAVING
-4.4267	INTIMATE	-0.1481
-2.6165	INTO	-0.9382
-4.3297	INTRODUCED	-0.2911
-5.5058	INTRUSIONS
-4.9038	INTUITION
-5.5058	INVADE
-4.7277	INVALUABLE	-0.3231
-4.8069	INVARIABLY	-0.1290
-5.5058	INVENTORIES
-5.2048	INVEST	-0.4456
-3.6308	INVESTIGATION	-0.4148
-4.6607	INVESTIGATIONS	-0.1559
-5.5058	INVIOLATE
-4.7277	INVITATION	-0.0652
-5.5058	INVOKED
-4.4644	INVOLVED	-0.2376
-5.2048	INVOLVES
-5.5058	INVOLVING
-5.0287	INWARD
-5.5058	INWARDLY
-5.5058	IRATE
-5.0287	IRIS	-0.2034
-4.8069	IRISH	-0.1290
-4.0434	IRON	-0.1649
-5.5058	IRONIC
-5.5058	IRONICALLY
-5.5058	IRONING
-5.5058	IRONS
-5.5058	IRRADIATION
-5.5058	IRREMEDIABLE
-5.5058	IRRESPONSIBLE
-5.5058	IRRITATED
-5.5058	IRVING'S
-2.0016	IS	-0.6202
-4.2271	ISN'T	-0.1466
-5.5058	ISOTOPES
-4.6607	ISSUE	-0.1532
-5.2048	ISSUED
-5.2048	ISSUES
-1.7016	IT	-0.8832
-5.5058	IT'D
-3.1878	IT'S	-0.3829
-5.5058	ITCHING
-5.2048	ITEM
-5.5058	ITEMIZE
-5.5058	ITEMS
-3.2910	ITS	-0.2146
-3.7350	ITSELF	-0.2871
-4.8069	IVORY	-0.2493
-5.5058	JABBED
-5.5058	JACKASS
-4.6027	JACKET	-0.0990
-5.5058	JADED
-4.8069	JAGGED
-5.5058	JAGUARS
-5.5058	JAM
-5.5058	JANE
-5.0287	JANUARY
-5.2048	JAR
-5.5058	JARS
-4.6027	JAW	-0.1287
-5.5058	JEALOUSIES
-4.6607	JEALOUSY	-0.0486
-5.5058	JEEP
-5.5058	JEFF
-5.5058	JEFF'S
-5.5058	JENNIFER'S
-5.5058	JEOPARDIZE
-5.0287	JERK
-5.2048	JERKY
-5.5058	JET
-4.6027	JEWEL	-0.2130
-4.8069	JIM
-5.5058	JIM'S
-3.8931	JOB	-0.2802
-5.5058	JOCULAR
-4.9038	JOHN	-0.1683
-5.5058	JOHN'S
-4.3597	JOIN	-0.2596
-4.8069	JOINING
-4.9038	JOINT
-5.5058	JOKERS
-5.2048	JOKES
-4.7277	JOKING	-0.1571
-4.7277	JOURNAL
-5.5058	JOURNALESE
-5.2048	JOURNALIST
-5.5058	JOYCE
-4.0434	JUDGE	-0.2184
-5.0287	JUDGED
-5.5058	JUICE
-5.5058	JUICY
-4.4644	JUMP	-0.1857
-4.5058	JUMPED	-0.0526
-5.0287	JUNGLE
-5.2048	JUNIOR
-2.9400	JUST	-0.3696
-5.2048	JUSTIFICATION
-5.5058	KAYAK
-5.5058	KAYO
-5.5058	KEELSON
-3.4231	KEEP	-0.3713
-3.6308	KEPT	-0.2420
-5.5058	KERNELS
-5.5058	KEROSENE
-3.5614	KEY	-0.3886
-5.5058	KEYED
-4.3017	KEYS	-0.4094
-5.0287	KICK
-5.2048	KID
-5.5058	KID'S
-5.5058	KIDNAPPERS
-5.5058	KIDS
-4.4644	KILL	-0.2172
-4.0007	KILLED	-0.3867
-5.5058	KIN
-3.7576	KIND	-0.5826
-5.5058	KINDA
-5.5058	KINDERGARTEN
-4.0007	KINDLY	-0.1115
-5.5058	KIPPERS
-4.6027	KISSED	-0.1370
-4.1256	KITCHEN	-0.1751
-5.5058	KNACK
-5.5058	KNACKS
-4.2754	KNEE	-0.5049
-4.5058	KNEELING	-0.1810
-4.1836	KNEES	-0.2161
-3.1062	KNEW	-0.4829
-5.5058	KNICK
-3.7576	KNIFE	-0.2849
-5.5058	KNIFELIKE
-5.5058	KNIT
-4.9038	KNITTED
-5.0287	KNIVES	-0.2419
-4.0287	KNOCKED	-0.1417
-2.6843	KNOW	-0.6202
-5.5058	KNOWED
-3.9148	KNOWING	-0.3652
-5.5058	KNOWINGLY
-3.4340	KNOWN	-0.3128
-3.7065	KNOWS	-0.1960
-5.5058	LABELED
-5.5058	LABOR
-4.6607	LABORATORY	-0.2153
-5.5058	LACERATE
-5.0287	LACK	-0.2337
-5.5058	LACKEYS
-5.5058	LACTATING
-3.9744	LAD	-0.1522
-4.8069	LADDER
-4.2048	LADY'S	-0.0732
-5.5058	LADYLIKE
-5.5058	LAGOON
-3.5764	LAID	-0.3939
-4.3297	LAKE	-0.3743
-5.5058	LAMB'S
-3.5764	LAMP	-0.2431
-4.4267	LAMPS	-0.0452
-4.0909	LAND	-0.0905
-4.6607	LANDLORD	-0.1229
-5.5058	LANDMARKS
-4.6607	LANGUAGE	-0.1229
-3.6082	LARGE	-0.1713
-5.5058	LARGELY
-4.4267	LARGER	-0.1775
-5.5058	LARVAE
-4.7277	LASHED
-5.5058	LASHINGS
-2.8614	LAST	-0.3994
-5.5058	LATCHES
-3.5281	LATE	-0.2959
-5.5058	LATENT
-3.5374	LATER	-0.4558
-4.8069	LATEST	-0.1289
-5.5058	LATHE
-5.5058	LATITUDES
-4.0587	LATTER	-0.0797
-4.0145	LAUGH	-0.3814
-3.8156	LAUGHED	-0.6016
-3.9261	LAUGHING	-0.4075
-5.5058	LAVISHLY
-3.6733	LAW	-0.3071
-5.5058	LAWFUL
-5.2048	LAWS
-4.4267	LAWYER	-0.1458
-5.5058	LAWYERS
-3.2884	LAY	-0.3987
-5.5058	LAYOFFS
-5.5058	LAZY
-3.9148	LEAD	-0.3857
-4.6607	LEADER	-0.1491
-5.5058	LEADERSHIP
-4.1634	LEADING	-0.1753
-5.0287	LEAF	-0.2337
-5.5058	LEAFLET
-5.5058	LEAGUES
-5.5058	LEAP
-3.9148	LEARN	-0.2097
-3.7816	LEARNED	-0.2708
-3.5146	LEAST	-0.1260
-4.3919	LEATHER	-0.2312
-3.2936	LEAVE	-0.5817
-4.4267	LEAVES	-0.1466
-3.8156	LEAVING	-0.2394
-5.5058	LEAVINGS
-3.4377	LED	-0.6404
-4.9038	LEDGER
-5.5058	LEEWAY
-2.9782	LEFT	-0.5079
-4.1634	LEG	-0.2563
-4.6607	LEGAL
-5.5058	LEGEND
-4.3919	LEGGED	-0.2742
-5.5058	LEGISLATION
-5.5058	LEGISLATIVE
-5.5058	LEGISLATURE
-4.2271	LEGS	-0.0380
-4.9038	LEISURE	-0.1288
-5.5058	LEMON
-4.3919	LENGTH	-0.1094
-5.2048	LENGTHY
-5.5058	LENTILS
-5.5058	LEOPARDS
-3.5816	LESS	-0.2339
-4.6607	LESSON	-0.1511
-5.5058	LESSONS
-4.3597	LEST	-0.0958
-3.0089	LET	-0.9967
-4.9038	LET'S	-0.4427
-3.3952	LETTER	-0.3218
-3.7134	LETTERS	-0.2167
-4.5058	LEVEL	-0.2390
-5.5058	LEVELING
-5.5058	LEVELS
-5.5058	LEWD
-5.2048	LIBERAL
-5.5058	LIBERALS
-4.6607	LIBRARY	-0.1466
-4.3919	LID	-0.3156
-5.0287	LIDS
-3.7983	LIE	-0.1915
-3.1403	LIFE	-0.4265
-5.5058	LIFEBOATS
-5.5058	LIFELONG
-5.2048	LIFT
-4.9038	LIFTING
-5.5058	LIGAMENT
-3.1674	LIGHT	-0.3708
-5.5058	LIGHTBULBS
-4.3919	LIGHTED	-0.1391
-4.8069	LIGHTER
-4.7277	LIGHTLY
-4.2506	LIGHTS	-0.1011
-3.0117	LIKE	-0.5074
-4.3919	LIKED	-0.2815
-3.5764	LIKELY	-0.6695
-4.6607	LIKES	-0.6213
-5.5058	LIKEWISE
-5.5058	LILY
-4.7277	LIMIT	-0.1811
-4.4644	LIMITED	-0.1817
-5.5058	LINCOLN
-3.5920	LINE	-0.4044
-4.4267	LINED	-0.0861
-4.1836	LINES	-0.3179
-4.9038	LION
-4.3919	LIP	-0.1270
-3.6546	LIPS	-0.3830
-5.2048	LIQUID
-5.5058	LIQUIDS
-4.9038	LIQUOR
-4.3919	LIST	-0.2217
-5.5058	LISTED
-4.9038	LISTS
-5.0287	LITERALLY	-0.2428
-5.5058	LITERARY
-5.5058	LITERATURE
-5.5058	LITHOGRAPHS
-4.9038	LITTER	-0.1591
-2.8517	LITTLE	-0.2053
-3.8526	LIVE	-0.2032
-3.7816	LIVED	-0.2171
-5.5058	LIVELY
-3.9618	LIVES	-0.2272
-5.5058	LIVESTOCK
-4.0287	LIVING	-0.2538
-4.9038	LOADED
-5.5058	LOADS
-5.5058	LOBES
-4.5516	LOCAL
-5.5058	LOCATE
-5.5058	LOCATION
-3.8624	LOCK	-0.3450
-3.8931	LOCKED	-0.3474
-3.5102	LODGE	-0.2913
-4.8069	LOGICAL	-0.1287
-5.5058	LOGICALLY
-5.5058	LOGS
-5.0287	LONE	-0.5659
-5.5058	LONELINESS
-3.0173	LONG	-0.3628
-5.2048	LONGED
-3.9873	LONGER	-0.3250
-5.5058	LONGITUDES
-3.1167	LOOK	-0.6130
-3.2026	LOOKED	-0.6646
-3.3919	LOOKING	-0.4846
-4.1634	LOOKS	-0.2299
-5.5058	LOOMS
-4.1079	LOOSE	-0.1485
-5.5058	LORI'S
-4.2048	LOSE	-0.2073
-4.1634	LOSS	-0.3841
-5.5058	LOSSES
-3.6137	LOST	-0.3126
-4.3919	LOT	-0.1523
-5.5058	LOTIONS
-5.0287	LOTS	-0.2337
-5.5058	LOUDEST
-4.7277	LOUDLY	-0.1571
-5.5058	LOUSE
-5.5058	LOUSINESS
-3.8431	LOVE	-0.2032
-3.8931	LOVED	-0.4164
-4.6607	LOVELY	-0.1622
-5.5058	LOVIE
-4.9038	LOVING
-3.9148	LOW	-0.1183
-4.1441	LOWER	-0.1855
-4.6027	LOWERED	-0.1298
-4.8069	LOYAL
-5.5058	LOYALTIES
-4.0007	LUCK	-0.1861
-4.4267	LUCKY	-0.1477
-5.5058	LULLABY
-4.9038	LUMBER	-0.3423
-4.2506	LUNCH	-0.1116
-5.5058	LUNCHROOM
-5.5058	LUNGS
-5.5058	LUSH
-5.2048	LUXURIOUS
-5.2048	LUXURY
-3.8069	LYING	-0.3474
-5.5058	MA'AM
-5.5058	MACABRE
-4.1634	MACHINE	-0.1899
-5.0287	MACHINERY
-5.5058	MACHINES
-4.0587	MAD	-0.2597
-2.9847	MADE	-0.5651
-5.5058	MADSTONES
-5.5058	MAGNETIC
-5.5058	MAGNETISM
-5.5058	MAGNIFICENTLY
-5.5058	MAGNIFIED
-5.5058	MAGPIES
-5.2048	MAHOGANY
-5.5058	MAIDS'
-5.2048	MAIL
-4.0587	MAIN	-0.1629
-5.5058	MAINTAIN
-5.5058	MAINTENANCE
-4.5516	MAJOR	-0.0274
-5.5058	MAJORITY
-3.0464	MAKE	-0.6070
-4.0287	MAKES	-0.4147
-3.8724	MAKING	-0.3567
-5.5058	MALADIES
-5.5058	MALARIA
-4.8069	MALE
-5.5058	MAMMALS
-2.4834	MAN	-0.4658
-3.5920	MAN'S	-0.2498
-4.3919	MANAGE	-0.1861
-4.1441	MANAGED	-0.4944
-5.0287	MANAGEMENT
-5.5058	MANDATES
-5.5058	MANGO
-5.0287	MANHOOD
-5.5058	MANIFEST
-3.5374	MANNER	-0.3752
-5.5058	MANNERISM
-4.7277	MANNERS
-5.5058	MANUAL
-5.5058	MANUFACTURER
-5.5058	MANUFACTURERS
-5.5058	MANURE
-3.4195	MANY	-0.3471
-4.4644	MAP	-0.1149
-5.5058	MARE'S
-5.5058	MARGARET
-5.5058	MARINE
-5.5058	MARINE'S
-3.7816	MARK	-0.2753
-5.5058	MARKETING
-5.5058	MARKETS
-3.8624	MARKS	-0.3969
-5.5058	MARKSMANSHIP
-3.8624	MARRIAGE	-0.2457
-3.7424	MARRIED	-0.2046
-5.5058	MARSHMALLOWS
-5.5058	MARVEL
-5.5058	MARVELOUSLY
-4.5058	MASK	-0.1423
-5.0287	MASKS
-5.2048	MASONRY	-0.4073
-5.5058	MASQUERADE
-4.8069	MASS	-0.2402
-5.5058	MASSAGE
-4.5058	MASSIVE	-0.1068
-3.7500	MASTER	-0.3745
-4.7277	MASTER'S
-4.5516	MASTERFUL
-5.5058	MATCHED
-5.5058	MATCHING
-4.4267	MATE	-0.0961
-4.2271	MATERIAL	-0.1032
-5.5058	MATERIALS
-4.9038	MATES
-5.5058	MATHEMATICS
-5.5058	MATHEWS
-2.9693	MATTER	-0.5263
-3.7983	MATTERS	-0.2747
-5.5058	MATTRESSES
-5.5058	MATURITY
-5.5058	MAXIMAL
-5.5058	MAXIMIZE
-5.5058	MAXIMUM
-2.6916	MAY	-0.5598
-5.5058	MAYAN
-3.9038	MAYBE	-0.2005
-5.5058	MAYONNAISE
-2.1607	ME	-0.6256
-5.5058	MEADOW
-4.7277	MEALS	-0.1571
-5.5058	MEALYNOSED
-3.5663	MEAN	-0.5638
-4.0007	MEANING	-0.3405
-5.5058	MEANINGFUL
-5.5058	MEANNESS
-3.6546	MEANS	-0.2954
-3.9618	MEANT	-0.2213
-4.1256	MEANWHILE	-0.2312
-4.8069	MEASURE	-0.2099
-4.6027	MEASURED
-5.2048	MEASUREMENT	-0.4073
-5.0287	MEAT	-0.2314
-5.5058	MEATS
-5.5058	MECHANIC
-5.5058	MECHANICAL
-5.5058	MECHANISM
-5.5058	MEDIA
-5.5058	MEDIAN
-4.1634	MEDICAL	-0.1548
-4.7277	MEDICINE	-0.0652
-5.5058	MEDIEVAL
-5.5058	MEDIOCRITY
-3.7277	MEET	-0.4873
-4.3297	MEETING	-0.1546
-5.2048	MEETINGS
-4.5516	MELANCHOLY	-0.0812
-5.5058	MELODRAMATIC
-5.5058	MELODY
-5.2048	MELTED
-4.3297	MEMBER	-0.8922
-4.3597	MEMBERS	-1.1369
-5.2048	MEMBERSHIP
-5.5058	MEMO
-5.5058	MEMORIZED
-4.1441	MEMORY	-0.1478
-3.2271	MEN	-0.3760
-4.6027	MENTAL
-5.5058	MENTALITY
-4.2506	MENTION	-0.1573
-5.5058	MEOW
-5.5058	MERCENARY
-5.5058	MERCHANDISING
-5.5058	MERCILESSLY
-4.1441	MERE	-0.0524
-4.4644	MERELY	-0.1360
-5.5058	MERGER
-5.5058	MERGERS
-5.5058	MERIT
-5.5058	MERRILY
-4.7277	MESS	-0.0652
-3.7576	MESSAGE	-0.2343
-5.5058	MESSY
-3.5102	MET	-0.4418
-4.3919	METAL	-0.0558
-5.0287	METALLIC
-4.5058	METHOD	-0.4535
-3.9376	METHODS	-0.3707
-5.5058	METTLE
-5.5058	MIAMI
-5.5058	MICHAEL
-5.5058	MICROMETEORITE
-5.5058	MICROMETEORITES
-5.5058	MICROORGANISMS
-5.5058	MICROSCOPICALLY
-5.5058	MIDAIR
-4.3017	MIDNIGHT	-0.0675
-2.9400	MIGHT	-0.4748
-4.6607	MIGHTY
-5.5058	MIKE
-4.1256	MILE	-0.2821
-3.8624	MILES	-0.2755
-4.9038	MILITARY
-4.4644	MILK	-0.1010
-5.5058	MILLIONAIRES
-3.1238	MIND	-0.4009
-5.2048	MINDED
-4.3919	MINDS	-0.2666
-3.6425	MINE	-0.3768
-4.9038	MINING
-4.3597	MINISTER	-0.1162
-4.9038	MINOR
-5.5058	MINORITY
-3.8724	MINUTE	-0.3494
-3.4528	MINUTES	-0.3586
-5.5058	MIRACULOUS
-5.5058	MIRACULOUSLY
-5.5058	MIRAGE
-4.8069	MIRROR
-5.5058	MIRRORS
-5.5058	MISBEHAVIOR
-4.9038	MISERABLE
-4.7277	MISERY	-0.0932
-5.5058	MISHAP
-5.5058	MISINTERPRET
-5.5058	MISLEADING
-5.5058	MISPERCEIVES
-5.5058	MISPLACED
-5.5058	MISPRINT
-5.5058	MISQUOTE
-3.9495	MISS	-0.5323
-4.0587	MISTAKEN	-0.3361
-4.6027	MIXED	-0.4663
-5.5058	MIXING
-5.5058	MOBILE
-5.5058	MOCK
-5.5058	MODED
-5.5058	MODELED
-5.5058	MODELING
-5.5058	MODELS
-4.8069	MODERN	-0.1289
-5.5058	MODERNIZATION
-5.5058	MODERNIZING
-4.9038	MODEST
-5.2048	MODESTY
-5.0287	MODIFIED
-5.5058	MODULAR
-5.0287	MOIST
-5.5058	MOISTENED
-4.9038	MOISTURE	-0.1666
-5.5058	MOLD
-5.5058	MOLDED
-5.5058	MOLLUSKS
-5.5058	MOM
-3.2703	MOMENT	-0.4901
-5.2048	MOMENTARY
-4.4267	MOMENTS	-0.1014
-5.5058	MOMMA
-3.8724	MONDAY	-0.4444
-3.4159	MONEY	-0.3002
-5.5058	MONITORED
-5.0287	MONKEY	-0.2034
-5.5058	MONOPOLIZE
-4.9038	MONSTROUS
-4.0007	MONTH	-0.1437
-3.7277	MONTHS	-0.2995
-4.9038	MOON
-4.6607	MOONLIGHT	-0.1466
-5.2048	MOPPED	-0.4422
-5.5058	MORAL
-5.5058	MORALE
-2.7306	MORE	-0.4146
-5.5058	MOREOVER
-5.5058	MORGUE
-3.0316	MORNING	-0.4366
-5.5058	MORPHOLOGICAL
-5.5058	MORPHOPHONEMIC
-3.6670	MORROW	-0.4486
-5.5058	MOSQUITOES
-4.6607	MOSS	-0.1981
-3.3127	MOST	-0.3559
-5.2048	MOSTLY
-5.5058	MOTEL
-5.5058	MOTH
-3.8526	MOTHER	-0.2268
-4.4644	MOTHER'S	-0.0538
-5.5058	MOTHERS
-5.2048	MOTIONING
-5.5058	MOTIVATES
-5.5058	MOTOR
-5.5058	MOTORISTS
-5.5058	MOTORISTS'
-5.5058	MOUNT
-5.5058	MOUNTAIN
-5.5058	MOUNTAINSIDE
-5.5058	MOUNTING
-5.5058	MOURNFULLY
-5.0287	MOUSE
-3.8156	MOUTH	-0.3153
-5.5058	MOUTHFUL
-4.1256	MOVE	-0.1257
-3.8526	MOVED	-0.0752
-4.5516	MOVEMENT	-0.1594
-5.5058	MOVES
-5.5058	MOVIE
-5.5058	MOVIES
-4.1256	MOVING	-0.1456
-5.5058	MR
-5.5058	MRS
-2.9940	MUCH	-0.3766
-5.5058	MUCUS
-5.5058	MUDDLEHEADED
-4.7277	MUDDY	-0.1046
-5.5058	MUDWAGON
-5.0287	MUFFLED
-5.5058	MUGS
-5.5058	MULTIPLE
-5.5058	MURALS
-3.5146	MURDER	-0.2259
-4.0145	MURDERER	-0.1947
-5.2048	MURKY
-4.6027	MURMURED	-0.0990
-5.0287	MUSCLE
-4.8069	MUSCLES
-5.0287	MUSCULAR
-4.5516	MUSEUM	-0.2387
-5.5058	MUSEUMS
-4.6607	MUSIC	-0.1229
-5.2048	MUSICAL
-5.5058	MUSICIANS
-5.5058	MUSKRAT
-2.7791	MUST	-0.5940
-5.5058	MUSTACHE
-5.5058	MUSTARD
-5.5058	MUTINEER
-2.1451	MY	-0.7376
-5.5058	MYOPIA
-3.1027	MYSELF	-0.3934
-4.2271	MYSTERIOUS	-0.0974
-3.5974	MYSTERY	-0.4687
-5.5058	NAGGING
-5.5058	NAILED
-4.5516	NAILS	-0.0939
-5.5058	NAIVE
-4.5516	NAKED	-0.3670
-3.2070	NAME	-0.3623
-4.6027	NAMED	-0.1575
-4.1634	NAMES	-0.3060
-5.5058	NAN'S
-5.5058	NANCY'S
-4.4267	NARROW	-0.0458
-5.5058	NARROWER
-5.2048	NASTY
-5.5058	NATHAN
-4.8069	NATIONAL	-0.1289
-3.9744	NATURAL	-0.0521
-4.1256	NATURALLY	+0.0156
-3.6997	NATURE	-0.3201
-5.5058	NAVIGATE
-3.6607	NEAR	-0.3795
-5.5058	NEARBY
-4.1441	NEARER	-0.3070
-4.5516	NEAREST
-4.8069	NEARING	-0.4016
-3.6193	NEARLY	-0.2900
-5.0287	NEAT	-0.5653
-5.2048	NECESSARILY
-3.9376	NECESSARY	-0.4142
-5.5058	NECESSITATES
-4.8069	NECESSITY
-4.2048	NECK	-0.2791
-5.5058	NECKLACE
-5.5058	NECTAR
-3.6485	NEED	-0.3754
-4.1836	NEEDED	-0.2796
-5.2048	NEEDLE
-5.5058	NEEDLEPOINT
-5.5058	NEEDLESS
-4.4267	NEEDS	-0.1709
-4.8069	NEGLECT
-5.5058	NEGLIGENT
-5.5058	NEGLIGIBLE
-5.5058	NEGOTIATIONS
-3.7205	NEITHER	-0.2130
-5.5058	NEOCLASSIC
-4.0587	NERVES	-0.2252
-5.5058	NESTED
-5.2048	NEVADA
-5.5058	NEVADA'S
-2.8683	NEVER	-0.4041
-5.5058	NEVERTHELESS
-3.4930	NEW	-0.2512
-3.6425	NEWS	-0.3136
-4.4267	NEWSPAPER	-0.1584
-3.3660	NEXT	-0.3939
-4.6607	NICE	-0.0881
-4.8069	NICELY	-0.0895
-2.8130	NIGHT	-0.5480
-5.5058	NIGHTLY
-5.5058	NIGHTMARES
-4.2271	NIGHTS	-0.1399
-5.5058	NIHILISTIC
-3.7576	NINE	-0.3370
-5.0287	NIP
-2.3726	NO	-0.5838
-4.5516	NOBODY
-5.5058	NOBODY'S
-4.2754	NODDED	-0.5323
-4.3919	NOISE	-0.1092
-5.2048	NOISY
-5.5058	NON
-3.4605	NONE	-0.4478
-5.5058	NONPROFIT
-4.9038	NONSENSE	-0.1288
-5.5058	NONSYSTEMATIC
-3.4765	NOR	-0.2188
-5.5058	NORA
-5.5058	NORA'S
-4.6607	NORMAL	-0.1986
-5.5058	NORMALLY
-5.5058	NORMS
-4.2271	NORTH	-0.1323
-5.5058	NORTHEAST
-5.0287	NORTHERN
-5.5058	NORTHERNERS
-5.5058	NORWEGIAN
-4.0287	NOSE	-0.1527
-2.2201	NOT	-0.3589
-3.5468	NOTE	-0.3138
-4.8069	NOTED
-4.0745	NOTES	-0.3896
-5.2048	NOTEWORTHY
-5.5058	NOTHIN
-2.8403	NOTHING	-0.6416
-3.8431	NOTICE	-0.3074
-5.0287	NOTICES
-5.5058	NOTORIETY
-4.4644	NOVEL	-0.1125
-5.5058	NOVELISTS
-5.5058	NOVELTY
-2.6171	NOW	-0.3834
-5.5058	NOWADAYS
-4.8069	NOWHERE	-0.2493
-5.5058	NUCLEAR
-5.2048	NUCLEUS
-5.5058	NUMB
-3.6082	NUMBER	-0.8496
-5.5058	NUMBERING
-5.5058	NUMBNESS
-4.8069	NUMEROUS
-5.5058	NURSES'
-5.2048	NUT
-5.5058	NUTRIENTS
-5.5058	NUTRITION
-5.5058	NUTS
-5.5058	NYMPHOMANIACS
-4.3017	O'	-0.1189
-3.5191	O'CLOCK	-0.3517
-4.3919	OAK	-0.1944
-5.5058	OASIS
-5.5058	OATMEAL
-5.5058	OATS
-5.0287	OBEY	-0.2034
-5.5058	OBEYING
-3.8246	OBJECT	-0.4175
-5.5058	OBJECTIVE
-5.5058	OBJECTIVES
-4.5058	OBJECTS	-0.1749
-5.5058	OBSERVANCE
-3.8724	OBSERVE	-0.3492
-5.5058	OBSERVERS
-5.5058	OBSESSION
-5.5058	OBSESSIONS
-5.5058	OBSOLESCENT
-5.5058	OBSTACLES
-4.6607	OBTAIN	-0.1422
-4.3597	OBTAINED	-0.1153
-5.0287	OBTAINING	-0.2350
-5.5058	OBVERSE
-3.7655	OBVIOUS	-0.3619
-4.2271	OBVIOUSLY	-0.0672
-4.0909	OCCASIONALLY	-0.0216
-4.3919	OCCUPIED	-0.0057
-4.3597	OCCUR	-0.6329
-3.5468	OCCURRED	-0.6242
-5.0287	OCCURS
-4.9038	OCEAN
-5.5058	OCEAN'S
-5.5058	OCEANOGRAPHIC
-5.5058	OCTILLION
-4.4644	ODD
-4.7277	ODDS	-0.4251
-5.5058	ODOR
-1.6761	OF	-0.7845
-3.1256	OFF	-0.3808
-4.9038	OFFENSIVE
-4.3297	OFFER	-0.1110
-4.3297	OFFERED	-0.1745
-5.2048	OFFERING
-3.6997	OFFICE	-0.2751
-4.3017	OFFICER	-0.2185
-4.3919	OFFICERS	-0.0549
-4.5516	OFFICES	-0.1898
-4.0287	OFFICIAL	-0.1270
-4.6027	OFFICIALS	-0.2062
-3.7655	OFTEN	-0.0617
-5.5058	OGRESS
-3.3183	OH	-0.4407
-4.6607	OIL	-0.2547
-5.5058	OILS
-5.5058	OILY
-5.5058	OINTMENT
-5.5058	OKAY
-3.2340	OLD	-0.2604
-4.2754	OLDER	-0.4306
-5.5058	OLDSTERS
-5.5058	OLE
-5.5058	OLIVE
-5.0287	OMITTED
-5.2048	OMITTING
-2.3376	ON	-0.9009
-3.0075	ONCE	-0.4885
-2.3356	ONE	-0.5264
-4.5058	ONE'S
-4.0745	ONES	-0.1652
-5.5058	ONION
-2.7492	ONLY	-0.2485
-4.8069	ONTO	-0.4016
-5.5058	OOZED
-5.5058	OPAQUE
-3.1816	OPEN	-0.5626
-3.3269	OPENED	-0.6076
-4.2506	OPENING	-0.2638
-4.8069	OPENS
-5.5058	OPERA
-5.5058	OPERATED
-5.5058	OPERATES
-4.9038	OPERATION	-0.1288
-5.2048	OPINIONS
-4.5058	OPIUM	-0.2049
-4.5058	OPPORTUNITY	-0.5411
-5.5058	OPPOSING
-3.8624	OPPOSITE	-0.4577
-5.5058	OPPRESSIVE
-5.5058	OPTICAL
-5.5058	OPTIMAL
-5.5058	OPTIMISM
-2.6863	OR	-0.2988
-5.5058	ORANGE
-5.5058	ORATORICAL
-5.5058	ORCHESTRA
-3.5564	ORDER	-0.6153
-5.5058	ORDERING
-4.2506	ORDERS	-0.2257
-5.5058	ORGANISM
-5.5058	ORGANIST
-5.5058	ORGANIZATIONS
-5.5058	ORIENTAL
-5.5058	ORIENTED
-4.9038	ORIGIN
-4.2271	ORIGINAL	-0.0135
-4.7277	ORIGINALLY
-4.8069	ORIGINALS
-5.5058	ORTHODONTIC
-5.5058	ORTHODONTIST
-2.8526	OTHER	-0.3105
-3.6308	OTHERS	-0.1895
-4.1634	OTHERWISE	-0.1967
-5.5058	OTTO'S
-4.1441	OUGHT	-1.3504
-2.7044	OUR	-0.4237
-3.6485	OURSELVES	-0.2285
-2.4728	OUT	-0.7834
-5.5058	OUTAGE
-5.5058	OUTCAST
-5.5058	OUTCOME
-5.5058	OUTDOORS
-4.2754	OUTER	-0.3847
-5.5058	OUTFIELDERS
-5.5058	OUTFIT
-5.5058	OUTGREW
-5.5058	OUTGROW
-5.5058	OUTLAWS
-5.5058	OUTLOOK
-5.5058	OUTPOST
-5.5058	OUTPUTS
-5.0287	OUTSET
-3.5468	OUTSIDE	-0.3913
-5.2048	OUTSTANDING
-5.5058	OUTWARD
-5.2048	OVAL
-2.7694	OVER	-0.7453
-5.5058	OVERALLS
-5.0287	OVERBOARD
-5.2048	OVERCAME
-5.5058	OVERCHARGED
-5.5058	OVERDUE
-5.5058	OVEREATING
-5.5058	OVERFLOWED
-5.5058	OVERHANGS
-5.2048	OVERHEAD
-5.5058	OVERLAP
-5.5058	OVERLAPPING
-5.5058	OVERLOADED
-4.3597	OVERLOOKED	-0.1571
-5.5058	OVERLY
-5.5058	OVERNIGHT
-5.5058	OVERNIGHTERS
-5.5058	OVERPLAYED
-5.5058	OVERPROTECTION
-5.5058	OVERRIDING
-5.5058	OVERSIZED
-4.6607	OVERTAKE	-0.1599
-5.5058	OVERTHROW
-5.5058	OVERWEIGHT
-5.5058	OVERWHELM
-5.2048	OVERWHELMED	-0.4457
-5.5058	OVERWRITTEN
-2.9980	OWN	-0.2692
-4.1441	OWNER	-0.4254
-5.2048	OWNS
-5.5058	OYSTER
-5.2048	OYSTERS
-4.7277	PA	-0.0652
-4.5058	PACE	-0.1221
-4.5058	PACK	-0.0202
-5.5058	PACKAGE
-5.5058	PACKING
-5.5058	PADLOCK
-3.9495	PAID	-0.2432
-5.5058	PAIL
-4.2506	PAIN	-0.1776
-5.5058	PAINTINGS
-4.2754	PAIR	-0.2934
-5.5058	PAIRS
-4.0587	PALE	-0.2574
-4.3919	PALM	-0.8053
-5.5058	PALPABLY
-5.5058	PAM
-5.5058	PAMPHLETS
-5.5058	PAN
-5.5058	PANELIZATION
-5.5058	PANIC
-5.5058	PANSIES
-5.5058	PAPAYA
-3.2703	PAPER	-0.4438
-5.5058	PAPERED
-5.5058	PAPERWEIGHT
-5.5058	PAPRIKA
-5.5058	PARADES
-4.6607	PARAGRAPH	-0.1554
-4.8069	PARALLEL	-0.1290
-5.5058	PARALYSIS
-5.5058	PARAMAGNETIC
-5.5058	PARANOID
-4.9038	PARDON	-0.1288
-5.5058	PARENTAL
-5.5058	PARENTHOOD
-4.2271	PARK	-0.1056
-5.5058	PARKING
-5.5058	PARROTS
-3.4414	PART	-0.5551
-4.5058	PARTED	-0.2097
-5.5058	PARTICIPANT
-5.5058	PARTICIPANTS
-5.5058	PARTICIPATE
-5.5058	PARTICIPATES
-3.9376	PARTICULAR	-0.1229
-4.3597	PARTICULARLY	-0.2114
-4.9038	PARTIES
-4.6027	PARTLY	-0.1629
-4.6027	PARTNER
-4.1256	PARTS	-0.3853
-3.7424	PASS	-0.1990
-3.3269	PASSED	-0.4018
-4.0587	PASSING	-0.0884
-5.0287	PASSIONS
-5.5058	PASSIVE
-3.4195	PAST	-0.3752
-5.2048	PASTE
-5.5058	PASTIME
-5.5058	PASTURE
-3.7205	PATH	-0.4359
-5.5058	PATHETIC
-5.5058	PATHOLOGICAL
-4.1836	PATIENT	-0.2094
-5.5058	PATIENT'S
-5.0287	PATIENTLY
-5.5058	PATRONS
-5.5058	PATSY
-4.9038	PATTERED	-0.1680
-5.0287	PATTERN
-5.5058	PATTERNS
-4.4267	PAUSE	-0.1582
-4.6607	PAUSED	-0.1839
-5.5058	PAW
-3.9148	PAY	-0.0920
-5.5058	PAYMENTS
-4.8069	PAYS
-4.1441	PEACE	-0.1931
-5.5058	PEACEFULLY
-5.5058	PEACH
-5.5058	PEACHES
-5.5058	PEANUT
-4.9038	PEARLS	-0.1597
-5.5058	PEAS
-5.5058	PECK
-4.0909	PECULIAR	-0.0755
-5.5058	PEDESTAL
-5.5058	PEELING
-4.7277	PEERED	-0.1040
-5.5058	PENALTY
-5.5058	PENDULUM
-5.0287	PENETRATED	-0.5456
-5.5058	PENGUINS
-5.5058	PENICILLIN
-5.5058	PENSION
-3.4765	PEOPLE	-0.2912
-5.5058	PEPPER
-5.5058	PEPPERED
-4.9038	PER	-0.6514
-5.2048	PERCEPTION	-0.4376
-5.5058	PERENNIAL
-4.4267	PERFECT	-0.0097
-3.9376	PERFECTLY	-0.1967
-4.9038	PERFORMANCE	-0.1288
-5.5058	PERFORMANCES
-5.5058	PERFORMERS
-5.5058	PERFUME
-3.2990	PERHAPS	-0.4093
-5.2048	PERILS
-4.6027	PERIOD	-0.2260
-5.5058	PERIODICAL
-5.5058	PERIODICALLY
-5.5058	PERIODS
-4.9038	PERMANENT
-4.6607	PERMIT
-5.5058	PERPENDICULAR
-5.5058	PERSISTENTLY
-5.5058	PERSISTING
-3.5236	PERSON	-0.3952
-4.2506	PERSONAL	-0.0322
-4.8069	PERSONALITY	-0.2613
-5.5058	PERSONALIZED
-5.5058	PERSONNEL
-4.7277	PERSONS	-0.1955
-4.9038	PERSUADED	-0.1680
-5.5058	PERSUASIVELY
-5.5058	PERT
-5.5058	PERTINENT
-5.5058	PERVASIVE
-5.5058	PERVERSE
-5.5058	PESSIMISM
-5.5058	PESTS
-5.5058	PETTICOATS
-5.5058	PETTING
-4.9038	PETTY
-5.5058	PEWTER
-5.5058	PHASE
-5.2048	PHENOMENON
-5.5058	PHIL'S
-5.5058	PHONE
-5.5058	PHONES
-5.5058	PHONY
-5.5058	PHOSPHATE
-5.5058	PHOSPHATES
-5.5058	PHOTOCHEMICAL
-5.5058	PHOTOGRAPHS
-5.5058	PHOTOS
-5.2048	PHRASE
-4.6027	PHYSICAL	-0.0760
-5.5058	PIANO
-4.0587	PICK	-0.2802
-3.6997	PICKED	-0.6943
-5.5058	PICKET
-5.5058	PICKPOCKET
-5.5058	PICKPOCKETS
-4.3919	PICTURE	-0.1553
-4.6027	PICTURES
-5.5058	PIE
-4.0145	PIECE	-0.7057
-5.5058	PIECEMEAL
-4.4267	PIECES	-0.2158
-5.2048	PIG
-5.5058	PIGEONS
-4.4267	PILE	-0.1566
-4.6607	PILED	-0.0852
-5.5058	PILGRIMS
-5.0287	PILL
-4.6027	PILLS	-0.1997
-5.5058	PILOTS
-5.5058	PILOTS'
-5.2048	PINE
-5.0287	PINK
-5.5058	PINS
-5.5058	PINT
-5.2048	PINTO
-5.5058	PIONEER
-5.5058	PIPED
-5.5058	PISTACHIO
-4.9038	PIT	-0.1288
-4.6027	PITCH	-0.1384
-5.5058	PITCHED
-5.5058	PITCHER
-5.0287	PITIABLE
-4.2754	PITY	-0.1344
-5.5058	PIZZERIAS
-3.1329	PLACE	-0.3770
-3.8069	PLACED	-0.4416
-4.0745	PLACES	-0.2194
-5.5058	PLAINTIFF
-4.3597	PLAN	-0.1287
-5.5058	PLANE
-5.5058	PLANES
-5.5058	PLANETS
-4.7277	PLANNED	-0.1938
-5.2048	PLANNING
-3.9495	PLANS	-0.2991
-4.8069	PLANT	-0.2729
-5.2048	PLANTED
-5.5058	PLASTERS
-4.4644	PLATE	-0.2507
-5.5058	PLATED
-4.5058	PLATFORM	-0.2941
-3.9618	PLAY	-0.2055
-4.2271	PLAYED	-0.0833
-5.2048	PLAYER
-5.5058	PLAYERS
-5.5058	PLAYIN'
-5.0287	PLAYS
-4.3597	PLEASANT	-0.1123
-5.2048	PLEASANTLY
-4.0145	PLEASE	-0.2634
-4.0587	PLEASURE	-0.2968
-4.7277	PLEDGE	-0.1016
-4.3297	PLENTY	-0.6897
-5.5058	PLOW
-5.2048	PLUMBER
-4.3297	PLUNGED	-0.2499
-5.0287	PLYMOUTH
-5.5058	PLYWOOD
-5.5058	PNEUMONIA
-5.5058	POACH
-3.4846	POCKET	-0.5984
-4.2271	POCKETS	-0.1202
-5.5058	POEMS
-5.5058	POETRY
-5.5058	POETS
-5.5058	POIGNANCY
-3.2554	POINT	-0.5173
-4.2048	POINTING	-0.6461
-3.6485	POINTS	-0.5662
-5.5058	POISED
-4.1441	POISON	-0.0959
-4.8069	POISONED
-4.8069	POISONOUS
-5.0287	POISONS
-4.2754	POLICEMAN	-0.1234
-4.9038	POLICY
-4.9038	POLISHED
-5.5058	POLITENESS
-5.2048	POLITICAL	-0.4449
-4.4644	POLITICS	-0.1591
-5.5058	POLYESTERS
-5.5058	POMPOUSNESS
-4.8069	POND	-0.2099
-4.3297	POOL	-0.1951
-5.5058	POOLS
-3.8931	POOR	-0.1810
-5.5058	POORLY
-5.5058	POP
-5.5058	POPULACE
-4.5516	POPULAR	-0.1179
-5.5058	POPULARITY
-5.2048	POPULATION
-5.0287	PORCH	-0.2034
-5.5058	PORCUPINES
-5.5058	PORK
-5.5058	PORTABLE
-4.6607	PORTION	-0.6213
-5.5058	PORTRAY
-5.5058	PORTRAYAL
-3.6997	POSITION	-0.3458
-4.3297	POSITIVE	-0.0597
-4.4644	POSSESSED	-0.0513
-4.9038	POSSIBILITIES	-0.3036
-4.3017	POSSIBILITY	-0.4100
-3.3628	POSSIBLE	-0.3790
-3.9873	POST	-0.2315
-5.5058	POSTDATE
-5.5058	POSTPONED
-5.5058	POTATOES
-5.5058	POTENT
-5.5058	POTTERY
-5.5058	POULTICES
-5.5058	POULTRY
-4.4644	POUND	-0.3284
-4.7277	POURING	-0.1028
-5.5058	POVERTY
-4.3597	POWDER	-0.0453
-5.5058	POWDERS
-3.9495	POWER	-0.4598
-5.5058	POWERED
-4.3919	POWERFUL	-0.0438
-5.5058	POWERFULLY
-3.9618	POWERS	-0.3293
-3.9873	PRACTICAL	-0.0322
-5.2048	PRACTICALLY
-5.5058	PRACTICED
-5.5058	PRACTICES
-5.2048	PRAISES
-5.5058	PRAYED
-5.5058	PREACHED
-5.5058	PRECARIOUSLY
-4.3597	PRECAUTION	-0.1144
-5.2048	PRECEDED
-5.5058	PRECINCTS
-5.5058	PRECISION
-5.5058	PREDICAMENT
-5.5058	PREDISPOSITIONS
-5.5058	PREDOMINANTLY
-5.2048	PREFERS	-0.4355
-5.5058	PREMIUMS
-5.5058	PREOCCUPIED
-4.9038	PREPARATION
-4.7277	PREPARE	-0.1013
-4.0434	PREPARED	-0.8838
-4.9038	PREPARING	-0.1649
-5.5058	PREPREPARED
-5.5058	PREREQUISITE
-5.5058	PRESCHOOLER
-5.5058	PRESCRIBE
-5.5058	PRESCRIPTION
-3.6250	PRESENT	-0.2479
-4.3597	PRESENTED	-0.1521
-4.1836	PRESENTLY	-0.2098
-4.3597	PRESENTS	-0.1080
-5.2048	PRESERVATION	-0.4376
-4.6027	PRESERVED
-5.2048	PRESERVES
-5.5058	PRESIDENT
-4.6027	PRESSURE	-0.0698
-5.5058	PRESTIGE
-4.4644	PRESUMABLY	-0.0759
-5.5058	PRESUMED
-5.5058	PRESUMES
-4.6607	PRETEND	-0.3622
-3.9038	PRETTY	-0.2438
-4.0745	PREVENT	-0.1744
-4.8069	PREVENTED
-5.5058	PREVENTING
-4.6607	PREVIOUS	-0.2963
-4.1634	PRICE	-0.1558
-5.0287	PRICES
-5.5058	PRIMACY
-5.5058	PRIMARILY
-5.5058	PRIMARY
-4.4644	PRIME	-0.7979
-5.5058	PRIMITIVE
-5.5058	PRIMLY
-5.5058	PRINCES
-5.2048	PRINCIPLES
-4.3017	PRINT	-0.0845
-4.9038	PRINTS	-0.1596
-5.5058	PRIORITIES
-5.5058	PRIORITY
-4.6607	PRISON	-0.2153
-3.9148	PRISONER	-0.1066
-4.5516	PRISONERS	-0.1987
-3.9744	PRIVATE	-0.1205
-5.5058	PRIVATELY
-5.5058	PRIVATIONS
-5.5058	PRIZES
-5.5058	PROBABILITIES
-3.7898	PROBABLY	-0.1399
-5.5058	PROBES
-3.6863	PROBLEM	-0.3041
-4.3017	PROBLEMS	-0.1744
-5.5058	PROCAINE
-5.5058	PROCEDURE
-4.8069	PROCEEDING
-5.5058	PROCEEDS
-4.7277	PROCESS	-0.1571
-5.5058	PROCESSED
-5.2048	PROCESSES
-5.5058	PROCESSING
-4.5058	PRODUCE	-0.0202
-4.2271	PRODUCED	-0.1634
-4.9038	PRODUCT	-0.1288
-5.5058	PRODUCTION
-5.5058	PRODUCTS
-4.1634	PROFESSION	-0.2695
-4.1256	PROFESSIONAL	-0.0760
-4.9038	PROFIT
-5.5058	PROFITS
-5.5058	PROGRAM
-5.5058	PROGRAMS
-4.3919	PROGRESS	-0.3226
-5.5058	PROGRESSION
-5.5058	PROJECT
-5.0287	PROJECTED	-0.2411
-5.5058	PROJECTS
-5.0287	PROMINENT
-5.5058	PROMOTE
-5.5058	PROMPTED
-5.2048	PROMPTLY
-5.5058	PRONOUN
-5.5058	PRONUNCIATION
-4.1256	PROOF	-0.2221
-4.5058	PROPER	-0.0597
-5.5058	PROPERLY
-5.5058	PROPERTIES
-4.0745	PROPERTY	-0.2398
-5.5058	PROPHETS
-4.8069	PROPOSED	-0.1177
-4.9038	PROPRIETY	-0.1591
-5.5058	PROPS
-5.5058	PROSE
-4.6027	PROSPECT	-0.2962
-5.5058	PROSPECTIVE
-5.5058	PROTECTED
-4.5516	PROTECTION	-0.2191
-5.5058	PROTECTS
-5.5058	PROTEIN
-5.5058	PROTESTS
-4.1836	PROUD	-0.2584
-3.7983	PROVE	-0.6368
-3.8931	PROVED	-0.5096
-5.5058	PROVEN
-5.2048	PROVIDE
-4.5058	PROVIDED	-0.0563
-5.5058	PROVIDES
-5.0287	PROVISIONS
-5.5058	PROVOCATIVELY
-5.5058	PROVOKED
-5.5058	PROWLER
-5.5058	PSYCHIATRIST
-5.5058	PSYCHICAL
-5.5058	PSYCHOLOGICAL
-5.5058	PSYCHOLOGICALLY
-5.5058	PSYCHOPATH
-3.7350	PUBLIC	-0.1831
-4.8069	PUBLICITY	-0.2099
-5.0287	PUBLISHED
-4.1634	PULL	-0.2487
-3.7983	PULLED	-0.5187
-4.8069	PULLING	-0.1270
-5.5058	PULSING
-5.5058	PUMMELED
-5.5058	PUMPED
-5.5058	PUMPS
-5.5058	PUNCH
-5.5058	PUNCTURING
-5.2048	PUNGENT
-4.9038	PUNISH
-5.5058	PUNISHES
-4.5516	PUNISHMENT	-0.0812
-5.5058	PUNY
-5.5058	PUPPETS
-5.5058	PURCHASE
-4.9038	PURCHASED	-0.1596
-5.5058	PURCHASERS
-4.7277	PURE	-0.1045
-5.5058	PUREE
-5.5058	PURISTS
-5.2048	PURPLE
-3.9744	PURPOSE	-0.4040
-5.2048	PURPOSELESS	-0.4073
-5.5058	PURPOSELY
-5.5058	PURSED
-4.5058	PURSUED	-0.1616
-4.7277	PURSUING	-0.0652
-4.6027	PUSH
-3.1096	PUT	-0.8128
-5.5058	PUZZLEMENT
-5.2048	PUZZLING
-5.5058	QUACKERY
-4.6607	QUALITY	-0.1559
-4.1634	QUARREL	-0.1351
-5.2048	QUARRELS
-3.6485	QUARTER	-0.5940
-4.1256	QUARTERS	-0.3485
-4.9038	QUEEN	-0.1288
-4.9038	QUERULOUS	-0.3430
-3.4528	QUESTION	-0.4613
-3.8246	QUESTIONS	-0.3938
-3.8624	QUICK	-0.2155
-4.1441	QUICKLY	-0.1274
-5.5058	QUIETED
-4.0145	QUIETLY	-0.2867
-5.5058	QUINCE
-3.1460	QUITE	-0.3297
-2.0253	QUOTE	-0.9481
-5.2048	RABBIT
-4.9038	RABBITS
-5.5058	RABIES
-5.5058	RACCOONS
-4.6607	RACE
-5.5058	RACHEL'S
-5.0287	RACING
-4.8069	RACK
-5.5058	RACY
-5.5058	RADAR
-5.5058	RADIATED
-5.5058	RADIATION
-5.5058	RADICALISM
-5.5058	RADIO
-5.5058	RADIOACTIVE
-5.5058	RADIOACTIVITY
-5.5058	RADIOSTERILIZATION
-5.2048	RAG
-5.5058	RAGS
-4.8069	RAIL
-4.6607	RAILROAD	-0.0880
-4.2271	RAIN	-0.1323
-5.5058	RAINDROPS
-5.5058	RAINS
-5.5058	RAISERS
-5.5058	RAISINS
-5.5058	RAKED
-5.5058	RALPH
-5.5058	RAMIFICATIONS
-3.5146	RAN	-0.3046
-5.5058	RANCH
-5.0287	RANDOM
-4.4267	RANG	-0.2139
-5.0287	RANGE
-5.5058	RAPE
-4.5058	RAPID	-0.1330
-4.0587	RAPIDLY	-0.1187
-4.6607	RARE	-0.0876
-5.5058	RARELY
-5.5058	RASPED
-4.3297	RATE	-0.2074
-5.5058	RATED
-5.5058	RATES
-3.4340	RATHER	-0.2347
-5.5058	RATING
-5.5058	RATIONALIZE
-5.5058	RATIONING
-4.4267	RATTLED	-0.0377
-5.5058	RATTLESNAKE
-5.5058	RAW
-5.5058	RAY
-3.8724	REACH	-0.4188
-3.6193	REACHED	-0.6191
-4.7277	REACTION
-3.3566	READ	-0.4078
-4.7277	READER	-0.0652
-5.2048	READINESS	-0.4073
-3.8724	READING	-0.3194
-5.5058	READS
-3.5920	READY	-0.6561
-4.3017	REAL
-5.5058	REALISM
-5.5058	REALISTIC
-5.5058	REALITY
-5.5058	REALIZATION
-4.1079	REALIZE	-0.3561
-5.0287	REALIZING	-0.2422
-3.4055	REALLY	-0.0755
-5.5058	REARRANGE
-3.4124	REASON	-0.5224
-4.6607	REASONABLE	-0.0486
-5.5058	REASONABLY
-4.2048	REASONS	-0.3331
-5.5058	REASSURANCE
-5.5058	REASSURE
-5.5058	REASSURING
-4.3919	RECALL	-0.3442
-4.8069	RECALLED	-0.1177
-3.9261	RECEIVED	-0.3661
-4.7277	RECEIVING	-0.1041
-4.3017	RECENT	-0.0363
-4.4644	RECENTLY	-0.0751
-5.5058	RECEPTACLE
-5.2048	RECEPTION
-4.8069	RECOGNITION	-0.0895
-4.2754	RECOGNIZE	-0.2719
-4.1634	RECOGNIZED	-0.1610
-5.0287	RECOILED	-0.2358
-5.5058	RECOMMENDATION
-4.6607	RECOMMENDED	-0.2829
-4.9038	RECONNAISSANCE	-0.1288
-4.8069	RECONSIDER	-0.5024
-5.5058	RECONSIDERED
-4.2271	RECORD	-0.0965
-4.6607	RECORDS	-0.2477
-5.5058	RECREATION
-5.5058	RECRIMINATIONS
-5.5058	RECTOR
-5.5058	RECUPERATING
-3.8156	RED	-0.1951
-5.5058	REDCOATS
-5.5058	REDECORATING
-5.5058	REDEPOSITION
-5.5058	REDHEADS
-5.5058	REDOUBLED
-4.8069	REDUCED
-5.5058	REDUCING
-5.5058	REDUCTION
-5.5058	REDWOODS
-4.3297	REFERENCE	-0.5542
-4.3597	REFERRED	-0.2474
-5.0287	REFLECT
-5.5058	REFLECTS
-5.5058	REFLEXES
-5.5058	REFORM
-5.5058	REFRIGERATOR
-5.5058	REFUND
-5.5058	REFURBISHING
-4.7277	REFUSAL	-0.3055
-4.2506	REFUSE	-0.3489
-4.2754	REFUSED	-0.4531
-4.5058	REGARD	-0.1781
-5.0287	REGARDING
-5.5058	REGENERATING
-4.6027	REGRET	-0.2048
-4.5058	REGULAR	-0.0895
-5.5058	REGULARS
-5.5058	REGULATIONS
-5.5058	REGULATIVE
-5.5058	REHABILITATION
-5.5058	REINFORCE
-5.2048	REJECTED	-0.4073
-5.5058	RELATED
-4.9038	RELATIONSHIP
-5.5058	RELATIVELY
-4.9038	RELAXED
-5.2048	RELEASE
-4.7277	RELEASED
-4.3597	RELIEF	-0.3584
-4.5058	RELIEVED	-0.0484
-5.5058	RELIEVING
-4.7277	RELIGION	-0.0652
-5.5058	RELINQUISHING
-5.5058	RELISH
-4.5058	RELY	-0.5802
-4.1079	REMAIN	-0.1760
-3.8156	REMAINED	-0.2515
-4.7277	REMAINING
-3.9873	REMAINS	-0.2470
-3.4846	REMEMBER	-0.3614
-4.3597	REMEMBERED	-0.1004
-5.2048	REMEMBERS
-5.5058	REMEMBRANCE
-4.9038	REMINDED	-0.4350
-5.5058	REMINDS
-5.5058	REMINISCENCE
-5.5058	REMOTE
-5.5058	REMOVAL
-4.7277	REMOVE	-0.0844
-4.8069	RENT	-0.0895
-5.5058	RENTED
-5.5058	RENUNCIATION
-5.5058	REORGANIZATION
-5.5058	REPAINTED
-5.5058	REPAINTING
-4.6027	REPEAT	-0.2563
-4.3017	REPEATED	-0.0776
-5.5058	REPETITION
-4.9038	REPLACE	-0.1596
-4.4267	REPLACED	-0.3302
-5.5058	REPLENISH
-4.9038	REPLIED
-4.1441	REPLY	-0.4360
-3.9148	REPORT	-0.2173
-4.4267	REPORTED	-0.2397
-5.5058	REPORTERS
-5.5058	REPORTORIAL
-4.7277	REPORTS	-0.1874
-5.0287	REPRESENT
-5.5058	REPRESENTATION
-4.8069	REPRESENTED	-0.2292
-5.2048	REPRESENTS
-5.2048	REPRODUCE
-5.5058	REPTILES
-5.5058	REPUGNANT
-5.5058	REQUESTS
-5.2048	REQUIRED
-5.5058	REQUIREMENTS
-5.5058	REQUIRES
-5.2048	RESCUE	-0.4073
-4.6027	RESEARCH	-0.0365
-5.5058	RESEMBLE
-4.6027	RESERVED	-0.1351
-5.5058	RESIDENTIAL
-5.5058	RESIDES
-5.5058	RESIDUES
-5.5058	RESIN
-4.6607	RESISTANCE	-0.1229
-4.6607	RESOLUTE
-4.5058	RESOLUTION	-0.0202
-4.6607	RESOLVED	-0.1873
-4.3017	RESPECT	-0.1324
-5.0287	RESPECTED
-5.0287	RESPONSE	-0.2034
-4.7277	RESPONSIBILITY
-4.5516	RESPONSIBLE	-0.2475
-5.5058	RESPONSIVELY
-3.5816	REST	-0.3641
-5.5058	RESTRICTED
-3.8246	RESULT	-0.4837
-5.5058	RESULTED
-3.9261	RESULTS	-0.2502
-5.2048	RESUMED
-5.5058	RETALIATORY
-5.5058	RETINAL
-4.9038	RETIRE	-0.1649
-4.1441	RETIRED	-0.3027
-5.5058	RETIREMENT
-5.5058	RETIRES
-5.5058	RETOUCHING
-5.5058	RETRACTED
-4.9038	RETRIBUTION
-3.6863	RETURN	-0.3108
-5.5058	REUPHOLSTERING
-4.6607	REVEALED
-5.5058	REVEALING
-4.2271	REVENGE	-0.1989
-5.5058	REVENUES
-5.5058	REVERBERATED
-5.5058	REVIEW
-5.5058	REVIEWERS
-5.5058	REVISED
-5.5058	REVOLUTION
-5.5058	REVOLVING
-5.5058	REVULSION
-5.0287	REWARDED	-0.5263
-5.5058	REWRITE
-5.5058	RHINOCEROS
-5.5058	RHUBARB
-5.5058	RHYTHM
-5.5058	RHYTHMICALLY
-5.5058	RIBBONS
-5.5058	RICE
-4.0007	RICH	-0.3137
-5.5058	RICKETY
-5.2048	RIDE
-5.5058	RIDES
-5.0287	RIDGE
-5.5058	RIDICULOUSLY
-4.6027	RIDING	-0.0760
-4.5058	RIFLE	-0.0956
-5.5058	RIFLEMAN
-3.0993	RIGHT	-0.4848
-4.8069	RIGHTS	-0.2402
-5.2048	RIM
-4.9038	RINGING	-0.1654
-5.5058	RIOT
-5.5058	RIPE
-5.5058	RIPPED
-5.5058	RIPPING
-4.1836	RISE	-0.1721
-4.0745	RISING	-0.1783
-5.2048	RISKS
-5.2048	RITES
-4.3919	RITUAL	-0.2588
-5.5058	RITUALS
-4.1079	RIVER	-0.3087
-5.5058	RIVERBANK
-3.3445	ROAD	-0.4290
-4.6027	ROADWAY	-0.0990
-5.5058	ROAM
-5.5058	ROAST
-5.5058	ROB
-5.5058	ROBIN
-4.3919	ROCK	-0.1919
-5.5058	ROCKETS
-5.2048	ROCKY
-4.6027	RODE
-5.5058	RODS
-5.5058	ROGER'S
-5.5058	ROLE
-5.5058	ROLEPLAYING
-5.5058	ROLES
-4.9038	ROLL	-0.1591
-4.3919	ROLLED	-0.0790
-5.2048	ROLLS
-4.6607	ROMANCE	-0.1229
-5.5058	ROMANTIC
-5.5058	RON'S
-4.0007	ROOF	-0.2931
-5.0287	ROOFS
-5.5058	ROOFTREE
-2.7065	ROOM	-0.4974
-3.6546	ROOMS	-0.2551
-4.6607	ROOT	-0.3792
-5.5058	ROOTLESS
-5.5058	ROPES
-3.6425	ROSE	-0.3593
-5.5058	ROSES
-5.5058	ROSY
-4.1441	ROUGH	-0.1004
-5.5058	ROULETTE'S
-4.7277	ROUTINE	-0.4762
-5.5058	ROUTINELY
-5.5058	ROVE
-5.5058	ROY
-5.2048	ROYAL
-4.2506	RUBBED	-0.7735
-5.5058	RUBBERIZED
-5.5058	RUBBISH
-5.5058	RUFFLES
-4.7277	RUG	-0.0652
-5.5058	RUGS
-5.5058	RUINS
-4.5516	RULE	-0.2145
-5.2048	RULED	-0.4457
-4.8069	RULES
-5.5058	RUMEN
-3.7576	RUN	-0.1548
-4.0007	RUNNING	-0.1831
-4.5058	RUNS
-5.5058	RURAL
-4.5058	RUSHING	-0.0589
-5.5058	RUST
-5.2048	RUSTLING
-4.9038	SACRIFICE
-5.5058	SACRIFICIAL
-5.5058	SADDLEBAGS
-5.5058	SADDLED
-5.2048	SADNESS	-0.4354
-5.5058	SAFARI
-3.6308	SAFE	-0.3346
-5.5058	SAFEKEEPING
-4.8069	SAFER	-0.1176
-4.2048	SAFETY	-0.0960
-5.5058	SAGA
-5.5058	SAGGING
-2.3892	SAID	-0.9867
-5.5058	SAILBOAT
-5.5058	SAILED
-4.7277	SAILORS	-0.0652
-5.5058	SALAD
-5.5058	SALADS
-4.6027	SALARY	-0.0365
-5.0287	SALE
-5.5058	SALESMANSHIP
-5.5058	SALESMEN
-4.3297	SALT	-0.4539
-5.5058	SALTED
-5.5058	SALVATION
-3.1836	SAME	-0.2241
-4.8069	SAMPLE	-0.1198
-5.5058	SAMPLES
-5.5058	SAMPLING
-5.5058	SANDWICH
-3.9618	SANK	-0.4729
-5.5058	SARCASM
-3.2857	SAT	-0.6433
-5.5058	SATELLITES
-5.5058	SATIRICAL
-4.1634	SATISFACTION	-0.4198
-4.5516	SATISFY	-0.2086
-5.2048	SATURATED	-0.4440
-4.5058	SATURDAY	-0.0769
-5.5058	SAUCE
-5.5058	SAUERKRAUT
-4.8069	SAVAGELY	-0.1258
-3.5281	SAVE	-0.4532
-4.1634	SAVED	-0.1355
-3.0331	SAW	-0.5307
-5.5058	SAWS
-2.8878	SAY	-0.5167
-4.0587	SAYING	-0.3589
-3.8246	SAYS	-0.3376
-5.5058	SCABBARD
-5.5058	SCAFFOLD
-5.5058	SCALLOPED
-5.0287	SCALP
-5.5058	SCAMPERED
-5.0287	SCAR
-4.5058	SCARED	-0.0511
-5.5058	SCARF
-4.3597	SCATTERED	-0.2538
-4.9038	SCENERY
-5.5058	SCENES
-5.5058	SCHEDULE
-5.5058	SCHNOOKS
-5.5058	SCHOLAR
-5.5058	SCHOLARS
-5.5058	SCHOLASTIC
-4.1634	SCHOOL	-0.3137
-5.2048	SCHOOLS	-0.4073
-5.5058	SCHOONER
-4.6607	SCIENTIFIC	-0.0878
-5.5058	SCIENTISTS
-5.5058	SCOOP
-4.4644	SCORE	-0.1349
-4.9038	SCORED
-5.5058	SCOUR
-5.5058	SCOURING
-5.5058	SCOUT'S
-5.5058	SCOWLED
-5.2048	SCRAPING
-4.5516	SCRATCH	-0.0652
-4.2506	SCREAM	-0.2304
-5.5058	SCREECHED
-4.6607	SCREEN
-4.7277	SCREW	-0.3107
-5.5058	SCREWDRIVER
-5.5058	SCULPTOR
-5.5058	SCULPTURE
-5.5058	SE
-4.2506	SEA	-0.2408
-5.5058	SEAM
-5.5058	SEAMSTRESSES
-5.5058	SEAR
-3.9873	SEARCH	-0.3609
-4.6027	SEASON	-0.2656
-5.5058	SEASONING
-4.9038	SEATS
-5.5058	SEATTLE
-3.5015	SECOND	-0.2507
-5.5058	SECONDARY
-3.5468	SECRET	-0.1873
-5.5058	SECTION
-5.5058	SECTOR
-5.5058	SECULARIST
-4.4267	SECURED	-0.2127
-4.6607	SECURITY
-2.6193	SEE	-0.7545
-5.5058	SEED
-5.5058	SEEDS
-3.8724	SEEING	-0.3126
-5.5058	SEEKER
-5.5058	SEEKERS
-5.0287	SEEKING
-3.6485	SEEM	-0.7672
-3.2048	SEEMED	-0.7026
-3.5146	SEEMS	-0.5627
-3.1329	SEEN	-0.4248
-5.5058	SEISMIC
-4.0587	SELDOM	-0.0922
-5.5058	SELECTED
-5.5058	SELECTING
-5.5058	SELECTION
-5.5058	SELECTIONS
-5.5058	SELECTIVE
-4.1079	SELF	-0.2655
-5.5058	SELF'S
-5.2048	SELLER
-5.5058	SEMI
-5.5058	SEMIDRYING
-5.5058	SENATE
-3.9618	SEND	-0.3343
-4.4644	SENDING
-4.8069	SENIOR	-0.1290
-4.1441	SENSE	-0.2784
-5.5058	SENSIBLY
-4.5058	SENSITIVE	-0.0597
-5.5058	SENSORY
-5.5058	SENSUAL
-5.2048	SENTIMENT
-4.5516	SEPARATE
-5.5058	SEQUOIA
-4.6027	SERIES	-0.6170
-5.5058	SERMON
-5.5058	SERPENT'S
-4.1634	SERVE	-0.2716
-4.1634	SERVED	-0.1808
-5.2048	SERVES
-3.8526	SERVICE	-0.4027
-4.3919	SERVICES	-0.2680
-5.5058	SESAME
-3.3919	SET	-0.3755
-5.0287	SETS	-0.2337
-4.5516	SETTING	-0.1207
-4.2048	SETTLE	-0.4060
-3.5058	SEVEN	-0.2880
-4.8069	SEVENTH	-0.0895
-4.2271	SEVENTY	-0.2295
-3.6929	SEVERAL	-0.2411
-4.6607	SEVERE
-5.5058	SEW
-5.5058	SEWERS
-5.5058	SEWING
-4.9038	SEX	-0.1288
-5.5058	SEXUAL
-5.5058	SEXUALLY
-5.5058	SHABBY
-5.5058	SHACKLES
-4.7277	SHADE	-0.3076
-3.7898	SHADOW	-0.3397
-5.5058	SHADY
-4.9038	SHAFT
-4.9038	SHAG	-0.1683
-4.1441	SHAKEN	-0.1870
-5.5058	SHAKER
-5.5058	SHAKERS
-5.0287	SHAKY
-2.8683	SHALL	-0.7161
-5.5058	SHALLOWNESS
-5.2048	SHAME
-5.5058	SHAMPOO
-5.5058	SHAMPOOED
-4.4267	SHAPE	-0.2207
-4.9038	SHAPED
-5.2048	SHAPES
-4.1441	SHARE	-0.2293
-5.5058	SHARKS
-3.9376	SHARP	-0.1502
-4.5058	SHATTERED	-0.1604
-4.9038	SHAVING
-5.5058	SHAWLS
-5.5058	SHAWN
-2.4676	SHE	-0.6740
-5.5058	SHE'D
-4.6027	SHE'S	-0.1622
-4.7277	SHED	-0.0976
-4.9038	SHEETS
-5.5058	SHEIK
-5.5058	SHEILA
-5.5058	SHELL
-5.5058	SHELLFISH
-4.8069	SHELTER	-0.1176
-5.5058	SHELTERED
-5.5058	SHELTERS
-5.5058	SHELVES
-5.5058	SHERBET
-5.5058	SHERIFF
-5.5058	SHERIFF'S
-5.5058	SHIELDING
-5.5058	SHIMMERED
-5.5058	SHIMMERING
-5.5058	SHIMMERS
-4.1079	SHIP	-0.4529
-5.5058	SHIP'S
-5.5058	SHIPBUILDING
-5.0287	SHIPMATE
-5.2048	SHIPS
-5.5058	SHIPSHAPE
-4.6607	SHIRT	-0.4416
-5.5058	SHIRTSLEEVE
-5.0287	SHIVERING	-0.2337
-4.1256	SHOCK	-0.2942
-4.6607	SHOCKED
-5.2048	SHOCKING
-5.5058	SHOCKS
-5.5058	SHOELACES
-4.2754	SHOES	-0.3336
-4.2506	SHONE	-0.2711
-3.7655	SHOOK	-0.6786
-4.5516	SHOOT	-0.2560
-4.2754	SHOP	-0.1721
-5.5058	SHOPKEEPERS
-4.9038	SHORE
-3.6733	SHORT	-0.2391
-5.5058	SHORTAGE
-5.5058	SHORTEN
-4.0745	SHORTLY	-0.6036
-3.6798	SHOT	-0.2637
-2.6956	SHOULD	-0.5927
-3.7500	SHOULDER	-0.5983
-4.3597	SHOUTED	-0.1082
-5.2048	SHOVE
-5.5058	SHOVELS
-5.2048	SHOVING
-3.5663	SHOW	-0.3171
-3.4644	SHOWED	-0.6678
-5.5058	SHOWERING
-5.5058	SHOWERS
-4.2271	SHOWING	-0.3752
-3.7277	SHOWN	-0.2984
-4.1634	SHOWS	-0.3354
-5.5058	SHRAPNEL
-5.5058	SHREDDED
-5.5058	SHREDDER
-4.8069	SHRIEKED
-5.5058	SHRIMP
-4.8069	SHRINKING	-0.1284
-5.5058	SHRUBS
-5.5058	SHRUGGED
-5.5058	SHRUGS
-5.5058	SHUCKS
-5.5058	SHUDDERING
-5.5058	SHUFFLE
-4.0145	SHUT	-0.2893
-5.5058	SHUTTER
-5.2048	SHY
-5.5058	SIAMESE
-4.3297	SICK	-0.2873
-3.1256	SIDE	-0.6309
-4.3597	SIDES	-0.1562
-5.5058	SIDEWINDER
-4.5516	SIGH	-0.4376
-5.5058	SIGHING
-5.5058	SIGHTSEERS
-3.6308	SIGN	-0.6724
-4.6027	SIGNALS	-0.4422
-4.6607	SIGNED	-0.1763
-5.5058	SIGNIFICANT
-3.9873	SIGNS	-0.5763
-3.6082	SILENCE	-0.4342
-3.8624	SILENT	-0.2394
-5.5058	SILHOUETTE
-5.5058	SILKY
-5.5058	SILLY
-4.2506	SILVER	-0.0686
-5.5058	SILVERWARE
-5.5058	SIMMER
-5.5058	SIMMERED
-3.7350	SIMPLE	-0.2840
-4.7277	SIMPLER
-4.9038	SIMPLEST
-4.2048	SIMPLY	-0.0209
-4.8069	SIN	-0.1250
-3.1983	SINCE	-0.5510
-5.5058	SINCERE
-5.2048	SINCERITY
-4.9038	SINEWY	-0.1683
-5.5058	SING
-5.5058	SINGER'S
-4.0007	SINGLE	-0.0981
-3.6366	SINGULAR	-0.1787
-5.5058	SINUOUS
-5.5058	SINUS
-2.9318	SIR	-0.6553
-3.8624	SIT	-0.5521
-5.2048	SITE	-0.4376
-3.5713	SITTING	-0.4793
-4.6607	SITUATED	-0.2153
-3.8526	SITUATION	-0.2793
-5.5058	SITUATIONS
-3.4888	SIX	-0.2839
-4.4644	SIXTY	-0.2061
-4.1836	SIZE	-0.2568
-4.9038	SIZED
-5.5058	SIZZLED
-5.5058	SKATING
-5.0287	SKETCHED	-0.5644
-5.5058	SKEWERS
-5.5058	SKI
-5.5058	SKIFFS
-5.5058	SKIING
-4.5516	SKILL	-0.1594
-5.5058	SKILLED
-5.5058	SKILLS
-4.2506	SKIN	-0.1124
-5.5058	SKINLESS
-5.5058	SKIRMISH
-5.0287	SKIRT	-0.2337
-5.2048	SKIRTS
-4.3017	SKY	-0.2710
-5.5058	SKYWAVE
-4.7277	SLAMMED
-5.5058	SLANTED
-5.2048	SLAPPED
-5.5058	SLASH
-5.5058	SLATE
-5.5058	SLAVERY
-3.8624	SLEEP	-0.3058
-5.5058	SLEEPILY
-4.8069	SLEEPING	-0.1176
-4.9038	SLEEPY
-5.5058	SLEIGH
-4.2271	SLEPT	-0.3685
-5.2048	SLID
-4.8069	SLIGHTLY	-0.0895
-3.9261	SLIP	-0.4386
-4.0007	SLIPPED	-0.2300
-5.0287	SLIPPING
-4.8069	SLIPS
-5.0287	SLOPE
-5.2048	SLOPES
-5.5058	SLOPPY
-5.5058	SLOVENLINESS
-4.4267	SLOW	-0.0377
-4.7277	SLOWED	-0.1038
-3.9148	SLOWLY	-0.1851
-5.5058	SLUDGE
-5.5058	SLUG
-5.5058	SLUGGING
-5.5058	SLUICING
-5.5058	SLUMS
-5.5058	SLYLY
-5.5058	SLYNESS
-3.2554	SMALL	-0.1298
-5.2048	SMASH
-4.8069	SMASHED
-4.2271	SMELL	-0.4020
-5.2048	SMELLED	-0.4266
-3.7205	SMILE	-0.3772
-4.0007	SMILED	-0.4772
-5.0287	SMILES
-3.9038	SMILING	-0.4535
-5.5058	SMITHS
-4.0587	SMOKE	-0.0597
-5.5058	SMOLDERINGLY
-5.5058	SMOOTH
-5.0287	SMOOTHED
-5.5058	SMOTHERED
-5.0287	SNAKE
-5.5058	SNAKES
-5.5058	SNAPPER
-5.5058	SNAPPING
-5.0287	SNARLED	-0.2034
-4.5058	SNATCHED	-0.0996
-5.5058	SNEEZED
-5.2048	SNIPS
-4.1836	SNOW	-0.2056
-5.5058	SNOWED
-2.3800	SO	-0.4352
-5.5058	SOAK
-5.2048	SOAKED
-4.8069	SOBER
-4.8069	SOCIAL	-0.1290
-5.5058	SOCIALIZED
-3.8826	SOCIETY	-0.2028
-4.8069	SOCKS	-0.1176
-4.3297	SOFT	+0.0006
-4.9038	SOFTLY
-4.6027	SOIL	-0.0365
-5.5058	SOILS
-5.2048	SOLAR	-0.4469
-4.3597	SOLD	-0.1148
-5.5058	SOLDIERING
-4.6607	SOLDIERS
-5.5058	SOLICITS
-4.2048	SOLID	-0.1161
-5.5058	SOLIDARITY
-5.5058	SOLITARY
-5.5058	SOLITUDE
-3.9261	SOLUTION	-0.4931
-4.2506	SOLVE	-0.1968
-4.1836	SOLVED	-0.4704
-5.5058	SOLVES
-2.6601	SOME	-0.4825
-4.6607	SOMEBODY
-5.5058	SOMEBODY'LL
-4.7277	SOMEHOW
-3.5816	SOMEONE	-0.3171
-5.5058	SOMEPLACE
-3.1595	SOMETHING	-0.4563
-5.5058	SOMETIME
-3.8931	SOMETIMES	-0.1344
-4.3297	SOMEWHAT	-0.0799
-4.2048	SOMEWHERE	-0.1432
-3.6137	SON	-0.2699
-5.0287	SONG	-0.2034
-5.5058	SONGS
-5.5058	SONIC
-3.4930	SOON	-0.1859
-4.9038	SOOTHE
-5.2048	SOOTHED
-5.5058	SOOTHINGLY
-5.5058	SOPHISTICATED
-5.5058	SOPHISTICATION
-5.5058	SORCERY
-5.2048	SORDID
-4.5516	SORROW	-0.0554
-3.9376	SORRY	-0.5462
-3.6863	SORT	-0.4252
-4.7277	SOUGHT	-0.1013
-3.8624	SOUL	-0.1814
-4.7277	SOULS	-0.1571
-3.7134	SOUND	-0.2757
-4.7277	SOUNDED
-5.5058	SOUP
-5.2048	SOUR
-4.5516	SOURCE	-0.1618
-5.5058	SOURCES
-4.3017	SOUTH	-0.1802
-5.5058	SOUTHWEST
-5.5058	SOYBEAN
-5.5058	SOYBEANS
-5.5058	SOYSAUCE
-4.5058	SPACE	-0.2400
-5.5058	SPACED
-5.5058	SPADE
-5.5058	SPADES
-5.0287	SPANISH
-5.5058	SPATIAL
-3.6082	SPEAK	-0.3432
-5.5058	SPEAKER
-4.3017	SPECIAL	-0.0637
-5.2048	SPECIALTY
-5.5058	SPECIES
-5.5058	SPECIFIC
-5.5058	SPECTACULAR
-5.5058	SPECTATOR
-5.5058	SPECULATED
-5.0287	SPECULATIONS
-4.2048	SPEECH	-0.2674
-4.2271	SPEND	-0.3628
-4.9038	SPENDING	-0.1480
-3.8069	SPENT	-0.3778
-5.5058	SPHERE
-5.5058	SPHERICAL
-5.5058	SPIDER
-5.5058	SPIKE
-5.2048	SPILLED
-5.5058	SPINACH
-4.5516	SPIRIT	-0.1207
-4.8069	SPIRITED	-0.1286
-4.2754	SPIRITS	-0.4252
-5.5058	SPIRITUAL
-5.5058	SPIT
-5.0287	SPLASHED
-5.5058	SPLENDIDLY
-5.5058	SPLENDOR
-5.2048	SPLINTER
-5.5058	SPLURGE
-5.5058	SPLURGED
-5.5058	SPOILAGE
-5.2048	SPOILED
-3.5015	SPOKE	-0.4290
-4.0909	SPOKEN	-0.3472
-5.5058	SPOKES
-5.5058	SPONGES
-5.5058	SPONSORS
-4.9038	SPORT
-5.5058	SPORTS
-5.5058	SPORTSMEN
-3.9038	SPOT	-0.3005
-4.7277	SPOTTED	-0.0844
-5.5058	SPOUTED
-5.5058	SPRAINED
-3.5281	SPRANG	-0.9258
-4.9038	SPRAY	-0.1591
-4.5058	SPREAD	-0.1749
-5.5058	SPREADER
-4.0007	SPRING	-0.1959
-5.5058	SPRINKLING
-5.5058	SPROUTED
-5.5058	SPROUTING
-5.5058	SPUN
-5.5058	SPURIOUS
-5.5058	SPURS
-5.5058	SPUTNIKS
-4.0287	SQUARE	-0.1348
-5.5058	SQUARED
-5.5058	SQUASHY
-5.5058	SQUEAKED
-5.5058	SQUEAMISHNESS
-5.0287	SQUEEZED
-5.5058	SQUELCHED
-5.0287	STAB
-4.2048	STABLE	-0.3606
-5.5058	STACKED
-4.9038	STAFF	-0.1288
-5.5058	STAG
-4.3297	STAGE	-0.1050
-4.2754	STAGGERED	-0.4010
-4.3597	STAKE	-0.2353
-5.5058	STAMPEDE
-3.6366	STAND	-0.2667
-5.2048	STANDARDIZED
-5.5058	STANDARDS
-5.5058	STANDBY
-4.9038	STAR
-5.5058	STARCHY
-3.9148	STARED	-0.5102
-3.7277	START	-0.3100
-3.7134	STARTED	-0.3763
-4.5516	STARTLING
-3.9376	STATE	-0.3060
-3.9148	STATEMENT	-0.2800
-4.4267	STATES	-0.1065
-5.5058	STATUE
-5.5058	STATUESQUE
-5.5058	STATUS
-5.5058	STATUTORY
-4.0587	STAY	-0.3513
-4.2754	STAYED	-0.2444
-4.9038	STEAM
-5.2048	STEAMING
-4.7277	STEEL	-0.0652
-5.0287	STEEP
-5.5058	STEMS
-3.5868	STEP	-0.2426
-5.5058	STEPH
-5.5058	STEPLADDERS
-5.5058	STEPMOTHER
-3.7424	STEPS	-0.1013
-5.5058	STERILIZATION
-5.5058	STEVE
-5.5058	STEW
-3.7983	STICK	-0.1922
-5.5058	STIFFLY
-3.1836	STILL	-0.1481
-5.5058	STIMULATES
-5.0287	STIMULATING
-5.5058	STINGING
-5.5058	STINGS
-4.9038	STIRRED
-5.5058	STIRRIN
-5.5058	STIRRUP
-4.4267	STOCK	-0.0932
-5.2048	STOCKINGS
-5.5058	STOCKROOM
-5.5058	STOICISM
-4.5516	STOLE	-0.0668
-5.2048	STOMACH
-5.5058	STOMPED
-3.9038	STONE	-0.1014
-5.5058	STONEWARE
-3.3415	STOOD	-0.4205
-4.8069	STOOL	-0.1289
-5.0287	STOOP	-0.2314
-4.0587	STOP	-0.1373
-3.9038	STOPPED	-0.2978
-4.8069	STOPPING
-5.5058	STOPWATCH
-4.5058	STORE	-0.3786
-5.2048	STORED
-4.7277	STORM
-5.5058	STORMS
-3.4765	STORY	-0.3113
-5.5058	STORYLINE
-5.5058	STORYLINES
-3.8246	STRAIGHT	-0.2016
-4.8069	STRAIGHTENED	-0.3043
-5.5058	STRAIGHTFORWARD
-4.3919	STRAIN	-0.1169
-4.8069	STRAINED	-0.0895
-5.5058	STRANDED
-3.9618	STRANGER	-0.1805
-5.5058	STRATEGIC
-5.5058	STRATEGY
-4.6607	STRAW	-0.1229
-5.5058	STRAWBERRIES
-5.5058	STRAWBERRY
-5.2048	STRAY
-4.4644	STREAM	-0.0635
-5.0287	STREAMED	-0.2415
-5.5058	STREAMLINED
-5.5058	STREAMS
-3.1311	STREET	-0.4422
-4.1836	STREETS	-0.2090
-4.0007	STRENGTH	-0.3906
-4.9038	STRENGTHEN
-4.9038	STRESS	-0.1666
-4.0587	STRETCHED	-0.2481
-4.1634	STRIKE	-0.3451
-5.5058	STRIKINGLY
-5.5058	STRIP
-5.5058	STRIPED
-5.5058	STRIPPED
-5.5058	STRIPPERS
-4.6607	STROLLED	-0.1953
-3.6929	STRONG	-0.1727
-5.5058	STRONGHOLD
-4.3919	STRONGLY	-0.0444
-3.5764	STRUCK	-0.4974
-5.5058	STRUCTURAL
-5.5058	STRUCTURE
-5.5058	STRUCTURES
-4.1836	STRUGGLE	-0.2014
-4.7277	STRUGGLING
-4.5516	STUCK
-4.7277	STUDENTS
-5.5058	STUDENTS'
-5.5058	STUDIO
-3.6425	STUDY	-0.3713
-5.5058	STUMPING
-5.5058	STUNG
-5.0287	STUPID
-4.6027	STYLE	-0.4208
-5.5058	STYLISH
-4.7277	SUBDUED	-0.1013
-5.5058	SUBGROUPS
-3.9744	SUBJECT	-0.3561
-5.5058	SUBJECTIVE
-5.0287	SUBMARINE
-4.8069	SUBMIT	-0.1177
-5.5058	SUBSTANCES
-5.2048	SUBSTANTIAL
-5.5058	SUBSTANTIALLY
-5.5058	SUBSYSTEMS
-5.5058	SUBTITLES
-5.5058	SUBTRACTION
-5.5058	SUBURBAN
-5.5058	SUBURBANITES
-5.5058	SUBURBS
-5.5058	SUBWAY
-5.5058	SUCCEEDING
-4.0909	SUCCESS	-0.4196
-4.2271	SUCCESSFUL	-0.2167
-5.5058	SUCCESSFULLY
-5.5058	SUCCESSORS
-3.0103	SUCH	-0.5449
-5.5058	SUCKING
-3.8337	SUDDEN	-0.2143
-3.4528	SUDDENLY	-0.2238
-5.5058	SUEY
-5.0287	SUFFER	-0.2034
-4.5516	SUFFERED	-0.0635
-5.5058	SUFFERS
-5.5058	SUFFICIENCY
-4.3597	SUFFICIENT	-0.1929
-5.5058	SUFFICIENTLY
-5.5058	SUGAR
-4.2506	SUGGESTION	-0.3453
-4.3297	SUICIDE	-0.1525
-5.2048	SUITABLE
-5.5058	SUITABLY
