COUNTS

BIGRAM: method Katz, cutoff 1
  coef[7]: 0.000000 0.642627 0.728276 0.776851 0.807617 0.893548 0.872649

TRIGRAM: method Katz, cutoff 1
  coef[7]: 0.000000 0.514608 0.632893 0.730875 0.759696 0.847770 0.803800

\data\
ngram 1=6103
ngram 2~27651
ngram 3~36405

\1-grams:
+1.0000	!!UNK
+3.0000	'EM
+27889.0000	</s>	+0.0000
+24784.0000	<s>	+229.0000
+5797.0000	A	+362.0000
+1.0000	ABBREVIATE
+1.0000	ABDOMEN
+1.0000	ABIDES
+5.0000	ABILITY	+1.0000
+108.0000	ABLE	+8.0000
+1.0000	ABLY
+1.0000	ABOLISH
+1.0000	ABORIGINE
+1.0000	ABORIGINES
+566.0000	ABOUT	+34.0000
+99.0000	ABOVE	+18.0000
+5.0000	ABRUPTLY	+3.0000
+1.0000	ABSENCES
+18.0000	ABSENT	+10.0000
+21.0000	ABSOLUTE	+15.0000
+1.0000	ABSOLUTION
+19.0000	ABSORBED	+8.0000
+1.0000	ABSORPTION
+17.0000	ABSURD	+8.0000
+5.0000	ABSURDLY	+1.0000
+6.0000	ABYSS	+2.0000
+1.0000	ACADEMIC
+1.0000	ACCELERATING
+1.0000	ACCELEROMETER
+1.0000	ACCELEROMETERS
+8.0000	ACCENT	+1.0000
+11.0000	ACCEPT	+5.0000
+2.0000	ACCEPTANCE	+0.0000
+4.0000	ACCEPTED
+4.0000	ACCESS	+1.0000
+21.0000	ACCIDENT	+9.0000
+1.0000	ACCLAIM
+1.0000	ACCLAIMED
+3.0000	ACCOMMODATE
+2.0000	ACCOMPLISH
+2.0000	ACCOMPLISHED
+3.0000	ACCOMPLISHMENTS	+1.0000
+15.0000	ACCORDING	+0.0000
+3.0000	ACCORDINGLY
+96.0000	ACCOUNT	+9.0000
+10.0000	ACCOUNTS	+4.0000
+1.0000	ACCREDITATION
+3.0000	ACCURACY
+4.0000	ACCURATE
+1.0000	ACCUSATIONS
+2.0000	ACCUSE	+0.0000
+1.0000	ACCUSINGLY
+1.0000	ACE
+1.0000	ACHES
+1.0000	ACHIEVE
+1.0000	ACHIEVED
+7.0000	ACKNOWLEDGE	+1.0000
+2.0000	ACKNOWLEDGED	+0.0000
+3.0000	ACQUIESCENCE	+1.0000
+2.0000	ACQUIRE
+4.0000	ACRES
+1.0000	ACROPOLIS
+125.0000	ACROSS	+12.0000
+33.0000	ACT	+10.0000
+43.0000	ACTION	+15.0000
+12.0000	ACTIONS	+4.0000
+1.0000	ACTIVATED
+1.0000	ACTIVITIES
+4.0000	ACTIVITY
+3.0000	ACTOR
+2.0000	ACTORS
+2.0000	ACTS
+7.0000	ACTUAL
+23.0000	ACTUALLY	+14.0000
+1.0000	ADAGE
+1.0000	ADAPTATIONS
+21.0000	ADD	+7.0000
+26.0000	ADDED	+10.0000
+8.0000	ADDITION	+4.0000
+1.0000	ADDITIVES
+56.0000	ADDRESS	+13.0000
+15.0000	ADDRESSED	+5.0000
+2.0000	ADEQUATE
+1.0000	ADHESIVE
+1.0000	ADJOURNED
+1.0000	ADJUSTABLE
+1.0000	ADJUSTMENTS
+5.0000	ADMINISTRATION	+1.0000
+1.0000	ADMINISTRATIVE
+1.0000	ADMIRE
+9.0000	ADMITTED	+3.0000
+1.0000	ADMITTING
+7.0000	ADOPTED	+5.0000
+1.0000	ADULT
+1.0000	ADULTERERS
+1.0000	ADULTHOOD
+1.0000	ADULTS
+24.0000	ADVANCE	+13.0000
+17.0000	ADVANCED	+11.0000
+2.0000	ADVANCES
+23.0000	ADVANTAGE	+3.0000
+6.0000	ADVANTAGES	+3.0000
+22.0000	ADVENTURE	+9.0000
+16.0000	ADVENTURES	+5.0000
+2.0000	ADVERTISING
+53.0000	ADVICE	+15.0000
+1.0000	ADVISABLE
+6.0000	ADVISED	+4.0000
+1.0000	ADVISEMENT
+1.0000	AERIAL
+5.0000	AFFECT
+4.0000	AFFECTIONATE
+1.0000	AFFIRMATIVE
+1.0000	AFLOAT
+49.0000	AFRAID	+6.0000
+356.0000	AFTER	+37.0000
+34.0000	AFTERNOON	+13.0000
+62.0000	AFTERWARDS	+18.0000
+334.0000	AGAIN	+40.0000
+184.0000	AGAINST	+14.0000
+42.0000	AGE	+15.0000
+4.0000	AGENCY	+0.0000
+3.0000	AGENDA	+0.0000
+12.0000	AGENTS	+8.0000
+1.0000	AGGLOMERATION
+1.0000	AGGRESSIVE
+1.0000	AGLOW
+84.0000	AGO	+14.0000
+11.0000	AGONY	+0.0000
+14.0000	AGREE	+2.0000
+20.0000	AGREED	+4.0000
+2.0000	AGRICULTURAL
+1.0000	AHAH
+9.0000	AHEAD	+4.0000
+20.0000	AID	+9.0000
+4.0000	AIDED
+1.0000	AIDS
+2.0000	AIM
+4.0000	AIMED	+1.0000
+1.0000	AIMLESS
+14.0000	AIN'T	+10.0000
+78.0000	AIR	+12.0000
+1.0000	AIRBORNE
+1.0000	AIRCRAFT
+1.0000	AIRFIELDS
+1.0000	AIRPLANES
+1.0000	AL
+52.0000	ALARM	+24.0000
+1.0000	ALCOHOL
+1.0000	ALCOHOLIC
+1.0000	ALCOHOLICS
+1.0000	ALCOVES
+16.0000	ALERT	+9.0000
+1.0000	ALFALFA
+1.0000	ALGAE
+1.0000	ALGEBRAIC
+8.0000	ALIBI	+1.0000
+12.0000	ALICE	+7.0000
+1.0000	ALICE'S
+1.0000	ALIEN
+1.0000	ALIGNING
+1.0000	ALIMONY
+1.0000	ALKALINE
+1268.0000	ALL	+151.0000
+1.0000	ALLERGIES
+1.0000	ALLEVIATE
+1.0000	ALLIGATORS
+1.0000	ALLOT
+25.0000	ALLOW	+7.0000
+1.0000	ALLOWABLE
+7.0000	ALLOWANCE	+3.0000
+24.0000	ALLOWED	+10.0000
+1.0000	ALLURE
+1.0000	ALMONDS
+42.0000	ALMOST	+17.0000
+86.0000	ALONE	+20.0000
+73.0000	ALONG	+21.0000
+15.0000	ALOUD	+2.0000
+137.0000	ALREADY	+65.0000
+141.0000	ALSO	+37.0000
+1.0000	ALTERNATED
+13.0000	ALTERNATIVE	+4.0000
+24.0000	ALTHOUGH	+10.0000
+19.0000	ALTOGETHER	+10.0000
+1.0000	ALUMINUM
+1.0000	ALUMNI
+152.0000	ALWAYS	+65.0000
+448.0000	AM	+58.0000
+6.0000	AMATEUR
+3.0000	AMAZE
+8.0000	AMAZED	+6.0000
+1.0000	AMBASSADOR
+1.0000	AMBASSADOR'S
+4.0000	AMBER	+1.0000
+1.0000	AMBIDEXTROUS
+1.0000	AMBIGUITY
+1.0000	AMBIGUOUS
+1.0000	AMBITIONS
+2.0000	AMBITIOUS
+1.0000	AMBLED
+1.0000	AMBULANCE
+35.0000	AMERICAN	+19.0000
+1.0000	AMMO
+1.0000	AMOEBAS
+89.0000	AMONG	+11.0000
+1.0000	AMORIST
+9.0000	AMOUNT	+4.0000
+1.0000	AMOUNTS
+7.0000	AMPLE	+4.0000
+854.0000	AN	+84.0000
+1.0000	ANAESTHESIA
+13.0000	ANALYSIS	+5.0000
+1.0000	ANALYTICITY
+1.0000	ANARCHY
+1.0000	ANATOMICAL
+1.0000	ANCHOR
+7.0000	ANCIENT
+8357.0000	AND	+538.0000
+1.0000	ANDREI'S
+1.0000	ANECDOTAL
+24.0000	ANGER	+11.0000
+1.0000	ANGORA
+5.0000	ANGRILY	+1.0000
+19.0000	ANGRY	+7.0000
+1.0000	ANGULAR
+12.0000	ANIMAL	+10.0000
+1.0000	ANIMALS
+2.0000	ANKLE
+1.0000	ANNOUNCING
+1.0000	ANNOYING
+1.0000	ANNUAL
+1.0000	ANONYMOUS
+135.0000	ANOTHER	+62.0000
+95.0000	ANSWER	+24.0000
+187.0000	ANSWERED	+21.0000
+10.0000	ANSWERS	+6.0000
+1.0000	ANT
+1.0000	ANTAGONISTIC
+1.0000	ANTARCTIC
+1.0000	ANTELOPE
+1.0000	ANTI
+3.0000	ANTICIPATED
+1.0000	ANTIGEN
+1.0000	ANTISEPTIC
+1.0000	ANTITHESIS
+1.0000	ANTS
+15.0000	ANXIETY	+9.0000
+440.0000	ANY	+120.0000
+1.0000	ANYBODY
+33.0000	ANYHOW	+8.0000
+96.0000	ANYONE	+31.0000
+1.0000	ANYONE'S
+204.0000	ANYTHING	+38.0000
+6.0000	ANYWAY	+1.0000
+1.0000	APARTMENTS
+11.0000	APOLOGY	+8.0000
+18.0000	APPARENTLY	+16.0000
+3.0000	APPEALING
+49.0000	APPEAR	+7.0000
+54.0000	APPEARANCE	+10.0000
+107.0000	APPEARED	+13.0000
+49.0000	APPEARS	+7.0000
+5.0000	APPETITE
+1.0000	APPETITES
+1.0000	APPETIZERS
+3.0000	APPLE	+1.0000
+1.0000	APPLES
+1.0000	APPLIANCES
+1.0000	APPLICABILITY
+2.0000	APPLICATION
+1.0000	APPLICATIONS
+7.0000	APPLIED	+3.0000
+1.0000	APPLIES
+10.0000	APPLY	+2.0000
+2.0000	APPLYING
+2.0000	APPOINTED
+21.0000	APPOINTMENT	+9.0000
+1.0000	APPRAISAL
+5.0000	APPRECIATE	+1.0000
+2.0000	APPRECIATED
+1.0000	APPRECIATIVELY
+13.0000	APPROACH	+7.0000
+37.0000	APPROACHED	+8.0000
+2.0000	APPROPRIATE
+1.0000	APPROVAL
+1.0000	APPROVED
+6.0000	APPROVINGLY	+1.0000
+1.0000	APPROXIMATED
+1.0000	APPROXIMATION
+1.0000	APRONS
+1.0000	APTITUDE
+1.0000	AQUATIC
+3.0000	ARBITRARY
+1.0000	ARBITRATE
+1.0000	ARBOREAL
+1.0000	ARC
+2.0000	ARCADE
+1.0000	ARCHEOLOGICAL
+1007.0000	ARE	+156.0000
+5.0000	AREA	+3.0000
+1.0000	AREAS
+1.0000	AREN'T
+10.0000	ARGUE	+5.0000
+8.0000	ARGUED	+4.0000
+8.0000	ARGUMENT	+6.0000
+3.0000	ARISE
+1.0000	ARISES
+5.0000	ARISTOCRATIC
+47.0000	ARM	+11.0000
+34.0000	ARMCHAIR	+12.0000
+13.0000	ARMED	+4.0000
+36.0000	ARMS	+12.0000
+12.0000	ARMY	+2.0000
+6.0000	AROSE	+4.0000
+20.0000	AROUND	+9.0000
+8.0000	ARRANGE	+6.0000
+18.0000	ARRANGED	+10.0000
+16.0000	ARRIVAL	+2.0000
+15.0000	ARRIVE	+7.0000
+45.0000	ARRIVED	+23.0000
+2.0000	ARRIVING	+0.0000
+9.0000	ART
+13.0000	ARTICLE	+4.0000
+1.0000	ARTICULATION
+2.0000	ARTIFICIAL
+7.0000	ARTIST	+4.0000
+2.0000	ARTISTIC	+0.0000
+1.0000	ARTISTS
+2585.0000	AS	+128.0000
+17.0000	ASHAMED	+0.0000
+1.0000	ASHTRAY
+15.0000	ASIDE	+13.0000
+161.0000	ASK	+17.0000
+261.0000	ASKED	+26.0000
+16.0000	ASLEEP	+9.0000
+6.0000	ASPECT	+2.0000
+1.0000	ASPECTS
+1.0000	ASSAIL
+6.0000	ASSASSIN
+1.0000	ASSAULTS
+2.0000	ASSEMBLED
+1.0000	ASSEMBLING
+3.0000	ASSERT	+1.0000
+1.0000	ASSIGN
+1.0000	ASSIGNMENT
+36.0000	ASSISTANCE	+7.0000
+5.0000	ASSISTANT
+14.0000	ASSOCIATED	+8.0000
+6.0000	ASSOCIATES
+2.0000	ASSOCIATIONS
+5.0000	ASSUME	+3.0000
+8.0000	ASSUMED	+5.0000
+50.0000	ASSURE	+5.0000
+29.0000	ASSURED	+9.0000
+3.0000	ASSUREDLY
+4.0000	ASSURES	+0.0000
+2.0000	ASSURING
+1.0000	ASTHMA
+1.0000	ASTONISHINGLY
+1.0000	ASTRONOMY
+1.0000	ASTROPHYSICS
+2393.0000	AT	+37.0000
+2.0000	ATE
+1.0000	ATHEISTS
+2.0000	ATHLETIC
+13.0000	ATMOSPHERE	+4.0000
+1.0000	ATOMIC
+1.0000	ATOMS
+1.0000	ATOP
+2.0000	ATTACH
+18.0000	ATTACK	+7.0000
+12.0000	ATTACKED	+3.0000
+9.0000	ATTEMPTED	+3.0000
+2.0000	ATTENDANCE
+1.0000	ATTENDANTS
+83.0000	ATTENTION	+10.0000
+8.0000	ATTITUDE
+10.0000	ATTRACTED	+6.0000
+4.0000	ATTRACTIVE
+1.0000	ATTRIBUTED
+1.0000	ATYPICAL
+1.0000	AUBURN
+3.0000	AUDIENCE	+1.0000
+1.0000	AUDIO
+1.0000	AUDITION
+1.0000	AUDITORS
+1.0000	AUDITORY
+1.0000	AUDITS
+1.0000	AUGMENTED
+1.0000	AUNT
+5.0000	AUSTERE	+3.0000
+4.0000	AUTHOR	+0.0000
+1.0000	AUTHOR'S
+7.0000	AUTHORITIES	+5.0000
+8.0000	AUTHORITY	+4.0000
+1.0000	AUTHORIZATION
+1.0000	AUTHORIZED
+1.0000	AUTISTIC
+1.0000	AUTOFLUORESCENCE
+1.0000	AUTOGRAPHS
+1.0000	AUTOMATIC
+1.0000	AUTOMOBILE
+1.0000	AUTONOMY
+5.0000	AUTUMN
+2.0000	AVAILABLE
+1.0000	AVALANCHE
+2.0000	AVERAGE
+1.0000	AVOCADO
+1.0000	AVOCADOS
+12.0000	AVOID	+8.0000
+3.0000	AVOIDED
+1.0000	AVOIDING
+1.0000	AVOWED
+1.0000	AW
+1.0000	AWARDS
+49.0000	AWARE	+7.0000
+313.0000	AWAY	+37.0000
+2.0000	AWE
+8.0000	AWKWARD	+6.0000
+4.0000	AWOKE
+1.0000	AXIS
+1.0000	BABBLED
+1.0000	BABOON'S
+493.0000	BACK	+46.0000
+8.0000	BACKED	+6.0000
+1.0000	BACKGROUNDS
+18.0000	BACKWARD	+4.0000
+1.0000	BACKYARDS
+1.0000	BACTERIA
+66.0000	BAD	+23.0000
+1.0000	BADNESS
+1.0000	BAFFLE
+27.0000	BAG	+3.0000
+1.0000	BAGPIPES
+3.0000	BAGS	+0.0000
+1.0000	BAKE
+11.0000	BALANCE	+6.0000
+1.0000	BALE
+3.0000	BALEFUL	+1.0000
+7.0000	BALL	+5.0000
+1.0000	BALLET
+1.0000	BALLETS
+1.0000	BALLOONS
+1.0000	BALLPLAYER
+1.0000	BALLS
+1.0000	BALLYHOO
+1.0000	BANDAGED
+1.0000	BANDAGES
+21.0000	BANK	+9.0000
+3.0000	BANKERS
+4.0000	BANKS
+1.0000	BARB
+1.0000	BARB'S
+1.0000	BARBARIC
+1.0000	BARBECUE
+1.0000	BARBED
+7.0000	BARE	+4.0000
+1.0000	BARELY
+1.0000	BARGAINS
+6.0000	BARK	+4.0000
+1.0000	BARLEY
+1.0000	BARN
+1.0000	BAROMETRIC
+1.0000	BARRACUDA
+5.0000	BARRELS
+1.0000	BARRICADES
+1.0000	BARRIERS
+2.0000	BASE
+1.0000	BASEBALL
+1.0000	BASEBALL'S
+2.0000	BASED
+1.0000	BASIC
+6.0000	BASIS
+1.0000	BASKETBALL
+11.0000	BATH	+3.0000
+1.0000	BATHE
+1.0000	BATHING
+1.0000	BATHS
+1.0000	BATHTUBS
+1.0000	BATTERY
+1.0000	BATTING
+6.0000	BAY	+4.0000
+1.0000	BAYED
+1.0000	BAYONET
+1.0000	BAYOU
+1.0000	BAZAAR
+1742.0000	BE	+218.0000
+2.0000	BEACH
+1.0000	BEANS
+27.0000	BEARD	+12.0000
+22.0000	BEAT	+12.0000
+1.0000	BEATNIKS
+33.0000	BEAUTIFUL	+17.0000
+3.0000	BEAUTIFULLY
+15.0000	BEAUTY	+6.0000
+1.0000	BECALMED
+39.0000	BECAME	+19.0000
+112.0000	BECAUSE	+15.0000
+1.0000	BECKONS
+33.0000	BECOME	+9.0000
+12.0000	BECOMES	+8.0000
+5.0000	BECOMING
+103.0000	BED	+27.0000
+1.0000	BEDLAM
+73.0000	BEDROOM	+18.0000
+9.0000	BEDROOMS	+5.0000
+2.0000	BEDS
+1.0000	BEEFSTEAK
+1089.0000	BEEN	+172.0000
+1.0000	BEEP
+2.0000	BEER
+1.0000	BEERS
+647.0000	BEFORE	+32.0000
+31.0000	BEG	+5.0000
+72.0000	BEGAN	+8.0000
+7.0000	BEGGAR	+4.0000
+23.0000	BEGIN	+7.0000
+32.0000	BEGINNING	+6.0000
+5.0000	BEGINS	+2.0000
+3.0000	BEHAVED
+1.0000	BEHAVIOR
+162.0000	BEHIND	+11.0000
+135.0000	BEING	+51.0000
+1.0000	BELCHED
+116.0000	BELIEVE	+14.0000
+14.0000	BELIEVED	+3.0000
+1.0000	BELLHOPS
+1.0000	BELLOWS
+1.0000	BELLS
+5.0000	BELONG	+1.0000
+11.0000	BELONGS	+4.0000
+1.0000	BELOVED
+31.0000	BELOW	+9.0000
+1.0000	BELT
+2.0000	BENCH
+32.0000	BENEATH	+10.0000
+6.0000	BENEFIT	+4.0000
+1.0000	BENEFITS
+1.0000	BEQUESTS
+1.0000	BEREFT
+92.0000	BESIDE	+4.0000
+39.0000	BESIDES	+13.0000
+129.0000	BEST	+39.0000
+8.0000	BET
+1.0000	BETIDE
+8.0000	BETRAYED	+2.0000
+155.0000	BETTER	+53.0000
+184.0000	BETWEEN	+18.0000
+1.0000	BEVERAGE
+1.0000	BEVERAGES
+57.0000	BEYOND	+19.0000
+1.0000	BIASED
+1.0000	BIBLICAL
+1.0000	BIBLIOGRAPHIES
+1.0000	BICKERING
+1.0000	BIDDING
+27.0000	BIG	+22.0000
+1.0000	BIGGER
+1.0000	BIKE
+10.0000	BILL	+6.0000
+1.0000	BILLOWED
+5.0000	BILLS
+1.0000	BINOMIAL
+1.0000	BIOLOGICAL
+1.0000	BIOLOGISTS
+1.0000	BIOLOGY
+1.0000	BIRACIAL
+10.0000	BIRDS	+8.0000
+4.0000	BIRTH	+1.0000
+1.0000	BIRTHDAY
+1.0000	BISCUIT
+29.0000	BIT	+11.0000
+1.0000	BITES
+16.0000	BITTER	+9.0000
+1.0000	BIVOUAC
+5.0000	BIZARRE
+84.0000	BLACK	+40.0000
+1.0000	BLACKENED
+16.0000	BLAME	+4.0000
+7.0000	BLANK
+1.0000	BLANKETS
+1.0000	BLASPHEMOUS
+1.0000	BLASTDOWN
+1.0000	BLEACHERS
+3.0000	BLEND
+1.0000	BLEU
+6.0000	BLEW	+3.0000
+1.0000	BLINDNESS
+1.0000	BLISSFUL
+1.0000	BLISTERED
+1.0000	BLITZ
+1.0000	BLOAT
+8.0000	BLOCK	+6.0000
+1.0000	BLOCKADE
+2.0000	BLOCKS
+2.0000	BLONDE
+4.0000	BLOODED
+1.0000	BLOUSES
+46.0000	BLOW	+20.0000
+1.0000	BLOWERS
+7.0000	BLOWING
+32.0000	BLUE	+11.0000
+1.0000	BLUEJAY
+1.0000	BLUES
+1.0000	BLUFFS
+1.0000	BLUING
+1.0000	BLUISH
+5.0000	BLUNT	+2.0000
+1.0000	BLUNTLY
+16.0000	BOARD	+9.0000
+1.0000	BOARDINGHOUSES
+34.0000	BOAT	+16.0000
+1.0000	BOAT'S
+3.0000	BOB
+1.0000	BOBBY
+1.0000	BOBCAT
+1.0000	BODIED
+1.0000	BODIES
+98.0000	BODY	+21.0000
+1.0000	BOG
+1.0000	BOGGED
+2.0000	BOIL
+2.0000	BOILING	+0.0000
+8.0000	BOLD
+5.0000	BOLT
+1.0000	BOMB
+1.0000	BOMBS
+6.0000	BONE	+2.0000
+13.0000	BONES	+5.0000
+1.0000	BONFIRE
+1.0000	BONGOS
+57.0000	BOOK	+17.0000
+30.0000	BOOKS	+8.0000
+1.0000	BOOM
+1.0000	BOOMERANG
+1.0000	BOOST
+1.0000	BOOTLEGGERS
+37.0000	BOOTS	+12.0000
+4.0000	BORED
+1.0000	BORING
+3.0000	BORN
+2.0000	BORROW
+13.0000	BOSS	+8.0000
+1.0000	BOSTON
+139.0000	BOTH	+51.0000
+2.0000	BOTHER
+1.0000	BOTHERS
+17.0000	BOTTLE	+11.0000
+34.0000	BOTTOM	+6.0000
+1.0000	BOTTOMED
+15.0000	BOUGHT	+7.0000
+1.0000	BOUNCE
+6.0000	BOUNDED	+4.0000
+2.0000	BOUNDS
+1.0000	BOURGEOISIE
+2.0000	BOWL
+107.0000	BOX	+31.0000
+67.0000	BOY	+29.0000
+5.0000	BOY'S
+15.0000	BOYS	+10.0000
+1.0000	BRACELET
+1.0000	BRAIDING
+38.0000	BRAIN	+12.0000
+1.0000	BRAKES
+3.0000	BRANCH	+1.0000
+3.0000	BRAND
+6.0000	BRAVE	+4.0000
+3.0000	BREAD	+1.0000
+42.0000	BREAK	+7.0000
+1.0000	BREAKDOWN
+61.0000	BREAKFAST	+18.0000
+19.0000	BREAKING	+8.0000
+26.0000	BREAST	+7.0000
+26.0000	BREATH	+7.0000
+2.0000	BREATHED
+1.0000	BREATHLESSLY
+1.0000	BREED
+1.0000	BREEZE
+12.0000	BRICK	+8.0000
+7.0000	BRICKS	+4.0000
+1.0000	BRIDAL
+5.0000	BRIDE	+3.0000
+2.0000	BRIDE'S
+30.0000	BRIDGE	+9.0000
+1.0000	BRIDGES
+6.0000	BRIEF
+4.0000	BRIEFLY
+28.0000	BRIGHT	+10.0000
+6.0000	BRIGHTER	+4.0000
+9.0000	BRIGHTLY	+6.0000
+1.0000	BRIM
+84.0000	BRING	+15.0000
+8.0000	BRINGS
+1.0000	BRISTLES
+1.0000	BROCCOLI
+1.0000	BROCHURE
+1.0000	BROIL
+56.0000	BROKE	+10.0000
+57.0000	BROKEN	+29.0000
+1.0000	BRONC
+78.0000	BROTHER	+30.0000
+2.0000	BROTHER'S
+163.0000	BROUGHT	+17.0000
+34.0000	BROWN	+18.0000
+18.0000	BROWS	+5.0000
+2.0000	BRUISES
+3.0000	BRUSH
+1.0000	BRUSHY
+1.0000	BUBBLES
+1.0000	BUCKLE
+1.0000	BUDDIES
+1.0000	BUDDY
+1.0000	BUFF
+1.0000	BUFFALO
+1.0000	BUGEYED
+1.0000	BUGGED
+1.0000	BUGLE
+3.0000	BUILD
+1.0000	BUILDERS
+29.0000	BUILDING	+10.0000
+3.0000	BUILDINGS
+14.0000	BUILT	+5.0000
+1.0000	BULGED
+8.0000	BULL	+3.0000
+16.0000	BULLET	+8.0000
+4.0000	BULLETS
+1.0000	BUM
+1.0000	BUMP
+1.0000	BUNGALOW
+1.0000	BUNKS
+1.0000	BUNS
+1.0000	BUREAUCRACY
+18.0000	BURGLAR	+11.0000
+4.0000	BURN	+0.0000
+20.0000	BURNED	+12.0000
+1.0000	BURNER
+17.0000	BURNING	+5.0000
+30.0000	BURST	+9.0000
+2.0000	BURSTING
+3.0000	BURY	+1.0000
+2.0000	BUS
+1.0000	BUSHEL
+181.0000	BUSINESS	+36.0000
+22.0000	BUSY	+14.0000
+2260.0000	BUT	+119.0000
+1.0000	BUTCHER
+2.0000	BUTTER
+1.0000	BUTTERFLY
+1.0000	BUTTERSCOTCH
+1.0000	BUTTONHOLES
+5.0000	BUTTONS	+3.0000
+11.0000	BUY	+5.0000
+1.0000	BUYER
+2.0000	BUYING
+1.0000	BUYS
+1.0000	BUZZ
+3.0000	BUZZING	+1.0000
+866.0000	BY	+93.0000
+1.0000	C'MON
+98.0000	CAB	+28.0000
+1.0000	CABINETS
+6.0000	CABLE
+1.0000	CAFE
+1.0000	CAFETERIA
+5.0000	CAGE	+1.0000
+1.0000	CALCIUM
+1.0000	CALENDAR
+1.0000	CALENDARS
+1.0000	CALF
+1.0000	CALICO
+85.0000	CALL	+9.0000
+70.0000	CALLED	+15.0000
+10.0000	CALLING	+8.0000
+9.0000	CALLS	+7.0000
+9.0000	CALM
+538.0000	CAME	+33.0000
+1.0000	CAMEO
+1.0000	CAMERA
+7.0000	CAMP	+4.0000
+1.0000	CAMPING
+1.0000	CAMPUS
+782.0000	CAN	+76.0000
+76.0000	CAN'T	+23.0000
+1.0000	CANDIES
+6.0000	CANDLES	+4.0000
+1.0000	CANDY
+1.0000	CANISTER
+1.0000	CANNED
+156.0000	CANNOT	+41.0000
+1.0000	CANOES
+1.0000	CANTALOUPE
+1.0000	CANTEEN
+1.0000	CANTER
+1.0000	CAP'N
+16.0000	CAPABLE	+4.0000
+1.0000	CAPILLARY
+17.0000	CAPITAL	+8.0000
+2.0000	CAPITALISTS
+1.0000	CAPITALIZE
+1.0000	CAPSULE
+10.0000	CAPTAIN	+7.0000
+3.0000	CAPTURED
+8.0000	CAR	+5.0000
+1.0000	CAR'S
+1.0000	CARAWAY
+5.0000	CARDBOARD	+2.0000
+23.0000	CARDS	+12.0000
+58.0000	CARE	+8.0000
+1.0000	CAREFREE
+24.0000	CAREFUL	+7.0000
+36.0000	CAREFULLY	+15.0000
+1.0000	CARL
+1.0000	CAROL
+1.0000	CARPENTER
+32.0000	CARPET	+10.0000
+67.0000	CARRIAGE	+30.0000
+71.0000	CARRIED	+14.0000
+1.0000	CARRIES
+38.0000	CARRY	+13.0000
+19.0000	CARRYING	+6.0000
+1.0000	CARS
+13.0000	CART	+7.0000
+1.0000	CARTILAGE
+1.0000	CARTOON
+1.0000	CARTOONS
+3.0000	CARVED
+391.0000	CASE	+41.0000
+67.0000	CASES	+22.0000
+3.0000	CASH
+1.0000	CASHMERE
+1.0000	CASSANDRA
+23.0000	CAST	+7.0000
+1.0000	CASTOR
+1.0000	CASTORBEANS
+2.0000	CASUAL
+1.0000	CASUALLY
+10.0000	CAT	+6.0000
+1.0000	CAT'S
+1.0000	CATASTROPHIC
+29.0000	CATCH	+9.0000
+1.0000	CATEGORIES
+1.0000	CATKINS
+1.0000	CATS
+5.0000	CATTLE	+3.0000
+65.0000	CAUGHT	+6.0000
+1.0000	CAULIFLOWER
+39.0000	CAUSED	+9.0000
+7.0000	CAUSES	+5.0000
+1.0000	CAUSEWAY
+8.0000	CAUTION	+4.0000
+1.0000	CAVITY
+5.0000	CEASE	+3.0000
+17.0000	CEILING	+5.0000
+1.0000	CELEBRATE
+1.0000	CELEBRATES
+1.0000	CELLOPHANE
+3.0000	CELLS
+1.0000	CEMENT
+1.0000	CENSORSHIP
+1.0000	CENSUS
+4.0000	CENT	+2.0000
+1.0000	CENTERED
+1.0000	CENTERING
+18.0000	CENTRAL	+9.0000
+50.0000	CENTRE	+7.0000
+1.0000	CENTRIFUGE
+1.0000	CENTS
+5.0000	CENTURIES
+12.0000	CENTURY	+10.0000
+1.0000	CERAMIC
+1.0000	CEREAL
+1.0000	CEREBRAL
+81.0000	CERTAIN	+32.0000
+167.0000	CERTAINLY	+41.0000
+1.0000	CHABLIS
+33.0000	CHAIN	+11.0000
+164.0000	CHAIR	+21.0000
+14.0000	CHAIRS	+8.0000
+2.0000	CHALLENGE
+2.0000	CHALLENGED
+28.0000	CHAMBER	+12.0000
+105.0000	CHANCE	+19.0000
+53.0000	CHANGE	+9.0000
+16.0000	CHANGED	+7.0000
+6.0000	CHANGES
+3.0000	CHANGING
+1.0000	CHAOS
+53.0000	CHARACTER	+17.0000
+4.0000	CHARACTERISTICS
+4.0000	CHARACTERS
+36.0000	CHARGE	+13.0000
+4.0000	CHARGED	+1.0000
+1.0000	CHARLIE'S
+5.0000	CHARM	+3.0000
+1.0000	CHARMER
+8.0000	CHART	+4.0000
+1.0000	CHASES
+1.0000	CHASING
+1.0000	CHASTITY
+3.0000	CHATTERING
+1.0000	CHAUFFEUR
+1.0000	CHAW
+1.0000	CHEAP
+2.0000	CHEATING
+27.0000	CHECK	+13.0000
+1.0000	CHECKED
+5.0000	CHEEK	+3.0000
+1.0000	CHEESE
+1.0000	CHEETAL
+14.0000	CHEMICAL	+5.0000
+3.0000	CHEMICALS
+18.0000	CHEST	+5.0000
+3.0000	CHESTNUTS	+1.0000
+1.0000	CHESTS
+1.0000	CHEW
+3.0000	CHICKEN	+1.0000
+11.0000	CHIEF	+7.0000
+1.0000	CHIEFLY
+45.0000	CHILD	+16.0000
+4.0000	CHILDHOOD	+1.0000
+32.0000	CHILDREN	+15.0000
+2.0000	CHILLED
+1.0000	CHILLS
+2.0000	CHIP
+1.0000	CHIPPER
+1.0000	CHIVES
+1.0000	CHLORIDE
+1.0000	CHLORINE
+1.0000	CHOCOLATE
+1.0000	CHOICES
+1.0000	CHOIR
+1.0000	CHOKE
+19.0000	CHOOSE	+2.0000
+6.0000	CHOOSING	+4.0000
+1.0000	CHOP
+1.0000	CHOPPED
+1.0000	CHOREOGRAPHER
+1.0000	CHORTLED
+1.0000	CHORUSED
+11.0000	CHOSE	+7.0000
+18.0000	CHOSEN	+6.0000
+1.0000	CHROME
+1.0000	CHRONICLERS
+1.0000	CHRONOLOGICAL
+1.0000	CHRONOLOGICALLY
+1.0000	CHUCK
+19.0000	CHUCKLED	+1.0000
+19.0000	CHURCH	+8.0000
+41.0000	CIGAR	+12.0000
+25.0000	CIGARETTE	+9.0000
+12.0000	CIGARETTES	+8.0000
+1.0000	CINCH
+1.0000	CINEMATIC
+22.0000	CIRCLE	+5.0000
+2.0000	CIRCLED
+34.0000	CIRCUMSTANCES	+12.0000
+6.0000	CITIZEN	+3.0000
+1.0000	CITIZENSHIP
+43.0000	CITY	+19.0000
+7.0000	CIVIL	+0.0000
+1.0000	CIVILIAN
+3.0000	CIVILIZATION	+1.0000
+4.0000	CIVILIZED
+4.0000	CLAIMED
+1.0000	CLAMP
+1.0000	CLAMS
+1.0000	CLAMSHELL
+4.0000	CLAPPING	+2.0000
+1.0000	CLARIFICATION
+1.0000	CLARIFIED
+1.0000	CLARIFY
+1.0000	CLASHED
+2.0000	CLASP	+0.0000
+5.0000	CLASPED
+18.0000	CLASS	+5.0000
+1.0000	CLASSICAL
+1.0000	CLASSROOMS
+4.0000	CLATTER	+0.0000
+1.0000	CLAUSE
+7.0000	CLAY	+5.0000
+22.0000	CLEAN	+7.0000
+3.0000	CLEANED
+1.0000	CLEANERS
+1.0000	CLEANING
+1.0000	CLEANS
+221.0000	CLEAR	+42.0000
+32.0000	CLEARED	+16.0000
+9.0000	CLEARER	+6.0000
+16.0000	CLEARING	+5.0000
+47.0000	CLEARLY	+17.0000
+1.0000	CLERK'S
+7.0000	CLERKS
+14.0000	CLEVER	+7.0000
+2.0000	CLIFF
+1.0000	CLIFF'S
+1.0000	CLIMATES
+1.0000	CLIMAX
+7.0000	CLIMBED	+5.0000
+2.0000	CLIMBING
+1.0000	CLINCHES
+2.0000	CLING
+1.0000	CLOCKWORK
+86.0000	CLOSE	+15.0000
+5.0000	CLOSER	+3.0000
+1.0000	CLOSET
+14.0000	CLOSING	+5.0000
+1.0000	CLOT
+6.0000	CLOTH	+3.0000
+42.0000	CLOTHES	+18.0000
+1.0000	CLOTHESHORSE
+4.0000	CLOTHING
+1.0000	CLOTTED
+19.0000	CLOUD	+9.0000
+1.0000	CLOUDBURST
+11.0000	CLOUDS	+9.0000
+1.0000	CLOVERLEAF
+25.0000	CLUB	+14.0000
+3.0000	CLUMSY
+3.0000	COACH
+1.0000	COAGULATING
+10.0000	COAL	+2.0000
+1.0000	COALITION
+4.0000	COALS
+9.0000	COAST	+6.0000
+41.0000	COAT	+11.0000
+1.0000	COAUTHORS
+1.0000	COBBLER'S
+1.0000	COCONUT
+1.0000	COCONUTS
+6.0000	CODE
+1.0000	CODES
+1.0000	COEDUCATIONAL
+1.0000	COEXIST
+21.0000	COFFEE	+10.0000
+1.0000	COFFERS
+3.0000	COIL
+1.0000	COIN
+1.0000	COINCIDED
+5.0000	COINS
+1.0000	COKE
+49.0000	COLD	+17.0000
+1.0000	COLESLAW
+1.0000	COLLARED
+2.0000	COLLEAGUES
+7.0000	COLLECTION	+4.0000
+1.0000	COLLECTS
+1.0000	COLLEGES
+1.0000	COLLIE
+1.0000	COLLUSION
+1.0000	COLOR
+1.0000	COLORED
+1.0000	COLORFUL
+2.0000	COLOSSAL
+20.0000	COLUMN	+7.0000
+1.0000	COMBINE
+2.0000	COMBUSTION
+657.0000	COME	+38.0000
+71.0000	COMES	+30.0000
+109.0000	COMING	+26.0000
+11.0000	COMMAND	+5.0000
+3.0000	COMMENT
+1.0000	COMMERCIAL
+42.0000	COMMON	+22.0000
+16.0000	COMMONPLACE	+11.0000
+1.0000	COMMUNISM
+8.0000	COMMUNITY	+5.0000
+1.0000	COMPACT
+17.0000	COMPANIONS	+11.0000
+57.0000	COMPANY	+17.0000
+5.0000	COMPANY'S	+3.0000
+1.0000	COMPARABLE
+7.0000	COMPARE	+5.0000
+3.0000	COMPARISON	+1.0000
+4.0000	COMPENSATION	+2.0000
+1.0000	COMPETENTLY
+1.0000	COMPETING
+1.0000	COMPETITION
+1.0000	COMPETITIVE
+1.0000	COMPETITORS
+1.0000	COMPILE
+53.0000	COMPLETE	+21.0000
+14.0000	COMPLETELY	+8.0000
+12.0000	COMPLEX	+6.0000
+1.0000	COMPLEXITY
+2.0000	COMPLIANCE
+4.0000	COMPLICATED
+1.0000	COMPLICITY
+1.0000	COMPOSE
+2.0000	COMPOSITION
+1.0000	COMPOSITIONS
+1.0000	COMPOST
+6.0000	COMPOSURE	+2.0000
+1.0000	COMPOUND
+1.0000	COMPOUNDED
+1.0000	COMPOUNDS
+1.0000	COMPRESSES
+1.0000	COMPULSION
+1.0000	COMPULSORY
+1.0000	COMPUTER
+1.0000	COMPUTERS
+11.0000	COMRADES	+5.0000
+4.0000	CONCEIVABLY
+4.0000	CONCEIVED	+1.0000
+1.0000	CONCEPT
+9.0000	CONCERN	+7.0000
+4.0000	CONCERNS
+2.0000	CONCERT
+1.0000	CONCESSIONAIRE
+38.0000	CONCLUSION	+12.0000
+14.0000	CONCLUSIONS	+8.0000
+1.0000	CONCRETE
+1.0000	CONCURRENT
+1.0000	CONDEMNS
+18.0000	CONDITION	+5.0000
+7.0000	CONDITIONS	+5.0000
+1.0000	CONFABULATION
+1.0000	CONFERENCES
+50.0000	CONFIDENCE	+11.0000
+3.0000	CONFIDENT	+0.0000
+2.0000	CONFIDENTIAL
+1.0000	CONFIGURATION
+1.0000	CONFINES
+3.0000	CONFIRM
+1.0000	CONFIRMATION
+1.0000	CONFORMATIONAL
+1.0000	CONFORMISTS
+7.0000	CONFRONTED	+2.0000
+5.0000	CONFUSION	+2.0000
+1.0000	CONGESTION
+15.0000	CONGRATULATE	+2.0000
+1.0000	CONGREGATION
+1.0000	CONJURED
+3.0000	CONNOISSEUR
+15.0000	CONSCIENCE	+11.0000
+9.0000	CONSEQUENCES	+4.0000
+1.0000	CONSERVATISM
+33.0000	CONSIDER	+8.0000
+34.0000	CONSIDERABLE	+26.0000
+11.0000	CONSIDERABLY	+7.0000
+13.0000	CONSIDERED	+7.0000
+7.0000	CONSIDERING	+5.0000
+1.0000	CONSISTENTLY
+4.0000	CONSISTS	+0.0000
+1.0000	CONSOLIDATION
+3.0000	CONSPICUOUS
+4.0000	CONSTANTLY	+2.0000
+1.0000	CONSTRUCTION
+1.0000	CONSTRUCTIONS
+1.0000	CONSUME
+1.0000	CONSUMERS
+2.0000	CONSUMING
+3.0000	CONSUMPTION	+1.0000
+7.0000	CONTACT	+1.0000
+1.0000	CONTAGIOUS
+3.0000	CONTAIN
+14.0000	CONTAINED	+8.0000
+1.0000	CONTAINER
+1.0000	CONTAINS
+1.0000	CONTEMPORARY
+1.0000	CONTENTEDLY
+1.0000	CONTINENTAL
+13.0000	CONTINUE	+1.0000
+41.0000	CONTINUED	+17.0000
+1.0000	CONTINUES
+2.0000	CONTINUING
+2.0000	CONTINUOUS
+1.0000	CONTINUOUSLY
+1.0000	CONTRADICTORILY
+29.0000	CONTRARY	+11.0000
+9.0000	CONTRAST	+2.0000
+1.0000	CONTRIBUTE
+1.0000	CONTRIBUTED
+1.0000	CONTRIBUTIONS
+1.0000	CONTRIBUTORY
+8.0000	CONTROL	+5.0000
+3.0000	CONTROLLED
+1.0000	CONTROLS
+8.0000	CONVENIENT	+3.0000
+1.0000	CONVERTED
+5.0000	CONVEY
+11.0000	CONVICTION	+6.0000
+4.0000	CONVINCE	+2.0000
+4.0000	CONVINCING
+10.0000	COOK	+8.0000
+1.0000	COOKED
+1.0000	COOKIES
+1.0000	COOKING
+9.0000	COOL	+4.0000
+1.0000	COOPERATED
+1.0000	COOPERATES
+6.0000	COOPERATION	+4.0000
+1.0000	COOPERATIVE
+1.0000	COP
+3.0000	COPPER
+1.0000	COPRA
+21.0000	COPY	+6.0000
+1.0000	CORDIAL
+1.0000	CORDUROY
+1.0000	CORN
+72.0000	CORNER	+15.0000
+1.0000	CORNERED
+1.0000	CORNMEAL
+1.0000	COROLLARIES
+32.0000	CORRECT	+12.0000
+1.0000	CORRUGATED
+1.0000	CORSAGE
+1.0000	CORY
+1.0000	COSMETICS
+12.0000	COST	+4.0000
+1.0000	COSTLY
+1.0000	COSTS
+4.0000	COSTUME	+2.0000
+1.0000	COSTUMES
+34.0000	COTTAGE	+15.0000
+1.0000	COTTON
+1.0000	COUGH
+1064.0000	COULD	+86.0000
+1.0000	COULD'VE
+24.0000	COULDN'T	+14.0000
+3.0000	COUNT
+2.0000	COUNTED	+0.0000
+4.0000	COUNTIES	+2.0000
+115.0000	COUNTRY	+34.0000
+8.0000	COUNTRYSIDE	+6.0000
+12.0000	COUNTY
+1.0000	COUPLES
+1.0000	COURIER
+217.0000	COURSE	+30.0000
+32.0000	COURT	+9.0000
+4.0000	COURTS	+0.0000
+3.0000	COURTYARD
+25.0000	COVER	+12.0000
+1.0000	COVERAGE
+31.0000	COVERED	+12.0000
+4.0000	COVERS	+2.0000
+2.0000	COW
+5.0000	COWARD	+2.0000
+1.0000	COWBOY
+1.0000	COWBOY'S
+1.0000	COWLING
+7.0000	COWS	+2.0000
+1.0000	COY
+1.0000	COYOTE
+1.0000	CRAB
+1.0000	CRACK
+6.0000	CRACKED
+6.0000	CRAFT
+1.0000	CRANBERRY
+6.0000	CRASH	+4.0000
+2.0000	CRASHED
+2.0000	CRASHING	+0.0000
+1.0000	CRAVE
+5.0000	CRAWLING
+1.0000	CRAYONS
+1.0000	CRAZILY
+4.0000	CRAZY
+4.0000	CREAM	+2.0000
+1.0000	CREATE
+3.0000	CREATED
+1.0000	CREATION
+25.0000	CREDIT	+9.0000
+2.0000	CREEPING
+1.0000	CREOLE
+7.0000	CREPT	+5.0000
+1.0000	CREST
+2.0000	CRESTFALLEN
+6.0000	CREW
+5.0000	CRIMSON	+2.0000
+9.0000	CRISIS	+6.0000
+1.0000	CRISP
+1.0000	CRISS
+1.0000	CRISSCROSSED
+2.0000	CRITICAL
+1.0000	CROOKED
+1.0000	CROPS
+29.0000	CROSS	+13.0000
+17.0000	CROSSED	+7.0000
+1.0000	CROSSINGS
+1.0000	CROSSROADS
+11.0000	CROWD	+7.0000
+6.0000	CROWN	+3.0000
+3.0000	CRUCIAL
+1.0000	CRUCIFIED
+1.0000	CRUDE
+1.0000	CRUDELY
+10.0000	CRUEL	+7.0000
+4.0000	CRUELTY
+1.0000	CRUNCHED
+7.0000	CRUSHED
+1.0000	CRUSHERS
+52.0000	CRY	+15.0000
+1.0000	CRYSTALLINE
+1.0000	CRYSTALLIZING
+1.0000	CUBIC
+1.0000	CUISINE
+2.0000	CULTIVATED
+1.0000	CULTURAL
+1.0000	CULTURES
+1.0000	CUPCAKES
+1.0000	CUPS
+6.0000	CURE	+2.0000
+1.0000	CURED
+23.0000	CURIOSITY	+8.0000
+45.0000	CURIOUS	+27.0000
+2.0000	CURIOUSLY
+1.0000	CURLY
+1.0000	CURRENT
+2.0000	CURRY
+12.0000	CURVE	+4.0000
+1.0000	CURVES
+6.0000	CUSTODY	+2.0000
+4.0000	CUSTOMER	+2.0000
+1.0000	CUSTOMERS
+83.0000	CUT	+24.0000
+1.0000	CUTBACKS
+4.0000	CUTS
+3.0000	CUTTING	+1.0000
+1.0000	CYCLICAL
+1.0000	CYNICS
+7.0000	DAD	+5.0000
+6.0000	DAILY
+1.0000	DAMAGE
+1.0000	DAMAGED
+5.0000	DAMP
+5.0000	DANCE
+1.0000	DANCERS
+1.0000	DANCES
+78.0000	DANGER	+16.0000
+41.0000	DANGEROUS	+22.0000
+5.0000	DANGERS	+3.0000
+1.0000	DANNY
+1.0000	DAPHNE'S
+118.0000	DARK	+46.0000
+42.0000	DARKNESS	+8.0000
+3.0000	DARNED
+4.0000	DASH
+14.0000	DATA	+6.0000
+23.0000	DATE	+10.0000
+1.0000	DAVY
+8.0000	DAWN	+6.0000
+313.0000	DAY	+31.0000
+1.0000	DAYDREAMED
+134.0000	DAYS	+26.0000
+2.0000	DAYTIME
+147.0000	DEAD	+21.0000
+1.0000	DEADLINE
+65.0000	DEAL	+15.0000
+1.0000	DEALERS
+1.0000	DEANS
+82.0000	DEAR	+16.0000
+139.0000	DEATH	+29.0000
+2.0000	DEBTS
+1.0000	DEBUT
+1.0000	DECADENT
+1.0000	DECAYING
+1.0000	DECAYS
+1.0000	DECEITFUL
+1.0000	DECEIVING
+2.0000	DECEMBER
+9.0000	DECIDE	+3.0000
+4.0000	DECIDED
+1.0000	DECIDES
+1.0000	DECISIONS
+2.0000	DECISIVE
+9.0000	DECK	+1.0000
+1.0000	DECKING
+7.0000	DECLARED	+2.0000
+2.0000	DECLINING	+0.0000
+1.0000	DECORATE
+1.0000	DECORATED
+1.0000	DECORATIVE
+1.0000	DECORATOR
+1.0000	DECREASE
+1.0000	DEDUCT
+1.0000	DEDUCTIBLE
+14.0000	DEED	+4.0000
+62.0000	DEEP	+25.0000
+11.0000	DEEPER	+4.0000
+23.0000	DEEPLY	+9.0000
+2.0000	DEER
+1.0000	DEFECTS
+1.0000	DEFEND
+1.0000	DEFENDED
+5.0000	DEFENSE
+1.0000	DEFENSIVE
+3.0000	DEFIANTLY
+4.0000	DEFINE	+2.0000
+21.0000	DEFINITE	+12.0000
+2.0000	DEFINITELY
+10.0000	DEGREE	+3.0000
+2.0000	DEGREES
+1.0000	DELEGATED
+1.0000	DELETE
+21.0000	DELICATE	+15.0000
+1.0000	DELICIOUS
+15.0000	DELIGHT	+5.0000
+1.0000	DELIGHTFUL
+1.0000	DELINEATING
+1.0000	DELIVERING
+7.0000	DEMAND	+5.0000
+3.0000	DEMANDED
+3.0000	DEMANDS	+1.0000
+1.0000	DEMINERALIZATION
+4.0000	DEMONSTRATION	+2.0000
+4.0000	DENSE	+2.0000
+1.0000	DENSITY
+1.0000	DENUNCIATION
+12.0000	DENY	+1.0000
+2.0000	DEPARTMENTS
+12.0000	DEPARTURE	+8.0000
+14.0000	DEPEND	+5.0000
+1.0000	DEPICTS
+1.0000	DEPLETION
+1.0000	DEPRECIATION
+1.0000	DEPRIVE
+1.0000	DEPUTY
+1.0000	DERELICTION
+1.0000	DERIVED
+1.0000	DERIVING
+10.0000	DESCRIBE	+3.0000
+25.0000	DESCRIBED	+10.0000
+1.0000	DESEGREGATE
+1.0000	DESEGREGATION
+1.0000	DESERVES
+7.0000	DESIGN
+1.0000	DESIGNER
+3.0000	DESIRABLE
+34.0000	DESIRE	+11.0000
+6.0000	DESIRES	+1.0000
+24.0000	DESK	+8.0000
+1.0000	DESOLATION
+25.0000	DESPAIR	+6.0000
+3.0000	DESPERATELY
+1.0000	DESPISED
+1.0000	DESPITE
+1.0000	DESSERT
+1.0000	DESSERTS
+5.0000	DESTINY	+3.0000
+6.0000	DESTROY	+2.0000
+2.0000	DESTROYING
+23.0000	DETAIL	+10.0000
+5.0000	DETAILED	+2.0000
+64.0000	DETAILS	+14.0000
+1.0000	DETECTABLE
+2.0000	DETECTIVE'S
+7.0000	DETERMINATION	+2.0000
+8.0000	DETERMINE	+5.0000
+43.0000	DETERMINED	+11.0000
+1.0000	DETRACT
+1.0000	DEVELOP
+2.0000	DEVELOPED
+1.0000	DEVELOPING
+18.0000	DEVELOPMENT	+4.0000
+7.0000	DEVICE	+5.0000
+1.0000	DEVOUR
+1.0000	DEW
+1.0000	DIAGNOSED
+1.0000	DIAGNOSIS
+1.0000	DIAGONALLY
+1.0000	DIAGRAM
+1.0000	DIANE
+1.0000	DIARRHOEA
+1.0000	DICE
+1.0000	DICTATORS
+2.0000	DICTIONARY
+582.0000	DID	+43.0000
+52.0000	DIDN'T	+26.0000
+19.0000	DIE	+13.0000
+52.0000	DIED	+17.0000
+1.0000	DIET
+1.0000	DIFFER
+11.0000	DIFFERENCE	+2.0000
+1.0000	DIFFERENCES
+41.0000	DIFFERENT	+17.0000
+1.0000	DIFFERENTIATE
+1.0000	DIFFERENTLY
+51.0000	DIFFICULT	+13.0000
+1.0000	DIG
+8.0000	DIGNITY	+2.0000
+10.0000	DIM	+4.0000
+2.0000	DIME
+1.0000	DIMENSIONS
+1.0000	DIMES
+1.0000	DIMINISH
+1.0000	DIMINISHING
+1.0000	DINGO
+26.0000	DINNER	+10.0000
+1.0000	DIPLOMA
+72.0000	DIRECTION	+7.0000
+1.0000	DIRECTIONAL
+10.0000	DIRECTIONS	+4.0000
+1.0000	DIRECTOR
+1.0000	DIRECTORY
+1.0000	DIRT
+10.0000	DIRTY	+8.0000
+28.0000	DISAPPEARED	+8.0000
+9.0000	DISAPPOINTED	+3.0000
+1.0000	DISAPPROVAL
+1.0000	DISAPPROVES
+4.0000	DISASTER	+2.0000
+1.0000	DISCARD
+3.0000	DISCIPLINE
+1.0000	DISCIPLINED
+1.0000	DISCLAIMER
+1.0000	DISCOUNT
+1.0000	DISCOURAGED
+1.0000	DISCOURAGING
+35.0000	DISCOVERED	+14.0000
+1.0000	DISCRETIONARY
+6.0000	DISCUSSION	+3.0000
+1.0000	DISCUSSIONS
+15.0000	DISEASE	+10.0000
+1.0000	DISEASES
+10.0000	DISGUISE	+5.0000
+1.0000	DISGUSTING
+5.0000	DISH
+1.0000	DISHES
+1.0000	DISK
+1.0000	DISLIKED
+1.0000	DISLIKES
+1.0000	DISOBEYED
+1.0000	DISPEL
+1.0000	DISPENSING
+1.0000	DISPERSED
+1.0000	DISPLACEMENT
+2.0000	DISPLAY	+0.0000
+1.0000	DISPLAYED
+4.0000	DISPUTE	+2.0000
+1.0000	DISPUTES
+1.0000	DISREGARDING
+1.0000	DISREPAIR
+1.0000	DISSOLVE
+41.0000	DISTANCE	+14.0000
+1.0000	DISTANCES
+1.0000	DISTASTE
+8.0000	DISTINCT	+6.0000
+11.0000	DISTINGUISHED	+4.0000
+4.0000	DISTORTED
+3.0000	DISTRACTED
+3.0000	DISTRESS	+0.0000
+1.0000	DISTRIBUTED
+1.0000	DISTRICTS
+6.0000	DISTURB	+4.0000
+1.0000	DITCHES
+1.0000	DIVE
+1.0000	DIVERSITY
+7.0000	DIVIDED	+5.0000
+1.0000	DIVINITIES
+3.0000	DIVISION
+1.0000	DIVORCE
+1.0000	DIVORCED
+1.0000	DIVORCEE
+969.0000	DO	+47.0000
+97.0000	DOCTOR	+24.0000
+3.0000	DOCTORS
+1.0000	DOCTRINE
+1.0000	DOCUMENTED
+14.0000	DOCUMENTS	+10.0000
+1.0000	DODGING
+132.0000	DOES	+15.0000
+4.0000	DOESN'T
+67.0000	DOG	+30.0000
+1.0000	DOGMATICALLY
+5.0000	DOGS	+2.0000
+2.0000	DOIN'
+79.0000	DOING	+19.0000
+1.0000	DOLL
+7.0000	DOLLAR
+6.0000	DOLLARS
+1.0000	DOLPHINS
+1.0000	DOME
+1.0000	DOMESTIC
+2.0000	DOMINANT
+1.0000	DOMINATED
+294.0000	DON'T	+39.0000
+1.0000	DONATE
+1.0000	DONATED
+304.0000	DONE	+29.0000
+473.0000	DOOR	+38.0000
+25.0000	DOORS	+12.0000
+1.0000	DOORWAYS
+1.0000	DORMITORIES
+1.0000	DOSES
+14.0000	DOUBLE	+10.0000
+208.0000	DOUBT	+28.0000
+2.0000	DOUGH
+1.0000	DOUSED
+640.0000	DOWN	+42.0000
+1.0000	DOWNPOUR
+30.0000	DOWNSTAIRS	+11.0000
+1.0000	DOWNTOWN
+3.0000	DOWNWARD
+25.0000	DOZEN	+16.0000
+1.0000	DRAIN
+9.0000	DRAMATIC	+7.0000
+9.0000	DRANK	+7.0000
+1.0000	DRASTICALLY
+40.0000	DRAW	+14.0000
+35.0000	DRAWING	+9.0000
+1.0000	DRAWLED
+75.0000	DRAWN	+27.0000
+8.0000	DREAM	+2.0000
+5.0000	DREAMS	+2.0000
+1.0000	DRENCHED
+41.0000	DRESS	+18.0000
+20.0000	DRESSING	+3.0000
+1.0000	DRESSY
+73.0000	DREW	+15.0000
+6.0000	DRIED	+3.0000
+2.0000	DRIFT
+8.0000	DRIFTED	+2.0000
+6.0000	DRIFTING
+28.0000	DRINK	+14.0000
+1.0000	DRINKERS
+58.0000	DRIVE	+25.0000
+31.0000	DRIVEN	+18.0000
+1.0000	DRIVERS
+19.0000	DRIVING	+13.0000
+26.0000	DROP	+12.0000
+48.0000	DROPPED	+17.0000
+4.0000	DROPS	+1.0000
+1.0000	DROUGHT
+58.0000	DROVE	+20.0000
+6.0000	DRUG	+4.0000
+1.0000	DRUG'S
+3.0000	DRUGS
+1.0000	DRUGSTORE
+13.0000	DRUNK	+10.0000
+3.0000	DRUNKARD	+1.0000
+1.0000	DRUNKARDS
+1.0000	DRUNKENNESS
+15.0000	DRY	+10.0000
+1.0000	DRYING
+1.0000	DUBIOUS
+1.0000	DUCK
+1.0000	DUCKS
+19.0000	DUE	+3.0000
+3.0000	DUG
+14.0000	DULL	+12.0000
+2.0000	DUMB	+0.0000
+1.0000	DUMPED
+10.0000	DUPLICATE	+4.0000
+128.0000	DURING	+10.0000
+24.0000	DUST	+9.0000
+1.0000	DUSTING
+1.0000	DUTCH
+42.0000	DUTY	+24.0000
+1.0000	DWARF
+5.0000	DWELL
+1.0000	DYEING
+21.0000	DYING	+8.0000
+1.0000	DYNAMICS
+1.0000	DYNASTIC
+151.0000	EACH	+35.0000
+22.0000	EAGERLY	+8.0000
+9.0000	EAGERNESS	+5.0000
+21.0000	EAR	+4.0000
+13.0000	EARLIER	+6.0000
+61.0000	EARLY	+19.0000
+9.0000	EARN	+7.0000
+21.0000	EARNESTLY	+10.0000
+37.0000	EARS	+14.0000
+56.0000	EARTH	+25.0000
+1.0000	EARTH'S
+1.0000	EARTHENWARE
+2.0000	EARTHLY
+1.0000	EARTHQUAKE
+10.0000	EASE	+8.0000
+1.0000	EASED
+17.0000	EASIER	+7.0000
+33.0000	EASILY	+16.0000
+6.0000	EASTERN
+64.0000	EASY	+14.0000
+1.0000	EASYGOING
+13.0000	EAT	+7.0000
+4.0000	EATEN
+1.0000	EATING
+4.0000	ECCENTRICITY	+2.0000
+2.0000	ECHO
+1.0000	ECONOMIC
+1.0000	ECONOMICALLY
+3.0000	ECONOMY	+1.0000
+1.0000	ECUMENICAL
+30.0000	EDGE	+4.0000
+5.0000	EDGES	+3.0000
+1.0000	EDGY
+5.0000	EDUCATION	+2.0000
+1.0000	EDUCATIONAL
+55.0000	EFFECT	+14.0000
+7.0000	EFFECTIVE	+4.0000
+10.0000	EFFECTS	+1.0000
+1.0000	EFFICIENCY
+2.0000	EFFICIENT
+22.0000	EFFORT	+10.0000
+5.0000	EGG
+5.0000	EGGS
+1.0000	EGO
+1.0000	EGOTIST
+66.0000	EIGHT	+15.0000
+3.0000	EIGHTEENTH	+1.0000
+108.0000	EITHER	+35.0000
+1.0000	ELABORATELY
+1.0000	ELBOWING
+16.0000	ELDERLY	+2.0000
+1.0000	ELECTION
+10.0000	ELECTRIC	+1.0000
+1.0000	ELECTRICAL
+1.0000	ELECTRICITY
+1.0000	ELECTRON
+1.0000	ELECTRONIC
+1.0000	ELECTROSTATIC
+2.0000	ELEGANT
+2.0000	ELEMENT
+4.0000	ELEMENTARY	+2.0000
+1.0000	ELEMENTS
+1.0000	ELEVATOR
+48.0000	ELEVEN	+9.0000
+1.0000	ELLIPSOIDS
+7.0000	ELM	+1.0000
+1.0000	ELONGATION
+135.0000	ELSE	+29.0000
+13.0000	ELSEWHERE	+3.0000
+1.0000	EMBANKMENT
+2.0000	EMBLEM
+1.0000	EMBODIMENT
+1.0000	EMBRACING
+2.0000	EMERGE
+3.0000	EMERGENCY	+1.0000
+19.0000	EMOTION	+8.0000
+2.0000	EMOTIONAL
+1.0000	EMOTIONALLY
+11.0000	EMOTIONS	+8.0000
+3.0000	EMPEROR
+1.0000	EMPHASIS
+1.0000	EMPHASIZE
+1.0000	EMPHASIZED
+1.0000	EMPHYSEMA
+1.0000	EMPIRICAL
+1.0000	EMPLOYEE
+1.0000	EMPLOYEES
+10.0000	EMPLOYMENT	+7.0000
+45.0000	EMPTY	+14.0000
+1.0000	ENABLING
+1.0000	ENACT
+1.0000	ENAMEL
+1.0000	ENCAMPED
+1.0000	ENCLOSED
+1.0000	ENCOUNTERED
+2.0000	ENCOURAGE
+1.0000	ENCOURAGED
+1.0000	ENCYCLOPEDIAS
+210.0000	END	+20.0000
+1.0000	ENDEAVORED
+20.0000	ENDED	+6.0000
+1.0000	ENDOSPERM
+14.0000	ENDS	+12.0000
+1.0000	ENDURANCE
+17.0000	ENEMY	+6.0000
+45.0000	ENERGY	+12.0000
+8.0000	ENGINE	+5.0000
+6.0000	ENGINEER	+2.0000
+1.0000	ENGINEERING
+1.0000	ENGINEERS'
+1.0000	ENGULFED
+1.0000	ENIGMA
+7.0000	ENJOY	+2.0000
+3.0000	ENJOYED
+1.0000	ENLIGHTENMENT
+1.0000	ENLISTED
+10.0000	ENORMOUS	+8.0000
+254.0000	ENOUGH	+20.0000
+1.0000	ENRICH
+1.0000	ENSUE
+27.0000	ENTER	+6.0000
+1.0000	ENTERTAINING
+1.0000	ENTHUSIASTIC
+3.0000	ENTIRE
+54.0000	ENTIRELY	+30.0000
+1.0000	ENTITLE
+1.0000	ENTITY
+3.0000	ENTRIES
+1.0000	ENTROPY
+3.0000	ENTRY	+1.0000
+36.0000	ENVELOPE	+13.0000
+1.0000	ENVIRONMENT
+1.0000	ENVIRONMENTS
+1.0000	ENZYME
+1.0000	EPHEMERAL
+1.0000	EPIDEMIC
+5.0000	EPISODE	+2.0000
+7.0000	EQUAL	+5.0000
+19.0000	EQUALLY	+11.0000
+1.0000	EQUATION
+1.0000	EQUIPMENT
+1.0000	EQUIPPED
+1.0000	EQUIVALENT
+1.0000	ERA
+4.0000	ERECT
+1.0000	EROTIC
+1.0000	ERRORS
+1.0000	ERUPTION
+1.0000	ESCALATOR
+42.0000	ESCAPE	+17.0000
+1.0000	ESOTERIC
+21.0000	ESPECIALLY	+9.0000
+1.0000	ESSAY
+22.0000	ESSENTIAL	+6.0000
+1.0000	ESSENTIALLY
+2.0000	ESTABLISH
+11.0000	ESTABLISHMENT	+5.0000
+3.0000	ESTIMATE	+1.0000
+1.0000	ESTIMATES
+1.0000	ETC
+1.0000	ETERNAL
+1.0000	ETERNITY
+1.0000	ETIQUETTE
+1.0000	EVACUATE
+1.0000	EVALUATE
+1.0000	EVALUATED
+1.0000	EVALUATION
+1.0000	EVASIVE
+173.0000	EVEN	+36.0000
+161.0000	EVENING	+26.0000
+1.0000	EVENLY
+55.0000	EVENTS	+20.0000
+1.0000	EVENTUALITIES
+12.0000	EVENTUALLY	+10.0000
+236.0000	EVER	+66.0000
+266.0000	EVERY	+63.0000
+3.0000	EVERYBODY	+1.0000
+17.0000	EVERYONE	+11.0000
+78.0000	EVERYTHING	+18.0000
+77.0000	EVIDENCE	+21.0000
+44.0000	EVIDENT	+14.0000
+1.0000	EVOCATIVE
+2.0000	EVOLVE
+1.0000	EXACERBATED
+1.0000	EXACERBATIONS
+92.0000	EXACTLY	+9.0000
+5.0000	EXAGGERATED	+1.0000
+1.0000	EXAM
+45.0000	EXAMINATION	+8.0000
+73.0000	EXAMINED	+13.0000
+33.0000	EXAMPLE	+11.0000
+2.0000	EXAMPLES
+1.0000	EXBOYFRIEND
+55.0000	EXCELLENT	+26.0000
+20.0000	EXCEPT	+9.0000
+10.0000	EXCEPTION	+4.0000
+1.0000	EXCESS
+5.0000	EXCHANGE
+8.0000	EXCHANGED	+5.0000
+29.0000	EXCITED	+18.0000
+31.0000	EXCITEMENT	+12.0000
+1.0000	EXCITING
+1.0000	EXCLAIMING
+1.0000	EXCLUDED
+1.0000	EXCLUSIVE
+1.0000	EXECUTE
+4.0000	EXECUTION
+1.0000	EXECUTIVE
+12.0000	EXERCISE	+7.0000
+1.0000	EXERCISES
+3.0000	EXHIBITED
+1.0000	EXHIBITS
+1.0000	EXHUSBAND
+1.0000	EXIST
+5.0000	EXISTED	+3.0000
+25.0000	EXISTENCE	+8.0000
+2.0000	EXISTING
+1.0000	EXISTS
+1.0000	EXOTIC
+56.0000	EXPECT	+16.0000
+4.0000	EXPECTATIONS
+46.0000	EXPECTED	+9.0000
+11.0000	EXPECTING	+4.0000
+2.0000	EXPECTS	+0.0000
+7.0000	EXPENSE	+4.0000
+3.0000	EXPENSIVE
+43.0000	EXPERIENCE	+13.0000
+4.0000	EXPERIENCED
+8.0000	EXPERIMENT	+3.0000
+1.0000	EXPERIMENT'S
+1.0000	EXPERIMENTAL
+3.0000	EXPERIMENTS
+1.0000	EXPERTISE
+1.0000	EXPERTLY
+5.0000	EXPERTS
+39.0000	EXPLAIN	+8.0000
+2.0000	EXPLAINS
+50.0000	EXPLANATION	+18.0000
+1.0000	EXPLICITLY
+2.0000	EXPLORING
+4.0000	EXPLOSION
+1.0000	EXPORT
+7.0000	EXPOSED	+5.0000
+8.0000	EXPOSURE	+3.0000
+62.0000	EXPRESSION	+7.0000
+1.0000	EXPRESSWAY
+2.0000	EXQUISITE
+7.0000	EXTENDED
+2.0000	EXTENDING
+1.0000	EXTENSIVE
+13.0000	EXTENT	+6.0000
+4.0000	EXTRA
+52.0000	EXTRAORDINARY	+29.0000
+13.0000	EXTREMELY	+11.0000
+3.0000	EXULTANTLY	+0.0000
+67.0000	EYE	+17.0000
+2.0000	EYEBROW	+0.0000
+1.0000	EYEDROPS
+3.0000	EYELIDS
+305.0000	EYES	+32.0000
+1.0000	EYESTRAIN
+1.0000	FABRIC
+1.0000	FABRICS
+452.0000	FACE	+65.0000
+28.0000	FACES	+12.0000
+104.0000	FACT	+14.0000
+1.0000	FACTIONS
+4.0000	FACTORS	+2.0000
+126.0000	FACTS	+29.0000
+5.0000	FACULTY	+2.0000
+4.0000	FADED	+2.0000
+28.0000	FAIL	+4.0000
+32.0000	FAILED	+4.0000
+2.0000	FAILS
+5.0000	FAILURE	+2.0000
+13.0000	FAINT	+5.0000
+28.0000	FAIR	+18.0000
+33.0000	FAIRLY	+19.0000
+1.0000	FAIRY
+7.0000	FAITH	+4.0000
+50.0000	FALL	+13.0000
+28.0000	FALLEN	+16.0000
+1.0000	FALLOUT
+3.0000	FALLS
+17.0000	FALSE	+3.0000
+1.0000	FALTERS
+6.0000	FAME
+31.0000	FAMILIAR	+8.0000
+1.0000	FAMILIARITY
+55.0000	FAMILY	+18.0000
+13.0000	FAMOUS	+10.0000
+1.0000	FAN
+1.0000	FANCIER
+56.0000	FANCY	+12.0000
+3.0000	FANGS
+244.0000	FAR	+31.0000
+13.0000	FARM	+5.0000
+1.0000	FARMER'S
+2.0000	FARMERS
+1.0000	FARMHOUSES
+1.0000	FARMLAND
+1.0000	FARMYARD
+33.0000	FARTHER	+12.0000
+1.0000	FASCICULATIONS
+1.0000	FASCINATING
+79.0000	FASHION	+12.0000
+5.0000	FASHIONED
+19.0000	FAST	+6.0000
+3.0000	FASTER
+10.0000	FAT	+4.0000
+146.0000	FATHER	+43.0000
+18.0000	FATHER'S	+15.0000
+1.0000	FATHERS
+3.0000	FATIGUE
+1.0000	FATIGUED
+1.0000	FATIGUES
+20.0000	FAULT	+10.0000
+1.0000	FAULTS
+1.0000	FAVOR
+1.0000	FAVORABLE
+1.0000	FAVORITE
+1.0000	FAWN
+119.0000	FEAR	+18.0000
+36.0000	FEARED	+13.0000
+4.0000	FEARFUL
+10.0000	FEARS	+8.0000
+3.0000	FEASIBLE
+1.0000	FEAST
+4.0000	FEATHER
+1.0000	FEATHERED
+1.0000	FEATHERS
+78.0000	FEATURES	+11.0000
+1.0000	FEED
+52.0000	FEEL	+15.0000
+37.0000	FEELING	+14.0000
+11.0000	FEELINGS	+4.0000
+1.0000	FEELS
+125.0000	FEET	+36.0000
+75.0000	FELL	+8.0000
+1.0000	FELLA
+2.0000	FELLOWSHIP
+80.0000	FELT	+20.0000
+3.0000	FEMALE
+1.0000	FENCED
+1.0000	FENCES
+1.0000	FERMENTED
+1.0000	FERRIES
+1.0000	FERTILIZERS
+16.0000	FEVER	+6.0000
+1.0000	FEVERISHLY
+207.0000	FEW	+18.0000
+1.0000	FEWER
+1.0000	FIBERS
+1.0000	FIBROSIS
+1.0000	FICTION
+1.0000	FIDDLES
+21.0000	FIELD	+9.0000
+18.0000	FIELDS	+6.0000
+1.0000	FIELDWORK
+4.0000	FIERCELY
+1.0000	FIERCEST
+3.0000	FIERY
+19.0000	FIFTEEN	+8.0000
+6.0000	FIFTH	+4.0000
+27.0000	FIFTY	+14.0000
+14.0000	FIGHT	+10.0000
+1.0000	FIGHTS
+55.0000	FIGURE	+19.0000
+2.0000	FIGURED
+25.0000	FIGURES	+13.0000
+3.0000	FILE
+4.0000	FILES	+0.0000
+10.0000	FILL	+4.0000
+4.0000	FILLING	+2.0000
+1.0000	FILM
+1.0000	FILMS
+1.0000	FILTERED
+1.0000	FILTERING
+14.0000	FINAL
+60.0000	FINALLY	+20.0000
+1.0000	FINANCING
+275.0000	FIND	+35.0000
+33.0000	FINDING	+11.0000
+15.0000	FINDS	+7.0000
+28.0000	FINE	+23.0000
+44.0000	FINGER	+11.0000
+1.0000	FINGERPRINTS
+17.0000	FINGERS	+6.0000
+10.0000	FINISH	+5.0000
+1.0000	FINISHING
+101.0000	FIRE	+17.0000
+1.0000	FIREBUG
+1.0000	FIRECRACKERS
+8.0000	FIREPLACE	+3.0000
+1.0000	FIRES
+1.0000	FIRING
+5.0000	FIRMLY	+2.0000
+3.0000	FIRMNESS	+1.0000
+2.0000	FIRMS
+361.0000	FIRST	+88.0000
+1.0000	FISCAL
+3.0000	FISH
+1.0000	FISHERMEN
+1.0000	FISHING
+2.0000	FIST
+5.0000	FISTS
+34.0000	FIT	+13.0000
+1.0000	FITFULLY
+144.0000	FIVE	+26.0000
+11.0000	FIX	+7.0000
+29.0000	FIXED	+13.0000
+1.0000	FJORDS
+5.0000	FLAG
+5.0000	FLAME
+8.0000	FLASH	+1.0000
+5.0000	FLASHING	+3.0000
+11.0000	FLAT	+4.0000
+1.0000	FLAWLESS
+1.0000	FLAXSEED
+16.0000	FLED	+6.0000
+2.0000	FLEECY
+1.0000	FLESH
+13.0000	FLEW	+5.0000
+1.0000	FLEXIBILITY
+1.0000	FLEXIBLE
+1.0000	FLICKERED
+3.0000	FLIES
+1.0000	FLIMSY
+1.0000	FLIP
+1.0000	FLOAT
+1.0000	FLOC
+3.0000	FLOOD	+0.0000
+95.0000	FLOOR	+24.0000
+1.0000	FLOORBOARDS
+2.0000	FLOPPED	+0.0000
+1.0000	FLOURISH
+1.0000	FLOURISHES
+1.0000	FLOW
+3.0000	FLOWER	+1.0000
+1.0000	FLOWERPOT
+7.0000	FLOWERS	+2.0000
+1.0000	FLU
+1.0000	FLUENT
+2.0000	FLUID	+0.0000
+1.0000	FLURRIES
+3.0000	FLUTTERED
+7.0000	FLYING	+5.0000
+2.0000	FOAM
+1.0000	FOAMY
+3.0000	FOCUS
+23.0000	FOG	+10.0000
+1.0000	FOIL
+5.0000	FOLD	+3.0000
+9.0000	FOLDED	+7.0000
+1.0000	FOLDS
+65.0000	FOLLOW	+13.0000
+105.0000	FOLLOWED	+24.0000
+24.0000	FOLLOWING	+11.0000
+6.0000	FOLLOWS
+19.0000	FOOD	+8.0000
+1.0000	FOODS
+18.0000	FOOL	+9.0000
+1.0000	FOOLING
+12.0000	FOOLISH
+1.0000	FOOLS
+65.0000	FOOT	+21.0000
+1.0000	FOOTBALL
+3.0000	FOOTFALL
+1.0000	FOOTNOTES
+2521.0000	FOR	+117.0000
+2.0000	FORBIDDEN
+50.0000	FORCE	+16.0000
+26.0000	FORCED	+7.0000
+6.0000	FORCES	+4.0000
+1.0000	FORECASTS
+21.0000	FOREHEAD	+11.0000
+15.0000	FOREIGN	+5.0000
+2.0000	FOREIGNERS
+2.0000	FOREST
+38.0000	FOREVER	+15.0000
+1.0000	FORGED
+6.0000	FORGERY	+1.0000
+28.0000	FORGET	+9.0000
+4.0000	FORGIVENESS	+1.0000
+8.0000	FORGOT	+4.0000
+32.0000	FORM	+13.0000
+1.0000	FORMALITY
+1.0000	FORMATION
+30.0000	FORMED	+13.0000
+13.0000	FORMER
+13.0000	FORMS	+5.0000
+1.0000	FORMULA
+1.0000	FORMULATION
+9.0000	FORTH	+7.0000
+25.0000	FORTUNE	+5.0000
+39.0000	FORTY	+10.0000
+84.0000	FORWARD	+23.0000
+1.0000	FOSTERS
+3.0000	FOUGHT
+11.0000	FOUL	+2.0000
+342.0000	FOUND	+39.0000
+131.0000	FOUR	+37.0000
+8.0000	FRAME	+5.0000
+3.0000	FRAMEWORK	+1.0000
+1.0000	FRANKFURTER
+1.0000	FRANKFURTERS
+4.0000	FRANTICALLY
+1.0000	FREED
+8.0000	FREEDOM	+4.0000
+7.0000	FREELY	+5.0000
+1.0000	FREETHINKERS
+1.0000	FREEWAY
+4.0000	FREQUENT
+14.0000	FREQUENTLY	+12.0000
+65.0000	FRESH	+28.0000
+202.0000	FRIEND	+63.0000
+62.0000	FRIENDS	+30.0000
+31.0000	FRIGHTENED	+13.0000
+7.0000	FRINGE	+1.0000
+1.0000	FRIVOLOUS
+1366.0000	FROM	+82.0000
+141.0000	FRONT	+14.0000
+3.0000	FROST
+1.0000	FROSTBITE
+1.0000	FROWNINGLY
+1.0000	FROZE
+4.0000	FRUIT	+2.0000
+1.0000	FRUSTRATION
+1.0000	FUDGE
+1.0000	FULFILLING
+1.0000	FULFILLMENT
+58.0000	FULL	+21.0000
+1.0000	FULLNESS
+7.0000	FULLY	+5.0000
+1.0000	FUMBLED
+1.0000	FUMING
+3.0000	FUN
+2.0000	FUNCTION
+1.0000	FUNCTIONAL
+1.0000	FUND
+1.0000	FUNDING
+4.0000	FUNDS
+1.0000	FUNGICIDES
+4.0000	FUNNEL	+2.0000
+7.0000	FUNNY
+1.0000	FUR
+9.0000	FURIOUSLY	+7.0000
+4.0000	FURNISH
+1.0000	FURRIER
+53.0000	FURTHER	+25.0000
+3.0000	FUSS
+32.0000	FUTURE	+18.0000
+1.0000	GAB
+1.0000	GADFLY
+1.0000	GADGET
+1.0000	GAG
+16.0000	GAIN	+12.0000
+20.0000	GAINED	+7.0000
+1.0000	GAIT
+2.0000	GALLANT
+1.0000	GALLON
+1.0000	GALOSHES
+1.0000	GALVANIC
+41.0000	GAME	+12.0000
+21.0000	GANG	+9.0000
+1.0000	GANGPLANK
+1.0000	GARAGE
+1.0000	GARBAGE
+77.0000	GARDEN	+20.0000
+6.0000	GARDENS	+4.0000
+1.0000	GARLIC
+1.0000	GARRISONED
+11.0000	GAS	+5.0000
+1.0000	GASHES
+1.0000	GASSING
+5.0000	GATES	+0.0000
+4.0000	GATEWAY
+12.0000	GATHERED	+6.0000
+5.0000	GATHERING	+3.0000
+1.0000	GAUDY
+136.0000	GAVE	+12.0000
+1.0000	GAY
+17.0000	GAZED	+8.0000
+2.0000	GEAR
+1.0000	GEEING
+13.0000	GEESE	+9.0000
+17.0000	GENERAL	+14.0000
+1.0000	GENERAL'S
+1.0000	GENERALIZATIONS
+1.0000	GENERALIZE
+15.0000	GENERALLY	+13.0000
+1.0000	GENERALS
+1.0000	GENERATIONS
+2.0000	GENEROUS
+1.0000	GENEROUSLY
+6.0000	GENTLE	+4.0000
+72.0000	GENTLEMAN	+24.0000
+13.0000	GENTLY	+10.0000
+1.0000	GENUINELY
+1.0000	GEOCENTRICISM
+1.0000	GEOGRAPHICALLY
+1.0000	GEOLOGICAL
+11.0000	GEORGE	+7.0000
+294.0000	GET	+45.0000
+14.0000	GETS
+46.0000	GETTING	+22.0000
+1.0000	GHETTO
+1.0000	GHETTOS
+4.0000	GHOST
+1.0000	GHOSTLIKE
+6.0000	GIANT
+1.0000	GIANTS
+2.0000	GIFT
+1.0000	GIFTED
+8.0000	GIFTS	+5.0000
+6.0000	GIGANTIC
+2.0000	GIN
+1.0000	GIRAFFES
+74.0000	GIRL	+29.0000
+1.0000	GIRLIE
+1.0000	GIRLISHLY
+3.0000	GIRLS
+276.0000	GIVE	+23.0000
+104.0000	GIVEN	+17.0000
+22.0000	GIVES	+5.0000
+1.0000	GIVIN'
+1.0000	GLAND
+51.0000	GLASS	+19.0000
+1.0000	GLAZE
+1.0000	GLAZED
+1.0000	GLAZING
+22.0000	GLEAM	+1.0000
+6.0000	GLEAMED
+7.0000	GLEAMING	+5.0000
+1.0000	GLEE
+27.0000	GLIMPSE	+1.0000
+2.0000	GLISTENED
+3.0000	GLISTENING
+14.0000	GLOOM	+8.0000
+1.0000	GLORIES
+1.0000	GLORIFIED
+3.0000	GLOSSY
+7.0000	GLOVES	+5.0000
+4.0000	GLOW
+3.0000	GLOWED
+1.0000	GLUE
+1.0000	GLUED
+1.0000	GLUTTONS
+345.0000	GO	+29.0000
+4.0000	GOAL
+1.0000	GOALS
+1.0000	GOAT
+34.0000	GOES	+15.0000
+3.0000	GOIN'	+0.0000
+124.0000	GOING	+16.0000
+21.0000	GOLD	+12.0000
+1.0000	GOLFING
+192.0000	GONE	+25.0000
+1.0000	GONNA
+371.0000	GOOD	+84.0000
+6.0000	GOODNESS	+3.0000
+2.0000	GOODNIGHT
+21.0000	GOOSE	+13.0000
+1.0000	GOOSEBERRY
+1.0000	GORGEOUS
+1.0000	GOSH
+253.0000	GOT	+45.0000
+1.0000	GOULASH
+1.0000	GOVERN
+1.0000	GOVERNING
+20.0000	GOVERNMENT	+12.0000
+7.0000	GOVERNOR
+1.0000	GOWNS
+1.0000	GRAB
+1.0000	GRACEFULLY
+1.0000	GRADE
+1.0000	GRADES
+11.0000	GRADUALLY
+1.0000	GRADUATION
+1.0000	GRAINS
+1.0000	GRANDMOTHER
+1.0000	GRANTS
+1.0000	GRAPH
+2.0000	GRATEFUL
+1.0000	GRAYING
+2.0000	GRAZING
+1.0000	GREASING
+166.0000	GREAT	+88.0000
+18.0000	GREATER	+11.0000
+1.0000	GREATLY
+1.0000	GREEDILY
+25.0000	GREEN	+15.0000
+1.0000	GREENNESS
+6.0000	GREETED	+2.0000
+1.0000	GREG
+4.0000	GREGORY
+1.0000	GRIEVANCE
+1.0000	GRIEVANCES
+1.0000	GRILL
+5.0000	GRIN	+2.0000
+2.0000	GRINNED
+23.0000	GRIP	+7.0000
+1.0000	GROIN
+8.0000	GROOM	+6.0000
+2.0000	GROSS
+8.0000	GROTESQUE
+67.0000	GROUND	+17.0000
+1.0000	GROUNDHOG
+9.0000	GROUP	+3.0000
+4.0000	GROUPS	+1.0000
+10.0000	GROW	+6.0000
+4.0000	GROWING
+11.0000	GROWN
+1.0000	GROWNUPS
+7.0000	GROWS	+2.0000
+1.0000	GROWTH
+1.0000	GRUDGINGLY
+1.0000	GRUNT
+1.0000	GUARANTEED
+1.0000	GUARANTEES
+38.0000	GUARD	+17.0000
+1.0000	GUERRILLA
+1.0000	GUERRILLAS
+59.0000	GUESS	+18.0000
+2.0000	GUIDANCE
+19.0000	GUIDE	+10.0000
+1.0000	GUIDEBOOK
+2.0000	GUIDES
+14.0000	GUILT	+7.0000
+27.0000	GUILTY	+15.0000
+1.0000	GUM
+1.0000	GUMS
+34.0000	GUN	+12.0000
+1.0000	GUNMAN
+1.0000	GUNPOINT
+1.0000	GUNPOWDER
+5.0000	GUNS	+2.0000
+1.0000	GURGLE
+1.0000	GUS
+1.0000	GUSHED
+1.0000	GUTTURAL
+1.0000	GUY
+1.0000	GUYS
+1.0000	GWEN
+1.0000	GYRO
+1.0000	GYROCOMPASS
+35.0000	HA	+12.0000
+20.0000	HABIT	+6.0000
+2961.0000	HAD	+162.0000
+1.0000	HAFTA
+16.0000	HAGGARD	+2.0000
+1.0000	HAILS
+50.0000	HAIR	+13.0000
+5.0000	HAIRED	+3.0000
+180.0000	HALF	+34.0000
+1.0000	HALLOWEEN
+1.0000	HALLWAY
+2.0000	HALVES	+0.0000
+4.0000	HAM	+0.0000
+445.0000	HAND	+52.0000
+1.0000	HANDBAG
+68.0000	HANDED	+10.0000
+1.0000	HANDFUL
+20.0000	HANDLE	+7.0000
+8.0000	HANDLING	+4.0000
+239.0000	HANDS	+37.0000
+19.0000	HANDSOME	+14.0000
+5.0000	HANDY
+1.0000	HANDYMAN
+21.0000	HANGING	+9.0000
+1.0000	HANGOVERS
+15.0000	HAPPEN	+3.0000
+81.0000	HAPPENED	+17.0000
+2.0000	HAPPENING
+1.0000	HAPPIER
+2.0000	HAPPILY
+56.0000	HAPPY	+8.0000
+89.0000	HARD	+22.0000
+173.0000	HARDLY	+64.0000
+1.0000	HARDY
+1.0000	HARMLESSLY
+1.0000	HARMONIZE
+1.0000	HARMONY
+1.0000	HARMS
+2.0000	HARSH	+0.0000
+879.0000	HAS	+101.0000
+2.0000	HASTILY
+60.0000	HAT	+15.0000
+11.0000	HATE	+6.0000
+7.0000	HATED	+5.0000
+12.0000	HATRED	+6.0000
+2.0000	HATS
+1.0000	HAUGHTY
+1.0000	HAULING
+4.0000	HAUNTED	+2.0000
+2885.0000	HAVE	+133.0000
+7.0000	HAVEN'T
+124.0000	HAVING	+52.0000
+1.0000	HAWING
+1.0000	HAY
+1.0000	HAZARDS
+6.0000	HAZE	+4.0000
+5277.0000	HE	+173.0000
+9.0000	HE'D	+5.0000
+16.0000	HE'LL	+9.0000
+34.0000	HE'S	+13.0000
+212.0000	HEAD	+32.0000
+2.0000	HEADACHE
+1.0000	HEADACHES
+6.0000	HEADING
+7.0000	HEADQUARTERS	+5.0000
+21.0000	HEADS	+10.0000
+1.0000	HEALING
+17.0000	HEALTH	+9.0000
+1.0000	HEALTHFUL
+1.0000	HEALTHIER
+5.0000	HEALTHY
+5.0000	HEAP	+2.0000
+155.0000	HEAR	+18.0000
+285.0000	HEARD	+28.0000
+132.0000	HEART	+27.0000
+16.0000	HEARTILY	+6.0000
+7.0000	HEAT	+3.0000
+1.0000	HEAT'S
+1.0000	HEATER
+1.0000	HEATING
+1.0000	HEAVE
+20.0000	HEAVEN	+8.0000
+15.0000	HEAVENS	+7.0000
+1.0000	HEAVIER
+69.0000	HEAVY	+28.0000
+1.0000	HECK
+30.0000	HEELS	+10.0000
+4.0000	HEIGHTS	+2.0000
+109.0000	HELD	+21.0000
+1.0000	HELIUM
+9.0000	HELL	+5.0000
+2.0000	HELLO	+0.0000
+166.0000	HELP	+25.0000
+2.0000	HELPFUL
+7.0000	HELPING	+3.0000
+13.0000	HELPLESS	+7.0000
+2.0000	HELPS	+0.0000
+1.0000	HEM
+1.0000	HEMORRHAGE
+1.0000	HEN
+1.0000	HENCEFORTH
+5.0000	HENRY	+2.0000
+1.0000	HEPATITIS
+1121.0000	HER	+187.0000
+1.0000	HERB'S
+2.0000	HERD
+1.0000	HERDIN'
+570.0000	HERE	+49.0000
+17.0000	HERE'S	+1.0000
+1.0000	HERITAGE
+2.0000	HERO
+1.0000	HEROES
+1.0000	HEROIC
+1.0000	HEROISM
+34.0000	HERSELF	+14.0000
+3.0000	HESITATE
+1.0000	HEY
+1.0000	HIBACHI
+15.0000	HIDE	+13.0000
+1.0000	HIDES
+36.0000	HIDING	+7.0000
+1.0000	HIERARCHIES
+54.0000	HIGH	+32.0000
+8.0000	HIGHER	+5.0000
+14.0000	HIGHEST	+11.0000
+5.0000	HIGHLY
+3.0000	HIGHWAY
+1.0000	HIKING
+6.0000	HILLS	+4.0000
+1.0000	HILLSIDE
+1922.0000	HIM	+128.0000
+300.0000	HIMSELF	+50.0000
+1.0000	HINDU
+10.0000	HINT	+4.0000
+2.0000	HIRE
+5.0000	HIRED	+3.0000
+1.0000	HIRES
+1.0000	HIRING
+3409.0000	HIS	+320.0000
+1.0000	HISPANIC
+1.0000	HISTORIANS
+3.0000	HISTORICAL
+1.0000	HISTORICALLY
+21.0000	HISTORY	+6.0000
+14.0000	HIT	+4.0000
+3.0000	HOARSE
+65.0000	HOLD	+14.0000
+24.0000	HOLDER	+4.0000
+18.0000	HOLDING	+8.0000
+4.0000	HOLDS	+2.0000
+23.0000	HOLE	+5.0000
+1.0000	HOLES
+5.0000	HOLIDAY	+1.0000
+1.0000	HOLIDAYS
+116.0000	HOME	+21.0000
+1.0000	HOMES
+1.0000	HOMOGENEOUS
+12.0000	HONEST	+6.0000
+3.0000	HONESTY
+1.0000	HONEY
+1.0000	HONEYBEES
+1.0000	HONOR
+2.0000	HOOD
+6.0000	HOOFS	+3.0000
+11.0000	HOOK	+7.0000
+1.0000	HOOKING
+136.0000	HOPE	+33.0000
+22.0000	HOPED	+4.0000
+4.0000	HOPEFUL
+11.0000	HOPELESS	+4.0000
+8.0000	HORIZON	+3.0000
+52.0000	HORROR	+14.0000
+70.0000	HORSE	+26.0000
+3.0000	HORSEBACK
+1.0000	HORSEPLAY
+23.0000	HORSES	+8.0000
+1.0000	HOSPITALIZATION
+1.0000	HOSPITALS
+8.0000	HOST	+6.0000
+1.0000	HOSTAGES
+22.0000	HOT	+12.0000
+48.0000	HOTEL	+17.0000
+5.0000	HOTELS	+0.0000
+171.0000	HOUR	+31.0000
+61.0000	HOURS	+14.0000
+495.0000	HOUSE	+53.0000
+28.0000	HOUSEHOLD	+15.0000
+1.0000	HOUSEHOLDER
+38.0000	HOUSES	+13.0000
+1.0000	HOUSEWIVES
+1.0000	HOUSEWORK
+1.0000	HOUSING
+497.0000	HOW	+51.0000
+3.0000	HOW'S	+1.0000
+316.0000	HOWEVER	+51.0000
+1.0000	HUB
+13.0000	HUGE	+11.0000
+1.0000	HUGGED
+1.0000	HUGGING
+1.0000	HULL
+23.0000	HUM	+3.0000
+38.0000	HUMAN	+21.0000
+1.0000	HUMANISM
+1.0000	HUMID
+1.0000	HUMIDITY
+1.0000	HUMOR
+1.0000	HUMOROUS
+130.0000	HUNDRED	+18.0000
+27.0000	HUNG	+12.0000
+1.0000	HUNGARIAN
+27.0000	HUNTER	+15.0000
+9.0000	HURRIEDLY	+7.0000
+25.0000	HURRY	+11.0000
+21.0000	HURT	+15.0000
+1.0000	HURTS
+86.0000	HUSBAND	+25.0000
+13.0000	HUSBAND'S	+11.0000
+1.0000	HUSBANDRY
+2.0000	HUSKY
+15.0000	HUT	+5.0000
+1.0000	HYACINTHS
+1.0000	HYENA
+1.0000	HYENAS
+1.0000	HYPOCRITES
+1.0000	HYPOTHALAMIC
+1.0000	HYPOTHETICAL
+1.0000	HYSTERICAL
+9246.0000	I	+170.0000
+48.0000	I'D	+22.0000
+175.0000	I'LL	+33.0000
+67.0000	I'M	+17.0000
+95.0000	I'VE	+20.0000
+4.0000	ICE
+1.0000	ICES
+1.0000	ICICLES
+1.0000	ICY
+102.0000	IDEA	+17.0000
+1.0000	IDEAL
+1.0000	IDEALLY
+5.0000	IDEAS
+2.0000	IDENTICAL
+1.0000	IDENTIFIABLE
+6.0000	IDENTIFIED	+4.0000
+4.0000	IDENTIFY	+2.0000
+1.0000	IDEOLOGICAL
+1.0000	IDEOLOGY
+1.0000	IDIOSYNCRASIES
+1.0000	IDIOTIC
+1.0000	IDIOTICALLY
+1.0000	IDLY
+1.0000	IDOLIZE
+1243.0000	IF	+32.0000
+1.0000	IGNORE
+1.0000	IGNORED
+1.0000	IGNORES
+1.0000	IGUANAS
+33.0000	ILL	+17.0000
+3.0000	ILLEGAL
+1.0000	ILLEGALLY
+13.0000	ILLNESS	+10.0000
+1.0000	ILLNESSES
+3.0000	ILLUMINATED
+1.0000	ILLUMINATING
+1.0000	ILLUMINED
+1.0000	ILLUSIONS
+3.0000	IMAGE	+0.0000
+1.0000	IMAGES
+13.0000	IMAGINATION	+9.0000
+73.0000	IMAGINE	+11.0000
+29.0000	IMAGINED	+10.0000
+2.0000	IMITATE
+2.0000	IMMATERIAL
+13.0000	IMMEDIATE	+11.0000
+24.0000	IMMEDIATELY	+12.0000
+1.0000	IMMORTAL
+1.0000	IMPACT
+1.0000	IMPERFECT
+1.0000	IMPERSONAL
+1.0000	IMPLAUSIBLY
+1.0000	IMPLICATIONS
+1.0000	IMPLIED
+2.0000	IMPORT
+76.0000	IMPORTANCE	+15.0000
+58.0000	IMPORTANT	+26.0000
+1.0000	IMPORTS
+1.0000	IMPOSES
+69.0000	IMPOSSIBLE	+14.0000
+11.0000	IMPRESSIONS	+7.0000
+6.0000	IMPROVED
+1.0000	IMPROVING
+1.0000	IMPULSES
+5208.0000	IN	+178.0000
+3.0000	INADEQUATE
+1.0000	INADVISABLE
+1.0000	INANIMATE
+2.0000	INARTICULATE	+0.0000
+1.0000	INAUGURAL
+9.0000	INCH	+4.0000
+1.0000	INCLUDE
+2.0000	INCLUDED
+2.0000	INCLUDING
+1.0000	INCLUSIONS
+9.0000	INCOME	+4.0000
+3.0000	INCOMPLETE
+1.0000	INCORPORATED
+2.0000	INCREASE
+13.0000	INCREASED	+7.0000
+1.0000	INCREASES
+1.0000	INCREASING
+137.0000	INDEED	+39.0000
+1.0000	INDEFINABLE
+2.0000	INDEFINITE
+1.0000	INDEMNITY
+6.0000	INDEPENDENT
+1.0000	INDEX
+12.0000	INDICATE	+5.0000
+13.0000	INDICATED	+3.0000
+1.0000	INDICATES
+3.0000	INDISPENSABLE
+16.0000	INDIVIDUAL	+10.0000
+3.0000	INDIVIDUALS
+1.0000	INDULGE
+2.0000	INDUSTRY
+1.0000	INEFFECTIVE
+1.0000	INERTIA
+5.0000	INEVITABLE	+1.0000
+1.0000	INEXACT
+1.0000	INEXCUSABLE
+1.0000	INEXHAUSTIBLE
+1.0000	INFANCY
+1.0000	INFECTION
+1.0000	INFECTIOUS
+1.0000	INFECTIVE
+10.0000	INFERENCES	+2.0000
+1.0000	INFERIORITY
+1.0000	INFIDELS
+1.0000	INFIELD
+1.0000	INFILTRATION
+1.0000	INFLAMMATORY
+1.0000	INFLATED
+3.0000	INFLUENCES	+1.0000
+55.0000	INFORMATION	+16.0000
+1.0000	INFORMATIVE
+21.0000	INFORMED	+5.0000
+1.0000	INFREQUENT
+1.0000	INFURIATION
+5.0000	INGENUITY	+3.0000
+1.0000	INGREDIENT
+1.0000	INGREDIENTS
+1.0000	INHABIT
+2.0000	INHERITED
+1.0000	INHIBIT
+1.0000	INHIBITOR
+4.0000	INHUMAN
+1.0000	INITIATIVE
+1.0000	INJECTED
+1.0000	INJECTION
+8.0000	INJURIES	+6.0000
+5.0000	INNOCENCE	+2.0000
+11.0000	INQUIRED	+5.0000
+44.0000	INQUIRY	+23.0000
+1.0000	INSECTICIDE
+1.0000	INSECTICIDES
+1.0000	INSERT
+75.0000	INSIDE	+13.0000
+8.0000	INSIST	+3.0000
+1.0000	INSPIRING
+1.0000	INSTABILITY
+1.0000	INSTALLATIONS
+1.0000	INSTALLED
+7.0000	INSTANCE	+3.0000
+169.0000	INSTANT	+29.0000
+1.0000	INSTANTANEOUS
+17.0000	INSTEAD	+1.0000
+9.0000	INSTINCT
+10.0000	INSTRUCTIONS	+6.0000
+11.0000	INSTRUMENT	+6.0000
+5.0000	INSTRUMENTS	+3.0000
+3.0000	INSUFFICIENT	+1.0000
+1.0000	INSULATE
+1.0000	INSULATOR
+1.0000	INSURANCE
+1.0000	INTEGRATED
+1.0000	INTEGRATION
+1.0000	INTEGRITY
+11.0000	INTELLIGENCE
+6.0000	INTELLIGENT
+2.0000	INTELLIGIBLE
+4.0000	INTENT
+1.0000	INTERCHANGEABLY
+119.0000	INTEREST	+17.0000
+26.0000	INTERESTED	+7.0000
+51.0000	INTERESTING	+19.0000
+2.0000	INTERIOR	+0.0000
+1.0000	INTERNAL
+2.0000	INTERPRETATION	+0.0000
+1.0000	INTERPRETATIONS
+5.0000	INTERVALS	+3.0000
+25.0000	INTERVIEW	+11.0000
+1.0000	INTERVIEWEE
+1.0000	INTERWEAVING
+12.0000	INTIMATE	+7.0000
+775.0000	INTO	+49.0000
+15.0000	INTRODUCED	+6.0000
+1.0000	INTRUSIONS
+4.0000	INTUITION
+1.0000	INVADE
+6.0000	INVALUABLE	+1.0000
+5.0000	INVARIABLY	+3.0000
+1.0000	INVENTORIES
+2.0000	INVEST	+0.0000
+75.0000	INVESTIGATION	+17.0000
+7.0000	INVESTIGATIONS	+3.0000
+1.0000	INVIOLATE
+6.0000	INVITATION	+4.0000
+1.0000	INVOKED
+11.0000	INVOLVED	+4.0000
+2.0000	INVOLVES
+1.0000	INVOLVING
+3.0000	INWARD
+1.0000	INWARDLY
+1.0000	IRATE
+3.0000	IRIS	+1.0000
+5.0000	IRISH	+3.0000
+29.0000	IRON	+16.0000
+1.0000	IRONIC
+1.0000	IRONICALLY
+1.0000	IRONING
+1.0000	IRONS
+1.0000	IRRADIATION
+1.0000	IRREMEDIABLE
+1.0000	IRRESPONSIBLE
+1.0000	IRRITATED
+1.0000	IRVING'S
+3193.0000	IS	+195.0000
+19.0000	ISN'T	+10.0000
+1.0000	ISOTOPES
+7.0000	ISSUE	+4.0000
+2.0000	ISSUED
+2.0000	ISSUES
+6372.0000	IT	+167.0000
+1.0000	IT'D
+208.0000	IT'S	+55.0000
+1.0000	ITCHING
+2.0000	ITEM
+1.0000	ITEMIZE
+1.0000	ITEMS
+164.0000	ITS	+77.0000
+59.0000	ITSELF	+19.0000
+5.0000	IVORY	+2.0000
+1.0000	JABBED
+1.0000	JACKASS
+8.0000	JACKET	+5.0000
+1.0000	JADED
+5.0000	JAGGED
+1.0000	JAGUARS
+1.0000	JAM
+1.0000	JANE
+3.0000	JANUARY
+2.0000	JAR
+1.0000	JARS
+8.0000	JAW	+4.0000
+1.0000	JEALOUSIES
+7.0000	JEALOUSY	+5.0000
+1.0000	JEEP
+1.0000	JEFF
+1.0000	JEFF'S
+1.0000	JENNIFER'S
+1.0000	JEOPARDIZE
+3.0000	JERK
+2.0000	JERKY
+1.0000	JET
+8.0000	JEWEL	+4.0000
+5.0000	JIM
+1.0000	JIM'S
+41.0000	JOB	+12.0000
+1.0000	JOCULAR
+4.0000	JOHN	+2.0000
+1.0000	JOHN'S
+14.0000	JOIN	+5.0000
+5.0000	JOINING
+4.0000	JOINT
+1.0000	JOKERS
+2.0000	JOKES
+6.0000	JOKING	+3.0000
+6.0000	JOURNAL
+1.0000	JOURNALESE
+2.0000	JOURNALIST
+1.0000	JOYCE
+29.0000	JUDGE	+9.0000
+3.0000	JUDGED
+1.0000	JUICE
+1.0000	JUICY
+11.0000	JUMP	+4.0000
+10.0000	JUMPED	+8.0000
+3.0000	JUNGLE
+2.0000	JUNIOR
+368.0000	JUST	+91.0000
+2.0000	JUSTIFICATION
+1.0000	KAYAK
+1.0000	KAYO
+1.0000	KEELSON
+121.0000	KEEP	+21.0000
+75.0000	KEPT	+21.0000
+1.0000	KERNELS
+1.0000	KEROSENE
+88.0000	KEY	+21.0000
+1.0000	KEYED
+16.0000	KEYS	+2.0000
+3.0000	KICK
+2.0000	KID
+1.0000	KID'S
+1.0000	KIDNAPPERS
+1.0000	KIDS
+11.0000	KILL	+5.0000
+32.0000	KILLED	+8.0000
+1.0000	KIN
+56.0000	KIND	+10.0000
+1.0000	KINDA
+1.0000	KINDERGARTEN
+32.0000	KINDLY	+21.0000
+1.0000	KIPPERS
+8.0000	KISSED	+5.0000
+24.0000	KITCHEN	+10.0000
+1.0000	KNACK
+1.0000	KNACKS
+17.0000	KNEE	+4.0000
+10.0000	KNEELING	+5.0000
+21.0000	KNEES	+7.0000
+251.0000	KNEW	+29.0000
+1.0000	KNICK
+56.0000	KNIFE	+19.0000
+1.0000	KNIFELIKE
+1.0000	KNIT
+4.0000	KNITTED
+3.0000	KNIVES	+1.0000
+30.0000	KNOCKED	+12.0000
+663.0000	KNOW	+36.0000
+1.0000	KNOWED
+39.0000	KNOWING	+10.0000
+1.0000	KNOWINGLY
+118.0000	KNOWN	+33.0000
+63.0000	KNOWS	+22.0000
+1.0000	LABELED
+1.0000	LABOR
+7.0000	LABORATORY	+3.0000
+1.0000	LACERATE
+3.0000	LACK	+1.0000
+1.0000	LACKEYS
+1.0000	LACTATING
+34.0000	LAD	+15.0000
+5.0000	LADDER
+20.0000	LADY'S	+16.0000
+1.0000	LADYLIKE
+1.0000	LAGOON
+85.0000	LAID	+21.0000
+15.0000	LAKE	+4.0000
+1.0000	LAMB'S
+85.0000	LAMP	+29.0000
+12.0000	LAMPS	+10.0000
+26.0000	LAND	+15.0000
+7.0000	LANDLORD	+4.0000
+1.0000	LANDMARKS
+7.0000	LANGUAGE	+4.0000
+79.0000	LARGE	+32.0000
+1.0000	LARGELY
+12.0000	LARGER	+7.0000
+1.0000	LARVAE
+6.0000	LASHED
+1.0000	LASHINGS
+441.0000	LAST	+66.0000
+1.0000	LATCHES
+95.0000	LATE	+24.0000
+1.0000	LATENT
+93.0000	LATER	+17.0000
+5.0000	LATEST	+3.0000
+1.0000	LATHE
+1.0000	LATITUDES
+28.0000	LATTER	+17.0000
+31.0000	LAUGH	+9.0000
+49.0000	LAUGHED	+8.0000
+38.0000	LAUGHING	+11.0000
+1.0000	LAVISHLY
+68.0000	LAW	+20.0000
+1.0000	LAWFUL
+2.0000	LAWS
+12.0000	LAWYER	+6.0000
+1.0000	LAWYERS
+165.0000	LAY	+31.0000
+1.0000	LAYOFFS
+1.0000	LAZY
+39.0000	LEAD	+10.0000
+7.0000	LEADER	+3.0000
+1.0000	LEADERSHIP
+22.0000	LEADING	+11.0000
+3.0000	LEAF	+1.0000
+1.0000	LEAFLET
+1.0000	LEAGUES
+1.0000	LEAP
+39.0000	LEARN	+12.0000
+53.0000	LEARNED	+15.0000
+98.0000	LEAST	+35.0000
+13.0000	LEATHER	+4.0000
+163.0000	LEAVE	+16.0000
+12.0000	LEAVES	+5.0000
+49.0000	LEAVING	+16.0000
+1.0000	LEAVINGS
+117.0000	LED	+15.0000
+4.0000	LEDGER
+1.0000	LEEWAY
+337.0000	LEFT	+41.0000
+22.0000	LEG	+10.0000
+7.0000	LEGAL
+1.0000	LEGEND
+13.0000	LEGGED	+6.0000
+1.0000	LEGISLATION
+1.0000	LEGISLATIVE
+1.0000	LEGISLATURE
+19.0000	LEGS	+15.0000
+4.0000	LEISURE	+2.0000
+1.0000	LEMON
+13.0000	LENGTH	+9.0000
+2.0000	LENGTHY
+1.0000	LENTILS
+1.0000	LEOPARDS
+84.0000	LESS	+36.0000
+7.0000	LESSON	+4.0000
+1.0000	LESSONS
+14.0000	LEST	+9.0000
+314.0000	LET	+21.0000
+4.0000	LET'S	+0.0000
+129.0000	LETTER	+34.0000
+62.0000	LETTERS	+21.0000
+10.0000	LEVEL	+4.0000
+1.0000	LEVELING
+1.0000	LEVELS
+1.0000	LEWD
+2.0000	LIBERAL
+1.0000	LIBERALS
+7.0000	LIBRARY	+3.0000
+13.0000	LID	+4.0000
+3.0000	LIDS
+51.0000	LIE	+24.0000
+232.0000	LIFE	+35.0000
+1.0000	LIFEBOATS
+1.0000	LIFELONG
+2.0000	LIFT
+4.0000	LIFTING
+1.0000	LIGAMENT
+218.0000	LIGHT	+44.0000
+1.0000	LIGHTBULBS
+13.0000	LIGHTED	+7.0000
+5.0000	LIGHTER
+6.0000	LIGHTLY
+18.0000	LIGHTS	+13.0000
+312.0000	LIKE	+51.0000
+13.0000	LIKED	+2.0000
+85.0000	LIKELY	+11.0000
+7.0000	LIKES	+1.0000
+1.0000	LIKEWISE
+1.0000	LILY
+6.0000	LIMIT	+2.0000
+11.0000	LIMITED	+5.0000
+1.0000	LINCOLN
+82.0000	LINE	+19.0000
+12.0000	LINED	+9.0000
+21.0000	LINES	+5.0000
+4.0000	LION
+13.0000	LIP	+7.0000
+71.0000	LIPS	+18.0000
+2.0000	LIQUID
+1.0000	LIQUIDS
+4.0000	LIQUOR
+13.0000	LIST	+7.0000
+1.0000	LISTED
+4.0000	LISTS
+3.0000	LITERALLY	+1.0000
+1.0000	LITERARY
+1.0000	LITERATURE
+1.0000	LITHOGRAPHS
+4.0000	LITTER	+2.0000
+451.0000	LITTLE	+146.0000
+45.0000	LIVE	+16.0000
+53.0000	LIVED	+20.0000
+1.0000	LIVELY
+35.0000	LIVES	+14.0000
+1.0000	LIVESTOCK
+30.0000	LIVING	+8.0000
+4.0000	LOADED
+1.0000	LOADS
+1.0000	LOBES
+9.0000	LOCAL
+1.0000	LOCATE
+1.0000	LOCATION
+44.0000	LOCK	+11.0000
+41.0000	LOCKED	+10.0000
+99.0000	LODGE	+32.0000
+5.0000	LOGICAL	+3.0000
+1.0000	LOGICALLY
+1.0000	LOGS
+3.0000	LONE	+0.0000
+1.0000	LONELINESS
+308.0000	LONG	+69.0000
+2.0000	LONGED
+33.0000	LONGER	+11.0000
+1.0000	LONGITUDES
+245.0000	LOOK	+30.0000
+201.0000	LOOKED	+25.0000
+130.0000	LOOKING	+28.0000
+22.0000	LOOKS	+10.0000
+1.0000	LOOMS
+25.0000	LOOSE	+12.0000
+1.0000	LORI'S
+20.0000	LOSE	+8.0000
+22.0000	LOSS	+7.0000
+1.0000	LOSSES
+78.0000	LOST	+24.0000
+13.0000	LOT	+8.0000
+1.0000	LOTIONS
+3.0000	LOTS	+1.0000
+1.0000	LOUDEST
+6.0000	LOUDLY	+3.0000
+1.0000	LOUSE
+1.0000	LOUSINESS
+46.0000	LOVE	+13.0000
+41.0000	LOVED	+7.0000
+7.0000	LOVELY	+4.0000
+1.0000	LOVIE
+4.0000	LOVING
+39.0000	LOW	+20.0000
+23.0000	LOWER	+15.0000
+8.0000	LOWERED	+5.0000
+5.0000	LOYAL
+1.0000	LOYALTIES
+32.0000	LUCK	+16.0000
+12.0000	LUCKY	+7.0000
+1.0000	LULLABY
+4.0000	LUMBER	+1.0000
+18.0000	LUNCH	+10.0000
+1.0000	LUNCHROOM
+1.0000	LUNGS
+1.0000	LUSH
+2.0000	LUXURIOUS
+2.0000	LUXURY
+50.0000	LYING	+15.0000
+1.0000	MA'AM
+1.0000	MACABRE
+22.0000	MACHINE	+11.0000
+3.0000	MACHINERY
+1.0000	MACHINES
+28.0000	MAD	+9.0000
+332.0000	MADE	+30.0000
+1.0000	MADSTONES
+1.0000	MAGNETIC
+1.0000	MAGNETISM
+1.0000	MAGNIFICENTLY
+1.0000	MAGNIFIED
+1.0000	MAGPIES
+2.0000	MAHOGANY
+1.0000	MAIDS'
+2.0000	MAIL
+28.0000	MAIN	+16.0000
+1.0000	MAINTAIN
+1.0000	MAINTENANCE
+9.0000	MAJOR	+7.0000
+1.0000	MAJORITY
+288.0000	MAKE	+25.0000
+30.0000	MAKES	+5.0000
+43.0000	MAKING	+11.0000
+1.0000	MALADIES
+1.0000	MALARIA
+5.0000	MALE
+1.0000	MAMMALS
+1053.0000	MAN	+115.0000
+82.0000	MAN'S	+33.0000
+13.0000	MANAGE	+5.0000
+23.0000	MANAGED	+4.0000
+3.0000	MANAGEMENT
+1.0000	MANDATES
+1.0000	MANGO
+3.0000	MANHOOD
+1.0000	MANIFEST
+93.0000	MANNER	+18.0000
+1.0000	MANNERISM
+6.0000	MANNERS
+1.0000	MANUAL
+1.0000	MANUFACTURER
+1.0000	MANUFACTURERS
+1.0000	MANURE
+122.0000	MANY	+34.0000
+11.0000	MAP	+6.0000
+1.0000	MARE'S
+1.0000	MARGARET
+1.0000	MARINE
+1.0000	MARINE'S
+53.0000	MARK	+16.0000
+1.0000	MARKETING
+1.0000	MARKETS
+44.0000	MARKS	+8.0000
+1.0000	MARKSMANSHIP
+44.0000	MARRIAGE	+18.0000
+58.0000	MARRIED	+19.0000
+1.0000	MARSHMALLOWS
+1.0000	MARVEL
+1.0000	MARVELOUSLY
+10.0000	MASK	+5.0000
+3.0000	MASKS
+2.0000	MASONRY	+0.0000
+1.0000	MASQUERADE
+5.0000	MASS	+2.0000
+1.0000	MASSAGE
+10.0000	MASSIVE	+7.0000
+57.0000	MASTER	+17.0000
+6.0000	MASTER'S
+9.0000	MASTERFUL
+1.0000	MATCHED
+1.0000	MATCHING
+12.0000	MATE	+7.0000
+19.0000	MATERIAL	+12.0000
+1.0000	MATERIALS
+4.0000	MATES
+1.0000	MATHEMATICS
+1.0000	MATHEWS
+344.0000	MATTER	+39.0000
+51.0000	MATTERS	+18.0000
+1.0000	MATTRESSES
+1.0000	MATURITY
+1.0000	MAXIMAL
+1.0000	MAXIMIZE
+1.0000	MAXIMUM
+652.0000	MAY	+84.0000
+1.0000	MAYAN
+40.0000	MAYBE	+20.0000
+1.0000	MAYONNAISE
+2214.0000	ME	+121.0000
+1.0000	MEADOW
+6.0000	MEALS	+3.0000
+1.0000	MEALYNOSED
+87.0000	MEAN	+14.0000
+32.0000	MEANING	+10.0000
+1.0000	MEANINGFUL
+1.0000	MEANNESS
+71.0000	MEANS	+21.0000
+35.0000	MEANT	+12.0000
+24.0000	MEANWHILE	+11.0000
+5.0000	MEASURE	+2.0000
+8.0000	MEASURED
+2.0000	MEASUREMENT	+0.0000
+3.0000	MEAT	+1.0000
+1.0000	MEATS
+1.0000	MECHANIC
+1.0000	MECHANICAL
+1.0000	MECHANISM
+1.0000	MEDIA
+1.0000	MEDIAN
+22.0000	MEDICAL	+14.0000
+6.0000	MEDICINE	+4.0000
+1.0000	MEDIEVAL
+1.0000	MEDIOCRITY
+60.0000	MEET	+7.0000
+15.0000	MEETING	+7.0000
+2.0000	MEETINGS
+9.0000	MELANCHOLY	+6.0000
+1.0000	MELODRAMATIC
+1.0000	MELODY
+2.0000	MELTED
+15.0000	MEMBER	+1.0000
+14.0000	MEMBERS	+1.0000
+2.0000	MEMBERSHIP
+1.0000	MEMO
+1.0000	MEMORIZED
+23.0000	MEMORY	+12.0000
+190.0000	MEN	+36.0000
+8.0000	MENTAL
+1.0000	MENTALITY
+18.0000	MENTION	+9.0000
+1.0000	MEOW
+1.0000	MERCENARY
+1.0000	MERCHANDISING
+1.0000	MERCILESSLY
+23.0000	MERE	+17.0000
+11.0000	MERELY	+6.0000
+1.0000	MERGER
+1.0000	MERGERS
+1.0000	MERIT
+1.0000	MERRILY
+6.0000	MESS	+4.0000
+56.0000	MESSAGE	+21.0000
+1.0000	MESSY
+99.0000	MET	+19.0000
+13.0000	METAL	+9.0000
+3.0000	METALLIC
+10.0000	METHOD	+2.0000
+37.0000	METHODS	+11.0000
+1.0000	METTLE
+1.0000	MIAMI
+1.0000	MICHAEL
+1.0000	MICROMETEORITE
+1.0000	MICROMETEORITES
+1.0000	MICROORGANISMS
+1.0000	MICROSCOPICALLY
+1.0000	MIDAIR
+16.0000	MIDNIGHT	+10.0000
+368.0000	MIGHT	+63.0000
+7.0000	MIGHTY
+1.0000	MIKE
+24.0000	MILE	+8.0000
+44.0000	MILES	+9.0000
+4.0000	MILITARY
+11.0000	MILK	+7.0000
+1.0000	MILLIONAIRES
+241.0000	MIND	+33.0000
+2.0000	MINDED
+13.0000	MINDS	+3.0000
+73.0000	MINE	+18.0000
+4.0000	MINING
+14.0000	MINISTER	+8.0000
+4.0000	MINOR
+1.0000	MINORITY
+43.0000	MINUTE	+15.0000
+113.0000	MINUTES	+24.0000
+1.0000	MIRACULOUS
+1.0000	MIRACULOUSLY
+1.0000	MIRAGE
+5.0000	MIRROR
+1.0000	MIRRORS
+1.0000	MISBEHAVIOR
+4.0000	MISERABLE
+6.0000	MISERY	+4.0000
+1.0000	MISHAP
+1.0000	MISINTERPRET
+1.0000	MISLEADING
+1.0000	MISPERCEIVES
+1.0000	MISPLACED
+1.0000	MISPRINT
+1.0000	MISQUOTE
+36.0000	MISS	+5.0000
+28.0000	MISTAKEN	+10.0000
+8.0000	MIXED	+1.0000
+1.0000	MIXING
+1.0000	MOBILE
+1.0000	MOCK
+1.0000	MODED
+1.0000	MODELED
+1.0000	MODELING
+1.0000	MODELS
+5.0000	MODERN	+3.0000
+1.0000	MODERNIZATION
+1.0000	MODERNIZING
+4.0000	MODEST
+2.0000	MODESTY
+3.0000	MODIFIED
+1.0000	MODULAR
+3.0000	MOIST
+1.0000	MOISTENED
+4.0000	MOISTURE	+2.0000
+1.0000	MOLD
+1.0000	MOLDED
+1.0000	MOLLUSKS
+1.0000	MOM
+172.0000	MOMENT	+23.0000
+2.0000	MOMENTARY
+12.0000	MOMENTS	+8.0000
+1.0000	MOMMA
+43.0000	MONDAY	+10.0000
+123.0000	MONEY	+32.0000
+1.0000	MONITORED
+3.0000	MONKEY	+1.0000
+1.0000	MONOPOLIZE
+4.0000	MONSTROUS
+32.0000	MONTH	+16.0000
+60.0000	MONTHS	+19.0000
+4.0000	MOON
+7.0000	MOONLIGHT	+3.0000
+2.0000	MOPPED	+0.0000
+1.0000	MORAL
+1.0000	MORALE
+596.0000	MORE	+113.0000
+1.0000	MOREOVER
+1.0000	MORGUE
+298.0000	MORNING	+36.0000
+1.0000	MORPHOLOGICAL
+1.0000	MORPHOPHONEMIC
+69.0000	MORROW	+13.0000
+1.0000	MOSQUITOES
+7.0000	MOSS	+3.0000
+156.0000	MOST	+45.0000
+2.0000	MOSTLY
+1.0000	MOTEL
+1.0000	MOTH
+45.0000	MOTHER	+19.0000
+11.0000	MOTHER'S	+9.0000
+1.0000	MOTHERS
+2.0000	MOTIONING
+1.0000	MOTIVATES
+1.0000	MOTOR
+1.0000	MOTORISTS
+1.0000	MOTORISTS'
+1.0000	MOUNT
+1.0000	MOUNTAIN
+1.0000	MOUNTAINSIDE
+1.0000	MOUNTING
+1.0000	MOURNFULLY
+3.0000	MOUSE
+49.0000	MOUTH	+16.0000
+1.0000	MOUTHFUL
+24.0000	MOVE	+14.0000
+45.0000	MOVED	+24.0000
+9.0000	MOVEMENT	+4.0000
+1.0000	MOVES
+1.0000	MOVIE
+1.0000	MOVIES
+24.0000	MOVING	+15.0000
+1.0000	MR
+1.0000	MRS
+325.0000	MUCH	+67.0000
+1.0000	MUCUS
+1.0000	MUDDLEHEADED
+6.0000	MUDDY	+4.0000
+1.0000	MUDWAGON
+3.0000	MUFFLED
+1.0000	MUGS
+1.0000	MULTIPLE
+1.0000	MURALS
+98.0000	MURDER	+29.0000
+31.0000	MURDERER	+15.0000
+2.0000	MURKY
+8.0000	MURMURED	+5.0000
+3.0000	MUSCLE
+5.0000	MUSCLES
+3.0000	MUSCULAR
+9.0000	MUSEUM	+3.0000
+1.0000	MUSEUMS
+7.0000	MUSIC	+4.0000
+2.0000	MUSICAL
+1.0000	MUSICIANS
+1.0000	MUSKRAT
+533.0000	MUST	+68.0000
+1.0000	MUSTACHE
+1.0000	MUSTARD
+1.0000	MUTINEER
+2295.0000	MY	+223.0000
+1.0000	MYOPIA
+253.0000	MYSELF	+51.0000
+19.0000	MYSTERIOUS	+13.0000
+81.0000	MYSTERY	+16.0000
+1.0000	NAGGING
+1.0000	NAILED
+9.0000	NAILS	+5.0000
+1.0000	NAIVE
+9.0000	NAKED	+1.0000
+199.0000	NAME	+27.0000
+8.0000	NAMED	+4.0000
+22.0000	NAMES	+6.0000
+1.0000	NAN'S
+1.0000	NANCY'S
+12.0000	NARROW	+10.0000
+1.0000	NARROWER
+2.0000	NASTY
+1.0000	NATHAN
+5.0000	NATIONAL	+3.0000
+34.0000	NATURAL	+23.0000
+24.0000	NATURALLY	+22.0000
+64.0000	NATURE	+21.0000
+1.0000	NAVIGATE
+70.0000	NEAR	+17.0000
+1.0000	NEARBY
+23.0000	NEARER	+9.0000
+9.0000	NEAREST
+5.0000	NEARING	+1.0000
+77.0000	NEARLY	+24.0000
+3.0000	NEAT	+0.0000
+2.0000	NECESSARILY
+37.0000	NECESSARY	+8.0000
+1.0000	NECESSITATES
+5.0000	NECESSITY
+20.0000	NECK	+6.0000
+1.0000	NECKLACE
+1.0000	NECTAR
+72.0000	NEED	+17.0000
+21.0000	NEEDED	+7.0000
+2.0000	NEEDLE
+1.0000	NEEDLEPOINT
+1.0000	NEEDLESS
+12.0000	NEEDS	+5.0000
+5.0000	NEGLECT
+1.0000	NEGLIGENT
+1.0000	NEGLIGIBLE
+1.0000	NEGOTIATIONS
+61.0000	NEITHER	+24.0000
+1.0000	NEOCLASSIC
+28.0000	NERVES	+11.0000
+1.0000	NESTED
+2.0000	NEVADA
+1.0000	NEVADA'S
+434.0000	NEVER	+87.0000
+1.0000	NEVERTHELESS
+103.0000	NEW	+42.0000
+73.0000	NEWS	+21.0000
+12.0000	NEWSPAPER	+6.0000
+138.0000	NEXT	+31.0000
+7.0000	NICE	+5.0000
+5.0000	NICELY	+3.0000
+493.0000	NIGHT	+50.0000
+1.0000	NIGHTLY
+1.0000	NIGHTMARES
+19.0000	NIGHTS	+11.0000
+1.0000	NIHILISTIC
+56.0000	NINE	+15.0000
+3.0000	NIP
+1359.0000	NO	+149.0000
+9.0000	NOBODY
+1.0000	NOBODY'S
+17.0000	NODDED	+2.0000
+13.0000	NOISE	+7.0000
+2.0000	NOISY
+1.0000	NON
+111.0000	NONE	+24.0000
+1.0000	NONPROFIT
+4.0000	NONSENSE	+2.0000
+1.0000	NONSYSTEMATIC
+107.0000	NOR	+39.0000
+1.0000	NORA
+1.0000	NORA'S
+7.0000	NORMAL	+3.0000
+1.0000	NORMALLY
+1.0000	NORMS
+19.0000	NORTH	+10.0000
+1.0000	NORTHEAST
+3.0000	NORTHERN
+1.0000	NORTHERNERS
+1.0000	NORWEGIAN
+30.0000	NOSE	+14.0000
+1931.0000	NOT	+238.0000
+91.0000	NOTE	+26.0000
+5.0000	NOTED
+27.0000	NOTES	+8.0000
+2.0000	NOTEWORTHY
+1.0000	NOTHIN
+463.0000	NOTHING	+44.0000
+46.0000	NOTICE	+12.0000
+3.0000	NOTICES
+1.0000	NOTORIETY
+11.0000	NOVEL	+6.0000
+1.0000	NOVELISTS
+1.0000	NOVELTY
+774.0000	NOW	+110.0000
+1.0000	NOWADAYS
+5.0000	NOWHERE	+2.0000
+1.0000	NUCLEAR
+2.0000	NUCLEUS
+1.0000	NUMB
+79.0000	NUMBER	+6.0000
+1.0000	NUMBERING
+1.0000	NUMBNESS
+5.0000	NUMEROUS
+1.0000	NURSES'
+2.0000	NUT
+1.0000	NUTRIENTS
+1.0000	NUTRITION
+1.0000	NUTS
+1.0000	NYMPHOMANIACS
+16.0000	O'	+9.0000
+97.0000	O'CLOCK	+15.0000
+13.0000	OAK	+5.0000
+1.0000	OASIS
+1.0000	OATMEAL
+1.0000	OATS
+3.0000	OBEY	+1.0000
+1.0000	OBEYING
+48.0000	OBJECT	+9.0000
+1.0000	OBJECTIVE
+1.0000	OBJECTIVES
+10.0000	OBJECTS	+5.0000
+1.0000	OBSERVANCE
+43.0000	OBSERVE	+11.0000
+1.0000	OBSERVERS
+1.0000	OBSESSION
+1.0000	OBSESSIONS
+1.0000	OBSOLESCENT
+1.0000	OBSTACLES
+7.0000	OBTAIN	+4.0000
+14.0000	OBTAINED	+8.0000
+3.0000	OBTAINING	+1.0000
+1.0000	OBVERSE
+55.0000	OBVIOUS	+16.0000
+19.0000	OBVIOUSLY	+14.0000
+26.0000	OCCASIONALLY	+24.0000
+13.0000	OCCUPIED	+11.0000
+14.0000	OCCUR	+2.0000
+91.0000	OCCURRED	+10.0000
+3.0000	OCCURS
+4.0000	OCEAN
+1.0000	OCEAN'S
+1.0000	OCEANOGRAPHIC
+1.0000	OCTILLION
+11.0000	ODD
+6.0000	ODDS	+0.0000
+1.0000	ODOR
+6757.0000	OF	+330.0000
+240.0000	OFF	+40.0000
+4.0000	OFFENSIVE
+15.0000	OFFER	+8.0000
+15.0000	OFFERED	+8.0000
+2.0000	OFFERING
+64.0000	OFFICE	+22.0000
+16.0000	OFFICER	+6.0000
+13.0000	OFFICERS	+9.0000
+9.0000	OFFICES	+3.0000
+30.0000	OFFICIAL	+15.0000
+8.0000	OFFICIALS	+3.0000
+55.0000	OFTEN	+33.0000
+1.0000	OGRESS
+154.0000	OH	+24.0000
+7.0000	OIL	+3.0000
+1.0000	OILS
+1.0000	OILY
+1.0000	OINTMENT
+1.0000	OKAY
+187.0000	OLD	+71.0000
+17.0000	OLDER	+5.0000
+1.0000	OLDSTERS
+1.0000	OLE
+1.0000	OLIVE
+3.0000	OMITTED
+2.0000	OMITTING
+1473.0000	ON	+77.0000
+315.0000	ONCE	+51.0000
+1480.0000	ONE	+139.0000
+10.0000	ONE'S
+27.0000	ONES	+16.0000
+1.0000	ONION
+571.0000	ONLY	+114.0000
+5.0000	ONTO	+1.0000
+1.0000	OOZED
+1.0000	OPAQUE
+211.0000	OPEN	+29.0000
+151.0000	OPENED	+23.0000
+18.0000	OPENING	+5.0000
+5.0000	OPENS
+1.0000	OPERA
+1.0000	OPERATED
+1.0000	OPERATES
+4.0000	OPERATION	+2.0000
+2.0000	OPINIONS
+10.0000	OPIUM	+4.0000
+10.0000	OPPORTUNITY	+0.0000
+1.0000	OPPOSING
+44.0000	OPPOSITE	+8.0000
+1.0000	OPPRESSIVE
+1.0000	OPTICAL
+1.0000	OPTIMAL
+1.0000	OPTIMISM
+660.0000	OR	+144.0000
+1.0000	ORANGE
+1.0000	ORATORICAL
+1.0000	ORCHESTRA
+89.0000	ORDER	+14.0000
+1.0000	ORDERING
+18.0000	ORDERS	+6.0000
+1.0000	ORGANISM
+1.0000	ORGANIST
+1.0000	ORGANIZATIONS
+1.0000	ORIENTAL
+1.0000	ORIENTED
+4.0000	ORIGIN
+19.0000	ORIGINAL	+16.0000
+6.0000	ORIGINALLY
+5.0000	ORIGINALS
+1.0000	ORTHODONTIC
+1.0000	ORTHODONTIST
+450.0000	OTHER	+106.0000
+75.0000	OTHERS	+31.0000
+22.0000	OTHERWISE	+9.0000
+1.0000	OTTO'S
+23.0000	OUGHT	+1.0000
+633.0000	OUR	+153.0000
+72.0000	OURSELVES	+28.0000
+1079.0000	OUT	+55.0000
+1.0000	OUTAGE
+1.0000	OUTCAST
+1.0000	OUTCOME
+1.0000	OUTDOORS
+17.0000	OUTER	+7.0000
+1.0000	OUTFIELDERS
+1.0000	OUTFIT
+1.0000	OUTGREW
+1.0000	OUTGROW
+1.0000	OUTLAWS
+1.0000	OUTLOOK
+1.0000	OUTPOST
+1.0000	OUTPUTS
+3.0000	OUTSET
+91.0000	OUTSIDE	+24.0000
+2.0000	OUTSTANDING
+1.0000	OUTWARD
+2.0000	OVAL
+545.0000	OVER	+29.0000
+1.0000	OVERALLS
+3.0000	OVERBOARD
+2.0000	OVERCAME
+1.0000	OVERCHARGED
+1.0000	OVERDUE
+1.0000	OVEREATING
+1.0000	OVERFLOWED
+1.0000	OVERHANGS
+2.0000	OVERHEAD
+1.0000	OVERLAP
+1.0000	OVERLAPPING
+1.0000	OVERLOADED
+14.0000	OVERLOOKED	+7.0000
+1.0000	OVERLY
+1.0000	OVERNIGHT
+1.0000	OVERNIGHTERS
+1.0000	OVERPLAYED
+1.0000	OVERPROTECTION
+1.0000	OVERRIDING
+1.0000	OVERSIZED
+7.0000	OVERTAKE	+4.0000
+1.0000	OVERTHROW
+1.0000	OVERWEIGHT
+1.0000	OVERWHELM
+2.0000	OVERWHELMED	+0.0000
+1.0000	OVERWRITTEN
+322.0000	OWN	+106.0000
+23.0000	OWNER	+5.0000
+2.0000	OWNS
+1.0000	OYSTER
+2.0000	OYSTERS
+6.0000	PA	+4.0000
+10.0000	PACE	+6.0000
+10.0000	PACK	+8.0000
+1.0000	PACKAGE
+1.0000	PACKING
+1.0000	PADLOCK
+36.0000	PAID	+12.0000
+1.0000	PAIL
+18.0000	PAIN	+9.0000
+1.0000	PAINTINGS
+17.0000	PAIR	+7.0000
+1.0000	PAIRS
+28.0000	PALE	+12.0000
+13.0000	PALM	+1.0000
+1.0000	PALPABLY
+1.0000	PAM
+1.0000	PAMPHLETS
+1.0000	PAN
+1.0000	PANELIZATION
+1.0000	PANIC
+1.0000	PANSIES
+1.0000	PAPAYA
+172.0000	PAPER	+31.0000
+1.0000	PAPERED
+1.0000	PAPERWEIGHT
+1.0000	PAPRIKA
+1.0000	PARADES
+7.0000	PARAGRAPH	+4.0000
+5.0000	PARALLEL	+3.0000
+1.0000	PARALYSIS
+1.0000	PARAMAGNETIC
+1.0000	PARANOID
+4.0000	PARDON	+2.0000
+1.0000	PARENTAL
+1.0000	PARENTHOOD
+19.0000	PARK	+10.0000
+1.0000	PARKING
+1.0000	PARROTS
+116.0000	PART	+18.0000
+10.0000	PARTED	+4.0000
+1.0000	PARTICIPANT
+1.0000	PARTICIPANTS
+1.0000	PARTICIPATE
+1.0000	PARTICIPATES
+37.0000	PARTICULAR	+20.0000
+14.0000	PARTICULARLY	+6.0000
+4.0000	PARTIES
+8.0000	PARTLY	+4.0000
+8.0000	PARTNER
+24.0000	PARTS	+8.0000
+58.0000	PASS	+25.0000
+151.0000	PASSED	+29.0000
+28.0000	PASSING	+17.0000
+3.0000	PASSIONS
+1.0000	PASSIVE
+122.0000	PAST	+26.0000
+2.0000	PASTE
+1.0000	PASTIME
+1.0000	PASTURE
+61.0000	PATH	+16.0000
+1.0000	PATHETIC
+1.0000	PATHOLOGICAL
+21.0000	PATIENT	+11.0000
+1.0000	PATIENT'S
+3.0000	PATIENTLY
+1.0000	PATRONS
+1.0000	PATSY
+4.0000	PATTERED	+2.0000
+3.0000	PATTERN
+1.0000	PATTERNS
+12.0000	PAUSE	+6.0000
+7.0000	PAUSED	+3.0000
+1.0000	PAW
+39.0000	PAY	+21.0000
+1.0000	PAYMENTS
+5.0000	PAYS
+23.0000	PEACE	+11.0000
+1.0000	PEACEFULLY
+1.0000	PEACH
+1.0000	PEACHES
+1.0000	PEANUT
+4.0000	PEARLS	+2.0000
+1.0000	PEAS
+1.0000	PECK
+26.0000	PECULIAR	+19.0000
+1.0000	PEDESTAL
+1.0000	PEELING
+6.0000	PEERED	+4.0000
+1.0000	PENALTY
+1.0000	PENDULUM
+3.0000	PENETRATED	+0.0000
+1.0000	PENGUINS
+1.0000	PENICILLIN
+1.0000	PENSION
+107.0000	PEOPLE	+28.0000
+1.0000	PEPPER
+1.0000	PEPPERED
+4.0000	PER	+0.0000
+2.0000	PERCEPTION	+0.0000
+1.0000	PERENNIAL
+12.0000	PERFECT	+10.0000
+37.0000	PERFECTLY	+16.0000
+4.0000	PERFORMANCE	+2.0000
+1.0000	PERFORMANCES
+1.0000	PERFORMERS
+1.0000	PERFUME
+161.0000	PERHAPS	+30.0000
+2.0000	PERILS
+8.0000	PERIOD	+3.0000
+1.0000	PERIODICAL
+1.0000	PERIODICALLY
+1.0000	PERIODS
+4.0000	PERMANENT
+7.0000	PERMIT
+1.0000	PERPENDICULAR
+1.0000	PERSISTENTLY
+1.0000	PERSISTING
+96.0000	PERSON	+23.0000
+18.0000	PERSONAL	+16.0000
+5.0000	PERSONALITY	+1.0000
+1.0000	PERSONALIZED
+1.0000	PERSONNEL
+6.0000	PERSONS	+3.0000
+4.0000	PERSUADED	+2.0000
+1.0000	PERSUASIVELY
+1.0000	PERT
+1.0000	PERTINENT
+1.0000	PERVASIVE
+1.0000	PERVERSE
+1.0000	PESSIMISM
+1.0000	PESTS
+1.0000	PETTICOATS
+1.0000	PETTING
+4.0000	PETTY
+1.0000	PEWTER
+1.0000	PHASE
+2.0000	PHENOMENON
+1.0000	PHIL'S
+1.0000	PHONE
+1.0000	PHONES
+1.0000	PHONY
+1.0000	PHOSPHATE
+1.0000	PHOSPHATES
+1.0000	PHOTOCHEMICAL
+1.0000	PHOTOGRAPHS
+1.0000	PHOTOS
+2.0000	PHRASE
+8.0000	PHYSICAL	+6.0000
+1.0000	PIANO
+28.0000	PICK	+11.0000
+64.0000	PICKED	+7.0000
+1.0000	PICKET
+1.0000	PICKPOCKET
+1.0000	PICKPOCKETS
+13.0000	PICTURE	+5.0000
+8.0000	PICTURES
+1.0000	PIE
+31.0000	PIECE	+4.0000
+1.0000	PIECEMEAL
+12.0000	PIECES	+4.0000
+2.0000	PIG
+1.0000	PIGEONS
+12.0000	PILE	+5.0000
+7.0000	PILED	+5.0000
+1.0000	PILGRIMS
+3.0000	PILL
+8.0000	PILLS	+3.0000
+1.0000	PILOTS
+1.0000	PILOTS'
+2.0000	PINE
+3.0000	PINK
+1.0000	PINS
+1.0000	PINT
+2.0000	PINTO
+1.0000	PIONEER
+1.0000	PIPED
+1.0000	PISTACHIO
+4.0000	PIT	+2.0000
+8.0000	PITCH	+5.0000
+1.0000	PITCHED
+1.0000	PITCHER
+3.0000	PITIABLE
+17.0000	PITY	+7.0000
+1.0000	PIZZERIAS
+236.0000	PLACE	+43.0000
+50.0000	PLACED	+12.0000
+27.0000	PLACES	+13.0000
+1.0000	PLAINTIFF
+14.0000	PLAN	+7.0000
+1.0000	PLANE
+1.0000	PLANES
+1.0000	PLANETS
+6.0000	PLANNED	+2.0000
+2.0000	PLANNING
+36.0000	PLANS	+11.0000
+5.0000	PLANT	+1.0000
+2.0000	PLANTED
+1.0000	PLASTERS
+11.0000	PLATE	+5.0000
+1.0000	PLATED
+10.0000	PLATFORM	+4.0000
+35.0000	PLAY	+15.0000
+19.0000	PLAYED	+13.0000
+2.0000	PLAYER
+1.0000	PLAYERS
+1.0000	PLAYIN'
+3.0000	PLAYS
+14.0000	PLEASANT	+9.0000
+2.0000	PLEASANTLY
+31.0000	PLEASE	+12.0000
+28.0000	PLEASURE	+9.0000
+6.0000	PLEDGE	+4.0000
+15.0000	PLENTY	+3.0000
+1.0000	PLOW
+2.0000	PLUMBER
+15.0000	PLUNGED	+7.0000
+3.0000	PLYMOUTH
+1.0000	PLYWOOD
+1.0000	PNEUMONIA
+1.0000	POACH
+105.0000	POCKET	+16.0000
+19.0000	POCKETS	+11.0000
+1.0000	POEMS
+1.0000	POETRY
+1.0000	POETS
+1.0000	POIGNANCY
+178.0000	POINT	+22.0000
+20.0000	POINTING	+2.0000
+72.0000	POINTS	+12.0000
+1.0000	POISED
+23.0000	POISON	+13.0000
+5.0000	POISONED
+5.0000	POISONOUS
+3.0000	POISONS
+17.0000	POLICEMAN	+10.0000
+4.0000	POLICY
+4.0000	POLISHED
+1.0000	POLITENESS
+2.0000	POLITICAL	+0.0000
+11.0000	POLITICS	+6.0000
+1.0000	POLYESTERS
+1.0000	POMPOUSNESS
+5.0000	POND	+2.0000
+15.0000	POOL	+6.0000
+1.0000	POOLS
+41.0000	POOR	+18.0000
+1.0000	POORLY
+1.0000	POP
+1.0000	POPULACE
+9.0000	POPULAR	+6.0000
+1.0000	POPULARITY
+2.0000	POPULATION
+3.0000	PORCH	+1.0000
+1.0000	PORCUPINES
+1.0000	PORK
+1.0000	PORTABLE
+7.0000	PORTION	+1.0000
+1.0000	PORTRAY
+1.0000	PORTRAYAL
+64.0000	POSITION	+18.0000
+15.0000	POSITIVE	+12.0000
+11.0000	POSSESSED	+9.0000
+4.0000	POSSIBILITIES	+1.0000
+16.0000	POSSIBILITY	+4.0000
+139.0000	POSSIBLE	+38.0000
+33.0000	POST	+11.0000
+1.0000	POSTDATE
+1.0000	POSTPONED
+1.0000	POTATOES
+1.0000	POTENT
+1.0000	POTTERY
+1.0000	POULTICES
+1.0000	POULTRY
+11.0000	POUND	+2.0000
+6.0000	POURING	+4.0000
+1.0000	POVERTY
+14.0000	POWDER	+10.0000
+1.0000	POWDERS
+36.0000	POWER	+10.0000
+1.0000	POWERED
+13.0000	POWERFUL	+11.0000
+1.0000	POWERFULLY
+35.0000	POWERS	+8.0000
+33.0000	PRACTICAL	+25.0000
+2.0000	PRACTICALLY
+1.0000	PRACTICED
+1.0000	PRACTICES
+2.0000	PRAISES
+1.0000	PRAYED
+1.0000	PREACHED
+1.0000	PRECARIOUSLY
+14.0000	PRECAUTION	+8.0000
+2.0000	PRECEDED
+1.0000	PRECINCTS
+1.0000	PRECISION
+1.0000	PREDICAMENT
+1.0000	PREDISPOSITIONS
+1.0000	PREDOMINANTLY
+2.0000	PREFERS	+0.0000
+1.0000	PREMIUMS
+1.0000	PREOCCUPIED
+4.0000	PREPARATION
+6.0000	PREPARE	+4.0000
+29.0000	PREPARED	+1.0000
+4.0000	PREPARING	+2.0000
+1.0000	PREPREPARED
+1.0000	PREREQUISITE
+1.0000	PRESCHOOLER
+1.0000	PRESCRIBE
+1.0000	PRESCRIPTION
+76.0000	PRESENT	+26.0000
+14.0000	PRESENTED	+8.0000
+21.0000	PRESENTLY	+10.0000
+14.0000	PRESENTS	+10.0000
+2.0000	PRESERVATION	+0.0000
+8.0000	PRESERVED
+2.0000	PRESERVES
+1.0000	PRESIDENT
+8.0000	PRESSURE	+6.0000
+1.0000	PRESTIGE
+11.0000	PRESUMABLY	+8.0000
+1.0000	PRESUMED
+1.0000	PRESUMES
+7.0000	PRETEND	+2.0000
+40.0000	PRETTY	+19.0000
+27.0000	PREVENT	+12.0000
+5.0000	PREVENTED
+1.0000	PREVENTING
+7.0000	PREVIOUS	+2.0000
+22.0000	PRICE	+12.0000
+3.0000	PRICES
+1.0000	PRIMACY
+1.0000	PRIMARILY
+1.0000	PRIMARY
+11.0000	PRIME	+1.0000
+1.0000	PRIMITIVE
+1.0000	PRIMLY
+1.0000	PRINCES
+2.0000	PRINCIPLES
+16.0000	PRINT	+12.0000
+4.0000	PRINTS	+2.0000
+1.0000	PRIORITIES
+1.0000	PRIORITY
+7.0000	PRISON	+3.0000
+39.0000	PRISONER	+20.0000
+9.0000	PRISONERS	+3.0000
+34.0000	PRIVATE	+24.0000
+1.0000	PRIVATELY
+1.0000	PRIVATIONS
+1.0000	PRIZES
+1.0000	PROBABILITIES
+52.0000	PROBABLY	+32.0000
+1.0000	PROBES
+66.0000	PROBLEM	+21.0000
+16.0000	PROBLEMS	+7.0000
+1.0000	PROCAINE
+1.0000	PROCEDURE
+5.0000	PROCEEDING
+1.0000	PROCEEDS
+6.0000	PROCESS	+3.0000
+1.0000	PROCESSED
+2.0000	PROCESSES
+1.0000	PROCESSING
+10.0000	PRODUCE	+8.0000
+19.0000	PRODUCED	+10.0000
+4.0000	PRODUCT	+2.0000
+1.0000	PRODUCTION
+1.0000	PRODUCTS
+22.0000	PROFESSION	+10.0000
+24.0000	PROFESSIONAL	+18.0000
+4.0000	PROFIT
+1.0000	PROFITS
+1.0000	PROGRAM
+1.0000	PROGRAMS
+13.0000	PROGRESS	+4.0000
+1.0000	PROGRESSION
+1.0000	PROJECT
+3.0000	PROJECTED	+1.0000
+1.0000	PROJECTS
+3.0000	PROMINENT
+1.0000	PROMOTE
+1.0000	PROMPTED
+2.0000	PROMPTLY
+1.0000	PRONOUN
+1.0000	PRONUNCIATION
+24.0000	PROOF	+9.0000
+10.0000	PROPER	+8.0000
+1.0000	PROPERLY
+1.0000	PROPERTIES
+27.0000	PROPERTY	+10.0000
+1.0000	PROPHETS
+5.0000	PROPOSED	+3.0000
+4.0000	PROPRIETY	+2.0000
+1.0000	PROPS
+1.0000	PROSE
+8.0000	PROSPECT	+2.0000
+1.0000	PROSPECTIVE
+1.0000	PROTECTED
+9.0000	PROTECTION	+4.0000
+1.0000	PROTECTS
+1.0000	PROTEIN
+1.0000	PROTESTS
+21.0000	PROUD	+8.0000
+51.0000	PROVE	+11.0000
+41.0000	PROVED	+7.0000
+1.0000	PROVEN
+2.0000	PROVIDE
+10.0000	PROVIDED	+8.0000
+1.0000	PROVIDES
+3.0000	PROVISIONS
+1.0000	PROVOCATIVELY
+1.0000	PROVOKED
+1.0000	PROWLER
+1.0000	PSYCHIATRIST
+1.0000	PSYCHICAL
+1.0000	PSYCHOLOGICAL
+1.0000	PSYCHOLOGICALLY
+1.0000	PSYCHOPATH
+59.0000	PUBLIC	+30.0000
+5.0000	PUBLICITY	+2.0000
+3.0000	PUBLISHED
+22.0000	PULL	+7.0000
+51.0000	PULLED	+9.0000
+5.0000	PULLING	+3.0000
+1.0000	PULSING
+1.0000	PUMMELED
+1.0000	PUMPED
+1.0000	PUMPS
+1.0000	PUNCH
+1.0000	PUNCTURING
+2.0000	PUNGENT
+4.0000	PUNISH
+1.0000	PUNISHES
+9.0000	PUNISHMENT	+6.0000
+1.0000	PUNY
+1.0000	PUPPETS
+1.0000	PURCHASE
+4.0000	PURCHASED	+2.0000
+1.0000	PURCHASERS
+6.0000	PURE	+4.0000
+1.0000	PUREE
+1.0000	PURISTS
+2.0000	PURPLE
+34.0000	PURPOSE	+11.0000
+2.0000	PURPOSELESS	+0.0000
+1.0000	PURPOSELY
+1.0000	PURSED
+10.0000	PURSUED	+5.0000
+6.0000	PURSUING	+4.0000
+8.0000	PUSH
+249.0000	PUT	+15.0000
+1.0000	PUZZLEMENT
+2.0000	PUZZLING
+1.0000	QUACKERY
+7.0000	QUALITY	+3.0000
+22.0000	QUARREL	+11.0000
+2.0000	QUARRELS
+72.0000	QUARTER	+13.0000
+24.0000	QUARTERS	+6.0000
+4.0000	QUEEN	+2.0000
+4.0000	QUERULOUS	+1.0000
+113.0000	QUESTION	+18.0000
+48.0000	QUESTIONS	+9.0000
+44.0000	QUICK	+15.0000
+23.0000	QUICKLY	+12.0000
+1.0000	QUIETED
+31.0000	QUIETLY	+12.0000
+1.0000	QUINCE
+229.0000	QUITE	+69.0000
+3024.0000	QUOTE	+79.0000
+2.0000	RABBIT
+4.0000	RABBITS
+1.0000	RABIES
+1.0000	RACCOONS
+7.0000	RACE
+1.0000	RACHEL'S
+3.0000	RACING
+5.0000	RACK
+1.0000	RACY
+1.0000	RADAR
+1.0000	RADIATED
+1.0000	RADIATION
+1.0000	RADICALISM
+1.0000	RADIO
+1.0000	RADIOACTIVE
+1.0000	RADIOACTIVITY
+1.0000	RADIOSTERILIZATION
+2.0000	RAG
+1.0000	RAGS
+5.0000	RAIL
+7.0000	RAILROAD	+5.0000
+19.0000	RAIN	+10.0000
+1.0000	RAINDROPS
+1.0000	RAINS
+1.0000	RAISERS
+1.0000	RAISINS
+1.0000	RAKED
+1.0000	RALPH
+1.0000	RAMIFICATIONS
+98.0000	RAN	+24.0000
+1.0000	RANCH
+3.0000	RANDOM
+12.0000	RANG	+5.0000
+3.0000	RANGE
+1.0000	RAPE
+10.0000	RAPID	+5.0000
+28.0000	RAPIDLY	+15.0000
+7.0000	RARE	+5.0000
+1.0000	RARELY
+1.0000	RASPED
+15.0000	RATE	+5.0000
+1.0000	RATED
+1.0000	RATES
+118.0000	RATHER	+49.0000
+1.0000	RATING
+1.0000	RATIONALIZE
+1.0000	RATIONING
+12.0000	RATTLED	+10.0000
+1.0000	RATTLESNAKE
+1.0000	RAW
+1.0000	RAY
+43.0000	REACH	+8.0000
+77.0000	REACHED	+9.0000
+6.0000	REACTION
+141.0000	READ	+26.0000
+6.0000	READER	+4.0000
+2.0000	READINESS	+0.0000
+43.0000	READING	+10.0000
+1.0000	READS
+82.0000	READY	+11.0000
+16.0000	REAL
+1.0000	REALISM
+1.0000	REALISTIC
+1.0000	REALITY
+1.0000	REALIZATION
+25.0000	REALIZE	+7.0000
+3.0000	REALIZING	+1.0000
+126.0000	REALLY	+58.0000
+1.0000	REARRANGE
+124.0000	REASON	+19.0000
+7.0000	REASONABLE	+5.0000
+1.0000	REASONABLY
+20.0000	REASONS	+6.0000
+1.0000	REASSURANCE
+1.0000	REASSURE
+1.0000	REASSURING
+13.0000	RECALL	+3.0000
+5.0000	RECALLED	+3.0000
+38.0000	RECEIVED	+6.0000
+6.0000	RECEIVING	+4.0000
+16.0000	RECENT	+14.0000
+11.0000	RECENTLY	+7.0000
+1.0000	RECEPTACLE
+2.0000	RECEPTION
+5.0000	RECOGNITION	+3.0000
+17.0000	RECOGNIZE	+5.0000
+22.0000	RECOGNIZED	+10.0000
+3.0000	RECOILED	+1.0000
+1.0000	RECOMMENDATION
+7.0000	RECOMMENDED	+2.0000
+4.0000	RECONNAISSANCE	+2.0000
+5.0000	RECONSIDER	+0.0000
+1.0000	RECONSIDERED
+19.0000	RECORD	+11.0000
+7.0000	RECORDS	+2.0000
+1.0000	RECREATION
+1.0000	RECRIMINATIONS
+1.0000	RECTOR
+1.0000	RECUPERATING
+49.0000	RED	+19.0000
+1.0000	REDCOATS
+1.0000	REDECORATING
+1.0000	REDEPOSITION
+1.0000	REDHEADS
+1.0000	REDOUBLED
+5.0000	REDUCED
+1.0000	REDUCING
+1.0000	REDUCTION
+1.0000	REDWOODS
+15.0000	REFERENCE	+3.0000
+14.0000	REFERRED	+6.0000
+3.0000	REFLECT
+1.0000	REFLECTS
+1.0000	REFLEXES
+1.0000	REFORM
+1.0000	REFRIGERATOR
+1.0000	REFUND
+1.0000	REFURBISHING
+6.0000	REFUSAL	+2.0000
+18.0000	REFUSE	+3.0000
+17.0000	REFUSED	+5.0000
+10.0000	REGARD	+5.0000
+3.0000	REGARDING
+1.0000	REGENERATING
+8.0000	REGRET	+4.0000
+10.0000	REGULAR	+6.0000
+1.0000	REGULARS
+1.0000	REGULATIONS
+1.0000	REGULATIVE
+1.0000	REHABILITATION
+1.0000	REINFORCE
+2.0000	REJECTED	+0.0000
+1.0000	RELATED
+4.0000	RELATIONSHIP
+1.0000	RELATIVELY
+4.0000	RELAXED
+2.0000	RELEASE
+6.0000	RELEASED
+14.0000	RELIEF	+3.0000
+10.0000	RELIEVED	+8.0000
+1.0000	RELIEVING
+6.0000	RELIGION	+4.0000
+1.0000	RELINQUISHING
+1.0000	RELISH
+10.0000	RELY	+1.0000
+25.0000	REMAIN	+13.0000
+49.0000	REMAINED	+16.0000
+6.0000	REMAINING
+33.0000	REMAINS	+10.0000
+105.0000	REMEMBER	+26.0000
+14.0000	REMEMBERED	+10.0000
+2.0000	REMEMBERS
+1.0000	REMEMBRANCE
+4.0000	REMINDED	+0.0000
+1.0000	REMINDS
+1.0000	REMINISCENCE
+1.0000	REMOTE
+1.0000	REMOVAL
+6.0000	REMOVE	+4.0000
+5.0000	RENT	+3.0000
+1.0000	RENTED
+1.0000	RENUNCIATION
+1.0000	REORGANIZATION
+1.0000	REPAINTED
+1.0000	REPAINTING
+8.0000	REPEAT	+2.0000
+16.0000	REPEATED	+10.0000
+1.0000	REPETITION
+4.0000	REPLACE	+2.0000
+12.0000	REPLACED	+2.0000
+1.0000	REPLENISH
+4.0000	REPLIED
+23.0000	REPLY	+5.0000
+39.0000	REPORT	+18.0000
+12.0000	REPORTED	+5.0000
+1.0000	REPORTERS
+1.0000	REPORTORIAL
+6.0000	REPORTS	+3.0000
+3.0000	REPRESENT
+1.0000	REPRESENTATION
+5.0000	REPRESENTED	+2.0000
+2.0000	REPRESENTS
+2.0000	REPRODUCE
+1.0000	REPTILES
+1.0000	REPUGNANT
+1.0000	REQUESTS
+2.0000	REQUIRED
+1.0000	REQUIREMENTS
+1.0000	REQUIRES
+2.0000	RESCUE	+0.0000
+8.0000	RESEARCH	+6.0000
+1.0000	RESEMBLE
+8.0000	RESERVED	+5.0000
+1.0000	RESIDENTIAL
+1.0000	RESIDES
+1.0000	RESIDUES
+1.0000	RESIN
+7.0000	RESISTANCE	+4.0000
+7.0000	RESOLUTE
+10.0000	RESOLUTION	+8.0000
+7.0000	RESOLVED	+3.0000
+16.0000	RESPECT	+9.0000
+3.0000	RESPECTED
+3.0000	RESPONSE	+1.0000
+6.0000	RESPONSIBILITY
+9.0000	RESPONSIBLE	+3.0000
+1.0000	RESPONSIVELY
+84.0000	REST	+18.0000
+1.0000	RESTRICTED
+48.0000	RESULT	+9.0000
+1.0000	RESULTED
+38.0000	RESULTS	+15.0000
+2.0000	RESUMED
+1.0000	RETALIATORY
+1.0000	RETINAL
+4.0000	RETIRE	+2.0000
+23.0000	RETIRED	+7.0000
+1.0000	RETIREMENT
+1.0000	RETIRES
+1.0000	RETOUCHING
+1.0000	RETRACTED
+4.0000	RETRIBUTION
+66.0000	RETURN	+20.0000
+1.0000	REUPHOLSTERING
+7.0000	REVEALED
+1.0000	REVEALING
+19.0000	REVENGE	+9.0000
+1.0000	REVENUES
+1.0000	REVERBERATED
+1.0000	REVIEW
+1.0000	REVIEWERS
+1.0000	REVISED
+1.0000	REVOLUTION
+1.0000	REVOLVING
+1.0000	REVULSION
+3.0000	REWARDED	+0.0000
+1.0000	REWRITE
+1.0000	RHINOCEROS
+1.0000	RHUBARB
+1.0000	RHYTHM
+1.0000	RHYTHMICALLY
+1.0000	RIBBONS
+1.0000	RICE
+32.0000	RICH	+9.0000
+1.0000	RICKETY
+2.0000	RIDE
+1.0000	RIDES
+3.0000	RIDGE
+1.0000	RIDICULOUSLY
+8.0000	RIDING	+6.0000
+10.0000	RIFLE	+7.0000
+1.0000	RIFLEMAN
+255.0000	RIGHT	+38.0000
+5.0000	RIGHTS	+2.0000
+2.0000	RIM
+4.0000	RINGING	+2.0000
+1.0000	RIOT
+1.0000	RIPE
+1.0000	RIPPED
+1.0000	RIPPING
+21.0000	RISE	+9.0000
+27.0000	RISING	+12.0000
+2.0000	RISKS
+2.0000	RITES
+13.0000	RITUAL	+5.0000
+1.0000	RITUALS
+25.0000	RIVER	+9.0000
+1.0000	RIVERBANK
+145.0000	ROAD	+31.0000
+8.0000	ROADWAY	+5.0000
+1.0000	ROAM
+1.0000	ROAST
+1.0000	ROB
+1.0000	ROBIN
+13.0000	ROCK	+5.0000
+1.0000	ROCKETS
+2.0000	ROCKY
+8.0000	RODE
+1.0000	RODS
+1.0000	ROGER'S
+1.0000	ROLE
+1.0000	ROLEPLAYING
+1.0000	ROLES
+4.0000	ROLL	+2.0000
+13.0000	ROLLED	+10.0000
+2.0000	ROLLS
+7.0000	ROMANCE	+4.0000
+1.0000	ROMANTIC
+1.0000	RON'S
+32.0000	ROOF	+10.0000
+3.0000	ROOFS
+1.0000	ROOFTREE
+630.0000	ROOM	+66.0000
+71.0000	ROOMS	+22.0000
+7.0000	ROOT	+1.0000
+1.0000	ROOTLESS
+1.0000	ROPES
+73.0000	ROSE	+20.0000
+1.0000	ROSES
+1.0000	ROSY
+23.0000	ROUGH	+16.0000
+1.0000	ROULETTE'S
+6.0000	ROUTINE	+1.0000
+1.0000	ROUTINELY
+1.0000	ROVE
+1.0000	ROY
+2.0000	ROYAL
+18.0000	RUBBED	+3.0000
+1.0000	RUBBERIZED
+1.0000	RUBBISH
+1.0000	RUFFLES
+6.0000	RUG	+4.0000
+1.0000	RUGS
+1.0000	RUINS
+9.0000	RULE	+3.0000
+2.0000	RULED	+0.0000
+5.0000	RULES
+1.0000	RUMEN
+56.0000	RUN	+24.0000
+32.0000	RUNNING	+16.0000
+10.0000	RUNS
+1.0000	RURAL
+10.0000	RUSHING	+8.0000
+1.0000	RUST
+2.0000	RUSTLING
+4.0000	SACRIFICE
+1.0000	SACRIFICIAL
+1.0000	SADDLEBAGS
+1.0000	SADDLED
+2.0000	SADNESS	+0.0000
+1.0000	SAFARI
+75.0000	SAFE	+18.0000
+1.0000	SAFEKEEPING
+5.0000	SAFER	+3.0000
+20.0000	SAFETY	+14.0000
+1.0000	SAGA
+1.0000	SAGGING
+1308.0000	SAID	+53.0000
+1.0000	SAILBOAT
+1.0000	SAILED
+6.0000	SAILORS	+4.0000
+1.0000	SALAD
+1.0000	SALADS
+8.0000	SALARY	+6.0000
+3.0000	SALE
+1.0000	SALESMANSHIP
+1.0000	SALESMEN
+15.0000	SALT	+4.0000
+1.0000	SALTED
+1.0000	SALVATION
+210.0000	SAME	+75.0000
+5.0000	SAMPLE	+3.0000
+1.0000	SAMPLES
+1.0000	SAMPLING
+1.0000	SANDWICH
+35.0000	SANK	+9.0000
+1.0000	SARCASM
+166.0000	SAT	+20.0000
+1.0000	SATELLITES
+1.0000	SATIRICAL
+22.0000	SATISFACTION	+6.0000
+9.0000	SATISFY	+4.0000
+2.0000	SATURATED	+0.0000
+10.0000	SATURDAY	+6.0000
+1.0000	SAUCE
+1.0000	SAUERKRAUT
+5.0000	SAVAGELY	+3.0000
+95.0000	SAVE	+17.0000
+22.0000	SAVED	+10.0000
+297.0000	SAW	+33.0000
+1.0000	SAWS
+415.0000	SAY	+45.0000
+28.0000	SAYING	+9.0000
+48.0000	SAYS	+11.0000
+1.0000	SCABBARD
+1.0000	SCAFFOLD
+1.0000	SCALLOPED
+3.0000	SCALP
+1.0000	SCAMPERED
+3.0000	SCAR
+10.0000	SCARED	+8.0000
+1.0000	SCARF
+14.0000	SCATTERED	+6.0000
+4.0000	SCENERY
+1.0000	SCENES
+1.0000	SCHEDULE
+1.0000	SCHNOOKS
+1.0000	SCHOLAR
+1.0000	SCHOLARS
+1.0000	SCHOLASTIC
+22.0000	SCHOOL	+8.0000
+2.0000	SCHOOLS	+0.0000
+1.0000	SCHOONER
+7.0000	SCIENTIFIC	+5.0000
+1.0000	SCIENTISTS
+1.0000	SCOOP
+11.0000	SCORE	+7.0000
+4.0000	SCORED
+1.0000	SCOUR
+1.0000	SCOURING
+1.0000	SCOUT'S
+1.0000	SCOWLED
+2.0000	SCRAPING
+9.0000	SCRATCH	+7.0000
+18.0000	SCREAM	+7.0000
+1.0000	SCREECHED
+7.0000	SCREEN
+6.0000	SCREW	+2.0000
+1.0000	SCREWDRIVER
+1.0000	SCULPTOR
+1.0000	SCULPTURE
+1.0000	SE
+18.0000	SEA	+7.0000
+1.0000	SEAM
+1.0000	SEAMSTRESSES
+1.0000	SEAR
+33.0000	SEARCH	+8.0000
+8.0000	SEASON	+3.0000
+1.0000	SEASONING
+4.0000	SEATS
+1.0000	SEATTLE
+101.0000	SECOND	+31.0000
+1.0000	SECONDARY
+91.0000	SECRET	+42.0000
+1.0000	SECTION
+1.0000	SECTOR
+1.0000	SECULARIST
+12.0000	SECURED	+4.0000
+7.0000	SECURITY
+770.0000	SEE	+30.0000
+1.0000	SEED
+1.0000	SEEDS
+43.0000	SEEING	+11.0000
+1.0000	SEEKER
+1.0000	SEEKERS
+3.0000	SEEKING
+72.0000	SEEM	+9.0000
+200.0000	SEEMED	+28.0000
+98.0000	SEEMS	+22.0000
+236.0000	SEEN	+28.0000
+1.0000	SEISMIC
+28.0000	SELDOM	+19.0000
+1.0000	SELECTED
+1.0000	SELECTING
+1.0000	SELECTION
+1.0000	SELECTIONS
+1.0000	SELECTIVE
+25.0000	SELF	+7.0000
+1.0000	SELF'S
+2.0000	SELLER
+1.0000	SEMI
+1.0000	SEMIDRYING
+1.0000	SENATE
+35.0000	SEND	+8.0000
+11.0000	SENDING
+5.0000	SENIOR	+3.0000
+23.0000	SENSE	+8.0000
+1.0000	SENSIBLY
+10.0000	SENSITIVE	+8.0000
+1.0000	SENSORY
+1.0000	SENSUAL
+2.0000	SENTIMENT
+9.0000	SEPARATE
+1.0000	SEQUOIA
+8.0000	SERIES	+1.0000
+1.0000	SERMON
+1.0000	SERPENT'S
+22.0000	SERVE	+7.0000
+22.0000	SERVED	+12.0000
+2.0000	SERVES
+45.0000	SERVICE	+10.0000
+13.0000	SERVICES	+5.0000
+1.0000	SESAME
+130.0000	SET	+21.0000
+3.0000	SETS	+1.0000
+9.0000	SETTING	+6.0000
+20.0000	SETTLE	+4.0000
+100.0000	SEVEN	+27.0000
+5.0000	SEVENTH	+3.0000
+19.0000	SEVENTY	+8.0000
+65.0000	SEVERAL	+26.0000
+7.0000	SEVERE
+1.0000	SEW
+1.0000	SEWERS
+1.0000	SEWING
+4.0000	SEX	+2.0000
+1.0000	SEXUAL
+1.0000	SEXUALLY
+1.0000	SHABBY
+1.0000	SHACKLES
+6.0000	SHADE	+2.0000
+52.0000	SHADOW	+16.0000
+1.0000	SHADY
+4.0000	SHAFT
+4.0000	SHAG	+2.0000
+23.0000	SHAKEN	+10.0000
+1.0000	SHAKER
+1.0000	SHAKERS
+3.0000	SHAKY
+434.0000	SHALL	+46.0000
+1.0000	SHALLOWNESS
+2.0000	SHAME
+1.0000	SHAMPOO
+1.0000	SHAMPOOED
+12.0000	SHAPE	+4.0000
+4.0000	SHAPED
+2.0000	SHAPES
+23.0000	SHARE	+7.0000
+1.0000	SHARKS
+37.0000	SHARP	+16.0000
+10.0000	SHATTERED	+6.0000
+4.0000	SHAVING
+1.0000	SHAWLS
+1.0000	SHAWN
+1092.0000	SHE	+95.0000
+1.0000	SHE'D
+8.0000	SHE'S	+4.0000
+6.0000	SHED	+4.0000
+4.0000	SHEETS
+1.0000	SHEIK
+1.0000	SHEILA
+1.0000	SHELL
+1.0000	SHELLFISH
+5.0000	SHELTER	+3.0000
+1.0000	SHELTERED
+1.0000	SHELTERS
+1.0000	SHELVES
+1.0000	SHERBET
+1.0000	SHERIFF
+1.0000	SHERIFF'S
+1.0000	SHIELDING
+1.0000	SHIMMERED
+1.0000	SHIMMERING
+1.0000	SHIMMERS
+25.0000	SHIP	+7.0000
+1.0000	SHIP'S
+1.0000	SHIPBUILDING
+3.0000	SHIPMATE
+2.0000	SHIPS
+1.0000	SHIPSHAPE
+7.0000	SHIRT	+0.0000
+1.0000	SHIRTSLEEVE
+3.0000	SHIVERING	+1.0000
+24.0000	SHOCK	+7.0000
+7.0000	SHOCKED
+2.0000	SHOCKING
+1.0000	SHOCKS
+1.0000	SHOELACES
+17.0000	SHOES	+4.0000
+18.0000	SHONE	+7.0000
+55.0000	SHOOK	+7.0000
+9.0000	SHOOT	+4.0000
+17.0000	SHOP	+9.0000
+1.0000	SHOPKEEPERS
+4.0000	SHORE
+68.0000	SHORT	+19.0000
+1.0000	SHORTAGE
+1.0000	SHORTEN
+27.0000	SHORTLY	+3.0000
+67.0000	SHOT	+20.0000
+646.0000	SHOULD	+78.0000
+57.0000	SHOULDER	+7.0000
+14.0000	SHOUTED	+9.0000
+2.0000	SHOVE
+1.0000	SHOVELS
+2.0000	SHOVING
+87.0000	SHOW	+20.0000
+110.0000	SHOWED	+14.0000
+1.0000	SHOWERING
+1.0000	SHOWERS
+19.0000	SHOWING	+7.0000
+60.0000	SHOWN	+12.0000
+22.0000	SHOWS	+9.0000
+1.0000	SHRAPNEL
+1.0000	SHREDDED
+1.0000	SHREDDER
+5.0000	SHRIEKED
+1.0000	SHRIMP
+5.0000	SHRINKING	+3.0000
+1.0000	SHRUBS
+1.0000	SHRUGGED
+1.0000	SHRUGS
+1.0000	SHUCKS
+1.0000	SHUDDERING
+1.0000	SHUFFLE
+31.0000	SHUT	+7.0000
+1.0000	SHUTTER
+2.0000	SHY
+1.0000	SIAMESE
+15.0000	SICK	+5.0000
+240.0000	SIDE	+23.0000
+14.0000	SIDES	+7.0000
+1.0000	SIDEWINDER
+9.0000	SIGH	+0.0000
+1.0000	SIGHING
+1.0000	SIGHTSEERS
+75.0000	SIGN	+10.0000
+8.0000	SIGNALS	+2.0000
+7.0000	SIGNED	+3.0000
+1.0000	SIGNIFICANT
+33.0000	SIGNS	+6.0000
+79.0000	SILENCE	+14.0000
+44.0000	SILENT	+15.0000
+1.0000	SILHOUETTE
+1.0000	SILKY
+1.0000	SILLY
+18.0000	SILVER	+12.0000
+1.0000	SILVERWARE
+1.0000	SIMMER
+1.0000	SIMMERED
+59.0000	SIMPLE	+18.0000
+6.0000	SIMPLER
+4.0000	SIMPLEST
+20.0000	SIMPLY	+18.0000
+5.0000	SIN	+3.0000
+203.0000	SINCE	+29.0000
+1.0000	SINCERE
+2.0000	SINCERITY
+4.0000	SINEWY	+2.0000
+1.0000	SING
+1.0000	SINGER'S
+32.0000	SINGLE	+23.0000
+74.0000	SINGULAR	+31.0000
+1.0000	SINUOUS
+1.0000	SINUS
+375.0000	SIR	+40.0000
+44.0000	SIT	+8.0000
+2.0000	SITE	+0.0000
+86.0000	SITTING	+18.0000
+7.0000	SITUATED	+3.0000
+45.0000	SITUATION	+16.0000
+1.0000	SITUATIONS
+104.0000	SIX	+32.0000
+11.0000	SIXTY	+4.0000
+21.0000	SIZE	+7.0000
+4.0000	SIZED
+1.0000	SIZZLED
+1.0000	SKATING
+3.0000	SKETCHED	+0.0000
+1.0000	SKEWERS
+1.0000	SKI
+1.0000	SKIFFS
+1.0000	SKIING
+9.0000	SKILL	+4.0000
+1.0000	SKILLED
+1.0000	SKILLS
+18.0000	SKIN	+11.0000
+1.0000	SKINLESS
+1.0000	SKIRMISH
+3.0000	SKIRT	+1.0000
+2.0000	SKIRTS
+16.0000	SKY	+5.0000
+1.0000	SKYWAVE
+6.0000	SLAMMED
+1.0000	SLANTED
+2.0000	SLAPPED
+1.0000	SLASH
+1.0000	SLATE
+1.0000	SLAVERY
+44.0000	SLEEP	+13.0000
+1.0000	SLEEPILY
+5.0000	SLEEPING	+3.0000
+4.0000	SLEEPY
+1.0000	SLEIGH
+19.0000	SLEPT	+8.0000
+2.0000	SLID
+5.0000	SLIGHTLY	+3.0000
+38.0000	SLIP	+7.0000
+32.0000	SLIPPED	+13.0000
+3.0000	SLIPPING
+5.0000	SLIPS
+3.0000	SLOPE
+2.0000	SLOPES
+1.0000	SLOPPY
+1.0000	SLOVENLINESS
+12.0000	SLOW	+10.0000
+6.0000	SLOWED	+4.0000
+39.0000	SLOWLY	+19.0000
+1.0000	SLUDGE
+1.0000	SLUG
+1.0000	SLUGGING
+1.0000	SLUICING
+1.0000	SLUMS
+1.0000	SLYLY
+1.0000	SLYNESS
+178.0000	SMALL	+85.0000
+2.0000	SMASH
+5.0000	SMASHED
+19.0000	SMELL	+6.0000
+2.0000	SMELLED	+0.0000
+61.0000	SMILE	+17.0000
+32.0000	SMILED	+6.0000
+3.0000	SMILES
+40.0000	SMILING	+10.0000
+1.0000	SMITHS
+28.0000	SMOKE	+18.0000
+1.0000	SMOLDERINGLY
+1.0000	SMOOTH
+3.0000	SMOOTHED
+1.0000	SMOTHERED
+3.0000	SNAKE
+1.0000	SNAKES
+1.0000	SNAPPER
+1.0000	SNAPPING
+3.0000	SNARLED	+1.0000
+10.0000	SNATCHED	+6.0000
+1.0000	SNEEZED
+2.0000	SNIPS
+21.0000	SNOW	+10.0000
+1.0000	SNOWED
+1336.0000	SO	+164.0000
+1.0000	SOAK
+2.0000	SOAKED
+5.0000	SOBER
+5.0000	SOCIAL	+3.0000
+1.0000	SOCIALIZED
+42.0000	SOCIETY	+16.0000
+5.0000	SOCKS	+3.0000
+15.0000	SOFT	+13.0000
+4.0000	SOFTLY
+8.0000	SOIL	+6.0000
+1.0000	SOILS
+2.0000	SOLAR	+0.0000
+14.0000	SOLD	+9.0000
+1.0000	SOLDIERING
+7.0000	SOLDIERS
+1.0000	SOLICITS
+20.0000	SOLID	+11.0000
+1.0000	SOLIDARITY
+1.0000	SOLITARY
+1.0000	SOLITUDE
+38.0000	SOLUTION	+10.0000
+18.0000	SOLVE	+8.0000
+21.0000	SOLVED	+5.0000
+1.0000	SOLVES
+701.0000	SOME	+160.0000
+7.0000	SOMEBODY
+1.0000	SOMEBODY'LL
+6.0000	SOMEHOW
+84.0000	SOMEONE	+22.0000
+1.0000	SOMEPLACE
+222.0000	SOMETHING	+41.0000
+1.0000	SOMETIME
+41.0000	SOMETIMES	+20.0000
+15.0000	SOMEWHAT	+11.0000
+20.0000	SOMEWHERE	+10.0000
+78.0000	SON	+28.0000
+3.0000	SONG	+1.0000
+1.0000	SONGS
+1.0000	SONIC
+103.0000	SOON	+32.0000
+4.0000	SOOTHE
+2.0000	SOOTHED
+1.0000	SOOTHINGLY
+1.0000	SOPHISTICATED
+1.0000	SOPHISTICATION
+1.0000	SORCERY
+2.0000	SORDID
+9.0000	SORROW	+7.0000
+37.0000	SORRY	+5.0000
+66.0000	SORT	+16.0000
+6.0000	SOUGHT	+4.0000
+44.0000	SOUL	+19.0000
+6.0000	SOULS	+3.0000
+62.0000	SOUND	+20.0000
+6.0000	SOUNDED
+1.0000	SOUP
+2.0000	SOUR
+9.0000	SOURCE	+4.0000
+1.0000	SOURCES
+16.0000	SOUTH	+7.0000
+1.0000	SOUTHWEST
+1.0000	SOYBEAN
+1.0000	SOYBEANS
+1.0000	SOYSAUCE
+10.0000	SPACE	+4.0000
+1.0000	SPACED
+1.0000	SPADE
+1.0000	SPADES
+3.0000	SPANISH
+1.0000	SPATIAL
+79.0000	SPEAK	+19.0000
+1.0000	SPEAKER
+16.0000	SPECIAL	+13.0000
+2.0000	SPECIALTY
+1.0000	SPECIES
+1.0000	SPECIFIC
+1.0000	SPECTACULAR
+1.0000	SPECTATOR
+1.0000	SPECULATED
+3.0000	SPECULATIONS
+20.0000	SPEECH	+8.0000
+19.0000	SPEND	+7.0000
+4.0000	SPENDING	+2.0000
+50.0000	SPENT	+13.0000
+1.0000	SPHERE
+1.0000	SPHERICAL
+1.0000	SPIDER
+1.0000	SPIKE
+2.0000	SPILLED
+1.0000	SPINACH
+9.0000	SPIRIT	+6.0000
+5.0000	SPIRITED	+3.0000
+17.0000	SPIRITS	+4.0000
+1.0000	SPIRITUAL
+1.0000	SPIT
+3.0000	SPLASHED
+1.0000	SPLENDIDLY
+1.0000	SPLENDOR
+2.0000	SPLINTER
+1.0000	SPLURGE
+1.0000	SPLURGED
+1.0000	SPOILAGE
+2.0000	SPOILED
+101.0000	SPOKE	+17.0000
+26.0000	SPOKEN	+8.0000
+1.0000	SPOKES
+1.0000	SPONGES
+1.0000	SPONSORS
+4.0000	SPORT
+1.0000	SPORTS
+1.0000	SPORTSMEN
+40.0000	SPOT	+11.0000
+6.0000	SPOTTED	+4.0000
+1.0000	SPOUTED
+1.0000	SPRAINED
+95.0000	SPRANG	+5.0000
+4.0000	SPRAY	+2.0000
+10.0000	SPREAD	+5.0000
+1.0000	SPREADER
+32.0000	SPRING	+11.0000
+1.0000	SPRINKLING
+1.0000	SPROUTED
+1.0000	SPROUTING
+1.0000	SPUN
+1.0000	SPURIOUS
+1.0000	SPURS
+1.0000	SPUTNIKS
+30.0000	SQUARE	+15.0000
+1.0000	SQUARED
+1.0000	SQUASHY
+1.0000	SQUEAKED
+1.0000	SQUEAMISHNESS
+3.0000	SQUEEZED
+1.0000	SQUELCHED
+3.0000	STAB
+20.0000	STABLE	+8.0000
+1.0000	STACKED
+4.0000	STAFF	+2.0000
+1.0000	STAG
+15.0000	STAGE	+10.0000
+17.0000	STAGGERED	+3.0000
+14.0000	STAKE	+6.0000
+1.0000	STAMPEDE
+74.0000	STAND	+16.0000
+2.0000	STANDARDIZED
+1.0000	STANDARDS
+1.0000	STANDBY
+4.0000	STAR
+1.0000	STARCHY
+39.0000	STARED	+8.0000
+60.0000	START	+17.0000
+62.0000	STARTED	+13.0000
+9.0000	STARTLING
+37.0000	STATE	+13.0000
+39.0000	STATEMENT	+11.0000
+12.0000	STATES	+6.0000
+1.0000	STATUE
+1.0000	STATUESQUE
+1.0000	STATUS
+1.0000	STATUTORY
