~o
<STREAMINFO> 1 39
<VECSIZE> 39<NULLD><MFCC_E_D_A_Z><DIAGC>
~v "varFloor1"
<VARIANCE> 39
 9.726257e-01 5.381249e-01 6.651532e-01 6.989120e-01 6.880192e-01 6.224947e-01 6.450717e-01 5.635375e-01 5.311891e-01 4.008754e-01 3.797459e-01 3.082840e-01 1.131276e-01 4.817885e-02 3.519386e-02 3.216594e-02 4.186358e-02 4.215040e-02 4.083050e-02 4.351060e-02 4.295653e-02 3.903697e-02 3.210390e-02 2.959472e-02 2.433364e-02 4.759443e-03 6.696086e-03 5.835324e-03 4.982519e-03 6.833524e-03 6.876886e-03 6.926220e-03 7.477231e-03 7.591971e-03 6.896265e-03 5.920904e-03 5.389229e-03 4.463565e-03 7.207811e-04
~h "b"
<BEGINHMM>
<NUMSTATES> 5
<STATE> 2
<NUMMIXES> 6
<MIXTURE> 1 1.834216e-01
<MEAN> 39
 7.752134e+00 6.897970e+00 8.397132e-01 6.794949e+00 3.513553e+00 1.275270e+00 -1.702099e+00 -6.890168e+00 -5.471210e+00 -2.310146e+00 -5.001869e-01 -2.545836e+00 -5.374589e+00 -7.244834e-01 3.048602e+00 1.116201e-01 1.744601e+00 2.333620e+00 1.358303e+00 1.185066e+00 -8.349234e-01 -6.751211e-01 -7.281328e-01 -3.351107e-01 -1.699692e-01 -9.602859e-01 -4.912702e-01 -3.477799e-01 3.733784e-01 -3.791416e-01 -4.173973e-01 -1.795395e-01 -5.942581e-02 3.941911e-01 2.680658e-01 1.282805e-01 -1.256688e-02 2.019976e-01 1.045012e-01
<VARIANCE> 39
 9.779797e+00 1.842284e+01 2.167694e+01 3.364103e+01 2.546093e+01 3.369379e+01 3.312378e+01 3.427248e+01 4.342014e+01 2.872383e+01 3.065267e+01 2.692977e+01 1.649653e+00 1.454445e+00 4.127249e+00 4.092071e+00 5.382146e+00 4.518401e+00 4.960600e+00 6.137880e+00 6.043637e+00 5.873422e+00 4.522376e+00 4.225328e+00 3.355299e+00 2.350512e-01 1.858597e-01 3.940479e-01 4.519472e-01 5.365979e-01 4.869022e-01 5.093735e-01 6.011632e-01 6.029362e-01 7.715915e-01 4.933278e-01 5.461251e-01 4.269781e-01 2.365186e-02
<GCONST> 1.150821e+02
<MIXTURE> 2 1.598128e-01
<MEAN> 39
 -8.000624e+00 5.315961e+00 1.040881e+00 8.920810e+00 6.799181e+00 5.540466e+00 3.612064e+00 3.508313e-01 2.334274e+00 1.933172e+00 1.824013e+00 8.644906e-01 -1.013424e+01 -6.975868e-02 3.550065e-02 -4.265049e-01 1.154537e+00 4.792047e-01 7.248375e-01 6.165953e-01 3.388207e-01 1.785171e-01 5.272037e-01 4.165750e-01 1.372543e-01 -5.852919e-01 1.476814e-01 -1.022915e-01 -3.580411e-02 -6.037241e-01 -2.972152e-01 -4.242761e-01 -1.787641e-01 -7.731260e-02 -1.217613e-01 -1.738100e-01 -1.042568e-01 1.920443e-02 4.416067e-01
<VARIANCE> 39
 1.051070e+01 1.474433e+01 1.911862e+01 1.796119e+01 1.851692e+01 2.042550e+01 2.080514e+01 2.518242e+01 2.597844e+01 2.023102e+01 2.084855e+01 1.624730e+01 5.854930e-01 3.534728e+00 2.589115e+00 2.607401e+00 3.262723e+00 2.335563e+00 2.536707e+00 2.489790e+00 2.898444e+00 2.511057e+00 2.295116e+00 2.003573e+00 1.810731e+00 6.825480e-01 6.798024e-01 3.492872e-01 4.711580e-01 4.994593e-01 4.810677e-01 4.911307e-01 5.024595e-01 5.135176e-01 4.689920e-01 4.186409e-01 3.776322e-01 3.299375e-01 6.565245e-02
<GCONST> 1.049630e+02
<MIXTURE> 3 2.056030e-01
<MEAN> 39
 1.153555e+01 3.420701e-01 -3.869523e+00 -1.680408e+00 4.005505e-01 -6.268260e-02 -6.162051e+00 -4.423586e+00 -1.470517e+00 1.310967e+00 3.237112e+00 -6.720185e-03 -2.771169e+00 -1.144200e+00 4.529444e+00 1.597074e+00 3.191718e+00 2.073374e+00 1.359425e+00 1.352491e+00 -2.348737e+00 -2.134530e+00 -1.818404e+00 -6.722725e-01 -2.792875e-01 -1.473799e+00 -7.726731e-01 3.216949e-01 5.264653e-01 4.832464e-01 1.498805e-01 1.672572e-01 4.921082e-01 2.932090e-01 9.652462e-03 -3.692363e-01 -5.660030e-01 -2.374695e-01 -1.661516e-01
<VARIANCE> 39
 9.310200e+00 2.159461e+01 3.888181e+01 4.929581e+01 3.779098e+01 5.733331e+01 4.309212e+01 4.076695e+01 4.320279e+01 4.544112e+01 3.121536e+01 3.713630e+01 1.426540e+00 1.723420e+00 2.086736e+00 5.929300e+00 6.233670e+00 6.271300e+00 7.435105e+00 9.810616e+00 7.426028e+00 5.994107e+00 5.700822e+00 5.195235e+00 4.321469e+00 1.223052e-01 1.600348e-01 4.278120e-01 4.468328e-01 5.850495e-01 6.756958e-01 7.039770e-01 6.807393e-01 6.693041e-01 7.030842e-01 6.956089e-01 5.405003e-01 5.889037e-01 2.514049e-02
<GCONST> 1.211508e+02
<MIXTURE> 4 4.073213e-02
<MEAN> 39
 -5.178267e+00 1.451682e+00 1.439065e+00 6.176027e+00 3.662353e+00 2.711209e-01 2.883722e+00 3.136054e+00 2.634064e+00 -3.311296e-01 1.189440e-02 1.396394e+00 -7.494191e+00 2.712026e+00 -8.123647e-01 2.452240e+00 -6.309773e-01 -2.710968e+00 -2.455559e+00 -1.401256e+00 -7.290539e-01 -1.736555e+00 -1.174931e+00 -1.870767e-01 -2.656687e-01 1.449192e+00 3.927800e-01 1.659879e-01 8.269734e-01 -3.746309e-01 -7.964938e-01 6.272453e-02 -5.453569e-01 -6.904377e-01 -8.238077e-01 -1.186614e-02 2.257640e-01 -1.331195e-01 1.852701e-01
<VARIANCE> 39
 1.991729e+01 2.934040e+01 3.483636e+01 2.943006e+01 3.220050e+01 4.487823e+01 2.906787e+01 2.636886e+01 3.114896e+01 2.557450e+01 3.581673e+01 2.063192e+01 4.672532e+00 2.488714e+00 2.835048e+00 5.147331e+00 4.933792e+00 5.834980e+00 3.527894e+00 3.653816e+00 4.348151e+00 5.420410e+00 4.238847e+00 3.167502e+00 2.697906e+00 6.672647e-01 4.588570e-01 5.495062e-01 7.785196e-01 9.478513e-01 8.261807e-01 9.957280e-01 6.877241e-01 7.257622e-01 9.335797e-01 9.789300e-01 8.867289e-01 5.957934e-01 1.175725e-01
<GCONST> 1.241387e+02
<MIXTURE> 5 2.144936e-01
<MEAN> 39
 -9.076675e+00 4.320424e+00 -1.162611e-01 8.289660e+00 5.851371e+00 5.275744e+00 3.618031e+00 5.582879e-01 2.312173e+00 2.018719e+00 2.068416e+00 1.021424e+00 -1.044417e+01 4.001350e-01 -2.361752e-01 -3.160394e-01 -5.092919e-02 -4.016083e-01 -4.198322e-01 -1.715457e-01 -2.869468e-01 -2.634301e-01 -2.402281e-01 -1.729196e-01 -1.536374e-01 7.293859e-02 4.834789e-01 -1.009105e-01 2.039897e-01 -5.390652e-01 -2.748832e-01 -4.215592e-01 -2.498522e-01 -7.839738e-02 -1.183644e-01 -2.151818e-01 -1.282779e-01 -4.943614e-02 4.898058e-01
<VARIANCE> 39
 7.155353e+00 8.752987e+00 1.350653e+01 1.558655e+01 1.471106e+01 1.879593e+01 1.726190e+01 2.010320e+01 2.372228e+01 1.779427e+01 1.713021e+01 1.488638e+01 1.131276e-01 1.231898e+00 1.393524e+00 1.813450e+00 1.961592e+00 1.541140e+00 1.856133e+00 1.572626e+00 1.771509e+00 1.906007e+00 1.889249e+00 1.500771e+00 1.461930e+00 4.946460e-01 4.628649e-01 2.766103e-01 4.154499e-01 4.690842e-01 4.106520e-01 4.451141e-01 3.961436e-01 4.390781e-01 4.318525e-01 4.321342e-01 3.313448e-01 3.159795e-01 7.963291e-02
<GCONST> 9.368597e+01
<MIXTURE> 6 1.959291e-01
<MEAN> 39
 6.571560e+00 7.425085e+00 2.088927e+00 7.265350e+00 1.847425e+00 -3.237032e-01 -3.495135e+00 -6.962604e+00 -4.348362e+00 -2.140107e+00 -1.837060e+00 -3.894184e+00 -5.776965e+00 -9.777429e-01 2.909062e+00 3.475818e-01 2.434215e+00 1.989649e+00 1.173654e+00 6.176226e-01 -8.586593e-01 -6.011938e-01 -1.069863e+00 -4.448730e-01 -6.823601e-01 -1.109650e+00 -5.257099e-01 -5.850452e-01 4.080962e-02 -6.223416e-01 -2.164915e-01 -1.330909e-02 2.162952e-01 5.812305e-01 2.974268e-01 1.539726e-01 9.841771e-02 3.597408e-01 1.445163e-01
<VARIANCE> 39
 1.555804e+01 2.100860e+01 2.924404e+01 3.837578e+01 3.451349e+01 3.866606e+01 4.262622e+01 3.538623e+01 4.228868e+01 3.767699e+01 3.343142e+01 3.279737e+01 2.469925e+00 3.432267e+00 4.706640e+00 5.298104e+00 6.533813e+00 5.045434e+00 4.951098e+00 6.054629e+00 6.852953e+00 6.253511e+00 4.681939e+00 4.389443e+00 4.048420e+00 4.292144e-01 3.028511e-01 5.371089e-01 5.711983e-01 7.046282e-01 6.439707e-01 6.266826e-01 8.064358e-01 7.285526e-01 8.376858e-01 7.365724e-01 6.633588e-01 5.764555e-01 3.193916e-02
<GCONST> 1.239078e+02
<STATE> 3
<NUMMIXES> 6
<MIXTURE> 1 2.019853e-01
<MEAN> 39
 2.243716e+00 1.094703e+01 2.586510e+00 9.657470e+00 7.045357e+00 3.490489e+00 6.860459e-01 -6.158444e+00 -4.281839e+00 -1.743396e+00 -1.249537e+00 -1.460757e+00 -8.059242e+00 9.451509e-03 2.753771e-01 2.510152e-01 3.823041e-01 5.565404e-01 2.782646e-01 2.981784e-02 -1.349606e-01 -1.702231e-01 3.275876e-02 2.776100e-01 1.262547e-01 -2.236776e-02 -9.622125e-02 -4.865808e-01 -5.718084e-03 -3.738499e-01 -2.977038e-01 -1.959881e-01 -1.292176e-01 2.179366e-01 2.807483e-01 9.417255e-02 1.780895e-02 6.866410e-02 2.003467e-01
<VARIANCE> 39
 3.530188e+01 1.910979e+01 2.122872e+01 2.442178e+01 2.156252e+01 2.582536e+01 2.747344e+01 2.724052e+01 2.749886e+01 2.455993e+01 2.418752e+01 1.887644e+01 2.405436e+00 1.871491e+00 1.496591e+00 1.818725e+00 2.164500e+00 1.502106e+00 1.825248e+00 1.881237e+00 2.290977e+00 2.127735e+00 1.839174e+00 1.856904e+00 1.456925e+00 2.456965e-01 4.485756e-01 3.430428e-01 4.033380e-01 6.168814e-01 3.835841e-01 4.111103e-01 4.629416e-01 4.605013e-01 4.373288e-01 4.060031e-01 4.031742e-01 3.237839e-01 6.407394e-02
<GCONST> 1.035573e+02
<MIXTURE> 2 5.177514e-02
<MEAN> 39
 4.410772e+00 5.092286e+00 7.212820e-01 6.304323e+00 8.753785e-01 -1.776160e+00 -2.336920e+00 -5.079386e+00 -4.284185e+00 -1.723714e+00 -3.157931e+00 -3.218511e+00 -6.184113e+00 -3.872721e-01 2.984359e-01 -3.595693e-01 -3.996086e-01 7.050916e-01 4.040618e-01 3.244785e-01 5.128478e-01 8.954433e-01 4.015196e-02 3.945785e-01 3.250075e-01 -1.243446e-01 -1.406303e-01 -3.971865e-01 7.593077e-02 -6.754171e-01 -1.843446e-01 3.078781e-01 2.138334e-02 2.300547e-01 2.546752e-01 2.505488e-01 4.738168e-01 2.285244e-01 2.140040e-01
<VARIANCE> 39
 3.444217e+01 3.512564e+01 5.914701e+01 6.851450e+01 4.784285e+01 5.192589e+01 7.429613e+01 6.865636e+01 7.930043e+01 6.075849e+01 6.004269e+01 4.334686e+01 5.622029e+00 4.975718e+00 5.214019e+00 5.296843e+00 7.353129e+00 5.872049e+00 5.447909e+00 5.497231e+00 7.319203e+00 7.826208e+00 6.349389e+00 7.442642e+00 3.896630e+00 8.899598e-01 9.256001e-01 1.115834e+00 1.547098e+00 2.253363e+00 1.466590e+00 1.394602e+00 1.247579e+00 1.567990e+00 1.862500e+00 1.627068e+00 1.560943e+00 7.449796e-01 1.456855e-01
<GCONST> 1.447444e+02
<MIXTURE> 3 2.983191e-01
<MEAN> 39
 6.135474e+00 1.213142e+01 2.720327e+00 7.906594e+00 5.597613e+00 3.052234e+00 -7.181102e-01 -8.261030e+00 -6.910476e+00 -3.661241e+00 -1.139953e+00 -1.822753e+00 -6.546432e+00 -1.532983e+00 2.246416e+00 1.369725e+00 1.524281e+00 1.344426e+00 7.205981e-01 1.048023e+00 -1.956953e-01 -6.158461e-01 -7.994555e-01 -6.131838e-01 5.501802e-02 -7.957686e-01 -1.130279e-01 -1.347323e+00 -2.067586e-01 -7.558345e-01 -6.688899e-01 -3.869472e-01 -3.742527e-01 6.514075e-01 7.351622e-01 4.340473e-01 1.561102e-01 1.251131e-01 3.361014e-01
<VARIANCE> 39
 9.032414e+00 9.146091e+00 1.729537e+01 2.594652e+01 2.400155e+01 2.978574e+01 3.507716e+01 2.767669e+01 3.215646e+01 2.826232e+01 3.047903e+01 2.705792e+01 1.241928e+00 1.091873e+00 2.872279e+00 2.856835e+00 4.001982e+00 3.030463e+00 3.076986e+00 3.861436e+00 3.593619e+00 3.984569e+00 3.011303e+00 3.121574e+00 2.393311e+00 1.905034e-01 1.797271e-01 3.385596e-01 5.329522e-01 6.445882e-01 6.187810e-01 6.468046e-01 8.691373e-01 7.407179e-01 8.263022e-01 6.616037e-01 6.457248e-01 5.314683e-01 2.749854e-02
<GCONST> 1.101811e+02
<MIXTURE> 4 1.661556e-02
<MEAN> 39
 3.091193e+00 -7.861358e-02 1.230421e+01 5.349686e+00 -8.378397e+00 -6.546812e+00 -2.029995e+00 4.986899e-02 -6.348705e+00 -3.660476e+00 2.327489e+00 3.961955e-01 -3.335634e+00 2.822580e+00 -6.549686e-01 3.797264e+00 -1.924703e+00 -4.858195e+00 -1.438908e+00 -2.077779e+00 -2.202270e+00 -3.522079e+00 -5.667917e-01 6.034871e-01 -2.463118e-01 1.447485e+00 -8.841744e-01 4.960283e-01 -5.312001e-01 -2.247037e-01 6.928440e-01 1.067943e+00 2.015248e-01 -3.192926e-01 5.036042e-01 5.498974e-01 -8.370373e-02 6.785485e-02 -4.491138e-01
<VARIANCE> 39
 1.735941e+01 1.664469e+01 2.358296e+01 4.154334e+01 2.416048e+01 2.566458e+01 2.503320e+01 3.263667e+01 4.103869e+01 3.023548e+01 2.773081e+01 1.582147e+01 7.740592e-01 1.492179e+00 3.113774e+00 3.497447e+00 7.334708e+00 3.778757e+00 5.881631e+00 4.670716e+00 5.715096e+00 6.210114e+00 7.672992e+00 6.707140e+00 3.531700e+00 2.878374e-01 2.702810e-01 2.922092e-01 4.963456e-01 4.959894e-01 5.419731e-01 6.346323e-01 4.509442e-01 5.260922e-01 9.072484e-01 5.942541e-01 6.238132e-01 4.238700e-01 2.104225e-02
<GCONST> 1.150119e+02
<MIXTURE> 5 2.315331e-01
<MEAN> 39
 5.849256e+00 1.189437e+01 3.603841e+00 8.973213e+00 3.857300e+00 1.066363e+00 -4.703764e+00 -9.315076e+00 -5.789280e+00 -4.030590e+00 -1.896511e+00 -4.802874e+00 -6.618644e+00 -2.029897e+00 2.372776e+00 1.572511e+00 2.129385e+00 1.168182e+00 9.327893e-01 7.640253e-01 -7.048576e-01 -6.969990e-01 -1.331279e+00 -8.237951e-01 -3.667629e-01 -9.518109e-01 -2.154259e-01 -1.661801e+00 -3.785982e-01 -1.087372e+00 -5.540780e-01 -3.685700e-01 2.100686e-01 1.145480e+00 7.193902e-01 5.641935e-01 2.291106e-01 5.051093e-01 3.887870e-01
<VARIANCE> 39
 9.980178e+00 1.031180e+01 1.901078e+01 2.481282e+01 2.551560e+01 3.094884e+01 4.707708e+01 2.797320e+01 3.230418e+01 3.082951e+01 3.078324e+01 2.939241e+01 1.605819e+00 1.892510e+00 3.456296e+00 3.944224e+00 4.927553e+00 3.520923e+00 4.098591e+00 3.931623e+00 4.426685e+00 3.838290e+00 4.158586e+00 3.423747e+00 3.014421e+00 2.978417e-01 2.664879e-01 4.108457e-01 8.343961e-01 7.636386e-01 8.575534e-01 8.022003e-01 1.257033e+00 9.347318e-01 9.549046e-01 9.118704e-01 7.596880e-01 6.832436e-01 4.311573e-02
<GCONST> 1.179580e+02
<MIXTURE> 6 1.997702e-01
<MEAN> 39
 -1.935324e+00 7.995162e+00 1.379733e+00 8.984592e+00 5.654108e+00 3.661329e+00 1.474079e+00 -3.773629e+00 -1.566263e+00 -6.268604e-01 4.166299e-02 -7.816126e-01 -8.678896e+00 1.137143e+00 -7.159302e-02 8.088495e-02 -5.321643e-01 -2.935402e-01 -5.619295e-01 -3.369377e-01 -3.597243e-01 -3.813979e-01 -4.306563e-01 -1.866325e-01 -1.283241e-01 6.095467e-01 4.145064e-01 -5.978350e-01 -9.271679e-02 -7.694507e-01 -4.777898e-01 -2.834465e-01 -2.967843e-01 1.318406e-01 1.702478e-01 8.331591e-02 1.945582e-02 7.629824e-02 4.010495e-01
<VARIANCE> 39
 5.299550e+01 2.794688e+01 2.035631e+01 2.765131e+01 2.231933e+01 2.758812e+01 3.092259e+01 3.341576e+01 3.668865e+01 2.510715e+01 2.539791e+01 2.052667e+01 3.277824e+00 3.223989e+00 2.143928e+00 2.027271e+00 2.744838e+00 2.037389e+00 2.790206e+00 2.679322e+00 2.587825e+00 2.606471e+00 2.161484e+00 1.887727e+00 1.784963e+00 7.042437e-01 8.665308e-01 4.342113e-01 5.630439e-01 8.717710e-01 5.778546e-01 6.562784e-01 6.270784e-01 6.042598e-01 6.451963e-01 4.981578e-01 5.214128e-01 3.967710e-01 1.066653e-01
<GCONST> 1.142823e+02
<STATE> 4
<NUMMIXES> 6
<MIXTURE> 1 2.161506e-01
<MEAN> 39
 1.706111e+00 1.358905e+01 6.791119e+00 1.270452e+01 7.677877e+00 2.699236e+00 -2.576799e+00 -7.927717e+00 -4.746727e+00 -3.465548e+00 -2.046284e+00 -2.867242e+00 -7.966025e+00 -1.754345e+00 -8.861311e-01 5.784205e-02 1.064510e-01 4.028571e-01 4.984173e-01 1.027483e+00 1.210970e+00 8.421411e-01 2.503077e-02 -2.494941e-02 4.107411e-01 -2.201032e-01 2.926450e-01 -1.403464e+00 -8.173990e-01 -1.281652e+00 -8.291435e-01 -4.068969e-01 1.370094e-01 6.464663e-01 6.108034e-01 5.315666e-01 3.397405e-01 2.856447e-01 4.524134e-01
<VARIANCE> 39
 1.189767e+01 7.101718e+00 1.281378e+01 1.555055e+01 1.791330e+01 2.191632e+01 3.385132e+01 2.325977e+01 2.273616e+01 2.280653e+01 1.764946e+01 1.989814e+01 1.569434e+00 1.776309e+00 2.126518e+00 1.602917e+00 2.099724e+00 1.462693e+00 1.989238e+00 2.269647e+00 2.592241e+00 2.655971e+00 2.232077e+00 2.168521e+00 1.683911e+00 2.467594e-01 3.001684e-01 4.391051e-01 5.272295e-01 5.665520e-01 5.409735e-01 4.980208e-01 5.472554e-01 6.045424e-01 5.829492e-01 5.686585e-01 4.548255e-01 3.939365e-01 5.450733e-02
<GCONST> 1.022861e+02
<MIXTURE> 2 9.896591e-02
<MEAN> 39
 5.921621e+00 1.270691e+01 3.080942e+00 6.945606e+00 3.618128e+00 3.586707e+00 2.366532e-01 -7.415540e+00 -8.345004e+00 -6.374437e+00 -2.737004e+00 -2.089692e+00 -6.488428e+00 -8.999717e-01 -1.583473e+00 -4.687633e-01 -1.357048e+00 -1.670547e-01 -2.884101e-01 8.433035e-02 9.309406e-01 1.682612e+00 9.980216e-01 5.127565e-01 6.570826e-01 4.018419e-01 2.984192e-01 -1.450876e+00 -7.510838e-01 -1.310330e+00 -5.526454e-01 -2.401441e-01 -3.488775e-01 3.779434e-01 7.840079e-01 9.276953e-01 5.532463e-01 2.067662e-01 4.746483e-01
<VARIANCE> 39
 9.335822e+00 1.323864e+01 1.826219e+01 2.585992e+01 2.630333e+01 3.107319e+01 4.519838e+01 3.524615e+01 2.887214e+01 2.418703e+01 3.277480e+01 3.324438e+01 1.284739e+00 1.821617e+00 2.938292e+00 2.289423e+00 5.377149e+00 2.640961e+00 2.381407e+00 3.046212e+00 4.007174e+00 4.168242e+00 2.897310e+00 3.195010e+00 2.602829e+00 3.270031e-01 3.065494e-01 4.705044e-01 6.566997e-01 9.537263e-01 7.677804e-01 7.823142e-01 9.935178e-01 1.134849e+00 8.539275e-01 7.283288e-01 8.147519e-01 6.921336e-01 3.664569e-02
<GCONST> 1.153963e+02
<MIXTURE> 3 2.522271e-01
<MEAN> 39
 -2.727115e+00 9.163912e+00 4.329793e+00 1.096420e+01 8.212386e+00 4.665627e+00 1.491720e+00 -3.843552e+00 -1.992352e+00 -2.020257e+00 -1.073273e+00 -1.517172e+00 -8.513117e+00 -1.441415e-01 -3.027054e+00 -1.418583e+00 -2.701998e+00 -1.629740e+00 -1.066916e+00 3.021730e-01 1.644724e+00 1.891788e+00 1.152357e+00 8.550636e-01 8.915881e-01 1.079755e+00 1.194491e+00 -8.565874e-01 -4.172260e-01 -1.343333e+00 -1.110752e+00 -5.048067e-01 -4.996283e-01 2.736051e-02 -2.475630e-03 3.204050e-01 2.303391e-01 -3.695208e-03 6.128515e-01
<VARIANCE> 39
 2.767150e+01 2.242375e+01 1.989446e+01 2.003369e+01 1.757583e+01 2.247255e+01 3.056243e+01 3.380458e+01 2.694766e+01 2.356705e+01 2.284019e+01 1.808283e+01 2.981114e+00 3.676389e+00 2.300127e+00 2.983975e+00 3.406604e+00 3.007514e+00 3.612088e+00 4.302094e+00 3.909236e+00 3.524348e+00 3.258209e+00 2.897772e+00 2.396235e+00 4.839450e-01 4.795559e-01 6.662174e-01 9.067227e-01 7.203646e-01 6.540333e-01 9.527701e-01 7.721176e-01 8.890965e-01 8.251542e-01 7.516832e-01 6.973366e-01 4.876695e-01 4.466708e-02
<GCONST> 1.168181e+02
<MIXTURE> 4 1.783664e-01
<MEAN> 39
 -2.052736e+00 1.737282e+00 -2.378199e-01 2.778466e+00 3.406264e+00 2.513472e-01 1.477966e+00 -1.295996e+00 2.020147e+00 6.884648e-01 9.641854e-01 1.157730e+00 -5.025998e+00 2.227235e+00 -2.864034e+00 -1.373353e+00 -3.989037e+00 -2.464252e+00 -1.082849e+00 -9.321364e-01 8.328328e-01 1.092258e+00 1.285527e+00 8.812072e-01 5.186679e-01 1.690327e+00 9.377089e-01 1.797346e-01 1.305699e-01 -3.224190e-01 -3.829403e-01 2.302699e-01 -4.489553e-01 -2.828303e-01 -5.853883e-01 -8.864855e-02 -1.010178e-01 -3.379954e-01 1.034700e-01
<VARIANCE> 39
 2.636192e+01 2.112043e+01 2.346813e+01 2.995878e+01 2.648963e+01 2.871839e+01 3.514397e+01 3.370739e+01 3.360042e+01 2.832517e+01 2.458486e+01 1.926287e+01 2.931835e+00 4.505078e+00 4.727335e+00 6.078065e+00 6.174221e+00 4.829573e+00 5.859361e+00 6.273515e+00 6.409636e+00 6.086380e+00 5.003015e+00 4.068729e+00 3.133871e+00 4.044347e-01 5.542021e-01 7.573683e-01 6.928554e-01 9.108839e-01 7.707750e-01 9.630715e-01 1.099279e+00 1.018777e+00 9.624050e-01 8.348762e-01 7.903733e-01 5.667294e-01 4.706718e-02
<GCONST> 1.255463e+02
<MIXTURE> 5 1.482281e-01
<MEAN> 39
 -2.155098e-01 5.213422e-01 3.772171e+00 4.693636e+00 3.803785e-01 -3.489471e+00 -9.614004e-01 -9.374852e-01 7.437847e-01 -9.609362e-01 8.654026e-01 4.570853e-01 -4.241940e+00 1.434002e+00 -2.781237e+00 1.304104e+00 -2.975745e+00 -3.558644e+00 -1.879065e+00 -1.225387e+00 9.247808e-01 -4.152010e-01 4.501565e-01 4.781383e-01 4.503343e-01 1.448738e+00 4.449953e-01 4.401233e-01 2.557680e-01 -2.629482e-01 -2.097372e-01 4.666647e-01 -2.402453e-01 -3.244680e-01 -6.510597e-01 4.062479e-02 -1.066740e-01 -2.594161e-01 -5.247537e-02
<VARIANCE> 39
 2.676873e+01 1.891986e+01 4.503825e+01 3.464198e+01 4.627536e+01 3.682389e+01 3.677212e+01 3.633119e+01 4.322364e+01 3.157524e+01 2.637316e+01 2.173427e+01 2.799874e+00 4.311556e+00 4.867436e+00 8.717951e+00 6.010091e+00 5.515730e+00 5.564606e+00 6.307858e+00 8.061378e+00 8.395903e+00 6.004948e+00 4.733037e+00 3.079382e+00 3.412199e-01 6.849558e-01 6.691071e-01 7.507654e-01 8.407989e-01 1.040099e+00 9.670202e-01 9.988798e-01 1.041663e+00 1.132831e+00 7.714859e-01 7.992181e-01 5.337762e-01 6.893439e-02
<GCONST> 1.295190e+02
<MIXTURE> 6 1.060451e-01
<MEAN> 39
 6.481923e+00 1.285430e+01 1.983241e+00 6.119589e+00 4.589221e+00 4.905281e+00 1.833563e+00 -6.951230e+00 -8.111684e+00 -6.185106e+00 -2.489843e+00 -1.005843e+00 -6.712894e+00 -1.159304e+00 -1.405644e+00 1.338275e-01 -6.201339e-01 -4.033072e-01 -8.098872e-01 -1.827730e-01 6.851415e-01 1.393787e+00 6.755016e-01 -5.024336e-02 1.927670e-01 3.097625e-01 1.527296e-01 -1.476746e+00 -3.908637e-01 -1.013649e+00 -7.133034e-01 -4.681767e-01 -6.553617e-01 3.447883e-01 7.338193e-01 7.451597e-01 5.976946e-01 1.706140e-01 4.608438e-01
<VARIANCE> 39
 9.236481e+00 1.321770e+01 1.559676e+01 2.352596e+01 2.644793e+01 2.612814e+01 3.437367e+01 3.069800e+01 2.312630e+01 2.491030e+01 3.084852e+01 2.676552e+01 1.240863e+00 1.496449e+00 3.223532e+00 2.137121e+00 3.880700e+00 2.492398e+00 2.427281e+00 2.277351e+00 2.599649e+00 3.056732e+00 2.749541e+00 2.573841e+00 1.998218e+00 2.952961e-01 2.931165e-01 4.665650e-01 8.625467e-01 8.735552e-01 8.698527e-01 7.676336e-01 7.790018e-01 1.022703e+00 7.631605e-01 7.542876e-01 6.799104e-01 5.583373e-01 3.661553e-02
<GCONST> 1.112572e+02
<TRANSP> 5
 0.000000e+00 1.000000e+00 0.000000e+00 0.000000e+00 0.000000e+00
 0.000000e+00 4.973239e-01 5.026761e-01 0.000000e+00 0.000000e+00
 0.000000e+00 0.000000e+00 4.541167e-01 5.458834e-01 0.000000e+00
 0.000000e+00 0.000000e+00 0.000000e+00 6.771585e-01 3.228416e-01
 0.000000e+00 0.000000e+00 0.000000e+00 0.000000e+00 0.000000e+00
<ENDHMM>
~h "d"
<BEGINHMM>
<NUMSTATES> 5
<STATE> 2
<NUMMIXES> 6
<MIXTURE> 1 1.404353e-01
<MEAN> 39
 -4.510820e+00 8.272415e+00 4.651725e+00 1.018931e+01 6.514011e+00 3.510162e+00 6.088921e-01 -2.976139e+00 -1.045192e+00 -2.098833e+00 -1.332265e+00 -1.564914e+00 -8.850709e+00 -1.602889e+00 -2.568205e+00 -1.147443e+00 -2.020109e+00 1.383532e-01 5.473701e-01 1.111688e+00 1.431000e+00 1.205237e+00 1.017571e+00 1.396369e+00 1.010080e+00 3.980717e-01 4.680115e-01 -5.793883e-01 -7.618743e-02 -9.824374e-01 -1.013402e+00 -8.278590e-01 -1.971004e-01 1.924066e-01 1.034767e-01 2.163995e-01 8.832868e-02 2.915018e-01 5.503478e-01
<VARIANCE> 39
 2.802457e+01 2.867624e+01 2.939150e+01 2.931205e+01 2.256797e+01 2.749564e+01 3.066310e+01 3.285894e+01 3.167541e+01 2.876234e+01 2.943275e+01 1.879329e+01 3.137205e+00 3.245157e+00 4.574123e+00 3.649197e+00 5.943212e+00 4.089108e+00 4.259646e+00 4.109371e+00 4.310967e+00 3.852093e+00 3.662904e+00 3.276157e+00 2.727697e+00 6.980326e-01 6.055592e-01 8.340027e-01 7.153510e-01 8.308902e-01 7.753453e-01 6.931912e-01 7.299944e-01 7.566071e-01 7.290950e-01 6.571845e-01 5.912468e-01 4.880078e-01 7.974237e-02
<GCONST> 1.218027e+02
<MIXTURE> 2 1.708230e-01
<MEAN> 39
 7.710255e+00 -4.914815e+00 3.592234e-01 3.461010e+00 -6.508844e+00 -3.217563e+00 -4.298915e+00 -2.195338e+00 4.348548e+00 8.094984e-01 -2.121423e+00 -1.618294e+00 -2.012936e+00 -5.075135e-01 8.076938e-01 1.520180e+00 1.385086e+00 1.760309e-01 -4.530987e-01 -1.710433e-01 -9.950332e-01 -6.537462e-01 -1.544486e-01 -1.574188e-01 6.166000e-01 -5.279537e-01 -3.980374e-03 -2.256463e-01 -6.523456e-03 -7.534917e-01 4.602772e-02 1.206527e-01 -1.101065e-01 6.114015e-01 -2.604066e-01 -3.039892e-02 2.966519e-01 6.336192e-02 1.413457e-01
<VARIANCE> 39
 1.400820e+01 2.238789e+01 5.395895e+01 5.436258e+01 5.273487e+01 4.394517e+01 5.254593e+01 5.266137e+01 4.899624e+01 4.618177e+01 3.437344e+01 3.177930e+01 1.748222e+00 1.555398e+00 1.776364e+00 3.410043e+00 4.520649e+00 4.974773e+00 4.633825e+00 7.285997e+00 5.519355e+00 4.946351e+00 3.957172e+00 4.486764e+00 3.343092e+00 1.202257e-01 1.639358e-01 2.967177e-01 3.759148e-01 7.427456e-01 8.381279e-01 7.248703e-01 1.015778e+00 9.321395e-01 8.413561e-01 7.814029e-01 8.312493e-01 5.342082e-01 2.258220e-02
<GCONST> 1.206358e+02
<MIXTURE> 3 2.110576e-01
<MEAN> 39
 3.043960e+00 9.727026e+00 7.024764e+00 1.110404e+01 2.084670e+00 -2.413913e+00 -2.595686e+00 -5.378499e+00 -2.455290e+00 -3.777032e+00 -5.121172e+00 -2.635717e+00 -6.743351e+00 -1.496536e+00 4.494470e-01 8.134359e-02 2.824657e-01 1.488413e+00 9.491974e-01 8.146660e-01 -3.093128e-02 6.568064e-02 3.398842e-02 1.827011e-01 1.447784e-01 -4.714226e-01 -6.207000e-02 -1.347928e+00 -2.833356e-01 -1.326696e+00 -7.357862e-01 -5.692740e-02 -1.027518e-01 6.148235e-01 2.839566e-01 3.831968e-01 6.494768e-01 4.057788e-01 4.265599e-01
<VARIANCE> 39
 1.415282e+01 2.885978e+01 2.523975e+01 3.219643e+01 3.814679e+01 3.230315e+01 3.517454e+01 3.803053e+01 3.359926e+01 2.924517e+01 3.021804e+01 2.401321e+01 2.356528e+00 1.992835e+00 6.224820e+00 3.605649e+00 6.046823e+00 4.703914e+00 4.325431e+00 4.626858e+00 4.861044e+00 4.636775e+00 3.460756e+00 4.128349e+00 2.797073e+00 3.943002e-01 3.749092e-01 6.694385e-01 5.778021e-01 8.728162e-01 9.185537e-01 7.655953e-01 1.028357e+00 9.498103e-01 8.711264e-01 7.519998e-01 7.057827e-01 5.673018e-01 5.473020e-02
<GCONST> 1.223709e+02
<MIXTURE> 4 1.251904e-01
<MEAN> 39
 5.124899e+00 4.986141e-01 6.922723e+00 4.246286e+00 -6.086996e+00 -5.124072e+00 -3.339857e+00 -1.004179e+00 -2.142914e-01 -2.372726e+00 -8.073884e-01 1.345793e+00 -3.710399e+00 -1.435952e+00 3.550169e+00 5.413074e-01 3.260046e+00 2.888795e+00 1.233736e+00 6.726979e-01 -1.893053e+00 -5.258418e-01 -1.077822e+00 -1.060194e+00 -9.664117e-01 -1.366663e+00 -3.037153e-01 -1.283533e-01 -3.702298e-01 -4.383807e-01 4.584723e-01 3.521309e-01 2.431116e-01 2.274626e-01 -6.262016e-03 2.046100e-01 2.540912e-02 -2.202019e-01 1.312807e-02
<VARIANCE> 39
 1.971865e+01 3.400513e+01 3.963805e+01 4.761202e+01 5.138491e+01 4.415137e+01 4.309005e+01 4.243615e+01 4.935746e+01 3.882027e+01 3.550020e+01 2.801877e+01 2.516018e+00 2.161599e+00 4.245313e+00 4.364871e+00 5.610406e+00 5.396312e+00 5.762084e+00 6.768089e+00 6.161039e+00 5.917553e+00 5.222729e+00 5.252998e+00 3.543786e+00 2.189484e-01 2.875841e-01 6.634527e-01 5.301106e-01 9.005911e-01 9.421923e-01 8.130682e-01 8.311986e-01 7.295589e-01 8.121345e-01 6.678243e-01 6.787421e-01 5.142029e-01 4.454092e-02
<GCONST> 1.258295e+02
<MIXTURE> 5 1.978534e-01
<MEAN> 39
 2.890149e+00 9.799834e+00 7.067911e+00 1.060387e+01 1.773345e+00 -2.194828e+00 -3.493975e+00 -5.883212e+00 -2.733215e+00 -4.139125e+00 -4.794406e+00 -3.434250e+00 -6.732339e+00 -1.535931e+00 9.856614e-01 2.019851e-01 9.397575e-01 1.654385e+00 9.776731e-01 6.135663e-01 -3.949442e-01 -2.114594e-01 -4.331623e-01 -1.912860e-01 -3.276292e-01 -6.281139e-01 -7.025329e-02 -1.432127e+00 -3.742609e-01 -1.435144e+00 -6.732720e-01 -7.259895e-02 5.904467e-02 7.044234e-01 3.279326e-01 5.116591e-01 6.084788e-01 5.209220e-01 4.395142e-01
<VARIANCE> 39
 1.674947e+01 2.941869e+01 2.659636e+01 3.226521e+01 4.068840e+01 3.365336e+01 3.858333e+01 3.713837e+01 3.398064e+01 3.314841e+01 3.273889e+01 2.576951e+01 2.320736e+00 2.255121e+00 6.150520e+00 3.870987e+00 6.900149e+00 5.032333e+00 4.736664e+00 4.889549e+00 5.048136e+00 4.738298e+00 3.736281e+00 3.870844e+00 3.386873e+00 4.457812e-01 4.609240e-01 7.548734e-01 6.599053e-01 9.415177e-01 9.921883e-01 8.212063e-01 1.160796e+00 9.850065e-01 8.810830e-01 8.863353e-01 8.253647e-01 6.181777e-01 5.604783e-02
<GCONST> 1.252551e+02
<MIXTURE> 6 1.546186e-01
<MEAN> 39
 -5.339648e+00 7.270323e+00 3.390417e+00 9.165384e+00 6.311336e+00 3.864934e+00 2.151928e+00 -1.717234e+00 -2.656711e-01 -6.328524e-01 -8.459961e-01 -4.938998e-01 -9.008504e+00 -6.506350e-01 -2.349496e+00 -7.970817e-01 -2.101961e+00 -4.577913e-01 -2.513866e-01 2.348688e-01 5.348251e-01 3.210593e-01 2.899393e-01 5.776658e-01 5.074188e-01 6.365749e-01 3.162416e-01 -4.038548e-01 6.306618e-02 -8.229914e-01 -7.897840e-01 -7.837148e-01 -3.669780e-01 8.600537e-02 1.032294e-02 2.181408e-02 4.520003e-02 1.542762e-01 5.323454e-01
<VARIANCE> 39
 3.515496e+01 3.052195e+01 3.667275e+01 2.943866e+01 2.135567e+01 2.649376e+01 2.851090e+01 3.169599e+01 2.982107e+01 2.532505e+01 2.780135e+01 1.863164e+01 3.184757e+00 3.703217e+00 4.507132e+00 3.721166e+00 5.490113e+00 3.433255e+00 4.035573e+00 3.534748e+00 3.723194e+00 3.334325e+00 2.876350e+00 2.812970e+00 2.436058e+00 7.159001e-01 6.537054e-01 8.438241e-01 7.365711e-01 7.795522e-01 7.114819e-01 6.331614e-01 6.191490e-01 6.915266e-01 6.306933e-01 5.599010e-01 5.251220e-01 4.265517e-01 8.042723e-02
<GCONST> 1.198559e+02
<STATE> 3
<NUMMIXES> 6
<MIXTURE> 1 2.019869e-01
<MEAN> 39
 -2.321328e+00 -1.835524e+00 3.694781e+00 2.406577e+00 1.119419e+00 7.374343e-01 2.096071e-01 -1.910099e+00 6.953240e-01 -1.679894e+00 8.432128e-02 6.768128e-01 -4.673058e+00 -1.054703e+00 -2.082075e+00 -3.116068e-01 -2.316926e+00 -6.938372e-01 -2.703246e-01 1.309571e-01 1.775423e+00 1.197468e+00 8.636268e-01 1.275306e+00 1.142185e+00 6.455443e-01 9.499304e-01 1.468571e-01 -3.317350e-02 -2.814975e-01 -7.828961e-01 -4.505807e-01 -4.579880e-01 1.766853e-01 -1.337533e-01 2.225098e-01 -1.774876e-01 -6.812577e-02 2.416425e-01
<VARIANCE> 39
 2.669246e+01 3.640214e+01 4.071069e+01 5.270230e+01 4.592972e+01 5.040308e+01 4.477691e+01 4.300367e+01 3.907006e+01 2.773561e+01 3.181477e+01 2.288566e+01 1.836293e+00 3.837112e+00 4.417597e+00 4.148477e+00 5.521207e+00 5.444275e+00 4.469350e+00 6.588334e+00 5.710770e+00 5.444414e+00 4.372681e+00 3.940027e+00 3.123193e+00 3.867599e-01 5.573015e-01 1.324441e+00 9.348336e-01 1.478474e+00 1.437352e+00 1.373981e+00 1.374731e+00 1.432664e+00 1.164520e+00 9.561229e-01 1.092155e+00 7.588212e-01 5.365273e-02
<GCONST> 1.316076e+02
<MIXTURE> 2 1.705590e-01
<MEAN> 39
 7.607695e+00 -5.195621e+00 2.612917e+00 3.160837e+00 -6.858262e+00 -3.606204e+00 -5.898373e+00 -2.231867e+00 3.550092e+00 1.642825e+00 -2.140593e+00 -4.798439e-01 -2.082198e+00 2.131420e-01 -3.150193e-01 6.851546e-01 -1.259094e-01 -5.034870e-01 -3.098826e-01 -9.099956e-01 8.965884e-01 -3.237317e-01 -4.902454e-02 2.980593e-01 5.339027e-01 1.818621e-02 6.012514e-03 -2.409820e-01 -4.063116e-01 -7.110983e-01 1.751674e-02 1.279448e-01 1.732629e-01 7.146111e-01 -4.086247e-02 -1.839765e-01 2.617704e-01 -1.468967e-01 1.794615e-01
<VARIANCE> 39
 1.144883e+01 2.071367e+01 4.511015e+01 4.256381e+01 4.212299e+01 3.697232e+01 4.027421e+01 4.574897e+01 4.135765e+01 3.571333e+01 2.833154e+01 2.782094e+01 1.254170e+00 8.238041e-01 1.102722e+00 2.472606e+00 2.609145e+00 2.683961e+00 2.982912e+00 3.622503e+00 4.026246e+00 3.523267e+00 2.864939e+00 2.727499e+00 2.317915e+00 6.628246e-02 1.677051e-01 2.700983e-01 3.321666e-01 6.149304e-01 8.722915e-01 7.008861e-01 1.019311e+00 9.057256e-01 8.649945e-01 6.634451e-01 6.796959e-01 4.760232e-01 1.496473e-02
<GCONST> 1.105997e+02
<MIXTURE> 3 7.806902e-02
<MEAN> 39
 4.204155e+00 -2.400457e+00 1.101114e+01 1.921437e+00 -8.964624e+00 -4.367717e+00 -5.870657e+00 3.670611e-01 -2.297461e+00 -4.962188e+00 2.541342e+00 1.332764e+00 -2.922829e+00 -4.759556e-01 3.086957e-02 1.571663e+00 -1.552395e+00 -9.455565e-01 -4.683848e-02 -5.013696e-01 3.623370e-01 -1.126262e+00 3.915914e-01 1.167016e+00 -1.351174e-02 1.928765e-01 2.092334e-01 -2.351569e-01 -4.630213e-01 -4.339050e-01 -1.980658e-01 -6.119385e-02 2.159906e-01 1.922761e-01 -7.743853e-02 6.526207e-01 -2.844685e-01 -5.964062e-02 1.789109e-01
<VARIANCE> 39
 9.526417e+00 1.816473e+01 1.920695e+01 2.784682e+01 3.167394e+01 2.528496e+01 2.924722e+01 2.692913e+01 3.405360e+01 3.201856e+01 2.477107e+01 1.526660e+01 1.592604e+00 1.020902e+00 2.465352e+00 3.186616e+00 3.614189e+00 3.646415e+00 3.330007e+00 4.514973e+00 4.757951e+00 4.916584e+00 4.696666e+00 4.400502e+00 2.440902e+00 1.259892e-01 1.513001e-01 3.044156e-01 3.706614e-01 7.529795e-01 8.392788e-01 7.080704e-01 9.441963e-01 7.933352e-01 6.178335e-01 6.603248e-01 8.761353e-01 4.458146e-01 2.527830e-02
<GCONST> 1.115574e+02
<MIXTURE> 4 1.682963e-01
<MEAN> 39
 -7.521211e+00 -1.575687e+00 1.730586e+00 -2.477032e+00 4.329803e+00 1.445657e+00 3.239798e+00 9.016539e-01 9.966432e-01 9.297400e-01 2.985244e+00 2.094271e+00 -4.487597e+00 3.234507e-01 -1.647675e+00 -3.284585e-02 -2.871741e+00 -2.310966e+00 -2.224853e+00 -1.498286e-01 7.870165e-01 4.310600e-01 6.695790e-01 7.737190e-01 1.175032e+00 1.450970e+00 1.326723e+00 5.748968e-01 5.737532e-01 7.396746e-01 -1.058308e+00 -6.716074e-01 -7.877722e-01 -2.448848e-01 -2.627728e-01 -2.897000e-01 -5.972391e-01 -2.427727e-01 3.588748e-02
<VARIANCE> 39
 1.966750e+01 2.842476e+01 3.545215e+01 3.307652e+01 3.243074e+01 3.792521e+01 3.363002e+01 3.104595e+01 3.344145e+01 2.879554e+01 3.086776e+01 2.115313e+01 1.888076e+00 3.306602e+00 3.849112e+00 3.399289e+00 3.830273e+00 4.002462e+00 3.438316e+00 3.998115e+00 3.678776e+00 3.729330e+00 3.214977e+00 2.782562e+00 2.271251e+00 4.340360e-01 5.000679e-01 8.147755e-01 8.911360e-01 9.982384e-01 1.081185e+00 9.509677e-01 9.422604e-01 9.361956e-01 9.836864e-01 8.559068e-01 8.400466e-01 6.975149e-01 6.598652e-02
<GCONST> 1.224994e+02
<MIXTURE> 5 2.296343e-01
<MEAN> 39
 -9.281897e-01 -2.338308e+00 3.626403e+00 3.893732e+00 2.544587e-01 7.698113e-01 6.707753e-02 -2.945127e+00 -4.573902e-01 -2.472938e+00 -1.456595e+00 3.951690e-01 -4.825502e+00 -7.727829e-01 -2.035892e+00 -5.295593e-02 -2.226268e+00 -1.028092e+00 -4.733379e-01 -3.328368e-01 1.199459e+00 7.756876e-01 4.398023e-01 9.351142e-01 8.301686e-01 6.606986e-01 7.635729e-01 1.397561e-01 3.875941e-04 -4.456887e-01 -6.528254e-01 -4.607640e-01 -5.962880e-01 3.345951e-01 2.659179e-02 3.114070e-01 1.125824e-01 -8.346802e-02 2.642322e-01
<VARIANCE> 39
 2.709492e+01 4.251614e+01 4.881920e+01 5.053187e+01 4.461876e+01 4.887357e+01 4.374754e+01 4.061679e+01 3.760309e+01 2.659847e+01 3.035831e+01 2.205485e+01 2.003016e+00 2.899922e+00 4.438081e+00 4.028020e+00 4.941714e+00 4.489965e+00 4.011000e+00 5.651204e+00 5.421165e+00 5.504464e+00 3.635190e+00 3.677313e+00 2.927696e+00 3.548416e-01 6.303236e-01 1.467289e+00 1.060602e+00 1.377848e+00 1.388873e+00 1.298233e+00 1.370237e+00 1.307598e+00 1.163838e+00 8.844197e-01 1.101024e+00 7.558394e-01 6.048466e-02
<GCONST> 1.305257e+02
<MIXTURE> 6 1.514484e-01
<MEAN> 39
 -7.919634e+00 -1.450355e+00 1.124973e+00 -2.341779e+00 4.117352e+00 1.942252e+00 3.210674e+00 3.519873e-01 6.089224e-01 7.571253e-01 2.427433e+00 1.533732e+00 -4.714407e+00 6.544833e-01 -1.139611e+00 2.553053e-01 -2.782780e+00 -2.416269e+00 -2.465673e+00 -6.590681e-01 -1.843212e-02 -3.921248e-01 3.657927e-02 2.085867e-01 6.248613e-01 1.511458e+00 1.160802e+00 5.804005e-01 6.571234e-01 7.269644e-01 -9.313332e-01 -6.623290e-01 -7.544763e-01 -1.697476e-01 -2.090718e-01 -2.453835e-01 -4.398781e-01 -1.520152e-01 1.635829e-02
<VARIANCE> 39
 2.119802e+01 3.039885e+01 4.087506e+01 3.307941e+01 3.449258e+01 3.696946e+01 3.197920e+01 3.024131e+01 3.753733e+01 2.726693e+01 2.872912e+01 2.003110e+01 2.542565e+00 3.113256e+00 3.591281e+00 3.465955e+00 3.304078e+00 3.586907e+00 3.486306e+00 3.504410e+00 3.559635e+00 3.434917e+00 3.045573e+00 2.767787e+00 2.122442e+00 3.939910e-01 5.510100e-01 8.304053e-01 9.416172e-01 9.973122e-01 1.095077e+00 9.486185e-01 8.757189e-01 8.410337e-01 1.024320e+00 7.952712e-01 7.860919e-01 6.409352e-01 7.662787e-02
<GCONST> 1.221167e+02
<STATE> 4
<NUMMIXES> 6
<MIXTURE> 1 1.858092e-01
<MEAN> 39
 -7.512801e+00 1.533198e-02 1.599156e+00 2.516157e-01 1.212755e+00 -2.127126e+00 2.784091e+00 8.636240e-01 1.897217e+00 3.945264e-01 1.185484e+00 2.977395e+00 -4.417668e+00 7.148666e-01 4.096192e-01 2.692396e-01 -1.287282e-01 -8.239657e-01 -1.325135e+00 -6.308502e-01 6.074164e-01 5.589224e-01 3.624732e-01 2.370619e-02 2.627892e-01 4.925925e-01 9.638575e-01 5.616388e-01 1.754902e-01 7.447978e-01 8.560108e-02 2.685175e-01 -5.379915e-01 -3.361969e-01 -2.414858e-01 -1.803269e-01 -3.258269e-01 -3.867658e-01 -2.027607e-01
<VARIANCE> 39
 3.711001e+01 3.695745e+01 4.287578e+01 4.545643e+01 3.714098e+01 4.232353e+01 3.609828e+01 3.457719e+01 3.563431e+01 2.269109e+01 2.692809e+01 2.101525e+01 2.018446e+00 7.788348e+00 4.864161e+00 4.749607e+00 5.782271e+00 6.312055e+00 5.031917e+00 6.251723e+00 4.142634e+00 3.797786e+00 3.007475e+00 2.993596e+00 2.622312e+00 6.462157e-01 8.898567e-01 1.012154e+00 8.960693e-01 1.032659e+00 9.218549e-01 9.210823e-01 1.012105e+00 8.240377e-01 8.300254e-01 5.989650e-01 6.471618e-01 5.588861e-01 6.750312e-02
<GCONST> 1.274820e+02
<MIXTURE> 2 8.370461e-02
<MEAN> 39
 7.391026e+00 -5.319441e+00 4.382108e+00 -5.648236e-01 -7.984282e+00 -6.118807e+00 -4.470716e+00 2.248106e+00 4.229816e-01 2.107188e+00 -1.147652e+00 -1.238510e-01 -1.704401e+00 1.217064e-01 -2.346347e-01 -2.285095e-01 -2.706546e-01 -1.455705e-01 -2.242802e-01 8.110170e-02 7.676728e-01 -2.475659e-01 -6.502748e-02 2.266192e-01 9.976787e-02 1.035449e-01 -1.587272e-01 1.869276e-01 -1.328988e-01 -4.877530e-03 1.994657e-01 1.405684e-01 9.044495e-02 -8.745488e-02 4.518954e-02 -2.198285e-01 1.462044e-03 -8.995093e-03 -3.546977e-02
<VARIANCE> 39
 1.258332e+01 2.865402e+01 4.987402e+01 4.899453e+01 3.893932e+01 4.020841e+01 4.384345e+01 4.694349e+01 6.480134e+01 3.842394e+01 2.664257e+01 2.970615e+01 1.714643e+00 4.521666e-01 6.569320e-01 1.181821e+00 1.391129e+00 1.638105e+00 1.738487e+00 2.063524e+00 2.099599e+00 1.839323e+00 1.898228e+00 1.552352e+00 1.389944e+00 3.336369e-02 7.749431e-02 1.289764e-01 2.058100e-01 3.128722e-01 3.555717e-01 3.512844e-01 4.311001e-01 4.002661e-01 4.229765e-01 2.931465e-01 2.626492e-01 2.108645e-01 1.091809e-02
<GCONST> 9.511591e+01
<MIXTURE> 3 5.098692e-02
<MEAN> 39
 2.721086e+00 -5.886744e-01 1.327506e+01 -5.117783e+00 -1.182302e+01 -3.354919e+00 -3.034846e+00 -2.731084e+00 -6.038517e+00 4.316738e+00 1.167719e-01 1.603071e+00 -2.217950e+00 -1.467619e-01 2.332570e-01 1.752203e-01 -1.943598e-01 -8.170734e-02 3.899836e-01 1.342116e-01 -3.248525e-01 -5.312168e-02 -6.829230e-02 -1.209888e-01 -3.112072e-01 -6.131065e-02 5.203125e-02 -2.878294e-02 -8.740550e-02 1.104060e-01 1.156394e-01 -4.571931e-02 -3.566213e-02 2.206773e-02 1.046049e-01 -2.005415e-01 -3.160363e-02 -1.759797e-02 -2.516333e-02
<VARIANCE> 39
 8.463933e+00 1.552811e+01 1.458457e+01 4.201757e+01 1.535803e+01 2.396345e+01 2.670902e+01 3.147028e+01 3.231300e+01 6.475081e+01 2.061992e+01 1.158484e+01 2.432172e+00 1.859174e-01 3.704152e-01 5.057282e-01 6.081130e-01 5.287037e-01 1.082260e+00 9.434487e-01 9.798694e-01 1.074818e+00 8.180540e-01 7.190087e-01 6.111477e-01 1.744758e-02 3.094915e-02 6.998397e-02 7.687564e-02 1.190616e-01 1.344735e-01 1.500248e-01 1.615093e-01 1.561276e-01 1.821260e-01 1.986163e-01 1.352888e-01 1.159890e-01 4.436291e-03
<GCONST> 6.883145e+01
<MIXTURE> 4 2.516409e-01
<MEAN> 39
 4.353381e+00 -2.602383e+00 5.170430e+00 2.143998e-02 -6.189435e+00 -5.743486e+00 -5.537294e+00 -6.620342e-01 1.920812e+00 -1.582988e-01 -1.975702e-01 1.414557e+00 -2.204471e+00 1.407030e+00 -1.528436e+00 8.162007e-03 -1.741076e+00 -2.072602e+00 -9.548166e-01 -1.238617e+00 1.727486e+00 5.856685e-01 6.875853e-01 5.385103e-01 4.867109e-01 7.704347e-01 2.786399e-01 2.477123e-01 -2.910803e-01 2.169569e-01 2.038400e-01 3.339847e-01 2.274192e-01 -2.625177e-02 -2.423788e-01 6.810599e-03 -1.615058e-01 -3.434031e-01 -7.216918e-02
<VARIANCE> 39
 1.820275e+01 2.448231e+01 4.138655e+01 3.786961e+01 3.794353e+01 3.617047e+01 3.867487e+01 4.153299e+01 4.188884e+01 3.257857e+01 2.568423e+01 2.311498e+01 1.254638e+00 2.302651e+00 3.264998e+00 4.510498e+00 5.459675e+00 6.005376e+00 6.227943e+00 6.772558e+00 6.533386e+00 6.667426e+00 5.291157e+00 5.156741e+00 3.695059e+00 2.252952e-01 2.669925e-01 4.702252e-01 3.835604e-01 8.350437e-01 8.876841e-01 7.395365e-01 8.154522e-01 8.297342e-01 8.427380e-01 6.461555e-01 6.618015e-01 5.251730e-01 4.539494e-02
<GCONST> 1.224425e+02
<MIXTURE> 5 2.250177e-01
<MEAN> 39
 4.030358e+00 -2.371043e+00 7.346308e+00 -6.145186e-01 -7.981406e+00 -5.191362e+00 -5.219966e+00 -5.955923e-01 -2.186416e-01 -9.816212e-01 2.064002e-01 1.079944e+00 -2.274847e+00 1.223649e+00 -1.247063e+00 5.347796e-01 -1.634491e+00 -2.141320e+00 -7.555358e-01 -1.208286e+00 1.370512e+00 -1.561212e-01 4.951129e-01 3.875478e-01 7.538173e-02 6.599249e-01 1.674808e-01 1.902611e-01 -3.855378e-01 2.303580e-01 3.393990e-01 2.768915e-01 2.319018e-01 1.275071e-02 -8.550636e-02 5.470829e-02 -1.796343e-01 -3.171661e-01 -7.617785e-02
<VARIANCE> 39
 1.722085e+01 2.798278e+01 4.178273e+01 3.691833e+01 3.875446e+01 3.849952e+01 4.098218e+01 4.712166e+01 4.844967e+01 3.853243e+01 3.076040e+01 2.427354e+01 1.470208e+00 2.678824e+00 3.238868e+00 5.032734e+00 5.389772e+00 5.990105e+00 5.996925e+00 6.203401e+00 6.095764e+00 6.816739e+00 5.352750e+00 6.019322e+00 3.591379e+00 2.067401e-01 2.936046e-01 4.509429e-01 4.005154e-01 7.681025e-01 9.445488e-01 7.645687e-01 8.124680e-01 8.369997e-01 7.450265e-01 6.427543e-01 6.774701e-01 5.020427e-01 4.852710e-02
<GCONST> 1.236199e+02
<MIXTURE> 6 2.028415e-01
<MEAN> 39
 -6.914024e+00 2.591413e+00 2.937473e+00 -1.240406e-01 9.423111e-01 -2.666963e+00 2.344463e+00 -8.914477e-01 5.692377e-01 -2.688107e-01 1.042188e+00 2.182384e+00 -3.964190e+00 2.514865e+00 3.410600e-02 9.689752e-01 -6.724410e-01 -2.373962e+00 -2.323744e+00 -1.798914e+00 -2.835861e-01 -5.218676e-01 -3.901176e-01 -6.970142e-01 -5.888881e-02 8.273997e-01 1.023201e+00 5.102648e-02 1.482572e-01 5.881369e-01 -1.425599e-01 2.544828e-01 -5.996530e-01 -6.085692e-02 -1.437835e-01 -7.955009e-02 -2.860267e-01 -3.359169e-01 -1.975643e-01
<VARIANCE> 39
 2.797605e+01 3.915571e+01 4.216088e+01 3.855309e+01 3.431453e+01 4.188214e+01 3.686328e+01 3.794164e+01 3.673375e+01 2.573549e+01 2.898951e+01 2.097177e+01 1.975828e+00 4.700883e+00 4.209263e+00 5.428772e+00 6.268693e+00 6.894985e+00 5.401861e+00 5.343390e+00 4.995706e+00 5.204195e+00 3.978648e+00 3.910571e+00 2.776170e+00 5.968257e-01 6.336750e-01 9.649629e-01 8.925052e-01 9.524949e-01 8.626256e-01 9.364775e-01 9.234592e-01 8.734786e-01 8.854399e-01 7.021053e-01 7.511957e-01 5.719110e-01 5.990924e-02
<GCONST> 1.276216e+02
<TRANSP> 5
 0.000000e+00 1.000000e+00 0.000000e+00 0.000000e+00 0.000000e+00
 0.000000e+00 6.302493e-01 3.697507e-01 0.000000e+00 0.000000e+00
 0.000000e+00 0.000000e+00 2.538198e-01 7.461802e-01 0.000000e+00
 0.000000e+00 0.000000e+00 0.000000e+00 2.906213e-01 7.093787e-01
 0.000000e+00 0.000000e+00 0.000000e+00 0.000000e+00 0.000000e+00
<ENDHMM>
~h "f"
<BEGINHMM>
<NUMSTATES> 5
<STATE> 2
<NUMMIXES> 6
<MIXTURE> 1 1.674690e-01
<MEAN> 39
 7.768235e-01 3.774217e+00 -2.456739e-01 4.135265e+00 3.622480e+00 9.518268e-01 1.805299e+00 -1.539057e+00 1.568390e-01 -9.046236e-01 -1.427443e+00 -4.927431e-01 -4.803231e+00 -5.139135e+00 7.943514e-01 3.430766e-01 1.863716e+00 1.557352e+00 9.727597e-01 1.418898e+00 4.764243e-01 6.271958e-01 1.104124e-01 4.209725e-01 7.304940e-01 -1.103132e+00 -4.518207e-01 -9.237295e-01 -2.861442e-01 -6.424788e-01 -5.160325e-01 -9.596346e-02 -1.893041e-01 2.912943e-01 1.650612e-01 2.187192e-01 1.874100e-01 1.101746e-01 1.341585e-01
<VARIANCE> 39
 2.713624e+01 1.791432e+01 3.012145e+01 2.919953e+01 2.552719e+01 3.746608e+01 3.723962e+01 2.913234e+01 2.842473e+01 2.858881e+01 2.117608e+01 2.204360e+01 2.601357e+00 3.066279e+00 4.049769e+00 5.732793e+00 5.739584e+00 4.728511e+00 6.024086e+00 6.297145e+00 5.383143e+00 5.546484e+00 4.934915e+00 4.910771e+00 3.419112e+00 2.172759e-01 5.439969e-01 4.001875e-01 4.916645e-01 5.800225e-01 5.675340e-01 5.520262e-01 7.330543e-01 6.991985e-01 5.473614e-01 6.483306e-01 4.702519e-01 4.910125e-01 3.295394e-02
<GCONST> 1.192642e+02
<MIXTURE> 2 1.416501e-01
<MEAN> 39
 -1.344956e+01 -1.448345e+00 -3.794575e+00 3.157211e+00 2.171967e+00 8.614808e-01 2.223034e+00 1.441938e-02 1.548379e+00 8.926946e-01 -1.123820e-01 1.670492e+00 -5.876976e+00 -3.023662e-02 5.914063e-02 1.219096e-01 2.607936e-01 3.416512e-01 4.099847e-01 3.981429e-01 3.548629e-01 3.570237e-01 3.972594e-01 2.946885e-01 8.749120e-02 2.799702e-02 4.691095e-01 9.358130e-02 1.686092e-01 1.642030e-02 1.371683e-01 8.297045e-02 1.348449e-01 9.483080e-02 5.809151e-02 2.714945e-02 3.275654e-02 -3.822505e-02 3.150557e-02
<VARIANCE> 39
 1.235258e+01 1.528907e+01 1.412858e+01 1.627773e+01 1.643648e+01 2.095848e+01 2.033193e+01 2.081660e+01 2.072268e+01 1.751811e+01 2.037661e+01 1.451488e+01 1.597587e+00 6.086841e-01 6.074207e-01 7.222700e-01 9.823284e-01 1.090288e+00 1.161700e+00 1.288442e+00 1.396780e+00 1.305191e+00 1.278339e+00 1.350303e+00 1.266468e+00 4.617322e-02 1.946842e-01 1.439496e-01 1.777924e-01 2.202659e-01 2.379735e-01 2.842333e-01 2.758537e-01 3.036615e-01 3.088166e-01 2.722759e-01 2.834603e-01 2.528549e-01 1.106399e-02
<GCONST> 8.215394e+01
<MIXTURE> 3 1.481805e-01
<MEAN> 39
 -1.353623e+01 -2.482467e+00 -4.259088e+00 2.237902e+00 2.296085e+00 1.160321e+00 3.140767e+00 1.067172e+00 2.202208e+00 1.300959e+00 -1.317676e-01 1.708977e+00 -5.800995e+00 -4.452287e-01 -3.684211e-01 -4.762829e-01 -2.602375e-01 -3.957451e-01 -2.006372e-01 -2.300804e-01 -3.611374e-02 2.085906e-01 3.820983e-01 3.340167e-01 2.421593e-01 8.589115e-03 8.791087e-01 3.759858e-01 3.382487e-01 9.910239e-02 1.222798e-01 -1.867644e-02 -9.448117e-02 -1.407316e-01 -1.415242e-01 -5.885249e-02 -3.968406e-03 -9.008811e-02 7.938881e-02
<VARIANCE> 39
 1.357305e+01 1.261974e+01 1.585249e+01 1.587860e+01 1.654324e+01 1.915530e+01 2.101882e+01 2.178278e+01 2.137033e+01 1.972609e+01 2.028040e+01 1.539134e+01 1.573669e+00 1.714856e+00 9.553586e-01 1.149161e+00 1.363038e+00 1.223350e+00 1.260718e+00 1.435688e+00 1.488324e+00 1.588121e+00 1.458663e+00 1.438627e+00 1.331252e+00 1.058161e-01 4.322316e-01 2.117763e-01 2.731412e-01 3.173565e-01 3.249975e-01 3.559898e-01 4.083405e-01 4.030598e-01 3.918114e-01 3.550138e-01 3.434440e-01 3.118716e-01 2.075070e-02
<GCONST> 9.097428e+01
<MIXTURE> 4 2.247240e-01
<MEAN> 39
 -1.042433e+01 7.754019e-01 -8.575956e-01 5.144622e+00 4.673490e+00 2.591706e+00 4.013156e+00 7.227289e-01 1.909882e+00 5.110164e-01 5.046022e-02 1.154010e+00 -6.485379e+00 -3.853748e+00 -1.218467e+00 -8.157789e-01 -6.212795e-02 -6.048491e-02 2.864473e-01 5.096567e-01 7.396518e-01 7.582675e-01 4.930111e-01 5.478370e-01 6.520786e-01 -4.305452e-01 1.133129e+00 -2.709675e-01 -1.995720e-01 -5.922889e-01 -5.712224e-01 -3.457419e-01 -4.987569e-01 -1.925089e-01 -2.072356e-01 1.873836e-02 -2.235674e-02 -1.264233e-01 3.013028e-01
<VARIANCE> 39
 1.858125e+01 1.816038e+01 2.094678e+01 1.742141e+01 1.985893e+01 2.217086e+01 2.390561e+01 2.328901e+01 2.355229e+01 2.043159e+01 2.098145e+01 1.644280e+01 2.301919e+00 2.995785e+00 1.939053e+00 2.758385e+00 3.040677e+00 2.597367e+00 3.290411e+00 3.249945e+00 3.104957e+00 3.153947e+00 2.744257e+00 2.709335e+00 2.158907e+00 2.454504e-01 4.625972e-01 5.023102e-01 6.305202e-01 6.628103e-01 5.602124e-01 6.181003e-01 6.706854e-01 6.127057e-01 6.548820e-01 5.551576e-01 5.567114e-01 4.439540e-01 2.984623e-02
<GCONST> 1.093214e+02
<MIXTURE> 5 2.053531e-01
<MEAN> 39
 -1.350682e+01 -1.541309e+00 -3.954736e+00 2.841258e+00 2.218215e+00 1.132576e+00 2.426343e+00 2.927257e-01 1.437061e+00 1.201117e+00 -7.648392e-02 1.651751e+00 -5.891629e+00 -1.104373e-02 -3.860556e-02 -1.097084e-01 -3.128304e-02 -6.337575e-02 -7.720096e-02 -1.708699e-01 -1.963416e-01 -1.979854e-01 -1.454861e-01 -1.645951e-01 -1.596524e-01 1.670180e-03 3.394094e-01 7.070454e-03 9.068192e-02 -2.143029e-02 8.406130e-02 9.203145e-03 4.892305e-02 2.169096e-02 1.968136e-02 -3.447024e-02 -2.452784e-02 -5.294272e-02 1.971963e-02
<VARIANCE> 39
 1.120060e+01 1.350343e+01 1.369706e+01 1.565936e+01 1.630617e+01 1.931750e+01 1.946255e+01 1.951057e+01 2.177422e+01 1.799177e+01 1.887959e+01 1.489721e+01 1.794512e+00 4.359023e-01 5.042590e-01 6.340454e-01 8.905337e-01 9.307478e-01 1.143809e+00 1.195734e+00 1.320703e+00 1.284332e+00 1.338573e+00 1.307813e+00 1.194047e+00 4.046525e-02 1.451412e-01 1.223224e-01 1.519107e-01 2.065254e-01 2.173449e-01 2.526769e-01 2.524980e-01 2.866274e-01 2.795283e-01 2.738025e-01 2.770807e-01 2.466402e-01 7.677383e-03
<GCONST> 7.902065e+01
<MIXTURE> 6 1.125975e-01
<MEAN> 39
 -1.315893e+01 -2.248207e+00 -4.039577e+00 2.011791e+00 2.166986e+00 8.310031e-01 3.107587e+00 6.702917e-01 1.675079e+00 1.047008e+00 -5.933813e-01 1.537355e+00 -5.801702e+00 -6.639243e-01 -6.035778e-01 -9.415927e-01 -5.239210e-01 -8.412051e-01 -6.334124e-01 -7.767779e-01 -6.275272e-01 -3.693098e-01 -2.014904e-01 -1.897152e-01 -3.004044e-02 -6.973884e-02 8.648575e-01 2.945396e-01 2.394051e-01 7.663361e-03 7.260121e-02 -1.657386e-02 -1.364595e-01 -1.140379e-01 -1.026258e-01 -1.975827e-02 2.070328e-02 -6.147698e-02 1.065914e-01
<VARIANCE> 39
 1.251881e+01 1.210701e+01 1.556308e+01 1.554542e+01 1.580768e+01 1.916923e+01 2.037131e+01 1.989331e+01 2.204856e+01 2.029681e+01 1.884153e+01 1.616625e+01 1.622603e+00 1.970604e+00 1.009690e+00 1.231049e+00 1.437711e+00 1.241070e+00 1.312598e+00 1.518702e+00 1.440534e+00 1.598579e+00 1.424062e+00 1.379456e+00 1.369439e+00 1.329192e-01 5.491446e-01 2.306112e-01 3.151707e-01 3.508787e-01 3.222635e-01 3.681571e-01 4.160464e-01 3.993482e-01 4.008206e-01 3.884971e-01 3.495844e-01 3.465127e-01 2.005537e-02
<GCONST> 9.210770e+01
<STATE> 3
<NUMMIXES> 6
<MIXTURE> 1 1.126249e-01
<MEAN> 39
 -1.325200e+01 -1.767057e+00 -2.624316e+00 3.135245e+00 2.592985e+00 1.610124e+00 2.844382e+00 1.461461e+00 3.702306e+00 1.726006e+00 2.227598e+00 2.202317e+00 -5.786813e+00 2.081675e-01 1.618250e-01 5.130254e-01 3.695803e-01 7.918016e-01 8.232641e-01 8.439565e-01 6.436737e-01 7.376816e-01 6.255597e-01 5.654577e-01 2.885795e-01 -2.647565e-02 1.036053e+00 4.019330e-01 2.112823e-01 -1.159693e-02 8.283943e-03 1.061687e-02 -1.168617e-01 -2.618566e-01 -3.394815e-01 -2.277080e-01 -2.755169e-01 -1.821219e-01 4.392480e-02
<VARIANCE> 39
 1.362779e+01 1.650062e+01 2.508498e+01 2.536317e+01 2.108649e+01 2.440042e+01 2.238759e+01 2.462137e+01 2.197084e+01 2.186860e+01 2.463813e+01 1.674528e+01 2.063937e+00 2.912311e+00 1.609639e+00 2.001751e+00 1.986306e+00 1.708508e+00 1.850171e+00 1.760872e+00 1.934689e+00 1.851550e+00 1.866585e+00 1.785148e+00 1.430778e+00 2.611077e-01 4.712290e-01 2.662697e-01 4.053920e-01 5.357395e-01 4.454627e-01 5.199467e-01 5.019106e-01 4.905019e-01 4.279577e-01 4.447292e-01 4.662428e-01 3.651953e-01 5.213325e-02
<GCONST> 1.023120e+02
<MIXTURE> 2 2.579753e-01
<MEAN> 39
 -1.242100e+01 -2.613053e+00 -4.810187e+00 2.218465e+00 2.570231e+00 6.997815e-01 3.081040e+00 -3.754648e-02 1.569757e+00 1.022838e+00 -1.090000e+00 9.910434e-01 -5.727991e+00 2.847133e+00 5.546808e-01 6.295235e-01 3.595118e-02 2.179722e-01 -1.962285e-01 -2.475649e-01 -1.468764e-01 1.273015e-02 -1.701641e-02 -1.014251e-01 -3.168311e-01 2.774990e-01 1.683625e+00 1.755040e-01 1.563795e-01 -3.513347e-01 -3.772202e-01 -1.241280e-01 -6.367429e-01 -6.176737e-02 -8.528975e-02 -7.581700e-02 2.120565e-01 -2.417286e-02 2.850726e-01
<VARIANCE> 39
 1.199994e+01 1.340528e+01 1.479625e+01 1.576858e+01 1.809496e+01 1.957442e+01 2.270472e+01 2.152168e+01 1.928075e+01 2.093282e+01 1.449254e+01 1.573614e+01 1.141997e+00 2.161620e+00 1.149954e+00 1.371964e+00 1.447551e+00 1.518017e+00 1.677301e+00 1.830014e+00 1.688083e+00 1.564068e+00 1.550182e+00 1.344972e+00 1.253186e+00 1.347296e-01 1.706024e-01 3.461902e-01 5.279371e-01 4.801215e-01 5.373972e-01 6.540931e-01 7.250827e-01 5.560696e-01 4.827940e-01 5.166858e-01 3.508633e-01 4.307211e-01 1.846548e-02
<GCONST> 9.547137e+01
<MIXTURE> 3 1.947919e-01
<MEAN> 39
 -1.316256e+01 2.294873e+00 -5.826589e-01 5.818539e+00 3.914455e+00 3.460541e+00 3.289278e+00 7.334852e-01 2.855065e+00 1.109464e+00 2.515206e+00 2.319155e+00 -7.483011e+00 1.422351e-01 -2.268734e-01 -5.298868e-02 3.764108e-04 1.389535e-01 1.160163e-01 2.143277e-01 1.990983e-01 2.446645e-01 1.848580e-01 1.167760e-01 1.087546e-01 8.574894e-02 8.951273e-01 -1.560214e-01 -8.353500e-02 -3.197559e-01 -2.014760e-01 -2.665325e-01 -1.316480e-01 -8.246785e-02 -4.282297e-02 -6.391912e-02 -1.830014e-01 -1.778221e-01 2.363052e-01
<VARIANCE> 39
 1.604530e+01 1.556086e+01 1.798396e+01 1.660747e+01 1.768807e+01 1.611689e+01 1.897940e+01 1.940080e+01 2.274410e+01 1.667661e+01 2.096821e+01 1.268733e+01 2.810779e+00 1.243280e+00 1.199279e+00 9.322993e-01 1.097057e+00 1.272662e+00 1.209072e+00 1.122079e+00 1.428398e+00 1.526685e+00 1.367613e+00 1.233783e+00 1.253736e+00 2.053980e-01 5.236841e-01 2.641328e-01 3.085884e-01 3.194315e-01 3.406452e-01 3.593099e-01 3.297623e-01 4.030859e-01 4.082603e-01 3.558332e-01 3.207136e-01 2.812322e-01 4.576690e-02
<GCONST> 9.209508e+01
<MIXTURE> 4 1.071970e-01
<MEAN> 39
 -1.243494e+01 -2.248456e+00 -1.240307e+00 4.558084e+00 3.740719e+00 3.744118e+00 3.413651e+00 2.975250e+00 5.107684e+00 2.151255e+00 4.853862e+00 3.031076e+00 -5.738144e+00 2.861777e+00 6.423687e-01 4.796630e-01 -7.389549e-01 -5.530767e-01 -9.942953e-01 -6.944556e-01 -9.420221e-01 -8.057430e-01 -7.064801e-01 -9.067270e-01 -5.575389e-01 3.915662e-01 1.561234e+00 1.862933e-01 -8.997197e-02 -7.151382e-01 -5.748962e-01 -6.307281e-01 -5.684608e-01 -4.569699e-01 -6.891556e-01 -2.445967e-01 -6.583471e-01 -4.257593e-01 2.658664e-01
<VARIANCE> 39
 1.523016e+01 1.429365e+01 1.850076e+01 2.065939e+01 2.222813e+01 2.044268e+01 2.311529e+01 1.958377e+01 2.401802e+01 1.902218e+01 1.610358e+01 1.405243e+01 1.832884e+00 3.484769e+00 1.616018e+00 2.195521e+00 2.007762e+00 2.071501e+00 2.367263e+00 1.905942e+00 2.213313e+00 2.046996e+00 1.694356e+00 1.614069e+00 1.600409e+00 1.922684e-01 3.443371e-01 3.877251e-01 5.706879e-01 5.634611e-01 5.352511e-01 6.860595e-01 5.945410e-01 5.466778e-01 6.465382e-01 5.105576e-01 4.103430e-01 3.643886e-01 2.866943e-02
<GCONST> 1.023433e+02
<MIXTURE> 5 1.573000e-01
<MEAN> 39
 -1.308566e+01 2.215847e+00 -1.654326e+00 5.147487e+00 3.227942e+00 2.810681e+00 2.927155e+00 5.513911e-01 2.126768e+00 1.179968e+00 1.781310e+00 2.180815e+00 -7.612108e+00 1.310119e-01 -6.384504e-01 -4.333749e-01 -4.969349e-01 -4.744239e-01 -5.386817e-01 -5.265250e-01 -3.908282e-01 -3.209013e-01 -3.512821e-01 -2.766974e-01 -1.132616e-01 1.644234e-01 1.011206e+00 -1.543493e-01 -3.884298e-02 -3.096206e-01 -1.325105e-01 -2.036352e-01 -1.200223e-01 -1.263403e-01 -6.507574e-02 -8.222894e-02 -1.926277e-01 -2.027217e-01 2.775732e-01
<VARIANCE> 39
 1.679388e+01 1.624204e+01 1.939772e+01 1.583923e+01 1.801208e+01 1.738898e+01 2.191833e+01 1.872208e+01 2.199103e+01 1.716395e+01 2.003336e+01 1.271719e+01 2.702292e+00 1.542357e+00 1.429634e+00 9.927481e-01 1.139074e+00 1.385125e+00 1.261291e+00 1.444370e+00 1.529913e+00 1.527786e+00 1.347341e+00 1.340554e+00 1.308105e+00 2.672810e-01 6.297891e-01 3.211661e-01 3.264893e-01 3.408002e-01 3.635009e-01 4.209963e-01 4.044396e-01 4.015369e-01 4.023214e-01 3.438185e-01 3.398653e-01 3.035286e-01 5.776214e-02
<GCONST> 9.488408e+01
<MIXTURE> 6 1.701110e-01
<MEAN> 39
 -1.316926e+01 -2.999860e+00 -3.642394e+00 2.407397e+00 2.195530e+00 1.352889e+00 2.580828e+00 1.751946e+00 3.502374e+00 2.464857e+00 2.301682e+00 2.061045e+00 -5.690353e+00 3.608421e-01 -2.179442e-01 1.561133e-01 -9.371781e-02 2.568808e-01 2.395506e-01 2.525368e-01 9.868792e-02 8.259893e-02 -4.030927e-02 3.882200e-04 -1.137810e-01 6.937687e-02 1.003097e+00 5.126971e-01 3.457685e-01 6.349897e-02 5.334960e-02 3.412968e-02 -1.302014e-01 -2.931268e-01 -3.768018e-01 -3.347250e-01 -3.227959e-01 -2.000647e-01 2.610000e-02
<VARIANCE> 39
 1.644810e+01 1.873100e+01 2.548335e+01 2.604875e+01 2.518223e+01 2.503862e+01 2.267525e+01 2.291539e+01 2.365019e+01 2.287284e+01 2.313653e+01 1.597817e+01 2.012240e+00 2.334219e+00 1.607442e+00 1.758118e+00 2.177343e+00 1.918224e+00 2.034224e+00 1.689840e+00 2.078211e+00 2.009601e+00 2.069167e+00 1.759799e+00 1.295004e+00 2.436308e-01 4.403056e-01 3.222106e-01 4.265451e-01 5.515812e-01 5.064520e-01 5.084799e-01 4.807799e-01 4.802158e-01 4.339421e-01 4.757155e-01 4.398850e-01 3.241101e-01 4.202219e-02
<GCONST> 1.027118e+02
<STATE> 4
<NUMMIXES> 6
<MIXTURE> 1 1.295659e-01
<MEAN> 39
 -9.678046e+00 -2.641728e-01 -2.293535e+00 2.417531e+00 4.005592e+00 1.458556e+00 2.763881e+00 7.622073e-02 1.538957e+00 1.361464e+00 1.515281e-01 1.636871e+00 -6.228697e+00 2.366892e+00 9.949344e-01 5.114620e-01 -1.134570e-01 1.880458e-01 7.938010e-01 7.492439e-02 -2.403457e-01 6.935643e-02 1.139134e-01 4.500406e-01 1.008898e-01 4.869792e-02 7.060428e-01 5.359855e-02 -4.014103e-02 -3.445537e-01 -4.274255e-01 1.276206e-01 -8.434033e-02 -1.395962e-01 -6.663276e-02 -1.068546e-01 1.155664e-01 -4.674964e-02 2.039801e-01
<VARIANCE> 39
 2.033889e+01 2.227016e+01 2.876939e+01 3.141777e+01 2.909159e+01 2.604267e+01 2.596603e+01 2.396663e+01 2.682156e+01 2.389955e+01 2.306596e+01 1.412552e+01 2.952146e+00 6.826746e+00 1.941678e+00 2.287168e+00 3.509735e+00 2.895274e+00 2.768328e+00 2.880025e+00 2.694037e+00 2.167517e+00 1.979044e+00 2.070434e+00 1.498265e+00 7.174451e-01 6.863099e-01 4.943291e-01 4.657909e-01 7.819722e-01 7.542663e-01 6.810820e-01 6.548966e-01 6.474941e-01 6.171498e-01 6.041098e-01 4.808977e-01 3.697889e-01 7.284622e-02
<GCONST> 1.131010e+02
<MIXTURE> 2 1.623720e-01
<MEAN> 39
 5.195518e+00 2.359912e+00 -3.733012e+00 8.684151e-01 2.737098e+00 -7.254465e-01 -2.236723e+00 -2.577054e+00 1.424027e+00 9.816616e-01 -5.240824e-01 -3.067569e-01 -3.282941e+00 6.198606e+00 -6.827212e-01 -9.316326e-01 -1.890504e+00 -1.106663e+00 -1.152461e+00 -3.025626e+00 -3.749180e-01 -1.394430e-01 -3.647652e-01 2.460272e-01 -3.284373e-01 1.305220e+00 -9.024654e-01 -6.383467e-01 -6.351908e-02 -6.731659e-02 -2.249661e-01 -3.191233e-02 -1.424412e-02 3.652152e-01 1.031236e-01 -4.204394e-02 1.136543e-01 1.395404e-01 -5.047948e-02
<VARIANCE> 39
 3.282276e+01 1.652097e+01 3.334029e+01 2.498088e+01 1.844581e+01 2.407150e+01 4.300266e+01 2.201147e+01 1.955080e+01 1.793571e+01 1.527921e+01 1.770528e+01 1.312692e+00 1.654469e+00 3.169717e+00 5.818859e+00 5.221244e+00 5.593901e+00 6.803148e+00 8.512513e+00 6.342996e+00 5.640277e+00 5.097412e+00 4.768169e+00 4.498714e+00 1.367204e-01 4.375855e-01 2.577197e-01 3.664949e-01 3.875566e-01 3.617068e-01 4.032257e-01 6.178014e-01 4.912664e-01 3.739578e-01 4.002390e-01 3.229294e-01 3.281682e-01 1.944890e-02
<GCONST> 1.111769e+02
<MIXTURE> 3 2.697838e-01
<MEAN> 39
 -8.118402e+00 -9.067534e-01 -2.755941e+00 3.504661e+00 4.135841e+00 2.090947e+00 3.406365e+00 1.553267e-01 2.758727e+00 1.670221e+00 -8.131558e-02 8.414340e-01 -6.018064e+00 6.317251e+00 2.787504e-01 -2.177906e-01 -1.708684e+00 -9.421302e-01 -2.896197e-01 -1.527988e+00 -3.994589e-01 -3.697824e-01 -2.229900e-01 2.066410e-01 -4.158830e-01 1.096591e+00 9.314430e-01 -4.217382e-01 -2.989297e-01 -7.145605e-01 -5.798855e-01 -1.314442e-01 -7.016670e-01 6.625301e-02 -1.190133e-01 -1.185861e-01 1.805149e-01 -1.358692e-02 3.250138e-01
<VARIANCE> 39
 1.795271e+01 1.573152e+01 1.922721e+01 1.919204e+01 1.787474e+01 2.154192e+01 2.384469e+01 2.251762e+01 2.227238e+01 2.103250e+01 1.916243e+01 1.724141e+01 1.445398e+00 1.577693e+00 2.908545e+00 4.342227e+00 4.713136e+00 4.259861e+00 5.279212e+00 5.606956e+00 4.007571e+00 3.729601e+00 3.106620e+00 2.824544e+00 2.735627e+00 1.467195e-01 3.893078e-01 4.076164e-01 5.283951e-01 5.425270e-01 6.548795e-01 7.317559e-01 8.156780e-01 6.837095e-01 6.641201e-01 6.503102e-01 5.179206e-01 5.256889e-01 1.915620e-02
<GCONST> 1.106261e+02
<MIXTURE> 4 7.756565e-02
<MEAN> 39
 1.625365e+00 1.470630e+00 9.178100e+00 2.348665e+00 -5.531113e+00 -4.668313e+00 1.016067e+00 -2.084858e+00 -4.165917e+00 -1.479041e+00 3.162374e-01 1.029738e+00 -3.557868e+00 4.246834e+00 -1.175083e-01 3.114606e+00 -1.496150e+00 -3.723708e+00 -1.933970e+00 -2.291823e+00 -1.616279e+00 -2.335240e+00 -4.211913e-01 2.384757e-01 -6.046410e-01 1.009266e+00 -9.886794e-01 -2.797756e-01 -4.755716e-01 -3.025992e-01 9.845612e-02 4.255046e-01 -8.502973e-02 1.106748e-01 2.514540e-01 2.370745e-01 1.268349e-01 -6.813303e-03 -6.406558e-02
<VARIANCE> 39
 2.209715e+01 1.579260e+01 3.578098e+01 3.239750e+01 3.657479e+01 3.178934e+01 3.004889e+01 3.752522e+01 2.655161e+01 2.685163e+01 2.299522e+01 1.512783e+01 1.935948e+00 2.054308e+00 2.648194e+00 6.124267e+00 5.622119e+00 2.947947e+00 6.611488e+00 4.554605e+00 5.600700e+00 5.172551e+00 6.610593e+00 6.868166e+00 3.274413e+00 1.584196e-01 4.216526e-01 2.410620e-01 3.998488e-01 3.893999e-01 5.543250e-01 5.329399e-01 6.271579e-01 6.315325e-01 6.042471e-01 4.272367e-01 4.184311e-01 3.046497e-01 2.743970e-02
<GCONST> 1.146988e+02
<MIXTURE> 5 2.205367e-01
<MEAN> 39
 -7.994923e+00 -8.657032e-01 -7.007119e-01 3.789296e+00 2.885181e+00 1.744175e+00 3.568545e+00 1.123687e+00 3.211872e+00 6.895671e-01 9.371129e-01 1.497711e+00 -5.874811e+00 5.558482e+00 1.764115e-01 6.561409e-01 -1.545735e+00 -1.659235e+00 -1.706203e+00 -1.814580e+00 -7.521678e-01 -1.330876e+00 -6.791791e-01 -9.248517e-01 -9.453655e-01 9.882493e-01 7.838267e-01 -3.672840e-01 -1.170087e-01 -6.717632e-01 -5.802239e-01 -3.719569e-01 -6.123775e-01 6.491666e-02 -3.499270e-01 5.118052e-02 -2.244139e-02 -1.381063e-01 2.875210e-01
<VARIANCE> 39
 1.676776e+01 1.546011e+01 2.270029e+01 2.132442e+01 2.194055e+01 2.318103e+01 2.672781e+01 2.545032e+01 2.442358e+01 2.060710e+01 2.371411e+01 1.748905e+01 1.799811e+00 1.802192e+00 3.233735e+00 6.220217e+00 4.696019e+00 3.668647e+00 4.998933e+00 3.916686e+00 4.295773e+00 4.086246e+00 3.072205e+00 3.810433e+00 2.213142e+00 1.771031e-01 3.875262e-01 4.255678e-01 6.901968e-01 5.247773e-01 5.839367e-01 7.199041e-01 7.366079e-01 7.727933e-01 6.984148e-01 6.635383e-01 5.901904e-01 4.666778e-01 2.303427e-02
<GCONST> 1.127308e+02
<MIXTURE> 6 1.401713e-01
<MEAN> 39
 -9.719838e+00 -1.094646e+00 -2.475499e+00 1.402267e+00 3.106656e+00 7.348821e-01 2.453628e+00 -3.312619e-01 3.428422e-01 1.519011e+00 -3.709281e-01 1.141955e+00 -6.068701e+00 3.036267e+00 8.479199e-01 5.355013e-01 -5.805196e-01 -4.641863e-01 1.949010e-01 -2.987648e-01 -9.191287e-01 -4.880102e-01 -5.055764e-01 -1.952600e-01 -3.358394e-01 2.976165e-01 8.549631e-01 1.566510e-01 -1.233622e-02 -2.569141e-01 -3.928288e-01 1.677465e-01 -1.725177e-01 -1.462285e-01 2.321081e-02 -1.737223e-01 1.340042e-01 -3.973820e-02 1.924978e-01
<VARIANCE> 39
 1.898496e+01 2.296231e+01 2.724987e+01 2.964374e+01 2.676926e+01 2.525343e+01 2.845714e+01 2.559497e+01 2.666197e+01 2.038563e+01 2.076728e+01 1.577084e+01 2.884591e+00 5.843658e+00 2.426572e+00 2.848373e+00 3.042576e+00 2.541011e+00 2.514672e+00 2.969741e+00 2.839380e+00 2.431356e+00 2.021995e+00 1.952772e+00 1.337345e+00 4.984835e-01 6.261867e-01 5.137087e-01 4.923322e-01 8.378717e-01 6.734360e-01 6.437559e-01 6.993684e-01 6.771266e-01 6.070369e-01 5.555922e-01 4.550042e-01 3.642878e-01 7.177206e-02
<GCONST> 1.122380e+02
<TRANSP> 5
 0.000000e+00 1.000000e+00 0.000000e+00 0.000000e+00 0.000000e+00
 0.000000e+00 8.319926e-01 1.680074e-01 0.000000e+00 0.000000e+00
 0.000000e+00 0.000000e+00 6.225727e-01 3.774274e-01 0.000000e+00
 0.000000e+00 0.000000e+00 0.000000e+00 4.118602e-01 5.881398e-01
 0.000000e+00 0.000000e+00 0.000000e+00 0.000000e+00 0.000000e+00
<ENDHMM>
~h "g"
<BEGINHMM>
<NUMSTATES> 5
<STATE> 2
<NUMMIXES> 6
<MIXTURE> 1 2.081761e-01
<MEAN> 39
 -8.908437e+00 1.918783e-01 1.205444e+00 8.679243e+00 6.625901e+00 1.740407e+00 1.354588e+00 2.836464e+00 2.933825e+00 -1.258069e-01 1.334535e+00 2.159435e+00 -7.615745e+00 8.737494e-01 2.649272e-01 -2.291671e-01 5.976611e-01 3.364378e-01 1.225886e+00 1.487513e-01 -6.198295e-01 -2.809555e-01 1.677561e-01 -8.673990e-02 -1.996405e-01 -8.805386e-01 7.643065e-02 1.249922e-01 -1.779797e-01 -5.866148e-01 -5.115087e-01 -1.782568e-01 7.749143e-02 -1.886771e-01 -2.931983e-01 1.310792e-01 -1.119882e-01 -9.016237e-02 2.549305e-01
<VARIANCE> 39
 2.356455e+01 4.454836e+01 4.722551e+01 3.465299e+01 5.661303e+01 6.168880e+01 5.420861e+01 5.117231e+01 4.884908e+01 3.812271e+01 3.141263e+01 2.398214e+01 5.897568e+00 4.068300e+00 5.216652e+00 4.673259e+00 4.332788e+00 6.201962e+00 5.505678e+00 4.662717e+00 4.100252e+00 3.923054e+00 3.180905e+00 2.806875e+00 1.990092e+00 1.267566e+00 6.877854e-01 1.205274e+00 9.483813e-01 8.215862e-01 1.121546e+00 1.247926e+00 1.146166e+00 8.254634e-01 8.043204e-01 7.812045e-01 5.627168e-01 5.190808e-01 1.720149e-01
<GCONST> 1.314628e+02
<MIXTURE> 2 1.303221e-01
<MEAN> 39
 3.942400e+00 -2.368196e+00 1.243030e+01 4.719600e+00 -1.034548e+01 -8.061781e+00 -3.125740e+00 6.482931e+00 -1.251473e+01 -5.713165e+00 8.190764e+00 -2.320330e+00 -2.685141e+00 -6.210706e-01 2.951406e+00 1.270932e-01 2.292253e+00 1.638273e+00 2.029698e-01 2.020756e+00 -9.607705e-01 -1.866823e+00 -4.071855e-01 -4.375233e-01 -6.806293e-01 -1.078587e+00 -1.349345e-01 4.980431e-01 -7.928355e-01 6.271291e-02 7.975192e-01 4.123087e-01 2.038435e-01 -6.256935e-01 1.250341e+00 4.199421e-01 -1.002795e+00 1.862759e-01 -2.026106e-01
<VARIANCE> 39
 1.142638e+01 1.603100e+01 3.072933e+01 2.864942e+01 3.965870e+01 3.803752e+01 3.967469e+01 4.522946e+01 5.143112e+01 4.293331e+01 2.277056e+01 2.479751e+01 1.807000e+00 7.039582e-01 2.628758e+00 3.389539e+00 2.562724e+00 3.026463e+00 3.229275e+00 3.901372e+00 5.532911e+00 6.781906e+00 4.388102e+00 3.679131e+00 2.916208e+00 1.534291e-01 1.627124e-01 3.287225e-01 3.442415e-01 4.502009e-01 5.954184e-01 7.044680e-01 6.317689e-01 8.881416e-01 8.795405e-01 6.842343e-01 5.025485e-01 4.636319e-01 2.568166e-02
<GCONST> 1.132617e+02
<MIXTURE> 3 1.980945e-01
<MEAN> 39
 2.337119e+00 1.100597e+00 1.402217e+01 -4.391867e+00 -1.166833e+01 -5.302646e+00 3.594549e+00 -7.793077e+00 -8.515775e+00 9.223828e+00 -4.502429e+00 -1.417500e+00 -2.665438e+00 -2.054832e-01 2.913010e+00 4.162091e-01 3.013018e+00 1.327413e+00 8.671298e-01 -1.783990e-01 -2.046163e+00 -6.996530e-02 -7.067760e-01 -9.629619e-01 -7.816981e-01 -1.115505e+00 -1.229846e-01 2.272890e-01 -9.131396e-01 9.246491e-01 9.669720e-01 2.579194e-01 -4.482963e-01 7.042521e-01 6.731799e-01 -1.350095e+00 4.005520e-01 -1.055702e-01 -2.475121e-01
<VARIANCE> 39
 1.143618e+01 2.317441e+01 2.593511e+01 4.259348e+01 2.771981e+01 3.870306e+01 3.190219e+01 4.698259e+01 5.972253e+01 3.023271e+01 3.578640e+01 2.812472e+01 1.744145e+00 1.178645e+00 2.392829e+00 3.210276e+00 4.040601e+00 3.505670e+00 3.729853e+00 5.086369e+00 5.584130e+00 4.508098e+00 6.139650e+00 3.605338e+00 2.760029e+00 2.031173e-01 2.599382e-01 4.476156e-01 3.994300e-01 6.191450e-01 5.748562e-01 7.440846e-01 6.610637e-01 7.712059e-01 1.067684e+00 6.883296e-01 7.568070e-01 6.640347e-01 2.959680e-02
<GCONST> 1.174778e+02
<MIXTURE> 4 1.722293e-01
<MEAN> 39
 5.898911e+00 6.171737e+00 9.937449e-01 5.625998e+00 2.485708e-01 -3.119944e+00 -1.763177e+00 -4.508828e+00 -6.485957e+00 -1.471785e+00 -6.903347e-01 -2.469522e+00 -5.193857e+00 -1.574101e+00 1.874497e+00 8.741918e-01 2.156438e+00 1.520386e+00 1.762556e-01 2.054884e-01 -3.801523e-01 4.002944e-01 -1.069975e+00 -5.160326e-01 5.627557e-02 -9.832709e-01 -3.426077e-01 -7.701488e-01 -6.876594e-02 -4.619884e-01 2.518944e-02 1.920008e-01 -1.357909e-02 3.809146e-01 4.704646e-01 2.857670e-01 8.823076e-02 2.574872e-01 1.466654e-01
<VARIANCE> 39
 1.211432e+01 2.673216e+01 3.136880e+01 3.722812e+01 6.486369e+01 5.801304e+01 7.188860e+01 5.976078e+01 6.103821e+01 5.266445e+01 3.983495e+01 3.478088e+01 1.716833e+00 1.823168e+00 6.802390e+00 4.371327e+00 6.913450e+00 7.569870e+00 8.231533e+00 9.344409e+00 1.076376e+01 6.159782e+00 5.410861e+00 5.594644e+00 3.937172e+00 3.952143e-01 2.623987e-01 6.493324e-01 5.569857e-01 6.764506e-01 9.879364e-01 8.320230e-01 1.184300e+00 9.169290e-01 9.684987e-01 9.145024e-01 7.437119e-01 6.864667e-01 3.448146e-02
<GCONST> 1.302880e+02
<MIXTURE> 5 1.657998e-01
<MEAN> 39
 5.590450e+00 5.621302e+00 1.231813e+00 5.689567e+00 1.183162e+00 -3.948572e+00 -3.706780e+00 -4.441244e+00 -5.458832e+00 -2.467855e-01 -9.180311e-01 -1.981708e+00 -5.176776e+00 -1.890062e+00 2.377870e+00 1.082431e+00 2.616036e+00 1.505698e+00 6.792215e-01 7.454753e-02 -8.335896e-01 2.318916e-01 -1.407404e+00 -4.447709e-01 -3.833946e-01 -1.204525e+00 -4.420822e-01 -7.951483e-01 -2.033579e-01 -5.128670e-01 7.127913e-02 3.445853e-01 3.074272e-01 4.727905e-01 4.831342e-01 1.373552e-01 3.314075e-02 2.145242e-01 1.158743e-01
<VARIANCE> 39
 1.476837e+01 3.039447e+01 3.315755e+01 3.552037e+01 6.174827e+01 6.201314e+01 6.550172e+01 6.340355e+01 5.758040e+01 6.065177e+01 3.940332e+01 3.392826e+01 1.927685e+00 2.260439e+00 5.813956e+00 4.947061e+00 6.490963e+00 8.236849e+00 9.007680e+00 8.932848e+00 1.082627e+01 6.370984e+00 5.557206e+00 5.270045e+00 3.862525e+00 4.002639e-01 2.843626e-01 7.186118e-01 5.270165e-01 6.934043e-01 9.864237e-01 9.873024e-01 1.145449e+00 1.059825e+00 9.762104e-01 1.125444e+00 7.110543e-01 6.993834e-01 3.854222e-02
<GCONST> 1.317505e+02
<MIXTURE> 6 1.253785e-01
<MEAN> 39
 4.208440e+00 -2.971741e+00 1.069544e+01 5.482143e+00 -9.453682e+00 -9.586568e+00 -4.191108e+00 7.833134e+00 -9.934932e+00 -6.727097e+00 7.136694e+00 -5.900969e-01 -2.848923e+00 -9.657679e-01 3.205446e+00 5.387307e-01 2.085026e+00 1.686522e+00 1.693658e-02 1.653559e+00 -1.284171e+00 -2.116048e+00 -5.230294e-01 -4.021699e-01 -3.334260e-01 -1.117755e+00 -2.741320e-01 5.704002e-01 -8.227472e-01 -5.717696e-02 9.806206e-01 7.204470e-01 2.806635e-01 -9.183677e-01 1.062142e+00 6.312260e-01 -1.071415e+00 -8.589269e-02 -2.234239e-01
<VARIANCE> 39
 1.357752e+01 2.127325e+01 2.827638e+01 3.367488e+01 4.275196e+01 3.443930e+01 4.556748e+01 4.614838e+01 5.005891e+01 5.164880e+01 2.614566e+01 2.711023e+01 2.026277e+00 9.980055e-01 2.526509e+00 3.232162e+00 2.909461e+00 5.016539e+00 4.143004e+00 4.537073e+00 5.501952e+00 6.277445e+00 5.376795e+00 5.181140e+00 3.520602e+00 1.885197e-01 2.010842e-01 4.311119e-01 3.585302e-01 4.944816e-01 6.464621e-01 6.731138e-01 8.369064e-01 9.151474e-01 8.987665e-01 9.651051e-01 5.632003e-01 5.724539e-01 2.930111e-02
<GCONST> 1.183681e+02
<STATE> 3
<NUMMIXES> 6
<MIXTURE> 1 3.152787e-01
<MEAN> 39
 9.994124e-01 8.136260e+00 4.648801e+00 9.335176e+00 3.178483e+00 -5.342983e+00 -2.683036e+00 -3.813981e+00 -5.747200e+00 -4.555567e+00 -2.176128e+00 -1.584446e+00 -6.628314e+00 -1.441553e+00 -1.420999e-01 -1.661053e-01 6.966074e-01 1.688995e+00 4.717250e-01 1.199358e-01 3.524679e-01 8.859468e-01 1.941949e-02 -4.984718e-01 4.676346e-01 -4.127413e-01 2.081075e-01 -1.095250e+00 -3.692458e-01 -9.592211e-01 -6.230351e-01 3.625239e-01 3.621740e-02 3.514795e-01 2.298540e-01 6.932534e-01 3.686314e-01 1.258917e-01 3.680298e-01
<VARIANCE> 39
 2.893532e+01 3.407042e+01 3.599820e+01 4.870663e+01 4.317533e+01 5.098000e+01 5.694766e+01 5.953833e+01 3.984927e+01 3.982848e+01 3.656642e+01 2.844378e+01 2.131037e+00 2.920936e+00 7.485399e+00 5.713911e+00 5.116602e+00 7.147041e+00 7.050406e+00 7.595631e+00 8.022842e+00 5.913054e+00 5.155728e+00 4.876307e+00 3.526953e+00 4.398921e-01 4.941394e-01 1.002061e+00 7.712665e-01 1.214899e+00 1.044033e+00 1.129238e+00 1.198918e+00 1.161684e+00 9.730315e-01 9.326547e-01 8.509378e-01 6.729137e-01 5.006097e-02
<GCONST> 1.329484e+02
<MIXTURE> 2 9.834153e-02
<MEAN> 39
 3.171150e+00 6.703530e+00 1.066054e+01 1.008490e+01 -7.121249e+00 -6.009912e+00 5.183748e+00 1.281460e-01 -1.384092e+01 -3.338912e+00 4.029637e+00 -4.573789e+00 -5.794872e+00 -4.555566e-01 2.591897e+00 -8.365837e-01 1.533000e+00 2.073389e+00 6.624280e-01 6.646982e-01 -1.457536e+00 1.192015e+00 -5.063591e-02 -1.145649e+00 1.054024e-01 -9.454080e-01 -1.739260e-01 -7.715903e-01 -4.329058e-01 -6.756653e-01 4.202112e-01 1.685904e-01 -8.712646e-01 5.337013e-02 1.083482e+00 2.220004e-01 -3.572363e-01 4.878982e-01 2.080739e-01
<VARIANCE> 39
 9.187487e+00 1.931725e+01 2.725966e+01 2.401671e+01 2.503958e+01 2.828508e+01 2.993316e+01 4.210034e+01 3.100560e+01 4.431747e+01 2.501686e+01 2.382196e+01 1.924422e+00 1.434351e+00 3.435857e+00 2.557032e+00 3.357738e+00 4.964313e+00 4.633123e+00 5.022896e+00 5.269540e+00 5.255421e+00 3.409194e+00 3.181836e+00 2.774080e+00 3.072044e-01 1.778609e-01 5.595046e-01 4.913886e-01 4.155678e-01 5.782119e-01 5.487608e-01 5.237674e-01 6.664579e-01 7.438050e-01 6.685408e-01 5.095167e-01 4.128396e-01 4.057540e-02
<GCONST> 1.137935e+02
<MIXTURE> 3 2.059041e-01
<MEAN> 39
 2.472844e+00 1.113439e+01 1.016997e+01 6.980516e+00 -5.008684e+00 -2.102361e+00 -1.149664e+00 -9.819390e+00 -4.708530e+00 4.245837e-01 -4.784595e+00 -4.711110e+00 -6.636461e+00 -1.139953e+00 1.903934e+00 -7.665712e-01 2.968964e+00 2.356976e+00 1.233549e+00 -8.104517e-01 -1.532560e-01 9.618687e-01 -2.382933e+00 3.821651e-01 -5.493187e-01 -1.142579e+00 -3.277638e-01 -1.654854e+00 -8.103328e-01 -8.254132e-01 4.236171e-01 -1.439867e-01 1.927141e-01 1.048982e+00 2.881697e-01 2.880340e-01 4.633414e-01 5.980904e-01 3.410543e-01
<VARIANCE> 39
 1.366934e+01 1.558839e+01 2.854539e+01 3.639365e+01 3.385837e+01 3.249711e+01 3.436516e+01 3.578722e+01 3.657447e+01 4.041818e+01 3.830750e+01 3.047281e+01 2.236737e+00 2.516971e+00 3.541513e+00 4.151951e+00 5.164211e+00 5.027201e+00 5.461946e+00 4.641562e+00 6.477455e+00 4.857938e+00 5.514354e+00 4.103099e+00 4.039423e+00 3.230040e-01 2.558461e-01 7.113003e-01 5.799841e-01 8.958891e-01 6.474504e-01 7.473873e-01 8.250295e-01 9.040510e-01 8.948352e-01 1.004733e+00 7.053126e-01 6.811137e-01 5.908410e-02
<GCONST> 1.231576e+02
<MIXTURE> 4 1.089608e-01
<MEAN> 39
 -8.188258e+00 5.823106e+00 2.069593e+00 1.053790e+01 7.000608e+00 4.415233e+00 2.238980e+00 1.790308e-01 1.409143e+00 7.519519e-01 1.338637e+00 2.474513e-01 -9.877872e+00 -3.627810e-01 -5.947121e-01 -5.531154e-01 3.335163e-02 4.767069e-02 7.332483e-01 8.769799e-01 3.302795e-01 3.045175e-01 3.667550e-01 2.625328e-01 4.273086e-01 -2.090274e-01 5.719106e-01 -8.762166e-01 -3.146037e-01 -8.344011e-01 -5.601908e-01 -7.501110e-01 -3.523920e-01 1.181108e-01 -7.757110e-02 1.277084e-01 -7.491787e-02 1.374639e-01 6.321741e-01
<VARIANCE> 39
 1.859031e+01 2.126611e+01 2.070129e+01 2.198519e+01 2.078528e+01 3.459185e+01 2.723730e+01 3.499515e+01 3.101671e+01 2.502385e+01 2.309481e+01 1.543882e+01 1.094663e+00 4.435345e+00 5.195046e+00 4.133691e+00 3.399782e+00 5.724018e+00 5.975533e+00 4.631618e+00 4.823556e+00 4.193975e+00 3.683836e+00 2.832728e+00 2.086494e+00 9.225805e-01 6.825016e-01 9.512762e-01 7.664279e-01 7.316986e-01 7.069709e-01 9.182802e-01 7.240542e-01 1.011216e+00 6.259105e-01 6.360942e-01 4.715131e-01 4.082376e-01 1.174479e-01
<GCONST> 1.202247e+02
<MIXTURE> 5 1.705796e-01
<MEAN> 39
 -9.700715e+00 4.494451e+00 4.172105e-01 9.071353e+00 5.844008e+00 4.968859e+00 3.854812e+00 8.312859e-01 2.860917e+00 1.499684e+00 1.487444e+00 1.370487e+00 -1.024631e+01 1.007308e+00 -1.471756e+00 -8.968831e-01 -1.036045e+00 -7.701662e-01 -3.012360e-01 -2.957931e-01 -5.004718e-01 -6.702930e-01 3.295514e-01 -4.227546e-01 -2.307105e-01 4.797992e-01 4.289398e-01 -6.837772e-01 -4.852608e-03 -6.750001e-01 -4.174962e-01 -8.378562e-01 -5.734041e-01 5.236399e-02 -2.766183e-01 -1.525375e-02 -8.078772e-02 4.504733e-03 6.908534e-01
<VARIANCE> 39
 8.969313e+00 1.408344e+01 1.754165e+01 1.629865e+01 1.843808e+01 2.434621e+01 2.145591e+01 2.435981e+01 2.181532e+01 2.194765e+01 2.084666e+01 1.390324e+01 4.580119e-01 2.637316e+00 6.001147e+00 4.208518e+00 4.252914e+00 5.285457e+00 5.534775e+00 4.461112e+00 3.667723e+00 3.611520e+00 3.510013e+00 2.413834e+00 2.129786e+00 1.265615e+00 4.877321e-01 7.200258e-01 6.498463e-01 5.147706e-01 7.182490e-01 7.555956e-01 6.582926e-01 6.325763e-01 5.977013e-01 5.561104e-01 4.105991e-01 3.304737e-01 1.135975e-01
<GCONST> 1.129244e+02
<MIXTURE> 6 1.009355e-01
<MEAN> 39
 2.469417e+00 5.890049e+00 1.103972e+01 9.893096e+00 -6.152683e+00 -7.410322e+00 3.740252e+00 2.574071e+00 -1.363714e+01 -4.671255e+00 4.446003e+00 -2.899907e+00 -5.782928e+00 -9.903773e-01 2.871983e+00 -1.040680e+00 1.422550e+00 2.377047e+00 1.287294e+00 1.053249e+00 -2.114004e+00 1.192934e+00 2.588363e-01 -1.718032e+00 -2.495161e-01 -1.118823e+00 -1.904042e-01 -9.777210e-01 -7.008498e-01 -8.290831e-01 4.223492e-01 3.724829e-01 -8.130432e-01 -8.948597e-02 1.255533e+00 4.728041e-01 -4.965980e-01 3.558858e-01 2.596320e-01
<VARIANCE> 39
 1.219640e+01 1.775930e+01 2.387575e+01 2.030213e+01 2.909320e+01 3.378688e+01 3.100796e+01 5.380085e+01 2.984466e+01 5.812479e+01 2.641832e+01 2.583698e+01 2.008763e+00 1.484833e+00 3.794848e+00 4.142076e+00 3.710168e+00 6.130934e+00 5.176564e+00 4.886622e+00 5.860527e+00 6.168045e+00 4.852694e+00 3.830249e+00 3.104666e+00 2.774138e-01 2.224654e-01 5.989355e-01 5.060198e-01 4.404320e-01 6.403716e-01 6.820188e-01 5.653355e-01 9.230807e-01 7.587280e-01 1.074331e+00 6.226770e-01 4.880627e-01 4.924414e-02
<GCONST> 1.186949e+02
<STATE> 4
<NUMMIXES> 6
<MIXTURE> 1 1.019727e-01
<MEAN> 39
 -4.863083e+00 -7.218298e-01 -7.993417e-01 9.058028e+00 7.413632e+00 1.595337e+00 1.098075e+00 -3.182394e-01 4.719622e-01 1.360427e-01 -9.818684e-02 7.261959e-02 -6.907275e+00 -6.721693e-01 -3.757196e+00 -2.502024e+00 -2.391041e+00 5.629861e-01 -1.926400e-01 2.706451e-01 1.635768e+00 1.505280e+00 1.827226e+00 6.332383e-01 1.281540e+00 9.953531e-01 8.411181e-01 5.496188e-01 6.006405e-01 -8.013036e-01 -1.095765e+00 -7.551270e-01 -4.146969e-01 -2.600129e-01 -4.887002e-01 8.944775e-02 -4.038549e-02 -6.434318e-02 3.837291e-01
<VARIANCE> 39
 3.533706e+01 4.336062e+01 5.401340e+01 4.703534e+01 4.335421e+01 4.383556e+01 4.303711e+01 4.706391e+01 4.691224e+01 3.167677e+01 3.039751e+01 1.828114e+01 5.390732e+00 4.726146e+00 5.209692e+00 6.194176e+00 5.201848e+00 5.665849e+00 6.441008e+00 6.709683e+00 6.156305e+00 5.076787e+00 4.294990e+00 3.992445e+00 3.282954e+00 3.840095e-01 8.829555e-01 1.031979e+00 9.912247e-01 1.101867e+00 1.032509e+00 9.438713e-01 1.089276e+00 1.192452e+00 9.598464e-01 9.693364e-01 1.029603e+00 5.291308e-01 7.053569e-02
<GCONST> 1.329164e+02
<MIXTURE> 2 1.711630e-01
<MEAN> 39
 -1.167903e+00 1.210041e+01 7.314731e+00 1.230817e+01 4.083938e+00 9.776597e-01 -2.581856e+00 -6.916221e+00 -3.835434e+00 -4.120280e+00 -2.272336e+00 -2.705671e+00 -8.769454e+00 -1.599086e+00 -3.516676e+00 -2.348324e+00 -1.053499e+00 1.475849e+00 1.053122e+00 8.069471e-01 1.730520e+00 1.465588e+00 7.849676e-01 5.705564e-01 9.376174e-01 2.346455e-01 3.153767e-01 -1.606180e+00 -6.037843e-01 -1.439538e+00 -6.475831e-01 -7.070413e-01 1.082208e-01 6.800683e-01 5.304896e-02 8.311575e-01 2.828491e-01 3.607450e-01 6.400312e-01
<VARIANCE> 39
 1.305235e+01 1.143503e+01 1.616781e+01 1.755685e+01 2.374148e+01 2.451645e+01 2.913921e+01 2.563520e+01 2.116046e+01 2.289898e+01 1.867450e+01 1.878368e+01 1.518430e+00 2.204867e+00 6.702366e+00 4.940024e+00 6.681568e+00 5.173509e+00 4.930666e+00 4.779228e+00 4.587735e+00 4.590661e+00 4.878547e+00 3.555782e+00 2.765986e+00 5.516175e-01 5.470611e-01 8.426143e-01 9.485477e-01 8.342819e-01 8.613139e-01 7.552294e-01 9.777465e-01 9.778886e-01 7.547786e-01 8.034143e-01 6.256639e-01 5.619897e-01 5.284819e-02
<GCONST> 1.191224e+02
<MIXTURE> 3 1.326455e-01
<MEAN> 39
 1.627253e+00 1.196891e+01 8.741621e+00 1.127190e+01 -6.325257e-01 -4.386852e+00 1.729012e+00 -3.269561e+00 -8.207181e+00 -3.719794e+00 -6.351025e-01 -2.246647e+00 -7.574857e+00 -1.098866e+00 -9.978264e-01 -1.326704e+00 -5.569925e-01 1.824542e+00 1.296872e+00 -3.468291e-01 -5.826393e-01 1.294251e+00 1.173404e+00 -1.053098e+00 4.530969e-01 -7.276978e-02 -6.054649e-02 -1.772188e+00 -3.621243e-01 -9.733805e-01 -2.790581e-01 -1.318542e-01 -5.198463e-01 6.855810e-01 2.052372e-01 3.537626e-01 3.466749e-01 2.702383e-01 5.032904e-01
<VARIANCE> 39
 1.030924e+01 1.287657e+01 2.613547e+01 2.311518e+01 3.706513e+01 2.843122e+01 3.099360e+01 3.917315e+01 2.901129e+01 2.964280e+01 2.857130e+01 2.340920e+01 1.609156e+00 1.643792e+00 6.688406e+00 4.159842e+00 3.688043e+00 5.176619e+00 3.955911e+00 3.331185e+00 4.508076e+00 4.294341e+00 4.721466e+00 3.524862e+00 2.592116e+00 3.616833e-01 4.224666e-01 8.546524e-01 6.397668e-01 5.611910e-01 9.201201e-01 6.827114e-01 9.625727e-01 9.375715e-01 8.193945e-01 6.813870e-01 6.731547e-01 5.208386e-01 4.374581e-02
<GCONST> 1.184599e+02
<MIXTURE> 4 2.466664e-01
<MEAN> 39
 -2.281916e+00 -4.975257e+00 -4.186630e+00 4.995616e-01 4.992938e+00 -1.200213e+00 -1.531551e+00 2.534281e-01 -1.723153e+00 4.308387e+00 -5.603259e-01 1.612405e+00 -4.212200e+00 1.245195e+00 -4.114820e-01 3.523921e-01 -1.363238e+00 -1.383517e+00 -1.240058e+00 -1.090443e+00 2.684088e-01 1.592207e-01 3.875028e-01 8.277799e-01 5.839438e-01 9.760699e-01 6.490711e-01 1.179703e+00 9.921845e-01 6.045649e-01 -7.379593e-01 -2.223773e-01 -2.158690e-01 -1.923156e-01 -1.772027e-01 -7.781010e-01 2.344881e-01 -2.685466e-01 -8.269522e-02
<VARIANCE> 39
 2.918590e+01 4.316093e+01 9.228896e+01 5.065295e+01 6.516979e+01 6.578531e+01 5.991356e+01 5.383828e+01 5.759980e+01 4.185249e+01 3.188514e+01 2.376085e+01 1.476384e+00 4.955369e+00 8.558744e+00 7.029559e+00 6.994282e+00 6.031815e+00 5.000026e+00 5.121769e+00 5.030325e+00 4.938122e+00 5.423716e+00 3.563282e+00 2.581726e+00 4.066251e-01 5.766225e-01 1.098229e+00 1.165666e+00 1.045462e+00 1.158527e+00 1.258418e+00 1.216985e+00 1.208785e+00 1.207891e+00 1.072062e+00 8.988674e-01 6.535309e-01 5.261604e-02
<GCONST> 1.347063e+02
<MIXTURE> 5 2.370554e-01
<MEAN> 39
 -3.790889e+00 -6.149038e+00 -2.740185e+00 9.291772e-01 3.771707e+00 -1.483550e+00 -2.022881e-01 1.213512e-01 6.430886e-01 2.842479e+00 -2.806281e-01 1.852407e+00 -4.284101e+00 1.548056e+00 -4.388815e-01 5.020103e-01 -2.162825e+00 -1.918730e+00 -1.760371e+00 -1.325773e+00 -9.140353e-02 -6.208149e-01 4.745622e-01 -2.451066e-02 -9.112395e-04 1.186047e+00 6.937514e-01 1.346773e+00 9.586127e-01 4.444420e-01 -6.771167e-01 -1.554039e-01 -3.179782e-01 -2.075847e-01 -4.777160e-01 -3.927932e-01 1.112505e-01 -3.851741e-01 -1.166089e-01
<VARIANCE> 39
 2.902880e+01 4.107999e+01 7.598106e+01 4.817004e+01 6.187861e+01 6.189936e+01 5.537426e+01 5.532600e+01 5.728235e+01 4.112133e+01 3.222643e+01 2.562183e+01 1.389162e+00 4.255370e+00 7.469597e+00 5.817747e+00 5.602803e+00 5.428178e+00 4.670061e+00 4.549202e+00 4.989173e+00 4.440878e+00 4.224303e+00 3.800798e+00 2.621645e+00 4.019942e-01 5.914096e-01 9.862615e-01 9.076872e-01 1.030875e+00 1.106588e+00 1.232459e+00 1.128002e+00 1.277432e+00 1.190892e+00 1.082073e+00 9.416959e-01 7.182262e-01 5.279054e-02
<GCONST> 1.326625e+02
<MIXTURE> 6 1.104862e-01
<MEAN> 39
 -4.937959e+00 4.747294e-01 3.728440e-01 8.817081e+00 7.285451e+00 2.043406e+00 1.350300e+00 -5.226133e-01 -2.410302e-01 1.156509e-01 -1.280947e+00 -2.721623e-01 -7.178957e+00 -9.752437e-02 -3.815763e+00 -2.172902e+00 -2.771748e+00 -5.895717e-02 -5.173699e-01 -5.203731e-01 9.344869e-01 7.370156e-01 1.502585e+00 -8.247644e-04 6.804126e-01 1.178454e+00 8.037400e-01 3.650507e-01 5.623286e-01 -6.674623e-01 -1.120407e+00 -7.874180e-01 -4.647595e-01 -1.376476e-01 -5.091985e-01 2.246899e-02 2.457054e-01 -6.877737e-02 3.876072e-01
<VARIANCE> 39
 3.233612e+01 4.496248e+01 4.940682e+01 3.971021e+01 4.694385e+01 4.346465e+01 4.191299e+01 3.714225e+01 4.148684e+01 2.784455e+01 3.327377e+01 1.716893e+01 5.068359e+00 4.501475e+00 5.428257e+00 6.847482e+00 4.513320e+00 6.389424e+00 5.088638e+00 5.727000e+00 6.177516e+00 5.163988e+00 3.938405e+00 3.857220e+00 2.736166e+00 3.381689e-01 6.595050e-01 9.026802e-01 7.381705e-01 8.615679e-01 1.043214e+00 8.936523e-01 9.530631e-01 9.996378e-01 7.954596e-01 8.180341e-01 1.018804e+00 4.476392e-01 5.453907e-02
<GCONST> 1.292811e+02
<TRANSP> 5
 0.000000e+00 1.000000e+00 0.000000e+00 0.000000e+00 0.000000e+00
 0.000000e+00 3.567021e-01 6.432979e-01 0.000000e+00 0.000000e+00
 0.000000e+00 0.000000e+00 5.008396e-01 4.991604e-01 0.000000e+00
 0.000000e+00 0.000000e+00 0.000000e+00 7.526360e-01 2.473640e-01
 0.000000e+00 0.000000e+00 0.000000e+00 0.000000e+00 0.000000e+00
<ENDHMM>
~h "k"
<BEGINHMM>
<NUMSTATES> 5
<STATE> 2
<NUMMIXES> 6
<MIXTURE> 1 1.937986e-01
<MEAN> 39
 2.166324e+00 2.928620e+00 3.947098e+00 5.987774e+00 -1.419411e+00 -6.944242e+00 1.755554e-01 2.231456e+00 -5.721675e+00 -2.209286e-01 1.101702e+00 1.973805e-01 -5.073006e+00 -3.579344e+00 2.110727e+00 -2.212819e-01 2.621085e+00 2.923648e+00 2.378881e+00 9.063602e-01 -9.390314e-01 1.087335e+00 2.973656e-01 -7.012580e-02 4.326661e-01 -1.894602e+00 -4.650775e-01 -8.808347e-01 -6.497429e-01 -5.705384e-01 2.471520e-01 8.782237e-01 1.242583e-01 7.371133e-02 9.092131e-01 2.168669e-01 -7.426780e-02 -4.704474e-03 1.995466e-02
<VARIANCE> 39
 2.212824e+01 3.249810e+01 5.622686e+01 3.645586e+01 7.249834e+01 6.013873e+01 6.717741e+01 8.634082e+01 6.002506e+01 5.185636e+01 4.569846e+01 3.300196e+01 3.496528e+00 2.578868e+00 4.206598e+00 6.239219e+00 5.033552e+00 6.178502e+00 7.063423e+00 7.629370e+00 7.655327e+00 7.228918e+00 6.132831e+00 6.666838e+00 3.610901e+00 2.796821e-01 4.018647e-01 7.591951e-01 6.712834e-01 7.141631e-01 1.062695e+00 1.005953e+00 1.055323e+00 1.476045e+00 1.080777e+00 1.023474e+00 9.503431e-01 7.244967e-01 9.189124e-02
<GCONST> 1.348415e+02
<MIXTURE> 2 1.261346e-01
<MEAN> 39
 -7.067664e+00 4.799841e+00 1.799166e+00 1.027882e+01 5.828720e+00 2.267156e+00 1.370964e+00 -2.036870e-01 7.557546e-01 9.481660e-01 1.234860e+00 3.243740e-01 -9.480408e+00 -2.879007e+00 -2.595009e-01 -6.897359e-01 1.035843e+00 1.548314e+00 2.574219e+00 1.186983e+00 4.626064e-01 1.940442e+00 4.559736e-01 7.205526e-01 5.175319e-01 -1.139725e+00 8.615363e-01 -1.109541e+00 -4.181218e-01 -1.264215e+00 -7.173486e-01 -6.553891e-01 -1.054888e-01 2.202101e-01 -2.226850e-01 1.639681e-01 -1.690663e-01 3.240626e-02 7.326528e-01
<VARIANCE> 39
 1.795709e+01 2.108193e+01 2.794769e+01 2.400277e+01 3.294346e+01 3.363561e+01 3.820362e+01 4.597507e+01 4.283767e+01 3.402138e+01 3.012743e+01 2.182399e+01 1.453415e+00 3.513054e+00 4.442685e+00 5.506895e+00 4.516194e+00 6.676298e+00 6.006174e+00 6.084409e+00 6.962329e+00 5.237515e+00 4.610367e+00 4.879359e+00 3.000848e+00 6.673840e-01 5.781484e-01 7.788792e-01 7.421309e-01 7.614138e-01 8.354443e-01 9.453372e-01 9.528491e-01 1.078231e+00 8.977737e-01 9.291915e-01 8.382781e-01 5.557265e-01 8.310880e-02
<GCONST> 1.266026e+02
<MIXTURE> 3 1.732220e-01
<MEAN> 39
 -9.653055e+00 3.935950e+00 3.898461e-01 9.277851e+00 5.961134e+00 5.373930e+00 3.626400e+00 1.411473e+00 3.832548e+00 2.281507e+00 2.756448e+00 1.462662e+00 -1.042764e+01 4.168750e-01 -1.930664e+00 -1.200936e+00 -1.317094e+00 -7.241413e-02 -1.730902e-01 2.373686e-01 3.006766e-01 1.532809e-01 6.596179e-01 2.999289e-02 4.459834e-01 7.119703e-01 7.926822e-01 -5.917138e-01 -2.497359e-01 -7.858196e-01 -3.584290e-01 -9.478554e-01 -3.460763e-01 -5.243748e-02 -4.641409e-01 3.135955e-02 -3.097517e-01 -1.578055e-02 6.976327e-01
<VARIANCE> 39
 6.958946e+00 9.255698e+00 1.522202e+01 1.707143e+01 1.776778e+01 2.015457e+01 2.078580e+01 2.163958e+01 2.337901e+01 1.969050e+01 2.044880e+01 1.394584e+01 1.131276e-01 2.446400e+00 4.902142e+00 4.663089e+00 4.267943e+00 3.829929e+00 4.581439e+00 3.832336e+00 3.906248e+00 3.976036e+00 3.299634e+00 2.617981e+00 2.283704e+00 8.873073e-01 5.592228e-01 5.063249e-01 8.043997e-01 6.170756e-01 8.341207e-01 8.450134e-01 8.088990e-01 7.407690e-01 7.219289e-01 6.080063e-01 5.867175e-01 4.004868e-01 8.966184e-02
<GCONST> 1.107793e+02
<MIXTURE> 4 2.005725e-01
<MEAN> 39
 -6.400865e+00 -3.017514e+00 -4.781168e+00 6.079522e+00 8.820445e+00 3.263740e+00 7.509311e-01 1.490772e+00 2.099005e+00 2.249483e+00 8.696623e-01 9.659363e-01 -6.585860e+00 6.851872e-01 -1.690740e+00 -1.720495e+00 -1.375206e+00 5.159039e-02 4.222953e-01 -2.607410e-01 9.812313e-02 1.558355e-01 9.052974e-01 7.577579e-02 1.943731e-01 3.774844e-01 2.520750e-01 5.389303e-01 4.954391e-01 -3.998870e-01 -6.982973e-01 -4.668750e-01 5.384922e-02 -6.124086e-02 -2.986321e-01 -8.421073e-02 -1.298246e-02 -3.040062e-02 2.129298e-01
<VARIANCE> 39
 4.124241e+01 3.987874e+01 6.226150e+01 7.155176e+01 6.263039e+01 5.743909e+01 5.619998e+01 5.417237e+01 5.783403e+01 3.607383e+01 3.289693e+01 2.612269e+01 3.647861e+00 5.246305e+00 5.745366e+00 6.203778e+00 7.869094e+00 6.188048e+00 6.605458e+00 5.837523e+00 6.033460e+00 6.036625e+00 4.267649e+00 3.809556e+00 3.013015e+00 1.846036e+00 9.066222e-01 7.835842e-01 9.668115e-01 1.255441e+00 1.155044e+00 1.115975e+00 1.100004e+00 1.004665e+00 1.045525e+00 7.574806e-01 7.373042e-01 5.554526e-01 1.318217e-01
<GCONST> 1.373088e+02
<MIXTURE> 5 1.755517e-01
<MEAN> 39
 -1.012607e+01 3.631405e+00 -3.561113e-01 8.211740e+00 6.115361e+00 4.726475e+00 4.104192e+00 8.855819e-01 2.187123e+00 2.151878e+00 1.095083e+00 1.522047e+00 -1.045401e+01 7.663455e-01 -2.375785e+00 -1.166675e+00 -1.742690e+00 -6.105109e-01 -4.725541e-01 -4.447685e-01 8.071277e-02 -5.882031e-01 4.054860e-01 -4.778687e-01 -8.824829e-02 9.512692e-01 7.114903e-01 -5.869105e-01 -1.084882e-01 -7.454625e-01 -3.489116e-01 -8.649840e-01 -5.007694e-01 1.431745e-01 -4.108929e-01 5.967031e-02 -1.162437e-01 -6.157473e-02 6.975559e-01
<VARIANCE> 39
 7.905427e+00 1.018267e+01 1.593059e+01 1.808741e+01 1.931553e+01 2.159965e+01 2.312779e+01 2.374801e+01 2.321766e+01 2.146297e+01 1.917603e+01 1.541641e+01 1.131276e-01 2.404366e+00 4.620824e+00 4.306174e+00 4.243144e+00 4.514136e+00 4.492724e+00 4.229137e+00 4.128294e+00 3.898254e+00 3.139035e+00 2.557153e+00 2.192197e+00 8.029443e-01 5.477991e-01 5.364205e-01 7.259315e-01 5.596040e-01 8.379344e-01 8.252226e-01 8.631673e-01 7.493263e-01 6.892300e-01 5.943954e-01 5.227835e-01 4.100303e-01 8.377581e-02
<GCONST> 1.111414e+02
<MIXTURE> 6 1.306872e-01
<MEAN> 39
 -8.002789e+00 4.390136e+00 1.058713e+00 9.252109e+00 6.404450e+00 1.742496e+00 2.260998e+00 -1.889442e-01 -7.412037e-01 6.304561e-01 -3.006381e-01 4.262756e-01 -9.591021e+00 -2.321877e+00 -6.016565e-01 -1.148621e+00 1.313698e-01 1.214258e+00 2.138207e+00 1.068242e+00 -3.732282e-01 1.363835e+00 6.601861e-01 -3.728519e-01 1.936652e-01 -8.780664e-01 9.840738e-01 -1.137647e+00 -3.252931e-01 -1.184826e+00 -8.052003e-01 -6.480967e-01 -3.937257e-01 4.059873e-01 -1.972166e-01 1.367952e-01 1.667796e-01 -1.984098e-02 7.975360e-01
<VARIANCE> 39
 2.027770e+01 2.421645e+01 2.891091e+01 2.553597e+01 3.341987e+01 3.785877e+01 3.971867e+01 4.703309e+01 4.514169e+01 3.466539e+01 2.967064e+01 2.562598e+01 1.227654e+00 3.778979e+00 4.567636e+00 5.458396e+00 4.086810e+00 6.733780e+00 5.817275e+00 5.743323e+00 6.232773e+00 5.874237e+00 5.035956e+00 4.029309e+00 3.068072e+00 6.424955e-01 7.083989e-01 8.133326e-01 8.065662e-01 8.154924e-01 9.344432e-01 1.040298e+00 1.024063e+00 1.121089e+00 9.831650e-01 9.212338e-01 8.664443e-01 6.355246e-01 7.376089e-02
<GCONST> 1.278437e+02
<STATE> 3
<NUMMIXES> 6
<MIXTURE> 1 1.467407e-01
<MEAN> 39
 -5.197715e+00 -4.018484e+00 -5.708670e+00 -3.009579e+00 3.342197e+00 1.336229e+00 1.350707e+00 1.146653e+00 1.345729e+00 7.036166e+00 2.493890e-01 1.208157e+00 -3.742419e+00 -2.255794e-01 1.956772e+00 1.431148e+00 -4.999626e-02 -1.096187e-01 1.898719e-01 7.848964e-01 -5.829599e-02 7.580335e-01 2.072549e-02 5.576681e-01 3.016128e-01 -9.001541e-03 8.907465e-02 7.972896e-01 8.117241e-01 9.922776e-01 1.233020e-01 2.355672e-01 2.914340e-01 -1.505957e-01 -1.349058e-01 -8.108268e-01 6.677185e-02 -3.848452e-02 -4.245960e-01
<VARIANCE> 39
 2.529126e+01 2.418876e+01 6.259836e+01 4.351569e+01 6.485224e+01 4.836383e+01 5.338199e+01 5.135742e+01 6.473848e+01 3.505929e+01 3.154918e+01 2.689057e+01 1.309623e+00 1.678670e+00 2.546206e+00 2.031680e+00 2.965109e+00 2.767737e+00 3.415948e+00 3.038844e+00 3.046399e+00 2.980238e+00 2.710436e+00 2.432977e+00 2.138275e+00 2.160404e-01 4.740279e-01 5.304317e-01 6.106294e-01 6.837813e-01 9.817219e-01 7.586232e-01 8.915808e-01 9.370723e-01 1.128488e+00 7.268118e-01 6.767402e-01 6.092207e-01 4.741309e-02
<GCONST> 1.197758e+02
<MIXTURE> 2 1.527018e-02
<MEAN> 39
 2.257538e-01 2.525987e+00 3.713076e-01 1.367848e-01 -3.681204e+00 -4.869152e+00 1.650314e+00 -1.312200e+00 -1.519256e+00 3.342991e+00 -6.062202e-01 1.271398e+00 -5.213164e+00 -2.238422e+00 2.374631e-01 -3.185570e-01 1.503086e+00 1.119279e+00 6.829162e-01 8.159229e-02 1.185782e+00 1.896906e+00 3.544362e-01 8.250159e-01 9.294263e-02 -7.516894e-01 -5.163053e-01 -5.788748e-01 -1.986167e-01 1.781723e-01 6.912025e-01 6.349366e-01 1.246936e-01 3.741672e-01 2.684698e-01 -2.024297e-01 1.866307e-01 -8.492745e-02 7.087070e-02
<VARIANCE> 39
 2.181060e+01 4.418777e+01 6.819740e+01 7.867854e+01 9.732904e+01 3.624042e+01 6.766709e+01 8.704811e+01 6.959428e+01 6.161223e+01 4.750427e+01 3.381804e+01 2.045881e+00 6.803293e+00 5.270358e+00 4.943864e+00 6.820512e+00 1.211385e+01 8.573250e+00 6.370362e+00 1.005815e+01 6.988409e+00 7.989571e+00 7.441417e+00 5.309390e+00 5.817534e-01 6.695009e-01 1.157362e+00 8.668615e-01 1.982395e+00 2.460793e+00 1.010901e+00 1.392730e+00 1.914656e+00 1.315968e+00 1.512689e+00 1.027048e+00 8.677989e-01 1.506635e-01
<GCONST> 1.443633e+02
<MIXTURE> 3 3.286233e-01
<MEAN> 39
 -4.128875e+00 -8.858843e+00 -7.010932e+00 6.888415e-01 4.766722e+00 -9.443204e-01 7.226015e-01 1.851290e+00 6.123629e-02 4.460351e+00 -3.298160e-01 2.026560e+00 -4.123275e+00 8.660541e-01 -1.230198e+00 -8.405471e-01 -2.076955e+00 -5.924725e-01 -1.386039e+00 -1.772778e-01 5.071786e-01 1.635480e-01 8.720079e-01 -1.079857e-01 3.607773e-01 1.415890e+00 -1.885227e-01 1.489250e+00 1.060989e+00 5.674268e-01 -1.086723e-01 2.156626e-01 2.096639e-01 -2.060853e-01 7.161716e-02 -4.456440e-01 1.430968e-01 -1.511072e-01 -3.462717e-01
<VARIANCE> 39
 2.468587e+01 2.451735e+01 6.275845e+01 4.813772e+01 5.393838e+01 5.491899e+01 6.010433e+01 4.796335e+01 5.340049e+01 3.532049e+01 3.093020e+01 2.604000e+01 1.664430e+00 2.932111e+00 3.309142e+00 4.024861e+00 3.328661e+00 4.014972e+00 4.051142e+00 4.038790e+00 3.696616e+00 3.749999e+00 3.296487e+00 2.945249e+00 2.394631e+00 2.829069e-01 7.300327e-01 5.766592e-01 7.872350e-01 8.267186e-01 9.480305e-01 9.869574e-01 1.084082e+00 9.508725e-01 9.903599e-01 7.703496e-01 6.997030e-01 6.395541e-01 9.387776e-02
<GCONST> 1.255935e+02
<MIXTURE> 4 1.248468e-02
<MEAN> 39
 2.504188e-01 3.345678e+00 7.838141e+00 6.866294e+00 -3.377143e+00 -7.433636e+00 3.007385e+00 4.858289e+00 -1.124450e+01 -2.139776e+00 3.828460e+00 -5.542604e-01 -5.299638e+00 -3.865219e+00 2.085240e-01 -1.842721e+00 9.264118e-01 3.633405e+00 2.708428e+00 8.164579e-01 -1.558758e+00 1.291382e+00 1.597316e+00 -2.031109e+00 1.258112e+00 -1.237949e+00 -5.204732e-01 -1.235252e+00 -7.190278e-01 -1.002382e+00 1.256516e-01 2.643265e-01 -2.438501e-01 1.383352e-01 1.549252e+00 1.908602e-01 -3.272815e-01 1.656675e-01 3.389820e-01
<VARIANCE> 39
 1.667383e+01 2.446159e+01 4.263752e+01 2.011155e+01 3.876179e+01 3.040010e+01 4.850320e+01 4.689356e+01 4.744331e+01 4.248972e+01 3.353234e+01 3.340685e+01 2.113806e+00 2.144266e+00 2.727376e+00 7.251739e+00 4.554711e+00 5.379582e+00 4.455302e+00 6.492410e+00 7.786893e+00 6.139360e+00 5.415441e+00 6.205025e+00 3.525589e+00 2.271153e-01 3.851892e-01 4.478900e-01 6.921904e-01 3.455184e-01 4.983186e-01 5.581075e-01 7.770036e-01 8.054624e-01 7.770388e-01 7.224215e-01 6.765372e-01 6.767324e-01 4.815594e-02
<GCONST> 1.227643e+02
<MIXTURE> 5 3.283257e-01
<MEAN> 39
 -5.638610e+00 -8.842310e+00 -3.936571e+00 5.692121e-01 3.720882e+00 3.743139e-01 1.388685e+00 2.200411e+00 -6.949441e-01 4.218598e+00 -6.014196e-01 1.755010e+00 -4.701976e+00 1.048257e+00 -1.576410e+00 -5.246346e-01 -2.630680e+00 -1.252964e+00 -1.638023e+00 -6.878558e-01 8.173518e-03 -6.125340e-01 5.344803e-01 -6.438472e-01 -5.322857e-02 1.477559e+00 1.058131e-01 1.397217e+00 7.656232e-01 4.608011e-01 -1.057529e-01 -1.365570e-01 1.827816e-02 -1.789157e-01 5.922495e-02 -3.944280e-01 1.441977e-01 -1.162576e-01 -1.933236e-01
<VARIANCE> 39
 2.857965e+01 2.756783e+01 6.202903e+01 4.573853e+01 5.470635e+01 4.999510e+01 5.817717e+01 4.849903e+01 4.845847e+01 3.338492e+01 2.827773e+01 2.307562e+01 2.130177e+00 2.664936e+00 3.638633e+00 4.130443e+00 3.262248e+00 4.171036e+00 3.725425e+00 4.018438e+00 4.052823e+00 3.579612e+00 3.199061e+00 2.649735e+00 2.085386e+00 2.819487e-01 7.640543e-01 6.163951e-01 7.412255e-01 8.758736e-01 9.277200e-01 8.919873e-01 9.643266e-01 8.592941e-01 9.351913e-01 7.397550e-01 6.597223e-01 5.624199e-01 1.123400e-01
<GCONST> 1.249612e+02
<MIXTURE> 6 1.685454e-01
<MEAN> 39
 -3.334928e+00 -4.410104e+00 -8.466768e+00 -3.672710e+00 5.942872e+00 2.739011e+00 -3.831901e-01 1.278439e+00 7.875752e-02 7.341076e+00 6.438287e-01 1.305021e+00 -3.891825e+00 -4.639259e-01 1.104563e+00 1.037315e+00 -2.925382e-01 -7.486982e-01 -4.545463e-01 3.576193e-01 -5.454992e-01 3.189042e-01 -3.636713e-01 5.107176e-02 -1.659141e-02 1.942175e-02 -1.631250e-01 8.020263e-01 9.657497e-01 1.036691e+00 -1.538952e-01 4.900381e-02 3.958153e-01 -2.132122e-01 5.632391e-02 -8.176031e-01 -3.051385e-04 -9.249616e-02 -4.232715e-01
<VARIANCE> 39
 2.789629e+01 2.606069e+01 6.480165e+01 4.592189e+01 6.015525e+01 5.809753e+01 4.952407e+01 4.819439e+01 6.295559e+01 3.918307e+01 3.696486e+01 2.823437e+01 1.568026e+00 2.043616e+00 2.837597e+00 2.101970e+00 3.854980e+00 3.179179e+00 3.719021e+00 3.353024e+00 3.332313e+00 3.502389e+00 2.984069e+00 2.640141e+00 2.504730e+00 2.301644e-01 5.844529e-01 5.494379e-01 7.524434e-01 8.537986e-01 9.368075e-01 9.429362e-01 8.993713e-01 8.845042e-01 1.150535e+00 7.741718e-01 7.936785e-01 6.379725e-01 5.755965e-02
<GCONST> 1.233300e+02
<STATE> 4
<NUMMIXES> 6
<MIXTURE> 1 1.996374e-01
<MEAN> 39
 -5.115176e+00 -4.399852e+00 -3.505667e+00 4.770438e+00 4.496801e+00 -6.187311e+00 8.255661e-01 6.017036e+00 2.583105e+00 1.575789e+00 -4.882788e-01 2.630212e+00 -4.288107e+00 -1.822580e-01 1.551183e+00 1.148661e+00 -6.437235e-02 2.097215e-01 7.500762e-02 3.749077e-01 -4.795918e-01 5.226900e-01 -5.604030e-01 -2.019374e-01 -3.074464e-01 1.596027e-01 1.548663e-01 5.350854e-01 2.122920e-01 1.154739e-03 1.283796e-01 9.314228e-01 9.521872e-02 -6.408366e-01 -2.266840e-01 -9.054843e-02 8.874722e-02 -3.260207e-01 -1.954440e-01
<VARIANCE> 39
 1.982086e+01 1.880438e+01 2.990161e+01 2.626473e+01 3.541294e+01 2.973859e+01 4.685218e+01 3.332994e+01 3.969552e+01 2.685447e+01 2.979173e+01 2.161138e+01 1.695364e+00 6.320908e+00 3.318784e+00 2.996629e+00 3.462428e+00 4.681178e+00 4.673860e+00 4.137312e+00 3.712675e+00 3.757334e+00 3.069882e+00 3.067873e+00 2.885736e+00 3.969344e-01 5.156488e-01 7.206065e-01 6.928970e-01 5.446155e-01 6.390978e-01 6.138040e-01 8.271218e-01 7.469034e-01 7.624331e-01 5.395736e-01 6.271682e-01 5.467528e-01 6.380551e-02
<GCONST> 1.193542e+02
<MIXTURE> 2 1.955604e-01
<MEAN> 39
 -7.730676e+00 -1.304756e+00 -1.094931e+00 -2.918966e+00 2.575938e+00 2.428640e+00 3.708912e+00 -1.209697e+00 3.266251e-01 4.861502e+00 1.749710e-01 1.905790e+00 -4.712713e+00 1.169418e+00 1.538761e+00 1.598216e+00 5.825505e-01 -5.012794e-01 -1.532564e-01 6.938294e-01 3.444777e-02 5.824993e-03 -9.463515e-01 4.105709e-01 1.075244e-01 4.173356e-02 9.411567e-01 -2.188792e-02 1.235379e-01 4.386321e-01 -2.863408e-01 -1.811273e-01 -3.046600e-01 1.877715e-01 -2.546842e-01 -5.063101e-01 9.591161e-02 -1.484486e-01 3.268983e-02
<VARIANCE> 39
 2.659822e+01 2.633320e+01 6.665055e+01 3.488995e+01 5.149723e+01 4.121827e+01 4.032999e+01 3.483997e+01 4.560847e+01 3.379770e+01 2.782623e+01 2.226737e+01 1.621096e+00 2.842775e+00 2.733999e+00 2.418984e+00 3.398156e+00 2.968974e+00 3.445934e+00 3.469822e+00 3.325060e+00 3.253982e+00 3.243838e+00 2.379680e+00 2.054444e+00 1.858690e-01 3.997653e-01 5.448294e-01 5.633699e-01 7.217998e-01 7.245610e-01 6.882208e-01 7.236549e-01 7.165852e-01 8.169682e-01 7.871492e-01 6.148815e-01 4.955251e-01 6.812437e-02
<GCONST> 1.182376e+02
<MIXTURE> 3 2.040532e-01
<MEAN> 39
 -3.266057e+00 -1.035492e+00 -1.463873e+00 1.243068e+00 4.777564e+00 8.994005e-01 4.020360e+00 4.409681e-01 -3.312622e-01 2.404649e+00 -4.818243e-01 4.808412e-01 -4.913901e+00 3.705382e+00 8.648156e-01 9.097922e-01 -6.900942e-01 -1.928778e+00 -3.256348e-01 -7.010933e-01 -3.357455e-01 -7.044628e-01 -1.241632e+00 3.739743e-01 -6.141121e-01 7.615421e-01 6.266517e-01 -4.380775e-01 -3.103918e-01 -5.052136e-01 -5.724834e-01 -2.134135e-02 -6.178388e-01 7.051775e-02 -6.570525e-03 -8.478478e-03 2.506997e-01 -4.136827e-02 2.368514e-01
<VARIANCE> 39
 1.808123e+01 2.992112e+01 6.297601e+01 3.735395e+01 5.570460e+01 5.114491e+01 5.128987e+01 4.697062e+01 3.843137e+01 3.376079e+01 3.122042e+01 2.403160e+01 1.773638e+00 1.422661e+00 2.971076e+00 4.274430e+00 5.101691e+00 4.685155e+00 6.188583e+00 5.699533e+00 5.706960e+00 4.814927e+00 4.065357e+00 4.065894e+00 3.164492e+00 1.774617e-01 3.617435e-01 5.293891e-01 6.224453e-01 5.937005e-01 6.812072e-01 7.797626e-01 8.037677e-01 8.540225e-01 8.295865e-01 7.390463e-01 6.858500e-01 5.505045e-01 5.449444e-02
<GCONST> 1.229798e+02
<MIXTURE> 4 3.271045e-02
<MEAN> 39
 -7.235053e+00 -1.308330e+00 7.264585e-01 6.467967e+00 5.384119e+00 -5.931072e-01 2.641475e+00 2.658676e+00 -1.073379e+00 1.708941e+00 -8.817080e-01 8.279524e-01 -6.827688e+00 -2.384698e+00 -8.502679e-01 -1.333516e+00 -2.949635e-01 2.143348e+00 1.810949e+00 3.008311e-01 -3.463773e-01 1.792845e+00 5.415745e-01 -2.434307e-01 2.811990e-01 -3.185670e-01 6.385440e-01 -7.856347e-02 4.133809e-02 -8.333431e-01 -8.586855e-01 -4.873560e-01 -2.105875e-02 2.256666e-02 -1.066079e-01 -2.376108e-01 2.659287e-01 -5.406812e-02 4.711720e-01
<VARIANCE> 39
 2.987654e+01 4.618308e+01 6.425622e+01 3.968105e+01 5.256297e+01 3.527029e+01 5.081673e+01 5.163869e+01 5.746416e+01 4.803940e+01 3.661736e+01 2.497822e+01 3.340862e+00 5.037224e+00 3.385684e+00 5.346323e+00 5.152261e+00 5.369057e+00 4.466559e+00 5.231784e+00 6.429142e+00 6.145671e+00 5.876995e+00 4.812145e+00 4.272986e+00 4.106403e-01 8.953162e-01 1.000600e+00 9.760737e-01 7.642586e-01 9.830529e-01 9.526934e-01 9.783946e-01 1.200131e+00 1.026470e+00 1.024106e+00 9.725133e-01 5.898635e-01 6.419555e-02
<GCONST> 1.331019e+02
<MIXTURE> 5 2.178900e-01
<MEAN> 39
