~o
<STREAMINFO> 1 39
<VECSIZE> 39<NULLD><MFCC_E_D_A_Z><DIAGC>
~v "varFloor1"
<VARIANCE> 39
 9.726257e-01 5.381249e-01 6.651532e-01 6.989120e-01 6.880192e-01 6.224947e-01 6.450717e-01 5.635375e-01 5.311891e-01 4.008754e-01 3.797459e-01 3.082840e-01 1.131276e-01 4.817885e-02 3.519386e-02 3.216594e-02 4.186358e-02 4.215040e-02 4.083050e-02 4.351060e-02 4.295653e-02 3.903697e-02 3.210390e-02 2.959472e-02 2.433364e-02 4.759443e-03 6.696086e-03 5.835324e-03 4.982519e-03 6.833524e-03 6.876886e-03 6.926220e-03 7.477231e-03 7.591971e-03 6.896265e-03 5.920904e-03 5.389229e-03 4.463565e-03 7.207811e-04
~h "b"
<BEGINHMM>
<NUMSTATES> 5
<STATE> 2
<NUMMIXES> 16
<MIXTURE> 1 6.476529e-02
<MEAN> 39
 7.708251e+00 8.025665e+00 8.664098e-01 8.160762e+00 6.749089e+00 3.141443e+00 -1.978592e+00 -7.246102e+00 -5.528545e+00 -1.839455e+00 1.237048e+00 -2.748537e+00 -5.859550e+00 -8.384703e-01 4.293590e+00 -5.768908e-01 1.473024e+00 2.820290e+00 2.500861e+00 2.316460e+00 -2.215214e+00 -1.229662e+00 -6.361261e-02 -5.894548e-01 -2.947738e-01 -1.121010e+00 -6.293067e-01 -7.640058e-01 8.319412e-01 -4.089635e-01 -1.086288e+00 -7.237401e-01 -1.860383e-01 7.637526e-01 2.330299e-01 -9.671532e-02 -1.726345e-01 2.775395e-01 2.273919e-01
<VARIANCE> 39
 7.843334e+00 1.751068e+01 1.448366e+01 1.514145e+01 1.390022e+01 1.587919e+01 1.921026e+01 1.917302e+01 2.422441e+01 2.006610e+01 1.720480e+01 1.893608e+01 1.479330e+00 1.077139e+00 1.872569e+00 3.253956e+00 3.006691e+00 3.467242e+00 3.352218e+00 3.902783e+00 3.583523e+00 4.773325e+00 4.131942e+00 2.814745e+00 2.701737e+00 9.418650e-02 1.781464e-01 5.579422e-01 3.653934e-01 3.920786e-01 4.021059e-01 3.984333e-01 5.284336e-01 4.937321e-01 6.311732e-01 3.441939e-01 3.199148e-01 3.552399e-01 2.749101e-02
<GCONST> 1.016598e+02
<MIXTURE> 2 5.627948e-02
<MEAN> 39
 -4.019477e+00 9.185000e+00 3.900303e+00 1.051665e+01 6.490831e+00 3.661681e+00 5.622138e-01 -3.023009e+00 -1.733339e+00 -2.525024e+00 -1.850386e+00 -2.466305e+00 -9.537377e+00 -2.079300e+00 -6.188337e-01 -1.164948e+00 2.431643e-01 1.046152e+00 1.517203e+00 1.569463e+00 1.619651e+00 1.259683e+00 8.543379e-01 7.409961e-01 7.398379e-01 -9.110261e-01 4.504501e-01 -8.504544e-01 -3.873756e-01 -9.629835e-01 -7.814703e-01 -4.045593e-01 -5.499552e-02 1.756563e-01 2.512090e-01 3.753389e-01 3.564697e-01 3.229569e-01 4.515010e-01
<VARIANCE> 39
 1.618476e+01 1.938316e+01 1.972052e+01 1.862646e+01 2.143502e+01 2.347119e+01 3.198255e+01 2.564354e+01 2.320756e+01 2.707637e+01 1.806561e+01 1.914083e+01 9.478334e-01 4.359227e+00 3.043348e+00 4.829534e+00 5.583891e+00 3.497732e+00 3.445088e+00 3.462141e+00 3.275439e+00 4.122259e+00 3.470590e+00 3.845802e+00 2.748254e+00 4.728934e-01 6.335939e-01 6.328189e-01 6.491551e-01 6.635585e-01 5.900503e-01 6.856107e-01 7.023426e-01 6.785259e-01 6.164228e-01 6.517001e-01 4.839935e-01 4.784901e-01 7.040215e-02
<GCONST> 1.151341e+02
<MIXTURE> 3 7.873227e-02
<MEAN> 39
 1.014135e+01 -2.838802e+00 1.085420e+00 2.656973e+00 -1.347512e+00 -6.017013e+00 -8.530267e+00 -7.666697e-01 1.147958e-01 1.066860e+00 1.738230e+00 -2.888768e+00 -2.676901e+00 -1.642722e-01 4.604391e+00 -4.858049e-01 2.561507e+00 3.523404e+00 2.669659e+00 1.610484e-01 -3.516536e+00 -1.170311e+00 -7.709882e-01 -2.475205e-02 -9.538390e-01 -1.373208e+00 -7.692317e-01 7.516342e-01 4.280058e-01 1.075794e-01 1.953780e-02 6.075525e-01 8.892295e-01 -1.417992e-01 -4.333117e-01 -4.497111e-01 -3.589983e-01 1.670206e-01 -1.822258e-01
<VARIANCE> 39
 7.516819e+00 1.971804e+01 2.906270e+01 2.934002e+01 2.604488e+01 3.398506e+01 2.635705e+01 3.226756e+01 3.434152e+01 4.501436e+01 3.013448e+01 2.798019e+01 1.514159e+00 1.225073e+00 2.080198e+00 6.316186e+00 5.081681e+00 4.263523e+00 5.589720e+00 7.995810e+00 4.784225e+00 6.579944e+00 5.651979e+00 3.712335e+00 4.547990e+00 1.113963e-01 1.411159e-01 3.527318e-01 3.952887e-01 4.698427e-01 6.122691e-01 6.780728e-01 5.735303e-01 6.506079e-01 5.455605e-01 7.295346e-01 5.409153e-01 4.707026e-01 2.191833e-02
<GCONST> 1.142601e+02
<MIXTURE> 4 4.547879e-02
<MEAN> 39
 5.580257e-01 4.862142e+00 -6.188063e+00 1.688187e+00 3.617433e+00 4.638921e+00 4.141938e+00 -1.731590e+00 -1.552956e+00 3.446825e-02 -2.158535e-01 3.463846e-01 -8.895126e+00 -2.468398e-01 -2.648553e-01 -5.796858e-01 9.700308e-02 5.567647e-01 5.598829e-01 6.697907e-01 1.937186e-01 -1.824885e-01 6.643619e-02 5.499055e-01 3.834083e-01 -1.437110e-01 -3.925203e-01 1.744684e-01 1.131193e+00 7.324198e-01 1.661746e-01 -3.570100e-01 -5.096102e-01 -1.285025e-01 7.659888e-02 -1.049819e-01 -1.117505e-01 -1.423915e-01 1.611598e-01
<VARIANCE> 39
 3.394567e+01 2.920551e+01 2.267337e+01 2.866032e+01 3.864126e+01 2.701652e+01 3.886691e+01 2.686531e+01 4.354033e+01 3.787557e+01 2.849436e+01 2.949470e+01 1.667319e+00 2.806234e+00 2.171561e+00 3.740070e+00 3.557153e+00 2.671940e+00 2.301120e+00 2.806305e+00 3.699968e+00 3.695438e+00 2.647481e+00 2.500081e+00 2.227791e+00 1.823059e-01 5.485752e-01 4.150894e-01 5.649243e-01 7.646191e-01 7.120335e-01 7.398180e-01 6.736598e-01 6.320839e-01 1.059796e+00 7.483506e-01 6.687710e-01 5.457920e-01 7.110421e-02
<GCONST> 1.167585e+02
<MIXTURE> 5 8.522260e-02
<MEAN> 39
 -9.165881e+00 4.311215e+00 -1.696642e-01 8.417324e+00 5.537485e+00 5.377587e+00 3.384794e+00 6.102969e-01 2.311589e+00 1.786953e+00 2.243428e+00 7.643496e-01 -1.049710e+01 -6.965356e-02 -1.491468e-02 -2.323604e-03 7.896022e-02 -2.535592e-02 7.846203e-02 -3.768632e-02 -1.586687e-01 -1.271926e-01 -1.870499e-01 -1.239305e-01 -1.257928e-01 -5.882828e-03 3.989490e-01 1.892525e-03 1.606903e-01 -2.532319e-01 -7.753731e-02 -2.349467e-01 -1.416863e-01 -8.511750e-02 -5.916857e-02 -1.441593e-01 -1.210164e-01 -5.563207e-04 2.738730e-01
<VARIANCE> 39
 6.106951e+00 8.207064e+00 1.121302e+01 1.424886e+01 1.381589e+01 1.819632e+01 1.812207e+01 2.093867e+01 2.381647e+01 1.715659e+01 1.664531e+01 1.162181e+01 1.131276e-01 2.870193e-01 4.380234e-01 6.497856e-01 8.093400e-01 9.666699e-01 1.165279e+00 1.010601e+00 1.272395e+00 1.351129e+00 1.459709e+00 1.190913e+00 1.040937e+00 4.759443e-03 1.615764e-01 1.738195e-01 2.041343e-01 3.143823e-01 2.533584e-01 3.107761e-01 2.858982e-01 3.432657e-01 3.120942e-01 3.556862e-01 2.995109e-01 2.513249e-01 4.691087e-02
<GCONST> 7.540432e+01
<MIXTURE> 6 6.601676e-02
<MEAN> 39
 6.556315e+00 8.197547e+00 2.404453e+00 9.909986e+00 2.288826e+00 -2.470755e-01 -4.452702e-01 -1.154004e+01 -1.191515e+01 -1.288982e+00 1.231325e+00 -3.889991e+00 -5.071545e+00 -1.919626e-01 1.101961e+00 1.389119e-01 -5.960951e-02 1.417903e+00 1.031739e+00 -1.179742e-01 8.581557e-01 3.000693e-01 -1.402931e+00 -6.747983e-03 6.828195e-01 -3.927229e-01 -2.138271e-01 -5.316598e-01 -1.063699e-01 -7.418331e-01 -2.281175e-01 -1.917898e-02 -1.818395e-02 6.681170e-01 1.000125e+00 2.829024e-01 -2.041276e-01 2.297882e-01 1.097292e-01
<VARIANCE> 39
 8.722014e+00 1.287396e+01 1.667407e+01 3.606126e+01 2.701123e+01 3.727237e+01 4.151665e+01 4.319352e+01 4.656385e+01 3.326828e+01 3.212698e+01 3.950491e+01 1.227207e+00 7.086776e-01 1.349850e+00 1.511207e+00 2.583420e+00 2.621417e+00 3.535426e+00 3.794039e+00 4.144633e+00 5.125109e+00 3.362938e+00 3.898058e+00 3.021911e+00 6.406917e-02 1.561946e-01 3.229627e-01 2.925155e-01 6.251625e-01 4.190570e-01 5.105687e-01 6.140099e-01 7.161741e-01 7.866127e-01 6.255732e-01 5.966369e-01 6.335669e-01 3.131385e-02
<GCONST> 1.085699e+02
<MIXTURE> 7 4.880697e-02
<MEAN> 39
 -9.562202e+00 4.628805e+00 4.435382e-01 8.661782e+00 5.873319e+00 4.992902e+00 3.840074e+00 9.992940e-01 2.166386e+00 1.764781e+00 2.289639e+00 1.299332e+00 -1.047175e+01 3.436919e-01 -3.249256e-01 3.023700e-01 -1.407256e-01 -2.226560e-02 -1.927457e-01 2.612014e-01 3.368113e-01 3.569115e-01 2.112529e-01 2.483972e-01 3.190758e-01 4.649752e-01 1.037176e+00 -2.753896e-01 9.808251e-02 -7.250233e-01 -4.830109e-01 -5.538859e-01 -3.872390e-01 -3.023308e-01 -1.399735e-01 -8.337815e-02 -1.575430e-01 -8.884674e-02 6.143072e-01
<VARIANCE> 39
 6.142982e+00 9.097404e+00 1.076925e+01 1.602712e+01 1.530549e+01 1.473302e+01 2.016282e+01 1.893212e+01 2.235561e+01 1.457161e+01 1.811115e+01 1.347155e+01 1.131276e-01 1.254088e+00 1.158333e+00 1.301582e+00 1.404204e+00 1.287328e+00 1.288607e+00 1.736016e+00 1.856398e+00 1.640992e+00 1.817855e+00 1.489555e+00 1.155390e+00 2.042728e-01 2.064503e-01 1.951352e-01 4.105958e-01 4.517146e-01 3.850076e-01 4.114640e-01 5.179457e-01 4.863908e-01 5.870233e-01 4.102815e-01 3.487646e-01 3.190893e-01 3.394302e-02
<GCONST> 8.889880e+01
<MIXTURE> 8 7.368313e-02
<MEAN> 39
 5.050541e+00 7.457997e+00 5.020322e+00 1.136227e+01 1.205476e+00 -3.620063e+00 -5.074831e+00 -4.813413e+00 -4.404073e-01 -3.762107e+00 -5.404505e+00 -4.957838e+00 -6.456056e+00 -1.133423e+00 3.526544e+00 -5.231934e-01 2.491482e+00 2.959364e+00 1.184628e+00 1.943088e-01 -9.575285e-01 -1.436919e-01 -6.841649e-01 -5.887177e-01 -1.426825e+00 -1.245726e+00 -3.656827e-01 -7.112721e-01 -8.104466e-02 -1.241318e+00 -4.926301e-01 3.262188e-01 3.459332e-01 3.937802e-01 -1.909028e-01 3.637742e-01 6.519344e-01 5.702804e-01 2.379376e-01
<VARIANCE> 39
 1.263348e+01 2.552395e+01 2.353442e+01 3.495205e+01 4.283379e+01 3.186462e+01 3.828146e+01 2.837461e+01 3.373452e+01 3.158419e+01 2.481407e+01 2.411015e+01 1.966228e+00 2.786581e+00 3.482097e+00 5.094046e+00 5.463902e+00 4.521844e+00 5.030767e+00 5.626549e+00 4.831013e+00 5.016143e+00 4.618291e+00 4.067658e+00 3.593058e+00 2.999036e-01 2.955674e-01 8.179960e-01 6.933615e-01 5.738946e-01 9.606680e-01 7.567846e-01 1.025814e+00 7.730779e-01 8.340729e-01 7.781961e-01 6.332245e-01 5.114831e-01 3.917211e-02
<GCONST> 1.213711e+02
<MIXTURE> 9 6.030339e-02
<MEAN> 39
 7.426182e+00 1.064069e+01 4.916918e-01 4.306216e+00 5.179731e+00 5.635506e+00 4.784819e-01 -8.882710e+00 -7.910381e+00 -4.078312e+00 1.527343e-01 2.889805e-01 -6.018873e+00 -1.959228e+00 3.765424e+00 2.321214e+00 3.789669e+00 1.887085e+00 3.477704e-01 1.827640e+00 -5.924580e-01 -1.714686e+00 -2.128048e+00 -1.524938e+00 -4.725557e-02 -1.360582e+00 -2.930402e-01 -1.042367e+00 -1.444054e-01 -5.198072e-01 -3.262936e-01 -3.077985e-01 -4.717745e-01 7.017068e-01 9.608200e-01 5.891466e-01 -1.185104e-01 -3.413980e-01 2.395528e-01
<VARIANCE> 39
 8.759852e+00 1.024430e+01 1.775797e+01 2.467013e+01 2.000912e+01 2.401382e+01 2.360661e+01 1.913619e+01 2.215616e+01 2.517492e+01 2.683106e+01 2.009031e+01 1.332126e+00 1.563496e+00 2.361038e+00 3.367568e+00 5.754136e+00 4.486131e+00 5.303228e+00 5.259992e+00 5.302065e+00 4.648188e+00 3.978414e+00 3.949894e+00 2.963017e+00 1.578118e-01 1.938754e-01 3.679464e-01 3.221184e-01 5.260214e-01 4.453643e-01 5.752430e-01 5.747756e-01 5.214193e-01 5.534014e-01 4.977890e-01 5.852430e-01 3.730683e-01 2.314479e-02
<GCONST> 1.081842e+02
<MIXTURE> 10 5.186117e-02
<MEAN> 39
 1.115526e+01 3.411027e+00 -4.611197e+00 -1.095268e+00 2.162234e+00 4.168087e+00 -3.792328e+00 -6.224759e+00 -3.420984e+00 -2.747799e+00 2.393933e+00 1.764598e+00 -3.724542e+00 -1.285249e+00 3.807677e+00 1.577855e+00 3.049761e+00 1.921510e+00 5.589820e-01 2.747751e+00 -7.775844e-01 -2.052370e+00 -1.612833e+00 -1.435843e+00 -2.996753e-01 -1.315808e+00 -4.920874e-01 1.220127e-01 5.129457e-01 2.538038e-01 -6.835541e-02 -1.379027e-01 1.115752e-02 2.829547e-01 2.136645e-01 1.284963e-01 -2.767874e-01 -2.695934e-01 -3.373038e-02
<VARIANCE> 39
 9.016865e+00 1.365652e+01 1.993762e+01 3.903859e+01 3.067085e+01 2.792839e+01 2.951735e+01 2.926926e+01 3.184230e+01 3.238253e+01 3.035846e+01 2.673027e+01 1.198173e+00 8.631913e-01 2.331329e+00 2.727782e+00 6.944146e+00 5.042333e+00 5.963596e+00 6.457735e+00 5.512524e+00 6.176106e+00 4.753355e+00 5.136648e+00 3.683688e+00 7.585501e-02 7.405109e-02 2.424881e-01 3.196161e-01 3.654578e-01 4.423519e-01 4.311896e-01 4.059960e-01 4.751644e-01 4.530371e-01 4.392260e-01 5.703148e-01 3.490300e-01 1.433853e-02
<GCONST> 1.078948e+02
<MIXTURE> 11 6.159324e-02
<MEAN> 39
 6.319554e-01 1.161392e+01 4.186629e+00 1.160070e+01 7.019824e+00 3.487650e+00 8.808811e-01 -7.015418e+00 -4.381648e+00 -2.126453e+00 -1.575931e+00 -1.872571e+00 -8.342821e+00 2.276688e+00 1.485778e+00 4.351911e-01 7.506574e-01 1.501980e-01 -1.940721e-01 -7.014627e-01 -1.600302e+00 -1.662346e+00 -7.854758e-01 -3.252003e-01 -5.443577e-01 1.186336e-01 -5.725314e-01 -5.798590e-01 -3.816388e-01 -6.876902e-01 -2.276145e-01 -7.454673e-02 8.646858e-02 4.816780e-01 4.144281e-01 1.073437e-01 1.402796e-01 2.144519e-01 1.686132e-01
<VARIANCE> 39
 2.364253e+01 1.742461e+01 1.975712e+01 2.174673e+01 2.346986e+01 2.520827e+01 3.358345e+01 2.905510e+01 3.323388e+01 2.403785e+01 1.793741e+01 1.735140e+01 1.879581e+00 2.758772e+00 2.170035e+00 2.075017e+00 3.638467e+00 2.120598e+00 3.176117e+00 3.264225e+00 2.956565e+00 2.170285e+00 2.325332e+00 2.109871e+00 2.431702e+00 5.620513e-01 5.827714e-01 4.805783e-01 3.783473e-01 5.507634e-01 4.613804e-01 4.812460e-01 4.834377e-01 6.071626e-01 5.686149e-01 4.853688e-01 3.849830e-01 3.362108e-01 7.085955e-02
<GCONST> 1.091944e+02
<MIXTURE> 12 8.687187e-02
<MEAN> 39
 -8.438378e+00 4.708577e+00 4.578504e-01 9.150343e+00 7.507565e+00 6.240180e+00 3.357465e+00 6.845291e-01 3.626794e+00 3.239986e+00 2.478123e+00 1.024363e+00 -1.040943e+01 -1.490969e-01 -2.402622e-01 -8.703710e-01 1.390628e+00 1.842616e-01 6.187297e-01 5.068650e-01 1.553724e-01 6.776970e-02 6.071990e-01 4.053921e-01 -1.260971e-01 -7.972220e-01 -1.625478e-02 3.216711e-02 9.407210e-02 -7.538896e-01 -3.365842e-01 -5.681421e-01 -1.867100e-01 -4.804421e-02 -2.911745e-01 -4.528147e-01 -2.047321e-01 -1.336386e-02 5.630167e-01
<VARIANCE> 39
 7.191626e+00 1.212950e+01 1.656620e+01 1.472938e+01 1.549934e+01 2.092791e+01 2.035363e+01 2.633975e+01 1.957438e+01 1.903163e+01 2.351975e+01 1.719464e+01 1.131276e-01 2.781178e+00 2.675447e+00 3.245824e+00 3.265495e+00 2.794957e+00 2.725928e+00 2.563406e+00 3.152473e+00 2.683211e+00 2.625181e+00 2.139245e+00 2.089791e+00 3.943252e-01 6.953306e-01 3.370427e-01 4.949266e-01 4.587097e-01 5.623549e-01 5.262913e-01 5.387852e-01 6.138918e-01 4.874651e-01 4.170262e-01 4.060066e-01 3.643513e-01 6.545079e-02
<GCONST> 1.029716e+02
<MIXTURE> 13 7.351962e-02
<MEAN> 39
 5.804645e+00 1.200477e+01 3.154682e+00 7.622766e+00 1.794918e+00 -1.940700e+00 -2.642543e+00 -5.529832e+00 -4.389245e+00 -3.583072e+00 -4.537175e+00 -3.961846e+00 -6.393682e+00 -7.849454e-01 8.386990e-01 2.289225e-01 2.243301e-01 1.337349e+00 9.454028e-01 8.737044e-02 -1.951751e-01 5.227141e-03 4.839713e-02 3.034823e-01 3.153824e-01 -4.120124e-01 -2.985106e-01 -1.150051e+00 1.072718e-01 -1.506995e-01 -2.156827e-01 7.143654e-02 6.341735e-02 2.533365e-01 1.864608e-01 2.665184e-01 4.455937e-01 3.251618e-01 1.707476e-01
<VARIANCE> 39
 9.917982e+00 1.216914e+01 2.029052e+01 2.682098e+01 3.308715e+01 2.885674e+01 3.347117e+01 3.083692e+01 3.085701e+01 3.306625e+01 2.518975e+01 2.704800e+01 2.480686e+00 1.051030e+00 2.732981e+00 2.547882e+00 3.045754e+00 2.928085e+00 3.100348e+00 3.306236e+00 3.327295e+00 3.879907e+00 2.917098e+00 3.313328e+00 2.543684e+00 8.619561e-02 1.960648e-01 3.677683e-01 5.482626e-01 6.705647e-01 7.606362e-01 4.991002e-01 7.040938e-01 7.218655e-01 7.074532e-01 6.984242e-01 4.449154e-01 5.658356e-01 3.086369e-02
<GCONST> 1.099079e+02
<MIXTURE> 14 6.021696e-02
<MEAN> 39
 8.291064e+00 8.756159e+00 1.190446e+00 8.229315e+00 3.524365e+00 1.912896e-02 -8.307281e+00 -1.044408e+01 -3.734547e+00 7.668926e-01 6.226122e-01 -7.442261e+00 -5.756063e+00 -1.833274e+00 4.055401e+00 2.212319e+00 3.423563e+00 9.879704e-01 1.513069e+00 2.252356e-01 -2.403987e+00 -1.601316e+00 -1.750693e+00 1.595815e-01 -5.534825e-01 -1.287772e+00 -5.330446e-01 -1.046278e+00 -6.486621e-02 -7.711282e-01 -2.651313e-01 -3.197262e-01 6.180875e-01 1.352806e+00 4.548737e-01 -2.729325e-01 -4.582262e-01 7.005694e-01 2.261572e-01
<VARIANCE> 39
 5.787333e+00 1.156900e+01 1.326378e+01 2.431178e+01 1.706031e+01 2.291795e+01 1.899282e+01 2.678325e+01 2.759180e+01 2.555052e+01 2.175460e+01 1.843956e+01 1.629860e+00 1.284034e+00 2.156831e+00 2.841055e+00 4.497339e+00 3.708181e+00 5.167121e+00 4.428036e+00 5.151991e+00 4.751964e+00 4.246932e+00 3.167326e+00 3.027290e+00 1.737864e-01 2.064558e-01 3.324543e-01 3.706591e-01 5.091668e-01 4.734575e-01 6.082442e-01 6.960311e-01 6.062272e-01 6.670201e-01 6.662058e-01 4.241144e-01 4.658710e-01 3.543424e-02
<GCONST> 1.078337e+02
<MIXTURE> 15 4.214635e-02
<MEAN> 39
 1.194228e+01 3.569228e+00 -7.117455e+00 -3.228119e+00 2.627295e+00 2.664772e+00 -3.815964e+00 -6.527023e+00 -4.050066e+00 1.833668e-01 3.762631e+00 2.375407e+00 -3.221403e+00 -1.911945e+00 4.349133e+00 3.049649e+00 3.288003e+00 9.528362e-01 8.870566e-01 2.163432e+00 -1.399416e+00 -2.248443e+00 -2.598709e+00 -1.365758e+00 -1.925660e-01 -1.517479e+00 -7.347172e-01 -1.001483e-01 6.636833e-01 6.470932e-01 6.501231e-02 -1.076502e-01 6.160640e-02 5.465270e-01 5.011041e-01 -1.188653e-01 -6.631780e-01 -5.839264e-01 -1.103269e-01
<VARIANCE> 39
 9.980672e+00 1.401296e+01 2.139179e+01 4.362359e+01 3.065386e+01 3.147458e+01 4.182339e+01 3.205122e+01 3.455387e+01 3.910033e+01 2.931436e+01 3.118253e+01 1.503442e+00 1.842166e+00 2.124513e+00 4.581338e+00 6.813300e+00 5.954992e+00 5.539642e+00 9.633894e+00 7.929893e+00 5.666473e+00 5.595583e+00 4.388258e+00 3.457507e+00 1.257694e-01 1.671395e-01 3.434333e-01 3.476846e-01 4.910561e-01 5.408733e-01 5.162549e-01 4.310290e-01 6.185052e-01 5.378160e-01 6.232995e-01 4.746119e-01 4.488490e-01 2.124418e-02
<GCONST> 1.149896e+02
<MIXTURE> 16 4.449034e-02
<MEAN> 39
 -9.412800e+00 4.695871e+00 5.080615e-01 8.528091e+00 5.808121e+00 5.285694e+00 3.410720e+00 4.426149e-01 2.066847e+00 1.116973e+00 2.234579e+00 1.393120e+00 -1.048239e+01 4.942484e-01 -4.466562e-01 -4.081681e-01 -6.717604e-01 -9.774366e-01 -1.063033e+00 -3.832236e-01 -3.606759e-01 -3.708845e-01 -6.056746e-01 -2.940156e-01 -6.515262e-02 2.343586e-01 7.180816e-01 -2.665833e-01 1.827197e-01 -6.985011e-01 -3.916071e-01 -5.636759e-01 -3.029853e-01 -2.989000e-02 -4.156020e-02 -1.118303e-01 -1.190202e-01 -9.000959e-02 6.237106e-01
<VARIANCE> 39
 6.614935e+00 8.621431e+00 1.376128e+01 1.694430e+01 1.482272e+01 1.711615e+01 1.857625e+01 1.724006e+01 2.083008e+01 1.424968e+01 1.590306e+01 1.385669e+01 1.131276e-01 1.241712e+00 1.524021e+00 1.274751e+00 1.237086e+00 1.156634e+00 1.264060e+00 1.263734e+00 1.407148e+00 1.443993e+00 1.575981e+00 1.250775e+00 1.244025e+00 3.153055e-01 3.205873e-01 3.633507e-01 4.148696e-01 4.234924e-01 4.035393e-01 5.170340e-01 3.322018e-01 4.147914e-01 4.165913e-01 4.129633e-01 3.156428e-01 3.096655e-01 5.962103e-02
<GCONST> 8.920275e+01
<STATE> 3
<NUMMIXES> 16
<MIXTURE> 1 8.102562e-02
<MEAN> 39
 1.968512e+00 1.337588e+01 6.132565e+00 1.140531e+01 7.326285e+00 2.882845e+00 -3.213200e-02 -6.783906e+00 -4.852324e+00 -3.512357e+00 -2.138000e+00 -7.755905e-01 -8.153350e+00 -3.803517e-01 -6.090230e-02 1.084539e-01 3.798043e-01 5.477995e-01 3.693897e-01 1.501178e-01 2.815453e-01 1.262759e-01 -9.829821e-02 -4.212038e-02 1.157299e-01 -1.271321e-01 -8.025794e-02 -4.286062e-01 -2.552442e-01 -3.029483e-01 -1.338178e-01 6.055195e-03 5.833977e-02 1.615260e-01 2.092641e-01 2.473162e-01 3.544486e-02 -3.479142e-02 9.587607e-02
<VARIANCE> 39
 1.228411e+01 7.889049e+00 1.500289e+01 1.659852e+01 1.654831e+01 2.757876e+01 2.440739e+01 2.872743e+01 2.402398e+01 2.025055e+01 2.064680e+01 1.331131e+01 1.491030e+00 7.177711e-01 4.858017e-01 9.320140e-01 1.182593e+00 1.139261e+00 1.074012e+00 1.235313e+00 1.492639e+00 1.536844e+00 1.548419e+00 1.460792e+00 8.506655e-01 6.555621e-02 1.108496e-01 1.930960e-01 2.134226e-01 2.991477e-01 2.060650e-01 2.454116e-01 2.481863e-01 3.477850e-01 2.924500e-01 2.974923e-01 2.759777e-01 1.731711e-01 2.155879e-02
<GCONST> 8.351496e+01
<MIXTURE> 2 9.151370e-02
<MEAN> 39
 5.741524e+00 9.612302e+00 2.956118e+00 7.816022e+00 2.196553e+00 -5.917417e-02 -2.992029e+00 -8.285159e+00 -6.755427e+00 -4.363633e+00 -2.387948e+00 -4.772580e+00 -5.888556e+00 -7.044022e-01 -1.325871e+00 -4.724070e-01 -1.576957e+00 -5.169408e-02 3.187403e-02 3.865246e-01 1.472889e+00 1.707121e+00 4.184808e-01 6.589595e-01 1.014446e+00 3.761656e-01 1.680171e-01 -1.196055e+00 -5.531233e-01 -1.400271e+00 -5.822322e-01 -2.888509e-03 3.018938e-02 5.487940e-01 5.728071e-01 7.568266e-01 3.651883e-01 4.318501e-01 4.304225e-01
<VARIANCE> 39
 1.425812e+01 2.273475e+01 2.357622e+01 3.528705e+01 3.155972e+01 3.613493e+01 5.660104e+01 4.798831e+01 5.177174e+01 3.845035e+01 3.846931e+01 3.665103e+01 1.973249e+00 2.863726e+00 2.720644e+00 3.212678e+00 5.556775e+00 3.263966e+00 3.515532e+00 4.623059e+00 5.589294e+00 6.204420e+00 4.444999e+00 4.494549e+00 3.232406e+00 2.985055e-01 4.982658e-01 6.595590e-01 9.200632e-01 1.141657e+00 9.315258e-01 9.672934e-01 1.230564e+00 1.416322e+00 1.330904e+00 1.089147e+00 9.055777e-01 8.339016e-01 4.286538e-02
<GCONST> 1.263953e+02
<MIXTURE> 3 6.582130e-02
<MEAN> 39
 5.007556e+00 1.311092e+01 2.763572e+00 8.026801e+00 7.717453e+00 5.846978e+00 8.624613e-01 -9.112855e+00 -9.505739e+00 -4.373950e+00 1.832660e+00 1.662891e+00 -7.090422e+00 -1.221733e+00 9.731725e-01 1.294488e+00 9.892055e-01 5.300692e-01 3.377906e-01 2.828844e-01 -6.271237e-02 1.810397e-02 7.128061e-02 -1.966204e-01 1.560872e-02 -4.138457e-01 1.088182e-02 -1.176681e+00 -3.574018e-01 -5.865980e-01 -5.602674e-01 -6.447541e-01 -5.646076e-01 5.965973e-01 1.125906e+00 5.086600e-01 -2.262193e-01 -2.822424e-01 3.218941e-01
<VARIANCE> 39
 7.422935e+00 6.500727e+00 1.348453e+01 1.282997e+01 1.915357e+01 1.709493e+01 2.159537e+01 1.662334e+01 1.453042e+01 2.127150e+01 1.705786e+01 1.835848e+01 9.159445e-01 5.710247e-01 1.620085e+00 1.164010e+00 1.642630e+00 1.323906e+00 1.424244e+00 2.521943e+00 2.403944e+00 2.984907e+00 1.927848e+00 2.244128e+00 1.870115e+00 1.040308e-01 1.443772e-01 2.507228e-01 2.961987e-01 3.711327e-01 4.145553e-01 3.702569e-01 5.354719e-01 4.104854e-01 3.697105e-01 4.607045e-01 3.600499e-01 2.844822e-01 2.228272e-02
<GCONST> 9.093364e+01
<MIXTURE> 4 1.276917e-03
<MEAN> 39
 4.325861e+00 6.343855e+00 7.616968e+00 1.174876e+01 -2.270269e+00 -6.856989e+00 -3.051892e-01 -1.490362e+00 -6.719836e+00 -5.400156e+00 2.414539e+00 -3.035875e+00 -4.906466e+00 3.955616e+00 -1.683547e+00 1.437374e+00 5.541542e-01 -4.824178e+00 -1.785581e+00 -1.031540e+00 -2.232539e+00 -3.965954e+00 -2.878328e+00 1.019945e+00 3.628637e-01 1.648497e+00 -7.231242e-01 -4.836794e-01 -4.518323e-01 -7.451822e-01 -2.913968e-01 1.149645e+00 1.105709e-01 3.387175e-02 1.125559e-01 2.161008e-01 4.275144e-01 3.925269e-01 -2.507806e-01
<VARIANCE> 39
 2.703328e+01 5.156376e+01 6.586136e+00 5.690309e+00 6.626646e+01 3.674161e+01 2.554670e+01 1.919520e+01 1.353262e+02 2.016875e+00 4.539224e+01 2.094234e+01 1.534094e+00 9.896340e-01 2.591533e+00 2.688245e+00 4.842371e+00 1.076638e+00 2.176748e+00 3.094901e+00 1.031765e+00 5.516441e+00 2.151510e+00 9.889804e-01 4.520340e+00 3.440724e-01 5.209299e-01 5.073794e-01 2.189185e-01 6.144205e-02 2.063723e+00 1.901344e-01 1.917693e-01 2.749391e-01 3.307087e+00 2.808472e-02 6.664099e-01 5.110242e-01 7.892887e-02
<GCONST> 1.023428e+02
<MIXTURE> 5 5.781158e-02
<MEAN> 39
 1.594554e+00 1.407373e+01 7.144556e+00 1.267888e+01 8.387495e+00 2.254927e+00 -2.355685e+00 -7.484337e+00 -4.421067e+00 -2.498209e+00 -1.381200e+00 -2.130419e+00 -7.806600e+00 -2.041636e+00 2.989937e-01 1.058964e+00 1.126240e+00 1.161475e+00 9.343394e-01 8.700624e-01 9.270595e-01 3.097067e-01 -6.652713e-01 -3.065281e-01 2.498802e-01 -5.902337e-01 2.032192e-01 -1.474093e+00 -9.233325e-01 -1.244971e+00 -9.132341e-01 -2.832527e-01 2.345152e-01 5.834958e-01 6.032336e-01 4.395827e-01 1.832317e-01 1.885998e-01 4.124915e-01
<VARIANCE> 39
 9.520462e+00 6.541878e+00 1.216159e+01 1.584261e+01 1.506864e+01 1.638482e+01 2.397428e+01 1.695853e+01 2.276941e+01 1.971155e+01 1.755121e+01 1.594747e+01 1.524454e+00 8.983732e-01 1.679367e+00 1.644908e+00 2.017027e+00 1.627033e+00 1.425822e+00 2.392034e+00 2.223820e+00 2.320933e+00 2.561433e+00 2.048125e+00 1.870051e+00 1.150107e-01 2.663018e-01 3.179831e-01 4.380060e-01 4.278235e-01 4.553541e-01 4.129691e-01 4.595322e-01 4.799207e-01 5.696335e-01 4.621193e-01 4.764885e-01 4.143086e-01 3.126343e-02
<GCONST> 9.608675e+01
<MIXTURE> 6 4.942857e-02
<MEAN> 39
 -9.120643e+00 5.063233e+00 7.056227e-01 9.518270e+00 6.026378e+00 5.825407e+00 3.988578e+00 8.826311e-01 2.781504e+00 2.242180e+00 2.650249e+00 9.109925e-01 -1.047549e+01 1.500277e+00 -7.437954e-01 9.198044e-02 -1.525766e+00 -7.230420e-01 -9.901637e-01 -1.250895e-01 1.610387e-01 4.265565e-01 -7.255034e-02 1.016660e-01 3.161164e-01 1.344745e+00 1.482250e+00 -5.781928e-01 -3.786456e-01 -1.368536e+00 -6.602877e-01 -4.537671e-01 -5.495442e-01 -2.938116e-01 -1.391632e-01 -2.337435e-02 -1.618619e-01 -1.750280e-01 7.320533e-01
<VARIANCE> 39
 6.329149e+00 8.315107e+00 1.042688e+01 1.543276e+01 1.361229e+01 1.798107e+01 2.133688e+01 2.071988e+01 2.016679e+01 1.681625e+01 2.055646e+01 1.380458e+01 1.131276e-01 1.928271e+00 1.365854e+00 1.690590e+00 2.004812e+00 1.862957e+00 2.003814e+00 3.008958e+00 2.237109e+00 3.103992e+00 2.306915e+00 2.226819e+00 1.846005e+00 2.889277e-01 1.613882e-01 2.748063e-01 4.806018e-01 5.440798e-01 4.487776e-01 8.742071e-01 6.068148e-01 5.048844e-01 4.165634e-01 4.213068e-01 5.870981e-01 3.383166e-01 2.357144e-02
<GCONST> 9.548233e+01
<MIXTURE> 7 9.535567e-02
<MEAN> 39
 6.230852e+00 1.117149e+01 3.403634e+00 1.188582e+01 7.819669e+00 2.265536e+00 -4.995727e+00 -9.018634e+00 -2.449222e+00 6.986330e-02 -7.491356e-01 -5.735706e+00 -6.993427e+00 -3.737046e-01 5.245574e-01 4.149312e-01 4.121249e-01 3.454553e-01 5.607538e-02 -3.921039e-02 -8.312120e-02 6.368122e-03 7.562769e-02 -9.693939e-02 -8.606606e-02 -1.228307e-01 -2.242879e-01 -8.064374e-01 -1.167642e-01 -7.217053e-01 -5.494803e-01 -2.935360e-01 3.008589e-01 5.742940e-01 1.895518e-01 -1.189534e-01 -4.821924e-02 4.706392e-01 2.203237e-01
<VARIANCE> 39
 8.452332e+00 9.471839e+00 1.227175e+01 1.715311e+01 1.762856e+01 2.946618e+01 1.934625e+01 1.649459e+01 1.864387e+01 2.107072e+01 1.963482e+01 1.398716e+01 9.659403e-01 5.024946e-01 9.147254e-01 8.396381e-01 1.084621e+00 7.850447e-01 9.985377e-01 1.012040e+00 9.587580e-01 1.186098e+00 1.253498e+00 1.246937e+00 1.142994e+00 6.756775e-02 1.858609e-01 3.619352e-01 2.639642e-01 3.721085e-01 3.304043e-01 3.873407e-01 2.904083e-01 3.460150e-01 3.636623e-01 3.390650e-01 3.053338e-01 2.165962e-01 3.033931e-02
<GCONST> 8.421613e+01
<MIXTURE> 8 5.144154e-02
<MEAN> 39
 7.300800e+00 1.281667e+01 1.352260e+00 3.936377e+00 3.197488e+00 4.491036e+00 4.119075e+00 -3.334210e+00 -5.931303e+00 -6.936730e+00 -6.173517e+00 -5.418205e-01 -6.580283e+00 -1.692909e+00 2.463650e+00 2.018677e+00 2.633339e+00 1.409505e+00 -1.889798e-01 1.542050e+00 3.354138e-01 -9.320614e-01 -5.763528e-01 -1.178184e+00 -9.060282e-01 -9.523643e-01 7.019275e-02 -9.995848e-01 -3.133402e-01 -7.315207e-01 -3.858496e-01 1.147012e-01 -7.798497e-01 -2.229995e-01 3.480616e-01 4.907075e-01 8.373286e-01 2.713986e-01 3.153163e-01
<VARIANCE> 39
 1.116776e+01 1.481707e+01 1.997141e+01 1.886667e+01 2.250055e+01 1.649444e+01 2.065970e+01 2.168433e+01 2.187897e+01 1.629677e+01 2.069410e+01 1.800655e+01 1.178688e+00 6.496813e-01 1.452782e+00 2.434561e+00 3.519701e+00 3.505094e+00 2.525656e+00 3.929058e+00 2.406456e+00 3.036464e+00 2.458241e+00 2.920460e+00 2.241439e+00 1.010152e-01 1.148982e-01 3.506568e-01 4.179721e-01 6.514147e-01 4.389581e-01 4.332598e-01 5.686187e-01 3.995769e-01 5.275913e-01 4.039890e-01 3.286544e-01 3.578822e-01 1.824192e-02
<GCONST> 9.947027e+01
<MIXTURE> 9 6.896265e-02
<MEAN> 39
 -7.060859e+00 4.189599e+00 1.252143e-01 7.981874e+00 6.774304e+00 5.397770e+00 3.977557e+00 3.292808e-01 1.373129e+00 1.875428e+00 6.440542e-01 8.152126e-01 -9.498612e+00 1.826830e+00 -9.354292e-01 8.392521e-01 -8.984326e-01 -1.576089e+00 -2.232834e+00 -7.477903e-01 2.333624e-01 5.307546e-02 -5.922832e-01 -2.086787e-01 1.227875e-01 1.385465e+00 9.958172e-01 -4.171909e-01 4.557557e-01 -8.251612e-01 -1.068854e+00 -6.744775e-01 -6.754410e-01 -1.831651e-01 -3.556984e-01 -1.986210e-01 8.740244e-02 -4.122512e-02 5.800837e-01
<VARIANCE> 39
 1.470876e+01 2.307887e+01 2.084678e+01 2.096776e+01 2.508718e+01 2.735090e+01 2.222243e+01 3.097464e+01 2.976528e+01 2.519939e+01 2.297680e+01 1.875095e+01 1.341256e+00 3.088614e+00 2.051436e+00 3.133776e+00 3.512210e+00 3.174138e+00 3.265546e+00 2.890790e+00 3.200083e+00 4.257354e+00 3.416091e+00 2.248686e+00 2.376084e+00 3.464767e-01 3.298187e-01 6.030646e-01 1.021896e+00 8.395903e-01 7.023349e-01 6.552858e-01 6.448725e-01 8.727580e-01 9.607900e-01 7.038799e-01 5.717140e-01 5.045924e-01 5.058280e-02
<GCONST> 1.139932e+02
<MIXTURE> 10 6.455544e-02
<MEAN> 39
 4.489738e+00 1.288609e+01 6.595450e+00 1.123266e+01 2.954234e+00 -1.061274e+00 -9.954279e+00 -1.050337e+01 -4.534210e+00 -4.613332e+00 -2.825276e+00 -7.766183e+00 -6.814650e+00 -2.625010e+00 1.528829e+00 1.718241e+00 2.001400e+00 1.091333e+00 1.225527e+00 7.270589e-01 -3.865532e-01 -6.532708e-01 -1.530108e+00 -3.650111e-01 7.287394e-04 -8.986299e-01 -9.426621e-02 -2.099081e+00 -8.660677e-01 -1.561871e+00 -5.563040e-01 -2.824850e-01 1.096398e+00 1.641075e+00 7.762908e-01 8.369617e-01 4.180028e-01 9.617018e-01 4.685881e-01
<VARIANCE> 39
 8.296755e+00 6.423005e+00 1.518388e+01 1.784381e+01 1.943712e+01 2.212594e+01 2.143550e+01 2.163038e+01 2.501319e+01 2.733695e+01 2.663521e+01 1.763791e+01 1.515290e+00 1.633515e+00 2.747815e+00 2.581258e+00 4.231009e+00 2.563563e+00 3.861610e+00 2.530821e+00 3.171485e+00 2.951156e+00 3.314563e+00 2.989320e+00 2.544344e+00 3.130022e-01 2.659426e-01 2.933371e-01 8.308752e-01 6.012520e-01 7.505829e-01 8.734667e-01 6.378389e-01 6.352682e-01 9.873542e-01 8.457383e-01 7.818571e-01 5.539266e-01 5.496744e-02
<GCONST> 1.094803e+02
<MIXTURE> 11 8.302520e-02
<MEAN> 39
 6.548959e+00 1.118384e+01 1.557611e+00 1.003089e+01 8.194555e+00 2.676417e+00 -3.319021e+00 -1.014904e+01 -5.648304e+00 -6.854365e-01 1.658406e+00 -3.642991e+00 -6.730009e+00 -1.446519e+00 -1.217268e+00 2.657566e-01 -4.716826e-01 -4.416041e-01 -9.011109e-01 3.036038e-01 8.952281e-01 1.292792e+00 1.152957e-01 -4.336487e-01 6.257627e-01 2.862248e-01 -2.185695e-02 -1.789851e+00 3.323671e-01 -1.099422e+00 -1.583472e+00 -8.836607e-01 -2.249540e-01 1.221436e+00 5.107927e-01 3.018839e-03 1.081914e-02 3.627347e-01 5.400574e-01
<VARIANCE> 39
 7.205034e+00 1.359653e+01 1.200026e+01 1.903209e+01 1.448856e+01 1.774019e+01 2.322355e+01 1.644211e+01 2.506212e+01 1.760275e+01 1.690850e+01 1.877123e+01 1.297739e+00 1.269721e+00 2.180745e+00 1.371801e+00 2.209468e+00 2.333722e+00 2.480086e+00 2.269640e+00 2.318034e+00 3.023485e+00 1.815024e+00 2.127812e+00 1.778428e+00 1.851532e-01 2.356163e-01 4.660069e-01 8.557371e-01 6.108383e-01 6.019936e-01 6.304566e-01 7.178156e-01 6.771157e-01 1.124272e+00 6.988843e-01 4.825099e-01 4.394380e-01 2.424075e-02
<GCONST> 1.021275e+02
<MIXTURE> 12 8.357953e-02
<MEAN> 39
 4.834138e+00 1.425734e+01 3.326578e+00 6.502765e+00 5.063071e+00 5.005721e+00 3.928969e+00 -4.365300e+00 -7.566320e+00 -6.706681e+00 -5.150795e+00 -6.930802e-01 -7.173848e+00 -4.995280e-01 2.069143e-01 4.138302e-01 2.562427e-01 1.164687e-01 1.660586e-02 1.323779e-01 2.218590e-01 2.673300e-01 -8.874471e-02 -3.007108e-01 -6.160473e-02 -1.195111e-01 5.060954e-02 -1.142227e+00 -5.196742e-01 -6.096792e-01 -2.800871e-01 -2.914341e-01 -5.712510e-01 -1.279566e-01 5.199502e-01 6.386180e-01 7.003244e-01 2.161411e-01 3.252583e-01
<VARIANCE> 39
 1.693805e+01 1.015069e+01 1.749000e+01 2.425108e+01 2.474948e+01 2.040088e+01 1.664497e+01 2.141191e+01 1.893665e+01 1.510137e+01 2.243822e+01 2.207155e+01 1.629287e+00 4.446942e-01 7.012500e-01 7.106820e-01 1.001443e+00 1.127778e+00 8.915457e-01 1.283375e+00 1.313093e+00 1.978626e+00 1.268305e+00 1.459638e+00 1.118575e+00 5.599266e-02 2.269541e-01 2.653969e-01 3.434257e-01 4.605527e-01 4.558741e-01 3.621243e-01 3.714817e-01 3.533456e-01 3.735314e-01 3.763160e-01 3.742023e-01 3.924499e-01 2.761897e-02
<GCONST> 8.891853e+01
<MIXTURE> 13 5.693100e-02
<MEAN> 39
 6.711624e+00 1.229678e+01 9.327884e-01 6.881940e+00 6.399982e+00 6.680506e+00 1.617042e+00 -1.193513e+01 -9.935965e+00 -4.235055e+00 1.320258e+00 2.155498e-01 -6.831953e+00 -1.378378e+00 1.594314e+00 8.321813e-01 1.161129e+00 8.629922e-01 3.251361e-01 1.148241e+00 3.239008e-02 -2.869818e-01 -1.012469e+00 -1.129839e+00 2.800463e-01 -5.875536e-01 -8.590313e-02 -1.793236e+00 -2.572722e-01 -1.138933e+00 -9.099273e-01 -8.744069e-01 -9.152485e-01 1.191898e+00 1.380310e+00 8.888313e-01 9.185536e-02 -1.931004e-01 5.154806e-01
<VARIANCE> 39
 8.540278e+00 9.872074e+00 1.281660e+01 2.021511e+01 1.859810e+01 2.085696e+01 2.104832e+01 1.290251e+01 1.983833e+01 2.144651e+01 1.687275e+01 1.752144e+01 1.362989e+00 9.899468e-01 2.332348e+00 1.490481e+00 3.399380e+00 2.388374e+00 2.523915e+00 2.214017e+00 2.781968e+00 2.633406e+00 3.299329e+00 2.416931e+00 1.623840e+00 1.588175e-01 3.363838e-01 4.428029e-01 5.025488e-01 8.453562e-01 6.340559e-01 6.460999e-01 5.273591e-01 5.607285e-01 5.886702e-01 5.942355e-01 5.269363e-01 3.778989e-01 4.602700e-02
<GCONST> 1.024353e+02
<MIXTURE> 14 4.575756e-02
<MEAN> 39
 6.939700e+00 1.370699e+01 1.785318e+00 4.550923e+00 3.831606e+00 5.680254e+00 3.569404e+00 -4.853413e+00 -9.299115e+00 -1.026433e+01 -5.017684e+00 3.599849e-01 -6.726051e+00 -2.228303e+00 2.293398e+00 2.680070e+00 1.694902e+00 7.139164e-02 7.612761e-01 1.716509e+00 2.265516e-01 -1.508565e-01 -1.007014e+00 -1.825880e+00 -1.030904e+00 -9.244468e-01 -1.206210e-01 -1.843468e+00 -6.348607e-01 -4.954245e-01 -1.394178e-01 -8.142013e-01 -1.245013e+00 2.521369e-01 1.197299e+00 1.377738e+00 8.994116e-01 4.171061e-02 4.353503e-01
<VARIANCE> 39
 1.080343e+01 8.793209e+00 1.401088e+01 1.728993e+01 2.797741e+01 2.231855e+01 2.276823e+01 2.410408e+01 1.612147e+01 1.775093e+01 1.822231e+01 2.460284e+01 1.293881e+00 1.582274e+00 2.456530e+00 3.509857e+00 3.156404e+00 2.602237e+00 3.389392e+00 3.275331e+00 3.851861e+00 3.107628e+00 4.419733e+00 2.679633e+00 2.162461e+00 1.995679e-01 2.887961e-01 3.669696e-01 5.791705e-01 9.864982e-01 5.997047e-01 6.112095e-01 6.012809e-01 8.524473e-01 5.765157e-01 6.117142e-01 5.028629e-01 4.605964e-01 3.566107e-02
<GCONST> 1.074103e+02
<MIXTURE> 15 5.306324e-02
<MEAN> 39
 2.372576e+00 1.348471e+01 7.082687e+00 1.250987e+01 6.790685e+00 1.589294e+00 -3.717576e+00 -9.267717e+00 -5.833711e+00 -3.675237e+00 -1.460809e+00 -2.954219e+00 -7.618267e+00 -2.220997e+00 -5.280172e-02 8.432740e-01 1.123111e+00 9.519024e-01 6.445231e-01 9.812070e-01 1.003833e+00 1.251252e-01 -7.148268e-01 -3.801896e-01 2.065959e-01 -5.697500e-01 1.439100e-01 -1.587554e+00 -1.054355e+00 -1.429245e+00 -7.434878e-01 -2.582026e-01 2.340716e-01 9.540155e-01 9.661001e-01 6.548232e-01 2.950134e-01 2.684676e-01 4.193714e-01
<VARIANCE> 39
 1.065304e+01 8.651203e+00 1.069178e+01 1.640519e+01 2.162268e+01 1.769059e+01 2.706091e+01 2.091967e+01 2.389558e+01 2.369368e+01 1.803624e+01 1.766672e+01 1.746616e+00 1.632775e+00 1.585631e+00 1.584702e+00 2.250640e+00 1.679978e+00 1.791810e+00 2.100735e+00 2.113154e+00 2.406735e+00 1.993495e+00 1.858891e+00 1.370811e+00 2.478118e-01 2.624054e-01 3.795266e-01 3.869209e-01 6.012114e-01 6.623015e-01 4.361531e-01 4.716905e-01 5.575824e-01 6.096506e-01 6.668491e-01 4.311408e-01 3.663371e-01 4.867268e-02
<GCONST> 1.001272e+02
<MIXTURE> 16 5.044428e-02
<MEAN> 39
 -9.377017e+00 5.169948e+00 2.350681e-01 9.104958e+00 5.483145e+00 4.793778e+00 3.563435e+00 1.396615e-01 1.946418e+00 2.858319e-01 1.944130e+00 1.011510e+00 -1.046707e+01 2.203612e+00 -1.355563e+00 -8.360271e-01 -2.410979e+00 -1.147465e+00 -1.594406e+00 -9.326760e-01 -4.387527e-01 2.942707e-01 -2.040774e-02 -2.946557e-01 -1.623405e-01 1.604118e+00 1.382893e+00 -6.098748e-01 -2.807623e-01 -1.177797e+00 -5.042902e-01 -1.616151e-01 -4.235660e-01 -1.683167e-01 -5.187109e-03 3.503125e-01 -9.198567e-02 -2.404373e-01 6.771380e-01
<VARIANCE> 39
 7.047053e+00 9.412029e+00 1.200886e+01 1.542252e+01 1.381691e+01 1.527431e+01 1.843276e+01 2.033598e+01 1.824431e+01 1.555274e+01 2.005988e+01 1.346869e+01 1.131276e-01 1.783383e+00 1.348029e+00 1.528073e+00 2.357135e+00 1.586842e+00 2.457180e+00 2.190542e+00 1.897627e+00 2.293732e+00 2.143057e+00 1.725734e+00 1.496259e+00 3.182032e-01 1.189641e-01 3.241181e-01 4.034810e-01 4.923237e-01 5.344613e-01 7.692343e-01 5.900968e-01 4.652947e-01 4.952159e-01 4.506123e-01 5.953340e-01 3.744444e-01 2.067536e-02
<GCONST> 9.384699e+01
<STATE> 4
<NUMMIXES> 16
<MIXTURE> 1 5.875672e-02
<MEAN> 39
 2.040392e-01 1.249426e+01 8.012644e+00 1.401238e+01 5.047452e+00 1.655936e+00 -6.208722e+00 -8.635764e+00 -4.856357e+00 -6.162243e+00 -2.650552e+00 -5.549046e+00 -8.219590e+00 -2.465564e+00 -2.747557e+00 -1.131384e+00 -1.114556e+00 1.459715e-01 9.364745e-01 2.646611e+00 3.101787e+00 2.158788e+00 9.805881e-01 1.208430e+00 1.501659e+00 8.169658e-02 8.355981e-01 -1.457532e+00 -1.139503e+00 -1.753557e+00 -7.856441e-01 -5.652500e-01 3.206365e-01 8.447409e-01 6.319594e-01 9.955512e-01 3.981611e-01 4.524923e-01 6.408383e-01
<VARIANCE> 39
 1.126420e+01 7.376214e+00 1.207545e+01 1.448761e+01 1.728447e+01 2.337178e+01 2.556095e+01 2.360781e+01 1.971977e+01 1.891226e+01 1.452303e+01 1.512710e+01 1.932038e+00 1.895899e+00 1.657972e+00 1.941471e+00 2.937948e+00 2.115916e+00 3.279428e+00 2.143288e+00 2.966535e+00 3.351864e+00 3.150871e+00 3.040000e+00 2.173118e+00 5.718418e-01 4.755593e-01 4.952285e-01 7.887948e-01 6.675621e-01 6.754413e-01 8.156127e-01 6.174158e-01 6.970362e-01 6.789991e-01 7.173173e-01 5.943244e-01 4.244224e-01 4.840432e-02
<GCONST> 1.073458e+02
<MIXTURE> 2 6.175563e-02
<MEAN> 39
 4.107225e-01 1.129895e+01 5.774256e+00 8.922718e+00 7.834001e+00 3.624440e+00 2.644240e+00 -4.405300e+00 -5.561097e+00 -4.715932e+00 -4.944551e+00 -1.086662e+00 -7.486957e+00 6.309850e-04 -3.377302e+00 -2.427696e+00 -3.126673e+00 -1.443878e+00 -5.883106e-01 -5.443577e-01 6.384702e-01 2.332333e+00 1.790363e+00 1.556336e+00 7.816590e-01 1.143003e+00 1.239543e+00 -8.220742e-01 -1.089493e+00 -1.543396e+00 -1.081547e+00 1.609039e-01 -4.598339e-01 -2.471879e-01 3.825043e-01 4.484794e-01 8.850377e-01 1.204760e-01 5.346097e-01
<VARIANCE> 39
 1.402040e+01 2.132317e+01 1.739449e+01 2.390697e+01 2.020382e+01 1.910122e+01 2.234580e+01 2.226126e+01 1.833350e+01 1.891295e+01 1.652213e+01 1.536605e+01 2.006572e+00 2.040477e+00 1.641313e+00 1.423753e+00 2.961847e+00 2.847915e+00 2.012820e+00 2.880204e+00 3.210615e+00 2.849909e+00 2.604593e+00 2.479391e+00 2.007185e+00 2.165688e-01 2.427325e-01 5.660860e-01 5.689350e-01 9.503621e-01 6.072176e-01 7.794883e-01 9.275733e-01 7.319655e-01 6.848081e-01 7.918054e-01 5.226809e-01 5.864192e-01 2.492252e-02
<GCONST> 1.071311e+02
<MIXTURE> 3 5.884314e-02
<MEAN> 39
 -7.003091e+00 7.106624e+00 3.195724e+00 1.146936e+01 7.689423e+00 6.632773e+00 2.503901e+00 -2.585956e-01 1.528047e+00 -3.826812e-01 7.784579e-01 -1.010154e+00 -1.007627e+01 -6.306232e-01 -3.068141e+00 -1.796942e+00 -2.466885e+00 -1.183075e+00 -8.452799e-01 9.165851e-01 1.882022e+00 2.133870e+00 1.893823e+00 1.576735e+00 1.304820e+00 8.646690e-01 1.775978e+00 -2.907732e-01 -2.335256e-01 -1.154096e+00 -8.267602e-01 -9.473320e-01 -8.610618e-01 -5.296709e-01 -5.380805e-01 -6.231680e-02 -1.242234e-01 -9.337254e-02 7.772848e-01
<VARIANCE> 39
 1.046024e+01 1.295033e+01 1.555948e+01 1.644201e+01 1.767783e+01 1.897640e+01 2.319070e+01 2.280043e+01 1.955682e+01 1.979698e+01 1.903813e+01 1.597904e+01 4.977249e-01 2.471452e+00 1.467634e+00 1.525556e+00 2.389681e+00 2.682223e+00 3.256053e+00 3.255436e+00 3.060442e+00 2.708555e+00 2.205881e+00 2.305050e+00 1.976277e+00 5.026590e-01 3.159536e-01 4.145779e-01 7.361728e-01 6.516224e-01 5.228325e-01 7.039966e-01 6.039968e-01 6.325303e-01 6.521544e-01 6.656727e-01 5.678126e-01 4.485162e-01 3.165550e-02
<GCONST> 1.044754e+02
<MIXTURE> 4 5.321233e-02
<MEAN> 39
 -4.503533e+00 8.466761e-01 1.536576e+00 5.375591e+00 5.792988e+00 2.927478e+00 1.713570e+00 -8.943259e-01 1.032760e+00 1.695767e-02 1.316010e+00 -3.571447e-02 -5.872757e+00 1.286509e+00 -3.516921e+00 -3.416350e+00 -3.559263e+00 -1.199548e+00 -8.884820e-01 -4.198593e-01 1.198725e+00 2.324702e+00 2.151065e+00 1.769007e+00 1.079038e+00 1.458149e+00 1.867431e+00 4.477185e-01 -6.568692e-01 -7.791269e-01 -5.112138e-01 -2.455511e-01 -7.501683e-01 -4.662134e-01 -5.150073e-01 -2.565498e-01 -1.751742e-01 -5.851671e-03 3.129696e-01
<VARIANCE> 39
 1.416572e+01 1.978263e+01 1.861510e+01 1.918920e+01 2.248775e+01 2.505764e+01 3.127444e+01 2.990245e+01 3.238242e+01 2.179294e+01 2.345498e+01 2.035824e+01 1.859522e+00 2.441626e+00 1.799732e+00 2.899164e+00 4.462559e+00 3.018089e+00 2.686212e+00 5.921704e+00 5.683291e+00 3.461640e+00 2.850599e+00 3.067433e+00 2.265334e+00 2.293748e-01 3.473415e-01 6.864323e-01 6.905056e-01 1.016777e+00 7.272558e-01 1.033811e+00 1.229476e+00 1.103388e+00 1.132657e+00 9.115570e-01 7.890716e-01 7.655015e-01 2.989544e-02
<GCONST> 1.163691e+02
<MIXTURE> 5 4.070736e-02
<MEAN> 39
 1.669679e+00 -2.203468e-01 6.026487e+00 6.118778e+00 -1.615434e+00 -7.544352e+00 -2.959310e+00 6.501692e-01 2.857592e-01 -3.238708e+00 -2.834824e-01 2.196253e+00 -3.331013e+00 1.655401e+00 -3.019396e+00 2.986057e+00 -1.804857e+00 -5.027663e+00 -2.508341e+00 -1.688063e+00 1.514996e+00 -1.634170e+00 -8.654928e-01 1.479678e+00 8.879407e-01 1.436097e+00 8.820349e-02 6.954895e-01 3.814524e-01 -4.442674e-02 -7.238345e-02 8.585923e-01 7.377512e-02 -4.856467e-01 -8.178440e-01 1.863731e-01 2.676992e-01 -3.961707e-01 -2.080208e-01
<VARIANCE> 39
 1.616207e+01 1.159210e+01 1.520871e+01 1.465487e+01 2.141349e+01 1.940335e+01 3.056783e+01 1.822338e+01 2.237917e+01 1.627566e+01 1.518349e+01 1.431117e+01 1.485204e+00 3.626979e+00 4.134285e+00 3.438225e+00 5.537755e+00 4.271867e+00 4.339041e+00 5.412254e+00 5.763960e+00 5.113005e+00 5.443955e+00 2.903668e+00 2.679092e+00 2.364767e-01 3.365878e-01 3.362380e-01 3.275535e-01 3.475415e-01 5.280604e-01 5.405111e-01 7.636259e-01 5.553850e-01 6.132547e-01 4.877963e-01 4.414403e-01 4.109560e-01 3.355994e-02
<GCONST> 1.095221e+02
<MIXTURE> 6 6.495308e-02
<MEAN> 39
 5.691916e+00 1.378034e+01 3.050560e+00 4.967798e+00 3.586678e+00 5.870567e+00 4.233891e+00 -4.426423e+00 -7.767660e+00 -7.850079e+00 -4.748565e+00 2.266323e-01 -7.091587e+00 -1.640724e+00 -2.257841e+00 -3.368406e-01 -3.517246e-01 2.663481e-01 -8.067731e-01 -6.544204e-01 1.822675e-01 1.687811e+00 1.484829e+00 6.082082e-01 1.222807e-01 3.584119e-01 4.879223e-01 -1.397061e+00 -9.363758e-01 -1.155853e+00 -4.860919e-01 -3.131165e-01 -8.762831e-01 -1.183580e-01 6.381238e-01 8.868470e-01 9.901315e-01 2.560563e-01 5.253909e-01
<VARIANCE> 39
 1.174495e+01 1.286678e+01 1.867297e+01 2.159005e+01 2.591092e+01 2.065348e+01 2.315692e+01 2.456181e+01 2.261510e+01 1.672919e+01 2.471032e+01 2.097667e+01 1.296356e+00 1.545861e+00 2.152898e+00 1.518734e+00 2.410055e+00 1.942863e+00 2.097613e+00 1.956926e+00 2.460222e+00 2.323199e+00 2.417192e+00 2.031358e+00 1.792849e+00 1.874837e-01 2.521229e-01 4.132760e-01 5.328685e-01 8.721361e-01 5.937313e-01 6.874512e-01 6.770414e-01 6.137680e-01 5.848555e-01 5.199429e-01 5.288789e-01 4.741161e-01 2.757929e-02
<GCONST> 1.036207e+02
<MIXTURE> 7 8.866867e-02
<MEAN> 39
 5.935564e-02 3.814241e+00 -1.079813e+00 4.188204e-01 3.290621e+00 -3.149932e-01 1.691502e+00 -2.896434e+00 -3.445093e-01 1.280613e+00 -4.517038e-01 2.487920e+00 -4.541488e+00 3.246356e+00 -2.880401e+00 -2.074050e+00 -5.020648e+00 -3.252661e+00 4.918155e-01 -1.343934e+00 -2.340344e-01 1.373037e+00 1.240790e+00 1.827681e+00 -1.203822e-01 1.938684e+00 6.313252e-01 -1.294123e-01 -5.933500e-02 -2.539935e-01 -4.019110e-01 7.646859e-01 -2.046499e-01 -1.929040e-01 -5.704587e-02 -1.568025e-01 2.522984e-01 -5.376788e-01 3.170527e-02
<VARIANCE> 39
 1.677378e+01 1.781978e+01 1.789463e+01 2.676052e+01 2.200776e+01 2.551532e+01 3.075726e+01 2.624167e+01 2.739316e+01 2.900006e+01 1.707051e+01 1.369249e+01 2.344508e+00 3.876681e+00 4.970984e+00 4.126301e+00 5.299755e+00 3.949003e+00 5.311913e+00 6.646463e+00 6.682056e+00 6.557060e+00 4.728900e+00 4.180523e+00 4.302396e+00 3.314350e-01 3.666915e-01 6.321635e-01 4.069705e-01 7.376289e-01 5.831014e-01 6.843392e-01 8.847815e-01 7.470873e-01 7.306414e-01 7.142667e-01 4.659129e-01 4.728941e-01 4.197583e-02
<GCONST> 1.183253e+02
<MIXTURE> 8 5.617311e-02
<MEAN> 39
 2.809947e+00 9.524092e+00 3.854856e+00 1.079464e+01 8.095954e+00 7.038418e-01 -2.697429e+00 -7.159560e+00 -2.517889e+00 -9.626433e-01 -1.465328e+00 -3.837843e+00 -6.470993e+00 -7.293659e-01 -3.777732e+00 9.596863e-01 -2.009493e+00 -3.190042e+00 -2.472497e+00 7.841339e-02 2.502479e+00 1.017287e+00 -1.115064e-01 3.277679e-01 1.430046e+00 1.129791e+00 3.621713e-01 -1.069231e+00 5.272414e-01 -9.469703e-01 -1.512032e+00 -4.311816e-01 -2.033806e-01 6.692775e-01 -3.671354e-01 -7.110133e-02 3.090394e-01 3.145167e-01 3.777987e-01
<VARIANCE> 39
 1.819067e+01 1.623834e+01 1.681087e+01 1.879490e+01 2.245930e+01 2.712292e+01 2.770159e+01 2.266264e+01 2.298390e+01 2.155077e+01 1.807018e+01 1.827565e+01 1.885698e+00 1.899372e+00 1.918377e+00 3.586722e+00 3.588886e+00 2.854847e+00 3.164131e+00 5.312484e+00 2.839460e+00 5.334538e+00 2.886090e+00 2.960625e+00 2.255887e+00 2.054743e-01 3.610401e-01 4.655764e-01 5.861304e-01 5.042966e-01 6.426114e-01 7.035693e-01 7.136010e-01 7.212919e-01 8.568154e-01 6.799920e-01 4.734074e-01 4.483919e-01 2.409499e-02
<GCONST> 1.101522e+02
<MIXTURE> 9 6.670081e-02
<MEAN> 39
 6.850512e+00 1.661952e+00 -5.134615e+00 -6.732619e+00 -1.371823e+00 3.639109e+00 2.024857e-01 -5.444467e+00 1.051070e-01 3.145765e+00 4.970218e+00 6.690096e-01 -2.072201e+00 2.595313e+00 -3.773436e+00 -2.980561e+00 -5.802260e+00 -2.170719e+00 1.126038e+00 -3.829983e-01 5.541230e-01 1.815092e+00 2.326890e+00 1.414935e+00 -7.507111e-01 1.713235e+00 -1.621320e-02 3.243750e-01 4.265824e-01 7.350656e-01 6.300080e-01 3.884922e-01 1.160482e-01 -5.894655e-02 -4.384952e-01 -3.911569e-01 -6.458329e-01 -5.096151e-01 -2.461719e-01
<VARIANCE> 39
 1.576058e+01 1.378747e+01 1.467990e+01 2.479468e+01 1.915700e+01 2.153839e+01 2.707060e+01 2.545923e+01 2.691210e+01 2.576777e+01 2.422466e+01 2.260587e+01 9.705483e-01 2.929029e+00 4.611364e+00 3.773219e+00 5.479450e+00 5.332423e+00 6.438348e+00 7.517758e+00 6.778244e+00 6.927708e+00 5.424737e+00 6.378092e+00 4.124398e+00 1.947980e-01 2.837108e-01 3.672960e-01 3.019561e-01 4.779633e-01 4.196413e-01 4.468304e-01 5.247825e-01 5.719861e-01 5.064826e-01 5.472217e-01 4.651721e-01 3.877911e-01 3.018953e-02
<GCONST> 1.131202e+02
<MIXTURE> 10 8.896805e-02
<MEAN> 39
 -5.042799e+00 -5.321741e-02 -6.963564e-01 3.937932e+00 3.658910e+00 1.808327e+00 2.058204e+00 2.132014e-01 4.909702e+00 2.467490e+00 3.569483e+00 1.579522e+00 -5.995445e+00 4.327164e+00 -1.414566e+00 -2.021187e+00 -3.438119e+00 -1.040762e+00 -1.411672e+00 -1.830952e+00 -7.083609e-01 -1.668893e-01 4.960936e-01 -2.838463e-01 -2.652144e-01 2.019033e+00 1.217756e+00 2.592867e-01 -3.148676e-01 -4.207516e-01 -2.516148e-02 8.497952e-02 -6.114823e-01 -2.129886e-01 -6.840788e-01 -2.624945e-01 -4.592194e-01 -3.186932e-01 1.198308e-01
<VARIANCE> 39
 1.223647e+01 2.004241e+01 1.784852e+01 2.529266e+01 2.325949e+01 2.326752e+01 2.987713e+01 2.309096e+01 2.678304e+01 1.927247e+01 1.980433e+01 1.860118e+01 2.786764e+00 2.125862e+00 2.392153e+00 3.160535e+00 5.541160e+00 2.221105e+00 4.098347e+00 4.096879e+00 2.911445e+00 3.088605e+00 3.412953e+00 3.861099e+00 2.580560e+00 2.924882e-01 4.180655e-01 7.885290e-01 5.823001e-01 8.284358e-01 7.310227e-01 8.551712e-01 1.044453e+00 9.276496e-01 9.005626e-01 6.737490e-01 6.822709e-01 6.241978e-01 6.344842e-02
<GCONST> 1.154535e+02
<MIXTURE> 11 7.486740e-02
<MEAN> 39
 -6.753139e-01 1.354834e+01 6.956728e+00 1.301760e+01 9.932977e+00 5.400538e+00 1.324525e+00 -6.137109e+00 -4.669842e+00 -3.389318e+00 -1.880879e+00 -9.006324e-01 -8.698265e+00 -1.670226e+00 -2.490860e+00 -1.031205e+00 -1.429182e+00 -7.001805e-01 -5.117192e-01 8.055748e-01 1.760008e+00 1.803842e+00 7.015718e-01 2.022026e-02 3.677074e-01 3.626924e-01 8.606230e-01 -1.407873e+00 -8.881972e-01 -1.524816e+00 -1.224102e+00 -6.969190e-01 -4.396020e-01 2.658078e-01 4.911672e-01 6.123781e-01 4.564360e-01 8.172696e-02 6.442021e-01
<VARIANCE> 39
 1.156907e+01 6.863916e+00 1.237707e+01 1.473602e+01 1.258290e+01 1.698494e+01 2.064263e+01 2.393425e+01 2.172516e+01 1.693635e+01 1.747468e+01 1.272974e+01 1.380091e+00 1.585458e+00 1.706218e+00 1.339873e+00 2.352249e+00 2.017224e+00 2.235937e+00 1.917790e+00 2.201439e+00 2.483134e+00 2.230563e+00 2.014139e+00 1.743805e+00 3.485481e-01 2.216920e-01 4.103382e-01 5.450208e-01 5.182425e-01 4.284618e-01 5.790581e-01 5.468557e-01 6.121070e-01 5.737170e-01 4.575197e-01 4.158109e-01 3.733575e-01 2.576354e-02
<GCONST> 9.845498e+01
<MIXTURE> 12 5.557577e-02
<MEAN> 39
 5.301341e+00 1.078966e+01 1.847020e+00 7.468715e+00 5.503697e+00 4.904516e+00 3.009973e-01 -9.188278e+00 -7.077813e+00 -4.262812e+00 6.289541e-01 -5.208589e-01 -6.253922e+00 6.231521e-01 -3.324921e+00 -1.986606e+00 -4.472170e+00 -1.857166e+00 -5.030871e-01 -5.406002e-01 1.384350e+00 2.497046e+00 2.167872e+00 1.146281e+00 3.358657e-01 1.325574e+00 3.715782e-01 -1.253345e+00 -5.567631e-01 -1.260582e+00 -5.470766e-01 -1.592526e-01 -2.153824e-01 6.107860e-01 6.213760e-01 8.139740e-01 -1.643543e-02 -3.427028e-01 3.911479e-01
<VARIANCE> 39
 1.205839e+01 1.446725e+01 1.946652e+01 2.816861e+01 2.056299e+01 2.306389e+01 2.967015e+01 1.761502e+01 2.627429e+01 1.956925e+01 2.112006e+01 2.035366e+01 1.647744e+00 1.633059e+00 2.569840e+00 2.306835e+00 4.143830e+00 2.894238e+00 3.772549e+00 4.107493e+00 4.700301e+00 4.753644e+00 3.163893e+00 3.509691e+00 2.649570e+00 2.136255e-01 2.733813e-01 4.154653e-01 4.049651e-01 6.570382e-01 5.457996e-01 7.682206e-01 7.658218e-01 6.647350e-01 7.631533e-01 5.600800e-01 8.593261e-01 4.779783e-01 2.500744e-02
<GCONST> 1.103398e+02
<MIXTURE> 13 6.641360e-02
<MEAN> 39
 -4.710248e+00 6.041018e-01 1.795556e+00 5.078900e+00 2.255301e+00 -1.463067e+00 3.513677e+00 3.170863e+00 3.895710e+00 -8.884927e-01 1.002392e+00 2.203364e+00 -5.634800e+00 3.070290e+00 -2.568600e+00 2.091007e+00 -2.533344e+00 -4.090602e+00 -3.525900e+00 -1.655868e+00 5.613275e-01 -1.265164e+00 -2.591583e-01 1.020804e-01 4.791710e-01 2.021843e+00 7.002490e-01 1.377199e-01 8.117485e-01 -2.760175e-01 -6.637760e-01 2.899784e-02 -7.446619e-01 -5.306649e-01 -8.694915e-01 1.444176e-01 -9.359108e-02 -2.788495e-01 5.129755e-02
<VARIANCE> 39
 1.289536e+01 1.742504e+01 2.042193e+01 2.526030e+01 2.912560e+01 3.178051e+01 2.791600e+01 2.710664e+01 2.684849e+01 2.673866e+01 4.032059e+01 2.054938e+01 2.047514e+00 2.409517e+00 3.250274e+00 3.574352e+00 4.717783e+00 3.211928e+00 2.933231e+00 5.279435e+00 4.806208e+00 3.734960e+00 4.575476e+00 3.644913e+00 2.274449e+00 2.113848e-01 3.487027e-01 5.890535e-01 5.165886e-01 6.641500e-01 6.112423e-01 8.447667e-01 8.364119e-01 1.029441e+00 9.093882e-01 8.124535e-01 1.107335e+00 5.330821e-01 4.376236e-02
<GCONST> 1.171475e+02
<MIXTURE> 14 7.612474e-02
<MEAN> 39
 4.514907e+00 -5.526084e-01 -9.752185e-01 1.087511e+00 -3.766212e-01 -4.680519e+00 -3.937350e+00 -8.069015e-01 4.473165e+00 2.904779e+00 1.390498e+00 -1.633709e+00 -2.342185e+00 2.055107e+00 -4.620892e+00 -1.113151e+00 -3.663657e+00 -3.050856e+00 -2.524443e+00 -1.018425e+00 3.055136e+00 2.092648e+00 1.446978e+00 -5.711660e-01 2.001851e-01 1.761631e+00 7.715804e-02 2.928439e-01 3.049069e-01 3.676465e-01 1.986346e-01 4.492284e-01 1.929426e-01 -5.889566e-02 -6.913264e-01 -4.563456e-01 -3.875734e-01 -1.122014e-01 -2.106840e-01
<VARIANCE> 39
 1.494969e+01 1.582218e+01 1.836714e+01 1.948714e+01 2.120881e+01 2.332390e+01 2.493949e+01 3.133434e+01 2.012108e+01 2.099186e+01 1.808727e+01 1.553127e+01 1.230641e+00 3.329359e+00 3.098481e+00 5.217957e+00 5.251421e+00 5.558214e+00 5.702934e+00 9.717757e+00 6.175203e+00 6.494244e+00 5.603713e+00 4.818609e+00 3.752277e+00 2.903711e-01 3.672120e-01 4.745746e-01 3.397711e-01 4.523086e-01 4.884945e-01 5.589926e-01 6.397427e-01 6.872289e-01 5.264800e-01 5.422452e-01 5.163805e-01 4.878848e-01 3.609123e-02
<GCONST> 1.145341e+02
<MIXTURE> 15 5.237075e-02
<MEAN> 39
 -4.020890e+00 3.626953e-01 7.807174e-01 5.024755e+00 5.152635e+00 7.684862e-01 2.756324e+00 -1.498770e+00 1.870245e+00 -1.691635e+00 -1.810245e+00 -4.112647e-01 -5.418972e+00 3.480678e-01 -3.814496e+00 -1.215494e+00 -3.030165e+00 -2.278085e+00 -1.804596e+00 -5.422014e-01 1.955203e+00 1.755815e+00 1.443964e+00 6.947330e-01 7.347690e-01 1.362741e+00 1.447434e+00 3.632740e-01 2.440326e-01 -5.007805e-01 -8.052208e-01 -1.698477e-01 -8.346572e-01 -2.455326e-01 -6.892944e-01 1.635926e-01 2.401048e-01 -1.164981e-01 2.416349e-01
<VARIANCE> 39
 1.459017e+01 1.823600e+01 2.977626e+01 2.306662e+01 2.471208e+01 2.691084e+01 2.560441e+01 2.851657e+01 2.756749e+01 2.987216e+01 2.167981e+01 1.737640e+01 1.436128e+00 1.906657e+00 2.329111e+00 3.419201e+00 4.030759e+00 3.759586e+00 3.842962e+00 4.605884e+00 4.841865e+00 3.193461e+00 3.340972e+00 2.394003e+00 2.717009e+00 2.323194e-01 2.848158e-01 7.085966e-01 8.072944e-01 9.690629e-01 8.076448e-01 1.069818e+00 9.292804e-01 1.069584e+00 8.937227e-01 9.982267e-01 6.751692e-01 5.778892e-01 2.315385e-02
<GCONST> 1.157438e+02
<MIXTURE> 16 3.589043e-02
<MEAN> 39
 7.322377e-01 -4.098418e-01 9.008293e+00 7.875396e+00 -3.333477e+00 -7.696731e+00 -1.767814e+00 2.611812e-01 -2.147312e+00 -3.988003e+00 2.384941e+00 1.599964e-01 -3.701861e+00 4.621098e-01 -2.640408e+00 4.013727e+00 -3.444109e+00 -4.768556e+00 -1.485456e+00 -4.032963e-01 4.295933e-01 -2.593654e+00 8.340477e-01 5.842605e-01 6.554182e-01 1.297314e+00 1.927129e-01 8.064064e-01 1.754458e-01 -6.758684e-01 -9.103730e-03 9.961164e-01 -2.669746e-01 -8.038408e-01 -5.330294e-01 4.981820e-01 -3.627394e-01 -3.456520e-01 -1.342868e-01
<VARIANCE> 39
 1.791420e+01 1.572137e+01 2.941369e+01 2.987074e+01 3.779544e+01 2.748989e+01 2.778376e+01 3.004757e+01 4.268843e+01 2.201991e+01 2.422252e+01 2.171598e+01 1.487727e+00 4.135943e+00 3.839163e+00 3.468019e+00 5.155485e+00 4.141107e+00 4.934182e+00 5.846732e+00 8.870783e+00 5.599679e+00 6.460716e+00 4.262136e+00 3.443729e+00 2.603091e-01 4.027123e-01 5.011801e-01 5.146874e-01 8.395708e-01 8.055757e-01 9.143984e-01 7.669416e-01 8.038567e-01 1.034914e+00 4.858357e-01 7.600187e-01 4.776101e-01 4.216386e-02
<GCONST> 1.207253e+02
<TRANSP> 5
 0.000000e+00 1.000000e+00 0.000000e+00 0.000000e+00 0.000000e+00
 0.000000e+00 6.199700e-01 3.800300e-01 0.000000e+00 0.000000e+00
 0.000000e+00 0.000000e+00 5.152295e-01 4.847705e-01 0.000000e+00
 0.000000e+00 0.000000e+00 0.000000e+00 6.466408e-01 3.533591e-01
 0.000000e+00 0.000000e+00 0.000000e+00 0.000000e+00 0.000000e+00
<ENDHMM>
~h "d"
<BEGINHMM>
<NUMSTATES> 5
<STATE> 2
<NUMMIXES> 16
<MIXTURE> 1 9.293155e-02
<MEAN> 39
 -5.197558e-01 1.248551e+01 8.061321e+00 1.269905e+01 4.755118e+00 5.394614e-01 -2.889133e+00 -5.743328e+00 -3.384524e+00 -5.373032e+00 -3.839164e+00 -3.347947e+00 -8.329991e+00 -2.367337e+00 -1.853066e+00 -1.300011e+00 -1.112358e+00 1.527599e+00 1.774271e+00 1.539063e+00 7.633501e-01 6.863143e-01 9.616482e-01 1.107850e+00 3.673520e-01 -1.814068e-01 1.015150e-01 -1.756686e+00 -5.172570e-01 -1.804563e+00 -1.137711e+00 -6.234777e-01 2.006492e-01 7.667478e-01 4.612743e-01 7.449934e-01 6.311151e-01 7.142978e-01 6.626922e-01
<VARIANCE> 39
 1.642586e+01 1.130795e+01 1.558236e+01 1.706154e+01 2.425417e+01 2.709771e+01 2.980431e+01 2.547932e+01 2.264910e+01 2.021130e+01 2.002316e+01 1.875082e+01 1.697774e+00 1.704056e+00 3.133619e+00 2.864066e+00 4.545524e+00 3.501358e+00 3.289978e+00 3.303980e+00 3.659324e+00 3.416426e+00 3.013848e+00 2.906267e+00 2.504426e+00 4.048506e-01 4.900655e-01 7.191796e-01 6.475726e-01 7.543164e-01 7.565066e-01 7.062748e-01 8.943511e-01 7.644580e-01 7.881916e-01 5.892617e-01 5.853887e-01 5.286205e-01 4.729361e-02
<GCONST> 1.130218e+02
<MIXTURE> 2 4.551124e-02
<MEAN> 39
 7.302963e+00 -7.066962e+00 -4.497643e+00 -3.256789e+00 -6.326523e+00 8.084148e-01 -1.715284e+00 5.901674e-01 7.810429e+00 1.318682e+00 -1.660937e+00 -5.644001e+00 -5.573076e-01 5.090874e-01 5.795085e-01 1.768481e+00 2.124219e+00 -1.539384e+00 -5.714152e-01 -1.789677e+00 -1.171527e+00 -1.648399e-01 8.690207e-01 5.489445e-01 1.028602e+00 -5.108379e-01 8.797520e-02 -1.737874e-01 1.877980e-01 2.610059e-02 3.109467e-01 -6.196436e-02 -3.296344e-02 5.508027e-02 -4.953744e-01 1.959775e-03 -4.245463e-02 3.275643e-01 -1.069327e-02
<VARIANCE> 39
 1.171692e+01 2.002466e+01 3.322684e+01 2.426577e+01 2.816357e+01 4.271024e+01 4.791367e+01 5.701860e+01 4.151809e+01 4.108847e+01 3.641447e+01 3.754894e+01 6.722797e-01 1.017988e+00 1.411907e+00 2.446174e+00 3.579542e+00 3.581101e+00 3.703899e+00 4.599049e+00 5.177832e+00 4.943259e+00 3.855592e+00 2.931133e+00 2.883996e+00 6.628168e-02 1.152153e-01 1.686738e-01 2.568482e-01 3.531568e-01 3.852725e-01 4.329728e-01 4.859506e-01 7.286450e-01 4.943113e-01 5.268109e-01 4.240099e-01 3.967935e-01 1.007889e-02
<GCONST> 1.068593e+02
<MIXTURE> 3 5.891406e-02
<MEAN> 39
 4.640905e+00 1.027646e+01 5.157641e+00 6.262278e+00 -1.324162e+00 -9.833410e-01 1.433215e-01 -8.501039e+00 -7.066511e+00 -2.497944e+00 -3.955489e+00 -2.174806e+00 -5.603127e+00 -2.297759e+00 -2.792870e+00 3.381033e-01 -1.293022e+00 1.550189e+00 2.146126e-01 -7.823187e-01 2.509626e+00 2.344360e+00 -4.576099e-01 1.245217e+00 7.893130e-01 1.327331e-01 -1.012584e-01 -1.097742e+00 -1.314983e-01 -7.557644e-01 -4.801810e-01 -3.468596e-01 -1.573737e-01 7.141457e-01 6.500904e-01 3.949198e-01 2.942277e-01 2.991416e-01 3.100758e-01
<VARIANCE> 39
 9.626468e+00 2.066256e+01 2.056936e+01 2.926578e+01 3.846061e+01 3.316993e+01 3.393591e+01 4.201056e+01 3.310163e+01 3.015701e+01 3.648045e+01 2.761870e+01 2.007862e+00 2.111093e+00 3.114607e+00 3.181218e+00 5.635321e+00 5.581893e+00 5.603652e+00 6.203080e+00 6.158247e+00 5.680567e+00 5.313757e+00 6.063071e+00 4.309709e+00 1.292962e-01 3.442857e-01 4.128691e-01 4.768807e-01 5.542616e-01 7.928478e-01 6.606452e-01 8.510556e-01 9.048364e-01 8.073277e-01 5.755284e-01 7.096410e-01 4.705136e-01 2.503086e-02
<GCONST> 1.190420e+02
<MIXTURE> 4 5.827754e-02
<MEAN> 39
 4.083816e+00 1.733035e-01 9.907181e+00 2.392984e+00 -5.935242e+00 -4.527552e+00 -4.005326e+00 8.654726e-01 -3.152898e+00 -4.479094e+00 7.621569e-01 3.142880e-01 -3.511674e+00 -7.099718e-01 1.579095e+00 -5.045530e-01 1.528525e+00 2.765367e+00 8.781213e-01 3.943012e-01 -5.921582e-01 5.924303e-01 -7.303753e-01 -8.911019e-01 -3.561673e-01 -8.403392e-01 -8.564274e-02 -1.581196e-01 -1.369496e-01 -3.992620e-01 -3.106366e-01 -5.193719e-02 1.316454e-01 -7.859144e-02 8.629864e-02 4.898035e-01 7.344894e-02 7.325558e-02 1.521631e-01
<VARIANCE> 39
 1.094409e+01 2.490283e+01 2.508951e+01 2.771810e+01 4.285461e+01 3.726627e+01 3.132710e+01 2.856407e+01 3.262998e+01 3.600891e+01 2.798812e+01 1.952514e+01 2.826259e+00 1.872061e+00 3.291063e+00 2.639960e+00 3.979700e+00 4.536402e+00 4.396458e+00 4.010729e+00 4.214457e+00 4.434753e+00 3.685975e+00 4.648345e+00 2.617005e+00 1.882575e-01 1.573081e-01 2.663197e-01 3.431981e-01 4.244488e-01 5.370618e-01 5.356012e-01 5.308084e-01 5.407735e-01 4.907154e-01 4.566491e-01 5.092519e-01 3.122218e-01 1.932387e-02
<GCONST> 1.111526e+02
<MIXTURE> 5 5.897489e-02
<MEAN> 39
 4.621631e+00 9.241178e-01 3.700796e+00 1.211704e+01 -4.892830e-01 -6.142373e+00 -8.875039e-01 -2.067590e+00 -1.706109e-01 -4.804186e+00 -4.663370e+00 -3.408182e-01 -4.826439e+00 -1.888260e+00 1.726037e+00 6.780017e-01 3.138952e-01 1.718666e+00 7.775962e-01 1.940365e+00 -1.204108e+00 -4.374482e-01 -1.557951e-01 -3.785968e-01 -1.524816e-01 -6.891351e-01 1.775519e-01 -6.544505e-01 7.711989e-02 -1.564543e+00 -8.046325e-01 3.762524e-01 -8.577754e-01 4.664179e-01 4.196690e-02 4.755985e-01 7.491995e-01 1.206712e-01 3.821192e-01
<VARIANCE> 39
 2.034820e+01 3.015225e+01 3.918240e+01 5.479172e+01 5.162579e+01 4.303502e+01 4.734174e+01 3.788531e+01 3.935929e+01 2.703512e+01 3.903405e+01 2.213320e+01 2.180332e+00 1.657095e+00 3.070975e+00 6.088359e+00 4.766344e+00 5.990163e+00 5.197561e+00 4.449080e+00 4.668256e+00 5.229896e+00 3.342230e+00 4.078689e+00 3.440042e+00 1.470622e-01 4.065399e-01 4.968514e-01 7.084294e-01 1.028010e+00 1.156049e+00 1.206601e+00 1.140727e+00 1.297709e+00 1.082588e+00 8.503579e-01 9.615558e-01 5.385740e-01 2.609568e-02
<GCONST> 1.249510e+02
<MIXTURE> 6 5.694539e-02
<MEAN> 39
 -7.055591e+00 3.339769e+00 1.759441e+00 5.560076e+00 6.658144e+00 5.002007e+00 2.759851e+00 -8.640193e-01 4.479036e-01 -1.377221e-01 -2.956424e-01 9.110275e-02 -8.118587e+00 -5.622001e-01 -1.432933e+00 -9.674556e-01 -9.977689e-01 -9.559971e-02 3.285003e-02 5.770622e-01 5.029671e-01 6.453357e-01 6.446490e-01 4.587235e-01 3.084864e-01 2.754562e-01 4.432206e-01 1.341079e-01 2.519577e-01 -3.864931e-01 -8.212132e-01 -8.597128e-01 -2.943756e-01 -6.669731e-02 -1.359936e-01 -6.456212e-02 2.936104e-02 1.003644e-01 4.127669e-01
<VARIANCE> 39
 4.337592e+01 3.891766e+01 6.491611e+01 4.178734e+01 3.720452e+01 3.341886e+01 3.418150e+01 3.913021e+01 3.244057e+01 2.323454e+01 2.621275e+01 1.972075e+01 3.689132e+00 5.703276e+00 5.162771e+00 5.465329e+00 5.763452e+00 4.923966e+00 5.194005e+00 4.296628e+00 4.142398e+00 3.769733e+00 3.458615e+00 3.221856e+00 2.351242e+00 9.157626e-01 1.058028e+00 8.103386e-01 1.410557e+00 1.171711e+00 1.221278e+00 9.542535e-01 8.133529e-01 9.400029e-01 6.539279e-01 5.928979e-01 5.867339e-01 4.694879e-01 1.122605e-01
<GCONST> 1.287842e+02
<MIXTURE> 7 8.416501e-02
<MEAN> 39
 2.144936e+00 1.307300e+01 7.620474e+00 1.179853e+01 3.419826e+00 -1.433273e+00 -1.991774e+00 -4.898367e+00 -1.923727e+00 -3.934492e+00 -5.160830e+00 -2.309761e+00 -7.767025e+00 -4.463578e-01 3.895866e-01 2.436780e-01 4.330494e-01 5.358012e-01 4.128126e-01 2.833087e-01 -6.731687e-03 -1.368279e-01 -4.133167e-02 2.902565e-02 8.784523e-02 -2.396168e-01 -3.256233e-01 -1.119657e+00 -3.468061e-01 -8.027998e-01 -1.581472e-01 1.227393e-01 1.230956e-01 3.060355e-01 1.393760e-01 2.515387e-01 4.264472e-01 1.893466e-01 2.284492e-01
<VARIANCE> 39
 1.309904e+01 1.197337e+01 1.846621e+01 1.940883e+01 2.855601e+01 2.502312e+01 3.372449e+01 2.952402e+01 2.674290e+01 2.320545e+01 2.760511e+01 1.869859e+01 1.400176e+00 1.183522e+00 1.592661e+00 1.390455e+00 1.566082e+00 1.626633e+00 2.018836e+00 2.102160e+00 2.110831e+00 1.941603e+00 1.886913e+00 1.882389e+00 1.408075e+00 1.293403e-01 2.549985e-01 4.736509e-01 3.576144e-01 5.302273e-01 4.288538e-01 4.320746e-01 5.625987e-01 5.461164e-01 4.807638e-01 4.715502e-01 4.258355e-01 3.510429e-01 4.354099e-02
<GCONST> 1.002609e+02
<MIXTURE> 8 6.727537e-02
<MEAN> 39
 2.884846e+00 1.059953e+01 8.477985e+00 1.239624e+01 2.868220e+00 -3.044528e+00 -2.335309e+00 -3.230243e+00 -1.117373e+00 -4.033635e+00 -5.966806e+00 -2.198315e+00 -7.144211e+00 -1.354915e+00 2.971493e+00 -1.880268e-01 1.853039e+00 2.818926e+00 1.375067e+00 1.189103e+00 -1.062836e+00 -5.211061e-01 -2.260308e-02 -9.815192e-01 -4.039944e-01 -1.114338e+00 -1.860771e-01 -1.632299e+00 -2.331958e-01 -1.489413e+00 -8.616184e-01 4.752735e-02 -1.794800e-01 4.384360e-01 1.551198e-03 3.302921e-01 8.648004e-01 3.694787e-01 4.669577e-01
<VARIANCE> 39
 1.126591e+01 1.557146e+01 1.890290e+01 1.901174e+01 2.622154e+01 2.580047e+01 2.591339e+01 2.862937e+01 2.614965e+01 2.002171e+01 2.380528e+01 2.097549e+01 1.274886e+00 1.472334e+00 3.302397e+00 3.587045e+00 4.069719e+00 3.686013e+00 3.608464e+00 3.964708e+00 3.362369e+00 3.988418e+00 3.499638e+00 3.055163e+00 2.622328e+00 1.902166e-01 2.412830e-01 6.119893e-01 4.497538e-01 6.290042e-01 6.803411e-01 5.931341e-01 5.867136e-01 7.887014e-01 6.406776e-01 4.874364e-01 4.760737e-01 4.480164e-01 3.949402e-02
<GCONST> 1.102753e+02
<MIXTURE> 9 5.954625e-02
<MEAN> 39
 1.009021e+01 -6.398709e+00 -1.797790e+00 8.648188e+00 -7.083110e+00 -5.191594e+00 -5.228985e+00 -3.873033e+00 4.199739e+00 1.659857e+00 -3.081313e+00 -6.793337e-01 -2.203912e+00 -1.105058e+00 1.152306e+00 1.642428e+00 1.856280e+00 1.007207e+00 -8.326507e-01 1.288262e+00 -1.062095e+00 -1.418804e+00 -4.082161e-01 -9.655334e-01 1.382098e-01 -7.263103e-01 -2.489554e-01 1.028618e-01 1.641355e-01 -1.268781e+00 2.422555e-01 4.114525e-01 -2.605740e-01 6.949127e-01 -2.582461e-01 -1.841771e-01 6.280305e-01 -5.280934e-04 1.146732e-01
<VARIANCE> 39
 1.206337e+01 1.648938e+01 5.109648e+01 3.785441e+01 6.529311e+01 3.927507e+01 5.493043e+01 4.529448e+01 4.558258e+01 4.334519e+01 3.299958e+01 2.764466e+01 1.194613e+00 1.246645e+00 2.810489e+00 4.111778e+00 5.886461e+00 7.161238e+00 6.359135e+00 8.922201e+00 8.033932e+00 5.801957e+00 5.214326e+00 5.850873e+00 5.044436e+00 1.557908e-01 1.481532e-01 2.982616e-01 3.999053e-01 5.033396e-01 9.969844e-01 7.465901e-01 9.621782e-01 9.254584e-01 1.048989e+00 8.982295e-01 8.214037e-01 6.138455e-01 2.097283e-02
<GCONST> 1.225127e+02
<MIXTURE> 10 6.077409e-02
<MEAN> 39
 -9.052529e+00 4.895021e+00 7.275436e-01 9.517632e+00 6.234159e+00 5.824509e+00 3.509821e+00 1.184151e+00 3.273267e+00 1.910836e+00 2.696290e+00 5.087836e-01 -1.047055e+01 -4.219221e-01 -1.291683e+00 -6.905766e-01 -1.068197e+00 -3.758784e-02 1.283238e-01 5.971454e-01 7.488090e-01 7.087249e-01 6.964250e-01 7.738984e-01 5.883929e-01 2.787969e-01 4.008804e-01 -6.456619e-02 1.730728e-01 -7.447659e-01 -5.145533e-01 -7.482458e-01 -2.736893e-01 -2.601299e-01 -3.447639e-01 -2.665012e-01 -2.083408e-01 1.854499e-02 5.643821e-01
<VARIANCE> 39
 7.007105e+00 9.833707e+00 1.316991e+01 1.666717e+01 1.531994e+01 1.858268e+01 2.073455e+01 1.880531e+01 2.143465e+01 1.772889e+01 1.903585e+01 1.402368e+01 1.131276e-01 2.043898e+00 2.466175e+00 2.851156e+00 4.475941e+00 1.828546e+00 2.512265e+00 2.344430e+00 2.370462e+00 2.339425e+00 2.491632e+00 2.226148e+00 1.926890e+00 8.531954e-01 5.162764e-01 3.991227e-01 4.624382e-01 5.534518e-01 5.579441e-01 5.661141e-01 4.831131e-01 5.385417e-01 4.613132e-01 4.598218e-01 3.993719e-01 3.939889e-01 8.793068e-02
<GCONST> 1.014584e+02
<MIXTURE> 11 7.939303e-02
<MEAN> 39
 -1.823100e+00 1.209376e+01 7.338659e+00 1.274222e+01 7.223021e+00 2.229735e+00 -1.900506e-02 -4.712937e+00 -2.687343e+00 -3.637925e+00 -4.013628e+00 -2.400512e+00 -8.838239e+00 -1.875986e+00 -4.161861e+00 -1.555761e+00 -3.711128e+00 -6.095720e-01 3.948980e-01 1.128383e+00 1.503220e+00 9.868946e-01 1.135757e+00 1.664498e+00 1.307487e+00 9.257050e-01 3.790237e-01 -9.367911e-01 -1.702744e-01 -1.120819e+00 -1.193140e+00 -8.968762e-01 -3.918478e-01 3.998345e-01 2.877180e-01 2.907747e-01 2.891891e-01 3.554498e-01 5.855716e-01
<VARIANCE> 39
 1.599706e+01 1.273682e+01 1.573944e+01 1.492204e+01 1.937116e+01 2.629962e+01 2.701850e+01 2.406465e+01 2.054443e+01 1.933625e+01 1.810766e+01 1.631091e+01 1.562019e+00 1.757351e+00 2.568409e+00 3.157148e+00 3.471825e+00 3.195742e+00 3.994100e+00 3.943760e+00 3.610062e+00 3.792846e+00 3.158224e+00 2.576473e+00 2.336821e+00 2.178995e-01 4.569746e-01 5.413044e-01 4.851013e-01 5.429005e-01 5.732076e-01 6.183504e-01 6.507247e-01 5.611058e-01 6.316271e-01 4.524486e-01 4.489224e-01 4.130938e-01 4.127638e-02
<GCONST> 1.082401e+02
<MIXTURE> 12 5.912852e-02
<MEAN> 39
 3.441158e+00 6.924779e+00 2.326910e+00 8.191514e+00 5.260276e+00 6.048676e-01 -5.175682e+00 -1.037692e+01 -2.048719e+00 1.851198e+00 -3.483334e+00 -5.183084e+00 -6.109352e+00 -1.583020e+00 1.292019e+00 1.095267e+00 2.376674e+00 1.104495e+00 -3.825349e-01 1.060889e+00 8.971944e-02 -5.287229e-01 -6.872365e-01 -8.842952e-01 -1.619588e-01 -7.867551e-01 1.619316e-01 -1.018032e+00 -2.196686e-01 -1.402317e+00 -9.143331e-01 -4.285588e-02 7.779104e-02 1.066872e+00 4.361032e-01 -2.538634e-01 3.996800e-01 6.572775e-01 4.029028e-01
<VARIANCE> 39
 2.968275e+01 3.054152e+01 3.819452e+01 4.273740e+01 5.258478e+01 4.808405e+01 5.031805e+01 4.342044e+01 4.992115e+01 3.385645e+01 3.987266e+01 2.816343e+01 2.877820e+00 2.474349e+00 5.141909e+00 3.223379e+00 5.404740e+00 5.126997e+00 5.910860e+00 6.157002e+00 7.081016e+00 6.482104e+00 4.589009e+00 4.585512e+00 3.561059e+00 2.863437e-01 5.700197e-01 8.783765e-01 7.492241e-01 1.091430e+00 1.201146e+00 9.966244e-01 1.165628e+00 1.072277e+00 1.270961e+00 9.015065e-01 1.059461e+00 7.188929e-01 5.358772e-02
<GCONST> 1.308925e+02
<MIXTURE> 13 5.308201e-02
<MEAN> 39
 2.877594e+00 1.227831e+01 8.653622e+00 1.029074e+01 -1.236607e+00 -2.432364e+00 -4.879634e+00 -6.174573e+00 -3.784531e+00 -7.308834e+00 -4.390847e+00 -3.574544e+00 -6.893889e+00 -1.835219e+00 2.112451e+00 1.380082e-01 2.497674e+00 2.544973e+00 2.099010e+00 -1.222142e-01 -1.187387e+00 -4.352422e-01 -1.093600e+00 -1.537784e-01 -1.379897e+00 -1.145108e+00 -3.688421e-01 -1.861349e+00 -7.208050e-01 -1.600758e+00 -1.146582e-01 -7.959988e-02 6.235072e-01 8.768699e-01 5.483866e-01 1.116796e+00 5.789359e-01 6.316122e-01 4.293724e-01
<VARIANCE> 39
 1.286687e+01 1.232580e+01 1.764690e+01 2.220655e+01 3.478091e+01 2.872483e+01 3.321985e+01 2.538362e+01 2.798528e+01 2.628326e+01 2.749603e+01 2.639973e+01 1.794746e+00 2.769330e+00 4.101047e+00 4.175805e+00 6.559254e+00 4.814281e+00 4.215768e+00 5.527074e+00 4.516839e+00 4.693172e+00 3.901463e+00 3.614429e+00 3.263740e+00 3.237226e-01 3.676236e-01 5.271191e-01 5.748833e-01 7.262415e-01 6.805918e-01 7.802831e-01 9.927810e-01 8.680825e-01 7.356493e-01 6.495668e-01 6.950564e-01 6.664945e-01 5.232422e-02
<GCONST> 1.185925e+02
<MIXTURE> 14 5.954492e-02
<MEAN> 39
 5.477143e+00 1.611809e+00 7.548522e+00 4.468586e+00 -5.848236e+00 -3.694462e+00 -3.858398e+00 -1.773565e+00 1.661967e+00 -2.580543e+00 -1.609225e+00 1.091572e+00 -3.885423e+00 -1.427275e+00 4.338722e+00 5.558724e-01 3.933742e+00 2.988168e+00 1.532454e+00 6.374363e-01 -2.364751e+00 -7.791210e-01 -1.368705e+00 -1.133719e+00 -1.242479e+00 -1.517765e+00 -3.534632e-01 -2.814614e-01 -4.911221e-01 -4.511700e-01 5.583535e-01 1.700471e-01 3.554558e-01 3.745779e-01 -1.806848e-01 2.382237e-01 3.094623e-02 -2.149557e-01 2.069774e-02
<VARIANCE> 39
 1.241837e+01 3.220767e+01 2.602019e+01 3.523628e+01 4.477771e+01 3.331383e+01 4.374353e+01 3.293040e+01 4.065459e+01 2.996227e+01 3.047546e+01 2.767348e+01 2.204372e+00 1.612354e+00 2.495363e+00 3.506886e+00 3.443948e+00 4.910472e+00 4.885740e+00 6.764737e+00 5.140233e+00 5.103475e+00 4.471194e+00 4.537355e+00 3.070785e+00 1.266217e-01 1.934154e-01 6.005037e-01 4.263597e-01 7.305569e-01 6.825992e-01 6.288822e-01 8.223541e-01 6.038480e-01 6.400098e-01 5.365776e-01 5.128145e-01 4.926052e-01 3.516128e-02
<GCONST> 1.173506e+02
<MIXTURE> 15 6.004365e-02
<MEAN> 39
 -9.757648e+00 4.597014e+00 -3.874374e-01 7.739790e+00 6.278972e+00 5.429850e+00 4.024817e+00 7.333743e-01 2.204350e+00 2.216109e+00 1.554436e+00 1.501846e+00 -1.047178e+01 7.850442e-01 -1.854226e+00 -2.884119e-01 -1.976542e+00 -8.719724e-01 -1.114303e+00 -4.711250e-01 -3.633812e-01 -4.136122e-01 -3.750024e-01 -5.024724e-02 1.001709e-01 9.148722e-01 2.621155e-01 -7.633790e-04 2.669618e-01 -7.242130e-01 -4.734091e-01 -7.346696e-01 -3.351449e-01 -4.696283e-02 -1.540427e-01 -2.379560e-01 -1.785471e-01 -6.642244e-02 6.364668e-01
<VARIANCE> 39
 7.915630e+00 8.830039e+00 1.532215e+01 1.644087e+01 1.356410e+01 1.606108e+01 1.900412e+01 2.026294e+01 2.169703e+01 1.729503e+01 1.999349e+01 1.374015e+01 1.131276e-01 2.022945e+00 3.678192e+00 3.095856e+00 4.923167e+00 2.649380e+00 3.049145e+00 2.594752e+00 2.415836e+00 2.099925e+00 1.959341e+00 1.818794e+00 1.984847e+00 9.860063e-01 6.862119e-01 4.585836e-01 5.027170e-01 5.337124e-01 4.410930e-01 4.689845e-01 5.211665e-01 5.034136e-01 4.819519e-01 4.018886e-01 3.720968e-01 2.999461e-01 7.815689e-02
<GCONST> 1.017257e+02
<MIXTURE> 16 4.546982e-02
<MEAN> 39
 7.432708e+00 -6.422346e+00 2.762517e+00 -2.638073e+00 -8.786867e+00 -2.293109e+00 -6.462716e+00 3.256640e+00 4.890618e+00 8.007917e-01 -6.309808e-01 -1.658900e+00 -1.125157e+00 -2.293670e-01 1.105903e+00 1.833902e+00 1.761108e+00 -5.543962e-02 1.393588e-01 -1.447164e+00 -1.694995e+00 -4.192636e-01 -2.374286e-01 4.498206e-01 5.237099e-01 -6.340588e-01 -8.859399e-02 -1.235930e-01 -1.273652e-01 -1.303687e-01 3.255620e-01 -1.917779e-01 4.709675e-01 2.444400e-02 -3.258464e-01 -1.196007e-02 -1.610597e-01 9.827593e-02 3.893069e-02
<VARIANCE> 39
 8.224993e+00 1.760470e+01 3.383701e+01 2.638780e+01 3.313173e+01 3.825012e+01 4.521494e+01 4.254806e+01 4.198694e+01 3.498219e+01 3.016086e+01 3.450537e+01 8.413036e-01 1.195645e+00 1.860288e+00 2.703675e+00 3.149788e+00 4.204071e+00 4.305396e+00 4.489197e+00 4.442405e+00 3.977034e+00 3.564875e+00 3.589597e+00 2.870401e+00 1.087109e-01 9.300949e-02 1.859007e-01 2.395103e-01 2.712730e-01 4.172909e-01 3.730288e-01 4.914413e-01 6.279051e-01 4.670916e-01 4.404327e-01 3.867889e-01 4.020130e-01 1.318124e-02
<GCONST> 1.062175e+02
<STATE> 3
<NUMMIXES> 16
<MIXTURE> 1 4.382946e-02
<MEAN> 39
 -1.680352e+00 -2.281806e+00 7.897319e+00 -1.437374e+00 -8.380473e-03 3.942505e+00 -5.272976e+00 -1.024642e-01 1.513942e-01 -3.948822e+00 9.080927e-01 2.371518e-02 -4.327624e+00 -1.332991e+00 -2.601143e+00 2.482742e-01 -2.313511e+00 8.945829e-02 -4.523747e-01 -8.927534e-01 3.117685e+00 2.026819e+00 9.953067e-02 1.369937e+00 8.269514e-01 6.010016e-01 9.007034e-01 3.794958e-01 -5.679886e-01 3.569060e-01 -6.834762e-01 -1.117539e+00 6.651456e-01 -3.603055e-01 -3.052041e-01 6.462140e-01 -4.110906e-01 3.978772e-02 1.444909e-01
<VARIANCE> 39
 2.179597e+01 2.649582e+01 1.861942e+01 2.986822e+01 4.316656e+01 4.293561e+01 3.325054e+01 3.781039e+01 4.266739e+01 2.108237e+01 3.901220e+01 2.064331e+01 1.629956e+00 4.366052e+00 3.253192e+00 3.884220e+00 5.552854e+00 5.991310e+00 6.542226e+00 7.349181e+00 5.575145e+00 7.747054e+00 4.891084e+00 4.603616e+00 3.893698e+00 2.563500e-01 4.549934e-01 5.611930e-01 5.610318e-01 7.735741e-01 9.594117e-01 1.346160e+00 7.924508e-01 9.259888e-01 1.170117e+00 7.163736e-01 1.269589e+00 7.029133e-01 3.675139e-02
<GCONST> 1.254186e+02
<MIXTURE> 2 8.486514e-02
<MEAN> 39
 7.498806e+00 -3.553502e+00 -1.570484e+00 4.896918e+00 -3.544712e+00 -2.981216e+00 -3.170717e+00 -7.338116e+00 3.082340e+00 5.314686e+00 -1.564287e+00 -3.510014e+00 -2.585333e+00 1.277203e-01 1.550988e-02 8.271041e-01 8.034902e-01 -3.697216e-01 -8.302413e-01 -8.897205e-01 3.148487e-01 -3.324535e-01 -1.493509e-01 6.232575e-02 1.034288e+00 -1.711001e-01 1.930922e-01 -5.089256e-01 -3.074443e-01 -1.017816e+00 -1.212648e-01 3.931608e-01 -2.544991e-01 1.167068e+00 2.799826e-01 -5.287527e-01 2.203186e-01 7.102587e-02 2.580658e-01
<VARIANCE> 39
 1.179577e+01 1.748220e+01 3.890125e+01 4.108773e+01 4.099263e+01 4.380270e+01 4.191482e+01 3.464483e+01 4.021780e+01 2.756995e+01 3.444400e+01 2.488308e+01 1.270604e+00 1.032899e+00 1.380093e+00 2.403027e+00 3.536323e+00 2.568621e+00 3.678282e+00 4.065672e+00 4.413572e+00 3.371672e+00 3.272791e+00 2.952542e+00 2.803616e+00 7.450857e-02 2.261827e-01 3.312207e-01 3.826793e-01 7.267269e-01 9.816349e-01 9.154977e-01 1.207316e+00 1.026702e+00 9.683410e-01 7.753156e-01 9.226605e-01 7.315300e-01 1.286979e-02
<GCONST> 1.139101e+02
<MIXTURE> 3 6.172559e-02
<MEAN> 39
 2.873566e+00 5.695978e-01 6.533106e+00 1.243051e+00 -1.924946e+00 -5.461810e+00 -4.979309e+00 -1.440642e+00 1.706251e+00 -2.575749e+00 -1.612269e+00 1.141912e+00 -3.319496e+00 -1.745668e-01 8.320837e-02 7.519063e-01 -1.181708e-01 1.430992e-01 -3.202610e-01 -2.356084e-01 -4.597330e-03 -1.772110e-01 2.497409e-02 2.013341e-01 5.077166e-01 -9.175167e-02 4.520911e-01 -7.828807e-01 -3.224778e-01 -3.647629e-01 -9.968662e-01 2.153086e-01 1.042273e-01 7.052895e-01 -2.414572e-01 2.911441e-01 2.022422e-01 -1.808792e-01 3.004862e-01
<VARIANCE> 39
 9.148157e+00 1.371139e+01 2.011002e+01 2.480503e+01 2.003923e+01 3.054966e+01 2.411765e+01 2.646496e+01 4.342481e+01 2.536419e+01 1.918299e+01 1.815212e+01 1.512290e+00 8.481001e-01 1.244110e+00 2.098501e+00 1.478674e+00 2.411345e+00 1.954409e+00 2.539063e+00 2.641847e+00 2.787959e+00 1.924538e+00 1.887818e+00 1.316613e+00 9.549066e-02 2.358923e-01 2.431258e-01 5.491877e-01 5.970819e-01 7.042394e-01 6.425542e-01 8.741825e-01 8.586304e-01 8.943541e-01 6.176601e-01 7.804121e-01 4.612949e-01 1.225952e-02
<GCONST> 1.026792e+02
<MIXTURE> 4 7.851221e-02
<MEAN> 39
 -7.519925e+00 -1.711338e+00 2.080363e+00 -2.230570e+00 6.472164e+00 2.235773e+00 4.102271e+00 5.491255e-01 1.026899e+00 2.154664e+00 3.236667e+00 4.884110e-01 -4.731656e+00 -6.781595e-01 -2.379363e+00 -8.233085e-01 -3.910084e+00 -2.042909e+00 -1.836771e+00 7.912787e-01 1.024427e+00 7.202889e-01 1.527933e+00 1.309087e+00 1.547169e+00 1.505416e+00 1.463979e+00 7.064573e-01 8.184143e-01 5.815651e-01 -1.550960e+00 -9.531253e-01 -9.051436e-01 -2.783091e-01 -4.096271e-01 -5.652778e-01 -6.641639e-01 3.269576e-02 1.254142e-01
<VARIANCE> 39
 1.304011e+01 2.097064e+01 2.768726e+01 3.264639e+01 2.588939e+01 3.723790e+01 2.897981e+01 3.127094e+01 2.895471e+01 2.459374e+01 2.676971e+01 1.982716e+01 1.586992e+00 2.644724e+00 2.552270e+00 3.091284e+00 2.544652e+00 3.742346e+00 3.249523e+00 3.779087e+00 3.933939e+00 3.425777e+00 2.667118e+00 2.529760e+00 2.198028e+00 2.384999e-01 3.950556e-01 5.113943e-01 7.157255e-01 9.127282e-01 7.768964e-01 9.212977e-01 8.879356e-01 1.058535e+00 9.286179e-01 7.410449e-01 7.011534e-01 6.566895e-01 3.572278e-02
<GCONST> 1.158412e+02
<MIXTURE> 5 4.508251e-02
<MEAN> 39
 -1.926670e+00 -1.245095e-01 3.435003e+00 4.844133e+00 7.693216e-02 -2.194424e+00 3.369120e+00 -4.771878e+00 -4.115090e-01 -1.242063e+00 -2.348936e+00 2.382750e+00 -4.516108e+00 -1.403332e-01 -7.109255e-01 2.575455e-01 -1.204751e+00 -5.576953e-01 -1.484368e-01 -5.421131e-01 6.053141e-01 4.852329e-01 2.191684e-01 5.073057e-01 6.417984e-01 3.217396e-01 1.291529e+00 -5.449489e-01 -1.637442e-01 -9.997186e-01 -1.058773e+00 2.114757e-01 -1.487398e+00 7.496716e-01 1.680980e-01 5.780358e-02 5.766130e-01 -5.182711e-01 4.277100e-01
<VARIANCE> 39
 1.814643e+01 3.832764e+01 3.913170e+01 5.192186e+01 4.756345e+01 4.926350e+01 3.420954e+01 5.518156e+01 5.330840e+01 3.054617e+01 2.585050e+01 2.396943e+01 1.478358e+00 1.998061e+00 2.541766e+00 3.536567e+00 4.289439e+00 5.188285e+00 4.220184e+00 5.715104e+00 5.532205e+00 5.557246e+00 3.892380e+00 3.268702e+00 2.890995e+00 2.174912e-01 4.259864e-01 8.672838e-01 1.060315e+00 1.466329e+00 1.546400e+00 1.403866e+00 9.541633e-01 1.629189e+00 1.790482e+00 1.085124e+00 1.083829e+00 8.986241e-01 2.388682e-02
<GCONST> 1.276004e+02
<MIXTURE> 6 8.167382e-02
<MEAN> 39
 -8.561328e+00 -1.488834e+00 1.078761e+00 -6.061461e+00 4.786369e+00 -6.005478e-02 2.825273e+00 1.731483e+00 -1.915831e+00 1.220886e+00 8.269069e-01 3.201598e+00 -4.212375e+00 1.778816e+00 -4.719020e-01 1.165432e+00 -1.661563e+00 -2.645309e+00 -3.158555e+00 -1.507302e+00 -1.996668e-02 -3.673768e-01 -5.408702e-01 1.381523e-02 4.051887e-01 1.663437e+00 1.188907e+00 5.822092e-01 5.744356e-01 1.431031e+00 -9.005005e-01 -2.395498e-01 -7.275853e-01 -2.863849e-01 2.447114e-01 -3.246510e-01 -1.594888e-01 -4.319606e-01 -1.497768e-01
<VARIANCE> 39
 1.352444e+01 2.325612e+01 3.038273e+01 1.883240e+01 2.625877e+01 3.324886e+01 2.822883e+01 2.675367e+01 2.459600e+01 2.156414e+01 2.257175e+01 2.249184e+01 1.268796e+00 3.086715e+00 2.862355e+00 3.232520e+00 3.671202e+00 3.525251e+00 2.604158e+00 3.283082e+00 2.692790e+00 3.579123e+00 2.517392e+00 2.330791e+00 2.245058e+00 3.073172e-01 3.452528e-01 5.138427e-01 8.246783e-01 6.293570e-01 6.791242e-01 7.936957e-01 7.698374e-01 6.451115e-01 8.117936e-01 6.384463e-01 5.886717e-01 6.724194e-01 4.507527e-02
<GCONST> 1.132542e+02
<MIXTURE> 7 8.501476e-02
<MEAN> 39
 4.640849e+00 5.546628e+00 5.604701e+00 1.297870e+01 2.003033e+00 -2.804215e+00 -2.952635e+00 -5.584189e+00 -1.539664e+00 -2.894456e+00 -7.455213e+00 -4.173506e+00 -6.312466e+00 -1.351838e+00 -1.122899e+00 5.841008e-01 -2.352954e+00 -8.287228e-01 7.073826e-01 6.041654e-01 3.847839e-01 -4.496692e-01 -1.967449e-01 1.337498e+00 1.175458e+00 2.979043e-01 3.092978e-01 -1.199185e+00 -1.692691e-01 -1.589747e+00 -1.180974e+00 -2.988019e-01 -7.230527e-01 6.749984e-01 4.186204e-01 2.482868e-01 1.025063e+00 5.631132e-01 5.721536e-01
<VARIANCE> 39
 1.220477e+01 3.396674e+01 3.741114e+01 3.121174e+01 4.223094e+01 3.271778e+01 4.038968e+01 3.616132e+01 3.021765e+01 3.445667e+01 3.229992e+01 2.671512e+01 1.308623e+00 1.387856e+00 4.156310e+00 4.722602e+00 4.573170e+00 5.917803e+00 4.697913e+00 5.020328e+00 5.331037e+00 4.593523e+00 4.042943e+00 4.268042e+00 3.340804e+00 2.427388e-01 3.371987e-01 6.406392e-01 7.310881e-01 8.548781e-01 1.041949e+00 9.736472e-01 1.561308e+00 1.245936e+00 1.096429e+00 1.142593e+00 9.826297e-01 7.329656e-01 3.011667e-02
<GCONST> 1.239344e+02
<MIXTURE> 8 6.204497e-02
<MEAN> 39
 -4.147970e+00 -3.948722e+00 1.642831e+00 5.692780e+00 2.992244e+00 3.238618e+00 3.199888e+00 -1.308501e+00 5.228998e-01 -1.241184e+00 -3.705654e-01 1.860636e-01 -5.758673e+00 -3.088791e+00 -3.271992e+00 -1.720225e+00 -2.197761e+00 -2.345711e-01 5.130571e-01 1.695945e+00 2.130070e+00 1.813477e+00 1.281473e+00 1.725373e+00 1.333213e+00 6.157123e-01 5.219463e-01 9.841948e-01 1.965154e-01 -2.844014e-01 -3.845181e-01 -6.996172e-01 -5.381812e-01 -7.426082e-02 -9.992808e-02 3.512952e-02 -1.590904e-01 5.111488e-02 1.856217e-01
<VARIANCE> 39
 2.934151e+01 4.193166e+01 4.762177e+01 6.112769e+01 4.320523e+01 3.782024e+01 2.918776e+01 2.653810e+01 3.396962e+01 2.344735e+01 2.542502e+01 1.903903e+01 1.811988e+00 3.755070e+00 4.739343e+00 4.314009e+00 5.642450e+00 4.520806e+00 3.944843e+00 4.093224e+00 4.430745e+00 4.350364e+00 3.735830e+00 3.613497e+00 3.025029e+00 3.063874e-01 7.725543e-01 8.010750e-01 9.259140e-01 1.354783e+00 8.110930e-01 8.949847e-01 7.141443e-01 8.482776e-01 7.879083e-01 6.325489e-01 6.192713e-01 5.496418e-01 4.524045e-02
<GCONST> 1.241790e+02
<MIXTURE> 9 4.024835e-02
<MEAN> 39
 -3.359410e+00 -3.464713e+00 4.663043e+00 -7.077807e-01 -7.841991e-01 6.344272e-01 1.564268e+00 -1.532119e+00 2.158595e+00 -3.007363e+00 1.277342e+00 4.550630e+00 -3.904181e+00 8.200885e-01 -3.602870e+00 -1.830256e-01 -3.571472e+00 -2.837796e+00 -1.759786e+00 -1.832461e+00 2.502053e+00 1.611927e+00 1.075675e+00 1.489125e+00 1.116176e+00 1.529687e+00 1.212864e+00 4.831674e-01 -5.760560e-02 5.162582e-01 -4.409865e-01 -5.359228e-01 -8.341604e-01 2.807681e-01 -2.573357e-01 4.175447e-01 -5.443576e-01 -8.205496e-01 6.057177e-02
<VARIANCE> 39
 1.639004e+01 2.832204e+01 2.537147e+01 3.566426e+01 3.486508e+01 4.370450e+01 3.648882e+01 3.573898e+01 3.241288e+01 2.509731e+01 2.826254e+01 1.521300e+01 1.050062e+00 1.741464e+00 2.347507e+00 2.598500e+00 2.697841e+00 3.891556e+00 3.647570e+00 4.600284e+00 3.938501e+00 4.935233e+00 3.254821e+00 3.375780e+00 2.617630e+00 2.804219e-01 2.934525e-01 6.529519e-01 7.087079e-01 8.674430e-01 8.712820e-01 1.105541e+00 1.069300e+00 1.065217e+00 9.285251e-01 7.615634e-01 9.096451e-01 5.610089e-01 3.164178e-02
<GCONST> 1.180120e+02
<MIXTURE> 10 8.221900e-02
<MEAN> 39
 7.635342e+00 -6.343680e+00 5.921599e+00 4.243431e+00 -1.009584e+01 -3.192479e+00 -6.693065e+00 3.292576e-01 2.837626e+00 -2.596198e+00 -1.847030e+00 1.177493e+00 -2.054042e+00 -2.623940e-01 1.682274e-01 1.553148e+00 -4.326174e-01 -6.692365e-01 1.491200e-01 -6.835571e-01 1.318302e-01 -7.216456e-01 -8.530342e-02 5.315342e-01 2.147606e-01 -8.601723e-02 -1.063544e-01 -1.800216e-02 -3.754804e-01 -8.572373e-01 2.671242e-01 -1.402505e-01 2.126183e-01 5.361282e-01 -3.264491e-01 3.036980e-01 2.978125e-01 -1.720712e-01 1.603543e-01
<VARIANCE> 39
 9.520600e+00 1.448538e+01 3.654824e+01 4.174514e+01 3.239219e+01 3.116387e+01 4.227116e+01 3.391816e+01 3.742287e+01 3.409962e+01 3.055695e+01 2.243715e+01 1.367129e+00 1.105296e+00 1.358640e+00 3.609390e+00 3.501723e+00 3.119304e+00 3.110072e+00 3.901136e+00 4.689438e+00 4.756036e+00 3.206804e+00 3.129539e+00 2.495108e+00 5.733362e-02 1.310278e-01 2.163814e-01 3.322562e-01 5.164384e-01 6.870995e-01 6.870227e-01 1.360964e+00 9.847740e-01 6.898676e-01 7.609295e-01 9.636286e-01 4.970326e-01 1.198348e-02
<GCONST> 1.105687e+02
<MIXTURE> 11 6.156740e-02
<MEAN> 39
 -1.043337e+01 1.268061e+00 -2.798195e+00 3.611110e-01 3.995988e+00 2.251728e+00 4.759263e+00 3.955241e-01 5.002574e+00 2.251806e+00 6.196250e+00 1.169929e+00 -4.242359e+00 1.613027e+00 2.504281e-01 5.346968e-01 -2.801570e+00 -3.123892e+00 -3.243136e+00 -5.621968e-01 -8.835122e-01 -1.044436e+00 -4.485727e-01 -4.919686e-01 4.821854e-01 1.698845e+00 1.346122e+00 2.097592e-01 1.050319e+00 2.202149e-01 -8.344994e-01 -6.246182e-01 -8.152640e-01 -1.463448e-01 -7.524471e-01 -3.134702e-01 -9.233190e-01 -6.655678e-02 -1.019626e-01
<VARIANCE> 39
 2.220943e+01 2.723567e+01 3.184009e+01 3.138340e+01 3.323078e+01 2.939506e+01 3.315467e+01 2.909234e+01 2.586454e+01 2.983373e+01 2.684237e+01 1.743285e+01 1.911878e+00 2.763167e+00 2.681325e+00 3.706422e+00 3.253304e+00 4.152941e+00 3.377379e+00 2.965145e+00 3.427674e+00 2.659271e+00 2.755445e+00 2.402765e+00 2.105694e+00 4.486542e-01 5.305847e-01 6.876360e-01 8.688636e-01 7.551103e-01 8.391552e-01 8.300113e-01 9.011963e-01 8.572012e-01 8.451805e-01 8.289320e-01 7.696834e-01 5.173807e-01 7.051614e-02
<GCONST> 1.184757e+02
<MIXTURE> 12 6.570179e-02
<MEAN> 39
 -4.927271e+00 -7.704544e+00 -2.618840e+00 1.609119e+00 1.079147e-02 1.278212e+00 3.091213e+00 -7.198761e-01 1.045959e+00 -9.159521e-03 9.131975e-01 2.198909e+00 -5.224521e+00 -8.943728e-01 -2.097389e+00 -6.999946e-01 -2.094396e+00 -1.499338e+00 -1.538685e+00 1.666873e-01 8.086891e-01 7.759360e-01 2.996635e-01 5.633970e-01 8.615639e-01 1.152038e+00 2.245976e-01 1.723226e+00 7.849907e-01 6.282756e-01 4.223343e-01 -3.475097e-01 -4.832458e-01 -1.295747e-01 -4.161238e-02 -1.088242e-01 -3.176193e-01 -2.122480e-01 -1.166631e-01
<VARIANCE> 39
 2.915181e+01 2.967853e+01 4.297284e+01 4.874718e+01 3.390044e+01 3.176625e+01 3.041662e+01 3.095213e+01 2.203644e+01 1.776380e+01 2.025375e+01 1.129832e+01 1.790524e+00 3.244321e+00 4.133389e+00 3.453925e+00 4.083083e+00 3.135225e+00 2.963976e+00 3.048880e+00 3.130098e+00 3.062293e+00 2.507122e+00 2.182849e+00 1.918526e+00 3.355300e-01 7.449983e-01 7.117615e-01 7.634298e-01 9.234172e-01 6.472343e-01 7.849929e-01 9.188412e-01 7.676980e-01 5.761911e-01 5.013772e-01 4.223880e-01 3.263285e-01 6.835882e-02
<GCONST> 1.160914e+02
<MIXTURE> 13 6.095342e-02
<MEAN> 39
 -2.574450e-01 2.381848e+00 9.012188e+00 1.104232e+00 -1.499776e+00 -1.057752e+00 -5.434708e+00 -5.779167e-01 -1.237485e+00 -4.677769e+00 2.089752e+00 -1.390535e+00 -4.403500e+00 -6.282324e-01 1.922660e-01 5.004111e-01 -6.506323e-01 2.482064e-01 -3.353617e-01 9.286734e-02 -2.363991e-01 -4.848877e-01 3.998992e-01 3.242704e-01 -2.184332e-01 1.531374e-04 8.305689e-01 -9.515048e-01 -3.976850e-01 -8.178645e-01 -1.005573e+00 -6.246130e-01 4.665540e-01 2.874720e-01 -1.616302e-01 8.429258e-01 -5.506321e-01 3.619832e-01 4.352793e-01
<VARIANCE> 39
 1.657141e+01 2.154289e+01 2.648684e+01 2.602674e+01 3.114903e+01 3.735319e+01 3.287994e+01 3.557523e+01 3.915973e+01 2.736263e+01 2.338225e+01 1.847798e+01 1.405891e+00 1.282693e+00 1.902719e+00 2.145598e+00 2.813830e+00 3.074190e+00 2.788666e+00 2.517772e+00 3.075277e+00 3.278475e+00 2.659324e+00 2.336423e+00 1.735889e+00 1.274617e-01 4.329122e-01 4.773232e-01 1.088078e+00 1.126037e+00 1.114187e+00 1.012012e+00 1.053009e+00 1.048579e+00 1.055013e+00 8.979682e-01 7.981762e-01 6.310923e-01 1.799758e-02
<GCONST> 1.140799e+02
<MIXTURE> 14 6.352645e-02
<MEAN> 39
 -1.604358e+00 1.383634e+00 7.062274e+00 -4.865964e-01 4.952563e+00 4.835617e-01 -1.714058e+00 -1.435450e+00 -4.197580e+00 -2.960216e+00 -1.027432e+00 -1.373728e+00 -4.676608e+00 -9.161478e-01 -2.466710e+00 3.866120e-01 -3.168362e+00 -9.912098e-01 -1.363234e+00 -4.984396e-01 1.688596e+00 7.306548e-01 7.713271e-01 1.357049e+00 1.485305e+00 8.945009e-01 9.365545e-01 -3.007492e-01 8.317549e-02 2.787322e-03 -1.748114e+00 -6.351067e-01 -1.343435e-01 -8.391490e-03 1.940994e-01 3.221014e-01 9.959253e-03 2.638120e-01 3.024080e-01
<VARIANCE> 39
 1.402696e+01 2.076986e+01 1.960040e+01 2.667453e+01 2.782469e+01 3.473683e+01 2.405315e+01 2.748286e+01 2.360743e+01 1.790084e+01 2.795508e+01 1.533632e+01 1.381577e+00 1.378557e+00 2.251505e+00 2.648575e+00 3.359984e+00 4.643781e+00 3.311120e+00 5.146251e+00 5.905615e+00 5.161948e+00 4.861605e+00 4.024816e+00 2.703556e+00 1.747565e-01 3.013894e-01 4.601660e-01 6.307441e-01 8.533176e-01 8.558019e-01 9.446747e-01 6.532421e-01 9.549563e-01 8.724511e-01 7.351523e-01 8.942845e-01 5.880364e-01 2.587868e-02
<GCONST> 1.147192e+02
<MIXTURE> 15 4.394389e-02
<MEAN> 39
 -3.020182e+00 1.852956e+00 4.756217e+00 4.794469e+00 1.038241e+00 -1.032334e+00 3.382740e+00 -6.075203e+00 -1.436606e+00 -3.333304e+00 -3.981470e-01 -6.086081e-01 -4.784473e+00 -4.854037e-01 -7.069690e-01 2.550928e-01 -1.783371e+00 -8.004228e-01 5.271800e-02 -2.964580e-01 1.077964e-01 1.486716e-01 3.535978e-01 4.434256e-01 4.208871e-01 4.097505e-01 1.245401e+00 -7.377298e-01 1.376712e-01 -1.130121e+00 -1.348469e+00 -1.495694e-01 -1.404447e+00 9.120020e-01 -1.029067e-01 5.159458e-01 7.834543e-02 3.848878e-02 4.499193e-01
<VARIANCE> 39
 2.304972e+01 3.796247e+01 3.986165e+01 3.926870e+01 5.828625e+01 5.172161e+01 3.341054e+01 3.464249e+01 4.089747e+01 2.865751e+01 2.301666e+01 2.368186e+01 1.610350e+00 1.899976e+00 2.667876e+00 3.131705e+00 3.626089e+00 3.893314e+00 3.800112e+00 4.409087e+00 5.603499e+00 4.784286e+00 3.254132e+00 3.162066e+00 2.545114e+00 1.943602e-01 5.953954e-01 7.518864e-01 1.474788e+00 1.204158e+00 1.818582e+00 1.530820e+00 9.782512e-01 1.270102e+00 1.334589e+00 1.227849e+00 1.161054e+00 1.039203e+00 2.524384e-02
<GCONST> 1.258772e+02
<MIXTURE> 16 3.908269e-02
<MEAN> 39
 -3.217232e+00 -3.584089e+00 5.178402e+00 3.564264e-01 4.928207e-01 2.719700e+00 2.484381e+00 -9.305724e-01 1.097116e+00 -3.879642e+00 -1.905542e+00 3.571519e+00 -4.493137e+00 6.310033e-01 -3.590726e+00 -1.817203e-01 -3.876873e+00 -2.751069e+00 -1.521442e+00 -1.874321e+00 1.841215e+00 1.179187e+00 6.015158e-01 1.404021e+00 8.837963e-01 1.606525e+00 1.110255e+00 4.253764e-01 -7.816516e-02 3.940589e-01 -4.869088e-01 -7.390400e-01 -1.071317e+00 1.525820e-01 -1.064006e-01 5.359223e-01 5.132376e-02 -7.233030e-01 1.137310e-01
<VARIANCE> 39
 1.323495e+01 3.227750e+01 2.822191e+01 3.473556e+01 3.691958e+01 5.269142e+01 3.778830e+01 3.402491e+01 2.889541e+01 2.258305e+01 2.587923e+01 1.708751e+01 1.442719e+00 2.252659e+00 2.286714e+00 2.601390e+00 2.259881e+00 2.429885e+00 3.761827e+00 4.551361e+00 3.560516e+00 5.128028e+00 3.177898e+00 3.304758e+00 2.736363e+00 2.206274e-01 2.889126e-01 7.062117e-01 6.898082e-01 9.873828e-01 8.182455e-01 1.328553e+00 1.011260e+00 1.029322e+00 9.520528e-01 6.398417e-01 9.115970e-01 5.485497e-01 3.786711e-02
<GCONST> 1.178718e+02
<STATE> 4
<NUMMIXES> 16
<MIXTURE> 1 5.685953e-02
<MEAN> 39
 -8.267650e+00 -1.014442e+00 -2.789885e-01 -1.968135e+00 2.384739e+00 5.079732e-01 2.461273e+00 1.800058e+00 2.709567e+00 8.995066e-01 3.396634e+00 3.311680e+00 -4.874225e+00 -1.730069e+00 1.020386e-01 -4.936544e-01 -2.253183e-01 6.721538e-02 -2.073638e-01 1.252059e+00 1.537318e+00 1.141991e+00 1.051130e+00 7.143200e-01 8.753235e-01 2.585050e-01 7.026806e-01 1.022822e+00 5.134288e-01 1.219400e+00 6.046591e-02 -1.585709e-02 -2.019528e-01 -4.583955e-01 -3.889220e-01 -3.385001e-01 -7.078015e-01 -3.918247e-01 -2.383166e-01
<VARIANCE> 39
 3.013433e+01 3.061933e+01 4.683771e+01 3.805880e+01 3.940195e+01 4.073110e+01 2.989590e+01 3.528119e+01 3.692954e+01 2.347817e+01 2.575201e+01 2.462581e+01 1.726206e+00 5.392751e+00 4.416812e+00 3.898093e+00 5.928312e+00 3.838060e+00 3.629492e+00 3.654802e+00 3.289160e+00 2.989062e+00 2.453258e+00 3.031969e+00 2.736820e+00 6.905959e-01 6.766131e-01 7.635073e-01 8.653584e-01 8.831130e-01 9.495585e-01 1.117925e+00 6.537606e-01 7.867687e-01 8.737218e-01 6.509941e-01 5.862812e-01 6.315570e-01 7.760162e-02
<GCONST> 1.236167e+02
<MIXTURE> 2 7.980166e-02
<MEAN> 39
 9.948721e+00 -7.485659e+00 -2.082533e+00 5.613187e+00 -8.737109e+00 -3.589084e+00 -5.719221e+00 -3.705271e+00 6.613828e+00 2.933574e+00 -1.599565e+00 -9.683298e-01 -1.668911e+00 7.761008e-01 -9.252303e-01 -4.017069e-01 -8.138418e-01 -9.782243e-01 4.699673e-01 -1.633415e+00 1.843056e+00 8.124422e-01 -6.383070e-01 6.215517e-01 3.983386e-01 3.405448e-01 -7.388983e-02 1.089570e-01 -2.149241e-01 -7.351190e-01 4.916837e-01 2.760193e-01 -2.807201e-02 5.189330e-01 -2.238068e-01 -2.385847e-01 2.321216e-01 -1.679201e-01 7.157544e-02
<VARIANCE> 39
 8.878218e+00 1.431091e+01 3.930073e+01 3.161832e+01 4.248872e+01 4.245351e+01 3.577993e+01 3.539625e+01 3.201538e+01 3.299508e+01 2.992763e+01 2.735186e+01 9.941597e-01 1.057232e+00 1.458347e+00 3.006419e+00 3.378388e+00 4.157697e+00 4.043390e+00 5.231130e+00 5.115885e+00 3.850092e+00 4.023534e+00 3.915761e+00 3.545324e+00 7.070220e-02 1.238274e-01 1.929131e-01 2.558882e-01 5.018432e-01 6.337771e-01 5.386328e-01 5.282327e-01 6.053537e-01 6.898738e-01 5.006465e-01 5.125623e-01 3.995893e-01 1.215051e-02
<GCONST> 1.084735e+02
<MIXTURE> 3 4.785978e-02
<MEAN> 39
 5.604342e+00 -2.320472e+00 7.781907e+00 -1.080894e-01 -5.986195e+00 -6.668930e+00 -5.034019e+00 -1.894740e-01 -1.248285e+00 -2.942586e-01 -1.060239e+00 1.325091e+00 -2.463351e+00 2.396435e-01 -4.854707e-01 1.173992e-01 -5.470474e-01 -7.247412e-01 -9.440746e-02 1.694465e-01 3.551534e-01 -1.028912e-01 1.972358e-01 4.033210e-01 4.121248e-02 1.937311e-01 3.546499e-02 -1.933130e-01 -3.479744e-01 -1.831778e-01 -3.550124e-01 2.984850e-01 2.512615e-01 2.016661e-01 1.519482e-01 -4.128486e-02 1.148701e-01 -1.921721e-01 9.944291e-02
<VARIANCE> 39
 9.318844e+00 1.831782e+01 3.364074e+01 3.489083e+01 3.404419e+01 3.126557e+01 3.472540e+01 3.057808e+01 4.161957e+01 3.223624e+01 2.249108e+01 2.254126e+01 1.542621e+00 7.509637e-01 8.504157e-01 1.191123e+00 1.262421e+00 1.521312e+00 1.614958e+00 1.975528e+00 2.089751e+00 1.865662e+00 1.726882e+00 1.859790e+00 1.394761e+00 3.987435e-02 1.119512e-01 1.300835e-01 2.728136e-01 3.367840e-01 4.167809e-01 3.123744e-01 4.857408e-01 3.646668e-01 4.916649e-01 3.342047e-01 2.809975e-01 2.466093e-01 1.134499e-02
<GCONST> 9.352354e+01
<MIXTURE> 4 6.803060e-02
<MEAN> 39
 2.187633e+00 -6.029230e-01 3.318846e+00 1.049293e+00 -3.265792e+00 -5.821333e+00 -3.505790e+00 -3.046624e+00 4.046931e+00 -6.845291e-01 -3.888373e-01 8.381625e-01 -2.612605e+00 2.162589e+00 -2.093289e+00 -1.027904e+00 -1.554532e+00 -1.543827e+00 -2.722342e-01 -2.035146e+00 2.055956e+00 6.953306e-01 9.008189e-01 2.895989e-01 -8.774628e-02 7.979642e-01 8.734145e-01 -4.025782e-01 -4.914674e-01 -2.663938e-01 -2.626188e-01 4.510606e-01 -3.697239e-01 5.263228e-01 -3.270338e-01 2.227965e-01 -8.488258e-03 -2.884532e-01 1.479262e-01
<VARIANCE> 39
 1.256540e+01 1.701116e+01 2.746206e+01 3.401075e+01 3.713562e+01 3.644032e+01 2.960650e+01 3.336916e+01 2.759299e+01 3.299459e+01 1.914899e+01 2.154522e+01 9.129313e-01 1.816778e+00 2.381181e+00 3.769881e+00 4.718516e+00 4.388465e+00 4.405118e+00 5.169452e+00 5.506189e+00 5.396555e+00 4.062891e+00 4.261128e+00 3.375458e+00 1.463618e-01 2.369262e-01 4.282109e-01 5.533025e-01 5.404101e-01 7.963747e-01 7.217993e-01 8.049648e-01 8.845068e-01 9.154708e-01 9.148161e-01 6.710513e-01 7.483001e-01 1.936810e-02
<GCONST> 1.160191e+02
<MIXTURE> 5 6.729257e-02
<MEAN> 39
 3.247958e+00 -1.078646e+00 9.827562e+00 -2.609510e+00 -6.405346e+00 -7.682026e+00 -4.199007e+00 1.159243e+00 -2.744683e+00 -1.293225e+00 1.325810e+00 2.078854e+00 -2.397488e+00 1.072458e+00 -1.537602e+00 7.274048e-01 -1.737949e+00 -2.793835e+00 -1.819506e+00 6.303118e-02 1.135317e+00 -2.654105e-01 1.319508e+00 2.471215e-01 1.135603e+00 8.194520e-01 3.025694e-01 1.768672e-01 -2.771492e-01 4.848310e-01 -2.593517e-01 2.760498e-01 2.770737e-01 -2.884473e-01 1.295051e-02 8.371175e-02 -3.646159e-01 -1.941055e-01 -4.542097e-02
<VARIANCE> 39
 9.042445e+00 1.402131e+01 1.938497e+01 2.398314e+01 2.023785e+01 1.963178e+01 2.593101e+01 2.504928e+01 2.552163e+01 2.707952e+01 1.604017e+01 1.288738e+01 1.230504e+00 1.771126e+00 2.286391e+00 3.010887e+00 4.187113e+00 4.505339e+00 4.250835e+00 4.343401e+00 5.586640e+00 5.216554e+00 4.658075e+00 4.749569e+00 2.230764e+00 9.949012e-02 1.620662e-01 2.980748e-01 2.477264e-01 4.536852e-01 4.232462e-01 3.868025e-01 4.062929e-01 5.918997e-01 4.717903e-01 4.268050e-01 3.452911e-01 2.984358e-01 1.975415e-02
<GCONST> 1.042667e+02
<MIXTURE> 6 5.884090e-02
<MEAN> 39
 -1.164624e+00 3.822636e+00 2.430065e+00 -1.090250e+00 -6.163070e-01 -9.242931e+00 -1.385498e+00 -1.302617e-01 2.005909e+00 8.111489e-01 -2.628612e+00 3.147294e+00 -2.483074e+00 3.930187e+00 -1.338167e+00 2.569537e-01 -9.073843e-01 -3.555992e+00 -1.673566e+00 -2.854064e+00 8.353576e-01 1.569742e+00 1.120111e-01 -4.306126e-01 -8.411425e-01 1.150388e+00 2.460921e-01 -3.035791e-01 -4.976582e-02 5.566455e-01 2.456392e-01 1.305595e+00 6.361628e-02 3.681416e-02 6.966358e-02 -8.212471e-02 1.079248e-01 -6.819028e-01 -3.519525e-01
<VARIANCE> 39
 1.775694e+01 1.480386e+01 1.891840e+01 1.880544e+01 3.377739e+01 2.723054e+01 2.885400e+01 2.375866e+01 2.317641e+01 2.135398e+01 1.807252e+01 2.034828e+01 1.460906e+00 2.091035e+00 3.218374e+00 4.501007e+00 6.078601e+00 4.745074e+00 5.095350e+00 6.863417e+00 5.071798e+00 4.564366e+00 4.747665e+00 5.924243e+00 4.781888e+00 3.959713e-01 4.314350e-01 4.604380e-01 4.592702e-01 5.231607e-01 7.571461e-01 5.734982e-01 6.681326e-01 6.114807e-01 6.349593e-01 5.998478e-01 5.261918e-01 5.539870e-01 2.683171e-02
<GCONST> 1.158250e+02
<MIXTURE> 7 6.393822e-02
<MEAN> 39
 3.872061e-02 -6.780573e-01 6.110760e+00 -3.199526e+00 -1.633731e+00 -5.070137e+00 -5.325188e+00 -1.093359e-01 2.039873e+00 -1.107796e+00 6.372455e-01 1.952186e+00 -2.483150e+00 1.441417e+00 -2.952314e+00 -1.419761e-01 -2.978363e+00 -2.829856e+00 -2.053345e+00 -1.707631e+00 2.423859e+00 1.363397e+00 1.520616e+00 6.856077e-01 6.911902e-01 1.343420e+00 7.636040e-01 6.984423e-01 -2.131632e-01 9.772502e-01 -2.101742e-01 2.000480e-01 2.987464e-01 -4.276631e-01 -4.928672e-01 1.631828e-01 -5.590999e-01 -5.677923e-01 -1.831389e-01
<VARIANCE> 39
 1.205998e+01 1.289496e+01 2.199781e+01 1.896221e+01 2.729895e+01 2.924690e+01 3.176961e+01 2.825779e+01 2.950367e+01 2.273440e+01 2.307434e+01 1.790220e+01 8.954380e-01 1.697362e+00 3.005126e+00 3.844289e+00 4.084562e+00 4.980285e+00 4.769218e+00 6.521830e+00 5.579049e+00 5.477244e+00 4.375958e+00 4.110641e+00 3.823899e+00 2.086283e-01 1.936846e-01 3.005861e-01 4.619763e-01 5.108846e-01 7.543269e-01 7.460412e-01 8.117409e-01 8.085197e-01 9.548961e-01 6.769468e-01 8.005168e-01 5.409051e-01 1.960808e-02
<GCONST> 1.136823e+02
<MIXTURE> 8 8.160153e-02
<MEAN> 39
 -7.582076e+00 8.028184e+00 2.211289e+00 2.190389e-01 4.672877e-01 -4.042292e+00 2.832166e+00 -3.417828e+00 -3.163050e-01 -9.872228e-01 1.630794e+00 1.474299e+00 -3.570045e+00 3.457070e+00 -7.381652e-02 2.799287e+00 -7.863262e-01 -3.762072e+00 -3.008903e+00 -2.147528e+00 -5.393933e-01 -1.401809e+00 -3.900572e-01 -1.131822e+00 4.481935e-01 8.979087e-01 9.239678e-01 -6.496963e-01 5.809599e-01 4.543927e-01 -1.954682e-01 3.917649e-01 -5.804903e-01 4.033021e-01 -1.510712e-01 1.014342e-01 -3.164059e-01 -1.321361e-01 -2.467010e-01
<VARIANCE> 39
 2.128671e+01 1.903662e+01 4.687941e+01 2.703152e+01 3.830729e+01 2.990832e+01 3.394451e+01 3.188405e+01 3.167955e+01 2.571244e+01 2.720142e+01 2.071009e+01 1.457504e+00 2.133776e+00 3.723698e+00 4.591888e+00 7.010013e+00 4.619211e+00 4.132993e+00 3.985283e+00 5.318773e+00 4.700765e+00 3.818556e+00 3.739954e+00 2.992831e+00 3.579974e-01 4.305024e-01 4.876252e-01 6.232122e-01 6.623875e-01 7.533476e-01 6.150041e-01 6.960378e-01 6.926472e-01 6.179863e-01 5.836111e-01 6.742448e-01 4.818242e-01 3.987218e-02
<GCONST> 1.187821e+02
<MIXTURE> 9 4.344243e-02
<MEAN> 39
 -1.030520e+01 -2.546946e+00 2.879434e+00 6.239386e+00 -1.626398e-01 -3.104216e+00 4.256813e+00 9.219637e-01 1.460729e+00 -1.360268e-01 -9.863055e-01 2.216794e+00 -4.449264e+00 9.276050e-01 1.460057e+00 3.386171e-01 -9.670864e-02 2.142226e-01 -1.602391e+00 -1.893692e+00 -2.210163e-02 1.017431e+00 3.653385e-01 1.579171e-01 1.293848e-02 4.248600e-01 1.900582e+00 6.440671e-01 -3.322375e-01 3.085353e-02 2.670512e-01 2.191163e-01 -1.282220e+00 -6.528835e-01 -1.007226e-01 -4.928327e-02 -7.611748e-03 -2.362490e-01 -4.787042e-02
<VARIANCE> 39
 3.596621e+01 3.221217e+01 2.787343e+01 3.165246e+01 3.094931e+01 4.321516e+01 3.640430e+01 2.631349e+01 2.998029e+01 1.729958e+01 2.349005e+01 2.202510e+01 1.468601e+00 7.194762e+00 2.977458e+00 3.810980e+00 3.891049e+00 3.059976e+00 4.132516e+00 4.885450e+00 3.326032e+00 2.688813e+00 2.446396e+00 2.089735e+00 1.641803e+00 1.259772e-01 5.971039e-01 9.503136e-01 6.461490e-01 6.641233e-01 8.534395e-01 8.765898e-01 8.359354e-01 7.328999e-01 7.737027e-01 4.397454e-01 6.105425e-01 5.083212e-01 5.082205e-02
<GCONST> 1.171731e+02
<MIXTURE> 10 6.030062e-02
<MEAN> 39
