\data\
ngram 1=46

\1-grams:
-99.999	sil
-1.6532	aa
-1.6532	ae
-1.6532	ah
-1.6532	ao
-1.6532	aw
-1.6532	ax
-1.6532	axr
-1.6532	ay
-1.6532	b
-1.6532	ch
-1.6532	d
-1.6532	dh
-1.6532	eh
-1.6532	el
-1.6532	em
-1.6532	en
-1.6532	er
-1.6532	ey
-1.6532	f
-1.6532	g
-1.6532	hh
-1.6532	ih
-1.6532	ix
-1.6532	iy
-1.6532	jh
-1.6532	k
-1.6532	l
-1.6532	m
-1.6532	n
-1.6532	ng
-1.6532	ow
-1.6532	oy
-1.6532	p
-1.6532	r
-1.6532	s
-1.6532	sh
-1.6532	t
-1.6532	th
-1.6532	uh
-1.6532	uw
-1.6532	v
-1.6532	w
-1.6532	y
-1.6532	z
-1.6532	zh

\end\
