~o
<STREAMINFO> 1 39
<VECSIZE> 39<NULLD><MFCC_E_D_A_Z><DIAGC>
~v "varFloor1"
<VARIANCE> 39
 9.726257e-01 5.381249e-01 6.651532e-01 6.989120e-01 6.880192e-01 6.224947e-01 6.450717e-01 5.635375e-01 5.311891e-01 4.008754e-01 3.797459e-01 3.082840e-01 1.131276e-01 4.817885e-02 3.519386e-02 3.216594e-02 4.186358e-02 4.215040e-02 4.083050e-02 4.351060e-02 4.295653e-02 3.903697e-02 3.210390e-02 2.959472e-02 2.433364e-02 4.759443e-03 6.696086e-03 5.835324e-03 4.982519e-03 6.833524e-03 6.876886e-03 6.926220e-03 7.477231e-03 7.591971e-03 6.896265e-03 5.920904e-03 5.389229e-03 4.463565e-03 7.207811e-04
~s "silst2"
<NUMMIXES> 12
<MIXTURE> 1 9.314731e-02
<MEAN> 39
 -4.986764e-02 5.077189e+00 2.172034e+00 4.949224e+00 -2.238113e-01 -2.693609e+00 -1.287716e+00 -3.088959e+00 -1.223463e+00 -5.983082e-01 -1.200780e+00 -3.927239e-01 -6.958430e+00 -1.523137e+00 7.415045e-01 -4.300215e-01 1.445073e+00 1.276998e+00 1.180043e+00 7.612152e-01 -1.631608e-03 5.321000e-01 2.133543e-01 2.388883e-01 1.786267e-01 -1.029185e+00 -2.514138e-01 -5.697262e-01 -2.198974e-01 -4.346861e-01 6.124534e-02 4.099222e-01 3.438528e-01 4.721851e-01 2.239339e-01 1.621376e-01 1.621355e-01 8.605714e-02 1.289630e-01
<VARIANCE> 39
 2.734903e+01 3.506201e+01 4.692281e+01 5.428890e+01 6.120728e+01 5.934613e+01 5.722988e+01 6.367721e+01 6.200077e+01 5.615820e+01 4.849704e+01 4.128651e+01 3.909667e+00 5.503924e+00 5.151543e+00 5.623425e+00 6.330239e+00 7.415413e+00 6.445385e+00 6.084895e+00 7.273971e+00 7.018916e+00 5.572780e+00 5.194755e+00 4.051718e+00 5.224713e-01 6.138847e-01 7.760382e-01 7.277180e-01 1.108425e+00 1.189910e+00 1.075427e+00 1.110602e+00 1.137951e+00 1.108754e+00 1.053483e+00 9.179504e-01 7.974329e-01 8.231996e-02
<GCONST> 1.374139e+02
<MIXTURE> 2 5.842370e-02
<MEAN> 39
 -4.424271e+00 1.457597e+00 -2.441125e+00 3.876241e+00 4.124530e+00 2.838713e-02 2.826783e+00 -1.694419e+00 -1.853085e+00 -1.627494e+00 -1.567848e+00 1.196268e+00 -8.536470e+00 -9.765707e-03 3.335198e-01 1.199118e-01 3.508703e-01 2.339031e-01 2.963069e-01 2.250042e-01 2.549489e-01 3.125910e-01 3.496523e-01 3.505502e-01 1.690857e-01 -1.239706e-01 -1.000668e-02 4.559345e-03 1.961286e-02 3.784055e-02 1.008440e-01 2.009551e-01 2.840412e-01 4.078644e-01 4.059502e-01 2.487844e-01 1.650901e-01 8.548587e-02 1.905685e-02
<VARIANCE> 39
 2.066621e+01 3.319315e+01 3.296745e+01 3.025941e+01 3.096023e+01 3.333636e+01 3.173364e+01 3.072875e+01 2.709779e+01 3.263696e+01 2.896895e+01 2.112628e+01 1.652591e+00 2.969695e-01 5.318061e-01 7.155253e-01 8.750758e-01 1.096720e+00 1.313862e+00 1.390171e+00 1.518046e+00 1.564716e+00 1.631435e+00 1.439245e+00 1.252396e+00 2.789915e-02 5.764974e-02 9.336989e-02 1.300010e-01 1.738771e-01 2.240635e-01 2.488329e-01 2.551742e-01 2.519250e-01 2.681017e-01 3.246917e-01 2.873414e-01 2.581930e-01 3.450732e-03
<GCONST> 8.402785e+01
<MIXTURE> 3 1.195789e-01
<MEAN> 39
 -4.334574e+00 -4.311987e+00 -4.587465e+00 2.126542e+00 2.795676e+00 4.260847e-01 2.707175e+00 4.333886e+00 3.413627e+00 -2.088536e+00 1.229007e+00 3.592697e+00 -8.670654e+00 1.986243e-02 3.588264e-01 -1.940918e-01 2.783294e-01 1.908873e-01 2.937788e-01 9.184472e-02 4.064649e-02 1.407392e-01 1.456075e-01 3.439184e-02 -4.336418e-03 -1.556704e-01 -1.133408e-02 2.069724e-01 1.377584e-01 1.308053e-01 1.253273e-01 8.934934e-02 6.998095e-03 -2.161107e-01 -2.207740e-01 -8.726282e-02 -1.904560e-01 -1.842306e-01 5.535770e-05
<VARIANCE> 39
 1.184068e+01 1.561703e+01 2.611024e+01 2.424487e+01 3.014364e+01 3.349064e+01 3.341186e+01 3.042784e+01 2.867570e+01 3.503616e+01 3.799380e+01 2.046834e+01 1.485155e+00 2.409279e-01 5.286464e-01 7.446849e-01 8.657550e-01 1.120832e+00 1.280915e+00 1.495532e+00 1.634424e+00 1.718359e+00 1.676475e+00 1.556066e+00 1.430303e+00 2.616229e-02 4.728854e-02 7.753509e-02 1.126688e-01 1.476936e-01 1.938626e-01 2.284180e-01 2.586705e-01 2.551694e-01 2.672492e-01 3.084854e-01 2.661853e-01 2.500006e-01 2.610147e-03
<GCONST> 8.143037e+01
<MIXTURE> 4 1.135434e-01
<MEAN> 39
 -4.136485e+00 -5.557768e-01 -5.944932e+00 2.704751e+00 3.966463e+00 3.931283e+00 4.381252e+00 5.652483e-01 1.047843e+00 -6.565118e-01 3.806117e-01 2.098220e+00 -9.557308e+00 -4.386895e-01 1.048172e+00 1.188118e-01 6.977915e-01 -3.195471e-03 4.384957e-01 3.981264e-01 -1.290669e-01 -6.381690e-02 3.299037e-01 2.149332e-01 -5.995700e-03 -3.530093e-01 -2.107781e-01 2.205978e-01 4.993968e-01 1.619568e-01 1.102475e-01 -1.234085e-01 -8.504931e-02 2.756112e-02 6.017772e-02 4.558506e-02 -4.526933e-02 -1.230701e-01 9.724863e-02
<VARIANCE> 39
 1.049470e+01 1.670952e+01 2.582466e+01 2.518414e+01 3.260134e+01 3.605230e+01 3.288805e+01 3.498719e+01 3.275302e+01 3.723196e+01 3.525157e+01 2.224498e+01 6.264705e-01 1.044485e+00 1.867131e+00 2.364161e+00 2.319628e+00 2.603778e+00 3.070977e+00 3.191531e+00 2.794553e+00 2.848066e+00 2.942240e+00 2.388469e+00 2.052280e+00 6.472310e-02 2.399936e-01 2.460852e-01 2.812557e-01 3.441243e-01 4.279873e-01 4.752779e-01 4.785059e-01 4.993058e-01 5.131863e-01 5.523795e-01 4.441543e-01 3.775787e-01 1.389256e-02
<GCONST> 1.028456e+02
<MIXTURE> 5 8.693431e-02
<MEAN> 39
 -5.731740e-01 5.309792e+00 3.132773e+00 8.366823e+00 4.882885e+00 2.500254e+00 5.520391e+00 -1.460342e+00 -2.239902e+00 -1.350594e+00 -2.823514e+00 -1.385355e-01 -7.585989e+00 -1.050067e+00 -4.985893e-01 -3.903946e-01 3.965309e-01 8.484793e-01 8.092906e-01 7.392865e-01 6.591821e-01 6.179724e-01 7.732014e-02 1.638817e-01 3.377257e-01 -4.406746e-01 -8.553205e-02 -3.221608e-01 -3.813457e-01 -5.055127e-01 -2.855407e-01 -1.601736e-01 -1.474822e-01 1.244606e-01 1.721919e-01 1.556350e-01 2.022306e-01 1.029761e-01 2.611277e-02
<VARIANCE> 39
 1.845176e+01 2.671325e+01 3.563200e+01 3.614829e+01 4.408009e+01 4.009005e+01 4.287281e+01 5.239508e+01 3.739332e+01 3.821682e+01 3.729416e+01 3.048650e+01 2.489285e+00 1.227557e+00 1.460968e+00 1.807777e+00 2.222858e+00 2.234468e+00 2.310606e+00 2.599038e+00 2.599128e+00 2.534355e+00 2.501371e+00 2.253730e+00 2.046294e+00 8.635049e-02 1.274575e-01 2.041494e-01 2.474508e-01 3.618760e-01 3.942374e-01 3.909715e-01 4.301554e-01 4.643497e-01 4.292049e-01 4.272751e-01 4.282966e-01 3.911694e-01 1.181151e-02
<GCONST> 1.044345e+02
<MIXTURE> 6 7.528517e-02
<MEAN> 39
 -9.005129e+00 3.601053e+00 -1.392945e+00 5.552127e+00 4.008908e+00 2.813137e+00 4.248813e+00 6.298102e-01 1.739777e+00 1.338875e+00 1.205447e+00 2.003779e+00 -1.003605e+01 -6.895668e-02 3.412493e-02 1.651595e-02 5.381525e-03 6.141948e-02 8.196044e-02 6.363303e-02 5.157972e-02 3.769426e-02 6.991666e-02 3.594888e-02 1.630633e-02 -8.487092e-03 1.399293e-02 1.058643e-02 2.178510e-02 3.195694e-02 3.447781e-02 2.054093e-02 1.351631e-02 6.374306e-03 1.312702e-03 -1.121041e-02 -3.173363e-02 -2.637857e-02 2.442406e-03
<VARIANCE> 39
 1.188611e+01 1.391426e+01 1.694036e+01 2.696109e+01 1.745048e+01 2.468858e+01 2.179729e+01 2.040936e+01 2.252520e+01 1.833854e+01 1.997843e+01 1.391841e+01 5.259955e-01 1.824919e-01 3.505794e-01 5.786679e-01 7.437801e-01 9.191625e-01 1.146728e+00 1.280936e+00 1.476409e+00 1.471347e+00 1.479457e+00 1.400501e+00 1.292285e+00 4.759443e-03 1.901034e-02 3.289749e-02 5.180264e-02 7.324575e-02 8.466963e-02 9.813600e-02 1.186237e-01 1.267669e-01 1.311844e-01 1.305381e-01 1.277329e-01 1.157752e-01 7.207811e-04
<GCONST> 6.174782e+01
<MIXTURE> 7 7.313806e-02
<MEAN> 39
 -4.526037e+00 -2.636312e+00 -3.215466e+00 7.346727e-01 4.345047e+00 -8.606788e-01 1.638425e+00 2.326794e+00 2.527328e+00 -1.334352e+00 -7.341879e-01 1.305352e+00 -7.732105e+00 9.847116e-01 -2.443846e-02 -4.113269e-01 5.470806e-01 1.763040e-01 6.469947e-01 -4.437871e-02 1.465333e-01 1.842134e-01 8.597888e-02 6.339673e-02 8.020042e-02 -4.919890e-01 -3.055542e-01 4.273683e-01 9.220675e-02 2.405969e-01 7.206449e-02 3.174037e-01 2.552752e-01 -4.524227e-02 -4.641477e-02 1.629426e-01 1.335171e-01 3.669047e-02 2.024385e-02
<VARIANCE> 39
 1.970864e+01 1.694236e+01 2.479990e+01 2.967880e+01 3.471817e+01 3.080289e+01 3.450497e+01 2.975524e+01 3.183216e+01 3.301644e+01 3.389905e+01 2.288356e+01 1.962741e+00 1.826059e+00 1.712151e+00 1.772749e+00 1.982059e+00 2.403204e+00 2.674824e+00 2.564842e+00 2.615809e+00 2.374452e+00 2.583065e+00 2.148971e+00 1.847056e+00 1.595910e-01 2.631023e-01 2.152452e-01 2.591889e-01 3.011429e-01 3.939633e-01 4.114845e-01 4.638913e-01 4.365566e-01 4.457112e-01 4.477395e-01 3.964054e-01 3.604368e-01 1.751369e-02
<GCONST> 1.033617e+02
<MIXTURE> 8 9.534002e-02
<MEAN> 39
 -7.741523e+00 -4.420381e+00 -1.816143e+00 1.448107e-01 3.196941e+00 -2.027970e+00 3.004831e+00 2.930501e+00 8.083515e-01 -1.341763e+00 1.916752e-01 1.923187e+00 -7.350247e+00 1.950929e-01 -9.222123e-02 -7.898051e-02 -3.852736e-02 -1.003642e-01 -8.691432e-02 -2.186436e-01 -7.599457e-02 -6.111170e-02 -1.692374e-01 -1.180942e-01 6.758815e-03 -7.338213e-02 5.403341e-02 5.901632e-02 -4.458247e-02 3.035342e-02 -5.677735e-03 5.698149e-02 -3.253922e-02 -3.928500e-02 2.387203e-02 6.039059e-02 5.734130e-02 4.843330e-02 -2.028104e-02
<VARIANCE> 39
 1.912263e+01 2.250888e+01 2.106112e+01 1.661666e+01 2.738325e+01 2.731890e+01 3.040703e+01 2.607397e+01 2.635613e+01 2.905377e+01 3.273490e+01 1.817200e+01 1.970870e+00 3.544382e-01 3.800560e-01 5.028466e-01 7.027020e-01 9.383765e-01 1.104899e+00 1.277881e+00 1.423912e+00 1.448029e+00 1.470929e+00 1.238203e+00 1.238440e+00 3.354345e-02 3.902694e-02 6.755756e-02 9.221252e-02 1.301493e-01 1.748493e-01 2.124996e-01 2.464858e-01 2.563010e-01 2.634532e-01 2.863753e-01 2.471677e-01 2.316057e-01 2.087796e-03
<GCONST> 7.794720e+01
<MIXTURE> 9 7.514212e-02
<MEAN> 39
 -3.720648e+00 1.389486e+00 -5.415804e-01 4.798350e+00 5.610788e+00 6.001939e+00 9.353410e+00 1.845712e+00 5.503883e-01 -5.236378e-02 -1.369706e+00 1.388138e+00 -8.339133e+00 -1.066191e+00 -1.007071e+00 -1.294394e+00 -8.401409e-01 -1.775161e-01 -4.538675e-01 -2.666579e-01 3.918784e-01 3.736371e-01 6.692088e-02 4.031663e-01 4.247538e-01 -3.655079e-01 2.291845e-01 1.984417e-01 3.565954e-02 -1.504924e-01 -4.066982e-01 -5.137544e-01 -5.848556e-01 -3.409124e-01 -2.437406e-01 -8.747377e-02 1.083008e-02 -6.800400e-02 9.119430e-02
<VARIANCE> 39
 1.549563e+01 2.242457e+01 3.986758e+01 4.105598e+01 4.970710e+01 3.968761e+01 3.973526e+01 4.792869e+01 3.826336e+01 3.948460e+01 3.448318e+01 2.796527e+01 2.084572e+00 1.124330e+00 1.320054e+00 1.854940e+00 2.238541e+00 2.755941e+00 2.957802e+00 3.221998e+00 3.500610e+00 2.993770e+00 3.169200e+00 3.002844e+00 2.280316e+00 8.152769e-02 1.425281e-01 2.033704e-01 2.677214e-01 4.431158e-01 4.509635e-01 4.395781e-01 4.704699e-01 5.159797e-01 4.883837e-01 5.138296e-01 4.553942e-01 4.099170e-01 1.025259e-02
<GCONST> 1.066529e+02
<MIXTURE> 10 7.391091e-02
<MEAN> 39
 -5.978281e+00 2.283342e+00 -2.866218e+00 4.205781e+00 6.903330e+00 1.297071e+00 5.602794e+00 2.215717e+00 1.584603e+00 1.893264e+00 -5.870285e-01 1.985306e+00 -8.931400e+00 3.894086e-03 1.336443e-01 -8.137889e-03 1.189160e-02 -1.295772e-01 -5.194364e-02 -1.509937e-01 -2.006929e-01 -1.263850e-01 -8.048803e-02 -6.954056e-02 -9.465024e-02 -7.282040e-02 -1.131501e-02 -4.067226e-02 -3.818449e-02 -1.043694e-01 -1.529991e-01 -1.466640e-01 -1.758027e-01 -1.807231e-01 -1.739144e-01 -1.251016e-01 -1.129473e-02 2.319216e-02 2.844258e-03
<VARIANCE> 39
 2.041514e+01 2.779514e+01 2.245920e+01 2.609793e+01 2.371858e+01 3.049160e+01 3.319775e+01 3.120284e+01 2.484345e+01 3.120268e+01 2.535681e+01 2.210829e+01 8.387359e-01 1.164500e-01 2.747172e-01 4.288093e-01 5.801504e-01 7.921278e-01 1.052112e+00 1.280735e+00 1.359390e+00 1.325949e+00 1.384612e+00 1.336942e+00 1.254572e+00 1.012857e-02 2.152298e-02 4.641454e-02 7.875513e-02 1.142257e-01 1.471989e-01 1.953316e-01 2.342538e-01 2.400906e-01 2.356041e-01 2.797817e-01 2.652884e-01 2.619019e-01 9.262069e-04
<GCONST> 7.237852e+01
<MIXTURE> 11 7.107000e-02
<MEAN> 39
 -4.503839e+00 -2.872327e+00 -3.705181e+00 1.480916e-01 4.935025e+00 -9.516370e-01 1.099553e+00 2.685709e+00 2.596162e+00 -9.854044e-01 -1.713111e+00 1.002178e+00 -7.689100e+00 8.897074e-01 -3.163632e-01 -7.596422e-01 1.520778e-01 -2.460737e-01 1.470957e-01 -5.155098e-01 -4.777850e-01 -3.367864e-01 -5.443687e-01 -4.548420e-01 -3.075138e-01 -4.116063e-01 -2.381292e-01 3.548194e-01 6.698772e-02 1.694774e-01 -1.501565e-02 2.219384e-01 2.128646e-01 -1.298178e-01 -1.208395e-01 7.096198e-02 1.011402e-01 4.243007e-02 1.842740e-02
<VARIANCE> 39
 1.895571e+01 1.508709e+01 2.423470e+01 2.865025e+01 3.232520e+01 2.997240e+01 3.269658e+01 2.989234e+01 3.246163e+01 3.377234e+01 3.070798e+01 2.415987e+01 1.889630e+00 1.908894e+00 1.469972e+00 1.546672e+00 2.026128e+00 2.290157e+00 2.609643e+00 2.485317e+00 2.458621e+00 2.463067e+00 2.319962e+00 2.123383e+00 1.830298e+00 1.382393e-01 2.268542e-01 1.982592e-01 2.432971e-01 3.010617e-01 3.687896e-01 3.918507e-01 4.204115e-01 4.308705e-01 4.430473e-01 4.409875e-01 3.801534e-01 3.585043e-01 1.700442e-02
<GCONST> 1.017174e+02
<MIXTURE> 12 6.441508e-02
<MEAN> 39
 -4.040473e+00 -9.198475e-02 -3.759289e+00 2.806794e+00 4.275499e+00 3.277602e-01 1.964683e+00 -1.735505e+00 -1.720578e+00 -2.093892e+00 -2.259188e+00 7.274326e-01 -8.758731e+00 -9.618845e-02 2.039502e-01 -1.568611e-01 4.381201e-02 -1.979414e-01 -1.238614e-01 -2.285331e-01 -3.454534e-01 -3.207358e-01 -2.446669e-01 -1.854928e-01 -1.876921e-01 -1.512278e-01 -6.386123e-02 -3.137876e-02 -2.424405e-02 -5.728436e-02 -1.116237e-02 8.332072e-02 2.198236e-01 3.683968e-01 3.389578e-01 1.950952e-01 1.421081e-01 8.230256e-02 1.797649e-02
<VARIANCE> 39
 1.709917e+01 2.372261e+01 3.020170e+01 2.648792e+01 2.868103e+01 3.483453e+01 3.463724e+01 2.769191e+01 3.066930e+01 3.399858e+01 3.019602e+01 2.269239e+01 1.184132e+00 3.340611e-01 5.676014e-01 7.415394e-01 9.858965e-01 1.115744e+00 1.359234e+00 1.536010e+00 1.526662e+00 1.681055e+00 1.671745e+00 1.540368e+00 1.315125e+00 3.105854e-02 6.270089e-02 9.183444e-02 1.365390e-01 1.776414e-01 2.154900e-01 2.578275e-01 2.601926e-01 2.392263e-01 2.727143e-01 3.160658e-01 2.852413e-01 2.572767e-01 3.615940e-03
<GCONST> 8.411977e+01
~s "silst3"
<NUMMIXES> 12
<MIXTURE> 1 6.873143e-02
<MEAN> 39
 -6.590981e+00 3.557064e+00 -3.636381e+00 4.499715e+00 2.503321e+00 3.394800e+00 4.822416e+00 1.488967e+00 1.792154e+00 -4.929340e-01 7.553802e-01 2.592942e+00 -1.048910e+01 -9.277330e-01 1.163569e+00 1.364680e+00 1.176635e+00 8.871115e-01 6.778479e-01 1.268417e-01 -1.821306e-01 4.146473e-01 9.262908e-01 4.402697e-01 -2.435274e-01 -2.794983e-02 8.376495e-03 -2.324453e-01 1.418136e-01 1.503337e-01 2.261089e-01 -4.754480e-03 -9.611329e-02 -1.344942e-02 3.119625e-02 5.128505e-02 -1.894181e-02 -9.590971e-02 4.849314e-02
<VARIANCE> 39
 9.297581e+00 1.139393e+01 1.771468e+01 1.773554e+01 1.795718e+01 2.518927e+01 2.393941e+01 2.536770e+01 2.280960e+01 2.508656e+01 2.742097e+01 1.669097e+01 1.131276e-01 4.892128e-01 1.208819e+00 1.365706e+00 1.235252e+00 1.682781e+00 1.920151e+00 2.193655e+00 2.168592e+00 2.223756e+00 2.342313e+00 1.912618e+00 1.705163e+00 4.759443e-03 1.275287e-01 1.915983e-01 2.304392e-01 2.349648e-01 2.618355e-01 3.289327e-01 3.533653e-01 3.627719e-01 3.770374e-01 4.250074e-01 3.571563e-01 3.156638e-01 3.229033e-03
<GCONST> 8.424152e+01
<MIXTURE> 2 6.612737e-02
<MEAN> 39
 -8.214848e+00 4.467837e+00 -4.268579e-01 7.697010e+00 3.999306e+00 3.550133e+00 2.435646e+00 -3.969594e-01 1.691139e+00 8.181822e-01 2.391674e+00 1.930546e+00 -1.048303e+01 -2.477512e-01 1.961531e-01 4.542853e-01 6.117086e-01 6.247261e-01 6.174686e-01 4.527508e-01 4.306104e-01 5.357583e-01 5.914308e-01 4.308924e-01 1.396381e-01 -2.951666e-03 5.704601e-02 -8.110152e-02 -9.003501e-02 -8.630919e-02 2.932012e-02 1.029076e-01 2.020933e-01 1.931756e-01 8.870134e-02 -2.374576e-02 -1.168969e-01 -7.099765e-02 5.206815e-03
<VARIANCE> 39
 8.446073e+00 9.281480e+00 1.157261e+01 1.369004e+01 1.436718e+01 1.797594e+01 1.805075e+01 1.555844e+01 1.761521e+01 1.558411e+01 1.751029e+01 1.309712e+01 1.131276e-01 2.704223e-01 3.435062e-01 5.660673e-01 6.997021e-01 9.032450e-01 1.121389e+00 1.365975e+00 1.403335e+00 1.349116e+00 1.362033e+00 1.277829e+00 1.201490e+00 4.759443e-03 4.226996e-02 6.179789e-02 9.332550e-02 1.308967e-01 1.741604e-01 1.959791e-01 2.185211e-01 2.083173e-01 2.203331e-01 2.261924e-01 2.096460e-01 2.094671e-01 7.207811e-04
<GCONST> 6.403822e+01
<MIXTURE> 3 5.849237e-02
<MEAN> 39
 -8.819536e+00 3.510450e+00 -9.652805e-01 8.118103e+00 5.394818e+00 6.113025e+00 5.265775e+00 3.430921e+00 5.358836e+00 2.447958e+00 2.569707e+00 1.123313e+00 -1.048290e+01 -3.933851e-02 1.381864e-01 1.487465e-01 2.343670e-01 2.614656e-01 2.760861e-01 2.703547e-01 2.635015e-01 2.907808e-01 3.128326e-01 2.817220e-01 1.345383e-01 -2.445788e-03 7.711841e-02 9.248063e-02 9.471230e-02 1.085810e-02 -6.429609e-02 -1.663082e-01 -2.293908e-01 -3.341967e-01 -3.584242e-01 -1.851032e-01 -1.448398e-02 5.855620e-02 4.500541e-03
<VARIANCE> 39
 7.823274e+00 8.370996e+00 1.322433e+01 1.503501e+01 1.516672e+01 1.727944e+01 1.836401e+01 1.557226e+01 1.716679e+01 1.570623e+01 1.912981e+01 1.349023e+01 1.131276e-01 1.431779e-01 2.525504e-01 3.817923e-01 5.567542e-01 7.412614e-01 9.412619e-01 1.131912e+00 1.221149e+00 1.294994e+00 1.255067e+00 1.163138e+00 1.106783e+00 4.759443e-03 3.802902e-02 5.793254e-02 8.628620e-02 1.316412e-01 1.699494e-01 1.950354e-01 2.063593e-01 2.059816e-01 2.161036e-01 2.364840e-01 2.273118e-01 2.178850e-01 7.207811e-04
<GCONST> 6.145830e+01
<MIXTURE> 4 6.098982e-02
<MEAN> 39
 -8.906112e+00 5.581538e+00 1.098518e+00 9.675562e+00 6.449339e+00 5.745472e+00 4.306304e+00 1.140208e+00 3.220804e+00 1.792311e+00 2.310079e+00 1.168625e+00 -1.049026e+01 -3.082924e-01 3.486860e-01 6.238865e-01 6.905070e-01 5.960327e-01 4.811878e-01 2.643006e-01 2.279651e-01 4.045484e-01 5.384070e-01 3.614720e-01 4.837891e-02 -1.565961e-03 1.958945e-01 -3.131429e-01 -3.831142e-01 -4.126379e-01 -3.151043e-01 -2.098864e-01 -1.444293e-02 2.416839e-02 -1.115947e-01 -1.724557e-01 -6.288326e-02 9.208362e-02 1.256615e-02
<VARIANCE> 39
 1.256192e+01 1.250011e+01 1.519632e+01 1.722880e+01 1.743935e+01 2.329993e+01 2.435867e+01 2.307420e+01 2.368634e+01 2.029608e+01 2.252870e+01 1.580428e+01 1.131276e-01 8.894418e-01 1.157223e+00 1.463820e+00 1.554381e+00 1.741463e+00 1.786367e+00 2.060260e+00 2.026165e+00 2.003964e+00 2.157189e+00 1.782941e+00 1.649028e+00 4.759443e-03 1.566711e-01 2.126013e-01 2.241547e-01 2.445682e-01 2.967475e-01 3.447976e-01 3.958337e-01 4.010178e-01 3.944407e-01 4.068175e-01 3.446429e-01 3.035153e-01 7.207811e-04
<GCONST> 8.337259e+01
<MIXTURE> 5 1.288593e-01
<MEAN> 39
 -7.676490e+00 3.602313e+00 -2.680764e+00 4.846626e+00 4.293448e+00 2.523205e+00 4.183240e+00 -5.213812e-01 -1.231570e+00 -1.847042e+00 -2.779858e+00 7.250047e-02 -1.045103e+01 -1.141622e-01 1.402212e-01 1.146336e-01 1.142862e-01 6.049526e-02 1.309880e-01 1.265683e-01 1.574541e-01 2.378903e-01 2.048129e-01 1.459714e-01 6.774101e-02 -7.354582e-03 1.315307e-02 1.607180e-03 4.954664e-02 3.725575e-02 2.726492e-02 -4.442260e-04 1.543418e-03 1.286944e-01 3.249489e-01 4.318439e-01 4.289432e-01 2.358521e-01 7.653963e-03
<VARIANCE> 39
 1.276842e+01 1.384305e+01 1.613618e+01 1.864342e+01 1.922451e+01 2.571720e+01 2.350850e+01 2.205969e+01 2.002344e+01 2.041713e+01 1.596893e+01 1.556785e+01 1.131276e-01 1.948543e-01 3.646952e-01 4.990433e-01 6.994462e-01 8.958424e-01 1.152430e+00 1.229233e+00 1.317305e+00 1.383939e+00 1.444418e+00 1.364095e+00 1.227781e+00 4.759443e-03 3.807915e-02 6.739177e-02 9.974338e-02 1.451390e-01 1.940708e-01 2.400350e-01 2.528248e-01 2.781036e-01 2.411344e-01 2.245153e-01 2.040756e-01 2.320347e-01 7.207811e-04
<GCONST> 6.791734e+01
<MIXTURE> 6 1.244562e-01
<MEAN> 39
 -7.264040e+00 1.494779e+00 -3.749554e+00 3.914868e+00 3.446652e+00 2.565100e+00 3.995380e+00 6.379117e-01 1.158187e+00 9.217331e-01 8.599028e-01 2.337732e+00 -1.047404e+01 -4.585566e-02 1.333410e-02 -2.113674e-01 -2.509238e-01 -2.008778e-01 -1.441844e-01 -4.781535e-02 -1.699701e-02 -1.179997e-01 -8.478753e-02 -8.633029e-02 -5.455949e-02 -2.751949e-03 -4.229333e-02 2.040209e-01 2.892384e-01 2.849108e-01 1.817928e-01 1.285114e-01 2.911868e-02 -1.731726e-02 1.808535e-02 -1.682884e-02 -7.137037e-02 -1.336686e-01 8.230885e-03
<VARIANCE> 39
 1.401111e+01 1.734781e+01 2.393171e+01 2.369353e+01 2.858143e+01 3.282356e+01 3.457128e+01 3.477901e+01 3.217327e+01 3.114423e+01 2.852611e+01 2.212709e+01 1.131276e-01 6.618112e-01 1.261565e+00 1.326695e+00 1.596852e+00 1.798972e+00 2.062957e+00 2.121547e+00 2.352995e+00 2.245386e+00 2.197332e+00 2.004355e+00 1.810307e+00 4.759443e-03 1.293930e-01 1.944861e-01 2.375552e-01 2.895705e-01 3.573312e-01 4.221270e-01 4.609758e-01 5.027044e-01 4.824999e-01 4.669811e-01 3.901573e-01 3.699439e-01 7.207811e-04
<GCONST> 8.927810e+01
<MIXTURE> 7 8.510523e-02
<MEAN> 39
 -9.314155e+00 4.995938e+00 -2.144023e-01 7.836868e+00 6.058153e+00 4.114921e+00 4.833777e+00 1.096606e+00 2.997441e+00 3.735435e+00 3.163381e+00 3.442288e+00 -1.046083e+01 2.694546e-02 -9.326009e-02 -2.269321e-01 -4.219071e-01 -5.137375e-01 -5.122718e-01 -3.554785e-01 -2.487272e-01 -2.533754e-01 -1.142121e-01 -1.874648e-02 -8.955855e-03 -3.849826e-03 6.311171e-02 -5.745404e-02 -9.220643e-02 -1.516754e-01 -1.291050e-01 -7.914320e-02 -5.864286e-02 -8.504994e-02 -2.021464e-01 -3.294317e-01 -3.551044e-01 -2.510553e-01 4.634802e-03
<VARIANCE> 39
 8.651780e+00 1.202749e+01 1.405915e+01 1.883633e+01 1.499050e+01 2.389034e+01 2.071648e+01 1.824094e+01 1.982688e+01 1.563903e+01 1.985536e+01 1.358752e+01 1.131276e-01 2.613151e-01 3.944668e-01 6.004937e-01 7.384973e-01 8.585637e-01 1.079517e+00 1.229337e+00 1.392261e+00 1.402244e+00 1.408182e+00 1.392481e+00 1.286661e+00 4.759443e-03 4.628899e-02 7.198810e-02 1.061896e-01 1.378611e-01 1.749095e-01 2.222720e-01 2.315038e-01 2.211654e-01 2.378370e-01 2.446573e-01 2.412996e-01 2.326864e-01 7.207811e-04
<GCONST> 6.705735e+01
<MIXTURE> 8 1.073658e-01
<MEAN> 39
 -8.763527e+00 4.436894e+00 -7.720796e-01 6.699814e+00 4.263587e+00 3.082153e+00 2.994481e+00 -1.039525e+00 3.433166e-01 2.565683e-01 6.826644e-01 1.229709e+00 -1.046808e+01 1.269971e-02 3.339754e-02 -2.916669e-02 -1.467006e-01 -2.259278e-01 -2.737233e-01 -4.063852e-01 -5.305206e-01 -5.664914e-01 -4.290833e-01 -2.681285e-01 -9.677151e-02 -4.246509e-03 7.957465e-03 -2.154024e-02 -4.383535e-04 1.693128e-03 5.031925e-02 9.961565e-02 1.793307e-01 2.242541e-01 2.165602e-01 1.520213e-01 6.764601e-02 4.601951e-02 4.106307e-03
<VARIANCE> 39
 8.498575e+00 9.315867e+00 1.319727e+01 1.734285e+01 1.422087e+01 2.032717e+01 1.847111e+01 1.724310e+01 1.720034e+01 1.405737e+01 1.407952e+01 1.189201e+01 1.131276e-01 1.176419e-01 2.416069e-01 4.102293e-01 6.079145e-01 6.976932e-01 8.628002e-01 1.063989e+00 1.076385e+00 1.151632e+00 1.183380e+00 1.143699e+00 1.087061e+00 4.759443e-03 2.678868e-02 5.003961e-02 8.317357e-02 1.281058e-01 1.668700e-01 1.924927e-01 2.072981e-01 2.108890e-01 2.067699e-01 1.866436e-01 1.802912e-01 1.921148e-01 7.207811e-04
<GCONST> 5.962275e+01
<MIXTURE> 9 8.179587e-02
<MEAN> 39
 -8.055551e+00 4.593897e+00 2.207892e-01 6.908791e+00 3.500185e+00 3.007602e+00 2.676219e+00 -2.120101e-01 1.511212e+00 1.844798e+00 2.573482e+00 2.347382e+00 -1.047247e+01 -1.487339e-01 -5.758312e-02 4.715078e-02 1.486206e-01 2.436926e-01 2.820815e-01 2.018502e-01 2.061301e-01 1.716109e-01 8.130056e-02 -6.409448e-02 -8.796513e-02 -3.693823e-03 -1.511912e-03 -1.018036e-01 -1.207660e-01 -6.270581e-02 8.101682e-02 1.179776e-01 1.403994e-01 1.223551e-01 1.170390e-02 -1.591389e-01 -2.209506e-01 -1.511855e-01 4.419831e-03
<VARIANCE> 39
 8.916773e+00 7.894248e+00 1.246901e+01 1.590957e+01 1.290282e+01 1.800028e+01 1.556361e+01 1.564756e+01 1.628273e+01 1.588033e+01 1.454307e+01 1.114356e+01 1.131276e-01 1.712368e-01 2.716039e-01 4.180338e-01 5.741355e-01 6.728661e-01 7.894064e-01 8.980142e-01 1.046315e+00 1.103624e+00 1.159965e+00 1.124623e+00 1.083656e+00 4.759443e-03 3.047968e-02 4.796112e-02 8.038420e-02 1.240180e-01 1.496287e-01 1.717453e-01 1.850759e-01 1.959637e-01 2.041778e-01 2.079545e-01 1.788943e-01 1.893611e-01 7.207811e-04
<GCONST> 5.864152e+01
<MIXTURE> 10 9.049013e-02
<MEAN> 39
 -4.521095e+00 1.418422e+00 -5.330492e+00 4.353004e+00 4.299130e+00 3.092407e+00 3.223018e+00 1.495741e+00 2.300821e+00 -6.994115e-01 -1.064397e+00 5.721089e-01 -1.038209e+01 -5.118097e-01 8.507162e-01 4.299375e-01 3.534270e-01 -1.850508e-02 3.439463e-01 1.587365e-01 -3.978031e-01 -2.376700e-01 1.589015e-01 1.520928e-01 -4.227023e-02 -1.183422e-01 -1.079867e-01 -3.335054e-02 2.391155e-01 3.483036e-03 3.770059e-02 -3.968161e-02 -1.247765e-02 -4.930238e-02 -6.814975e-02 2.185618e-02 1.170692e-01 1.021118e-01 7.747466e-02
<VARIANCE> 39
 1.006851e+01 1.086067e+01 1.642745e+01 1.629173e+01 1.839969e+01 2.505663e+01 2.479615e+01 2.530418e+01 2.162904e+01 2.622358e+01 2.521430e+01 1.724998e+01 1.131276e-01 3.803414e-01 7.402980e-01 9.470642e-01 1.018277e+00 1.264793e+00 1.662133e+00 1.782895e+00 1.733476e+00 1.804001e+00 1.912845e+00 1.792609e+00 1.573228e+00 1.690863e-02 7.826874e-02 1.133962e-01 1.484071e-01 1.869331e-01 2.217209e-01 2.865241e-01 3.085264e-01 3.100893e-01 3.111623e-01 3.356198e-01 3.084733e-01 2.812294e-01 3.345667e-03
<GCONST> 7.971996e+01
<MIXTURE> 11 6.422587e-02
<MEAN> 39
 -8.975523e+00 5.632689e+00 8.591654e-01 9.222268e+00 6.435497e+00 5.508535e+00 4.787025e+00 9.232668e-01 2.477412e+00 1.680866e+00 1.570603e+00 1.222462e+00 -1.048919e+01 -1.369675e-01 -1.272995e-01 3.436869e-02 -1.120297e-01 -1.024601e-02 -8.018722e-02 -1.814755e-01 -3.615846e-01 -3.981770e-01 -1.880454e-01 -2.290853e-01 -2.385885e-01 -1.285013e-03 1.698453e-01 -3.258482e-01 -4.214812e-01 -4.689469e-01 -3.416229e-01 -2.743165e-01 -1.070178e-01 -2.347930e-02 -1.160852e-01 -1.512247e-01 -1.045428e-01 4.004427e-02 9.548399e-03
<VARIANCE> 39
 1.317986e+01 1.241299e+01 1.496491e+01 1.734384e+01 1.708067e+01 2.242382e+01 2.548893e+01 2.486455e+01 2.453982e+01 2.159166e+01 2.179013e+01 1.571379e+01 1.131276e-01 1.056503e+00 1.169569e+00 1.643716e+00 1.839555e+00 1.757735e+00 1.887124e+00 2.154275e+00 2.170942e+00 2.100646e+00 2.212288e+00 1.858175e+00 1.584953e+00 4.759443e-03 1.727125e-01 2.126737e-01 2.425677e-01 2.468190e-01 3.137701e-01 3.525292e-01 4.143003e-01 4.120192e-01 4.151909e-01 4.666759e-01 3.714875e-01 3.205845e-01 7.207811e-04
<GCONST> 8.489784e+01
<MIXTURE> 12 6.325743e-02
<MEAN> 39
 -8.517170e+00 3.246428e+00 -1.701500e+00 6.641616e+00 5.038939e+00 5.484351e+00 5.874413e+00 3.158039e+00 4.513178e+00 2.163215e+00 1.118488e+00 9.051168e-01 -1.047549e+01 -1.141377e-01 -3.465561e-02 -4.178790e-02 -2.812963e-02 -3.707803e-02 -8.262562e-02 -1.212262e-01 -1.369786e-01 -1.458873e-01 -1.165060e-01 -1.569971e-01 -1.874515e-01 -3.350853e-03 3.904201e-02 3.907795e-02 5.260983e-02 -4.133924e-02 -1.071772e-01 -2.614463e-01 -3.680851e-01 -4.473194e-01 -4.417886e-01 -2.195734e-01 -4.115234e-02 4.978869e-02 4.723255e-03
<VARIANCE> 39
 8.644303e+00 8.409565e+00 1.479079e+01 1.625079e+01 1.443650e+01 1.881099e+01 1.835626e+01 1.561983e+01 1.682674e+01 1.635145e+01 1.842525e+01 1.302681e+01 1.131276e-01 1.503669e-01 2.594174e-01 4.104438e-01 5.624951e-01 7.603164e-01 9.595110e-01 1.095361e+00 1.181079e+00 1.271021e+00 1.283153e+00 1.249962e+00 1.075297e+00 4.759443e-03 3.281600e-02 5.264171e-02 8.994576e-02 1.290916e-01 1.628778e-01 1.881602e-01 2.136731e-01 1.948596e-01 2.051470e-01 2.329781e-01 2.326746e-01 2.202966e-01 7.207811e-04
<GCONST> 6.156886e+01
~s "silst4"
<NUMMIXES> 12
<MIXTURE> 1 6.298202e-02
<MEAN> 39
 -4.382102e+00 5.745247e-01 -2.728213e+00 1.142232e+00 -2.065854e+00 -1.510592e+00 1.163916e+00 3.395698e+00 7.811519e+00 5.211593e+00 2.920424e+00 1.213139e+00 -6.950875e+00 -1.085826e+00 7.707800e-02 -1.274447e-01 7.962908e-01 1.264409e+00 1.698409e+00 1.177498e+00 5.900694e-01 3.219603e-01 -2.327031e-02 -1.017973e-01 -3.367985e-01 -5.402054e-01 2.799956e-01 -5.490110e-02 2.800922e-01 -9.380666e-02 3.078774e-01 2.347573e-01 6.193805e-03 -4.436911e-01 -9.348822e-01 -5.880774e-01 -3.780731e-01 -1.547543e-01 1.891841e-01
<VARIANCE> 39
 4.752387e+01 4.020096e+01 4.827457e+01 6.221719e+01 8.259241e+01 8.063201e+01 7.786380e+01 8.347076e+01 7.403674e+01 8.076291e+01 7.431428e+01 6.614037e+01 4.845047e+00 4.836764e+00 4.620487e+00 4.864630e+00 6.133534e+00 6.935353e+00 7.141045e+00 7.099408e+00 8.254527e+00 8.696347e+00 7.395155e+00 6.375185e+00 5.367727e+00 7.347855e-01 1.427539e+00 1.139668e+00 9.786299e-01 1.744392e+00 1.821123e+00 1.737167e+00 1.734764e+00 1.737880e+00 1.465017e+00 1.622856e+00 1.574259e+00 1.362786e+00 1.930443e-01
<GCONST> 1.487227e+02
<MIXTURE> 2 8.742939e-02
<MEAN> 39
 -9.628626e+00 4.423552e+00 -1.551839e-01 8.356359e+00 5.555907e+00 5.292470e+00 3.995881e+00 1.003181e+00 2.758315e+00 1.721452e+00 2.157130e+00 1.195310e+00 -1.048798e+01 6.792750e-04 1.156738e-01 1.555676e-01 1.995140e-01 2.286558e-01 2.739727e-01 2.715981e-01 2.442003e-01 2.680525e-01 2.389724e-01 1.898228e-01 1.136422e-01 4.101770e-03 3.902790e-01 -2.275024e-01 -4.129632e-02 -4.088952e-01 -2.469235e-01 -2.623754e-01 -6.272381e-02 -4.865613e-02 -8.552798e-02 -7.166301e-02 -6.880065e-02 3.056355e-02 2.458453e-01
<VARIANCE> 39
 7.119808e+00 8.382266e+00 1.279555e+01 1.590934e+01 1.465871e+01 1.848099e+01 1.969027e+01 1.932024e+01 2.197994e+01 1.739661e+01 2.100171e+01 1.356740e+01 1.131276e-01 2.924263e-01 3.683136e-01 5.735020e-01 8.073649e-01 9.710743e-01 1.072981e+00 1.173627e+00 1.351543e+00 1.429129e+00 1.278262e+00 1.234768e+00 1.224828e+00 4.759443e-03 2.290842e-01 3.044678e-01 3.288218e-01 3.870659e-01 3.864762e-01 4.086696e-01 4.182289e-01 4.176408e-01 4.246593e-01 3.851491e-01 3.492483e-01 3.134131e-01 2.471985e-02
<GCONST> 7.917985e+01
<MIXTURE> 3 8.610480e-02
<MEAN> 39
 -8.348271e+00 4.719248e+00 4.083209e-01 8.429731e+00 5.399748e+00 4.329150e+00 3.103795e+00 5.873770e-01 2.659666e+00 1.767112e+00 1.922308e+00 1.187916e+00 -1.040252e+01 -1.557817e+00 -1.545804e-01 -1.446097e-01 8.662770e-01 1.375300e+00 1.665842e+00 1.034468e+00 5.208157e-01 5.384953e-01 2.402717e-01 3.555286e-01 1.450904e-01 -5.317699e-01 7.560834e-01 -4.973126e-01 -6.538636e-02 -8.483787e-01 -7.140119e-01 -6.036012e-01 -2.431405e-01 -1.164028e-01 -3.049071e-01 -1.621381e-01 -2.175337e-01 -8.708208e-02 4.702356e-01
<VARIANCE> 39
 1.020500e+01 1.376018e+01 1.773933e+01 1.835567e+01 2.235786e+01 2.643513e+01 2.579623e+01 3.025518e+01 3.115892e+01 2.601768e+01 2.696361e+01 1.964429e+01 1.131276e-01 2.644470e+00 3.026745e+00 3.968848e+00 3.936699e+00 4.239044e+00 4.494722e+00 4.254544e+00 5.458904e+00 5.543401e+00 4.265647e+00 3.854553e+00 3.322786e+00 3.633318e-01 5.172293e-01 5.286874e-01 6.925139e-01 6.544046e-01 7.465222e-01 6.996752e-01 7.221280e-01 8.406458e-01 7.845728e-01 7.209023e-01 6.701754e-01 5.258542e-01 6.333894e-02
<GCONST> 1.142536e+02
<MIXTURE> 4 7.392041e-02
<MEAN> 39
 -9.006874e+00 -4.072081e-01 -1.465919e+00 2.349592e+00 3.475870e+00 1.721633e+00 3.194095e+00 4.950153e-01 5.595773e-01 1.349320e+00 9.227364e-01 1.171241e+00 -8.170976e+00 -1.996141e-01 7.509013e-02 2.734625e-01 1.812324e-01 3.241815e-01 1.921166e-01 2.943144e-01 3.419303e-01 3.232909e-01 3.116932e-01 2.706306e-01 1.881328e-01 1.268439e-01 3.600121e-01 3.730226e-01 1.052653e-01 2.698307e-01 1.176871e-02 1.012812e-01 5.306751e-03 2.416562e-02 5.901994e-02 -6.875282e-02 -5.623393e-02 -3.784069e-02 -3.163520e-02
<VARIANCE> 39
 4.367131e+01 4.380256e+01 5.751490e+01 5.129234e+01 5.762052e+01 5.122618e+01 4.655713e+01 4.394477e+01 4.013195e+01 3.322639e+01 3.326022e+01 2.302623e+01 2.439465e+00 2.049502e+00 2.521639e+00 2.392948e+00 2.584408e+00 2.462018e+00 2.451234e+00 2.517775e+00 2.436035e+00 2.193846e+00 2.167585e+00 1.947709e+00 1.746006e+00 2.634207e-01 7.133240e-01 8.476193e-01 9.673985e-01 9.142158e-01 9.160044e-01 8.459078e-01 8.204412e-01 7.657751e-01 7.132086e-01 6.183643e-01 5.478616e-01 4.251930e-01 8.295260e-02
<GCONST> 1.199794e+02
<MIXTURE> 5 5.093514e-02
<MEAN> 39
 -6.198269e+00 3.143143e+00 -2.356322e+00 6.503337e+00 5.711216e+00 4.055308e+00 4.687041e+00 1.453643e+00 2.450909e+00 8.715822e-01 8.188946e-01 1.790143e+00 -9.977626e+00 -8.979998e-02 1.354835e-01 1.207043e-01 2.073304e-01 2.107632e-01 3.703863e-01 3.480375e-01 4.810027e-01 5.641117e-01 4.482686e-01 3.083765e-01 1.489041e-01 -2.696914e-02 2.514734e-02 -3.617686e-02 -8.288037e-03 2.216286e-03 4.577879e-02 4.219962e-02 5.999693e-02 8.530226e-02 8.974972e-02 5.622488e-02 4.136847e-02 3.690844e-02 1.053815e-02
<VARIANCE> 39
 1.589772e+01 1.810793e+01 2.409614e+01 2.387225e+01 1.977765e+01 2.794617e+01 2.723731e+01 2.639957e+01 2.672425e+01 2.701474e+01 3.019441e+01 1.802182e+01 6.913301e-01 1.610722e-01 3.288775e-01 5.340600e-01 7.232417e-01 9.710104e-01 1.110072e+00 1.274149e+00 1.353762e+00 1.367840e+00 1.464265e+00 1.438028e+00 1.345231e+00 4.759443e-03 1.192515e-02 2.313840e-02 3.899575e-02 5.576681e-02 7.096054e-02 8.226974e-02 1.032628e-01 9.758174e-02 1.044205e-01 1.187300e-01 1.058372e-01 9.369899e-02 7.207811e-04
<GCONST> 6.153094e+01
<MIXTURE> 6 8.335824e-02
<MEAN> 39
 -9.236859e+00 3.842864e+00 -1.626353e-01 7.627016e+00 5.246531e+00 5.575112e+00 4.611352e+00 1.400285e+00 3.064425e+00 1.943903e+00 1.832717e+00 1.173390e+00 -1.040937e+01 2.185813e+00 -3.480882e-01 4.952020e-01 -1.447332e+00 -1.149867e+00 -7.144038e-01 -3.593358e-01 -6.499406e-01 -1.076870e+00 -6.232644e-01 -7.497657e-01 -4.229493e-01 1.001916e+00 1.108967e+00 -3.699568e-01 -3.715611e-02 -9.870735e-01 -7.890633e-01 -6.217867e-01 -4.398351e-01 -2.303327e-01 -3.625283e-01 -2.016191e-01 -2.504319e-01 -1.473973e-01 5.698366e-01
<VARIANCE> 39
 9.413006e+00 1.221913e+01 1.922080e+01 1.972888e+01 2.262829e+01 2.406441e+01 2.641823e+01 2.558414e+01 2.634288e+01 2.298652e+01 2.476773e+01 1.936816e+01 1.131276e-01 2.750614e+00 4.509089e+00 4.741534e+00 5.218240e+00 4.680436e+00 3.959128e+00 4.444507e+00 4.336572e+00 3.784675e+00 3.566918e+00 3.302424e+00 2.669818e+00 4.503635e-01 3.776092e-01 5.110385e-01 7.174258e-01 6.598183e-01 7.217749e-01 7.799475e-01 7.340209e-01 7.417932e-01 6.862859e-01 6.318913e-01 5.996398e-01 5.069774e-01 5.286804e-02
<GCONST> 1.126209e+02
<MIXTURE> 7 1.174902e-01
<MEAN> 39
 -4.098706e+00 1.414154e+00 -6.636645e-01 3.231596e+00 1.318566e+00 2.003382e+00 3.901403e+00 5.286117e-01 3.356077e-01 -1.977961e-01 -9.404781e-01 3.465192e-02 -7.619711e+00 1.859119e+00 -5.883861e-01 3.839085e-01 -1.439686e+00 -1.127347e+00 -9.110526e-01 -5.951959e-01 -2.225642e-01 -7.096475e-01 -5.378252e-01 -4.627014e-01 -3.031408e-01 9.619193e-01 1.305347e-01 -7.938294e-02 4.952944e-02 -1.821386e-01 -8.415770e-02 -1.158697e-01 -2.259967e-01 4.776212e-02 8.285559e-02 9.766801e-02 1.479150e-01 5.507485e-02 1.446085e-01
<VARIANCE> 39
 2.937901e+01 3.960683e+01 5.159305e+01 4.238060e+01 5.660984e+01 4.335807e+01 4.348616e+01 4.649107e+01 3.977335e+01 3.524524e+01 3.522737e+01 2.741863e+01 3.203524e+00 4.712810e+00 4.571101e+00 5.027221e+00 5.283061e+00 5.734870e+00 4.810712e+00 4.710043e+00 5.277167e+00 4.512539e+00 3.916992e+00 3.971732e+00 3.213399e+00 6.717728e-01 6.550325e-01 6.333591e-01 5.525688e-01 7.541319e-01 7.945807e-01 6.828298e-01 7.391790e-01 7.166562e-01 6.228114e-01 5.943159e-01 5.554925e-01 5.018192e-01 7.047289e-02
<GCONST> 1.271018e+02
<MIXTURE> 8 1.177450e-01
<MEAN> 39
 -8.634064e+00 3.763660e+00 -1.083979e+00 5.658910e+00 4.038827e+00 3.493163e+00 3.527825e+00 8.606561e-02 1.080597e+00 1.711709e+00 9.297516e-01 8.736264e-01 -1.039251e+01 -2.187527e-01 2.633005e-01 5.093396e-01 2.924514e-01 2.476721e-01 1.957195e-01 1.638352e-01 5.493269e-02 5.494995e-02 1.092287e-01 7.493134e-02 -4.794870e-02 1.168909e-01 2.071121e-01 -1.189302e-01 6.361114e-02 -1.265614e-01 -1.066010e-02 -9.640198e-02 -3.642908e-02 2.708390e-02 -2.019686e-03 -1.243828e-01 -6.108021e-02 3.423078e-02 2.585217e-01
<VARIANCE> 39
 1.063851e+01 1.003046e+01 1.652347e+01 1.725809e+01 1.888268e+01 2.018759e+01 2.163571e+01 2.175948e+01 2.318980e+01 1.868444e+01 1.923370e+01 1.446176e+01 1.131276e-01 2.541573e+00 3.224586e+00 2.790027e+00 3.035606e+00 2.507506e+00 2.505298e+00 2.470743e+00 2.244187e+00 2.393689e+00 2.092242e+00 1.703151e+00 1.664519e+00 2.878567e-01 4.728532e-01 3.698806e-01 3.341363e-01 3.512378e-01 3.664078e-01 3.431107e-01 3.907126e-01 3.779089e-01 3.870596e-01 3.489706e-01 2.946273e-01 2.835956e-01 3.360256e-02
<GCONST> 9.706686e+01
<MIXTURE> 9 5.233550e-02
<MEAN> 39
 -7.144833e+00 3.421905e+00 -2.523827e+00 5.724815e+00 4.554444e+00 3.019940e+00 3.457150e+00 -8.114029e-01 2.865398e-01 -1.963447e-01 -3.260585e-01 1.312040e+00 -1.036977e+01 -8.321988e-02 1.293958e-01 6.234675e-02 -5.822382e-02 -2.218211e-01 -2.530397e-01 -4.125620e-01 -5.495939e-01 -4.981684e-01 -3.556584e-01 -2.275505e-01 -1.945397e-01 -1.592481e-02 3.524462e-02 -2.159707e-02 -1.495163e-02 -3.037891e-02 -3.744226e-02 -7.666716e-02 -7.157891e-02 -8.880964e-02 -1.092981e-01 -9.589782e-02 -7.461239e-02 -4.099282e-02 8.856332e-03
<VARIANCE> 39
 1.269082e+01 1.420821e+01 2.146950e+01 2.114704e+01 1.907954e+01 2.550239e+01 2.551762e+01 2.494446e+01 2.273977e+01 2.358725e+01 2.566080e+01 1.638677e+01 1.131276e-01 1.522568e-01 3.456051e-01 5.429833e-01 7.580562e-01 9.046832e-01 1.092729e+00 1.237460e+00 1.309137e+00 1.344583e+00 1.476024e+00 1.394976e+00 1.396895e+00 4.759443e-03 1.286688e-02 2.760744e-02 4.179450e-02 5.780148e-02 6.925607e-02 8.231343e-02 9.648891e-02 1.059386e-01 1.092642e-01 1.123505e-01 1.079370e-01 1.008970e-01 7.207811e-04
<GCONST> 5.854996e+01
<MIXTURE> 10 1.028839e-01
<MEAN> 39
 -7.748385e+00 3.657338e+00 -1.716485e+00 6.234457e+00 4.506487e+00 4.471204e+00 4.666464e+00 1.314215e+00 2.263700e+00 1.248126e+00 1.184726e+00 1.710663e+00 -1.039231e+01 7.856161e-01 -9.352175e-01 -7.135223e-01 -1.149674e+00 -7.870556e-01 -7.790066e-01 -1.310073e-01 -1.691544e-01 -4.548509e-01 -3.853395e-01 -4.529313e-01 -5.741756e-02 2.080187e-01 7.151610e-02 -1.735290e-01 5.629006e-02 -1.320331e-01 -8.107300e-02 -1.915184e-01 -1.355439e-01 -1.219766e-01 -1.017220e-01 -9.025740e-02 -1.028650e-01 -6.226816e-02 1.490183e-01
<VARIANCE> 39
 1.149975e+01 1.498051e+01 2.211824e+01 2.063667e+01 1.882986e+01 2.477931e+01 2.397038e+01 2.330570e+01 2.495197e+01 2.246450e+01 2.233982e+01 1.597315e+01 1.131276e-01 1.656160e+00 2.633404e+00 2.710113e+00 2.375317e+00 2.819638e+00 3.055297e+00 3.214494e+00 3.522274e+00 2.788828e+00 2.827147e+00 2.437161e+00 2.184972e+00 7.952429e-02 2.380732e-01 3.408532e-01 3.436491e-01 3.457665e-01 3.536637e-01 4.072753e-01 4.221492e-01 4.367860e-01 4.308869e-01 4.123401e-01 3.760521e-01 3.144696e-01 1.442697e-02
<GCONST> 9.819707e+01
<MIXTURE> 11 8.882841e-02
<MEAN> 39
 -9.733470e+00 4.082977e+00 -2.812508e-01 7.648313e+00 5.426712e+00 4.968067e+00 4.165548e+00 7.585539e-01 2.215352e+00 1.738328e+00 1.535937e+00 1.262181e+00 -1.048470e+01 -4.576311e-02 -1.287096e-01 -1.350276e-01 -2.305917e-01 -1.881100e-01 -2.102541e-01 -1.891586e-01 -2.498986e-01 -3.207433e-01 -2.516048e-01 -3.079124e-01 -2.527446e-01 1.786903e-03 3.888126e-01 -2.161800e-01 -4.138818e-02 -3.715858e-01 -2.772017e-01 -3.094600e-01 -1.568123e-01 -7.883056e-02 -1.146743e-01 -1.138715e-01 -1.057559e-01 -6.686077e-03 2.359703e-01
<VARIANCE> 39
 7.628346e+00 9.094041e+00 1.301434e+01 1.541093e+01 1.615714e+01 1.912425e+01 2.037652e+01 2.084241e+01 2.238979e+01 1.812939e+01 1.960009e+01 1.508636e+01 1.131276e-01 2.916737e-01 3.732482e-01 5.635793e-01 7.647557e-01 9.486927e-01 1.120936e+00 1.231962e+00 1.333402e+00 1.427508e+00 1.440315e+00 1.271922e+00 1.174843e+00 4.759443e-03 2.336814e-01 3.339554e-01 3.708154e-01 3.778925e-01 4.361465e-01 4.476134e-01 4.466669e-01 4.749065e-01 4.580677e-01 4.346140e-01 3.676756e-01 3.443440e-01 2.305058e-02
<GCONST> 8.064145e+01
<MIXTURE> 12 7.599916e-02
<MEAN> 39
 -8.886277e+00 -8.789161e-01 -1.589971e+00 2.018961e+00 3.788061e+00 1.625843e+00 2.990404e+00 2.228495e-01 9.916357e-01 1.552731e+00 1.045576e+00 1.314592e+00 -8.243756e+00 -5.680199e-02 -3.516211e-01 -1.791067e-01 -3.558380e-01 -1.740768e-01 -3.526273e-01 -2.235616e-01 -1.968104e-01 -2.169817e-01 -1.866865e-01 -1.970844e-01 -1.378913e-01 1.261601e-01 2.979339e-01 4.322014e-01 9.369080e-02 3.192447e-01 -1.794654e-02 1.099770e-01 2.763419e-02 1.443934e-02 -2.625141e-02 -1.299790e-01 -1.075477e-01 -7.604413e-02 -6.177687e-02
<VARIANCE> 39
 4.388073e+01 4.011637e+01 5.483624e+01 5.051668e+01 5.855145e+01 5.629462e+01 4.756117e+01 4.700550e+01 4.070495e+01 3.568809e+01 3.154002e+01 2.532332e+01 2.327008e+00 1.763056e+00 2.199212e+00 2.042878e+00 2.411676e+00 2.330291e+00 2.545861e+00 2.449809e+00 2.414068e+00 2.312085e+00 2.114866e+00 1.917144e+00 1.667622e+00 2.005255e-01 7.250087e-01 7.938055e-01 9.763447e-01 9.195949e-01 9.434845e-01 8.976084e-01 8.271732e-01 8.204755e-01 7.375426e-01 6.587249e-01 5.249805e-01 4.833841e-01 6.854668e-02
<GCONST> 1.193613e+02
~h "b"
<BEGINHMM>
<NUMSTATES> 5
<STATE> 2
<NUMMIXES> 12
<MIXTURE> 1 8.600241e-02
<MEAN> 39
 -7.724753e+00 5.409450e+00 2.195047e+00 8.738203e+00 7.497386e+00 5.816381e+00 3.135617e+00 -4.686210e-01 2.598271e+00 2.246638e+00 1.735651e+00 9.408166e-01 -9.687635e+00 8.826513e-01 -7.901192e-02 -1.170362e+00 2.245808e+00 9.190944e-02 5.837825e-01 2.529590e-01 -3.153270e-01 -3.370196e-01 6.354011e-01 1.730050e-01 -3.676730e-01 -1.309133e+00 -5.062031e-01 6.213428e-02 -2.495077e-01 -7.258956e-01 -1.591101e-01 -4.735456e-01 -7.233617e-02 1.612797e-01 -1.230307e-01 -2.480095e-01 -5.828974e-02 7.077546e-02 5.229234e-01
<VARIANCE> 39
 1.514989e+01 1.806454e+01 2.544342e+01 2.120388e+01 1.761922e+01 2.376052e+01 2.264964e+01 3.151664e+01 2.475326e+01 2.155466e+01 2.567534e+01 1.759594e+01 1.182098e+00 2.992809e+00 3.274962e+00 2.971554e+00 2.550734e+00 3.131238e+00 3.325462e+00 2.792847e+00 3.299157e+00 2.742193e+00 2.518449e+00 2.171916e+00 2.138411e+00 2.807171e-01 3.761398e-01 3.478921e-01 5.874007e-01 5.119220e-01 4.761102e-01 4.822272e-01 5.578923e-01 5.628834e-01 4.522670e-01 4.057686e-01 3.773944e-01 3.307470e-01 5.235567e-02
<GCONST> 1.072259e+02
<MIXTURE> 2 1.144324e-01
<MEAN> 39
 9.901489e+00 -3.425587e+00 1.889107e+00 2.724042e+00 -2.004841e+00 -6.540555e+00 -8.595874e+00 -1.810935e-01 2.367149e-01 7.484642e-01 1.477945e+00 -2.236103e+00 -2.547604e+00 -3.063935e-02 4.422431e+00 -7.848568e-01 2.565286e+00 3.622450e+00 2.655474e+00 1.623660e-01 -3.406063e+00 -9.852209e-01 -5.625460e-01 -1.747752e-01 -1.068551e+00 -1.333760e+00 -7.532163e-01 8.839415e-01 3.678336e-01 1.017276e-01 1.077508e-01 6.744770e-01 8.826832e-01 -2.270459e-01 -4.413947e-01 -4.215164e-01 -2.926911e-01 8.692198e-02 -2.083241e-01
<VARIANCE> 39
 7.451202e+00 1.827374e+01 2.988914e+01 2.732742e+01 3.106806e+01 3.677334e+01 2.776672e+01 3.454827e+01 3.736565e+01 4.316577e+01 2.943880e+01 2.709728e+01 1.430976e+00 1.146328e+00 2.118848e+00 5.522396e+00 5.306829e+00 4.259123e+00 4.984646e+00 8.398803e+00 4.550916e+00 6.222645e+00 4.961600e+00 3.727511e+00 4.656369e+00 1.191552e-01 1.572058e-01 3.265671e-01 4.535782e-01 4.653184e-01 7.022278e-01 7.154758e-01 6.385053e-01 6.723210e-01 5.970445e-01 7.208392e-01 5.354635e-01 4.798584e-01 2.210201e-02
<GCONST> 1.146772e+02
<MIXTURE> 3 8.666681e-02
<MEAN> 39
 7.932492e+00 7.332822e+00 9.508640e-01 8.212477e+00 6.045866e+00 2.289373e+00 -2.388275e+00 -6.519044e+00 -4.786706e+00 -1.815658e+00 8.677982e-01 -2.934115e+00 -5.741964e+00 -7.167586e-01 4.365841e+00 -8.553627e-01 1.439287e+00 3.082369e+00 2.557265e+00 1.945076e+00 -2.397850e+00 -9.151261e-01 1.389413e-01 -5.044386e-01 -4.394283e-01 -1.128735e+00 -6.702643e-01 -6.346855e-01 8.876975e-01 -4.197022e-01 -1.029132e+00 -5.850871e-01 -1.120879e-01 6.350759e-01 7.967697e-02 -9.671829e-02 -1.161956e-01 3.060839e-01 2.048410e-01
<VARIANCE> 39
 7.860149e+00 1.801615e+01 1.452599e+01 1.518666e+01 1.601205e+01 1.849296e+01 2.126303e+01 1.949089e+01 2.613343e+01 2.071777e+01 1.775491e+01 1.926500e+01 1.605745e+00 1.063924e+00 1.872108e+00 3.334888e+00 3.097172e+00 3.455863e+00 3.544737e+00 4.498538e+00 3.850848e+00 5.149050e+00 4.028346e+00 2.918320e+00 2.904233e+00 9.971137e-02 1.806620e-01 5.452319e-01 3.538654e-01 3.723698e-01 4.445432e-01 4.340254e-01 5.617565e-01 4.821427e-01 5.993358e-01 3.743945e-01 3.183011e-01 3.532346e-01 2.681607e-02
<GCONST> 1.029980e+02
<MIXTURE> 4 9.248737e-02
<MEAN> 39
 1.123926e+01 3.996739e+00 -5.151445e+00 -1.117304e+00 2.942794e+00 4.179204e+00 -3.660883e+00 -5.952172e+00 -4.348283e+00 -3.717679e+00 1.933650e+00 2.673726e+00 -3.835403e+00 -1.423912e+00 3.668695e+00 1.848982e+00 2.843159e+00 1.595065e+00 6.222897e-01 3.048778e+00 -6.532851e-01 -1.829163e+00 -1.658962e+00 -1.794285e+00 -5.056412e-01 -1.304732e+00 -4.793852e-01 6.438569e-02 5.448524e-01 2.904042e-01 -1.165405e-01 -1.723289e-01 -8.219355e-02 2.657987e-01 3.118515e-01 2.442172e-01 -2.190888e-01 -3.827385e-01 -3.008671e-02
<VARIANCE> 39
 1.060303e+01 1.473362e+01 2.337396e+01 3.387311e+01 3.264598e+01 2.880527e+01 3.338853e+01 2.756117e+01 3.159616e+01 2.549620e+01 2.940151e+01 2.647080e+01 1.344863e+00 9.964238e-01 2.094060e+00 3.207748e+00 6.469727e+00 5.245852e+00 5.681912e+00 6.895684e+00 5.631160e+00 6.009048e+00 4.720463e+00 4.626614e+00 3.352413e+00 7.479696e-02 7.552131e-02 2.817590e-01 3.383660e-01 4.141868e-01 4.554875e-01 4.540625e-01 4.270134e-01 4.175583e-01 4.489882e-01 3.828268e-01 4.849498e-01 3.789894e-01 1.661300e-02
<GCONST> 1.083667e+02
<MIXTURE> 5 1.072570e-01
<MEAN> 39
 6.624257e+00 8.492053e+00 2.399228e+00 1.000091e+01 2.469998e+00 -1.244777e+00 -1.529968e+00 -1.138718e+01 -9.251333e+00 -4.912109e-01 2.794458e-01 -3.323846e+00 -5.178259e+00 -2.430147e-01 1.104949e+00 2.597635e-01 3.423326e-01 1.690404e+00 9.060629e-01 -5.051396e-01 6.256826e-01 1.850718e-02 -1.238884e+00 3.195366e-01 5.088994e-01 -4.152865e-01 -2.873567e-01 -3.734803e-01 2.916975e-02 -4.962550e-01 -1.687652e-01 6.768608e-02 2.197834e-01 5.741374e-01 5.845981e-01 1.389401e-01 -1.816946e-01 1.397782e-01 3.021379e-02
<VARIANCE> 39
 7.909479e+00 1.293881e+01 1.445972e+01 2.814877e+01 2.540339e+01 3.481658e+01 3.932873e+01 3.395111e+01 5.046257e+01 3.513285e+01 3.250816e+01 3.387747e+01 1.388881e+00 6.715012e-01 1.253793e+00 1.333660e+00 2.148804e+00 2.275294e+00 3.292368e+00 3.768707e+00 4.073534e+00 4.208765e+00 3.594385e+00 3.462189e+00 2.920544e+00 5.244105e-02 1.254925e-01 3.032150e-01 2.241359e-01 4.485520e-01 3.746229e-01 4.004893e-01 5.447094e-01 5.481374e-01 7.959046e-01 6.005565e-01 4.844579e-01 5.419401e-01 2.610238e-02
<GCONST> 1.044243e+02
<MIXTURE> 6 1.036835e-01
<MEAN> 39
 -9.181985e+00 5.606637e+00 7.061722e-01 9.490903e+00 6.528556e+00 5.346801e+00 4.366038e+00 -3.294311e-01 9.752955e-01 6.121819e-01 1.086117e+00 8.084530e-01 -1.045145e+01 1.003955e+00 3.987257e-01 4.564848e-01 8.879882e-02 4.862679e-02 -2.324311e-01 -2.319208e-01 -5.130644e-01 -4.597866e-01 -4.860460e-01 -2.787396e-01 -2.104297e-01 4.096953e-01 8.280473e-01 -2.918655e-01 -5.382856e-02 -7.627473e-01 -4.284144e-01 -4.185452e-01 -3.374687e-01 -1.709090e-01 -9.710303e-03 8.431159e-03 -1.667082e-02 1.135234e-02 5.101261e-01
<VARIANCE> 39
 7.471080e+00 1.306423e+01 1.513877e+01 1.693861e+01 1.574211e+01 1.884712e+01 2.238231e+01 2.284873e+01 2.264482e+01 1.819162e+01 1.773484e+01 1.639951e+01 1.131276e-01 1.747419e+00 2.108499e+00 1.805440e+00 1.930776e+00 1.454873e+00 1.401646e+00 1.560400e+00 2.008550e+00 2.138783e+00 1.866652e+00 1.586367e+00 1.434502e+00 1.924138e-01 2.606012e-01 2.763059e-01 3.431946e-01 4.453020e-01 3.529257e-01 4.526429e-01 4.317986e-01 4.954302e-01 4.810269e-01 3.775952e-01 3.409690e-01 3.442398e-01 5.076866e-02
<GCONST> 9.350122e+01
<MIXTURE> 7 6.837497e-02
<MEAN> 39
 6.835464e+00 1.093770e+01 2.370569e+00 8.244251e+00 6.651234e+00 3.837998e+00 -3.240648e+00 -1.059641e+01 -6.245730e+00 -4.292595e-01 2.062510e+00 -3.293625e+00 -6.335432e+00 -1.648464e+00 3.636176e+00 1.934211e+00 3.219561e+00 1.861867e+00 1.051362e+00 1.232240e+00 -1.204397e+00 -1.875291e+00 -1.643171e+00 -3.552068e-01 3.376548e-01 -1.171065e+00 -3.492407e-01 -1.144769e+00 -1.935355e-01 -7.717732e-01 -5.740639e-01 -4.424860e-01 -3.398764e-02 1.069712e+00 8.527517e-01 1.310121e-01 -4.690371e-01 1.007389e-01 2.678567e-01
<VARIANCE> 39
 7.012058e+00 8.191708e+00 1.295780e+01 1.966648e+01 1.639729e+01 2.100141e+01 2.341926e+01 1.490851e+01 2.376665e+01 1.985359e+01 1.857029e+01 2.105752e+01 1.089721e+00 1.218171e+00 2.063379e+00 2.542801e+00 3.939584e+00 3.300278e+00 3.973384e+00 3.857942e+00 3.660802e+00 4.763478e+00 3.651944e+00 2.573573e+00 2.209038e+00 1.642818e-01 1.870668e-01 3.334416e-01 3.155403e-01 4.542675e-01 4.808901e-01 5.553136e-01 5.540882e-01 4.201095e-01 5.782927e-01 5.941665e-01 4.035675e-01 4.941667e-01 2.790807e-02
<GCONST> 1.026580e+02
<MIXTURE> 8 6.504432e-02
<MEAN> 39
 4.861566e+00 8.519335e+00 5.085450e+00 1.090038e+01 2.608269e+00 -2.628835e+00 -4.198140e+00 -4.226369e+00 6.563891e-01 -2.309695e+00 -5.001718e+00 -4.441541e+00 -6.474285e+00 -9.362559e-01 3.329097e+00 -9.822240e-02 2.544132e+00 2.783938e+00 9.638979e-01 6.518683e-01 -8.659116e-01 -4.737955e-01 -3.962011e-01 -3.113605e-01 -7.934387e-01 -1.210465e+00 -4.097846e-01 -6.848629e-01 -1.272979e-01 -1.051591e+00 -4.669632e-01 3.622829e-01 2.727200e-01 3.037080e-01 -3.179154e-01 1.121749e-01 6.000190e-01 5.504024e-01 2.074080e-01
<VARIANCE> 39
 1.354053e+01 2.390248e+01 1.837951e+01 4.065921e+01 3.279128e+01 3.500089e+01 3.220746e+01 2.414695e+01 2.448496e+01 2.748131e+01 2.467167e+01 1.748542e+01 1.765142e+00 4.205070e+00 4.365064e+00 5.091214e+00 6.710617e+00 4.425134e+00 4.758501e+00 5.325136e+00 4.733441e+00 4.826468e+00 3.987883e+00 3.768647e+00 2.575102e+00 3.328236e-01 3.447343e-01 6.970020e-01 4.710801e-01 6.320275e-01 6.719988e-01 6.093637e-01 7.732657e-01 6.169016e-01 6.147752e-01 6.415300e-01 5.900460e-01 3.656732e-01 3.520960e-02
<GCONST> 1.176864e+02
<MIXTURE> 9 8.015473e-02
<MEAN> 39
 7.196206e+00 9.965868e+00 1.874819e+00 4.777849e+00 -7.014429e-01 2.079171e-01 4.341975e-01 -4.886883e+00 -7.545657e+00 -4.162950e+00 -4.492499e+00 -4.393077e+00 -5.656823e+00 -6.404066e-01 1.386128e+00 5.184346e-01 7.606773e-01 9.513869e-01 3.353350e-01 3.336839e-01 3.664144e-01 5.015581e-01 -6.030638e-01 -4.995160e-01 6.633960e-02 -4.878061e-01 -2.666870e-01 -8.952401e-01 -6.843715e-02 -3.512759e-01 9.006803e-02 6.023238e-02 -2.971426e-01 1.105851e-01 4.631664e-01 3.276007e-01 5.221525e-01 4.373811e-01 1.857037e-01
<VARIANCE> 39
 1.207604e+01 1.984049e+01 2.255374e+01 3.681994e+01 3.044148e+01 3.869923e+01 4.588821e+01 6.117388e+01 5.433753e+01 4.725649e+01 4.162908e+01 4.312262e+01 2.446283e+00 1.122187e+00 2.393820e+00 2.534537e+00 4.244273e+00 3.639121e+00 2.724744e+00 3.341499e+00 4.292496e+00 5.027404e+00 3.751410e+00 4.440622e+00 3.693301e+00 1.475436e-01 2.361714e-01 3.756179e-01 5.244833e-01 9.087732e-01 5.661393e-01 5.549098e-01 6.177999e-01 1.183859e+00 1.167362e+00 1.003067e+00 6.779199e-01 6.677653e-01 2.170954e-02
<GCONST> 1.181710e+02
<MIXTURE> 10 7.588460e-02
<MEAN> 39
 1.158106e+01 2.288357e+00 -5.547255e+00 -2.727296e+00 1.822422e+00 1.809484e+00 -4.863547e+00 -6.981644e+00 -2.431123e+00 4.126340e+00 4.633212e+00 -1.084205e+00 -3.079684e+00 -1.731168e+00 4.833318e+00 2.722368e+00 3.641536e+00 1.409261e+00 1.029336e+00 1.118120e+00 -2.208166e+00 -2.608041e+00 -2.595217e+00 -1.743434e-01 2.619505e-01 -1.580048e+00 -8.664184e-01 -4.497747e-02 6.030368e-01 6.363896e-01 1.401969e-01 -3.665807e-02 3.642817e-01 6.690190e-01 3.192320e-01 -5.864065e-01 -8.681734e-01 -2.010671e-01 -1.374661e-01
<VARIANCE> 39
 8.618417e+00 1.440113e+01 1.972326e+01 5.708625e+01 2.534534e+01 3.846338e+01 4.411397e+01 3.228597e+01 3.447680e+01 3.235928e+01 2.627154e+01 3.333257e+01 1.457125e+00 1.932251e+00 2.042919e+00 4.272596e+00 5.979933e+00 5.974425e+00 7.758423e+00 7.089739e+00 7.713191e+00 5.282480e+00 5.341621e+00 4.641512e+00 3.670810e+00 1.537158e-01 1.812658e-01 3.711326e-01 3.455938e-01 6.500914e-01 5.038572e-01 5.029404e-01 5.605801e-01 6.299883e-01 6.058333e-01 5.747202e-01 4.156405e-01 6.007249e-01 2.606395e-02
<GCONST> 1.158959e+02
<MIXTURE> 11 6.452420e-02
<MEAN> 39
 7.740088e+00 1.008721e+01 1.184383e+00 7.573920e+00 3.898316e+00 2.047371e+00 -6.609731e+00 -1.173163e+01 -6.394419e+00 -1.594101e+00 1.451474e+00 -5.808624e+00 -6.181562e+00 -2.029307e+00 3.766409e+00 2.338387e+00 3.510037e+00 8.617713e-01 1.102575e+00 7.677972e-01 -2.151612e+00 -1.523105e+00 -2.115234e+00 -6.571805e-01 -4.032555e-01 -1.282607e+00 -4.442309e-01 -1.318956e+00 -1.794391e-01 -8.329713e-01 -2.929984e-01 -4.714714e-01 3.538935e-01 1.517166e+00 7.962365e-01 1.669613e-01 -4.648845e-01 4.432691e-01 2.874076e-01
<VARIANCE> 39
 6.663622e+00 1.071829e+01 1.186587e+01 2.461247e+01 1.699734e+01 2.435563e+01 2.787934e+01 2.090590e+01 2.528741e+01 2.374726e+01 1.934686e+01 2.614663e+01 1.446911e+00 1.658978e+00 2.184421e+00 3.358836e+00 5.850436e+00 3.626131e+00 5.547652e+00 4.187362e+00 4.579958e+00 4.353750e+00 4.405424e+00 3.149494e+00 2.898421e+00 2.011192e-01 2.374079e-01 3.814590e-01 4.633916e-01 6.298174e-01 5.869129e-01 7.515408e-01 6.897829e-01 6.398777e-01 6.809418e-01 6.154751e-01 4.023654e-01 6.297567e-01 3.313429e-02
<GCONST> 1.098731e+02
<MIXTURE> 12 5.548212e-02
<MEAN> 39
 5.472415e+00 8.343619e+00 5.155590e+00 1.082440e+01 1.750270e-01 -4.262678e+00 -7.565350e+00 -5.946737e+00 -1.839619e+00 -4.355220e+00 -5.541812e+00 -6.549348e+00 -6.265879e+00 -7.337592e-01 3.541433e+00 -1.728772e-02 2.770348e+00 2.160636e+00 1.196992e+00 -6.967710e-01 -1.634944e+00 -8.124411e-01 -1.290169e+00 -7.207474e-01 -2.009871e+00 -1.163844e+00 -5.191349e-01 -8.161057e-01 -1.573227e-01 -1.207144e+00 -3.199128e-01 2.611175e-01 7.183590e-01 5.251790e-01 5.585216e-03 4.234472e-01 5.429576e-01 7.349966e-01 2.447594e-01
<VARIANCE> 39
 1.285115e+01 2.085601e+01 2.444432e+01 3.024845e+01 3.749801e+01 2.937965e+01 3.591811e+01 2.556131e+01 2.419720e+01 3.676606e+01 2.810174e+01 2.726609e+01 2.073583e+00 3.705003e+00 3.656784e+00 4.823514e+00 5.732667e+00 5.317310e+00 5.401311e+00 6.206026e+00 5.146148e+00 5.204985e+00 4.733876e+00 4.365209e+00 3.791934e+00 3.294601e-01 3.142485e-01 7.174642e-01 6.277080e-01 6.130102e-01 8.087739e-01 6.337827e-01 9.529784e-01 5.846125e-01 6.919898e-01 9.595055e-01 7.342953e-01 6.428632e-01 3.417756e-02
<GCONST> 1.212762e+02
<STATE> 3
<NUMMIXES> 12
<MIXTURE> 1 6.167539e-02
<MEAN> 39
 3.782772e+00 1.273104e+01 5.024909e+00 1.153839e+01 7.846953e+00 2.817646e+00 -1.276939e+00 -7.463749e+00 -4.211739e+00 -1.566028e+00 -1.837850e+00 -2.712476e+00 -7.619365e+00 -3.847833e-01 2.384860e-01 3.389274e-01 4.272991e-01 4.418549e-01 1.302065e-01 -6.740089e-02 1.669533e-01 1.588844e-01 2.829332e-03 -2.897174e-02 6.175826e-02 -1.215799e-01 -1.194601e-01 -5.016302e-01 -1.952609e-01 -4.116000e-01 -2.454333e-01 -6.475350e-02 1.537833e-01 2.823974e-01 1.769153e-01 4.056750e-02 1.601220e-02 1.674344e-01 1.154268e-01
<VARIANCE> 39
 1.363638e+01 1.016842e+01 1.419435e+01 1.761662e+01 1.665924e+01 2.437802e+01 2.540189e+01 2.510287e+01 2.203629e+01 2.429313e+01 2.218268e+01 1.833752e+01 1.513351e+00 5.208815e-01 6.378058e-01 8.773787e-01 1.000587e+00 9.184619e-01 1.000421e+00 1.143562e+00 1.261521e+00 1.251711e+00 1.541320e+00 1.272669e+00 9.855963e-01 5.250659e-02 1.171239e-01 2.540835e-01 1.810290e-01 2.826835e-01 2.280757e-01 3.013052e-01 2.577260e-01 3.384452e-01 2.903593e-01 3.442488e-01 2.978310e-01 2.327769e-01 2.462078e-02
<GCONST> 8.400726e+01
<MIXTURE> 2 9.656218e-02
<MEAN> 39
 4.564833e+00 1.353636e+01 3.514616e+00 8.518102e+00 7.630382e+00 5.402833e+00 1.530289e+00 -8.733511e+00 -8.943602e+00 -4.471885e+00 1.019492e-01 7.121572e-01 -7.180035e+00 -9.457411e-01 5.599825e-01 8.420196e-01 6.537240e-01 3.879475e-01 1.645839e-01 3.064827e-01 1.965047e-01 1.061521e-01 -2.134439e-01 -4.316539e-01 8.021998e-02 -2.810853e-01 9.678628e-02 -1.301590e+00 -5.032837e-01 -8.483196e-01 -6.519068e-01 -5.316237e-01 -5.159277e-01 4.847472e-01 9.995821e-01 5.759338e-01 9.452170e-02 -1.257354e-01 3.828882e-01
<VARIANCE> 39
 1.146091e+01 8.646859e+00 1.540589e+01 1.499651e+01 1.655042e+01 1.887051e+01 2.167946e+01 1.967508e+01 1.784023e+01 1.986506e+01 2.202231e+01 1.633759e+01 1.144722e+00 5.512041e-01 1.171858e+00 9.027368e-01 1.511699e+00 1.275239e+00 1.186729e+00 1.713688e+00 1.677694e+00 1.983468e+00 1.718014e+00 2.010721e+00 1.383090e+00 8.166389e-02 1.947256e-01 2.975130e-01 3.177501e-01 4.602988e-01 4.601566e-01 4.223914e-01 4.915857e-01 5.541514e-01 4.714556e-01 3.755367e-01 4.611279e-01 2.964823e-01 2.457653e-02
<GCONST> 9.135826e+01
<MIXTURE> 3 8.801576e-02
<MEAN> 39
 -4.120266e-01 1.266405e+01 6.723578e+00 1.301379e+01 7.840524e+00 3.260735e+00 -1.321915e+00 -6.132779e+00 -4.274246e+00 -4.218879e+00 -2.539170e+00 -2.415805e+00 -8.563262e+00 -2.363233e+00 -9.427956e-01 -2.900839e-01 2.466665e-01 7.875327e-01 1.196596e+00 1.485910e+00 1.714258e+00 1.208830e+00 3.479497e-01 3.641513e-01 4.730864e-01 -6.187895e-01 2.451472e-01 -1.243170e+00 -7.731794e-01 -1.116136e+00 -8.083174e-01 -4.136531e-01 1.118785e-01 4.930432e-01 6.387987e-01 6.712745e-01 3.786382e-01 2.614674e-01 3.998552e-01
<VARIANCE> 39
 1.278656e+01 7.857101e+00 1.226911e+01 1.502295e+01 1.785154e+01 2.041165e+01 2.576143e+01 2.333730e+01 2.107761e+01 1.939853e+01 1.497900e+01 1.575521e+01 1.794017e+00 1.467965e+00 1.768432e+00 2.231606e+00 2.424129e+00 1.632737e+00 2.162007e+00 2.167387e+00 2.288808e+00 2.813839e+00 2.885431e+00 2.479324e+00 1.736494e+00 1.835455e-01 2.837137e-01 3.530510e-01 4.057327e-01 4.420308e-01 4.528227e-01 4.816520e-01 4.454138e-01 5.606418e-01 4.830703e-01 4.567531e-01 3.920792e-01 4.073196e-01 4.941657e-02
<GCONST> 9.994359e+01
<MIXTURE> 4 1.037555e-01
<MEAN> 39
 -8.348110e+00 4.660954e+00 3.981282e-01 8.696793e+00 6.403977e+00 5.429158e+00 2.887786e+00 8.163995e-01 2.477415e+00 2.038097e+00 2.178669e+00 7.169054e-01 -1.043264e+01 -5.564064e-01 -8.813502e-01 -5.540770e-01 -2.551571e-01 -3.081867e-01 -7.224870e-02 3.757097e-01 6.818006e-01 6.117097e-01 4.568323e-01 5.398161e-01 5.083156e-01 -3.689583e-02 6.708496e-01 9.668106e-04 3.133784e-01 -5.569786e-01 -3.662623e-01 -6.194971e-01 -3.239169e-01 -1.947439e-01 -2.220287e-01 -3.057014e-01 -1.845439e-01 -8.208144e-02 5.732701e-01
<VARIANCE> 39
 7.820295e+00 9.409770e+00 1.467763e+01 1.881043e+01 1.533309e+01 1.666778e+01 2.067729e+01 2.068524e+01 2.359126e+01 1.881882e+01 1.876265e+01 1.508202e+01 1.131276e-01 1.728244e+00 1.425993e+00 1.767460e+00 1.854134e+00 1.640968e+00 1.927777e+00 2.087229e+00 2.454282e+00 2.261422e+00 2.106838e+00 1.791335e+00 1.608024e+00 2.614104e-01 4.514109e-01 3.301458e-01 4.023815e-01 5.456917e-01 4.455352e-01 4.903761e-01 4.616196e-01 4.867364e-01 5.471095e-01 4.659493e-01 3.715208e-01 3.505659e-01 8.527493e-02
<GCONST> 9.661118e+01
<MIXTURE> 5 1.005396e-01
<MEAN> 39
 7.152724e+00 1.256181e+01 6.506257e-01 4.622552e+00 5.036050e+00 5.765274e+00 3.268570e+00 -6.574612e+00 -8.479866e+00 -7.385312e+00 -3.161848e+00 1.109517e+00 -6.588308e+00 -1.928019e+00 2.835712e+00 2.200432e+00 2.241000e+00 1.026862e+00 4.376857e-01 2.034791e+00 4.444564e-02 -1.013752e+00 -1.192612e+00 -1.635653e+00 -6.091362e-01 -1.031328e+00 -6.120170e-02 -1.404639e+00 -2.871360e-01 -5.864537e-01 -4.421906e-01 -4.860740e-01 -1.043169e+00 3.706226e-01 9.898556e-01 8.846437e-01 5.416505e-01 -1.223966e-01 3.653934e-01
<VARIANCE> 39
 1.001337e+01 1.103373e+01 1.710256e+01 1.881411e+01 2.277679e+01 2.015346e+01 2.087202e+01 2.721203e+01 1.904117e+01 2.155627e+01 2.489903e+01 1.789964e+01 1.223338e+00 1.094772e+00 1.859992e+00 3.156741e+00 3.838712e+00 3.556828e+00 3.587571e+00 3.694000e+00 3.724950e+00 3.028026e+00 3.650636e+00 3.343053e+00 2.337632e+00 1.333377e-01 2.247552e-01 5.025373e-01 4.998573e-01 8.370966e-01 6.072965e-01 6.528208e-01 5.735820e-01 7.500018e-01 6.409990e-01 5.696399e-01 5.095290e-01 4.182048e-01 3.393616e-02
<GCONST> 1.070058e+02
<MIXTURE> 6 1.041975e-01
<MEAN> 39
 3.372081e+00 1.084427e+01 9.577700e-01 8.021393e+00 5.730424e+00 3.370413e+00 1.333343e+00 -6.401751e+00 -5.061896e+00 -2.524478e+00 -1.900913e+00 -1.098542e+00 -7.786884e+00 8.249071e-01 3.015897e-01 -1.920020e-01 -8.852889e-02 4.013762e-01 4.842854e-01 -8.055940e-02 -8.575518e-01 -7.630513e-01 -1.476620e-01 4.291217e-01 1.785176e-01 1.396828e-01 -3.911957e-01 -5.872757e-01 2.144035e-01 -1.789707e-01 -2.486224e-01 -2.565745e-01 -2.720565e-01 2.995194e-01 4.201358e-01 1.308295e-01 1.327731e-01 6.472501e-02 1.717440e-01
<VARIANCE> 39
 2.278266e+01 2.468955e+01 3.223849e+01 4.564526e+01 3.045716e+01 2.751072e+01 3.433317e+01 2.746118e+01 3.055143e+01 2.187228e+01 2.505797e+01 1.890558e+01 2.401894e+00 2.982338e+00 2.253558e+00 2.579481e+00 3.257299e+00 2.140903e+00 2.563804e+00 2.899799e+00 3.375709e+00 3.112829e+00 2.348884e+00 2.532656e+00 2.058930e+00 2.536094e-01 4.545763e-01 5.203563e-01 7.107742e-01 1.083114e+00 5.758845e-01 5.229961e-01 6.038052e-01 6.564316e-01 6.447365e-01 4.252023e-01 5.335421e-01 3.645101e-01 6.146491e-02
<GCONST> 1.131621e+02
<MIXTURE> 7 1.114267e-01
<MEAN> 39
 6.218403e+00 1.052778e+01 3.463509e+00 1.047424e+01 4.914954e+00 -4.159690e-01 -6.821826e+00 -9.977935e+00 -4.464853e+00 -1.345465e+00 -1.221353e+00 -6.832135e+00 -6.349471e+00 -1.403956e+00 2.131824e-01 4.627773e-01 -4.983360e-02 4.561137e-01 3.578569e-01 6.321717e-01 5.576785e-01 4.866579e-01 -4.110462e-01 1.064213e-01 6.145892e-01 -1.581190e-01 -6.950014e-02 -1.644580e+00 -1.529401e-01 -1.381541e+00 -1.053256e+00 -4.448904e-01 4.361777e-01 1.178600e+00 4.290701e-01 2.635269e-01 1.947832e-01 7.226298e-01 4.874360e-01
<VARIANCE> 39
 7.367004e+00 1.520457e+01 1.653622e+01 2.341241e+01 3.034657e+01 2.974638e+01 3.380541e+01 3.065105e+01 3.968599e+01 3.154452e+01 3.241133e+01 2.254025e+01 1.695904e+00 1.485316e+00 2.705602e+00 2.058721e+00 3.251529e+00 2.329778e+00 2.576194e+00 2.876083e+00 3.717629e+00 4.147698e+00 3.000480e+00 3.270270e+00 2.499831e+00 1.982165e-01 3.276760e-01 5.173548e-01 9.658723e-01 7.206010e-01 9.668251e-01 9.128962e-01 9.827137e-01 1.022341e+00 1.257011e+00 9.741328e-01 7.384260e-01 5.515243e-01 3.950423e-02
<GCONST> 1.146310e+02
<MIXTURE> 8 5.869610e-02
<MEAN> 39
 -8.912211e+00 4.946085e+00 3.911352e-01 9.266253e+00 6.412256e+00 5.732609e+00 3.893754e+00 5.940615e-01 2.398256e+00 2.207101e+00 2.142164e+00 7.454641e-01 -1.040742e+01 1.874943e+00 -7.464592e-01 1.389427e-02 -1.681125e+00 -9.919526e-01 -1.186785e+00 -2.670098e-01 5.545426e-02 2.878532e-01 -5.693963e-02 1.072911e-01 2.298933e-01 1.443404e+00 1.392421e+00 -5.462797e-01 -1.644041e-01 -1.279849e+00 -7.302673e-01 -4.027447e-01 -5.611184e-01 -2.847055e-01 -1.710365e-01 -1.814341e-02 -8.610275e-02 -1.615151e-01 7.147313e-01
<VARIANCE> 39
 7.843756e+00 1.087687e+01 1.415607e+01 1.611884e+01 1.705952e+01 1.905573e+01 1.951126e+01 2.490281e+01 2.102616e+01 1.820069e+01 2.076938e+01 1.452557e+01 1.131276e-01 2.097994e+00 1.665392e+00 2.242785e+00 2.588191e+00 1.948286e+00 2.259224e+00 2.868875e+00 2.447557e+00 3.036670e+00 2.312346e+00 2.037626e+00 1.907554e+00 2.957082e-01 2.007059e-01 3.881344e-01 7.045937e-01 6.078939e-01 5.708433e-01 8.474835e-01 6.299050e-01 6.483641e-01 6.100913e-01 5.545871e-01 5.683175e-01 4.023288e-01 2.388586e-02
<GCONST> 1.002145e+02
<MIXTURE> 9 8.611001e-02
<MEAN> 39
 6.563787e+00 1.384999e+01 2.493402e+00 4.693731e+00 2.826904e+00 5.334856e+00 3.827692e+00 -4.858355e+00 -8.389600e+00 -8.079856e+00 -4.661309e+00 -4.029243e-01 -6.785114e+00 -1.463673e+00 -9.698476e-01 3.510190e-01 1.226115e-01 3.562148e-01 -4.472863e-01 -1.870573e-01 4.489152e-01 1.376835e+00 7.653106e-01 -1.333130e-01 -1.586759e-01 1.618399e-02 1.518472e-01 -1.538846e+00 -7.591934e-01 -8.445190e-01 -2.830032e-01 -4.208781e-01 -8.127314e-01 -4.567211e-02 7.304975e-01 1.006972e+00 8.930643e-01 2.453546e-01 4.563333e-01
<VARIANCE> 39
 8.337043e+00 1.060715e+01 1.573082e+01 1.493826e+01 2.323646e+01 2.250323e+01 2.235388e+01 2.947324e+01 2.371928e+01 1.906363e+01 2.873610e+01 2.496148e+01 1.415300e+00 1.373806e+00 2.646559e+00 1.255403e+00 2.173444e+00 2.044422e+00 1.870055e+00 2.091621e+00 2.446860e+00 2.681205e+00 2.198845e+00 2.305454e+00 1.917951e+00 1.466234e-01 2.415624e-01 3.327004e-01 4.761104e-01 7.191710e-01 5.572147e-01 5.579620e-01 5.666798e-01 7.072632e-01 5.477559e-01 6.428325e-01 5.224161e-01 5.232605e-01 3.274135e-02
<GCONST> 1.025797e+02
<MIXTURE> 10 6.997465e-02
<MEAN> 39
 1.878493e+00 1.383842e+01 7.893762e+00 1.207391e+01 4.994180e+00 7.282603e-01 -5.033106e+00 -8.786166e+00 -5.030457e+00 -4.817715e+00 -2.569639e+00 -4.210412e+00 -7.626517e+00 -2.744088e+00 7.983815e-01 1.434243e+00 1.870985e+00 1.399956e+00 1.244273e+00 9.851444e-01 2.785457e-01 -2.222492e-01 -9.289817e-01 -4.357564e-01 -3.489931e-02 -9.013425e-01 2.265450e-01 -2.000957e+00 -1.259526e+00 -1.588809e+00 -6.991184e-01 -2.296164e-01 4.371268e-01 1.149520e+00 9.014525e-01 8.793288e-01 5.102103e-01 5.560505e-01 4.885496e-01
<VARIANCE> 39
 9.146411e+00 6.648908e+00 1.126539e+01 1.706114e+01 2.085582e+01 1.905207e+01 3.446972e+01 2.174373e+01 2.201131e+01 2.509051e+01 1.938967e+01 1.880259e+01 1.485143e+00 3.096090e+00 2.667712e+00 3.514857e+00 3.605866e+00 2.568545e+00 3.685204e+00 3.085331e+00 3.012419e+00 3.230195e+00 3.177805e+00 2.459502e+00 2.586137e+00 5.158768e-01 3.050075e-01 3.394622e-01 6.078792e-01 6.317775e-01 6.996526e-01 6.817372e-01 8.911563e-01 7.806213e-01 7.245349e-01 7.384142e-01 5.871477e-01 5.096477e-01 5.810038e-02
<GCONST> 1.098955e+02
<MIXTURE> 11 6.093954e-02
<MEAN> 39
 4.446462e+00 1.245376e+01 4.714668e+00 1.141804e+01 6.580557e+00 2.018753e+00 -3.005233e+00 -7.618635e+00 -3.110607e+00 -2.103389e+00 -1.767107e+00 -3.795753e+00 -7.472390e+00 -4.266523e-01 2.484746e-01 3.758017e-01 4.455211e-01 3.027135e-01 8.613826e-02 9.713017e-02 1.146041e-01 6.322613e-03 -1.108850e-01 -2.557230e-01 -8.306856e-02 -1.366957e-01 -1.332134e-01 -6.952642e-01 -2.425525e-01 -5.099856e-01 -2.795717e-01 -1.211888e-01 2.079509e-01 3.494382e-01 1.688543e-01 5.628370e-02 5.163743e-02 2.667990e-01 1.689849e-01
<VARIANCE> 39
 1.374799e+01 8.835502e+00 1.446283e+01 1.752735e+01 1.900089e+01 3.037649e+01 2.546091e+01 2.151446e+01 2.262502e+01 2.361857e+01 2.151670e+01 1.898805e+01 1.523211e+00 4.545385e-01 6.489348e-01 8.238886e-01 9.823684e-01 8.668251e-01 9.662533e-01 1.022907e+00 1.032025e+00 1.281502e+00 1.189542e+00 1.245862e+00 9.748520e-01 4.829163e-02 1.611562e-01 2.563561e-01 2.229627e-01 3.096291e-01 2.756459e-01 3.253981e-01 2.812566e-01 3.082564e-01 3.301295e-01 3.172913e-01 3.027154e-01 2.470891e-01 2.357397e-02
<GCONST> 8.410766e+01
<MIXTURE> 12 5.809868e-02
<MEAN> 39
 -8.960389e+00 4.894158e+00 2.979982e-01 8.827343e+00 6.003131e+00 5.464918e+00 3.329803e+00 6.068141e-01 2.390964e+00 9.114971e-01 1.945550e+00 1.017528e+00 -1.042911e+01 1.788335e+00 -1.284352e+00 -5.567754e-02 -1.798135e+00 -1.504725e+00 -2.122276e+00 -8.688608e-01 -1.226068e-01 1.832502e-02 -4.566857e-01 -3.868898e-01 -5.482515e-02 1.455500e+00 1.215453e+00 -4.922456e-01 1.744327e-01 -9.408714e-01 -7.459357e-01 -5.821450e-01 -4.941693e-01 -1.598475e-01 -2.529866e-01 6.854754e-02 -1.228027e-01 -1.476139e-01 6.703657e-01
<VARIANCE> 39
 8.565167e+00 1.171548e+01 1.297951e+01 1.593281e+01 1.745848e+01 1.837258e+01 2.055148e+01 2.123958e+01 2.041365e+01 1.589953e+01 2.111211e+01 1.418548e+01 1.131276e-01 2.004388e+00 1.432805e+00 2.684228e+00 2.746781e+00 2.276742e+00 2.903142e+00 2.384110e+00 2.544013e+00 3.110806e+00 2.542942e+00 1.866395e+00 1.722292e+00 3.137165e-01 2.171618e-01 4.029131e-01 7.465336e-01 5.966588e-01 6.545979e-01 7.612218e-01 5.738638e-01 5.876446e-01 6.275326e-01 5.688643e-01 5.498767e-01 3.554194e-01 3.108401e-02
<GCONST> 1.004308e+02
<STATE> 4
<NUMMIXES> 12
<MIXTURE> 1 5.722877e-02
<MEAN> 39
 -4.104125e-01 1.200702e+01 7.893945e+00 1.382929e+01 5.357492e+00 1.786423e+00 -5.551099e+00 -8.160875e+00 -4.648151e+00 -6.059739e+00 -2.410893e+00 -5.640706e+00 -8.333551e+00 -2.058748e+00 -3.146985e+00 -1.496349e+00 -1.695926e+00 -1.539083e-01 5.744115e-01 2.548355e+00 3.273282e+00 2.417900e+00 1.255117e+00 1.402808e+00 1.708365e+00 3.928939e-01 1.087095e+00 -1.328722e+00 -1.150569e+00 -1.873660e+00 -8.412974e-01 -5.702848e-01 1.808815e-01 6.587703e-01 4.769456e-01 9.622782e-01 2.906432e-01 3.872792e-01 6.994447e-01
<VARIANCE> 39
 1.327145e+01 1.044968e+01 1.361080e+01 1.584864e+01 1.700844e+01 2.298676e+01 2.690396e+01 2.743231e+01 2.131280e+01 2.105105e+01 1.685480e+01 1.539950e+01 2.188138e+00 1.959630e+00 1.600878e+00 1.852297e+00 2.745586e+00 2.090613e+00 2.976599e+00 2.474541e+00 2.845726e+00 3.187209e+00 3.144595e+00 3.007438e+00 2.132409e+00 4.425533e-01 4.871543e-01 5.692255e-01 8.618423e-01 7.251136e-01 6.638390e-01 8.829923e-01 6.819120e-01 7.946442e-01 7.704290e-01 7.731654e-01 6.210061e-01 4.541562e-01 4.153129e-02
<GCONST> 1.090373e+02
<MIXTURE> 2 1.108850e-01
<MEAN> 39
 -6.060504e+00 3.429183e+00 2.526087e+00 8.276336e+00 7.062535e+00 4.384121e+00 3.059116e+00 -2.427195e-01 1.358431e+00 -6.038975e-01 -4.913627e-02 -4.620711e-01 -7.703792e+00 2.891514e-01 -3.374033e+00 -1.925014e+00 -2.792296e+00 -1.458277e+00 -1.278934e+00 9.642904e-02 1.674186e+00 2.048547e+00 1.720068e+00 1.307754e+00 1.015014e+00 1.240488e+00 1.822754e+00 4.488746e-02 -2.798963e-01 -9.454542e-01 -8.634078e-01 -5.878205e-01 -9.111307e-01 -5.265161e-01 -5.881836e-01 -6.904209e-02 1.303634e-02 -1.117680e-01 5.247558e-01
<VARIANCE> 39
 1.295719e+01 2.333193e+01 1.975976e+01 2.224703e+01 1.959150e+01 2.710986e+01 2.588501e+01 2.439406e+01 2.611473e+01 2.360548e+01 2.475155e+01 1.704620e+01 4.328989e+00 2.651791e+00 2.012263e+00 3.034360e+00 3.483179e+00 3.277038e+00 3.358375e+00 4.436862e+00 4.395566e+00 3.161515e+00 3.239919e+00 2.956460e+00 2.569404e+00 3.513029e-01 3.360595e-01 6.496393e-01 9.444575e-01 8.734834e-01 6.952842e-01 9.945531e-01 8.687677e-01 8.184446e-01 8.889336e-01 7.886456e-01 7.993618e-01 6.055754e-01 6.850961e-02
<GCONST> 1.166556e+02
<MIXTURE> 3 9.619153e-02
<MEAN> 39
 -4.153545e+00 1.083136e+00 -8.913038e-01 3.277188e+00 4.499859e+00 1.595771e+00 2.698137e+00 -8.216820e-01 2.499044e+00 1.920185e+00 1.489977e+00 1.843958e+00 -5.831149e+00 3.421507e+00 -2.121611e+00 -2.027015e+00 -3.994667e+00 -1.888834e+00 -6.752364e-01 -1.329616e+00 -1.907519e-01 7.840831e-01 1.043238e+00 9.680698e-01 2.812057e-01 1.922967e+00 1.224228e+00 2.511549e-01 -1.300480e-01 -5.423640e-01 -3.873257e-01 2.815540e-01 -5.656472e-01 -3.072534e-01 -4.760722e-01 -2.636357e-01 -8.793274e-02 -2.850395e-01 1.640508e-01
<VARIANCE> 39
 1.354360e+01 2.121346e+01 2.000608e+01 2.389038e+01 2.231265e+01 2.359083e+01 3.126161e+01 2.748906e+01 2.909466e+01 2.359224e+01 2.323051e+01 1.751953e+01 2.311551e+00 3.317590e+00 3.520974e+00 4.729240e+00 6.278000e+00 3.702627e+00 4.941336e+00 5.104836e+00 4.048166e+00 4.297365e+00 3.650420e+00 3.571387e+00 3.002666e+00 3.123678e-01 3.959968e-01 8.622378e-01 6.638133e-01 8.512356e-01 7.622894e-01 9.095272e-01 1.096084e+00 9.654554e-01 9.075585e-01 7.887006e-01 7.198649e-01 6.412904e-01 4.043180e-02
<GCONST> 1.193828e+02
<MIXTURE> 4 7.306515e-02
<MEAN> 39
 4.129255e+00 9.856019e+00 2.872960e+00 7.900169e+00 5.188504e+00 2.892223e+00 -1.030162e+00 -8.609155e+00 -6.809963e+00 -4.266700e+00 3.328642e-01 -1.444173e+00 -6.010422e+00 6.110012e-01 -3.330806e+00 -2.334028e+00 -4.364137e+00 -1.538309e+00 -1.358957e-01 -1.569203e-01 1.780961e+00 2.734284e+00 2.149402e+00 9.985442e-01 4.726565e-01 1.246338e+00 5.665726e-01 -1.155409e+00 -7.379841e-01 -1.356809e+00 -5.214432e-01 3.221815e-02 -1.139074e-01 5.427008e-01 5.995658e-01 8.385971e-01 -3.744556e-02 -2.511522e-01 3.963694e-01
<VARIANCE> 39
 1.384784e+01 1.867635e+01 2.225303e+01 2.690800e+01 2.529603e+01 2.850563e+01 3.368353e+01 2.297681e+01 3.246479e+01 2.351443e+01 2.219558e+01 2.460190e+01 1.678367e+00 1.437644e+00 2.724001e+00 2.457693e+00 4.622576e+00 3.455844e+00 3.618397e+00 4.674317e+00 4.567931e+00 4.473200e+00 3.476038e+00 3.783552e+00 3.072677e+00 2.798146e-01 3.551024e-01 5.930780e-01 5.498748e-01 8.822728e-01 6.671288e-01 1.013260e+00 8.623170e-01 7.935259e-01 9.406721e-01 7.729260e-01 7.759913e-01 6.264489e-01 2.641100e-02
<GCONST> 1.158981e+02
<MIXTURE> 5 5.847058e-02
<MEAN> 39
 -2.307092e+00 9.192306e-01 3.736615e+00 6.238667e+00 9.733924e-01 -4.201342e+00 1.386164e+00 1.900976e+00 1.966147e+00 -2.201422e+00 -1.326281e-01 1.773814e+00 -4.923740e+00 1.740335e+00 -2.868536e+00 2.728697e+00 -2.151008e+00 -4.457883e+00 -2.826742e+00 -9.828920e-01 1.103117e+00 -1.389187e+00 -3.594979e-01 8.272569e-01 9.969951e-01 1.629839e+00 5.132437e-01 3.294166e-01 7.436574e-01 -3.188204e-01 -5.657468e-01 3.802353e-01 -5.377166e-01 -6.064235e-01 -9.228848e-01 2.128386e-01 1.210157e-01 -3.199106e-01 5.810038e-03
<VARIANCE> 39
 2.047091e+01 1.582108e+01 2.127768e+01 2.160914e+01 3.061884e+01 3.153151e+01 3.331561e+01 2.795985e+01 3.010038e+01 2.323166e+01 2.936637e+01 2.103550e+01 2.909782e+00 3.985213e+00 3.516423e+00 3.117245e+00 5.642701e+00 3.843471e+00 3.761632e+00 5.232709e+00 5.999173e+00 4.065456e+00 5.870582e+00 3.352472e+00 2.550812e+00 2.952037e-01 3.861725e-01 5.240402e-01 4.559693e-01 6.273100e-01 7.035623e-01 8.301724e-01 8.706946e-01 8.981038e-01 7.968643e-01 7.164637e-01 8.434327e-01 5.165611e-01 4.936383e-02
<GCONST> 1.190327e+02
<MIXTURE> 6 8.917354e-02
<MEAN> 39
 4.312240e+00 1.084307e+01 3.178992e+00 1.065858e+01 8.316654e+00 2.017042e+00 -2.841160e+00 -8.879129e+00 -3.968905e+00 -7.481859e-01 -2.712484e-01 -3.674695e+00 -6.742989e+00 -1.093541e+00 -3.094410e+00 5.603759e-01 -1.604920e+00 -2.234761e+00 -2.082286e+00 1.220234e-01 2.143988e+00 1.413002e+00 3.559807e-02 -9.155311e-03 1.113358e+00 8.884636e-01 2.403890e-01 -1.352189e+00 3.884898e-01 -1.001083e+00 -1.519776e+00 -6.466751e-01 -2.474089e-01 9.153522e-01 2.512530e-02 -3.242754e-02 1.698529e-01 3.053501e-01 4.492661e-01
<VARIANCE> 39
 1.452826e+01 1.413599e+01 1.584515e+01 1.984275e+01 2.037955e+01 2.598660e+01 2.485419e+01 1.943254e+01 2.421330e+01 1.928979e+01 1.966347e+01 1.804957e+01 1.649108e+00 1.681747e+00 2.212536e+00 2.624410e+00 3.471870e+00 3.268211e+00 2.832887e+00 4.387717e+00 2.653749e+00 4.704382e+00 2.657529e+00 2.677538e+00 2.198736e+00 2.244181e-01 3.006160e-01 4.552097e-01 6.492329e-01 5.094489e-01 6.548203e-01 6.415144e-01 6.917957e-01 6.716354e-01 9.976100e-01 6.434761e-01 4.720778e-01 4.359826e-01 2.431114e-02
<GCONST> 1.082617e+02
<MIXTURE> 7 9.018741e-02
<MEAN> 39
 4.580427e+00 2.960492e+00 -3.731031e+00 -4.347548e+00 1.861560e-01 1.953219e+00 6.795922e-01 -4.486873e+00 -8.380029e-01 2.484993e+00 3.054722e+00 2.191325e+00 -2.803675e+00 2.943795e+00 -3.381298e+00 -2.809011e+00 -5.643415e+00 -2.847135e+00 1.152760e+00 -7.981585e-01 -3.388141e-02 1.622754e+00 1.831312e+00 2.074667e+00 -3.409758e-01 1.783392e+00 2.128329e-01 1.730972e-01 2.247756e-01 3.877653e-01 2.329082e-01 6.099213e-01 8.139732e-02 -1.457571e-01 -2.150226e-01 -3.594870e-01 -2.672338e-01 -5.946909e-01 -1.680431e-01
<VARIANCE> 39
 1.868613e+01 1.366094e+01 1.541609e+01 2.906449e+01 2.110909e+01 2.570005e+01 2.511542e+01 2.449936e+01 2.286503e+01 2.615541e+01 2.516845e+01 1.781663e+01 1.440092e+00 3.385574e+00 5.228555e+00 4.040729e+00 5.519885e+00 5.315422e+00 5.846095e+00 7.193349e+00 6.706415e+00 6.970111e+00 5.279581e+00 5.059515e+00 4.545697e+00 2.340376e-01 3.449205e-01 4.574987e-01 3.479486e-01 5.984739e-01 5.930275e-01 5.573356e-01 5.979515e-01 5.820749e-01 6.344950e-01 5.847356e-01 6.146748e-01 4.070161e-01 3.509509e-02
<GCONST> 1.161818e+02
<MIXTURE> 8 9.553687e-02
<MEAN> 39
 -1.001392e+00 1.329786e+01 6.686106e+00 1.231612e+01 9.841269e+00 5.606361e+00 2.380145e+00 -5.233833e+00 -4.902004e+00 -3.851808e+00 -2.751817e+00 -5.517119e-01 -8.756899e+00 -1.302134e+00 -2.790457e+00 -1.427238e+00 -1.861001e+00 -8.452598e-01 -7.244651e-01 3.609522e-01 1.418413e+00 2.052297e+00 1.155829e+00 3.972135e-01 3.356600e-01 6.005087e-01 1.063753e+00 -1.273622e+00 -9.655611e-01 -1.583164e+00 -1.214309e+00 -5.608926e-01 -5.399733e-01 3.491642e-02 4.276726e-01 6.197828e-01 6.127698e-01 8.615074e-02 6.676931e-01
<VARIANCE> 39
 1.287140e+01 8.326049e+00 1.399099e+01 1.609870e+01 1.316455e+01 1.710376e+01 1.955873e+01 2.489013e+01 2.086321e+01 1.649566e+01 1.845606e+01 1.366125e+01 1.319423e+00 1.918714e+00 2.006142e+00 1.679074e+00 2.906364e+00 2.249186e+00 2.148201e+00 2.091426e+00 2.292963e+00 2.481248e+00 2.718856e+00 2.232411e+00 1.755915e+00 3.372863e-01 2.741327e-01 4.566440e-01 5.736623e-01 6.090323e-01 4.465428e-01 6.855529e-01 6.116137e-01 6.405737e-01 6.208667e-01 5.238183e-01 4.610623e-01 4.412264e-01 2.493623e-02
<GCONST> 1.016283e+02
<MIXTURE> 9 7.522412e-02
<MEAN> 39
 4.383444e+00 1.162611e+01 3.199126e+00 5.329290e+00 4.791815e+00 4.589814e+00 3.983992e+00 -4.628717e+00 -6.714129e+00 -5.891557e+00 -5.101670e+00 -6.255075e-01 -6.739973e+00 -1.633622e-01 -2.683611e+00 -1.536387e+00 -2.481700e+00 -1.050785e+00 -7.946358e-01 -1.022309e+00 -2.174546e-02 1.700087e+00 1.452223e+00 1.573999e+00 8.748472e-01 9.788701e-01 6.864794e-01 -9.358287e-01 -8.197397e-01 -1.261953e+00 -8.190197e-01 8.816084e-02 -6.931217e-01 -1.001645e-01 5.010813e-01 5.128911e-01 9.759022e-01 1.919657e-01 4.494549e-01
<VARIANCE> 39
 1.750116e+01 2.040261e+01 2.079444e+01 2.579019e+01 2.790868e+01 2.446956e+01 2.316948e+01 2.458582e+01 2.350719e+01 1.909180e+01 2.321509e+01 1.975859e+01 1.520981e+00 2.773649e+00 2.278987e+00 1.677193e+00 3.877835e+00 3.356444e+00 2.296758e+00 2.453593e+00 3.292197e+00 3.086081e+00 2.576275e+00 2.499223e+00 1.997135e+00 2.338771e-01 3.921533e-01 5.431188e-01 5.579059e-01 1.064960e+00 6.472733e-01 8.848020e-01 9.649938e-01 7.895308e-01 8.278124e-01 6.422590e-01 4.928843e-01 5.755312e-01 2.914740e-02
<GCONST> 1.111177e+02
<MIXTURE> 10 9.537782e-02
<MEAN> 39
 2.953875e+00 7.810102e-01 -7.898885e-01 1.989891e+00 7.950478e-01 -3.199964e+00 -2.870352e+00 -1.521145e+00 4.216430e+00 2.319289e+00 1.700428e+00 -1.397398e+00 -2.917999e+00 2.268299e+00 -4.507469e+00 -1.395017e+00 -3.860974e+00 -2.658334e+00 -2.413810e+00 -1.329997e+00 2.675416e+00 2.026920e+00 1.627315e+00 -3.957413e-01 1.253660e-01 1.822049e+00 2.653600e-01 9.198450e-02 2.129453e-01 1.758180e-01 7.064791e-02 2.983152e-01 4.742530e-02 6.878607e-02 -6.442851e-01 -3.423569e-01 -4.126512e-01 -1.228381e-01 -1.363760e-01
<VARIANCE> 39
 1.716144e+01 1.449944e+01 1.866803e+01 2.038749e+01 1.940469e+01 2.491431e+01 2.559244e+01 3.309308e+01 2.073084e+01 2.150354e+01 2.021385e+01 1.485762e+01 1.644943e+00 3.896332e+00 3.325771e+00 5.683336e+00 5.823997e+00 5.725646e+00 5.540550e+00 9.906875e+00 6.606349e+00 6.605503e+00 6.051031e+00 4.733854e+00 3.762385e+00 2.929859e-01 3.944995e-01 5.015823e-01 3.815056e-01 5.089470e-01 5.506743e-01 5.807368e-01 7.535228e-01 7.850420e-01 5.365798e-01 5.877911e-01 5.751227e-01 4.479446e-01 3.974375e-02
<GCONST> 1.167408e+02
<MIXTURE> 11 9.920715e-02
<MEAN> 39
 -4.443943e+00 1.353250e-02 -8.344858e-01 3.171550e+00 3.641418e+00 1.248145e+00 2.196436e+00 -1.259354e-01 3.654406e+00 1.516581e+00 2.322049e+00 1.652948e+00 -5.807044e+00 3.638755e+00 -2.039322e+00 -1.581019e+00 -3.345336e+00 -1.863214e+00 -1.669056e+00 -1.740363e+00 -2.159869e-01 1.987270e-01 5.126961e-01 2.355568e-02 -1.537343e-01 1.947380e+00 1.130211e+00 2.466319e-01 -2.124189e-02 -2.730551e-01 -2.576847e-01 7.366902e-02 -5.992048e-01 -1.849735e-01 -5.554147e-01 -1.970669e-01 -2.988515e-01 -3.109545e-01 1.219716e-01
<VARIANCE> 39
 1.306660e+01 2.104599e+01 1.989202e+01 2.310017e+01 2.311756e+01 2.491659e+01 2.782046e+01 2.656729e+01 3.171546e+01 2.508202e+01 2.549441e+01 1.892275e+01 2.298163e+00 3.456783e+00 3.374777e+00 4.370177e+00 5.397937e+00 3.568980e+00 5.108962e+00 4.868470e+00 4.268323e+00 4.189960e+00 3.821369e+00 4.417568e+00 2.962433e+00 3.252558e-01 3.968894e-01 8.392932e-01 7.556525e-01 8.100044e-01 7.550696e-01 9.672842e-01 9.963694e-01 9.406320e-01 9.958239e-01 7.872036e-01 7.811279e-01 6.100247e-01 4.573543e-02
<GCONST> 1.198133e+02
<MIXTURE> 12 5.943470e-02
<MEAN> 39
 -1.445292e+00 2.659130e-01 5.625924e+00 7.466461e+00 -4.956609e-02 -5.947695e+00 -2.189771e-01 1.259972e+00 1.128324e+00 -2.925925e+00 7.754823e-01 1.095855e+00 -4.439161e+00 1.424696e+00 -2.793420e+00 3.432101e+00 -2.711833e+00 -4.856194e+00 -2.435912e+00 -1.072341e+00 7.566521e-01 -2.117683e+00 -6.660163e-03 6.852299e-01 5.201235e-01 1.556078e+00 3.840768e-01 5.516070e-01 5.591827e-01 -5.619652e-01 -4.456971e-01 7.433650e-01 -3.490952e-01 -6.850210e-01 -9.395553e-01 3.537607e-01 -3.345737e-02 -3.389166e-01 -6.704845e-02
<VARIANCE> 39
 2.177689e+01 1.489417e+01 2.924054e+01 2.553619e+01 3.459739e+01 3.148018e+01 3.449945e+01 3.126547e+01 3.965331e+01 2.348262e+01 3.238879e+01 2.084129e+01 2.255969e+00 4.369933e+00 3.597991e+00 3.534562e+00 5.123157e+00 3.558185e+00 4.189998e+00 5.555146e+00 7.479518e+00 5.162889e+00 5.885767e+00 3.833452e+00 2.753898e+00 2.856266e-01 4.125789e-01 5.502712e-01 5.435007e-01 7.209082e-01 7.466599e-01 9.343215e-01 8.917991e-01 9.071184e-01 1.018720e+00 6.280994e-01 9.853071e-01 5.061440e-01 4.999875e-02
<GCONST> 1.216844e+02
<TRANSP> 5
 0.000000e+00 1.000000e+00 0.000000e+00 0.000000e+00 0.000000e+00
 0.000000e+00 4.915790e-01 5.084210e-01 0.000000e+00 0.000000e+00
 0.000000e+00 0.000000e+00 6.208574e-01 3.791426e-01 0.000000e+00
 0.000000e+00 0.000000e+00 0.000000e+00 6.314834e-01 3.685166e-01
 0.000000e+00 0.000000e+00 0.000000e+00 0.000000e+00 0.000000e+00
<ENDHMM>
~h "d"
<BEGINHMM>
<NUMSTATES> 5
<STATE> 2
<NUMMIXES> 12
<MIXTURE> 1 1.150015e-01
<MEAN> 39
 -2.175988e+00 1.206849e+01 7.365324e+00 1.297456e+01 7.052323e+00 2.575213e+00 -5.487619e-01 -4.957232e+00 -2.988568e+00 -4.277348e+00 -3.766139e+00 -2.773521e+00 -8.990464e+00 -2.065368e+00 -3.624624e+00 -1.704197e+00 -2.979690e+00 -3.653451e-02 8.600199e-01 1.416941e+00 1.415080e+00 1.098805e+00 1.291376e+00 1.611896e+00 1.093800e+00 5.775532e-01 3.384001e-01 -1.088984e+00 -2.730932e-01 -1.296358e+00 -1.195055e+00 -9.171715e-01 -2.065027e-01 4.965934e-01 3.574174e-01 4.310308e-01 3.656429e-01 4.726626e-01 6.174726e-01
<VARIANCE> 39
 1.442175e+01 1.236614e+01 1.539783e+01 1.480955e+01 1.788029e+01 2.357051e+01 2.729686e+01 2.264407e+01 2.057405e+01 1.910564e+01 1.826161e+01 1.546397e+01 1.361309e+00 1.773558e+00 3.011357e+00 2.851275e+00 4.924567e+00 3.712652e+00 3.848140e+00 3.473615e+00 3.367555e+00 3.406292e+00 2.984185e+00 2.551638e+00 2.411273e+00 5.026677e-01 4.540566e-01 6.161642e-01 5.413339e-01 6.568363e-01 5.704129e-01 5.920352e-01 7.460507e-01 5.950353e-01 6.346103e-01 4.867123e-01 4.483585e-01 4.358685e-01 4.705835e-02
<GCONST> 1.095014e+02
<MIXTURE> 2 1.226949e-01
<MEAN> 39
 7.779346e+00 -6.673639e+00 -4.176629e-01 -9.714063e-01 -8.416936e+00 -1.566145e+00 -4.311359e+00 6.065215e-01 5.772973e+00 1.179166e+00 -9.275519e-01 -2.965740e+00 -1.058138e+00 1.265834e-02 8.020888e-01 1.670887e+00 1.960109e+00 -4.431515e-01 -4.286296e-01 -1.191481e+00 -1.339496e+00 -4.233096e-01 1.644589e-01 1.370463e-01 8.255180e-01 -5.659955e-01 -3.785970e-02 -1.006444e-01 1.879501e-02 -2.536679e-01 3.596060e-01 -4.238101e-02 1.435301e-01 2.063698e-01 -3.799502e-01 -3.695906e-02 -1.700624e-02 1.366394e-01 3.217204e-02
<VARIANCE> 39
 1.117293e+01 1.894107e+01 5.193368e+01 3.682220e+01 3.728986e+01 4.318727e+01 4.939746e+01 5.538365e+01 4.843204e+01 4.151348e+01 3.480272e+01 3.625800e+01 9.293404e-01 1.234552e+00 1.673629e+00 2.926586e+00 3.767387e+00 4.765107e+00 4.599637e+00 5.415856e+00 5.199034e+00 4.579476e+00 4.211871e+00 4.058148e+00 3.094511e+00 8.551943e-02 1.141450e-01 1.911395e-01 2.945612e-01 4.242362e-01 4.545566e-01 4.421678e-01 5.553742e-01 7.134089e-01 5.911475e-01 5.533304e-01 5.088264e-01 4.335867e-01 1.266145e-02
<GCONST> 1.117086e+02
<MIXTURE> 3 9.880450e-02
<MEAN> 39
 2.244296e+00 1.309031e+01 7.639359e+00 1.181208e+01 3.344215e+00 -1.514243e+00 -2.231140e+00 -5.033963e+00 -2.089054e+00 -3.957639e+00 -5.101630e+00 -2.421467e+00 -7.727808e+00 -5.172279e-01 5.037467e-01 2.042633e-01 5.383469e-01 6.653884e-01 4.548454e-01 3.026454e-01 -2.094933e-02 -1.149580e-01 -1.893677e-02 4.467852e-03 5.725268e-02 -2.949872e-01 -3.207602e-01 -1.163184e+00 -3.460330e-01 -8.346176e-01 -1.934577e-01 1.150316e-01 1.440759e-01 3.294583e-01 1.627966e-01 2.601568e-01 4.396676e-01 2.178899e-01 2.405404e-01
<VARIANCE> 39
 1.263945e+01 1.145451e+01 1.909233e+01 2.001434e+01 2.941625e+01 2.465054e+01 3.274786e+01 3.157728e+01 2.664685e+01 2.361674e+01 2.743319e+01 1.910327e+01 1.377326e+00 1.121226e+00 1.755098e+00 1.443701e+00 1.650656e+00 1.674088e+00 2.143163e+00 2.154100e+00 2.196232e+00 2.096711e+00 1.957874e+00 1.907653e+00 1.474113e+00 1.222018e-01 2.429530e-01 4.872596e-01 3.713538e-01 5.494457e-01 4.574056e-01 4.353516e-01 5.745512e-01 5.750801e-01 5.113136e-01 4.897004e-01 4.324167e-01 3.705321e-01 4.337476e-02
<GCONST> 1.010750e+02
<MIXTURE> 4 9.133884e-02
<MEAN> 39
 3.455510e+00 1.974330e+00 6.748477e+00 5.578329e+00 -3.530956e+00 -3.967067e+00 -9.460389e-01 -2.784887e+00 -1.784415e+00 -4.036006e+00 -1.120534e+00 1.842669e-01 -4.246397e+00 -1.415850e+00 1.392992e+00 -2.105232e-01 9.281330e-01 2.309160e+00 5.502685e-01 9.772948e-01 -9.334260e-01 4.396355e-01 -3.219189e-01 -4.310224e-01 -8.567505e-02 -6.841100e-01 1.664344e-01 -5.631699e-01 1.084262e-02 -9.210649e-01 -5.602567e-01 3.245901e-02 -4.718833e-01 4.786235e-01 -3.659111e-04 4.925970e-01 2.684298e-01 3.209317e-02 2.983695e-01
<VARIANCE> 39
 1.572174e+01 2.779661e+01 3.225771e+01 4.874304e+01 4.106071e+01 4.889786e+01 3.837832e+01 4.529630e+01 4.237418e+01 3.090256e+01 2.621155e+01 1.964154e+01 2.352430e+00 1.935950e+00 3.405015e+00 3.885490e+00 4.776930e+00 4.418159e+00 5.365975e+00 4.473329e+00 4.792834e+00 4.947848e+00 3.709014e+00 3.979734e+00 2.858413e+00 1.427548e-01 3.619619e-01 4.086804e-01 6.082044e-01 9.173959e-01 9.759440e-01 1.024965e+00 9.487165e-01 1.163651e+00 9.615393e-01 7.029234e-01 7.534825e-01 3.950552e-01 2.665937e-02
<GCONST> 1.212688e+02
<MIXTURE> 5 8.175650e-02
<MEAN> 39
 -8.572066e+00 5.986153e+00 2.048571e+00 6.490457e+00 6.670070e+00 4.660897e+00 3.120320e+00 -1.001793e+00 7.449425e-01 7.281200e-01 5.953706e-01 7.312691e-01 -8.457820e+00 3.262746e-01 -1.421733e+00 -3.594794e-01 -2.957910e-01 -1.661800e-02 6.633148e-03 1.967295e-01 1.783750e-01 2.540670e-01 1.316339e-01 1.788492e-01 5.832415e-02 -5.881872e-02 3.073492e-01 -2.868798e-01 -4.336458e-02 -6.881104e-01 -6.273363e-01 -6.913335e-01 -1.794469e-01 8.453618e-02 -3.068451e-02 -8.100960e-02 -4.796006e-02 6.897456e-02 4.981194e-01
<VARIANCE> 39
 4.253866e+01 3.027622e+01 4.122861e+01 3.562629e+01 2.702714e+01 3.025414e+01 3.185941e+01 3.654035e+01 3.198158e+01 2.258494e+01 2.473344e+01 1.930389e+01 3.840418e+00 6.616168e+00 3.991134e+00 4.789128e+00 6.112913e+00 3.725648e+00 4.206140e+00 3.410471e+00 3.071724e+00 3.219151e+00 2.505845e+00 2.398556e+00 2.104022e+00 1.384112e+00 7.719881e-01 6.467316e-01 9.331590e-01 7.921569e-01 7.062821e-01 6.552817e-01 5.854581e-01 6.402705e-01 5.767735e-01 5.104367e-01 4.675419e-01 4.327864e-01 8.497765e-02
<GCONST> 1.217413e+02
<MIXTURE> 6 8.173139e-02
<MEAN> 39
 4.220407e+00 1.107974e+01 5.639233e+00 7.456274e+00 -2.379073e-01 -1.297460e+00 -7.231765e-01 -8.499507e+00 -6.473357e+00 -2.533177e+00 -4.274434e+00 -3.070183e+00 -6.015438e+00 -2.331758e+00 -2.815131e+00 8.997220e-02 -1.388974e+00 1.334093e+00 3.729391e-01 -3.084653e-01 2.308999e+00 1.960840e+00 -2.759858e-01 1.292770e+00 8.587853e-01 1.727730e-01 -1.146355e-01 -1.239190e+00 -2.328805e-01 -9.214945e-01 -5.483472e-01 -2.859144e-01 -1.180366e-01 7.605006e-01 6.831977e-01 3.963917e-01 3.677823e-01 4.183819e-01 3.561087e-01
<VARIANCE> 39
 1.016663e+01 1.639962e+01 2.200768e+01 2.829495e+01 3.995441e+01 3.150977e+01 3.899786e+01 4.139870e+01 3.438129e+01 3.609162e+01 3.656235e+01 2.811815e+01 2.128846e+00 2.173904e+00 3.163383e+00 3.449801e+00 5.478525e+00 5.437524e+00 5.377156e+00 6.204347e+00 5.587559e+00 5.676903e+00 5.382509e+00 5.765855e+00 4.111556e+00 1.745616e-01 3.828161e-01 4.600840e-01 5.329661e-01 6.166939e-01 7.550079e-01 6.317888e-01 1.019006e+00 9.924633e-01 8.605446e-01 6.908950e-01 7.254037e-01 5.024979e-01 3.163727e-02
<GCONST> 1.206347e+02
<MIXTURE> 7 6.498312e-02
<MEAN> 39
 2.290996e+00 1.074045e+01 8.428699e+00 1.084007e+01 1.739285e+00 -2.059870e+00 -2.576523e+00 -4.035053e+00 -1.676772e+00 -4.583602e+00 -4.606481e+00 -2.317843e+00 -6.863878e+00 -1.555309e+00 3.157989e+00 5.587031e-02 2.631878e+00 2.894083e+00 1.742994e+00 9.971573e-01 -1.156643e+00 -4.111156e-01 -4.374366e-01 -7.393509e-01 -7.534134e-01 -1.291622e+00 -1.333877e-01 -1.522373e+00 -4.574106e-01 -1.300502e+00 -5.006317e-01 -3.692528e-02 5.230999e-02 5.469729e-01 1.682331e-01 5.349283e-01 5.873101e-01 3.729771e-01 3.801719e-01
<VARIANCE> 39
 1.719087e+01 1.746359e+01 2.076893e+01 2.696077e+01 3.312711e+01 3.277226e+01 2.877507e+01 3.152383e+01 3.144784e+01 2.409706e+01 2.685240e+01 2.343358e+01 1.688186e+00 2.184494e+00 3.647821e+00 3.767223e+00 4.331114e+00 4.296422e+00 4.016178e+00 4.850614e+00 4.057175e+00 4.450809e+00 3.942814e+00 3.481757e+00 2.715750e+00 1.741905e-01 3.242273e-01 6.399226e-01 4.889975e-01 7.833707e-01 7.159503e-01 6.732143e-01 7.341909e-01 7.722560e-01 7.305535e-01 5.856510e-01 5.772236e-01 4.944961e-01 4.408672e-02
<GCONST> 1.161138e+02
<MIXTURE> 8 5.416915e-02
<MEAN> 39
 6.502879e+00 -2.043027e+00 6.943867e+00 3.539792e+00 -7.813850e+00 -4.890944e+00 -4.974266e+00 -3.795924e-01 9.734966e-01 -2.247157e+00 -2.304059e-01 1.192051e+00 -2.926219e+00 -1.255254e+00 3.341120e+00 5.808055e-01 3.112368e+00 3.033036e+00 1.003051e+00 9.453231e-01 -2.014963e+00 -6.071720e-01 -8.267077e-01 -1.381082e+00 -5.286672e-01 -1.315125e+00 -3.656958e-01 1.036101e-01 -3.156050e-01 -4.041465e-01 5.357960e-01 2.097184e-01 3.589853e-01 2.031556e-01 -1.241884e-01 1.959468e-01 -6.741930e-03 -1.965512e-01 -1.822517e-02
<VARIANCE> 39
 1.289141e+01 2.860485e+01 3.447989e+01 3.456410e+01 4.771159e+01 3.602692e+01 4.019419e+01 3.732938e+01 4.605709e+01 3.758222e+01 2.850767e+01 2.554485e+01 1.715892e+00 1.602124e+00 3.638135e+00 3.713788e+00 4.891037e+00 5.415500e+00 6.131204e+00 6.258090e+00 5.980030e+00 5.752415e+00 4.378676e+00 5.448642e+00 3.229797e+00 1.591284e-01 1.628722e-01 5.006121e-01 3.621832e-01 6.450250e-01 7.498155e-01 5.989968e-01 7.020745e-01 6.332905e-01 6.413145e-01 5.448157e-01 5.175765e-01 4.122097e-01 3.495941e-02
<GCONST> 1.185421e+02
<MIXTURE> 9 9.575924e-02
<MEAN> 39
 2.158002e+00 1.120098e+01 8.187460e+00 1.342377e+01 3.546350e+00 -2.403087e+00 -3.898758e+00 -5.148263e+00 -1.763526e+00 -4.189940e+00 -6.005400e+00 -3.698429e+00 -7.527923e+00 -2.041429e+00 -5.132573e-01 -4.043587e-01 -1.071856e+00 1.383217e+00 1.703604e+00 1.339893e+00 -6.613401e-02 -3.038086e-01 2.676516e-01 6.482195e-01 3.053258e-01 -2.608010e-01 4.949434e-02 -1.959699e+00 -3.893274e-01 -1.992212e+00 -1.258926e+00 -3.458182e-01 -6.829795e-02 7.392275e-01 2.701519e-01 5.194871e-01 9.484705e-01 7.441167e-01 6.954757e-01
<VARIANCE> 39
 1.264831e+01 1.642889e+01 1.924296e+01 1.976373e+01 3.119374e+01 2.754072e+01 3.256495e+01 3.306021e+01 2.656534e+01 2.882155e+01 2.294464e+01 2.371611e+01 1.362273e+00 1.441676e+00 3.736915e+00 3.680264e+00 4.746655e+00 5.025014e+00 4.128933e+00 3.989911e+00 3.620063e+00 3.481107e+00 3.154155e+00 3.225690e+00 3.029384e+00 3.041651e-01 4.490842e-01 6.564227e-01 7.348174e-01 6.860579e-01 9.160781e-01 8.285993e-01 1.236991e+00 1.057485e+00 9.778582e-01 1.011072e+00 6.828045e-01 6.495420e-01 2.741941e-02
<GCONST> 1.173395e+02
<MIXTURE> 10 7.740059e-02
<MEAN> 39
 7.781057e+00 3.931333e-01 -1.174160e+00 1.222830e+01 3.304556e+00 -4.392669e+00 -5.697077e+00 -5.842309e+00 9.368078e-01 5.459754e-01 -6.585781e+00 -3.562991e+00 -4.613451e+00 -1.699277e+00 1.599232e+00 1.759892e+00 1.521001e+00 1.036128e+00 -2.240086e-01 1.821041e+00 -2.951605e-01 -1.384512e+00 -5.308827e-01 -8.807490e-01 -2.368599e-01 -7.934731e-01 -8.382453e-02 -5.299829e-01 1.331267e-01 -1.609405e+00 -8.958153e-01 4.597387e-01 -3.068502e-01 6.641014e-01 2.296049e-01 -2.115942e-01 1.014730e+00 5.264937e-01 3.158669e-01
<VARIANCE> 39
 1.610518e+01 3.754445e+01 4.159870e+01 4.038520e+01 6.616567e+01 5.063195e+01 5.943203e+01 5.669313e+01 4.853303e+01 4.699454e+01 4.255950e+01 3.261604e+01 3.165130e+00 1.389640e+00 4.077505e+00 3.841719e+00 6.393150e+00 5.999267e+00 5.197200e+00 6.956910e+00 6.383403e+00 5.610341e+00 4.808599e+00 5.461818e+00 4.110943e+00 1.986394e-01 2.576416e-01 6.337325e-01 5.223196e-01 8.357361e-01 1.199271e+00 1.021586e+00 1.575354e+00 1.268750e+00 1.258316e+00 1.022930e+00 9.468774e-01 7.630209e-01 3.494024e-02
<GCONST> 1.296545e+02
<MIXTURE> 11 6.057596e-02
<MEAN> 39
 2.740547e+00 1.100609e+01 8.171780e+00 1.026393e+01 1.181398e-01 -2.353775e+00 -4.500660e+00 -5.557891e+00 -2.735514e+00 -5.858868e+00 -4.554798e+00 -3.343889e+00 -6.790610e+00 -1.674182e+00 2.922294e+00 3.376000e-01 2.942205e+00 2.580917e+00 1.738445e+00 2.490377e-01 -1.484387e+00 -6.830732e-01 -1.108349e+00 -7.072002e-01 -1.278995e+00 -1.276045e+00 -2.260517e-01 -1.639713e+00 -6.229281e-01 -1.484079e+00 -2.583682e-01 -1.109331e-02 4.217125e-01 7.711688e-01 3.691544e-01 8.118948e-01 5.412449e-01 5.050987e-01 4.029849e-01
<VARIANCE> 39
 1.790754e+01 1.765041e+01 2.069210e+01 2.575177e+01 3.848441e+01 3.282159e+01 3.732984e+01 3.067923e+01 3.231744e+01 2.880218e+01 3.139156e+01 2.592768e+01 1.850951e+00 2.562488e+00 4.175818e+00 3.973928e+00 5.378447e+00 4.852408e+00 4.668835e+00 5.922901e+00 4.460944e+00 4.555523e+00 4.073825e+00 3.604328e+00 3.334606e+00 2.204653e-01 4.086875e-01 6.415384e-01 5.574394e-01 7.525616e-01 7.745693e-01 7.478076e-01 1.022371e+00 8.242885e-01 7.495155e-01 6.942697e-01 7.421483e-01 5.938157e-01 4.785578e-02
<GCONST> 1.203355e+02
<MIXTURE> 12 5.576146e-02
<MEAN> 39
 6.421391e+00 -1.574967e+00 7.239648e+00 3.295671e+00 -8.255540e+00 -5.456106e+00 -4.602026e+00 -5.849800e-01 1.356786e+00 -1.827744e+00 -6.474466e-01 1.792590e+00 -3.077909e+00 -1.391284e+00 3.747823e+00 6.629269e-01 3.547782e+00 2.763661e+00 1.190489e+00 5.909116e-01 -2.363069e+00 -7.613446e-01 -1.308127e+00 -1.158630e+00 -1.058986e+00 -1.392046e+00 -4.142363e-01 6.811550e-02 -4.313586e-01 -3.422328e-01 7.403608e-01 3.134412e-01 3.745694e-01 2.417053e-01 -1.781971e-01 1.242181e-01 -5.611106e-02 -3.048416e-01 -4.488538e-02
<VARIANCE> 39
 1.254520e+01 2.990991e+01 3.145825e+01 4.013636e+01 4.497250e+01 3.510591e+01 4.148862e+01 3.683448e+01 4.571944e+01 3.490805e+01 3.160348e+01 2.788759e+01 1.807734e+00 1.755744e+00 3.549195e+00 3.995995e+00 4.890509e+00 5.667318e+00 5.471828e+00 7.337234e+00 5.984209e+00 5.337741e+00 5.265057e+00 5.126284e+00 3.560375e+00 1.645639e-01 1.950860e-01 5.372401e-01 4.330995e-01 7.843518e-01 7.160781e-01 6.870252e-01 7.119805e-01 6.450815e-01 6.968287e-01 5.645092e-01 5.564746e-01 5.123802e-01 3.354616e-02
<GCONST> 1.202396e+02
<STATE> 3
<NUMMIXES> 12
<MIXTURE> 1 6.205616e-02
<MEAN> 39
 -5.931875e+00 -1.504581e+00 4.378819e+00 -2.388047e+00 5.861968e+00 3.056901e+00 1.490128e+00 9.590123e-01 2.527076e-01 2.973940e-01 2.572618e+00 5.819243e-01 -4.663226e+00 -1.002877e+00 -2.701444e+00 -6.251267e-01 -3.786101e+00 -1.260920e+00 -1.233700e+00 6.150027e-01 1.932267e+00 1.270467e+00 1.586238e+00 1.735183e+00 1.612311e+00 1.240505e+00 1.335845e+00 4.176299e-01 3.383456e-01 4.754419e-01 -1.556397e+00 -9.535257e-01 -4.447099e-01 -3.163008e-01 -2.346622e-01 -1.687074e-01 -5.996634e-01 -2.049993e-03 1.671802e-01
<VARIANCE> 39
 1.679941e+01 2.236961e+01 2.649872e+01 3.032627e+01 3.139934e+01 3.755248e+01 3.704111e+01 3.216755e+01 3.030565e+01 3.015427e+01 3.096980e+01 2.176570e+01 1.460490e+00 3.247010e+00 2.852480e+00 3.330126e+00 3.279220e+00 5.222054e+00 4.135606e+00 5.416608e+00 4.984300e+00 4.364261e+00 3.751610e+00 3.206462e+00 2.845304e+00 3.882878e-01 4.013507e-01 5.771172e-01 8.059078e-01 9.770958e-01 9.371075e-01 1.013864e+00 1.054319e+00 1.157819e+00 9.141762e-01 9.628706e-01 8.629370e-01 7.504340e-01 4.096106e-02
<GCONST> 1.218954e+02
<MIXTURE> 2 9.061296e-02
<MEAN> 39
 7.037577e+00 -3.327255e+00 -5.919257e-01 4.392173e+00 -3.673250e+00 -2.952405e+00 -3.528754e+00 -6.572560e+00 3.325140e+00 4.943205e+00 -1.503364e+00 -3.333642e+00 -2.608331e+00 1.946226e-01 -6.030424e-02 7.840819e-01 8.006006e-01 -3.935289e-01 -6.548960e-01 -8.971629e-01 3.250850e-01 -3.517703e-01 -1.313588e-01 5.614841e-02 9.559205e-01 -1.565129e-01 2.119945e-01 -5.371336e-01 -3.780012e-01 -9.347591e-01 -1.474255e-01 3.236554e-01 -1.640295e-01 1.138643e+00 2.270365e-01 -5.055118e-01 1.827527e-01 3.914306e-02 2.626912e-01
<VARIANCE> 39
 1.378539e+01 1.907937e+01 3.968872e+01 3.881781e+01 3.810785e+01 4.130384e+01 3.899239e+01 3.537227e+01 3.920961e+01 2.764489e+01 3.137072e+01 2.406739e+01 1.387970e+00 8.993195e-01 1.150788e+00 2.190382e+00 2.950548e+00 2.355142e+00 3.416968e+00 3.690841e+00 3.792960e+00 3.075685e+00 2.705448e+00 2.544750e+00 2.539439e+00 6.572232e-02 2.600289e-01 3.257747e-01 4.163120e-01 7.439173e-01 9.512355e-01 9.003483e-01 1.173925e+00 9.570294e-01 9.682875e-01 7.241235e-01 8.519981e-01 6.934395e-01 1.281267e-02
<GCONST> 1.120924e+02
<MIXTURE> 3 1.191921e-01
<MEAN> 39
 -9.316833e+00 4.863817e+00 2.845423e-01 9.089698e+00 6.610222e+00 6.151431e+00 3.790224e+00 1.006231e+00 3.067542e+00 2.064579e+00 2.283020e+00 7.502328e-01 -1.047689e+01 -1.016862e-02 -2.221327e+00 -7.797301e-01 -2.283038e+00 -7.622944e-01 -7.055086e-01 2.091819e-01 4.655247e-01 3.485112e-01 4.340126e-01 7.548570e-01 6.094539e-01 8.672501e-01 3.861539e-01 8.569949e-02 3.003450e-01 -8.247179e-01 -6.246332e-01 -9.531561e-01 -3.922016e-01 -2.357853e-01 -3.418296e-01 -3.096680e-01 -2.834162e-01 -3.061618e-02 6.862285e-01
<VARIANCE> 39
 7.687102e+00 9.458033e+00 1.634103e+01 1.735785e+01 1.457802e+01 1.649101e+01 1.976401e+01 1.841852e+01 2.136063e+01 1.693466e+01 1.921393e+01 1.250069e+01 1.131276e-01 2.360299e+00 3.209418e+00 3.399846e+00 4.672663e+00 2.719112e+00 3.496725e+00 3.234536e+00 3.072006e+00 3.011103e+00 2.849697e+00 2.475110e+00 2.077823e+00 9.644100e-01 7.255877e-01 4.770415e-01 5.289006e-01 5.795147e-01 5.598072e-01 4.976635e-01 5.322315e-01 5.773039e-01 5.198949e-01 4.241159e-01 3.985770e-01 3.239135e-01 7.463229e-02
<GCONST> 1.044179e+02
<MIXTURE> 4 5.697270e-02
<MEAN> 39
 -7.443959e-01 1.918263e+00 6.685762e+00 1.433318e+00 -2.371645e-02 -3.677093e+00 -1.829531e+00 -2.787251e+00 2.101866e-01 -2.718409e+00 -7.059165e-01 1.948152e+00 -4.093493e+00 -1.644876e-01 -3.366278e-01 3.973998e-01 -7.365044e-01 -2.029184e-01 -2.906076e-01 -2.918249e-01 4.521545e-01 1.007223e-01 3.613109e-01 4.147990e-01 4.388593e-01 1.607123e-01 1.022022e+00 -9.202183e-01 -3.311433e-01 -4.524221e-01 -1.279593e+00 1.029312e-01 -4.463644e-01 6.593084e-01 -7.661057e-02 3.936154e-01 1.458558e-01 -3.319596e-01 3.933656e-01
<VARIANCE> 39
 1.437456e+01 2.348109e+01 2.670704e+01 2.967606e+01 2.875347e+01 4.417396e+01 4.038382e+01 3.612287e+01 4.422337e+01 2.853577e+01 2.344759e+01 2.173917e+01 1.334096e+00 1.448290e+00 2.050955e+00 2.431489e+00 2.484610e+00 3.342048e+00 2.803908e+00 3.261136e+00 3.765556e+00 3.623143e+00 2.644260e+00 2.411101e+00 1.966807e+00 1.686516e-01 3.984994e-01 4.768870e-01 1.021205e+00 1.006783e+00 1.099919e+00 1.105019e+00 1.407034e+00 1.169186e+00 1.307898e+00 9.518083e-01 1.029697e+00 7.736976e-01 1.981004e-02
<GCONST> 1.170684e+02
<MIXTURE> 5 8.741790e-02
<MEAN> 39
 -8.248973e+00 -1.838660e+00 1.368604e-01 -4.122593e+00 4.642427e+00 -7.999713e-01 4.749548e+00 5.644173e-01 -1.170499e-01 1.266112e+00 1.527902e+00 3.938130e+00 -4.278059e+00 1.423464e+00 -1.354722e+00 4.416966e-01 -2.577941e+00 -2.956503e+00 -3.061305e+00 -1.231984e+00 5.900173e-01 1.889717e-01 8.551303e-02 4.322256e-01 8.296675e-01 1.792021e+00 1.348541e+00 6.395457e-01 7.383894e-01 1.088603e+00 -9.454358e-01 -2.417339e-01 -1.107308e+00 -1.317152e-01 -1.460544e-02 -3.523021e-01 -3.590325e-01 -5.911844e-01 -7.386699e-02
<VARIANCE> 39
 1.038510e+01 2.275545e+01 2.777884e+01 2.419613e+01 2.635018e+01 3.502394e+01 2.493826e+01 2.965009e+01 3.049173e+01 2.421641e+01 2.648944e+01 1.894708e+01 1.210034e+00 2.992960e+00 2.891006e+00 3.434167e+00 2.977683e+00 3.286163e+00 2.434598e+00 3.920552e+00 3.020780e+00 3.599712e+00 2.731440e+00 2.418233e+00 2.289697e+00 2.309778e-01 3.408729e-01 5.431667e-01 8.417873e-01 7.866780e-01 6.602634e-01 9.082035e-01 7.444140e-01 7.798524e-01 1.064199e+00 7.487950e-01 7.455883e-01 6.166421e-01 3.920277e-02
<GCONST> 1.142684e+02
<MIXTURE> 6 8.113565e-02
<MEAN> 39
