~o
<STREAMINFO> 1 39
<VECSIZE> 39<NULLD><MFCC_E_D_A_Z><DIAGC>
~v "varFloor1"
<VARIANCE> 39
 9.726257e-01 5.381249e-01 6.651532e-01 6.989120e-01 6.880192e-01 6.224947e-01 6.450717e-01 5.635375e-01 5.311891e-01 4.008754e-01 3.797459e-01 3.082840e-01 1.131276e-01 4.817885e-02 3.519386e-02 3.216594e-02 4.186358e-02 4.215040e-02 4.083050e-02 4.351060e-02 4.295653e-02 3.903697e-02 3.210390e-02 2.959472e-02 2.433364e-02 4.759443e-03 6.696086e-03 5.835324e-03 4.982519e-03 6.833524e-03 6.876886e-03 6.926220e-03 7.477231e-03 7.591971e-03 6.896265e-03 5.920904e-03 5.389229e-03 4.463565e-03 7.207811e-04
~s "silst2"
<MEAN> 39
 -5.034889e+00 -3.626826e-01 -2.963875e+00 3.132080e+00 4.159023e+00 1.099310e+00 3.676842e+00 1.497341e+00 1.130729e+00 -9.441127e-01 -5.981782e-01 1.697941e+00 -8.478090e+00 -8.185019e-02 1.396251e-01 -1.394511e-01 1.978388e-01 8.357814e-02 2.012317e-01 3.290838e-02 -2.539528e-02 4.589328e-02 3.586406e-02 3.836581e-02 1.095684e-02 -2.103518e-01 -4.055891e-02 8.979355e-02 6.690849e-02 2.981487e-02 7.977827e-03 2.803207e-02 1.544379e-03 -1.802913e-02 4.869705e-03 5.288177e-02 3.555906e-02 -1.002747e-02 2.113192e-02
<VARIANCE> 39
 2.294345e+01 2.968742e+01 3.131240e+01 3.240899e+01 3.232864e+01 3.652992e+01 3.645393e+01 3.605068e+01 3.306480e+01 3.419426e+01 3.364326e+01 2.258254e+01 2.633844e+00 9.954530e-01 1.103583e+00 1.211199e+00 1.417516e+00 1.611542e+00 1.864129e+00 1.985941e+00 2.034167e+00 2.011565e+00 2.066190e+00 1.798230e+00 1.601785e+00 7.738855e-02 1.158857e-01 1.617395e-01 1.997388e-01 2.445545e-01 2.844906e-01 3.256277e-01 3.555441e-01 3.650109e-01 3.669061e-01 3.748831e-01 3.313131e-01 2.982947e-01 7.435304e-03
<GCONST> 9.644810e+01
~s "silst3"
<MEAN> 39
 -8.203361e+00 3.890170e+00 -1.366321e+00 6.484962e+00 4.606643e+00 3.686574e+00 3.991319e+00 6.021730e-01 1.761369e+00 1.038406e+00 1.047526e+00 1.583009e+00 -1.044546e+01 -1.347035e-01 1.172760e-01 1.288998e-01 9.929784e-02 5.823452e-02 6.892861e-02 8.536777e-03 -4.165782e-02 -3.362197e-03 7.494553e-02 3.939152e-02 -3.028388e-02 -6.559824e-03 3.782563e-02 -3.983722e-02 -1.140229e-02 -3.912142e-02 -1.293576e-02 -2.372451e-02 -5.257049e-03 5.983103e-03 -9.451543e-03 -1.696536e-02 -1.747270e-02 -5.089341e-03 9.492651e-03
<VARIANCE> 39
 1.113391e+01 1.256979e+01 1.734675e+01 2.066994e+01 1.780816e+01 2.423461e+01 2.268699e+01 2.212631e+01 2.342570e+01 2.142899e+01 2.239068e+01 1.557832e+01 1.131276e-01 3.132164e-01 5.142596e-01 7.470708e-01 9.353541e-01 1.090840e+00 1.282685e+00 1.398128e+00 1.518017e+00 1.572415e+00 1.593349e+00 1.437405e+00 1.296383e+00 4.759443e-03 5.792401e-02 9.483677e-02 1.407993e-01 1.830343e-01 2.156973e-01 2.513562e-01 2.809205e-01 3.031641e-01 3.117440e-01 3.164533e-01 2.874517e-01 2.605089e-01 7.207811e-04
<GCONST> 7.339401e+01
~s "silst4"
<MEAN> 39
 -7.867847e+00 3.085291e+00 -1.284777e+00 5.935486e+00 4.841825e+00 4.065499e+00 4.313762e+00 7.672486e-01 1.852506e+00 1.275093e+00 9.074475e-01 1.261522e+00 -9.807442e+00 2.654828e-01 -9.563894e-02 9.714001e-02 -2.592796e-01 -1.675796e-01 -1.439130e-01 -4.963159e-02 -8.839784e-02 -1.446213e-01 -3.843151e-02 -7.056969e-02 -7.574682e-02 1.988444e-01 2.300385e-01 -8.588697e-02 1.439102e-02 -2.110446e-01 -1.740174e-01 -1.868777e-01 -1.186921e-01 -5.325679e-02 -7.842875e-02 -8.882746e-02 -5.824941e-02 -1.509160e-02 1.791322e-01
<VARIANCE> 39
 1.998368e+01 2.256751e+01 2.846432e+01 3.008173e+01 2.767330e+01 3.105654e+01 3.017049e+01 2.990454e+01 2.953638e+01 2.569331e+01 2.747522e+01 1.889503e+01 1.427691e+00 2.682125e+00 2.807995e+00 2.706101e+00 3.121553e+00 2.859894e+00 2.893129e+00 2.789555e+00 2.809611e+00 2.724862e+00 2.512852e+00 2.240693e+00 1.904118e+00 3.948314e-01 4.622540e-01 4.831187e-01 4.808287e-01 5.591680e-01 5.321105e-01 5.339706e-01 5.416735e-01 5.123718e-01 5.018502e-01 4.668385e-01 4.133928e-01 3.578300e-01 5.991694e-02
<GCONST> 1.105829e+02
~h "b"
<BEGINHMM>
<NUMSTATES> 5
<STATE> 2
<MEAN> 39
 6.427355e+00 1.648559e+00 -6.367341e-01 1.269554e+00 8.160828e-01 5.767600e-02 -3.167372e+00 -3.573987e+00 -1.324626e+00 2.388377e-01 1.061514e+00 -1.040243e+00 -4.149489e+00 -1.232959e-01 2.710718e+00 7.100731e-01 2.223411e+00 1.543899e+00 7.988895e-01 2.807353e-01 -1.474487e+00 -1.095123e+00 -8.646150e-01 -1.304953e-01 -2.160348e-01 -9.644659e-01 -5.264113e-01 2.391833e-01 2.350581e-01 2.203963e-01 1.685515e-01 1.427342e-01 2.797425e-01 1.140314e-01 -4.600823e-02 -1.841507e-01 -2.339780e-01 -2.486484e-02 -7.244299e-02
<VARIANCE> 39
 5.889600e+01 4.600050e+01 5.227749e+01 6.706397e+01 4.800075e+01 5.717135e+01 5.464759e+01 5.046286e+01 5.243338e+01 4.185128e+01 3.544776e+01 3.336333e+01 8.280025e+00 2.810700e+00 5.136363e+00 4.804517e+00 5.975372e+00 5.609068e+00 5.668781e+00 7.663826e+00 6.310233e+00 5.491133e+00 4.800188e+00 4.467735e+00 3.801338e+00 5.433399e-01 3.901404e-01 7.082538e-01 6.644230e-01 9.054188e-01 7.819616e-01 7.569610e-01 7.679394e-01 8.293186e-01 8.337077e-01 7.347559e-01 6.586699e-01 5.452875e-01 8.358278e-02
<GCONST> 1.325594e+02
<STATE> 3
<MEAN> 39
 4.741102e+00 9.556381e+00 2.098363e+00 7.746214e+00 4.776379e+00 2.270900e+00 -2.025780e+00 -7.321906e+00 -4.943338e+00 -2.752454e+00 -7.415552e-01 -2.428313e+00 -6.685511e+00 -1.135513e+00 2.032797e+00 1.093593e+00 1.721654e+00 1.135041e+00 7.170684e-01 7.327324e-01 -5.576341e-01 -7.255268e-01 -8.972983e-01 -5.889849e-01 -1.768530e-01 -7.402857e-01 -2.362163e-01 -1.030469e+00 -1.421460e-01 -7.569758e-01 -4.978006e-01 -2.877171e-01 -1.995778e-02 7.007929e-01 5.581096e-01 3.385803e-01 8.276524e-02 2.162597e-01 3.034854e-01
<VARIANCE> 39
 3.508807e+01 2.273991e+01 2.417112e+01 2.991163e+01 2.632031e+01 3.401295e+01 4.551107e+01 3.778133e+01 3.985103e+01 3.236736e+01 3.003127e+01 3.232155e+01 3.504220e+00 3.104994e+00 4.523244e+00 3.865535e+00 5.047943e+00 3.743034e+00 4.088109e+00 4.371854e+00 4.378460e+00 4.240592e+00 3.760571e+00 3.306782e+00 2.757826e+00 5.942429e-01 3.864544e-01 6.163599e-01 6.192304e-01 6.904646e-01 6.397788e-01 6.739063e-01 9.865076e-01 8.682307e-01 8.601494e-01 7.152880e-01 6.430089e-01 5.933355e-01 5.480310e-02
<GCONST> 1.226023e+02
<STATE> 4
<MEAN> 39
 8.393234e-02 9.609736e+00 3.671288e+00 9.368621e+00 6.387671e+00 3.412083e+00 4.872850e-01 -4.983313e+00 -3.278733e+00 -2.686546e+00 -1.188722e+00 -1.327928e+00 -7.762949e+00 -5.763444e-01 -1.569237e+00 -3.337639e-01 -1.130783e+00 -6.689131e-01 -4.490390e-01 2.501349e-01 9.761126e-01 9.814597e-01 5.642346e-01 3.855616e-01 4.962248e-01 4.408973e-01 5.806880e-01 -8.896713e-01 -3.974615e-01 -1.058687e+00 -7.272017e-01 -3.496417e-01 -3.286437e-01 1.987562e-01 2.441246e-01 3.655549e-01 2.617024e-01 1.023903e-01 4.565418e-01
<VARIANCE> 39
 3.864521e+01 3.048038e+01 2.347369e+01 2.847625e+01 2.487138e+01 2.876080e+01 3.629571e+01 3.732778e+01 3.807837e+01 2.914778e+01 2.673902e+01 2.257718e+01 3.982570e+00 3.651274e+00 3.942221e+00 3.579002e+00 4.948476e+00 3.717465e+00 3.331437e+00 3.634176e+00 3.826515e+00 4.129010e+00 3.265306e+00 2.855763e+00 2.202809e+00 7.325327e-01 6.473680e-01 8.841850e-01 8.650797e-01 8.240256e-01 7.192955e-01 7.747537e-01 8.171167e-01 9.390973e-01 9.626412e-01 7.639289e-01 6.572313e-01 5.069462e-01 7.523825e-02
<GCONST> 1.229144e+02
<TRANSP> 5
 0.000000e+00 1.000000e+00 0.000000e+00 0.000000e+00 0.000000e+00
 0.000000e+00 3.128711e-01 6.871288e-01 0.000000e+00 0.000000e+00
 0.000000e+00 0.000000e+00 3.740282e-01 6.259718e-01 0.000000e+00
 0.000000e+00 0.000000e+00 0.000000e+00 6.785491e-01 3.214509e-01
 0.000000e+00 0.000000e+00 0.000000e+00 0.000000e+00 0.000000e+00
<ENDHMM>
~h "d"
<BEGINHMM>
<NUMSTATES> 5
<STATE> 2
<MEAN> 39
 1.164837e+00 6.112020e+00 5.182290e+00 7.830584e+00 1.571551e+00 -7.720119e-01 -1.463899e+00 -3.854739e+00 -1.596057e+00 -2.456818e+00 -3.009737e+00 -1.575842e+00 -6.205196e+00 -1.239606e+00 4.909636e-02 -1.322530e-01 1.321753e-01 8.822247e-01 5.877362e-01 5.814849e-01 -8.021897e-02 1.034842e-01 7.116567e-02 2.466135e-01 1.163491e-01 -3.021864e-01 5.614632e-02 -6.882426e-01 -2.163081e-01 -8.611979e-01 -4.721340e-01 -1.972324e-01 -8.079380e-02 3.951268e-01 1.699563e-01 2.224593e-01 2.987938e-01 2.355237e-01 3.088662e-01
<VARIANCE> 39
 4.186085e+01 5.707258e+01 3.845793e+01 5.646510e+01 5.806985e+01 4.746044e+01 4.502367e+01 4.722065e+01 4.204795e+01 3.612545e+01 3.552958e+01 2.737365e+01 7.223211e+00 3.219096e+00 9.200135e+00 4.520684e+00 9.611763e+00 6.180899e+00 5.244568e+00 5.595105e+00 6.483713e+00 5.355261e+00 4.386957e+00 4.511722e+00 3.552621e+00 8.770892e-01 6.053500e-01 1.196694e+00 7.051374e-01 1.231800e+00 1.246744e+00 9.930319e-01 1.023489e+00 1.023943e+00 9.108723e-01 8.211880e-01 8.052589e-01 6.371243e-01 1.187214e-01
<GCONST> 1.356439e+02
<STATE> 3
<MEAN> 39
 -2.183497e+00 -3.485155e-01 2.803728e+00 7.793137e-01 5.917549e-04 -6.564729e-01 3.685590e-01 -1.396803e+00 7.392618e-02 -2.634077e-01 2.041699e-01 1.125471e+00 -4.390669e+00 -1.678330e-02 -1.130800e+00 -4.805794e-02 -1.630220e+00 -1.219132e+00 -9.795760e-01 -4.014822e-01 8.838186e-01 5.022683e-01 3.538400e-01 5.705000e-01 6.614094e-01 6.404570e-01 5.712456e-01 3.239246e-01 1.355623e-01 2.749807e-01 -2.453091e-01 -1.766565e-01 -3.044465e-01 9.066015e-03 -1.275778e-01 -5.774385e-02 -2.308902e-01 -1.977984e-01 1.744010e-02
<VARIANCE> 39
 5.367889e+01 4.626743e+01 4.326104e+01 5.081970e+01 5.455484e+01 4.877460e+01 4.943150e+01 4.787278e+01 4.311546e+01 3.315943e+01 3.659139e+01 2.697330e+01 4.141965e+00 4.987354e+00 5.455923e+00 4.624366e+00 6.624815e+00 6.360746e+00 5.688275e+00 5.969147e+00 6.262525e+00 5.732229e+00 4.376653e+00 4.174338e+00 3.222858e+00 8.186823e-01 8.670288e-01 1.034366e+00 8.504543e-01 1.221415e+00 1.239941e+00 1.088854e+00 1.141698e+00 1.090462e+00 9.654610e-01 8.333913e-01 8.857548e-01 6.629371e-01 8.242574e-02
<GCONST> 1.351866e+02
<STATE> 4
<MEAN> 39
 2.110496e-01 4.585438e-01 3.738225e+00 6.461953e-01 -2.657221e+00 -3.034086e+00 -9.882662e-01 -8.021853e-01 4.501936e-02 -2.900734e-01 -4.231389e-01 1.076218e+00 -3.874924e+00 4.903910e-01 -2.584182e-01 -1.850109e-02 -4.967171e-01 -6.613491e-01 -4.930594e-01 -5.119317e-01 5.982391e-01 1.849864e-01 1.278886e-01 8.259211e-02 8.373567e-02 2.892305e-01 2.030945e-01 2.302865e-01 -5.346983e-02 3.265438e-01 2.145067e-01 2.369310e-01 -1.355284e-02 -1.155149e-01 -1.463975e-01 -5.673234e-02 -1.467626e-01 -2.154711e-01 -8.834879e-02
<VARIANCE> 39
 5.074097e+01 4.192950e+01 4.861332e+01 4.774429e+01 5.791906e+01 4.530428e+01 5.396154e+01 5.555440e+01 4.849820e+01 3.628738e+01 3.306128e+01 2.641091e+01 5.149519e+00 5.814957e+00 4.859960e+00 4.447846e+00 6.191235e+00 7.215189e+00 5.794010e+00 6.160962e+00 5.771595e+00 5.142421e+00 4.170145e+00 4.127821e+00 3.129445e+00 6.992788e-01 6.649584e-01 7.297617e-01 7.055421e-01 8.712080e-01 9.290202e-01 8.231757e-01 9.748032e-01 9.457873e-01 8.403019e-01 7.010835e-01 6.789045e-01 5.410224e-01 6.249326e-02
<GCONST> 1.322168e+02
<TRANSP> 5
 0.000000e+00 1.000000e+00 0.000000e+00 0.000000e+00 0.000000e+00
 0.000000e+00 6.288347e-01 3.711653e-01 0.000000e+00 0.000000e+00
 0.000000e+00 0.000000e+00 2.227351e-01 7.772649e-01 0.000000e+00
 0.000000e+00 0.000000e+00 0.000000e+00 1.742760e-01 8.257241e-01
 0.000000e+00 0.000000e+00 0.000000e+00 0.000000e+00 0.000000e+00
<ENDHMM>
~h "f"
<BEGINHMM>
<NUMSTATES> 5
<STATE> 2
<MEAN> 39
 -1.003762e+01 -3.012681e-01 -2.683558e+00 3.012066e+00 2.921733e+00 1.539026e+00 2.946520e+00 3.071572e-01 1.448590e+00 6.184602e-01 -4.084364e-01 1.089309e+00 -5.655317e+00 -1.880840e+00 -1.535601e-01 -2.303231e-01 3.957479e-01 1.192853e-01 1.463934e-01 2.234298e-01 1.911292e-01 2.704879e-01 2.254883e-01 2.484492e-01 3.132328e-01 -3.219000e-01 4.528188e-01 -1.054328e-01 2.097990e-02 -1.863355e-01 -1.131016e-01 -6.861675e-02 -1.277715e-01 -1.192277e-02 -2.279812e-02 3.815933e-02 3.557358e-02 -3.200151e-02 1.061860e-01
<VARIANCE> 39
 4.885465e+01 2.032075e+01 2.272413e+01 2.276320e+01 2.075824e+01 2.458927e+01 2.466092e+01 2.314683e+01 2.306759e+01 2.171948e+01 2.107037e+01 1.723370e+01 2.802983e+00 6.021231e+00 2.406245e+00 2.425805e+00 3.159352e+00 2.541546e+00 2.715955e+00 2.814106e+00 2.694771e+00 2.623094e+00 2.372286e+00 2.335532e+00 1.962967e+00 3.239171e-01 7.357139e-01 4.442582e-01 4.046926e-01 5.137455e-01 4.972461e-01 4.411028e-01 5.086094e-01 4.775903e-01 4.569100e-01 4.274175e-01 3.956839e-01 3.530303e-01 3.518986e-02
<GCONST> 1.088723e+02
<STATE> 3
<MEAN> 39
 -1.332862e+01 -1.540110e+00 -3.304674e+00 3.600553e+00 3.016172e+00 2.077546e+00 3.239257e+00 1.055082e+00 2.877061e+00 1.796946e+00 1.435501e+00 2.053663e+00 -6.206840e+00 9.479501e-01 -6.926873e-02 6.863265e-02 -2.042610e-01 -2.179874e-03 -1.297422e-01 -8.905642e-02 -1.140724e-01 -2.224602e-03 -2.335085e-02 -5.749610e-02 -1.035861e-01 1.443827e-01 1.281400e+00 1.906421e-01 1.395936e-01 -2.762145e-01 -1.956332e-01 -1.680326e-01 -2.936357e-01 -2.005235e-01 -2.267021e-01 -1.904167e-01 -1.582427e-01 -1.869359e-01 2.031324e-01
<VARIANCE> 39
 1.295393e+01 1.708554e+01 1.871345e+01 1.931770e+01 1.853919e+01 2.055201e+01 2.063490e+01 2.108356e+01 2.221450e+01 1.891422e+01 2.179875e+01 1.465056e+01 2.302979e+00 3.446995e+00 1.330628e+00 1.361024e+00 1.378207e+00 1.442169e+00 1.595507e+00 1.590305e+00 1.622310e+00 1.621778e+00 1.560075e+00 1.439436e+00 1.304734e+00 1.602156e-01 4.183992e-01 3.268228e-01 4.184894e-01 4.693464e-01 4.454935e-01 5.215465e-01 5.338339e-01 4.590923e-01 4.607919e-01 4.191348e-01 4.205340e-01 3.511813e-01 4.438652e-02
<GCONST> 9.813242e+01
<STATE> 4
<MEAN> 39
 -8.182815e+00 -4.866777e-01 -1.665665e+00 2.915839e+00 3.248287e+00 1.460320e+00 3.142908e+00 1.653595e-01 2.072067e+00 1.118545e+00 2.874668e-01 1.235550e+00 -5.773995e+00 4.911132e+00 4.133035e-01 3.935983e-01 -1.330095e+00 -1.124730e+00 -6.431518e-01 -1.269326e+00 -7.168671e-01 -6.908150e-01 -4.177292e-01 -1.725630e-01 -5.271838e-01 8.423981e-01 8.045270e-01 -2.601754e-01 -1.519373e-01 -5.498058e-01 -4.993310e-01 -1.293848e-01 -5.154454e-01 4.581900e-03 -1.295428e-01 -4.984773e-02 8.107996e-02 -7.104415e-02 2.562569e-01
<VARIANCE> 39
 2.563179e+01 2.006780e+01 2.604585e+01 2.374552e+01 2.388314e+01 2.547168e+01 2.599524e+01 2.423627e+01 2.528154e+01 2.056055e+01 2.135786e+01 1.647896e+01 2.346601e+00 5.653045e+00 2.916982e+00 4.985251e+00 4.541804e+00 4.070593e+00 5.177251e+00 4.632492e+00 3.897101e+00 3.781878e+00 2.965588e+00 3.329945e+00 2.384717e+00 3.650605e-01 6.134144e-01 5.018337e-01 5.712244e-01 6.351848e-01 6.531422e-01 7.645614e-01 7.874799e-01 6.875463e-01 6.797091e-01 6.217890e-01 5.368763e-01 4.472274e-01 4.297841e-02
<GCONST> 1.165845e+02
<TRANSP> 5
 0.000000e+00 1.000000e+00 0.000000e+00 0.000000e+00 0.000000e+00
 0.000000e+00 8.024487e-01 1.975513e-01 0.000000e+00 0.000000e+00
 0.000000e+00 0.000000e+00 6.552907e-01 3.447093e-01 0.000000e+00
 0.000000e+00 0.000000e+00 0.000000e+00 2.987456e-01 7.012545e-01
 0.000000e+00 0.000000e+00 0.000000e+00 0.000000e+00 0.000000e+00
<ENDHMM>
~h "g"
<BEGINHMM>
<NUMSTATES> 5
<STATE> 2
<MEAN> 39
 3.459280e+00 -1.082974e+00 6.362867e+00 1.385438e+00 -5.376398e+00 -6.012952e+00 -1.730451e+00 1.057532e+00 -6.764236e+00 5.935674e-01 1.899054e+00 -1.138429e+00 -3.067996e+00 -3.724372e-01 2.278434e+00 7.521180e-01 2.120170e+00 9.191304e-01 1.475457e-01 2.448653e-01 -1.115701e+00 -1.101911e+00 -5.469838e-01 -2.640671e-01 -3.772668e-01 -9.307316e-01 -2.247909e-01 3.218048e-01 -4.058913e-01 2.381421e-01 5.454597e-01 4.747387e-01 1.238822e-01 -2.311426e-01 5.717987e-01 -1.955852e-01 -2.985436e-01 -3.843556e-02 -1.742343e-01
<VARIANCE> 39
 4.154612e+01 3.881250e+01 7.330135e+01 5.714754e+01 8.876855e+01 6.463279e+01 7.507770e+01 8.727566e+01 7.725539e+01 7.497937e+01 5.553392e+01 3.228632e+01 3.823437e+00 2.078893e+00 3.788591e+00 3.729627e+00 4.714542e+00 5.381448e+00 5.119411e+00 6.318492e+00 6.029972e+00 6.314724e+00 5.417658e+00 4.501578e+00 3.299751e+00 4.427420e-01 2.971590e-01 7.193843e-01 6.758438e-01 8.234560e-01 1.041216e+00 9.539346e-01 1.147534e+00 1.241717e+00 1.184987e+00 1.301348e+00 9.377415e-01 6.362929e-01 4.857463e-02
<GCONST> 1.347560e+02
<STATE> 3
<MEAN> 39
 2.495167e+00 7.475389e+00 6.775603e+00 8.326805e+00 -1.970263e+00 -3.899731e+00 8.947626e-03 -3.380333e+00 -7.370274e+00 -2.435425e+00 -4.440091e-01 -2.888933e+00 -6.195652e+00 -8.715434e-01 1.813706e+00 -3.051243e-01 1.665655e+00 1.753200e+00 9.269602e-01 1.171524e-01 -8.980936e-01 7.801884e-01 -6.577649e-01 -6.534571e-01 -1.198753e-01 -9.066160e-01 -1.844016e-01 -1.047626e+00 -4.396274e-01 -7.723880e-01 7.062865e-02 1.129797e-01 -1.848637e-01 4.351409e-01 5.096328e-01 3.642305e-01 1.088373e-01 3.190334e-01 2.767489e-01
<VARIANCE> 39
 2.807640e+01 3.140512e+01 4.713389e+01 3.580597e+01 5.669740e+01 4.709337e+01 5.457784e+01 6.782208e+01 5.972964e+01 5.005922e+01 4.575390e+01 3.341589e+01 3.155838e+00 2.872631e+00 4.941856e+00 4.752705e+00 5.560496e+00 6.397826e+00 5.951798e+00 6.327839e+00 7.024790e+00 5.661886e+00 6.239571e+00 4.541908e+00 3.462820e+00 4.893893e-01 3.292193e-01 8.437387e-01 6.465093e-01 7.247322e-01 8.537242e-01 8.176337e-01 1.081850e+00 1.072610e+00 9.989137e-01 9.141183e-01 7.679683e-01 6.325712e-01 5.577206e-02
<GCONST> 1.314990e+02
<STATE> 4
<MEAN> 39
 -2.737352e+00 5.205701e+00 2.993629e+00 9.091365e+00 4.492065e+00 -6.221718e-02 5.838899e-02 -2.676516e+00 -2.296569e+00 -1.328547e+00 -8.924730e-01 -8.145878e-01 -7.508500e+00 -6.409991e-01 -2.187551e+00 -1.525219e+00 -1.308528e+00 6.181694e-01 3.116725e-01 5.024736e-02 7.045576e-01 9.158908e-01 8.874573e-01 1.067504e-01 6.834762e-01 4.132856e-01 4.595382e-01 -5.042278e-01 7.253274e-02 -7.779152e-01 -7.454495e-01 -5.098258e-01 -2.464456e-01 2.320023e-01 -1.778001e-01 2.398061e-01 1.973834e-01 6.792828e-02 4.365092e-01
<VARIANCE> 39
 3.616405e+01 6.503281e+01 5.745655e+01 4.344440e+01 4.716328e+01 4.785430e+01 4.286036e+01 4.844573e+01 4.709322e+01 3.464830e+01 2.912744e+01 2.295221e+01 5.278355e+00 4.118896e+00 7.641062e+00 6.331531e+00 5.826198e+00 6.654294e+00 5.914076e+00 5.597096e+00 6.020845e+00 5.258234e+00 4.622149e+00 3.833545e+00 2.918375e+00 7.504233e-01 7.294063e-01 2.085058e+00 1.304675e+00 1.176191e+00 1.063372e+00 1.053273e+00 1.090696e+00 1.203336e+00 9.541013e-01 1.012399e+00 7.925726e-01 5.904506e-01 1.146819e-01
<GCONST> 1.360276e+02
<TRANSP> 5
 0.000000e+00 1.000000e+00 0.000000e+00 0.000000e+00 0.000000e+00
 0.000000e+00 4.340453e-01 5.659547e-01 0.000000e+00 0.000000e+00
 0.000000e+00 0.000000e+00 4.620507e-01 5.379493e-01 0.000000e+00
 0.000000e+00 0.000000e+00 0.000000e+00 6.594429e-01 3.405571e-01
 0.000000e+00 0.000000e+00 0.000000e+00 0.000000e+00 0.000000e+00
<ENDHMM>
~h "k"
<BEGINHMM>
<NUMSTATES> 5
<STATE> 2
<MEAN> 39
 -4.667528e+00 -2.367432e-02 -1.900127e-01 5.517141e+00 4.124773e+00 2.883330e-01 1.342816e+00 1.601375e+00 -5.085053e-01 1.190057e+00 6.293191e-01 3.808812e-01 -6.612144e+00 -5.538879e-01 -8.807141e-01 -9.480987e-01 -1.144116e-01 6.513370e-01 3.354065e-01 1.616328e-01 2.215293e-01 2.098710e-01 6.496269e-01 -3.402417e-02 3.208443e-01 -1.285007e-01 1.981512e-01 -1.157715e-01 -4.057631e-02 -4.465855e-01 -2.494791e-01 -1.569777e-01 -8.500192e-02 -3.109773e-02 4.984632e-03 9.198947e-02 -2.495153e-02 2.756129e-02 2.415925e-01
<VARIANCE> 39
 6.353017e+01 5.305323e+01 5.031843e+01 5.508178e+01 7.101159e+01 6.361024e+01 5.761534e+01 5.628036e+01 5.707348e+01 3.900458e+01 3.386287e+01 2.602925e+01 1.149064e+01 6.019185e+00 7.867362e+00 5.934984e+00 8.371574e+00 7.175839e+00 7.220641e+00 6.434991e+00 5.982872e+00 6.383415e+00 4.559647e+00 4.238826e+00 3.148679e+00 1.923158e+00 9.881883e-01 1.413083e+00 9.411149e-01 1.209907e+00 1.289644e+00 1.397413e+00 1.171203e+00 1.091756e+00 1.146370e+00 8.581550e-01 7.770061e-01 5.573955e-01 3.021926e-01
<GCONST> 1.423846e+02
<STATE> 3
<MEAN> 39
 -5.803516e-01 -3.605663e+00 -2.132888e+00 7.361677e-01 1.059177e+00 -4.041749e+00 3.727327e-01 3.178864e+00 -2.446340e+00 3.122274e+00 3.018090e-01 9.407590e-01 -3.855961e+00 -1.148474e+00 1.449387e+00 4.079968e-01 8.767654e-01 8.029165e-01 4.462770e-01 3.103842e-01 -5.650142e-01 3.792164e-01 2.652665e-01 9.944295e-02 3.329846e-01 -5.880235e-01 -3.898445e-01 3.582684e-01 2.053114e-01 3.197188e-01 2.457232e-01 7.054318e-01 2.599778e-01 -2.363098e-01 4.448169e-01 -3.000256e-01 1.401335e-03 -9.974580e-02 -2.684675e-01
<VARIANCE> 39
 4.445359e+01 4.298753e+01 8.551342e+01 5.464880e+01 8.913628e+01 7.356384e+01 6.556729e+01 7.141813e+01 7.100449e+01 5.514810e+01 4.362098e+01 3.208117e+01 2.921619e+00 5.605327e+00 5.175571e+00 4.570663e+00 7.858016e+00 6.594134e+00 7.251372e+00 5.395655e+00 5.866052e+00 5.839193e+00 4.673258e+00 4.433371e+00 3.102371e+00 1.695628e+00 6.051509e-01 1.285496e+00 1.215399e+00 1.127433e+00 1.178466e+00 1.128314e+00 1.065716e+00 1.294580e+00 1.354018e+00 1.083551e+00 9.273909e-01 7.034645e-01 9.944244e-02
<GCONST> 1.405564e+02
<STATE> 4
<MEAN> 39
 -7.252896e+00 3.188901e-01 -6.488543e-01 4.644206e+00 5.015791e+00 2.029500e+00 3.116913e+00 5.493971e-01 1.593961e+00 2.480766e+00 8.597580e-01 1.631908e+00 -7.197448e+00 -3.187870e-02 -5.706557e-02 -7.271603e-02 -4.442593e-01 -9.321518e-02 4.725288e-01 2.667355e-01 -3.589956e-01 2.012560e-01 -1.788001e-01 -1.131309e-01 -3.479569e-02 7.015035e-02 6.782259e-01 -2.107188e-01 2.001090e-03 -4.183765e-01 -4.950870e-01 -4.177664e-01 -2.455836e-01 8.784968e-02 -3.085208e-01 -1.466393e-01 -3.380283e-02 -1.330021e-01 3.319357e-01
<VARIANCE> 39
 2.288910e+01 3.807244e+01 4.915218e+01 5.272137e+01 4.141187e+01 4.528965e+01 4.003770e+01 4.104996e+01 4.356710e+01 3.184658e+01 2.831711e+01 2.107578e+01 7.188641e+00 6.658778e+00 4.994195e+00 5.287871e+00 5.154408e+00 5.897098e+00 6.575399e+00 4.636607e+00 4.786317e+00 5.662655e+00 4.203669e+00 3.571591e+00 2.709415e+00 1.185788e+00 6.953263e-01 1.149216e+00 9.247506e-01 1.071322e+00 8.439969e-01 1.023799e+00 8.514390e-01 8.884208e-01 8.823462e-01 7.587010e-01 7.149872e-01 5.099538e-01 1.896037e-01
<GCONST> 1.322930e+02
<TRANSP> 5
 0.000000e+00 1.000000e+00 0.000000e+00 0.000000e+00 0.000000e+00
 0.000000e+00 6.305828e-01 3.694172e-01 0.000000e+00 0.000000e+00
 0.000000e+00 0.000000e+00 5.150219e-01 4.849781e-01 0.000000e+00
 0.000000e+00 0.000000e+00 0.000000e+00 7.376408e-01 2.623592e-01
 0.000000e+00 0.000000e+00 0.000000e+00 0.000000e+00 0.000000e+00
<ENDHMM>
~h "l"
<BEGINHMM>
<NUMSTATES> 5
<STATE> 2
<MEAN> 39
 8.036668e+00 1.243074e+00 -4.398275e+00 -1.134157e+01 1.770425e-01 4.950250e+00 -3.437047e+00 -6.117937e+00 8.730330e-02 2.109585e+00 1.833543e+00 -1.461393e+00 -1.451203e+00 7.224082e-01 -3.243924e-01 -4.200692e-01 -1.429380e+00 3.491930e-02 8.392686e-01 -4.074364e-01 -2.218514e-01 2.257811e-01 3.189890e-01 1.747693e-01 -1.905776e-01 3.041830e-01 -3.716363e-01 -1.867129e-01 1.746933e-01 5.178580e-01 -2.571061e-02 -3.093834e-01 1.445484e-01 4.488835e-01 1.475380e-01 -1.316965e-01 -1.561727e-01 9.419363e-02 -7.807923e-02
<VARIANCE> 39
 1.583679e+01 4.665846e+01 3.686655e+01 5.469403e+01 4.773547e+01 5.560638e+01 6.668199e+01 5.835582e+01 6.094235e+01 5.028678e+01 4.569687e+01 3.872087e+01 2.157960e+00 2.566805e+00 4.137773e+00 2.569314e+00 5.476756e+00 4.069953e+00 5.632075e+00 5.500669e+00 6.480067e+00 6.243441e+00 4.766862e+00 4.540210e+00 3.961840e+00 2.056782e-01 4.249522e-01 5.768718e-01 4.325938e-01 7.770773e-01 7.381947e-01 8.074629e-01 8.736592e-01 9.899026e-01 1.150512e+00 9.569386e-01 8.281164e-01 7.343020e-01 2.600465e-02
<GCONST> 1.275219e+02
<STATE> 3
<MEAN> 39
 9.168575e+00 -7.809408e-01 -6.250257e+00 -1.486845e+01 -6.089155e-01 8.126268e+00 -6.216663e-01 -3.172905e+00 1.619769e+00 4.079036e-01 1.254702e+00 -8.657016e-01 -7.251502e-01 3.276508e-02 2.750223e-01 1.148199e-01 -1.150079e-01 -1.369102e-01 -1.256988e-01 4.561621e-02 1.725467e-01 -1.108056e-01 -2.397113e-01 -1.474290e-02 1.831980e-01 -4.868006e-02 -5.962808e-02 1.680060e-02 9.910335e-02 2.753971e-01 -3.568671e-02 -2.335548e-01 -4.281440e-02 3.312904e-02 -5.088162e-02 -1.212574e-02 -3.594521e-02 4.954161e-03 -4.063267e-02
<VARIANCE> 39
 1.114768e+01 4.090762e+01 3.354085e+01 5.644713e+01 6.275069e+01 5.894563e+01 6.672182e+01 4.883551e+01 4.742321e+01 4.739790e+01 4.296748e+01 3.769703e+01 1.441922e+00 3.165826e-01 1.509054e+00 1.002031e+00 2.067289e+00 1.631998e+00 2.274348e+00 1.946770e+00 2.342765e+00 2.179521e+00 2.095835e+00 2.040175e+00 1.830055e+00 2.886784e-02 5.826265e-02 1.955811e-01 1.635381e-01 2.757038e-01 2.942272e-01 3.265961e-01 3.335701e-01 3.732045e-01 4.018863e-01 3.611928e-01 3.376853e-01 3.243901e-01 5.460688e-03
<GCONST> 9.788305e+01
<STATE> 4
<MEAN> 39
 8.290242e+00 1.561324e+00 -4.240712e+00 -1.159588e+01 -5.697860e-01 4.334151e+00 -2.781061e+00 -3.430151e+00 4.120017e-01 2.860434e-01 1.015609e+00 -5.296961e-01 -1.780671e+00 -8.423400e-01 5.492106e-03 9.194701e-01 2.149966e+00 -9.671628e-02 -1.385887e+00 -7.859059e-03 4.891662e-01 -1.324223e-01 -2.445102e-01 -4.100586e-01 7.587057e-02 -3.368723e-01 -3.332460e-01 -6.164868e-02 2.201019e-01 4.505069e-01 1.676254e-02 -8.888707e-02 1.768527e-01 6.250510e-02 -8.408202e-02 -2.231715e-02 -1.116991e-02 3.676310e-03 -8.272371e-02
<VARIANCE> 39
 1.510746e+01 4.453526e+01 4.026756e+01 6.927802e+01 5.584457e+01 7.114321e+01 7.543894e+01 6.040166e+01 6.144264e+01 5.282179e+01 4.371715e+01 3.776170e+01 2.557348e+00 1.706019e+00 3.615223e+00 2.941672e+00 5.382829e+00 5.560187e+00 4.243171e+00 4.834603e+00 5.668172e+00 5.708436e+00 4.693305e+00 3.773309e+00 3.535155e+00 2.860607e-01 3.491863e-01 5.272947e-01 4.089507e-01 9.763010e-01 7.974881e-01 8.189560e-01 8.238141e-01 1.025363e+00 1.162726e+00 8.890452e-01 7.498306e-01 6.607816e-01 3.077241e-02
<GCONST> 1.275920e+02
<TRANSP> 5
 0.000000e+00 1.000000e+00 0.000000e+00 0.000000e+00 0.000000e+00
 0.000000e+00 6.560537e-01 3.439462e-01 0.000000e+00 0.000000e+00
 0.000000e+00 0.000000e+00 7.918486e-01 2.081514e-01 0.000000e+00
 0.000000e+00 0.000000e+00 0.000000e+00 6.050947e-01 3.949054e-01
 0.000000e+00 0.000000e+00 0.000000e+00 0.000000e+00 0.000000e+00
<ENDHMM>
~h "m"
<BEGINHMM>
<NUMSTATES> 5
<STATE> 2
<MEAN> 39
 6.697015e+00 7.014132e-01 -1.035358e+00 2.183949e+00 4.222152e-01 -3.056484e-01 -1.362229e+00 -4.335319e+00 -3.970014e+00 -9.753820e-01 5.292391e-01 -2.872829e+00 -3.677910e+00 -3.591435e-02 1.755561e+00 9.726291e-01 1.888126e+00 5.348884e-01 -9.596733e-01 3.821788e-01 -2.354155e+00 -2.501411e+00 6.289783e-01 3.544157e-01 -6.856092e-01 -4.298584e-01 -2.495746e-01 -1.161710e-01 2.245672e-01 -5.228464e-02 -1.319961e-01 -5.927406e-02 -7.828925e-03 1.596530e-01 1.763032e-02 8.114334e-03 -1.039686e-01 5.890186e-02 5.071451e-02
<VARIANCE> 39
 2.289023e+01 3.505376e+01 3.601688e+01 4.541717e+01 3.975594e+01 4.519704e+01 5.322503e+01 5.157242e+01 6.251984e+01 4.305917e+01 4.506866e+01 3.686543e+01 3.549259e+00 3.334561e+00 2.645659e+00 4.618850e+00 4.063751e+00 4.691475e+00 4.523831e+00 5.599580e+00 5.449769e+00 6.055115e+00 4.873935e+00 5.177729e+00 3.988461e+00 3.283343e-01 2.438161e-01 4.317911e-01 5.606474e-01 6.461848e-01 5.827320e-01 5.971172e-01 7.051237e-01 8.153229e-01 1.020798e+00 6.399205e-01 6.506474e-01 5.183200e-01 3.737567e-02
<GCONST> 1.249627e+02
<STATE> 3
<MEAN> 39
 5.995670e+00 3.985307e+00 2.396137e+00 6.960422e+00 6.603982e-01 -3.728630e+00 -1.214277e+00 -9.323912e+00 -1.017054e+01 8.571903e-01 1.134760e+00 -4.809907e+00 -4.306857e+00 -2.008012e-01 5.140374e-01 6.825210e-01 7.102165e-01 -2.626427e-03 -3.856453e-01 1.040062e-01 -8.668817e-01 -8.947639e-01 1.851971e-01 -5.441764e-02 -2.686182e-01 -8.295231e-02 -1.014807e-01 -6.210217e-01 -3.825637e-01 -8.367622e-01 -1.595365e-01 5.161232e-01 -8.524761e-02 9.605457e-01 1.098455e+00 -2.575997e-01 -1.704575e-01 3.686890e-01 1.085828e-01
<VARIANCE> 39
 1.117134e+01 2.147733e+01 2.409966e+01 3.445798e+01 4.117159e+01 5.044679e+01 6.065030e+01 5.108957e+01 5.319719e+01 5.187835e+01 5.861111e+01 4.859345e+01 1.886544e+00 2.060846e+00 2.277246e+00 1.914596e+00 2.656594e+00 2.537206e+00 2.666268e+00 3.107178e+00 3.348590e+00 3.939205e+00 3.066402e+00 3.064860e+00 2.518759e+00 2.899688e-01 3.885131e-01 3.599809e-01 5.827585e-01 5.754015e-01 6.967871e-01 6.950613e-01 8.894490e-01 8.318755e-01 9.386755e-01 8.421710e-01 8.934261e-01 7.205960e-01 3.226048e-02
<GCONST> 1.185974e+02
<STATE> 4
<MEAN> 39
 5.894718e+00 3.533962e+00 2.531950e+00 5.795597e+00 4.697995e-01 -2.331576e+00 -1.378326e+00 -8.787016e+00 -8.466080e+00 4.894639e-01 1.134335e-01 -4.171124e+00 -4.164569e+00 -1.188421e-01 -5.483595e-01 -3.308386e-01 -8.999965e-01 -2.379959e-01 5.119230e-01 -9.499272e-02 1.013209e+00 1.229276e+00 -3.956881e-01 -2.684411e-01 4.817065e-01 1.192908e-01 -6.130348e-02 -3.646790e-01 -2.307316e-01 -5.459026e-01 -1.406617e-01 2.367975e-01 3.094254e-03 6.351337e-01 5.847725e-01 -1.032327e-01 -3.415609e-02 2.097051e-01 7.280755e-02
<VARIANCE> 39
 1.114573e+01 1.984666e+01 2.561361e+01 3.419656e+01 3.657865e+01 4.867857e+01 5.136728e+01 4.664747e+01 5.233048e+01 4.577967e+01 5.298586e+01 4.191305e+01 2.010289e+00 1.243311e+00 2.178412e+00 2.294423e+00 3.300734e+00 2.768974e+00 2.591812e+00 3.091774e+00 3.747863e+00 4.513833e+00 2.978404e+00 3.140292e+00 2.642640e+00 2.042823e-01 2.155258e-01 2.943100e-01 4.441710e-01 4.617097e-01 5.276833e-01 4.738050e-01 5.428101e-01 6.214538e-01 8.072930e-01 5.903082e-01 6.300622e-01 4.901910e-01 1.739112e-02
<GCONST> 1.130884e+02
<TRANSP> 5
 0.000000e+00 1.000000e+00 0.000000e+00 0.000000e+00 0.000000e+00
 0.000000e+00 4.651050e-01 5.348950e-01 0.000000e+00 0.000000e+00
 0.000000e+00 0.000000e+00 4.046531e-01 5.953469e-01 0.000000e+00
 0.000000e+00 0.000000e+00 0.000000e+00 6.607338e-01 3.392662e-01
 0.000000e+00 0.000000e+00 0.000000e+00 0.000000e+00 0.000000e+00
<ENDHMM>
~h "n"
<BEGINHMM>
<NUMSTATES> 5
<STATE> 2
<MEAN> 39
 4.775100e+00 -3.253768e+00 3.305165e+00 -2.960140e+00 -5.732657e+00 -4.739869e-02 -5.447491e-01 1.868288e+00 -2.307780e+00 -2.391224e+00 -1.554246e+00 -1.381029e+00 -2.321619e+00 1.048414e-01 4.493882e-01 -3.223552e-02 4.128708e-01 1.937866e-01 -1.491613e-01 7.498147e-03 -3.104746e-01 -2.894906e-01 -7.773687e-03 -1.459980e-01 -9.076496e-02 -1.366608e-01 -1.466619e-02 2.336691e-01 -2.497810e-02 2.118757e-01 1.068582e-01 -1.178459e-01 4.600516e-02 -2.920338e-01 -8.696079e-02 1.347260e-01 -4.100820e-02 2.331579e-04 -6.440794e-02
<VARIANCE> 39
 1.445325e+01 3.137751e+01 4.786553e+01 4.926236e+01 5.292599e+01 4.539502e+01 4.849333e+01 6.537749e+01 5.327754e+01 4.214673e+01 3.730337e+01 3.063175e+01 2.166492e+00 5.266410e-01 1.278726e+00 1.658201e+00 1.707467e+00 2.131467e+00 2.121695e+00 2.454358e+00 2.957010e+00 2.527330e+00 2.112066e+00 1.860034e+00 1.620706e+00 6.740776e-02 1.281988e-01 2.470811e-01 2.620556e-01 3.280710e-01 3.646499e-01 3.800026e-01 4.685835e-01 7.282609e-01 5.172706e-01 4.227954e-01 3.602501e-01 3.104299e-01 1.059127e-02
<GCONST> 1.039383e+02
<STATE> 3
<MEAN> 39
 6.053355e+00 -1.162742e+00 1.551885e+00 1.589219e-01 -3.143289e+00 -2.120410e+00 -1.943903e+00 1.579392e-01 -2.253232e+00 -1.889448e+00 -2.643760e+00 -2.099898e+00 -3.081285e+00 4.526963e-02 1.875849e+00 3.321425e-01 1.609064e+00 5.661098e-02 -6.161250e-01 1.030351e+00 -2.668971e+00 -1.341272e+00 1.118798e+00 -6.221374e-01 -2.010383e-01 -4.791577e-01 -1.743396e-01 1.763972e-01 5.997762e-02 4.258046e-02 2.026129e-03 1.165416e-01 2.404440e-01 -3.448943e-01 -8.053046e-02 1.265164e-01 -5.697723e-03 7.719226e-02 -2.904000e-02
<VARIANCE> 39
 1.286261e+01 3.172927e+01 4.193901e+01 4.382659e+01 4.491309e+01 4.349455e+01 4.731191e+01 7.037969e+01 6.119527e+01 4.614257e+01 3.966390e+01 3.684282e+01 2.257991e+00 1.095723e+00 2.559543e+00 3.846705e+00 3.482699e+00 4.454479e+00 4.651464e+00 4.987602e+00 6.716954e+00 6.026061e+00 4.409597e+00 3.985196e+00 3.437752e+00 1.244631e-01 1.978002e-01 3.962390e-01 4.673341e-01 5.454017e-01 6.162102e-01 6.030878e-01 7.551440e-01 1.225061e+00 8.982838e-01 6.958657e-01 5.962344e-01 5.200589e-01 1.796605e-02
<GCONST> 1.202821e+02
<STATE> 4
<MEAN> 39
 5.569496e+00 5.276090e+00 3.131750e+00 4.843165e+00 -3.597366e+00 -2.867582e+00 2.881346e+00 -9.393928e+00 -7.009004e+00 1.797864e+00 -4.709163e+00 -2.039686e+00 -4.518287e+00 -6.121854e-01 5.701040e-01 1.632688e-01 2.282734e-01 5.016635e-01 2.542393e-01 4.070090e-02 -1.904961e-01 2.414900e-02 -1.651923e-01 5.720164e-02 1.374214e-01 -2.257175e-01 -3.519380e-01 -6.183606e-01 -1.124173e-01 -5.398564e-01 1.862166e-01 2.365401e-01 -4.207599e-01 1.097592e+00 6.337039e-01 -3.839732e-01 3.274907e-01 1.255068e-01 9.247952e-02
<VARIANCE> 39
 1.254600e+01 2.529997e+01 2.428624e+01 3.368071e+01 3.843443e+01 3.821688e+01 4.696287e+01 5.602359e+01 5.145678e+01 4.936430e+01 4.302715e+01 4.086938e+01 2.272209e+00 1.705418e+00 3.479363e+00 2.499235e+00 3.460009e+00 3.583309e+00 3.231343e+00 4.452261e+00 8.358198e+00 5.324443e+00 4.119063e+00 3.427761e+00 2.799928e+00 1.802481e-01 3.802937e-01 5.080111e-01 5.753119e-01 5.999184e-01 7.393575e-01 7.219700e-01 8.391224e-01 1.065454e+00 9.858392e-01 8.522190e-01 7.095363e-01 6.298340e-01 2.548380e-02
<GCONST> 1.209874e+02
<TRANSP> 5
 0.000000e+00 1.000000e+00 0.000000e+00 0.000000e+00 0.000000e+00
 0.000000e+00 6.586053e-01 3.413947e-01 0.000000e+00 0.000000e+00
 0.000000e+00 0.000000e+00 4.726317e-01 5.273682e-01 0.000000e+00
 0.000000e+00 0.000000e+00 0.000000e+00 6.746834e-01 3.253166e-01
 0.000000e+00 0.000000e+00 0.000000e+00 0.000000e+00 0.000000e+00
<ENDHMM>
~h "p"
<BEGINHMM>
<NUMSTATES> 5
<STATE> 2
<MEAN> 39
 -5.441554e+00 5.531815e+00 5.904518e-01 6.941436e+00 5.054152e+00 4.218536e+00 2.775949e+00 -1.332447e+00 5.631201e-01 5.929309e-01 7.817538e-01 2.449307e-01 -8.871106e+00 -1.599683e+00 -2.838722e-01 -1.296377e-01 6.659290e-01 3.792674e-01 4.305159e-01 7.287245e-01 5.999432e-01 7.570733e-01 3.928383e-01 2.684698e-01 4.341786e-01 -6.224083e-01 4.431926e-01 -5.829475e-01 -1.704975e-01 -5.966101e-01 -3.008409e-01 -3.345466e-01 -1.889503e-01 1.215858e-01 1.001186e-01 9.739543e-02 5.328261e-02 1.146634e-02 4.531153e-01
<VARIANCE> 39
 4.542615e+01 2.265181e+01 2.477596e+01 3.425882e+01 2.308022e+01 2.638627e+01 2.969126e+01 3.037092e+01 3.312615e+01 2.619175e+01 2.471955e+01 2.084417e+01 6.411001e+00 6.368451e+00 5.110268e+00 3.438792e+00 5.747054e+00 3.382404e+00 3.812249e+00 3.633409e+00 4.020118e+00 4.079549e+00 3.262074e+00 3.026001e+00 2.450520e+00 1.498301e+00 1.081795e+00 7.110916e-01 6.310407e-01 8.496454e-01 6.477559e-01 6.776394e-01 6.776037e-01 7.273093e-01 7.250056e-01 6.383987e-01 5.761734e-01 4.656277e-01 1.577201e-01
<GCONST> 1.237932e+02
<STATE> 3
<MEAN> 39
 -6.276749e+00 -8.528653e-01 -1.577326e+00 3.717088e+00 4.743450e+00 2.982814e+00 4.123318e+00 1.467186e+00 4.239294e+00 2.629749e+00 2.377988e+00 1.877413e+00 -6.500577e+00 1.168959e+00 -1.423751e+00 -5.968422e-01 -1.169999e+00 -1.917088e-01 -4.687211e-01 -7.128819e-02 8.374004e-02 1.784812e-01 -1.087246e-02 -1.711208e-01 -7.024872e-02 9.506666e-01 5.944191e-01 3.315420e-01 1.631987e-02 -7.432865e-02 -1.357211e-01 -5.488100e-02 -3.232377e-01 -3.386033e-01 -4.918846e-01 -3.062760e-01 -2.841103e-01 -2.288658e-01 2.340092e-02
<VARIANCE> 39
 1.673786e+01 2.402366e+01 2.438752e+01 3.056406e+01 2.402932e+01 2.814291e+01 2.794919e+01 2.843529e+01 2.684095e+01 2.247337e+01 2.243547e+01 1.726543e+01 5.503690e+00 2.569445e+00 2.524938e+00 2.366954e+00 2.858043e+00 2.626087e+00 3.100456e+00 3.026139e+00 3.304373e+00 3.196769e+00 2.565981e+00 2.313539e+00 1.938034e+00 5.481454e-01 6.253030e-01 5.121537e-01 4.840426e-01 5.952292e-01 5.822538e-01 6.478249e-01 6.680384e-01 6.887544e-01 6.634012e-01 5.465422e-01 5.106957e-01 4.173003e-01 1.314177e-01
<GCONST> 1.140102e+02
<STATE> 4
<MEAN> 39
 -2.807033e+00 -1.623769e+00 -1.968412e+00 1.214502e+00 3.927332e+00 2.461302e+00 3.931341e+00 -2.140093e-01 2.149343e+00 1.159220e+00 2.781064e-01 8.088244e-01 -5.192763e+00 2.768797e+00 1.200537e-02 -2.162978e-01 -1.491225e+00 -1.112728e+00 -6.145103e-01 -1.358326e+00 -6.898575e-01 -1.059581e+00 -6.702013e-01 -6.095930e-01 -4.866012e-01 9.392185e-01 3.943672e-01 2.338272e-01 2.161109e-02 -1.008454e-01 -3.280236e-01 -7.370954e-02 -4.909172e-01 -4.085382e-03 -1.684791e-01 -5.330453e-02 9.172776e-02 -5.300378e-02 3.154808e-02
<VARIANCE> 39
 2.766637e+01 3.461500e+01 4.297125e+01 4.648140e+01 4.170459e+01 4.050152e+01 4.362130e+01 3.999892e+01 3.583543e+01 3.012963e+01 2.782836e+01 2.184397e+01 3.648451e+00 5.335251e+00 3.868654e+00 4.784233e+00 5.453030e+00 4.963185e+00 5.563314e+00 5.368364e+00 4.852274e+00 4.779613e+00 3.664576e+00 4.032183e+00 2.649882e+00 5.942020e-01 6.157606e-01 7.101120e-01 6.070366e-01 7.585832e-01 8.028337e-01 7.990565e-01 8.640471e-01 8.503001e-01 8.779231e-01 7.286031e-01 6.483927e-01 5.112048e-01 7.899299e-02
<GCONST> 1.268603e+02
<TRANSP> 5
 0.000000e+00 1.000000e+00 0.000000e+00 0.000000e+00 0.000000e+00
 0.000000e+00 7.777774e-01 2.222226e-01 0.000000e+00 0.000000e+00
 0.000000e+00 0.000000e+00 6.316038e-01 3.683961e-01 0.000000e+00
 0.000000e+00 0.000000e+00 0.000000e+00 3.417493e-01 6.582507e-01
 0.000000e+00 0.000000e+00 0.000000e+00 0.000000e+00 0.000000e+00
<ENDHMM>
~h "r"
<BEGINHMM>
<NUMSTATES> 5
<STATE> 2
<MEAN> 39
 5.141134e+00 -4.735653e+00 -6.320706e+00 2.763152e+00 2.723953e+00 -2.853229e+00 -4.452870e+00 1.737667e+00 1.855913e+00 2.423872e-01 8.212504e-01 8.915628e-01 -3.050803e+00 2.303433e+00 -1.480237e-02 -9.044843e-01 2.455328e-01 3.277373e-01 -1.099425e+00 -1.983859e+00 -1.217738e-01 3.425680e-01 -1.550658e-01 -3.458492e-01 1.151195e-01 3.472651e-01 1.311527e-01 1.485272e-01 2.441503e-01 -2.616535e-02 -2.578389e-01 -6.634276e-05 -7.395986e-02 2.233350e-02 -1.320558e-01 -1.609865e-01 1.483785e-02 2.418353e-02 1.966649e-02
<VARIANCE> 39
 6.996394e+01 3.882419e+01 6.209315e+01 4.075748e+01 5.035207e+01 6.053990e+01 7.148917e+01 6.903374e+01 5.428806e+01 4.253698e+01 3.398048e+01 2.974998e+01 5.103603e+00 7.616073e+00 3.283717e+00 4.598102e+00 3.748165e+00 4.278583e+00 4.897385e+00 5.795444e+00 4.535973e+00 4.672948e+00 3.769066e+00 3.048575e+00 2.583194e+00 4.805265e-01 6.471804e-01 7.382338e-01 7.020904e-01 6.185067e-01 7.049278e-01 7.864349e-01 9.905055e-01 8.860887e-01 7.939924e-01 7.340581e-01 5.716361e-01 4.886613e-01 5.091554e-02
<GCONST> 1.297313e+02
<STATE> 3
<MEAN> 39
 1.158015e+01 -2.353620e+00 -9.353577e+00 2.317319e+00 4.039056e+00 -3.641362e+00 -9.312965e+00 -6.824919e-01 1.687686e+00 -6.172093e-01 5.022569e-01 1.863220e+00 -2.290189e+00 1.841293e+00 -4.211347e-01 -6.591815e-01 1.347990e-01 -1.246568e-01 -1.017003e+00 -1.914296e+00 4.869218e-01 4.466956e-01 -3.472323e-01 -1.420411e-01 1.719217e-01 4.005126e-01 -6.708078e-01 -2.338693e-01 5.543721e-01 5.244831e-02 -4.155443e-01 5.981809e-02 5.461096e-01 3.577195e-01 -6.976811e-02 -5.913228e-02 7.208360e-02 -6.403390e-02 -6.915369e-02
<VARIANCE> 39
 2.457559e+01 3.167340e+01 5.869587e+01 3.522911e+01 4.604491e+01 5.524598e+01 6.589384e+01 7.628709e+01 5.145383e+01 3.610469e+01 3.149608e+01 3.041107e+01 2.476691e+00 6.149417e+00 3.196625e+00 4.580795e+00 3.760751e+00 4.539550e+00 5.516422e+00 7.053924e+00 5.762710e+00 5.577991e+00 4.225734e+00 3.479250e+00 2.809799e+00 4.075486e-01 6.025290e-01 4.819943e-01 5.763535e-01 5.107911e-01 6.004402e-01 7.278430e-01 9.476392e-01 9.036315e-01 7.223742e-01 6.251821e-01 5.101626e-01 4.528596e-01 3.409495e-02
<GCONST> 1.258433e+02
<STATE> 4
<MEAN> 39
 1.242368e+01 -6.670931e+00 -7.641974e+00 4.140991e+00 9.734813e-01 -8.422406e+00 -1.225732e+01 5.907856e+00 3.530503e+00 -2.720282e+00 7.805201e-01 2.214581e+00 -1.373661e+00 -5.038478e-01 -3.301189e-01 1.622322e+00 1.750961e-01 -1.393972e+00 -3.070151e-01 1.026482e+00 4.725876e-01 -6.421636e-01 -3.564867e-01 1.059213e-01 -1.660563e-01 -2.354332e-02 -6.378645e-01 2.895969e-01 5.171799e-01 -2.606427e-01 -1.319624e-01 5.643339e-01 8.284081e-01 -4.146821e-01 -3.912862e-01 1.952263e-01 7.976449e-02 -1.840656e-01 -1.268826e-01
<VARIANCE> 39
 1.306558e+01 2.148540e+01 6.427460e+01 3.550591e+01 5.652575e+01 6.597542e+01 8.814618e+01 7.481715e+01 6.635580e+01 4.348986e+01 3.576752e+01 3.182410e+01 1.587713e+00 2.604402e+00 3.280479e+00 4.600798e+00 3.354534e+00 4.550613e+00 4.806272e+00 6.630707e+00 7.028902e+00 5.000692e+00 3.795391e+00 3.524924e+00 2.572336e+00 3.083551e-01 4.881988e-01 3.266637e-01 4.955354e-01 4.881602e-01 7.032110e-01 7.611278e-01 1.040281e+00 8.814502e-01 7.672009e-01 6.416698e-01 5.391399e-01 4.679840e-01 2.147091e-02
<GCONST> 1.234191e+02
<TRANSP> 5
 0.000000e+00 1.000000e+00 0.000000e+00 0.000000e+00 0.000000e+00
 0.000000e+00 2.029723e-01 7.970277e-01 0.000000e+00 0.000000e+00
 0.000000e+00 0.000000e+00 3.779455e-01 6.220545e-01 0.000000e+00
 0.000000e+00 0.000000e+00 0.000000e+00 6.344251e-01 3.655748e-01
 0.000000e+00 0.000000e+00 0.000000e+00 0.000000e+00 0.000000e+00
<ENDHMM>
~h "s"
<BEGINHMM>
<NUMSTATES> 5
<STATE> 2
<MEAN> 39
 -2.779428e+00 4.768706e+00 7.991006e-01 1.130169e+00 2.102246e+00 -3.081430e+00 9.448289e-01 -6.778291e-01 6.766935e-01 -3.635974e-01 -2.065252e+00 2.567803e-01 -3.696706e+00 -4.708210e+00 1.970803e+00 -3.409270e-01 6.920780e-01 2.090716e+00 8.277780e-01 1.732795e+00 6.131863e-01 3.791405e-01 -9.228853e-02 6.955435e-01 6.260303e-01 -1.987340e-01 -5.379351e-01 -3.088511e-01 -2.852131e-01 -1.936326e-01 3.503157e-02 3.162457e-01 4.127864e-02 2.809941e-01 7.615556e-02 1.461930e-01 2.709260e-01 6.680121e-02 1.337602e-01
<VARIANCE> 39
 7.271332e+01 4.044935e+01 4.285350e+01 4.303168e+01 5.311859e+01 4.638678e+01 4.774276e+01 4.182258e+01 3.950996e+01 4.082389e+01 3.335465e+01 2.667031e+01 3.691150e+00 5.096473e+00 4.598925e+00 5.472002e+00 6.430742e+00 5.302421e+00 6.423490e+00 6.434673e+00 5.976651e+00 4.947580e+00 4.583448e+00 4.802831e+00 3.744348e+00 4.155861e-01 1.029329e+00 6.933138e-01 6.217811e-01 7.031912e-01 8.089622e-01 7.275851e-01 8.560678e-01 7.697565e-01 6.666847e-01 7.511126e-01 6.045882e-01 5.243161e-01 4.891339e-02
<GCONST> 1.301303e+02
<STATE> 3
<MEAN> 39
 -1.727032e+01 7.496727e+00 -1.929762e+00 1.349371e+00 7.314701e+00 2.881686e-01 5.353451e+00 2.403727e+00 2.012363e+00 5.513732e-01 1.052617e+00 2.403317e+00 -3.258089e+00 -3.092159e+00 4.674005e-01 -1.023515e+00 -1.670115e-01 9.531190e-01 8.211268e-01 8.332878e-01 7.871458e-01 3.131181e-01 3.995191e-01 6.438897e-01 4.925193e-01 3.482758e-01 1.315128e+00 -3.702939e-01 2.172887e-01 -2.760262e-02 -5.575173e-01 -2.427805e-01 -5.299681e-01 -2.805867e-01 -1.614364e-01 6.371931e-03 -2.346072e-01 -1.860612e-01 4.792311e-04
<VARIANCE> 39
 1.882059e+01 2.673711e+01 3.545507e+01 4.686270e+01 3.672629e+01 3.932669e+01 3.363037e+01 3.033880e+01 2.875555e+01 2.301962e+01 2.799886e+01 1.856569e+01 2.219594e+00 4.177284e+00 2.394455e+00 2.743058e+00 2.788959e+00 2.708769e+00 3.137546e+00 3.021461e+00 2.771549e+00 2.868788e+00 2.658940e+00 2.306354e+00 1.777659e+00 1.445304e-01 3.808859e-01 5.118006e-01 5.523668e-01 6.608657e-01 5.777252e-01 7.088009e-01 6.468909e-01 6.049549e-01 5.652729e-01 5.393443e-01 5.095782e-01 4.285551e-01 4.676851e-02
<GCONST> 1.129283e+02
<STATE> 4
<MEAN> 39
 -1.858405e+01 7.648355e+00 -3.246799e+00 1.319952e+00 7.567017e+00 6.238482e-01 4.934514e+00 2.647172e+00 2.066358e+00 1.276120e+00 1.144658e+00 2.528759e+00 -2.890176e+00 5.976567e-01 -3.434590e-01 2.963451e-01 -5.198024e-02 -1.972648e-01 -3.830551e-02 -3.106684e-01 -1.061674e-01 4.662039e-02 -1.120014e-02 -8.439270e-02 -1.286483e-01 -1.424683e-01 6.635103e-01 -2.131818e-01 1.813804e-01 1.499332e-02 -2.075515e-01 -8.852538e-02 -1.951216e-01 -1.354336e-01 -2.024985e-02 -3.301391e-02 -7.900609e-02 -9.817836e-02 -1.017153e-01
<VARIANCE> 39
 1.389697e+01 2.383718e+01 2.987703e+01 5.163908e+01 3.639081e+01 3.933588e+01 3.225384e+01 2.725657e+01 2.719643e+01 2.085283e+01 2.675713e+01 1.663183e+01 2.045881e+00 2.548159e+00 1.590718e+00 1.681834e+00 1.726837e+00 1.995262e+00 2.155237e+00 2.029038e+00 1.906312e+00 1.739619e+00 1.625875e+00 1.471375e+00 1.353400e+00 1.766105e-01 4.042857e-01 2.744127e-01 3.089291e-01 3.903620e-01 3.840504e-01 4.390596e-01 4.501701e-01 3.968873e-01 3.783060e-01 3.564044e-01 3.371118e-01 2.910391e-01 3.523906e-02
<GCONST> 1.018059e+02
<TRANSP> 5
 0.000000e+00 1.000000e+00 0.000000e+00 0.000000e+00 0.000000e+00
 0.000000e+00 5.366455e-01 4.633545e-01 0.000000e+00 0.000000e+00
 0.000000e+00 0.000000e+00 5.242881e-01 4.757119e-01 0.000000e+00
 0.000000e+00 0.000000e+00 0.000000e+00 8.469195e-01 1.530805e-01
 0.000000e+00 0.000000e+00 0.000000e+00 0.000000e+00 0.000000e+00
<ENDHMM>
~h "t"
<BEGINHMM>
<NUMSTATES> 5
<STATE> 2
<MEAN> 39
 -5.608172e+00 3.785646e+00 1.600723e+00 5.264825e+00 3.040908e+00 1.930574e+00 1.444922e+00 -7.682255e-01 1.074147e+00 5.527027e-01 6.388450e-02 1.476593e-01 -7.339521e+00 -9.891770e-01 -5.376602e-01 -3.426714e-01 1.225552e-01 5.055270e-01 6.188400e-01 5.786247e-01 1.978819e-01 3.631960e-01 2.494413e-01 4.250463e-01 3.239614e-01 -3.831401e-01 1.453728e-01 -3.475094e-01 -8.360133e-02 -6.237119e-01 -3.352705e-01 -3.203828e-01 -4.539993e-02 1.408285e-01 -2.520202e-02 1.125671e-02 4.640669e-02 1.121841e-01 3.859905e-01
<VARIANCE> 39
 6.598660e+01 4.424701e+01 4.144130e+01 4.894238e+01 5.347327e+01 4.746907e+01 4.229870e+01 4.035482e+01 4.217229e+01 3.206912e+01 3.272586e+01 2.478016e+01 1.050626e+01 5.757481e+00 6.480513e+00 4.569674e+00 7.737599e+00 5.919905e+00 5.361426e+00 4.545154e+00 5.141840e+00 4.668794e+00 3.628401e+00 3.490585e+00 2.884264e+00 1.447364e+00 6.994081e-01 9.308627e-01 7.587327e-01 1.073191e+00 9.823942e-01 9.529433e-01 8.017223e-01 8.646347e-01 7.866392e-01 6.930301e-01 6.413242e-01 5.105940e-01 1.968627e-01
<GCONST> 1.337002e+02
<STATE> 3
<MEAN> 39
 -8.134717e+00 -1.180909e+00 4.684130e-02 -1.371760e+00 1.742199e+00 1.031938e+00 3.018231e+00 1.072447e+00 2.145587e+00 1.581181e+00 1.937832e+00 2.301504e+00 -4.274946e+00 -2.652801e-01 -1.308363e-02 2.404238e-01 -8.030839e-01 -7.086821e-01 -1.080726e+00 1.847349e-01 3.155717e-01 -7.394947e-03 -1.011074e-01 7.769179e-03 3.924090e-01 6.175244e-01 6.384912e-01 3.494846e-01 2.575658e-01 5.407134e-01 -1.272182e-01 -1.809401e-01 -2.819734e-01 -1.366535e-01 -2.349737e-01 -1.924002e-01 -3.196015e-01 -2.648040e-01 -1.347570e-01
<VARIANCE> 39
 6.598569e+01 4.399852e+01 4.348123e+01 4.532372e+01 4.934250e+01 4.430775e+01 4.384280e+01 3.910894e+01 3.617816e+01 3.044347e+01 3.262927e+01 2.616956e+01 4.827005e+00 3.580773e+00 3.570399e+00 3.323663e+00 5.331794e+00 3.744659e+00 3.921525e+00 3.707537e+00 3.834732e+00 3.448863e+00 2.958266e+00 2.774800e+00 2.366658e+00 9.776034e-01 8.325111e-01 8.936329e-01 7.735141e-01 1.071008e+00 9.618005e-01 8.919043e-01 8.647814e-01 8.807063e-01 7.635331e-01 6.925160e-01 6.885523e-01 5.469895e-01 1.517450e-01
<GCONST> 1.282397e+02
<STATE> 4
<MEAN> 39
 -5.879473e+00 2.238159e-01 1.952566e+00 1.163087e+00 9.533366e-02 -1.897001e+00 2.816999e+00 7.895744e-01 1.196525e+00 2.442356e-01 4.120249e-02 1.765147e+00 -4.476117e+00 2.059933e+00 -2.962714e-02 5.970405e-01 4.560885e-01 -7.960835e-01 -8.343115e-01 -1.053033e+00 -2.804126e-01 -5.878515e-01 -5.166651e-01 -6.012968e-01 -4.189615e-01 1.156427e-01 5.794046e-01 -1.107966e-01 -9.352297e-02 -6.086618e-02 -7.212345e-02 1.645549e-01 -4.273968e-01 -5.796841e-02 -9.586160e-02 1.460306e-02 2.988173e-02 -1.866817e-01 4.097565e-02
<VARIANCE> 39
 6.509910e+01 3.284914e+01 4.041071e+01 3.804232e+01 4.627959e+01 4.272301e+01 4.996540e+01 4.224025e+01 3.831564e+01 3.187027e+01 3.102053e+01 2.539331e+01 4.678695e+00 6.961123e+00 3.750299e+00 4.388651e+00 5.135611e+00 5.596885e+00 5.131402e+00 5.460696e+00 4.472837e+00 4.310917e+00 3.841728e+00 3.960636e+00 2.951795e+00 6.038783e-01 9.007278e-01 5.901513e-01 6.515041e-01 8.000717e-01 8.349638e-01 8.469921e-01 9.779571e-01 8.805886e-01 7.572001e-01 6.841014e-01 6.759231e-01 5.498972e-01 8.680509e-02
<GCONST> 1.290678e+02
<TRANSP> 5
 0.000000e+00 1.000000e+00 0.000000e+00 0.000000e+00 0.000000e+00
 0.000000e+00 6.458328e-01 3.541672e-01 0.000000e+00 0.000000e+00
 0.000000e+00 0.000000e+00 4.376077e-01 5.623923e-01 0.000000e+00
 0.000000e+00 0.000000e+00 0.000000e+00 3.857786e-01 6.142214e-01
 0.000000e+00 0.000000e+00 0.000000e+00 0.000000e+00 0.000000e+00
<ENDHMM>
~h "v"
<BEGINHMM>
<NUMSTATES> 5
<STATE> 2
<MEAN> 39
 3.877736e+00 3.327402e+00 -1.222323e+00 2.960015e+00 2.166829e+00 -8.374002e-01 -3.486755e+00 -4.614698e+00 -1.282209e+00 -2.418436e-01 2.820504e-01 -9.407672e-01 -4.575896e+00 -2.401690e+00 1.754532e+00 4.217121e-01 1.437406e+00 1.328636e+00 8.450752e-01 1.067351e+00 -5.603898e-01 -4.927957e-01 -5.758409e-01 -3.686104e-01 1.831456e-01 -8.444125e-01 -1.421524e-01 -5.668028e-01 1.173297e-01 -3.317835e-01 -3.516903e-01 -5.670115e-02 1.322340e-01 5.268953e-01 2.273911e-01 9.104201e-02 -7.709788e-02 1.883887e-02 1.554791e-01
<VARIANCE> 39
 3.326785e+01 2.718375e+01 3.374229e+01 3.380503e+01 2.569807e+01 3.253763e+01 3.567608e+01 3.047727e+01 2.814211e+01 2.718862e+01 2.453626e+01 2.534287e+01 3.957921e+00 3.358353e+00 3.114859e+00 3.125157e+00 3.453710e+00 3.124675e+00 3.892040e+00 4.577602e+00 5.107735e+00 3.560553e+00 3.277925e+00 3.218148e+00 2.494988e+00 2.187894e-01 6.100154e-01 5.233807e-01 5.157672e-01 5.664114e-01 5.474046e-01 5.542890e-01 7.244944e-01 6.279544e-01 6.016163e-01 5.790085e-01 5.399452e-01 4.442544e-01 5.574499e-02
<GCONST> 1.173682e+02
<STATE> 3
<MEAN> 39
 -4.145072e+00 4.273682e+00 4.679475e-01 5.749539e+00 4.272804e+00 1.665180e+00 5.301780e-01 -2.722436e+00 -8.785605e-01 -1.119356e+00 -7.765831e-01 -3.193570e-01 -6.309197e+00 -8.344553e-01 -5.649744e-01 -3.150412e-01 -3.119159e-01 -1.898633e-01 -1.219265e-01 4.864741e-01 6.472465e-01 5.035048e-01 2.277990e-01 1.342204e-01 2.417083e-01 9.449799e-02 1.189902e+00 -6.033872e-01 -2.350958e-01 -7.405212e-01 -6.286764e-01 -4.959005e-01 -5.169433e-01 1.273806e-01 1.274917e-01 2.315440e-01 1.891534e-01 -9.632649e-03 4.083452e-01
<VARIANCE> 39
 4.945541e+01 2.580446e+01 2.859297e+01 3.077018e+01 2.450844e+01 2.791753e+01 3.608394e+01 3.095858e+01 2.703624e+01 2.300052e+01 2.225109e+01 2.130708e+01 3.804056e+00 4.866521e+00 2.230655e+00 2.049202e+00 2.349177e+00 2.089395e+00 2.589535e+00 2.799468e+00 2.593693e+00 2.409338e+00 2.195032e+00 2.088877e+00 1.739866e+00 3.203037e-01 7.453752e-01 6.995292e-01 6.919731e-01 6.998249e-01 6.173250e-01 7.441304e-01 8.168968e-01 8.621063e-01 7.428178e-01 6.290348e-01 5.808080e-01 4.617580e-01 4.861025e-02
<GCONST> 1.149243e+02
<STATE> 4
<MEAN> 39
 -1.344349e+00 2.716730e+00 -1.101365e+00 3.023868e+00 2.186604e+00 -5.334905e-01 -7.466902e-01 -2.559100e+00 -3.269955e-01 -3.361716e-01 1.904299e-01 1.837821e-01 -4.944174e+00 1.484255e+00 -1.103977e+00 -3.600205e-01 -1.280761e+00 -1.043675e+00 -8.847803e-01 -6.363675e-01 5.725484e-01 3.411968e-01 3.701954e-01 3.032620e-01 1.245457e-01 6.785439e-01 6.787062e-01 -3.171328e-01 1.070483e-01 -3.263303e-01 -3.025085e-01 -1.043589e-01 -3.402894e-01 1.371021e-01 -8.180964e-03 5.944259e-02 9.725289e-03 -7.187451e-02 1.827167e-01
<VARIANCE> 39
 5.855780e+01 2.656735e+01 3.485611e+01 2.983176e+01 2.658171e+01 2.992261e+01 3.866815e+01 3.354478e+01 2.840637e+01 2.431529e+01 2.276226e+01 2.223375e+01 3.608005e+00 6.468308e+00 3.353315e+00 3.923671e+00 4.050159e+00 3.849309e+00 4.165896e+00 4.983938e+00 4.332125e+00 3.931967e+00 3.097571e+00 2.667241e+00 2.228026e+00 4.596431e-01 6.196479e-01 6.357198e-01 4.981024e-01 5.868750e-01 6.033045e-01 6.606942e-01 7.709509e-01 7.538866e-01 6.540675e-01 5.706357e-01 5.281592e-01 4.446988e-01 4.244268e-02
<GCONST> 1.198446e+02
<TRANSP> 5
 0.000000e+00 1.000000e+00 0.000000e+00 0.000000e+00 0.000000e+00
 0.000000e+00 5.796604e-01 4.203397e-01 0.000000e+00 0.000000e+00
 0.000000e+00 0.000000e+00 4.413908e-01 5.586092e-01 0.000000e+00
 0.000000e+00 0.000000e+00 0.000000e+00 1.771801e-01 8.228199e-01
 0.000000e+00 0.000000e+00 0.000000e+00 0.000000e+00 0.000000e+00
<ENDHMM>
~h "w"
<BEGINHMM>
<NUMSTATES> 5
<STATE> 2
<MEAN> 39
 6.998477e+00 4.544659e+00 -3.864997e+00 -4.089216e+00 -1.134808e+00 3.199563e+00 -2.738555e-01 -2.709827e+00 -4.237557e+00 -4.512841e-01 1.037114e+00 2.309844e-01 -4.183547e+00 2.549250e+00 7.258666e-01 -1.288124e-01 -2.082592e+00 -1.607147e+00 5.001988e-01 -2.393059e-01 -5.954959e-01 -1.307970e+00 -4.084935e-01 3.180944e-01 9.482472e-02 6.402854e-01 -4.111627e-01 -4.382404e-01 1.182879e-01 5.115800e-02 2.942878e-02 -1.304448e-01 -1.607624e-01 2.429943e-01 3.156787e-01 2.020005e-01 2.504875e-02 -1.632271e-02 4.100774e-02
<VARIANCE> 39
 4.660898e+01 4.365459e+01 3.289115e+01 5.365435e+01 5.582417e+01 4.072198e+01 5.067974e+01 4.298521e+01 4.939069e+01 3.991201e+01 3.384774e+01 2.750519e+01 4.566177e+00 4.524378e+00 4.485022e+00 4.074522e+00 5.591019e+00 5.039972e+00 5.028197e+00 7.386692e+00 5.506303e+00 5.256206e+00 5.313306e+00 4.422014e+00 3.098530e+00 7.408891e-01 6.563786e-01 8.522638e-01 6.974543e-01 1.058421e+00 1.021701e+00 8.608523e-01 1.031150e+00 1.009734e+00 9.956652e-01 9.616849e-01 7.611546e-01 5.979630e-01 7.220062e-02
<GCONST> 1.324179e+02
<STATE> 3
<MEAN> 39
 1.161753e+01 5.748937e+00 -3.593937e+00 -1.094087e+01 -7.169951e+00 5.141320e+00 9.727862e-01 -2.123879e+00 -5.993370e+00 -2.178240e+00 1.845172e+00 7.339010e-01 -2.283824e+00 1.228288e-01 -9.438856e-01 -3.057968e-01 -4.748132e-01 2.544971e-01 4.901094e-01 -5.051821e-01 -1.742805e-01 1.757873e-01 6.397908e-01 5.656385e-01 4.064078e-02 2.671622e-01 -3.159844e-01 -4.395649e-01 2.888987e-02 5.299832e-01 4.436447e-01 -2.781685e-01 -3.671249e-01 2.051039e-02 3.947167e-01 3.528432e-01 -2.177921e-02 -1.805991e-01 -2.990542e-02
<VARIANCE> 39
 1.094241e+01 2.838516e+01 2.678367e+01 4.269471e+01 4.717755e+01 4.549408e+01 4.459817e+01 4.349221e+01 4.812888e+01 4.189805e+01 3.893246e+01 3.027963e+01 1.778969e+00 5.779079e-01 3.353873e+00 1.848028e+00 2.872544e+00 4.116003e+00 3.653263e+00 4.618599e+00 3.529235e+00 3.407582e+00 4.496911e+00 3.868771e+00 2.845605e+00 1.319317e-01 2.607787e-01 2.816852e-01 3.433543e-01 5.561816e-01 5.162947e-01 7.896660e-01 6.843109e-01 7.138426e-01 8.595313e-01 6.661642e-01 7.227938e-01 6.056891e-01 2.691294e-02
<GCONST> 1.150131e+02
<STATE> 4
<MEAN> 39
 1.037136e+01 -2.834643e+00 -4.499273e+00 -6.860602e+00 -7.241643e-01 3.390341e+00 -7.455651e+00 -3.815780e+00 -2.425088e+00 5.715840e+00 3.800286e+00 -1.809556e+00 -1.333723e+00 -8.079962e-01 -1.782006e+00 1.009431e+00 1.808529e+00 2.627346e-01 -2.410060e+00 -1.417514e+00 1.516100e+00 2.153327e+00 5.418184e-01 -1.173725e+00 -1.025263e+00 1.685963e-01 -3.206647e-01 4.742643e-01 4.655429e-01 2.298937e-01 -4.707421e-01 -3.973074e-01 7.576416e-01 5.245228e-01 -3.433824e-04 -8.840890e-01 -5.053722e-01 2.282792e-01 -1.315410e-01
<VARIANCE> 39
 1.320283e+01 2.528234e+01 3.787602e+01 5.196735e+01 4.039616e+01 7.145892e+01 6.273960e+01 5.040541e+01 5.784740e+01 6.279753e+01 6.517799e+01 3.904771e+01 1.702817e+00 7.081681e-01 1.815176e+00 3.170244e+00 3.005419e+00 4.530963e+00 4.461217e+00 5.640925e+00 5.000631e+00 4.144938e+00 5.910920e+00 3.734792e+00 3.635222e+00 6.754907e-02 2.463877e-01 3.371922e-01 3.836904e-01 6.700450e-01 7.048313e-01 1.067183e+00 9.836589e-01 9.654368e-01 1.099322e+00 9.012064e-01 1.032899e+00 7.430350e-01 2.014798e-02
<GCONST> 1.212737e+02
<TRANSP> 5
 0.000000e+00 1.000000e+00 0.000000e+00 0.000000e+00 0.000000e+00
 0.000000e+00 5.991064e-01 4.008936e-01 0.000000e+00 0.000000e+00
 0.000000e+00 0.000000e+00 7.349810e-01 2.650191e-01 0.000000e+00
 0.000000e+00 0.000000e+00 0.000000e+00 5.174845e-01 4.825154e-01
 0.000000e+00 0.000000e+00 0.000000e+00 0.000000e+00 0.000000e+00
<ENDHMM>
~h "y"
<BEGINHMM>
<NUMSTATES> 5
<STATE> 2
<MEAN> 39
 -1.368316e+00 3.841136e+00 1.506677e+01 -1.356511e+00 -5.272031e+00 -4.958640e-01 -2.901162e+00 -3.589319e+00 -5.964449e+00 -2.538016e+00 -7.872577e-01 -3.184112e-01 -3.776603e+00 1.300918e+00 -2.729815e-01 1.927608e+00 -5.076212e-01 -1.827353e+00 -3.948794e-01 -1.102143e+00 -1.038992e-01 -1.239444e+00 -6.071263e-01 2.463781e-01 -2.284414e-01 3.747111e-01 7.112576e-02 -3.898358e-01 -5.229996e-01 1.533078e-01 -8.236760e-02 -1.556752e-01 9.855124e-02 3.111358e-01 1.033060e-01 1.696115e-01 2.026111e-01 2.538488e-02 3.427177e-02
<VARIANCE> 39
 3.034907e+01 3.421228e+01 3.804961e+01 5.114491e+01 3.863560e+01 4.501419e+01 4.028821e+01 4.449794e+01 3.538889e+01 4.034307e+01 2.924704e+01 2.568166e+01 2.528605e+00 5.940305e+00 3.467481e+00 4.247542e+00 4.855989e+00 5.670763e+00 6.161925e+00 4.694180e+00 4.750532e+00 4.947294e+00 4.762124e+00 3.475648e+00 2.619318e+00 3.201826e-01 4.614059e-01 4.185039e-01 4.931725e-01 6.120323e-01 7.634044e-01 7.042637e-01 6.442688e-01 6.860464e-01 6.176790e-01 5.669739e-01 4.708134e-01 3.803099e-01 2.567837e-02
<GCONST> 1.221904e+02
<STATE> 3
<MEAN> 39
 2.107612e+00 -5.950890e-01 1.689450e+01 -1.862401e+00 -1.171882e+01 -1.987475e+00 -3.652467e+00 -1.914818e+00 -9.063233e+00 -1.769455e+00 1.466102e+00 -1.043919e+00 -2.424287e+00 9.404478e-01 -1.382966e+00 -4.568835e-01 6.046151e-01 -1.187736e+00 -1.401455e+00 -2.001762e-01 1.321437e+00 -4.340945e-01 -3.342982e-02 8.374540e-01 1.901741e-01 3.432370e-01 -1.893622e-01 1.404443e-01 -9.354205e-01 3.339626e-01 8.606637e-01 -1.162270e-01 9.118239e-02 1.574826e-01 5.795876e-01 4.202584e-02 -1.365075e-01 8.883309e-02 -9.760766e-02
<VARIANCE> 39
 1.559390e+01 2.263379e+01 3.694548e+01 5.964953e+01 2.671212e+01 5.000698e+01 3.794365e+01 4.666951e+01 3.848278e+01 6.522533e+01 4.043761e+01 2.873808e+01 1.470477e+00 1.667889e+00 1.706741e+00 3.571240e+00 3.036989e+00 2.888295e+00 4.041286e+00 4.380514e+00 4.116352e+00 3.448210e+00 3.562264e+00 2.420938e+00 2.007004e+00 8.317752e-02 4.405745e-01 3.082989e-01 4.350858e-01 6.341949e-01 6.483751e-01 8.213454e-01 7.923738e-01 7.283866e-01 7.496900e-01 7.652172e-01 5.499587e-01 4.166260e-01 1.584698e-02
<GCONST> 1.149335e+02
<STATE> 4
<MEAN> 39
 3.658286e+00 -2.260971e+00 1.393180e+01 1.557384e+00 -1.121198e+01 -5.626784e+00 -4.673559e+00 7.247806e-01 -8.032112e+00 -3.480760e+00 2.846151e+00 1.496891e-01 -2.109550e+00 4.622085e-01 -3.321576e-01 -1.077500e+00 5.210242e-01 5.142539e-01 -7.255617e-01 -4.490926e-01 5.490974e-01 5.300832e-01 -1.218037e-01 -5.871402e-02 1.434595e-01 3.923219e-02 -4.029908e-02 1.696142e-01 -2.225062e-01 -6.466271e-02 3.834945e-01 1.814723e-01 -5.677532e-02 -1.802185e-01 2.677843e-01 8.530705e-02 -1.994901e-01 -4.927723e-02 -5.032759e-02
<VARIANCE> 39
 1.344695e+01 2.213931e+01 3.898638e+01 4.832008e+01 2.847333e+01 4.772909e+01 4.604857e+01 5.178470e+01 4.432131e+01 6.145122e+01 3.501457e+01 2.498774e+01 1.693686e+00 5.162474e-01 7.328427e-01 2.119208e+00 1.162144e+00 1.962498e+00 1.948173e+00 2.194315e+00 2.178974e+00 2.493325e+00 1.688474e+00 1.507941e+00 1.279338e+00 3.397621e-02 1.319474e-01 1.736803e-01 2.308557e-01 2.667709e-01 3.849193e-01 4.512524e-01 4.021304e-01 4.544058e-01 3.700226e-01 3.820799e-01 2.959185e-01 2.537709e-01 7.437352e-03
<GCONST> 9.720406e+01
<TRANSP> 5
 0.000000e+00 1.000000e+00 0.000000e+00 0.000000e+00 0.000000e+00
 0.000000e+00 6.179062e-01 3.820938e-01 0.000000e+00 0.000000e+00
 0.000000e+00 0.000000e+00 5.274373e-01 4.725626e-01 0.000000e+00
 0.000000e+00 0.000000e+00 0.000000e+00 7.595660e-01 2.404340e-01
 0.000000e+00 0.000000e+00 0.000000e+00 0.000000e+00 0.000000e+00
<ENDHMM>
~h "z"
<BEGINHMM>
<NUMSTATES> 5
<STATE> 2
<MEAN> 39
 -5.832657e+00 9.353779e+00 2.323617e+00 1.265664e+00 3.836138e+00 -4.805716e+00 -1.699075e+00 -2.322612e+00 1.002421e-01 -7.986139e-01 -1.831645e+00 8.244370e-01 -3.860016e+00 -4.344612e+00 1.646984e+00 -6.426182e-01 3.307609e-01 2.196947e+00 1.125013e+00 1.461810e+00 8.326116e-01 4.955398e-01 7.648897e-02 5.014933e-01 3.119970e-01 -1.004826e-01 8.681585e-02 -6.413478e-01 -1.214019e-01 -1.041896e-01 -2.603565e-01 3.010187e-01 1.657930e-01 3.138608e-01 2.541815e-02 1.678503e-01 1.411081e-01 5.479316e-03 1.064759e-01
<VARIANCE> 39
 6.662894e+01 4.026976e+01 3.788374e+01 4.794606e+01 5.555178e+01 5.255305e+01 4.648141e+01 3.824040e+01 3.185464e+01 3.463691e+01 2.829914e+01 2.415423e+01 2.455018e+00 3.333698e+00 5.219054e+00 3.742529e+00 5.452245e+00 3.877577e+00 5.646536e+00 4.875357e+00 5.101608e+00 4.006666e+00 3.684307e+00 3.382999e+00 3.154151e+00 2.190505e-01 1.280026e+00 8.117861e-01 5.251942e-01 6.834785e-01 8.537111e-01 8.441463e-01 7.843814e-01 7.411378e-01 5.908033e-01 6.293853e-01 5.199137e-01 5.118585e-01 2.260840e-02
<GCONST> 1.247247e+02
<STATE> 3
<MEAN> 39
 -1.802407e+01 8.403158e+00 -1.920735e+00 9.788547e-01 8.123239e+00 1.685629e-01 4.290429e+00 2.635828e+00 2.118100e+00 1.073721e+00 8.160588e-01 2.186386e+00 -3.444462e+00 -1.230389e-01 -6.333867e-01 -2.392243e-01 -2.094315e-01 -9.775209e-02 1.236191e-01 1.139523e-01 2.690458e-01 2.140141e-01 1.660526e-01 1.354069e-01 2.828193e-02 -1.484935e-02 1.056642e+00 -2.453742e-01 2.655612e-01 -1.991044e-02 -4.089078e-01 -3.233972e-01 -4.353629e-01 -3.235520e-01 -1.171326e-01 -8.120807e-02 -1.535499e-01 -1.186501e-01 -9.531829e-02
<VARIANCE> 39
 1.650083e+01 2.787276e+01 3.783281e+01 5.588036e+01 3.859193e+01 4.213613e+01 3.792767e+01 3.100106e+01 2.823048e+01 2.278559e+01 2.864932e+01 1.700917e+01 1.898316e+00 3.002510e+00 1.579128e+00 1.892575e+00 1.650881e+00 1.964551e+00 2.676670e+00 2.401201e+00 2.149054e+00 1.996968e+00 1.833799e+00 1.628131e+00 1.423378e+00 1.298860e-01 6.855725e-01 3.638157e-01 3.732973e-01 4.603443e-01 5.036333e-01 6.061940e-01 5.681247e-01 5.021957e-01 4.408474e-01 4.064568e-01 3.846334e-01 3.343834e-01 2.773152e-02
<GCONST> 1.063726e+02
<STATE> 4
<MEAN> 39
 -1.065923e+01 5.053706e+00 5.813648e-01 6.769467e-01 5.516171e+00 -1.167673e+00 9.758090e-01 5.403908e-01 1.942758e+00 8.234686e-01 -1.773291e-01 1.004087e+00 -4.769934e+00 3.362894e+00 -1.399922e+00 1.913193e-01 2.248077e-01 -1.396051e+00 -2.706725e-01 -9.611936e-01 -8.873253e-01 -2.265753e-01 7.910605e-02 -2.908270e-01 -3.874193e-01 -4.141973e-01 3.628960e-01 -4.243995e-02 -1.051181e-01 3.537491e-02 -1.980069e-01 8.431189e-02 -2.657751e-02 -5.399438e-02 -1.310192e-01 4.452299e-03 1.006601e-03 -2.978047e-02 5.382107e-02
<VARIANCE> 39
 4.912215e+01 4.041601e+01 3.795007e+01 4.457877e+01 4.726965e+01 5.557019e+01 4.925586e+01 4.338609e+01 3.929292e+01 3.191251e+01 3.169128e+01 2.256499e+01 4.571450e+00 4.990499e+00 3.537975e+00 3.815373e+00 4.720158e+00 4.748462e+00 5.563210e+00 5.418832e+00 4.260629e+00 4.035287e+00 3.301882e+00 3.088726e+00 2.589921e+00 5.552417e-01 1.035295e+00 6.939718e-01 5.683010e-01 7.281988e-01 7.706794e-01 9.483261e-01 9.143196e-01 8.109820e-01 7.521598e-01 6.144955e-01 5.549882e-01 4.822801e-01 8.020038e-02
<GCONST> 1.272886e+02
<TRANSP> 5
 0.000000e+00 1.000000e+00 0.000000e+00 0.000000e+00 0.000000e+00
 0.000000e+00 7.107134e-01 2.892866e-01 0.000000e+00 0.000000e+00
 0.000000e+00 0.000000e+00 7.811853e-01 2.188146e-01 0.000000e+00
 0.000000e+00 0.000000e+00 0.000000e+00 5.699465e-01 4.300535e-01
 0.000000e+00 0.000000e+00 0.000000e+00 0.000000e+00 0.000000e+00
<ENDHMM>
~h "aa"
<BEGINHMM>
<NUMSTATES> 5
<STATE> 2
<MEAN> 39
 2.657378e+00 -2.388837e+00 -4.467639e+00 -1.054963e+00 2.417101e+00 1.337674e+00 7.323078e-01 2.690611e-01 1.526795e+00 4.537625e-01 -9.360988e-01 -1.111404e+00 -3.073679e+00 2.644376e+00 -1.518687e+00 -1.386259e+00 -1.821462e+00 -5.583404e-01 6.914532e-01 -5.928189e-01 2.424164e-02 4.073208e-01 -1.140932e-01 -8.957698e-02 -9.612441e-01 8.422734e-01 -1.513951e-03 -1.861656e-01 -1.034716e-01 -1.721202e-01 2.144717e-02 3.226820e-01 1.807362e-03 -6.513413e-02 -1.582587e-02 2.942964e-02 1.200827e-01 -8.573543e-02 4.502892e-02
<VARIANCE> 39
 4.856228e+01 3.716212e+01 4.376728e+01 5.288914e+01 5.789918e+01 6.471101e+01 5.268868e+01 5.500517e+01 4.458005e+01 4.291218e+01 3.852887e+01 3.225438e+01 4.703342e+00 6.346937e+00 4.131214e+00 4.073210e+00 6.197546e+00 5.873156e+00 6.222758e+00 6.777424e+00 7.204414e+00 6.164479e+00 5.316869e+00 5.418349e+00 3.983962e+00 5.417284e-01 7.296774e-01 5.977846e-01 5.527371e-01 6.687188e-01 7.921578e-01 9.146197e-01 8.745278e-01 9.247382e-01 8.056375e-01 7.614095e-01 6.896132e-01 6.250407e-01 7.084984e-02
<GCONST> 1.329465e+02
<STATE> 3
<MEAN> 39
 9.203171e+00 -7.500088e+00 -7.787402e+00 -7.151397e+00 -3.623708e-02 4.667781e+00 -5.869265e-01 2.765101e-01 2.032977e+00 5.561460e-01 -3.262719e-01 -3.718660e+00 -5.645709e-01 1.100731e+00 -1.814145e+00 -1.335263e+00 -1.377318e+00 3.421597e-01 1.566677e+00 1.057570e-01 3.857654e-03 3.791780e-01 -8.960066e-02 9.655759e-02 -6.798584e-01 5.656961e-01 -7.155167e-01 3.720791e-01 3.237168e-01 5.799038e-01 3.838062e-01 -7.307810e-02 2.203096e-01 -1.689619e-01 -1.220569e-01 -5.213084e-02 2.739985e-02 2.701234e-01 -2.222306e-01
<VARIANCE> 39
 1.300979e+01 2.716890e+01 3.238815e+01 4.365089e+01 4.496539e+01 6.191739e+01 6.128687e+01 6.023571e+01 4.819241e+01 4.523846e+01 4.983725e+01 3.359539e+01 9.202378e-01 2.321141e+00 2.269600e+00 2.707023e+00 3.881212e+00 4.407054e+00 4.324174e+00 4.653838e+00 5.095420e+00 4.133058e+00 3.732131e+00 3.534069e+00 3.220532e+00 1.842644e-01 4.376537e-01 3.934277e-01 4.039581e-01 6.022512e-01 6.289608e-01 7.171544e-01 8.165815e-01 9.287803e-01 7.402214e-01 6.822222e-01 7.095686e-01 5.154071e-01 2.643751e-02
<GCONST> 1.200080e+02
<STATE> 4
<MEAN> 39
 9.557314e+00 -9.654161e+00 -1.046340e+01 -6.907800e+00 3.398641e+00 7.267208e+00 4.375268e-01 -9.151729e-01 2.791196e+00 -5.323809e-01 -2.291828e-01 -4.059681e+00 -5.317813e-02 2.127441e-02 6.071184e-02 -5.010178e-02 3.132080e-01 1.014141e-01 -4.123567e-01 -2.033621e-01 2.108472e-01 1.383892e-01 -6.255417e-02 -1.387206e-01 3.784368e-02 -4.637507e-02 -7.320620e-02 2.771303e-01 2.054125e-01 1.742845e-01 -1.393160e-01 -2.862626e-01 -8.668779e-02 6.820790e-02 -4.608617e-02 3.237099e-02 -1.623477e-02 9.151148e-02 -8.458509e-02
<VARIANCE> 39
 1.174677e+01 2.311779e+01 2.489682e+01 4.480943e+01 4.256042e+01 5.902810e+01 6.302938e+01 5.904008e+01 4.618502e+01 4.096769e+01 4.298268e+01 3.644161e+01 7.703533e-01 3.023438e-01 1.003340e+00 1.055843e+00 1.487804e+00 1.746985e+00 2.404205e+00 2.230043e+00 2.244816e+00 1.724386e+00 1.569199e+00 1.575441e+00 1.465862e+00 3.915969e-02 8.830139e-02 1.745309e-01 1.722706e-01 2.461748e-01 2.609922e-01 2.860529e-01 3.289308e-01 3.517620e-01 3.074418e-01 2.850288e-01 2.749476e-01 2.654178e-01 1.069038e-02
<GCONST> 9.421191e+01
<TRANSP> 5
 0.000000e+00 1.000000e+00 0.000000e+00 0.000000e+00 0.000000e+00
 0.000000e+00 4.306163e-01 5.693837e-01 0.000000e+00 0.000000e+00
 0.000000e+00 0.000000e+00 5.711738e-01 4.288261e-01 0.000000e+00
 0.000000e+00 0.000000e+00 0.000000e+00 8.782321e-01 1.217679e-01
 0.000000e+00 0.000000e+00 0.000000e+00 0.000000e+00 0.000000e+00
<ENDHMM>
~h "ae"
<BEGINHMM>
<NUMSTATES> 5
<STATE> 2
<MEAN> 39
 1.402081e+00 -1.989213e+00 1.000462e+00 -2.134431e-01 -3.453326e+00 -2.740272e+00 2.232351e+00 2.076590e+00 1.099980e+00 -2.872205e-01 -1.466563e+00 -4.958804e-01 -3.297855e+00 1.779456e+00 -1.607647e+00 3.633738e-01 -1.057759e+00 -1.801697e+00 -7.011831e-01 -3.969178e-03 1.070292e+00 5.564516e-02 -4.128733e-01 -4.319914e-01 -3.891310e-01 7.123326e-01 -9.131772e-02 -1.403041e-01 -5.134931e-02 -9.759937e-02 1.037799e-01 2.448237e-01 2.634522e-02 4.762323e-02 -4.412483e-02 -2.309463e-02 6.663834e-02 -3.618985e-02 1.561835e-02
<VARIANCE> 39
 4.293303e+01 4.108307e+01 4.426037e+01 3.610959e+01 4.606699e+01 4.878628e+01 6.463161e+01 5.095578e+01 4.868381e+01 4.038892e+01 3.360117e+01 2.823730e+01 5.932758e+00 5.921802e+00 4.102766e+00 3.658715e+00 5.103158e+00 5.369403e+00 5.374049e+00 6.005821e+00 5.658910e+00 5.821849e+00 4.504604e+00 4.225006e+00 3.415420e+00 6.434020e-01 6.074600e-01 6.275250e-01 4.511385e-01 5.993455e-01 6.732709e-01 7.293041e-01 8.448021e-01 7.872977e-01 7.549331e-01 6.695639e-01 6.012020e-01 4.989923e-01 7.315306e-02
<GCONST> 1.291736e+02
<STATE> 3
<MEAN> 39
 5.516889e+00 -6.601112e+00 2.030062e+00 -3.537220e+00 -7.429236e+00 -3.708575e+00 1.200384e+00 4.708067e+00 6.942130e-01 -7.594483e-01 -1.807152e+00 -1.579919e+00 -1.321985e+00 9.149847e-01 -1.866442e+00 -8.587077e-02 -1.139051e+00 -1.030115e+00 1.037217e-01 2.894565e-01 1.208780e+00 2.408116e-01 -4.228796e-01 -2.915818e-01 -3.978913e-01 5.754913e-01 -6.314293e-01 3.914548e-01 -1.528453e-01 3.556301e-01 6.674300e-01 4.310123e-01 2.563058e-01 -2.951286e-01 -2.567713e-02 -1.016182e-02 7.105520e-02 9.932916e-02 -2.179975e-01
<VARIANCE> 39
 1.440306e+01 2.659773e+01 4.346359e+01 3.471384e+01 4.259007e+01 4.206863e+01 5.456024e+01 4.569546e+01 5.047446e+01 3.742602e+01 3.340422e+01 2.713345e+01 1.736439e+00 2.441349e+00 2.690883e+00 2.806364e+00 2.912778e+00 3.786852e+00 3.682507e+00 4.846067e+00 3.922776e+00 3.679232e+00 3.099860e+00 3.039167e+00 2.600381e+00 2.598560e-01 4.293409e-01 4.799297e-01 4.179571e-01 5.210446e-01 5.527111e-01 6.108560e-01 7.169904e-01 6.801125e-01 6.973868e-01 6.080775e-01 5.604402e-01 4.613121e-01 3.830167e-02
<GCONST> 1.174983e+02
<STATE> 4
<MEAN> 39
 5.970752e+00 -1.007978e+01 -1.095279e+00 -3.433168e+00 -5.024332e+00 -1.857504e+00 3.980878e+00 6.018494e+00 2.032722e+00 -2.888005e+00 -3.347586e+00 -2.089281e+00 -5.439596e-01 5.124565e-02 1.183072e-01 -2.255839e-01 1.355825e-01 2.994892e-01 7.800753e-02 -4.862111e-02 -1.436262e-01 9.618185e-03 -5.146753e-03 -6.054922e-02 -3.034480e-02 -4.734605e-02 -7.054231e-02 3.541491e-01 6.142572e-02 1.620745e-01 1.059104e-01 -4.608272e-02 -1.471230e-01 -1.924970e-01 -7.948486e-02 1.248211e-01 1.001740e-01 3.459248e-02 -9.766529e-02
<VARIANCE> 39
 1.162133e+01 2.069212e+01 3.588578e+01 2.756659e+01 4.144006e+01 4.227563e+01 4.598959e+01 4.117948e+01 4.882444e+01 3.204111e+01 2.932914e+01 3.035414e+01 1.172593e+00 4.147202e-01 1.426272e+00 1.364878e+00 1.197485e+00 1.670416e+00 1.774906e+00 2.213813e+00 2.003308e+00 1.804062e+00 1.746951e+00 1.573219e+00 1.380962e+00 6.395932e-02 1.383820e-01 2.131329e-01 2.013914e-01 2.389852e-01 2.852943e-01 2.872649e-01 3.382514e-01 3.496114e-01 3.237568e-01 2.803591e-01 2.795700e-01 2.523042e-01 1.388013e-02
<GCONST> 9.457208e+01
<TRANSP> 5
 0.000000e+00 1.000000e+00 0.000000e+00 0.000000e+00 0.000000e+00
 0.000000e+00 2.996356e-01 7.003643e-01 0.000000e+00 0.000000e+00
 0.000000e+00 0.000000e+00 4.337705e-01 5.662295e-01 0.000000e+00
 0.000000e+00 0.000000e+00 0.000000e+00 8.590852e-01 1.409148e-01
 0.000000e+00 0.000000e+00 0.000000e+00 0.000000e+00 0.000000e+00
<ENDHMM>
~h "ah"
<BEGINHMM>
<NUMSTATES> 5
<STATE> 2
<MEAN> 39
 1.109956e+00 -2.785393e-01 -1.503500e+00 -2.686263e-01 7.770059e-01 -8.323860e-01 -5.743474e-01 -2.528930e-01 1.414874e+00 3.714744e-01 -6.797437e-01 -5.667644e-01 -3.352243e+00 2.767753e+00 -1.135419e+00 -3.395535e-01 -1.393350e+00 -9.119459e-01 -1.787351e-01 -1.408416e+00 1.391902e-01 4.201045e-01 1.299365e-02 -6.126606e-01 -8.018100e-01 5.405280e-01 1.813160e-02 -1.437847e-01 -2.615117e-02 -2.080457e-01 -5.116753e-02 2.287558e-01 -8.860457e-02 4.037310e-02 -1.535880e-02 6.846316e-02 2.482310e-03 -8.505389e-02 4.917715e-02
<VARIANCE> 39
 6.720087e+01 3.917891e+01 4.566954e+01 4.502840e+01 5.272147e+01 5.387138e+01 5.403011e+01 5.368350e+01 4.748842e+01 4.230404e+01 3.839060e+01 3.063723e+01 4.332459e+00 8.206381e+00 3.807300e+00 3.964362e+00 6.139350e+00 5.308126e+00 6.814252e+00 6.720348e+00 6.846841e+00 6.978691e+00 5.295826e+00 5.323899e+00 3.803230e+00 5.701603e-01 7.359748e-01 5.943903e-01 5.275186e-01 6.874499e-01 7.503870e-01 8.696516e-01 8.720751e-01 9.094550e-01 8.436372e-01 7.358404e-01 6.861016e-01 5.654850e-01 6.930973e-02
<GCONST> 1.327621e+02
<STATE> 3
<MEAN> 39
 7.696374e+00 -4.260709e+00 -2.429018e+00 -4.741320e+00 -2.259273e+00 -7.920735e-01 -4.956351e+00 2.620870e-01 2.020804e+00 9.561003e-01 -1.505176e+00 -2.492527e+00 -1.616084e+00 1.714570e+00 -1.533278e+00 -4.908313e-01 -1.608545e+00 -6.607157e-01 5.724143e-01 -1.081559e+00 5.510970e-01 6.258044e-01 2.183449e-01 -3.369716e-01 -7.367396e-01 5.244684e-01 -8.530150e-01 4.255578e-01 1.052179e-01 4.567938e-01 4.173870e-01 2.221904e-01 5.762975e-01 -1.312885e-01 -1.929778e-01 -3.530825e-02 1.500591e-01 1.956762e-01 -2.056486e-01
<VARIANCE> 39
 1.387902e+01 2.766649e+01 4.122471e+01 3.993923e+01 4.338638e+01 6.275778e+01 5.154631e+01 5.449616e+01 4.503215e+01 4.766062e+01 4.759215e+01 3.325656e+01 1.797917e+00 3.932926e+00 3.418810e+00 3.407486e+00 5.177215e+00 5.091022e+00 5.724039e+00 5.370602e+00 6.063104e+00 5.591853e+00 4.613042e+00 4.729993e+00 3.732040e+00 2.861421e-01 6.264768e-01 4.629091e-01 5.013004e-01 6.748989e-01 6.757314e-01 9.286332e-01 8.921722e-01 9.218610e-01 8.500085e-01 7.914389e-01 8.231597e-01 5.889445e-01 3.767088e-02
<GCONST> 1.263210e+02
<STATE> 4
<MEAN> 39
 8.163980e+00 -6.587757e+00 -4.028194e+00 -6.260770e+00 -7.808980e-01 1.590065e+00 -4.412447e+00 1.109285e+00 4.250593e+00 1.492352e+00 -2.040806e+00 -3.861735e+00 -9.735273e-01 -9.961463e-02 5.927477e-01 1.667538e-01 2.725534e-01 2.423550e-01 -1.697746e-02 9.984243e-02 -3.638271e-01 -2.824946e-01 -4.062757e-02 6.772151e-02 7.029928e-02 -1.764138e-01 -4.115407e-01 6.050081e-01 2.597764e-01 5.197266e-01 1.230477e-01 -1.615520e-01 2.636354e-01 -2.660897e-01 -3.725348e-01 -8.485409e-02 1.023886e-01 2.127444e-01 -1.977287e-01
<VARIANCE> 39
 1.126364e+01 2.522675e+01 3.298518e+01 3.519898e+01 4.252192e+01 6.102510e+01 5.249698e+01 5.192638e+01 4.669085e+01 5.213873e+01 4.579063e+01 3.801683e+01 1.651703e+00 9.667012e-01 2.767639e+00 2.124863e+00 3.259205e+00 2.611154e+00 3.460913e+00 3.117743e+00 3.882937e+00 3.458964e+00 2.921187e+00 3.023400e+00 2.687800e+00 2.016860e-01 3.612895e-01 3.617598e-01 3.322732e-01 5.124086e-01 5.379163e-01 6.487694e-01 7.149478e-01 7.156643e-01 6.637798e-01 6.163411e-01 5.990652e-01 5.113682e-01 2.567979e-02
<GCONST> 1.150714e+02
<TRANSP> 5
 0.000000e+00 1.000000e+00 0.000000e+00 0.000000e+00 0.000000e+00
 0.000000e+00 3.127864e-01 6.872136e-01 0.000000e+00 0.000000e+00
 0.000000e+00 0.000000e+00 2.929819e-01 7.070181e-01 0.000000e+00
 0.000000e+00 0.000000e+00 0.000000e+00 6.844546e-01 3.155455e-01
 0.000000e+00 0.000000e+00 0.000000e+00 0.000000e+00 0.000000e+00
<ENDHMM>
~h "ao"
<BEGINHMM>
<NUMSTATES> 5
<STATE> 2
<MEAN> 39
 2.676078e+00 -3.592348e-02 -4.427696e+00 -2.161665e+00 7.107857e-01 1.568500e+00 6.547707e-02 -3.183289e-01 1.365234e+00 1.160144e+00 1.171665e-01 -6.962757e-01 -3.635267e+00 2.705391e+00 -4.097368e-01 -1.125991e+00 -2.046355e+00 -6.772642e-01 9.480299e-01 -4.185665e-01 -2.224567e-01 -1.343838e-01 6.831071e-02 2.309512e-01 -4.808074e-01 5.956261e-01 3.687552e-02 -9.056482e-02 -3.358043e-02 -3.595652e-01 -8.531442e-02 3.595829e-01 1.027606e-01 -7.217416e-02 -2.351989e-01 -5.384020e-02 1.919323e-01 4.965653e-02 1.043653e-01
<VARIANCE> 39
 5.842796e+01 4.316753e+01 4.182084e+01 5.533495e+01 5.649465e+01 6.447890e+01 6.665116e+01 4.871563e+01 4.987410e+01 4.460667e+01 3.726972e+01 3.076315e+01 6.098402e+00 8.998680e+00 4.488556e+00 4.527870e+00 7.233052e+00 7.395175e+00 6.132086e+00 7.633093e+00 6.705366e+00 6.613699e+00 5.859109e+00 5.148600e+00 4.029642e+00 7.001365e-01 8.911437e-01 6.458311e-01 6.179482e-01 8.924692e-01 8.461590e-01 9.965850e-01 1.093806e+00 9.765308e-01 8.930587e-01 8.508843e-01 7.674642e-01 5.903230e-01 8.776379e-02
<GCONST> 1.366215e+02
<STATE> 3
<MEAN> 39
 1.058073e+01 -1.487590e+00 -6.803629e+00 -1.028541e+01 -3.887834e+00 5.635444e+00 -5.680174e-01 -1.106743e+00 -1.289939e+00 6.350443e-01 2.149753e+00 -1.409022e+00 -1.209958e+00 1.478428e+00 -7.553417e-01 -1.027274e+00 -2.024710e+00 -6.474789e-01 1.370033e+00 3.377652e-01 1.384088e-01 -4.131451e-01 -2.275867e-01 6.598422e-01 3.582723e-02 5.729252e-01 -8.519398e-01 5.227268e-02 1.641017e-01 6.673737e-01 5.148131e-01 -1.199379e-01 2.420962e-01 5.465366e-02 9.259795e-02 -8.781789e-02 -7.507566e-02 2.002149e-01 -1.948162e-01
<VARIANCE> 39
 1.424716e+01 4.233220e+01 3.064919e+01 4.749961e+01 6.821057e+01 5.330884e+01 7.107891e+01 4.942830e+01 5.731166e+01 5.879467e+01 5.060035e+01 3.693975e+01 1.398974e+00 3.012291e+00 2.816565e+00 2.680513e+00 5.070932e+00 5.888895e+00 5.031043e+00 5.143030e+00 4.815966e+00 4.897427e+00 4.410541e+00 3.983121e+00 3.317730e+00 2.557384e-01 5.275790e-01 5.188812e-01 4.333874e-01 7.000869e-01 7.763946e-01 7.201095e-01 9.517831e-01 7.747718e-01 9.145242e-01 7.893198e-01 7.674897e-01 5.283914e-01 3.219398e-02
<GCONST> 1.253149e+02
<STATE> 4
<MEAN> 39
 1.108291e+01 -3.932563e+00 -9.879920e+00 -1.070589e+01 -6.232016e-01 7.876494e+00 8.520641e-01 -8.013803e-01 -4.867997e-01 -8.710681e-01 2.802563e+00 -6.004753e-01 -4.998250e-01 2.407043e-02 -2.468128e-01 -3.178926e-01 5.231031e-01 5.867088e-01 -2.966768e-01 -3.736553e-01 4.955743e-02 2.181107e-01 7.214785e-02 -4.288030e-02 9.338371e-05 -1.247627e-02 -1.073658e-01 9.320232e-02 1.567859e-01 2.925467e-01 2.506641e-02 -2.779142e-01 -1.643838e-01 2.622136e-02 7.576777e-02 5.350906e-02 -1.170073e-01 -1.898304e-02 -6.579204e-02
<VARIANCE> 39
 1.417685e+01 3.793402e+01 3.089173e+01 5.193129e+01 7.527785e+01 6.044235e+01 7.501411e+01 5.736265e+01 5.295578e+01 5.714622e+01 4.907581e+01 4.919936e+01 1.165313e+00 2.995420e-01 1.248575e+00 1.353902e+00 2.302441e+00 2.390357e+00 2.763359e+00 3.298470e+00 2.232809e+00 2.384831e+00 2.312864e+00 2.216426e+00 2.063668e+00 4.486613e-02 9.235450e-02 1.784271e-01 1.970750e-01 2.723799e-01 3.433654e-01 3.318786e-01 4.240552e-01 3.810026e-01 4.079482e-01 3.976987e-01 3.946436e-01 3.652445e-01 8.109747e-03
<GCONST> 1.026588e+02
<TRANSP> 5
 0.000000e+00 1.000000e+00 0.000000e+00 0.000000e+00 0.000000e+00
 0.000000e+00 4.501105e-01 5.498895e-01 0.000000e+00 0.000000e+00
 0.000000e+00 0.000000e+00 5.568014e-01 4.431985e-01 0.000000e+00
 0.000000e+00 0.000000e+00 0.000000e+00 8.633978e-01 1.366022e-01
 0.000000e+00 0.000000e+00 0.000000e+00 0.000000e+00 0.000000e+00
<ENDHMM>
~h "aw"
<BEGINHMM>
<NUMSTATES> 5
<STATE> 2
<MEAN> 39
 2.230549e+00 -2.812921e+00 -1.317633e+00 -3.382603e-01 -1.190275e+00 -5.236895e-01 2.960633e+00 1.110796e+00 8.224200e-01 -1.246452e-01 -1.672477e+00 -1.366424e+00 -2.965339e+00 1.893664e+00 -1.742830e+00 -7.058845e-01 -1.054840e+00 -6.641177e-01 -2.386031e-01 -1.878132e-01 7.289683e-01 2.793133e-01 -4.576621e-01 -6.858724e-01 -6.616551e-01 7.557369e-01 -4.991250e-02 -3.117249e-01 -1.575545e-01 -9.653074e-02 2.215761e-01 2.517537e-01 -4.973829e-02 -1.789723e-02 5.450549e-02 -5.249645e-02 -4.815191e-02 4.209587e-02 3.343727e-02
<VARIANCE> 39
 4.041975e+01 3.569551e+01 4.836329e+01 4.740641e+01 5.175535e+01 5.304772e+01 6.365610e+01 6.401822e+01 5.175383e+01 4.291131e+01 3.432885e+01 3.298120e+01 5.625460e+00 5.843275e+00 4.553268e+00 3.591745e+00 5.808687e+00 5.304954e+00 5.839738e+00 5.921554e+00 7.548926e+00 6.900356e+00 4.776954e+00 4.494792e+00 3.908431e+00 6.501684e-01 6.771249e-01 6.401072e-01 4.581047e-01 6.987794e-01 8.121005e-01 8.211325e-01 9.381685e-01 1.114818e+00 9.637539e-01 6.913441e-01 6.866242e-01 5.903108e-01 9.453232e-02
<GCONST> 1.328643e+02
<STATE> 3
<MEAN> 39
 6.584980e+00 -9.830121e+00 -3.400167e+00 -3.554563e+00 -1.873623e+00 1.703323e-01 1.495115e+00 3.555011e+00 1.839317e+00 -1.582584e+00 -3.716853e+00 -2.682051e+00 -5.548023e-01 5.274825e-01 -1.716236e+00 -8.447275e-01 -6.499448e-01 5.249003e-01 9.035690e-01 5.140772e-02 3.471003e-01 5.421818e-01 -4.276336e-01 -5.593778e-01 -3.628385e-01 4.282597e-01 -4.449644e-01 5.062656e-01 9.616819e-02 3.024889e-01 3.738448e-01 2.192217e-01 6.806169e-02 -3.978510e-01 -1.361189e-01 4.732379e-02 1.893206e-01 1.504627e-01 -1.971839e-01
<VARIANCE> 39
 1.226852e+01 2.179797e+01 3.910316e+01 3.502813e+01 4.967686e+01 4.489345e+01 5.166796e+01 5.529739e+01 4.448891e+01 4.241006e+01 3.066856e+01 3.144294e+01 8.354173e-01 1.503390e+00 2.325441e+00 2.239023e+00 2.834948e+00 3.393827e+00 3.192453e+00 3.964639e+00 4.335523e+00 3.079273e+00 2.768027e+00 2.612179e+00 2.655262e+00 1.462634e-01 3.548679e-01 3.529111e-01 3.316153e-01 4.577210e-01 5.362894e-01 5.457643e-01 6.592917e-01 7.251495e-01 6.043102e-01 5.283847e-01 4.968672e-01 4.267399e-01 2.322429e-02
<GCONST> 1.124893e+02
<STATE> 4
<MEAN> 39
 7.796134e+00 -9.673810e+00 -7.231150e+00 -5.823555e+00 2.687776e+00 5.322851e+00 8.380866e-01 -1.283240e-01 3.096620e+00 -1.514524e+00 -2.626735e+00 -3.197985e+00 -3.193788e-01 2.252718e-01 4.412697e-01 -3.199104e-01 -3.957059e-01 1.462275e-01 4.053096e-01 -2.205873e-01 -3.793049e-01 -3.685107e-02 2.414185e-01 3.475441e-01 4.192684e-04 -5.102452e-02 -1.304548e-02 1.859482e-01 1.003914e-01 7.440571e-02 -1.499012e-01 -1.595965e-01 -4.876811e-02 1.994458e-02 -5.608794e-02 6.290250e-02 5.445112e-02 4.663748e-02 -4.747079e-02
<VARIANCE> 39
 1.134743e+01 2.365673e+01 2.682737e+01 4.408760e+01 4.190211e+01 5.275954e+01 5.620145e+01 4.963652e+01 4.085287e+01 3.928184e+01 3.788742e+01 3.505583e+01 9.453202e-01 2.939949e-01 9.497786e-01 8.990296e-01 1.518319e+00 1.936926e+00 1.896295e+00 1.911827e+00 1.915690e+00 1.759548e+00 1.622589e+00 1.680158e+00 1.562420e+00 2.429595e-02 5.621251e-02 1.318934e-01 1.396881e-01 2.469164e-01 2.582037e-01 2.795182e-01 3.094886e-01 2.964302e-01 2.842506e-01 2.586304e-01 2.791098e-01 2.658800e-01 4.586915e-03
<GCONST> 9.054306e+01
<TRANSP> 5
 0.000000e+00 1.000000e+00 0.000000e+00 0.000000e+00 0.000000e+00
 0.000000e+00 4.308548e-01 5.691452e-01 0.000000e+00 0.000000e+00
 0.000000e+00 0.000000e+00 6.212356e-01 3.787644e-01 0.000000e+00
 0.000000e+00 0.000000e+00 0.000000e+00 8.993088e-01 1.006912e-01
 0.000000e+00 0.000000e+00 0.000000e+00 0.000000e+00 0.000000e+00
<ENDHMM>
~h "ax"
<BEGINHMM>
<NUMSTATES> 5
<STATE> 2
<MEAN> 39
 6.076144e+00 -2.786339e+00 4.807571e-02 -3.069642e+00 -2.515881e+00 -3.606490e+00 -5.211838e+00 2.286824e-01 2.640878e+00 1.995677e+00 -1.705653e+00 -1.337339e+00 -2.175335e+00 1.569825e+00 -7.478322e-01 2.721044e-01 -7.262003e-01 -6.596601e-01 -2.424833e-01 -9.916416e-01 1.170655e-02 -4.028524e-02 2.770426e-01 -1.792097e-01 -2.727778e-01 3.220166e-01 -7.903162e-01 7.181833e-01 1.995863e-02 5.865374e-01 4.708718e-01 3.979294e-01 6.243721e-01 -2.763023e-01 -3.990895e-01 -1.782393e-01 2.033933e-01 1.317740e-01 -2.891017e-01
<VARIANCE> 39
 2.248919e+01 2.775910e+01 3.913758e+01 4.056991e+01 4.522482e+01 5.372221e+01 5.810685e+01 5.052237e+01 4.054021e+01 4.385355e+01 3.736753e+01 3.162690e+01 2.055286e+00 4.816651e+00 3.257630e+00 3.385108e+00 4.623252e+00 4.559708e+00 4.915849e+00 5.227451e+00 5.157435e+00 4.528178e+00 3.947550e+00 4.202979e+00 3.197081e+00 3.676347e-01 7.027673e-01 5.725504e-01 5.214728e-01 8.250901e-01 7.422178e-01 9.426343e-01 1.114499e+00 9.510276e-01 8.817367e-01 7.890809e-01 7.680880e-01 6.452822e-01 6.321719e-02
<GCONST> 1.270523e+02
<STATE> 3
<MEAN> 39
 7.411783e+00 -3.098448e+00 9.216583e-01 -3.209212e+00 -3.190555e+00 -3.708197e+00 -6.175881e+00 -1.700631e-01 1.682923e+00 2.407649e+00 -1.059617e+00 -1.220153e+00 -1.975222e+00 -3.730278e-01 1.442496e+00 2.640867e-01 9.356363e-01 7.256172e-01 3.219869e-01 6.317632e-01 -8.096594e-01 -7.942261e-01 -3.849872e-01 1.672208e-01 1.754239e-01 -4.097992e-01 -9.881223e-01 8.867772e-01 3.876958e-03 7.178308e-01 6.005686e-01 3.990866e-01 7.362908e-01 -2.748217e-01 -3.061540e-01 -3.078449e-01 8.082968e-02 9.156574e-02 -3.317853e-01
<VARIANCE> 39
 1.490934e+01 2.299104e+01 4.495174e+01 3.926639e+01 4.376326e+01 5.745998e+01 5.193656e+01 5.242501e+01 4.554715e+01 4.616196e+01 4.227695e+01 3.447686e+01 1.530615e+00 2.334505e+00 2.571854e+00 2.915318e+00 4.300133e+00 3.867008e+00 4.124021e+00 4.381450e+00 4.545607e+00 4.172949e+00 3.519787e+00 3.497638e+00 3.040610e+00 2.129238e-01 6.959536e-01 5.433546e-01 5.987874e-01 8.041915e-01 7.660793e-01 1.059584e+00 1.082816e+00 1.045128e+00 9.465336e-01 8.751882e-01 8.597445e-01 7.272661e-01 4.989586e-02
<GCONST> 1.242331e+02
<STATE> 4
<MEAN> 39
 5.614074e+00 1.984108e+00 9.804786e-01 3.319206e-01 -4.107195e-01 -2.748297e+00 -4.103041e+00 -2.670826e+00 1.478100e-01 7.950168e-01 -7.765663e-01 -6.906140e-01 -3.375251e+00 -2.148041e+00 2.491983e+00 3.905630e-01 2.084727e+00 1.637510e+00 1.210934e+00 1.628366e+00 -8.678933e-01 -1.044888e+00 -7.950089e-01 1.186785e-01 6.548648e-02 -9.785277e-01 -7.929828e-01 -4.790700e-02 -1.098955e-01 7.825805e-02 1.689806e-01 3.026017e-01 3.988177e-01 1.976512e-01 7.166798e-02 1.430331e-02 5.236531e-02 4.626526e-02 -1.166484e-01
<VARIANCE> 39
 2.055311e+01 3.104104e+01 4.138799e+01 4.670576e+01 4.323063e+01 5.266688e+01 4.499804e+01 5.104664e+01 4.501879e+01 4.493521e+01 3.964847e+01 3.156169e+01 2.731335e+00 5.092484e+00 3.551883e+00 3.500234e+00 6.604082e+00 4.923348e+00 5.953569e+00 6.068638e+00 6.026268e+00 5.554351e+00 4.827183e+00 4.606308e+00 4.101984e+00 5.341738e-01 5.622355e-01 7.303932e-01 5.666053e-01 7.765494e-01 7.078416e-01 8.547988e-01 8.101186e-01 9.772450e-01 8.661163e-01 8.101630e-01 7.496155e-01 5.995669e-01 4.985575e-02
<GCONST> 1.289354e+02
<TRANSP> 5
 0.000000e+00 1.000000e+00 0.000000e+00 0.000000e+00 0.000000e+00
 0.000000e+00 3.452367e-01 6.547633e-01 0.000000e+00 0.000000e+00
 0.000000e+00 0.000000e+00 3.176827e-01 6.823174e-01 0.000000e+00
 0.000000e+00 0.000000e+00 0.000000e+00 2.266668e-01 7.733333e-01
 0.000000e+00 0.000000e+00 0.000000e+00 0.000000e+00 0.000000e+00
<ENDHMM>
~h "ay"
<BEGINHMM>
<NUMSTATES> 5
<STATE> 2
<MEAN> 39
 3.046604e+00 -1.800352e+00 -5.045655e+00 -2.419619e+00 2.369164e+00 2.613132e+00 1.423102e+00 -7.920076e-01 1.502182e+00 3.519042e-01 -6.204619e-01 -1.174457e+00 -2.785108e+00 2.592802e+00 -2.118818e+00 -1.154337e+00 -1.803918e+00 -5.136443e-01 5.548868e-01 -4.567909e-01 1.272754e-01 8.160321e-01 -3.274003e-03 -5.156321e-01 -1.018983e+00 8.977661e-01 -1.344243e-01 -2.426995e-01 1.281992e-02 -2.895017e-02 4.744612e-02 1.700113e-01 1.282915e-02 1.375168e-02 7.915168e-02 -3.627574e-02 -6.732446e-02 -6.258293e-02 3.491470e-02
<VARIANCE> 39
 5.674703e+01 4.144519e+01 4.246144e+01 5.202630e+01 5.247604e+01 5.615018e+01 5.201324e+01 5.020425e+01 4.392068e+01 3.862537e+01 3.922587e+01 3.065467e+01 5.509867e+00 7.262505e+00 3.603442e+00 4.302900e+00 7.081366e+00 5.398321e+00 5.992918e+00 5.634218e+00 5.922265e+00 5.722132e+00 4.833290e+00 5.164323e+00 3.893154e+00 6.219935e-01 7.465770e-01 5.159098e-01 4.964453e-01 6.194436e-01 7.751231e-01 7.264298e-01 7.684510e-01 7.350159e-01 6.942549e-01 6.281271e-01 6.778499e-01 5.564609e-01 6.884697e-02
<GCONST> 1.309835e+02
<STATE> 3
<MEAN> 39
 8.723512e+00 -8.518106e+00 -8.026730e+00 -7.631427e+00 1.612181e+00 6.025388e+00 9.676777e-02 -9.326041e-01 3.299868e+00 6.100349e-01 -1.572207e+00 -4.241045e+00 -4.107615e-01 4.381369e-01 -1.901889e+00 -4.534705e-01 -4.877935e-01 3.246181e-01 6.513340e-01 4.708655e-03 3.974123e-01 8.111743e-01 -2.698640e-01 -6.272843e-01 -6.345806e-01 4.301594e-01 -6.319693e-01 4.978868e-01 4.788908e-01 6.886528e-01 1.142700e-01 -3.813014e-01 1.333627e-01 1.731557e-02 -2.139542e-01 -1.397226e-01 -5.796363e-03 3.113841e-01 -2.273360e-01
<VARIANCE> 39
 1.154093e+01 2.474873e+01 2.639270e+01 4.036766e+01 4.526125e+01 5.930005e+01 5.169406e+01 5.037417e+01 4.077253e+01 4.579120e+01 4.730591e+01 3.381173e+01 8.897830e-01 1.890340e+00 2.244313e+00 2.899221e+00 3.977346e+00 3.571703e+00 4.517953e+00 3.584321e+00 3.965521e+00 3.485852e+00 3.093707e+00 3.142459e+00 3.229910e+00 1.849412e-01 4.491168e-01 3.291502e-01 3.570185e-01 5.963026e-01 6.225690e-01 6.863530e-01 6.532418e-01 7.146068e-01 6.330153e-01 6.167406e-01 6.951838e-01 5.155162e-01 2.743694e-02
<GCONST> 1.165556e+02
<STATE> 4
<MEAN> 39
 7.271633e+00 -1.068578e+01 -5.298175e+00 -3.916780e+00 6.509205e-01 2.022631e+00 1.165055e+00 2.499420e+00 3.998711e+00 -2.145878e+00 -3.395542e+00 -3.166447e+00 -3.984576e-01 -2.060056e-01 1.942101e-01 7.626817e-01 3.462859e-01 -7.182996e-01 -8.720576e-01 7.910942e-02 5.199106e-01 -1.604069e-01 -1.515168e-01 3.573804e-02 2.935111e-01 -8.272895e-02 -8.148070e-03 2.330753e-01 8.770408e-02 -3.920933e-03 -9.308702e-02 -5.524018e-02 -5.590429e-02 -9.101588e-02 -1.217045e-01 8.513070e-02 1.188790e-01 5.282043e-02 -4.205628e-02
<VARIANCE> 39
 1.169833e+01 2.107904e+01 3.716363e+01 3.167930e+01 5.405947e+01 6.010534e+01 5.277995e+01 5.421327e+01 4.501158e+01 3.800602e+01 3.329582e+01 3.600688e+01 1.071105e+00 2.863511e-01 9.906707e-01 1.370173e+00 1.280423e+00 2.164647e+00 1.980303e+00 2.158143e+00 2.411575e+00 1.803534e+00 1.730981e+00 1.733507e+00 1.541485e+00 2.096784e-02 4.854107e-02 1.274637e-01 1.574570e-01 1.912433e-01 3.011375e-01 2.667759e-01 3.204576e-01 3.913988e-01 3.018115e-01 2.795037e-01 2.749661e-01 2.557494e-01 3.877854e-03
<GCONST> 9.170202e+01
<TRANSP> 5
 0.000000e+00 1.000000e+00 0.000000e+00 0.000000e+00 0.000000e+00
 0.000000e+00 3.991071e-01 6.008930e-01 0.000000e+00 0.000000e+00
 0.000000e+00 0.000000e+00 6.147801e-01 3.852199e-01 0.000000e+00
 0.000000e+00 0.000000e+00 0.000000e+00 8.982901e-01 1.017099e-01
 0.000000e+00 0.000000e+00 0.000000e+00 0.000000e+00 0.000000e+00
<ENDHMM>
~h "ch"
<BEGINHMM>
<NUMSTATES> 5
<STATE> 2
<MEAN> 39
 -6.486782e+00 5.435901e-01 3.704215e+00 2.678506e+00 2.392008e+00 2.052650e+00 -4.208432e-01 -1.977587e-01 1.134056e+00 -1.084015e+00 5.816235e-02 7.000023e-01 -6.156252e+00 -3.118711e+00 -1.161165e-01 2.377492e-01 -6.758461e-01 7.001609e-01 1.684156e+00 8.714955e-01 1.117652e-01 6.305518e-01 3.557497e-01 6.443688e-01 3.647127e-01 1.834400e-02 -9.387727e-02 -8.784837e-02 1.229074e-01 -3.357522e-01 -2.803108e-01 -1.130603e-01 3.067551e-02 1.301810e-01 3.487393e-02 9.565181e-02 1.041223e-01 -1.734729e-03 3.401203e-01
<VARIANCE> 39
 6.623512e+01 5.549032e+01 3.529556e+01 5.891108e+01 4.472937e+01 5.926957e+01 4.141454e+01 3.856776e+01 3.552102e+01 3.202852e+01 3.008982e+01 2.191754e+01 7.843970e+00 4.734310e+00 7.843207e+00 5.136301e+00 8.072336e+00 5.760255e+00 5.218708e+00 5.152601e+00 5.013075e+00 4.489405e+00 3.808562e+00 3.505985e+00 2.787937e+00 1.848896e+00 8.742118e-01 1.607026e+00 9.315584e-01 1.532237e+00 1.058214e+00 1.181023e+00 8.762179e-01 9.015971e-01 7.644432e-01 7.595143e-01 6.722053e-01 4.894248e-01 2.137035e-01
<GCONST> 1.355850e+02
<STATE> 3
<MEAN> 39
 -1.963273e+01 1.899553e+00 7.502436e+00 -1.634513e+00 2.460845e+00 6.229463e+00 3.519253e+00 1.150629e+00 3.528418e+00 6.945186e-01 2.630058e+00 2.146419e+00 -2.667221e+00 -2.930818e-01 5.994252e-02 3.431506e-01 2.043711e-01 -8.127133e-01 -4.243304e-01 5.299802e-01 -1.048468e-03 -3.501839e-02 7.367329e-02 -4.621606e-02 1.261318e-02 3.091175e-01 9.786704e-01 -1.264127e-01 -2.405206e-01 3.516133e-01 -1.226621e-01 -4.088036e-01 -1.514055e-01 -8.824162e-02 -2.314499e-01 -1.035355e-01 -1.872950e-01 -9.973402e-02 -2.401065e-01
<VARIANCE> 39
 1.411354e+01 2.739661e+01 3.060500e+01 2.401338e+01 4.241449e+01 2.331307e+01 2.708624e+01 2.709218e+01 2.022752e+01 2.066965e+01 2.176685e+01 1.509356e+01 2.000235e+00 3.584330e+00 2.343964e+00 2.524329e+00 2.070813e+00 2.251756e+00 2.248236e+00 1.891130e+00 1.933732e+00 1.612888e+00 1.615915e+00 1.433962e+00 1.257060e+00 3.678911e-01 5.157941e-01 3.931711e-01 5.054287e-01 4.714088e-01 4.657313e-01 4.309289e-01 4.050714e-01 3.872268e-01 3.577822e-01 3.389367e-01 3.046197e-01 2.670456e-01 4.646235e-02
<GCONST> 1.033247e+02
<STATE> 4
<MEAN> 39
 -1.272187e+01 -1.231727e+00 6.247166e+00 1.601518e+00 -2.503622e+00 8.142680e-01 4.860196e+00 6.474860e-01 1.710433e+00 1.143431e-01 1.128432e+00 1.420966e+00 -3.415165e+00 4.046700e+00 -3.344961e-01 -4.518052e-01 7.743744e-01 -6.075683e-01 -1.940850e+00 -1.168781e+00 -3.303672e-02 -7.933494e-01 -6.507870e-01 -5.440360e-01 -3.048013e-01 -2.447186e-01 7.461663e-01 -6.709245e-02 -1.328693e-01 -3.125914e-01 1.485594e-01 3.391624e-02 -6.959333e-01 5.121669e-02 -3.617666e-02 -7.477181e-02 2.699001e-03 -2.985259e-02 7.206973e-02
<VARIANCE> 39
 3.638753e+01 2.237621e+01 2.469526e+01 2.743634e+01 3.936321e+01 3.565101e+01 3.184830e+01 2.950391e+01 2.739186e+01 2.473436e+01 2.396523e+01 1.890876e+01 1.805290e+00 4.785198e+00 1.973771e+00 3.457486e+00 2.865126e+00 4.413397e+00 3.809266e+00 4.871224e+00 3.643554e+00 3.153472e+00 2.731846e+00 2.785580e+00 1.906403e+00 2.670991e-01 7.998863e-01 4.009847e-01 5.432441e-01 5.207195e-01 7.161378e-01 7.710309e-01 7.786490e-01 6.829459e-01 6.225865e-01 6.067259e-01 5.158809e-01 4.172711e-01 7.131418e-02
<GCONST> 1.161800e+02
<TRANSP> 5
 0.000000e+00 1.000000e+00 0.000000e+00 0.000000e+00 0.000000e+00
 0.000000e+00 7.763323e-01 2.236677e-01 0.000000e+00 0.000000e+00
 0.000000e+00 0.000000e+00 7.922576e-01 2.077424e-01 0.000000e+00
 0.000000e+00 0.000000e+00 0.000000e+00 6.277095e-01 3.722905e-01
 0.000000e+00 0.000000e+00 0.000000e+00 0.000000e+00 0.000000e+00
<ENDHMM>
~h "dh"
<BEGINHMM>
<NUMSTATES> 5
<STATE> 2
<MEAN> 39
 -2.819741e+00 5.573792e+00 -5.762327e-01 4.694256e+00 2.560530e+00 -4.707412e-01 3.441220e-01 -3.328064e+00 6.663048e-01 9.124381e-02 -1.010980e+00 -6.277778e-01 -5.881936e+00 1.059639e+00 -2.533133e-01 1.311072e-01 -5.854578e-01 -9.564040e-01 -1.118991e+00 -7.655682e-01 9.285700e-02 3.790756e-01 -1.247593e-01 -9.351741e-02 8.033127e-02 7.223374e-01 4.810654e-01 -5.057421e-01 2.437410e-01 -4.619111e-01 -5.081546e-01 -2.806022e-01 -3.461619e-01 2.764258e-01 1.117608e-01 1.531683e-01 -4.987987e-04 3.942204e-02 2.204818e-01
<VARIANCE> 39
 4.653940e+01 3.447561e+01 3.170760e+01 3.699743e+01 3.167834e+01 3.688681e+01 4.609320e+01 4.294109e+01 3.322359e+01 2.939573e+01 3.190132e+01 2.806749e+01 4.689398e+00 5.892137e+00 3.538198e+00 3.602036e+00 4.616423e+00 4.458687e+00 4.530822e+00 4.834498e+00 4.524791e+00 4.181276e+00 3.090460e+00 3.020137e+00 2.942387e+00 1.047977e+00 6.640339e-01 7.195023e-01 7.538528e-01 8.620508e-01 7.175364e-01 8.029550e-01 9.209068e-01 8.336514e-01 7.868542e-01 6.345670e-01 6.518147e-01 5.904508e-01 9.233876e-02
<GCONST> 1.267186e+02
<STATE> 3
<MEAN> 39
 1.074804e+00 4.197717e+00 1.666101e-01 2.267125e+00 -1.180167e+00 -4.374912e+00 -2.263102e+00 -2.335429e+00 2.192496e+00 3.340127e-01 -1.238554e+00 -1.425955e-01 -3.443898e+00 2.366875e+00 -1.445884e+00 8.555605e-01 -1.717868e+00 -2.097255e+00 -1.720908e+00 -1.882505e+00 6.542279e-01 5.273167e-01 2.329980e-01 -1.726188e-01 -2.579320e-02 1.142722e+00 -5.049989e-02 -3.072914e-01 2.537031e-01 -7.113855e-02 2.808630e-02 3.403924e-01 5.224904e-02 1.129684e-01 -2.546957e-01 1.155107e-01 4.231296e-02 -4.494136e-02 -1.437333e-01
<VARIANCE> 39
 2.500792e+01 2.144211e+01 2.714946e+01 2.631424e+01 3.277634e+01 3.255735e+01 3.952171e+01 3.553299e+01 3.050541e+01 2.903130e+01 2.374627e+01 2.528061e+01 2.253047e+00 4.592952e+00 3.333633e+00 4.973306e+00 4.493946e+00 4.975604e+00 5.686090e+00 5.935418e+00 6.384188e+00 6.023496e+00 4.318734e+00 4.541255e+00 3.785627e+00 4.441122e-01 4.664920e-01 4.035083e-01 4.626223e-01 5.277083e-01 5.182596e-01 5.527681e-01 6.240261e-01 6.395614e-01 5.906090e-01 5.220296e-01 4.984652e-01 4.482371e-01 4.619792e-02
<GCONST> 1.198545e+02
<STATE> 4
<MEAN> 39
 4.271371e+00 6.474136e-01 2.005487e+00 -8.053916e-01 -4.675614e+00 -6.300273e+00 -5.093266e+00 -1.193161e+00 2.533917e+00 1.138286e+00 -1.460791e+00 -1.826421e-01 -2.210703e+00 1.762363e+00 -1.666506e+00 1.001663e+00 -1.454093e+00 -1.631770e+00 -8.433957e-01 -1.305925e+00 7.151836e-01 -1.324558e-02 3.004750e-01 -2.155652e-02 -7.694034e-02 7.306449e-01 -5.933834e-01 2.411485e-01 -5.700569e-02 4.465337e-01 5.994200e-01 6.646429e-01 5.756110e-01 -7.887666e-02 -3.591188e-01 -7.660984e-02 1.100936e-01 -9.100715e-03 -3.440201e-01
<VARIANCE> 39
 1.582076e+01 2.288888e+01 3.705912e+01 3.236474e+01 4.073339e+01 3.579527e+01 4.038367e+01 4.157916e+01 4.279383e+01 3.577253e+01 2.621099e+01 3.048731e+01 1.766916e+00 3.260723e+00 3.045179e+00 3.971597e+00 4.586583e+00 4.254558e+00 5.200892e+00 5.735010e+00 5.584035e+00 5.161363e+00 4.157707e+00 4.348507e+00 3.320425e+00 2.926058e-01 5.398263e-01 4.338378e-01 5.773665e-01 6.768028e-01 6.579544e-01 6.826792e-01 7.247024e-01 8.027459e-01 7.964068e-01 6.217902e-01 5.525590e-01 5.764965e-01 5.136951e-02
<GCONST> 1.216755e+02
<TRANSP> 5
 0.000000e+00 1.000000e+00 0.000000e+00 0.000000e+00 0.000000e+00
 0.000000e+00 5.355726e-01 4.644274e-01 0.000000e+00 0.000000e+00
 0.000000e+00 0.000000e+00 8.872562e-02 9.112744e-01 0.000000e+00
 0.000000e+00 0.000000e+00 0.000000e+00 1.134372e-01 8.865628e-01
 0.000000e+00 0.000000e+00 0.000000e+00 0.000000e+00 0.000000e+00
<ENDHMM>
~h "eh"
<BEGINHMM>
<NUMSTATES> 5
<STATE> 2
<MEAN> 39
 1.110365e+00 -1.053258e+00 1.195692e+00 -1.279956e-02 -2.462527e+00 -3.529410e+00 1.750824e-01 1.853574e+00 1.880683e+00 7.233193e-01 -7.808754e-01 -9.378335e-02 -3.015085e+00 2.235216e+00 -1.711522e+00 5.923121e-01 -9.323895e-01 -1.791051e+00 -1.102460e+00 -8.822662e-01 1.216062e+00 3.590217e-01 -2.800045e-01 -5.090950e-01 -3.062851e-01 6.258996e-01 2.360597e-02 -1.647491e-01 -8.478188e-02 -1.898158e-01 -1.841142e-02 2.040222e-01 -1.979560e-02 8.585288e-02 -8.754365e-02 -4.082149e-02 5.491245e-02 -6.631507e-03 5.276292e-02
<VARIANCE> 39
 6.030025e+01 4.215916e+01 4.372845e+01 4.114174e+01 4.722527e+01 4.731852e+01 6.393476e+01 5.240696e+01 4.647471e+01 3.804632e+01 3.625542e+01 3.023296e+01 5.101650e+00 8.484537e+00 3.714153e+00 3.414157e+00 5.152425e+00 5.286857e+00 5.981661e+00 7.501142e+00 5.974921e+00 6.271609e+00 4.719426e+00 4.317213e+00 3.803656e+00 5.467605e-01 6.471341e-01 6.336502e-01 4.311365e-01 6.367837e-01 7.747423e-01 7.615740e-01 9.088438e-01 8.708678e-01 8.115104e-01 6.794224e-01 6.714375e-01 5.291884e-01 8.036562e-02
<GCONST> 1.310086e+02
<STATE> 3
<MEAN> 39
 6.492709e+00 -5.983076e+00 2.238131e+00 -3.105413e+00 -6.916505e+00 -5.583079e+00 -3.006107e+00 4.209027e+00 1.996493e+00 1.105859e-01 -1.236336e+00 -6.816697e-01 -1.169628e+00 1.385253e+00 -2.110082e+00 -4.280247e-03 -1.225449e+00 -1.324182e+00 -3.229032e-01 -5.079949e-01 1.552888e+00 4.341159e-01 -1.355157e-01 -1.934160e-01 -2.452925e-01 5.939477e-01 -7.784304e-01 4.522501e-01 -2.442294e-01 2.795914e-01 6.757275e-01 5.391651e-01 4.912066e-01 -2.381993e-01 -9.826863e-02 1.512484e-02 1.121407e-01 6.628002e-02 -1.997673e-01
<VARIANCE> 39
 1.403292e+01 2.522320e+01 4.305868e+01 3.450141e+01 3.794157e+01 3.925381e+01 5.625625e+01 4.464660e+01 5.009097e+01 3.890327e+01 3.257367e+01 2.896608e+01 1.250443e+00 3.704300e+00 2.881107e+00 3.281239e+00 3.627668e+00 4.291408e+00 4.408888e+00 6.387183e+00 4.924734e+00 4.853187e+00 3.863385e+00 3.514173e+00 3.106071e+00 2.525780e-01 5.771055e-01 4.456299e-01 4.112738e-01 5.310851e-01 5.727512e-01 6.536529e-01 8.198935e-01 7.768112e-01 8.063759e-01 5.937199e-01 5.771179e-01 4.816258e-01 3.208761e-02
<GCONST> 1.200423e+02
<STATE> 4
<MEAN> 39
 7.071874e+00 -8.727885e+00 5.244637e-01 -3.432023e+00 -6.402516e+00 -5.147610e+00 -1.378374e+00 7.507319e+00 2.960777e+00 -6.645376e-01 -1.767209e+00 -7.625207e-01 -6.282927e-01 8.711308e-02 2.283461e-01 -4.097348e-01 2.601643e-01 5.288029e-01 1.170126e-01 -1.111723e-01 -1.769761e-01 2.244422e-03 -1.160026e-01 -5.242517e-02 -2.475053e-02 -7.795913e-02 -1.909676e-01 5.120465e-01 -2.411054e-03 2.594313e-01 2.979577e-01 7.607549e-02 -1.926035e-02 -4.373978e-01 -1.614244e-01 3.732691e-02 8.649643e-02 4.302893e-02 -1.424089e-01
<VARIANCE> 39
 1.297596e+01 1.926715e+01 3.530221e+01 2.996766e+01 3.755709e+01 4.479782e+01 7.099559e+01 4.302198e+01 5.301821e+01 3.748029e+01 3.498228e+01 3.077507e+01 1.134851e+00 6.505685e-01 1.972392e+00 2.134515e+00 1.872134e+00 2.329722e+00 2.226724e+00 2.976537e+00 3.355125e+00 2.530301e+00 2.101135e+00 1.964528e+00 1.822161e+00 1.139755e-01 2.378696e-01 2.797770e-01 2.676969e-01 3.421082e-01 3.948856e-01 4.230511e-01 5.574711e-01 4.955319e-01 4.734689e-01 3.945056e-01 3.805562e-01 3.442394e-01 1.797223e-02
<GCONST> 1.047686e+02
<TRANSP> 5
 0.000000e+00 1.000000e+00 0.000000e+00 0.000000e+00 0.000000e+00
 0.000000e+00 2.849680e-01 7.150320e-01 0.000000e+00 0.000000e+00
 0.000000e+00 0.000000e+00 3.831597e-01 6.168404e-01 0.000000e+00
 0.000000e+00 0.000000e+00 0.000000e+00 7.974048e-01 2.025952e-01
 0.000000e+00 0.000000e+00 0.000000e+00 0.000000e+00 0.000000e+00
<ENDHMM>
~h "el"
<BEGINHMM>
<NUMSTATES> 5
<STATE> 2
<MEAN> 39
 -1.094183e-01 9.556512e-01 -4.232104e+00 -1.479071e-01 4.130266e+00 2.560791e+00 6.905147e-01 -1.979419e+00 1.070852e+00 1.621254e+00 3.252544e-01 1.527646e-01 -4.855231e+00 2.884502e+00 1.634608e-01 -1.042463e+00 -4.047620e+00 -1.270891e+00 9.030927e-01 -3.695458e-01 -7.763131e-01 -2.292817e-01 4.430156e-01 5.572419e-01 3.483439e-01 8.866540e-01 5.886538e-01 3.433729e-01 1.957815e-01 -8.570615e-01 -5.760788e-01 3.174550e-01 -1.052692e-01 -2.118814e-01 -3.820182e-01 -1.946032e-01 8.980764e-02 7.640661e-02 1.326495e-01
<VARIANCE> 39
