~o
<STREAMINFO> 1 39
<VECSIZE> 39<NULLD><MFCC_E_D_A_Z><DIAGC>
~v "varFloor1"
<VARIANCE> 39
 9.726257e-01 5.381249e-01 6.651532e-01 6.989120e-01 6.880192e-01 6.224947e-01 6.450717e-01 5.635375e-01 5.311891e-01 4.008754e-01 3.797459e-01 3.082840e-01 1.131276e-01 4.817885e-02 3.519386e-02 3.216594e-02 4.186358e-02 4.215040e-02 4.083050e-02 4.351060e-02 4.295653e-02 3.903697e-02 3.210390e-02 2.959472e-02 2.433364e-02 4.759443e-03 6.696086e-03 5.835324e-03 4.982519e-03 6.833524e-03 6.876886e-03 6.926220e-03 7.477231e-03 7.591971e-03 6.896265e-03 5.920904e-03 5.389229e-03 4.463565e-03 7.207811e-04
~h "b"
<BEGINHMM>
<NUMSTATES> 5
<STATE> 2
<NUMMIXES> 16
<MIXTURE> 1 6.291529e-02
<MEAN> 39
 7.668819e+00 8.069584e+00 9.393861e-01 8.232538e+00 6.776412e+00 3.126073e+00 -1.962120e+00 -7.279771e+00 -5.549095e+00 -1.830303e+00 1.259881e+00 -2.764796e+00 -5.869918e+00 -8.236787e-01 4.301873e+00 -6.226201e-01 1.471880e+00 2.859227e+00 2.509036e+00 2.297105e+00 -2.218675e+00 -1.231455e+00 -4.562030e-02 -5.890807e-01 -2.857986e-01 -1.119459e+00 -6.303924e-01 -7.735679e-01 8.349374e-01 -4.181327e-01 -1.098730e+00 -7.226192e-01 -1.868627e-01 7.686345e-01 2.311077e-01 -9.823086e-02 -1.712534e-01 2.780789e-01 2.298530e-01
<VARIANCE> 39
 7.820055e+00 1.719659e+01 1.445021e+01 1.512021e+01 1.378165e+01 1.563625e+01 1.914378e+01 1.886038e+01 2.418020e+01 2.008026e+01 1.726338e+01 1.869884e+01 1.474339e+00 1.077514e+00 1.868724e+00 3.229093e+00 2.989493e+00 3.403501e+00 3.348686e+00 3.862578e+00 3.560070e+00 4.756305e+00 4.123273e+00 2.793402e+00 2.723483e+00 9.432187e-02 1.787981e-01 5.455450e-01 3.671907e-01 3.888054e-01 3.993102e-01 3.975933e-01 5.268707e-01 4.839680e-01 6.339754e-01 3.432676e-01 3.194329e-01 3.524216e-01 2.739223e-02
<GCONST> 1.014563e+02
<MIXTURE> 2 5.544193e-02
<MEAN> 39
 -3.888703e+00 9.306005e+00 4.020035e+00 1.058939e+01 6.488730e+00 3.587544e+00 4.355164e-01 -3.161042e+00 -1.896024e+00 -2.650153e+00 -1.902872e+00 -2.518424e+00 -9.495018e+00 -2.076678e+00 -6.009116e-01 -1.161195e+00 2.721567e-01 1.073081e+00 1.551944e+00 1.578050e+00 1.613607e+00 1.263126e+00 8.491797e-01 7.153207e-01 7.062474e-01 -9.254624e-01 4.253232e-01 -8.679020e-01 -4.112706e-01 -9.759563e-01 -7.772971e-01 -3.924281e-01 -3.938153e-02 2.005624e-01 2.767700e-01 3.950787e-01 3.664579e-01 3.341471e-01 4.458857e-01
<VARIANCE> 39
 1.583617e+01 1.913956e+01 1.954928e+01 1.874983e+01 2.165216e+01 2.336658e+01 3.242171e+01 2.539194e+01 2.299155e+01 2.721566e+01 1.787662e+01 1.937601e+01 9.778476e-01 4.371495e+00 3.077301e+00 4.838491e+00 5.623170e+00 3.518028e+00 3.462637e+00 3.468428e+00 3.303822e+00 4.162921e+00 3.528648e+00 3.859095e+00 2.770442e+00 4.786864e-01 6.303853e-01 6.263672e-01 6.457449e-01 6.722755e-01 5.904064e-01 6.825705e-01 7.103948e-01 6.784036e-01 6.102450e-01 6.558524e-01 4.854691e-01 4.832133e-01 6.988171e-02
<GCONST> 1.152313e+02
<MIXTURE> 3 7.664765e-02
<MEAN> 39
 1.015124e+01 -2.852316e+00 1.065030e+00 2.624402e+00 -1.319790e+00 -6.028887e+00 -8.558419e+00 -7.432039e-01 1.565397e-01 1.109501e+00 1.734376e+00 -2.917187e+00 -2.665244e+00 -1.655047e-01 4.611581e+00 -4.800578e-01 2.560044e+00 3.528179e+00 2.697354e+00 1.425251e-01 -3.530664e+00 -1.182220e+00 -7.700925e-01 -2.429938e-02 -9.593635e-01 -1.376141e+00 -7.705399e-01 7.493692e-01 4.306114e-01 1.132111e-01 1.487920e-02 6.046825e-01 8.965017e-01 -1.412866e-01 -4.381150e-01 -4.560367e-01 -3.579145e-01 1.679968e-01 -1.826604e-01
<VARIANCE> 39
 7.433769e+00 1.958340e+01 2.876903e+01 2.909838e+01 2.614028e+01 3.337910e+01 2.617278e+01 3.216784e+01 3.426414e+01 4.491837e+01 3.008218e+01 2.798207e+01 1.497931e+00 1.225783e+00 2.065207e+00 6.310741e+00 5.061170e+00 4.253770e+00 5.592994e+00 7.988867e+00 4.729629e+00 6.577716e+00 5.658237e+00 3.655216e+00 4.548296e+00 1.110401e-01 1.397272e-01 3.495725e-01 3.943269e-01 4.644504e-01 6.180798e-01 6.640882e-01 5.702561e-01 6.548300e-01 5.405238e-01 7.278816e-01 5.362594e-01 4.730040e-01 2.183548e-02
<GCONST> 1.140763e+02
<MIXTURE> 4 4.490208e-02
<MEAN> 39
 5.284178e-01 4.774335e+00 -6.263087e+00 1.662186e+00 3.624961e+00 4.654095e+00 4.134320e+00 -1.743393e+00 -1.542158e+00 5.797662e-02 -2.144991e-01 3.449889e-01 -8.902213e+00 -2.465390e-01 -2.701737e-01 -5.862144e-01 1.045542e-01 5.484228e-01 5.524169e-01 6.767554e-01 2.130780e-01 -1.781050e-01 6.952213e-02 5.553691e-01 3.758784e-01 -1.453111e-01 -3.966824e-01 1.854515e-01 1.139041e+00 7.289314e-01 1.660348e-01 -3.551983e-01 -5.063835e-01 -1.256945e-01 7.644699e-02 -1.061385e-01 -1.114763e-01 -1.398008e-01 1.604225e-01
<VARIANCE> 39
 3.406720e+01 2.866491e+01 2.238976e+01 2.860485e+01 3.882968e+01 2.711497e+01 3.921699e+01 2.696963e+01 4.376692e+01 3.822077e+01 2.888612e+01 2.955186e+01 1.653798e+00 2.815622e+00 2.169824e+00 3.755838e+00 3.570205e+00 2.688477e+00 2.291371e+00 2.786649e+00 3.686099e+00 3.674409e+00 2.656980e+00 2.519386e+00 2.228317e+00 1.863932e-01 5.507824e-01 4.084011e-01 5.656543e-01 7.695013e-01 7.141979e-01 7.439378e-01 6.736668e-01 6.300786e-01 1.070313e+00 7.542916e-01 6.735395e-01 5.499970e-01 7.076133e-02
<GCONST> 1.168300e+02
<MIXTURE> 5 8.433612e-02
<MEAN> 39
 -9.175916e+00 4.304063e+00 -1.580417e-01 8.420645e+00 5.532802e+00 5.384950e+00 3.371358e+00 6.185580e-01 2.327762e+00 1.803821e+00 2.263217e+00 7.654716e-01 -1.049678e+01 -6.865848e-02 -1.173437e-02 1.867624e-03 8.430870e-02 -1.628406e-02 8.681805e-02 -3.628071e-02 -1.559261e-01 -1.256194e-01 -1.853496e-01 -1.274635e-01 -1.280833e-01 -5.773390e-03 3.974948e-01 1.943393e-03 1.601762e-01 -2.512867e-01 -7.722652e-02 -2.345337e-01 -1.397181e-01 -8.434927e-02 -6.136531e-02 -1.482351e-01 -1.222041e-01 8.411370e-04 2.725100e-01
<VARIANCE> 39
 6.065133e+00 8.142280e+00 1.115991e+01 1.424723e+01 1.378486e+01 1.819493e+01 1.808782e+01 2.101159e+01 2.376572e+01 1.714072e+01 1.655505e+01 1.161469e+01 1.131276e-01 2.806374e-01 4.349440e-01 6.471826e-01 8.070857e-01 9.575927e-01 1.158926e+00 1.009324e+00 1.269757e+00 1.350454e+00 1.453175e+00 1.191679e+00 1.037015e+00 4.759443e-03 1.600900e-01 1.731095e-01 2.021782e-01 3.138054e-01 2.504238e-01 3.095263e-01 2.857026e-01 3.414699e-01 3.108810e-01 3.516231e-01 2.995188e-01 2.524607e-01 4.659859e-02
<GCONST> 7.524819e+01
<MIXTURE> 6 6.917147e-02
<MEAN> 39
 6.658323e+00 8.149647e+00 2.291798e+00 9.854104e+00 2.243019e+00 -3.323074e-01 -6.581185e-01 -1.122439e+01 -1.191663e+01 -1.620520e+00 1.268286e+00 -3.743313e+00 -5.049937e+00 -2.295192e-01 1.097481e+00 1.724199e-01 -6.222875e-02 1.397216e+00 1.003442e+00 -8.043181e-02 8.087329e-01 3.091992e-01 -1.317857e+00 -7.546628e-02 6.554657e-01 -3.928981e-01 -2.279213e-01 -5.433530e-01 -1.001772e-01 -7.368481e-01 -2.260305e-01 -1.384720e-02 -8.245958e-03 6.463543e-01 1.019284e+00 3.115319e-01 -2.029077e-01 2.106223e-01 1.113273e-01
<VARIANCE> 39
 8.593187e+00 1.290545e+01 1.731112e+01 3.590803e+01 2.727046e+01 3.732372e+01 4.246265e+01 4.432665e+01 4.455878e+01 3.479959e+01 3.164347e+01 4.111199e+01 1.230613e+00 7.472509e-01 1.353484e+00 1.522768e+00 2.574690e+00 2.583871e+00 3.496962e+00 3.683962e+00 4.203085e+00 5.108387e+00 3.425225e+00 3.926109e+00 3.061853e+00 6.487544e-02 1.614662e-01 3.201523e-01 2.984232e-01 6.201823e-01 4.232156e-01 5.252467e-01 6.210617e-01 7.430278e-01 7.535538e-01 6.456922e-01 5.957158e-01 6.560885e-01 3.128536e-02
<GCONST> 1.088896e+02
<MIXTURE> 7 5.042081e-02
<MEAN> 39
 -9.651484e+00 4.711544e+00 3.878379e-01 8.672349e+00 5.947026e+00 5.010443e+00 4.035448e+00 9.309517e-01 2.088205e+00 1.655205e+00 2.177073e+00 1.334501e+00 -1.046969e+01 2.906830e-01 -3.367531e-01 2.997090e-01 -9.346932e-02 2.589245e-02 -1.581831e-01 2.382843e-01 3.322133e-01 3.807976e-01 2.389217e-01 2.359934e-01 2.966542e-01 4.481914e-01 1.044590e+00 -2.747348e-01 9.009759e-02 -7.126617e-01 -4.921490e-01 -5.544197e-01 -4.231232e-01 -3.224978e-01 -1.306641e-01 -6.469747e-02 -1.528897e-01 -1.013515e-01 6.031665e-01
<VARIANCE> 39
 6.121538e+00 9.089313e+00 1.069716e+01 1.636137e+01 1.546752e+01 1.509990e+01 1.992042e+01 1.926505e+01 2.273854e+01 1.482207e+01 1.791917e+01 1.382535e+01 1.131276e-01 1.325087e+00 1.150890e+00 1.354788e+00 1.432633e+00 1.257150e+00 1.280648e+00 1.748063e+00 1.863556e+00 1.675195e+00 1.802966e+00 1.498081e+00 1.157783e+00 2.076609e-01 1.920631e-01 1.823566e-01 4.065285e-01 4.468076e-01 3.865404e-01 4.149936e-01 5.210767e-01 4.804825e-01 6.017893e-01 4.207312e-01 3.503165e-01 3.142220e-01 3.121097e-02
<GCONST> 8.892493e+01
<MIXTURE> 8 7.033846e-02
<MEAN> 39
 5.056065e+00 7.322937e+00 5.030193e+00 1.143096e+01 1.061662e+00 -3.754042e+00 -5.146276e+00 -4.822546e+00 -5.052543e-01 -3.827331e+00 -5.401742e+00 -4.947801e+00 -6.428748e+00 -1.141577e+00 3.575040e+00 -5.254302e-01 2.551277e+00 2.985157e+00 1.190683e+00 1.745435e-01 -9.863329e-01 -1.633515e-01 -7.367667e-01 -6.204183e-01 -1.481815e+00 -1.261607e+00 -3.753209e-01 -7.015130e-01 -9.255469e-02 -1.255222e+00 -4.743526e-01 3.347053e-01 3.548003e-01 4.065770e-01 -1.719614e-01 3.780172e-01 6.537414e-01 5.656476e-01 2.357460e-01
<VARIANCE> 39
 1.261964e+01 2.535185e+01 2.362732e+01 3.440287e+01 4.259843e+01 3.111254e+01 3.817996e+01 2.877106e+01 3.481898e+01 3.230497e+01 2.477295e+01 2.438474e+01 1.959183e+00 2.873745e+00 3.408971e+00 5.159636e+00 5.331909e+00 4.583071e+00 5.131806e+00 5.680210e+00 4.852504e+00 5.100012e+00 4.752440e+00 4.037248e+00 3.577417e+00 2.981607e-01 2.962788e-01 8.208293e-01 6.865304e-01 5.684195e-01 9.717972e-01 7.691382e-01 1.030233e+00 7.748901e-01 8.409141e-01 7.945977e-01 6.344915e-01 5.142039e-01 3.965239e-02
<GCONST> 1.215354e+02
<MIXTURE> 9 6.219061e-02
<MEAN> 39
 7.420660e+00 1.074129e+01 5.221820e-01 4.435504e+00 5.229576e+00 5.544750e+00 4.644584e-01 -8.828868e+00 -8.015306e+00 -4.187154e+00 7.787523e-02 3.526281e-01 -6.053143e+00 -2.007837e+00 3.780818e+00 2.426374e+00 3.695951e+00 1.798153e+00 4.306050e-01 1.852045e+00 -5.973873e-01 -1.726761e+00 -2.120389e+00 -1.547509e+00 -9.894317e-02 -1.361079e+00 -2.857016e-01 -1.072721e+00 -1.588654e-01 -5.004701e-01 -3.254732e-01 -3.233863e-01 -4.853485e-01 7.140012e-01 9.809676e-01 5.926895e-01 -1.092525e-01 -3.473890e-01 2.431274e-01
<VARIANCE> 39
 8.797457e+00 1.002633e+01 1.778811e+01 2.329060e+01 1.984181e+01 2.376789e+01 2.402457e+01 1.983871e+01 2.182027e+01 2.527418e+01 2.679889e+01 1.995523e+01 1.344461e+00 1.592708e+00 2.297780e+00 3.526367e+00 5.920039e+00 4.540955e+00 5.344656e+00 5.323177e+00 5.385744e+00 4.574565e+00 4.008143e+00 3.922472e+00 2.973096e+00 1.585396e-01 1.997839e-01 3.473484e-01 3.382906e-01 5.517830e-01 4.625175e-01 5.899990e-01 5.967129e-01 5.363339e-01 5.407805e-01 4.934464e-01 5.878497e-01 3.648295e-01 2.308845e-02
<GCONST> 1.083877e+02
<MIXTURE> 10 5.466883e-02
<MEAN> 39
 1.096695e+01 3.728683e+00 -4.188477e+00 -1.173373e+00 2.065833e+00 4.471653e+00 -3.608454e+00 -5.995185e+00 -3.581103e+00 -3.170422e+00 1.821202e+00 1.551458e+00 -3.858836e+00 -1.252936e+00 3.616522e+00 1.457903e+00 3.213228e+00 1.895679e+00 4.105693e-01 2.699388e+00 -6.624495e-01 -1.793712e+00 -1.497893e+00 -1.477301e+00 -4.945318e-01 -1.289585e+00 -4.635933e-01 1.160040e-01 4.719417e-01 2.135108e-01 -6.619028e-02 -1.477700e-01 -2.306322e-02 2.232011e-01 1.984001e-01 1.888372e-01 -1.890722e-01 -2.293100e-01 -1.743054e-02
<VARIANCE> 39
 9.351021e+00 1.416767e+01 1.954649e+01 4.022312e+01 3.128241e+01 2.740583e+01 2.841980e+01 2.880186e+01 3.191792e+01 2.967891e+01 2.933611e+01 2.672121e+01 1.176418e+00 8.106683e-01 2.353748e+00 2.526156e+00 6.978141e+00 4.954290e+00 5.797642e+00 6.152126e+00 5.304898e+00 6.225412e+00 4.881973e+00 5.106596e+00 3.763091e+00 7.106874e-02 7.140259e-02 2.573619e-01 3.047785e-01 3.744727e-01 4.390620e-01 4.253565e-01 3.962264e-01 4.314394e-01 4.559803e-01 4.000466e-01 5.068753e-01 3.499079e-01 1.423715e-02
<GCONST> 1.071628e+02
<MIXTURE> 11 6.058994e-02
<MEAN> 39
 5.839620e-01 1.155377e+01 4.171071e+00 1.162862e+01 7.050693e+00 3.555007e+00 9.023621e-01 -7.031850e+00 -4.347863e+00 -2.106719e+00 -1.499573e+00 -1.831722e+00 -8.347371e+00 2.305936e+00 1.510434e+00 4.551622e-01 7.785950e-01 1.590161e-01 -2.110918e-01 -7.283464e-01 -1.624174e+00 -1.677472e+00 -8.015296e-01 -3.403613e-01 -5.629506e-01 1.211933e-01 -5.709007e-01 -5.737148e-01 -3.815503e-01 -6.982707e-01 -2.347289e-01 -8.452713e-02 8.391508e-02 4.841651e-01 4.112036e-01 1.045370e-01 1.329498e-01 2.108252e-01 1.704748e-01
<VARIANCE> 39
 2.389268e+01 1.752963e+01 1.995138e+01 2.180214e+01 2.358856e+01 2.499567e+01 3.335480e+01 2.924710e+01 3.356149e+01 2.424486e+01 1.756624e+01 1.726538e+01 1.888919e+00 2.720361e+00 2.137916e+00 2.033386e+00 3.584454e+00 2.129150e+00 3.146652e+00 3.221312e+00 2.937916e+00 2.136941e+00 2.320373e+00 2.101510e+00 2.424408e+00 5.650769e-01 5.884633e-01 4.840332e-01 3.797738e-01 5.447063e-01 4.592140e-01 4.831062e-01 4.852118e-01 6.088508e-01 5.788167e-01 4.867603e-01 3.829828e-01 3.373909e-01 7.081933e-02
<GCONST> 1.091424e+02
<MIXTURE> 12 8.742850e-02
<MEAN> 39
 -8.414609e+00 4.719134e+00 4.675070e-01 9.148584e+00 7.486168e+00 6.223272e+00 3.315125e+00 7.046096e-01 3.614141e+00 3.193416e+00 2.428479e+00 9.853426e-01 -1.040996e+01 -1.993484e-01 -2.648370e-01 -8.864718e-01 1.363947e+00 1.908715e-01 6.358147e-01 5.382143e-01 1.959203e-01 1.027928e-01 6.268192e-01 4.346254e-01 -9.593542e-02 -7.994659e-01 -1.434367e-04 3.050406e-02 9.536364e-02 -7.503267e-01 -3.416076e-01 -5.700969e-01 -1.864711e-01 -5.358422e-02 -2.931300e-01 -4.468260e-01 -1.991254e-01 -1.226752e-02 5.623304e-01
<VARIANCE> 39
 7.284050e+00 1.208989e+01 1.649507e+01 1.472548e+01 1.553948e+01 2.088620e+01 2.046544e+01 2.633662e+01 1.966956e+01 1.901446e+01 2.367740e+01 1.727174e+01 1.131276e-01 2.862698e+00 2.694959e+00 3.216216e+00 3.360234e+00 2.811540e+00 2.724729e+00 2.592020e+00 3.190592e+00 2.731524e+00 2.630573e+00 2.154133e+00 2.131851e+00 3.903184e-01 7.093046e-01 3.393608e-01 4.935364e-01 4.591971e-01 5.659170e-01 5.275851e-01 5.405484e-01 6.130949e-01 4.872748e-01 4.189151e-01 4.089276e-01 3.651110e-01 6.563695e-02
<GCONST> 1.031703e+02
<MIXTURE> 13 7.346073e-02
<MEAN> 39
 5.637731e+00 1.225465e+01 3.344271e+00 7.731751e+00 1.866999e+00 -2.001859e+00 -2.550544e+00 -5.455402e+00 -3.934614e+00 -3.277647e+00 -4.842993e+00 -4.162808e+00 -6.519113e+00 -7.534181e-01 8.648559e-01 1.738071e-01 2.218650e-01 1.361851e+00 9.809783e-01 8.218425e-02 -2.239211e-01 -6.750406e-02 3.232253e-02 4.045945e-01 3.320513e-01 -4.114094e-01 -2.889379e-01 -1.167720e+00 1.192195e-01 -1.454275e-01 -2.210633e-01 8.022079e-02 5.122554e-02 2.431428e-01 1.222069e-01 2.284808e-01 4.709851e-01 3.588899e-01 1.749426e-01
<VARIANCE> 39
 1.005631e+01 1.114242e+01 1.978602e+01 2.661257e+01 3.378447e+01 2.834208e+01 3.286081e+01 2.945184e+01 2.962120e+01 3.163713e+01 2.421526e+01 2.440318e+01 2.426514e+00 1.079670e+00 2.834873e+00 2.621825e+00 3.120837e+00 2.928494e+00 3.080081e+00 3.381650e+00 3.257549e+00 3.763781e+00 2.862025e+00 3.177217e+00 2.491442e+00 9.148885e-02 2.014858e-01 3.694118e-01 5.568653e-01 6.738680e-01 7.806384e-01 4.908978e-01 7.120784e-01 6.827321e-01 6.733785e-01 6.620462e-01 4.417882e-01 5.329695e-01 3.139084e-02
<GCONST> 1.094128e+02
<MIXTURE> 14 6.041223e-02
<MEAN> 39
 8.312553e+00 8.732635e+00 1.201657e+00 8.303370e+00 3.572750e+00 -4.423336e-02 -8.314990e+00 -1.040384e+01 -3.642024e+00 7.712337e-01 5.442191e-01 -7.522959e+00 -5.756905e+00 -1.802526e+00 4.073678e+00 2.153663e+00 3.382631e+00 1.014067e+00 1.547945e+00 2.135933e-01 -2.406567e+00 -1.569665e+00 -1.746313e+00 1.763027e-01 -5.558752e-01 -1.280257e+00 -5.364863e-01 -1.041092e+00 -4.766152e-02 -7.768073e-01 -2.819791e-01 -3.257317e-01 6.211025e-01 1.341309e+00 4.350227e-01 -2.712979e-01 -4.505506e-01 7.151588e-01 2.268692e-01
<VARIANCE> 39
 5.724116e+00 1.162293e+01 1.326374e+01 2.435309e+01 1.710727e+01 2.280866e+01 1.902838e+01 2.643850e+01 2.695168e+01 2.531164e+01 2.183249e+01 1.797254e+01 1.608184e+00 1.233945e+00 2.141207e+00 2.822050e+00 4.380110e+00 3.741146e+00 5.132473e+00 4.408600e+00 5.087023e+00 4.750041e+00 4.228232e+00 3.171882e+00 3.030167e+00 1.699067e-01 2.056948e-01 3.344926e-01 3.668583e-01 5.021641e-01 4.664476e-01 6.078177e-01 6.978060e-01 6.032116e-01 6.622149e-01 6.700211e-01 4.241420e-01 4.594464e-01 3.480230e-02
<GCONST> 1.075544e+02
<MIXTURE> 15 4.298599e-02
<MEAN> 39
 1.202225e+01 3.246058e+00 -7.423295e+00 -3.025877e+00 2.757993e+00 2.353195e+00 -4.000261e+00 -6.708519e+00 -3.738415e+00 7.054583e-01 4.312594e+00 2.383371e+00 -3.121367e+00 -1.947839e+00 4.537325e+00 3.146981e+00 3.147152e+00 1.007214e+00 1.075971e+00 2.226766e+00 -1.605840e+00 -2.494195e+00 -2.650540e+00 -1.247977e+00 8.381695e-03 -1.548433e+00 -7.765024e-01 -8.280115e-02 7.152788e-01 6.753794e-01 5.775707e-02 -1.031090e-01 1.111701e-01 6.136435e-01 4.934339e-01 -1.964619e-01 -7.617416e-01 -5.973235e-01 -1.272715e-01
<VARIANCE> 39
 9.934450e+00 1.407355e+01 2.109795e+01 4.401528e+01 3.039356e+01 3.257321e+01 4.385778e+01 3.272009e+01 3.332964e+01 3.980136e+01 2.851087e+01 3.100822e+01 1.498042e+00 1.793093e+00 1.975401e+00 4.468654e+00 6.775857e+00 5.989272e+00 5.585660e+00 9.816863e+00 7.986364e+00 5.419240e+00 5.232941e+00 4.473256e+00 3.347167e+00 1.229067e-01 1.657620e-01 3.333499e-01 3.464649e-01 4.632900e-01 5.448649e-01 5.231458e-01 4.476896e-01 6.347024e-01 5.470033e-01 6.347824e-01 4.583666e-01 4.496148e-01 1.979483e-02
<GCONST> 1.147009e+02
<MIXTURE> 16 4.407696e-02
<MEAN> 39
 -9.287541e+00 4.616834e+00 5.282584e-01 8.464091e+00 5.774635e+00 5.277197e+00 3.272700e+00 3.993075e-01 2.054976e+00 1.154944e+00 2.238784e+00 1.370209e+00 -1.048004e+01 5.398879e-01 -4.344002e-01 -4.326486e-01 -6.903155e-01 -1.046167e+00 -1.126797e+00 -4.277508e-01 -4.215860e-01 -4.253503e-01 -6.516004e-01 -3.101459e-01 -7.677971e-02 2.231098e-01 6.646744e-01 -2.600610e-01 2.061511e-01 -6.964984e-01 -3.754709e-01 -5.546720e-01 -2.627814e-01 1.388104e-02 -3.522394e-02 -1.265775e-01 -1.098286e-01 -7.409991e-02 6.283846e-01
<VARIANCE> 39
 6.595009e+00 8.910136e+00 1.433557e+01 1.678290e+01 1.492116e+01 1.695018e+01 1.787781e+01 1.662813e+01 2.083043e+01 1.461333e+01 1.583114e+01 1.329004e+01 1.131276e-01 1.161616e+00 1.570568e+00 1.261183e+00 1.227765e+00 1.092655e+00 1.181739e+00 1.188483e+00 1.377851e+00 1.334086e+00 1.495768e+00 1.243005e+00 1.257494e+00 3.264939e-01 3.166440e-01 3.833591e-01 4.184384e-01 4.274546e-01 4.125638e-01 5.090066e-01 3.107486e-01 4.035237e-01 4.042453e-01 4.134765e-01 3.076460e-01 3.083159e-01 6.331461e-02
<GCONST> 8.878431e+01
<STATE> 3
<NUMMIXES> 16
<MIXTURE> 1 8.150864e-02
<MEAN> 39
 1.989476e+00 1.336050e+01 6.093488e+00 1.142550e+01 7.355044e+00 2.903623e+00 1.783382e-02 -6.762090e+00 -4.888875e+00 -3.491058e+00 -2.184774e+00 -8.055499e-01 -8.156629e+00 -3.528349e-01 -5.883607e-02 8.874913e-02 3.427971e-01 5.181305e-01 3.729981e-01 1.643659e-01 2.770123e-01 1.178509e-01 -1.083116e-01 -4.389891e-02 1.078010e-01 -1.194393e-01 -8.171424e-02 -4.293564e-01 -2.556494e-01 -3.072244e-01 -1.384827e-01 7.103663e-04 5.629174e-02 1.595080e-01 2.139693e-01 2.472110e-01 4.189481e-02 -2.896205e-02 9.762479e-02
<VARIANCE> 39
 1.264522e+01 8.007955e+00 1.494367e+01 1.643524e+01 1.659550e+01 2.712852e+01 2.396060e+01 2.852904e+01 2.410737e+01 1.999080e+01 2.066774e+01 1.347782e+01 1.490034e+00 7.072440e-01 4.744553e-01 9.068149e-01 1.155159e+00 1.122153e+00 1.045034e+00 1.219039e+00 1.472527e+00 1.501831e+00 1.522565e+00 1.436622e+00 8.371946e-01 6.489621e-02 1.149243e-01 1.934716e-01 2.114063e-01 2.964625e-01 2.082951e-01 2.455535e-01 2.456299e-01 3.453242e-01 2.922323e-01 2.979791e-01 2.766629e-01 1.763379e-01 2.220025e-02
<GCONST> 8.333234e+01
<MIXTURE> 2 9.028573e-02
<MEAN> 39
 5.816903e+00 9.491647e+00 2.879748e+00 7.748494e+00 2.139063e+00 -6.592157e-02 -2.990294e+00 -8.163657e+00 -6.794435e+00 -4.345280e+00 -2.297816e+00 -4.707578e+00 -5.876128e+00 -7.265086e-01 -1.298324e+00 -4.381292e-01 -1.534104e+00 -2.756747e-02 2.871152e-02 3.595364e-01 1.451423e+00 1.712737e+00 4.064850e-01 6.181024e-01 9.976094e-01 3.603455e-01 1.560393e-01 -1.180637e+00 -5.352669e-01 -1.383782e+00 -5.815655e-01 -3.944675e-03 3.223555e-02 5.287286e-01 5.737633e-01 7.503411e-01 3.566645e-01 4.275018e-01 4.282890e-01
<VARIANCE> 39
 1.418949e+01 2.314290e+01 2.336992e+01 3.543665e+01 3.107512e+01 3.640659e+01 5.651910e+01 4.846875e+01 5.219950e+01 3.875199e+01 3.838827e+01 3.700858e+01 1.969307e+00 2.840623e+00 2.732306e+00 3.205616e+00 5.549332e+00 3.280539e+00 3.504888e+00 4.598769e+00 5.511340e+00 6.139935e+00 4.402133e+00 4.533093e+00 3.260149e+00 2.983585e-01 4.958636e-01 6.623068e-01 9.135525e-01 1.132413e+00 9.228849e-01 9.641554e-01 1.237994e+00 1.435198e+00 1.330007e+00 1.101874e+00 8.987204e-01 8.374867e-01 4.197684e-02
<GCONST> 1.263751e+02
<MIXTURE> 3 6.592950e-02
<MEAN> 39
 5.106940e+00 1.306906e+01 2.780636e+00 7.974879e+00 7.601717e+00 5.948142e+00 7.199500e-01 -9.103254e+00 -9.555992e+00 -4.370550e+00 1.905174e+00 1.616753e+00 -7.081899e+00 -1.189829e+00 9.566393e-01 1.269872e+00 9.368240e-01 4.852857e-01 3.376089e-01 2.763716e-01 -4.071489e-03 3.872289e-02 1.822978e-02 -2.395826e-01 4.733682e-02 -4.010186e-01 -3.653899e-03 -1.152326e+00 -3.447983e-01 -5.730872e-01 -5.395275e-01 -6.463453e-01 -5.414177e-01 5.879464e-01 1.110830e+00 5.021891e-01 -2.356609e-01 -2.850918e-01 3.139953e-01
<VARIANCE> 39
 7.325279e+00 6.563855e+00 1.357242e+01 1.289194e+01 1.973233e+01 1.717124e+01 2.160242e+01 1.626277e+01 1.451795e+01 2.117636e+01 1.650233e+01 1.828124e+01 9.281299e-01 5.679072e-01 1.544839e+00 1.137663e+00 1.651525e+00 1.281422e+00 1.408711e+00 2.469865e+00 2.358816e+00 2.926532e+00 1.930530e+00 2.228611e+00 1.824302e+00 1.002355e-01 1.478472e-01 2.425531e-01 2.875313e-01 3.662468e-01 4.066815e-01 3.620169e-01 5.297635e-01 4.016514e-01 3.591526e-01 4.578914e-01 3.465797e-01 2.785241e-01 2.210855e-02
<GCONST> 9.045466e+01
<MIXTURE> 4 1.122879e-03
<MEAN> 39
 5.338026e+00 7.046883e+00 7.890346e+00 1.226820e+01 -3.774322e+00 -6.814260e+00 -6.075361e-01 -1.719589e+00 -9.439749e+00 -5.412055e+00 4.102538e+00 -4.339432e+00 -4.733327e+00 3.940579e+00 -1.432947e+00 1.110493e+00 6.238407e-01 -4.863161e+00 -1.773755e+00 -6.486299e-01 -2.536141e+00 -3.951334e+00 -2.478667e+00 9.056074e-01 8.394504e-01 1.578457e+00 -8.880312e-01 -4.380054e-01 -4.679364e-01 -7.840595e-01 -5.701445e-02 1.108302e+00 1.981964e-01 1.703971e-02 4.848674e-01 2.476816e-01 1.937098e-01 6.330708e-01 -2.836173e-01
<VARIANCE> 39
 2.205577e+01 5.434842e+01 6.845132e+00 4.185129e+00 5.616079e+01 4.167609e+01 2.821955e+01 2.134022e+01 9.129173e+01 2.287539e+00 2.752090e+01 9.456576e+00 1.488630e+00 1.121095e+00 2.411728e+00 2.151181e+00 5.454448e+00 1.209000e+00 2.468985e+00 2.277617e+00 3.947868e-01 6.258169e+00 1.096846e+00 1.012072e+00 3.218113e+00 3.491789e-01 3.622935e-01 5.582158e-01 2.462538e-01 5.699283e-02 1.879586e+00 2.012842e-01 1.529261e-01 3.096192e-01 2.586192e+00 2.347702e-02 2.961121e-01 9.280382e-02 8.049642e-02
<GCONST> 9.527835e+01
<MIXTURE> 5 6.046572e-02
<MEAN> 39
 1.463956e+00 1.410849e+01 6.961526e+00 1.256730e+01 8.670841e+00 2.390578e+00 -1.917862e+00 -7.121728e+00 -4.175075e+00 -2.382850e+00 -1.557761e+00 -2.031754e+00 -7.881312e+00 -2.035076e+00 3.346074e-01 1.073223e+00 1.138225e+00 1.166854e+00 9.425998e-01 8.795180e-01 8.678126e-01 2.871602e-01 -6.389754e-01 -3.111355e-01 2.137908e-01 -5.906703e-01 1.961447e-01 -1.447997e+00 -8.618971e-01 -1.194905e+00 -9.300816e-01 -2.889242e-01 1.879451e-01 5.162427e-01 5.411737e-01 4.041922e-01 1.896758e-01 1.855021e-01 4.086137e-01
<VARIANCE> 39
 8.871119e+00 6.281386e+00 1.217244e+01 1.553173e+01 1.370208e+01 1.646530e+01 2.275394e+01 1.655496e+01 2.155817e+01 1.819362e+01 1.733118e+01 1.573692e+01 1.444491e+00 8.231961e-01 1.720438e+00 1.717597e+00 1.997006e+00 1.612650e+00 1.418699e+00 2.376961e+00 2.207454e+00 2.310367e+00 2.576788e+00 2.095047e+00 1.902723e+00 1.039111e-01 2.613112e-01 3.240111e-01 4.202603e-01 3.988075e-01 4.499370e-01 4.122365e-01 4.643830e-01 4.670554e-01 5.305967e-01 4.360835e-01 4.571131e-01 4.096917e-01 2.933444e-02
<GCONST> 9.507030e+01
<MIXTURE> 6 5.093741e-02
<MEAN> 39
 -9.110187e+00 4.983583e+00 8.896112e-01 9.710216e+00 6.223620e+00 6.121184e+00 3.868361e+00 1.234369e+00 3.147554e+00 2.372188e+00 2.947627e+00 8.803671e-01 -1.048499e+01 1.307261e+00 -7.700855e-01 1.857372e-01 -1.421910e+00 -7.512059e-01 -1.053266e+00 -1.041949e-01 2.367618e-01 3.595014e-01 -2.017792e-01 6.463248e-02 3.720860e-01 1.270969e+00 1.475598e+00 -5.473418e-01 -3.326934e-01 -1.364553e+00 -7.045856e-01 -5.771581e-01 -5.524591e-01 -3.252807e-01 -1.877096e-01 -7.183634e-02 -2.199837e-01 -1.494057e-01 7.427920e-01
<VARIANCE> 39
 6.038122e+00 8.330084e+00 9.733513e+00 1.493661e+01 1.268638e+01 1.820814e+01 2.199525e+01 2.069827e+01 1.930643e+01 1.649771e+01 2.073704e+01 1.372678e+01 1.131276e-01 1.733059e+00 1.377067e+00 1.590694e+00 1.803156e+00 1.868866e+00 1.924385e+00 3.066693e+00 2.188930e+00 3.125037e+00 2.320759e+00 2.192147e+00 1.820549e+00 2.696899e-01 1.715431e-01 2.776195e-01 4.984721e-01 5.275009e-01 4.443727e-01 8.459359e-01 5.852559e-01 5.144086e-01 4.001668e-01 3.898691e-01 5.773249e-01 3.218873e-01 2.756647e-02
<GCONST> 9.484496e+01
<MIXTURE> 7 9.454957e-02
<MEAN> 39
 6.232964e+00 1.117844e+01 3.420106e+00 1.191658e+01 7.794986e+00 2.219041e+00 -5.072437e+00 -9.044847e+00 -2.388445e+00 6.504747e-02 -7.375041e-01 -5.783625e+00 -6.986390e+00 -3.863034e-01 5.312006e-01 4.247644e-01 4.222127e-01 3.523047e-01 5.550157e-02 -3.840530e-02 -8.128605e-02 8.776029e-03 6.645623e-02 -1.048696e-01 -8.114938e-02 -1.256101e-01 -2.219843e-01 -8.128327e-01 -1.218922e-01 -7.277517e-01 -5.499082e-01 -2.919020e-01 3.098300e-01 5.825962e-01 1.833220e-01 -1.194353e-01 -4.653209e-02 4.755027e-01 2.215355e-01
<VARIANCE> 39
 8.404451e+00 9.503716e+00 1.232100e+01 1.712123e+01 1.754008e+01 2.939740e+01 1.936030e+01 1.646384e+01 1.830939e+01 2.122768e+01 1.955502e+01 1.388391e+01 9.616851e-01 5.036778e-01 9.083830e-01 8.369343e-01 1.071537e+00 7.874385e-01 9.976311e-01 1.021622e+00 9.579911e-01 1.205987e+00 1.259914e+00 1.247910e+00 1.143776e+00 6.704459e-02 1.865826e-01 3.625103e-01 2.638057e-01 3.728664e-01 3.295942e-01 3.933181e-01 2.914326e-01 3.504441e-01 3.662997e-01 3.383254e-01 3.044073e-01 2.165357e-01 3.049466e-02
<GCONST> 8.422989e+01
<MIXTURE> 8 4.916369e-02
<MEAN> 39
 7.341265e+00 1.282721e+01 1.392340e+00 3.826297e+00 2.967857e+00 4.482756e+00 4.183434e+00 -3.254248e+00 -5.796050e+00 -6.964491e+00 -6.302398e+00 -7.215896e-01 -6.542981e+00 -1.657820e+00 2.443792e+00 1.970825e+00 2.692842e+00 1.445078e+00 -2.579288e-01 1.519582e+00 3.446263e-01 -8.917886e-01 -5.655887e-01 -1.207640e+00 -9.101165e-01 -9.509915e-01 6.396544e-02 -9.827486e-01 -3.101149e-01 -7.570944e-01 -3.792535e-01 1.437000e-01 -7.639241e-01 -2.414668e-01 3.070226e-01 4.843326e-01 8.574978e-01 2.972921e-01 3.140225e-01
<VARIANCE> 39
 1.076130e+01 1.472589e+01 1.980901e+01 1.918366e+01 2.190590e+01 1.647113e+01 2.046320e+01 2.146915e+01 2.233853e+01 1.614118e+01 2.075893e+01 1.819161e+01 1.143891e+00 6.286380e-01 1.444517e+00 2.392986e+00 3.559417e+00 3.509974e+00 2.502974e+00 3.898194e+00 2.404706e+00 3.037325e+00 2.507999e+00 2.930506e+00 2.250655e+00 1.006310e-01 1.108038e-01 3.534226e-01 4.150001e-01 6.343639e-01 4.302045e-01 4.285215e-01 5.607736e-01 3.955574e-01 5.382417e-01 4.140570e-01 3.273767e-01 3.556991e-01 1.846456e-02
<GCONST> 9.927502e+01
<MIXTURE> 9 6.854220e-02
<MEAN> 39
 -7.010092e+00 4.225288e+00 1.591276e-01 8.017774e+00 6.825325e+00 5.344694e+00 4.002211e+00 2.597518e-01 1.304667e+00 1.833307e+00 5.896914e-01 8.052077e-01 -9.454977e+00 1.862262e+00 -9.398182e-01 8.165922e-01 -9.206907e-01 -1.582153e+00 -2.224871e+00 -7.758555e-01 2.089166e-01 5.449383e-02 -5.718336e-01 -1.963138e-01 1.163458e-01 1.395890e+00 9.961284e-01 -4.254364e-01 4.310250e-01 -8.361512e-01 -1.067328e+00 -6.586347e-01 -6.813325e-01 -1.778896e-01 -3.438198e-01 -1.939098e-01 9.793188e-02 -4.387267e-02 5.745318e-01
<VARIANCE> 39
 1.471602e+01 2.348738e+01 2.107606e+01 2.115986e+01 2.501534e+01 2.737956e+01 2.253674e+01 3.074395e+01 2.958604e+01 2.550387e+01 2.290363e+01 1.906470e+01 1.385210e+00 3.178447e+00 2.054909e+00 3.181139e+00 3.599759e+00 3.168715e+00 3.297079e+00 2.910962e+00 3.268348e+00 4.300283e+00 3.468903e+00 2.271144e+00 2.376872e+00 3.544615e-01 3.325461e-01 6.113818e-01 1.046088e+00 8.453504e-01 7.037161e-01 6.618858e-01 6.532312e-01 8.761803e-01 9.567291e-01 7.128910e-01 5.758419e-01 5.140848e-01 4.998893e-02
<GCONST> 1.143555e+02
<MIXTURE> 10 6.481151e-02
<MEAN> 39
 4.515439e+00 1.287648e+01 6.584679e+00 1.122860e+01 3.022956e+00 -1.061302e+00 -1.002538e+01 -1.047244e+01 -4.406142e+00 -4.502054e+00 -2.758392e+00 -7.756745e+00 -6.822945e+00 -2.617378e+00 1.499963e+00 1.726333e+00 1.962308e+00 1.076132e+00 1.212420e+00 7.414684e-01 -3.562205e-01 -6.377047e-01 -1.515356e+00 -3.685592e-01 2.342449e-02 -8.848208e-01 -8.723309e-02 -2.097902e+00 -8.666304e-01 -1.555507e+00 -5.641531e-01 -2.882473e-01 1.096919e+00 1.642282e+00 7.562699e-01 8.107278e-01 4.084539e-01 9.585196e-01 4.713056e-01
<VARIANCE> 39
 8.194909e+00 6.396118e+00 1.495239e+01 1.791694e+01 1.959097e+01 2.207488e+01 2.076748e+01 2.183737e+01 2.519930e+01 2.724331e+01 2.677492e+01 1.771400e+01 1.526352e+00 1.640489e+00 2.702667e+00 2.554588e+00 4.238694e+00 2.544770e+00 3.810597e+00 2.519614e+00 3.100754e+00 2.915343e+00 3.229867e+00 2.924986e+00 2.525664e+00 3.141586e-01 2.705443e-01 2.966097e-01 8.343812e-01 6.162830e-01 7.575971e-01 8.666971e-01 6.262101e-01 6.361648e-01 1.003557e+00 8.540810e-01 7.860511e-01 5.519546e-01 5.436157e-02
<GCONST> 1.093831e+02
<MIXTURE> 11 8.459156e-02
<MEAN> 39
 6.457864e+00 1.130493e+01 1.602872e+00 1.011954e+01 8.296227e+00 2.717668e+00 -3.221840e+00 -1.022284e+01 -5.623491e+00 -6.271619e-01 1.658096e+00 -3.569052e+00 -6.771519e+00 -1.453614e+00 -1.260770e+00 2.465742e-01 -5.027714e-01 -4.790807e-01 -9.303527e-01 3.235549e-01 9.233252e-01 1.306562e+00 1.107347e-01 -4.553585e-01 6.407816e-01 3.000174e-01 -1.138291e-02 -1.790376e+00 3.218337e-01 -1.102433e+00 -1.582056e+00 -8.747845e-01 -2.393477e-01 1.220956e+00 5.135661e-01 -1.952804e-03 1.683876e-02 3.517581e-01 5.402117e-01
<VARIANCE> 39
 7.424174e+00 1.332413e+01 1.199498e+01 1.897100e+01 1.438985e+01 1.750792e+01 2.271532e+01 1.617201e+01 2.454238e+01 1.752435e+01 1.680395e+01 1.849637e+01 1.298957e+00 1.300413e+00 2.218366e+00 1.372501e+00 2.230385e+00 2.338945e+00 2.491746e+00 2.245479e+00 2.334110e+00 2.995025e+00 1.811399e+00 2.137927e+00 1.778961e+00 1.898772e-01 2.385798e-01 4.590743e-01 8.452235e-01 6.023144e-01 5.951844e-01 6.224406e-01 6.906732e-01 6.512572e-01 1.096885e+00 6.931850e-01 4.779159e-01 4.348313e-01 2.403651e-02
<GCONST> 1.019103e+02
<MIXTURE> 12 8.186477e-02
<MEAN> 39
 4.955419e+00 1.425514e+01 3.247618e+00 6.312973e+00 4.939683e+00 5.017342e+00 4.023835e+00 -4.312263e+00 -7.594925e+00 -6.817746e+00 -5.258130e+00 -6.749418e-01 -7.139883e+00 -5.086753e-01 2.127822e-01 4.245222e-01 2.672697e-01 1.230403e-01 5.438185e-03 1.217006e-01 2.148765e-01 2.667192e-01 -7.843050e-02 -2.908217e-01 -6.299704e-02 -1.213572e-01 4.939347e-02 -1.157092e+00 -5.228333e-01 -6.062064e-01 -2.714602e-01 -2.913040e-01 -5.920168e-01 -1.347118e-01 5.231905e-01 6.503631e-01 7.187320e-01 2.207569e-01 3.273142e-01
<VARIANCE> 39
 1.657467e+01 1.028672e+01 1.748458e+01 2.391527e+01 2.467337e+01 2.050920e+01 1.672019e+01 2.152916e+01 1.883825e+01 1.494905e+01 2.225811e+01 2.202618e+01 1.586742e+00 4.442593e-01 7.118255e-01 7.124779e-01 1.009028e+00 1.143266e+00 9.025668e-01 1.291940e+00 1.333603e+00 2.007983e+00 1.275314e+00 1.478079e+00 1.143420e+00 5.639675e-02 2.272331e-01 2.696825e-01 3.516332e-01 4.698978e-01 4.619949e-01 3.662179e-01 3.719786e-01 3.578337e-01 3.802320e-01 3.822922e-01 3.793195e-01 3.939557e-01 2.799767e-02
<GCONST> 8.915432e+01
<MIXTURE> 13 5.664374e-02
<MEAN> 39
 6.657667e+00 1.234679e+01 9.400833e-01 6.949039e+00 6.515635e+00 6.635376e+00 1.653719e+00 -1.203657e+01 -9.870562e+00 -4.085195e+00 1.290732e+00 8.324322e-02 -6.832583e+00 -1.402150e+00 1.674314e+00 8.513429e-01 1.256933e+00 9.302748e-01 3.109579e-01 1.155610e+00 -6.562849e-02 -3.576431e-01 -9.954014e-01 -1.101791e+00 2.428645e-01 -6.094858e-01 -7.041174e-02 -1.814831e+00 -2.573310e-01 -1.157784e+00 -9.387971e-01 -8.727316e-01 -9.233813e-01 1.213856e+00 1.374895e+00 8.640687e-01 9.000420e-02 -1.680031e-01 5.222362e-01
<VARIANCE> 39
 8.590116e+00 1.001576e+01 1.279096e+01 1.987304e+01 1.769145e+01 2.107098e+01 2.099222e+01 1.291651e+01 1.995067e+01 2.128622e+01 1.727017e+01 1.794575e+01 1.377417e+00 9.590437e-01 2.299804e+00 1.535711e+00 3.396120e+00 2.399392e+00 2.687534e+00 2.246897e+00 2.859454e+00 2.600908e+00 3.435011e+00 2.446205e+00 1.692223e+00 1.553783e-01 3.242275e-01 4.306298e-01 5.124311e-01 8.561742e-01 6.116198e-01 6.947381e-01 5.279885e-01 5.594843e-01 6.115208e-01 6.027037e-01 5.433993e-01 3.845913e-01 4.390926e-02
<GCONST> 1.026596e+02
<MIXTURE> 14 4.508511e-02
<MEAN> 39
 6.876282e+00 1.375632e+01 1.856038e+00 4.569117e+00 3.890592e+00 5.663311e+00 3.668159e+00 -4.759787e+00 -9.279333e+00 -1.032264e+01 -5.025679e+00 4.379148e-01 -6.762300e+00 -2.208813e+00 2.228057e+00 2.646055e+00 1.640339e+00 5.436293e-02 7.393486e-01 1.667505e+00 2.683303e-01 -1.096553e-01 -9.319436e-01 -1.773755e+00 -1.022113e+00 -9.020604e-01 -1.140231e-01 -1.848400e+00 -6.465123e-01 -4.846526e-01 -1.332313e-01 -8.110761e-01 -1.258426e+00 2.240395e-01 1.198633e+00 1.380811e+00 9.058458e-01 4.355051e-02 4.366644e-01
<VARIANCE> 39
 1.099152e+01 8.604967e+00 1.399199e+01 1.725977e+01 2.780764e+01 2.181008e+01 2.198178e+01 2.337240e+01 1.581704e+01 1.723804e+01 1.817599e+01 2.431016e+01 1.263664e+00 1.533815e+00 2.440089e+00 3.229078e+00 2.998394e+00 2.525821e+00 3.073930e+00 3.150063e+00 3.684241e+00 2.986628e+00 4.309217e+00 2.716543e+00 2.143362e+00 1.905766e-01 2.967163e-01 3.566835e-01 5.749347e-01 9.335260e-01 5.871219e-01 5.631019e-01 5.897451e-01 8.332101e-01 5.692665e-01 6.207360e-01 4.971029e-01 4.639966e-01 3.485413e-02
<GCONST> 1.064970e+02
<MIXTURE> 15 5.346791e-02
<MEAN> 39
 2.333200e+00 1.347688e+01 7.307869e+00 1.259423e+01 6.395455e+00 1.614839e+00 -3.809271e+00 -9.624276e+00 -6.488042e+00 -4.231016e+00 -1.400239e+00 -2.922389e+00 -7.560214e+00 -2.239833e+00 -1.950512e-01 7.715629e-01 1.113762e+00 9.323689e-01 5.936607e-01 9.641330e-01 1.108732e+00 2.384064e-01 -6.364423e-01 -3.320335e-01 2.068156e-01 -5.674060e-01 1.734428e-01 -1.616128e+00 -1.146517e+00 -1.502892e+00 -7.124758e-01 -2.439625e-01 2.399646e-01 1.004680e+00 1.094077e+00 7.737829e-01 3.191417e-01 2.590486e-01 4.252921e-01
<VARIANCE> 39
 1.119272e+01 8.802276e+00 1.096238e+01 1.659688e+01 2.265024e+01 1.774747e+01 2.747672e+01 2.035697e+01 2.344747e+01 2.425253e+01 1.799327e+01 1.768618e+01 1.888228e+00 1.809196e+00 1.422891e+00 1.483441e+00 2.328398e+00 1.661294e+00 1.841590e+00 2.087462e+00 2.188736e+00 2.566714e+00 2.050900e+00 1.812960e+00 1.339612e+00 2.755792e-01 2.711836e-01 3.739571e-01 3.746796e-01 6.304672e-01 6.818025e-01 4.423947e-01 4.866962e-01 5.511987e-01 5.487011e-01 6.438725e-01 4.355339e-01 3.636666e-01 5.387629e-02
<GCONST> 1.005679e+02
<MIXTURE> 16 5.102257e-02
<MEAN> 39
 -9.352643e+00 5.193604e+00 7.534364e-02 8.944427e+00 5.281044e+00 4.555299e+00 3.594004e+00 -6.785229e-02 1.715033e+00 2.625841e-01 1.773786e+00 1.069315e+00 -1.045768e+01 2.362416e+00 -1.316663e+00 -8.869263e-01 -2.482784e+00 -1.132445e+00 -1.523296e+00 -9.031174e-01 -4.597124e-01 3.317278e-01 8.788791e-02 -2.419860e-01 -1.961578e-01 1.663553e+00 1.389592e+00 -6.318085e-01 -2.981003e-01 -1.179343e+00 -4.734644e-01 -6.866572e-02 -4.169264e-01 -1.540068e-01 1.615025e-02 3.773904e-01 -5.807186e-02 -2.683186e-01 6.710182e-01
<VARIANCE> 39
 7.498073e+00 9.330704e+00 1.190763e+01 1.542498e+01 1.435148e+01 1.468299e+01 1.793365e+01 2.035469e+01 1.843162e+01 1.543354e+01 1.966677e+01 1.328530e+01 1.131276e-01 1.715815e+00 1.367495e+00 1.515180e+00 2.352914e+00 1.600417e+00 2.631472e+00 2.226777e+00 1.871627e+00 2.264443e+00 2.109278e+00 1.794608e+00 1.492797e+00 2.985084e-01 1.154198e-01 3.271381e-01 4.051244e-01 5.061195e-01 5.343729e-01 7.239146e-01 6.064144e-01 4.611689e-01 5.063652e-01 4.420646e-01 5.942410e-01 3.840192e-01 1.720956e-02
<GCONST> 9.363356e+01
<STATE> 4
<NUMMIXES> 16
<MIXTURE> 1 5.874437e-02
<MEAN> 39
 2.501828e-01 1.250630e+01 8.016609e+00 1.400060e+01 5.095482e+00 1.589970e+00 -6.270275e+00 -8.686565e+00 -4.812051e+00 -6.134106e+00 -2.650278e+00 -5.592516e+00 -8.187995e+00 -2.411959e+00 -2.779162e+00 -1.163931e+00 -1.190649e+00 1.039990e-01 9.135805e-01 2.651260e+00 3.118866e+00 2.163161e+00 9.859785e-01 1.213264e+00 1.518404e+00 1.145497e-01 8.442999e-01 -1.457631e+00 -1.135568e+00 -1.752812e+00 -7.985511e-01 -5.671307e-01 3.213831e-01 8.455802e-01 6.128528e-01 9.866312e-01 3.903692e-01 4.490640e-01 6.427885e-01
<VARIANCE> 39
 1.131879e+01 7.429828e+00 1.199742e+01 1.444935e+01 1.739610e+01 2.343102e+01 2.525009e+01 2.368067e+01 1.978692e+01 1.908947e+01 1.494297e+01 1.542944e+01 1.983966e+00 1.920809e+00 1.655999e+00 1.947533e+00 2.878582e+00 2.137934e+00 3.260315e+00 2.152471e+00 2.959990e+00 3.343927e+00 3.162740e+00 3.061769e+00 2.190445e+00 5.614814e-01 4.769993e-01 4.911094e-01 7.907988e-01 6.605950e-01 6.773539e-01 8.246126e-01 6.193779e-01 6.944252e-01 6.860763e-01 7.187138e-01 6.096143e-01 4.330808e-01 4.684337e-02
<GCONST> 1.074605e+02
<MIXTURE> 2 6.112489e-02
<MEAN> 39
 3.006979e-01 1.125015e+01 5.803009e+00 8.966969e+00 7.908847e+00 3.652763e+00 2.679815e+00 -4.384017e+00 -5.527029e+00 -4.708949e+00 -4.986131e+00 -1.097997e+00 -7.505754e+00 -2.079286e-02 -3.392042e+00 -2.425161e+00 -3.109589e+00 -1.434492e+00 -5.933992e-01 -5.534045e-01 6.353508e-01 2.346864e+00 1.809949e+00 1.567140e+00 7.763895e-01 1.139478e+00 1.250760e+00 -8.130919e-01 -1.089233e+00 -1.538444e+00 -1.090584e+00 1.520799e-01 -4.680740e-01 -2.463955e-01 3.774443e-01 4.452914e-01 8.895990e-01 1.235809e-01 5.352119e-01
<VARIANCE> 39
 1.399443e+01 2.154547e+01 1.716714e+01 2.365086e+01 1.983266e+01 1.911399e+01 2.216120e+01 2.220946e+01 1.836165e+01 1.877134e+01 1.635476e+01 1.537741e+01 2.006330e+00 2.074913e+00 1.638488e+00 1.403722e+00 2.992625e+00 2.873566e+00 2.024972e+00 2.870589e+00 3.192455e+00 2.843574e+00 2.642782e+00 2.440871e+00 2.003275e+00 2.202318e-01 2.438437e-01 5.669688e-01 5.712685e-01 9.547123e-01 6.034390e-01 7.805946e-01 9.270927e-01 7.305631e-01 6.848633e-01 7.940057e-01 5.192956e-01 5.906697e-01 2.517998e-02
<GCONST> 1.071217e+02
<MIXTURE> 3 5.724787e-02
<MEAN> 39
 -7.045058e+00 7.033773e+00 3.152885e+00 1.141737e+01 7.644762e+00 6.651980e+00 2.510603e+00 -2.444856e-01 1.575251e+00 -3.359714e-01 8.189309e-01 -9.810230e-01 -1.008960e+01 -6.097879e-01 -3.065016e+00 -1.788801e+00 -2.472394e+00 -1.201113e+00 -8.663365e-01 9.175469e-01 1.878874e+00 2.121704e+00 1.881832e+00 1.573340e+00 1.314290e+00 8.745828e-01 1.781605e+00 -2.820222e-01 -2.214665e-01 -1.147601e+00 -8.240640e-01 -9.502652e-01 -8.595183e-01 -5.318713e-01 -5.459952e-01 -7.212069e-02 -1.342855e-01 -1.009896e-01 7.797130e-01
<VARIANCE> 39
 1.048660e+01 1.277443e+01 1.567181e+01 1.661629e+01 1.761605e+01 1.896471e+01 2.314047e+01 2.259523e+01 1.922216e+01 1.964217e+01 1.894018e+01 1.583264e+01 4.842771e-01 2.490305e+00 1.471835e+00 1.521659e+00 2.381071e+00 2.694802e+00 3.268818e+00 3.254960e+00 3.044048e+00 2.704179e+00 2.197759e+00 2.314758e+00 1.968606e+00 5.016726e-01 3.138176e-01 4.102080e-01 7.367030e-01 6.496879e-01 5.249490e-01 7.028610e-01 6.044182e-01 6.337285e-01 6.488390e-01 6.635790e-01 5.642531e-01 4.447404e-01 3.159669e-02
<GCONST> 1.043607e+02
<MIXTURE> 4 5.536089e-02
<MEAN> 39
 -4.555862e+00 7.742849e-01 1.506914e+00 5.291569e+00 5.695528e+00 2.915075e+00 1.597535e+00 -9.155837e-01 9.978989e-01 2.603747e-01 1.493933e+00 -6.660639e-02 -5.922383e+00 1.361660e+00 -3.526185e+00 -3.514368e+00 -3.495059e+00 -1.165220e+00 -9.402946e-01 -4.736930e-01 1.155100e+00 2.295154e+00 2.134694e+00 1.752458e+00 1.016589e+00 1.462134e+00 1.892833e+00 4.588223e-01 -6.899105e-01 -7.358564e-01 -4.639186e-01 -2.600768e-01 -7.533635e-01 -4.596912e-01 -5.080255e-01 -3.051811e-01 -1.966846e-01 6.472073e-03 3.149880e-01
<VARIANCE> 39
 1.415612e+01 2.039903e+01 1.862893e+01 1.923063e+01 2.231115e+01 2.464145e+01 3.046019e+01 2.971379e+01 3.107160e+01 2.066470e+01 2.274688e+01 2.065548e+01 1.930778e+00 2.444754e+00 1.745407e+00 2.664264e+00 4.378579e+00 2.818692e+00 2.606947e+00 5.994566e+00 5.621728e+00 3.385159e+00 2.849576e+00 3.105129e+00 2.262010e+00 2.230979e-01 3.352297e-01 7.106065e-01 6.576174e-01 1.001768e+00 7.253293e-01 1.004576e+00 1.229613e+00 1.105498e+00 1.115268e+00 8.664981e-01 7.886483e-01 7.783678e-01 3.063089e-02
<GCONST> 1.158825e+02
<MIXTURE> 5 4.287127e-02
<MEAN> 39
 2.031314e+00 -4.471231e-01 6.024055e+00 6.070372e+00 -1.586552e+00 -7.781622e+00 -3.667041e+00 6.243633e-01 5.997577e-01 -3.153392e+00 -5.790748e-01 2.343564e+00 -3.255360e+00 1.798467e+00 -3.099305e+00 2.885630e+00 -1.615518e+00 -5.106519e+00 -2.551207e+00 -1.964599e+00 1.641411e+00 -1.465738e+00 -1.080242e+00 1.548172e+00 7.837987e-01 1.454205e+00 4.381530e-02 7.015281e-01 3.508967e-01 -8.443493e-03 -6.787524e-02 8.908117e-01 1.745681e-01 -4.162835e-01 -8.529367e-01 1.495683e-01 3.413215e-01 -3.923171e-01 -2.243581e-01
<VARIANCE> 39
 1.615974e+01 1.228712e+01 1.396075e+01 1.466638e+01 2.127465e+01 1.753073e+01 2.895785e+01 1.704867e+01 2.132215e+01 1.542426e+01 1.391343e+01 1.273423e+01 1.454658e+00 3.624686e+00 3.978228e+00 3.648254e+00 4.897478e+00 4.233264e+00 4.145475e+00 4.833271e+00 5.300385e+00 5.388801e+00 4.590542e+00 2.867772e+00 2.624288e+00 2.325356e-01 3.267273e-01 3.384745e-01 3.004960e-01 3.347569e-01 5.276288e-01 4.957777e-01 7.004777e-01 4.622114e-01 6.016000e-01 4.551350e-01 3.936795e-01 3.843793e-01 3.298964e-02
<GCONST> 1.076264e+02
<MIXTURE> 6 6.433427e-02
<MEAN> 39
 5.743214e+00 1.379179e+01 3.015699e+00 4.932982e+00 3.537987e+00 5.895684e+00 4.226818e+00 -4.458294e+00 -7.753914e+00 -7.840696e+00 -4.721854e+00 2.305419e-01 -7.084811e+00 -1.637376e+00 -2.268572e+00 -3.490469e-01 -3.737957e-01 2.588313e-01 -8.202813e-01 -6.628149e-01 1.859311e-01 1.695353e+00 1.482396e+00 6.178224e-01 1.412079e-01 3.675594e-01 4.859325e-01 -1.395999e+00 -9.281475e-01 -1.162274e+00 -4.884741e-01 -3.118357e-01 -8.743774e-01 -1.153218e-01 6.343530e-01 8.861673e-01 9.849209e-01 2.519867e-01 5.257741e-01
<VARIANCE> 39
 1.148803e+01 1.277837e+01 1.848947e+01 2.138944e+01 2.576879e+01 2.068506e+01 2.327500e+01 2.460239e+01 2.286215e+01 1.682268e+01 2.466269e+01 2.103512e+01 1.282792e+00 1.540766e+00 2.137934e+00 1.528076e+00 2.433072e+00 1.957520e+00 2.099059e+00 1.976182e+00 2.472050e+00 2.334016e+00 2.393533e+00 2.046304e+00 1.796708e+00 1.858302e-01 2.482327e-01 4.155231e-01 5.352483e-01 8.832653e-01 5.959452e-01 6.944773e-01 6.816744e-01 6.125566e-01 5.915384e-01 5.231978e-01 5.245746e-01 4.778094e-01 2.749505e-02
<GCONST> 1.036454e+02
<MIXTURE> 7 8.848573e-02
<MEAN> 39
 1.831309e-01 3.875709e+00 -1.129699e+00 3.561248e-01 3.266017e+00 -3.055202e-01 1.723186e+00 -2.983526e+00 -4.139059e-01 1.238181e+00 -4.141807e-01 2.471656e+00 -4.522419e+00 3.224046e+00 -2.925848e+00 -2.122387e+00 -5.044787e+00 -3.258798e+00 5.191766e-01 -1.343868e+00 -2.029520e-01 1.415532e+00 1.283928e+00 1.856049e+00 -1.147059e-01 1.935749e+00 6.284360e-01 -1.348047e-01 -5.974780e-02 -2.503377e-01 -3.975305e-01 7.659225e-01 -2.066773e-01 -1.914039e-01 -5.269922e-02 -1.514596e-01 2.455650e-01 -5.382447e-01 3.338768e-02
<VARIANCE> 39
 1.698439e+01 1.762621e+01 1.774085e+01 2.666477e+01 2.189915e+01 2.528287e+01 3.040766e+01 2.602294e+01 2.723352e+01 2.913127e+01 1.713233e+01 1.401479e+01 2.361441e+00 3.818372e+00 4.889813e+00 4.106674e+00 5.318721e+00 3.925776e+00 5.270208e+00 6.676636e+00 6.679649e+00 6.473262e+00 4.773256e+00 4.193191e+00 4.299598e+00 3.267640e-01 3.625598e-01 6.273477e-01 4.006357e-01 7.400655e-01 5.824344e-01 6.857123e-01 8.746137e-01 7.480328e-01 7.273237e-01 7.183297e-01 4.730845e-01 4.745895e-01 4.140399e-02
<GCONST> 1.182213e+02
<MIXTURE> 8 5.485342e-02
<MEAN> 39
 2.841658e+00 9.433789e+00 3.845755e+00 1.076011e+01 8.022862e+00 6.444693e-01 -2.752911e+00 -7.108979e+00 -2.504499e+00 -1.009702e+00 -1.483097e+00 -3.867388e+00 -6.441324e+00 -7.173417e-01 -3.787678e+00 9.881352e-01 -2.022402e+00 -3.213619e+00 -2.474105e+00 7.550991e-02 2.518689e+00 9.950041e-01 -1.096954e-01 3.503673e-01 1.430632e+00 1.132351e+00 3.515227e-01 -1.056150e+00 5.311996e-01 -9.483026e-01 -1.503621e+00 -4.210069e-01 -1.874708e-01 6.622180e-01 -3.751884e-01 -6.596970e-02 3.052874e-01 3.152913e-01 3.734873e-01
<VARIANCE> 39
 1.804398e+01 1.621549e+01 1.697346e+01 1.896363e+01 2.258033e+01 2.755386e+01 2.791479e+01 2.271144e+01 2.288049e+01 2.196613e+01 1.804860e+01 1.852961e+01 1.876525e+00 1.913390e+00 1.930996e+00 3.660050e+00 3.642649e+00 2.853100e+00 3.202527e+00 5.398895e+00 2.864402e+00 5.431181e+00 2.920377e+00 2.991254e+00 2.271620e+00 2.084727e-01 3.596167e-01 4.637888e-01 5.891702e-01 5.043775e-01 6.457961e-01 7.117299e-01 7.162172e-01 7.282260e-01 8.484830e-01 6.893759e-01 4.759576e-01 4.511599e-01 2.409933e-02
<GCONST> 1.104042e+02
<MIXTURE> 9 6.719334e-02
<MEAN> 39
 7.056458e+00 1.561362e+00 -5.273046e+00 -7.054882e+00 -1.462899e+00 3.786186e+00 2.566377e-01 -5.473234e+00 6.013984e-02 3.252443e+00 5.031142e+00 5.976300e-01 -2.006100e+00 2.615163e+00 -3.722224e+00 -2.971182e+00 -5.775085e+00 -2.177403e+00 1.181708e+00 -3.410729e-01 4.996190e-01 1.768958e+00 2.273368e+00 1.421459e+00 -7.893355e-01 1.706303e+00 -5.392438e-02 3.423421e-01 4.455636e-01 7.786685e-01 6.475099e-01 3.889743e-01 1.272307e-01 -5.179809e-02 -4.365377e-01 -4.127153e-01 -6.517283e-01 -4.992449e-01 -2.594962e-01
<VARIANCE> 39
 1.544040e+01 1.383080e+01 1.467491e+01 2.410285e+01 1.938215e+01 2.149305e+01 2.780411e+01 2.545833e+01 2.643845e+01 2.584637e+01 2.467898e+01 2.291807e+01 9.463063e-01 2.976219e+00 4.752411e+00 3.754056e+00 5.464659e+00 5.384795e+00 6.379209e+00 7.432425e+00 6.851025e+00 7.036904e+00 5.495369e+00 6.296562e+00 4.106369e+00 1.997659e-01 2.891439e-01 3.598262e-01 2.980441e-01 4.672883e-01 4.083582e-01 4.342166e-01 5.155372e-01 5.577182e-01 5.059677e-01 5.386137e-01 4.630057e-01 3.943190e-01 3.011700e-02
<GCONST> 1.130340e+02
<MIXTURE> 10 9.000637e-02
<MEAN> 39
 -4.961606e+00 -1.055241e-01 -7.025864e-01 3.863129e+00 3.603689e+00 1.767506e+00 2.022598e+00 2.564428e-01 4.938527e+00 2.414834e+00 3.533449e+00 1.554466e+00 -5.931633e+00 4.361439e+00 -1.413221e+00 -1.994077e+00 -3.461092e+00 -1.059452e+00 -1.432916e+00 -1.823620e+00 -7.042682e-01 -1.884690e-01 4.816263e-01 -3.218292e-01 -2.804743e-01 2.029042e+00 1.185793e+00 2.542064e-01 -3.048139e-01 -4.067905e-01 -2.359475e-02 9.006464e-02 -5.915772e-01 -2.005177e-01 -6.785061e-01 -2.486868e-01 -4.539998e-01 -3.149117e-01 1.088137e-01
<VARIANCE> 39
 1.233171e+01 1.978133e+01 1.777997e+01 2.521064e+01 2.337072e+01 2.350709e+01 3.046936e+01 2.316240e+01 2.692698e+01 1.960713e+01 1.999755e+01 1.858798e+01 2.745700e+00 2.100714e+00 2.420636e+00 3.180122e+00 5.596398e+00 2.274796e+00 4.250900e+00 4.131132e+00 2.949573e+00 3.116184e+00 3.473816e+00 3.908164e+00 2.600669e+00 2.922312e-01 4.223426e-01 7.777514e-01 5.764515e-01 8.205537e-01 7.251902e-01 8.577431e-01 1.057929e+00 9.135771e-01 9.053288e-01 6.756789e-01 6.786360e-01 6.164312e-01 6.275322e-02
<GCONST> 1.155875e+02
<MIXTURE> 11 7.428031e-02
<MEAN> 39
 -7.844642e-01 1.350025e+01 6.976535e+00 1.301343e+01 9.956548e+00 5.479037e+00 1.408639e+00 -5.998466e+00 -4.635500e+00 -3.415598e+00 -1.938200e+00 -8.891414e-01 -8.725718e+00 -1.664878e+00 -2.507848e+00 -1.041019e+00 -1.433653e+00 -7.065078e-01 -5.187721e-01 7.876348e-01 1.753784e+00 1.817743e+00 7.278431e-01 4.339178e-02 3.590145e-01 3.643453e-01 8.724011e-01 -1.392501e+00 -8.904856e-01 -1.520883e+00 -1.220412e+00 -7.046763e-01 -4.494249e-01 2.468838e-01 4.829881e-01 6.111728e-01 4.635273e-01 8.583860e-02 6.453975e-01
<VARIANCE> 39
 1.143494e+01 6.918261e+00 1.236784e+01 1.464418e+01 1.263773e+01 1.703163e+01 2.041281e+01 2.407585e+01 2.172519e+01 1.687661e+01 1.745891e+01 1.281740e+01 1.374662e+00 1.618934e+00 1.696810e+00 1.337496e+00 2.369244e+00 2.029803e+00 2.241501e+00 1.914865e+00 2.209382e+00 2.472956e+00 2.244441e+00 2.005595e+00 1.739843e+00 3.549587e-01 2.259220e-01 4.067422e-01 5.441618e-01 5.225939e-01 4.287005e-01 5.741745e-01 5.450615e-01 6.122279e-01 5.701978e-01 4.572553e-01 4.153574e-01 3.752892e-01 2.621476e-02
<GCONST> 9.851044e+01
<MIXTURE> 12 5.609751e-02
<MEAN> 39
 5.328265e+00 1.081864e+01 1.878575e+00 7.473152e+00 5.451863e+00 4.881363e+00 2.368402e-01 -9.190833e+00 -7.142918e+00 -4.265317e+00 6.285496e-01 -5.538709e-01 -6.252582e+00 6.043763e-01 -3.298301e+00 -1.985796e+00 -4.454644e+00 -1.833598e+00 -4.903993e-01 -5.053152e-01 1.385942e+00 2.512674e+00 2.147574e+00 1.130765e+00 3.522260e-01 1.314323e+00 3.758634e-01 -1.255486e+00 -5.662156e-01 -1.271090e+00 -5.435342e-01 -1.580082e-01 -2.083458e-01 6.035209e-01 6.283480e-01 8.167019e-01 -1.317068e-02 -3.368723e-01 3.937272e-01
<VARIANCE> 39
 1.192107e+01 1.452733e+01 1.951351e+01 2.834883e+01 2.088597e+01 2.294065e+01 2.988909e+01 1.772138e+01 2.615345e+01 1.975796e+01 2.122034e+01 2.046929e+01 1.647013e+00 1.592302e+00 2.541980e+00 2.279814e+00 4.131067e+00 2.891666e+00 3.729170e+00 4.097844e+00 4.673986e+00 4.733860e+00 3.174800e+00 3.487844e+00 2.617270e+00 2.099965e-01 2.698044e-01 4.188436e-01 4.102665e-01 6.630387e-01 5.515586e-01 7.722113e-01 7.669700e-01 6.748545e-01 7.714045e-01 5.643490e-01 8.576167e-01 4.798308e-01 2.500597e-02
<GCONST> 1.103415e+02
<MIXTURE> 13 6.395375e-02
<MEAN> 39
 -4.737237e+00 5.664298e-01 1.817518e+00 5.118979e+00 2.260930e+00 -1.617499e+00 3.442398e+00 3.197893e+00 3.899162e+00 -8.989938e-01 9.934997e-01 2.250646e+00 -5.633976e+00 3.065486e+00 -2.529863e+00 2.207314e+00 -2.499914e+00 -4.126968e+00 -3.505872e+00 -1.676854e+00 5.269012e-01 -1.356347e+00 -2.961336e-01 1.484370e-01 4.806445e-01 2.014496e+00 6.926992e-01 1.536311e-01 8.348708e-01 -2.838896e-01 -6.729783e-01 5.924343e-02 -7.397191e-01 -5.509167e-01 -8.878058e-01 1.425436e-01 -8.464809e-02 -2.933139e-01 4.744983e-02
<VARIANCE> 39
 1.280504e+01 1.729578e+01 2.012962e+01 2.502686e+01 2.932890e+01 3.191876e+01 2.823841e+01 2.725494e+01 2.660830e+01 2.673570e+01 4.060040e+01 2.060806e+01 2.076870e+00 2.331400e+00 3.184988e+00 3.470008e+00 4.726348e+00 3.176806e+00 2.946929e+00 5.284545e+00 4.821324e+00 3.673728e+00 4.644938e+00 3.584708e+00 2.305013e+00 2.142790e-01 3.423501e-01 5.960951e-01 5.093457e-01 6.515040e-01 6.193301e-01 8.658757e-01 8.328152e-01 1.035277e+00 9.094347e-01 8.031645e-01 1.120748e+00 5.358105e-01 4.346777e-02
<GCONST> 1.170762e+02
<MIXTURE> 14 7.546666e-02
<MEAN> 39
 4.516311e+00 -5.561959e-01 -1.126687e+00 1.001987e+00 -3.896974e-01 -4.578590e+00 -3.853091e+00 -7.542356e-01 4.529490e+00 2.968384e+00 1.475404e+00 -1.719967e+00 -2.329852e+00 2.077518e+00 -4.629224e+00 -1.178819e+00 -3.731366e+00 -2.988131e+00 -2.486783e+00 -9.670939e-01 3.045557e+00 2.094503e+00 1.498357e+00 -6.236663e-01 1.702384e-01 1.769306e+00 7.568444e-02 2.857656e-01 3.069977e-01 3.721179e-01 2.157414e-01 4.469941e-01 1.872253e-01 -6.669848e-02 -6.944610e-01 -4.566040e-01 -4.090330e-01 -1.120538e-01 -2.123760e-01
<VARIANCE> 39
 1.513525e+01 1.582819e+01 1.823652e+01 1.957977e+01 2.124840e+01 2.365870e+01 2.513845e+01 3.195828e+01 2.029791e+01 2.091697e+01 1.819701e+01 1.530784e+01 1.236642e+00 3.339800e+00 3.069880e+00 5.237829e+00 5.275126e+00 5.651763e+00 5.782653e+00 9.786808e+00 6.282787e+00 6.531830e+00 5.578473e+00 4.774936e+00 3.797158e+00 2.892900e-01 3.729780e-01 4.744109e-01 3.432376e-01 4.567097e-01 4.951934e-01 5.676122e-01 6.418599e-01 7.002705e-01 5.277852e-01 5.434270e-01 5.050682e-01 4.864518e-01 3.650738e-02
<GCONST> 1.147243e+02
<MIXTURE> 15 5.391942e-02
<MEAN> 39
 -3.923152e+00 5.614829e-01 7.877564e-01 5.160541e+00 5.186870e+00 5.303841e-01 2.887860e+00 -1.408440e+00 2.087691e+00 -1.900517e+00 -2.127499e+00 -3.148895e-01 -5.361810e+00 2.829749e-01 -3.826653e+00 -9.511477e-01 -3.051863e+00 -2.442938e+00 -1.860794e+00 -5.282622e-01 2.042017e+00 1.685564e+00 1.364128e+00 6.749258e-01 8.104092e-01 1.368170e+00 1.397182e+00 3.230457e-01 3.287345e-01 -5.169309e-01 -8.643379e-01 -1.435363e-01 -8.403805e-01 -2.493305e-01 -7.338850e-01 2.128881e-01 2.855519e-01 -1.343198e-01 2.363861e-01
<VARIANCE> 39
 1.437661e+01 1.803809e+01 2.949152e+01 2.373167e+01 2.509606e+01 2.707815e+01 2.571983e+01 2.875533e+01 2.910796e+01 3.002925e+01 2.112494e+01 1.665468e+01 1.342979e+00 1.858297e+00 2.480359e+00 3.296679e+00 4.038905e+00 4.103667e+00 4.066032e+00 4.496394e+00 4.737013e+00 3.402702e+00 3.419822e+00 2.335196e+00 2.802361e+00 2.388890e-01 2.727846e-01 6.943486e-01 7.415004e-01 9.929961e-01 7.698166e-01 1.057548e+00 9.062817e-01 1.076400e+00 9.184830e-01 9.827663e-01 6.472846e-01 5.424338e-01 2.265477e-02
<GCONST> 1.155992e+02
<MIXTURE> 16 3.604127e-02
<MEAN> 39
 6.717457e-01 -1.610669e-01 9.377993e+00 7.452060e+00 -3.871285e+00 -7.399455e+00 -1.034684e+00 9.969464e-02 -2.889685e+00 -3.739300e+00 2.980943e+00 -9.197621e-02 -3.662602e+00 4.025696e-01 -2.488449e+00 3.991255e+00 -3.761764e+00 -4.620193e+00 -1.425457e+00 -1.745523e-01 1.189420e-01 -2.646203e+00 1.243089e+00 4.178153e-01 7.225797e-01 1.284721e+00 2.046610e-01 8.043103e-01 1.414897e-01 -6.686807e-01 8.130927e-02 9.564136e-01 -3.991987e-01 -8.511208e-01 -3.766428e-01 5.045777e-01 -5.021663e-01 -3.283911e-01 -1.338440e-01
<VARIANCE> 39
 1.715729e+01 1.497179e+01 3.156110e+01 3.124971e+01 3.544633e+01 2.978056e+01 2.700323e+01 3.172047e+01 4.125787e+01 2.328345e+01 2.161544e+01 2.292758e+01 1.534487e+00 4.032108e+00 3.974648e+00 3.560119e+00 4.694288e+00 4.007724e+00 5.463840e+00 5.847029e+00 9.199119e+00 5.652749e+00 6.117229e+00 4.173719e+00 3.383030e+00 2.709437e-01 3.892182e-01 4.897141e-01 5.222620e-01 8.494022e-01 7.543974e-01 9.662861e-01 7.199900e-01 8.385705e-01 9.561123e-01 5.125524e-01 6.416209e-01 5.142202e-01 3.983384e-02
<GCONST> 1.205466e+02
<TRANSP> 5
 0.000000e+00 1.000000e+00 0.000000e+00 0.000000e+00 0.000000e+00
 0.000000e+00 6.203556e-01 3.796444e-01 0.000000e+00 0.000000e+00
 0.000000e+00 0.000000e+00 5.162265e-01 4.837735e-01 0.000000e+00
 0.000000e+00 0.000000e+00 0.000000e+00 6.475434e-01 3.524565e-01
 0.000000e+00 0.000000e+00 0.000000e+00 0.000000e+00 0.000000e+00
<ENDHMM>
~h "d"
<BEGINHMM>
<NUMSTATES> 5
<STATE> 2
<NUMMIXES> 16
<MIXTURE> 1 9.431516e-02
<MEAN> 39
 -4.592026e-01 1.252689e+01 8.088771e+00 1.270129e+01 4.753802e+00 4.659378e-01 -2.866882e+00 -5.725469e+00 -3.364130e+00 -5.331210e+00 -3.892536e+00 -3.306263e+00 -8.323080e+00 -2.355927e+00 -1.821121e+00 -1.288616e+00 -1.082881e+00 1.534417e+00 1.780549e+00 1.526000e+00 7.352061e-01 6.549280e-01 9.392113e-01 1.087700e+00 3.543097e-01 -1.905338e-01 8.950666e-02 -1.764730e+00 -5.198151e-01 -1.801071e+00 -1.131212e+00 -6.098710e-01 1.967800e-01 7.631663e-01 4.578634e-01 7.372015e-01 6.387724e-01 7.057646e-01 6.595911e-01
<VARIANCE> 39
 1.607577e+01 1.106169e+01 1.556616e+01 1.708536e+01 2.416888e+01 2.715728e+01 2.964873e+01 2.556406e+01 2.282367e+01 2.017189e+01 1.989236e+01 1.884435e+01 1.676227e+00 1.714727e+00 3.192098e+00 2.883187e+00 4.546109e+00 3.524302e+00 3.282240e+00 3.302333e+00 3.664485e+00 3.458488e+00 3.022210e+00 2.896273e+00 2.507311e+00 4.060541e-01 4.784349e-01 7.113768e-01 6.426067e-01 7.550008e-01 7.553952e-01 6.986282e-01 8.890209e-01 7.629014e-01 7.886489e-01 5.900775e-01 5.789346e-01 5.293444e-01 4.715412e-02
<GCONST> 1.129462e+02
<MIXTURE> 2 4.712874e-02
<MEAN> 39
 7.254925e+00 -7.110628e+00 -5.465817e+00 -3.460364e+00 -5.881932e+00 1.112667e+00 -9.236417e-01 2.559431e-01 8.385154e+00 1.166519e+00 -1.709896e+00 -6.136551e+00 -4.806597e-01 5.322565e-01 5.943257e-01 1.750839e+00 2.197033e+00 -1.729248e+00 -5.901649e-01 -1.846611e+00 -1.168937e+00 -1.279002e-01 9.582096e-01 5.792978e-01 9.774565e-01 -5.155938e-01 1.000847e-01 -1.752121e-01 2.549307e-01 5.933369e-02 3.080565e-01 -5.291725e-02 -1.043288e-01 4.786681e-02 -5.519210e-01 3.553230e-02 -4.450990e-02 3.668582e-01 -2.478703e-02
<VARIANCE> 39
 1.172958e+01 1.960709e+01 2.654625e+01 2.373033e+01 2.709556e+01 4.157367e+01 4.517134e+01 5.598626e+01 4.069926e+01 4.206217e+01 3.658601e+01 3.686248e+01 6.300497e-01 9.654596e-01 1.347952e+00 2.317231e+00 3.582568e+00 3.421773e+00 3.691880e+00 4.671001e+00 5.201092e+00 4.995234e+00 3.836213e+00 2.817131e+00 2.896158e+00 6.438483e-02 1.165983e-01 1.622319e-01 2.501336e-01 3.682945e-01 3.727468e-01 4.281161e-01 4.690451e-01 7.457652e-01 5.300792e-01 5.492826e-01 4.218743e-01 3.941193e-01 1.061380e-02
<GCONST> 1.062175e+02
<MIXTURE> 3 5.845155e-02
<MEAN> 39
 4.643328e+00 1.026269e+01 5.178937e+00 6.258738e+00 -1.326277e+00 -9.884781e-01 1.468375e-01 -8.461879e+00 -7.059491e+00 -2.519624e+00 -4.016183e+00 -2.211384e+00 -5.596440e+00 -2.300190e+00 -2.804235e+00 3.392668e-01 -1.315757e+00 1.550288e+00 2.055552e-01 -7.993041e-01 2.530961e+00 2.354056e+00 -4.552566e-01 1.264212e+00 8.071678e-01 1.378577e-01 -9.834653e-02 -1.092361e+00 -1.307557e-01 -7.548068e-01 -4.849660e-01 -3.494458e-01 -1.588010e-01 7.055136e-01 6.463816e-01 3.972727e-01 2.994479e-01 3.021427e-01 3.099720e-01
<VARIANCE> 39
 9.588451e+00 2.060224e+01 2.046106e+01 2.914629e+01 3.821409e+01 3.299705e+01 3.391393e+01 4.206787e+01 3.307477e+01 3.009755e+01 3.633260e+01 2.738485e+01 1.994971e+00 2.116068e+00 3.082863e+00 3.180034e+00 5.585593e+00 5.593248e+00 5.567099e+00 6.224408e+00 6.097156e+00 5.661896e+00 5.329464e+00 6.015827e+00 4.295178e+00 1.279509e-01 3.408111e-01 4.080284e-01 4.768522e-01 5.495921e-01 7.908792e-01 6.533111e-01 8.492789e-01 9.082009e-01 8.052445e-01 5.732412e-01 7.113407e-01 4.684250e-01 2.471882e-02
<GCONST> 1.188791e+02
<MIXTURE> 4 5.528448e-02
<MEAN> 39
 4.007615e+00 3.810364e-02 9.948543e+00 2.108185e+00 -6.142250e+00 -4.747251e+00 -4.016006e+00 7.752945e-01 -3.203422e+00 -4.353427e+00 9.879023e-01 3.869417e-01 -3.394722e+00 -7.187976e-01 1.434498e+00 -4.946704e-01 1.445483e+00 2.724286e+00 8.389367e-01 3.593415e-01 -5.574651e-01 6.317255e-01 -7.746446e-01 -8.158469e-01 -3.217140e-01 -8.033159e-01 -6.524498e-02 -1.715836e-01 -1.317291e-01 -4.041802e-01 -3.395245e-01 -3.248049e-02 1.246442e-01 -6.350064e-02 8.219509e-02 4.974885e-01 5.677380e-02 7.179621e-02 1.571611e-01
<VARIANCE> 39
 1.101774e+01 2.343216e+01 2.509893e+01 2.707822e+01 4.256197e+01 3.632795e+01 3.018450e+01 2.888510e+01 3.303189e+01 3.646755e+01 2.743113e+01 1.962826e+01 2.657403e+00 1.890757e+00 2.994409e+00 2.628875e+00 3.889892e+00 4.550066e+00 4.461789e+00 4.038864e+00 4.155810e+00 4.539837e+00 3.602569e+00 4.704407e+00 2.638351e+00 1.790077e-01 1.613018e-01 2.513812e-01 3.510246e-01 4.280524e-01 5.445381e-01 5.386925e-01 5.310862e-01 5.703896e-01 5.006291e-01 4.687015e-01 5.224755e-01 3.162771e-01 1.891619e-02
<GCONST> 1.109701e+02
<MIXTURE> 5 5.824533e-02
<MEAN> 39
 4.780497e+00 7.685521e-01 3.609596e+00 1.234852e+01 -7.245016e-01 -6.096294e+00 -8.894773e-01 -2.055646e+00 -1.456303e-01 -4.899098e+00 -4.651721e+00 -3.299854e-01 -4.809040e+00 -1.921033e+00 1.772666e+00 7.246779e-01 3.415104e-01 1.705877e+00 8.457916e-01 1.965578e+00 -1.251266e+00 -4.504150e-01 -1.786515e-01 -3.698556e-01 -2.033318e-01 -7.045101e-01 1.549648e-01 -6.354722e-01 6.791843e-02 -1.599123e+00 -7.387874e-01 3.620897e-01 -8.549542e-01 4.818466e-01 4.247741e-02 4.933371e-01 7.429774e-01 1.246995e-01 3.777334e-01
<VARIANCE> 39
 1.972214e+01 3.002492e+01 3.905962e+01 5.305640e+01 5.344152e+01 4.403677e+01 4.767841e+01 3.789891e+01 3.962935e+01 2.687501e+01 3.904359e+01 2.233996e+01 2.122891e+00 1.664132e+00 3.205968e+00 6.114984e+00 4.936356e+00 6.041517e+00 5.273013e+00 4.507531e+00 4.722886e+00 5.290436e+00 3.390956e+00 4.100329e+00 3.487010e+00 1.495328e-01 4.009072e-01 5.055739e-01 7.108024e-01 1.015021e+00 1.190358e+00 1.228705e+00 1.154778e+00 1.290532e+00 1.092240e+00 8.513402e-01 9.591813e-01 5.365464e-01 2.558432e-02
<GCONST> 1.251569e+02
<MIXTURE> 6 5.502946e-02
<MEAN> 39
 -6.941505e+00 3.153160e+00 1.838156e+00 5.374112e+00 6.520279e+00 4.982778e+00 2.557929e+00 -9.784606e-01 3.649413e-01 -2.467740e-01 -4.018671e-01 1.193983e-01 -8.005456e+00 -5.015358e-01 -1.325034e+00 -8.615428e-01 -8.672258e-01 -6.752068e-02 2.407901e-02 5.006888e-01 4.356660e-01 5.546347e-01 5.451932e-01 3.470053e-01 2.291078e-01 2.488011e-01 4.136174e-01 1.458106e-01 2.154852e-01 -3.719692e-01 -7.760894e-01 -8.318609e-01 -2.578543e-01 -3.883530e-02 -1.189728e-01 -4.439983e-02 4.837836e-02 1.017046e-01 3.973988e-01
<VARIANCE> 39
 4.556686e+01 4.042159e+01 6.854565e+01 4.254931e+01 3.825454e+01 3.418201e+01 3.532975e+01 4.085249e+01 3.282529e+01 2.346319e+01 2.670175e+01 2.012963e+01 3.689165e+00 5.807704e+00 5.260929e+00 5.613914e+00 5.766416e+00 4.968388e+00 5.333066e+00 4.210856e+00 4.099288e+00 3.683352e+00 3.376364e+00 3.111062e+00 2.303292e+00 9.123669e-01 1.088244e+00 8.331119e-01 1.470123e+00 1.195943e+00 1.210153e+00 9.695686e-01 8.460997e-01 9.496671e-01 6.599391e-01 5.894164e-01 5.932425e-01 4.752152e-01 1.130213e-01
<GCONST> 1.293008e+02
<MIXTURE> 7 8.330318e-02
<MEAN> 39
 2.150361e+00 1.307306e+01 7.637672e+00 1.179967e+01 3.400673e+00 -1.448387e+00 -1.993628e+00 -4.883563e+00 -1.916969e+00 -3.934741e+00 -5.157631e+00 -2.305550e+00 -7.765207e+00 -4.469478e-01 3.899077e-01 2.422839e-01 4.288745e-01 5.369324e-01 4.141732e-01 2.827057e-01 -1.086974e-02 -1.358778e-01 -3.872345e-02 3.072239e-02 9.205372e-02 -2.402992e-01 -3.254511e-01 -1.116442e+00 -3.464325e-01 -7.994212e-01 -1.551980e-01 1.250132e-01 1.223915e-01 3.041190e-01 1.367220e-01 2.501985e-01 4.250409e-01 1.877213e-01 2.276741e-01
<VARIANCE> 39
 1.304126e+01 1.201491e+01 1.843102e+01 1.948403e+01 2.857546e+01 2.498399e+01 3.369914e+01 2.948769e+01 2.678558e+01 2.319358e+01 2.763274e+01 1.869555e+01 1.393580e+00 1.165304e+00 1.571277e+00 1.377618e+00 1.550199e+00 1.621552e+00 2.007102e+00 2.089068e+00 2.098198e+00 1.934238e+00 1.879826e+00 1.873888e+00 1.397004e+00 1.269816e-01 2.537935e-01 4.736921e-01 3.569424e-01 5.296474e-01 4.290232e-01 4.321504e-01 5.611682e-01 5.439772e-01 4.799494e-01 4.709542e-01 4.248391e-01 3.501635e-01 4.350411e-02
<GCONST> 1.001259e+02
<MIXTURE> 8 6.703231e-02
<MEAN> 39
 2.997002e+00 1.046617e+01 8.453877e+00 1.240063e+01 2.834475e+00 -3.133887e+00 -2.415684e+00 -3.130453e+00 -1.077224e+00 -4.064120e+00 -6.090548e+00 -2.262569e+00 -7.102134e+00 -1.321575e+00 3.035868e+00 -1.497632e-01 1.881618e+00 2.797213e+00 1.338354e+00 1.190461e+00 -1.072271e+00 -5.290506e-01 -2.577502e-02 -1.007024e+00 -4.336001e-01 -1.116481e+00 -1.898315e-01 -1.599494e+00 -2.232078e-01 -1.475464e+00 -8.545408e-01 5.858208e-02 -1.820102e-01 4.179168e-01 -3.518083e-03 3.231763e-01 8.735770e-01 3.757137e-01 4.607787e-01
<VARIANCE> 39
 1.116019e+01 1.597251e+01 1.931127e+01 1.950516e+01 2.647614e+01 2.590189e+01 2.646181e+01 2.870900e+01 2.622011e+01 2.041596e+01 2.416890e+01 2.086374e+01 1.256310e+00 1.466639e+00 3.202970e+00 3.570954e+00 4.032244e+00 3.686205e+00 3.601531e+00 3.939161e+00 3.404266e+00 3.936349e+00 3.562373e+00 3.057344e+00 2.643127e+00 1.831999e-01 2.395749e-01 6.179523e-01 4.443470e-01 6.289371e-01 6.861124e-01 5.923673e-01 5.900428e-01 7.923806e-01 6.323934e-01 4.867263e-01 4.792634e-01 4.431978e-01 3.938627e-02
<GCONST> 1.103109e+02
<MIXTURE> 9 5.757983e-02
<MEAN> 39
 1.012310e+01 -6.339427e+00 -2.067468e+00 8.725722e+00 -6.843626e+00 -5.227123e+00 -5.289279e+00 -3.992481e+00 4.216537e+00 1.841343e+00 -3.146794e+00 -7.860913e-01 -2.209890e+00 -1.098731e+00 1.124328e+00 1.651729e+00 1.881290e+00 9.851071e-01 -8.988039e-01 1.298408e+00 -9.876779e-01 -1.452599e+00 -4.170817e-01 -9.807025e-01 1.481998e-01 -7.241603e-01 -2.459374e-01 9.843468e-02 1.792883e-01 -1.278807e+00 2.189926e-01 4.327967e-01 -2.592518e-01 6.926588e-01 -2.501504e-01 -2.090103e-01 6.444137e-01 1.430024e-02 1.150391e-01
<VARIANCE> 39
 1.218430e+01 1.657835e+01 5.017012e+01 3.778421e+01 6.612307e+01 3.951004e+01 5.503706e+01 4.485458e+01 4.578380e+01 4.298480e+01 3.309091e+01 2.747110e+01 1.196803e+00 1.254175e+00 2.816236e+00 4.107424e+00 5.871695e+00 7.214962e+00 6.260315e+00 8.922343e+00 8.136116e+00 5.748666e+00 5.241270e+00 5.782256e+00 5.137398e+00 1.563457e-01 1.504819e-01 3.016740e-01 3.950280e-01 4.911645e-01 1.024680e+00 7.407765e-01 9.651824e-01 9.356558e-01 1.059591e+00 8.958621e-01 8.208244e-01 6.215914e-01 2.080860e-02
<GCONST> 1.225633e+02
<MIXTURE> 10 6.058809e-02
<MEAN> 39
 -8.993160e+00 4.995913e+00 9.021640e-01 9.602943e+00 6.366799e+00 5.840082e+00 3.473367e+00 1.221040e+00 3.265460e+00 1.867762e+00 2.635174e+00 4.294261e-01 -1.046823e+01 -5.697336e-01 -1.316952e+00 -8.157753e-01 -1.093395e+00 3.519677e-03 1.748264e-01 7.247813e-01 8.226397e-01 8.227586e-01 8.210033e-01 8.564569e-01 6.462196e-01 2.714158e-01 4.608364e-01 -7.316090e-02 1.951558e-01 -7.436320e-01 -5.735710e-01 -7.807013e-01 -2.983189e-01 -3.089428e-01 -3.726706e-01 -2.754885e-01 -2.222065e-01 1.594821e-02 5.601505e-01
<VARIANCE> 39
 7.139554e+00 9.835604e+00 1.303913e+01 1.686466e+01 1.593871e+01 1.936160e+01 2.123736e+01 1.893247e+01 2.100697e+01 1.795568e+01 1.933115e+01 1.414654e+01 1.131276e-01 1.955791e+00 2.469700e+00 2.824631e+00 4.535099e+00 1.852772e+00 2.571777e+00 2.452092e+00 2.468955e+00 2.412996e+00 2.612415e+00 2.346973e+00 1.937995e+00 8.313969e-01 4.935017e-01 4.280613e-01 4.668230e-01 5.724773e-01 6.071924e-01 5.882505e-01 5.050081e-01 5.597673e-01 4.619108e-01 4.740107e-01 4.138104e-01 4.104360e-01 8.573603e-02
<GCONST> 1.021583e+02
<MIXTURE> 11 7.860959e-02
<MEAN> 39
 -1.893380e+00 1.206331e+01 7.312035e+00 1.275519e+01 7.259679e+00 2.337867e+00 1.633492e-02 -4.709634e+00 -2.729043e+00 -3.659860e+00 -3.960797e+00 -2.413255e+00 -8.860032e+00 -1.880039e+00 -4.174524e+00 -1.574940e+00 -3.727153e+00 -6.121702e-01 3.854185e-01 1.138716e+00 1.511336e+00 1.002835e+00 1.154129e+00 1.673247e+00 1.308026e+00 9.309826e-01 3.874907e-01 -9.284303e-01 -1.655495e-01 -1.125454e+00 -1.201590e+00 -9.130970e-01 -3.909015e-01 4.007047e-01 2.903369e-01 2.948404e-01 2.829241e-01 3.579090e-01 5.884370e-01
<VARIANCE> 39
 1.594267e+01 1.285207e+01 1.588359e+01 1.479696e+01 1.939462e+01 2.585494e+01 2.696845e+01 2.398184e+01 2.048607e+01 1.937907e+01 1.819421e+01 1.626636e+01 1.535700e+00 1.751564e+00 2.548455e+00 3.151371e+00 3.432280e+00 3.219325e+00 3.993653e+00 3.949096e+00 3.592637e+00 3.774025e+00 3.162013e+00 2.579791e+00 2.337345e+00 2.170532e-01 4.590207e-01 5.454825e-01 4.937474e-01 5.473539e-01 5.767246e-01 6.156401e-01 6.527767e-01 5.638352e-01 6.334149e-01 4.537024e-01 4.504097e-01 4.147794e-01 4.138736e-02
<GCONST> 1.082463e+02
<MIXTURE> 12 5.782394e-02
<MEAN> 39
 3.505326e+00 7.131230e+00 2.239062e+00 8.075356e+00 5.299783e+00 6.358539e-01 -5.034879e+00 -1.056030e+01 -2.184626e+00 1.956971e+00 -3.360011e+00 -5.125307e+00 -6.108471e+00 -1.580090e+00 1.314757e+00 1.114364e+00 2.431613e+00 1.126996e+00 -4.275379e-01 1.041176e+00 7.945874e-02 -5.079266e-01 -6.996883e-01 -9.061760e-01 -1.593297e-01 -7.961215e-01 1.568154e-01 -1.036369e+00 -2.115389e-01 -1.392620e+00 -9.106667e-01 -3.470784e-02 6.373802e-02 1.085035e+00 4.552654e-01 -2.625560e-01 3.780209e-01 6.415469e-01 4.011030e-01
<VARIANCE> 39
 2.901388e+01 2.952126e+01 3.605795e+01 4.180869e+01 5.139169e+01 4.732971e+01 5.034145e+01 4.260626e+01 5.042508e+01 3.290076e+01 3.962396e+01 2.842106e+01 2.880770e+00 2.434208e+00 5.184968e+00 3.159959e+00 5.383648e+00 5.085133e+00 5.813308e+00 6.098854e+00 7.134580e+00 6.579048e+00 4.531356e+00 4.557054e+00 3.545917e+00 2.848909e-01 5.567960e-01 8.412371e-01 7.237048e-01 1.066740e+00 1.158209e+00 9.651182e-01 1.141808e+00 1.048425e+00 1.272768e+00 8.741567e-01 1.045212e+00 7.216365e-01 5.194525e-02
<GCONST> 1.303061e+02
<MIXTURE> 13 5.355076e-02
<MEAN> 39
 2.824642e+00 1.231268e+01 8.696441e+00 1.024671e+01 -1.281520e+00 -2.410498e+00 -4.795524e+00 -6.164611e+00 -3.813176e+00 -7.309413e+00 -4.325026e+00 -3.460264e+00 -6.900857e+00 -1.824849e+00 2.105365e+00 1.186320e-01 2.499886e+00 2.556954e+00 2.099627e+00 -1.381638e-01 -1.182799e+00 -4.173670e-01 -1.091275e+00 -1.466103e-01 -1.366562e+00 -1.143214e+00 -3.691129e-01 -1.862393e+00 -7.204336e-01 -1.586529e+00 -1.081687e-01 -8.156276e-02 6.193119e-01 8.748839e-01 5.484765e-01 1.116740e+00 5.688871e-01 6.142974e-01 4.269160e-01
<VARIANCE> 39
 1.301117e+01 1.217969e+01 1.759713e+01 2.209279e+01 3.448495e+01 2.885235e+01 3.329231e+01 2.525578e+01 2.782685e+01 2.603062e+01 2.734279e+01 2.659245e+01 1.807558e+00 2.781332e+00 4.067642e+00 4.150645e+00 6.444994e+00 4.791538e+00 4.212186e+00 5.513204e+00 4.475939e+00 4.718769e+00 3.891533e+00 3.576802e+00 3.275950e+00 3.267538e-01 3.704530e-01 5.262857e-01 5.763312e-01 7.305061e-01 6.722255e-01 7.805443e-01 9.923381e-01 8.661378e-01 7.334701e-01 6.438599e-01 6.906550e-01 6.749039e-01 5.291332e-02
<GCONST> 1.185363e+02
<MIXTURE> 14 6.037401e-02
<MEAN> 39
 5.483350e+00 1.449225e+00 7.644786e+00 4.452878e+00 -5.861320e+00 -3.674677e+00 -3.904853e+00 -1.688792e+00 1.662759e+00 -2.691890e+00 -1.627645e+00 1.088369e+00 -3.867942e+00 -1.389218e+00 4.360492e+00 5.140311e-01 3.929605e+00 3.001856e+00 1.515010e+00 6.969261e-01 -2.363090e+00 -7.660210e-01 -1.319503e+00 -1.210319e+00 -1.224781e+00 -1.516181e+00 -3.497195e-01 -2.439105e-01 -4.827479e-01 -4.262402e-01 5.516757e-01 1.590335e-01 3.465941e-01 3.559632e-01 -1.883668e-01 2.404709e-01 3.897570e-02 -2.190347e-01 1.614817e-02
<VARIANCE> 39
 1.229871e+01 3.264091e+01 2.595165e+01 3.472733e+01 4.495938e+01 3.370096e+01 4.352019e+01 3.253294e+01 4.014442e+01 2.996922e+01 3.042902e+01 2.753476e+01 2.176058e+00 1.578616e+00 2.421480e+00 3.475765e+00 3.368476e+00 4.883485e+00 4.818253e+00 6.666060e+00 5.121476e+00 5.047131e+00 4.564614e+00 4.478518e+00 3.031142e+00 1.238526e-01 1.891473e-01 6.086392e-01 4.141052e-01 7.182255e-01 6.806871e-01 6.230445e-01 8.159995e-01 5.882366e-01 6.223802e-01 5.313925e-01 5.098590e-01 4.902883e-01 3.476454e-02
<GCONST> 1.169844e+02
<MIXTURE> 15 6.266335e-02
<MEAN> 39
 -9.746814e+00 4.573049e+00 -4.499134e-01 7.757389e+00 6.235366e+00 5.412661e+00 4.010094e+00 6.664600e-01 2.186388e+00 2.184901e+00 1.583804e+00 1.496931e+00 -1.046954e+01 8.301861e-01 -1.854199e+00 -2.357846e-01 -1.941859e+00 -8.680165e-01 -1.082665e+00 -4.924692e-01 -3.410892e-01 -4.157826e-01 -3.956418e-01 -4.697037e-02 9.417342e-02 8.958720e-01 2.279750e-01 1.400348e-03 2.542612e-01 -7.358237e-01 -4.502869e-01 -7.190572e-01 -3.173528e-01 -1.684420e-02 -1.370849e-01 -2.268175e-01 -1.674805e-01 -5.806220e-02 6.418290e-01
<VARIANCE> 39
 7.960467e+00 9.119323e+00 1.541788e+01 1.651936e+01 1.328409e+01 1.586863e+01 1.888453e+01 2.024312e+01 2.207920e+01 1.717149e+01 1.992542e+01 1.367586e+01 1.131276e-01 1.980370e+00 3.654466e+00 3.094973e+00 4.906927e+00 2.656763e+00 3.037126e+00 2.520905e+00 2.415317e+00 2.100604e+00 1.906852e+00 1.784438e+00 1.968504e+00 1.010066e+00 6.864079e-01 4.390451e-01 5.084011e-01 5.312790e-01 4.271417e-01 4.664707e-01 5.097425e-01 4.790478e-01 4.724795e-01 3.982268e-01 3.656700e-01 2.906644e-01 7.925013e-02
<GCONST> 1.014351e+02
<MIXTURE> 16 4.999657e-02
<MEAN> 39
 7.508510e+00 -6.479586e+00 3.586555e+00 -2.402923e+00 -9.103173e+00 -2.580108e+00 -7.003850e+00 3.577498e+00 4.312309e+00 7.327394e-01 -6.201042e-01 -1.216339e+00 -1.178610e+00 -2.586005e-01 1.102872e+00 1.785502e+00 1.708332e+00 1.148816e-01 1.975562e-01 -1.342510e+00 -1.719874e+00 -4.064009e-01 -3.361869e-01 3.756558e-01 4.972102e-01 -6.322050e-01 -1.067983e-01 -9.524716e-02 -1.789983e-01 -1.499791e-01 3.298729e-01 -2.048459e-01 5.256981e-01 7.507831e-03 -2.730304e-01 -2.146731e-02 -1.412795e-01 6.113638e-02 4.299583e-02
<VARIANCE> 39
 7.862493e+00 1.766532e+01 2.952599e+01 2.726740e+01 3.430443e+01 3.611800e+01 4.241477e+01 3.958890e+01 4.008507e+01 3.510313e+01 2.923986e+01 3.137154e+01 8.446242e-01 1.187526e+00 1.909068e+00 2.799653e+00 3.056036e+00 4.133455e+00 4.306241e+00 4.425557e+00 4.395351e+00 4.118166e+00 3.413417e+00 3.811057e+00 2.848345e+00 1.127437e-01 9.078994e-02 1.943470e-01 2.224369e-01 2.687418e-01 4.424419e-01 3.688300e-01 4.611236e-01 5.949989e-01 4.359233e-01 4.450274e-01 3.900144e-01 3.869376e-01 1.312480e-02
<GCONST> 1.055844e+02
<STATE> 3
<NUMMIXES> 16
<MIXTURE> 1 4.465062e-02
<MEAN> 39
 -1.458361e+00 -2.707101e+00 7.680156e+00 -1.227303e+00 -7.493933e-01 4.007897e+00 -5.131237e+00 -3.435037e-01 7.024303e-01 -3.976692e+00 9.067971e-01 2.624387e-01 -4.294389e+00 -1.213772e+00 -2.724921e+00 2.756363e-01 -2.223386e+00 -5.009967e-02 -5.537629e-01 -1.000241e+00 3.199704e+00 2.171953e+00 4.841681e-02 1.327097e+00 8.608649e-01 6.127067e-01 8.829201e-01 4.453949e-01 -5.723740e-01 3.370822e-01 -5.691195e-01 -1.108249e+00 6.480231e-01 -3.408708e-01 -4.015014e-01 6.687000e-01 -4.122716e-01 -1.112996e-02 1.271242e-01
<VARIANCE> 39
 2.221828e+01 2.601737e+01 1.896727e+01 3.096812e+01 4.255331e+01 4.261944e+01 3.326712e+01 3.758028e+01 4.372630e+01 2.116271e+01 4.054092e+01 2.095353e+01 1.639555e+00 4.113965e+00 2.911027e+00 3.872946e+00 5.353680e+00 5.879020e+00 6.580232e+00 7.191908e+00 5.310586e+00 7.575661e+00 4.933090e+00 4.556807e+00 3.829472e+00 2.462256e-01 4.119170e-01 5.437745e-01 5.282848e-01 7.581226e-01 9.288562e-01 1.346645e+00 7.695289e-01 9.336886e-01 1.142016e+00 7.048746e-01 1.306061e+00 7.107126e-01 3.480660e-02
<GCONST> 1.248401e+02
<MIXTURE> 2 8.394213e-02
<MEAN> 39
 7.546439e+00 -3.582223e+00 -1.639354e+00 4.901924e+00 -3.559450e+00 -2.939147e+00 -3.146858e+00 -7.341089e+00 3.081932e+00 5.318031e+00 -1.543027e+00 -3.562608e+00 -2.580763e+00 1.281414e-01 2.344354e-02 8.328700e-01 8.082507e-01 -3.738724e-01 -8.314285e-01 -8.904023e-01 3.089885e-01 -3.342320e-01 -1.486451e-01 6.696943e-02 1.033381e+00 -1.733758e-01 1.871508e-01 -5.070981e-01 -3.054915e-01 -1.022172e+00 -1.153670e-01 3.918107e-01 -2.542668e-01 1.163628e+00 2.837376e-01 -5.271059e-01 2.157400e-01 7.541492e-02 2.580497e-01
<VARIANCE> 39
 1.159144e+01 1.753203e+01 3.875053e+01 4.121457e+01 4.129382e+01 4.405385e+01 4.178899e+01 3.474665e+01 4.035853e+01 2.761418e+01 3.457360e+01 2.483259e+01 1.265448e+00 1.040334e+00 1.377547e+00 2.402363e+00 3.558732e+00 2.562285e+00 3.682211e+00 4.093281e+00 4.414575e+00 3.357481e+00 3.283699e+00 2.974308e+00 2.804753e+00 7.567491e-02 2.224213e-01 3.310091e-01 3.782056e-01 7.250308e-01 9.813322e-01 9.209141e-01 1.209244e+00 1.024464e+00 9.686946e-01 7.736562e-01 9.254370e-01 7.303771e-01 1.278054e-02
<GCONST> 1.139160e+02
<MIXTURE> 3 6.311980e-02
<MEAN> 39
 2.924459e+00 5.317537e-01 6.632766e+00 1.195913e+00 -2.016947e+00 -5.450149e+00 -5.010092e+00 -1.476693e+00 1.635425e+00 -2.559593e+00 -1.576598e+00 1.070954e+00 -3.308763e+00 -1.890964e-01 1.012760e-01 7.520639e-01 -1.169305e-01 1.561314e-01 -3.157863e-01 -2.317141e-01 -1.854677e-02 -1.835641e-01 3.218341e-02 1.876442e-01 4.947986e-01 -9.670593e-02 4.441616e-01 -7.755818e-01 -3.241501e-01 -3.659390e-01 -9.854915e-01 2.155894e-01 1.090353e-01 7.075227e-01 -2.397161e-01 2.957279e-01 1.921099e-01 -1.669889e-01 2.975806e-01
<VARIANCE> 39
 9.106949e+00 1.382514e+01 2.051318e+01 2.554766e+01 2.033698e+01 2.980905e+01 2.459337e+01 2.654472e+01 4.393151e+01 2.620518e+01 1.964698e+01 1.817235e+01 1.514972e+00 8.472459e-01 1.262460e+00 2.081615e+00 1.486060e+00 2.403113e+00 1.924426e+00 2.513482e+00 2.646088e+00 2.783845e+00 1.929521e+00 1.890133e+00 1.321325e+00 9.307906e-02 2.306476e-01 2.411678e-01 5.412543e-01 6.023514e-01 6.970121e-01 6.343725e-01 8.806109e-01 8.572322e-01 8.907416e-01 6.263157e-01 7.883558e-01 4.596754e-01 1.210358e-02
<GCONST> 1.027295e+02
<MIXTURE> 4 7.746077e-02
<MEAN> 39
 -7.539442e+00 -1.743731e+00 2.139569e+00 -2.278137e+00 6.514615e+00 2.336999e+00 4.052444e+00 6.380718e-01 9.822680e-01 2.199488e+00 3.183707e+00 4.570333e-01 -4.751307e+00 -6.994263e-01 -2.361508e+00 -8.225093e-01 -3.899382e+00 -2.000527e+00 -1.825376e+00 7.948110e-01 1.005568e+00 7.031701e-01 1.514290e+00 1.311830e+00 1.533331e+00 1.499764e+00 1.464430e+00 7.110526e-01 8.156711e-01 5.898507e-01 -1.557129e+00 -9.666100e-01 -8.967609e-01 -2.955970e-01 -4.035492e-01 -5.721486e-01 -6.516911e-01 3.954735e-02 1.279555e-01
<VARIANCE> 39
 1.304403e+01 2.087573e+01 2.755214e+01 3.267249e+01 2.587335e+01 3.692879e+01 2.889304e+01 3.123032e+01 2.898535e+01 2.444642e+01 2.680467e+01 1.939757e+01 1.598723e+00 2.635292e+00 2.556664e+00 3.087515e+00 2.580378e+00 3.676768e+00 3.241575e+00 3.763392e+00 3.934677e+00 3.430821e+00 2.674014e+00 2.505497e+00 2.212659e+00 2.382766e-01 3.984582e-01 5.114783e-01 7.217857e-01 9.092628e-01 7.789009e-01 9.132719e-01 8.776109e-01 1.059791e+00 9.319742e-01 7.299245e-01 7.047633e-01 6.488155e-01 3.546700e-02
<GCONST> 1.157594e+02
<MIXTURE> 5 4.715316e-02
<MEAN> 39
 -1.421113e+00 -5.252529e-01 3.465864e+00 4.929830e+00 -2.625003e-01 -2.382296e+00 3.225801e+00 -4.700353e+00 -6.087320e-01 -8.298384e-01 -3.133373e+00 3.007550e+00 -4.463992e+00 -1.739767e-01 -7.040717e-01 3.416072e-01 -1.081605e+00 -5.717765e-01 -2.249094e-01 -6.275910e-01 6.883041e-01 5.531937e-01 1.063697e-01 4.822486e-01 6.474156e-01 2.968446e-01 1.227112e+00 -4.928839e-01 -2.026002e-01 -9.606890e-01 -1.012583e+00 2.708042e-01 -1.487625e+00 7.335989e-01 2.454707e-01 -5.005069e-02 7.388429e-01 -6.478712e-01 4.189607e-01
<VARIANCE> 39
 1.659838e+01 3.726791e+01 4.009406e+01 5.300026e+01 4.665176e+01 4.947348e+01 3.505169e+01 5.725201e+01 5.556023e+01 3.099737e+01 2.521296e+01 2.169421e+01 1.497751e+00 1.944231e+00 2.590039e+00 3.729297e+00 4.346377e+00 5.225751e+00 4.147750e+00 5.774792e+00 5.354661e+00 5.573037e+00 3.934353e+00 3.413820e+00 3.016514e+00 2.138936e-01 3.889517e-01 8.577098e-01 9.737046e-01 1.459157e+00 1.447162e+00 1.349241e+00 9.738238e-01 1.671055e+00 1.828625e+00 1.037647e+00 1.051686e+00 8.006918e-01 2.338748e-02
<GCONST> 1.271840e+02
<MIXTURE> 6 8.120551e-02
<MEAN> 39
 -8.546089e+00 -1.540374e+00 1.130449e+00 -6.097222e+00 4.774978e+00 3.351904e-03 2.775202e+00 1.760242e+00 -1.885280e+00 1.204764e+00 9.207355e-01 3.176522e+00 -4.201429e+00 1.807518e+00 -4.659531e-01 1.171687e+00 -1.673726e+00 -2.652319e+00 -3.155032e+00 -1.524668e+00 -2.583436e-02 -3.748861e-01 -5.435006e-01 2.076056e-03 3.863935e-01 1.670967e+00 1.181907e+00 5.820713e-01 5.580662e-01 1.428685e+00 -8.980850e-01 -2.428069e-01 -7.155025e-01 -2.892098e-01 2.418962e-01 -3.166269e-01 -1.708935e-01 -4.287835e-01 -1.521614e-01
<VARIANCE> 39
 1.351146e+01 2.325104e+01 3.031365e+01 1.899738e+01 2.619850e+01 3.355890e+01 2.851829e+01 2.673739e+01 2.468666e+01 2.160567e+01 2.311539e+01 2.282806e+01 1.272576e+00 3.095919e+00 2.832128e+00 3.283043e+00 3.672267e+00 3.553866e+00 2.616069e+00 3.309955e+00 2.707215e+00 3.609013e+00 2.543716e+00 2.351245e+00 2.259197e+00 3.073522e-01 3.487023e-01 5.121772e-01 8.436273e-01 6.251228e-01 6.724279e-01 8.016577e-01 7.775419e-01 6.428401e-01 8.146153e-01 6.469528e-01 5.985562e-01 6.799115e-01 4.483168e-02
<GCONST> 1.134596e+02
<MIXTURE> 7 8.456551e-02
<MEAN> 39
 4.702001e+00 5.829855e+00 5.614094e+00 1.314887e+01 2.203841e+00 -2.998556e+00 -3.137700e+00 -5.583381e+00 -1.465893e+00 -2.780331e+00 -7.584061e+00 -4.266515e+00 -6.359312e+00 -1.375173e+00 -1.121476e+00 5.741168e-01 -2.323463e+00 -7.886054e-01 7.140270e-01 6.520051e-01 3.978557e-01 -4.750477e-01 -2.157966e-01 1.314566e+00 1.181532e+00 2.872174e-01 2.967828e-01 -1.230760e+00 -1.684388e-01 -1.599728e+00 -1.202707e+00 -2.738143e-01 -7.010964e-01 6.662874e-01 4.108665e-01 2.226876e-01 1.045578e+00 5.760019e-01 5.760536e-01
<VARIANCE> 39
 1.185090e+01 3.272467e+01 3.619510e+01 3.054560e+01 4.188956e+01 3.189009e+01 4.098012e+01 3.633006e+01 3.005170e+01 3.446040e+01 3.171060e+01 2.693698e+01 1.277325e+00 1.384638e+00 4.237381e+00 4.686575e+00 4.613819e+00 5.960562e+00 4.744132e+00 4.998396e+00 5.376394e+00 4.598509e+00 4.010872e+00 4.337578e+00 3.324526e+00 2.499675e-01 3.344173e-01 6.302623e-01 6.983413e-01 8.518899e-01 1.023150e+00 9.484390e-01 1.568352e+00 1.236580e+00 1.091515e+00 1.130189e+00 9.659088e-01 7.294562e-01 3.033335e-02
<GCONST> 1.236802e+02
<MIXTURE> 8 6.116961e-02
<MEAN> 39
 -4.094728e+00 -3.701930e+00 1.596624e+00 5.762867e+00 3.229596e+00 3.105610e+00 3.236294e+00 -1.381518e+00 3.912647e-01 -1.205378e+00 -4.385497e-01 1.044806e-01 -5.805038e+00 -3.107143e+00 -3.297174e+00 -1.799154e+00 -2.231709e+00 -1.999808e-01 5.019357e-01 1.723553e+00 2.122727e+00 1.791561e+00 1.322196e+00 1.751011e+00 1.354514e+00 6.192359e-01 4.965325e-01 9.681748e-01 2.134534e-01 -2.901679e-01 -4.164929e-01 -6.892043e-01 -5.362691e-01 -6.993683e-02 -7.741797e-02 2.609136e-02 -1.545894e-01 6.919643e-02 1.906953e-01
<VARIANCE> 39
 2.936322e+01 4.338464e+01 4.843383e+01 5.917994e+01 4.220897e+01 3.681079e+01 2.899471e+01 2.558454e+01 3.304656e+01 2.329256e+01 2.521069e+01 1.847514e+01 1.850234e+00 3.777915e+00 4.758832e+00 4.221989e+00 5.653898e+00 4.488627e+00 3.922930e+00 4.052988e+00 4.370173e+00 4.313090e+00 3.689990e+00 3.599621e+00 2.997004e+00 3.048387e-01 7.742627e-01 8.076633e-01 9.309766e-01 1.317232e+00 8.167951e-01 8.606301e-01 7.085563e-01 8.334041e-01 7.758827e-01 6.266271e-01 5.962909e-01 5.268009e-01 4.501549e-02
<GCONST> 1.237881e+02
<MIXTURE> 9 3.997657e-02
<MEAN> 39
 -3.592173e+00 -3.367830e+00 4.346054e+00 -1.039424e+00 -1.008983e+00 2.673821e-01 1.751576e+00 -1.659706e+00 2.352669e+00 -2.894839e+00 1.826048e+00 4.732522e+00 -3.788288e+00 9.456670e-01 -3.612570e+00 -2.443660e-01 -3.588659e+00 -2.929853e+00 -1.843937e+00 -1.906774e+00 2.590377e+00 1.600483e+00 1.196348e+00 1.420136e+00 1.044034e+00 1.567154e+00 1.230200e+00 5.269303e-01 -2.200373e-02 5.782775e-01 -3.836695e-01 -4.772307e-01 -8.540936e-01 3.083894e-01 -2.846285e-01 3.959275e-01 -6.667078e-01 -8.625280e-01 3.193488e-02
<VARIANCE> 39
 1.673000e+01 2.883292e+01 2.592973e+01 3.440759e+01 3.453380e+01 4.030622e+01 3.719793e+01 3.602939e+01 3.256974e+01 2.586382e+01 2.564618e+01 1.444731e+01 9.552974e-01 1.683352e+00 2.333878e+00 2.669732e+00 2.690695e+00 4.025204e+00 3.534871e+00 4.763212e+00 3.998207e+00 4.767719e+00 3.216913e+00 3.424348e+00 2.568764e+00 2.780751e-01 2.906692e-01 6.560904e-01 7.309682e-01 8.294869e-01 8.798959e-01 1.023312e+00 1.046560e+00 1.055209e+00 9.153966e-01 7.802998e-01 8.324553e-01 5.704708e-01 2.942977e-02
<GCONST> 1.174910e+02
<MIXTURE> 10 8.103125e-02
<MEAN> 39
 7.643754e+00 -6.369680e+00 5.888327e+00 4.276826e+00 -1.010424e+01 -3.171569e+00 -6.663273e+00 3.328253e-01 2.833841e+00 -2.597342e+00 -1.837853e+00 1.150130e+00 -2.045908e+00 -2.648607e-01 1.685425e-01 1.556450e+00 -4.488730e-01 -6.924877e-01 1.419361e-01 -6.584138e-01 1.365908e-01 -7.133580e-01 -8.570588e-02 5.396065e-01 2.117648e-01 -8.318028e-02 -1.074059e-01 -1.426352e-02 -3.756949e-01 -8.661736e-01 2.759583e-01 -1.405627e-01 2.085574e-01 5.388874e-01 -3.323440e-01 3.092501e-01 2.898722e-01 -1.685661e-01 1.597531e-01
<VARIANCE> 39
 9.717858e+00 1.454659e+01 3.706649e+01 4.160878e+01 3.263581e+01 3.133070e+01 4.242506e+01 3.358530e+01 3.785827e+01 3.409008e+01 3.081417e+01 2.250809e+01 1.346833e+00 1.111939e+00 1.364131e+00 3.632270e+00 3.514901e+00 3.097835e+00 3.111773e+00 3.922219e+00 4.750690e+00 4.829508e+00 3.219568e+00 3.131072e+00 2.497013e+00 5.671153e-02 1.313227e-01 2.178850e-01 3.347832e-01 5.178502e-01 6.851229e-01 6.877720e-01 1.359657e+00 9.898791e-01 6.973235e-01 7.647709e-01 9.713762e-01 5.000726e-01 1.188128e-02
<GCONST> 1.107037e+02
<MIXTURE> 11 6.149317e-02
<MEAN> 39
 -1.044364e+01 1.352947e+00 -2.922217e+00 4.624371e-01 3.975879e+00 2.152154e+00 4.823062e+00 3.053763e-01 5.021812e+00 2.250140e+00 6.161792e+00 1.191923e+00 -4.251097e+00 1.598054e+00 2.438767e-01 5.343170e-01 -2.803916e+00 -3.136504e+00 -3.241212e+00 -5.511714e-01 -8.660343e-01 -1.025691e+00 -4.371715e-01 -4.737184e-01 5.054005e-01 1.696728e+00 1.353462e+00 2.052351e-01 1.070801e+00 2.087846e-01 -8.365204e-01 -6.128834e-01 -8.262334e-01 -1.375364e-01 -7.565762e-01 -3.179755e-01 -9.179123e-01 -7.030899e-02 -1.006179e-01
<VARIANCE> 39
 2.215344e+01 2.703413e+01 3.105391e+01 3.093901e+01 3.307302e+01 2.922762e+01 3.293127e+01 2.879030e+01 2.569850e+01 2.983953e+01 2.696591e+01 1.721976e+01 1.904123e+00 2.742446e+00 2.685495e+00 3.755706e+00 3.202487e+00 4.159730e+00 3.347073e+00 2.975499e+00 3.444349e+00 2.679657e+00 2.782109e+00 2.426736e+00 2.101540e+00 4.441057e-01 5.312492e-01 6.849644e-01 8.495616e-01 7.494984e-01 8.359697e-01 8.214123e-01 8.998023e-01 8.511896e-01 8.449419e-01 8.291363e-01 7.728985e-01 5.122517e-01 7.007329e-02
<GCONST> 1.183208e+02
<MIXTURE> 12 6.540376e-02
<MEAN> 39
 -5.013338e+00 -7.705666e+00 -2.537405e+00 1.416703e+00 -3.515224e-02 1.337305e+00 3.045109e+00 -7.235308e-01 1.097039e+00 -2.737591e-02 9.858932e-01 2.206148e+00 -5.209577e+00 -8.928276e-01 -2.078037e+00 -6.857938e-01 -2.099490e+00 -1.498964e+00 -1.553159e+00 1.697658e-01 8.195016e-01 7.788692e-01 3.000507e-01 5.615306e-01 8.569385e-01 1.152225e+00 2.289687e-01 1.728016e+00 7.790749e-01 6.610478e-01 4.334836e-01 -3.515121e-01 -4.681333e-01 -1.246984e-01 -5.295604e-02 -1.108464e-01 -3.273795e-01 -2.138696e-01 -1.248925e-01
<VARIANCE> 39
 2.861004e+01 2.939024e+01 4.267001e+01 4.866472e+01 3.377021e+01 3.200223e+01 3.038755e+01 3.099667e+01 2.190216e+01 1.788443e+01 2.031363e+01 1.133785e+01 1.773139e+00 3.230264e+00 4.123456e+00 3.391370e+00 4.089054e+00 3.120423e+00 2.940640e+00 3.034498e+00 3.142175e+00 3.071890e+00 2.476659e+00 2.156361e+00 1.909914e+00 3.349005e-01 7.352579e-01 7.079239e-01 7.636961e-01 9.324343e-01 6.410090e-01 7.931716e-01 9.140445e-01 7.696614e-01 5.764261e-01 5.102186e-01 4.247478e-01 3.247444e-01 6.797855e-02
<GCONST> 1.159932e+02
<MIXTURE> 13 6.189956e-02
<MEAN> 39
 -3.326306e-01 2.316731e+00 8.890044e+00 1.260532e+00 -1.233442e+00 -7.954201e-01 -5.533604e+00 -4.530915e-01 -1.274951e+00 -4.620451e+00 2.027411e+00 -1.459552e+00 -4.460870e+00 -6.521149e-01 1.748246e-01 4.858792e-01 -6.739691e-01 2.658722e-01 -3.414340e-01 1.047086e-01 -2.270380e-01 -4.879899e-01 4.162392e-01 3.284300e-01 -2.080811e-01 6.628034e-03 8.498735e-01 -9.533604e-01 -4.122074e-01 -8.256338e-01 -1.027786e+00 -6.746091e-01 4.832892e-01 2.676545e-01 -1.328694e-01 8.275176e-01 -5.338873e-01 3.656752e-01 4.442439e-01
<VARIANCE> 39
 1.677278e+01 2.179066e+01 2.673928e+01 2.592819e+01 3.154024e+01 3.819223e+01 3.248220e+01 3.579422e+01 3.835586e+01 2.678773e+01 2.341779e+01 1.895956e+01 1.392501e+00 1.366428e+00 1.934667e+00 2.236637e+00 2.959409e+00 3.089187e+00 3.029283e+00 2.641527e+00 3.138830e+00 3.346807e+00 2.660048e+00 2.401573e+00 1.785110e+00 1.330499e-01 4.455822e-01 4.877727e-01 1.095098e+00 1.125005e+00 1.147114e+00 1.040110e+00 1.037174e+00 1.070789e+00 1.076538e+00 9.105856e-01 7.991073e-01 6.574883e-01 1.793162e-02
<GCONST> 1.147517e+02
<MIXTURE> 14 6.362917e-02
<MEAN> 39
 -1.701985e+00 1.398992e+00 7.080041e+00 -5.947558e-01 5.128877e+00 4.963257e-01 -1.573647e+00 -1.427301e+00 -4.240866e+00 -2.967683e+00 -1.081912e+00 -1.205781e+00 -4.686965e+00 -9.380813e-01 -2.509617e+00 3.744789e-01 -3.219366e+00 -1.031636e+00 -1.333103e+00 -4.674668e-01 1.710373e+00 6.962802e-01 7.818016e-01 1.443544e+00 1.506712e+00 9.097400e-01 9.412960e-01 -2.964462e-01 9.188065e-02 4.591224e-02 -1.774187e+00 -6.322020e-01 -1.545703e-01 -5.551465e-04 2.046071e-01 3.066861e-01 1.637036e-02 2.335829e-01 3.003246e-01
<VARIANCE> 39
 1.383520e+01 2.057235e+01 1.942231e+01 2.644824e+01 2.676879e+01 3.527684e+01 2.449943e+01 2.768578e+01 2.343065e+01 1.756882e+01 2.740487e+01 1.564480e+01 1.370749e+00 1.406805e+00 2.216464e+00 2.671592e+00 3.293944e+00 4.794853e+00 3.267565e+00 5.123293e+00 5.856628e+00 5.136986e+00 4.793930e+00 3.924329e+00 2.698122e+00 1.779256e-01 2.958481e-01 4.546524e-01 6.350242e-01 8.567698e-01 8.044449e-01 9.542451e-01 6.694148e-01 9.665006e-01 8.759546e-01 7.235179e-01 8.840326e-01 5.817257e-01 2.592165e-02
<GCONST> 1.145501e+02
<MIXTURE> 15 4.563546e-02
<MEAN> 39
 -3.437407e+00 2.348901e+00 4.852406e+00 4.894331e+00 1.444985e+00 -7.276504e-01 3.355914e+00 -6.081255e+00 -1.184986e+00 -3.846992e+00 2.221727e-01 -1.529151e+00 -4.889709e+00 -5.707235e-01 -6.660110e-01 1.647195e-01 -1.889977e+00 -6.795313e-01 1.732634e-01 -1.065693e-01 -1.258472e-02 6.980451e-02 4.715950e-01 4.729608e-01 4.261085e-01 4.030234e-01 1.292565e+00 -7.972601e-01 1.917831e-01 -1.172151e+00 -1.417243e+00 -2.588117e-01 -1.374310e+00 9.130771e-01 -1.924236e-01 6.489163e-01 -5.748379e-02 2.321110e-01 4.637135e-01
<VARIANCE> 39
 2.475570e+01 3.863764e+01 3.865238e+01 3.915408e+01 5.825827e+01 5.118621e+01 3.221484e+01 3.236077e+01 3.712408e+01 2.673261e+01 2.041058e+01 2.095811e+01 1.606968e+00 1.994573e+00 2.695824e+00 2.926327e+00 3.585320e+00 4.086726e+00 3.761851e+00 4.286250e+00 5.551600e+00 4.293064e+00 3.165529e+00 2.950234e+00 2.375341e+00 1.953925e-01 6.471090e-01 7.505490e-01 1.518612e+00 1.208544e+00 1.853684e+00 1.578049e+00 9.483987e-01 1.252465e+00 1.178637e+00 1.139042e+00 1.013320e+00 9.645972e-01 2.550228e-02
<GCONST> 1.248372e+02
<MIXTURE> 16 3.765287e-02
<MEAN> 39
 -3.148348e+00 -3.626736e+00 5.196104e+00 1.048894e+00 8.886664e-01 3.264834e+00 2.679230e+00 -8.383589e-01 1.156859e+00 -3.903173e+00 -2.558313e+00 3.384710e+00 -4.679456e+00 5.442830e-01 -3.585580e+00 -2.188739e-01 -3.944608e+00 -2.677273e+00 -1.432446e+00 -1.787826e+00 1.728987e+00 1.231415e+00 5.109000e-01 1.385830e+00 9.420198e-01 1.607156e+00 1.113843e+00 3.744784e-01 -8.806190e-02 2.689689e-01 -5.254086e-01 -8.054360e-01 -1.128677e+00 1.419151e-01 -8.523537e-02 5.461127e-01 1.748086e-01 -6.926478e-01 1.488492e-01
<VARIANCE> 39
 1.317172e+01 3.272831e+01 2.870488e+01 3.566318e+01 3.712997e+01 5.395143e+01 3.769278e+01 3.356293e+01 2.671700e+01 2.263268e+01 2.304894e+01 1.743021e+01 1.345726e+00 2.368840e+00 2.307965e+00 2.528448e+00 2.204631e+00 2.208045e+00 3.780928e+00 4.459816e+00 3.329035e+00 4.952485e+00 3.052598e+00 3.264143e+00 2.762486e+00 2.177381e-01 2.998733e-01 7.161107e-01 6.731621e-01 1.020715e+00 8.073702e-01 1.380908e+00 1.009259e+00 1.033136e+00 9.356591e-01 6.466401e-01 8.221436e-01 5.179248e-01 3.667795e-02
<GCONST> 1.173201e+02
<STATE> 4
<NUMMIXES> 16
<MIXTURE> 1 5.484879e-02
<MEAN> 39
 -8.875029e+00 -1.069384e+00 -1.126594e+00 -1.798984e+00 2.719532e+00 4.790244e-01 2.567768e+00 1.160246e+00 2.349895e+00 1.047078e+00 3.370654e+00 3.007248e+00 -4.895282e+00 -2.105368e+00 -3.189423e-02 -6.346459e-01 -5.526584e-01 1.062176e-02 -1.405300e-01 1.291524e+00 1.491235e+00 1.193039e+00 1.136365e+00 8.871743e-01 8.874375e-01 3.410504e-01 7.424349e-01 1.039037e+00 6.236841e-01 1.170359e+00 -8.203663e-03 -3.490561e-02 -2.327132e-01 -3.909430e-01 -3.257997e-01 -3.619341e-01 -6.980711e-01 -3.560609e-01 -2.108292e-01
<VARIANCE> 39
 2.826065e+01 3.241582e+01 4.498261e+01 3.812136e+01 3.903817e+01 4.139764e+01 2.965524e+01 3.452926e+01 3.717155e+01 2.247193e+01 2.577295e+01 2.514604e+01 1.774087e+00 5.096741e+00 4.181320e+00 4.028294e+00 5.460904e+00 3.566761e+00 3.493248e+00 3.536570e+00 3.109649e+00 2.744995e+00 2.288929e+00 2.672851e+00 2.677103e+00 6.631912e-01 6.940766e-01 8.387975e-01 8.384033e-01 8.774961e-01 9.381373e-01 1.133226e+00 6.361928e-01 7.872880e-01 9.013317e-01 6.334782e-01 5.803446e-01 6.560222e-01 7.899964e-02
<GCONST> 1.229616e+02
<MIXTURE> 2 7.957820e-02
<MEAN> 39
 9.948764e+00 -7.495088e+00 -2.084332e+00 5.626770e+00 -8.797074e+00 -3.541814e+00 -5.706086e+00 -3.725991e+00 6.640633e+00 2.932849e+00 -1.595273e+00 -1.001221e+00 -1.668358e+00 7.766150e-01 -9.287980e-01 -4.108011e-01 -8.285598e-01 -9.744321e-01 4.721298e-01 -1.625643e+00 1.823697e+00 8.227881e-01 -6.170133e-01 6.235807e-01 3.983684e-01 3.429044e-01 -7.481667e-02 1.140425e-01 -2.153816e-01 -7.385576e-01 5.022928e-01 2.691893e-01 -2.592156e-02 5.213041e-01 -2.308729e-01 -2.349759e-01 2.294330e-01 -1.643506e-01 7.131398e-02
<VARIANCE> 39
 8.845188e+00 1.431446e+01 3.901221e+01 3.168153e+01 4.264088e+01 4.286563e+01 3.543753e+01 3.588528e+01 3.191162e+01 3.331185e+01 2.983544e+01 2.742343e+01 9.964643e-01 1.054065e+00 1.473404e+00 2.991145e+00 3.420630e+00 4.152133e+00 4.065262e+00 5.224340e+00 5.153863e+00 3.887979e+00 4.065249e+00 3.961110e+00 3.556931e+00 7.186865e-02 1.233882e-01 1.946492e-01 2.557755e-01 5.026589e-01 6.345860e-01 5.422173e-01 5.308612e-01 6.124300e-01 6.919028e-01 5.044571e-01 5.127194e-01 4.013156e-01 1.219116e-02
<GCONST> 1.086158e+02
<MIXTURE> 3 4.859257e-02
<MEAN> 39
 5.663056e+00 -2.382607e+00 7.633759e+00 -1.548913e-01 -5.900006e+00 -6.616413e+00 -5.144241e+00 -1.817498e-01 -1.031035e+00 -2.122646e-01 -1.090473e+00 1.315989e+00 -2.452951e+00 2.577005e-01 -5.084608e-01 1.056158e-01 -5.422541e-01 -7.537110e-01 -1.072484e-01 1.618592e-01 3.898816e-01 -9.296740e-02 2.068460e-01 4.067721e-01 3.179511e-02 2.014586e-01 3.936205e-02 -1.985082e-01 -3.583899e-01 -1.781667e-01 -3.632800e-01 2.944788e-01 2.633295e-01 2.063757e-01 1.472934e-01 -4.299754e-02 1.138354e-01 -1.951788e-01 1.022364e-01
<VARIANCE> 39
 9.197213e+00 1.832599e+01 3.335598e+01 3.414631e+01 3.418962e+01 3.103787e+01 3.466056e+01 3.095187e+01 4.125703e+01 3.171624e+01 2.269155e+01 2.269211e+01 1.547600e+00 7.581861e-01 8.734311e-01 1.232665e+00 1.280922e+00 1.527662e+00 1.650651e+00 2.001315e+00 2.155716e+00 1.915476e+00 1.762982e+00 1.874349e+00 1.416117e+00 4.101675e-02 1.133270e-01 1.315303e-01 2.715377e-01 3.411413e-01 4.171823e-01 3.084689e-01 4.844115e-01 3.709652e-01 4.942541e-01 3.365877e-01 2.945836e-01 2.527071e-01 1.112511e-02
<GCONST> 9.383385e+01
<MIXTURE> 4 6.988918e-02
<MEAN> 39
 2.280115e+00 -6.571912e-01 3.432458e+00 1.112069e+00 -3.308866e+00 -5.962819e+00 -3.616279e+00 -2.864172e+00 3.910551e+00 -7.135324e-01 -4.503933e-01 8.642060e-01 -2.612446e+00 2.096992e+00 -2.131663e+00 -9.594778e-01 -1.498218e+00 -1.619747e+00 -3.261769e-01 -1.977284e+00 2.110340e+00 6.984013e-01 8.396065e-01 3.049741e-01 -5.969727e-02 7.967621e-01 8.563160e-01 -4.230635e-01 -4.774771e-01 -2.602482e-01 -2.859244e-01 4.423076e-01 -3.595986e-01 5.247999e-01 -3.032099e-01 2.198841e-01 2.234024e-03 -2.877888e-01 1.518045e-01
<VARIANCE> 39
 1.261781e+01 1.677168e+01 2.746219e+01 3.314527e+01 3.588771e+01 3.559698e+01 2.992301e+01 3.199212e+01 2.799421e+01 3.266914e+01 1.924544e+01 2.152142e+01 9.201105e-01 1.839814e+00 2.225953e+00 3.877457e+00 4.623539e+00 4.385317e+00 4.342196e+00 5.189370e+00 5.201732e+00 5.412333e+00 4.066912e+00 4.267004e+00 3.374017e+00 1.462385e-01 2.358645e-01 4.178517e-01 5.512208e-01 5.291640e-01 7.889836e-01 7.172165e-01 7.974162e-01 8.627067e-01 9.146728e-01 8.884838e-01 6.691422e-01 7.276114e-01 1.904470e-02
<GCONST> 1.156177e+02
<MIXTURE> 5 6.555016e-02
<MEAN> 39
 3.242475e+00 -1.106991e+00 9.930725e+00 -2.638301e+00 -6.517879e+00 -7.650846e+00 -4.183770e+00 1.178802e+00 -2.856759e+00 -1.266427e+00 1.366481e+00 2.038258e+00 -2.390198e+00 1.048505e+00 -1.529084e+00 7.643680e-01 -1.788824e+00 -2.801062e+00 -1.801232e+00 5.449222e-02 1.119350e+00 -2.899203e-01 1.348448e+00 2.461006e-01 1.135601e+00 8.206854e-01 2.983152e-01 1.827550e-01 -2.764358e-01 4.772675e-01 -2.570453e-01 2.734756e-01 2.801536e-01 -2.979674e-01 1.577407e-02 8.614381e-02 -3.734983e-01 -1.894546e-01 -4.544227e-02
<VARIANCE> 39
 8.870377e+00 1.412393e+01 1.932177e+01 2.377729e+01 1.986955e+01 1.966106e+01 2.624850e+01 2.514141e+01 2.554406e+01 2.780042e+01 1.627749e+01 1.308672e+01 1.235512e+00 1.770483e+00 2.319621e+00 2.997341e+00 4.131728e+00 4.585693e+00 4.264540e+00 4.392682e+00 5.674585e+00 5.178444e+00 4.699492e+00 4.794356e+00 2.243940e+00 9.898806e-02 1.557279e-01 2.969615e-01 2.483447e-01 4.507781e-01 4.134027e-01 3.845139e-01 4.186512e-01 5.947489e-01 4.758902e-01 4.337544e-01 3.460945e-01 2.977479e-01 1.959563e-02
<GCONST> 1.043334e+02
<MIXTURE> 6 5.766523e-02
<MEAN> 39
 -1.132279e+00 3.813994e+00 2.403567e+00 -1.159842e+00 -7.068991e-01 -9.158268e+00 -1.451341e+00 -2.061728e-01 2.082225e+00 8.640895e-01 -2.604504e+00 3.060658e+00 -2.472143e+00 3.971269e+00 -1.334054e+00 2.600920e-01 -9.477521e-01 -3.564213e+00 -1.667663e+00 -2.853203e+00 7.874377e-01 1.567874e+00 1.329520e-01 -4.484424e-01 -8.499779e-01 1.154610e+00 2.302354e-01 -3.054345e-01 -5.022290e-02 5.554205e-01 2.628652e-01 1.307984e+00 8.123825e-02 4.712106e-02 6.435782e-02 -7.787523e-02 1.127286e-01 -6.646453e-01 -3.584295e-01
<VARIANCE> 39
 1.778802e+01 1.486269e+01 1.904688e+01 1.879444e+01 3.425842e+01 2.789133e+01 2.932709e+01 2.431171e+01 2.291298e+01 2.156950e+01 1.857588e+01 2.058277e+01 1.457952e+00 2.034172e+00 3.181147e+00 4.449341e+00 6.136446e+00 4.711819e+00 5.105538e+00 7.016983e+00 5.169865e+00 4.635802e+00 4.762485e+00 5.998144e+00 4.806889e+00 4.004826e-01 4.279911e-01 4.679744e-01 4.593088e-01 5.310210e-01 7.517516e-01 5.814339e-01 6.733650e-01 6.149388e-01 6.326411e-01 5.980731e-01 5.475140e-01 5.594633e-01 2.563029e-02
<GCONST> 1.160327e+02
<MIXTURE> 7 6.557647e-02
<MEAN> 39
 -1.050458e-01 -5.763561e-01 6.221722e+00 -3.142017e+00 -1.640150e+00 -5.178117e+00 -4.934616e+00 -2.475494e-01 1.600621e+00 -1.190470e+00 7.166585e-01 2.038236e+00 -2.509146e+00 1.380845e+00 -2.982688e+00 -5.378032e-02 -2.968289e+00 -2.952889e+00 -2.056430e+00 -1.668140e+00 2.394796e+00 1.311079e+00 1.432305e+00 7.600800e-01 7.642822e-01 1.345279e+00 7.753282e-01 6.920305e-01 -1.911769e-01 9.885236e-01 -2.412173e-01 1.916400e-01 2.439759e-01 -3.942446e-01 -4.418668e-01 1.484820e-01 -5.619090e-01 -5.692393e-01 -1.777418e-01
<VARIANCE> 39
 1.116748e+01 1.271751e+01 2.145249e+01 1.978124e+01 2.756953e+01 2.884554e+01 3.129831e+01 2.861132e+01 3.062615e+01 2.343883e+01 2.394353e+01 1.847143e+01 8.903322e-01 1.649830e+00 2.879377e+00 3.786966e+00 3.966538e+00 4.912730e+00 4.721838e+00 6.464185e+00 5.551603e+00 5.660294e+00 4.491127e+00 4.238020e+00 3.692113e+00 2.017116e-01 1.903321e-01 3.082086e-01 4.621729e-01 5.208934e-01 7.575364e-01 7.475282e-01 8.163458e-01 8.198383e-01 9.586219e-01 6.994694e-01 8.103002e-01 5.576385e-01 1.948364e-02
<GCONST> 1.137264e+02
<MIXTURE> 8 8.052830e-02
<MEAN> 39
 -7.535554e+00 8.133437e+00 2.234517e+00 2.687563e-01 4.326166e-01 -4.227381e+00 2.819296e+00 -3.465359e+00 -3.898380e-01 -1.037866e+00 1.589839e+00 1.545934e+00 -3.561875e+00 3.460053e+00 -8.171014e-02 2.806023e+00 -7.854848e-01 -3.774456e+00 -2.994936e+00 -2.163830e+00 -5.271913e-01 -1.385592e+00 -3.918227e-01 -1.124946e+00 4.520166e-01 8.946314e-01 9.177686e-01 -6.600747e-01 5.807237e-01 4.494985e-01 -1.944030e-01 4.166080e-01 -5.772989e-01 4.050797e-01 -1.397167e-01 1.028200e-01 -3.094687e-01 -1.419232e-01 -2.467892e-01
<VARIANCE> 39
 2.146809e+01 1.843874e+01 4.673723e+01 2.700640e+01 3.869485e+01 2.949459e+01 3.386570e+01 3.125016e+01 3.164914e+01 2.513788e+01 2.716356e+01 2.075391e+01 1.463218e+00 2.137050e+00 3.705643e+00 4.546621e+00 6.950503e+00 4.677665e+00 4.134280e+00 3.971157e+00 5.323774e+00 4.703602e+00 3.789228e+00 3.744043e+00 2.984977e+00 3.530509e-01 4.303280e-01 4.795423e-01 6.101708e-01 6.599309e-01 7.557732e-01 6.037560e-01 6.895061e-01 6.896667e-01 6.143448e-01 5.698232e-01 6.700953e-01 4.827809e-01 3.942766e-02
<GCONST> 1.185593e+02
<MIXTURE> 9 4.294939e-02
<MEAN> 39
 -1.012214e+01 -2.853751e+00 2.324456e+00 6.623019e+00 -1.742345e-01 -3.749038e+00 4.100176e+00 9.979161e-01 1.419509e+00 -1.559252e-01 -1.203061e+00 2.330623e+00 -4.496400e+00 1.022391e+00 1.458770e+00 3.398392e-01 -1.867054e-01 2.123005e-01 -1.610056e+00 -2.134961e+00 -1.483797e-01 1.073009e+00 3.775788e-01 1.088495e-01 -2.507018e-02 4.387866e-01 1.925019e+00 6.732998e-01 -2.907770e-01 -2.376912e-03 2.853365e-01 3.050511e-01 -1.307650e+00 -7.033558e-01 -1.058664e-01 -3.252066e-02 1.973998e-02 -2.687593e-01 -4.448109e-02
<VARIANCE> 39
 3.617471e+01 3.072052e+01 2.719986e+01 2.992889e+01 2.999249e+01 4.051533e+01 3.493793e+01 2.438818e+01 2.966974e+01 1.668475e+01 2.348963e+01 2.141241e+01 1.447408e+00 6.866715e+00 2.865947e+00 3.639685e+00 3.616530e+00 2.842693e+00 3.751978e+00 4.211158e+00 3.126014e+00 2.515495e+00 2.334118e+00 1.960030e+00 1.634065e+00 1.203582e-01 5.652546e-01 9.352961e-01 6.584851e-01 6.183059e-01 8.200334e-01 7.998347e-01 7.877370e-01 6.515307e-01 7.495031e-01 4.208720e-01 6.200445e-01 4.765080e-01 4.633978e-02
<GCONST> 1.152867e+02
<MIXTURE> 10 5.830069e-02
<MEAN> 39
