~o
<STREAMINFO> 1 39
<VECSIZE> 39<NULLD><MFCC_E_D_A_Z><DIAGC>
~v "varFloor1"
<VARIANCE> 39
 9.726257e-01 5.381249e-01 6.651532e-01 6.989120e-01 6.880192e-01 6.224947e-01 6.450717e-01 5.635375e-01 5.311891e-01 4.008754e-01 3.797459e-01 3.082840e-01 1.131276e-01 4.817885e-02 3.519386e-02 3.216594e-02 4.186358e-02 4.215040e-02 4.083050e-02 4.351060e-02 4.295653e-02 3.903697e-02 3.210390e-02 2.959472e-02 2.433364e-02 4.759443e-03 6.696086e-03 5.835324e-03 4.982519e-03 6.833524e-03 6.876886e-03 6.926220e-03 7.477231e-03 7.591971e-03 6.896265e-03 5.920904e-03 5.389229e-03 4.463565e-03 7.207811e-04
~s "silst2"
<NUMMIXES> 8
<MIXTURE> 1 1.464966e-01
<MEAN> 39
 -2.707700e-01 4.936940e+00 2.207874e+00 4.976357e+00 9.767121e-01 -6.463776e-01 1.213846e+00 -2.283783e+00 -1.219355e+00 -6.460352e-01 -1.428937e+00 -1.954329e-01 -7.003098e+00 -1.302398e+00 3.477352e-01 -3.636228e-01 1.301518e+00 1.232095e+00 1.089665e+00 8.286155e-01 1.918142e-01 4.842951e-01 1.879994e-01 1.934849e-01 1.908614e-01 -8.902009e-01 -2.527181e-01 -4.378430e-01 -2.517347e-01 -3.504688e-01 1.223461e-02 2.167020e-01 1.556280e-01 3.002463e-01 1.654972e-01 1.225513e-01 1.550144e-01 8.118667e-02 7.037364e-02
<VARIANCE> 39
 2.787357e+01 3.224226e+01 4.895578e+01 5.205721e+01 6.445163e+01 6.443954e+01 6.262417e+01 6.175923e+01 5.722652e+01 5.097452e+01 4.454260e+01 3.704041e+01 3.685183e+00 4.310622e+00 4.686247e+00 4.367278e+00 5.187822e+00 5.769241e+00 5.158173e+00 5.093538e+00 5.843798e+00 5.285918e+00 4.565053e+00 4.257323e+00 3.312941e+00 4.386652e-01 4.377770e-01 5.586607e-01 5.836425e-01 8.075632e-01 9.716555e-01 9.642462e-01 9.619955e-01 9.353599e-01 9.183722e-01 8.347647e-01 7.122538e-01 6.353286e-01 5.125941e-02
<GCONST> 1.311624e+02
<MIXTURE> 2 1.073228e-01
<MEAN> 39
 -4.977795e+00 9.446656e-01 -2.802569e+00 3.351090e+00 3.488654e+00 9.863389e-02 3.098529e+00 -7.869656e-01 -1.098264e+00 -1.159695e+00 -9.310387e-01 1.622942e+00 -8.904085e+00 -1.277597e-01 3.016904e-01 8.483994e-02 3.499178e-01 2.900536e-01 4.093960e-01 3.715450e-01 4.038675e-01 4.814707e-01 4.576222e-01 3.648396e-01 1.628846e-01 -1.240497e-01 -2.005170e-02 -1.367056e-03 1.783805e-02 3.820699e-02 9.996167e-02 1.337574e-01 1.400895e-01 2.057637e-01 2.164166e-01 1.006257e-01 2.670976e-02 -6.354026e-03 1.555435e-02
<VARIANCE> 39
 2.018619e+01 3.204438e+01 3.188332e+01 2.880737e+01 2.912490e+01 3.232220e+01 3.212175e+01 3.139534e+01 2.813853e+01 3.145012e+01 2.780205e+01 2.156651e+01 1.516564e+00 2.658507e-01 5.423135e-01 6.899827e-01 7.965448e-01 1.001904e+00 1.219192e+00 1.323693e+00 1.417858e+00 1.511264e+00 1.546690e+00 1.442172e+00 1.322654e+00 2.480287e-02 4.514438e-02 8.480167e-02 1.207265e-01 1.524131e-01 1.930753e-01 2.328248e-01 2.559745e-01 2.741085e-01 2.777224e-01 2.986246e-01 2.675585e-01 2.444953e-01 2.709989e-03
<GCONST> 8.197903e+01
<MIXTURE> 3 9.429473e-02
<MEAN> 39
 -6.158877e+00 -2.823304e+00 -2.358228e+00 1.858035e+00 3.934928e+00 -4.959415e-01 3.925727e+00 4.217202e+00 2.571347e+00 -5.495976e-01 1.179300e+00 3.023527e+00 -7.838429e+00 1.812485e-01 1.530747e-01 -2.147322e-02 2.283448e-01 1.648576e-01 1.795618e-01 1.814278e-02 1.065245e-01 1.549268e-01 8.999201e-02 8.990230e-02 1.187800e-01 -9.334347e-02 5.491444e-02 1.398531e-01 6.546619e-02 1.230405e-01 8.631279e-02 1.146116e-01 1.618862e-03 -1.424407e-01 -1.217989e-01 -4.302440e-02 -5.558795e-02 -4.153186e-02 -7.641523e-03
<VARIANCE> 39
 2.135183e+01 3.209462e+01 2.544033e+01 2.522432e+01 3.208033e+01 3.148507e+01 3.360136e+01 2.911354e+01 2.838016e+01 3.596640e+01 3.506574e+01 2.084953e+01 2.348634e+00 2.821290e-01 4.274713e-01 5.757008e-01 7.638130e-01 1.018533e+00 1.166811e+00 1.333383e+00 1.474658e+00 1.533890e+00 1.516408e+00 1.343278e+00 1.285867e+00 2.806362e-02 4.148769e-02 7.709333e-02 1.039904e-01 1.423440e-01 1.873185e-01 2.256485e-01 2.682576e-01 2.679705e-01 2.846220e-01 3.158274e-01 2.780251e-01 2.567772e-01 2.239591e-03
<GCONST> 8.167603e+01
<MIXTURE> 4 9.442621e-02
<MEAN> 39
 -3.753383e+00 -1.706851e+00 -4.871678e+00 2.440423e+00 3.745760e+00 2.101248e+00 2.996110e+00 1.631688e+00 1.783094e+00 -1.359309e+00 1.819105e-01 2.077915e+00 -8.893311e+00 7.112339e-03 8.404203e-01 6.046839e-02 7.605646e-01 3.165792e-01 7.583309e-01 4.527877e-01 1.822329e-01 2.883795e-01 5.181180e-01 3.661493e-01 1.716451e-01 -3.563003e-01 -2.306457e-01 3.559814e-01 3.970623e-01 2.556980e-01 1.790695e-01 1.311851e-01 1.483379e-01 5.195435e-02 7.353476e-02 1.690605e-01 7.524914e-02 -3.686007e-02 6.395218e-02
<VARIANCE> 39
 1.333099e+01 1.880761e+01 2.820390e+01 2.709965e+01 3.247169e+01 3.680659e+01 3.338087e+01 3.452018e+01 3.281537e+01 3.625451e+01 3.732099e+01 2.217315e+01 1.730723e+00 1.500067e+00 1.938377e+00 2.015286e+00 1.970239e+00 2.259210e+00 2.486881e+00 2.696466e+00 2.608796e+00 2.491720e+00 2.642390e+00 2.154655e+00 1.900504e+00 9.361540e-02 2.415374e-01 2.420585e-01 3.026789e-01 3.005644e-01 3.851236e-01 4.382135e-01 4.556659e-01 4.687433e-01 4.869921e-01 4.983070e-01 4.343564e-01 3.624246e-01 1.608633e-02
<GCONST> 1.034195e+02
<MIXTURE> 5 1.908165e-01
<MEAN> 39
 -3.871281e+00 4.852743e-01 -1.046079e+00 4.433266e+00 5.722011e+00 3.024402e+00 6.570415e+00 2.037550e+00 9.443495e-01 -6.544944e-01 -1.573267e+00 1.157373e+00 -7.998865e+00 -3.069921e-01 -5.972375e-01 -7.611709e-01 -3.384875e-01 -7.015198e-02 -8.262777e-02 -1.913680e-01 1.097765e-01 9.902621e-02 -1.649907e-01 6.179767e-02 1.763493e-01 -3.512082e-01 4.765646e-02 1.448183e-01 -5.030534e-02 -1.231960e-01 -2.675371e-01 -2.088296e-01 -2.915017e-01 -1.839081e-01 -9.721629e-02 2.204718e-02 8.716491e-02 5.534926e-03 4.526883e-02
<VARIANCE> 39
 2.080095e+01 2.660162e+01 3.729204e+01 4.351794e+01 4.205750e+01 4.436328e+01 4.467443e+01 4.413367e+01 3.945707e+01 3.764124e+01 3.484917e+01 2.710119e+01 2.288630e+00 2.072803e+00 1.313760e+00 1.763732e+00 2.218652e+00 2.466285e+00 2.683143e+00 2.757173e+00 2.830326e+00 2.688368e+00 2.635902e+00 2.462125e+00 2.012480e+00 9.093131e-02 1.809503e-01 2.143186e-01 2.573634e-01 4.012280e-01 3.986836e-01 4.820960e-01 4.940697e-01 4.762085e-01 4.621489e-01 4.575897e-01 4.113339e-01 3.879729e-01 1.180417e-02
<GCONST> 1.065118e+02
<MIXTURE> 6 1.675199e-01
<MEAN> 39
 -5.766609e+00 1.046808e+00 -3.614476e+00 4.461016e+00 4.854016e+00 2.068559e+00 3.239720e+00 6.195001e-01 1.134400e+00 -4.716949e-01 -5.747045e-01 1.387180e+00 -9.590052e+00 -6.625511e-02 2.159281e-01 -2.197011e-02 1.752310e-02 -1.079913e-01 6.769655e-03 -9.546433e-02 -2.398536e-01 -2.094918e-01 -1.056986e-01 -8.296417e-02 -8.505771e-02 -7.145046e-02 -2.773384e-02 -2.092439e-03 1.502753e-02 -5.231598e-02 -4.019272e-02 -1.922373e-02 5.596394e-02 9.718677e-02 8.207622e-02 8.450363e-02 9.003436e-02 6.838007e-02 1.319522e-02
<VARIANCE> 39
 1.790326e+01 2.179090e+01 2.257705e+01 2.368803e+01 2.203349e+01 2.935651e+01 2.911764e+01 2.566553e+01 2.621255e+01 2.834203e+01 2.766060e+01 1.831173e+01 8.443719e-01 1.821336e-01 4.188991e-01 5.553225e-01 7.423882e-01 9.080479e-01 1.164734e+00 1.341677e+00 1.398372e+00 1.400519e+00 1.436586e+00 1.395361e+00 1.297348e+00 1.436471e-02 2.681532e-02 4.912072e-02 7.852357e-02 1.078475e-01 1.344747e-01 1.670816e-01 1.932897e-01 1.988152e-01 2.084651e-01 2.180669e-01 2.028159e-01 1.961832e-01 1.308145e-03
<GCONST> 7.254629e+01
<MIXTURE> 7 1.078156e-01
<MEAN> 39
 -3.907950e+00 -2.260737e+00 -5.600934e+00 1.260066e+00 3.611835e+00 9.930336e-01 1.812443e+00 1.086742e+00 1.453138e+00 -1.608483e+00 -1.035262e+00 1.423937e+00 -8.825733e+00 5.450079e-02 4.681632e-01 -3.715164e-01 4.016025e-01 -1.841984e-01 2.975158e-01 3.485683e-03 -4.093804e-01 -3.014664e-01 -9.168211e-02 -1.496603e-01 -2.089901e-01 -3.688064e-01 -2.614250e-01 2.926416e-01 3.064892e-01 1.609817e-01 8.931912e-02 5.483249e-02 1.257587e-01 -1.888390e-02 -3.082763e-02 7.177049e-02 -8.775599e-03 -7.810754e-02 5.143102e-02
<VARIANCE> 39
 1.310938e+01 1.759126e+01 2.582879e+01 2.592099e+01 3.016244e+01 3.569009e+01 3.302187e+01 3.310289e+01 3.316823e+01 3.645845e+01 3.522806e+01 2.269443e+01 1.522956e+00 1.453844e+00 1.638371e+00 1.889740e+00 1.937056e+00 2.153276e+00 2.539736e+00 2.655227e+00 2.441613e+00 2.523027e+00 2.534425e+00 2.126993e+00 1.873417e+00 9.424331e-02 2.225778e-01 2.293741e-01 2.835009e-01 2.920079e-01 3.639640e-01 4.253162e-01 4.389153e-01 4.431373e-01 4.719593e-01 4.874394e-01 4.248837e-01 3.584049e-01 1.549701e-02
<GCONST> 1.019270e+02
<MIXTURE> 8 9.121574e-02
<MEAN> 39
 -6.456477e+00 -3.656328e+00 -3.094333e+00 7.707871e-01 3.406962e+00 -1.412931e+00 2.951733e+00 3.494419e+00 2.015172e+00 -7.900402e-01 2.113628e-01 2.577178e+00 -7.929855e+00 9.188230e-02 -2.850644e-02 -2.314311e-01 -7.782050e-02 -1.957750e-01 -1.734010e-01 -3.614776e-01 -3.130940e-01 -2.554846e-01 -3.106930e-01 -3.004911e-01 -2.041960e-01 -1.077867e-01 1.214941e-02 7.077533e-02 -1.449928e-02 2.140397e-02 -1.589415e-02 1.142468e-02 -9.797938e-02 -2.170218e-01 -2.012112e-01 -1.266623e-01 -1.264938e-01 -1.021326e-01 -1.737775e-02
<VARIANCE> 39
 2.031509e+01 2.596675e+01 2.397542e+01 2.218509e+01 2.953938e+01 3.111751e+01 3.351626e+01 2.888035e+01 2.910012e+01 3.453595e+01 3.356513e+01 2.009883e+01 2.090046e+00 2.879581e-01 4.191580e-01 5.473903e-01 7.362811e-01 9.883711e-01 1.136727e+00 1.321072e+00 1.439600e+00 1.477440e+00 1.500210e+00 1.296179e+00 1.257833e+00 2.842706e-02 3.959733e-02 7.332352e-02 9.784845e-02 1.414352e-01 1.880993e-01 2.217853e-01 2.624181e-01 2.708499e-01 2.822308e-01 3.083076e-01 2.626584e-01 2.554352e-01 2.183704e-03
<GCONST> 8.033193e+01
~s "silst3"
<NUMMIXES> 8
<MIXTURE> 1 1.706780e-01
<MEAN> 39
 -5.978104e+00 2.819580e+00 -4.187723e+00 4.488613e+00 3.094559e+00 3.368973e+00 4.343236e+00 1.368283e+00 1.845632e+00 -5.477664e-01 4.180104e-02 1.788311e+00 -1.047731e+01 -7.306284e-01 9.749739e-01 9.634198e-01 8.191680e-01 4.991059e-01 5.261819e-01 1.655765e-01 -2.459329e-01 1.269486e-01 5.611832e-01 3.144173e-01 -1.362987e-01 -4.032244e-02 -4.729718e-02 -1.236734e-01 1.994009e-01 1.139032e-01 1.611097e-01 -1.666706e-02 -7.427754e-02 -2.827956e-02 8.798378e-03 5.297746e-02 4.360845e-02 -1.877245e-02 4.977014e-02
<VARIANCE> 39
 9.811615e+00 1.178762e+01 1.843670e+01 1.769927e+01 1.883495e+01 2.487636e+01 2.396467e+01 2.496284e+01 2.300802e+01 2.556673e+01 2.689763e+01 1.798283e+01 1.131276e-01 4.664749e-01 1.021955e+00 1.298153e+00 1.276021e+00 1.661263e+00 1.826283e+00 2.033455e+00 2.023743e+00 2.129173e+00 2.265071e+00 1.866351e+00 1.653087e+00 5.681355e-03 1.073517e-01 1.695846e-01 2.148197e-01 2.346087e-01 2.617705e-01 3.164963e-01 3.393414e-01 3.549838e-01 3.605099e-01 4.015839e-01 3.509131e-01 3.188729e-01 3.233284e-03
<GCONST> 8.349846e+01
<MIXTURE> 2 1.764734e-01
<MEAN> 39
 -8.482612e+00 4.120202e+00 -6.434512e-01 7.127842e+00 4.225965e+00 3.758497e+00 3.344801e+00 3.382513e-01 1.755620e+00 8.987932e-01 1.390417e+00 1.502955e+00 -1.047172e+01 -1.223021e-01 1.085577e-01 2.356327e-01 3.553736e-01 3.915373e-01 4.287509e-01 3.769697e-01 4.102133e-01 4.388564e-01 4.060186e-01 2.965693e-01 1.084605e-01 -3.055544e-03 3.744441e-02 -2.877013e-02 -4.086401e-02 -5.635596e-02 4.135780e-04 1.399523e-02 5.059680e-02 3.763355e-02 2.651306e-03 -1.270064e-02 -3.019281e-02 -2.124018e-02 3.835579e-03
<VARIANCE> 39
 8.588684e+00 9.735160e+00 1.272290e+01 1.555511e+01 1.462486e+01 1.871161e+01 1.910197e+01 1.737323e+01 1.911384e+01 1.661042e+01 1.882287e+01 1.366174e+01 1.131276e-01 1.655374e-01 2.684085e-01 4.365456e-01 5.960180e-01 7.790368e-01 9.712539e-01 1.120317e+00 1.189406e+00 1.237972e+00 1.259556e+00 1.215641e+00 1.118433e+00 4.759443e-03 3.325740e-02 5.525096e-02 8.908495e-02 1.283171e-01 1.637789e-01 1.944518e-01 2.246867e-01 2.354416e-01 2.396042e-01 2.419071e-01 2.332130e-01 2.150574e-01 7.207811e-04
<GCONST> 6.265781e+01
<MIXTURE> 3 1.127559e-01
<MEAN> 39
 -8.751883e+00 4.320579e+00 -4.212171e-01 8.288668e+00 5.911353e+00 5.537184e+00 5.203196e+00 2.440774e+00 4.405334e+00 3.171342e+00 3.296839e+00 2.410349e+00 -1.045957e+01 1.390241e-02 9.018265e-02 2.852375e-02 -4.956581e-02 -1.140139e-01 -1.281919e-01 -1.196080e-01 -9.047414e-02 -4.878652e-02 5.847201e-02 1.360334e-01 1.040246e-01 -2.771214e-03 7.238506e-02 3.510645e-02 3.501878e-02 -2.970881e-02 -6.307252e-02 -1.015356e-01 -1.242416e-01 -1.610434e-01 -2.206869e-01 -2.051645e-01 -1.445344e-01 -5.998886e-02 5.043439e-03
<VARIANCE> 39
 8.614469e+00 1.053422e+01 1.444419e+01 1.762867e+01 1.521279e+01 2.105035e+01 2.058643e+01 1.841103e+01 1.968208e+01 1.584281e+01 1.963592e+01 1.448312e+01 1.131276e-01 1.918320e-01 3.314027e-01 4.964214e-01 6.727009e-01 8.279002e-01 1.009219e+00 1.162803e+00 1.257999e+00 1.314286e+00 1.328669e+00 1.286594e+00 1.213662e+00 4.759443e-03 4.022471e-02 6.769069e-02 1.063654e-01 1.426618e-01 1.747977e-01 2.131668e-01 2.422014e-01 2.443869e-01 2.449537e-01 2.464750e-01 2.400148e-01 2.382437e-01 7.207811e-04
<GCONST> 6.553418e+01
<MIXTURE> 4 1.283312e-01
<MEAN> 39
 -9.333402e+00 4.587023e+00 5.632124e-01 8.468346e+00 6.250505e+00 4.597988e+00 3.742736e+00 5.199101e-01 2.408080e+00 2.142114e+00 2.136851e+00 1.475772e+00 -1.047794e+01 -2.878999e-01 1.212056e-01 3.254747e-01 3.907097e-01 4.200093e-01 3.410386e-01 1.821952e-01 1.521766e-01 2.499709e-01 3.373843e-01 1.959911e-01 -1.110039e-02 -1.990309e-03 2.148454e-01 -1.804425e-01 -3.300862e-01 -3.086829e-01 -2.713732e-01 -1.241779e-01 5.183253e-02 6.079433e-02 -8.076058e-02 -2.133154e-01 -1.560382e-01 1.394622e-02 8.286640e-03
<VARIANCE> 39
 1.403432e+01 2.042957e+01 2.019139e+01 2.502644e+01 2.350860e+01 3.106979e+01 3.057100e+01 3.065672e+01 2.979765e+01 2.492216e+01 2.496074e+01 1.955276e+01 1.131276e-01 7.540129e-01 1.002405e+00 1.320063e+00 1.422146e+00 1.535998e+00 1.662208e+00 1.958530e+00 1.981990e+00 1.973205e+00 1.994538e+00 1.670397e+00 1.546633e+00 4.759443e-03 1.676655e-01 3.362214e-01 3.255943e-01 3.787201e-01 3.902219e-01 4.626097e-01 4.992184e-01 5.145779e-01 4.978759e-01 4.823517e-01 3.989590e-01 3.721641e-01 7.207811e-04
<GCONST> 8.862504e+01
<MIXTURE> 5 9.845091e-02
<MEAN> 39
 -8.389432e+00 4.734800e+00 -8.868835e-01 6.187982e+00 4.305062e+00 2.816614e+00 3.654823e+00 -5.506480e-01 2.807593e-02 2.860296e-02 -3.406515e-01 1.092182e+00 -1.043795e+01 -1.372434e-02 9.006274e-02 1.001313e-01 1.039243e-01 8.634859e-02 1.211912e-01 6.643749e-02 4.819117e-02 2.281521e-02 5.870983e-03 1.590408e-02 5.519645e-02 -3.985706e-03 1.838176e-02 -5.299734e-03 3.223782e-02 7.180394e-02 1.194474e-01 1.399681e-01 1.632217e-01 2.274373e-01 2.884168e-01 2.791620e-01 2.514738e-01 1.419657e-01 5.006291e-03
<VARIANCE> 39
 1.027260e+01 1.023606e+01 1.439374e+01 1.943936e+01 1.590342e+01 2.163966e+01 1.966514e+01 1.859246e+01 1.909015e+01 1.783325e+01 1.736757e+01 1.325724e+01 1.131276e-01 1.233589e-01 2.365891e-01 3.808757e-01 5.634318e-01 7.176849e-01 8.841438e-01 1.025543e+00 1.128395e+00 1.224757e+00 1.229973e+00 1.182062e+00 1.065695e+00 4.759443e-03 2.484951e-02 4.808407e-02 8.180343e-02 1.240019e-01 1.630466e-01 1.987689e-01 2.173875e-01 2.352768e-01 2.284442e-01 2.295319e-01 2.281086e-01 2.157096e-01 7.207811e-04
<GCONST> 6.179248e+01
<MIXTURE> 6 1.172210e-01
<MEAN> 39
 -7.503699e+00 3.160138e+00 -2.649775e+00 5.430847e+00 4.263111e+00 3.681188e+00 4.799772e+00 6.123813e-01 1.156146e+00 5.047400e-01 2.921920e-01 1.686021e+00 -1.048757e+01 1.417417e-01 -2.211946e-01 -4.224877e-01 -5.619919e-01 -4.494764e-01 -3.880422e-01 -1.770335e-01 -1.687545e-01 -3.827484e-01 -3.327718e-01 -2.977871e-01 -1.159745e-01 5.175699e-04 -6.122996e-02 4.438394e-02 1.614819e-01 1.126638e-01 6.719551e-02 -5.835798e-04 -6.126141e-02 -2.910755e-02 5.063240e-02 8.744549e-02 5.039594e-02 -2.958848e-02 8.165088e-03
<VARIANCE> 39
 1.279958e+01 1.661366e+01 2.297548e+01 2.390184e+01 2.388141e+01 2.837002e+01 3.000778e+01 2.999649e+01 2.885754e+01 2.654766e+01 2.676598e+01 1.903265e+01 1.131276e-01 9.837896e-01 1.534406e+00 1.670180e+00 1.922370e+00 2.096421e+00 2.318741e+00 2.449294e+00 2.674526e+00 2.401815e+00 2.423607e+00 2.153471e+00 1.932836e+00 4.759443e-03 1.357120e-01 2.104854e-01 2.622492e-01 3.140633e-01 3.437770e-01 3.921906e-01 4.136473e-01 4.476041e-01 4.427127e-01 4.363647e-01 3.910212e-01 3.505941e-01 7.207811e-04
<GCONST> 8.963167e+01
<MIXTURE> 7 1.009958e-01
<MEAN> 39
 -8.890440e+00 3.960644e+00 -1.092608e+00 6.955840e+00 5.251922e+00 4.497420e+00 4.823149e+00 1.532496e+00 3.151451e+00 2.601694e+00 2.042656e+00 2.056974e+00 -1.046497e+01 -7.475108e-02 -1.031418e-01 -1.960329e-01 -3.400618e-01 -3.945786e-01 -4.611545e-01 -4.627919e-01 -4.614952e-01 -4.613867e-01 -3.052879e-01 -2.472461e-01 -2.154905e-01 -5.259215e-03 3.519528e-02 -3.357480e-02 -4.617636e-02 -1.313962e-01 -1.393250e-01 -1.851677e-01 -1.929949e-01 -2.380823e-01 -3.013290e-01 -2.835424e-01 -2.485965e-01 -1.352087e-01 3.643605e-03
<VARIANCE> 39
 8.773520e+00 1.067599e+01 1.535782e+01 1.820851e+01 1.468430e+01 2.195603e+01 2.082747e+01 1.816601e+01 1.874721e+01 1.666706e+01 1.856821e+01 1.426740e+01 1.131276e-01 2.090392e-01 3.466474e-01 5.217018e-01 6.885938e-01 8.380151e-01 1.034272e+00 1.160896e+00 1.291120e+00 1.347644e+00 1.348700e+00 1.311574e+00 1.177826e+00 4.759443e-03 3.983615e-02 6.743841e-02 1.107439e-01 1.436709e-01 1.746921e-01 2.184328e-01 2.494009e-01 2.461195e-01 2.434491e-01 2.490144e-01 2.444776e-01 2.467207e-01 7.207811e-04
<GCONST> 6.604145e+01
<MIXTURE> 8 9.499011e-02
<MEAN> 39
 -8.421570e+00 4.189296e+00 -1.597761e+00 5.070299e+00 3.736487e+00 2.034714e+00 3.216320e+00 -1.205353e+00 -6.633974e-01 -3.705935e-01 -9.363850e-01 7.056200e-01 -1.044919e+01 -1.006131e-01 -7.097441e-02 -1.026624e-01 -1.553338e-01 -1.801969e-01 -1.833158e-01 -2.561084e-01 -3.325360e-01 -3.592714e-01 -3.601878e-01 -3.524170e-01 -2.429290e-01 -5.966304e-03 -1.676102e-02 -6.183692e-02 -4.640708e-02 -2.720240e-02 2.110323e-02 3.992923e-02 6.679370e-02 1.113268e-01 1.656323e-01 1.561695e-01 1.185970e-01 6.411413e-02 3.396294e-03
<VARIANCE> 39
 1.052796e+01 9.533915e+00 1.491584e+01 1.940647e+01 1.561904e+01 2.234634e+01 1.962531e+01 1.914184e+01 1.817320e+01 1.845538e+01 1.639367e+01 1.307784e+01 1.131276e-01 1.290851e-01 2.459965e-01 3.810596e-01 5.737173e-01 7.073412e-01 8.948942e-01 1.026028e+00 1.151536e+00 1.209605e+00 1.237179e+00 1.175027e+00 1.096717e+00 4.759443e-03 2.489188e-02 4.850551e-02 8.127593e-02 1.245652e-01 1.614151e-01 1.974001e-01 2.123478e-01 2.335225e-01 2.291012e-01 2.265412e-01 2.250795e-01 2.118072e-01 7.207811e-04
<GCONST> 6.179094e+01
~s "silst4"
<NUMMIXES> 8
<MIXTURE> 1 8.582568e-02
<MEAN> 39
 -5.489727e+00 3.488152e+00 -4.421343e-01 4.986695e+00 8.765309e-01 -5.406688e-02 9.379526e-01 9.382201e-01 4.639204e+00 3.249289e+00 2.065933e+00 6.281880e-01 -8.320333e+00 -1.669909e+00 1.379875e-01 -2.277310e-01 1.003184e+00 1.679587e+00 2.016933e+00 1.119012e+00 2.834359e-01 2.464261e-01 -1.228154e-01 1.157372e-02 -1.168479e-01 -7.190849e-01 6.077831e-01 -5.218264e-01 6.375743e-02 -7.148606e-01 -2.607453e-01 -8.799361e-02 -6.200600e-02 -1.271263e-01 -5.950744e-01 -3.203054e-01 -2.623857e-01 -6.186361e-02 4.137700e-01
<VARIANCE> 39
 3.519242e+01 3.822867e+01 4.308486e+01 5.277176e+01 6.653764e+01 6.582594e+01 6.087093e+01 7.651674e+01 8.130907e+01 7.309580e+01 6.523608e+01 5.427468e+01 3.776043e+00 4.514547e+00 4.512959e+00 5.470268e+00 6.230291e+00 6.449487e+00 6.440200e+00 6.666362e+00 8.096596e+00 8.750679e+00 6.678959e+00 6.186988e+00 5.259616e+00 7.230229e-01 1.042945e+00 1.140928e+00 1.063739e+00 1.612688e+00 1.695991e+00 1.507869e+00 1.453358e+00 1.768882e+00 1.636698e+00 1.619772e+00 1.531633e+00 1.240098e+00 1.451081e-01
<GCONST> 1.453999e+02
<MIXTURE> 2 1.503384e-01
<MEAN> 39
 -9.224382e+00 4.286700e+00 -3.581172e-01 7.991622e+00 5.534665e+00 5.087940e+00 4.114747e+00 8.779820e-01 2.548525e+00 1.637602e+00 1.973433e+00 1.330646e+00 -1.044764e+01 -1.079874e-01 7.023500e-02 1.567376e-01 2.234767e-01 2.896982e-01 3.429613e-01 3.034524e-01 3.169146e-01 3.609188e-01 3.026028e-01 2.090322e-01 7.107565e-02 1.323240e-03 3.113200e-01 -2.003759e-01 -5.788986e-02 -3.410882e-01 -1.890275e-01 -2.110711e-01 -4.590461e-02 -3.797410e-03 -4.384710e-02 -5.974500e-02 -6.180286e-02 3.084867e-02 2.063256e-01
<VARIANCE> 39
 9.446704e+00 9.246286e+00 1.388733e+01 1.642723e+01 1.516352e+01 1.894476e+01 1.979589e+01 2.057576e+01 2.244359e+01 1.785935e+01 2.060272e+01 1.418633e+01 1.131276e-01 3.818138e-01 4.547839e-01 6.474734e-01 8.446048e-01 9.725074e-01 1.064356e+00 1.253627e+00 1.364491e+00 1.423871e+00 1.329185e+00 1.280750e+00 1.258343e+00 9.361968e-03 2.251976e-01 2.531555e-01 2.689893e-01 3.291838e-01 3.230290e-01 3.377261e-01 3.522501e-01 3.572389e-01 3.563780e-01 3.342084e-01 2.960586e-01 2.676119e-01 2.878711e-02
<GCONST> 7.961208e+01
<MIXTURE> 3 1.002609e-01
<MEAN> 39
 -8.361409e+00 4.683280e+00 4.488772e-02 7.974068e+00 5.817624e+00 5.256551e+00 4.415054e+00 1.244695e+00 2.714944e+00 2.067811e+00 1.979261e+00 1.314165e+00 -1.040205e+01 -3.116463e-01 9.143274e-02 2.675889e-01 3.983194e-01 5.920963e-01 7.372072e-01 6.954654e-01 5.022504e-01 4.819828e-01 4.294418e-01 4.405645e-01 2.622569e-01 -2.350082e-02 3.849353e-01 -2.905643e-01 -1.830543e-02 -4.849112e-01 -3.708692e-01 -3.971553e-01 -1.755926e-01 -9.203888e-02 -1.396271e-01 -1.429363e-01 -8.633614e-02 1.586729e-02 3.453834e-01
<VARIANCE> 39
 9.598793e+00 1.059725e+01 1.682937e+01 1.805864e+01 1.824529e+01 2.101934e+01 2.257267e+01 2.289545e+01 2.486388e+01 2.023665e+01 2.290626e+01 1.578995e+01 1.131276e-01 3.151855e+00 3.442581e+00 3.468497e+00 3.595056e+00 3.183828e+00 3.388750e+00 3.030891e+00 3.095566e+00 3.029759e+00 2.604131e+00 2.263463e+00 2.124269e+00 4.084469e-01 5.269284e-01 4.193797e-01 4.553283e-01 4.892586e-01 5.722620e-01 5.058190e-01 5.152999e-01 5.327093e-01 5.107774e-01 4.628685e-01 4.202802e-01 3.667271e-01 5.025775e-02
<GCONST> 1.045645e+02
<MIXTURE> 4 1.285861e-01
<MEAN> 39
 -6.803102e+00 9.192419e-02 -1.591067e+00 2.492302e+00 2.550859e+00 1.796955e+00 3.697235e+00 8.363696e-01 9.015371e-01 9.905163e-01 3.405418e-01 9.455228e-01 -7.844434e+00 6.489820e-01 -4.033498e-02 4.197190e-01 -3.289601e-01 -1.597605e-01 -1.620300e-01 7.830396e-02 2.656973e-01 3.651410e-02 1.172164e-01 1.124270e-01 1.081802e-01 4.678629e-01 2.436676e-01 2.943824e-01 1.764045e-01 1.747690e-01 3.435251e-02 7.803015e-02 -6.500747e-02 3.581439e-02 6.988128e-02 9.641126e-03 5.955457e-02 1.332819e-02 3.833235e-02
<VARIANCE> 39
 4.300309e+01 4.152766e+01 5.551350e+01 4.919993e+01 5.863961e+01 4.759883e+01 4.458573e+01 4.377296e+01 3.871376e+01 3.439978e+01 3.431171e+01 2.478169e+01 3.016900e+00 3.982039e+00 3.301512e+00 3.357327e+00 3.785757e+00 3.973489e+00 3.499337e+00 3.263344e+00 3.303743e+00 3.109347e+00 2.832947e+00 2.565779e+00 2.198022e+00 5.483823e-01 7.632906e-01 7.964056e-01 8.077471e-01 9.196675e-01 8.939917e-01 7.692717e-01 8.072200e-01 7.213717e-01 6.549677e-01 6.116067e-01 5.344252e-01 4.447140e-01 9.187056e-02
<GCONST> 1.246162e+02
<MIXTURE> 5 1.814195e-01
<MEAN> 39
 -8.263732e+00 3.518351e+00 -1.712076e+00 5.934103e+00 4.503946e+00 3.675935e+00 3.991379e+00 3.093480e-02 1.108285e+00 8.869137e-01 4.976479e-01 1.225090e+00 -1.038089e+01 4.040962e-02 -8.871566e-02 -1.184302e-01 -3.110593e-01 -3.644421e-01 -3.731119e-01 -2.776374e-01 -3.310412e-01 -3.741365e-01 -2.558160e-01 -2.568160e-01 -1.767442e-01 1.258191e-02 1.537895e-01 -3.817598e-02 5.128657e-02 -4.731814e-02 -1.586883e-02 -6.631052e-02 -4.680112e-02 -1.828607e-02 -1.789472e-02 -4.768449e-02 -4.231492e-02 -7.720080e-03 1.139739e-01
<VARIANCE> 39
 1.189137e+01 1.278844e+01 1.906163e+01 1.890866e+01 1.859146e+01 2.356756e+01 2.368351e+01 2.379498e+01 2.409322e+01 2.227648e+01 2.250122e+01 1.601259e+01 1.131276e-01 4.654060e-01 6.305208e-01 7.985442e-01 1.015298e+00 1.107433e+00 1.317559e+00 1.447534e+00 1.582339e+00 1.624775e+00 1.644815e+00 1.485210e+00 1.387935e+00 1.169799e-02 1.391496e-01 1.757103e-01 1.878449e-01 2.078496e-01 2.090241e-01 2.508294e-01 2.738253e-01 2.784626e-01 2.857786e-01 2.663755e-01 2.364916e-01 2.197456e-01 1.471791e-02
<GCONST> 7.980019e+01
<MIXTURE> 6 1.231654e-01
<MEAN> 39
 -8.785345e+00 3.865769e+00 -4.354994e-01 7.331038e+00 4.792940e+00 5.301293e+00 4.566599e+00 1.181986e+00 2.725159e+00 1.751892e+00 1.786956e+00 1.341622e+00 -1.040293e+01 1.903381e+00 -4.353836e-01 2.808595e-01 -1.382028e+00 -1.133415e+00 -8.407475e-01 -4.644416e-01 -6.995463e-01 -1.060212e+00 -6.889618e-01 -7.777801e-01 -4.226447e-01 8.416840e-01 8.221870e-01 -2.641168e-01 1.178642e-02 -7.302051e-01 -5.696575e-01 -5.242307e-01 -3.716623e-01 -1.928321e-01 -2.758062e-01 -1.712660e-01 -2.219902e-01 -1.345500e-01 4.792545e-01
<VARIANCE> 39
 1.042113e+01 1.279045e+01 2.029757e+01 2.009802e+01 2.215382e+01 2.432249e+01 2.640805e+01 2.515545e+01 2.672835e+01 2.281763e+01 2.417309e+01 1.851308e+01 1.131276e-01 2.876163e+00 4.509783e+00 4.562134e+00 4.903583e+00 4.328406e+00 3.752415e+00 4.327794e+00 4.410194e+00 3.448305e+00 3.427969e+00 3.124005e+00 2.621735e+00 4.911576e-01 5.282080e-01 4.657480e-01 5.731716e-01 6.671814e-01 6.757596e-01 6.801407e-01 6.638135e-01 6.623061e-01 6.289324e-01 5.733444e-01 5.338737e-01 4.526278e-01 6.631126e-02
<GCONST> 1.118591e+02
<MIXTURE> 7 1.264136e-01
<MEAN> 39
 -6.782019e+00 -3.105648e-01 -1.794979e+00 2.119845e+00 2.321411e+00 1.399170e+00 3.067011e+00 3.225367e-01 6.945466e-01 5.465404e-01 -6.851852e-03 7.539720e-01 -8.008983e+00 6.036994e-01 -5.955988e-01 -1.073024e-01 -9.601554e-01 -7.110199e-01 -7.915179e-01 -4.487787e-01 -3.067388e-01 -5.521768e-01 -4.830981e-01 -4.698319e-01 -3.069486e-01 4.278831e-01 1.639917e-01 2.486996e-01 1.030939e-01 1.279262e-01 -3.947571e-03 1.317963e-02 -8.717805e-02 -3.217547e-02 -3.767928e-02 -5.591741e-02 -4.452723e-02 -5.434565e-02 2.276237e-02
<VARIANCE> 39
 4.223437e+01 4.095786e+01 5.281796e+01 4.797276e+01 5.773366e+01 4.777848e+01 4.524940e+01 4.495578e+01 3.873275e+01 3.601266e+01 3.298241e+01 2.553236e+01 2.912997e+00 3.631784e+00 3.287357e+00 3.511996e+00 3.963303e+00 4.064938e+00 3.619410e+00 3.380359e+00 3.570159e+00 3.377670e+00 2.970695e+00 2.771214e+00 2.244085e+00 5.142220e-01 7.632158e-01 7.567005e-01 7.861459e-01 8.980806e-01 8.794321e-01 7.799435e-01 7.871948e-01 7.556385e-01 6.561394e-01 6.367626e-01 5.288264e-01 4.731320e-01 8.335797e-02
<GCONST> 1.247808e+02
<MIXTURE> 8 1.039923e-01
<MEAN> 39
 -8.832693e+00 4.200231e+00 -5.368023e-01 7.237284e+00 5.276650e+00 4.658385e+00 4.020683e+00 8.109978e-01 1.979036e+00 1.692014e+00 1.088012e+00 1.055741e+00 -1.044558e+01 -3.900350e-01 -4.335007e-01 -2.677619e-01 -1.536291e-01 8.651426e-02 2.399126e-01 1.946270e-01 -3.938250e-02 -7.886562e-02 -9.495279e-02 -8.845197e-02 -1.167399e-01 -3.992704e-02 3.715315e-01 -3.891270e-01 -9.684361e-02 -5.304108e-01 -4.240820e-01 -4.732862e-01 -2.488909e-01 -1.519933e-01 -2.048586e-01 -2.163291e-01 -1.690442e-01 -5.237208e-02 3.308932e-01
<VARIANCE> 39
 9.364875e+00 1.087539e+01 1.635362e+01 1.724115e+01 1.780918e+01 2.025446e+01 2.195293e+01 2.239197e+01 2.387534e+01 1.984384e+01 2.068215e+01 1.559741e+01 1.131276e-01 2.715073e+00 3.323463e+00 3.333580e+00 3.412800e+00 3.141526e+00 3.464864e+00 2.964831e+00 3.022433e+00 2.973212e+00 2.571675e+00 2.173883e+00 2.120094e+00 3.717488e-01 5.114077e-01 4.294500e-01 4.970118e-01 4.845737e-01 5.905383e-01 5.234989e-01 5.233852e-01 5.543953e-01 5.377965e-01 4.776658e-01 4.332701e-01 3.730194e-01 4.829049e-02
<GCONST> 1.040074e+02
~h "b"
<BEGINHMM>
<NUMSTATES> 5
<STATE> 2
<NUMMIXES> 8
<MIXTURE> 1 1.158560e-01
<MEAN> 39
 -7.987571e+00 5.214988e+00 1.954323e+00 8.734061e+00 7.167645e+00 6.068723e+00 3.088214e+00 -8.652900e-02 3.108174e+00 2.308121e+00 1.818886e+00 1.052366e+00 -9.782307e+00 3.870574e-01 -1.935195e-01 -8.900468e-01 2.055621e+00 2.700560e-01 7.024278e-01 5.338454e-01 2.509295e-02 3.738355e-02 6.400680e-01 3.153053e-01 -1.951823e-01 -1.102660e+00 -2.667206e-01 2.323788e-02 -1.667469e-01 -7.224081e-01 -1.915978e-01 -5.580123e-01 -1.038071e-01 8.968370e-02 -1.931875e-01 -2.357917e-01 -8.397847e-02 5.522369e-02 5.171753e-01
<VARIANCE> 39
 1.349358e+01 1.626812e+01 2.453565e+01 1.991738e+01 1.741993e+01 2.358075e+01 2.362024e+01 2.965811e+01 2.230407e+01 2.146571e+01 2.567127e+01 1.695684e+01 1.262975e+00 3.880221e+00 2.645481e+00 3.327083e+00 3.054857e+00 3.070181e+00 3.052261e+00 2.421336e+00 3.205402e+00 2.627774e+00 2.442338e+00 1.966282e+00 1.991153e+00 5.468165e-01 6.013379e-01 4.336717e-01 6.345519e-01 4.794877e-01 5.221605e-01 5.025129e-01 5.484691e-01 6.040031e-01 4.593729e-01 4.828480e-01 3.824226e-01 3.149620e-01 5.299035e-02
<GCONST> 1.083289e+02
<MIXTURE> 2 1.484340e-01
<MEAN> 39
 1.014072e+01 -3.706236e+00 1.190654e+00 2.590509e+00 -2.129075e+00 -6.535237e+00 -8.655693e+00 1.704542e-01 4.589409e-01 7.381296e-01 1.491386e+00 -2.330768e+00 -2.456960e+00 -7.532351e-02 4.374077e+00 -5.272455e-01 2.546718e+00 3.383960e+00 2.493257e+00 1.089326e-01 -3.417443e+00 -1.086714e+00 -5.226138e-01 -5.809621e-02 -9.815364e-01 -1.320362e+00 -7.495374e-01 8.941084e-01 3.732294e-01 1.420368e-01 1.763490e-01 6.785308e-01 8.772963e-01 -2.446366e-01 -4.710232e-01 -4.333484e-01 -3.093533e-01 8.744439e-02 -2.197032e-01
<VARIANCE> 39
 9.257554e+00 1.955089e+01 4.088736e+01 3.012121e+01 3.409800e+01 3.777341e+01 3.027656e+01 3.677729e+01 4.019501e+01 4.288325e+01 3.020490e+01 2.876160e+01 1.488656e+00 1.282977e+00 2.321028e+00 6.049546e+00 5.206203e+00 4.842768e+00 5.232689e+00 8.729330e+00 4.537265e+00 6.400870e+00 4.849027e+00 3.913727e+00 4.667234e+00 1.318308e-01 1.726666e-01 3.698321e-01 5.374614e-01 5.154638e-01 7.398443e-01 7.204338e-01 6.267535e-01 7.177143e-01 6.282932e-01 7.162753e-01 5.392253e-01 5.083418e-01 2.419388e-02
<GCONST> 1.172744e+02
<MIXTURE> 3 1.100361e-01
<MEAN> 39
 7.883111e+00 8.479034e+00 5.895780e-01 7.191534e+00 6.329121e+00 3.502408e+00 -1.383089e+00 -7.543857e+00 -5.654848e+00 -2.172784e+00 6.797088e-01 -1.895219e+00 -5.781526e+00 -9.783182e-01 3.669284e+00 4.648776e-01 1.914700e+00 2.432529e+00 1.745751e+00 1.794579e+00 -1.300094e+00 -1.062820e+00 -7.202698e-01 -4.648308e-01 8.670162e-02 -1.055455e+00 -4.781147e-01 -6.275216e-01 4.841418e-01 -3.412181e-01 -7.272094e-01 -4.895434e-01 -2.263824e-01 6.123561e-01 3.879163e-01 1.375045e-01 -1.384055e-01 1.230291e-01 1.830914e-01
<VARIANCE> 39
 8.072344e+00 1.490718e+01 1.720365e+01 2.176667e+01 1.670696e+01 2.218521e+01 2.301534e+01 2.418717e+01 2.589844e+01 2.265680e+01 2.108292e+01 2.153822e+01 1.356841e+00 1.175539e+00 2.945127e+00 4.065632e+00 4.405822e+00 3.809085e+00 4.798181e+00 5.269960e+00 4.861817e+00 5.153415e+00 4.505448e+00 3.426025e+00 2.961867e+00 1.627870e-01 1.644385e-01 4.319051e-01 4.527562e-01 4.375488e-01 4.487986e-01 4.746209e-01 5.506789e-01 5.199317e-01 6.479942e-01 4.327830e-01 4.342830e-01 3.942274e-01 2.246676e-02
<GCONST> 1.074588e+02
<MIXTURE> 4 1.646822e-01
<MEAN> 39
 1.181495e+01 2.881084e+00 -5.904115e+00 -2.788956e+00 1.919455e+00 3.306728e+00 -4.477196e+00 -6.635798e+00 -3.468538e+00 7.949531e-03 3.559617e+00 1.654701e+00 -3.204637e+00 -1.544420e+00 4.199682e+00 2.318154e+00 3.127727e+00 1.445470e+00 7.451313e-01 2.240320e+00 -1.319074e+00 -2.284810e+00 -2.166896e+00 -1.137564e+00 -8.799148e-02 -1.428030e+00 -7.072569e-01 6.461710e-02 6.034467e-01 5.826527e-01 1.010344e-01 -1.166535e-01 1.629568e-01 4.627551e-01 3.349716e-01 -1.542581e-01 -5.611082e-01 -4.008338e-01 -1.187797e-01
<VARIANCE> 39
 9.442691e+00 1.433978e+01 2.341483e+01 4.501545e+01 3.337587e+01 3.377362e+01 4.275494e+01 3.110341e+01 3.699357e+01 4.454774e+01 2.986532e+01 3.188354e+01 1.472934e+00 1.506366e+00 2.269477e+00 4.030383e+00 6.678804e+00 5.684247e+00 6.280432e+00 8.150408e+00 6.737487e+00 5.559204e+00 5.183570e+00 5.182349e+00 3.667150e+00 1.370683e-01 1.644689e-01 3.214588e-01 3.493533e-01 4.958816e-01 5.410528e-01 4.698935e-01 5.106726e-01 5.689588e-01 5.185928e-01 6.245466e-01 5.358457e-01 4.506760e-01 2.350724e-02
<GCONST> 1.152436e+02
<MIXTURE> 5 1.226888e-01
<MEAN> 39
 7.091067e+00 8.613373e+00 2.895277e+00 8.051627e+00 1.102707e+00 -7.691444e-01 -2.718281e+00 -7.002518e+00 -4.932584e+00 -2.090482e+00 -2.551486e+00 -4.801552e+00 -5.558297e+00 -9.133236e-01 2.685308e+00 7.839791e-01 2.372541e+00 1.933195e+00 7.675560e-01 2.957623e-01 -3.909090e-01 -3.817462e-01 -9.869094e-01 -2.221604e-01 -3.437851e-01 -9.510546e-01 -4.125914e-01 -7.043856e-01 -1.307417e-01 -8.040273e-01 -1.096487e-01 1.822977e-01 2.012582e-01 5.074657e-01 3.710352e-01 2.082736e-01 2.391715e-01 4.961431e-01 1.696018e-01
<VARIANCE> 39
 9.662802e+00 1.971206e+01 2.050296e+01 4.235811e+01 2.850038e+01 4.027322e+01 4.777480e+01 4.445526e+01 5.778756e+01 4.098772e+01 4.070898e+01 3.196823e+01 1.759496e+00 2.686696e+00 4.120724e+00 4.729906e+00 7.629821e+00 4.506113e+00 4.737980e+00 5.001328e+00 6.217851e+00 5.895639e+00 4.329960e+00 4.522325e+00 3.537336e+00 3.859414e-01 2.713404e-01 4.970474e-01 3.793904e-01 6.861858e-01 5.861157e-01 5.512657e-01 8.628688e-01 9.247997e-01 1.095145e+00 8.695387e-01 8.493437e-01 5.794587e-01 3.044202e-02
<GCONST> 1.225004e+02
<MIXTURE> 6 1.125458e-01
<MEAN> 39
 -6.260208e+00 7.388950e+00 1.591759e+00 1.001122e+01 6.718928e+00 4.882550e+00 3.658580e+00 -2.338158e+00 -1.227727e+00 -6.615782e-01 7.438251e-03 7.892270e-02 -9.744585e+00 1.609675e+00 9.303337e-01 5.651749e-01 3.932500e-01 1.273823e-01 -3.254431e-01 -6.293226e-01 -1.052891e+00 -9.948476e-01 -5.792770e-01 -3.327773e-01 -3.449956e-01 3.130150e-01 3.877632e-01 -3.508346e-01 -1.593925e-01 -6.753009e-01 -3.506118e-01 -2.852791e-01 -2.521445e-01 -8.196607e-04 1.360009e-01 5.974758e-02 8.635484e-02 7.677060e-02 3.904767e-01
<VARIANCE> 39
 2.734339e+01 2.380271e+01 2.204998e+01 2.165917e+01 1.938293e+01 1.966812e+01 2.484103e+01 2.856376e+01 3.208216e+01 2.144445e+01 1.657575e+01 1.778467e+01 1.368329e+00 2.587936e+00 2.485806e+00 1.851997e+00 2.325511e+00 1.455064e+00 1.652508e+00 2.241729e+00 2.982396e+00 2.703807e+00 1.886400e+00 1.927268e+00 1.929420e+00 3.829301e-01 6.656292e-01 3.050514e-01 3.372067e-01 4.539277e-01 3.482586e-01 3.868361e-01 4.417090e-01 5.313798e-01 5.126815e-01 3.776852e-01 3.249756e-01 3.252838e-01 7.120892e-02
<GCONST> 1.039915e+02
<MIXTURE> 7 1.128556e-01
<MEAN> 39
 7.900731e+00 8.312091e+00 -7.520261e-02 6.546081e+00 5.408225e+00 2.726319e+00 -2.367681e+00 -8.304167e+00 -6.149600e+00 -2.664287e+00 4.088966e-01 -2.523589e+00 -5.879973e+00 -1.137733e+00 3.619440e+00 6.648579e-01 1.856133e+00 1.849585e+00 1.513119e+00 1.646197e+00 -1.518306e+00 -1.242739e+00 -1.154759e+00 -8.130965e-01 -2.464191e-01 -1.061729e+00 -5.410451e-01 -7.486658e-01 4.722886e-01 -3.939361e-01 -6.945693e-01 -5.450141e-01 -1.901481e-01 7.505454e-01 4.618618e-01 1.240738e-01 -2.165558e-01 1.101663e-01 1.961790e-01
<VARIANCE> 39
 8.131196e+00 1.515907e+01 1.608496e+01 2.253117e+01 1.715302e+01 2.429826e+01 2.745980e+01 2.457874e+01 2.759940e+01 2.321179e+01 2.313760e+01 2.259359e+01 1.430513e+00 1.199978e+00 2.902271e+00 3.926840e+00 4.454640e+00 4.187086e+00 4.590562e+00 5.004025e+00 5.489511e+00 5.126323e+00 4.929911e+00 3.503625e+00 2.939904e+00 1.735453e-01 2.078947e-01 4.510894e-01 4.692623e-01 4.403341e-01 4.728761e-01 5.039647e-01 5.913945e-01 5.633096e-01 6.924255e-01 4.770902e-01 4.543461e-01 4.219632e-01 2.448057e-02
<GCONST> 1.092541e+02
<MIXTURE> 8 1.128986e-01
<MEAN> 39
 6.833630e+00 8.316017e+00 2.810394e+00 7.946042e+00 2.251111e-01 -1.774839e+00 -4.765002e+00 -7.565191e+00 -5.146849e+00 -3.021728e+00 -3.162871e+00 -5.587229e+00 -5.726563e+00 -1.015200e+00 2.913383e+00 7.822912e-01 2.616458e+00 1.541065e+00 7.050520e-01 -1.124814e-01 -1.070214e+00 -7.825653e-01 -1.411107e+00 -7.014909e-01 -1.085728e+00 -1.030907e+00 -4.707204e-01 -7.970152e-01 -1.680435e-01 -8.756942e-01 -8.084677e-02 1.254981e-01 3.092663e-01 6.374962e-01 3.750879e-01 2.622281e-01 1.960921e-01 4.991518e-01 1.830589e-01
<VARIANCE> 39
 1.026139e+01 1.969404e+01 2.246400e+01 4.033848e+01 3.004304e+01 4.039701e+01 4.735113e+01 4.082622e+01 4.776541e+01 4.417263e+01 3.865088e+01 3.332506e+01 1.792807e+00 3.316875e+00 4.295741e+00 5.231263e+00 7.400861e+00 4.943610e+00 4.941567e+00 5.372292e+00 6.569149e+00 5.953618e+00 4.493155e+00 4.419972e+00 4.211455e+00 4.630649e-01 2.838866e-01 5.436719e-01 4.443411e-01 7.232663e-01 6.407046e-01 6.098008e-01 9.179208e-01 9.193242e-01 9.824457e-01 9.755256e-01 7.926666e-01 6.465318e-01 3.133641e-02
<GCONST> 1.240882e+02
<STATE> 3
<NUMMIXES> 8
<MIXTURE> 1 1.288946e-01
<MEAN> 39
 3.277240e+00 1.281988e+01 5.040913e+00 1.118315e+01 7.929061e+00 3.131637e+00 -8.576614e-01 -7.285848e+00 -4.598939e+00 -2.276097e+00 -1.661354e+00 -1.856656e+00 -7.765031e+00 -6.560518e-01 1.543348e-01 3.920744e-01 6.480457e-01 6.179432e-01 2.368796e-01 1.583427e-02 1.864594e-01 1.751524e-01 1.345269e-02 -4.041207e-02 1.064088e-01 -2.139959e-01 -1.233990e-01 -5.173889e-01 -1.881309e-01 -3.689270e-01 -2.734533e-01 -1.015766e-01 1.069378e-01 2.672819e-01 2.187922e-01 1.177511e-01 -1.107361e-02 3.834262e-02 1.178333e-01
<VARIANCE> 39
 1.499588e+01 9.009301e+00 1.660656e+01 1.639732e+01 1.572202e+01 2.417649e+01 2.677019e+01 2.440276e+01 2.057910e+01 2.426684e+01 2.113591e+01 1.791957e+01 1.671445e+00 7.128191e-01 8.617184e-01 1.157216e+00 1.328240e+00 1.268513e+00 1.447870e+00 1.480931e+00 1.646183e+00 1.805021e+00 1.819957e+00 1.764654e+00 1.269544e+00 6.050148e-02 1.354852e-01 2.316342e-01 2.563485e-01 3.125797e-01 2.445006e-01 2.829550e-01 2.919058e-01 3.429777e-01 3.159668e-01 3.497562e-01 3.135101e-01 2.699180e-01 2.118099e-02
<GCONST> 8.842416e+01
<MIXTURE> 2 1.579812e-01
<MEAN> 39
 4.965014e+00 1.337012e+01 3.506709e+00 7.404910e+00 5.542480e+00 4.286452e+00 2.009533e+00 -6.951110e+00 -8.516484e+00 -5.349786e+00 -1.848455e+00 -1.548675e-02 -6.941099e+00 -1.295496e+00 6.644434e-01 9.910157e-01 9.475551e-01 8.263443e-01 2.157633e-01 3.252429e-01 2.846386e-01 1.838837e-01 -9.100567e-02 -2.945308e-01 6.761881e-03 -4.136609e-01 1.034437e-01 -1.296554e+00 -5.531306e-01 -8.238626e-01 -5.123739e-01 -3.168655e-01 -5.244139e-01 2.522879e-01 8.594180e-01 6.391813e-01 3.446561e-01 2.433908e-02 3.644940e-01
<VARIANCE> 39
 1.170202e+01 1.049918e+01 1.619633e+01 2.145017e+01 2.528670e+01 2.209154e+01 2.532430e+01 2.884909e+01 2.314476e+01 2.047735e+01 3.264330e+01 2.064459e+01 1.449539e+00 8.077971e-01 2.447440e+00 1.633911e+00 2.915578e+00 1.990647e+00 1.792220e+00 2.561409e+00 2.400367e+00 3.597687e+00 2.040214e+00 2.307855e+00 2.085441e+00 1.424382e-01 1.522602e-01 2.622879e-01 4.033275e-01 5.556318e-01 5.010173e-01 4.751970e-01 5.455423e-01 6.784762e-01 5.633154e-01 4.401968e-01 6.246215e-01 4.206561e-01 2.054017e-02
<GCONST> 1.014885e+02
<MIXTURE> 3 1.068427e-01
<MEAN> 39
 3.772561e+00 1.215637e+01 5.983812e+00 1.204159e+01 5.075926e+00 -3.923526e-01 -6.389294e+00 -8.773867e+00 -3.411385e+00 -2.387828e+00 -2.031799e+00 -5.663546e+00 -7.075480e+00 -1.956368e+00 8.515584e-01 7.743629e-01 9.312745e-01 1.271642e+00 1.195423e+00 1.050848e+00 4.792541e-01 1.687698e-01 -5.561103e-01 3.037585e-01 5.563995e-01 -6.048395e-01 4.659303e-03 -1.648534e+00 -6.225740e-01 -1.388279e+00 -8.107252e-01 -2.129427e-01 6.176918e-01 1.093444e+00 4.934752e-01 4.601038e-01 3.382106e-01 7.044817e-01 4.465210e-01
<VARIANCE> 39
 1.300593e+01 1.247255e+01 1.720890e+01 2.314774e+01 2.694028e+01 2.545632e+01 3.067124e+01 2.863939e+01 2.992754e+01 3.124346e+01 2.659293e+01 2.048514e+01 2.021903e+00 2.891437e+00 4.230550e+00 3.331981e+00 4.760155e+00 2.829456e+00 3.170216e+00 3.456630e+00 4.419451e+00 4.297239e+00 3.476225e+00 3.402649e+00 2.734465e+00 4.511487e-01 3.058165e-01 4.786484e-01 9.002853e-01 6.534751e-01 8.222939e-01 7.726223e-01 7.400869e-01 8.574357e-01 1.007290e+00 9.104579e-01 7.115272e-01 5.256436e-01 4.645440e-02
<GCONST> 1.167339e+02
<MIXTURE> 4 1.041561e-01
<MEAN> 39
 -8.683812e+00 4.994064e+00 5.562308e-01 8.982842e+00 6.380158e+00 5.507877e+00 3.672228e+00 8.200395e-01 2.526578e+00 2.208363e+00 2.341079e+00 1.052652e+00 -1.042586e+01 5.228293e-01 -6.228962e-01 -2.378009e-02 -6.340040e-01 -4.639951e-01 -4.999397e-01 1.941731e-01 4.493666e-01 4.711563e-01 1.675239e-01 3.253688e-01 4.374320e-01 6.115460e-01 9.728913e-01 -2.841028e-01 1.206896e-01 -8.615296e-01 -5.279996e-01 -5.187706e-01 -3.823332e-01 -1.472559e-01 -1.419137e-01 -1.235731e-01 -1.028126e-01 -7.148315e-02 6.442661e-01
<VARIANCE> 39
 7.786412e+00 1.052767e+01 1.323149e+01 1.715500e+01 1.615099e+01 1.746786e+01 1.991053e+01 2.097820e+01 2.245906e+01 1.835047e+01 1.993754e+01 1.436201e+01 1.131276e-01 2.946376e+00 1.394955e+00 1.858460e+00 2.312812e+00 1.765132e+00 2.311792e+00 2.349682e+00 2.378978e+00 2.338915e+00 2.209560e+00 1.843816e+00 1.626658e+00 6.874294e-01 3.774647e-01 3.934306e-01 5.536544e-01 6.737553e-01 5.271291e-01 6.273884e-01 5.360166e-01 4.932977e-01 5.438452e-01 5.334923e-01 4.316337e-01 3.739390e-01 6.190905e-02
<GCONST> 9.987645e+01
<MIXTURE> 5 1.454766e-01
<MEAN> 39
 6.745018e+00 1.278896e+01 1.204002e+00 5.302457e+00 5.123199e+00 5.873437e+00 2.704936e+00 -7.683935e+00 -9.133955e+00 -7.135404e+00 -2.002706e+00 6.403760e-01 -6.757084e+00 -1.777405e+00 1.402739e+00 1.475894e+00 1.234598e+00 5.751349e-01 2.198332e-01 1.214224e+00 2.410646e-01 4.690140e-04 -6.048879e-01 -1.226588e+00 -2.973277e-01 -6.266722e-01 -5.190910e-02 -1.706298e+00 -3.957832e-01 -7.306478e-01 -5.575259e-01 -7.251008e-01 -1.013602e+00 5.750886e-01 1.143743e+00 1.001341e+00 5.252189e-01 -8.926789e-02 4.490806e-01
<VARIANCE> 39
 1.019339e+01 1.162144e+01 1.509488e+01 2.016671e+01 2.439114e+01 2.148904e+01 2.487818e+01 3.014035e+01 2.016369e+01 2.705309e+01 2.743587e+01 2.104672e+01 1.486613e+00 1.489835e+00 3.983453e+00 2.891486e+00 3.771115e+00 2.760786e+00 3.056431e+00 3.168535e+00 3.369062e+00 3.529605e+00 3.902936e+00 2.945278e+00 2.135064e+00 3.052617e-01 3.148767e-01 4.666548e-01 6.550822e-01 9.601977e-01 7.776209e-01 6.657035e-01 6.110677e-01 9.844209e-01 6.189885e-01 7.105389e-01 6.741260e-01 4.756926e-01 4.716647e-02
<GCONST> 1.114934e+02
<MIXTURE> 6 1.482305e-01
<MEAN> 39
 4.838224e+00 1.215426e+01 3.389751e+00 1.009312e+01 5.645151e+00 2.142961e+00 -1.485499e+00 -7.575323e+00 -4.810819e+00 -2.383861e+00 -2.253357e+00 -3.874788e+00 -7.211381e+00 1.868100e-02 1.356847e-01 -4.681728e-02 -1.825208e-01 1.831565e-01 3.954220e-01 1.820390e-01 -9.388759e-02 -9.729512e-02 -1.063705e-01 2.926043e-02 1.029797e-01 4.302527e-03 -2.036784e-01 -9.302322e-01 -1.887342e-01 -5.879629e-01 -3.785212e-01 -2.259201e-01 1.000779e-03 4.220338e-01 4.073768e-01 1.562646e-01 2.201070e-01 3.508312e-01 2.362216e-01
<VARIANCE> 39
 1.491286e+01 1.396796e+01 1.984873e+01 3.128983e+01 2.718065e+01 3.256006e+01 3.426155e+01 2.592780e+01 3.182943e+01 2.230014e+01 2.631108e+01 2.181203e+01 1.935810e+00 1.010526e+00 1.076497e+00 1.058196e+00 1.337715e+00 1.169922e+00 1.483459e+00 1.383195e+00 1.518274e+00 1.575491e+00 1.288139e+00 1.515958e+00 1.306698e+00 1.014288e-01 3.205459e-01 3.857142e-01 4.727908e-01 7.655626e-01 5.314534e-01 4.926444e-01 4.548763e-01 5.679405e-01 5.461785e-01 4.026312e-01 4.362121e-01 3.420636e-01 4.602402e-02
<GCONST> 9.913268e+01
<MIXTURE> 7 1.017987e-01
<MEAN> 39
 4.261109e+00 1.153041e+01 5.193566e+00 1.122560e+01 4.464067e+00 -1.036169e+00 -7.596959e+00 -9.505431e+00 -4.056010e+00 -2.823462e+00 -2.412140e+00 -6.635746e+00 -7.011862e+00 -1.976501e+00 9.294674e-01 7.761619e-01 9.693078e-01 9.360862e-01 7.964796e-01 6.935350e-01 -3.611538e-02 -2.956491e-01 -9.257181e-01 -2.365741e-01 3.223017e-02 -6.262361e-01 -6.712225e-02 -1.718628e+00 -5.334659e-01 -1.418734e+00 -8.418860e-01 -2.486909e-01 6.233634e-01 1.203596e+00 5.023540e-01 4.499671e-01 3.001246e-01 7.166595e-01 4.428719e-01
<VARIANCE> 39
 1.352954e+01 1.417624e+01 1.827507e+01 2.235456e+01 2.747042e+01 2.455910e+01 2.974422e+01 2.935181e+01 2.955768e+01 3.026834e+01 2.798619e+01 1.998343e+01 2.152329e+00 2.887762e+00 4.154446e+00 3.560279e+00 4.912222e+00 3.110385e+00 3.658372e+00 3.479694e+00 4.425922e+00 4.457498e+00 3.546697e+00 3.206218e+00 2.809812e+00 4.915228e-01 3.326624e-01 4.906823e-01 1.022484e+00 6.686707e-01 8.755409e-01 8.057801e-01 7.578635e-01 9.374363e-01 1.088545e+00 9.018692e-01 7.165181e-01 5.057973e-01 4.871876e-02
<GCONST> 1.179444e+02
<MIXTURE> 8 1.066105e-01
<MEAN> 39
 -9.124638e+00 4.543013e+00 1.913954e-01 8.577697e+00 5.865356e+00 5.239854e+00 3.358943e+00 4.965344e-01 1.948581e+00 1.359581e+00 1.920183e+00 9.006382e-01 -1.046389e+01 7.863612e-01 -9.151714e-01 -3.030026e-01 -1.077047e+00 -9.699904e-01 -1.192996e+00 -3.712991e-01 -9.612019e-02 -7.466910e-02 -3.940920e-01 -2.303885e-01 -1.371253e-02 7.291708e-01 9.446109e-01 -3.377952e-01 1.425287e-01 -8.708596e-01 -5.598748e-01 -5.837800e-01 -4.370545e-01 -1.601245e-01 -1.371701e-01 -7.349329e-02 -1.505099e-01 -1.227804e-01 6.350001e-01
<VARIANCE> 39
 7.599060e+00 1.010431e+01 1.320602e+01 1.772533e+01 1.590704e+01 1.808817e+01 1.985776e+01 1.975534e+01 2.106008e+01 1.730052e+01 1.976979e+01 1.430707e+01 1.131276e-01 2.558993e+00 1.463933e+00 1.893727e+00 2.339856e+00 1.897725e+00 2.441792e+00 2.037755e+00 2.007811e+00 2.206840e+00 2.136591e+00 1.679779e+00 1.490241e+00 7.640865e-01 3.699818e-01 3.884670e-01 5.817631e-01 6.404212e-01 5.629798e-01 6.581379e-01 4.839067e-01 4.729845e-01 5.384597e-01 5.255843e-01 4.539999e-01 3.416378e-01 6.231051e-02
<GCONST> 9.912647e+01
<STATE> 4
<NUMMIXES> 8
<MIXTURE> 1 7.631698e-02
<MEAN> 39
 -1.107253e+00 1.282932e+01 7.594830e+00 1.347759e+01 7.736831e+00 4.292245e+00 -1.103831e+00 -6.004103e+00 -4.427025e+00 -4.915877e+00 -2.553283e+00 -2.849975e+00 -8.704763e+00 -2.107180e+00 -2.485212e+00 -1.022770e+00 -9.081899e-01 1.503151e-01 5.113837e-01 1.629328e+00 2.367724e+00 2.251367e+00 1.212883e+00 9.256265e-01 9.342345e-01 1.180488e-01 9.939030e-01 -1.319334e+00 -1.128593e+00 -1.662054e+00 -9.511959e-01 -6.264260e-01 -1.537997e-01 3.439599e-01 5.434998e-01 8.053255e-01 5.297405e-01 3.031693e-01 6.733605e-01
<VARIANCE> 39
 1.170702e+01 8.919978e+00 1.225357e+01 1.548968e+01 1.742803e+01 1.991739e+01 3.229972e+01 2.596330e+01 2.065067e+01 1.873610e+01 1.642919e+01 1.793013e+01 1.549608e+00 1.814397e+00 2.062856e+00 1.951841e+00 2.917817e+00 1.979156e+00 2.684010e+00 3.246403e+00 3.352296e+00 2.824124e+00 2.918269e+00 2.895197e+00 2.344283e+00 4.989886e-01 3.828139e-01 4.590481e-01 6.353927e-01 6.453571e-01 5.581023e-01 7.100299e-01 6.522279e-01 7.213104e-01 6.093528e-01 5.536425e-01 5.122473e-01 4.348267e-01 3.866699e-02
<GCONST> 1.065294e+02
<MIXTURE> 2 1.627448e-01
<MEAN> 39
 -6.640154e+00 4.347064e+00 2.224521e+00 8.837287e+00 7.232237e+00 5.046870e+00 3.319597e+00 1.230461e-01 1.616566e+00 1.648817e-01 6.321576e-01 1.791149e-02 -8.458111e+00 8.841814e-01 -2.692020e+00 -1.550744e+00 -2.628447e+00 -1.445203e+00 -1.393769e+00 -1.431180e-01 1.117927e+00 1.494992e+00 1.226214e+00 9.818065e-01 7.511843e-01 1.331381e+00 1.685890e+00 -1.475041e-01 -2.519534e-01 -9.996678e-01 -8.334448e-01 -5.816684e-01 -8.444785e-01 -4.960070e-01 -5.013099e-01 -7.075791e-02 -5.423528e-02 -1.665519e-01 5.612664e-01
<VARIANCE> 39
 1.222622e+01 2.305812e+01 2.028922e+01 2.120292e+01 1.920407e+01 2.389317e+01 2.385557e+01 2.488142e+01 2.648114e+01 2.279793e+01 2.472787e+01 1.729948e+01 3.608658e+00 4.483394e+00 2.541498e+00 3.217505e+00 3.397439e+00 2.909578e+00 3.561563e+00 4.414789e+00 4.192669e+00 3.644813e+00 3.388494e+00 3.089278e+00 2.648912e+00 4.984661e-01 3.716081e-01 6.661907e-01 8.783961e-01 8.199558e-01 6.945589e-01 9.244679e-01 8.104724e-01 8.116052e-01 8.620738e-01 7.236493e-01 8.013843e-01 5.835062e-01 5.740812e-02
<GCONST> 1.169681e+02
<MIXTURE> 3 1.217221e-01
<MEAN> 39
 -2.041892e+00 1.437019e+00 -1.167570e+00 1.963736e+00 3.546588e+00 1.036160e+00 1.716275e+00 -1.624250e+00 2.150277e+00 2.017670e+00 1.724330e+00 1.544052e+00 -4.876116e+00 3.090393e+00 -2.708894e+00 -2.323564e+00 -4.307776e+00 -1.983545e+00 -3.930501e-01 -1.118284e+00 2.879626e-01 1.385620e+00 1.601743e+00 1.059934e+00 2.101199e-01 1.853530e+00 1.009041e+00 2.261182e-01 -6.791595e-02 -2.868546e-01 -2.087854e-01 3.669018e-01 -3.741137e-01 -2.202466e-01 -4.361851e-01 -2.396192e-01 -1.262791e-01 -3.093572e-01 7.773415e-02
<VARIANCE> 39
 2.049787e+01 2.099429e+01 1.984737e+01 2.632783e+01 2.312656e+01 2.365615e+01 3.167657e+01 2.859127e+01 3.091774e+01 2.327462e+01 2.218643e+01 1.834620e+01 2.715449e+00 3.815704e+00 4.592352e+00 4.049217e+00 6.097123e+00 4.430490e+00 5.590462e+00 5.746552e+00 6.131359e+00 5.512558e+00 4.449012e+00 4.465358e+00 3.392452e+00 3.550060e-01 4.611097e-01 8.147543e-01 5.938852e-01 8.695987e-01 7.595596e-01 8.530259e-01 1.043413e+00 8.960087e-01 8.928452e-01 7.417750e-01 6.761369e-01 5.809468e-01 4.288170e-02
<GCONST> 1.217869e+02
<MIXTURE> 4 1.686092e-01
<MEAN> 39
 4.217479e+00 1.160988e+01 3.446619e+00 6.828304e+00 5.019625e+00 4.145745e+00 1.912899e+00 -6.467746e+00 -7.299116e+00 -5.773873e+00 -2.910242e+00 -6.474872e-01 -6.623966e+00 -1.265866e-01 -2.851148e+00 -1.764719e+00 -2.955098e+00 -1.075661e+00 -5.246599e-01 -5.287121e-01 7.536067e-01 2.168234e+00 1.754054e+00 1.203700e+00 6.281031e-01 9.809834e-01 6.663582e-01 -1.112654e+00 -8.718693e-01 -1.363126e+00 -6.786726e-01 1.145644e-02 -4.637517e-01 1.466480e-01 6.056600e-01 7.702676e-01 5.955987e-01 -5.942080e-03 4.610726e-01
<VARIANCE> 39
 1.565041e+01 1.971708e+01 2.128642e+01 2.732225e+01 2.856217e+01 2.541174e+01 3.222963e+01 2.738836e+01 2.540059e+01 2.090679e+01 2.950651e+01 2.249402e+01 1.754953e+00 2.420037e+00 2.331204e+00 2.087021e+00 5.123129e+00 3.311569e+00 2.772000e+00 3.203285e+00 4.061991e+00 3.595735e+00 2.836963e+00 3.015731e+00 2.350706e+00 2.778136e-01 3.563721e-01 5.473439e-01 5.477210e-01 9.481155e-01 7.043520e-01 8.794429e-01 9.451061e-01 8.457658e-01 8.209730e-01 7.377012e-01 7.937647e-01 6.410433e-01 2.842521e-02
<GCONST> 1.146329e+02
<MIXTURE> 5 1.599036e-01
<MEAN> 39
 -1.811422e+00 6.753858e-01 3.424335e+00 6.124480e+00 1.002596e+00 -4.189685e+00 4.315061e-01 1.327812e+00 2.238836e+00 -1.737658e+00 4.230977e-01 1.163653e+00 -4.748117e+00 1.720363e+00 -2.951531e+00 2.424938e+00 -2.460150e+00 -4.222036e+00 -2.761930e+00 -1.166748e+00 1.134340e+00 -1.107228e+00 -1.076557e-01 4.979894e-01 7.669747e-01 1.639553e+00 4.872412e-01 3.321221e-01 6.417320e-01 -3.606867e-01 -5.095184e-01 4.143907e-01 -4.250553e-01 -5.113035e-01 -8.905610e-01 1.689439e-01 -8.568307e-04 -2.620794e-01 -7.669057e-03
<VARIANCE> 39
 2.254315e+01 1.597236e+01 2.703016e+01 2.508073e+01 3.024438e+01 3.316662e+01 3.590378e+01 3.123267e+01 3.287407e+01 2.497831e+01 3.027610e+01 2.026250e+01 2.938611e+00 4.255660e+00 4.051344e+00 4.302801e+00 5.648925e+00 4.350654e+00 4.280989e+00 5.855056e+00 6.907670e+00 5.831575e+00 5.594022e+00 4.065991e+00 2.752854e+00 3.113084e-01 4.298617e-01 5.774797e-01 5.071623e-01 7.147373e-01 7.031075e-01 9.271147e-01 8.963474e-01 9.576924e-01 8.573831e-01 7.399679e-01 8.943819e-01 5.195336e-01 5.156697e-02
<GCONST> 1.224442e+02
<MIXTURE> 6 1.122822e-01
<MEAN> 39
 4.411832e+00 1.078725e+01 3.073386e+00 1.061157e+01 8.075865e+00 2.095427e+00 -3.098447e+00 -9.040880e+00 -4.019821e+00 -9.491531e-01 -1.973095e-01 -3.818269e+00 -6.752784e+00 -1.047050e+00 -3.037409e+00 3.111606e-01 -1.708364e+00 -2.023422e+00 -1.883416e+00 2.706518e-01 2.199153e+00 1.544179e+00 2.349262e-01 2.607014e-02 1.062306e+00 8.738707e-01 2.585687e-01 -1.373907e+00 3.031344e-01 -1.061939e+00 -1.451956e+00 -6.636887e-01 -2.177730e-01 9.320604e-01 1.008824e-01 3.393988e-02 1.005862e-01 3.089558e-01 4.639992e-01
<VARIANCE> 39
 1.484532e+01 1.470110e+01 1.679590e+01 2.223635e+01 2.065949e+01 2.753751e+01 2.772924e+01 2.003417e+01 2.441849e+01 1.990763e+01 2.127156e+01 1.998446e+01 1.764843e+00 1.680272e+00 2.365757e+00 2.719380e+00 3.892012e+00 3.279766e+00 3.051259e+00 4.492703e+00 2.814918e+00 4.522725e+00 2.916433e+00 2.718564e+00 2.223612e+00 2.463840e-01 3.214136e-01 5.190427e-01 6.920181e-01 5.705754e-01 6.913307e-01 6.692426e-01 7.529597e-01 6.930384e-01 9.833099e-01 7.127044e-01 5.482693e-01 4.678741e-01 2.687694e-02
<GCONST> 1.105404e+02
<MIXTURE> 7 1.224465e-01
<MEAN> 39
 -1.752046e+00 1.022137e+00 -1.254840e+00 1.713681e+00 2.994696e+00 3.332688e-01 1.019157e+00 -1.964924e+00 2.307761e+00 1.582038e+00 1.558558e+00 9.330860e-01 -4.822111e+00 2.918717e+00 -2.931482e+00 -2.378833e+00 -4.302741e+00 -2.134519e+00 -8.669577e-01 -1.425945e+00 2.045019e-01 1.162104e+00 1.302413e+00 5.715430e-01 -2.131034e-01 1.829148e+00 9.461823e-01 2.124321e-01 -6.632975e-02 -2.075520e-01 -1.791242e-01 3.106586e-01 -4.009465e-01 -2.043087e-01 -4.615332e-01 -2.512162e-01 -2.415434e-01 -3.714779e-01 5.465177e-02
<VARIANCE> 39
 2.092827e+01 2.144753e+01 1.918118e+01 2.576925e+01 2.295624e+01 2.491321e+01 2.935638e+01 2.991120e+01 3.298544e+01 2.431345e+01 2.240571e+01 1.965336e+01 2.746361e+00 4.067446e+00 4.654617e+00 3.783978e+00 5.901172e+00 4.165376e+00 5.616430e+00 5.955086e+00 6.605804e+00 5.996941e+00 4.554937e+00 5.108897e+00 3.517988e+00 3.612551e-01 4.801120e-01 8.150958e-01 5.944802e-01 8.620594e-01 7.627999e-01 8.830309e-01 1.022669e+00 9.131925e-01 9.440232e-01 7.313154e-01 6.928160e-01 5.771149e-01 4.369540e-02
<GCONST> 1.224604e+02
<MIXTURE> 8 7.595745e-02
<MEAN> 39
 -9.783211e-01 1.286400e+01 7.321783e+00 1.308542e+01 8.042566e+00 4.160661e+00 -5.701100e-01 -6.317332e+00 -4.755626e+00 -4.980630e+00 -2.886378e+00 -2.601103e+00 -8.777230e+00 -2.095797e+00 -2.720132e+00 -1.216567e+00 -1.277992e+00 -3.409465e-01 -1.075926e-01 1.179823e+00 2.009266e+00 1.909308e+00 8.274499e-01 3.970094e-01 6.442782e-01 2.293016e-01 9.598589e-01 -1.353998e+00 -1.070867e+00 -1.642374e+00 -1.071282e+00 -6.119984e-01 -2.543234e-01 2.974356e-01 4.739713e-01 7.699868e-01 4.977591e-01 2.124553e-01 6.535936e-01
<VARIANCE> 39
 1.086473e+01 8.716783e+00 1.286892e+01 1.524427e+01 1.786248e+01 1.982531e+01 3.314729e+01 2.454201e+01 1.945352e+01 1.828955e+01 1.634897e+01 1.666766e+01 1.520655e+00 1.722980e+00 2.021622e+00 1.970731e+00 3.044363e+00 2.065127e+00 2.679310e+00 2.655503e+00 2.792067e+00 2.780824e+00 2.752939e+00 2.585524e+00 2.014586e+00 4.699472e-01 3.648606e-01 4.776579e-01 6.313260e-01 6.029992e-01 5.008503e-01 6.761076e-01 6.508330e-01 7.288418e-01 6.085031e-01 5.358927e-01 4.926127e-01 4.003537e-01 3.580324e-02
<GCONST> 1.050484e+02
<TRANSP> 5
 0.000000e+00 1.000000e+00 0.000000e+00 0.000000e+00 0.000000e+00
 0.000000e+00 4.628308e-01 5.371692e-01 0.000000e+00 0.000000e+00
 0.000000e+00 0.000000e+00 5.918222e-01 4.081778e-01 0.000000e+00
 0.000000e+00 0.000000e+00 0.000000e+00 6.311980e-01 3.688020e-01
 0.000000e+00 0.000000e+00 0.000000e+00 0.000000e+00 0.000000e+00
<ENDHMM>
~h "d"
<BEGINHMM>
<NUMSTATES> 5
<STATE> 2
<NUMMIXES> 8
<MIXTURE> 1 1.144629e-01
<MEAN> 39
 -2.379096e+00 1.133161e+01 7.191078e+00 1.206517e+01 6.398081e+00 2.781180e+00 -1.437387e+00 -5.679644e+00 -3.773660e+00 -5.058132e+00 -3.150664e+00 -3.330815e+00 -8.613285e+00 -2.468117e+00 -3.321957e+00 -1.764017e+00 -2.474769e+00 5.456278e-01 1.043019e+00 1.570380e+00 1.755114e+00 1.561156e+00 1.511495e+00 1.798480e+00 1.011701e+00 3.560282e-01 3.841320e-01 -1.017664e+00 -3.497075e-01 -1.310339e+00 -1.206556e+00 -9.197059e-01 -3.623225e-03 5.283635e-01 4.528741e-01 6.075342e-01 3.132524e-01 5.831688e-01 5.991809e-01
<VARIANCE> 39
 1.821976e+01 1.493154e+01 1.775076e+01 2.096438e+01 2.472154e+01 2.575626e+01 3.392829e+01 2.588850e+01 2.352971e+01 2.066513e+01 2.260405e+01 1.733125e+01 2.457620e+00 1.920383e+00 3.761992e+00 3.047189e+00 6.194467e+00 4.739795e+00 4.295584e+00 3.810605e+00 4.049347e+00 3.474079e+00 3.466101e+00 3.211972e+00 2.869889e+00 6.450129e-01 5.090272e-01 6.871529e-01 6.177251e-01 7.701663e-01 7.026402e-01 7.016327e-01 9.954094e-01 7.109565e-01 7.146392e-01 5.409761e-01 5.660734e-01 4.864685e-01 5.881365e-02
<GCONST> 1.165100e+02
<MIXTURE> 2 1.125719e-01
<MEAN> 39
 7.878402e+00 -4.934990e+00 8.851368e-01 1.993738e+00 -7.319597e+00 -3.074562e+00 -4.521322e+00 -8.319389e-01 4.181142e+00 6.374352e-01 -1.118747e+00 -1.220022e+00 -1.775413e+00 -5.771433e-01 1.371761e+00 1.419851e+00 2.004084e+00 7.988495e-01 -2.047783e-01 -7.821393e-02 -1.307113e+00 -5.017465e-01 -1.597337e-01 -2.701290e-01 5.496254e-01 -7.222571e-01 -8.906151e-02 -9.650008e-02 -2.333215e-02 -5.490851e-01 2.271300e-01 1.278127e-01 1.034073e-01 3.757390e-01 -2.637466e-01 1.863018e-02 1.468352e-01 4.536796e-02 7.879217e-02
<VARIANCE> 39
 1.440276e+01 2.239318e+01 5.984736e+01 4.852929e+01 4.936151e+01 4.506093e+01 5.045269e+01 5.336488e+01 5.199407e+01 4.548388e+01 3.312621e+01 3.406704e+01 1.492913e+00 1.818023e+00 3.220879e+00 3.707270e+00 4.830030e+00 6.724555e+00 5.729576e+00 7.568002e+00 6.260165e+00 5.449297e+00 4.537907e+00 5.198844e+00 3.569668e+00 1.911379e-01 1.738109e-01 3.046418e-01 3.914501e-01 6.180131e-01 7.781841e-01 6.258687e-01 7.989727e-01 7.835624e-01 7.463266e-01 7.101263e-01 6.604135e-01 5.002329e-01 2.113173e-02
<GCONST> 1.217221e+02
<MIXTURE> 3 1.236967e-01
<MEAN> 39
 1.735773e+00 1.205024e+01 6.960385e+00 1.091790e+01 3.630643e+00 -1.100114e+00 -1.365786e+00 -4.564343e+00 -2.080163e+00 -3.460130e+00 -4.493197e+00 -2.122289e+00 -7.650412e+00 -5.558934e-01 3.272438e-01 1.942072e-01 4.988740e-01 6.546551e-01 4.709783e-01 3.150365e-01 5.902977e-02 1.407280e-02 -3.348008e-02 4.516868e-02 1.085588e-01 -2.766165e-01 -2.274736e-01 -1.033330e+00 -2.636276e-01 -7.599568e-01 -2.929688e-01 4.213613e-02 2.765482e-02 2.644776e-01 1.314480e-01 2.160021e-01 3.525741e-01 1.890707e-01 2.518374e-01
<VARIANCE> 39
 1.873360e+01 1.840101e+01 2.209749e+01 2.566150e+01 3.058660e+01 2.790843e+01 3.586705e+01 3.127991e+01 2.675706e+01 2.308388e+01 2.907696e+01 1.807673e+01 1.984378e+00 1.613104e+00 2.460835e+00 1.708501e+00 1.994395e+00 1.840149e+00 2.419268e+00 2.297795e+00 2.420248e+00 2.235958e+00 2.029896e+00 2.035328e+00 1.492048e+00 1.692998e-01 3.290989e-01 5.135639e-01 4.201902e-01 5.419621e-01 5.215061e-01 4.895302e-01 5.782513e-01 5.633262e-01 4.981007e-01 4.670638e-01 4.451617e-01 3.518458e-01 4.531812e-02
<GCONST> 1.055191e+02
<MIXTURE> 4 1.332515e-01
<MEAN> 39
 3.969798e+00 7.102968e+00 6.733453e+00 1.007570e+01 4.380611e-01 -3.151278e+00 -2.724555e+00 -4.023223e+00 -1.415451e+00 -3.810453e+00 -4.173288e+00 -2.006922e+00 -5.814047e+00 -1.544884e+00 2.704970e+00 3.249742e-01 2.217312e+00 2.582791e+00 1.290258e+00 1.119257e+00 -9.421865e-01 -3.079618e-01 -4.487947e-01 -6.157076e-01 -5.416247e-01 -1.080507e+00 -1.311820e-01 -1.113697e+00 -2.594043e-01 -1.284903e+00 -4.810736e-01 1.190114e-01 -5.009431e-02 5.648596e-01 1.960648e-01 4.533088e-01 5.919052e-01 3.523048e-01 3.377871e-01
<VARIANCE> 39
 1.525356e+01 3.454591e+01 3.067783e+01 4.109367e+01 4.766778e+01 3.973959e+01 3.966696e+01 4.140406e+01 3.787955e+01 3.400111e+01 3.630972e+01 2.844347e+01 2.556589e+00 1.981938e+00 4.501839e+00 4.176678e+00 6.052478e+00 4.970553e+00 5.142678e+00 5.445703e+00 4.883642e+00 5.115283e+00 4.287845e+00 4.228836e+00 3.194613e+00 2.605022e-01 3.230300e-01 7.896947e-01 5.873162e-01 9.372519e-01 1.001133e+00 8.618389e-01 1.094920e+00 9.810140e-01 9.181294e-01 8.150440e-01 7.877539e-01 5.883494e-01 5.051425e-02
<GCONST> 1.252767e+02
<MIXTURE> 5 1.272581e-01
<MEAN> 39
 -4.638708e+00 5.424872e+00 1.909437e+00 6.446826e+00 5.115594e+00 3.889117e+00 2.204552e+00 -3.513585e+00 -1.522594e+00 3.707464e-01 -1.591341e-01 -2.373534e-01 -7.856306e+00 -4.325051e-01 -1.847477e+00 -1.280764e-01 -6.461892e-01 1.729243e-02 -2.412323e-01 -1.334462e-01 8.591899e-01 9.273911e-01 -5.585220e-02 2.425548e-01 2.564167e-01 1.557851e-01 2.445249e-01 -3.171001e-01 2.632369e-02 -7.502941e-01 -6.703978e-01 -6.766575e-01 -2.510169e-01 3.027481e-01 1.808980e-01 -2.266662e-02 9.397967e-03 1.358404e-01 4.792813e-01
<VARIANCE> 39
 5.678299e+01 3.168413e+01 3.781890e+01 3.787429e+01 4.062175e+01 3.508632e+01 3.316866e+01 5.545417e+01 4.862015e+01 2.700191e+01 2.693978e+01 2.332640e+01 5.779332e+00 6.226556e+00 4.190529e+00 4.431581e+00 6.473510e+00 4.602828e+00 4.751809e+00 4.442099e+00 5.502059e+00 5.509174e+00 3.756629e+00 3.385396e+00 2.859106e+00 9.590254e-01 7.946929e-01 7.132181e-01 9.160457e-01 9.255904e-01 8.597949e-01 7.688683e-01 7.341452e-01 1.012060e+00 9.060244e-01 6.223053e-01 5.533508e-01 4.947264e-01 9.736109e-02
<GCONST> 1.291121e+02
<MIXTURE> 6 1.452243e-01
<MEAN> 39
 2.158281e+00 1.233331e+01 8.119536e+00 1.270341e+01 3.572525e+00 -1.849956e+00 -2.681328e+00 -5.621267e+00 -2.343652e+00 -3.745238e+00 -5.865471e+00 -3.290694e+00 -7.565728e+00 -1.906059e+00 -1.791970e+00 -4.308377e-01 -1.803632e+00 8.113646e-01 1.264074e+00 9.132445e-01 5.342312e-01 4.782794e-02 1.779346e-01 1.004924e+00 7.367150e-01 1.029835e-01 1.513937e-02 -1.780653e+00 -3.596670e-01 -1.627259e+00 -1.067428e+00 -3.896509e-01 -1.465266e-01 7.069647e-01 3.203832e-01 4.322974e-01 7.753940e-01 5.887713e-01 6.007547e-01
<VARIANCE> 39
 1.081673e+01 1.307809e+01 1.620202e+01 1.922576e+01 3.043807e+01 2.446419e+01 2.843993e+01 2.959052e+01 2.424684e+01 2.526144e+01 2.053794e+01 2.216166e+01 1.617741e+00 1.444033e+00 5.023153e+00 3.162983e+00 5.243631e+00 5.010231e+00 4.207889e+00 4.200288e+00 4.155394e+00 3.690157e+00 2.901440e+00 3.289026e+00 3.037748e+00 4.221883e-01 3.802495e-01 6.219652e-01 5.917358e-01 7.430487e-01 7.905656e-01 6.491387e-01 9.228134e-01 8.541432e-01 8.015314e-01 7.491978e-01 5.709665e-01 5.468400e-01 4.138878e-02
<GCONST> 1.152190e+02
<MIXTURE> 7 1.310987e-01
<MEAN> 39
 3.782203e+00 7.465001e+00 6.800287e+00 9.675137e+00 -1.094366e-01 -3.436677e+00 -3.765578e+00 -4.718433e+00 -2.175689e+00 -4.494294e+00 -4.598343e+00 -2.729600e+00 -5.997816e+00 -1.667221e+00 2.613847e+00 2.906966e-01 2.264009e+00 2.379766e+00 1.186283e+00 7.098395e-01 -1.298568e+00 -6.591487e-01 -8.594539e-01 -9.018205e-01 -9.879089e-01 -1.107811e+00 -1.778114e-01 -1.199918e+00 -3.637139e-01 -1.372091e+00 -4.189166e-01 1.117181e-01 7.070498e-02 6.182158e-01 2.221101e-01 5.118486e-01 5.613322e-01 3.799821e-01 3.494412e-01
<VARIANCE> 39
 1.570118e+01 3.500714e+01 3.034044e+01 3.865321e+01 4.662243e+01 3.809526e+01 4.106903e+01 4.060148e+01 3.799287e+01 3.474069e+01 3.714389e+01 2.940311e+01 2.480772e+00 2.165964e+00 4.645384e+00 4.274065e+00 6.156209e+00 5.215363e+00 5.164162e+00 5.879324e+00 5.178869e+00 5.020636e+00 4.472221e+00 4.107824e+00 3.467965e+00 2.675460e-01 3.502038e-01 8.076268e-01 6.322780e-01 9.233906e-01 1.009511e+00 8.413540e-01 1.149372e+00 9.726555e-01 8.890223e-01 8.400778e-01 8.408262e-01 6.146193e-01 5.222481e-02
<GCONST> 1.260252e+02
<MIXTURE> 8 1.124116e-01
<MEAN> 39
 7.677826e+00 -4.989383e+00 2.361059e+00 2.508742e+00 -7.998333e+00 -3.753663e+00 -5.271184e+00 -1.009838e+00 3.615706e+00 1.026067e-01 -1.307439e+00 -7.805547e-01 -2.031451e+00 -8.536703e-01 1.603526e+00 1.283218e+00 2.094954e+00 1.092986e+00 -1.419818e-01 1.491094e-01 -1.671018e+00 -8.475027e-01 -5.219470e-01 -6.290017e-01 3.869982e-02 -8.264863e-01 -1.822852e-01 -4.914398e-02 -8.815133e-02 -5.732124e-01 3.044174e-01 1.143869e-01 1.304271e-01 3.566222e-01 -3.093793e-01 -2.105601e-02 1.243875e-01 -3.069422e-02 6.386960e-02
<VARIANCE> 39
 1.416426e+01 2.287934e+01 5.870311e+01 4.900732e+01 5.106226e+01 4.174878e+01 4.984075e+01 5.107402e+01 5.193410e+01 4.455974e+01 3.257481e+01 3.265364e+01 1.547513e+00 1.806307e+00 3.626365e+00 3.849221e+00 5.218168e+00 6.897368e+00 5.507306e+00 8.300611e+00 6.459014e+00 5.511507e+00 4.574495e+00 5.492830e+00 3.743837e+00 2.135528e-01 1.736890e-01 2.991119e-01 4.221178e-01 6.557778e-01 8.083403e-01 6.207682e-01 8.194883e-01 7.820867e-01 7.479338e-01 6.911989e-01 6.924952e-01 5.261418e-01 2.316084e-02
<GCONST> 1.224770e+02
<STATE> 3
<NUMMIXES> 8
<MIXTURE> 1 1.232644e-01
<MEAN> 39
 -5.918561e+00 -2.774215e+00 4.042931e+00 -2.894293e+00 4.372006e+00 3.218289e+00 6.307465e-01 1.545405e+00 8.947700e-01 7.737484e-03 3.102285e+00 6.446701e-01 -4.661265e+00 -1.431038e+00 -2.664279e+00 -7.212300e-01 -3.217790e+00 -7.866843e-01 -8.931785e-01 6.557919e-01 2.229286e+00 1.489775e+00 1.392462e+00 1.577603e+00 1.329361e+00 1.003274e+00 1.208544e+00 6.476819e-01 2.077686e-01 6.049994e-01 -1.177291e+00 -9.252889e-01 -2.208442e-01 -4.389886e-01 -3.220372e-01 -1.206513e-01 -7.170599e-01 3.046559e-02 1.203283e-01
<VARIANCE> 39
 1.760979e+01 2.319979e+01 3.060804e+01 3.094770e+01 3.719550e+01 4.035659e+01 4.058535e+01 3.183151e+01 3.605915e+01 2.968199e+01 3.175426e+01 2.515207e+01 1.423245e+00 4.186454e+00 2.820667e+00 3.577191e+00 4.874343e+00 5.542879e+00 4.549580e+00 5.740264e+00 4.725646e+00 4.638124e+00 3.961623e+00 3.212333e+00 3.169645e+00 4.585443e-01 4.998315e-01 6.510377e-01 8.185386e-01 1.005649e+00 1.238632e+00 1.147340e+00 1.093768e+00 1.029032e+00 9.875682e-01 9.973691e-01 9.135175e-01 8.614702e-01 4.762589e-02
<GCONST> 1.251934e+02
<MIXTURE> 2 9.892008e-02
<MEAN> 39
 7.005287e+00 -3.727797e+00 2.006745e+00 4.369045e+00 -5.192756e+00 -3.862163e+00 -4.618613e+00 -3.241650e+00 3.210972e+00 1.005264e+00 -1.574378e+00 -7.633184e-01 -2.427412e+00 5.882026e-02 7.616755e-02 9.750987e-01 3.380547e-01 -3.181517e-01 -2.888304e-01 -6.555713e-01 2.625866e-01 -2.478536e-01 -7.548723e-02 3.375041e-01 7.420537e-01 -1.193057e-01 1.366932e-01 -3.915923e-01 -2.934543e-01 -8.712612e-01 -1.661390e-01 2.451740e-01 -4.833844e-02 8.546601e-01 -3.941217e-02 -5.734256e-02 2.486754e-01 -3.328640e-02 2.279318e-01
<VARIANCE> 39
 1.320146e+01 2.005323e+01 4.999175e+01 4.268950e+01 4.423462e+01 3.846334e+01 4.019204e+01 4.555066e+01 3.729395e+01 4.191849e+01 2.999568e+01 2.726422e+01 1.456495e+00 1.016433e+00 1.175360e+00 2.825672e+00 2.942500e+00 2.826972e+00 3.222445e+00 3.634498e+00 3.660606e+00 3.441250e+00 2.800368e+00 2.628304e+00 2.448363e+00 5.755269e-02 2.194809e-01 3.464697e-01 3.969037e-01 7.066208e-01 9.596164e-01 8.541777e-01 1.284104e+00 1.114908e+00 9.768314e-01 9.179676e-01 9.473121e-01 6.189858e-01 1.518146e-02
<GCONST> 1.141580e+02
<MIXTURE> 3 1.245474e-01
<MEAN> 39
 -9.128527e+00 4.075608e+00 5.752246e-01 7.816721e+00 6.609510e+00 5.775957e+00 3.790315e+00 1.081999e+00 3.274934e+00 1.985699e+00 2.748535e+00 7.462456e-01 -9.386774e+00 -3.286011e-01 -2.232272e+00 -1.163085e+00 -2.902347e+00 -1.057795e+00 -1.076517e+00 3.695087e-01 5.230631e-01 4.847967e-01 6.381507e-01 9.134723e-01 8.257893e-01 1.177975e+00 6.119250e-01 2.937991e-01 4.441912e-01 -6.101929e-01 -7.786378e-01 -1.040280e+00 -5.044978e-01 -3.129517e-01 -4.409034e-01 -3.892789e-01 -4.113637e-01 -4.408115e-02 5.837095e-01
<VARIANCE> 39
 1.373915e+01 1.640369e+01 2.157919e+01 2.897063e+01 1.720647e+01 1.868748e+01 1.929339e+01 1.760460e+01 2.044028e+01 1.610269e+01 1.868319e+01 1.156106e+01 3.609555e+00 2.230052e+00 3.357711e+00 3.668285e+00 3.727216e+00 2.739017e+00 3.399668e+00 3.342116e+00 2.849431e+00 3.047850e+00 2.974790e+00 2.565492e+00 2.008286e+00 5.872493e-01 7.402754e-01 5.393782e-01 5.627463e-01 6.959201e-01 6.976345e-01 5.105988e-01 5.604526e-01 5.225305e-01 5.282694e-01 4.041381e-01 4.050416e-01 3.181837e-01 8.816145e-02
<GCONST> 1.098773e+02
<MIXTURE> 4 1.296781e-01
<MEAN> 39
 5.040127e-01 1.651521e+00 5.485890e+00 5.077818e+00 3.679186e-01 -1.747607e+00 -1.232027e+00 -3.956359e+00 -1.120806e+00 -2.830325e+00 -1.739637e+00 -3.178321e-01 -4.621731e+00 -6.416169e-01 -6.019236e-01 6.344693e-01 -1.426766e+00 -2.795746e-01 -1.384914e-01 -9.178385e-02 5.977547e-01 3.048272e-01 3.397271e-01 7.684140e-01 7.681966e-01 2.506832e-01 9.174431e-01 -7.759920e-01 -2.064365e-01 -9.392202e-01 -1.123052e+00 -1.663513e-01 -6.001965e-01 6.557189e-01 1.687274e-01 4.545957e-01 2.880999e-01 6.739838e-02 4.340163e-01
<VARIANCE> 39
 2.304970e+01 2.903383e+01 3.857959e+01 4.779963e+01 4.258183e+01 4.754553e+01 4.588504e+01 4.416801e+01 4.388242e+01 3.166057e+01 3.347015e+01 2.525606e+01 1.557744e+00 1.770032e+00 3.305858e+00 3.428825e+00 4.560096e+00 4.669972e+00 4.101562e+00 5.413834e+00 5.658018e+00 5.773779e+00 3.939123e+00 3.691794e+00 2.834817e+00 2.435969e-01 4.746271e-01 6.084211e-01 1.031082e+00 1.247239e+00 1.386173e+00 1.370253e+00 1.602779e+00 1.369885e+00 1.400591e+00 1.066544e+00 1.212221e+00 8.625585e-01 2.543417e-02
<GCONST> 1.275125e+02
<MIXTURE> 5 1.447766e-01
<MEAN> 39
 -9.476542e+00 -6.208129e-01 -1.122924e+00 -3.351570e+00 4.821583e+00 8.542541e-01 4.234483e+00 4.620467e-01 1.325585e+00 1.793664e+00 3.200008e+00 2.228711e+00 -4.279879e+00 1.385493e+00 -3.971035e-01 7.781582e-01 -2.467046e+00 -2.824373e+00 -3.119425e+00 -9.131604e-01 -3.166988e-01 -6.370124e-01 -3.038257e-01 -1.175627e-01 6.351290e-01 1.696818e+00 1.292412e+00 4.750821e-01 9.464890e-01 9.051466e-01 -9.766053e-01 -4.426785e-01 -8.885520e-01 -1.606755e-01 -2.677531e-01 -3.524712e-01 -4.924387e-01 -2.247648e-01 -1.049770e-01
<VARIANCE> 39
 1.477108e+01 2.659057e+01 3.220797e+01 3.139851e+01 2.981333e+01 3.151040e+01 3.005865e+01 3.025789e+01 3.575235e+01 2.547794e+01 2.939339e+01 2.008303e+01 1.327248e+00 3.001968e+00 2.941702e+00 3.641559e+00 3.297491e+00 3.594251e+00 2.726617e+00 3.204627e+00 3.240463e+00 3.244191e+00 2.687532e+00 2.348114e+00 1.995663e+00 3.409568e-01 4.015803e-01 6.383014e-01 8.593602e-01 9.435388e-01 8.130818e-01 8.172836e-01 8.040040e-01 8.218189e-01 1.070003e+00 7.389035e-01 7.782280e-01 6.116130e-01 5.386225e-02
<GCONST> 1.173337e+02
<MIXTURE> 6 1.519233e-01
<MEAN> 39
 -2.847909e+00 -5.267220e+00 2.356165e+00 3.357977e+00 1.029139e+00 2.719113e+00 2.814054e+00 -1.621490e+00 -2.589099e-01 -2.318758e+00 -1.458848e+00 1.853192e+00 -5.142022e+00 -9.311568e-01 -3.372080e+00 -6.114339e-01 -2.937711e+00 -1.810063e+00 -8.531222e-01 -1.333037e-01 1.518546e+00 1.147087e+00 6.370873e-01 1.319420e+00 1.309536e+00 1.136884e+00 7.202690e-01 9.210825e-01 2.508793e-01 1.199369e-01 -3.143286e-01 -7.471153e-01 -8.193422e-01 8.231734e-02 4.293612e-02 2.472076e-01 -2.759600e-02 -3.038011e-01 1.217643e-01
<VARIANCE> 39
 2.409595e+01 3.721590e+01 4.764735e+01 5.231671e+01 4.518626e+01 3.814968e+01 3.402408e+01 3.020440e+01 2.775688e+01 2.132941e+01 2.177876e+01 1.678071e+01 1.595750e+00 3.695952e+00 3.156519e+00 3.475897e+00 4.271808e+00 3.866646e+00 4.221374e+00 5.459805e+00 3.980792e+00 4.098018e+00 3.139082e+00 3.043180e+00 2.493627e+00 3.387758e-01 7.291981e-01 1.049064e+00 9.245026e-01 1.143194e+00 1.133763e+00 1.000706e+00 9.540730e-01 9.547275e-01 7.600057e-01 6.085109e-01 6.340575e-01 5.003976e-01 5.142901e-02
<GCONST> 1.228949e+02
<MIXTURE> 7 1.284811e-01
<MEAN> 39
 4.995366e-01 1.596549e+00 5.768840e+00 4.934107e+00 1.613880e-01 -1.691119e+00 -1.694490e+00 -4.267967e+00 -1.988907e+00 -3.458433e+00 -2.083846e+00 -1.254607e+00 -4.758820e+00 -8.440445e-01 -6.958789e-01 5.690022e-01 -1.545015e+00 -4.898880e-01 -3.595084e-01 -2.359000e-01 2.976370e-01 4.592523e-02 5.782270e-02 5.028986e-01 4.157578e-01 2.484654e-01 8.160709e-01 -7.835503e-01 -1.557544e-01 -1.006001e+00 -1.147232e+00 -2.508975e-01 -5.952054e-01 6.259341e-01 1.456915e-01 4.356076e-01 2.471650e-01 1.214650e-01 4.326055e-01
<VARIANCE> 39
 2.405401e+01 2.993136e+01 3.998076e+01 4.851918e+01 4.459946e+01 4.622602e+01 4.695279e+01 4.219075e+01 4.189641e+01 3.172701e+01 3.654145e+01 2.562870e+01 1.630019e+00 1.688586e+00 3.409514e+00 3.490152e+00 4.468954e+00 4.584032e+00 3.949627e+00 5.269490e+00 5.779680e+00 5.954207e+00 3.808093e+00 3.884213e+00 2.915315e+00 2.389891e-01 4.864145e-01 5.941516e-01 1.059366e+00 1.195453e+00 1.360668e+00 1.317323e+00 1.639786e+00 1.324688e+00 1.356347e+00 1.092011e+00 1.378585e+00 8.845812e-01 2.692626e-02
<GCONST> 1.278301e+02
<MIXTURE> 8 9.840157e-02
<MEAN> 39
 6.670686e+00 -4.192995e+00 3.271228e+00 4.190935e+00 -6.206511e+00 -3.785785e+00 -5.156427e+00 -3.060359e+00 2.506668e+00 4.486044e-01 -2.221519e+00 -9.385068e-01 -2.534624e+00 -1.519838e-01 7.892558e-02 1.136952e+00 1.793384e-01 -3.792662e-01 -3.565687e-01 -6.996589e-01 9.445196e-02 -6.027154e-01 -2.036484e-01 9.915127e-02 3.676578e-01 -1.573808e-01 7.438849e-02 -3.534277e-01 -3.384342e-01 -8.932335e-01 -1.348934e-01 1.381512e-01 -3.135830e-03 8.332331e-01 -9.165423e-02 -7.323533e-02 3.021507e-01 -1.123375e-01 2.252247e-01
<VARIANCE> 39
 1.233987e+01 2.054799e+01 4.671211e+01 4.475320e+01 4.320784e+01 3.737595e+01 4.104395e+01 4.484524e+01 4.029817e+01 4.550941e+01 3.082585e+01 2.701325e+01 1.497286e+00 1.015337e+00 1.159580e+00 2.875720e+00 2.848441e+00 2.835085e+00 3.081675e+00 3.904508e+00 3.829009e+00 3.734025e+00 2.914133e+00 2.831308e+00 2.434498e+00 5.415671e-02 2.051022e-01 3.292365e-01 4.261105e-01 6.908362e-01 9.050478e-01 8.158606e-01 1.313062e+00 1.086661e+00 9.158434e-01 9.206457e-01 9.826133e-01 5.828394e-01 1.553832e-02
<GCONST> 1.141874e+02
<STATE> 4
<NUMMIXES> 8
<MIXTURE> 1 1.590821e-01
<MEAN> 39
 -6.979557e+00 -2.860420e+00 -9.112978e-02 -8.701760e-01 1.158438e+00 -2.696036e-01 2.552992e+00 1.975990e+00 3.142970e+00 6.867564e-01 2.128356e+00 3.082541e+00 -4.990872e+00 -7.850796e-01 2.150914e-01 -2.859942e-01 -2.524102e-01 -6.638414e-02 -7.661673e-01 4.120275e-01 1.010052e+00 8.004519e-01 3.908758e-01 -4.322502e-02 3.625903e-01 2.605882e-01 5.748834e-01 1.198035e+00 3.714398e-01 1.057498e+00 3.439877e-01 1.034796e-01 -2.415200e-01 -5.304115e-01 -4.391421e-01 -2.923000e-01 -5.284948e-01 -3.785765e-01 -2.753856e-01
<VARIANCE> 39
 3.567227e+01 3.145066e+01 4.111598e+01 4.272573e+01 4.104954e+01 3.456657e+01 3.329575e+01 3.303493e+01 3.238448e+01 2.133845e+01 2.738825e+01 1.916236e+01 1.749190e+00 4.423918e+00 3.961377e+00 3.558222e+00 5.094864e+00 3.631447e+00 3.433307e+00 3.502481e+00 3.258234e+00 3.193472e+00 2.537686e+00 2.882890e+00 2.481707e+00 5.985583e-01 7.055690e-01 7.712770e-01 8.092296e-01 8.934066e-01 8.941894e-01 8.582655e-01 8.405878e-01 7.421860e-01 7.708829e-01 6.349310e-01 6.157553e-01 4.503754e-01 6.339479e-02
<GCONST> 1.216333e+02
<MIXTURE> 2 1.811000e-01
<MEAN> 39
 8.431369e+00 -6.526161e+00 4.485160e-01 4.147665e+00 -8.244786e+00 -3.251283e+00 -6.692097e+00 -2.448756e+00 5.703816e+00 1.375218e+00 -1.724426e+00 -4.882086e-01 -1.944990e+00 8.298519e-01 -1.147543e+00 -9.118125e-02 -1.292746e+00 -1.111074e+00 1.646029e-01 -1.584249e+00 1.991428e+00 5.460802e-01 -2.362810e-01 7.429879e-01 3.501643e-01 4.249527e-01 7.136481e-02 1.160015e-01 -3.008848e-01 -5.506774e-01 4.307111e-01 1.216385e-01 6.182598e-02 4.371897e-01 -3.115268e-01 -8.901482e-02 1.911577e-01 -1.613935e-01 7.344413e-02
<VARIANCE> 39
 1.161102e+01 1.781415e+01 4.172158e+01 3.950014e+01 4.575882e+01 4.152577e+01 4.211806e+01 4.534899e+01 3.533678e+01 3.930602e+01 3.067342e+01 2.847059e+01 1.275501e+00 1.518342e+00 2.056505e+00 4.135636e+00 4.677312e+00 4.793559e+00 4.518115e+00 5.609046e+00 5.606000e+00 5.687229e+00 4.603295e+00 4.515959e+00 3.597790e+00 1.263514e-01 1.956649e-01 2.982727e-01 3.283464e-01 5.971629e-01 7.561916e-01 6.490835e-01 8.467178e-01 7.117473e-01 8.451767e-01 6.706144e-01 6.214220e-01 4.993170e-01 1.760911e-02
<GCONST> 1.169160e+02
<MIXTURE> 3 1.017163e-01
<MEAN> 39
 5.306548e-02 -3.435764e-01 5.762007e+00 -1.802072e+00 -2.274208e+00 -5.057075e+00 -3.216271e+00 -1.520004e-01 1.503347e+00 -9.672868e-01 6.608086e-01 2.836120e+00 -2.644915e+00 1.788240e+00 -2.470177e+00 -1.662701e-01 -2.544633e+00 -2.890021e+00 -1.814038e+00 -1.532452e+00 2.253721e+00 1.313115e+00 1.345194e+00 7.643965e-01 7.096121e-01 1.266016e+00 7.797438e-01 3.412229e-01 -2.024442e-01 6.403098e-01 -2.330779e-01 2.342398e-01 3.919736e-02 -1.290241e-01 -2.601010e-01 1.506068e-01 -3.857709e-01 -5.476109e-01 -9.848082e-02
<VARIANCE> 39
 1.393537e+01 1.637745e+01 2.481100e+01 2.552348e+01 3.321642e+01 3.449658e+01 3.559315e+01 2.919236e+01 3.162891e+01 2.403510e+01 2.356968e+01 1.856630e+01 1.011102e+00 2.284317e+00 3.020109e+00 3.851175e+00 4.880544e+00 4.699546e+00 4.962179e+00 6.650407e+00 5.667996e+00 5.697481e+00 4.708331e+00 4.632558e+00 3.598217e+00 2.589102e-01 2.667095e-01 5.629802e-01 5.040135e-01 7.540350e-01 9.291034e-01 9.378701e-01 9.818251e-01 8.981838e-01 9.332238e-01 7.206652e-01 7.573875e-01 6.254140e-01 4.662016e-02
<GCONST> 1.193332e+02
<MIXTURE> 4 1.495228e-01
<MEAN> 39
 4.834414e+00 -3.087985e+00 9.612556e+00 -7.587041e-02 -8.137190e+00 -4.822147e+00 -6.094178e+00 1.229876e+00 -1.817214e+00 -2.315072e+00 7.386172e-01 1.166082e+00 -2.468109e+00 -1.214797e-01 -4.263361e-01 9.995817e-01 -1.657110e+00 -1.118024e+00 -3.626430e-01 -7.739432e-02 7.658885e-01 -9.727995e-01 5.963987e-01 7.869564e-01 1.919103e-01 3.426502e-01 1.207746e-01 -1.343464e-01 -4.330349e-01 -2.348612e-01 -2.121032e-01 2.214942e-02 3.526053e-01 7.973889e-02 6.643442e-02 2.671857e-01 -1.188165e-01 -1.224693e-01 1.261042e-01
<VARIANCE> 39
 1.040491e+01 2.029279e+01 2.763088e+01 3.156845e+01 3.539669e+01 2.882586e+01 3.743898e+01 3.611596e+01 3.429807e+01 3.576736e+01 2.745735e+01 2.072332e+01 1.524718e+00 1.063546e+00 2.039922e+00 2.892163e+00 3.529076e+00 3.120341e+00 3.062968e+00 3.927476e+00 4.275346e+00 4.515665e+00 3.882858e+00 4.470786e+00 2.373622e+00 9.862586e-02 1.445200e-01 2.281597e-01 3.216341e-01 5.149120e-01 6.166876e-01 5.273919e-01 7.846216e-01 6.270175e-01 5.405405e-01 4.833019e-01 6.169643e-01 3.755666e-01 1.273744e-02
<GCONST> 1.086910e+02
<MIXTURE> 5 8.799027e-02
<MEAN> 39
 -3.211686e+00 5.960062e+00 5.240927e+00 3.506247e-01 -1.499622e+00 -6.234481e+00 1.196202e+00 -3.266154e+00 -1.981907e+00 -1.006793e+00 1.021325e+00 2.227464e+00 -3.139979e+00 3.032518e+00 -5.240426e-01 2.214465e+00 -6.723714e-01 -3.865331e+00 -1.962090e+00 -1.899824e+00 1.718930e-01 -4.496829e-01 6.998479e-04 -6.199253e-02 5.931047e-01 9.316330e-01 6.305489e-01 -4.267164e-01 2.124956e-01 4.326077e-01 -1.837570e-01 6.611794e-01 -4.124489e-01 3.887731e-01 1.671590e-01 5.865504e-02 -1.514274e-01 -2.400768e-01 -1.939044e-01
<VARIANCE> 39
 2.052569e+01 1.891224e+01 4.151291e+01 2.308672e+01 3.703645e+01 3.539620e+01 2.709273e+01 3.226250e+01 3.074705e+01 2.419365e+01 2.585132e+01 2.026325e+01 1.326901e+00 2.997821e+00 3.194652e+00 5.367387e+00 6.789341e+00 4.521030e+00 6.754087e+00 5.521238e+00 4.936626e+00 5.284612e+00 4.706745e+00 4.958416e+00 3.617715e+00 2.613443e-01 3.757440e-01 5.325827e-01 5.841163e-01 6.760156e-01 9.084469e-01 7.000481e-01 6.317288e-01 6.735100e-01 6.500559e-01 6.030275e-01 6.265025e-01 4.986300e-01 6.324840e-02
<GCONST> 1.202437e+02
<MIXTURE> 6 1.347213e-01
<MEAN> 39
 -9.667974e+00 -9.902239e-03 3.871808e+00 2.623342e+00 3.327403e-01 -5.771867e-01 3.638222e+00 9.545830e-01 1.992301e+00 -2.649933e-01 6.980678e-01 2.030490e+00 -4.317600e+00 2.302442e+00 1.054349e+00 3.834732e-01 2.040768e-01 -8.233889e-01 -2.292267e+00 -1.709425e+00 -4.945961e-01 -2.090715e-01 -2.335750e-01 -5.002715e-01 -2.308212e-01 5.115007e-01 1.635322e+00 2.328323e-01 -2.740666e-01 2.275052e-01 4.422030e-02 -1.061429e-01 -9.788689e-01 -4.030639e-01 -2.211037e-01 -6.340849e-02 -2.203714e-01 -2.604457e-01 -8.428482e-02
<VARIANCE> 39
 3.532579e+01 3.580988e+01 3.817687e+01 5.027698e+01 3.755185e+01 4.793931e+01 4.365181e+01 3.737656e+01 3.429815e+01 2.698809e+01 3.043587e+01 2.141277e+01 1.842439e+00 4.591078e+00 3.204556e+00 4.241013e+00 5.144905e+00 5.014297e+00 5.706290e+00 5.419297e+00 3.885613e+00 4.310429e+00 3.585348e+00 3.605238e+00 2.143467e+00 3.493922e-01 7.259910e-01 8.913026e-01 8.871899e-01 1.204370e+00 9.074912e-01 1.188908e+00 1.100481e+00 8.899213e-01 9.439740e-01 7.396904e-01 7.928038e-01 6.127724e-01 7.287107e-02
<GCONST> 1.270836e+02
<MIXTURE> 7 1.021800e-01
<MEAN> 39
 -2.029264e-02 -7.987007e-01 5.878928e+00 -2.213818e+00 -2.531138e+00 -5.288925e+00 -3.491983e+00 -6.981407e-01 7.318506e-01 -1.553303e+00 2.033873e-01 2.226044e+00 -2.807691e+00 1.542944e+00 -2.650724e+00 -1.164216e-01 -2.660106e+00 -2.969385e+00 -1.976864e+00 -1.775310e+00 1.980547e+00 9.264172e-01 9.478151e-01 5.651981e-01 3.789752e-01 1.248371e+00 7.316818e-01 3.746988e-01 -2.313612e-01 6.675447e-01 -2.481616e-01 1.898985e-01 -2.283090e-02 -1.360049e-01 -2.458226e-01 1.490694e-01 -3.877679e-01 -5.792019e-01 -1.008787e-01
<VARIANCE> 39
 1.388749e+01 1.624649e+01 2.431808e+01 2.622806e+01 3.547011e+01 3.632769e+01 3.609750e+01 2.898901e+01 3.229016e+01 2.675163e+01 2.504079e+01 1.912668e+01 1.125382e+00 2.323128e+00 2.892838e+00 3.739435e+00 4.564116e+00 4.700099e+00 5.051225e+00 6.440372e+00 5.732976e+00 5.909816e+00 4.743757e+00 5.210550e+00 3.858714e+00 2.603134e-01 2.649851e-01 5.465403e-01 5.185496e-01 7.609658e-01 9.334239e-01 9.566870e-01 1.033284e+00 8.919637e-01 8.761038e-01 7.181308e-01 8.333124e-01 6.883771e-01 4.678935e-02
<GCONST> 1.200884e+02
<MIXTURE> 8 8.368260e-02
<MEAN> 39
 -3.154340e+00 5.935526e+00 6.085389e+00 -3.182423e-01 -2.317987e+00 -6.244234e+00 7.583520e-01 -4.309370e+00 -3.218855e+00 -1.319311e+00 4.407010e-01 1.103035e+00 -3.221494e+00 2.781824e+00 -7.525797e-01 1.950494e+00 -1.071850e+00 -4.133236e+00 -1.906710e+00 -2.087716e+00 -4.020556e-01 -1.131651e+00 -3.535902e-01 -6.142119e-01 1.203014e-01 8.652835e-01 6.144441e-01 -4.545346e-01 1.599923e-01 3.825820e-01 -2.142555e-01 5.937608e-01 -4.750722e-01 3.422637e-01 8.723409e-02 -6.354026e-03 -2.046121e-01 -2.449863e-01 -1.679107e-01
<VARIANCE> 39
 2.187229e+01 2.227571e+01 4.049563e+01 2.443126e+01 4.119224e+01 3.659112e+01 2.859134e+01 3.411675e+01 3.100405e+01 2.570026e+01 2.423625e+01 2.097586e+01 1.428959e+00 3.462909e+00 2.815619e+00 5.274581e+00 6.407244e+00 4.535349e+00 6.748544e+00 5.568508e+00 4.950007e+00 5.803445e+00 4.845049e+00 4.993300e+00 3.457236e+00 2.635216e-01 3.529032e-01 5.670727e-01 6.192426e-01 6.943021e-01 9.647483e-01 7.240638e-01 6.424130e-01 6.671799e-01 6.784341e-01 6.288573e-01 6.475665e-01 4.770148e-01 6.779138e-02
<GCONST> 1.212426e+02
<TRANSP> 5
 0.000000e+00 1.000000e+00 0.000000e+00 0.000000e+00 0.000000e+00
 0.000000e+00 5.672483e-01 4.327517e-01 0.000000e+00 0.000000e+00
 0.000000e+00 0.000000e+00 3.260838e-01 6.739162e-01 0.000000e+00
 0.000000e+00 0.000000e+00 0.000000e+00 2.303371e-01 7.696630e-01
 0.000000e+00 0.000000e+00 0.000000e+00 0.000000e+00 0.000000e+00
<ENDHMM>
~h "f"
<BEGINHMM>
<NUMSTATES> 5
<STATE> 2
<NUMMIXES> 8
<MIXTURE> 1 1.368971e-01
<MEAN> 39
 4.132377e+00 2.464269e+00 -2.004042e+00 1.855773e+00 2.538697e+00 7.052813e-01 1.846493e+00 -1.246711e+00 5.147949e-01 -2.429585e-01 -1.341315e+00 -8.593580e-01 -3.813707e+00 -4.954459e+00 1.551161e+00 7.244009e-01 2.319850e+00 1.779761e+00 9.454718e-01 1.517189e+00 2.052434e-01 4.011628e-01 -7.957700e-02 3.049612e-01 7.961160e-01 -1.197066e+00 -9.280133e-01 -8.207147e-01 -1.001446e-01 -3.769052e-01 -3.551581e-01 -2.147599e-02 -1.384718e-01 3.065214e-01 1.843348e-01 1.385464e-01 1.735792e-01 1.397581e-01 2.199250e-02
<VARIANCE> 39
 1.844114e+01 1.849985e+01 3.268765e+01 3.148186e+01 2.644705e+01 4.569185e+01 4.001026e+01 2.952545e+01 2.902261e+01 3.283567e+01 2.351358e+01 2.311515e+01 1.914829e+00 2.822716e+00 3.817931e+00 5.388915e+00 5.414397e+00 4.602848e+00 6.101962e+00 6.493222e+00 5.407606e+00 5.413769e+00 5.152931e+00 5.064630e+00 3.438840e+00 1.799319e-01 3.664185e-01 3.480525e-01 4.274543e-01 4.777340e-01 4.977417e-01 5.086305e-01 6.701130e-01 6.387386e-01 4.953634e-01 6.404881e-01 4.563251e-01 4.513397e-01 2.436677e-02
<GCONST> 1.172272e+02
<MIXTURE> 2 1.801998e-01
<MEAN> 39
 -1.301060e+01 -9.035259e-01 -4.078177e+00 2.695398e+00 1.647967e+00 1.300892e-01 1.446535e+00 -1.092375e+00 3.435254e-01 2.572799e-01 -7.545264e-01 1.703075e+00 -6.131497e+00 -1.814112e-01 -3.831724e-02 1.966432e-02 2.282240e-01 2.279229e-01 3.445747e-01 3.368171e-01 2.869839e-01 2.941328e-01 2.788404e-01 1.387434e-01 -2.911848e-02 1.769679e-02 3.887905e-01 2.684444e-02 1.347033e-01 6.549758e-03 1.858996e-01 1.523040e-01 2.345162e-01 2.298938e-01 1.778035e-01 1.114629e-01 5.908665e-02 -5.845977e-02 4.732173e-02
<VARIANCE> 39
 1.214033e+01 1.652836e+01 1.412608e+01 1.556962e+01 1.626738e+01 1.952694e+01 2.010970e+01 1.893857e+01 1.963374e+01 1.796758e+01 1.865348e+01 1.511532e+01 1.904648e+00 5.387424e-01 6.485109e-01 7.197421e-01 1.044723e+00 1.101526e+00 1.128976e+00 1.252872e+00 1.424286e+00 1.226198e+00 1.251984e+00 1.383714e+00 1.228588e+00 5.984408e-02 1.917167e-01 1.567302e-01 1.814290e-01 2.210855e-01 2.381604e-01 2.714899e-01 2.505066e-01 2.923653e-01 2.818564e-01 2.656120e-01 2.790839e-01 2.523370e-01 1.275396e-02
<GCONST> 8.215011e+01
<MIXTURE> 3 1.446742e-01
<MEAN> 39
 -1.305889e+01 -2.187526e+00 -3.674569e+00 2.609197e+00 2.298083e+00 1.582244e+00 3.141267e+00 1.821613e+00 2.905288e+00 1.718200e+00 8.824433e-01 1.840178e+00 -6.094466e+00 -1.084874e+00 -5.854433e-01 -7.945687e-01 -4.087038e-01 -4.055789e-01 -9.950247e-03 7.519416e-03 4.076015e-01 6.270728e-01 7.571439e-01 6.082314e-01 4.023730e-01 2.162028e-02 8.989679e-01 3.578517e-01 3.189338e-01 1.216426e-01 2.758112e-02 -1.397865e-01 -2.029532e-01 -3.029053e-01 -3.287408e-01 -1.836416e-01 -1.610860e-01 -1.604263e-01 9.246973e-02
<VARIANCE> 39
 1.378080e+01 1.401167e+01 1.649668e+01 1.644713e+01 1.722254e+01 1.892612e+01 2.052874e+01 2.069745e+01 2.015754e+01 1.714745e+01 1.893655e+01 1.411386e+01 2.092988e+00 1.874128e+00 1.329284e+00 1.344624e+00 1.441636e+00 1.414874e+00 1.470720e+00 1.518876e+00 1.635599e+00 1.665161e+00 1.491969e+00 1.527004e+00 1.363027e+00 1.415610e-01 4.091779e-01 2.518594e-01 2.899247e-01 3.348067e-01 3.670264e-01 3.318823e-01 3.946802e-01 3.858719e-01 3.772077e-01 3.262912e-01 3.398333e-01 2.961370e-01 2.265470e-02
<GCONST> 9.268941e+01
<MIXTURE> 4 1.064039e-01
<MEAN> 39
 -8.170763e+00 2.590821e+00 1.183485e+00 6.291883e+00 5.162277e+00 2.841797e+00 3.432822e+00 9.633791e-02 1.513431e+00 -4.571918e-01 8.076420e-02 6.543350e-01 -6.236211e+00 -4.599884e+00 -7.435631e-01 -3.641554e-01 7.201848e-01 7.166254e-01 8.782818e-01 1.082775e+00 1.281670e+00 1.301881e+00 8.366808e-01 1.040504e+00 9.693666e-01 -6.648156e-01 8.312638e-01 -5.831437e-01 -3.940374e-01 -7.921192e-01 -6.423039e-01 -3.284114e-01 -3.829748e-01 -1.864386e-02 -8.960342e-02 1.917791e-01 1.260196e-02 -1.637439e-02 3.040407e-01
<VARIANCE> 39
 2.116732e+01 1.922475e+01 2.107170e+01 1.731159e+01 2.064414e+01 2.351942e+01 2.629676e+01 2.314659e+01 2.468966e+01 2.258365e+01 2.174201e+01 1.708092e+01 2.240175e+00 2.593372e+00 2.569218e+00 3.711461e+00 4.016458e+00 3.002289e+00 4.221559e+00 3.644835e+00 3.617592e+00 3.678222e+00 3.393299e+00 3.281010e+00 2.512560e+00 2.473850e-01 5.008822e-01 5.290070e-01 5.701381e-01 6.134796e-01 5.826083e-01 6.325844e-01 7.022588e-01 6.623666e-01 6.768060e-01 6.052060e-01 5.573148e-01 4.490996e-01 2.843219e-02
<GCONST> 1.122029e+02
<MIXTURE> 5 1.031441e-01
<MEAN> 39
 -1.369531e+01 -1.539839e+00 -3.482526e+00 3.337671e+00 2.847193e+00 1.883591e+00 3.232708e+00 1.311830e+00 2.611844e+00 1.851344e+00 3.712158e-01 1.746415e+00 -5.773540e+00 1.001646e-01 1.242017e-01 1.217754e-02 6.774902e-02 -2.278036e-03 -4.512627e-02 -2.032347e-01 -1.773784e-01 -9.989714e-02 4.357569e-02 8.211633e-02 8.625206e-02 1.851949e-02 3.885191e-01 7.546542e-02 1.678044e-01 3.988203e-02 1.083965e-01 5.854197e-03 2.517220e-02 -3.652158e-02 -3.081501e-02 -6.060338e-02 3.234240e-02 9.758692e-03 2.401606e-02
<VARIANCE> 39
 1.138633e+01 1.422593e+01 1.494275e+01 1.637255e+01 1.553950e+01 1.860499e+01 1.861748e+01 1.858044e+01 2.054501e+01 1.681540e+01 2.067821e+01 1.444239e+01 1.590066e+00 3.881273e-01 4.850432e-01 6.088149e-01 8.494558e-01 8.891543e-01 1.108477e+00 1.134937e+00 1.207664e+00 1.231276e+00 1.287813e+00 1.258860e+00 1.186165e+00 3.453116e-02 1.329538e-01 1.171854e-01 1.540615e-01 2.025988e-01 1.977599e-01 2.313130e-01 2.365413e-01 2.592341e-01 2.746210e-01 2.669892e-01 2.777229e-01 2.478793e-01 6.655131e-03
<GCONST> 7.744672e+01
<MIXTURE> 6 1.219794e-01
<MEAN> 39
 -1.254168e+01 -1.226123e+00 -3.608605e+00 2.881624e+00 2.866470e+00 9.446017e-01 3.475034e+00 -7.421318e-02 9.272694e-01 -6.095028e-02 -1.639690e+00 1.194346e+00 -6.116487e+00 -1.683683e+00 -9.286289e-01 -1.106398e+00 -4.734923e-01 -8.308998e-01 -4.456742e-01 -5.501634e-01 -4.515630e-01 -2.363613e-01 -1.244875e-01 -1.329823e-01 1.015801e-01 -1.759259e-01 1.076094e+00 1.736962e-01 1.164626e-01 -2.330724e-01 -1.150245e-01 -7.066566e-02 -2.391204e-01 -5.842108e-03 2.704356e-03 1.673746e-01 2.296708e-01 -1.292749e-02 2.053823e-01
<VARIANCE> 39
 1.319733e+01 1.298374e+01 1.746179e+01 1.573361e+01 1.673878e+01 1.917697e+01 2.133878e+01 2.015376e+01 2.248713e+01 2.111946e+01 1.696984e+01 1.578158e+01 1.758439e+00 2.568175e+00 1.152836e+00 1.361797e+00 1.633708e+00 1.389910e+00 1.705916e+00 1.852717e+00 1.631975e+00 1.739526e+00 1.453985e+00 1.463046e+00 1.405785e+00 1.421102e-01 6.244968e-01 2.633336e-01 4.564499e-01 4.545754e-01 4.346786e-01 4.982236e-01 5.566438e-01 4.757829e-01 5.019976e-01 4.248174e-01 3.706278e-01 3.822527e-01 2.115512e-02
<GCONST> 9.655106e+01
<MIXTURE> 7 1.094885e-01
<MEAN> 39
 -8.210679e+00 2.167088e+00 -1.314140e-01 5.511564e+00 5.194511e+00 2.316158e+00 4.009389e+00 1.398294e-01 1.022172e+00 1.258254e-02 -9.578555e-01 7.356524e-01 -6.258223e+00 -4.963954e+00 -1.025254e+00 -8.057767e-01 3.494448e-01 2.340915e-01 2.596163e-01 4.700338e-01 5.220664e-01 5.425378e-01 7.102104e-02 1.497950e-01 4.840978e-01 -7.132987e-01 8.304316e-01 -6.177657e-01 -3.197345e-01 -7.965201e-01 -7.570934e-01 -3.365399e-01 -5.514850e-01 -1.140451e-01 -1.387586e-01 6.794730e-02 7.367409e-02 -1.061769e-01 2.984931e-01
<VARIANCE> 39
 2.109297e+01 1.787754e+01 2.033139e+01 1.687837e+01 1.831635e+01 2.290366e+01 2.469212e+01 2.426838e+01 2.431638e+01 2.083139e+01 1.787062e+01 1.698744e+01 2.040150e+00 2.062052e+00 2.380037e+00 3.903899e+00 4.472119e+00 3.148196e+00 4.478607e+00 4.170031e+00 3.599304e+00 3.890657e+00 3.251606e+00 3.084747e+00 2.596248e+00 2.212940e-01 4.698034e-01 4.408636e-01 5.971293e-01 6.349270e-01 5.205261e-01 6.179177e-01 7.259483e-01 6.527513e-01 6.680706e-01 5.810457e-01 5.204096e-01 4.518999e-01 2.322983e-02
<GCONST> 1.108728e+02
<MIXTURE> 8 9.718769e-02
<MEAN> 39
 -1.368052e+01 -1.872798e+00 -4.151875e+00 2.453120e+00 2.207922e+00 1.208664e+00 2.631402e+00 6.952518e-01 1.707289e+00 1.409296e+00 -3.218967e-01 1.334357e+00 -5.887499e+00 -1.671958e-02 -4.583149e-02 -2.296970e-01 -1.955309e-01 -3.317286e-01 -4.092230e-01 -5.372686e-01 -5.415282e-01 -5.162349e-01 -3.852591e-01 -3.102962e-01 -1.899946e-01 -2.417429e-02 2.824249e-01 -6.795496e-03 7.971106e-02 -3.153505e-02 4.110534e-02 -4.740013e-02 -4.932275e-02 -9.029473e-02 -7.784854e-02 -9.868384e-02 -6.396545e-02 -4.779685e-02 1.204943e-02
<VARIANCE> 39
 1.101493e+01 1.280343e+01 1.398310e+01 1.486163e+01 1.554486e+01 1.860355e+01 1.923260e+01 1.757859e+01 2.255008e+01 1.786938e+01 1.839189e+01 1.503430e+01 1.702414e+00 3.808277e-01 4.672290e-01 6.270167e-01 8.440911e-01 8.685679e-01 1.102719e+00 1.154812e+00 1.281511e+00 1.247750e+00 1.292858e+00 1.251900e+00 1.214111e+00 3.836490e-02 1.288062e-01 1.193093e-01 1.484424e-01 1.991452e-01 1.969822e-01 2.404305e-01 2.498930e-01 2.668840e-01 2.662053e-01 2.663218e-01 2.774766e-01 2.519534e-01 6.320323e-03
<GCONST> 7.740335e+01
<STATE> 3
<NUMMIXES> 8
<MIXTURE> 1 1.600383e-01
<MEAN> 39
 -1.303238e+01 -2.634148e+00 -3.938952e+00 9.980662e-01 1.393473e+00 6.232094e-01 2.870487e+00 1.836469e+00 3.999868e+00 3.015432e+00 3.272766e+00 3.306371e+00 -5.798128e+00 -2.106801e-01 -3.806176e-01 1.010470e-01 -1.567771e-01 5.499318e-02 2.268903e-01 5.100496e-01 5.505167e-01 5.761070e-01 3.541352e-01 4.641875e-01 2.381906e-01 1.213613e-01 1.137443e+00 5.086740e-01 4.963232e-01 2.253368e-01 8.651482e-02 6.365921e-02 -1.692206e-01 -3.860865e-01 -5.062277e-01 -4.334392e-01 -5.433534e-01 -4.047772e-01 9.848797e-02
<VARIANCE> 39
 1.521739e+01 1.563714e+01 2.228263e+01 2.031696e+01 2.170179e+01 2.331525e+01 2.040913e+01 2.424984e+01 2.204989e+01 2.168497e+01 2.189377e+01 1.679350e+01 1.998859e+00 4.547503e+00 1.987023e+00 2.411916e+00 2.500870e+00 2.412135e+00 2.454178e+00 2.296764e+00 2.374167e+00 2.314481e+00 2.194882e+00 1.980446e+00 1.456192e+00 2.406851e-01 4.221030e-01 3.253769e-01 4.160889e-01 4.966052e-01 5.174775e-01 5.520977e-01 5.396470e-01 5.540422e-01 4.435391e-01 4.478805e-01 4.483321e-01 3.817279e-01 4.410756e-02
<GCONST> 1.046732e+02
<MIXTURE> 2 1.478479e-01
<MEAN> 39
 -1.401846e+01 1.089956e+00 -1.819427e-01 6.946887e+00 4.399802e+00 4.230881e+00 3.849453e+00 1.689694e+00 4.225934e+00 9.375088e-01 3.539862e+00 2.040867e+00 -6.798149e+00 -1.165898e-01 -1.301763e-01 5.459129e-03 2.093413e-01 4.726684e-01 5.552654e-01 5.437348e-01 4.605833e-01 4.460106e-01 3.959817e-01 2.108390e-01 1.329463e-01 5.075417e-06 9.155170e-01 -5.354544e-02 -1.867460e-01 -3.904479e-01 -2.619496e-01 -3.665538e-01 -2.699023e-01 -2.389269e-01 -2.022450e-01 -1.277022e-01 -2.714055e-01 -2.028252e-01 1.459098e-01
<VARIANCE> 39
 1.307671e+01 1.677210e+01 1.575158e+01 1.536230e+01 1.660011e+01 1.568578e+01 1.891799e+01 1.961779e+01 2.118337e+01 1.568335e+01 1.679322e+01 1.428055e+01 2.614817e+00 1.334805e+00 1.170696e+00 9.656485e-01 1.012826e+00 1.171073e+00 1.111747e+00 1.118854e+00 1.448419e+00 1.559943e+00 1.564746e+00 1.569649e+00 1.476247e+00 1.493955e-01 3.979552e-01 2.228280e-01 2.426509e-01 2.770196e-01 2.835763e-01 3.066097e-01 3.395559e-01 3.583342e-01 3.774295e-01 3.056251e-01 3.076861e-01 2.967615e-01 3.750636e-02
<GCONST> 8.977665e+01
<MIXTURE> 3 8.395265e-02
<MEAN> 39
 -1.262505e+01 -2.469341e+00 -4.663865e+00 2.404096e+00 2.794982e+00 8.724948e-01 2.650685e+00 -5.499315e-02 1.098963e+00 6.419704e-01 -1.623530e+00 9.743893e-01 -5.667439e+00 2.256937e+00 5.459232e-01 8.111222e-01 4.004553e-01 6.836033e-01 3.222721e-01 3.910831e-01 3.413818e-01 4.095710e-01 3.545191e-01 2.350681e-01 -5.602864e-02 1.656952e-01 1.679123e+00 2.279189e-01 1.947856e-01 -3.389044e-01 -3.562382e-01 -7.237591e-02 -4.366310e-01 -1.969989e-02 2.653241e-03 1.506797e-02 3.129067e-01 1.988219e-02 2.714879e-01
<VARIANCE> 39
 1.252119e+01 1.277475e+01 1.399778e+01 1.555248e+01 1.832290e+01 1.930930e+01 2.217383e+01 2.147583e+01 1.843123e+01 1.907897e+01 1.493018e+01 1.521441e+01 1.178306e+00 1.455594e+00 1.018461e+00 1.085518e+00 1.240791e+00 1.234835e+00 1.623145e+00 1.496014e+00 1.619312e+00 1.546359e+00 1.728975e+00 1.399765e+00 1.316299e+00 1.062577e-01 1.847402e-01 2.758236e-01 4.168748e-01 4.318295e-01 4.948745e-01 6.265875e-01 6.851147e-01 5.312896e-01 4.555654e-01 4.586303e-01 3.277774e-01 4.108266e-01 1.665038e-02
<GCONST> 9.270735e+01
<MIXTURE> 4 1.607501e-01
<MEAN> 39
 -1.331928e+01 2.488115e+00 -1.976379e+00 4.576727e+00 3.410703e+00 2.532491e+00 3.348690e+00 -1.849792e-01 9.606925e-01 1.031203e-01 7.761365e-01 2.777643e+00 -7.350890e+00 9.311012e-01 -4.518642e-01 -5.579510e-02 -3.912346e-01 -4.966307e-01 -7.413779e-01 -4.830748e-01 -2.599062e-01 -6.766718e-02 -2.118283e-01 -2.734789e-01 -1.331659e-01 3.526294e-01 1.508234e+00 -3.850963e-01 -9.259093e-03 -4.847912e-01 -3.419684e-01 -3.311729e-01 -3.259781e-01 2.203187e-02 7.350942e-02 1.249862e-01 -9.667371e-02 -3.395644e-01 3.896058e-01
<VARIANCE> 39
 1.766665e+01 1.408991e+01 1.897712e+01 1.881690e+01 1.861944e+01 2.105122e+01 2.542758e+01 1.959975e+01 2.368576e+01 1.629988e+01 1.747201e+01 1.385435e+01 2.717333e+00 4.930233e+00 1.789006e+00 1.519033e+00 1.690993e+00 1.627490e+00 1.775342e+00 1.731768e+00 1.741365e+00 1.773982e+00 1.462948e+00 1.509312e+00 1.559528e+00 3.891754e-01 5.408768e-01 4.078957e-01 6.035620e-01 5.009102e-01 4.696089e-01 6.898298e-01 6.419200e-01 5.227981e-01 5.753983e-01 3.612558e-01 4.329019e-01 3.755612e-01 5.592487e-02
<GCONST> 1.026533e+02
<MIXTURE> 5 1.062378e-01
<MEAN> 39
 -1.372530e+01 -3.533347e+00 -4.634788e+00 2.245788e+00 2.396559e+00 8.690747e-01 2.571800e+00 4.276587e-01 2.096772e+00 1.930993e+00 -1.077948e-01 1.171894e+00 -5.310199e+00 1.061721e+00 -2.899703e-02 2.332326e-01 -7.521019e-03 3.092524e-01 4.362727e-02 -1.385919e-02 -1.876877e-01 -1.367133e-01 -1.344693e-01 -1.217772e-01 -1.518534e-01 1.011855e-01 1.099000e+00 5.142882e-01 3.805266e-01 6.031901e-02 1.288892e-01 1.412651e-01 -1.524682e-02 -3.105189e-02 -3.270633e-02 -4.834382e-02 9.097114e-02 5.471896e-02 3.899607e-02
<VARIANCE> 39
 1.265933e+01 1.267507e+01 1.621477e+01 1.659416e+01 1.854608e+01 1.981902e+01 1.922190e+01 2.096239e+01 1.898714e+01 1.817190e+01 1.694969e+01 1.216174e+01 1.181956e+00 9.350951e-01 8.894402e-01 1.255157e+00 1.293827e+00 1.451687e+00 1.422618e+00 1.496594e+00 1.415288e+00 1.392452e+00 1.423859e+00 1.328131e+00 1.172703e+00 9.901889e-02 2.643510e-01 2.029619e-01 2.841423e-01 3.315784e-01 3.525901e-01 3.433723e-01 3.928742e-01 3.307148e-01 3.434781e-01 3.270209e-01 2.788693e-01 2.277478e-01 2.364137e-02
<GCONST> 8.805948e+01
<MIXTURE> 6 1.510800e-01
<MEAN> 39
 -1.358290e+01 -4.097891e-01 -1.061298e+00 5.973680e+00 3.669861e+00 4.357002e+00 3.609708e+00 3.085030e+00 5.071601e+00 3.206369e+00 4.541087e+00 2.164603e+00 -6.617774e+00 3.680329e-01 -3.758589e-01 -3.186906e-01 -4.330941e-01 -1.779094e-01 -2.896130e-01 -2.524001e-01 -2.643311e-01 -2.048001e-01 -1.685632e-01 -5.190875e-02 5.158128e-03 9.430034e-02 1.123307e+00 1.193324e-01 -2.408551e-02 -4.265778e-01 -2.349877e-01 -4.232569e-01 -3.175685e-01 -4.504653e-01 -4.691899e-01 -4.745671e-01 -4.871885e-01 -2.661944e-01 2.069156e-01
<VARIANCE> 39
 1.400176e+01 1.422143e+01 1.376828e+01 1.302762e+01 1.683224e+01 1.621317e+01 1.882828e+01 1.698223e+01 1.611963e+01 1.602896e+01 1.661205e+01 1.136836e+01 2.579559e+00 1.328988e+00 9.820541e-01 9.661737e-01 9.829249e-01 1.236738e+00 1.248323e+00 1.313879e+00 1.438556e+00 1.470804e+00 1.393778e+00 1.204891e+00 1.280165e+00 1.305673e-01 5.226120e-01 2.537976e-01 2.652306e-01 2.956611e-01 3.409091e-01 3.853345e-01 4.023257e-01 3.618666e-01 3.491853e-01 3.186255e-01 2.876303e-01 2.908403e-01 4.035240e-02
<GCONST> 8.927149e+01
<MIXTURE> 7 9.969571e-02
<MEAN> 39
 -1.389137e+01 -3.718896e+00 -5.037834e+00 2.010134e+00 2.152478e+00 6.507513e-01 2.420994e+00 3.396265e-01 1.926203e+00 1.841152e+00 -3.867044e-01 9.503809e-01 -5.403757e+00 8.557712e-01 -3.520719e-01 -1.806604e-01 -4.360074e-01 -1.535687e-01 -4.534280e-01 -4.935605e-01 -6.361564e-01 -5.749690e-01 -5.388836e-01 -5.025032e-01 -4.377565e-01 5.519668e-02 1.010044e+00 4.145108e-01 2.801092e-01 1.193568e-03 8.521986e-02 6.510834e-02 -7.395940e-02 -1.173264e-01 -1.210875e-01 -1.408154e-01 -2.635339e-02 -2.159921e-02 2.034282e-02
<VARIANCE> 39
 1.271592e+01 1.173298e+01 1.495609e+01 1.873894e+01 1.872504e+01 1.972387e+01 1.969806e+01 2.046142e+01 2.011323e+01 1.930888e+01 1.559257e+01 1.329975e+01 1.211864e+00 8.799450e-01 8.314052e-01 1.153436e+00 1.272429e+00 1.448163e+00 1.364542e+00 1.511065e+00 1.467354e+00 1.518149e+00 1.450519e+00 1.240031e+00 1.160891e+00 8.984204e-02 2.795183e-01 2.031231e-01 2.655853e-01 3.221349e-01 3.324067e-01 3.278206e-01 3.742122e-01 3.291962e-01 3.286439e-01 3.282455e-01 2.759999e-01 2.409305e-01 2.012333e-02
<GCONST> 8.752894e+01
<MIXTURE> 8 9.040046e-02
<MEAN> 39
 -1.287218e+01 -2.412544e+00 -4.929545e+00 2.226571e+00 2.740688e+00 4.538417e-01 2.565560e+00 -3.616056e-01 6.110502e-01 3.215091e-01 -1.963462e+00 4.521945e-01 -5.808932e+00 1.909780e+00 2.781626e-01 4.932373e-01 4.581444e-02 2.915109e-01 -1.174418e-01 -7.399087e-02 -1.456287e-01 -2.589204e-02 -1.247495e-01 -1.981168e-01 -3.910008e-01 8.641011e-02 1.613629e+00 2.337013e-01 1.863676e-01 -3.405488e-01 -3.533057e-01 -8.083704e-02 -4.666804e-01 -9.315702e-02 -1.860291e-03 1.235709e-03 2.611009e-01 1.605986e-02 2.512298e-01
<VARIANCE> 39
 1.203099e+01 1.264518e+01 1.394101e+01 1.516586e+01 1.867490e+01 2.005699e+01 2.300752e+01 2.127975e+01 1.877008e+01 1.944690e+01 1.491774e+01 1.455688e+01 1.259494e+00 1.380666e+00 1.030755e+00 1.086080e+00 1.181783e+00 1.258174e+00 1.469654e+00 1.504909e+00 1.450941e+00 1.525100e+00 1.446813e+00 1.290128e+00 1.215982e+00 9.665599e-02 1.695123e-01 2.600195e-01 4.154595e-01 4.369875e-01 4.878570e-01 6.058381e-01 6.436114e-01 5.139371e-01 4.271049e-01 4.566683e-01 3.237420e-01 3.723938e-01 1.668313e-02
<GCONST> 9.159293e+01
<STATE> 4
<NUMMIXES> 8
<MIXTURE> 1 8.634961e-02
<MEAN> 39
 -1.072100e+01 6.228329e-01 3.966320e-01 2.481654e+00 3.372349e+00 2.301181e+00 3.564439e+00 7.350075e-01 2.253930e+00 6.818579e-01 1.031549e+00 1.872950e+00 -5.746744e+00 8.892130e-01 8.400272e-01 8.688436e-01 4.208660e-01 5.951294e-01 6.189641e-01 5.270347e-02 -8.235294e-02 2.417218e-01 3.256330e-01 3.441083e-01 2.098748e-01 -2.454170e-01 4.059143e-01 1.735394e-01 -4.754736e-02 1.101825e-01 1.799028e-02 5.922762e-02 1.724272e-02 -2.961566e-02 -5.780283e-02 8.920591e-02 -2.173172e-02 -9.240735e-03 -1.201914e-02
<VARIANCE> 39
