~o
<STREAMINFO> 1 39
<VECSIZE> 39<NULLD><MFCC_E_D_A_Z><DIAGC>
~h "aa"
<BEGINHMM>
<NUMSTATES> 5
<STATE> 2
<MEAN> 39
 -8.641304e+00 3.207461e+00 -1.707463e+00 6.615403e+00 4.272828e+00 3.999033e+00 4.008282e+00 1.248003e+00 2.320051e+00 7.980372e-01 1.376660e+00 1.823606e+00 -1.042852e+01 -1.127935e-01 1.719816e-01 1.362476e-01 7.710327e-02 1.191550e-01 9.387697e-02 5.222830e-02 -8.228061e-02 -5.162220e-02 1.192233e-01 6.334701e-03 -7.739504e-02 -5.766530e-03 4.716239e-02 -2.918068e-02 3.428263e-03 -4.055000e-02 -2.311873e-02 -2.403583e-02 3.190405e-03 1.135705e-03 -1.122222e-02 -1.199488e-02 -1.331004e-02 -3.730161e-03 2.690825e-02
<VARIANCE> 39
 1.102977e+01 1.614687e+01 1.993783e+01 2.115712e+01 1.964315e+01 2.453062e+01 2.316413e+01 2.256278e+01 2.364563e+01 2.185934e+01 2.327243e+01 1.562571e+01 9.301487e-02 4.489160e-01 7.738059e-01 1.016703e+00 1.152808e+00 1.292729e+00 1.434144e+00 1.557257e+00 1.656799e+00 1.702819e+00 1.741630e+00 1.524885e+00 1.379629e+00 1.000000e-02 9.524511e-02 1.381634e-01 1.900336e-01 2.229050e-01 2.392159e-01 2.574532e-01 2.903231e-01 3.052106e-01 3.150792e-01 3.209445e-01 2.823246e-01 2.542631e-01 1.000000e-02
<GCONST> 8.076823e+01
<STATE> 3
<MEAN> 39
 -7.993395e+00 1.508145e+00 -1.463009e+00 4.412217e+00 3.833624e+00 2.811876e+00 4.022135e+00 1.296193e+00 1.755783e+00 6.260547e-01 9.763781e-01 1.526746e+00 -8.726928e+00 6.962073e-01 -8.692162e-02 1.704781e-01 -4.649031e-01 -3.775077e-01 -3.299496e-01 -2.130804e-01 -1.673805e-01 -1.767268e-01 -9.478255e-02 -1.814412e-01 -1.193714e-01 5.031551e-01 2.665707e-01 -6.638880e-02 5.071669e-02 -1.611736e-01 -1.721382e-01 -1.321498e-01 -1.709697e-01 -4.888808e-02 -5.509702e-02 -2.521355e-02 -2.701485e-02 -3.290236e-02 1.451044e-01
<VARIANCE> 39
 2.339069e+01 3.784455e+01 3.179415e+01 3.369886e+01 3.011525e+01 3.612934e+01 2.989044e+01 2.945679e+01 2.807683e+01 2.693390e+01 2.791166e+01 1.914756e+01 4.251926e+00 3.440618e+00 2.882112e+00 2.693089e+00 3.250437e+00 2.939530e+00 2.960842e+00 2.862156e+00 2.653960e+00 2.674441e+00 2.446527e+00 2.204781e+00 1.871891e+00 5.905699e-01 4.822538e-01 5.024416e-01 4.819077e-01 5.764242e-01 5.109103e-01 5.279878e-01 5.499356e-01 4.989878e-01 5.036866e-01 4.783095e-01 4.347295e-01 3.697897e-01 7.117604e-02
<GCONST> 1.137980e+02
<STATE> 4
<MEAN> 39
 5.022143e-01 -1.424973e-01 9.572954e-02 -3.330835e-01 -2.447501e-01 -2.057055e-01 -2.424161e-01 -7.679881e-02 -1.230871e-01 -4.300433e-02 -7.106663e-02 -1.011638e-01 -3.641192e+00 -1.361684e-02 2.228299e-03 -8.429817e-03 1.248219e-02 1.297840e-02 7.193638e-03 5.704470e-03 2.743382e-03 2.888999e-03 -2.935718e-04 1.925092e-03 3.812429e-03 -1.449932e-02 -9.555869e-03 2.656713e-03 -1.484455e-03 6.079910e-03 5.498461e-03 4.505595e-03 4.820652e-03 1.641241e-03 2.298445e-03 1.016206e-03 1.375099e-03 1.292476e-03 -5.224479e-03
<VARIANCE> 39
 9.766438e+01 5.503643e+01 6.881461e+01 7.044039e+01 7.040597e+01 6.341921e+01 6.577536e+01 5.808492e+01 5.449709e+01 4.100447e+01 3.863456e+01 3.146191e+01 9.828113e+00 4.977398e+00 3.620854e+00 3.297713e+00 4.300034e+00 4.337381e+00 4.193851e+00 4.479271e+00 4.424188e+00 4.006693e+00 3.277308e+00 3.024801e+00 2.481715e+00 4.789459e-01 6.903998e-01 5.993615e-01 5.080582e-01 6.997107e-01 7.057049e-01 7.102485e-01 7.666737e-01 7.807375e-01 7.065308e-01 6.037441e-01 5.498570e-01 4.544652e-01 7.345185e-02
<GCONST> 1.298203e+02
<TRANSP> 5
 0.000000e+00 1.000000e+00 0.000000e+00 0.000000e+00 0.000000e+00
 0.000000e+00 8.849052e-01 1.150948e-01 0.000000e+00 0.000000e+00
 0.000000e+00 0.000000e+00 8.842512e-01 1.157488e-01 0.000000e+00
 0.000000e+00 0.000000e+00 0.000000e+00 9.965158e-01 3.484258e-03
 0.000000e+00 0.000000e+00 0.000000e+00 0.000000e+00 0.000000e+00
<ENDHMM>
