~o
<STREAMINFO> 1 39
<VECSIZE> 39<NULLD><MFCC_E_D_A_Z><DIAGC>
~h "ae"
<BEGINHMM>
<NUMSTATES> 5
<STATE> 2
<MEAN> 39
 -7.263063e+00 -1.006044e+00 -2.865726e+00 3.533607e+00 2.751814e+00 1.408184e+00 3.023579e+00 1.964619e+00 1.727362e+00 -4.646939e-01 1.380640e+00 2.176350e+00 -9.407962e+00 -8.528677e-02 3.043336e-01 4.707726e-02 8.549944e-02 8.956251e-02 1.593166e-01 1.010750e-01 -2.615940e-02 3.038295e-02 1.255969e-01 3.329831e-02 -2.801622e-02 -3.653224e-02 -4.481223e-02 7.517248e-02 8.218779e-02 5.600914e-02 5.056382e-02 3.638991e-02 9.860233e-03 -1.073881e-02 1.601767e-02 5.206478e-02 2.071862e-02 -1.236307e-02 -2.500969e-03
<VARIANCE> 39
 1.591498e+01 3.092913e+01 2.667866e+01 2.534249e+01 2.617354e+01 3.476140e+01 2.697396e+01 2.746615e+01 2.616116e+01 2.808450e+01 2.802395e+01 1.822571e+01 2.153290e+00 6.479036e-01 1.409134e+00 1.200397e+00 1.276990e+00 1.449566e+00 1.647876e+00 1.745525e+00 1.779003e+00 1.815743e+00 1.896041e+00 1.591410e+00 1.455257e+00 6.349020e-02 1.075691e-01 1.750043e-01 2.062729e-01 2.148845e-01 2.503704e-01 2.604568e-01 2.965557e-01 2.997172e-01 3.091986e-01 3.161451e-01 2.640129e-01 2.477467e-01 1.000000e-02
<GCONST> 9.117822e+01
<STATE> 3
<MEAN> 39
 -9.163822e+00 4.331972e+00 -1.013113e+00 7.326334e+00 4.833299e+00 4.782347e+00 4.367513e+00 1.132072e+00 2.441037e+00 1.312695e+00 1.502811e+00 1.607073e+00 -1.050254e+01 -4.676031e-02 9.997754e-02 1.756371e-01 4.149952e-02 8.690855e-02 4.133623e-02 2.966541e-02 -9.081340e-02 -9.322499e-02 8.511785e-02 -3.862914e-02 -1.104976e-01 1.542972e-02 1.379989e-01 -1.076319e-01 -4.197138e-02 -1.230789e-01 -9.062735e-02 -8.660944e-02 -2.805167e-02 -1.134668e-02 -4.104648e-02 -6.482030e-02 -4.777950e-02 -4.038545e-03 6.915706e-02
<VARIANCE> 39
 9.480722e+00 1.002816e+01 1.769490e+01 1.957734e+01 1.789027e+01 2.123731e+01 2.229164e+01 2.184638e+01 2.340018e+01 1.988227e+01 2.217636e+01 1.516487e+01 1.000000e-02 6.666292e-01 9.229015e-01 1.281369e+00 1.471791e+00 1.540997e+00 1.580004e+00 1.696419e+00 1.807927e+00 1.850841e+00 1.856913e+00 1.629147e+00 1.441393e+00 1.000000e-02 1.623668e-01 2.119984e-01 2.605994e-01 3.118229e-01 3.117674e-01 3.240409e-01 3.546357e-01 3.660415e-01 3.784451e-01 3.725691e-01 3.312629e-01 2.922010e-01 1.641348e-02
<GCONST> 8.258841e+01
<STATE> 4
<MEAN> 39
 3.529040e-01 -9.692574e-02 7.149430e-02 -2.463501e-01 -1.691442e-01 -1.466623e-01 -1.612981e-01 -6.040264e-02 -9.074092e-02 -2.685413e-02 -6.085852e-02 -7.610106e-02 -3.724075e+00 6.416724e-03 -2.660375e-03 -4.500725e-03 -1.618810e-03 1.457946e-03 -3.483267e-03 -1.507477e-03 -1.925926e-03 -1.974677e-03 -3.738816e-03 -2.804951e-03 1.230906e-03 6.373070e-04 -2.988671e-03 1.397049e-03 -5.809336e-05 2.322701e-03 1.186572e-03 1.484911e-03 3.495569e-04 6.648262e-04 1.111286e-03 7.637175e-04 1.073619e-03 4.855322e-04 -1.802089e-03
<VARIANCE> 39
 9.768938e+01 5.480183e+01 6.825829e+01 7.025461e+01 7.004829e+01 6.310727e+01 6.553836e+01 5.761042e+01 5.411084e+01 4.075591e+01 3.845375e+01 3.128942e+01 1.012979e+01 4.992089e+00 3.618793e+00 3.298100e+00 4.303057e+00 4.328226e+00 4.186402e+00 4.461318e+00 4.400105e+00 3.990101e+00 3.266024e+00 3.015789e+00 2.474472e+00 4.946448e-01 6.911793e-01 5.992994e-01 5.089302e-01 7.000096e-01 7.041594e-01 7.088624e-01 7.650834e-01 7.767125e-01 7.037379e-01 6.020440e-01 5.486429e-01 4.535254e-01 7.440369e-02
<GCONST> 1.297926e+02
<TRANSP> 5
 0.000000e+00 1.000000e+00 0.000000e+00 0.000000e+00 0.000000e+00
 0.000000e+00 7.825946e-01 2.174055e-01 0.000000e+00 0.000000e+00
 0.000000e+00 0.000000e+00 8.684993e-01 1.315006e-01 0.000000e+00
 0.000000e+00 0.000000e+00 0.000000e+00 9.965769e-01 3.423109e-03
 0.000000e+00 0.000000e+00 0.000000e+00 0.000000e+00 0.000000e+00
<ENDHMM>
