~o
<STREAMINFO> 1 39
<VECSIZE> 39<NULLD><MFCC_E_D_A_Z><DIAGC>
~h "ah"
<BEGINHMM>
<NUMSTATES> 5
<STATE> 2
<MEAN> 39
 -8.640262e+00 3.205648e+00 -1.708103e+00 6.614594e+00 4.272481e+00 4.000401e+00 4.007676e+00 1.248872e+00 2.320164e+00 7.983475e-01 1.376938e+00 1.823605e+00 -1.042834e+01 -1.126641e-01 1.721751e-01 1.363591e-01 7.699974e-02 1.190763e-01 9.386649e-02 5.243361e-02 -8.227524e-02 -5.167786e-02 1.194340e-01 6.247607e-03 -7.762922e-02 -5.767863e-03 4.736034e-02 -2.928387e-02 3.428783e-03 -4.073603e-02 -2.330268e-02 -2.421375e-02 3.067289e-03 1.050599e-03 -1.133170e-02 -1.211276e-02 -1.342553e-02 -3.804089e-03 2.704666e-02
<VARIANCE> 39
 1.103780e+01 1.617047e+01 1.994857e+01 2.117072e+01 1.965218e+01 2.453705e+01 2.317643e+01 2.257307e+01 2.365290e+01 2.186940e+01 2.327645e+01 1.563018e+01 9.314477e-02 4.501729e-01 7.759525e-01 1.018610e+00 1.155056e+00 1.294364e+00 1.435518e+00 1.558057e+00 1.658012e+00 1.703654e+00 1.743036e+00 1.525924e+00 1.380238e+00 1.000000e-02 9.559886e-02 1.386330e-01 1.905066e-01 2.234219e-01 2.396586e-01 2.578466e-01 2.905389e-01 3.055636e-01 3.153555e-01 3.213443e-01 2.826288e-01 2.544365e-01 1.000000e-02
<GCONST> 8.081228e+01
<STATE> 3
<MEAN> 39
 -7.995282e+00 1.512769e+00 -1.460491e+00 4.402355e+00 3.829724e+00 2.802159e+00 4.022021e+00 1.292211e+00 1.753760e+00 6.240132e-01 9.731485e-01 1.526474e+00 -8.707569e+00 7.015460e-01 -8.874878e-02 1.714905e-01 -4.679388e-01 -3.809761e-01 -3.330290e-01 -2.162037e-01 -1.677855e-01 -1.774282e-01 -9.582182e-02 -1.823002e-01 -1.196020e-01 5.058447e-01 2.670782e-01 -6.671254e-02 5.078755e-02 -1.608294e-01 -1.722664e-01 -1.317569e-01 -1.714220e-01 -4.848857e-02 -5.497363e-02 -2.488855e-02 -2.681836e-02 -3.314726e-02 1.443399e-01
<VARIANCE> 39
 2.356580e+01 3.794621e+01 3.187052e+01 3.375703e+01 3.015412e+01 3.616507e+01 2.991591e+01 2.947896e+01 2.809458e+01 2.692950e+01 2.791237e+01 1.915442e+01 4.317576e+00 3.462775e+00 2.886573e+00 2.699921e+00 3.258564e+00 2.948685e+00 2.971568e+00 2.871007e+00 2.658459e+00 2.679045e+00 2.447753e+00 2.208144e+00 1.874291e+00 5.936384e-01 4.833347e-01 5.039009e-01 4.828931e-01 5.773524e-01 5.115113e-01 5.291522e-01 5.507532e-01 4.997117e-01 5.041906e-01 4.785856e-01 4.351272e-01 3.701214e-01 7.152297e-02
<GCONST> 1.138904e+02
<STATE> 4
<MEAN> 39
 5.034332e-01 -1.429021e-01 9.589902e-02 -3.335313e-01 -2.452021e-01 -2.059315e-01 -2.429745e-01 -7.688910e-02 -1.233172e-01 -4.305296e-02 -7.114232e-02 -1.013939e-01 -3.641003e+00 -1.383350e-02 2.275153e-03 -8.485978e-03 1.261147e-02 1.311099e-02 7.308865e-03 5.807505e-03 2.774020e-03 2.929470e-03 -2.679342e-04 1.968144e-03 3.840909e-03 -1.462245e-02 -9.602480e-03 2.676989e-03 -1.491082e-03 6.091134e-03 5.523818e-03 4.511741e-03 4.852185e-03 1.635713e-03 2.303305e-03 1.012850e-03 1.375605e-03 1.305005e-03 -5.219453e-03
<VARIANCE> 39
 9.766022e+01 5.503457e+01 6.881786e+01 7.044308e+01 7.041058e+01 6.342278e+01 6.577870e+01 5.808820e+01 5.450048e+01 4.100686e+01 3.863688e+01 3.146331e+01 9.828788e+00 4.976728e+00 3.620848e+00 3.297621e+00 4.299886e+00 4.337244e+00 4.193621e+00 4.479303e+00 4.424295e+00 4.006810e+00 3.277387e+00 3.024805e+00 2.481773e+00 4.787624e-01 6.903872e-01 5.993320e-01 5.080276e-01 6.996945e-01 7.057071e-01 7.102442e-01 7.666882e-01 7.807581e-01 7.065486e-01 6.037583e-01 5.498611e-01 4.544686e-01 7.344847e-02
<GCONST> 1.298201e+02
<TRANSP> 5
 0.000000e+00 1.000000e+00 0.000000e+00 0.000000e+00 0.000000e+00
 0.000000e+00 8.851188e-01 1.148812e-01 0.000000e+00 0.000000e+00
 0.000000e+00 0.000000e+00 8.845590e-01 1.154410e-01 0.000000e+00
 0.000000e+00 0.000000e+00 0.000000e+00 9.965153e-01 3.484712e-03
 0.000000e+00 0.000000e+00 0.000000e+00 0.000000e+00 0.000000e+00
<ENDHMM>
