~o
<STREAMINFO> 1 39
<VECSIZE> 39<NULLD><MFCC_E_D_A_Z><DIAGC>
~h "ao"
<BEGINHMM>
<NUMSTATES> 5
<STATE> 2
<MEAN> 39
 -8.298479e+00 1.883618e+00 -1.981962e+00 5.606111e+00 3.767258e+00 3.131107e+00 3.617132e+00 1.416135e+00 2.042634e+00 3.839923e-01 1.326849e+00 1.916752e+00 -1.007740e+01 -1.168882e-01 1.933398e-01 9.426969e-02 9.083463e-02 1.119033e-01 1.216676e-01 5.924521e-02 -5.662176e-02 -1.358620e-02 1.132242e-01 1.814569e-02 -5.401542e-02 -1.611920e-02 2.052208e-03 2.229518e-02 3.798731e-02 1.636102e-02 2.004954e-02 1.295039e-02 1.630283e-02 6.550364e-03 1.030988e-02 2.343974e-02 7.805046e-03 -6.427565e-03 7.401899e-03
<VARIANCE> 39
 1.263363e+01 2.447533e+01 2.151526e+01 2.396670e+01 2.125705e+01 2.880015e+01 2.371387e+01 2.361937e+01 2.403272e+01 2.327511e+01 2.417369e+01 1.608590e+01 9.844890e-01 4.238952e-01 8.415720e-01 9.023362e-01 1.042082e+00 1.202189e+00 1.401616e+00 1.509693e+00 1.592504e+00 1.639952e+00 1.674154e+00 1.458491e+00 1.326626e+00 2.131551e-02 7.807950e-02 1.276858e-01 1.655785e-01 1.897644e-01 2.175462e-01 2.428739e-01 2.734683e-01 2.865797e-01 3.002209e-01 3.001158e-01 2.636108e-01 2.435529e-01 1.000000e-02
<GCONST> 8.349154e+01
<STATE> 3
<MEAN> 39
 -8.922010e+00 4.428090e+00 -8.868570e-01 7.248033e+00 5.043844e+00 5.002225e+00 4.706169e+00 1.088061e+00 2.363822e+00 1.541082e+00 1.429208e+00 1.366541e+00 -1.047955e+01 4.824030e-01 -7.248130e-02 2.024489e-01 -3.739178e-01 -1.830034e-01 -2.291210e-01 -7.309646e-02 -1.821300e-01 -2.111727e-01 -2.869590e-02 -1.604821e-01 -1.490644e-01 3.389688e-01 3.583623e-01 -2.186283e-01 -5.309104e-02 -3.425685e-01 -2.615656e-01 -2.445400e-01 -1.564751e-01 -7.345372e-02 -1.056127e-01 -1.248058e-01 -9.070283e-02 -9.639529e-03 2.412639e-01
<VARIANCE> 39
 1.174985e+01 1.312964e+01 2.202905e+01 2.365365e+01 2.152781e+01 2.415932e+01 2.571182e+01 2.515081e+01 2.619131e+01 2.218875e+01 2.399605e+01 1.720234e+01 1.716313e-02 2.258204e+00 2.616599e+00 2.692661e+00 3.196348e+00 2.778197e+00 2.549592e+00 2.608542e+00 2.614788e+00 2.595659e+00 2.487149e+00 2.165978e+00 1.881256e+00 3.224258e-01 3.951567e-01 3.915394e-01 4.626037e-01 5.243058e-01 4.990275e-01 4.679874e-01 5.215716e-01 4.961163e-01 5.019320e-01 4.803232e-01 4.306024e-01 3.744009e-01 4.964682e-02
<GCONST> 1.016258e+02
<STATE> 4
<MEAN> 39
 3.852064e-01 -1.251735e-01 7.246339e-02 -2.794001e-01 -1.904750e-01 -1.710338e-01 -1.807379e-01 -5.891196e-02 -9.745060e-02 -3.554331e-02 -6.163268e-02 -7.807062e-02 -3.697151e+00 -2.539869e-04 1.776195e-04 -5.148441e-03 3.999969e-03 4.716313e-03 1.068917e-04 2.573600e-04 -1.846210e-04 -2.186736e-04 -2.437672e-03 -1.313004e-03 1.842697e-03 -4.382107e-03 -5.791020e-03 2.553239e-03 -1.442267e-04 4.897468e-03 3.137965e-03 3.260783e-03 1.749957e-03 1.161255e-03 1.650095e-03 1.163381e-03 1.350643e-03 5.276235e-04 -4.049005e-03
<VARIANCE> 39
 9.767444e+01 5.489246e+01 6.841433e+01 7.014845e+01 7.009930e+01 6.313021e+01 6.556030e+01 5.773029e+01 5.418402e+01 4.082420e+01 3.851662e+01 3.133631e+01 9.969863e+00 4.984327e+00 3.611711e+00 3.292463e+00 4.292649e+00 4.325985e+00 4.185321e+00 4.462439e+00 4.401538e+00 3.990702e+00 3.266876e+00 3.016032e+00 2.474464e+00 4.899864e-01 6.893830e-01 5.992910e-01 5.085920e-01 6.986102e-01 7.034947e-01 7.085339e-01 7.649262e-01 7.772416e-01 7.039524e-01 6.022416e-01 5.486657e-01 4.534963e-01 7.351406e-02
<GCONST> 1.297543e+02
<TRANSP> 5
 0.000000e+00 1.000000e+00 0.000000e+00 0.000000e+00 0.000000e+00
 0.000000e+00 8.837100e-01 1.162900e-01 0.000000e+00 0.000000e+00
 0.000000e+00 0.000000e+00 7.813098e-01 2.186902e-01 0.000000e+00
 0.000000e+00 0.000000e+00 0.000000e+00 9.965655e-01 3.434506e-03
 0.000000e+00 0.000000e+00 0.000000e+00 0.000000e+00 0.000000e+00
<ENDHMM>
