~o
<STREAMINFO> 1 39
<VECSIZE> 39<NULLD><MFCC_E_D_A_Z><DIAGC>
~h "aw"
<BEGINHMM>
<NUMSTATES> 5
<STATE> 2
<MEAN> 39
 -8.641540e+00 3.207792e+00 -1.707267e+00 6.615482e+00 4.272816e+00 3.998537e+00 4.008442e+00 1.247732e+00 2.320029e+00 7.978197e-01 1.376640e+00 1.823605e+00 -1.042856e+01 -1.128244e-01 1.719327e-01 1.362182e-01 7.712878e-02 1.191759e-01 9.389216e-02 5.217704e-02 -8.226472e-02 -5.159973e-02 1.191545e-01 6.362057e-03 -7.733347e-02 -5.766177e-03 4.711223e-02 -2.915118e-02 3.427221e-03 -4.050196e-02 -2.307444e-02 -2.399104e-02 3.219167e-03 1.158715e-03 -1.119307e-02 -1.196084e-02 -1.328177e-02 -3.713627e-03 2.687232e-02
<VARIANCE> 39
 1.102762e+01 1.614153e+01 1.993442e+01 2.115265e+01 1.964019e+01 2.452837e+01 2.316082e+01 2.256040e+01 2.364325e+01 2.185676e+01 2.327122e+01 1.562445e+01 9.299364e-02 4.485920e-01 7.732214e-01 1.016195e+00 1.152236e+00 1.292286e+00 1.433721e+00 1.557035e+00 1.656463e+00 1.702552e+00 1.741279e+00 1.524612e+00 1.379445e+00 1.000000e-02 9.515496e-02 1.380349e-01 1.899077e-01 2.227741e-01 2.390952e-01 2.573384e-01 2.902630e-01 3.051186e-01 3.150030e-01 3.208472e-01 2.822513e-01 2.542143e-01 1.000000e-02
<GCONST> 8.075653e+01
<STATE> 3
<MEAN> 39
 -7.993065e+00 1.507205e+00 -1.463475e+00 4.414887e+00 3.834677e+00 2.814364e+00 4.022792e+00 1.296979e+00 1.756433e+00 6.264345e-01 9.772044e-01 1.526804e+00 -8.731970e+00 6.948793e-01 -8.639949e-02 1.702247e-01 -4.641460e-01 -3.766407e-01 -3.291560e-01 -2.123071e-01 -1.672907e-01 -1.765804e-01 -9.449121e-02 -1.812246e-01 -1.193239e-01 5.024588e-01 2.664407e-01 -6.630918e-02 5.070111e-02 -1.612766e-01 -1.721151e-01 -1.322495e-01 -1.708649e-01 -4.898796e-02 -5.513136e-02 -2.529226e-02 -2.705849e-02 -3.283480e-02 1.453087e-01
<VARIANCE> 39
 2.334673e+01 3.781842e+01 3.177565e+01 3.368181e+01 3.010825e+01 3.611882e+01 2.988337e+01 2.945191e+01 2.807380e+01 2.693573e+01 2.791238e+01 1.914705e+01 4.234983e+00 3.435013e+00 2.881182e+00 2.691511e+00 3.248620e+00 2.937418e+00 2.958176e+00 2.860031e+00 2.652912e+00 2.673425e+00 2.446234e+00 2.203984e+00 1.871412e+00 5.897956e-01 4.819748e-01 5.021213e-01 4.816891e-01 5.762249e-01 5.107986e-01 5.277212e-01 5.497273e-01 4.988154e-01 5.035758e-01 4.782557e-01 4.346375e-01 3.697354e-01 7.108758e-02
<GCONST> 1.137757e+02
<STATE> 4
<MEAN> 39
 5.019014e-01 -1.423964e-01 9.567884e-02 -3.329667e-01 -2.446308e-01 -2.056413e-01 -2.422901e-01 -7.676617e-02 -1.230316e-01 -4.298321e-02 -7.104778e-02 -1.011036e-01 -3.641228e+00 -1.356264e-02 2.214898e-03 -8.415008e-03 1.245012e-02 1.294557e-02 7.163570e-03 5.678733e-03 2.735876e-03 2.879851e-03 -3.006718e-04 1.913985e-03 3.805374e-03 -1.446740e-02 -9.543716e-03 2.651510e-03 -1.482824e-03 6.077300e-03 5.492162e-03 4.503895e-03 4.812788e-03 1.642496e-03 2.297302e-03 1.016853e-03 1.374674e-03 1.289142e-03 -5.225904e-03
<VARIANCE> 39
 9.766624e+01 5.503605e+01 6.881309e+01 7.044052e+01 7.040511e+01 6.341828e+01 6.577496e+01 5.808324e+01 5.449665e+01 4.100357e+01 3.863445e+01 3.146178e+01 9.828163e+00 4.977399e+00 3.620779e+00 3.297696e+00 4.300056e+00 4.337375e+00 4.193854e+00 4.479311e+00 4.424144e+00 4.006701e+00 3.277257e+00 3.024805e+00 2.481716e+00 4.789916e-01 6.903933e-01 5.993548e-01 5.080571e-01 6.997064e-01 7.057019e-01 7.102398e-01 7.666774e-01 7.807319e-01 7.065220e-01 6.037459e-01 5.498511e-01 4.544657e-01 7.345218e-02
<GCONST> 1.298202e+02
<TRANSP> 5
 0.000000e+00 1.000000e+00 0.000000e+00 0.000000e+00 0.000000e+00
 0.000000e+00 8.848514e-01 1.151486e-01 0.000000e+00 0.000000e+00
 0.000000e+00 0.000000e+00 8.841705e-01 1.158294e-01 0.000000e+00
 0.000000e+00 0.000000e+00 0.000000e+00 9.965159e-01 3.484118e-03
 0.000000e+00 0.000000e+00 0.000000e+00 0.000000e+00 0.000000e+00
<ENDHMM>
