~o
<STREAMINFO> 1 39
<VECSIZE> 39<NULLD><MFCC_E_D_A_Z><DIAGC>
~h "ax"
<BEGINHMM>
<NUMSTATES> 5
<STATE> 2
<MEAN> 39
 6.555663e-01 -2.233513e-01 2.030059e-01 -4.049783e-01 -4.667303e-01 -1.683256e-01 -3.798986e-01 -6.852918e-02 -1.094247e-01 -5.012298e-02 5.764031e-03 -1.473362e-01 -3.540238e+00 2.947835e-03 3.766252e-05 2.466839e-03 -7.733669e-03 4.635303e-03 -6.335697e-03 4.017740e-03 -2.970052e-03 -4.185613e-03 8.989048e-05 -5.406676e-03 -1.883211e-03 9.883500e-03 -1.656361e-03 -1.064012e-03 -1.706545e-03 6.552107e-04 1.414723e-04 3.197149e-04 3.807053e-04 6.306807e-04 4.719736e-04 -2.004657e-04 3.163998e-04 8.060405e-04 -9.301945e-04
<VARIANCE> 39
 9.937310e+01 5.399466e+01 7.013916e+01 6.859586e+01 6.962267e+01 6.327591e+01 6.599674e+01 5.668164e+01 5.405954e+01 4.020178e+01 3.791177e+01 3.170568e+01 9.812017e+00 4.953887e+00 3.497530e+00 3.266947e+00 4.068099e+00 4.226558e+00 4.093792e+00 4.387240e+00 4.227333e+00 3.908673e+00 3.166885e+00 2.936007e+00 2.447228e+00 4.789360e-01 6.798518e-01 5.763072e-01 4.978561e-01 6.580407e-01 6.805766e-01 6.869424e-01 7.460746e-01 7.398976e-01 6.856811e-01 5.784338e-01 5.310086e-01 4.435878e-01 7.166430e-02
<GCONST> 1.289691e+02
<STATE> 3
<MEAN> 39
 -7.686411e+00 2.111239e+00 -2.116883e+00 4.633423e+00 4.599873e+00 2.157666e+00 3.840761e+00 9.451003e-01 1.575868e+00 4.359594e-01 5.328614e-01 1.680835e+00 -9.257021e+00 -2.645340e-02 7.523333e-02 1.646615e-02 7.446328e-02 2.766526e-02 6.508068e-02 -1.257522e-02 -2.522233e-02 1.796456e-03 3.420972e-02 2.113846e-02 -1.846207e-02 -6.669058e-02 2.480923e-02 -7.120166e-04 1.739944e-02 -1.533321e-02 -1.047774e-02 -9.972526e-03 -5.463738e-03 -3.900556e-03 -4.205552e-03 -4.103180e-03 -5.272739e-03 -6.263579e-03 1.567678e-02
<VARIANCE> 39
 2.184428e+01 2.535168e+01 2.286227e+01 2.953167e+01 2.328010e+01 3.155305e+01 2.764623e+01 2.707893e+01 2.692493e+01 2.695448e+01 2.692117e+01 1.795757e+01 3.348117e+00 6.167905e-01 8.147045e-01 9.154905e-01 1.128780e+00 1.263995e+00 1.510707e+00 1.580385e+00 1.645506e+00 1.666298e+00 1.720985e+00 1.522569e+00 1.354946e+00 4.268704e-02 1.024032e-01 1.407991e-01 1.706775e-01 2.165816e-01 2.472852e-01 2.922780e-01 3.110309e-01 3.255839e-01 3.300232e-01 3.400059e-01 3.014214e-01 2.711952e-01 1.000000e-02
<GCONST> 8.952304e+01
<STATE> 4
<MEAN> 39
 4.533638e-01 -7.150958e-02 9.735154e-02 -2.612894e-01 -1.801715e-01 -1.464941e-01 -1.624508e-01 -7.053714e-02 -1.235437e-01 -9.864619e-03 -9.415356e-02 -9.426581e-02 -3.654535e+00 9.553952e-03 -1.489719e-03 -3.850190e-03 -8.475122e-04 1.562443e-03 -2.643483e-03 -9.015909e-04 -3.019220e-03 -4.161295e-03 -4.659175e-03 -4.366285e-03 5.408164e-04 -1.421441e-04 -2.260000e-03 9.126231e-04 -4.250745e-04 1.705085e-03 6.761287e-04 7.877552e-04 -8.987218e-05 3.245148e-04 7.854566e-04 6.779449e-04 8.324110e-04 4.626453e-04 -1.517496e-03
<VARIANCE> 39
 9.665636e+01 5.747920e+01 6.847095e+01 7.435489e+01 7.153477e+01 6.523322e+01 6.614639e+01 6.061907e+01 5.585155e+01 4.209559e+01 3.983726e+01 3.138139e+01 9.605460e+00 5.347026e+00 3.990816e+00 3.534250e+00 4.834683e+00 4.687137e+00 4.493315e+00 4.763535e+00 4.816538e+00 4.266560e+00 3.509164e+00 3.225347e+00 2.594898e+00 5.428155e-01 7.506580e-01 6.653919e-01 5.526630e-01 7.913445e-01 7.690672e-01 7.656675e-01 8.217861e-01 8.543271e-01 7.539076e-01 6.505747e-01 5.879326e-01 4.787027e-01 8.324652e-02
<GCONST> 1.321641e+02
<TRANSP> 5
 0.000000e+00 1.000000e+00 0.000000e+00 0.000000e+00 0.000000e+00
 0.000000e+00 9.935929e-01 6.407104e-03 0.000000e+00 0.000000e+00
 0.000000e+00 0.000000e+00 9.519871e-01 4.801292e-02 0.000000e+00
 0.000000e+00 0.000000e+00 0.000000e+00 9.921525e-01 7.847488e-03
 0.000000e+00 0.000000e+00 0.000000e+00 0.000000e+00 0.000000e+00
<ENDHMM>
