~o
<STREAMINFO> 1 39
<VECSIZE> 39<NULLD><MFCC_E_D_A_Z><DIAGC>
~h "axr"
<BEGINHMM>
<NUMSTATES> 5
<STATE> 2
<MEAN> 39
 -7.262983e+00 -1.006120e+00 -2.865518e+00 3.533672e+00 2.751852e+00 1.408423e+00 3.023597e+00 1.964752e+00 1.727439e+00 -4.648290e-01 1.380860e+00 2.176257e+00 -9.408002e+00 -8.530573e-02 3.043917e-01 4.711935e-02 8.552890e-02 8.958979e-02 1.593394e-01 1.010950e-01 -2.614447e-02 3.039413e-02 1.256319e-01 3.331854e-02 -2.801933e-02 -3.653461e-02 -4.481539e-02 7.516920e-02 8.219200e-02 5.601289e-02 5.056600e-02 3.638584e-02 9.855419e-03 -1.074471e-02 1.602084e-02 5.206906e-02 2.071919e-02 -1.236397e-02 -2.500658e-03
<VARIANCE> 39
 1.591417e+01 3.093113e+01 2.667948e+01 2.534374e+01 2.617401e+01 3.476164e+01 2.697393e+01 2.746704e+01 2.616074e+01 2.808380e+01 2.802459e+01 1.822542e+01 2.153198e+00 6.479473e-01 1.409296e+00 1.200455e+00 1.277118e+00 1.449642e+00 1.647916e+00 1.745566e+00 1.779058e+00 1.815776e+00 1.896093e+00 1.591404e+00 1.455220e+00 6.349445e-02 1.075776e-01 1.750181e-01 2.062722e-01 2.148989e-01 2.503804e-01 2.604595e-01 2.965611e-01 2.997237e-01 3.091995e-01 3.161489e-01 2.640111e-01 2.477366e-01 1.000000e-02
<GCONST> 9.117909e+01
<STATE> 3
<MEAN> 39
 -9.163869e+00 4.332018e+00 -1.013070e+00 7.326375e+00 4.833433e+00 4.782394e+00 4.367472e+00 1.132068e+00 2.441149e+00 1.312764e+00 1.502921e+00 1.607071e+00 -1.050254e+01 -4.674290e-02 9.995024e-02 1.756073e-01 4.148241e-02 8.690045e-02 4.131846e-02 2.965508e-02 -9.082133e-02 -9.324349e-02 8.509696e-02 -3.864181e-02 -1.104993e-01 1.543055e-02 1.380041e-01 -1.076349e-01 -4.197823e-02 -1.230881e-01 -9.063487e-02 -8.661403e-02 -2.805492e-02 -1.134697e-02 -4.105233e-02 -6.482762e-02 -4.778634e-02 -4.033767e-03 6.915829e-02
<VARIANCE> 39
 9.480535e+00 1.002799e+01 1.769416e+01 1.957703e+01 1.789039e+01 2.123689e+01 2.229120e+01 2.184622e+01 2.340022e+01 1.988172e+01 2.217585e+01 1.516464e+01 1.000000e-02 6.666148e-01 9.228321e-01 1.281281e+00 1.471761e+00 1.540986e+00 1.579977e+00 1.696394e+00 1.807905e+00 1.850820e+00 1.856869e+00 1.629103e+00 1.441386e+00 1.000000e-02 1.623647e-01 2.119998e-01 2.605914e-01 3.118232e-01 3.117660e-01 3.240437e-01 3.546334e-01 3.660294e-01 3.784397e-01 3.725665e-01 3.312502e-01 2.921998e-01 1.641346e-02
<GCONST> 8.258777e+01
<STATE> 4
<MEAN> 39
 3.529002e-01 -9.692284e-02 7.148999e-02 -2.463488e-01 -1.691461e-01 -1.466650e-01 -1.612955e-01 -6.040429e-02 -9.074391e-02 -2.685315e-02 -6.086424e-02 -7.609907e-02 -3.724066e+00 6.416785e-03 -2.660770e-03 -4.500865e-03 -1.618669e-03 1.457852e-03 -3.482493e-03 -1.507354e-03 -1.925928e-03 -1.974432e-03 -3.739265e-03 -2.804909e-03 1.230708e-03 6.373377e-04 -2.988689e-03 1.397107e-03 -5.800671e-05 2.322747e-03 1.186717e-03 1.485087e-03 3.496597e-04 6.649810e-04 1.111342e-03 7.635581e-04 1.073824e-03 4.854754e-04 -1.802091e-03
<VARIANCE> 39
 9.768541e+01 5.480048e+01 6.825683e+01 7.025289e+01 7.004684e+01 6.310538e+01 6.553520e+01 5.760968e+01 5.410977e+01 4.075461e+01 3.845279e+01 3.128919e+01 1.012960e+01 4.991931e+00 3.618679e+00 3.298028e+00 4.302938e+00 4.328124e+00 4.186285e+00 4.461233e+00 4.399959e+00 3.989964e+00 3.265948e+00 3.015722e+00 2.474399e+00 4.946341e-01 6.911526e-01 5.992771e-01 5.089234e-01 6.999964e-01 7.041364e-01 7.088420e-01 7.650649e-01 7.766828e-01 7.037112e-01 6.020295e-01 5.486264e-01 4.535111e-01 7.440198e-02
<GCONST> 1.297916e+02
<TRANSP> 5
 0.000000e+00 1.000000e+00 0.000000e+00 0.000000e+00 0.000000e+00
 0.000000e+00 7.825962e-01 2.174039e-01 0.000000e+00 0.000000e+00
 0.000000e+00 0.000000e+00 8.684954e-01 1.315046e-01 0.000000e+00
 0.000000e+00 0.000000e+00 0.000000e+00 9.965768e-01 3.423129e-03
 0.000000e+00 0.000000e+00 0.000000e+00 0.000000e+00 0.000000e+00
<ENDHMM>
