~o
<STREAMINFO> 1 39
<VECSIZE> 39<NULLD><MFCC_E_D_A_Z><DIAGC>
~h "ay"
<BEGINHMM>
<NUMSTATES> 5
<STATE> 2
<MEAN> 39
 -8.641311e+00 3.207329e+00 -1.707451e+00 6.615416e+00 4.272827e+00 3.998941e+00 4.008221e+00 1.248069e+00 2.320015e+00 7.979709e-01 1.376679e+00 1.823597e+00 -1.042851e+01 -1.127847e-01 1.719843e-01 1.362420e-01 7.708835e-02 1.191529e-01 9.388149e-02 5.223368e-02 -8.226460e-02 -5.162295e-02 1.192138e-01 6.335479e-03 -7.739919e-02 -5.766083e-03 4.716764e-02 -2.918168e-02 3.427497e-03 -4.055952e-02 -2.312881e-02 -2.404145e-02 3.180495e-03 1.126695e-03 -1.122723e-02 -1.199308e-02 -1.331087e-02 -3.734723e-03 2.691313e-02
<VARIANCE> 39
 1.103038e+01 1.614811e+01 1.993826e+01 2.115793e+01 1.964346e+01 2.453209e+01 2.316483e+01 2.256346e+01 2.364654e+01 2.185970e+01 2.327271e+01 1.562598e+01 9.302908e-02 4.489771e-01 7.738975e-01 1.016799e+00 1.152930e+00 1.292759e+00 1.434173e+00 1.557290e+00 1.656847e+00 1.702821e+00 1.741716e+00 1.524945e+00 1.379678e+00 1.000000e-02 9.526070e-02 1.381849e-01 1.900588e-01 2.229321e-01 2.392281e-01 2.574651e-01 2.903281e-01 3.052267e-01 3.150864e-01 3.209688e-01 2.823416e-01 2.542759e-01 1.000000e-02
<GCONST> 8.077041e+01
<STATE> 3
<MEAN> 39
 -7.993547e+00 1.508311e+00 -1.462922e+00 4.412034e+00 3.833497e+00 2.811546e+00 4.022139e+00 1.296082e+00 1.755775e+00 6.258231e-01 9.763586e-01 1.526746e+00 -8.726145e+00 6.964042e-01 -8.698217e-02 1.705271e-01 -4.650185e-01 -3.776371e-01 -3.300720e-01 -2.131993e-01 -1.673848e-01 -1.767477e-01 -9.480888e-02 -1.814813e-01 -1.193754e-01 5.032544e-01 2.665904e-01 -6.640224e-02 5.072391e-02 -1.611608e-01 -1.721376e-01 -1.321326e-01 -1.709817e-01 -4.886727e-02 -5.509651e-02 -2.519756e-02 -2.701452e-02 -3.291041e-02 1.450699e-01
<VARIANCE> 39
 2.339870e+01 3.785015e+01 3.179828e+01 3.370205e+01 3.011725e+01 3.613114e+01 2.989176e+01 2.945817e+01 2.807870e+01 2.693421e+01 2.791359e+01 1.914836e+01 4.254657e+00 3.441674e+00 2.882397e+00 2.693402e+00 3.250824e+00 2.939944e+00 2.961292e+00 2.862538e+00 2.654156e+00 2.674675e+00 2.446575e+00 2.204946e+00 1.872014e+00 5.907177e-01 4.823213e-01 5.025122e-01 4.819559e-01 5.764655e-01 5.109324e-01 5.280362e-01 5.499744e-01 4.990265e-01 5.037181e-01 4.783284e-01 4.347469e-01 3.698066e-01 7.119293e-02
<GCONST> 1.138026e+02
<STATE> 4
<MEAN> 39
 5.022712e-01 -1.425121e-01 9.573648e-02 -3.331116e-01 -2.447717e-01 -2.057133e-01 -2.424398e-01 -7.680529e-02 -1.230984e-01 -4.299991e-02 -7.107344e-02 -1.011739e-01 -3.641204e+00 -1.362583e-02 2.230102e-03 -8.431561e-03 1.248770e-02 1.298355e-02 7.198037e-03 5.708687e-03 2.744471e-03 2.890662e-03 -2.926400e-04 1.927326e-03 3.813623e-03 -1.450436e-02 -9.557790e-03 2.657558e-03 -1.484758e-03 6.080512e-03 5.499442e-03 4.505729e-03 4.821848e-03 1.640937e-03 2.298732e-03 1.015944e-03 1.375243e-03 1.292909e-03 -5.224218e-03
<VARIANCE> 39
 9.766643e+01 5.503695e+01 6.881599e+01 7.044338e+01 7.040789e+01 6.342065e+01 6.577735e+01 5.808636e+01 5.449883e+01 4.100599e+01 3.863589e+01 3.146275e+01 9.828834e+00 4.977344e+00 3.620911e+00 3.297805e+00 4.300121e+00 4.337392e+00 4.193897e+00 4.479390e+00 4.424294e+00 4.006808e+00 3.277401e+00 3.024857e+00 2.481814e+00 4.789466e-01 6.904024e-01 5.993662e-01 5.080655e-01 6.997262e-01 7.057204e-01 7.102628e-01 7.666917e-01 7.807544e-01 7.065547e-01 6.037615e-01 5.498655e-01 4.544765e-01 7.345264e-02
<GCONST> 1.298211e+02
<TRANSP> 5
 0.000000e+00 1.000000e+00 0.000000e+00 0.000000e+00 0.000000e+00
 0.000000e+00 8.849154e-01 1.150847e-01 0.000000e+00 0.000000e+00
 0.000000e+00 0.000000e+00 8.842671e-01 1.157329e-01 0.000000e+00
 0.000000e+00 0.000000e+00 0.000000e+00 9.965158e-01 3.484228e-03
 0.000000e+00 0.000000e+00 0.000000e+00 0.000000e+00 0.000000e+00
<ENDHMM>
