~o
<STREAMINFO> 1 39
<VECSIZE> 39<NULLD><MFCC_E_D_A_Z><DIAGC>
~h "b"
<BEGINHMM>
<NUMSTATES> 5
<STATE> 2
<MEAN> 39
 -8.511606e+00 2.748011e+00 -1.694047e+00 6.111845e+00 4.136184e+00 3.736736e+00 3.960946e+00 1.335452e+00 2.195709e+00 7.499294e-01 1.394407e+00 1.789651e+00 -1.025084e+01 -6.305820e-02 1.567910e-01 1.211393e-01 3.541820e-02 7.722747e-02 7.283790e-02 5.436260e-02 -7.670733e-02 -5.372959e-02 9.923678e-02 -1.716940e-02 -8.093919e-02 9.130169e-03 6.797273e-02 -3.593142e-02 8.344203e-03 -5.362479e-02 -3.799291e-02 -4.070470e-02 -1.386642e-02 -1.023305e-02 -1.777275e-02 -2.021956e-02 -2.039510e-02 -6.969302e-03 4.618131e-02
<VARIANCE> 39
 1.244524e+01 2.075439e+01 2.175238e+01 2.416929e+01 2.134593e+01 2.735378e+01 2.400207e+01 2.367375e+01 2.421330e+01 2.302780e+01 2.412890e+01 1.614865e+01 4.791802e-01 6.426260e-01 1.053809e+00 1.215573e+00 1.379536e+00 1.462776e+00 1.582530e+00 1.676134e+00 1.755489e+00 1.794520e+00 1.831530e+00 1.601737e+00 1.434901e+00 2.219453e-02 1.455551e-01 1.961307e-01 2.355006e-01 2.753083e-01 2.822454e-01 2.982604e-01 3.243640e-01 3.318502e-01 3.422426e-01 3.458241e-01 3.024712e-01 2.712587e-01 1.345897e-02
<GCONST> 8.808301e+01
<STATE> 3
<MEAN> 39
 9.103823e-01 -3.072575e-01 2.584710e-01 -6.050972e-01 -5.826478e-01 -3.250889e-01 -4.970935e-01 -1.153857e-01 -1.957860e-01 -4.392761e-02 -5.077192e-02 -1.972019e-01 -3.326092e+00 1.055115e-02 -6.570218e-03 -1.455190e-03 -1.091611e-02 -4.222603e-04 -1.028746e-02 6.009307e-04 -1.732878e-04 -3.877435e-03 -5.332569e-03 -6.054038e-03 6.637085e-04 1.107685e-02 -4.767639e-03 6.045045e-04 -2.183961e-03 2.926479e-03 2.135406e-03 2.219274e-03 1.368452e-03 9.265005e-04 1.286995e-03 6.884160e-04 1.065325e-03 1.175834e-03 -2.856252e-03
<VARIANCE> 39
 9.851062e+01 5.677568e+01 7.102485e+01 7.129320e+01 7.115629e+01 6.504436e+01 6.670688e+01 5.965323e+01 5.589467e+01 4.164565e+01 3.920702e+01 3.199521e+01 8.378977e+00 5.326930e+00 3.840946e+00 3.481829e+00 4.546406e+00 4.565330e+00 4.388485e+00 4.681087e+00 4.607657e+00 4.166630e+00 3.384028e+00 3.127620e+00 2.557308e+00 5.281968e-01 7.380100e-01 6.365669e-01 5.362694e-01 7.388552e-01 7.408044e-01 7.414654e-01 8.008986e-01 8.122582e-01 7.337036e-01 6.235493e-01 5.684068e-01 4.680058e-01 7.983977e-02
<GCONST> 1.311700e+02
<STATE> 4
<MEAN> 39
 -6.635881e+00 2.304397e+00 -2.259257e+00 4.174582e+00 4.927986e+00 2.007459e+00 3.979963e+00 7.077704e-01 1.237435e+00 1.440183e-01 -1.075646e-01 1.465518e+00 -8.655688e+00 -4.480480e-02 6.045279e-02 -3.458542e-02 1.247726e-01 3.230832e-02 8.844067e-02 -2.430370e-02 -1.972185e-02 2.353963e-02 1.918366e-02 3.933777e-02 6.608051e-03 -1.331840e-01 2.126234e-02 8.418876e-03 2.407100e-02 -7.683313e-03 -1.114049e-02 -8.390777e-03 -1.237450e-02 -3.311480e-03 -2.531468e-03 7.783312e-04 -2.967099e-04 -8.224186e-03 1.016359e-02
<VARIANCE> 39
 3.444028e+01 2.466405e+01 2.771319e+01 3.550246e+01 2.772831e+01 3.395563e+01 3.199689e+01 3.172574e+01 3.000501e+01 2.975697e+01 2.921929e+01 2.004301e+01 5.340435e+00 8.165500e-01 8.847843e-01 1.032482e+00 1.262936e+00 1.395179e+00 1.668285e+00 1.737358e+00 1.830932e+00 1.811635e+00 1.814704e+00 1.624066e+00 1.447590e+00 5.843684e-02 1.097417e-01 1.412335e-01 1.734542e-01 2.209970e-01 2.535325e-01 3.046131e-01 3.225845e-01 3.377453e-01 3.358884e-01 3.388217e-01 3.047468e-01 2.747426e-01 1.000000e-02
<GCONST> 9.360868e+01
<TRANSP> 5
 0.000000e+00 1.000000e+00 0.000000e+00 0.000000e+00 0.000000e+00
 0.000000e+00 9.135478e-01 8.645223e-02 0.000000e+00 0.000000e+00
 0.000000e+00 0.000000e+00 9.963031e-01 3.696928e-03 0.000000e+00
 0.000000e+00 0.000000e+00 0.000000e+00 9.551019e-01 4.489806e-02
 0.000000e+00 0.000000e+00 0.000000e+00 0.000000e+00 0.000000e+00
<ENDHMM>
