~o
<STREAMINFO> 1 39
<VECSIZE> 39<NULLD><MFCC_E_D_A_Z><DIAGC>
~h "ch"
<BEGINHMM>
<NUMSTATES> 5
<STATE> 2
<MEAN> 39
 6.547204e-01 -2.398452e-01 2.024314e-01 -4.394387e-01 -4.555396e-01 -1.684674e-01 -3.964549e-01 -5.366024e-02 -1.370647e-01 -2.374544e-02 -2.619876e-02 -1.437975e-01 -3.605410e+00 1.607296e-03 1.388790e-03 3.470007e-03 -7.573873e-03 4.853935e-03 -6.286480e-03 3.675389e-03 -3.814989e-03 -5.288756e-03 -1.448081e-04 -5.470749e-03 -2.081497e-03 1.057137e-02 -1.990953e-03 -1.199069e-03 -1.761499e-03 4.663006e-04 1.261134e-04 3.506850e-04 5.911420e-04 6.743458e-04 6.622506e-04 -1.761019e-04 5.226303e-04 9.168158e-04 -8.332072e-04
<VARIANCE> 39
 9.775916e+01 5.861357e+01 7.064884e+01 7.694980e+01 7.134737e+01 6.707759e+01 6.790896e+01 6.023151e+01 5.563715e+01 4.229270e+01 4.029462e+01 3.202488e+01 1.003642e+01 5.276597e+00 4.005795e+00 3.540920e+00 4.836697e+00 4.645473e+00 4.563393e+00 4.814381e+00 4.778173e+00 4.222399e+00 3.511508e+00 3.248908e+00 2.614046e+00 5.404288e-01 7.423186e-01 6.661606e-01 5.492767e-01 7.860552e-01 7.624550e-01 7.745229e-01 8.277573e-01 8.497780e-01 7.496959e-01 6.515247e-01 5.917860e-01 4.817556e-01 8.291501e-02
<GCONST> 1.323713e+02
<STATE> 3
<MEAN> 39
 -7.764789e+00 2.179049e+00 -2.114269e+00 4.615232e+00 4.654877e+00 2.099735e+00 3.872436e+00 8.817877e-01 1.536503e+00 3.525198e-01 5.374616e-01 1.691127e+00 -9.162967e+00 -1.856423e-02 6.390169e-02 7.227931e-03 7.043898e-02 2.293123e-02 5.884809e-02 -1.396931e-02 -1.940180e-02 4.543435e-03 2.950314e-02 2.235348e-02 -1.222666e-02 -6.994140e-02 2.811252e-02 1.182196e-03 1.715551e-02 -1.289504e-02 -1.076847e-02 -1.015720e-02 -7.940438e-03 -3.724172e-03 -3.413986e-03 -1.874558e-03 -5.693747e-03 -7.031104e-03 1.468672e-02
<VARIANCE> 39
 2.391872e+01 2.532170e+01 2.333400e+01 2.990056e+01 2.346802e+01 3.211411e+01 2.806930e+01 2.783368e+01 2.691616e+01 2.723970e+01 2.669830e+01 1.797300e+01 3.718585e+00 6.513160e-01 8.226370e-01 9.410516e-01 1.148047e+00 1.290025e+00 1.539945e+00 1.591554e+00 1.679671e+00 1.697496e+00 1.727225e+00 1.528921e+00 1.361705e+00 4.675845e-02 1.071717e-01 1.428196e-01 1.734327e-01 2.182048e-01 2.505629e-01 2.963397e-01 3.129686e-01 3.304429e-01 3.346345e-01 3.405278e-01 3.039299e-01 2.720753e-01 1.000000e-02
<GCONST> 9.027779e+01
<STATE> 4
<MEAN> 39
 4.624471e-01 -4.996699e-02 9.155722e-02 -2.033401e-01 -1.875542e-01 -1.372586e-01 -1.311541e-01 -8.194809e-02 -8.083005e-02 -2.949951e-02 -5.920503e-02 -9.900654e-02 -3.580807e+00 1.067799e-02 -1.622831e-03 -4.203757e-03 1.467280e-04 1.792547e-03 -1.366073e-03 -5.812393e-04 -2.833702e-03 -3.090493e-03 -3.954793e-03 -4.438060e-03 -5.550442e-05 -1.324662e-03 -2.468690e-03 9.412743e-04 -2.152654e-04 1.653231e-03 8.132182e-04 8.334605e-04 2.165961e-05 2.101595e-04 4.074129e-04 3.270072e-04 6.682478e-04 4.217888e-04 -1.553980e-03
<VARIANCE> 39
 9.813026e+01 5.120285e+01 6.758070e+01 6.296053e+01 6.916425e+01 5.998777e+01 6.333665e+01 5.584998e+01 5.383254e+01 3.927764e+01 3.668512e+01 3.090628e+01 9.362713e+00 4.924107e+00 3.314661e+00 3.167816e+00 3.810879e+00 4.132235e+00 3.859659e+00 4.191861e+00 4.083605e+00 3.849834e+00 3.050909e+00 2.807498e+00 2.371587e+00 4.608274e-01 6.682110e-01 5.458738e-01 4.844003e-01 6.216395e-01 6.606553e-01 6.480621e-01 7.127452e-01 7.081258e-01 6.687233e-01 5.533995e-01 5.064789e-01 4.276558e-01 6.836247e-02
<GCONST> 1.275135e+02
<TRANSP> 5
 0.000000e+00 1.000000e+00 0.000000e+00 0.000000e+00 0.000000e+00
 0.000000e+00 9.939895e-01 6.010517e-03 0.000000e+00 0.000000e+00
 0.000000e+00 0.000000e+00 9.523692e-01 4.763083e-02 0.000000e+00
 0.000000e+00 0.000000e+00 0.000000e+00 9.914506e-01 8.549403e-03
 0.000000e+00 0.000000e+00 0.000000e+00 0.000000e+00 0.000000e+00
<ENDHMM>
