~o
<STREAMINFO> 1 39
<VECSIZE> 39<NULLD><MFCC_E_D_A_Z><DIAGC>
~h "d"
<BEGINHMM>
<NUMSTATES> 5
<STATE> 2
<MEAN> 39
 -8.510161e+00 2.746295e+00 -1.695383e+00 6.109416e+00 4.135701e+00 3.736063e+00 3.958631e+00 1.335920e+00 2.194611e+00 7.508358e-01 1.394592e+00 1.788419e+00 -1.025013e+01 -6.289783e-02 1.565774e-01 1.210109e-01 3.519161e-02 7.711040e-02 7.270954e-02 5.435935e-02 -7.663410e-02 -5.368855e-02 9.912331e-02 -1.718045e-02 -8.089112e-02 9.287085e-03 6.800185e-02 -3.591052e-02 8.360079e-03 -5.361851e-02 -3.802257e-02 -4.071664e-02 -1.389070e-02 -1.023223e-02 -1.777730e-02 -2.024029e-02 -2.040819e-02 -6.972242e-03 4.622901e-02
<VARIANCE> 39
 1.245685e+01 2.077654e+01 2.176692e+01 2.418066e+01 2.134830e+01 2.736111e+01 2.402099e+01 2.367814e+01 2.421646e+01 2.303348e+01 2.413549e+01 1.615260e+01 4.806170e-01 6.433255e-01 1.055173e+00 1.216122e+00 1.380559e+00 1.463116e+00 1.583088e+00 1.676222e+00 1.755641e+00 1.794736e+00 1.831818e+00 1.602158e+00 1.435119e+00 2.235882e-02 1.457095e-01 1.963343e-01 2.355348e-01 2.754826e-01 2.823239e-01 2.983766e-01 3.243670e-01 3.318758e-01 3.422847e-01 3.458663e-01 3.025272e-01 2.712954e-01 1.349502e-02
<GCONST> 8.811061e+01
<STATE> 3
<MEAN> 39
 9.108559e-01 -3.073719e-01 2.586753e-01 -6.053119e-01 -5.829273e-01 -3.252222e-01 -4.972804e-01 -1.154782e-01 -1.958684e-01 -4.398926e-02 -5.081861e-02 -1.972549e-01 -3.325817e+00 1.054525e-02 -6.565388e-03 -1.451138e-03 -1.091385e-02 -4.231006e-04 -1.029165e-02 5.975460e-04 -1.719873e-04 -3.877393e-03 -5.330075e-03 -6.053014e-03 6.637957e-04 1.107803e-02 -4.773026e-03 6.053269e-04 -2.186047e-03 2.928054e-03 2.138947e-03 2.221011e-03 1.371159e-03 9.267914e-04 1.288100e-03 6.899600e-04 1.066218e-03 1.176613e-03 -2.859665e-03
<VARIANCE> 39
 9.850895e+01 5.677618e+01 7.102611e+01 7.129526e+01 7.115741e+01 6.504620e+01 6.670813e+01 5.965504e+01 5.589626e+01 4.164624e+01 3.920798e+01 3.199636e+01 8.377846e+00 5.327189e+00 3.841094e+00 3.481948e+00 4.546620e+00 4.565503e+00 4.388679e+00 4.681351e+00 4.607839e+00 4.166751e+00 3.384156e+00 3.127727e+00 2.557389e+00 5.282243e-01 7.380394e-01 6.365935e-01 5.362915e-01 7.388815e-01 7.408347e-01 7.414964e-01 8.009458e-01 8.123013e-01 7.337345e-01 6.235729e-01 5.684236e-01 4.680253e-01 7.984197e-02
<GCONST> 1.311711e+02
<STATE> 4
<MEAN> 39
 -6.635550e+00 2.304398e+00 -2.259296e+00 4.173800e+00 4.927604e+00 2.006803e+00 3.979893e+00 7.077159e-01 1.237440e+00 1.438769e-01 -1.077133e-01 1.465336e+00 -8.654552e+00 -4.476961e-02 6.041359e-02 -3.461061e-02 1.247940e-01 3.234122e-02 8.849020e-02 -2.427253e-02 -1.973995e-02 2.352395e-02 1.915758e-02 3.932449e-02 6.615715e-03 -1.332294e-01 2.127195e-02 8.411878e-03 2.407338e-02 -7.675950e-03 -1.114452e-02 -8.383437e-03 -1.238354e-02 -3.306084e-03 -2.532963e-03 7.770279e-04 -2.914881e-04 -8.225390e-03 1.015405e-02
<VARIANCE> 39
 3.446320e+01 2.466914e+01 2.771822e+01 3.550764e+01 2.773563e+01 3.395858e+01 3.200092e+01 3.172872e+01 3.000712e+01 2.975622e+01 2.922025e+01 2.004470e+01 5.344129e+00 8.169612e-01 8.851038e-01 1.032732e+00 1.263151e+00 1.395448e+00 1.668520e+00 1.737452e+00 1.831123e+00 1.811700e+00 1.814751e+00 1.624158e+00 1.447614e+00 5.847390e-02 1.097970e-01 1.412815e-01 1.735017e-01 2.210348e-01 2.535686e-01 3.046569e-01 3.225975e-01 3.377803e-01 3.359023e-01 3.388285e-01 3.047581e-01 2.747447e-01 1.000000e-02
<GCONST> 9.361565e+01
<TRANSP> 5
 0.000000e+00 1.000000e+00 0.000000e+00 0.000000e+00 0.000000e+00
 0.000000e+00 9.136218e-01 8.637815e-02 0.000000e+00 0.000000e+00
 0.000000e+00 0.000000e+00 9.963028e-01 3.697168e-03 0.000000e+00
 0.000000e+00 0.000000e+00 0.000000e+00 9.551177e-01 4.488231e-02
 0.000000e+00 0.000000e+00 0.000000e+00 0.000000e+00 0.000000e+00
<ENDHMM>
