~o
<STREAMINFO> 1 39
<VECSIZE> 39<NULLD><MFCC_E_D_A_Z><DIAGC>
~h "dh"
<BEGINHMM>
<NUMSTATES> 5
<STATE> 2
<MEAN> 39
 3.348146e-01 -1.833766e-01 1.973733e-01 -2.534728e-01 -3.543727e-01 -1.736074e-01 -4.045994e-01 -7.779492e-02 -1.194320e-01 3.169404e-02 4.820370e-02 -1.222621e-01 -3.615371e+00 3.656977e-02 -1.123199e-02 9.165955e-03 -3.015653e-02 -1.730340e-02 -1.664450e-02 -1.354820e-02 -4.074820e-03 -7.097718e-03 6.125168e-04 -5.477356e-03 -6.670468e-03 2.646068e-02 2.378958e-04 -1.740387e-03 -1.167121e-03 -1.290727e-03 -6.726781e-04 5.259978e-04 1.023718e-03 1.122165e-03 3.736526e-04 -8.186184e-04 -3.715182e-04 2.998112e-04 3.834610e-04
<VARIANCE> 39
 9.965312e+01 5.662381e+01 6.837655e+01 7.160956e+01 7.005249e+01 6.421436e+01 6.610439e+01 5.846161e+01 5.506101e+01 4.104292e+01 3.891211e+01 3.162070e+01 1.032146e+01 5.413968e+00 3.924934e+00 3.509828e+00 4.614800e+00 4.616310e+00 4.432661e+00 4.743637e+00 4.644699e+00 4.212536e+00 3.429336e+00 3.163141e+00 2.587510e+00 5.422274e-01 7.581615e-01 6.548481e-01 5.470351e-01 7.559877e-01 7.551783e-01 7.552863e-01 8.177375e-01 8.242130e-01 7.464421e-01 6.357774e-01 5.781524e-01 4.760477e-01 8.336272e-02
<GCONST> 1.317087e+02
<STATE> 3
<MEAN> 39
 2.902232e-01 1.693855e-01 -4.486852e-01 -3.194537e-01 4.393080e-01 1.545067e-01 1.116122e+00 3.381193e-01 3.648299e-01 -3.698793e-01 -3.633063e-01 1.979629e-01 -4.130439e+00 -1.558651e-01 4.548599e-02 -6.911851e-02 1.560376e-01 1.519934e-01 8.296762e-02 1.017097e-01 -4.382018e-05 5.155444e-03 -2.379702e-02 -1.471192e-02 2.767996e-02 -1.460096e-01 -9.530618e-03 1.272762e-02 -7.711836e-04 1.574151e-02 3.337974e-03 1.105284e-03 -4.601998e-03 -4.936629e-03 2.023566e-04 6.264549e-03 6.329569e-03 2.127999e-03 -1.009239e-02
<VARIANCE> 39
 9.537983e+01 4.515785e+01 6.858000e+01 6.456267e+01 6.814481e+01 5.904829e+01 5.934033e+01 5.308503e+01 4.977293e+01 3.812170e+01 3.595798e+01 2.926830e+01 7.835042e+00 2.559690e+00 1.938496e+00 2.194636e+00 2.546066e+00 2.717820e+00 2.789407e+00 2.825494e+00 3.008350e+00 2.721496e+00 2.335001e+00 2.154654e+00 1.822548e+00 1.872173e-01 3.183357e-01 2.956010e-01 3.124825e-01 3.962521e-01 4.233891e-01 4.422296e-01 4.606858e-01 5.032365e-01 4.599744e-01 4.072144e-01 3.759629e-01 3.213955e-01 2.392112e-02
<GCONST> 1.152806e+02
<STATE> 4
<MEAN> 39
 -6.565135e+00 2.727866e+00 -2.232014e+00 5.233790e+00 4.975606e+00 2.598010e+00 4.056495e+00 4.535057e-01 1.103941e+00 4.287758e-01 1.255030e-01 1.593999e+00 -9.882862e+00 -1.437242e-01 1.695247e-01 4.030181e-02 1.260539e-01 1.133781e-03 7.098801e-02 -1.697578e-02 -2.391370e-02 3.034713e-02 6.142892e-02 6.762151e-02 3.780822e-04 -6.297541e-02 1.901823e-02 -7.950334e-03 2.513552e-02 -1.924083e-02 -4.746218e-03 -1.598264e-02 -1.009762e-02 -2.352100e-03 -1.069543e-03 -4.473005e-03 -7.154497e-03 -7.077782e-03 1.920512e-02
<VARIANCE> 39
 1.576238e+01 2.006021e+01 2.293638e+01 2.586154e+01 2.179148e+01 2.960155e+01 2.823745e+01 2.801144e+01 2.667715e+01 2.837969e+01 2.688209e+01 1.844030e+01 8.687690e-01 3.992423e-01 6.532927e-01 8.382484e-01 1.032598e+00 1.177716e+00 1.441831e+00 1.574590e+00 1.675044e+00 1.693125e+00 1.736812e+00 1.563939e+00 1.388276e+00 2.084131e-02 6.869185e-02 1.119971e-01 1.463788e-01 1.862925e-01 2.206679e-01 2.718821e-01 2.962590e-01 3.124835e-01 3.157559e-01 3.269944e-01 2.933810e-01 2.636396e-01 1.000000e-02
<GCONST> 8.455275e+01
<TRANSP> 5
 0.000000e+00 1.000000e+00 0.000000e+00 0.000000e+00 0.000000e+00
 0.000000e+00 9.960229e-01 3.977116e-03 0.000000e+00 0.000000e+00
 0.000000e+00 0.000000e+00 9.739425e-01 2.605742e-02 0.000000e+00
 0.000000e+00 0.000000e+00 0.000000e+00 9.311275e-01 6.887245e-02
 0.000000e+00 0.000000e+00 0.000000e+00 0.000000e+00 0.000000e+00
<ENDHMM>
