~o
<STREAMINFO> 1 39
<VECSIZE> 39<NULLD><MFCC_E_D_A_Z><DIAGC>
~h "eh"
<BEGINHMM>
<NUMSTATES> 5
<STATE> 2
<MEAN> 39
 -8.640356e+00 3.205869e+00 -1.708032e+00 6.614693e+00 4.272537e+00 4.000291e+00 4.007704e+00 1.248731e+00 2.320143e+00 7.983186e-01 1.376908e+00 1.823574e+00 -1.042836e+01 -1.126836e-01 1.721494e-01 1.363434e-01 7.700557e-02 1.190894e-01 9.387220e-02 5.241800e-02 -8.228183e-02 -5.168137e-02 1.194213e-01 6.261572e-03 -7.761122e-02 -5.767503e-03 4.733793e-02 -2.927345e-02 3.426352e-03 -4.071911e-02 -2.328496e-02 -2.419663e-02 3.075600e-03 1.059640e-03 -1.132130e-02 -1.210759e-02 -1.341365e-02 -3.795684e-03 2.703170e-02
<VARIANCE> 39
 1.103688e+01 1.616755e+01 1.994723e+01 2.116924e+01 1.965091e+01 2.453634e+01 2.317466e+01 2.257154e+01 2.365169e+01 2.186787e+01 2.327533e+01 1.562943e+01 9.311923e-02 4.500260e-01 7.757051e-01 1.018388e+00 1.154780e+00 1.294157e+00 1.435325e+00 1.557955e+00 1.657864e+00 1.703520e+00 1.742851e+00 1.525788e+00 1.380154e+00 1.000000e-02 9.555701e-02 1.385772e-01 1.904490e-01 2.233604e-01 2.396034e-01 2.577982e-01 2.905124e-01 3.055232e-01 3.153167e-01 3.212949e-01 2.825947e-01 2.544160e-01 1.000000e-02
<GCONST> 8.080672e+01
<STATE> 3
<MEAN> 39
 -7.995033e+00 1.511932e+00 -1.460932e+00 4.403301e+00 3.830101e+00 2.803111e+00 4.021783e+00 1.292667e+00 1.753947e+00 6.241214e-01 9.736658e-01 1.526502e+00 -8.709689e+00 7.009078e-01 -8.855648e-02 1.713665e-01 -4.675815e-01 -3.805647e-01 -3.326807e-01 -2.158600e-01 -1.677208e-01 -1.773248e-01 -9.572278e-02 -1.822079e-01 -1.195666e-01 5.055216e-01 2.670025e-01 -6.667215e-02 5.077791e-02 -1.608541e-01 -1.722329e-01 -1.317960e-01 -1.713566e-01 -4.852023e-02 -5.497767e-02 -2.491720e-02 -2.684147e-02 -3.311643e-02 1.444135e-01
<VARIANCE> 39
 2.354624e+01 3.793613e+01 3.186224e+01 3.375116e+01 3.014943e+01 3.616231e+01 2.991349e+01 2.947589e+01 2.809232e+01 2.693068e+01 2.791247e+01 1.915352e+01 4.310091e+00 3.460257e+00 2.885993e+00 2.699069e+00 3.257555e+00 2.947590e+00 2.970376e+00 2.869998e+00 2.657979e+00 2.678504e+00 2.447661e+00 2.207744e+00 1.873993e+00 5.932938e-01 4.832064e-01 5.037235e-01 4.827678e-01 5.772246e-01 5.114315e-01 5.290136e-01 5.506541e-01 4.996302e-01 5.041248e-01 4.785610e-01 4.350842e-01 3.700771e-01 7.148390e-02
<GCONST> 1.138798e+02
<STATE> 4
<MEAN> 39
 5.033072e-01 -1.428495e-01 9.588680e-02 -3.334826e-01 -2.451560e-01 -2.059072e-01 -2.429096e-01 -7.688005e-02 -1.232925e-01 -4.304487e-02 -7.114005e-02 -1.013695e-01 -3.641033e+00 -1.380906e-02 2.270569e-03 -8.479624e-03 1.259760e-02 1.309568e-02 7.296479e-03 5.796267e-03 2.770593e-03 2.925126e-03 -2.701273e-04 1.963537e-03 3.837897e-03 -1.460897e-02 -9.597170e-03 2.674695e-03 -1.490335e-03 6.089834e-03 5.520656e-03 4.511138e-03 4.848565e-03 1.636138e-03 2.302720e-03 1.013144e-03 1.375671e-03 1.303607e-03 -5.219935e-03
<VARIANCE> 39
 9.766090e+01 5.503496e+01 6.881790e+01 7.044323e+01 7.041025e+01 6.342248e+01 6.577763e+01 5.808802e+01 5.450069e+01 4.100668e+01 3.863683e+01 3.146367e+01 9.828855e+00 4.976837e+00 3.620894e+00 3.297647e+00 4.299896e+00 4.337305e+00 4.193699e+00 4.479271e+00 4.424338e+00 4.006787e+00 3.277409e+00 3.024872e+00 2.481788e+00 4.787859e-01 6.903952e-01 5.993423e-01 5.080372e-01 6.997026e-01 7.057260e-01 7.102491e-01 7.666884e-01 7.807587e-01 7.065532e-01 6.037592e-01 5.498665e-01 4.544735e-01 7.344976e-02
<GCONST> 1.298205e+02
<TRANSP> 5
 0.000000e+00 1.000000e+00 0.000000e+00 0.000000e+00 0.000000e+00
 0.000000e+00 8.850945e-01 1.149055e-01 0.000000e+00 0.000000e+00
 0.000000e+00 0.000000e+00 8.845331e-01 1.154669e-01 0.000000e+00
 0.000000e+00 0.000000e+00 0.000000e+00 9.965154e-01 3.484637e-03
 0.000000e+00 0.000000e+00 0.000000e+00 0.000000e+00 0.000000e+00
<ENDHMM>
