~o
<STREAMINFO> 1 39
<VECSIZE> 39<NULLD><MFCC_E_D_A_Z><DIAGC>
~h "el"
<BEGINHMM>
<NUMSTATES> 5
<STATE> 2
<MEAN> 39
 -8.640972e+00 3.206937e+00 -1.707619e+00 6.615275e+00 4.272683e+00 3.999321e+00 4.008185e+00 1.248225e+00 2.320132e+00 7.980617e-01 1.376768e+00 1.823596e+00 -1.042847e+01 -1.127673e-01 1.720334e-01 1.362674e-01 7.707862e-02 1.191297e-01 9.387752e-02 5.228795e-02 -8.227169e-02 -5.162893e-02 1.192655e-01 6.319290e-03 -7.744969e-02 -5.767155e-03 4.720649e-02 -2.920153e-02 3.429794e-03 -4.059733e-02 -2.316580e-02 -2.407585e-02 3.157957e-03 1.115469e-03 -1.124840e-02 -1.202073e-02 -1.333398e-02 -3.746955e-03 2.694152e-02
<VARIANCE> 39
 1.103172e+01 1.615258e+01 1.994063e+01 2.116004e+01 1.964517e+01 2.453111e+01 2.316699e+01 2.256518e+01 2.364789e+01 2.186156e+01 2.327325e+01 1.562651e+01 9.304692e-02 4.492134e-01 7.743244e-01 1.017144e+00 1.153355e+00 1.293105e+00 1.434467e+00 1.557454e+00 1.657078e+00 1.702996e+00 1.741955e+00 1.525111e+00 1.379753e+00 1.000000e-02 9.532878e-02 1.382764e-01 1.901430e-01 2.230303e-01 2.393223e-01 2.575484e-01 2.903749e-01 3.052938e-01 3.151416e-01 3.210396e-01 2.823943e-01 2.543032e-01 1.000000e-02
<GCONST> 8.077862e+01
<STATE> 3
<MEAN> 39
 -7.993778e+00 1.509282e+00 -1.462525e+00 4.410044e+00 3.832675e+00 2.809489e+00 4.022086e+00 1.295301e+00 1.755343e+00 6.255699e-01 9.756739e-01 1.526802e+00 -8.722267e+00 6.974812e-01 -8.736737e-02 1.707442e-01 -4.656426e-01 -3.783396e-01 -3.307068e-01 -2.138423e-01 -1.674781e-01 -1.769045e-01 -9.504175e-02 -1.816545e-01 -1.194320e-01 5.038156e-01 2.666944e-01 -6.647068e-02 5.073310e-02 -1.610900e-01 -1.721597e-01 -1.320559e-01 -1.710794e-01 -4.879164e-02 -5.507367e-02 -2.513537e-02 -2.697638e-02 -3.296264e-02 1.449167e-01
<VARIANCE> 39
 2.343225e+01 3.786994e+01 3.181293e+01 3.371500e+01 3.012451e+01 3.613932e+01 2.989823e+01 2.946193e+01 2.808155e+01 2.693427e+01 2.791256e+01 1.914997e+01 4.267683e+00 3.446146e+00 2.883255e+00 2.694827e+00 3.252476e+00 2.941730e+00 2.963490e+00 2.864393e+00 2.655113e+00 2.675612e+00 2.446860e+00 2.205614e+00 1.872478e+00 5.913575e-01 4.825326e-01 5.027925e-01 4.821635e-01 5.766565e-01 5.110438e-01 5.282700e-01 5.501443e-01 4.991741e-01 5.038198e-01 4.783827e-01 4.348323e-01 3.698695e-01 7.126469e-02
<GCONST> 1.138212e+02
<STATE> 4
<MEAN> 39
 5.025055e-01 -1.425931e-01 9.577452e-02 -3.332010e-01 -2.448581e-01 -2.057584e-01 -2.425527e-01 -7.682326e-02 -1.231462e-01 -4.301501e-02 -7.108833e-02 -1.012229e-01 -3.641116e+00 -1.366900e-02 2.239836e-03 -8.443605e-03 1.251398e-02 1.301036e-02 7.221710e-03 5.729510e-03 2.751066e-03 2.899323e-03 -2.871683e-04 1.935762e-03 3.819555e-03 -1.452954e-02 -9.567106e-03 2.661648e-03 -1.486034e-03 6.082714e-03 5.504327e-03 4.506988e-03 4.828296e-03 1.640000e-03 2.299987e-03 1.015509e-03 1.375488e-03 1.295560e-03 -5.223216e-03
<VARIANCE> 39
 9.766384e+01 5.503516e+01 6.881498e+01 7.044141e+01 7.040602e+01 6.341913e+01 6.577625e+01 5.808525e+01 5.449787e+01 4.100511e+01 3.863488e+01 3.146217e+01 9.828466e+00 4.977175e+00 3.620803e+00 3.297656e+00 4.299982e+00 4.337313e+00 4.193774e+00 4.479247e+00 4.424198e+00 4.006693e+00 3.277341e+00 3.024804e+00 2.481721e+00 4.788992e-01 6.903898e-01 5.993447e-01 5.080428e-01 6.996956e-01 7.057047e-01 7.102476e-01 7.666681e-01 7.807316e-01 7.065303e-01 6.037468e-01 5.498540e-01 4.544633e-01 7.345011e-02
<GCONST> 1.298200e+02
<TRANSP> 5
 0.000000e+00 1.000000e+00 0.000000e+00 0.000000e+00 0.000000e+00
 0.000000e+00 8.849573e-01 1.150427e-01 0.000000e+00 0.000000e+00
 0.000000e+00 0.000000e+00 8.843279e-01 1.156722e-01 0.000000e+00
 0.000000e+00 0.000000e+00 0.000000e+00 9.965156e-01 3.484345e-03
 0.000000e+00 0.000000e+00 0.000000e+00 0.000000e+00 0.000000e+00
<ENDHMM>
