~o
<STREAMINFO> 1 39
<VECSIZE> 39<NULLD><MFCC_E_D_A_Z><DIAGC>
~h "em"
<BEGINHMM>
<NUMSTATES> 5
<STATE> 2
<MEAN> 39
 -8.641370e+00 3.207368e+00 -1.707448e+00 6.615440e+00 4.272876e+00 3.998845e+00 4.008327e+00 1.247984e+00 2.320026e+00 7.979947e-01 1.376637e+00 1.823640e+00 -1.042852e+01 -1.127916e-01 1.719809e-01 1.362396e-01 7.709892e-02 1.191487e-01 9.387811e-02 5.222874e-02 -8.226318e-02 -5.161146e-02 1.192117e-01 6.340487e-03 -7.738970e-02 -5.766657e-03 4.715875e-02 -2.917609e-02 3.426961e-03 -4.055040e-02 -2.311932e-02 -2.403027e-02 3.188222e-03 1.136838e-03 -1.122106e-02 -1.199176e-02 -1.331065e-02 -3.731756e-03 2.690659e-02
<VARIANCE> 39
 1.102973e+01 1.614736e+01 1.993751e+01 2.115649e+01 1.964250e+01 2.453106e+01 2.316398e+01 2.256242e+01 2.364537e+01 2.185897e+01 2.327256e+01 1.562526e+01 9.301928e-02 4.489090e-01 7.737796e-01 1.016688e+00 1.152788e+00 1.292682e+00 1.434098e+00 1.557243e+00 1.656759e+00 1.702754e+00 1.741606e+00 1.524873e+00 1.379612e+00 1.000000e-02 9.524208e-02 1.381584e-01 1.900310e-01 2.229017e-01 2.392102e-01 2.574461e-01 2.903179e-01 3.052003e-01 3.150663e-01 3.209426e-01 2.823235e-01 2.542619e-01 1.000000e-02
<GCONST> 8.076766e+01
<STATE> 3
<MEAN> 39
 -7.993467e+00 1.508157e+00 -1.462993e+00 4.412455e+00 3.833654e+00 2.812039e+00 4.022323e+00 1.296227e+00 1.755885e+00 6.260237e-01 9.764781e-01 1.526819e+00 -8.727141e+00 6.961640e-01 -8.690077e-02 1.704917e-01 -4.648893e-01 -3.774908e-01 -3.299274e-01 -2.130675e-01 -1.673893e-01 -1.767236e-01 -9.477066e-02 -1.814357e-01 -1.193761e-01 5.031410e-01 2.665706e-01 -6.639051e-02 5.072062e-02 -1.611822e-01 -1.721416e-01 -1.321594e-01 -1.709713e-01 -4.888971e-02 -5.509924e-02 -2.521906e-02 -2.701687e-02 -3.290125e-02 1.451156e-01
<VARIANCE> 39
 2.338829e+01 3.784346e+01 3.179426e+01 3.369854e+01 3.011533e+01 3.612898e+01 2.989009e+01 2.945658e+01 2.807717e+01 2.693427e+01 2.791310e+01 1.914802e+01 4.251304e+00 3.440460e+00 2.882178e+00 2.693089e+00 3.250415e+00 2.939489e+00 2.960792e+00 2.862114e+00 2.653918e+00 2.674405e+00 2.446522e+00 2.204758e+00 1.871910e+00 5.905467e-01 4.822464e-01 5.024433e-01 4.819137e-01 5.764256e-01 5.109122e-01 5.279870e-01 5.499272e-01 4.989725e-01 5.036827e-01 4.783101e-01 4.347320e-01 3.697925e-01 7.117211e-02
<GCONST> 1.137976e+02
<STATE> 4
<MEAN> 39
 5.022060e-01 -1.424924e-01 9.572615e-02 -3.330847e-01 -2.447466e-01 -2.057002e-01 -2.424170e-01 -7.679707e-02 -1.230868e-01 -4.300123e-02 -7.106742e-02 -1.011646e-01 -3.641181e+00 -1.361494e-02 2.228180e-03 -8.429375e-03 1.248148e-02 1.297780e-02 7.192518e-03 5.703578e-03 2.743003e-03 2.888799e-03 -2.934515e-04 1.924568e-03 3.812409e-03 -1.449825e-02 -9.555353e-03 2.656570e-03 -1.484422e-03 6.079915e-03 5.498405e-03 4.505584e-03 4.820290e-03 1.641125e-03 2.298404e-03 1.016312e-03 1.375000e-03 1.292397e-03 -5.224551e-03
<VARIANCE> 39
 9.766489e+01 5.503526e+01 6.881420e+01 7.044068e+01 7.040559e+01 6.341860e+01 6.577486e+01 5.808392e+01 5.449683e+01 4.100460e+01 3.863480e+01 3.146178e+01 9.828475e+00 4.977311e+00 3.620816e+00 3.297680e+00 4.300008e+00 4.337329e+00 4.193822e+00 4.479301e+00 4.424110e+00 4.006678e+00 3.277263e+00 3.024757e+00 2.481721e+00 4.789409e-01 6.903886e-01 5.993542e-01 5.080492e-01 6.997001e-01 7.057012e-01 7.102399e-01 7.666672e-01 7.807218e-01 7.065188e-01 6.037413e-01 5.498515e-01 4.544607e-01 7.345092e-02
<GCONST> 1.298199e+02
<TRANSP> 5
 0.000000e+00 1.000000e+00 0.000000e+00 0.000000e+00 0.000000e+00
 0.000000e+00 8.849053e-01 1.150947e-01 0.000000e+00 0.000000e+00
 0.000000e+00 0.000000e+00 8.842463e-01 1.157537e-01 0.000000e+00
 0.000000e+00 0.000000e+00 0.000000e+00 9.965158e-01 3.484242e-03
 0.000000e+00 0.000000e+00 0.000000e+00 0.000000e+00 0.000000e+00
<ENDHMM>
