~o
<STREAMINFO> 1 39
<VECSIZE> 39<NULLD><MFCC_E_D_A_Z><DIAGC>
~h "en"
<BEGINHMM>
<NUMSTATES> 5
<STATE> 2
<MEAN> 39
 -7.262362e+00 -1.005472e+00 -2.866636e+00 3.533920e+00 2.751351e+00 1.409200e+00 3.024226e+00 1.965899e+00 1.727198e+00 -4.647731e-01 1.380347e+00 2.176476e+00 -9.408381e+00 -8.554771e-02 3.049541e-01 4.760158e-02 8.583177e-02 8.984201e-02 1.595868e-01 1.011781e-01 -2.622980e-02 3.045634e-02 1.259248e-01 3.345105e-02 -2.809088e-02 -3.653676e-02 -4.485554e-02 7.511276e-02 8.231846e-02 5.608740e-02 5.060735e-02 3.636945e-02 9.801748e-03 -1.078976e-02 1.602607e-02 5.210181e-02 2.074166e-02 -1.238789e-02 -2.488995e-03
<VARIANCE> 39
 1.591261e+01 3.092565e+01 2.668264e+01 2.534061e+01 2.617469e+01 3.475924e+01 2.697464e+01 2.746828e+01 2.616283e+01 2.808190e+01 2.802598e+01 1.822410e+01 2.152739e+00 6.483746e-01 1.410478e+00 1.201737e+00 1.277695e+00 1.450059e+00 1.648310e+00 1.745940e+00 1.779282e+00 1.816114e+00 1.896587e+00 1.591620e+00 1.455370e+00 6.347749e-02 1.076348e-01 1.750872e-01 2.063774e-01 2.149589e-01 2.504354e-01 2.604949e-01 2.966316e-01 2.997867e-01 3.092794e-01 3.162298e-01 2.640667e-01 2.477597e-01 1.000000e-02
<GCONST> 9.118629e+01
<STATE> 3
<MEAN> 39
 -9.164683e+00 4.332791e+00 -1.011722e+00 7.327329e+00 4.834080e+00 4.782932e+00 4.367363e+00 1.131651e+00 2.441191e+00 1.313425e+00 1.503097e+00 1.606766e+00 -1.050254e+01 -4.659728e-02 9.956440e-02 1.753732e-01 4.129228e-02 8.675067e-02 4.113141e-02 2.958738e-02 -9.076417e-02 -9.330317e-02 8.490189e-02 -3.872893e-02 -1.104514e-01 1.544284e-02 1.380793e-01 -1.076557e-01 -4.210812e-02 -1.231966e-01 -9.070423e-02 -8.664139e-02 -2.802952e-02 -1.132423e-02 -4.106198e-02 -6.488189e-02 -4.781954e-02 -4.018266e-03 6.916955e-02
<VARIANCE> 39
 9.477800e+00 1.002573e+01 1.768696e+01 1.957347e+01 1.788653e+01 2.123395e+01 2.229019e+01 2.184407e+01 2.339827e+01 1.987906e+01 2.217374e+01 1.516400e+01 1.000000e-02 6.664381e-01 9.218298e-01 1.280701e+00 1.471510e+00 1.540764e+00 1.579674e+00 1.696204e+00 1.807798e+00 1.850572e+00 1.856518e+00 1.628920e+00 1.441242e+00 1.000000e-02 1.623482e-01 2.119889e-01 2.605421e-01 3.118100e-01 3.117440e-01 3.240324e-01 3.546249e-01 3.660224e-01 3.784125e-01 3.725252e-01 3.312330e-01 2.921875e-01 1.641764e-02
<GCONST> 8.258224e+01
<STATE> 4
<MEAN> 39
 3.529057e-01 -9.691580e-02 7.148836e-02 -2.463550e-01 -1.691435e-01 -1.466695e-01 -1.612964e-01 -6.041913e-02 -9.073816e-02 -2.685856e-02 -6.086130e-02 -7.610064e-02 -3.724061e+00 6.416932e-03 -2.661317e-03 -4.501374e-03 -1.619160e-03 1.457814e-03 -3.482492e-03 -1.507444e-03 -1.926223e-03 -1.975351e-03 -3.739151e-03 -2.805273e-03 1.230149e-03 6.373723e-04 -2.988735e-03 1.397226e-03 -5.754619e-05 2.323093e-03 1.186850e-03 1.485288e-03 3.495788e-04 6.650004e-04 1.111071e-03 7.637641e-04 1.073746e-03 4.853549e-04 -1.802069e-03
<VARIANCE> 39
 9.768804e+01 5.480149e+01 6.825820e+01 7.025426e+01 7.004889e+01 6.310754e+01 6.553722e+01 5.761055e+01 5.411028e+01 4.075583e+01 3.845323e+01 3.128955e+01 1.012972e+01 4.992064e+00 3.618777e+00 3.298123e+00 4.303038e+00 4.328263e+00 4.186430e+00 4.461297e+00 4.400085e+00 3.990083e+00 3.266032e+00 3.015778e+00 2.474463e+00 4.946496e-01 6.911762e-01 5.992980e-01 5.089343e-01 7.000164e-01 7.041629e-01 7.088713e-01 7.650833e-01 7.767130e-01 7.037364e-01 6.020443e-01 5.486368e-01 4.535219e-01 7.440429e-02
<GCONST> 1.297926e+02
<TRANSP> 5
 0.000000e+00 1.000000e+00 0.000000e+00 0.000000e+00 0.000000e+00
 0.000000e+00 7.827051e-01 2.172949e-01 0.000000e+00 0.000000e+00
 0.000000e+00 0.000000e+00 8.684612e-01 1.315388e-01 0.000000e+00
 0.000000e+00 0.000000e+00 0.000000e+00 9.965769e-01 3.423122e-03
 0.000000e+00 0.000000e+00 0.000000e+00 0.000000e+00 0.000000e+00
<ENDHMM>
