~o
<STREAMINFO> 1 39
<VECSIZE> 39<NULLD><MFCC_E_D_A_Z><DIAGC>
~h "er"
<BEGINHMM>
<NUMSTATES> 5
<STATE> 2
<MEAN> 39
 -8.641496e+00 3.207742e+00 -1.707343e+00 6.615592e+00 4.272905e+00 3.998765e+00 4.008464e+00 1.247910e+00 2.320039e+00 7.979782e-01 1.376621e+00 1.823586e+00 -1.042855e+01 -1.128196e-01 1.719468e-01 1.362257e-01 7.711456e-02 1.191639e-01 9.388598e-02 5.219710e-02 -8.226543e-02 -5.160566e-02 1.191691e-01 6.348785e-03 -7.737053e-02 -5.765571e-03 4.713044e-02 -2.916041e-02 3.426586e-03 -4.051642e-02 -2.308921e-02 -2.400215e-02 3.204048e-03 1.144039e-03 -1.120307e-02 -1.197256e-02 -1.328900e-02 -3.716061e-03 2.688505e-02
<VARIANCE> 39
 1.102852e+01 1.614338e+01 1.993568e+01 2.115356e+01 1.964094e+01 2.452896e+01 2.316234e+01 2.256121e+01 2.364417e+01 2.185782e+01 2.327170e+01 1.562489e+01 9.299392e-02 4.487134e-01 7.734330e-01 1.016400e+00 1.152429e+00 1.292424e+00 1.433861e+00 1.557142e+00 1.656556e+00 1.702645e+00 1.741396e+00 1.524709e+00 1.379525e+00 1.000000e-02 9.518859e-02 1.380823e-01 1.899553e-01 2.228186e-01 2.391333e-01 2.573763e-01 2.902895e-01 3.051456e-01 3.150276e-01 3.208821e-01 2.822782e-01 2.542357e-01 1.000000e-02
<GCONST> 8.076060e+01
<STATE> 3
<MEAN> 39
 -7.993123e+00 1.507457e+00 -1.463386e+00 4.414014e+00 3.834384e+00 2.813383e+00 4.022490e+00 1.296745e+00 1.756197e+00 6.261961e-01 9.768586e-01 1.526759e+00 -8.730240e+00 6.953166e-01 -8.658175e-02 1.702932e-01 -4.643900e-01 -3.769082e-01 -3.294314e-01 -2.125757e-01 -1.673171e-01 -1.766163e-01 -9.457956e-02 -1.813001e-01 -1.193350e-01 5.026867e-01 2.664756e-01 -6.633641e-02 5.070297e-02 -1.612402e-01 -1.721165e-01 -1.322145e-01 -1.708877e-01 -4.894877e-02 -5.511705e-02 -2.525946e-02 -2.704185e-02 -3.285923e-02 1.452338e-01
<VARIANCE> 39
 2.336187e+01 3.782873e+01 3.178153e+01 3.368657e+01 3.011007e+01 3.612236e+01 2.988550e+01 2.945318e+01 2.807472e+01 2.693569e+01 2.791244e+01 1.914765e+01 4.240774e+00 3.436886e+00 2.881471e+00 2.691921e+00 3.249122e+00 2.938071e+00 2.959047e+00 2.860732e+00 2.653288e+00 2.673717e+00 2.446323e+00 2.204199e+00 1.871577e+00 5.900554e-01 4.820675e-01 5.022193e-01 4.817406e-01 5.762635e-01 5.108209e-01 5.278044e-01 5.497936e-01 4.988759e-01 5.036139e-01 4.782746e-01 4.346585e-01 3.697522e-01 7.111722e-02
<GCONST> 1.137830e+02
<STATE> 4
<MEAN> 39
 5.020132e-01 -1.424312e-01 9.569976e-02 -3.330142e-01 -2.446788e-01 -2.056629e-01 -2.423362e-01 -7.678166e-02 -1.230513e-01 -4.299008e-02 -7.105184e-02 -1.011238e-01 -3.641213e+00 -1.358126e-02 2.219806e-03 -8.419574e-03 1.246110e-02 1.295605e-02 7.174001e-03 5.687994e-03 2.738967e-03 2.882639e-03 -2.983262e-04 1.917805e-03 3.808116e-03 -1.447850e-02 -9.547888e-03 2.653386e-03 -1.483273e-03 6.078268e-03 5.494295e-03 4.504483e-03 4.815395e-03 1.642137e-03 2.297541e-03 1.016525e-03 1.374864e-03 1.290408e-03 -5.225432e-03
<VARIANCE> 39
 9.766682e+01 5.503672e+01 6.881500e+01 7.044115e+01 7.040598e+01 6.341958e+01 6.577646e+01 5.808464e+01 5.449714e+01 4.100422e+01 3.863520e+01 3.146223e+01 9.828504e+00 4.977510e+00 3.620842e+00 3.297777e+00 4.300106e+00 4.337432e+00 4.193932e+00 4.479350e+00 4.424223e+00 4.006737e+00 3.277315e+00 3.024832e+00 2.481755e+00 4.789852e-01 6.904083e-01 5.993732e-01 5.080638e-01 6.997146e-01 7.057114e-01 7.102561e-01 7.666900e-01 7.807420e-01 7.065344e-01 6.037492e-01 5.498666e-01 4.544711e-01 7.345364e-02
<GCONST> 1.298208e+02
<TRANSP> 5
 0.000000e+00 1.000000e+00 0.000000e+00 0.000000e+00 0.000000e+00
 0.000000e+00 8.848688e-01 1.151311e-01 0.000000e+00 0.000000e+00
 0.000000e+00 0.000000e+00 8.842025e-01 1.157975e-01 0.000000e+00
 0.000000e+00 0.000000e+00 0.000000e+00 9.965159e-01 3.484157e-03
 0.000000e+00 0.000000e+00 0.000000e+00 0.000000e+00 0.000000e+00
<ENDHMM>
