~o
<STREAMINFO> 1 39
<VECSIZE> 39<NULLD><MFCC_E_D_A_Z><DIAGC>
~h "ey"
<BEGINHMM>
<NUMSTATES> 5
<STATE> 2
<MEAN> 39
 -7.262928e+00 -1.006120e+00 -2.865302e+00 3.533681e+00 2.752052e+00 1.408236e+00 3.023504e+00 1.964870e+00 1.727309e+00 -4.646597e-01 1.381126e+00 2.176213e+00 -9.407953e+00 -8.528098e-02 3.043154e-01 4.706205e-02 8.548673e-02 8.956361e-02 1.593092e-01 1.010814e-01 -2.613906e-02 3.038383e-02 1.255943e-01 3.329324e-02 -2.800538e-02 -3.653341e-02 -4.481148e-02 7.516978e-02 8.217772e-02 5.600494e-02 5.055446e-02 3.638018e-02 9.857350e-03 -1.074197e-02 1.602011e-02 5.206241e-02 2.071400e-02 -1.236259e-02 -2.501635e-03
<VARIANCE> 39
 1.591453e+01 3.093058e+01 2.668011e+01 2.534490e+01 2.617426e+01 3.476429e+01 2.697392e+01 2.746768e+01 2.616126e+01 2.808298e+01 2.802421e+01 1.822491e+01 2.153311e+00 6.479637e-01 1.409168e+00 1.200428e+00 1.277078e+00 1.449585e+00 1.647895e+00 1.745545e+00 1.779065e+00 1.815733e+00 1.896033e+00 1.591337e+00 1.455240e+00 6.349821e-02 1.075830e-01 1.750163e-01 2.062836e-01 2.149002e-01 2.503767e-01 2.604604e-01 2.965604e-01 2.997251e-01 3.091946e-01 3.161460e-01 2.639964e-01 2.477413e-01 1.000000e-02
<GCONST> 9.117912e+01
<STATE> 3
<MEAN> 39
 -9.163720e+00 4.331959e+00 -1.013199e+00 7.326290e+00 4.833266e+00 4.782355e+00 4.367446e+00 1.132099e+00 2.441083e+00 1.312714e+00 1.502880e+00 1.607116e+00 -1.050254e+01 -4.676050e-02 9.999167e-02 1.756318e-01 4.148629e-02 8.689936e-02 4.132723e-02 2.966332e-02 -9.082158e-02 -9.322283e-02 8.511820e-02 -3.862891e-02 -1.104977e-01 1.542892e-02 1.379932e-01 -1.076274e-01 -4.196327e-02 -1.230745e-01 -9.061933e-02 -8.660590e-02 -2.805496e-02 -1.134901e-02 -4.104526e-02 -6.482185e-02 -4.777892e-02 -4.039931e-03 6.915548e-02
<VARIANCE> 39
 9.480912e+00 1.002819e+01 1.769541e+01 1.957765e+01 1.789090e+01 2.123703e+01 2.229123e+01 2.184686e+01 2.340034e+01 1.988237e+01 2.217647e+01 1.516470e+01 1.000000e-02 6.666266e-01 9.229094e-01 1.281360e+00 1.471833e+00 1.540973e+00 1.580007e+00 1.696397e+00 1.807947e+00 1.850875e+00 1.856941e+00 1.629138e+00 1.441412e+00 1.000000e-02 1.623608e-01 2.119927e-01 2.606022e-01 3.118296e-01 3.117614e-01 3.240368e-01 3.546346e-01 3.660404e-01 3.784525e-01 3.725768e-01 3.312591e-01 2.922035e-01 1.641279e-02
<GCONST> 8.258848e+01
<STATE> 4
<MEAN> 39
 3.528997e-01 -9.692544e-02 7.148951e-02 -2.463511e-01 -1.691475e-01 -1.466642e-01 -1.612957e-01 -6.040699e-02 -9.074131e-02 -2.685573e-02 -6.086790e-02 -7.609992e-02 -3.724070e+00 6.416362e-03 -2.660467e-03 -4.500594e-03 -1.618169e-03 1.458074e-03 -3.482385e-03 -1.507452e-03 -1.926252e-03 -1.975365e-03 -3.738663e-03 -2.804547e-03 1.230851e-03 6.372714e-04 -2.988609e-03 1.397037e-03 -5.802335e-05 2.322769e-03 1.186549e-03 1.484997e-03 3.495860e-04 6.648652e-04 1.111121e-03 7.637865e-04 1.073868e-03 4.855789e-04 -1.802047e-03
<VARIANCE> 39
 9.768913e+01 5.480201e+01 6.825824e+01 7.025429e+01 7.004828e+01 6.310701e+01 6.553698e+01 5.761072e+01 5.411056e+01 4.075594e+01 3.845376e+01 3.128961e+01 1.012971e+01 4.992007e+00 3.618766e+00 3.298084e+00 4.303041e+00 4.328213e+00 4.186411e+00 4.461285e+00 4.400096e+00 3.990102e+00 3.266016e+00 3.015768e+00 2.474473e+00 4.946418e-01 6.911731e-01 5.992934e-01 5.089284e-01 7.000111e-01 7.041586e-01 7.088604e-01 7.650825e-01 7.767112e-01 7.037336e-01 6.020446e-01 5.486404e-01 4.535220e-01 7.440279e-02
<GCONST> 1.297925e+02
<TRANSP> 5
 0.000000e+00 1.000000e+00 0.000000e+00 0.000000e+00 0.000000e+00
 0.000000e+00 7.825921e-01 2.174079e-01 0.000000e+00 0.000000e+00
 0.000000e+00 0.000000e+00 8.685012e-01 1.314988e-01 0.000000e+00
 0.000000e+00 0.000000e+00 0.000000e+00 9.965769e-01 3.423101e-03
 0.000000e+00 0.000000e+00 0.000000e+00 0.000000e+00 0.000000e+00
<ENDHMM>
