~o
<STREAMINFO> 1 39
<VECSIZE> 39<NULLD><MFCC_E_D_A_Z><DIAGC>
~h "f"
<BEGINHMM>
<NUMSTATES> 5
<STATE> 2
<MEAN> 39
 -7.257066e+00 -9.968818e-01 -2.877285e+00 3.533616e+00 2.752517e+00 1.409466e+00 3.025828e+00 1.964126e+00 1.730326e+00 -4.655693e-01 1.374023e+00 2.177328e+00 -9.413003e+00 -8.701056e-02 3.075778e-01 4.924405e-02 8.676012e-02 9.084969e-02 1.608062e-01 1.014482e-01 -2.715491e-02 3.062904e-02 1.272575e-01 3.408504e-02 -2.864198e-02 -3.650602e-02 -4.512947e-02 7.498663e-02 8.308910e-02 5.652369e-02 5.103071e-02 3.649677e-02 9.718408e-03 -1.079585e-02 1.612282e-02 5.245886e-02 2.094958e-02 -1.247883e-02 -2.419875e-03
<VARIANCE> 39
 1.587828e+01 3.085966e+01 2.667059e+01 2.531498e+01 2.614318e+01 3.472240e+01 2.697069e+01 2.744135e+01 2.616693e+01 2.806520e+01 2.800621e+01 1.823207e+01 2.148632e+00 6.450984e-01 1.410608e+00 1.202530e+00 1.275819e+00 1.449163e+00 1.648011e+00 1.745529e+00 1.777623e+00 1.817283e+00 1.897275e+00 1.592726e+00 1.456521e+00 6.319726e-02 1.067780e-01 1.747566e-01 2.062414e-01 2.145251e-01 2.502261e-01 2.602612e-01 2.964219e-01 2.994218e-01 3.095922e-01 3.164470e-01 2.643408e-01 2.479805e-01 1.000000e-02
<GCONST> 9.115225e+01
<STATE> 3
<MEAN> 39
 -9.171348e+00 4.339201e+00 -1.003119e+00 7.334182e+00 4.839878e+00 4.787777e+00 4.368722e+00 1.128685e+00 2.442003e+00 1.318472e+00 1.504871e+00 1.605078e+00 -1.050252e+01 -4.553158e-02 9.772555e-02 1.745520e-01 4.054054e-02 8.601870e-02 4.003569e-02 2.919363e-02 -9.046757e-02 -9.371704e-02 8.400875e-02 -3.922224e-02 -1.103096e-01 1.559053e-02 1.387252e-01 -1.079325e-01 -4.277279e-02 -1.238900e-01 -9.128096e-02 -8.699295e-02 -2.811386e-02 -1.132508e-02 -4.130698e-02 -6.531103e-02 -4.808777e-02 -3.968280e-03 6.935742e-02
<VARIANCE> 39
 9.462620e+00 1.000830e+01 1.764661e+01 1.955187e+01 1.786915e+01 2.121740e+01 2.228632e+01 2.184180e+01 2.339416e+01 1.985439e+01 2.215853e+01 1.515789e+01 1.000000e-02 6.671137e-01 9.193178e-01 1.280070e+00 1.471848e+00 1.541611e+00 1.579634e+00 1.696176e+00 1.808279e+00 1.850522e+00 1.856020e+00 1.628671e+00 1.441052e+00 1.000000e-02 1.626500e-01 2.121520e-01 2.605642e-01 3.118511e-01 3.119643e-01 3.242756e-01 3.548014e-01 3.661993e-01 3.784101e-01 3.724845e-01 3.312734e-01 2.922517e-01 1.647492e-02
<GCONST> 8.257819e+01
<STATE> 4
<MEAN> 39
 3.528463e-01 -9.699895e-02 7.148519e-02 -2.463330e-01 -1.691982e-01 -1.466423e-01 -1.612714e-01 -6.033149e-02 -9.076188e-02 -2.690525e-02 -6.078935e-02 -7.607439e-02 -3.724085e+00 6.413195e-03 -2.661030e-03 -4.500338e-03 -1.615348e-03 1.461267e-03 -3.477056e-03 -1.503528e-03 -1.922521e-03 -1.971956e-03 -3.737284e-03 -2.804878e-03 1.231390e-03 6.349802e-04 -2.993801e-03 1.399236e-03 -5.703309e-05 2.327289e-03 1.189573e-03 1.487489e-03 3.516804e-04 6.650127e-04 1.113648e-03 7.647058e-04 1.074842e-03 4.859119e-04 -1.805002e-03
<VARIANCE> 39
 9.768884e+01 5.480112e+01 6.825800e+01 7.025352e+01 7.004746e+01 6.310695e+01 6.553754e+01 5.761072e+01 5.411038e+01 4.075520e+01 3.845348e+01 3.128946e+01 1.012976e+01 4.992029e+00 3.618784e+00 3.298091e+00 4.303027e+00 4.328228e+00 4.186338e+00 4.461272e+00 4.400023e+00 3.990039e+00 3.265984e+00 3.015751e+00 2.474450e+00 4.946422e-01 6.911737e-01 5.992905e-01 5.089253e-01 7.000086e-01 7.041472e-01 7.088570e-01 7.650804e-01 7.766919e-01 7.037276e-01 6.020331e-01 5.486357e-01 4.535186e-01 7.440149e-02
<GCONST> 1.297923e+02
<TRANSP> 5
 0.000000e+00 1.000000e+00 0.000000e+00 0.000000e+00 0.000000e+00
 0.000000e+00 7.831685e-01 2.168315e-01 0.000000e+00 0.000000e+00
 0.000000e+00 0.000000e+00 8.682467e-01 1.317532e-01 0.000000e+00
 0.000000e+00 0.000000e+00 0.000000e+00 9.965770e-01 3.423077e-03
 0.000000e+00 0.000000e+00 0.000000e+00 0.000000e+00 0.000000e+00
<ENDHMM>
