~o
<STREAMINFO> 1 39
<VECSIZE> 39<NULLD><MFCC_E_D_A_Z><DIAGC>
~h "g"
<BEGINHMM>
<NUMSTATES> 5
<STATE> 2
<MEAN> 39
 -8.488796e+00 2.672177e+00 -1.709621e+00 6.060616e+00 4.120255e+00 3.678890e+00 3.948626e+00 1.342476e+00 2.191213e+00 7.189115e-01 1.389744e+00 1.791772e+00 -1.022115e+01 -6.036539e-02 1.545284e-01 1.203254e-01 3.307887e-02 7.530788e-02 7.107285e-02 5.346006e-02 -7.538937e-02 -5.248061e-02 9.769329e-02 -1.764131e-02 -7.952280e-02 1.080790e-02 6.761642e-02 -3.519507e-02 8.661938e-03 -5.276081e-02 -3.794639e-02 -4.022108e-02 -1.398235e-02 -1.015975e-02 -1.782689e-02 -2.008587e-02 -2.006144e-02 -7.118755e-03 4.613062e-02
<VARIANCE> 39
 1.259307e+01 2.141470e+01 2.185378e+01 2.431787e+01 2.141475e+01 2.779391e+01 2.415230e+01 2.372912e+01 2.422913e+01 2.325395e+01 2.411448e+01 1.616379e+01 5.682916e-01 6.502239e-01 1.069834e+00 1.221920e+00 1.388278e+00 1.467945e+00 1.586949e+00 1.681858e+00 1.761670e+00 1.799357e+00 1.837468e+00 1.600299e+00 1.437722e+00 2.496721e-02 1.467282e-01 1.983542e-01 2.363328e-01 2.765074e-01 2.836530e-01 2.990915e-01 3.254994e-01 3.332598e-01 3.435876e-01 3.472114e-01 3.026522e-01 2.722559e-01 1.380558e-02
<GCONST> 8.860265e+01
<STATE> 3
<MEAN> 39
 9.170914e-01 -3.064811e-01 2.608084e-01 -6.082370e-01 -5.858856e-01 -3.257522e-01 -5.002605e-01 -1.168674e-01 -1.975269e-01 -4.317412e-02 -5.163294e-02 -1.988995e-01 -3.321900e+00 1.048913e-02 -6.592978e-03 -1.505234e-03 -1.085963e-02 -4.045519e-04 -1.028799e-02 5.962841e-04 -1.678506e-04 -3.895588e-03 -5.344227e-03 -6.024657e-03 6.626885e-04 1.102216e-02 -4.812080e-03 6.005484e-04 -2.208233e-03 2.932276e-03 2.166618e-03 2.231194e-03 1.388050e-03 9.318659e-04 1.304903e-03 6.988065e-04 1.066452e-03 1.189603e-03 -2.891660e-03
<VARIANCE> 39
 9.852115e+01 5.679002e+01 7.105676e+01 7.132140e+01 7.118327e+01 6.506568e+01 6.672591e+01 5.967910e+01 5.591732e+01 4.165343e+01 3.922066e+01 3.200518e+01 8.364538e+00 5.330667e+00 3.842680e+00 3.483506e+00 4.548796e+00 4.567800e+00 4.390743e+00 4.683508e+00 4.609885e+00 4.168467e+00 3.385188e+00 3.129069e+00 2.558233e+00 5.285024e-01 7.384722e-01 6.368567e-01 5.364934e-01 7.392057e-01 7.411470e-01 7.418137e-01 8.012795e-01 8.126177e-01 7.339929e-01 6.237420e-01 5.686342e-01 4.681469e-01 7.987949e-02
<GCONST> 1.311842e+02
<STATE> 4
<MEAN> 39
 -6.635503e+00 2.304511e+00 -2.259256e+00 4.173303e+00 4.927451e+00 2.006300e+00 3.979851e+00 7.078248e-01 1.237461e+00 1.436919e-01 -1.081711e-01 1.465152e+00 -8.653599e+00 -4.474867e-02 6.034989e-02 -3.467001e-02 1.247971e-01 3.235709e-02 8.853434e-02 -2.425299e-02 -1.975752e-02 2.354081e-02 1.914179e-02 3.930363e-02 6.631493e-03 -1.332859e-01 2.128915e-02 8.414662e-03 2.408077e-02 -7.670715e-03 -1.115595e-02 -8.380339e-03 -1.239808e-02 -3.305176e-03 -2.537159e-03 7.749610e-04 -2.867391e-04 -8.230163e-03 1.015064e-02
<VARIANCE> 39
 3.448492e+01 2.467411e+01 2.772233e+01 3.551075e+01 2.774251e+01 3.396383e+01 3.200514e+01 3.173215e+01 3.001015e+01 2.975637e+01 2.922244e+01 2.004649e+01 5.346790e+00 8.175098e-01 8.855270e-01 1.033141e+00 1.263502e+00 1.395858e+00 1.668976e+00 1.737672e+00 1.831395e+00 1.811885e+00 1.814928e+00 1.624429e+00 1.447714e+00 5.852144e-02 1.098742e-01 1.413529e-01 1.735776e-01 2.210996e-01 2.536365e-01 3.047472e-01 3.226312e-01 3.378294e-01 3.359309e-01 3.388700e-01 3.047984e-01 2.747547e-01 1.000000e-02
<GCONST> 9.362515e+01
<TRANSP> 5
 0.000000e+00 1.000000e+00 0.000000e+00 0.000000e+00 0.000000e+00
 0.000000e+00 9.150830e-01 8.491707e-02 0.000000e+00 0.000000e+00
 0.000000e+00 0.000000e+00 9.963000e-01 3.699995e-03 0.000000e+00
 0.000000e+00 0.000000e+00 0.000000e+00 9.551345e-01 4.486557e-02
 0.000000e+00 0.000000e+00 0.000000e+00 0.000000e+00 0.000000e+00
<ENDHMM>
