~o
<STREAMINFO> 1 39
<VECSIZE> 39<NULLD><MFCC_E_D_A_Z><DIAGC>
~h "hh"
<BEGINHMM>
<NUMSTATES> 5
<STATE> 2
<MEAN> 39
 3.357755e-01 -1.835544e-01 1.973488e-01 -2.540897e-01 -3.549238e-01 -1.738989e-01 -4.041668e-01 -7.797892e-02 -1.193103e-01 3.180673e-02 4.803098e-02 -1.220170e-01 -3.615084e+00 3.647862e-02 -1.118600e-02 9.169353e-03 -3.011256e-02 -1.724840e-02 -1.662667e-02 -1.350073e-02 -4.072059e-03 -7.096530e-03 6.069491e-04 -5.479271e-03 -6.650264e-03 2.642027e-02 2.303703e-04 -1.734107e-03 -1.166345e-03 -1.283891e-03 -6.639087e-04 5.252840e-04 1.024479e-03 1.119482e-03 3.718399e-04 -8.164693e-04 -3.700568e-04 2.981970e-04 3.795607e-04
<VARIANCE> 39
 9.965076e+01 5.661588e+01 6.837512e+01 7.160445e+01 7.004948e+01 6.421275e+01 6.609805e+01 5.845811e+01 5.505783e+01 4.104476e+01 3.891009e+01 3.162009e+01 1.031936e+01 5.413444e+00 3.924056e+00 3.509380e+00 4.614015e+00 4.615509e+00 4.432117e+00 4.742974e+00 4.643969e+00 4.212079e+00 3.429066e+00 3.162690e+00 2.587357e+00 5.420765e-01 7.580723e-01 6.546931e-01 5.469314e-01 7.558346e-01 7.550246e-01 7.551740e-01 8.176140e-01 8.240491e-01 7.463295e-01 6.357123e-01 5.780576e-01 4.760093e-01 8.333825e-02
<GCONST> 1.317039e+02
<STATE> 3
<MEAN> 39
 2.818097e-01 1.719018e-01 -4.518293e-01 -3.135450e-01 4.480996e-01 1.586623e-01 1.120930e+00 3.410698e-01 3.663347e-01 -3.722493e-01 -3.637665e-01 1.981804e-01 -4.136466e+00 -1.560219e-01 4.543087e-02 -6.951705e-02 1.564849e-01 1.522648e-01 8.324550e-02 1.017839e-01 -5.858066e-05 5.202208e-03 -2.382469e-02 -1.470117e-02 2.766950e-02 -1.464476e-01 -9.527981e-03 1.277590e-02 -7.496873e-04 1.575579e-02 3.280810e-03 1.105658e-03 -4.626337e-03 -4.948116e-03 2.079378e-04 6.284770e-03 6.339355e-03 2.131602e-03 -1.009091e-02
<VARIANCE> 39
 9.535767e+01 4.515237e+01 6.858393e+01 6.456976e+01 6.814890e+01 5.903229e+01 5.935675e+01 5.307900e+01 4.977087e+01 3.810009e+01 3.596188e+01 2.926413e+01 7.844078e+00 2.551789e+00 1.936102e+00 2.192335e+00 2.542938e+00 2.716021e+00 2.786303e+00 2.822482e+00 3.006689e+00 2.718729e+00 2.332552e+00 2.153636e+00 1.820889e+00 1.867757e-01 3.171591e-01 2.952040e-01 3.121979e-01 3.957975e-01 4.231257e-01 4.417302e-01 4.601227e-01 5.029716e-01 4.595442e-01 4.067839e-01 3.758134e-01 3.210731e-01 2.385235e-02
<GCONST> 1.152483e+02
<STATE> 4
<MEAN> 39
 -6.568386e+00 2.731097e+00 -2.232214e+00 5.234944e+00 4.975764e+00 2.598496e+00 4.055764e+00 4.534036e-01 1.103813e+00 4.298440e-01 1.260084e-01 1.594212e+00 -9.884275e+00 -1.437217e-01 1.696180e-01 4.060868e-02 1.260213e-01 1.054943e-03 7.097889e-02 -1.692935e-02 -2.390929e-02 3.036556e-02 6.144777e-02 6.762985e-02 3.769341e-04 -6.282102e-02 1.907478e-02 -8.059490e-03 2.510159e-02 -1.926072e-02 -4.714546e-03 -1.598764e-02 -1.011584e-02 -2.335931e-03 -1.055644e-03 -4.501521e-03 -7.150603e-03 -7.053704e-03 1.919496e-02
<VARIANCE> 39
 1.575203e+01 2.003725e+01 2.292092e+01 2.584678e+01 2.178573e+01 2.959554e+01 2.822668e+01 2.800121e+01 2.666832e+01 2.837364e+01 2.687158e+01 1.843574e+01 8.656484e-01 3.986690e-01 6.525444e-01 8.375696e-01 1.031946e+00 1.177129e+00 1.441391e+00 1.573942e+00 1.674199e+00 1.692740e+00 1.736419e+00 1.563439e+00 1.387955e+00 2.076131e-02 6.860201e-02 1.118669e-01 1.462702e-01 1.861958e-01 2.205559e-01 2.718200e-01 2.961353e-01 3.123463e-01 3.156815e-01 3.269384e-01 2.932828e-01 2.635660e-01 1.000000e-02
<GCONST> 8.452677e+01
<TRANSP> 5
 0.000000e+00 1.000000e+00 0.000000e+00 0.000000e+00 0.000000e+00
 0.000000e+00 9.960253e-01 3.974720e-03 0.000000e+00 0.000000e+00
 0.000000e+00 0.000000e+00 9.738513e-01 2.614867e-02 0.000000e+00
 0.000000e+00 0.000000e+00 0.000000e+00 9.310441e-01 6.895594e-02
 0.000000e+00 0.000000e+00 0.000000e+00 0.000000e+00 0.000000e+00
<ENDHMM>
