~o
<STREAMINFO> 1 39
<VECSIZE> 39<NULLD><MFCC_E_D_A_Z><DIAGC>
~h "ih"
<BEGINHMM>
<NUMSTATES> 5
<STATE> 2
<MEAN> 39
 -8.639686e+00 3.204860e+00 -1.708457e+00 6.614159e+00 4.272222e+00 4.001464e+00 4.007381e+00 1.249361e+00 2.320378e+00 7.985589e-01 1.377241e+00 1.823666e+00 -1.042822e+01 -1.125734e-01 1.723024e-01 1.364321e-01 7.691735e-02 1.190068e-01 9.386361e-02 5.259742e-02 -8.226932e-02 -5.171961e-02 1.195786e-01 6.190162e-03 -7.777309e-02 -5.768505e-03 4.748707e-02 -2.935458e-02 3.430579e-03 -4.085061e-02 -2.341616e-02 -2.433803e-02 2.981833e-03 9.956519e-04 -1.140363e-02 -1.219759e-02 -1.349824e-02 -3.848212e-03 2.713360e-02
<VARIANCE> 39
 1.104223e+01 1.618396e+01 1.995666e+01 2.118134e+01 1.965800e+01 2.454138e+01 2.318219e+01 2.258064e+01 2.365687e+01 2.187592e+01 2.328012e+01 1.563339e+01 9.324186e-02 4.510034e-01 7.772493e-01 1.019908e+00 1.156515e+00 1.295413e+00 1.436341e+00 1.558577e+00 1.658828e+00 1.704204e+00 1.743959e+00 1.526707e+00 1.380584e+00 1.000000e-02 9.582784e-02 1.389136e-01 1.908197e-01 2.237499e-01 2.399388e-01 2.580867e-01 2.906810e-01 3.058046e-01 3.155314e-01 3.216009e-01 2.828535e-01 2.545355e-01 1.000000e-02
<GCONST> 8.084066e+01
<STATE> 3
<MEAN> 39
 -7.997373e+00 1.515787e+00 -1.458745e+00 4.395232e+00 3.827217e+00 2.795135e+00 4.022753e+00 1.289095e+00 1.752307e+00 6.222781e-01 9.710865e-01 1.526277e+00 -8.694525e+00 7.047991e-01 -8.988219e-02 1.720416e-01 -4.698004e-01 -3.830391e-01 -3.348291e-01 -2.181633e-01 -1.680916e-01 -1.778563e-01 -9.639625e-02 -1.827805e-01 -1.197128e-01 5.073971e-01 2.673832e-01 -6.690764e-02 5.082980e-02 -1.605913e-01 -1.723324e-01 -1.314661e-01 -1.716951e-01 -4.820841e-02 -5.486557e-02 -2.464511e-02 -2.667063e-02 -3.329188e-02 1.438371e-01
<VARIANCE> 39
 2.368487e+01 3.801667e+01 3.191680e+01 3.378894e+01 3.018137e+01 3.618890e+01 2.992994e+01 2.949182e+01 2.810543e+01 2.692587e+01 2.791014e+01 1.915800e+01 4.364270e+00 3.476429e+00 2.889301e+00 2.703756e+00 3.263649e+00 2.954459e+00 2.978101e+00 2.876518e+00 2.661166e+00 2.681908e+00 2.448322e+00 2.210015e+00 1.875930e+00 5.955414e-01 4.839675e-01 5.048354e-01 4.833981e-01 5.779377e-01 5.119285e-01 5.299041e-01 5.512273e-01 5.001367e-01 5.044843e-01 4.787604e-01 4.353216e-01 3.703640e-01 7.174720e-02
<GCONST> 1.139488e+02
<STATE> 4
<MEAN> 39
 5.042689e-01 -1.431780e-01 9.600613e-02 -3.338073e-01 -2.455018e-01 -2.060646e-01 -2.433721e-01 -7.693183e-02 -1.234689e-01 -4.307307e-02 -7.119735e-02 -1.015472e-01 -3.640882e+00 -1.397074e-02 2.305117e-03 -8.519822e-03 1.269492e-02 1.319355e-02 7.379444e-03 5.872724e-03 2.795974e-03 2.956143e-03 -2.533902e-04 1.994357e-03 3.858361e-03 -1.469859e-02 -9.632921e-03 2.689928e-03 -1.495450e-03 6.098417e-03 5.540121e-03 4.515134e-03 4.872766e-03 1.631834e-03 2.306038e-03 1.009934e-03 1.375515e-03 1.312939e-03 -5.216301e-03
<VARIANCE> 39
 9.765684e+01 5.503421e+01 6.881960e+01 7.044510e+01 7.041309e+01 6.342463e+01 6.577883e+01 5.809069e+01 5.450204e+01 4.100857e+01 3.863773e+01 3.146458e+01 9.829454e+00 4.976401e+00 3.620863e+00 3.297589e+00 4.299821e+00 4.337194e+00 4.193603e+00 4.479232e+00 4.424420e+00 4.006821e+00 3.277453e+00 3.024814e+00 2.481799e+00 4.786572e-01 6.903890e-01 5.993255e-01 5.080224e-01 6.997055e-01 7.057244e-01 7.102399e-01 7.666960e-01 7.807737e-01 7.065578e-01 6.037627e-01 5.498703e-01 4.544763e-01 7.344831e-02
<GCONST> 1.298203e+02
<TRANSP> 5
 0.000000e+00 1.000000e+00 0.000000e+00 0.000000e+00 0.000000e+00
 0.000000e+00 8.852503e-01 1.147497e-01 0.000000e+00 0.000000e+00
 0.000000e+00 0.000000e+00 8.847708e-01 1.152292e-01 0.000000e+00
 0.000000e+00 0.000000e+00 0.000000e+00 9.965150e-01 3.485031e-03
 0.000000e+00 0.000000e+00 0.000000e+00 0.000000e+00 0.000000e+00
<ENDHMM>
