~o
<STREAMINFO> 1 39
<VECSIZE> 39<NULLD><MFCC_E_D_A_Z><DIAGC>
~h "ix"
<BEGINHMM>
<NUMSTATES> 5
<STATE> 2
<MEAN> 39
 6.564907e-01 -2.235535e-01 2.034550e-01 -4.051015e-01 -4.674412e-01 -1.681803e-01 -3.805501e-01 -6.867982e-02 -1.098071e-01 -5.012055e-02 6.000118e-03 -1.474275e-01 -3.540234e+00 2.892839e-03 8.587338e-05 2.488079e-03 -7.745544e-03 4.628007e-03 -6.371351e-03 4.044956e-03 -2.960507e-03 -4.166749e-03 1.145889e-04 -5.414609e-03 -1.872968e-03 9.936616e-03 -1.665719e-03 -1.065337e-03 -1.709929e-03 6.521886e-04 1.460385e-04 3.174022e-04 3.875611e-04 6.260600e-04 4.748921e-04 -2.040899e-04 3.153218e-04 8.127308e-04 -9.249296e-04
<VARIANCE> 39
 9.937548e+01 5.400909e+01 7.015574e+01 6.862230e+01 6.963592e+01 6.329469e+01 6.601860e+01 5.669155e+01 5.408134e+01 4.020441e+01 3.791919e+01 3.171033e+01 9.813685e+00 4.955709e+00 3.499035e+00 3.268633e+00 4.070491e+00 4.227820e+00 4.095101e+00 4.388776e+00 4.228494e+00 3.910370e+00 3.167682e+00 2.936543e+00 2.447610e+00 4.792024e-01 6.800900e-01 5.765579e-01 4.980825e-01 6.584018e-01 6.808019e-01 6.871546e-01 7.462962e-01 7.401301e-01 6.859904e-01 5.785949e-01 5.310896e-01 4.436437e-01 7.170957e-02
<GCONST> 1.289814e+02
<STATE> 3
<MEAN> 39
 -7.687928e+00 2.109328e+00 -2.117452e+00 4.629374e+00 4.599590e+00 2.149416e+00 3.839251e+00 9.439131e-01 1.576628e+00 4.341381e-01 5.297657e-01 1.680374e+00 -9.249935e+00 -2.588297e-02 7.476149e-02 1.611731e-02 7.448523e-02 2.764528e-02 6.518194e-02 -1.297033e-02 -2.546836e-02 1.716280e-03 3.393650e-02 2.118899e-02 -1.849560e-02 -6.692503e-02 2.481871e-02 -6.497176e-04 1.744112e-02 -1.524018e-02 -1.049621e-02 -9.904191e-03 -5.518571e-03 -3.883216e-03 -4.203516e-03 -4.038658e-03 -5.225083e-03 -6.312363e-03 1.558458e-02
<VARIANCE> 39
 2.192815e+01 2.538433e+01 2.287105e+01 2.954424e+01 2.330736e+01 3.158422e+01 2.767196e+01 2.709559e+01 2.692811e+01 2.695396e+01 2.694798e+01 1.797213e+01 3.378529e+00 6.185021e-01 8.154591e-01 9.155609e-01 1.129007e+00 1.264837e+00 1.511236e+00 1.580148e+00 1.645829e+00 1.666357e+00 1.720925e+00 1.523066e+00 1.355356e+00 4.292747e-02 1.025825e-01 1.408464e-01 1.706383e-01 2.165844e-01 2.473942e-01 2.923053e-01 3.109805e-01 3.255911e-01 3.299660e-01 3.399635e-01 3.015315e-01 2.712526e-01 1.000000e-02
<GCONST> 8.955741e+01
<STATE> 4
<MEAN> 39
 4.545052e-01 -7.135167e-02 9.737222e-02 -2.616613e-01 -1.802020e-01 -1.459444e-01 -1.622306e-01 -7.044914e-02 -1.237030e-01 -9.638126e-03 -9.425679e-02 -9.450713e-02 -3.654319e+00 9.547868e-03 -1.495970e-03 -3.833657e-03 -8.465559e-04 1.563155e-03 -2.630636e-03 -8.743768e-04 -2.982380e-03 -4.172062e-03 -4.663892e-03 -4.370100e-03 5.428945e-04 -1.642705e-04 -2.258729e-03 9.073215e-04 -4.307647e-04 1.699962e-03 6.776545e-04 7.830049e-04 -8.873762e-05 3.278438e-04 7.832746e-04 6.742057e-04 8.281419e-04 4.635086e-04 -1.514581e-03
<VARIANCE> 39
 9.664336e+01 5.747412e+01 6.846465e+01 7.434822e+01 7.153020e+01 6.522809e+01 6.612843e+01 6.062439e+01 5.583846e+01 4.210286e+01 3.983488e+01 3.137909e+01 9.604940e+00 5.347111e+00 3.990838e+00 3.533663e+00 4.834256e+00 4.687438e+00 4.493519e+00 4.763603e+00 4.817243e+00 4.266064e+00 3.509497e+00 3.225760e+00 2.595193e+00 5.427394e-01 7.507080e-01 6.654168e-01 5.526240e-01 7.913179e-01 7.691281e-01 7.657218e-01 8.218556e-01 8.544340e-01 7.538217e-01 6.506480e-01 5.880307e-01 4.787734e-01 8.323520e-02
<GCONST> 1.321638e+02
<TRANSP> 5
 0.000000e+00 1.000000e+00 0.000000e+00 0.000000e+00 0.000000e+00
 0.000000e+00 9.936004e-01 6.399603e-03 0.000000e+00 0.000000e+00
 0.000000e+00 0.000000e+00 9.520708e-01 4.792923e-02 0.000000e+00
 0.000000e+00 0.000000e+00 0.000000e+00 9.921392e-01 7.860888e-03
 0.000000e+00 0.000000e+00 0.000000e+00 0.000000e+00 0.000000e+00
<ENDHMM>
