~o
<STREAMINFO> 1 39
<VECSIZE> 39<NULLD><MFCC_E_D_A_Z><DIAGC>
~h "iy"
<BEGINHMM>
<NUMSTATES> 5
<STATE> 2
<MEAN> 39
 -7.262753e+00 -1.005840e+00 -2.866660e+00 3.533477e+00 2.751875e+00 1.409197e+00 3.025017e+00 1.965064e+00 1.727910e+00 -4.648934e-01 1.381173e+00 2.176596e+00 -9.407993e+00 -8.559685e-02 3.052262e-01 4.785082e-02 8.604924e-02 8.992130e-02 1.595493e-01 1.011663e-01 -2.621258e-02 3.049492e-02 1.261062e-01 3.358374e-02 -2.807131e-02 -3.656358e-02 -4.484867e-02 7.507684e-02 8.230301e-02 5.606641e-02 5.057826e-02 3.632582e-02 9.746534e-03 -1.083496e-02 1.599822e-02 5.204897e-02 2.071874e-02 -1.239701e-02 -2.488953e-03
<VARIANCE> 39
 1.591650e+01 3.093281e+01 2.668602e+01 2.534632e+01 2.618019e+01 3.477059e+01 2.697991e+01 2.747026e+01 2.616182e+01 2.808492e+01 2.802593e+01 1.822547e+01 2.153226e+00 6.486800e-01 1.411577e+00 1.202555e+00 1.278224e+00 1.450445e+00 1.648640e+00 1.746219e+00 1.779557e+00 1.816525e+00 1.897321e+00 1.591972e+00 1.455712e+00 6.349596e-02 1.076587e-01 1.751598e-01 2.064130e-01 2.149703e-01 2.504476e-01 2.605097e-01 2.966708e-01 2.998047e-01 3.093165e-01 3.162996e-01 2.641052e-01 2.478150e-01 1.000000e-02
<GCONST> 9.119463e+01
<STATE> 3
<MEAN> 39
 -9.164018e+00 4.331867e+00 -1.012255e+00 7.326643e+00 4.833190e+00 4.781859e+00 4.366568e+00 1.131855e+00 2.440732e+00 1.312861e+00 1.502918e+00 1.606851e+00 -1.050255e+01 -4.675306e-02 9.953710e-02 1.752213e-01 4.129853e-02 8.677689e-02 4.124312e-02 2.960876e-02 -9.074111e-02 -9.323014e-02 8.489548e-02 -3.868386e-02 -1.103892e-01 1.539488e-02 1.379278e-01 -1.075796e-01 -4.207112e-02 -1.230849e-01 -9.059849e-02 -8.654875e-02 -2.793957e-02 -1.125103e-02 -4.100117e-02 -6.479290e-02 -4.776364e-02 -3.995786e-03 6.909167e-02
<VARIANCE> 39
 9.477849e+00 1.002685e+01 1.768597e+01 1.957252e+01 1.788626e+01 2.123421e+01 2.228890e+01 2.184201e+01 2.339855e+01 1.987988e+01 2.217358e+01 1.516291e+01 1.000000e-02 6.657763e-01 9.207540e-01 1.279694e+00 1.470696e+00 1.540151e+00 1.579083e+00 1.695822e+00 1.807377e+00 1.850062e+00 1.855917e+00 1.628531e+00 1.440931e+00 1.000000e-02 1.621828e-01 2.118465e-01 2.603998e-01 3.116920e-01 3.116320e-01 3.239138e-01 3.545349e-01 3.659205e-01 3.783117e-01 3.724384e-01 3.311545e-01 2.921102e-01 1.639343e-02
<GCONST> 8.256990e+01
<STATE> 4
<MEAN> 39
 3.528408e-01 -9.689595e-02 7.148005e-02 -2.463053e-01 -1.691089e-01 -1.466327e-01 -1.612661e-01 -6.039606e-02 -9.072473e-02 -2.684629e-02 -6.085932e-02 -7.608820e-02 -3.724130e+00 6.421064e-03 -2.662136e-03 -4.501090e-03 -1.621327e-03 1.456432e-03 -3.483797e-03 -1.507166e-03 -1.927396e-03 -1.976831e-03 -3.740575e-03 -2.807949e-03 1.228414e-03 6.387543e-04 -2.985321e-03 1.396387e-03 -5.752787e-05 2.321135e-03 1.185061e-03 1.483879e-03 3.483301e-04 6.638312e-04 1.110095e-03 7.627145e-04 1.072826e-03 4.848273e-04 -1.800096e-03
<VARIANCE> 39
 9.768538e+01 5.479965e+01 6.825588e+01 7.025179e+01 7.004598e+01 6.310463e+01 6.553457e+01 5.760821e+01 5.410850e+01 4.075395e+01 3.845164e+01 3.128849e+01 1.012988e+01 4.991894e+00 3.618680e+00 3.297966e+00 4.302857e+00 4.328081e+00 4.186234e+00 4.461116e+00 4.399900e+00 3.989933e+00 3.265883e+00 3.015646e+00 2.474365e+00 4.946264e-01 6.911592e-01 5.992782e-01 5.089114e-01 6.999842e-01 7.041391e-01 7.088410e-01 7.650520e-01 7.766835e-01 7.037069e-01 6.020217e-01 5.486225e-01 4.535073e-01 7.440153e-02
<GCONST> 1.297912e+02
<TRANSP> 5
 0.000000e+00 1.000000e+00 0.000000e+00 0.000000e+00 0.000000e+00
 0.000000e+00 7.825954e-01 2.174046e-01 0.000000e+00 0.000000e+00
 0.000000e+00 0.000000e+00 8.684641e-01 1.315359e-01 0.000000e+00
 0.000000e+00 0.000000e+00 0.000000e+00 9.965769e-01 3.423114e-03
 0.000000e+00 0.000000e+00 0.000000e+00 0.000000e+00 0.000000e+00
<ENDHMM>
