~o
<STREAMINFO> 1 39
<VECSIZE> 39<NULLD><MFCC_E_D_A_Z><DIAGC>
~h "jh"
<BEGINHMM>
<NUMSTATES> 5
<STATE> 2
<MEAN> 39
 6.534528e-01 -2.393375e-01 2.023273e-01 -4.397054e-01 -4.548863e-01 -1.681429e-01 -3.962492e-01 -5.328517e-02 -1.369518e-01 -2.367595e-02 -2.623580e-02 -1.435213e-01 -3.605605e+00 1.642964e-03 1.347743e-03 3.449562e-03 -7.561909e-03 4.846468e-03 -6.279159e-03 3.684347e-03 -3.821951e-03 -5.283100e-03 -1.511255e-04 -5.447373e-03 -2.058100e-03 1.053116e-02 -1.981552e-03 -1.198509e-03 -1.761612e-03 4.704923e-04 1.236045e-04 3.495110e-04 5.855141e-04 6.698669e-04 6.645979e-04 -1.778998e-04 5.209876e-04 9.146780e-04 -8.361993e-04
<VARIANCE> 39
 9.775832e+01 5.860719e+01 7.063840e+01 7.696748e+01 7.134155e+01 6.706279e+01 6.791201e+01 6.022173e+01 5.562284e+01 4.228777e+01 4.028471e+01 3.202058e+01 1.003466e+01 5.275147e+00 4.004963e+00 3.540154e+00 4.836630e+00 4.644272e+00 4.561993e+00 4.814155e+00 4.776443e+00 4.221443e+00 3.510747e+00 3.248101e+00 2.613722e+00 5.402447e-01 7.421235e-01 6.660117e-01 5.491408e-01 7.859829e-01 7.622652e-01 7.742801e-01 8.276897e-01 8.494765e-01 7.495263e-01 6.513813e-01 5.916613e-01 4.817060e-01 8.288576e-02
<GCONST> 1.323641e+02
<STATE> 3
<MEAN> 39
 -7.762898e+00 2.179271e+00 -2.114960e+00 4.619852e+00 4.652917e+00 2.100399e+00 3.873958e+00 8.800006e-01 1.536788e+00 3.527063e-01 5.393913e-01 1.691154e+00 -9.167342e+00 -1.894516e-02 6.436809e-02 7.503537e-03 7.049194e-02 2.308438e-02 5.888678e-02 -1.397913e-02 -1.940434e-02 4.435399e-03 2.963289e-02 2.221241e-02 -1.242046e-02 -6.973863e-02 2.804590e-02 1.150423e-03 1.716262e-02 -1.295256e-02 -1.073072e-02 -1.014944e-02 -7.889475e-03 -3.687787e-03 -3.426002e-03 -1.857071e-03 -5.687797e-03 -7.004518e-03 1.473184e-02
<VARIANCE> 39
 2.384142e+01 2.530973e+01 2.332268e+01 2.985855e+01 2.345490e+01 3.210192e+01 2.805526e+01 2.782511e+01 2.690376e+01 2.723551e+01 2.669975e+01 1.796763e+01 3.700623e+00 6.497259e-01 8.214658e-01 9.401673e-01 1.147298e+00 1.289421e+00 1.539040e+00 1.591069e+00 1.679211e+00 1.696895e+00 1.726529e+00 1.528743e+00 1.361578e+00 4.659053e-02 1.069695e-01 1.426578e-01 1.733127e-01 2.181586e-01 2.504917e-01 2.961732e-01 3.128943e-01 3.303890e-01 3.345193e-01 3.404053e-01 3.038725e-01 2.720356e-01 1.000000e-02
<GCONST> 9.024689e+01
<STATE> 4
<MEAN> 39
 4.625452e-01 -5.053603e-02 9.154014e-02 -2.031509e-01 -1.875298e-01 -1.374410e-01 -1.312786e-01 -8.193509e-02 -8.079746e-02 -2.954880e-02 -5.933841e-02 -9.911089e-02 -3.580895e+00 1.067791e-02 -1.630064e-03 -4.211817e-03 1.241983e-04 1.784017e-03 -1.379017e-03 -5.879939e-04 -2.826899e-03 -3.081980e-03 -3.957524e-03 -4.441962e-03 -5.901897e-05 -1.301967e-03 -2.463690e-03 9.435285e-04 -2.149390e-04 1.653008e-03 8.071452e-04 8.308166e-04 1.943551e-05 2.097000e-04 4.059820e-04 3.256726e-04 6.685276e-04 4.197219e-04 -1.553707e-03
<VARIANCE> 39
 9.813506e+01 5.120824e+01 6.758024e+01 6.293828e+01 6.916505e+01 6.000271e+01 6.332372e+01 5.585688e+01 5.384420e+01 3.928053e+01 3.669492e+01 3.090840e+01 9.364248e+00 4.925226e+00 3.315833e+00 3.168517e+00 3.811136e+00 4.133444e+00 3.861540e+00 4.191902e+00 4.085723e+00 3.850768e+00 3.051926e+00 2.808443e+00 2.371813e+00 4.610636e-01 6.683903e-01 5.460837e-01 4.845578e-01 6.217608e-01 6.608640e-01 6.484107e-01 7.128116e-01 7.085258e-01 6.689107e-01 5.536127e-01 5.066520e-01 4.276929e-01 6.840010e-02
<GCONST> 1.275223e+02
<TRANSP> 5
 0.000000e+00 1.000000e+00 0.000000e+00 0.000000e+00 0.000000e+00
 0.000000e+00 9.939840e-01 6.016045e-03 0.000000e+00 0.000000e+00
 0.000000e+00 0.000000e+00 9.523167e-01 4.768335e-02 0.000000e+00
 0.000000e+00 0.000000e+00 0.000000e+00 9.914633e-01 8.536718e-03
 0.000000e+00 0.000000e+00 0.000000e+00 0.000000e+00 0.000000e+00
<ENDHMM>
