~o
<STREAMINFO> 1 39
<VECSIZE> 39<NULLD><MFCC_E_D_A_Z><DIAGC>
~h "k"
<BEGINHMM>
<NUMSTATES> 5
<STATE> 2
<MEAN> 39
 -8.489023e+00 2.673151e+00 -1.709605e+00 6.061403e+00 4.119972e+00 3.680210e+00 3.948929e+00 1.342724e+00 2.190919e+00 7.191280e-01 1.390090e+00 1.791668e+00 -1.022196e+01 -6.037772e-02 1.545449e-01 1.203538e-01 3.308652e-02 7.532800e-02 7.106553e-02 5.347199e-02 -7.541045e-02 -5.249095e-02 9.768466e-02 -1.762695e-02 -7.955123e-02 1.079022e-02 6.763426e-02 -3.520916e-02 8.662933e-03 -5.278442e-02 -3.796793e-02 -4.023993e-02 -1.398517e-02 -1.016870e-02 -1.784646e-02 -2.009986e-02 -2.006498e-02 -7.115150e-03 4.614014e-02
<VARIANCE> 39
 1.259232e+01 2.139833e+01 2.185373e+01 2.431563e+01 2.141444e+01 2.778640e+01 2.414803e+01 2.372935e+01 2.422660e+01 2.325344e+01 2.411508e+01 1.616416e+01 5.658275e-01 6.502068e-01 1.069684e+00 1.221906e+00 1.388393e+00 1.467833e+00 1.587027e+00 1.681813e+00 1.761716e+00 1.799194e+00 1.837512e+00 1.600365e+00 1.437684e+00 2.493703e-02 1.467304e-01 1.983288e-01 2.363424e-01 2.765415e-01 2.836174e-01 2.991240e-01 3.254875e-01 3.332616e-01 3.435493e-01 3.472164e-01 3.026582e-01 2.722320e-01 1.380377e-02
<GCONST> 8.859515e+01
<STATE> 3
<MEAN> 39
 9.186954e-01 -3.072712e-01 2.614326e-01 -6.088852e-01 -5.871614e-01 -3.259433e-01 -5.013338e-01 -1.171153e-01 -1.977367e-01 -4.314687e-02 -5.137272e-02 -1.990753e-01 -3.321396e+00 1.048226e-02 -6.567021e-03 -1.475011e-03 -1.091672e-02 -4.323795e-04 -1.034412e-02 5.731725e-04 -1.474999e-04 -3.902076e-03 -5.326895e-03 -6.016497e-03 6.560408e-04 1.110281e-02 -4.825419e-03 6.065486e-04 -2.214506e-03 2.929983e-03 2.174214e-03 2.229585e-03 1.397217e-03 9.270654e-04 1.305753e-03 6.986851e-04 1.060872e-03 1.191873e-03 -2.886848e-03
<VARIANCE> 39
 9.850500e+01 5.679135e+01 7.106071e+01 7.132543e+01 7.118021e+01 6.506957e+01 6.672639e+01 5.968187e+01 5.592083e+01 4.165649e+01 3.922114e+01 3.200629e+01 8.364122e+00 5.331369e+00 3.843125e+00 3.483868e+00 4.549443e+00 4.568311e+00 4.391160e+00 4.684134e+00 4.610362e+00 4.168975e+00 3.385473e+00 3.129280e+00 2.558452e+00 5.285689e-01 7.385750e-01 6.369414e-01 5.365421e-01 7.392993e-01 7.412338e-01 7.418826e-01 8.013754e-01 8.127086e-01 7.340806e-01 6.237959e-01 5.686833e-01 4.681904e-01 7.989481e-02
<GCONST> 1.311873e+02
<STATE> 4
<MEAN> 39
 -6.629828e+00 2.304883e+00 -2.258296e+00 4.165049e+00 4.924472e+00 2.000389e+00 3.977694e+00 7.080287e-01 1.235514e+00 1.427098e-01 -1.110727e-01 1.461829e+00 -8.641722e+00 -4.447663e-02 5.981395e-02 -3.491976e-02 1.250110e-01 3.258449e-02 8.888222e-02 -2.388327e-02 -1.993956e-02 2.352108e-02 1.887370e-02 3.904050e-02 6.693570e-03 -1.337464e-01 2.136179e-02 8.316906e-03 2.406439e-02 -7.603445e-03 -1.119735e-02 -8.322483e-03 -1.246219e-02 -3.229610e-03 -2.528405e-03 7.823101e-04 -2.141420e-04 -8.226438e-03 1.004948e-02
<VARIANCE> 39
 3.476901e+01 2.472649e+01 2.778139e+01 3.556618e+01 2.781981e+01 3.401315e+01 3.204873e+01 3.176530e+01 3.004741e+01 2.975371e+01 2.923382e+01 2.006813e+01 5.391537e+00 8.219795e-01 8.887571e-01 1.035638e+00 1.265522e+00 1.398847e+00 1.671228e+00 1.739046e+00 1.833499e+00 1.812831e+00 1.815623e+00 1.625519e+00 1.447998e+00 5.889482e-02 1.104554e-01 1.418178e-01 1.740114e-01 2.214522e-01 2.539973e-01 3.051487e-01 3.228339e-01 3.382123e-01 3.361086e-01 3.389899e-01 3.049375e-01 2.747616e-01 1.000000e-02
<GCONST> 9.370193e+01
<TRANSP> 5
 0.000000e+00 1.000000e+00 0.000000e+00 0.000000e+00 0.000000e+00
 0.000000e+00 9.150575e-01 8.494246e-02 0.000000e+00 0.000000e+00
 0.000000e+00 0.000000e+00 9.962990e-01 3.701020e-03 0.000000e+00
 0.000000e+00 0.000000e+00 0.000000e+00 9.552912e-01 4.470883e-02
 0.000000e+00 0.000000e+00 0.000000e+00 0.000000e+00 0.000000e+00
<ENDHMM>
