~o
<STREAMINFO> 1 39
<VECSIZE> 39<NULLD><MFCC_E_D_A_Z><DIAGC>
~h "l"
<BEGINHMM>
<NUMSTATES> 5
<STATE> 2
<MEAN> 39
 2.727186e-01 -1.326564e-01 2.412492e-01 -2.159161e-01 -3.737975e-01 -1.731733e-01 -4.377824e-01 -1.000272e-01 -1.629631e-01 1.747800e-02 3.428883e-02 -1.077323e-01 -3.624277e+00 4.824865e-02 -2.207289e-02 1.368142e-03 -4.084508e-02 -1.931041e-02 -1.257487e-02 -1.355500e-02 -4.790537e-03 -6.508552e-03 -7.456384e-04 -7.414725e-03 -1.187442e-02 3.334536e-02 4.266614e-05 -2.776894e-03 -1.573028e-03 -1.354635e-03 -3.573481e-04 1.298918e-03 7.966619e-04 1.051080e-03 6.891325e-04 -9.654177e-04 -1.326202e-04 1.605489e-04 3.638830e-04
<VARIANCE> 39
 9.930933e+01 5.747025e+01 6.866327e+01 7.332092e+01 7.105505e+01 6.495112e+01 6.781758e+01 5.936175e+01 5.562978e+01 4.164848e+01 3.973119e+01 3.175879e+01 1.057195e+01 5.429824e+00 4.048211e+00 3.587301e+00 4.764601e+00 4.736810e+00 4.547190e+00 4.908518e+00 4.802112e+00 4.303845e+00 3.524335e+00 3.269909e+00 2.647769e+00 5.567996e-01 7.643718e-01 6.752381e-01 5.598876e-01 7.800351e-01 7.766556e-01 7.762082e-01 8.468132e-01 8.556168e-01 7.639437e-01 6.553953e-01 5.983342e-01 4.884137e-01 8.555160e-02
<GCONST> 1.325869e+02
<STATE> 3
<MEAN> 39
 -2.282205e-01 -1.168993e+00 -2.397608e+00 -3.687916e-01 1.284453e+00 1.515032e+00 1.831238e+00 6.937965e-01 1.107879e+00 -3.541184e-01 4.315481e-03 1.873644e-01 -5.285462e+00 -2.641919e-02 8.703101e-02 9.761656e-03 9.317248e-02 3.375364e-02 3.418691e-03 7.707052e-04 -6.525686e-03 -4.965004e-03 -1.492984e-02 6.282197e-03 1.098144e-02 -6.791094e-02 4.443421e-04 3.638948e-02 2.339925e-02 2.575467e-02 4.358631e-04 -2.525148e-02 -1.259517e-02 -1.346101e-02 -1.100488e-02 9.008489e-03 4.043715e-04 2.439169e-03 -9.786651e-03
<VARIANCE> 39
 7.641067e+01 4.592720e+01 5.304734e+01 6.793407e+01 5.685614e+01 5.225320e+01 5.122289e+01 4.348250e+01 3.965244e+01 3.407122e+01 3.320424e+01 2.780041e+01 1.774997e+01 3.791034e-01 6.921173e-01 8.961696e-01 1.052884e+00 1.238245e+00 1.425189e+00 1.477031e+00 1.583512e+00 1.530253e+00 1.473986e+00 1.373875e+00 1.218389e+00 3.141141e-02 5.718973e-02 1.053050e-01 1.316653e-01 1.704201e-01 2.022915e-01 2.294722e-01 2.492663e-01 2.717447e-01 2.673519e-01 2.626921e-01 2.413075e-01 2.196312e-01 1.000000e-02
<GCONST> 9.366760e+01
<STATE> 4
<MEAN> 39
 -5.944360e-01 6.465510e-01 8.724818e-02 6.240525e-01 5.434525e-01 -5.104475e-03 5.451958e-01 4.767644e-02 8.394095e-02 5.669728e-02 -8.395466e-02 2.076785e-01 -4.471563e+00 -9.539399e-02 4.574815e-02 -3.147818e-03 7.542033e-02 5.536182e-02 2.975459e-02 3.553455e-02 -3.281988e-03 3.187198e-03 7.580061e-03 4.492937e-03 1.819399e-02 -5.986790e-02 -5.886426e-04 -4.242621e-03 -2.228752e-03 -3.919567e-03 -5.932294e-04 3.219648e-03 7.954420e-04 1.932500e-03 2.455346e-03 -5.540870e-04 7.607252e-04 -4.099744e-04 1.708337e-03
<VARIANCE> 39
 9.768847e+01 4.640079e+01 6.343097e+01 6.172591e+01 6.569893e+01 5.788220e+01 5.862148e+01 5.258835e+01 5.047132e+01 3.802868e+01 3.512350e+01 2.938428e+01 1.036810e+01 4.580910e+00 3.032220e+00 2.974964e+00 3.660965e+00 3.789464e+00 3.709745e+00 3.813168e+00 3.837430e+00 3.605327e+00 2.941308e+00 2.656959e+00 2.258757e+00 3.980847e-01 6.135815e-01 4.964291e-01 4.524012e-01 5.942342e-01 6.097448e-01 6.211585e-01 6.487273e-01 6.635475e-01 6.293087e-01 5.323147e-01 4.795229e-01 4.086833e-01 5.867938e-02
<GCONST> 1.251863e+02
<TRANSP> 5
 0.000000e+00 1.000000e+00 0.000000e+00 0.000000e+00 0.000000e+00
 0.000000e+00 9.949725e-01 5.027547e-03 0.000000e+00 0.000000e+00
 0.000000e+00 0.000000e+00 9.565464e-01 4.345359e-02 0.000000e+00
 0.000000e+00 0.000000e+00 0.000000e+00 9.878669e-01 1.213312e-02
 0.000000e+00 0.000000e+00 0.000000e+00 0.000000e+00 0.000000e+00
<ENDHMM>
