~o
<STREAMINFO> 1 39
<VECSIZE> 39<NULLD><MFCC_E_D_A_Z><DIAGC>
~h "m"
<BEGINHMM>
<NUMSTATES> 5
<STATE> 2
<MEAN> 39
 -8.641303e+00 3.207444e+00 -1.707493e+00 6.615325e+00 4.272836e+00 3.998928e+00 4.008277e+00 1.247954e+00 2.319980e+00 7.979226e-01 1.376668e+00 1.823637e+00 -1.042852e+01 -1.128005e-01 1.719823e-01 1.362458e-01 7.710560e-02 1.191591e-01 9.388492e-02 5.222138e-02 -8.225922e-02 -5.160749e-02 1.192086e-01 6.342203e-03 -7.737856e-02 -5.766581e-03 4.715140e-02 -2.917237e-02 3.430346e-03 -4.054155e-02 -2.311436e-02 -2.402693e-02 3.190040e-03 1.138573e-03 -1.121517e-02 -1.198478e-02 -1.330408e-02 -3.729316e-03 2.690187e-02
<VARIANCE> 39
 1.102951e+01 1.614631e+01 1.993755e+01 2.115625e+01 1.964218e+01 2.453027e+01 2.316378e+01 2.256263e+01 2.364556e+01 2.185894e+01 2.327249e+01 1.562537e+01 9.301519e-02 4.488752e-01 7.737350e-01 1.016628e+00 1.152725e+00 1.292642e+00 1.434072e+00 1.557251e+00 1.656737e+00 1.702724e+00 1.741604e+00 1.524861e+00 1.379635e+00 1.000000e-02 9.523288e-02 1.381457e-01 1.900134e-01 2.228866e-01 2.391952e-01 2.574355e-01 2.903182e-01 3.051970e-01 3.150588e-01 3.209373e-01 2.823194e-01 2.542627e-01 1.000000e-02
<GCONST> 8.076665e+01
<STATE> 3
<MEAN> 39
 -7.993507e+00 1.508140e+00 -1.462982e+00 4.412671e+00 3.833721e+00 2.812276e+00 4.022410e+00 1.296245e+00 1.755844e+00 6.261197e-01 9.765289e-01 1.526895e+00 -8.727734e+00 6.959782e-01 -8.682956e-02 1.704493e-01 -4.647731e-01 -3.773778e-01 -3.298127e-01 -2.129543e-01 -1.673693e-01 -1.766981e-01 -9.473445e-02 -1.814185e-01 -1.193699e-01 5.030395e-01 2.665522e-01 -6.637839e-02 5.071454e-02 -1.611884e-01 -1.721357e-01 -1.321672e-01 -1.709523e-01 -4.890259e-02 -5.510338e-02 -2.522864e-02 -2.702233e-02 -3.289366e-02 1.451371e-01
<VARIANCE> 39
 2.338325e+01 3.784054e+01 3.179076e+01 3.369525e+01 3.011439e+01 3.612795e+01 2.988933e+01 2.945528e+01 2.807703e+01 2.693466e+01 2.791248e+01 1.914829e+01 4.249289e+00 3.439688e+00 2.881971e+00 2.692780e+00 3.250092e+00 2.939157e+00 2.960386e+00 2.861824e+00 2.653757e+00 2.674222e+00 2.446428e+00 2.204627e+00 1.871820e+00 5.904400e-01 4.822107e-01 5.023875e-01 4.818655e-01 5.763761e-01 5.108791e-01 5.279438e-01 5.499048e-01 4.989521e-01 5.036638e-01 4.782918e-01 4.347084e-01 3.697837e-01 7.116251e-02
<GCONST> 1.137943e+02
<STATE> 4
<MEAN> 39
 5.021734e-01 -1.424851e-01 9.572104e-02 -3.330665e-01 -2.447319e-01 -2.056971e-01 -2.424026e-01 -7.679172e-02 -1.230762e-01 -4.299914e-02 -7.106519e-02 -1.011603e-01 -3.641203e+00 -1.360807e-02 2.226122e-03 -8.427494e-03 1.247718e-02 1.297317e-02 7.188404e-03 5.700693e-03 2.741991e-03 2.887366e-03 -2.944354e-04 1.923278e-03 3.811210e-03 -1.449422e-02 -9.554002e-03 2.655928e-03 -1.484233e-03 6.079543e-03 5.497589e-03 4.505346e-03 4.819426e-03 1.641349e-03 2.298340e-03 1.016349e-03 1.375080e-03 1.292015e-03 -5.224728e-03
<VARIANCE> 39
 9.766340e+01 5.503567e+01 6.881346e+01 7.043911e+01 7.040514e+01 6.341785e+01 6.577422e+01 5.808346e+01 5.449623e+01 4.100381e+01 3.863443e+01 3.146150e+01 9.828147e+00 4.977264e+00 3.620786e+00 3.297640e+00 4.299973e+00 4.337297e+00 4.193768e+00 4.479156e+00 4.424106e+00 4.006621e+00 3.277212e+00 3.024738e+00 2.481683e+00 4.789456e-01 6.903841e-01 5.993515e-01 5.080435e-01 6.996931e-01 7.056903e-01 7.102290e-01 7.666557e-01 7.807173e-01 7.065164e-01 6.037383e-01 5.498429e-01 4.544568e-01 7.345027e-02
<GCONST> 1.298195e+02
<TRANSP> 5
 0.000000e+00 1.000000e+00 0.000000e+00 0.000000e+00 0.000000e+00
 0.000000e+00 8.848987e-01 1.151013e-01 0.000000e+00 0.000000e+00
 0.000000e+00 0.000000e+00 8.842393e-01 1.157608e-01 0.000000e+00
 0.000000e+00 0.000000e+00 0.000000e+00 9.965158e-01 3.484223e-03
 0.000000e+00 0.000000e+00 0.000000e+00 0.000000e+00 0.000000e+00
<ENDHMM>
