~o
<STREAMINFO> 1 39
<VECSIZE> 39<NULLD><MFCC_E_D_A_Z><DIAGC>
~h "n"
<BEGINHMM>
<NUMSTATES> 5
<STATE> 2
<MEAN> 39
 -8.507711e+00 2.701213e+00 -1.771268e+00 6.194850e+00 4.050072e+00 3.608449e+00 3.808087e+00 1.327073e+00 2.187370e+00 6.550318e-01 1.358989e+00 1.835948e+00 -1.030986e+01 -1.145394e-01 1.781569e-01 1.171097e-01 8.308949e-02 1.140487e-01 1.027244e-01 5.217277e-02 -7.361106e-02 -4.042612e-02 1.122318e-01 9.866001e-03 -6.564192e-02 -9.179527e-03 2.937575e-02 -1.075083e-02 1.071972e-02 -2.166586e-02 -6.149759e-03 -8.411074e-03 1.075662e-02 5.589229e-03 -4.219721e-03 -1.287917e-03 -6.718828e-03 -3.128149e-03 1.861948e-02
<VARIANCE> 39
 1.157109e+01 1.958020e+01 2.019907e+01 2.250071e+01 2.009148e+01 2.629158e+01 2.315049e+01 2.290826e+01 2.361807e+01 2.238677e+01 2.362250e+01 1.579856e+01 3.546422e-01 4.076296e-01 7.251882e-01 9.327209e-01 1.073872e+00 1.224793e+00 1.385984e+00 1.508317e+00 1.601056e+00 1.653481e+00 1.686971e+00 1.481831e+00 1.349055e+00 1.000000e-02 8.103399e-02 1.214955e-01 1.696001e-01 2.017296e-01 2.233939e-01 2.440042e-01 2.778439e-01 2.931326e-01 3.042572e-01 3.077182e-01 2.716161e-01 2.474077e-01 1.000000e-02
<GCONST> 8.113868e+01
<STATE> 3
<MEAN> 39
 -8.305325e+00 3.265208e+00 -1.231854e+00 5.934942e+00 4.479159e+00 4.194955e+00 4.575949e+00 1.048910e+00 1.970381e+00 1.130595e+00 1.000961e+00 1.348673e+00 -9.887848e+00 7.092634e-01 -9.211875e-02 1.991292e-01 -5.021287e-01 -3.339134e-01 -3.246647e-01 -1.637713e-01 -2.035130e-01 -2.214521e-01 -8.441153e-02 -2.011939e-01 -1.499285e-01 4.976636e-01 3.279896e-01 -1.414430e-01 2.645642e-02 -2.663702e-01 -2.293596e-01 -2.087096e-01 -1.931730e-01 -7.124087e-02 -7.371618e-02 -5.812908e-02 -4.501418e-02 -2.336008e-02 2.313331e-01
<VARIANCE> 39
 1.762240e+01 2.462550e+01 3.022972e+01 3.036041e+01 2.775514e+01 3.020983e+01 2.908566e+01 2.859437e+01 2.811979e+01 2.533899e+01 2.677491e+01 1.859762e+01 1.016035e+00 3.156868e+00 3.145643e+00 2.961193e+00 3.452062e+00 3.093595e+00 2.933875e+00 2.947274e+00 2.807588e+00 2.769258e+00 2.575885e+00 2.302940e+00 1.952366e+00 4.820130e-01 4.958277e-01 5.073720e-01 5.201292e-01 6.048243e-01 5.542780e-01 5.372117e-01 5.787450e-01 5.185491e-01 5.260468e-01 5.021162e-01 4.534917e-01 3.865329e-01 5.986746e-02
<GCONST> 1.116598e+02
<STATE> 4
<MEAN> 39
 4.202520e-01 -1.456605e-01 7.781465e-02 -3.038132e-01 -2.102877e-01 -1.913332e-01 -2.048171e-01 -6.075268e-02 -1.048376e-01 -4.191700e-02 -6.078940e-02 -8.205425e-02 -3.671915e+00 -6.438651e-03 1.149163e-03 -6.616566e-03 8.063138e-03 8.203741e-03 3.300186e-03 2.465299e-03 1.461189e-03 1.585660e-03 -1.310301e-03 3.052275e-04 2.810705e-03 -8.941239e-03 -7.380319e-03 2.857238e-03 -6.962299e-04 5.844411e-03 4.272408e-03 4.120484e-03 3.206328e-03 1.418860e-03 1.860509e-03 1.066062e-03 1.237867e-03 7.370074e-04 -5.110607e-03
<VARIANCE> 39
 9.770061e+01 5.497253e+01 6.850301e+01 7.016220e+01 7.015444e+01 6.319696e+01 6.556850e+01 5.783301e+01 5.427301e+01 4.087489e+01 3.855269e+01 3.138116e+01 9.876037e+00 4.974707e+00 3.610720e+00 3.289958e+00 4.290401e+00 4.325453e+00 4.185315e+00 4.464465e+00 4.405784e+00 3.993502e+00 3.268648e+00 3.016540e+00 2.475287e+00 4.851703e-01 6.887497e-01 5.987185e-01 5.078419e-01 6.981447e-01 7.034022e-01 7.084744e-01 7.645981e-01 7.779754e-01 7.044743e-01 6.024577e-01 5.487174e-01 4.535747e-01 7.331463e-02
<GCONST> 1.297416e+02
<TRANSP> 5
 0.000000e+00 1.000000e+00 0.000000e+00 0.000000e+00 0.000000e+00
 0.000000e+00 8.864999e-01 1.135001e-01 0.000000e+00 0.000000e+00
 0.000000e+00 0.000000e+00 8.227850e-01 1.772150e-01 0.000000e+00
 0.000000e+00 0.000000e+00 0.000000e+00 9.965503e-01 3.449676e-03
 0.000000e+00 0.000000e+00 0.000000e+00 0.000000e+00 0.000000e+00
<ENDHMM>
