~o
<STREAMINFO> 1 39
<VECSIZE> 39<NULLD><MFCC_E_D_A_Z><DIAGC>
~h "ng"
<BEGINHMM>
<NUMSTATES> 5
<STATE> 2
<MEAN> 39
 -8.641261e+00 3.207328e+00 -1.707497e+00 6.615439e+00 4.272740e+00 3.999074e+00 4.008336e+00 1.248037e+00 2.320108e+00 7.980340e-01 1.376697e+00 1.823605e+00 -1.042851e+01 -1.127860e-01 1.719849e-01 1.362543e-01 7.709258e-02 1.191509e-01 9.387452e-02 5.224026e-02 -8.227172e-02 -5.161872e-02 1.192227e-01 6.334759e-03 -7.739961e-02 -5.765117e-03 4.716847e-02 -2.918219e-02 3.427468e-03 -4.056048e-02 -2.312966e-02 -2.404397e-02 3.178141e-03 1.127568e-03 -1.122920e-02 -1.199896e-02 -1.331539e-02 -3.733905e-03 2.691496e-02
<VARIANCE> 39
 1.103039e+01 1.614742e+01 1.993798e+01 2.115679e+01 1.964317e+01 2.452992e+01 2.316460e+01 2.256336e+01 2.364590e+01 2.185948e+01 2.327251e+01 1.562582e+01 9.301934e-02 4.489740e-01 7.738971e-01 1.016789e+00 1.152899e+00 1.292788e+00 1.434168e+00 1.557308e+00 1.656855e+00 1.702824e+00 1.741663e+00 1.524915e+00 1.379661e+00 1.000000e-02 9.526185e-02 1.381852e-01 1.900545e-01 2.229283e-01 2.392351e-01 2.574664e-01 2.903341e-01 3.052258e-01 3.150878e-01 3.209605e-01 2.823392e-01 2.542731e-01 1.000000e-02
<GCONST> 8.076992e+01
<STATE> 3
<MEAN> 39
 -7.993494e+00 1.508463e+00 -1.462927e+00 4.411866e+00 3.833319e+00 2.811399e+00 4.022121e+00 1.295996e+00 1.755811e+00 6.258626e-01 9.762486e-01 1.526830e+00 -8.725919e+00 6.964507e-01 -8.699220e-02 1.705395e-01 -4.650409e-01 -3.776721e-01 -3.300985e-01 -2.132424e-01 -1.673917e-01 -1.767685e-01 -9.484363e-02 -1.814899e-01 -1.193828e-01 5.032855e-01 2.665914e-01 -6.640814e-02 5.071792e-02 -1.611532e-01 -1.721369e-01 -1.321278e-01 -1.709861e-01 -4.886283e-02 -5.509292e-02 -2.519615e-02 -2.700859e-02 -3.291658e-02 1.450616e-01
<VARIANCE> 39
 2.340002e+01 3.785020e+01 3.179861e+01 3.370218e+01 3.011664e+01 3.613060e+01 2.989193e+01 2.945723e+01 2.807791e+01 2.693379e+01 2.791227e+01 1.914867e+01 4.255413e+00 3.441808e+00 2.882355e+00 2.693434e+00 3.250866e+00 2.939965e+00 2.961410e+00 2.862618e+00 2.654197e+00 2.674689e+00 2.446608e+00 2.204983e+00 1.872022e+00 5.907421e-01 4.823164e-01 5.025117e-01 4.819643e-01 5.764724e-01 5.109327e-01 5.280520e-01 5.499791e-01 4.990241e-01 5.037136e-01 4.783322e-01 4.347588e-01 3.698067e-01 7.119486e-02
<GCONST> 1.138030e+02
<STATE> 4
<MEAN> 39
 5.022828e-01 -1.425205e-01 9.574073e-02 -3.331167e-01 -2.447710e-01 -2.057189e-01 -2.424501e-01 -7.680412e-02 -1.231059e-01 -4.300409e-02 -7.107282e-02 -1.011796e-01 -3.641183e+00 -1.362781e-02 2.230456e-03 -8.432597e-03 1.248899e-02 1.298536e-02 7.199874e-03 5.710477e-03 2.744659e-03 2.891324e-03 -2.918105e-04 1.927501e-03 3.813970e-03 -1.450582e-02 -9.558202e-03 2.657841e-03 -1.484663e-03 6.080513e-03 5.499634e-03 4.505940e-03 4.822309e-03 1.640906e-03 2.298878e-03 1.016006e-03 1.375189e-03 1.293231e-03 -5.224206e-03
<VARIANCE> 39
 9.766257e+01 5.503418e+01 6.881312e+01 7.043912e+01 7.040372e+01 6.341778e+01 6.577458e+01 5.808332e+01 5.449586e+01 4.100343e+01 3.863393e+01 3.146116e+01 9.827996e+00 4.977194e+00 3.620725e+00 3.297622e+00 4.299925e+00 4.337217e+00 4.193696e+00 4.479226e+00 4.424078e+00 4.006582e+00 3.277219e+00 3.024715e+00 2.481660e+00 4.789249e-01 6.903794e-01 5.993429e-01 5.080395e-01 6.996884e-01 7.056801e-01 7.102249e-01 7.666600e-01 7.807241e-01 7.065075e-01 6.037278e-01 5.498439e-01 4.544547e-01 7.344985e-02
<GCONST> 1.298192e+02
<TRANSP> 5
 0.000000e+00 1.000000e+00 0.000000e+00 0.000000e+00 0.000000e+00
 0.000000e+00 8.849174e-01 1.150827e-01 0.000000e+00 0.000000e+00
 0.000000e+00 0.000000e+00 8.842707e-01 1.157293e-01 0.000000e+00
 0.000000e+00 0.000000e+00 0.000000e+00 9.965158e-01 3.484248e-03
 0.000000e+00 0.000000e+00 0.000000e+00 0.000000e+00 0.000000e+00
<ENDHMM>
