~o
<STREAMINFO> 1 39
<VECSIZE> 39<NULLD><MFCC_E_D_A_Z><DIAGC>
~h "ow"
<BEGINHMM>
<NUMSTATES> 5
<STATE> 2
<MEAN> 39
 -8.641813e+00 3.208155e+00 -1.706977e+00 6.615560e+00 4.272911e+00 3.998200e+00 4.008478e+00 1.247703e+00 2.319882e+00 7.978735e-01 1.376544e+00 1.823581e+00 -1.042860e+01 -1.128488e-01 1.718860e-01 1.361846e-01 7.714352e-02 1.191894e-01 9.389950e-02 5.212944e-02 -8.227439e-02 -5.159085e-02 1.191000e-01 6.380709e-03 -7.727972e-02 -5.766053e-03 4.706731e-02 -2.912589e-02 3.429349e-03 -4.045767e-02 -2.303181e-02 -2.395502e-02 3.240762e-03 1.173827e-03 -1.117125e-02 -1.193509e-02 -1.325731e-02 -3.700493e-03 2.684119e-02
<VARIANCE> 39
 1.102636e+01 1.613683e+01 1.993227e+01 2.115047e+01 1.963808e+01 2.452773e+01 2.315837e+01 2.255800e+01 2.364245e+01 2.185478e+01 2.327107e+01 1.562362e+01 9.297324e-02 4.483339e-01 7.727296e-01 1.015809e+00 1.151721e+00 1.291921e+00 1.433383e+00 1.556874e+00 1.656155e+00 1.702369e+00 1.740970e+00 1.524405e+00 1.379321e+00 1.000000e-02 9.508022e-02 1.379271e-01 1.898096e-01 2.226528e-01 2.390014e-01 2.572421e-01 2.902211e-01 3.050343e-01 3.149418e-01 3.207654e-01 2.821831e-01 2.541809e-01 1.000000e-02
<GCONST> 8.074719e+01
<STATE> 3
<MEAN> 39
 -7.992496e+00 1.506217e+00 -1.463922e+00 4.417135e+00 3.835684e+00 2.816225e+00 4.022921e+00 1.297753e+00 1.756695e+00 6.267424e-01 9.776734e-01 1.526599e+00 -8.736598e+00 6.937576e-01 -8.596790e-02 1.699676e-01 -4.634979e-01 -3.758888e-01 -3.284612e-01 -2.116417e-01 -1.672304e-01 -1.764421e-01 -9.423032e-02 -1.810208e-01 -1.192816e-01 5.018367e-01 2.663052e-01 -6.624098e-02 5.068214e-02 -1.613731e-01 -1.720875e-01 -1.323325e-01 -1.707527e-01 -4.906899e-02 -5.514674e-02 -2.534968e-02 -2.708005e-02 -3.277463e-02 1.454928e-01
<VARIANCE> 39
 2.330668e+01 3.779588e+01 3.175865e+01 3.366514e+01 3.010008e+01 3.611119e+01 2.987577e+01 2.944839e+01 2.807138e+01 2.693807e+01 2.791249e+01 1.914567e+01 4.219010e+00 3.429845e+00 2.880297e+00 2.690034e+00 3.246876e+00 2.935534e+00 2.955797e+00 2.858145e+00 2.652004e+00 2.672462e+00 2.446007e+00 2.203221e+00 1.870997e+00 5.890761e-01 4.816943e-01 5.018305e-01 4.814735e-01 5.760046e-01 5.106941e-01 5.274880e-01 5.495507e-01 4.986689e-01 5.034709e-01 4.782170e-01 4.345481e-01 3.696828e-01 7.100321e-02
<GCONST> 1.137550e+02
<STATE> 4
<MEAN> 39
 5.016267e-01 -1.423071e-01 9.563353e-02 -3.328660e-01 -2.445348e-01 -2.055815e-01 -2.421655e-01 -7.674741e-02 -1.229711e-01 -4.297169e-02 -7.102221e-02 -1.010438e-01 -3.641283e+00 -1.351628e-02 2.203298e-03 -8.401495e-03 1.242182e-02 1.291599e-02 7.137304e-03 5.657253e-03 2.730142e-03 2.871165e-03 -3.069461e-04 1.904015e-03 3.799583e-03 -1.443906e-02 -9.532577e-03 2.647075e-03 -1.481269e-03 6.075299e-03 5.486572e-03 4.502499e-03 4.805536e-03 1.643566e-03 2.295873e-03 1.017184e-03 1.373936e-03 1.286215e-03 -5.227358e-03
<VARIANCE> 39
 9.766756e+01 5.503613e+01 6.881399e+01 7.044051e+01 7.040513e+01 6.341816e+01 6.577495e+01 5.808222e+01 5.449642e+01 4.100396e+01 3.863443e+01 3.146159e+01 9.828057e+00 4.977568e+00 3.620816e+00 3.297773e+00 4.300119e+00 4.337430e+00 4.193959e+00 4.479266e+00 4.424117e+00 4.006648e+00 3.277267e+00 3.024837e+00 2.481718e+00 4.790357e-01 6.904024e-01 5.993655e-01 5.080655e-01 6.997089e-01 7.057024e-01 7.102488e-01 7.666758e-01 7.807326e-01 7.065273e-01 6.037473e-01 5.498606e-01 4.544602e-01 7.345335e-02
<GCONST> 1.298205e+02
<TRANSP> 5
 0.000000e+00 1.000000e+00 0.000000e+00 0.000000e+00 0.000000e+00
 0.000000e+00 8.848063e-01 1.151937e-01 0.000000e+00 0.000000e+00
 0.000000e+00 0.000000e+00 8.841003e-01 1.158997e-01 0.000000e+00
 0.000000e+00 0.000000e+00 0.000000e+00 9.965160e-01 3.483992e-03
 0.000000e+00 0.000000e+00 0.000000e+00 0.000000e+00 0.000000e+00
<ENDHMM>
