~o
<STREAMINFO> 1 39
<VECSIZE> 39<NULLD><MFCC_E_D_A_Z><DIAGC>
~h "oy"
<BEGINHMM>
<NUMSTATES> 5
<STATE> 2
<MEAN> 39
 -7.263189e+00 -1.006022e+00 -2.865449e+00 3.533718e+00 2.751818e+00 1.408195e+00 3.023448e+00 1.964702e+00 1.727239e+00 -4.645348e-01 1.380738e+00 2.176121e+00 -9.407933e+00 -8.527669e-02 3.043171e-01 4.706659e-02 8.549602e-02 8.955000e-02 1.593006e-01 1.010846e-01 -2.614413e-02 3.038518e-02 1.255826e-01 3.330280e-02 -2.800396e-02 -3.653212e-02 -4.481176e-02 7.517412e-02 8.218043e-02 5.600611e-02 5.055923e-02 3.638412e-02 9.858927e-03 -1.073867e-02 1.601975e-02 5.206269e-02 2.071643e-02 -1.236499e-02 -2.501883e-03
<VARIANCE> 39
 1.591538e+01 3.093065e+01 2.667905e+01 2.534359e+01 2.617400e+01 3.476388e+01 2.697362e+01 2.746655e+01 2.616051e+01 2.808368e+01 2.802430e+01 1.822493e+01 2.153299e+00 6.479459e-01 1.409157e+00 1.200356e+00 1.277021e+00 1.449590e+00 1.647906e+00 1.745530e+00 1.779060e+00 1.815713e+00 1.896026e+00 1.591379e+00 1.455221e+00 6.349844e-02 1.075806e-01 1.750109e-01 2.062688e-01 2.148906e-01 2.503771e-01 2.604628e-01 2.965563e-01 2.997271e-01 3.091858e-01 3.161443e-01 2.640042e-01 2.477380e-01 1.000000e-02
<GCONST> 9.117871e+01
<STATE> 3
<MEAN> 39
 -9.163814e+00 4.331947e+00 -1.013224e+00 7.326312e+00 4.833354e+00 4.782355e+00 4.367494e+00 1.132143e+00 2.441099e+00 1.312760e+00 1.502833e+00 1.607076e+00 -1.050254e+01 -4.676831e-02 9.999859e-02 1.756454e-01 4.150116e-02 8.690579e-02 4.134098e-02 2.966197e-02 -9.082264e-02 -9.322964e-02 8.512059e-02 -3.862450e-02 -1.104983e-01 1.542966e-02 1.379979e-01 -1.076294e-01 -4.196665e-02 -1.230792e-01 -9.062379e-02 -8.660531e-02 -2.805722e-02 -1.135194e-02 -4.104462e-02 -6.482206e-02 -4.778049e-02 -4.037549e-03 6.915705e-02
<VARIANCE> 39
 9.480863e+00 1.002848e+01 1.769530e+01 1.957767e+01 1.789085e+01 2.123736e+01 2.229191e+01 2.184666e+01 2.340050e+01 1.988206e+01 2.217602e+01 1.516486e+01 1.000000e-02 6.666580e-01 9.229416e-01 1.281375e+00 1.471823e+00 1.540988e+00 1.580033e+00 1.696438e+00 1.807939e+00 1.850845e+00 1.856913e+00 1.629119e+00 1.441386e+00 1.000000e-02 1.623670e-01 2.119990e-01 2.605977e-01 3.118245e-01 3.117645e-01 3.240437e-01 3.546409e-01 3.660370e-01 3.784432e-01 3.725691e-01 3.312522e-01 2.921976e-01 1.641322e-02
<GCONST> 8.258861e+01
<STATE> 4
<MEAN> 39
 3.529054e-01 -9.692615e-02 7.149258e-02 -2.463514e-01 -1.691457e-01 -1.466630e-01 -1.612956e-01 -6.040537e-02 -9.074052e-02 -2.685871e-02 -6.086035e-02 -7.609741e-02 -3.724054e+00 6.416739e-03 -2.660644e-03 -4.500863e-03 -1.618675e-03 1.458210e-03 -3.482340e-03 -1.506810e-03 -1.925685e-03 -1.974856e-03 -3.738684e-03 -2.804789e-03 1.230793e-03 6.372604e-04 -2.988696e-03 1.396968e-03 -5.809675e-05 2.322671e-03 1.186579e-03 1.484949e-03 3.496644e-04 6.649686e-04 1.111320e-03 7.638111e-04 1.073812e-03 4.855545e-04 -1.802088e-03
<VARIANCE> 39
 9.768622e+01 5.480075e+01 6.825693e+01 7.025321e+01 7.004649e+01 6.310564e+01 6.553597e+01 5.760968e+01 5.411008e+01 4.075470e+01 3.845270e+01 3.128906e+01 1.012957e+01 4.991928e+00 3.618722e+00 3.298003e+00 4.302920e+00 4.328139e+00 4.186325e+00 4.461209e+00 4.399999e+00 3.990039e+00 3.265934e+00 3.015699e+00 2.474382e+00 4.946292e-01 6.911534e-01 5.992827e-01 5.089165e-01 6.999975e-01 7.041405e-01 7.088478e-01 7.650633e-01 7.766919e-01 7.037193e-01 6.020327e-01 5.486292e-01 4.535134e-01 7.440186e-02
<GCONST> 1.297917e+02
<TRANSP> 5
 0.000000e+00 1.000000e+00 0.000000e+00 0.000000e+00 0.000000e+00
 0.000000e+00 7.825911e-01 2.174089e-01 0.000000e+00 0.000000e+00
 0.000000e+00 0.000000e+00 8.684997e-01 1.315003e-01 0.000000e+00
 0.000000e+00 0.000000e+00 0.000000e+00 9.965769e-01 3.423122e-03
 0.000000e+00 0.000000e+00 0.000000e+00 0.000000e+00 0.000000e+00
<ENDHMM>
