~o
<STREAMINFO> 1 39
<VECSIZE> 39<NULLD><MFCC_E_D_A_Z><DIAGC>
~h "p"
<BEGINHMM>
<NUMSTATES> 5
<STATE> 2
<MEAN> 39
 -8.639538e+00 3.204706e+00 -1.708608e+00 6.613964e+00 4.272191e+00 4.001753e+00 4.007424e+00 1.249466e+00 2.320399e+00 7.985524e-01 1.377388e+00 1.823641e+00 -1.042820e+01 -1.125400e-01 1.723215e-01 1.364496e-01 7.688787e-02 1.189778e-01 9.384903e-02 5.261554e-02 -8.227967e-02 -5.172256e-02 1.196107e-01 6.172275e-03 -7.781218e-02 -5.766976e-03 4.752034e-02 -2.937291e-02 3.430994e-03 -4.088420e-02 -2.345495e-02 -2.437536e-02 2.957959e-03 9.751811e-04 -1.142871e-02 -1.222035e-02 -1.351814e-02 -3.860060e-03 2.715785e-02
<VARIANCE> 39
 1.104309e+01 1.618648e+01 1.995848e+01 2.118345e+01 1.965878e+01 2.454265e+01 2.318394e+01 2.258205e+01 2.365777e+01 2.187779e+01 2.328058e+01 1.563425e+01 9.325408e-02 4.512172e-01 7.775820e-01 1.020272e+00 1.156886e+00 1.295677e+00 1.436556e+00 1.558719e+00 1.659048e+00 1.704340e+00 1.744232e+00 1.526955e+00 1.380654e+00 1.000000e-02 9.588832e-02 1.389869e-01 1.909110e-01 2.238350e-01 2.400125e-01 2.581502e-01 2.907177e-01 3.058725e-01 3.155782e-01 3.216767e-01 2.829211e-01 2.545605e-01 1.000000e-02
<GCONST> 8.084787e+01
<STATE> 3
<MEAN> 39
 -7.998167e+00 1.516902e+00 -1.458323e+00 4.393029e+00 3.826429e+00 2.793040e+00 4.022902e+00 1.288086e+00 1.751826e+00 6.219669e-01 9.703565e-01 1.526166e+00 -8.690660e+00 7.056893e-01 -9.019619e-02 1.722047e-01 -4.703146e-01 -3.836221e-01 -3.353118e-01 -2.186792e-01 -1.681809e-01 -1.779856e-01 -9.653787e-02 -1.829091e-01 -1.197312e-01 5.078207e-01 2.674711e-01 -6.696334e-02 5.085240e-02 -1.605138e-01 -1.723522e-01 -1.313736e-01 -1.717636e-01 -4.811958e-02 -5.483617e-02 -2.457346e-02 -2.662706e-02 -3.333900e-02 1.436858e-01
<VARIANCE> 39
 2.371936e+01 3.803379e+01 3.192828e+01 3.379569e+01 3.018853e+01 3.619427e+01 2.993386e+01 2.949351e+01 2.810800e+01 2.692387e+01 2.790847e+01 1.915858e+01 4.378338e+00 3.480219e+00 2.889944e+00 2.704747e+00 3.265006e+00 2.956032e+00 2.979835e+00 2.878034e+00 2.661823e+00 2.682678e+00 2.448426e+00 2.210441e+00 1.876314e+00 5.960656e-01 4.841359e-01 5.050945e-01 4.835239e-01 5.780919e-01 5.120333e-01 5.300995e-01 5.513619e-01 5.002416e-01 5.045585e-01 4.788088e-01 4.353571e-01 3.704162e-01 7.181332e-02
<GCONST> 1.139644e+02
<STATE> 4
<MEAN> 39
 5.045253e-01 -1.432687e-01 9.604250e-02 -3.338850e-01 -2.455919e-01 -2.061033e-01 -2.434937e-01 -7.694113e-02 -1.235116e-01 -4.308340e-02 -7.121259e-02 -1.015901e-01 -3.640847e+00 -1.400967e-02 2.313649e-03 -8.529981e-03 1.271891e-02 1.321785e-02 7.399486e-03 5.890627e-03 2.802461e-03 2.963508e-03 -2.495895e-04 2.001963e-03 3.862689e-03 -1.472053e-02 -9.641941e-03 2.693796e-03 -1.497029e-03 6.100482e-03 5.545171e-03 4.516072e-03 4.878609e-03 1.630580e-03 2.306916e-03 1.009060e-03 1.375494e-03 1.315277e-03 -5.215357e-03
<VARIANCE> 39
 9.765265e+01 5.503318e+01 6.881808e+01 7.044338e+01 7.041089e+01 6.342279e+01 6.577826e+01 5.808980e+01 5.450070e+01 4.100726e+01 3.863707e+01 3.146335e+01 9.829141e+00 4.976167e+00 3.620782e+00 3.297457e+00 4.299646e+00 4.337016e+00 4.193474e+00 4.479139e+00 4.424333e+00 4.006710e+00 3.277375e+00 3.024770e+00 2.481704e+00 4.786097e-01 6.903692e-01 5.992994e-01 5.080062e-01 6.996757e-01 7.057066e-01 7.102190e-01 7.666741e-01 7.807639e-01 7.065466e-01 6.037449e-01 5.498554e-01 4.544637e-01 7.344514e-02
<GCONST> 1.298191e+02
<TRANSP> 5
 0.000000e+00 1.000000e+00 0.000000e+00 0.000000e+00 0.000000e+00
 0.000000e+00 8.852876e-01 1.147124e-01 0.000000e+00 0.000000e+00
 0.000000e+00 0.000000e+00 8.848363e-01 1.151638e-01 0.000000e+00
 0.000000e+00 0.000000e+00 0.000000e+00 9.965149e-01 3.485121e-03
 0.000000e+00 0.000000e+00 0.000000e+00 0.000000e+00 0.000000e+00
<ENDHMM>
