~o
<STREAMINFO> 1 39
<VECSIZE> 39<NULLD><MFCC_E_D_A_Z><DIAGC>
~h "r"
<BEGINHMM>
<NUMSTATES> 5
<STATE> 2
<MEAN> 39
 -7.258733e+00 -1.000210e+00 -2.875350e+00 3.535113e+00 2.748609e+00 1.411453e+00 3.031637e+00 1.977740e+00 1.722401e+00 -4.633671e-01 1.372465e+00 2.178736e+00 -9.411063e+00 -8.782069e-02 3.100936e-01 5.229562e-02 8.873308e-02 9.225146e-02 1.619232e-01 1.019836e-01 -2.706727e-02 3.106817e-02 1.288580e-01 3.479927e-02 -2.889097e-02 -3.650725e-02 -4.521637e-02 7.450771e-02 8.348285e-02 5.681255e-02 5.100388e-02 3.613690e-02 9.321311e-03 -1.119884e-02 1.601294e-02 5.243282e-02 2.098288e-02 -1.260886e-02 -2.384012e-03
<VARIANCE> 39
 1.590199e+01 3.088536e+01 2.672653e+01 2.530921e+01 2.617159e+01 3.475854e+01 2.698252e+01 2.750015e+01 2.620263e+01 2.806030e+01 2.804320e+01 1.820812e+01 2.150032e+00 6.528878e-01 1.421950e+00 1.215302e+00 1.283408e+00 1.454436e+00 1.651279e+00 1.750074e+00 1.781582e+00 1.820515e+00 1.901383e+00 1.593975e+00 1.456901e+00 6.336772e-02 1.082501e-01 1.757786e-01 2.075318e-01 2.154534e-01 2.509761e-01 2.606360e-01 2.974217e-01 3.004570e-01 3.103262e-01 3.171089e-01 2.646695e-01 2.480390e-01 1.000000e-02
<GCONST> 9.126486e+01
<STATE> 3
<MEAN> 39
 -9.172648e+00 4.339575e+00 -9.989691e-01 7.336650e+00 4.840729e+00 4.787457e+00 4.366430e+00 1.127339e+00 2.442109e+00 1.319551e+00 1.505713e+00 1.603730e+00 -1.050257e+01 -4.524058e-02 9.580016e-02 1.729622e-01 3.952517e-02 8.535875e-02 3.926538e-02 2.898640e-02 -9.027448e-02 -9.394976e-02 8.311247e-02 -3.964548e-02 -1.100312e-01 1.555336e-02 1.388340e-01 -1.078798e-01 -4.338609e-02 -1.242685e-01 -9.144527e-02 -8.690437e-02 -2.777222e-02 -1.103181e-02 -4.118145e-02 -6.547091e-02 -4.817250e-02 -3.803405e-03 6.928089e-02
<VARIANCE> 39
 9.452150e+00 1.000625e+01 1.761395e+01 1.953475e+01 1.785166e+01 2.120827e+01 2.227514e+01 2.182457e+01 2.338106e+01 1.985140e+01 2.215414e+01 1.515770e+01 1.000000e-02 6.646702e-01 9.125401e-01 1.274596e+00 1.468459e+00 1.538559e+00 1.576908e+00 1.693946e+00 1.806725e+00 1.847969e+00 1.852856e+00 1.627263e+00 1.439858e+00 1.000000e-02 1.621689e-01 2.120022e-01 2.599933e-01 3.116380e-01 3.115039e-01 3.239711e-01 3.544468e-01 3.658927e-01 3.780703e-01 3.720931e-01 3.310519e-01 2.920672e-01 1.645671e-02
<GCONST> 8.252704e+01
<STATE> 4
<MEAN> 39
 3.530609e-01 -9.678917e-02 7.147663e-02 -2.464214e-01 -1.691812e-01 -1.466172e-01 -1.613540e-01 -6.058920e-02 -9.066918e-02 -2.690861e-02 -6.082198e-02 -7.613780e-02 -3.723990e+00 6.422374e-03 -2.664970e-03 -4.505444e-03 -1.623956e-03 1.453740e-03 -3.482431e-03 -1.511125e-03 -1.930136e-03 -1.977375e-03 -3.744147e-03 -2.808578e-03 1.226958e-03 6.383615e-04 -2.989180e-03 1.398652e-03 -5.289384e-05 2.326116e-03 1.189128e-03 1.486549e-03 3.477402e-04 6.642028e-04 1.110275e-03 7.647974e-04 1.074113e-03 4.842817e-04 -1.801650e-03
<VARIANCE> 39
 9.768662e+01 5.479994e+01 6.825658e+01 7.025356e+01 7.004714e+01 6.310612e+01 6.553593e+01 5.760852e+01 5.410954e+01 4.075510e+01 3.845267e+01 3.128904e+01 1.012930e+01 4.991955e+00 3.618703e+00 3.298021e+00 4.302999e+00 4.328181e+00 4.186361e+00 4.461247e+00 4.399999e+00 3.990042e+00 3.265941e+00 3.015738e+00 2.474436e+00 4.946336e-01 6.911655e-01 5.992780e-01 5.089130e-01 7.000025e-01 7.041410e-01 7.088553e-01 7.650715e-01 7.766899e-01 7.037174e-01 6.020355e-01 5.486306e-01 4.535151e-01 7.440235e-02
<GCONST> 1.297918e+02
<TRANSP> 5
 0.000000e+00 1.000000e+00 0.000000e+00 0.000000e+00 0.000000e+00
 0.000000e+00 7.839014e-01 2.160986e-01 0.000000e+00 0.000000e+00
 0.000000e+00 0.000000e+00 8.681096e-01 1.318903e-01 0.000000e+00
 0.000000e+00 0.000000e+00 0.000000e+00 9.965768e-01 3.423204e-03
 0.000000e+00 0.000000e+00 0.000000e+00 0.000000e+00 0.000000e+00
<ENDHMM>
