~o
<STREAMINFO> 1 39
<VECSIZE> 39<NULLD><MFCC_E_D_A_Z><DIAGC>
~h "s"
<BEGINHMM>
<NUMSTATES> 5
<STATE> 2
<MEAN> 39
 -7.261458e+00 -1.004057e+00 -2.868294e+00 3.534012e+00 2.750939e+00 1.410155e+00 3.025029e+00 1.966023e+00 1.727778e+00 -4.653481e-01 1.380398e+00 2.176830e+00 -9.408965e+00 -8.588868e-02 3.056739e-01 4.818686e-02 8.617730e-02 9.014995e-02 1.598914e-01 1.012918e-01 -2.636320e-02 3.053914e-02 1.263173e-01 3.362126e-02 -2.818980e-02 -3.653799e-02 -4.490656e-02 7.505178e-02 8.247929e-02 5.618315e-02 5.067360e-02 3.636843e-02 9.752046e-03 -1.083416e-02 1.603328e-02 5.215406e-02 2.077733e-02 -1.241112e-02 -2.473612e-03
<VARIANCE> 39
 1.590891e+01 3.091535e+01 2.668413e+01 2.533714e+01 2.617397e+01 3.475421e+01 2.697601e+01 2.746564e+01 2.616248e+01 2.808245e+01 2.802737e+01 1.822375e+01 2.152267e+00 6.485537e-01 1.411595e+00 1.202828e+00 1.278172e+00 1.450337e+00 1.648580e+00 1.746122e+00 1.779460e+00 1.816473e+00 1.897215e+00 1.591931e+00 1.455623e+00 6.344403e-02 1.076261e-01 1.751281e-01 2.064324e-01 2.149971e-01 2.504532e-01 2.605025e-01 2.966603e-01 2.998303e-01 3.093600e-01 3.163227e-01 2.641377e-01 2.478105e-01 1.000000e-02
<GCONST> 9.119045e+01
<STATE> 3
<MEAN> 39
 -9.165914e+00 4.333938e+00 -1.010122e+00 7.328722e+00 4.835081e+00 4.783706e+00 4.367385e+00 1.131128e+00 2.441329e+00 1.314332e+00 1.503379e+00 1.606434e+00 -1.050255e+01 -4.640067e-02 9.908833e-02 1.750813e-01 4.108065e-02 8.655967e-02 4.088778e-02 2.949216e-02 -9.071055e-02 -9.338630e-02 8.468675e-02 -3.884716e-02 -1.104042e-01 1.546042e-02 1.381831e-01 -1.077015e-01 -4.226469e-02 -1.233319e-01 -9.080096e-02 -8.669085e-02 -2.800941e-02 -1.128762e-02 -4.108942e-02 -6.496087e-02 -4.786418e-02 -3.995431e-03 6.918593e-02
<VARIANCE> 39
 9.473934e+00 1.002204e+01 1.767735e+01 1.956798e+01 1.788123e+01 2.123017e+01 2.228775e+01 2.184208e+01 2.339749e+01 1.987453e+01 2.217089e+01 1.516285e+01 1.000000e-02 6.662371e-01 9.206969e-01 1.280009e+00 1.471174e+00 1.540559e+00 1.579328e+00 1.695985e+00 1.807690e+00 1.850319e+00 1.856129e+00 1.628714e+00 1.441093e+00 1.000000e-02 1.623399e-01 2.119854e-01 2.604774e-01 3.117763e-01 3.117285e-01 3.240276e-01 3.546255e-01 3.660139e-01 3.783777e-01 3.724850e-01 3.312097e-01 2.921763e-01 1.642207e-02
<GCONST> 8.257552e+01
<STATE> 4
<MEAN> 39
 3.529043e-01 -9.691708e-02 7.148971e-02 -2.463560e-01 -1.691427e-01 -1.466724e-01 -1.612962e-01 -6.041516e-02 -9.074359e-02 -2.685609e-02 -6.086805e-02 -7.610268e-02 -3.724029e+00 6.417449e-03 -2.661909e-03 -4.501602e-03 -1.619456e-03 1.457375e-03 -3.482226e-03 -1.507746e-03 -1.926775e-03 -1.975548e-03 -3.739666e-03 -2.805231e-03 1.229822e-03 6.374202e-04 -2.988852e-03 1.397661e-03 -5.717315e-05 2.323444e-03 1.186988e-03 1.485467e-03 3.496270e-04 6.648164e-04 1.110994e-03 7.638772e-04 1.073921e-03 4.853600e-04 -1.802059e-03
<VARIANCE> 39
 9.768850e+01 5.480155e+01 6.825771e+01 7.025412e+01 7.004730e+01 6.310717e+01 6.553641e+01 5.761022e+01 5.411043e+01 4.075518e+01 3.845269e+01 3.128911e+01 1.012954e+01 4.992067e+00 3.618798e+00 3.298095e+00 4.303058e+00 4.328173e+00 4.186410e+00 4.461270e+00 4.400065e+00 3.990041e+00 3.266011e+00 3.015722e+00 2.474437e+00 4.946397e-01 6.911818e-01 5.992968e-01 5.089321e-01 7.000129e-01 7.041484e-01 7.088640e-01 7.650785e-01 7.767085e-01 7.037256e-01 6.020458e-01 5.486351e-01 4.535209e-01 7.440206e-02
<GCONST> 1.297923e+02
<TRANSP> 5
 0.000000e+00 1.000000e+00 0.000000e+00 0.000000e+00 0.000000e+00
 0.000000e+00 7.828335e-01 2.171666e-01 0.000000e+00 0.000000e+00
 0.000000e+00 0.000000e+00 8.684129e-01 1.315871e-01 0.000000e+00
 0.000000e+00 0.000000e+00 0.000000e+00 9.965769e-01 3.423127e-03
 0.000000e+00 0.000000e+00 0.000000e+00 0.000000e+00 0.000000e+00
<ENDHMM>
