~o
<STREAMINFO> 1 39
<VECSIZE> 39<NULLD><MFCC_E_D_A_Z><DIAGC>
~h "sh"
<BEGINHMM>
<NUMSTATES> 5
<STATE> 2
<MEAN> 39
 -7.262981e+00 -1.006169e+00 -2.865494e+00 3.533717e+00 2.751710e+00 1.408559e+00 3.023579e+00 1.965009e+00 1.727488e+00 -4.646897e-01 1.380947e+00 2.176232e+00 -9.407932e+00 -8.530698e-02 3.043739e-01 4.710812e-02 8.552182e-02 8.958852e-02 1.593325e-01 1.010870e-01 -2.615118e-02 3.040018e-02 1.256345e-01 3.331676e-02 -2.800714e-02 -3.653313e-02 -4.481398e-02 7.516468e-02 8.219519e-02 5.601398e-02 5.056575e-02 3.638680e-02 9.855391e-03 -1.074720e-02 1.602016e-02 5.206582e-02 2.072022e-02 -1.236547e-02 -2.500421e-03
<VARIANCE> 39
 1.591395e+01 3.093002e+01 2.667955e+01 2.534241e+01 2.617368e+01 3.475898e+01 2.697451e+01 2.746585e+01 2.616142e+01 2.808463e+01 2.802459e+01 1.822552e+01 2.153356e+00 6.479570e-01 1.409286e+00 1.200492e+00 1.277104e+00 1.449649e+00 1.647916e+00 1.745611e+00 1.779056e+00 1.815754e+00 1.896095e+00 1.591395e+00 1.455231e+00 6.349505e-02 1.075774e-01 1.750178e-01 2.062823e-01 2.148964e-01 2.503800e-01 2.604629e-01 2.965704e-01 2.997262e-01 3.091985e-01 3.161547e-01 2.640064e-01 2.477368e-01 1.000000e-02
<GCONST> 9.117920e+01
<STATE> 3
<MEAN> 39
 -9.163890e+00 4.332009e+00 -1.013010e+00 7.326335e+00 4.833426e+00 4.782361e+00 4.367492e+00 1.132010e+00 2.441109e+00 1.312839e+00 1.502881e+00 1.607107e+00 -1.050254e+01 -4.674471e-02 9.994601e-02 1.756117e-01 4.147595e-02 8.689208e-02 4.131224e-02 2.964387e-02 -9.081760e-02 -9.323748e-02 8.510125e-02 -3.864746e-02 -1.104986e-01 1.543070e-02 1.380042e-01 -1.076324e-01 -4.197922e-02 -1.230865e-01 -9.063473e-02 -8.660992e-02 -2.805456e-02 -1.134861e-02 -4.104966e-02 -6.483011e-02 -4.778483e-02 -4.040336e-03 6.915799e-02
<VARIANCE> 39
 9.480556e+00 1.002808e+01 1.769468e+01 1.957692e+01 1.789034e+01 2.123683e+01 2.229103e+01 2.184664e+01 2.340029e+01 1.988213e+01 2.217612e+01 1.516465e+01 1.000000e-02 6.666071e-01 9.228088e-01 1.281302e+00 1.471765e+00 1.540964e+00 1.580003e+00 1.696404e+00 1.807934e+00 1.850804e+00 1.856910e+00 1.629098e+00 1.441372e+00 1.000000e-02 1.623603e-01 2.119977e-01 2.605941e-01 3.118206e-01 3.117639e-01 3.240403e-01 3.546355e-01 3.660385e-01 3.784382e-01 3.725708e-01 3.312524e-01 2.921972e-01 1.641352e-02
<GCONST> 8.258784e+01
<STATE> 4
<MEAN> 39
 3.529060e-01 -9.692102e-02 7.149039e-02 -2.463511e-01 -1.691455e-01 -1.466673e-01 -1.612980e-01 -6.040832e-02 -9.074491e-02 -2.685680e-02 -6.086561e-02 -7.610140e-02 -3.724061e+00 6.416553e-03 -2.660530e-03 -4.500772e-03 -1.618700e-03 1.457987e-03 -3.482001e-03 -1.506737e-03 -1.925452e-03 -1.974595e-03 -3.738877e-03 -2.804677e-03 1.230710e-03 6.372728e-04 -2.988637e-03 1.397039e-03 -5.800978e-05 2.322721e-03 1.186628e-03 1.485022e-03 3.497564e-04 6.650454e-04 1.111263e-03 7.638070e-04 1.073742e-03 4.855036e-04 -1.802073e-03
<VARIANCE> 39
 9.768855e+01 5.480102e+01 6.825755e+01 7.025336e+01 7.004759e+01 6.310623e+01 6.553693e+01 5.760953e+01 5.411055e+01 4.075513e+01 3.845299e+01 3.128929e+01 1.012953e+01 4.992036e+00 3.618733e+00 3.298046e+00 4.302997e+00 4.328185e+00 4.186358e+00 4.461249e+00 4.400014e+00 3.990093e+00 3.265967e+00 3.015714e+00 2.474415e+00 4.946375e-01 6.911699e-01 5.992897e-01 5.089237e-01 7.000045e-01 7.041487e-01 7.088543e-01 7.650742e-01 7.766951e-01 7.037293e-01 6.020361e-01 5.486350e-01 4.535180e-01 7.440231e-02
<GCONST> 1.297921e+02
<TRANSP> 5
 0.000000e+00 1.000000e+00 0.000000e+00 0.000000e+00 0.000000e+00
 0.000000e+00 7.826083e-01 2.173916e-01 0.000000e+00 0.000000e+00
 0.000000e+00 0.000000e+00 8.684961e-01 1.315039e-01 0.000000e+00
 0.000000e+00 0.000000e+00 0.000000e+00 9.965769e-01 3.423111e-03
 0.000000e+00 0.000000e+00 0.000000e+00 0.000000e+00 0.000000e+00
<ENDHMM>
