~o
<STREAMINFO> 1 39
<VECSIZE> 39<NULLD><MFCC_E_D_A_Z><DIAGC>
~h "sil"
<BEGINHMM>
<NUMSTATES> 5
<STATE> 2
<MEAN> 39
 -7.262992e+00 -1.006182e+00 -2.865504e+00 3.533769e+00 2.751936e+00 1.408416e+00 3.023572e+00 1.964815e+00 1.727324e+00 -4.646277e-01 1.380924e+00 2.176295e+00 -9.407946e+00 -8.528662e-02 3.043472e-01 4.707331e-02 8.550514e-02 8.956292e-02 1.593165e-01 1.010809e-01 -2.613591e-02 3.038540e-02 1.255982e-01 3.329528e-02 -2.800457e-02 -3.653692e-02 -4.481350e-02 7.517257e-02 8.218431e-02 5.600833e-02 5.056333e-02 3.638605e-02 9.862344e-03 -1.074256e-02 1.602016e-02 5.206329e-02 2.071231e-02 -1.236671e-02 -2.501318e-03
<VARIANCE> 39
 1.591439e+01 3.093103e+01 2.667972e+01 2.534346e+01 2.617393e+01 3.476214e+01 2.697375e+01 2.746613e+01 2.616088e+01 2.808467e+01 2.802490e+01 1.822554e+01 2.153323e+00 6.479701e-01 1.409230e+00 1.200406e+00 1.277064e+00 1.449616e+00 1.647902e+00 1.745577e+00 1.779067e+00 1.815762e+00 1.896088e+00 1.591382e+00 1.455254e+00 6.349584e-02 1.075829e-01 1.750166e-01 2.062741e-01 2.148948e-01 2.503819e-01 2.604589e-01 2.965664e-01 2.997253e-01 3.091940e-01 3.161523e-01 2.640036e-01 2.477424e-01 1.000000e-02
<GCONST> 9.117914e+01
<STATE> 3
<MEAN> 39
 -9.163813e+00 4.331961e+00 -1.013157e+00 7.326358e+00 4.833333e+00 4.782335e+00 4.367518e+00 1.132061e+00 2.441079e+00 1.312731e+00 1.502834e+00 1.607096e+00 -1.050254e+01 -4.674759e-02 9.998579e-02 1.756316e-01 4.148809e-02 8.690371e-02 4.133177e-02 2.966685e-02 -9.082209e-02 -9.323120e-02 8.511184e-02 -3.863976e-02 -1.105021e-01 1.542969e-02 1.380005e-01 -1.076319e-01 -4.196978e-02 -1.230825e-01 -9.062855e-02 -8.660845e-02 -2.805296e-02 -1.135009e-02 -4.105068e-02 -6.482125e-02 -4.777888e-02 -4.036911e-03 6.915706e-02
<VARIANCE> 39
 9.481041e+00 1.002825e+01 1.769531e+01 1.957726e+01 1.789069e+01 2.123700e+01 2.229139e+01 2.184667e+01 2.340038e+01 1.988168e+01 2.217593e+01 1.516486e+01 1.000000e-02 6.666359e-01 9.229077e-01 1.281345e+00 1.471781e+00 1.540983e+00 1.580003e+00 1.696399e+00 1.807946e+00 1.850812e+00 1.856886e+00 1.629129e+00 1.441383e+00 1.000000e-02 1.623662e-01 2.119986e-01 2.605957e-01 3.118204e-01 3.117667e-01 3.240388e-01 3.546338e-01 3.660404e-01 3.784405e-01 3.725668e-01 3.312590e-01 2.921986e-01 1.641307e-02
<GCONST> 8.258826e+01
<STATE> 4
<MEAN> 39
 3.528992e-01 -9.692292e-02 7.149095e-02 -2.463513e-01 -1.691454e-01 -1.466647e-01 -1.612967e-01 -6.040456e-02 -9.074060e-02 -2.685619e-02 -6.086292e-02 -7.610004e-02 -3.724056e+00 6.416621e-03 -2.660551e-03 -4.500878e-03 -1.618763e-03 1.457983e-03 -3.482552e-03 -1.507445e-03 -1.925698e-03 -1.974848e-03 -3.738762e-03 -2.804694e-03 1.230969e-03 6.373202e-04 -2.988738e-03 1.397006e-03 -5.807363e-05 2.322775e-03 1.186662e-03 1.485088e-03 3.495523e-04 6.649686e-04 1.111345e-03 7.637615e-04 1.073824e-03 4.855726e-04 -1.802075e-03
<VARIANCE> 39
 9.768684e+01 5.480059e+01 6.825654e+01 7.025315e+01 7.004704e+01 6.310599e+01 6.553574e+01 5.760946e+01 5.410920e+01 4.075438e+01 3.845263e+01 3.128868e+01 1.012973e+01 4.991956e+00 3.618703e+00 3.298024e+00 4.302937e+00 4.328147e+00 4.186301e+00 4.461204e+00 4.399981e+00 3.989995e+00 3.265950e+00 3.015681e+00 2.474401e+00 4.946341e-01 6.911616e-01 5.992848e-01 5.089156e-01 7.000024e-01 7.041446e-01 7.088437e-01 7.650672e-01 7.766795e-01 7.037117e-01 6.020297e-01 5.486305e-01 4.535109e-01 7.440177e-02
<GCONST> 1.297917e+02
<TRANSP> 5
 0.000000e+00 1.000000e+00 0.000000e+00 0.000000e+00 0.000000e+00
 0.000000e+00 7.825899e-01 2.174101e-01 0.000000e+00 0.000000e+00
 0.000000e+00 0.000000e+00 8.684984e-01 1.315016e-01 0.000000e+00
 0.000000e+00 0.000000e+00 0.000000e+00 9.965769e-01 3.423119e-03
 0.000000e+00 0.000000e+00 0.000000e+00 0.000000e+00 0.000000e+00
<ENDHMM>
