~o
<STREAMINFO> 1 39
<VECSIZE> 39<NULLD><MFCC_E_D_A_Z><DIAGC>
~h "t"
<BEGINHMM>
<NUMSTATES> 5
<STATE> 2
<MEAN> 39
 -8.505577e+00 2.581196e+00 -1.696227e+00 6.013942e+00 4.098576e+00 3.605642e+00 3.933165e+00 1.344240e+00 2.183861e+00 6.982324e-01 1.378108e+00 1.809844e+00 -1.017827e+01 -5.755693e-02 1.510362e-01 1.183129e-01 3.101320e-02 7.345790e-02 6.957991e-02 5.204844e-02 -7.477249e-02 -5.287981e-02 9.581956e-02 -1.907147e-02 -7.827191e-02 1.196353e-02 6.740148e-02 -3.444235e-02 8.747993e-03 -5.207737e-02 -3.759219e-02 -3.979130e-02 -1.411462e-02 -1.002688e-02 -1.762099e-02 -1.980525e-02 -1.986758e-02 -7.141555e-03 4.580143e-02
<VARIANCE> 39
 1.276320e+01 2.226444e+01 2.185496e+01 2.435199e+01 2.152927e+01 2.824738e+01 2.428130e+01 2.386598e+01 2.442577e+01 2.334368e+01 2.407069e+01 1.628175e+01 7.095160e-01 6.619935e-01 1.086144e+00 1.229288e+00 1.392473e+00 1.473848e+00 1.590578e+00 1.689188e+00 1.768342e+00 1.809264e+00 1.842401e+00 1.599821e+00 1.440699e+00 2.743276e-02 1.486567e-01 2.006963e-01 2.373811e-01 2.773593e-01 2.849336e-01 2.996737e-01 3.269367e-01 3.352156e-01 3.461190e-01 3.483217e-01 3.029254e-01 2.733300e-01 1.409801e-02
<GCONST> 8.917433e+01
<STATE> 3
<MEAN> 39
 9.339142e-01 -3.110740e-01 2.751514e-01 -6.156523e-01 -6.061943e-01 -3.312301e-01 -5.203406e-01 -1.223246e-01 -2.054850e-01 -4.049492e-02 -4.806967e-02 -2.032816e-01 -3.311521e+00 1.138340e-02 -6.658304e-03 -1.333383e-03 -1.222528e-02 -1.255639e-03 -1.114089e-02 -5.515615e-05 -1.987829e-04 -3.636613e-03 -5.074847e-03 -5.746047e-03 3.557155e-04 1.223502e-02 -4.913381e-03 6.354307e-04 -2.283139e-03 2.874624e-03 2.272503e-03 2.271866e-03 1.492909e-03 9.307149e-04 1.342117e-03 6.782618e-04 1.034337e-03 1.177592e-03 -2.829981e-03
<VARIANCE> 39
 9.845599e+01 5.684738e+01 7.113639e+01 7.140159e+01 7.119997e+01 6.512389e+01 6.675081e+01 5.975253e+01 5.598630e+01 4.169841e+01 3.925092e+01 3.203336e+01 8.352320e+00 5.353497e+00 3.856055e+00 3.494692e+00 4.564064e+00 4.582858e+00 4.403819e+00 4.697743e+00 4.624037e+00 4.181048e+00 3.394006e+00 3.137247e+00 2.564170e+00 5.305789e-01 7.417383e-01 6.392235e-01 5.382329e-01 7.417638e-01 7.436477e-01 7.441205e-01 8.037841e-01 8.151222e-01 7.361882e-01 6.254702e-01 5.702018e-01 4.692373e-01 8.026239e-02
<GCONST> 1.312762e+02
<STATE> 4
<MEAN> 39
 -6.284256e+00 2.221197e+00 -2.262920e+00 3.935920e+00 4.801788e+00 1.929535e+00 3.910815e+00 7.061496e-01 1.223943e+00 1.050930e-01 -1.543550e-01 1.388976e+00 -8.413653e+00 -5.240504e-02 5.732776e-02 -3.494350e-02 1.330547e-01 4.028400e-02 9.242213e-02 -1.524873e-02 -1.780437e-02 1.972530e-02 1.455507e-02 3.436889e-02 9.967352e-03 -1.393036e-01 2.029103e-02 7.554119e-03 2.325474e-02 -6.175248e-03 -1.135454e-02 -8.008714e-03 -1.256644e-02 -3.000398e-03 -2.645195e-03 1.075305e-03 2.757607e-04 -7.451920e-03 8.356787e-03
<VARIANCE> 39
 4.052706e+01 2.601835e+01 2.945143e+01 3.787574e+01 2.999521e+01 3.542033e+01 3.341722e+01 3.274433e+01 3.082604e+01 3.010171e+01 2.961532e+01 2.052587e+01 6.366162e+00 8.598929e-01 9.249446e-01 1.066655e+00 1.306782e+00 1.435675e+00 1.703978e+00 1.773284e+00 1.856899e+00 1.824675e+00 1.819098e+00 1.634071e+00 1.453984e+00 6.311784e-02 1.140886e-01 1.464436e-01 1.773193e-01 2.263543e-01 2.572825e-01 3.080546e-01 3.257883e-01 3.407604e-01 3.367512e-01 3.379415e-01 3.048342e-01 2.749774e-01 1.000000e-02
<GCONST> 9.490891e+01
<TRANSP> 5
 0.000000e+00 1.000000e+00 0.000000e+00 0.000000e+00 0.000000e+00
 0.000000e+00 9.168100e-01 8.319001e-02 0.000000e+00 0.000000e+00
 0.000000e+00 0.000000e+00 9.962778e-01 3.722189e-03 0.000000e+00
 0.000000e+00 0.000000e+00 0.000000e+00 9.577278e-01 4.227221e-02
 0.000000e+00 0.000000e+00 0.000000e+00 0.000000e+00 0.000000e+00
<ENDHMM>
