~o
<STREAMINFO> 1 39
<VECSIZE> 39<NULLD><MFCC_E_D_A_Z><DIAGC>
~h "th"
<BEGINHMM>
<NUMSTATES> 5
<STATE> 2
<MEAN> 39
 -8.641735e+00 3.208031e+00 -1.707184e+00 6.615537e+00 4.272825e+00 3.998387e+00 4.008433e+00 1.247770e+00 2.320029e+00 7.978122e-01 1.376605e+00 1.823577e+00 -1.042859e+01 -1.128557e-01 1.719071e-01 1.361961e-01 7.714715e-02 1.191967e-01 9.391992e-02 5.215270e-02 -8.227253e-02 -5.158950e-02 1.190966e-01 6.378603e-03 -7.729035e-02 -5.767532e-03 4.706462e-02 -2.912373e-02 3.434825e-03 -4.045898e-02 -2.303446e-02 -2.395352e-02 3.242362e-03 1.175514e-03 -1.117180e-02 -1.193672e-02 -1.325892e-02 -3.698946e-03 2.684400e-02
<VARIANCE> 39
 1.102659e+01 1.613780e+01 1.993295e+01 2.115081e+01 1.963873e+01 2.452666e+01 2.315919e+01 2.255783e+01 2.364178e+01 2.185526e+01 2.327108e+01 1.562383e+01 9.297784e-02 4.483440e-01 7.727681e-01 1.015799e+00 1.151745e+00 1.291926e+00 1.433406e+00 1.556880e+00 1.656184e+00 1.702358e+00 1.741007e+00 1.524406e+00 1.379347e+00 1.000000e-02 9.508546e-02 1.379321e-01 1.898066e-01 2.226565e-01 2.390030e-01 2.572439e-01 2.902186e-01 3.050419e-01 3.149381e-01 3.207701e-01 2.821884e-01 2.541834e-01 1.000000e-02
<GCONST> 8.074769e+01
<STATE> 3
<MEAN> 39
 -7.992654e+00 1.506873e+00 -1.463689e+00 4.417030e+00 3.835418e+00 2.816246e+00 4.023139e+00 1.297461e+00 1.756727e+00 6.266924e-01 9.776548e-01 1.526688e+00 -8.735878e+00 6.939886e-01 -8.605616e-02 1.700255e-01 -4.636401e-01 -3.760464e-01 -3.286032e-01 -2.117745e-01 -1.672508e-01 -1.764923e-01 -9.427116e-02 -1.810626e-01 -1.193023e-01 5.019696e-01 2.663467e-01 -6.627136e-02 5.068318e-02 -1.613721e-01 -1.721079e-01 -1.323348e-01 -1.707838e-01 -4.905924e-02 -5.514986e-02 -2.534365e-02 -2.708171e-02 -3.278972e-02 1.454707e-01
<VARIANCE> 39
 2.331381e+01 3.779832e+01 3.176173e+01 3.366922e+01 3.010209e+01 3.611106e+01 2.987681e+01 2.944925e+01 2.807194e+01 2.693661e+01 2.791237e+01 1.914573e+01 4.221695e+00 3.430880e+00 2.880519e+00 2.690356e+00 3.247252e+00 2.935906e+00 2.956280e+00 2.858544e+00 2.652307e+00 2.672698e+00 2.446076e+00 2.203432e+00 1.871103e+00 5.892146e-01 4.817546e-01 5.018947e-01 4.815241e-01 5.760510e-01 5.107160e-01 5.275419e-01 5.495901e-01 4.987164e-01 5.035020e-01 4.782285e-01 4.345797e-01 3.696989e-01 7.101792e-02
<GCONST> 1.137592e+02
<STATE> 4
<MEAN> 39
 5.016572e-01 -1.423296e-01 9.563791e-02 -3.328790e-01 -2.445378e-01 -2.055983e-01 -2.421844e-01 -7.674483e-02 -1.229829e-01 -4.297049e-02 -7.102721e-02 -1.010519e-01 -3.641263e+00 -1.352470e-02 2.205531e-03 -8.404219e-03 1.242708e-02 1.292183e-02 7.141695e-03 5.660861e-03 2.731220e-03 2.873103e-03 -3.059643e-04 1.905981e-03 3.800503e-03 -1.444432e-02 -9.534533e-03 2.648161e-03 -1.481539e-03 6.075694e-03 5.487681e-03 4.502777e-03 4.806723e-03 1.643256e-03 2.296200e-03 1.017250e-03 1.374115e-03 1.286751e-03 -5.227184e-03
<VARIANCE> 39
 9.766698e+01 5.503568e+01 6.881285e+01 7.043938e+01 7.040402e+01 6.341741e+01 6.577431e+01 5.808253e+01 5.449582e+01 4.100327e+01 3.863383e+01 3.146111e+01 9.827566e+00 4.977586e+00 3.620789e+00 3.297756e+00 4.300080e+00 4.337340e+00 4.193892e+00 4.479251e+00 4.424082e+00 4.006660e+00 3.277230e+00 3.024788e+00 2.481702e+00 4.790249e-01 6.903940e-01 5.993621e-01 5.080608e-01 6.997070e-01 7.056964e-01 7.102410e-01 7.666661e-01 7.807302e-01 7.065211e-01 6.037380e-01 5.498511e-01 4.544579e-01 7.345206e-02
<GCONST> 1.298200e+02
<TRANSP> 5
 0.000000e+00 1.000000e+00 0.000000e+00 0.000000e+00 0.000000e+00
 0.000000e+00 8.848078e-01 1.151922e-01 0.000000e+00 0.000000e+00
 0.000000e+00 0.000000e+00 8.841095e-01 1.158905e-01 0.000000e+00
 0.000000e+00 0.000000e+00 0.000000e+00 9.965160e-01 3.484036e-03
 0.000000e+00 0.000000e+00 0.000000e+00 0.000000e+00 0.000000e+00
<ENDHMM>
