~o
<STREAMINFO> 1 39
<VECSIZE> 39<NULLD><MFCC_E_D_A_Z><DIAGC>
~h "uh"
<BEGINHMM>
<NUMSTATES> 5
<STATE> 2
<MEAN> 39
 -8.472537e+00 2.366619e+00 -1.673567e+00 5.809672e+00 4.060984e+00 3.481619e+00 3.933196e+00 1.389260e+00 2.098862e+00 7.022153e-01 1.356464e+00 1.778665e+00 -1.002986e+01 -1.630456e-02 1.137734e-01 1.127190e-01 -7.750640e-03 5.004181e-02 4.136759e-02 4.432531e-02 -7.602440e-02 -5.458754e-02 7.485189e-02 -3.224551e-02 -7.434920e-02 5.194193e-02 8.578603e-02 -3.395634e-02 1.371187e-02 -6.123179e-02 -4.777384e-02 -4.933302e-02 -2.582608e-02 -1.601923e-02 -2.051588e-02 -2.197405e-02 -2.188874e-02 -8.838153e-03 6.068662e-02
<VARIANCE> 39
 1.357117e+01 2.440249e+01 2.254215e+01 2.544746e+01 2.242640e+01 2.906921e+01 2.476063e+01 2.444631e+01 2.476165e+01 2.371429e+01 2.440946e+01 1.653296e+01 1.184682e+00 8.136408e-01 1.282971e+00 1.362656e+00 1.538875e+00 1.581156e+00 1.686493e+00 1.753484e+00 1.836380e+00 1.865579e+00 1.892318e+00 1.642915e+00 1.468751e+00 7.081984e-02 1.879576e-01 2.268544e-01 2.592252e-01 3.021880e-01 3.050392e-01 3.201624e-01 3.451603e-01 3.503994e-01 3.596297e-01 3.597862e-01 3.133889e-01 2.814452e-01 2.264059e-02
<GCONST> 9.328947e+01
<STATE> 3
<MEAN> 39
 1.023649e+00 -3.911242e-01 3.272996e-01 -6.787903e-01 -6.986064e-01 -4.026308e-01 -7.837688e-01 -1.916891e-01 -3.118469e-01 -1.844542e-02 -2.402695e-02 -2.674626e-01 -3.187100e+00 3.956667e-02 -1.778426e-02 5.101786e-03 -3.070477e-02 -2.122631e-02 -2.088422e-02 -1.787332e-02 9.617555e-05 -5.283835e-03 -4.553080e-03 -3.671038e-03 -3.634481e-03 2.690339e-02 -7.502417e-03 5.621385e-04 -2.601018e-03 2.840018e-03 3.240370e-03 4.012014e-03 3.720972e-03 2.466739e-03 2.338378e-03 7.346900e-04 1.191359e-03 1.296483e-03 -3.526593e-03
<VARIANCE> 39
 9.828133e+01 5.910440e+01 7.174859e+01 7.397413e+01 7.240591e+01 6.653704e+01 6.845124e+01 6.167286e+01 5.757534e+01 4.287527e+01 4.048375e+01 3.261822e+01 8.267370e+00 5.691979e+00 4.193473e+00 3.721230e+00 4.945150e+00 4.906187e+00 4.712698e+00 5.054701e+00 4.959559e+00 4.465073e+00 3.614035e+00 3.342313e+00 2.706796e+00 5.828930e-01 7.954622e-01 7.000546e-01 5.770299e-01 8.061442e-01 8.011850e-01 8.021189e-01 8.695245e-01 8.798015e-01 7.905233e-01 6.707064e-01 6.106311e-01 4.984413e-01 8.879081e-02
<GCONST> 1.334436e+02
<STATE> 4
<MEAN> 39
 -1.423819e+00 7.039949e-01 -6.454939e-01 9.089658e-01 1.287966e+00 5.326293e-01 1.559408e+00 3.028776e-01 5.223592e-01 -7.531518e-02 -1.792713e-01 4.519568e-01 -5.174454e+00 -9.704885e-02 4.948769e-02 -3.237206e-02 9.400249e-02 7.277799e-02 5.360677e-02 4.726303e-02 -4.793755e-03 9.992965e-03 1.290163e-03 3.694543e-03 1.604125e-02 -8.605514e-02 5.681404e-03 3.733173e-03 5.618080e-03 2.984151e-03 -2.136553e-03 -3.390185e-03 -6.975277e-03 -3.451223e-03 -1.879118e-03 1.489940e-03 1.166822e-03 -1.420707e-03 -1.044126e-03
<VARIANCE> 39
 9.146311e+01 4.188553e+01 5.819696e+01 5.789301e+01 6.080428e+01 5.293606e+01 5.334398e+01 4.622372e+01 4.404132e+01 3.494501e+01 3.284848e+01 2.727733e+01 1.215194e+01 3.008280e+00 1.966361e+00 2.088609e+00 2.458896e+00 2.685890e+00 2.691190e+00 2.782589e+00 2.819494e+00 2.647005e+00 2.279204e+00 2.089494e+00 1.817168e+00 2.296234e-01 3.914712e-01 3.105589e-01 3.133145e-01 3.961207e-01 4.280888e-01 4.426458e-01 4.677073e-01 4.839289e-01 4.574071e-01 4.067392e-01 3.722889e-01 3.253662e-01 3.193503e-02
<GCONST> 1.151041e+02
<TRANSP> 5
 0.000000e+00 1.000000e+00 0.000000e+00 0.000000e+00 0.000000e+00
 0.000000e+00 9.267607e-01 7.323926e-02 0.000000e+00 0.000000e+00
 0.000000e+00 0.000000e+00 9.953783e-01 4.621658e-03 0.000000e+00
 0.000000e+00 0.000000e+00 0.000000e+00 9.865432e-01 1.345675e-02
 0.000000e+00 0.000000e+00 0.000000e+00 0.000000e+00 0.000000e+00
<ENDHMM>
