~o
<STREAMINFO> 1 39
<VECSIZE> 39<NULLD><MFCC_E_D_A_Z><DIAGC>
~h "uw"
<BEGINHMM>
<NUMSTATES> 5
<STATE> 2
<MEAN> 39
 -7.262036e+00 -1.004588e+00 -2.867490e+00 3.533810e+00 2.751263e+00 1.409288e+00 3.024580e+00 1.965355e+00 1.727656e+00 -4.652142e-01 1.380397e+00 2.176412e+00 -9.408639e+00 -8.568197e-02 3.052066e-01 4.779663e-02 8.593701e-02 8.994810e-02 1.596991e-01 1.012285e-01 -2.628099e-02 3.048664e-02 1.260685e-01 3.352341e-02 -2.812086e-02 -3.653413e-02 -4.487380e-02 7.509623e-02 8.238310e-02 5.612664e-02 5.063839e-02 3.637768e-02 9.790286e-03 -1.079912e-02 1.603181e-02 5.212593e-02 2.075579e-02 -1.239366e-02 -2.482167e-03
<VARIANCE> 39
 1.591033e+01 3.092028e+01 2.668064e+01 2.533832e+01 2.617252e+01 3.475743e+01 2.697588e+01 2.746444e+01 2.616084e+01 2.808312e+01 2.802611e+01 1.822386e+01 2.152714e+00 6.482608e-01 1.410706e+00 1.201890e+00 1.277720e+00 1.450032e+00 1.648317e+00 1.745929e+00 1.779256e+00 1.816150e+00 1.896814e+00 1.591763e+00 1.455497e+00 6.345931e-02 1.075933e-01 1.750766e-01 2.063607e-01 2.149519e-01 2.504215e-01 2.604845e-01 2.966224e-01 2.997817e-01 3.092946e-01 3.162641e-01 2.640964e-01 2.477873e-01 1.000000e-02
<GCONST> 9.118531e+01
<STATE> 3
<MEAN> 39
 -9.165299e+00 4.333344e+00 -1.011027e+00 7.327869e+00 4.834550e+00 4.783329e+00 4.367492e+00 1.131437e+00 2.441198e+00 1.313833e+00 1.503205e+00 1.606671e+00 -1.050254e+01 -4.651222e-02 9.937566e-02 1.752628e-01 4.120909e-02 8.667066e-02 4.105057e-02 2.955566e-02 -9.074901e-02 -9.333844e-02 8.483452e-02 -3.877312e-02 -1.104275e-01 1.545163e-02 1.381253e-01 -1.076849e-01 -4.216880e-02 -1.232535e-01 -9.074932e-02 -8.666720e-02 -2.802986e-02 -1.131334e-02 -4.107823e-02 -6.491248e-02 -4.784133e-02 -4.016222e-03 6.917793e-02
<VARIANCE> 39
 9.476207e+00 1.002380e+01 1.768261e+01 1.957097e+01 1.788401e+01 2.123200e+01 2.228903e+01 2.184368e+01 2.339828e+01 1.987677e+01 2.217231e+01 1.516334e+01 1.000000e-02 6.663787e-01 9.214530e-01 1.280499e+00 1.471380e+00 1.540715e+00 1.579554e+00 1.696147e+00 1.807766e+00 1.850464e+00 1.856383e+00 1.628880e+00 1.441179e+00 1.000000e-02 1.623509e-01 2.119914e-01 2.605225e-01 3.117857e-01 3.117423e-01 3.240336e-01 3.546309e-01 3.660208e-01 3.783928e-01 3.725111e-01 3.312316e-01 2.921840e-01 1.641962e-02
<GCONST> 8.257980e+01
<STATE> 4
<MEAN> 39
 3.529047e-01 -9.692058e-02 7.149053e-02 -2.463487e-01 -1.691436e-01 -1.466654e-01 -1.612978e-01 -6.040818e-02 -9.074157e-02 -2.685437e-02 -6.086374e-02 -7.609882e-02 -3.724068e+00 6.416874e-03 -2.661200e-03 -4.500879e-03 -1.618447e-03 1.458007e-03 -3.482748e-03 -1.507890e-03 -1.926187e-03 -1.974755e-03 -3.739353e-03 -2.805316e-03 1.229918e-03 6.373310e-04 -2.988830e-03 1.397518e-03 -5.744465e-05 2.323302e-03 1.186976e-03 1.485171e-03 3.495463e-04 6.648393e-04 1.111118e-03 7.636238e-04 1.073821e-03 4.854471e-04 -1.802069e-03
<VARIANCE> 39
 9.768755e+01 5.480057e+01 6.825660e+01 7.025277e+01 7.004783e+01 6.310580e+01 6.553622e+01 5.760931e+01 5.411016e+01 4.075459e+01 3.845304e+01 3.128925e+01 1.012966e+01 4.991970e+00 3.618716e+00 3.298040e+00 4.302906e+00 4.328160e+00 4.186327e+00 4.461246e+00 4.399988e+00 3.990052e+00 3.265971e+00 3.015717e+00 2.474410e+00 4.946373e-01 6.911585e-01 5.992845e-01 5.089194e-01 7.000022e-01 7.041442e-01 7.088520e-01 7.650748e-01 7.766913e-01 7.037239e-01 6.020325e-01 5.486297e-01 4.535165e-01 7.440266e-02
<GCONST> 1.297919e+02
<TRANSP> 5
 0.000000e+00 1.000000e+00 0.000000e+00 0.000000e+00 0.000000e+00
 0.000000e+00 7.827615e-01 2.172385e-01 0.000000e+00 0.000000e+00
 0.000000e+00 0.000000e+00 8.684391e-01 1.315609e-01 0.000000e+00
 0.000000e+00 0.000000e+00 0.000000e+00 9.965769e-01 3.423109e-03
 0.000000e+00 0.000000e+00 0.000000e+00 0.000000e+00 0.000000e+00
<ENDHMM>
