~o
<STREAMINFO> 1 39
<VECSIZE> 39<NULLD><MFCC_E_D_A_Z><DIAGC>
~h "v"
<BEGINHMM>
<NUMSTATES> 5
<STATE> 2
<MEAN> 39
 -8.641347e+00 3.207448e+00 -1.707468e+00 6.615362e+00 4.272817e+00 3.998818e+00 4.008316e+00 1.247892e+00 2.320017e+00 7.979176e-01 1.376652e+00 1.823637e+00 -1.042852e+01 -1.127931e-01 1.719760e-01 1.362400e-01 7.710200e-02 1.191565e-01 9.389023e-02 5.222383e-02 -8.225979e-02 -5.160812e-02 1.191938e-01 6.339294e-03 -7.738367e-02 -5.766312e-03 4.715025e-02 -2.917054e-02 3.426411e-03 -4.054167e-02 -2.311198e-02 -2.402857e-02 3.185783e-03 1.134192e-03 -1.122009e-02 -1.198827e-02 -1.330300e-02 -3.728960e-03 2.690149e-02
<VARIANCE> 39
 1.102991e+01 1.614647e+01 1.993743e+01 2.115646e+01 1.964255e+01 2.453057e+01 2.316378e+01 2.256278e+01 2.364546e+01 2.185902e+01 2.327202e+01 1.562567e+01 9.302214e-02 4.488736e-01 7.737103e-01 1.016639e+00 1.152684e+00 1.292646e+00 1.434048e+00 1.557248e+00 1.656738e+00 1.702749e+00 1.741587e+00 1.524845e+00 1.379590e+00 1.000000e-02 9.523321e-02 1.381425e-01 1.900177e-01 2.228784e-01 2.391934e-01 2.574281e-01 2.903168e-01 3.051942e-01 3.150644e-01 3.209313e-01 2.823141e-01 2.542573e-01 1.000000e-02
<GCONST> 8.076658e+01
<STATE> 3
<MEAN> 39
 -7.993382e+00 1.508237e+00 -1.463094e+00 4.412802e+00 3.833782e+00 2.812127e+00 4.022347e+00 1.296170e+00 1.755940e+00 6.259813e-01 9.765183e-01 1.526827e+00 -8.727664e+00 6.960533e-01 -8.684219e-02 1.704386e-01 -4.648047e-01 -3.774045e-01 -3.298582e-01 -2.130006e-01 -1.673737e-01 -1.767208e-01 -9.474417e-02 -1.814214e-01 -1.193757e-01 5.030587e-01 2.665531e-01 -6.638519e-02 5.071165e-02 -1.611976e-01 -1.721334e-01 -1.321684e-01 -1.709551e-01 -4.889711e-02 -5.510432e-02 -2.522117e-02 -2.702364e-02 -3.289149e-02 1.451339e-01
<VARIANCE> 39
 2.338523e+01 3.784078e+01 3.179180e+01 3.369659e+01 3.011440e+01 3.612862e+01 2.988869e+01 2.945614e+01 2.807708e+01 2.693421e+01 2.791233e+01 1.914797e+01 4.249569e+00 3.439947e+00 2.882020e+00 2.692946e+00 3.250272e+00 2.939258e+00 2.960586e+00 2.861923e+00 2.653929e+00 2.674375e+00 2.446480e+00 2.204693e+00 1.871888e+00 5.904739e-01 4.822185e-01 5.024042e-01 4.819003e-01 5.764056e-01 5.108923e-01 5.279672e-01 5.499108e-01 4.989824e-01 5.036842e-01 4.783053e-01 4.347194e-01 3.697960e-01 7.116453e-02
<GCONST> 1.137956e+02
<STATE> 4
<MEAN> 39
 5.021769e-01 -1.424893e-01 9.572470e-02 -3.330750e-01 -2.447359e-01 -2.056910e-01 -2.424049e-01 -7.678853e-02 -1.230817e-01 -4.299523e-02 -7.106496e-02 -1.011595e-01 -3.641195e+00 -1.361042e-02 2.226119e-03 -8.427423e-03 1.247833e-02 1.297451e-02 7.189753e-03 5.701990e-03 2.742676e-03 2.888264e-03 -2.940675e-04 1.923930e-03 3.811885e-03 -1.449509e-02 -9.554197e-03 2.656088e-03 -1.484150e-03 6.079865e-03 5.497619e-03 4.505467e-03 4.819703e-03 1.641321e-03 2.298404e-03 1.016263e-03 1.375089e-03 1.291999e-03 -5.224728e-03
<VARIANCE> 39
 9.766734e+01 5.503673e+01 6.881561e+01 7.044157e+01 7.040684e+01 6.342029e+01 6.577638e+01 5.808512e+01 5.449783e+01 4.100484e+01 3.863545e+01 3.146245e+01 9.828388e+00 4.977393e+00 3.620907e+00 3.297765e+00 4.300097e+00 4.337427e+00 4.193888e+00 4.479362e+00 4.424224e+00 4.006761e+00 3.277360e+00 3.024810e+00 2.481750e+00 4.789573e-01 6.904082e-01 5.993716e-01 5.080633e-01 6.997159e-01 7.057216e-01 7.102599e-01 7.666848e-01 7.807449e-01 7.065384e-01 6.037493e-01 5.498664e-01 4.544708e-01 7.345271e-02
<GCONST> 1.298208e+02
<TRANSP> 5
 0.000000e+00 1.000000e+00 0.000000e+00 0.000000e+00 0.000000e+00
 0.000000e+00 8.848988e-01 1.151012e-01 0.000000e+00 0.000000e+00
 0.000000e+00 0.000000e+00 8.842422e-01 1.157578e-01 0.000000e+00
 0.000000e+00 0.000000e+00 0.000000e+00 9.965158e-01 3.484225e-03
 0.000000e+00 0.000000e+00 0.000000e+00 0.000000e+00 0.000000e+00
<ENDHMM>
