~o
<STREAMINFO> 1 39
<VECSIZE> 39<NULLD><MFCC_E_D_A_Z><DIAGC>
~h "w"
<BEGINHMM>
<NUMSTATES> 5
<STATE> 2
<MEAN> 39
 3.250144e-01 -1.834645e-01 1.954629e-01 -2.454733e-01 -3.477570e-01 -1.711687e-01 -4.069938e-01 -7.865825e-02 -1.202200e-01 3.257354e-02 4.965141e-02 -1.230526e-01 -3.619272e+00 3.758763e-02 -1.173042e-02 9.329017e-03 -3.073345e-02 -1.804831e-02 -1.690333e-02 -1.418901e-02 -4.050566e-03 -7.266802e-03 5.366169e-04 -5.357990e-03 -6.884813e-03 2.702538e-02 3.087716e-04 -1.811241e-03 -1.157058e-03 -1.373739e-03 -7.934752e-04 5.290621e-04 1.021694e-03 1.184920e-03 3.659946e-04 -8.285388e-04 -3.507601e-04 2.963863e-04 4.346687e-04
<VARIANCE> 39
 9.964777e+01 5.668205e+01 6.836943e+01 7.166767e+01 7.008739e+01 6.420348e+01 6.610833e+01 5.847351e+01 5.505357e+01 4.108397e+01 3.894744e+01 3.163618e+01 1.034805e+01 5.429244e+00 3.938923e+00 3.516770e+00 4.628669e+00 4.629018e+00 4.443419e+00 4.755320e+00 4.654822e+00 4.219529e+00 3.436633e+00 3.170643e+00 2.592016e+00 5.449163e-01 7.607986e-01 6.576560e-01 5.484747e-01 7.585422e-01 7.575465e-01 7.576240e-01 8.201066e-01 8.265140e-01 7.478476e-01 6.373764e-01 5.796494e-01 4.769711e-01 8.383071e-02
<GCONST> 1.317901e+02
<STATE> 3
<MEAN> 39
 3.741837e-01 1.457288e-01 -3.893507e-01 -3.885876e-01 3.273995e-01 1.108678e-01 1.018623e+00 3.173352e-01 3.366928e-01 -3.490082e-01 -3.453406e-01 1.766128e-01 -4.053603e+00 -1.500248e-01 4.468022e-02 -6.462368e-02 1.479134e-01 1.462448e-01 7.822913e-02 9.924078e-02 -2.964885e-04 5.454137e-03 -2.214529e-02 -1.538223e-02 2.690500e-02 -1.383663e-01 -9.287524e-03 1.195428e-02 -1.127104e-03 1.528146e-02 3.961982e-03 1.111868e-03 -4.205892e-03 -4.932428e-03 2.929158e-04 5.798112e-03 5.826630e-03 2.184415e-03 -9.942354e-03
<VARIANCE> 39
 9.599908e+01 4.561227e+01 6.881081e+01 6.466010e+01 6.826845e+01 5.956536e+01 5.989855e+01 5.344855e+01 5.024785e+01 3.810063e+01 3.594884e+01 2.935594e+01 7.811837e+00 2.656284e+00 1.982743e+00 2.240742e+00 2.598838e+00 2.766917e+00 2.832472e+00 2.879750e+00 3.053556e+00 2.776747e+00 2.361277e+00 2.174291e+00 1.845128e+00 1.944824e-01 3.309767e-01 3.017764e-01 3.190129e-01 4.041685e-01 4.304798e-01 4.482500e-01 4.692703e-01 5.099078e-01 4.698455e-01 4.121393e-01 3.797524e-01 3.256455e-01 2.488731e-02
<GCONST> 1.158541e+02
<STATE> 4
<MEAN> 39
 -6.534741e+00 2.700236e+00 -2.228545e+00 5.228994e+00 4.976592e+00 2.588753e+00 4.064518e+00 4.519156e-01 1.101435e+00 4.154505e-01 1.163713e-01 1.592674e+00 -9.865216e+00 -1.438495e-01 1.687170e-01 3.726442e-02 1.263576e-01 2.212474e-03 7.134938e-02 -1.777388e-02 -2.401466e-02 2.992924e-02 6.126808e-02 6.798794e-02 5.384661e-04 -6.481955e-02 1.847043e-02 -6.852616e-03 2.554653e-02 -1.906431e-02 -5.022005e-03 -1.593243e-02 -1.011497e-02 -2.408349e-03 -1.144532e-03 -4.103725e-03 -7.102129e-03 -7.375151e-03 1.936120e-02
<VARIANCE> 39
 1.587456e+01 2.027007e+01 2.313073e+01 2.600891e+01 2.185463e+01 2.969114e+01 2.838134e+01 2.814021e+01 2.678849e+01 2.844620e+01 2.700019e+01 1.850278e+01 9.068968e-01 4.056753e-01 6.598313e-01 8.446647e-01 1.038963e+00 1.184305e+00 1.448240e+00 1.582351e+00 1.684526e+00 1.698904e+00 1.741385e+00 1.568770e+00 1.391649e+00 2.162739e-02 6.971234e-02 1.130717e-01 1.473934e-01 1.872191e-01 2.219473e-01 2.729624e-01 2.975810e-01 3.140603e-01 3.170771e-01 3.277147e-01 2.944718e-01 2.644728e-01 1.000000e-02
<GCONST> 8.483468e+01
<TRANSP> 5
 0.000000e+00 1.000000e+00 0.000000e+00 0.000000e+00 0.000000e+00
 0.000000e+00 9.959821e-01 4.017940e-03 0.000000e+00 0.000000e+00
 0.000000e+00 0.000000e+00 9.754544e-01 2.454554e-02 0.000000e+00
 0.000000e+00 0.000000e+00 0.000000e+00 9.320256e-01 6.797441e-02
 0.000000e+00 0.000000e+00 0.000000e+00 0.000000e+00 0.000000e+00
<ENDHMM>
