~o
<STREAMINFO> 1 39
<VECSIZE> 39<NULLD><MFCC_E_D_A_Z><DIAGC>
~h "y"
<BEGINHMM>
<NUMSTATES> 5
<STATE> 2
<MEAN> 39
 4.559790e-01 -1.771092e-01 2.004199e-01 -2.978364e-01 -3.831046e-01 -1.665630e-01 -3.315873e-01 -6.421448e-02 -1.055461e-01 4.389102e-03 1.702623e-02 -1.088204e-01 -3.623902e+00 1.252596e-02 -2.049303e-03 3.079333e-03 -1.331961e-02 -1.173062e-03 -8.066769e-03 3.867514e-04 -3.771437e-03 -5.727758e-03 -2.746247e-04 -6.119314e-03 -3.317061e-03 1.312413e-02 -1.181782e-03 -6.227602e-04 -1.515645e-03 2.784775e-04 2.945013e-04 4.546669e-04 5.985252e-04 5.301196e-04 3.762165e-04 -3.760513e-04 9.734226e-05 5.887751e-04 -5.139519e-04
<VARIANCE> 39
 9.878992e+01 5.573120e+01 6.886237e+01 7.102785e+01 6.992303e+01 6.400143e+01 6.575903e+01 5.822612e+01 5.481986e+01 4.091683e+01 3.869955e+01 3.152085e+01 1.004699e+01 5.186851e+00 3.759854e+00 3.412172e+00 4.448872e+00 4.467712e+00 4.302191e+00 4.591435e+00 4.520520e+00 4.095686e+00 3.342484e+00 3.083753e+00 2.526478e+00 5.129935e-01 7.221497e-01 6.246197e-01 5.282058e-01 7.261520e-01 7.279639e-01 7.290785e-01 7.880818e-01 7.987560e-01 7.230287e-01 6.167933e-01 5.616127e-01 4.630989e-01 7.818538e-02
<GCONST> 1.306996e+02
<STATE> 3
<MEAN> 39
 -6.891581e+00 2.852485e+00 -1.828711e+00 4.774378e+00 4.680366e+00 2.033413e+00 4.230969e+00 4.122669e-01 9.989209e-01 5.950024e-01 6.991070e-02 1.670111e+00 -9.310953e+00 -9.795282e-02 1.060624e-01 -1.168070e-02 9.288656e-02 3.850366e-02 6.123347e-02 -3.285631e-02 1.163516e-03 3.116560e-02 1.906858e-02 4.750492e-02 -6.507830e-04 -6.677717e-02 2.945104e-02 8.270423e-04 2.731775e-02 -9.018625e-03 -9.396000e-03 -1.140115e-02 -1.471626e-02 -6.702806e-03 -2.778492e-03 -3.321325e-03 -4.906996e-03 -1.074513e-02 1.175043e-02
<VARIANCE> 39
 2.365153e+01 2.185834e+01 2.255163e+01 2.954525e+01 2.349425e+01 3.046133e+01 2.902749e+01 2.849125e+01 2.689327e+01 2.783603e+01 2.657172e+01 1.831604e+01 3.497492e+00 4.432054e-01 6.394399e-01 8.229866e-01 1.023402e+00 1.191638e+00 1.458009e+00 1.545224e+00 1.647553e+00 1.670868e+00 1.724785e+00 1.546015e+00 1.361343e+00 2.568617e-02 7.970621e-02 1.164430e-01 1.534004e-01 1.976156e-01 2.344992e-01 2.869639e-01 3.064967e-01 3.279978e-01 3.307141e-01 3.437292e-01 3.094964e-01 2.730491e-01 1.000000e-02
<GCONST> 8.754860e+01
<STATE> 4
<MEAN> 39
 -3.094435e+00 1.057092e+00 -2.349716e+00 1.796226e+00 3.514811e+00 1.529341e+00 2.893784e+00 8.960099e-01 1.207849e+00 -5.749881e-01 -3.853163e-01 7.175396e-01 -6.425045e+00 -8.232396e-02 4.774836e-02 -3.320699e-02 1.961105e-01 9.459976e-02 1.068225e-01 3.696486e-02 -2.346121e-02 5.197484e-03 -1.248357e-03 1.214589e-02 2.217868e-02 -1.881591e-01 -3.597754e-03 6.832554e-03 9.550559e-03 2.089611e-03 -5.535044e-03 -3.325678e-03 -3.945646e-03 -6.256210e-04 1.014125e-03 7.872264e-03 5.327657e-03 1.282465e-03 -6.293977e-04
<VARIANCE> 39
 7.594241e+01 3.491037e+01 4.868596e+01 5.777280e+01 5.156089e+01 4.863631e+01 4.465320e+01 4.232872e+01 3.961216e+01 3.371657e+01 3.336362e+01 2.485720e+01 1.062378e+01 1.329127e+00 1.262929e+00 1.431882e+00 1.704868e+00 1.845617e+00 2.024346e+00 2.046067e+00 2.160280e+00 2.058960e+00 1.897692e+00 1.735385e+00 1.531784e+00 9.291736e-02 1.462400e-01 1.795556e-01 2.068011e-01 2.618997e-01 2.878513e-01 3.268702e-01 3.361052e-01 3.547454e-01 3.443880e-01 3.229303e-01 2.929256e-01 2.677369e-01 1.035427e-02
<GCONST> 1.029754e+02
<TRANSP> 5
 0.000000e+00 1.000000e+00 0.000000e+00 0.000000e+00 0.000000e+00
 0.000000e+00 9.964027e-01 3.597328e-03 0.000000e+00 0.000000e+00
 0.000000e+00 0.000000e+00 9.160176e-01 8.398242e-02 0.000000e+00
 0.000000e+00 0.000000e+00 0.000000e+00 9.307654e-01 6.923459e-02
 0.000000e+00 0.000000e+00 0.000000e+00 0.000000e+00 0.000000e+00
<ENDHMM>
