~o
<STREAMINFO> 1 39
<VECSIZE> 39<NULLD><MFCC_E_D_A_Z><DIAGC>
~h "z"
<BEGINHMM>
<NUMSTATES> 5
<STATE> 2
<MEAN> 39
 -8.640209e+00 3.205572e+00 -1.708169e+00 6.614531e+00 4.272441e+00 4.000379e+00 4.007617e+00 1.248847e+00 2.320180e+00 7.984508e-01 1.376928e+00 1.823629e+00 -1.042833e+01 -1.126601e-01 1.721893e-01 1.363610e-01 7.700074e-02 1.190863e-01 9.387874e-02 5.245842e-02 -8.227476e-02 -5.167798e-02 1.194501e-01 6.234081e-03 -7.763644e-02 -5.767995e-03 4.736960e-02 -2.929096e-02 3.430422e-03 -4.074436e-02 -2.331287e-02 -2.422304e-02 3.057593e-03 1.047887e-03 -1.133902e-02 -1.212118e-02 -1.342741e-02 -3.806684e-03 2.705296e-02
<VARIANCE> 39
 1.103813e+01 1.617159e+01 1.994971e+01 2.117216e+01 1.965305e+01 2.453788e+01 2.317667e+01 2.257414e+01 2.365378e+01 2.186991e+01 2.327596e+01 1.563054e+01 9.315982e-02 4.502393e-01 7.760421e-01 1.018717e+00 1.155176e+00 1.294461e+00 1.435578e+00 1.558118e+00 1.658079e+00 1.703723e+00 1.743118e+00 1.525984e+00 1.380256e+00 1.000000e-02 9.561583e-02 1.386532e-01 1.905311e-01 2.234511e-01 2.396844e-01 2.578710e-01 2.905521e-01 3.055880e-01 3.153745e-01 3.213692e-01 2.826463e-01 2.544436e-01 1.000000e-02
<GCONST> 8.081481e+01
<STATE> 3
<MEAN> 39
 -7.995408e+00 1.512854e+00 -1.460429e+00 4.401701e+00 3.829546e+00 2.801529e+00 4.021867e+00 1.292030e+00 1.753618e+00 6.239373e-01 9.729224e-01 1.526468e+00 -8.706546e+00 7.017816e-01 -8.883744e-02 1.715391e-01 -4.680799e-01 -3.811103e-01 -3.331511e-01 -2.163451e-01 -1.678096e-01 -1.774572e-01 -9.588306e-02 -1.823311e-01 -1.196095e-01 5.059523e-01 2.670975e-01 -6.672000e-02 5.079200e-02 -1.608071e-01 -1.722615e-01 -1.317307e-01 -1.714390e-01 -4.846604e-02 -5.496070e-02 -2.486607e-02 -2.680579e-02 -3.315930e-02 1.442967e-01
<VARIANCE> 39
 2.357524e+01 3.795237e+01 3.187484e+01 3.376032e+01 3.015692e+01 3.616805e+01 2.991752e+01 2.948015e+01 2.809598e+01 2.692941e+01 2.791161e+01 1.915449e+01 4.321269e+00 3.463855e+00 2.886792e+00 2.700186e+00 3.258958e+00 2.949175e+00 2.972063e+00 2.871456e+00 2.658705e+00 2.679266e+00 2.447866e+00 2.208284e+00 1.874418e+00 5.937840e-01 4.833846e-01 5.039741e-01 4.829262e-01 5.773947e-01 5.115581e-01 5.292071e-01 5.507990e-01 4.997457e-01 5.042104e-01 4.786120e-01 4.351441e-01 3.701380e-01 7.154045e-02
<GCONST> 1.138952e+02
<STATE> 4
<MEAN> 39
 5.035021e-01 -1.429197e-01 9.591155e-02 -3.335518e-01 -2.452280e-01 -2.059379e-01 -2.430005e-01 -7.689316e-02 -1.233294e-01 -4.305949e-02 -7.114433e-02 -1.014078e-01 -3.640997e+00 -1.384398e-02 2.278048e-03 -8.488610e-03 1.261868e-02 1.311677e-02 7.313973e-03 5.812397e-03 2.776290e-03 2.931813e-03 -2.662945e-04 1.970295e-03 3.842404e-03 -1.462827e-02 -9.604867e-03 2.677861e-03 -1.491432e-03 6.091687e-03 5.524807e-03 4.511883e-03 4.853806e-03 1.635602e-03 2.303662e-03 1.012749e-03 1.375587e-03 1.305653e-03 -5.219147e-03
<VARIANCE> 39
 9.766059e+01 5.503531e+01 6.881876e+01 7.044428e+01 7.041063e+01 6.342293e+01 6.577901e+01 5.808861e+01 5.450081e+01 4.100732e+01 3.863709e+01 3.146409e+01 9.829235e+00 4.976756e+00 3.620883e+00 3.297642e+00 4.299938e+00 4.337284e+00 4.193690e+00 4.479290e+00 4.424364e+00 4.006823e+00 3.277404e+00 3.024821e+00 2.481797e+00 4.787627e-01 6.903948e-01 5.993365e-01 5.080332e-01 6.997087e-01 7.057177e-01 7.102463e-01 7.666883e-01 7.807629e-01 7.065490e-01 6.037551e-01 5.498652e-01 4.544738e-01 7.345013e-02
<GCONST> 1.298205e+02
<TRANSP> 5
 0.000000e+00 1.000000e+00 0.000000e+00 0.000000e+00 0.000000e+00
 0.000000e+00 8.851291e-01 1.148709e-01 0.000000e+00 0.000000e+00
 0.000000e+00 0.000000e+00 8.845778e-01 1.154222e-01 0.000000e+00
 0.000000e+00 0.000000e+00 0.000000e+00 9.965153e-01 3.484735e-03
 0.000000e+00 0.000000e+00 0.000000e+00 0.000000e+00 0.000000e+00
<ENDHMM>
