~o
<STREAMINFO> 1 39
<VECSIZE> 39<NULLD><MFCC_E_D_A_Z><DIAGC>
~h "zh"
<BEGINHMM>
<NUMSTATES> 5
<STATE> 2
<MEAN> 39
 -8.639919e+00 3.205202e+00 -1.708348e+00 6.614311e+00 4.272322e+00 4.000793e+00 4.007464e+00 1.248996e+00 2.320209e+00 7.984938e-01 1.377112e+00 1.823560e+00 -1.042828e+01 -1.126239e-01 1.722304e-01 1.363945e-01 7.696684e-02 1.190465e-01 9.386268e-02 5.251613e-02 -8.227225e-02 -5.170206e-02 1.195084e-01 6.228289e-03 -7.769670e-02 -5.767830e-03 4.742043e-02 -2.931703e-02 3.429035e-03 -4.079387e-02 -2.336103e-02 -2.427380e-02 3.023583e-03 1.022597e-03 -1.136790e-02 -1.215381e-02 -1.345650e-02 -3.821488e-03 2.708865e-02
<VARIANCE> 39
 1.103975e+01 1.617632e+01 1.995210e+01 2.117599e+01 1.965469e+01 2.454045e+01 2.317887e+01 2.257691e+01 2.365447e+01 2.187206e+01 2.327668e+01 1.563144e+01 9.320942e-02 4.505672e-01 7.765521e-01 1.019211e+00 1.155738e+00 1.294839e+00 1.435892e+00 1.558284e+00 1.658396e+00 1.703864e+00 1.743451e+00 1.526230e+00 1.380350e+00 1.000000e-02 9.570748e-02 1.387653e-01 1.906521e-01 2.235758e-01 2.397878e-01 2.579622e-01 2.906032e-01 3.056788e-01 3.154300e-01 3.214653e-01 2.827264e-01 2.544759e-01 1.000000e-02
<GCONST> 8.082547e+01
<STATE> 3
<MEAN> 39
 -7.996155e+00 1.514116e+00 -1.459632e+00 4.398893e+00 3.828435e+00 2.798846e+00 4.022161e+00 1.290657e+00 1.752951e+00 6.232951e-01 9.723020e-01 1.526451e+00 -8.701433e+00 7.031031e-01 -8.928486e-02 1.717861e-01 -4.688446e-01 -3.819698e-01 -3.338993e-01 -2.171458e-01 -1.679363e-01 -1.776422e-01 -9.612162e-02 -1.825349e-01 -1.196533e-01 5.065945e-01 2.672192e-01 -6.680255e-02 5.081106e-02 -1.607169e-01 -1.722884e-01 -1.316162e-01 -1.715480e-01 -4.835188e-02 -5.491887e-02 -2.477080e-02 -2.674766e-02 -3.321830e-02 1.440997e-01
<VARIANCE> 39
 2.362159e+01 3.797855e+01 3.189302e+01 3.377323e+01 3.016773e+01 3.617741e+01 2.992325e+01 2.948589e+01 2.809975e+01 2.692851e+01 2.791151e+01 1.915651e+01 4.339182e+00 3.469383e+00 2.887943e+00 2.701893e+00 3.261083e+00 2.951543e+00 2.974804e+00 2.873762e+00 2.659910e+00 2.680504e+00 2.448097e+00 2.209082e+00 1.875141e+00 5.945740e-01 4.836522e-01 5.043621e-01 4.831628e-01 5.776470e-01 5.117217e-01 5.295280e-01 5.510017e-01 4.999381e-01 5.043500e-01 4.786797e-01 4.352302e-01 3.702458e-01 7.163064e-02
<GCONST> 1.139192e+02
<STATE> 4
<MEAN> 39
 5.038316e-01 -1.430304e-01 9.595263e-02 -3.336627e-01 -2.453439e-01 -2.059949e-01 -2.431583e-01 -7.690480e-02 -1.233859e-01 -4.306783e-02 -7.117439e-02 -1.014681e-01 -3.640945e+00 -1.389937e-02 2.289487e-03 -8.502995e-03 1.265222e-02 1.315073e-02 7.343165e-03 5.838864e-03 2.784636e-03 2.942258e-03 -2.604798e-04 1.981245e-03 3.849288e-03 -1.465910e-02 -9.616854e-03 2.683049e-03 -1.493300e-03 6.094757e-03 5.531401e-03 4.513335e-03 4.861935e-03 1.633817e-03 2.304639e-03 1.011638e-03 1.375682e-03 1.308795e-03 -5.217981e-03
<VARIANCE> 39
 9.765943e+01 5.503474e+01 6.881872e+01 7.044402e+01 7.041090e+01 6.342303e+01 6.577795e+01 5.808965e+01 5.450111e+01 4.100750e+01 3.863700e+01 3.146370e+01 9.829185e+00 4.976597e+00 3.620881e+00 3.297609e+00 4.299897e+00 4.337215e+00 4.193628e+00 4.479223e+00 4.424387e+00 4.006789e+00 3.277460e+00 3.024823e+00 2.481762e+00 4.787125e-01 6.903949e-01 5.993263e-01 5.080312e-01 6.997033e-01 7.057156e-01 7.102432e-01 7.666851e-01 7.807692e-01 7.065544e-01 6.037635e-01 5.498641e-01 4.544681e-01 7.344852e-02
<GCONST> 1.298202e+02
<TRANSP> 5
 0.000000e+00 1.000000e+00 0.000000e+00 0.000000e+00 0.000000e+00
 0.000000e+00 8.851842e-01 1.148158e-01 0.000000e+00 0.000000e+00
 0.000000e+00 0.000000e+00 8.846612e-01 1.153388e-01 0.000000e+00
 0.000000e+00 0.000000e+00 0.000000e+00 9.965152e-01 3.484845e-03
 0.000000e+00 0.000000e+00 0.000000e+00 0.000000e+00 0.000000e+00
<ENDHMM>
