~o
<STREAMINFO> 1 39
<VECSIZE> 39<NULLD><MFCC_E_D_A_Z><DIAGC>
~v "varFloor1"
<VARIANCE> 39
 9.726257e-01 5.381249e-01 6.651532e-01 6.989120e-01 6.880192e-01 6.224947e-01 6.450717e-01 5.635375e-01 5.311891e-01 4.008754e-01 3.797459e-01 3.082840e-01 1.131276e-01 4.817885e-02 3.519386e-02 3.216594e-02 4.186358e-02 4.215040e-02 4.083050e-02 4.351060e-02 4.295653e-02 3.903697e-02 3.210390e-02 2.959472e-02 2.433364e-02 4.759443e-03 6.696086e-03 5.835324e-03 4.982519e-03 6.833524e-03 6.876886e-03 6.926220e-03 7.477231e-03 7.591971e-03 6.896265e-03 5.920904e-03 5.389229e-03 4.463565e-03 7.207811e-04
~s "silst2"
<NUMMIXES> 8
<MIXTURE> 1 1.259187e-01
<MEAN> 39
 -7.550483e-02 5.140466e+00 2.348329e+00 4.947746e+00 4.393265e-01 -1.327313e+00 2.623984e-01 -2.677111e+00 -1.260391e+00 -7.057445e-01 -1.413313e+00 -3.659540e-01 -6.968245e+00 -1.403620e+00 4.566187e-01 -4.024316e-01 1.377987e+00 1.302377e+00 1.141943e+00 8.385148e-01 1.369092e-01 4.949681e-01 1.886553e-01 1.922253e-01 1.797820e-01 -9.480717e-01 -2.657135e-01 -5.036081e-01 -2.561891e-01 -3.892559e-01 3.312916e-02 2.842532e-01 2.303653e-01 3.724979e-01 1.914525e-01 1.429959e-01 1.717709e-01 9.800609e-02 8.991243e-02
<VARIANCE> 39
 2.687171e+01 3.294441e+01 4.826733e+01 5.265842e+01 6.317583e+01 6.383099e+01 6.066828e+01 6.295201e+01 5.979969e+01 5.244701e+01 4.557543e+01 3.822137e+01 3.723174e+00 4.678624e+00 4.909216e+00 4.805120e+00 5.555148e+00 6.307407e+00 5.544386e+00 5.467710e+00 6.348182e+00 5.858191e+00 4.922735e+00 4.611187e+00 3.573658e+00 4.684330e-01 4.862832e-01 6.281943e-01 6.299901e-01 9.130671e-01 1.048229e+00 1.009839e+00 1.006627e+00 1.006601e+00 9.925520e-01 9.024661e-01 7.710258e-01 6.826397e-01 6.094783e-02
<GCONST> 1.333888e+02
<MIXTURE> 2 1.142329e-01
<MEAN> 39
 -4.353508e+00 9.335512e-01 -2.673235e+00 3.279222e+00 3.690090e+00 -1.255180e-01 2.653459e+00 -1.399200e+00 -1.731296e+00 -1.469780e+00 -1.341250e+00 1.358721e+00 -8.693620e+00 -1.230644e-01 2.853949e-01 4.075866e-02 3.047348e-01 2.025327e-01 3.180099e-01 2.711709e-01 2.905184e-01 3.455069e-01 3.090376e-01 2.507519e-01 1.012502e-01 -1.383156e-01 -3.512860e-02 -2.873053e-02 -1.165651e-02 1.118526e-02 8.973083e-02 1.575917e-01 2.044950e-01 3.131621e-01 3.157966e-01 1.540026e-01 7.148317e-02 2.603094e-02 1.689151e-02
<VARIANCE> 39
 2.052206e+01 3.217461e+01 3.326457e+01 2.896905e+01 2.960203e+01 3.294657e+01 3.348718e+01 3.088636e+01 2.871354e+01 3.218694e+01 2.815088e+01 2.252052e+01 1.610505e+00 2.915567e-01 5.449835e-01 6.930426e-01 8.358663e-01 1.039287e+00 1.251696e+00 1.374604e+00 1.450853e+00 1.565656e+00 1.582614e+00 1.463965e+00 1.303230e+00 2.781822e-02 5.148150e-02 9.149273e-02 1.303179e-01 1.703411e-01 2.084567e-01 2.441826e-01 2.654404e-01 2.705024e-01 2.828486e-01 3.185744e-01 2.814435e-01 2.590121e-01 3.282174e-03
<GCONST> 8.363935e+01
<MIXTURE> 3 9.502989e-02
<MEAN> 39
 -6.312774e+00 -3.690577e+00 -2.909192e+00 1.230120e+00 3.040180e+00 -9.130065e-01 3.439400e+00 4.108745e+00 2.409559e+00 -1.084166e+00 1.186920e+00 3.001818e+00 -7.994906e+00 1.366675e-01 1.592172e-01 -4.764165e-02 2.728649e-01 2.158092e-01 2.631651e-01 9.285247e-02 1.791784e-01 2.262355e-01 1.304136e-01 1.057390e-01 1.019010e-01 -1.115132e-01 5.063123e-02 1.557468e-01 7.484657e-02 1.363522e-01 1.017926e-01 1.099325e-01 -2.412372e-02 -1.985485e-01 -1.685782e-01 -7.683925e-02 -1.216162e-01 -9.620650e-02 -1.109064e-02
<VARIANCE> 39
 1.993614e+01 2.750513e+01 2.535670e+01 2.434534e+01 3.190804e+01 3.124617e+01 3.310921e+01 2.857191e+01 2.823041e+01 3.674068e+01 3.607214e+01 2.125573e+01 2.241295e+00 2.730198e-01 4.380880e-01 5.918409e-01 7.601559e-01 1.009257e+00 1.147482e+00 1.314463e+00 1.468992e+00 1.530762e+00 1.496720e+00 1.362484e+00 1.295101e+00 2.825157e-02 4.337027e-02 7.832246e-02 1.068205e-01 1.438659e-01 1.889509e-01 2.263496e-01 2.643921e-01 2.593794e-01 2.820524e-01 3.227825e-01 2.890076e-01 2.658119e-01 2.352142e-03
<GCONST> 8.156555e+01
<MIXTURE> 4 9.182849e-02
<MEAN> 39
 -3.950406e+00 -1.660697e+00 -5.438172e+00 2.537348e+00 3.237383e+00 2.591974e+00 3.478198e+00 1.540753e+00 1.526572e+00 -1.594762e+00 2.871727e-01 2.310091e+00 -9.190361e+00 -2.456825e-01 1.017773e+00 1.220311e-01 7.668953e-01 2.581145e-01 6.909684e-01 4.309143e-01 1.183241e-01 2.464295e-01 5.782552e-01 3.718702e-01 8.927540e-02 -3.838882e-01 -2.514679e-01 3.149992e-01 4.431584e-01 2.245366e-01 1.765185e-01 3.557482e-02 2.654450e-02 -1.657349e-02 4.697839e-02 1.428588e-01 1.113252e-02 -1.169553e-01 7.207884e-02
<VARIANCE> 39
 1.165834e+01 1.842042e+01 2.712341e+01 2.522113e+01 3.303531e+01 3.780954e+01 3.219659e+01 3.499663e+01 3.243250e+01 3.700864e+01 3.771614e+01 2.158196e+01 1.239047e+00 1.360448e+00 2.082992e+00 2.286736e+00 2.117550e+00 2.438218e+00 2.640618e+00 2.914823e+00 2.659010e+00 2.557901e+00 2.735610e+00 2.219212e+00 1.950507e+00 9.039906e-02 2.374362e-01 2.585771e-01 3.124076e-01 3.108394e-01 4.082300e-01 4.705583e-01 4.594715e-01 4.898311e-01 5.051877e-01 5.197785e-01 4.491831e-01 3.621216e-01 1.614444e-02
<GCONST> 1.037320e+02
<MIXTURE> 5 1.872489e-01
<MEAN> 39
 -3.486378e+00 1.453624e+00 -7.637990e-02 5.310727e+00 5.516891e+00 3.668438e+00 7.421568e+00 1.504096e+00 2.473573e-01 -6.640850e-01 -1.530670e+00 1.085361e+00 -8.008759e+00 -5.423737e-01 -6.200652e-01 -7.585398e-01 -2.722292e-01 9.781856e-02 -2.841007e-03 -1.326896e-02 3.143753e-01 2.857328e-01 -5.600389e-02 1.586630e-01 2.771105e-01 -3.549294e-01 7.202500e-02 6.447285e-02 -1.031229e-01 -2.085284e-01 -3.059720e-01 -2.821724e-01 -3.715589e-01 -1.706880e-01 -7.132666e-02 2.172299e-02 8.086359e-02 -2.766063e-03 4.789224e-02
<VARIANCE> 39
 2.137840e+01 2.847897e+01 3.867066e+01 4.227784e+01 4.357427e+01 4.398916e+01 4.128261e+01 4.711359e+01 3.940082e+01 3.874584e+01 3.656085e+01 2.806469e+01 2.357003e+00 1.748724e+00 1.357592e+00 1.847067e+00 2.264163e+00 2.510573e+00 2.722847e+00 2.862631e+00 2.893334e+00 2.701329e+00 2.738537e+00 2.518241e+00 2.065248e+00 8.409540e-02 1.647259e-01 2.262042e-01 2.627011e-01 4.015434e-01 3.938876e-01 4.527613e-01 4.556101e-01 4.840150e-01 4.695764e-01 4.678831e-01 4.299211e-01 3.967336e-01 1.133073e-02
<GCONST> 1.067080e+02
<MIXTURE> 6 1.650281e-01
<MEAN> 39
 -6.348718e+00 1.548857e+00 -3.223486e+00 4.812943e+00 4.968500e+00 2.308321e+00 3.855974e+00 1.102734e+00 1.567214e+00 1.268938e-01 -1.136953e-01 1.643559e+00 -9.659787e+00 -5.257700e-02 1.857452e-01 5.835661e-03 2.701093e-02 -5.746534e-02 2.926208e-02 -7.225882e-02 -1.791462e-01 -1.331285e-01 -4.005288e-02 -2.725459e-02 -4.588645e-02 -5.567802e-02 -1.271327e-02 4.142464e-03 1.346716e-02 -4.472622e-02 -4.858493e-02 -4.373768e-02 -3.810477e-03 1.250733e-02 8.771781e-03 3.236487e-02 5.224590e-02 4.745249e-02 9.377488e-03
<VARIANCE> 39
 1.788778e+01 2.203641e+01 2.200327e+01 2.392276e+01 2.212428e+01 2.822633e+01 2.816629e+01 2.536969e+01 2.421969e+01 2.729989e+01 2.694601e+01 1.763387e+01 7.604482e-01 1.679456e-01 3.849776e-01 5.447877e-01 7.124220e-01 9.027629e-01 1.151436e+00 1.323457e+00 1.422683e+00 1.424485e+00 1.457144e+00 1.411323e+00 1.309956e+00 1.032080e-02 2.253850e-02 4.310052e-02 6.871703e-02 9.607074e-02 1.216162e-01 1.502050e-01 1.754096e-01 1.812752e-01 1.852354e-01 1.992606e-01 1.910759e-01 1.826610e-01 8.727203e-04
<GCONST> 6.996355e+01
<MIXTURE> 7 1.303274e-01
<MEAN> 39
 -3.632272e+00 -2.432676e+00 -5.429061e+00 1.018110e+00 4.503970e+00 4.694608e-01 9.847569e-01 1.407372e+00 2.231864e+00 -1.203611e+00 -1.304893e+00 1.100357e+00 -8.563686e+00 3.760399e-01 2.961882e-01 -4.683474e-01 3.475549e-01 -2.255048e-01 3.013039e-01 -1.299010e-01 -5.289992e-01 -4.166157e-01 -2.366016e-01 -2.387065e-01 -2.161845e-01 -3.613656e-01 -2.690851e-01 3.415725e-01 2.690900e-01 1.900683e-01 7.316207e-02 1.561222e-01 2.722793e-01 2.906658e-02 -4.460856e-02 8.300451e-02 7.403719e-02 2.204316e-02 4.788787e-02
<VARIANCE> 39
 1.310924e+01 1.556827e+01 2.344078e+01 2.647233e+01 2.884686e+01 3.309934e+01 3.103172e+01 3.140351e+01 3.216308e+01 3.503915e+01 3.311199e+01 2.297900e+01 1.695136e+00 1.533957e+00 1.381914e+00 1.605417e+00 1.926992e+00 2.095196e+00 2.588623e+00 2.551916e+00 2.294832e+00 2.372973e+00 2.362464e+00 2.035386e+00 1.799874e+00 1.056960e-01 2.138838e-01 1.938892e-01 2.443654e-01 2.764037e-01 3.470359e-01 4.013536e-01 3.989254e-01 4.162671e-01 4.394930e-01 4.578316e-01 3.939348e-01 3.480562e-01 1.463167e-02
<GCONST> 1.000140e+02
<MIXTURE> 8 9.030663e-02
<MEAN> 39
 -6.294140e+00 -3.817999e+00 -2.895300e+00 8.051824e-01 3.820419e+00 -1.364245e+00 2.968441e+00 3.653212e+00 2.161625e+00 -8.071063e-01 1.625452e-01 2.662338e+00 -7.727132e+00 1.354177e-01 -2.421968e-02 -2.086091e-01 -9.980180e-02 -2.203638e-01 -2.048934e-01 -3.880914e-01 -3.167246e-01 -2.714411e-01 -3.216199e-01 -2.943061e-01 -1.740996e-01 -9.901815e-02 1.802024e-02 7.722034e-02 -1.189336e-02 3.183042e-02 -7.711777e-03 3.941046e-02 -5.637437e-02 -1.536424e-01 -1.430319e-01 -7.625316e-02 -6.631368e-02 -5.966336e-02 -1.555719e-02
<VARIANCE> 39
 2.051685e+01 2.341749e+01 2.338455e+01 2.003662e+01 2.923474e+01 2.999189e+01 3.327309e+01 2.905145e+01 2.942821e+01 3.340935e+01 3.328686e+01 1.959969e+01 2.016257e+00 3.080235e-01 4.127949e-01 5.341562e-01 7.153261e-01 9.518952e-01 1.094637e+00 1.298971e+00 1.395338e+00 1.432449e+00 1.490635e+00 1.264024e+00 1.245920e+00 2.980407e-02 3.947274e-02 7.040347e-02 9.569724e-02 1.381584e-01 1.869450e-01 2.185034e-01 2.634094e-01 2.806817e-01 2.886385e-01 3.092268e-01 2.578987e-01 2.534425e-01 2.189933e-03
<GCONST> 7.975340e+01
~s "silst3"
<NUMMIXES> 8
<MIXTURE> 1 1.602369e-01
<MEAN> 39
 -5.775990e+00 2.573962e+00 -4.479183e+00 4.313047e+00 3.063453e+00 3.296499e+00 4.324628e+00 1.494158e+00 1.871419e+00 -6.736430e-01 -4.666661e-02 1.791077e+00 -1.047066e+01 -7.225062e-01 1.022123e+00 9.480376e-01 7.989572e-01 4.756375e-01 5.295348e-01 1.824475e-01 -2.398665e-01 1.296029e-01 5.607049e-01 3.155838e-01 -1.253773e-01 -4.770754e-02 -5.991498e-02 -1.049462e-01 2.284924e-01 1.289477e-01 1.701642e-01 -9.998787e-03 -7.446149e-02 -3.821151e-02 7.186561e-03 6.235342e-02 5.003837e-02 -1.901079e-02 5.216112e-02
<VARIANCE> 39
 9.700253e+00 1.195914e+01 1.800241e+01 1.758138e+01 1.922568e+01 2.527630e+01 2.444742e+01 2.547825e+01 2.320594e+01 2.624755e+01 2.753271e+01 1.853972e+01 1.131276e-01 4.575704e-01 9.731185e-01 1.289430e+00 1.255918e+00 1.642979e+00 1.806737e+00 2.017143e+00 2.002316e+00 2.130484e+00 2.250903e+00 1.856517e+00 1.648387e+00 6.805455e-03 1.023532e-01 1.659621e-01 2.006283e-01 2.291892e-01 2.589886e-01 3.170537e-01 3.403669e-01 3.564613e-01 3.620501e-01 4.027012e-01 3.544517e-01 3.244358e-01 3.252809e-03
<GCONST> 8.354950e+01
<MIXTURE> 2 1.686668e-01
<MEAN> 39
 -8.252251e+00 4.252542e+00 -4.807739e-01 7.194194e+00 4.159330e+00 3.761488e+00 3.356182e+00 3.191739e-01 1.819856e+00 9.759861e-01 1.610467e+00 1.676899e+00 -1.047259e+01 -1.631778e-01 7.970180e-02 2.322765e-01 3.675582e-01 4.233131e-01 4.554347e-01 3.817432e-01 4.060586e-01 4.357401e-01 3.955851e-01 2.511861e-01 6.814145e-02 -2.908350e-03 3.158466e-02 -5.442471e-02 -6.932480e-02 -7.297088e-02 3.503534e-03 1.849749e-02 5.346189e-02 4.568016e-02 2.015999e-03 -3.116069e-02 -5.826749e-02 -4.053025e-02 4.170977e-03
<VARIANCE> 39
 8.641200e+00 9.100080e+00 1.267856e+01 1.506647e+01 1.421577e+01 1.805591e+01 1.835290e+01 1.664833e+01 1.724267e+01 1.622630e+01 1.766998e+01 1.305195e+01 1.131276e-01 1.860203e-01 2.903191e-01 4.662393e-01 6.190010e-01 7.956563e-01 9.844645e-01 1.127438e+00 1.209676e+00 1.243445e+00 1.290138e+00 1.248686e+00 1.154958e+00 4.759443e-03 3.417875e-02 5.491333e-02 8.692577e-02 1.246833e-01 1.597940e-01 1.900197e-01 2.166821e-01 2.212087e-01 2.194253e-01 2.248131e-01 2.183079e-01 2.080787e-01 7.207811e-04
<GCONST> 6.218436e+01
<MIXTURE> 3 1.184485e-01
<MEAN> 39
 -8.947867e+00 3.834261e+00 -6.372688e-01 8.223885e+00 5.546716e+00 5.707722e+00 4.908913e+00 2.627325e+00 4.827045e+00 3.040897e+00 3.359040e+00 1.935780e+00 -1.047294e+01 -2.459056e-02 7.869551e-02 3.878750e-02 2.895355e-03 -4.990361e-02 -5.402413e-02 -3.893789e-02 -7.295974e-03 2.901680e-02 1.014022e-01 1.423499e-01 7.409114e-02 -2.870780e-03 6.509059e-02 4.324220e-02 3.759145e-02 -4.789490e-02 -8.876354e-02 -1.505498e-01 -1.787374e-01 -2.459961e-01 -3.211867e-01 -2.686456e-01 -1.822303e-01 -6.363321e-02 3.942592e-03
<VARIANCE> 39
 8.059712e+00 9.511257e+00 1.388014e+01 1.681187e+01 1.529695e+01 1.941966e+01 1.983111e+01 1.774433e+01 1.882914e+01 1.518557e+01 1.917635e+01 1.420045e+01 1.131276e-01 1.657834e-01 2.981065e-01 4.426261e-01 6.209175e-01 7.914534e-01 9.692476e-01 1.135387e+00 1.207901e+00 1.251537e+00 1.275226e+00 1.248047e+00 1.174467e+00 4.759443e-03 3.843823e-02 6.365541e-02 9.865623e-02 1.373814e-01 1.723485e-01 2.035380e-01 2.351226e-01 2.381177e-01 2.384393e-01 2.365776e-01 2.439930e-01 2.327044e-01 7.207811e-04
<GCONST> 6.383810e+01
<MIXTURE> 4 1.297203e-01
<MEAN> 39
 -9.344110e+00 5.100881e+00 9.120802e-01 8.939624e+00 6.463520e+00 4.953782e+00 3.971899e+00 6.689346e-01 2.605467e+00 2.229132e+00 2.213652e+00 1.445438e+00 -1.048256e+01 -2.963689e-01 1.481010e-01 4.037237e-01 4.137178e-01 4.178327e-01 3.031443e-01 1.016280e-01 9.191960e-03 1.083007e-01 2.629380e-01 1.283961e-01 -7.448398e-02 -1.724021e-03 2.238218e-01 -2.478396e-01 -3.898663e-01 -3.758595e-01 -3.068977e-01 -1.636221e-01 2.629689e-02 5.684079e-02 -9.324427e-02 -2.278425e-01 -1.544542e-01 2.713429e-02 9.453749e-03
<VARIANCE> 39
 1.363157e+01 1.743992e+01 1.759706e+01 2.145972e+01 2.063292e+01 2.796019e+01 2.905981e+01 2.811939e+01 2.733723e+01 2.338196e+01 2.369190e+01 1.829985e+01 1.131276e-01 8.525237e-01 1.065549e+00 1.453053e+00 1.560653e+00 1.628681e+00 1.732353e+00 2.000025e+00 2.045154e+00 2.071640e+00 2.136861e+00 1.776076e+00 1.569406e+00 4.759443e-03 1.641740e-01 2.953418e-01 2.736674e-01 3.152271e-01 3.492768e-01 4.208475e-01 4.767910e-01 4.717251e-01 4.622302e-01 4.598244e-01 3.850717e-01 3.520669e-01 7.207811e-04
<GCONST> 8.716428e+01
<MIXTURE> 5 1.079749e-01
<MEAN> 39
 -8.650094e+00 4.378376e+00 -1.505539e+00 5.556794e+00 3.936243e+00 2.222152e+00 3.287656e+00 -1.159786e+00 -8.599842e-01 -7.571023e-01 -1.234095e+00 6.644710e-01 -1.044542e+01 -2.082359e-02 1.241563e-01 1.276681e-01 1.142471e-01 5.809621e-02 8.867913e-02 5.924705e-02 7.068060e-02 7.600977e-02 7.661097e-02 9.733881e-02 8.122274e-02 -5.388523e-03 2.197032e-02 8.762619e-03 5.435841e-02 8.319373e-02 1.189383e-01 1.353913e-01 1.668722e-01 2.475990e-01 3.308562e-01 3.379616e-01 2.943926e-01 1.503955e-01 4.731648e-03
<VARIANCE> 39
 1.039058e+01 1.176586e+01 1.472004e+01 1.953083e+01 1.722117e+01 2.263214e+01 2.120813e+01 1.909478e+01 1.980802e+01 1.816128e+01 1.765903e+01 1.460483e+01 1.131276e-01 1.286128e-01 2.513190e-01 4.035582e-01 5.909846e-01 7.497962e-01 9.326202e-01 1.078034e+00 1.165728e+00 1.265575e+00 1.281623e+00 1.219303e+00 1.071317e+00 4.759443e-03 2.751736e-02 5.283604e-02 8.738424e-02 1.298545e-01 1.750586e-01 2.132910e-01 2.336520e-01 2.444627e-01 2.294698e-01 2.295257e-01 2.354875e-01 2.329892e-01 7.207811e-04
<GCONST> 6.353674e+01
<MIXTURE> 6 1.200911e-01
<MEAN> 39
 -7.327870e+00 2.580862e+00 -3.160453e+00 4.868685e+00 3.906314e+00 3.363220e+00 4.621056e+00 5.931333e-01 1.010448e+00 2.834741e-01 2.382050e-01 1.827362e+00 -1.048569e+01 1.127915e-01 -1.813384e-01 -4.251899e-01 -5.181129e-01 -4.202052e-01 -3.399906e-01 -1.143156e-01 -5.257988e-02 -2.335494e-01 -2.132245e-01 -1.855962e-01 -4.916576e-02 9.393951e-05 -7.570075e-02 1.026376e-01 2.262079e-01 1.804748e-01 1.149414e-01 3.658320e-02 -4.495028e-02 -2.906357e-02 6.247371e-02 1.019136e-01 4.656239e-02 -5.430552e-02 7.976137e-03
<VARIANCE> 39
 1.258773e+01 1.718134e+01 2.268707e+01 2.389725e+01 2.517714e+01 2.984505e+01 3.090442e+01 3.137524e+01 2.973002e+01 2.711662e+01 2.737527e+01 1.989081e+01 1.131276e-01 8.880790e-01 1.502273e+00 1.548123e+00 1.842203e+00 2.048680e+00 2.304161e+00 2.411964e+00 2.621563e+00 2.431385e+00 2.413945e+00 2.151814e+00 1.933144e+00 4.759443e-03 1.266302e-01 2.109098e-01 2.449985e-01 3.068118e-01 3.446955e-01 4.084917e-01 4.204701e-01 4.629560e-01 4.487306e-01 4.326295e-01 3.887894e-01 3.582617e-01 7.207811e-04
<GCONST> 8.958782e+01
<MIXTURE> 7 9.609789e-02
<MEAN> 39
 -8.789472e+00 4.410457e+00 -7.236576e-01 7.159499e+00 5.538255e+00 4.525303e+00 5.142854e+00 1.658880e+00 3.208310e+00 2.987567e+00 2.161874e+00 2.371891e+00 -1.045683e+01 -4.394058e-02 -1.075650e-01 -2.058387e-01 -3.467709e-01 -3.879228e-01 -4.466933e-01 -4.420245e-01 -4.519800e-01 -4.709417e-01 -3.276086e-01 -2.687054e-01 -2.067573e-01 -4.618951e-03 3.965709e-02 -4.288732e-02 -5.657453e-02 -1.246647e-01 -1.217348e-01 -1.528204e-01 -1.664453e-01 -2.062995e-01 -2.719605e-01 -2.717086e-01 -2.296490e-01 -1.269819e-01 4.175677e-03
<VARIANCE> 39
 8.879964e+00 1.079926e+01 1.523843e+01 1.803573e+01 1.439155e+01 2.194369e+01 2.079335e+01 1.750892e+01 1.736784e+01 1.645566e+01 1.795107e+01 1.423217e+01 1.131276e-01 2.234288e-01 3.476357e-01 5.318804e-01 6.946680e-01 8.531793e-01 1.051561e+00 1.157614e+00 1.292841e+00 1.343978e+00 1.337070e+00 1.296462e+00 1.157981e+00 4.759443e-03 3.947173e-02 6.642063e-02 1.091834e-01 1.410470e-01 1.725386e-01 2.219725e-01 2.486524e-01 2.390992e-01 2.316192e-01 2.448148e-01 2.407242e-01 2.480803e-01 7.207811e-04
<GCONST> 6.579148e+01
<MIXTURE> 8 9.865911e-02
<MEAN> 39
 -8.269275e+00 4.439272e+00 -1.478252e+00 5.397638e+00 4.188818e+00 2.295248e+00 3.495386e+00 -1.019464e+00 -4.989000e-01 -4.784620e-02 -6.283055e-01 1.022483e+00 -1.044778e+01 -6.142237e-02 -4.027745e-02 -1.013439e-01 -1.938663e-01 -2.326703e-01 -2.395331e-01 -3.289866e-01 -4.309187e-01 -4.585450e-01 -4.091026e-01 -3.461553e-01 -1.939648e-01 -5.678018e-03 -1.234927e-02 -5.396309e-02 -2.756452e-02 -8.990277e-03 3.499539e-02 6.836111e-02 1.026274e-01 1.565368e-01 2.097210e-01 1.782344e-01 1.307822e-01 7.640212e-02 4.209933e-03
<VARIANCE> 39
 1.084743e+01 9.846404e+00 1.543132e+01 1.973791e+01 1.588172e+01 2.303138e+01 2.026379e+01 1.913940e+01 1.718559e+01 1.831116e+01 1.592420e+01 1.339676e+01 1.131276e-01 1.372494e-01 2.646092e-01 4.101002e-01 6.125662e-01 7.192401e-01 9.213304e-01 1.070627e+00 1.176986e+00 1.230259e+00 1.247573e+00 1.190089e+00 1.150619e+00 4.759443e-03 2.668372e-02 5.122048e-02 8.422256e-02 1.291419e-01 1.655023e-01 2.016168e-01 2.140905e-01 2.303817e-01 2.168172e-01 2.159730e-01 2.168967e-01 2.139079e-01 7.207811e-04
<GCONST> 6.248989e+01
~s "silst4"
<NUMMIXES> 8
<MIXTURE> 1 7.676955e-02
<MEAN> 39
 -5.604665e+00 2.602548e+00 -1.108341e+00 4.169237e+00 4.201998e-01 -4.487760e-02 1.252400e+00 1.763249e+00 5.630023e+00 3.937404e+00 2.483157e+00 8.344353e-01 -8.104475e+00 -1.508177e+00 5.968697e-02 -1.820794e-01 9.301741e-01 1.586076e+00 1.980654e+00 1.121180e+00 3.424164e-01 2.217557e-01 -1.487442e-01 -4.052847e-02 -1.754740e-01 -6.541805e-01 6.114907e-01 -3.945088e-01 1.314309e-01 -6.116365e-01 -1.874219e-01 -6.842754e-02 -9.055383e-02 -2.422107e-01 -7.160051e-01 -4.127529e-01 -3.227594e-01 -9.712735e-02 3.861175e-01
<VARIANCE> 39
 3.710157e+01 3.941235e+01 4.308657e+01 5.542039e+01 7.109591e+01 7.030344e+01 6.469329e+01 7.769745e+01 7.959412e+01 7.418057e+01 6.671056e+01 5.746003e+01 4.301186e+00 4.602280e+00 4.489117e+00 5.262164e+00 6.222012e+00 6.564551e+00 6.640796e+00 6.870414e+00 8.265751e+00 8.975430e+00 6.965549e+00 6.234334e+00 5.400246e+00 7.247186e-01 1.124457e+00 1.192310e+00 1.075136e+00 1.708907e+00 1.778763e+00 1.618808e+00 1.514647e+00 1.781897e+00 1.607995e+00 1.620044e+00 1.547507e+00 1.293980e+00 1.657312e-01
<GCONST> 1.466437e+02
<MIXTURE> 2 1.473509e-01
<MEAN> 39
 -9.633747e+00 4.394118e+00 -8.903889e-02 8.317883e+00 5.642621e+00 5.319287e+00 4.163548e+00 1.031267e+00 2.756095e+00 1.755471e+00 2.025833e+00 1.287935e+00 -1.048607e+01 -6.381904e-02 2.520490e-02 7.466123e-02 1.032575e-01 1.586039e-01 1.873606e-01 1.598747e-01 1.285340e-01 1.341362e-01 1.211251e-01 4.631956e-02 -2.703737e-02 1.575683e-03 3.786046e-01 -2.455276e-01 -6.549621e-02 -4.298652e-01 -2.683999e-01 -2.908984e-01 -9.958676e-02 -5.128178e-02 -9.594607e-02 -8.758317e-02 -7.892695e-02 2.469182e-02 2.424326e-01
<VARIANCE> 39
 7.473235e+00 8.345105e+00 1.243059e+01 1.519231e+01 1.467101e+01 1.810649e+01 1.930065e+01 1.962850e+01 2.184346e+01 1.726166e+01 1.999257e+01 1.395916e+01 1.131276e-01 2.881752e-01 3.702256e-01 5.764974e-01 7.921828e-01 9.408765e-01 1.065865e+00 1.191904e+00 1.343289e+00 1.429375e+00 1.329507e+00 1.253353e+00 1.200605e+00 4.759443e-03 2.338878e-01 2.950302e-01 3.320976e-01 3.594958e-01 3.883253e-01 4.052342e-01 4.179341e-01 4.287443e-01 4.167920e-01 3.942251e-01 3.461576e-01 3.183819e-01 2.808740e-02
<GCONST> 7.915878e+01
<MIXTURE> 3 1.095888e-01
<MEAN> 39
 -8.212381e+00 4.445249e+00 -1.987348e-01 7.765298e+00 5.349876e+00 4.722167e+00 3.826556e+00 7.371534e-01 2.348366e+00 1.636647e+00 1.756998e+00 1.186795e+00 -1.040977e+01 -8.440642e-01 7.961518e-02 1.798599e-01 5.727332e-01 7.824211e-01 9.399134e-01 7.954521e-01 5.850753e-01 5.894689e-01 5.070776e-01 5.009465e-01 2.164358e-01 -2.134621e-01 3.867847e-01 -2.995739e-01 -1.999908e-02 -4.929515e-01 -3.810110e-01 -3.951271e-01 -1.741167e-01 -9.898594e-02 -1.813197e-01 -1.467061e-01 -1.406629e-01 -3.433387e-02 3.236113e-01
<VARIANCE> 39
 1.001632e+01 1.121812e+01 1.734857e+01 1.825728e+01 1.943440e+01 2.233475e+01 2.338105e+01 2.441905e+01 2.567723e+01 2.144364e+01 2.395161e+01 1.620090e+01 1.131276e-01 3.208822e+00 3.596126e+00 3.805380e+00 3.854387e+00 3.580401e+00 3.803319e+00 3.430106e+00 3.629337e+00 3.551925e+00 2.909593e+00 2.587392e+00 2.385663e+00 4.111971e-01 4.988670e-01 4.082310e-01 4.309003e-01 4.855009e-01 5.682808e-01 4.965308e-01 5.074177e-01 5.388747e-01 5.063879e-01 4.684848e-01 4.327424e-01 3.674802e-01 4.938097e-02
<GCONST> 1.061984e+02
<MIXTURE> 4 1.402918e-01
<MEAN> 39
 -7.884475e+00 -2.618970e-01 -1.824078e+00 2.208229e+00 3.072809e+00 1.557387e+00 3.612518e+00 5.483841e-01 5.123695e-01 9.433485e-01 7.430770e-02 7.294682e-01 -7.935881e+00 6.759021e-02 -1.864421e-02 2.667831e-01 -8.770525e-02 6.135796e-02 1.066432e-02 1.301530e-01 2.353244e-01 1.428200e-01 1.711139e-01 1.603305e-01 9.190448e-02 2.227613e-01 3.151279e-01 3.183721e-01 1.365637e-01 2.096726e-01 -1.164902e-02 6.983363e-02 -9.086137e-02 1.217302e-03 5.105332e-02 -3.635176e-02 2.694451e-02 4.872747e-04 -3.196586e-03
<VARIANCE> 39
 4.771188e+01 4.315401e+01 5.653890e+01 5.041883e+01 5.998551e+01 5.008943e+01 4.518604e+01 4.236819e+01 3.879156e+01 3.262929e+01 3.457735e+01 2.346592e+01 3.011600e+00 3.027275e+00 2.966202e+00 2.836525e+00 3.031779e+00 3.069816e+00 2.964452e+00 2.844436e+00 2.756555e+00 2.550965e+00 2.395412e+00 2.150573e+00 1.954517e+00 3.928621e-01 7.605636e-01 8.431919e-01 9.084668e-01 9.326071e-01 9.200888e-01 8.132606e-01 8.120725e-01 6.983996e-01 6.687768e-01 5.958115e-01 5.408721e-01 4.245563e-01 9.508993e-02
<GCONST> 1.224866e+02
<MIXTURE> 5 1.651341e-01
<MEAN> 39
 -7.867177e+00 3.350463e+00 -2.025242e+00 5.730963e+00 4.523794e+00 3.492797e+00 4.005883e+00 -5.896463e-02 9.601988e-01 7.270389e-01 4.084417e-01 1.294959e+00 -1.034641e+01 -1.117014e-02 -2.551821e-02 -3.659976e-02 -1.818529e-01 -2.514146e-01 -2.491254e-01 -1.867495e-01 -2.098598e-01 -1.937516e-01 -1.034292e-01 -1.164976e-01 -9.577657e-02 3.509394e-03 1.065682e-01 -1.212982e-03 5.330525e-02 1.225383e-02 2.578790e-02 -1.445694e-02 -8.796062e-03 9.172891e-03 1.297723e-02 -1.422260e-02 -2.326225e-02 -6.687297e-03 7.419048e-02
<VARIANCE> 39
 1.258733e+01 1.336843e+01 1.955737e+01 1.921352e+01 1.880798e+01 2.440001e+01 2.408172e+01 2.434853e+01 2.422793e+01 2.281247e+01 2.331686e+01 1.630354e+01 1.305682e-01 3.884954e-01 5.701220e-01 7.299076e-01 9.896640e-01 1.124812e+00 1.352485e+00 1.493916e+00 1.647128e+00 1.724603e+00 1.699309e+00 1.559925e+00 1.434776e+00 9.629772e-03 9.249149e-02 1.137739e-01 1.244682e-01 1.448971e-01 1.498855e-01 1.813231e-01 2.032674e-01 2.152668e-01 2.219433e-01 2.094952e-01 1.885637e-01 1.744616e-01 8.556353e-03
<GCONST> 7.563150e+01
<MIXTURE> 6 1.044846e-01
<MEAN> 39
 -8.877292e+00 3.896913e+00 -3.799720e-01 7.445347e+00 4.955433e+00 5.438703e+00 4.690082e+00 1.233888e+00 2.744023e+00 1.725396e+00 1.636521e+00 1.137248e+00 -1.039839e+01 2.076155e+00 -2.981152e-01 4.420751e-01 -1.357581e+00 -1.133877e+00 -7.844753e-01 -4.724520e-01 -7.396671e-01 -1.098059e+00 -6.664336e-01 -7.589036e-01 -4.472658e-01 9.032990e-01 9.583509e-01 -2.988757e-01 -5.800616e-03 -8.433605e-01 -6.712908e-01 -5.759943e-01 -4.309279e-01 -2.223463e-01 -3.134629e-01 -1.731924e-01 -2.113219e-01 -1.296153e-01 5.168914e-01
<VARIANCE> 39
 1.032535e+01 1.298017e+01 2.081053e+01 2.088833e+01 2.319613e+01 2.463631e+01 2.746131e+01 2.585293e+01 2.713990e+01 2.312516e+01 2.503445e+01 1.916943e+01 1.131276e-01 2.872227e+00 4.602386e+00 4.592333e+00 5.190676e+00 4.554228e+00 3.893959e+00 4.445095e+00 4.525125e+00 3.588289e+00 3.543824e+00 3.324842e+00 2.692771e+00 4.999585e-01 4.667889e-01 4.868681e-01 6.272030e-01 6.805808e-01 7.065703e-01 7.234702e-01 7.036338e-01 7.090570e-01 6.553578e-01 6.044556e-01 5.807209e-01 4.833277e-01 6.332504e-02
<GCONST> 1.130157e+02
<MIXTURE> 7 1.259030e-01
<MEAN> 39
 -5.587757e+00 1.961574e-01 -1.609944e+00 2.339848e+00 1.774439e+00 1.549462e+00 3.260202e+00 7.072456e-01 1.064167e+00 5.085496e-01 2.300705e-01 9.772288e-01 -8.009069e+00 1.083614e+00 -6.531723e-01 -1.030439e-02 -1.179522e+00 -9.090849e-01 -9.542042e-01 -5.041414e-01 -2.725201e-01 -6.376954e-01 -5.646920e-01 -5.358287e-01 -2.744486e-01 6.173186e-01 7.433461e-02 1.974070e-01 1.436558e-01 1.189902e-01 5.700881e-02 3.496363e-02 -5.621784e-02 -4.611673e-03 -1.597009e-02 -4.399957e-03 -1.187361e-02 -4.050235e-02 6.466261e-02
<VARIANCE> 39
 3.320939e+01 3.728069e+01 4.958343e+01 4.449792e+01 5.399934e+01 4.569802e+01 4.405988e+01 4.656188e+01 3.861964e+01 3.760888e+01 3.285669e+01 2.681389e+01 2.877681e+00 3.903792e+00 3.461830e+00 4.034792e+00 4.197648e+00 4.535154e+00 3.879139e+00 3.741990e+00 4.093298e+00 3.758898e+00 3.279381e+00 3.081558e+00 2.470472e+00 5.734792e-01 6.887340e-01 6.394192e-01 6.565806e-01 8.123981e-01 8.066123e-01 7.250782e-01 7.548129e-01 7.725855e-01 6.486800e-01 6.473604e-01 5.261073e-01 4.949700e-01 6.936982e-02
<GCONST> 1.246636e+02
<MIXTURE> 8 1.304734e-01
<MEAN> 39
 -8.715256e+00 4.215739e+00 -6.129035e-01 6.830980e+00 5.049152e+00 4.611115e+00 4.272457e+00 9.292640e-01 2.053757e+00 1.967911e+00 1.300854e+00 1.360412e+00 -1.042929e+01 1.034507e-01 -4.466953e-01 -2.295485e-01 -3.736226e-01 -1.297800e-01 -4.112960e-02 6.999272e-02 -1.044682e-01 -2.167143e-01 -2.275714e-01 -2.349490e-01 -1.040261e-01 1.256233e-01 2.797798e-01 -3.036037e-01 -3.598129e-02 -3.493002e-01 -2.427380e-01 -3.256482e-01 -1.653111e-01 -7.870465e-02 -1.114420e-01 -1.856254e-01 -1.200130e-01 -2.567585e-02 2.912341e-01
<VARIANCE> 39
 9.648318e+00 1.080652e+01 1.636168e+01 1.691559e+01 1.726730e+01 2.033155e+01 2.173914e+01 2.183861e+01 2.404203e+01 1.943131e+01 2.027588e+01 1.513964e+01 1.131276e-01 2.214344e+00 3.024370e+00 2.960971e+00 3.036700e+00 2.755303e+00 3.054559e+00 2.694050e+00 2.704984e+00 2.588855e+00 2.362283e+00 1.961543e+00 1.948657e+00 2.507899e-01 4.524245e-01 4.175290e-01 4.524987e-01 4.234555e-01 5.027563e-01 4.804025e-01 4.921803e-01 5.013171e-01 5.145726e-01 4.458761e-01 3.953087e-01 3.514673e-01 3.866927e-02
<GCONST> 1.008105e+02
~h "b"
<BEGINHMM>
<NUMSTATES> 5
<STATE> 2
<NUMMIXES> 8
<MIXTURE> 1 1.071993e-01
<MEAN> 39
 -7.974233e+00 5.076645e+00 1.683593e+00 8.785215e+00 7.262315e+00 6.105419e+00 3.068809e+00 -1.852062e-01 3.082188e+00 2.503097e+00 1.854592e+00 9.037542e-01 -9.853126e+00 5.082369e-01 -2.187961e-01 -1.028352e+00 1.993066e+00 1.771057e-01 5.786197e-01 4.008656e-01 -6.540605e-02 -7.594351e-02 6.116031e-01 2.728448e-01 -2.328128e-01 -1.107340e+00 -3.299523e-01 5.686343e-02 -1.181599e-01 -7.379716e-01 -1.877473e-01 -5.551004e-01 -9.266292e-02 1.160362e-01 -1.784622e-01 -2.797655e-01 -7.030607e-02 8.269858e-02 5.383843e-01
<VARIANCE> 39
 1.359976e+01 1.591109e+01 2.629410e+01 2.025076e+01 1.764022e+01 2.347916e+01 2.307277e+01 2.980568e+01 2.274713e+01 2.143161e+01 2.653154e+01 1.722915e+01 1.025635e+00 3.220289e+00 2.733110e+00 3.123729e+00 2.913396e+00 3.138452e+00 3.092884e+00 2.485626e+00 3.168130e+00 2.792160e+00 2.478227e+00 2.094105e+00 2.052898e+00 4.825745e-01 5.377676e-01 3.864744e-01 6.616935e-01 4.762000e-01 4.999410e-01 4.863926e-01 5.572073e-01 5.902150e-01 4.438645e-01 4.681897e-01 3.981150e-01 3.337803e-01 5.199388e-02
<GCONST> 1.078169e+02
<MIXTURE> 2 1.334474e-01
<MEAN> 39
 1.001492e+01 -3.601188e+00 1.480163e+00 2.738176e+00 -2.176340e+00 -6.450711e+00 -8.572616e+00 -4.239162e-02 4.872026e-01 7.172559e-01 1.469387e+00 -2.292377e+00 -2.506700e+00 -5.595977e-02 4.405189e+00 -6.283598e-01 2.552741e+00 3.514361e+00 2.543430e+00 1.302517e-01 -3.410047e+00 -1.074345e+00 -5.360780e-01 -9.986214e-02 -1.011773e+00 -1.324418e+00 -7.441516e-01 8.826815e-01 3.704095e-01 1.106519e-01 1.582007e-01 6.708137e-01 8.828966e-01 -2.192682e-01 -4.795485e-01 -4.251632e-01 -2.973631e-01 8.657882e-02 -2.122844e-01
<VARIANCE> 39
 8.549200e+00 1.918448e+01 3.505241e+01 2.882023e+01 3.328639e+01 3.758596e+01 2.939349e+01 3.599479e+01 3.846496e+01 4.289163e+01 3.035220e+01 2.914438e+01 1.493858e+00 1.250217e+00 2.370126e+00 5.789801e+00 5.220197e+00 4.524227e+00 5.182338e+00 8.684635e+00 4.571013e+00 6.400997e+00 4.862512e+00 3.794908e+00 4.678624e+00 1.286726e-01 1.670288e-01 3.493966e-01 4.905351e-01 4.959036e-01 7.423968e-01 7.255046e-01 6.237853e-01 6.893018e-01 6.134803e-01 7.135462e-01 5.390452e-01 5.019955e-01 2.377469e-02
<GCONST> 1.163911e+02
<MIXTURE> 3 1.014555e-01
<MEAN> 39
 7.656019e+00 7.958704e+00 9.244385e-01 7.630378e+00 6.700661e+00 3.262647e+00 -1.478052e+00 -6.833698e+00 -5.194791e+00 -2.369843e+00 2.190087e-01 -1.941569e+00 -5.846509e+00 -9.150349e-01 3.927811e+00 -3.242311e-02 1.748997e+00 2.833988e+00 1.802086e+00 1.968350e+00 -1.581178e+00 -1.135616e+00 -2.535194e-01 -6.227567e-01 -1.892873e-01 -1.087923e+00 -4.917097e-01 -5.844436e-01 6.098748e-01 -3.653348e-01 -8.970499e-01 -5.189803e-01 -2.864128e-01 5.285136e-01 2.592442e-01 7.269032e-02 -5.032481e-02 1.356933e-01 1.951716e-01
<VARIANCE> 39
 8.532367e+00 1.691649e+01 1.736706e+01 1.888749e+01 1.619047e+01 1.824648e+01 1.970417e+01 2.151447e+01 2.205285e+01 2.148067e+01 1.943623e+01 1.950512e+01 1.414597e+00 1.110587e+00 2.511498e+00 4.208471e+00 4.076077e+00 3.545104e+00 4.355719e+00 5.055611e+00 4.397329e+00 5.191215e+00 4.301541e+00 3.209342e+00 2.998036e+00 1.283847e-01 1.401041e-01 4.480487e-01 4.519542e-01 3.998086e-01 4.349303e-01 4.116079e-01 5.016554e-01 4.162617e-01 5.685956e-01 3.813719e-01 3.659229e-01 3.596084e-01 2.023677e-02
<GCONST> 1.044268e+02
<MIXTURE> 4 1.585934e-01
<MEAN> 39
 1.176449e+01 2.891711e+00 -5.870612e+00 -2.185841e+00 2.157616e+00 2.995212e+00 -4.581598e+00 -6.550189e+00 -3.419590e+00 -1.440361e-01 3.551624e+00 1.516567e+00 -3.281674e+00 -1.557542e+00 4.225343e+00 2.311708e+00 3.045333e+00 1.479839e+00 8.310369e-01 2.289846e+00 -1.348410e+00 -2.317070e+00 -2.123688e+00 -1.130983e+00 -1.338250e-01 -1.424520e+00 -6.947645e-01 5.793366e-02 6.079885e-01 5.292377e-01 5.638457e-02 -1.104335e-01 1.604436e-01 4.665379e-01 3.295057e-01 -1.432426e-01 -5.619223e-01 -3.770455e-01 -1.073816e-01
<VARIANCE> 39
 9.629829e+00 1.392733e+01 2.320023e+01 4.159160e+01 3.173044e+01 3.360258e+01 4.148184e+01 3.066692e+01 3.560222e+01 4.401054e+01 2.997509e+01 3.239889e+01 1.389411e+00 1.490290e+00 2.265491e+00 4.050162e+00 6.609982e+00 5.691637e+00 6.421963e+00 8.212873e+00 7.025780e+00 5.575898e+00 5.208546e+00 5.208476e+00 3.670495e+00 1.343435e-01 1.606582e-01 3.153406e-01 3.464618e-01 4.543584e-01 5.291716e-01 4.601771e-01 5.122790e-01 5.498671e-01 5.064964e-01 6.330217e-01 5.409970e-01 4.588994e-01 2.204757e-02
<GCONST> 1.147464e+02
<MIXTURE> 5 1.583556e-01
<MEAN> 39
 6.718088e+00 8.973833e+00 2.712718e+00 7.846992e+00 7.658365e-01 -1.255296e+00 -8.534163e-01 -6.789976e+00 -6.504063e+00 -2.631498e+00 -2.775771e+00 -4.247708e+00 -5.590355e+00 -6.384890e-01 1.817044e+00 3.967289e-01 1.231216e+00 1.750900e+00 4.472584e-01 1.886010e-01 3.868043e-01 2.273613e-02 -8.988280e-01 -2.293121e-01 4.350135e-02 -6.550226e-01 -2.873813e-01 -6.271905e-01 -6.646395e-02 -6.691095e-01 -1.251519e-01 2.309833e-01 -3.027061e-02 2.386706e-01 3.793539e-01 2.642435e-01 2.723310e-01 3.804157e-01 1.433445e-01
<VARIANCE> 39
 9.657595e+00 1.923867e+01 1.910365e+01 4.401560e+01 2.696008e+01 4.253026e+01 4.377701e+01 5.167940e+01 6.495084e+01 3.838872e+01 4.211719e+01 3.227485e+01 1.924916e+00 1.398462e+00 2.981068e+00 2.729529e+00 5.724672e+00 3.587473e+00 3.634780e+00 4.302249e+00 4.688262e+00 5.468148e+00 3.807291e+00 4.276736e+00 3.439211e+00 2.111798e-01 1.962801e-01 4.416902e-01 3.571515e-01 7.192589e-01 5.114660e-01 5.049461e-01 6.947803e-01 8.870948e-01 1.221889e+00 7.591886e-01 7.841564e-01 5.398962e-01 2.810518e-02
<GCONST> 1.178654e+02
<MIXTURE> 6 1.103316e-01
<MEAN> 39
 -6.924751e+00 7.214727e+00 1.618382e+00 1.009176e+01 6.924381e+00 5.166262e+00 3.738859e+00 -1.837694e+00 -9.507440e-01 -5.710173e-01 2.972223e-01 3.982557e-01 -9.944042e+00 1.477424e+00 7.959648e-01 5.938872e-01 2.155602e-01 7.658906e-02 -3.334598e-01 -5.400041e-01 -9.248698e-01 -8.229011e-01 -5.372391e-01 -3.022814e-01 -2.794945e-01 4.027930e-01 5.246758e-01 -3.771206e-01 -1.640932e-01 -7.134972e-01 -4.021463e-01 -3.283340e-01 -2.667710e-01 -5.260680e-02 1.069886e-01 8.049852e-02 5.974743e-02 4.191289e-02 4.116628e-01
<VARIANCE> 39
 2.252609e+01 2.241522e+01 2.004904e+01 1.940471e+01 1.852966e+01 1.934132e+01 2.408045e+01 2.759444e+01 3.046569e+01 2.084019e+01 1.639152e+01 1.736597e+01 1.009264e+00 2.379635e+00 2.341813e+00 1.719016e+00 2.059806e+00 1.330993e+00 1.594001e+00 2.086252e+00 2.860806e+00 2.640472e+00 1.797564e+00 1.749022e+00 1.728033e+00 2.672378e-01 5.336987e-01 2.786429e-01 3.191595e-01 4.390845e-01 3.354514e-01 3.764467e-01 4.307928e-01 5.083202e-01 4.949792e-01 3.626564e-01 3.148045e-01 3.260819e-01 6.858795e-02
<GCONST> 1.010921e+02
<MIXTURE> 7 1.172230e-01
<MEAN> 39
 8.193781e+00 9.243524e+00 -1.579227e-01 6.432329e+00 5.719033e+00 3.679179e+00 -3.333664e+00 -9.805771e+00 -6.249568e+00 -1.730571e+00 1.735331e+00 -3.052806e+00 -5.982911e+00 -1.414766e+00 3.786680e+00 1.400322e+00 2.487860e+00 1.435786e+00 1.611606e+00 1.647296e+00 -1.713485e+00 -1.467214e+00 -1.679934e+00 -6.282445e-01 -5.827753e-02 -1.156334e+00 -5.350436e-01 -9.783953e-01 2.784621e-01 -4.530309e-01 -6.057934e-01 -6.415079e-01 -7.562745e-02 1.079542e+00 6.485312e-01 1.109485e-01 -4.171825e-01 1.466241e-01 2.290545e-01
<VARIANCE> 39
 7.053061e+00 1.248485e+01 1.490241e+01 2.215331e+01 1.467064e+01 2.337867e+01 2.772625e+01 2.010434e+01 2.578539e+01 2.332617e+01 2.057742e+01 2.467573e+01 1.403175e+00 1.373731e+00 2.356974e+00 3.965290e+00 4.830575e+00 3.960607e+00 4.805169e+00 4.312049e+00 5.062411e+00 4.648361e+00 4.635042e+00 3.271028e+00 2.771060e+00 1.803053e-01 2.516103e-01 4.063466e-01 4.931850e-01 4.781426e-01 4.624355e-01 5.311158e-01 6.362662e-01 5.428038e-01 6.869797e-01 5.538160e-01 4.340117e-01 4.913220e-01 2.825171e-02
<GCONST> 1.085314e+02
<MIXTURE> 8 1.133921e-01
<MEAN> 39
 6.355344e+00 8.360202e+00 3.843963e+00 9.225945e+00 7.791270e-01 -2.007345e+00 -6.555169e+00 -7.101394e+00 -2.792254e+00 -2.868830e+00 -3.811922e+00 -6.171264e+00 -5.970133e+00 -9.762576e-01 3.493669e+00 7.657627e-01 3.316743e+00 1.780329e+00 1.042484e+00 -2.713976e-01 -1.756433e+00 -1.003942e+00 -1.205741e+00 -5.644152e-01 -1.426058e+00 -1.196618e+00 -5.902076e-01 -8.099120e-01 -1.938335e-01 -1.009468e+00 -9.446983e-02 1.572124e-01 5.955772e-01 7.496932e-01 1.987322e-01 2.056369e-01 2.944757e-01 6.534772e-01 1.984191e-01
<VARIANCE> 39
 1.225671e+01 2.024755e+01 2.210979e+01 3.575940e+01 3.225903e+01 3.298165e+01 3.771626e+01 3.144013e+01 3.315516e+01 4.238118e+01 3.221645e+01 2.929752e+01 1.849535e+00 4.966429e+00 3.995150e+00 5.982255e+00 6.429485e+00 5.605651e+00 5.676551e+00 5.839225e+00 5.502766e+00 5.304488e+00 4.531083e+00 4.345016e+00 3.655029e+00 5.164092e-01 3.356937e-01 6.121373e-01 5.072693e-01 6.353037e-01 7.265784e-01 5.791087e-01 8.583739e-01 7.327846e-01 7.529703e-01 1.006632e+00 7.590536e-01 6.005806e-01 3.510140e-02
<GCONST> 1.230199e+02
<STATE> 3
<NUMMIXES> 8
<MIXTURE> 1 1.285947e-01
<MEAN> 39
 3.406508e+00 1.287068e+01 5.271243e+00 1.126814e+01 7.764804e+00 2.897645e+00 -1.307329e+00 -7.282285e+00 -4.378324e+00 -2.149974e+00 -1.722071e+00 -2.100748e+00 -7.700570e+00 -6.351290e-01 1.964472e-01 4.207403e-01 6.127650e-01 5.127338e-01 1.600654e-01 2.186640e-02 2.340254e-01 1.785725e-01 -2.649711e-02 -1.358720e-01 6.197679e-02 -2.063798e-01 -1.067936e-01 -5.427880e-01 -2.313643e-01 -3.989198e-01 -2.578754e-01 -7.534759e-02 1.319027e-01 2.700602e-01 1.973618e-01 1.043488e-01 5.521624e-03 6.490929e-02 1.230033e-01
<VARIANCE> 39
 1.428768e+01 8.662310e+00 1.454418e+01 1.624749e+01 1.612222e+01 2.522250e+01 2.750662e+01 2.368309e+01 2.131972e+01 2.424575e+01 2.030751e+01 1.848932e+01 1.570714e+00 5.896576e-01 7.956492e-01 1.067268e+00 1.213070e+00 1.179300e+00 1.303915e+00 1.359813e+00 1.452194e+00 1.618445e+00 1.670550e+00 1.572383e+00 1.157838e+00 5.471838e-02 1.299258e-01 2.211897e-01 2.184045e-01 2.866855e-01 2.333253e-01 2.704990e-01 2.785276e-01 3.200731e-01 3.120765e-01 3.404728e-01 2.960369e-01 2.601324e-01 2.103337e-02
<GCONST> 8.620785e+01
<MIXTURE> 2 1.659725e-01
<MEAN> 39
 4.967758e+00 1.367472e+01 3.659520e+00 7.445224e+00 5.538907e+00 4.627097e+00 2.135885e+00 -6.910771e+00 -8.559967e+00 -5.696167e+00 -1.988177e+00 1.214363e-02 -7.022223e+00 -1.249107e+00 3.058185e-01 8.806910e-01 7.622635e-01 6.336342e-01 7.691478e-02 1.685277e-01 3.662952e-01 4.523238e-01 3.122192e-02 -3.038152e-01 -3.709363e-02 -3.113644e-01 1.025958e-01 -1.344051e+00 -6.148502e-01 -8.416253e-01 -4.823689e-01 -3.631829e-01 -5.157169e-01 2.284948e-01 8.553284e-01 6.973678e-01 3.791280e-01 3.801967e-02 3.777944e-01
<VARIANCE> 39
 1.154551e+01 9.510770e+00 1.519867e+01 2.010021e+01 2.549298e+01 2.112198e+01 2.458951e+01 2.836843e+01 2.177557e+01 2.020795e+01 3.143745e+01 1.998017e+01 1.420220e+00 7.995572e-01 2.168371e+00 1.281546e+00 2.267468e+00 1.726092e+00 1.542453e+00 2.083109e+00 2.139334e+00 2.981525e+00 1.940646e+00 2.104507e+00 1.826116e+00 1.254099e-01 1.684136e-01 2.687660e-01 3.925112e-01 5.214691e-01 5.158465e-01 4.450223e-01 5.290515e-01 6.719444e-01 5.289590e-01 4.300301e-01 5.971691e-01 4.058179e-01 2.172073e-02
<GCONST> 9.901575e+01
<MIXTURE> 3 1.222643e-01
<MEAN> 39
 2.271309e+00 1.282407e+01 6.885470e+00 1.236823e+01 5.415806e+00 -2.534251e-01 -5.247360e+00 -8.048358e+00 -3.698985e+00 -3.152560e+00 -2.367558e+00 -4.620269e+00 -7.549285e+00 -2.253294e+00 1.390498e-01 4.109166e-01 5.849885e-01 1.222382e+00 1.384498e+00 1.324757e+00 8.902928e-01 2.494857e-01 -4.804573e-01 3.325208e-01 6.362309e-01 -6.282893e-01 1.319352e-01 -1.631293e+00 -7.921743e-01 -1.332410e+00 -8.351407e-01 -1.888632e-01 4.738348e-01 8.860042e-01 5.325146e-01 5.444585e-01 3.623192e-01 5.177443e-01 4.339053e-01
<VARIANCE> 39
 1.269405e+01 9.543303e+00 1.431989e+01 2.057157e+01 2.467828e+01 2.328101e+01 3.063942e+01 2.463194e+01 2.537473e+01 2.724524e+01 2.282905e+01 1.909415e+01 2.030509e+00 2.770457e+00 3.673132e+00 3.185191e+00 4.181555e+00 2.482218e+00 2.826919e+00 3.105853e+00 3.694555e+00 3.958467e+00 3.357601e+00 3.370605e+00 2.434146e+00 4.573279e-01 2.693875e-01 4.320909e-01 7.022223e-01 5.840946e-01 6.636750e-01 5.927187e-01 6.137074e-01 6.886097e-01 8.331027e-01 7.675601e-01 6.014986e-01 4.863051e-01 4.545087e-02
<GCONST> 1.120674e+02
<MIXTURE> 4 1.021784e-01
<MEAN> 39
 -8.491179e+00 4.989976e+00 5.017834e-01 8.549502e+00 6.527201e+00 5.204556e+00 3.496218e+00 8.429714e-01 2.204727e+00 2.240860e+00 1.891599e+00 6.972613e-01 -1.043083e+01 -3.771361e-01 -7.695217e-01 -3.006502e-01 -3.596800e-01 -2.562380e-01 -9.766810e-02 5.085742e-01 7.554858e-01 6.381657e-01 3.956735e-01 5.612714e-01 5.738840e-01 1.845139e-01 8.549231e-01 -1.619136e-01 1.930239e-01 -6.672150e-01 -4.882962e-01 -5.873297e-01 -4.166541e-01 -2.450453e-01 -2.091782e-01 -2.611719e-01 -1.678230e-01 -7.101224e-02 5.914555e-01
<VARIANCE> 39
 7.980038e+00 1.042819e+01 1.412563e+01 1.932065e+01 1.667335e+01 1.725285e+01 2.138179e+01 2.227367e+01 2.457533e+01 1.991962e+01 1.933907e+01 1.580325e+01 1.131276e-01 2.490578e+00 1.391137e+00 1.967866e+00 2.085019e+00 1.633483e+00 2.003308e+00 2.275270e+00 2.591348e+00 2.302019e+00 2.245543e+00 1.869289e+00 1.641086e+00 5.088783e-01 4.122763e-01 3.965554e-01 4.994370e-01 6.761100e-01 4.835469e-01 5.532943e-01 4.972821e-01 5.115863e-01 5.601264e-01 5.202321e-01 4.091407e-01 4.008827e-01 7.925022e-02
<GCONST> 9.981438e+01
<MIXTURE> 5 1.308323e-01
<MEAN> 39
 6.780991e+00 1.266661e+01 9.792259e-01 4.977603e+00 5.177723e+00 5.913579e+00 3.027204e+00 -7.395987e+00 -9.105205e+00 -7.316279e+00 -2.400304e+00 1.016450e+00 -6.712753e+00 -1.880970e+00 1.843927e+00 1.744111e+00 1.528276e+00 7.236417e-01 3.071985e-01 1.478228e+00 1.954668e-01 -3.004186e-01 -7.765482e-01 -1.362695e+00 -3.945918e-01 -7.625038e-01 -3.625689e-02 -1.647964e+00 -3.976635e-01 -6.882718e-01 -5.266641e-01 -6.791265e-01 -1.076981e+00 5.329737e-01 1.145173e+00 1.011199e+00 5.574857e-01 -1.302449e-01 4.349904e-01
<VARIANCE> 39
 1.086728e+01 1.181633e+01 1.589242e+01 1.962062e+01 2.405574e+01 2.143376e+01 2.359838e+01 3.026688e+01 1.981694e+01 2.622900e+01 2.622500e+01 2.065264e+01 1.471932e+00 1.481289e+00 3.627281e+00 3.328932e+00 4.305249e+00 3.090871e+00 3.338906e+00 3.562073e+00 3.650785e+00 3.808658e+00 4.092639e+00 3.284936e+00 2.384166e+00 2.921265e-01 3.005345e-01 5.035601e-01 6.139302e-01 9.797532e-01 7.411324e-01 6.852899e-01 6.125783e-01 9.192433e-01 6.244452e-01 6.855958e-01 6.424232e-01 4.743126e-01 4.694961e-02
<GCONST> 1.120995e+02
<MIXTURE> 6 1.355549e-01
<MEAN> 39
 5.127522e+00 1.164632e+01 2.443049e+00 9.676038e+00 5.689235e+00 2.366053e+00 -1.082695e+00 -7.740232e+00 -5.098603e+00 -2.326308e+00 -1.879302e+00 -3.604570e+00 -7.173914e+00 1.510889e-01 1.015477e-01 -1.854877e-01 -2.401373e-01 2.531793e-01 5.036665e-01 1.586070e-01 -2.551176e-01 -2.081462e-01 -9.478149e-02 1.822755e-01 1.660065e-01 3.344484e-02 -2.848101e-01 -8.970452e-01 -2.406327e-02 -5.160395e-01 -4.034997e-01 -2.875620e-01 -5.652948e-02 4.648334e-01 4.518421e-01 1.355931e-01 1.743775e-01 3.200604e-01 2.273872e-01
<VARIANCE> 39
 1.482824e+01 1.575032e+01 2.136640e+01 3.563536e+01 2.766220e+01 3.237867e+01 3.364296e+01 2.514126e+01 3.391960e+01 2.230024e+01 2.810124e+01 2.095324e+01 2.064281e+00 1.058452e+00 1.194735e+00 1.077363e+00 1.503982e+00 1.380810e+00 1.608881e+00 1.541246e+00 1.681906e+00 1.825485e+00 1.399136e+00 1.705912e+00 1.423177e+00 1.094577e-01 3.271299e-01 4.476702e-01 5.354432e-01 9.112391e-01 5.766298e-01 5.530196e-01 4.797103e-01 5.880561e-01 5.707861e-01 4.130718e-01 4.781709e-01 3.579887e-01 5.147046e-02
<GCONST> 1.018919e+02
<MIXTURE> 7 9.758367e-02
<MEAN> 39
 5.528087e+00 1.105875e+01 4.292600e+00 1.081873e+01 4.584511e+00 -5.107986e-01 -8.293242e+00 -1.049497e+01 -4.272508e+00 -2.073829e+00 -1.654973e+00 -7.275517e+00 -6.615723e+00 -1.780692e+00 1.184249e+00 1.101125e+00 1.102904e+00 7.754012e-01 4.948819e-01 4.663143e-01 -1.687098e-01 -1.199782e-01 -8.918939e-01 -2.807206e-01 4.430223e-02 -5.148208e-01 -1.232172e-01 -1.781439e+00 -4.269627e-01 -1.490598e+00 -8.581067e-01 -3.652338e-01 7.080234e-01 1.461836e+00 5.494861e-01 4.032833e-01 2.339390e-01 8.415546e-01 4.817138e-01
<VARIANCE> 39
 1.005279e+01 1.531076e+01 1.817256e+01 2.168274e+01 2.816025e+01 2.566136e+01 2.722905e+01 2.941941e+01 3.197620e+01 3.308455e+01 2.955659e+01 1.996840e+01 1.859410e+00 2.504430e+00 3.733971e+00 3.062172e+00 4.872265e+00 3.014610e+00 3.514345e+00 3.020031e+00 4.370167e+00 4.804826e+00 3.445305e+00 2.835949e+00 2.715473e+00 4.318333e-01 3.449455e-01 5.213392e-01 1.175845e+00 7.091005e-01 1.038064e+00 9.492777e-01 8.758150e-01 9.406454e-01 1.244388e+00 1.022014e+00 7.914937e-01 5.291508e-01 4.834219e-02
<GCONST> 1.180452e+02
<MIXTURE> 8 1.170091e-01
<MEAN> 39
 -9.120915e+00 4.729544e+00 3.172544e-01 8.823821e+00 5.848618e+00 5.434209e+00 3.489290e+00 5.715980e-01 2.358369e+00 1.262444e+00 2.241265e+00 1.070075e+00 -1.044429e+01 1.578614e+00 -9.234315e-01 -9.945016e-02 -1.481161e+00 -1.213318e+00 -1.595359e+00 -6.175516e-01 -2.054023e-01 -5.792595e-02 -4.603835e-01 -3.237931e-01 -4.550564e-02 1.179830e+00 1.121503e+00 -4.579816e-01 7.749978e-02 -1.002999e+00 -6.115269e-01 -4.950548e-01 -4.344278e-01 -1.317524e-01 -1.237866e-01 5.696183e-02 -1.043211e-01 -1.352773e-01 6.798962e-01
<VARIANCE> 39
 7.729426e+00 1.020211e+01 1.279341e+01 1.720257e+01 1.672646e+01 1.755143e+01 1.855543e+01 1.926652e+01 1.963563e+01 1.654573e+01 2.048695e+01 1.324637e+01 1.131276e-01 1.954270e+00 1.516533e+00 2.024765e+00 2.478234e+00 1.979028e+00 2.465540e+00 1.948280e+00 1.733229e+00 2.379504e+00 2.052194e+00 1.634542e+00 1.527760e+00 5.574890e-01 2.909643e-01 3.824625e-01 6.395223e-01 6.448869e-01 6.186064e-01 7.547581e-01 5.367849e-01 4.903698e-01 5.518714e-01 5.207280e-01 4.977251e-01 3.257867e-01 4.051301e-02
<GCONST> 9.817578e+01
<STATE> 4
<NUMMIXES> 8
<MIXTURE> 1 6.941621e-02
<MEAN> 39
 -1.375928e+00 1.199401e+01 7.483061e+00 1.357872e+01 6.200465e+00 3.624626e+00 -2.729232e+00 -6.461540e+00 -4.323751e+00 -5.833931e+00 -2.763578e+00 -4.238389e+00 -8.725085e+00 -2.475654e+00 -2.726039e+00 -1.133013e+00 -8.317410e-01 3.377029e-01 8.150628e-01 2.052959e+00 2.779224e+00 2.412109e+00 1.400351e+00 1.270091e+00 1.225821e+00 6.309159e-03 1.056949e+00 -1.266833e+00 -1.159515e+00 -1.692218e+00 -8.070115e-01 -6.787032e-01 -8.055254e-02 4.395231e-01 5.342919e-01 9.081857e-01 4.650000e-01 3.780687e-01 6.804318e-01
<VARIANCE> 39
 1.217052e+01 9.313604e+00 1.229624e+01 1.557200e+01 1.600323e+01 2.027390e+01 3.338473e+01 2.803436e+01 2.167061e+01 1.841066e+01 1.456321e+01 1.728031e+01 1.768374e+00 1.725823e+00 1.938805e+00 2.101161e+00 2.908843e+00 1.805034e+00 2.681557e+00 3.235348e+00 3.548637e+00 2.943985e+00 2.995790e+00 2.951724e+00 2.454567e+00 5.231731e-01 4.735849e-01 4.946381e-01 7.384552e-01 7.428685e-01 5.653904e-01 7.387580e-01 6.633548e-01 8.149394e-01 6.605519e-01 5.918702e-01 5.310915e-01 4.509368e-01 4.954180e-02
<GCONST> 1.080051e+02
<MIXTURE> 2 1.468248e-01
<MEAN> 39
 -6.527618e+00 3.957301e+00 2.212302e+00 8.650470e+00 7.161582e+00 4.971456e+00 3.360952e+00 1.011631e-01 1.608296e+00 1.047367e-01 5.706512e-01 -3.403835e-02 -8.211120e+00 8.381802e-01 -2.799355e+00 -1.622399e+00 -2.635841e+00 -1.431108e+00 -1.394075e+00 -1.187892e-01 1.200738e+00 1.571952e+00 1.322630e+00 1.044176e+00 8.008944e-01 1.330798e+00 1.721531e+00 -8.200642e-02 -2.509461e-01 -9.783105e-01 -8.465400e-01 -6.082577e-01 -8.805401e-01 -5.036085e-01 -5.390716e-01 -9.456645e-02 -5.450214e-02 -1.620144e-01 5.434619e-01
<VARIANCE> 39
 1.231110e+01 2.345639e+01 2.049861e+01 2.121582e+01 1.940820e+01 2.498242e+01 2.430060e+01 2.501209e+01 2.693275e+01 2.325879e+01 2.465801e+01 1.737172e+01 3.750826e+00 4.216136e+00 2.506853e+00 3.164890e+00 3.350674e+00 2.907175e+00 3.392968e+00 4.530635e+00 4.255688e+00 3.596093e+00 3.420886e+00 3.094875e+00 2.674345e+00 4.577002e-01 3.725713e-01 6.625927e-01 9.045174e-01 8.367462e-01 7.016259e-01 9.214882e-01 8.191804e-01 8.315154e-01 8.868871e-01 7.305610e-01 8.158843e-01 6.047109e-01 6.005947e-02
<GCONST> 1.171920e+02
<MIXTURE> 3 1.352024e-01
<MEAN> 39
 -2.765139e+00 1.267401e+00 -1.279247e+00 2.150158e+00 3.987025e+00 9.164264e-01 2.228914e+00 -1.604832e+00 1.516689e+00 1.549003e+00 8.957713e-01 1.754940e+00 -5.207923e+00 3.029630e+00 -2.505601e+00 -2.327303e+00 -4.471841e+00 -2.212487e+00 -1.877688e-01 -1.173415e+00 -1.608204e-01 1.136541e+00 1.271552e+00 1.295412e+00 3.271422e-01 1.831850e+00 1.139878e+00 3.206045e-01 -7.024258e-02 -4.476244e-01 -3.698820e-01 4.758699e-01 -4.438861e-01 -3.352829e-01 -4.053173e-01 -2.567452e-01 -2.139688e-03 -3.201952e-01 1.109566e-01
<VARIANCE> 39
 1.832048e+01 2.145143e+01 1.998558e+01 2.647796e+01 2.316842e+01 2.342163e+01 3.017907e+01 2.614994e+01 2.834272e+01 2.366474e+01 2.188919e+01 1.683850e+01 2.514450e+00 3.688658e+00 4.168148e+00 4.007609e+00 5.908760e+00 4.351826e+00 4.991263e+00 5.212896e+00 5.036709e+00 4.922049e+00 3.838763e+00 3.610143e+00 3.202260e+00 3.185688e-01 4.278748e-01 8.491247e-01 6.196327e-01 8.987116e-01 7.471647e-01 8.736595e-01 1.097224e+00 8.633547e-01 8.747175e-01 7.677051e-01 6.539232e-01 6.020126e-01 3.972267e-02
<GCONST> 1.200811e+02
<MIXTURE> 4 1.666187e-01
<MEAN> 39
 4.250342e+00 1.145270e+01 3.349628e+00 6.673116e+00 4.976293e+00 4.162799e+00 1.933495e+00 -6.468091e+00 -7.257255e+00 -5.769639e+00 -2.901573e+00 -6.685689e-01 -6.575975e+00 -1.090173e-01 -2.865669e+00 -1.745779e+00 -2.976847e+00 -1.091647e+00 -5.401826e-01 -5.757394e-01 7.483143e-01 2.164594e+00 1.769335e+00 1.215554e+00 6.333196e-01 9.893457e-01 6.595557e-01 -1.097112e+00 -8.532014e-01 -1.339188e+00 -6.764528e-01 3.728369e-03 -4.753829e-01 1.540343e-01 5.979721e-01 7.645655e-01 5.946007e-01 -6.664702e-03 4.546497e-01
<VARIANCE> 39
 1.610644e+01 1.984632e+01 2.156041e+01 2.702311e+01 2.817719e+01 2.583809e+01 3.206758e+01 2.737642e+01 2.559540e+01 2.111323e+01 2.971652e+01 2.243765e+01 1.705356e+00 2.484575e+00 2.363146e+00 2.155550e+00 5.196679e+00 3.353328e+00 2.838093e+00 3.244151e+00 4.120759e+00 3.655965e+00 2.883972e+00 3.035285e+00 2.357514e+00 2.786165e-01 3.678438e-01 5.504085e-01 5.607867e-01 9.588420e-01 7.012736e-01 8.966556e-01 9.518155e-01 8.518581e-01 8.329085e-01 7.398880e-01 8.000889e-01 6.428830e-01 2.808985e-02
<GCONST> 1.149735e+02
<MIXTURE> 5 1.460883e-01
<MEAN> 39
 -1.883306e+00 6.941071e-01 3.736020e+00 6.407004e+00 9.009283e-01 -4.476552e+00 4.431494e-01 1.424761e+00 2.168490e+00 -1.961157e+00 3.084032e-01 1.246201e+00 -4.743248e+00 1.674550e+00 -2.966775e+00 2.648935e+00 -2.408689e+00 -4.382508e+00 -2.775154e+00 -1.173967e+00 1.144698e+00 -1.272267e+00 -1.722049e-01 6.026165e-01 8.045834e-01 1.633105e+00 4.852159e-01 3.520861e-01 6.702762e-01 -3.798384e-01 -5.272288e-01 4.431002e-01 -4.384353e-01 -5.406417e-01 -9.222530e-01 1.877970e-01 2.796391e-02 -2.743711e-01 -9.588045e-03
<VARIANCE> 39
 2.231762e+01 1.579058e+01 2.556336e+01 2.390587e+01 3.021461e+01 3.258573e+01 3.534924e+01 3.048161e+01 3.209264e+01 2.414814e+01 2.980002e+01 1.994950e+01 2.912663e+00 4.133117e+00 3.850831e+00 3.852302e+00 5.560371e+00 4.058809e+00 4.030133e+00 5.764457e+00 6.880581e+00 5.600293e+00 5.626269e+00 3.853763e+00 2.754731e+00 2.971438e-01 4.251976e-01 5.632561e-01 4.939827e-01 6.960418e-01 6.940748e-01 9.131696e-01 8.792150e-01 9.318382e-01 8.508622e-01 7.277651e-01 8.881390e-01 5.144773e-01 5.158370e-02
<GCONST> 1.214681e+02
<MIXTURE> 6 1.039697e-01
<MEAN> 39
 4.500102e+00 1.080198e+01 3.062879e+00 1.065026e+01 8.109002e+00 2.005451e+00 -3.235227e+00 -9.121778e+00 -4.023336e+00 -8.654033e-01 -1.506243e-01 -3.932741e+00 -6.732824e+00 -1.074335e+00 -3.060447e+00 3.726484e-01 -1.694731e+00 -2.089608e+00 -1.931638e+00 2.925414e-01 2.232614e+00 1.535509e+00 1.969812e-01 4.740028e-03 1.091789e+00 8.777501e-01 2.465476e-01 -1.383196e+00 3.248051e-01 -1.063877e+00 -1.470610e+00 -6.596124e-01 -2.043655e-01 9.446278e-01 8.657672e-02 2.168778e-02 9.764462e-02 3.217795e-01 4.632444e-01
<VARIANCE> 39
 1.444698e+01 1.463793e+01 1.629068e+01 2.096966e+01 2.024100e+01 2.672453e+01 2.721212e+01 1.995452e+01 2.425858e+01 1.974309e+01 2.092251e+01 1.985703e+01 1.715940e+00 1.654256e+00 2.326181e+00 2.747948e+00 3.844043e+00 3.205705e+00 3.038618e+00 4.560392e+00 2.737303e+00 4.597760e+00 2.920662e+00 2.742486e+00 2.227475e+00 2.391807e-01 3.044303e-01 5.143091e-01 6.821136e-01 5.635497e-01 6.830704e-01 6.594197e-01 7.455376e-01 6.892054e-01 9.994665e-01 7.031034e-01 5.460129e-01 4.679893e-01 2.665538e-02
<GCONST> 1.100629e+02
<MIXTURE> 7 1.433428e-01
<MEAN> 39
 -3.815670e-01 1.284090e+00 -1.213115e+00 1.461332e+00 2.296728e+00 1.160506e-01 8.799112e-02 -1.975513e+00 3.147589e+00 2.085446e+00 2.509442e+00 5.863628e-01 -4.315519e+00 3.052447e+00 -3.203415e+00 -2.182937e+00 -4.114189e+00 -2.053009e+00 -1.314692e+00 -1.418337e+00 8.011647e-01 1.332138e+00 1.523377e+00 1.933864e-01 -3.221688e-01 1.880969e+00 6.880990e-01 7.745348e-02 -1.273385e-02 -3.014483e-03 2.291717e-03 2.132176e-01 -2.466377e-01 -2.445644e-02 -4.968988e-01 -2.372811e-01 -3.938061e-01 -3.346411e-01 -6.775651e-03
<VARIANCE> 39
 2.273805e+01 1.962259e+01 1.851389e+01 2.643934e+01 2.127022e+01 2.538885e+01 3.000623e+01 3.329912e+01 3.346169e+01 2.375350e+01 2.257678e+01 2.118659e+01 2.935243e+00 4.222691e+00 5.069115e+00 4.112968e+00 6.096594e+00 4.430923e+00 6.633816e+00 6.824651e+00 7.551911e+00 6.813663e+00 5.374839e+00 5.898295e+00 3.595517e+00 3.584819e-01 4.509529e-01 6.974412e-01 5.333710e-01 7.102326e-01 6.761270e-01 7.901072e-01 9.521469e-01 8.991054e-01 8.837656e-01 6.803730e-01 6.540564e-01 5.457274e-01 4.682126e-02
<GCONST> 1.228228e+02
<MIXTURE> 8 8.851930e-02
<MEAN> 39
 -8.260548e-01 1.347019e+01 7.149729e+00 1.300764e+01 9.579974e+00 5.076481e+00 1.229326e+00 -5.807734e+00 -4.726174e+00 -4.048964e+00 -2.604419e+00 -1.296302e+00 -8.768474e+00 -1.537343e+00 -2.668821e+00 -1.279914e+00 -1.637832e+00 -7.025051e-01 -5.251486e-01 7.757075e-01 1.685426e+00 1.876968e+00 8.160569e-01 2.320690e-01 4.500772e-01 4.784537e-01 9.779410e-01 -1.344986e+00 -9.817069e-01 -1.627419e+00 -1.210413e+00 -5.859650e-01 -3.977383e-01 1.643365e-01 4.499040e-01 6.648036e-01 5.360139e-01 1.177212e-01 6.630176e-01
<VARIANCE> 39
 1.093211e+01 7.737205e+00 1.356245e+01 1.481605e+01 1.401587e+01 1.853899e+01 2.503951e+01 2.359223e+01 1.920779e+01 1.669239e+01 1.774882e+01 1.353442e+01 1.294590e+00 1.642932e+00 2.141702e+00 1.765790e+00 2.941292e+00 2.033573e+00 2.103590e+00 2.119778e+00 2.263002e+00 2.508989e+00 2.419605e+00 2.121983e+00 1.758497e+00 3.738018e-01 2.883098e-01 4.372026e-01 5.528573e-01 5.411020e-01 4.317945e-01 6.991959e-01 6.267441e-01 6.258090e-01 5.857823e-01 4.917699e-01 4.668254e-01 3.762368e-01 2.522814e-02
<GCONST> 1.008575e+02
<TRANSP> 5
 0.000000e+00 1.000000e+00 0.000000e+00 0.000000e+00 0.000000e+00
 0.000000e+00 4.706835e-01 5.293165e-01 0.000000e+00 0.000000e+00
 0.000000e+00 0.000000e+00 5.922623e-01 4.077377e-01 0.000000e+00
 0.000000e+00 0.000000e+00 0.000000e+00 6.283053e-01 3.716947e-01
 0.000000e+00 0.000000e+00 0.000000e+00 0.000000e+00 0.000000e+00
<ENDHMM>
~h "d"
<BEGINHMM>
<NUMSTATES> 5
<STATE> 2
<NUMMIXES> 8
<MIXTURE> 1 1.159000e-01
<MEAN> 39
 -2.660170e+00 1.152242e+01 7.162174e+00 1.240036e+01 7.060452e+00 3.145151e+00 -5.058318e-01 -5.123208e+00 -3.487713e+00 -4.701418e+00 -3.334799e+00 -2.959056e+00 -8.864294e+00 -2.258941e+00 -3.528914e+00 -1.798017e+00 -2.793081e+00 1.990973e-01 8.943959e-01 1.469153e+00 1.598634e+00 1.431909e+00 1.472494e+00 1.710503e+00 1.082427e+00 4.853643e-01 3.887844e-01 -9.869030e-01 -2.874262e-01 -1.262229e+00 -1.220438e+00 -9.649348e-01 -1.520648e-01 4.668598e-01 4.049358e-01 5.114414e-01 3.148951e-01 5.088571e-01 6.044643e-01
<VARIANCE> 39
 1.549332e+01 1.429683e+01 1.686874e+01 1.869878e+01 1.997058e+01 2.220768e+01 2.978424e+01 2.352080e+01 2.174114e+01 1.939768e+01 1.959455e+01 1.589062e+01 1.885804e+00 1.925223e+00 3.411735e+00 2.896535e+00 5.493639e+00 4.101629e+00 4.101679e+00 3.480467e+00 3.617635e+00 3.343445e+00 3.108758e+00 2.886821e+00 2.582107e+00 5.803071e-01 4.630205e-01 6.264914e-01 5.809833e-01 7.123092e-01 6.199260e-01 6.131740e-01 8.361756e-01 6.229116e-01 6.680849e-01 4.974466e-01 4.776998e-01 4.515144e-01 5.322187e-02
<GCONST> 1.124006e+02
<MIXTURE> 2 1.239741e-01
<MEAN> 39
 7.656554e+00 -5.451838e+00 -6.922015e-01 1.518846e-03 -7.055441e+00 -2.085686e+00 -4.079012e+00 -8.778999e-01 5.252841e+00 1.483925e+00 -1.155670e+00 -2.644701e+00 -1.388156e+00 -2.077001e-01 8.088312e-01 1.564212e+00 1.821416e+00 -1.102236e-01 -5.163342e-01 -9.272635e-01 -1.111346e+00 -4.426613e-01 8.139583e-02 4.408402e-02 7.826211e-01 -5.709792e-01 2.309181e-03 -2.010721e-01 3.404412e-02 -4.031458e-01 1.747136e-01 5.251276e-02 6.259322e-02 3.607790e-01 -3.254077e-01 -6.158777e-02 5.332543e-02 1.374060e-01 7.477853e-02
<VARIANCE> 39
 1.366841e+01 2.250970e+01 5.573078e+01 4.193310e+01 4.215759e+01 4.757324e+01 5.103333e+01 5.911103e+01 5.220707e+01 4.540151e+01 3.404951e+01 3.437133e+01 1.260737e+00 1.543514e+00 1.728540e+00 3.244711e+00 3.902281e+00 5.091624e+00 4.847803e+00 6.147312e+00 5.335330e+00 4.817335e+00 4.115984e+00 4.246003e+00 3.356574e+00 9.492999e-02 1.376197e-01 2.275239e-01 3.179622e-01 4.932401e-01 5.907805e-01 5.476880e-01 6.523547e-01 7.459001e-01 7.071897e-01 6.555778e-01 5.707627e-01 4.389985e-01 1.440501e-02
<GCONST> 1.157938e+02
<MIXTURE> 3 1.124414e-01
<MEAN> 39
 2.290441e+00 1.275835e+01 7.381033e+00 1.139204e+01 3.267389e+00 -1.385326e+00 -1.937896e+00 -4.821023e+00 -2.269811e+00 -3.933449e+00 -4.959849e+00 -2.404826e+00 -7.641553e+00 -5.114854e-01 5.112284e-01 2.211873e-01 5.702885e-01 6.690117e-01 4.577718e-01 2.895109e-01 1.329117e-03 -6.066880e-02 -4.796500e-02 -1.148552e-02 5.096419e-02 -2.975579e-01 -3.037535e-01 -1.128603e+00 -3.095052e-01 -8.019788e-01 -2.202442e-01 9.752278e-02 1.035403e-01 3.008023e-01 1.704427e-01 2.657933e-01 4.173330e-01 2.220307e-01 2.395316e-01
<VARIANCE> 39
 1.344607e+01 1.341234e+01 1.966685e+01 2.279645e+01 3.002077e+01 2.602672e+01 3.379818e+01 3.134394e+01 2.678941e+01 2.337129e+01 2.794371e+01 1.896069e+01 1.565551e+00 1.285452e+00 1.994149e+00 1.515502e+00 1.735241e+00 1.718625e+00 2.256479e+00 2.222160e+00 2.297869e+00 2.214054e+00 2.010845e+00 1.936627e+00 1.527775e+00 1.410148e-01 2.530097e-01 4.782813e-01 3.851511e-01 5.420830e-01 4.626942e-01 4.445716e-01 5.691990e-01 5.624558e-01 5.104501e-01 4.813771e-01 4.297843e-01 3.738960e-01 4.307535e-02
<GCONST> 1.025024e+02
<MIXTURE> 4 1.375511e-01
<MEAN> 39
 4.093189e+00 5.142620e+00 5.719895e+00 9.809724e+00 7.183166e-01 -3.733387e+00 -1.844607e+00 -3.481483e+00 -1.367290e+00 -3.350021e+00 -4.258935e+00 -1.505622e+00 -5.522243e+00 -1.562299e+00 2.494762e+00 1.779614e-01 1.752207e+00 2.570759e+00 8.907987e-01 1.387244e+00 -9.525527e-01 -3.191569e-01 -2.340934e-01 -8.600576e-01 -4.389000e-01 -1.011092e+00 -5.418106e-02 -8.519754e-01 -5.037792e-02 -1.198717e+00 -6.650881e-01 1.765709e-01 -3.562334e-01 4.373210e-01 9.928901e-02 2.874917e-01 6.142069e-01 2.404805e-01 3.205631e-01
<VARIANCE> 39
 1.669675e+01 3.325038e+01 3.553025e+01 4.752041e+01 5.096942e+01 4.526598e+01 4.017845e+01 4.457217e+01 3.980583e+01 3.338954e+01 3.703476e+01 2.532868e+01 2.513074e+00 1.837013e+00 4.537310e+00 4.454010e+00 5.620614e+00 5.026286e+00 5.169033e+00 5.096818e+00 4.908793e+00 5.519886e+00 4.195697e+00 4.358774e+00 3.097490e+00 2.350949e-01 2.961037e-01 6.438205e-01 5.280812e-01 9.330925e-01 1.003826e+00 9.192476e-01 9.510400e-01 1.009247e+00 9.230520e-01 7.573885e-01 7.731820e-01 5.010026e-01 4.089664e-02
<GCONST> 1.247454e+02
<MIXTURE> 5 1.193428e-01
<MEAN> 39
 -4.849897e+00 5.644563e+00 2.068606e+00 6.125160e+00 5.166486e+00 3.700278e+00 2.279861e+00 -3.366312e+00 -1.462453e+00 1.020843e-01 -1.005166e-01 6.863290e-02 -7.786311e+00 -4.442195e-01 -1.775216e+00 -1.572472e-01 -4.620359e-01 1.369658e-01 -1.061570e-01 -5.513717e-02 8.741689e-01 9.037091e-01 -1.971732e-02 2.688584e-01 2.145047e-01 7.731311e-02 2.560982e-01 -3.105673e-01 1.612020e-02 -6.849281e-01 -6.539894e-01 -6.424777e-01 -2.182734e-01 2.580459e-01 1.577990e-01 7.003606e-04 -1.286789e-02 1.023785e-01 4.501326e-01
<VARIANCE> 39
 5.751484e+01 3.334425e+01 3.999701e+01 3.689766e+01 3.924569e+01 3.497636e+01 3.226948e+01 5.163421e+01 4.652609e+01 2.695122e+01 2.700996e+01 2.159468e+01 5.410307e+00 6.864528e+00 4.170767e+00 4.581481e+00 6.268372e+00 4.569490e+00 4.777877e+00 4.398772e+00 5.596888e+00 5.432872e+00 3.607540e+00 3.332708e+00 2.775102e+00 9.994015e-01 7.700604e-01 6.842916e-01 9.389137e-01 9.060378e-01 8.207886e-01 7.567691e-01 6.714284e-01 9.148089e-01 8.428845e-01 6.041906e-01 5.425853e-01 4.618545e-01 8.969755e-02
<GCONST> 1.283293e+02
<MIXTURE> 6 1.488693e-01
<MEAN> 39
 2.615407e+00 1.201791e+01 7.917165e+00 1.242324e+01 2.925974e+00 -2.296919e+00 -3.295636e+00 -6.025335e+00 -2.498873e+00 -3.620894e+00 -5.967842e+00 -3.688712e+00 -7.346888e+00 -2.008133e+00 -1.573680e+00 -3.148417e-01 -1.581810e+00 1.027311e+00 1.321255e+00 9.301442e-01 6.282308e-01 9.587640e-02 1.147905e-01 1.045936e+00 7.068863e-01 1.277779e-02 -4.399878e-03 -1.813989e+00 -3.853313e-01 -1.669301e+00 -1.038668e+00 -3.310274e-01 -7.128850e-02 7.631282e-01 3.554434e-01 4.555048e-01 8.032876e-01 6.504036e-01 5.998288e-01
<VARIANCE> 39
 1.075806e+01 1.387779e+01 1.722223e+01 2.080612e+01 3.356564e+01 2.455823e+01 3.120534e+01 3.319774e+01 2.737110e+01 2.897994e+01 2.391830e+01 2.369021e+01 1.753873e+00 1.514554e+00 4.817073e+00 3.258623e+00 5.115941e+00 5.278014e+00 4.371488e+00 4.753411e+00 4.685410e+00 4.133290e+00 3.390581e+00 3.777330e+00 3.248529e+00 3.960793e-01 4.110890e-01 6.181166e-01 6.111241e-01 7.542663e-01 8.579275e-01 6.782926e-01 1.083168e+00 9.555797e-01 8.798233e-01 8.447483e-01 6.514044e-01 5.787011e-01 4.432243e-02
<GCONST> 1.180239e+02
<MIXTURE> 7 1.219715e-01
<MEAN> 39
 3.278380e+00 9.277070e+00 7.448613e+00 9.802280e+00 1.521046e-01 -2.418046e+00 -4.390280e+00 -5.423915e+00 -2.360020e+00 -4.792152e+00 -4.144289e+00 -3.337590e+00 -6.307165e+00 -1.689599e+00 2.699423e+00 4.424230e-01 2.787413e+00 2.377709e+00 1.532247e+00 4.679450e-01 -1.228673e+00 -5.556257e-01 -1.036996e+00 -6.709068e-01 -1.068009e+00 -1.186342e+00 -1.925049e-01 -1.432927e+00 -5.374352e-01 -1.460594e+00 -3.080879e-01 1.670332e-02 3.227152e-01 7.471789e-01 3.300501e-01 6.575946e-01 4.969287e-01 5.057774e-01 3.768933e-01
<VARIANCE> 39
 1.775796e+01 2.839668e+01 2.788032e+01 3.383569e+01 4.452304e+01 3.619125e+01 3.916819e+01 3.726648e+01 3.605611e+01 3.471730e+01 3.536978e+01 3.044359e+01 2.288795e+00 2.490005e+00 4.761491e+00 4.241215e+00 6.045851e+00 5.238781e+00 5.278540e+00 5.901203e+00 5.217844e+00 4.887770e+00 4.284753e+00 3.862489e+00 3.497506e+00 2.696080e-01 4.058315e-01 7.764443e-01 6.299527e-01 9.036310e-01 9.435049e-01 8.304371e-01 1.094867e+00 9.195073e-01 8.696495e-01 8.374734e-01 8.347626e-01 6.614367e-01 5.255003e-02
<GCONST> 1.253485e+02
<MIXTURE> 8 1.199272e-01
<MEAN> 39
 7.727747e+00 -4.204984e+00 4.688174e+00 4.339900e+00 -8.616612e+00 -4.714149e+00 -5.663677e+00 -7.807567e-01 2.212857e+00 -1.233159e+00 -9.403185e-01 8.205761e-01 -2.498734e+00 -1.234626e+00 2.467326e+00 1.032476e+00 2.536464e+00 2.165722e+00 3.709812e-01 1.023775e+00 -1.991601e+00 -8.477426e-01 -8.379233e-01 -1.038102e+00 -3.460369e-01 -1.060410e+00 -3.154812e-01 1.114984e-01 -1.971998e-01 -6.448604e-01 4.796014e-01 1.794592e-01 2.321193e-01 3.197714e-01 -2.392811e-01 1.088962e-01 1.411180e-01 -1.519302e-01 3.520640e-02
<VARIANCE> 39
 1.409713e+01 2.372421e+01 5.013495e+01 4.476419e+01 5.294622e+01 3.657555e+01 4.692733e+01 4.369849e+01 4.973959e+01 4.075604e+01 3.147586e+01 2.727521e+01 1.423076e+00 1.618063e+00 4.714503e+00 4.162384e+00 6.053828e+00 6.528368e+00 6.211604e+00 7.823490e+00 7.005485e+00 6.074094e+00 4.851371e+00 5.904855e+00 3.566916e+00 2.353021e-01 1.665237e-01 3.556652e-01 4.692926e-01 7.527541e-01 9.159553e-01 6.714505e-01 8.937393e-01 7.754248e-01 7.913846e-01 6.855847e-01 7.320409e-01 5.263553e-01 3.174514e-02
<GCONST> 1.233368e+02
<STATE> 3
<NUMMIXES> 8
<MIXTURE> 1 1.331594e-01
<MEAN> 39
 -6.143613e+00 -2.427495e+00 4.221325e+00 -2.977957e+00 4.998263e+00 3.348786e+00 7.843863e-01 1.609453e+00 5.599123e-01 2.128809e-02 2.695033e+00 5.350052e-01 -4.688780e+00 -1.261426e+00 -2.646741e+00 -6.827922e-01 -3.368884e+00 -9.531136e-01 -1.046582e+00 5.375014e-01 1.974336e+00 1.301613e+00 1.321207e+00 1.523791e+00 1.326433e+00 1.094625e+00 1.253063e+00 6.017476e-01 2.418623e-01 6.151336e-01 -1.297221e+00 -9.572677e-01 -2.832989e-01 -4.340083e-01 -2.861248e-01 -1.337177e-01 -6.381947e-01 3.257541e-02 1.355758e-01
<VARIANCE> 39
 1.759778e+01 2.201736e+01 3.048469e+01 2.855109e+01 3.399155e+01 3.951434e+01 3.884568e+01 3.063418e+01 3.619236e+01 2.849879e+01 3.292739e+01 2.357495e+01 1.429102e+00 3.851339e+00 2.790129e+00 3.501609e+00 4.414369e+00 5.239336e+00 4.227173e+00 5.592382e+00 4.667466e+00 4.571007e+00 3.831343e+00 3.128942e+00 3.024570e+00 4.415842e-01 4.749438e-01 6.278939e-01 8.439440e-01 9.276906e-01 1.127380e+00 1.120943e+00 1.056161e+00 9.893418e-01 1.016286e+00 9.558607e-01 9.227945e-01 8.201705e-01 4.515772e-02
<GCONST> 1.238240e+02
<MIXTURE> 2 9.682068e-02
<MEAN> 39
 6.905028e+00 -3.189074e+00 9.986162e-03 4.474470e+00 -3.574523e+00 -4.261121e+00 -4.206187e+00 -4.854724e+00 3.389164e+00 2.784972e+00 -1.399822e+00 -1.939592e+00 -2.510914e+00 2.342117e-01 -1.430377e-01 6.652687e-01 6.530086e-01 -3.902368e-01 -5.325906e-01 -8.084906e-01 3.777974e-01 -9.968794e-02 -1.722587e-01 1.045059e-01 7.673134e-01 -1.171629e-01 2.096379e-01 -5.217383e-01 -2.838201e-01 -8.970522e-01 -2.685015e-01 4.207777e-01 -1.437135e-01 9.672487e-01 5.552157e-02 -2.523197e-01 1.745306e-01 1.148973e-03 2.411566e-01
<VARIANCE> 39
 1.412945e+01 1.925299e+01 4.811366e+01 4.142392e+01 4.415391e+01 4.137926e+01 3.964769e+01 4.336586e+01 3.741780e+01 3.731454e+01 3.008048e+01 2.647782e+01 1.342328e+00 9.594055e-01 1.155086e+00 2.414141e+00 2.865748e+00 2.888339e+00 3.438166e+00 3.616312e+00 3.458370e+00 3.056445e+00 2.606585e+00 2.504488e+00 2.529576e+00 6.115275e-02 2.399367e-01 3.288624e-01 4.166367e-01 7.503891e-01 1.008997e+00 8.754789e-01 1.125309e+00 1.129726e+00 1.033801e+00 9.004254e-01 8.871960e-01 6.746047e-01 1.466832e-02
<GCONST> 1.136494e+02
<MIXTURE> 3 1.210041e-01
<MEAN> 39
 -9.317761e+00 4.637878e+00 6.454346e-01 8.669500e+00 6.594469e+00 6.160665e+00 3.670535e+00 1.194202e+00 3.298144e+00 2.032845e+00 2.661236e+00 7.980090e-01 -1.001986e+01 -1.685156e-01 -2.280236e+00 -1.005899e+00 -2.601551e+00 -9.148700e-01 -8.968227e-01 2.581744e-01 5.095646e-01 4.243838e-01 5.168941e-01 7.901350e-01 7.044875e-01 1.017450e+00 4.488119e-01 1.997494e-01 3.211689e-01 -7.409239e-01 -6.734636e-01 -1.020075e+00 -4.199444e-01 -2.899862e-01 -3.984088e-01 -3.512343e-01 -3.548392e-01 -4.180272e-02 6.567336e-01
<VARIANCE> 39
 1.198749e+01 1.311543e+01 1.919637e+01 2.363634e+01 1.566147e+01 1.671370e+01 1.897126e+01 1.760766e+01 1.999001e+01 1.601441e+01 1.868668e+01 1.185378e+01 1.344306e+00 2.226254e+00 3.236033e+00 3.565643e+00 4.059996e+00 2.627920e+00 3.447053e+00 3.243723e+00 2.768894e+00 3.031183e+00 2.959263e+00 2.548946e+00 2.001670e+00 7.617926e-01 7.256047e-01 5.118241e-01 5.472997e-01 6.461414e-01 5.928589e-01 4.811101e-01 5.485229e-01 5.267481e-01 5.048889e-01 4.078259e-01 3.997751e-01 3.121873e-01 7.922195e-02
<GCONST> 1.075708e+02
<MIXTURE> 4 1.306178e-01
<MEAN> 39
 -3.399867e-01 1.704344e+00 5.621211e+00 4.014067e+00 9.639362e-02 -2.280908e+00 -8.632814e-01 -4.339726e+00 -7.337829e-01 -2.833939e+00 -1.693219e+00 5.501420e-01 -4.514572e+00 -5.772060e-01 -6.809295e-01 4.815505e-01 -1.304597e+00 -3.378170e-01 -2.672351e-01 -2.858802e-01 5.727557e-01 3.363043e-01 1.900128e-01 5.707973e-01 6.701032e-01 2.471228e-01 1.001530e+00 -8.050883e-01 -2.475336e-01 -8.140463e-01 -1.111883e+00 -5.920697e-02 -6.727110e-01 7.229065e-01 6.990308e-02 4.033904e-01 2.567508e-01 -1.347145e-01 4.141417e-01
<VARIANCE> 39
 2.077599e+01 2.999101e+01 3.681656e+01 4.436669e+01 4.023887e+01 4.879521e+01 4.446090e+01 4.406241e+01 4.593613e+01 3.162476e+01 2.719612e+01 2.384387e+01 1.567549e+00 1.799073e+00 3.212491e+00 3.279802e+00 4.477717e+00 4.638577e+00 4.030937e+00 5.217571e+00 5.528373e+00 5.669006e+00 3.730033e+00 3.322855e+00 2.704686e+00 2.497120e-01 4.531330e-01 6.088948e-01 1.013018e+00 1.210228e+00 1.316223e+00 1.360680e+00 1.480343e+00 1.365534e+00 1.428105e+00 1.012216e+00 1.068154e+00 8.157612e-01 2.387351e-02
<GCONST> 1.261681e+02
<MIXTURE> 5 1.473310e-01
<MEAN> 39
 -9.426793e+00 -4.916668e-01 -1.105789e+00 -3.123074e+00 4.713789e+00 7.969356e-01 4.307787e+00 4.039584e-01 1.400240e+00 1.726197e+00 3.214535e+00 2.298087e+00 -4.280406e+00 1.432361e+00 -4.066893e-01 7.428935e-01 -2.445351e+00 -2.868344e+00 -3.129562e+00 -9.304059e-01 -3.050114e-01 -5.879749e-01 -2.906205e-01 -9.209735e-02 6.268159e-01 1.702167e+00 1.296537e+00 4.659792e-01 9.315746e-01 8.762814e-01 -9.552842e-01 -4.330684e-01 -8.953409e-01 -1.559033e-01 -2.666631e-01 -3.453344e-01 -5.037405e-01 -2.445976e-01 -1.051275e-01
<VARIANCE> 39
 1.423716e+01 2.632513e+01 3.187393e+01 3.208598e+01 2.956252e+01 3.184749e+01 2.978623e+01 2.995246e+01 3.536061e+01 2.523976e+01 2.905103e+01 2.021563e+01 1.342155e+00 3.056131e+00 2.970975e+00 3.779298e+00 3.389366e+00 3.590007e+00 2.739303e+00 3.358456e+00 3.334268e+00 3.358632e+00 2.749789e+00 2.473342e+00 2.030098e+00 3.353679e-01 4.008656e-01 6.260924e-01 8.631755e-01 9.617468e-01 7.972425e-01 8.333570e-01 8.032321e-01 8.094248e-01 1.062298e+00 7.349370e-01 7.669692e-01 6.283284e-01 5.458979e-02
<GCONST> 1.175473e+02
<MIXTURE> 6 1.420109e-01
<MEAN> 39
 -2.791247e+00 -5.375945e+00 1.708755e+00 4.129773e+00 5.927548e-01 2.614057e+00 3.207427e+00 -1.843241e+00 1.103246e-01 -2.154984e+00 -1.181722e+00 1.928658e+00 -5.221734e+00 -9.987022e-01 -3.347282e+00 -6.729597e-01 -2.813311e+00 -1.793359e+00 -7.518092e-01 -3.838112e-02 1.563806e+00 1.212777e+00 6.356459e-01 1.317304e+00 1.306385e+00 1.098448e+00 6.750597e-01 9.699334e-01 2.945848e-01 3.176710e-02 -2.055282e-01 -7.201876e-01 -8.582834e-01 9.866833e-02 6.915392e-03 2.298771e-01 -6.152060e-02 -3.107049e-01 1.198754e-01
<VARIANCE> 39
 2.497273e+01 3.889130e+01 4.773372e+01 5.034766e+01 4.406363e+01 3.787456e+01 3.321984e+01 2.974047e+01 2.728690e+01 2.215285e+01 2.250735e+01 1.634084e+01 1.689793e+00 4.016433e+00 3.355356e+00 3.656062e+00 4.404955e+00 3.977632e+00 4.319597e+00 5.559192e+00 4.185970e+00 4.134728e+00 3.198737e+00 3.128436e+00 2.526109e+00 3.519490e-01 7.499310e-01 1.067550e+00 9.135755e-01 1.143988e+00 1.046824e+00 9.873191e-01 9.475896e-01 9.487790e-01 7.416027e-01 6.237433e-01 6.481468e-01 4.823899e-01 5.268645e-02
<GCONST> 1.233400e+02
<MIXTURE> 7 1.300989e-01
<MEAN> 39
 1.089641e+00 1.902221e+00 5.776695e+00 5.805753e+00 7.732803e-01 -8.332063e-01 -1.974330e+00 -3.973389e+00 -2.524394e+00 -3.496572e+00 -1.992088e+00 -2.157414e+00 -4.957324e+00 -9.349703e-01 -6.934321e-01 6.172568e-01 -1.679384e+00 -3.865891e-01 -1.943690e-01 -7.045174e-02 3.608208e-01 1.067820e-01 2.554378e-01 6.980182e-01 4.916493e-01 2.659599e-01 7.331920e-01 -7.502064e-01 -1.013830e-01 -1.081749e+00 -1.190287e+00 -4.190458e-01 -4.862127e-01 5.381681e-01 2.416469e-01 4.919152e-01 2.352300e-01 3.348512e-01 4.513697e-01
<VARIANCE> 39
 2.569127e+01 3.003879e+01 4.085843e+01 4.820326e+01 4.598476e+01 4.432242e+01 4.746617e+01 4.257977e+01 3.832705e+01 3.074052e+01 4.070892e+01 2.355486e+01 1.619615e+00 1.596472e+00 3.553631e+00 3.503403e+00 4.555561e+00 4.697770e+00 4.054001e+00 5.135391e+00 5.867146e+00 5.734890e+00 4.006145e+00 4.093535e+00 3.009245e+00 2.384928e-01 4.810990e-01 5.803999e-01 1.065043e+00 1.172259e+00 1.387899e+00 1.247875e+00 1.675497e+00 1.291289e+00 1.267268e+00 1.101748e+00 1.443366e+00 7.905511e-01 2.765642e-02
<GCONST> 1.277775e+02
<MIXTURE> 8 9.894778e-02
<MEAN> 39
 6.827111e+00 -4.688416e+00 5.237588e+00 4.299693e+00 -7.643615e+00 -3.445771e+00 -5.533095e+00 -1.522882e+00 2.112581e+00 -1.323720e+00 -2.398564e+00 2.218359e-01 -2.501998e+00 -3.666649e-01 3.235275e-01 1.456454e+00 -1.627800e-01 -2.816498e-01 -1.293932e-01 -4.455883e-01 -3.592357e-02 -7.815872e-01 -1.149003e-01 3.089115e-01 3.359412e-01 -1.633395e-01 -9.783618e-04 -2.142555e-01 -3.336061e-01 -8.823837e-01 -4.943435e-02 -2.980206e-02 6.878111e-02 7.056913e-01 -1.623528e-01 1.164668e-01 3.954634e-01 -1.345507e-01 2.132628e-01
<VARIANCE> 39
 1.140797e+01 2.008699e+01 3.651746e+01 4.553994e+01 3.699725e+01 3.339003e+01 4.122494e+01 4.208096e+01 4.019632e+01 4.148763e+01 3.093346e+01 2.551061e+01 1.613600e+00 9.497382e-01 1.121551e+00 3.046644e+00 2.658981e+00 2.799278e+00 2.854308e+00 3.973644e+00 4.067639e+00 4.057193e+00 3.085662e+00 3.107436e+00 2.413904e+00 5.022674e-02 1.703773e-01 3.034514e-01 4.133300e-01 6.568476e-01 8.245826e-01 7.175767e-01 1.487202e+00 1.044534e+00 8.464875e-01 8.792046e-01 1.042366e+00 5.379050e-01 1.555610e-02
<GCONST> 1.128538e+02
<STATE> 4
<NUMMIXES> 8
<MIXTURE> 1 1.629092e-01
<MEAN> 39
 -6.903697e+00 -2.954090e+00 -4.825589e-02 -1.167903e+00 1.274607e+00 -7.512667e-02 2.522113e+00 2.153461e+00 3.324086e+00 6.886086e-01 2.314535e+00 3.107057e+00 -5.018461e+00 -6.772394e-01 1.622069e-01 -2.803231e-01 -2.523125e-01 -1.087825e-01 -8.098062e-01 3.943518e-01 9.484995e-01 7.056052e-01 3.238238e-01 -1.160686e-01 3.501650e-01 2.618584e-01 5.487807e-01 1.202528e+00 3.815705e-01 1.089922e+00 3.279482e-01 8.051503e-02 -2.224831e-01 -5.394447e-01 -4.661383e-01 -3.015421e-01 -5.552716e-01 -3.758409e-01 -2.802881e-01
<VARIANCE> 39
 3.327123e+01 3.047604e+01 4.024050e+01 4.203705e+01 3.963608e+01 3.412631e+01 3.330097e+01 3.337725e+01 3.211212e+01 2.276923e+01 2.757184e+01 1.901198e+01 1.787545e+00 4.336095e+00 3.969328e+00 3.544370e+00 5.321970e+00 3.598687e+00 3.493352e+00 3.465474e+00 3.347074e+00 3.309353e+00 2.679503e+00 2.973173e+00 2.450863e+00 6.269554e-01 6.488922e-01 7.568060e-01 7.786076e-01 8.793595e-01 8.472582e-01 8.573151e-01 8.089166e-01 7.336250e-01 7.617784e-01 6.662477e-01 6.118581e-01 4.397224e-01 6.084136e-02
<GCONST> 1.214376e+02
<MIXTURE> 2 1.695957e-01
<MEAN> 39
 8.614227e+00 -6.579503e+00 1.286318e-01 4.065698e+00 -8.251932e+00 -3.089831e+00 -6.641014e+00 -2.536102e+00 5.619836e+00 1.763751e+00 -1.738505e+00 -6.689190e-01 -1.909382e+00 7.905036e-01 -1.086991e+00 -9.065059e-02 -1.252758e+00 -1.085101e+00 1.952602e-01 -1.507706e+00 1.939398e+00 4.954330e-01 -2.441302e-01 6.616901e-01 3.487805e-01 4.020001e-01 4.875143e-02 9.810882e-02 -2.913951e-01 -5.819027e-01 4.334913e-01 1.252500e-01 6.275479e-02 4.615380e-01 -2.829570e-01 -1.278661e-01 1.944450e-01 -1.458451e-01 7.848119e-02
<VARIANCE> 39
 1.113016e+01 1.841088e+01 4.110416e+01 4.129811e+01 4.635203e+01 4.290644e+01 4.291466e+01 4.713927e+01 3.704007e+01 3.828369e+01 3.186219e+01 2.949662e+01 1.291463e+00 1.492684e+00 1.996929e+00 3.967363e+00 4.542536e+00 4.664206e+00 4.484053e+00 5.482027e+00 5.493324e+00 5.564802e+00 4.545586e+00 4.410281e+00 3.662371e+00 1.173514e-01 1.916411e-01 2.869599e-01 3.303576e-01 5.955964e-01 7.592714e-01 6.507337e-01 8.583923e-01 7.139922e-01 8.403160e-01 6.559888e-01 6.209836e-01 4.975080e-01 1.660434e-02
<GCONST> 1.167130e+02
<MIXTURE> 3 1.060458e-01
<MEAN> 39
 3.650153e-01 -2.476800e-01 5.109787e+00 -1.955970e+00 -2.564754e+00 -5.613334e+00 -3.541653e+00 -3.080362e-01 2.220097e+00 -7.096103e-01 4.358998e-01 2.358771e+00 -2.555935e+00 1.835395e+00 -2.583946e+00 -4.847728e-01 -2.647691e+00 -2.762498e+00 -1.712019e+00 -1.563815e+00 2.207243e+00 1.380691e+00 1.409921e+00 3.597958e-01 4.502613e-01 1.259135e+00 7.534857e-01 2.948442e-01 -2.170946e-01 5.545382e-01 -1.547980e-01 3.517877e-01 5.971762e-02 -1.406503e-01 -3.662744e-01 1.067407e-01 -4.175682e-01 -5.510632e-01 -1.046347e-01
<VARIANCE> 39
 1.407075e+01 1.611874e+01 2.391983e+01 2.563299e+01 3.426288e+01 3.301354e+01 3.573313e+01 3.032256e+01 2.962875e+01 2.317572e+01 2.037301e+01 1.734977e+01 1.031334e+00 2.273488e+00 3.147656e+00 3.898028e+00 5.233143e+00 4.988098e+00 5.171957e+00 7.029297e+00 5.876764e+00 5.618181e+00 4.700678e+00 4.556330e+00 3.714807e+00 2.629876e-01 2.642481e-01 5.519851e-01 4.751428e-01 7.639421e-01 9.195224e-01 8.337358e-01 9.512124e-01 9.138845e-01 8.957599e-01 7.456229e-01 6.937768e-01 6.032904e-01 4.684035e-02
<GCONST> 1.190112e+02
<MIXTURE> 4 1.479336e-01
<MEAN> 39
 4.686737e+00 -2.912297e+00 9.665174e+00 1.116573e-01 -7.990912e+00 -4.888578e+00 -5.928401e+00 9.359358e-01 -1.721199e+00 -2.429618e+00 6.774920e-01 1.285541e+00 -2.519846e+00 -1.135388e-01 -4.302244e-01 1.035075e+00 -1.672595e+00 -1.161336e+00 -3.341110e-01 -1.209993e-01 7.356097e-01 -9.371505e-01 5.729477e-01 8.115181e-01 2.148196e-01 3.471602e-01 1.446241e-01 -1.587337e-01 -4.289852e-01 -2.462773e-01 -2.378484e-01 3.403109e-02 3.056249e-01 1.128718e-01 5.314733e-02 2.801020e-01 -1.046663e-01 -1.281774e-01 1.318193e-01
<VARIANCE> 39
 1.047738e+01 2.034427e+01 2.718968e+01 3.167818e+01 3.528545e+01 2.851359e+01 3.773196e+01 3.612044e+01 3.449327e+01 3.492603e+01 2.698757e+01 2.014015e+01 1.522879e+00 1.098769e+00 2.045169e+00 2.970647e+00 3.616745e+00 3.223951e+00 3.087501e+00 4.019011e+00 4.260411e+00 4.447872e+00 3.898547e+00 4.409254e+00 2.389393e+00 9.872824e-02 1.480986e-01 2.294591e-01 3.342360e-01 5.244920e-01 6.200243e-01 5.223110e-01 8.015986e-01 6.434764e-01 5.541387e-01 4.838589e-01 6.321390e-01 3.728764e-01 1.281432e-02
<GCONST> 1.089251e+02
<MIXTURE> 5 1.013021e-01
<MEAN> 39
 -3.799596e+00 6.043327e+00 3.795902e+00 1.464536e-01 -7.468492e-01 -7.421072e+00 1.153809e+00 -1.997622e+00 -8.713512e-01 -1.133096e+00 5.086250e-01 3.261310e+00 -3.025789e+00 3.586407e+00 -5.915749e-01 2.048714e+00 -3.712224e-01 -3.993943e+00 -2.639512e+00 -2.465191e+00 3.485090e-01 -2.182354e-01 -4.125396e-01 -4.702829e-01 2.584572e-01 1.000517e+00 5.481629e-01 -4.395395e-01 2.222248e-01 5.635630e-01 -1.987882e-02 8.419635e-01 -3.650558e-01 2.893285e-01 1.327137e-01 3.315655e-02 -1.790570e-01 -4.427330e-01 -2.937050e-01
<VARIANCE> 39
 1.961843e+01 1.627861e+01 3.763629e+01 2.168820e+01 3.408957e+01 2.749393e+01 2.735927e+01 2.323017e+01 2.732283e+01 2.069270e+01 2.760624e+01 1.657319e+01 1.346239e+00 2.174026e+00 3.531558e+00 5.120339e+00 6.469693e+00 4.309892e+00 4.988667e+00 5.346543e+00 4.258965e+00 5.233513e+00 4.222702e+00 4.926892e+00 3.721572e+00 3.171819e-01 3.963203e-01 4.758995e-01 5.448560e-01 5.439545e-01 7.240155e-01 5.812432e-01 6.029093e-01 5.906448e-01 5.938215e-01 5.026315e-01 6.551197e-01 4.249033e-01 3.759212e-02
<GCONST> 1.162436e+02
<MIXTURE> 6 1.235759e-01
<MEAN> 39
 -9.865058e+00 7.561101e-02 4.093472e+00 3.363923e+00 1.311907e-01 -7.137657e-01 3.708663e+00 5.128300e-01 1.815804e+00 -3.689201e-01 4.166793e-01 1.792589e+00 -4.301794e+00 2.185388e+00 1.051654e+00 2.342873e-01 1.171250e-01 -6.400089e-01 -2.119991e+00 -1.710841e+00 -4.150262e-01 -1.167435e-01 -1.331621e-01 -3.406181e-01 -1.866291e-01 4.759440e-01 1.742767e+00 1.826009e-01 -3.443326e-01 9.270407e-02 4.375075e-02 -9.942652e-02 -1.057140e+00 -3.661068e-01 -1.931381e-01 -3.766950e-02 -1.706126e-01 -2.254343e-01 -4.448171e-02
<VARIANCE> 39
 3.762713e+01 3.598666e+01 3.704506e+01 4.833268e+01 3.824915e+01 4.855416e+01 4.329772e+01 3.811307e+01 3.400102e+01 2.604285e+01 2.874972e+01 2.122789e+01 1.832268e+00 5.277682e+00 3.168490e+00 4.217791e+00 5.046448e+00 4.810381e+00 6.140487e+00 5.473662e+00 4.058303e+00 4.341372e+00 3.461738e+00 3.565921e+00 2.166427e+00 2.480431e-01 6.578285e-01 8.953212e-01 8.718936e-01 1.152471e+00 9.656390e-01 1.193690e+00 1.044572e+00 9.450893e-01 9.548562e-01 7.174243e-01 7.661690e-01 6.178070e-01 7.070954e-02
<GCONST> 1.266701e+02
<MIXTURE> 7 1.101870e-01
<MEAN> 39
 4.698035e-01 -1.527326e+00 6.902029e+00 -1.867660e+00 -3.148235e+00 -4.199147e+00 -3.794989e+00 -6.069822e-01 -2.930266e-02 -1.948493e+00 4.103330e-01 2.292524e+00 -2.872979e+00 1.363574e+00 -2.488320e+00 2.268094e-01 -2.556735e+00 -2.920911e+00 -1.928734e+00 -1.733387e+00 2.068397e+00 8.118914e-01 8.341117e-01 1.067300e+00 6.277130e-01 1.197552e+00 6.938838e-01 4.618384e-01 -2.707057e-01 7.149783e-01 -2.461183e-01 -7.603869e-03 3.395083e-02 -1.377382e-01 -1.608925e-01 2.060350e-01 -3.179749e-01 -5.134197e-01 -8.126122e-02
<VARIANCE> 39
 1.393568e+01 1.501345e+01 2.338804e+01 2.820788e+01 3.461484e+01 3.951239e+01 3.626994e+01 3.097663e+01 3.481239e+01 2.867587e+01 2.810634e+01 2.088887e+01 1.141372e+00 2.236382e+00 2.792098e+00 3.728681e+00 4.184109e+00 4.591058e+00 5.393721e+00 6.399361e+00 5.952352e+00 6.637608e+00 5.000278e+00 5.495055e+00 3.818249e+00 2.289417e-01 2.507440e-01 5.384580e-01 5.146974e-01 7.734039e-01 9.740309e-01 9.894730e-01 1.043876e+00 9.042225e-01 9.090480e-01 7.194343e-01 9.082251e-01 6.944616e-01 4.448138e-02
<GCONST> 1.206546e+02
<MIXTURE> 8 7.844802e-02
<MEAN> 39
 -2.436556e+00 6.273047e+00 7.689371e+00 -3.043848e-01 -3.489389e+00 -5.596254e+00 5.917940e-01 -5.271426e+00 -4.173063e+00 -8.694096e-01 5.623023e-01 2.571502e-01 -3.231131e+00 2.499456e+00 -5.852063e-01 2.201208e+00 -1.051160e+00 -4.078465e+00 -1.331728e+00 -1.593751e+00 -6.688016e-01 -1.302766e+00 3.320605e-02 -4.728032e-01 3.065829e-01 7.789247e-01 5.757366e-01 -4.424655e-01 1.197172e-01 3.092308e-01 -1.820912e-01 5.267721e-01 -4.297904e-01 3.953042e-01 1.384170e-01 -1.754376e-02 -1.619792e-01 -8.046814e-02 -1.254643e-01
<VARIANCE> 39
 2.278873e+01 2.079169e+01 3.737664e+01 2.579794e+01 4.250183e+01 3.731319e+01 2.821246e+01 3.811194e+01 3.038506e+01 2.849406e+01 2.263827e+01 2.052234e+01 1.523176e+00 3.217767e+00 2.690069e+00 5.490350e+00 6.492229e+00 4.544100e+00 7.083612e+00 5.563812e+00 5.052446e+00 5.610449e+00 5.404214e+00 4.698985e+00 3.533967e+00 1.915915e-01 3.535260e-01 5.992764e-01 5.816054e-01 7.114726e-01 1.087898e+00 6.939801e-01 6.366530e-01 6.981111e-01 6.670260e-01 6.830178e-01 5.840371e-01 4.690628e-01 6.473002e-02
<GCONST> 1.211483e+02
<TRANSP> 5
 0.000000e+00 1.000000e+00 0.000000e+00 0.000000e+00 0.000000e+00
 0.000000e+00 5.725783e-01 4.274217e-01 0.000000e+00 0.000000e+00
 0.000000e+00 0.000000e+00 3.479984e-01 6.520016e-01 0.000000e+00
 0.000000e+00 0.000000e+00 0.000000e+00 2.317646e-01 7.682354e-01
 0.000000e+00 0.000000e+00 0.000000e+00 0.000000e+00 0.000000e+00
<ENDHMM>
~h "f"
<BEGINHMM>
<NUMSTATES> 5
<STATE> 2
<NUMMIXES> 8
<MIXTURE> 1 1.330185e-01
<MEAN> 39
 4.099842e+00 2.543793e+00 -2.018096e+00 2.000756e+00 2.615669e+00 6.141555e-01 1.771875e+00 -1.298970e+00 5.747007e-01 -2.212089e-01 -1.339931e+00 -8.016947e-01 -3.840837e+00 -5.018723e+00 1.541961e+00 7.684697e-01 2.275161e+00 1.772637e+00 9.924898e-01 1.573635e+00 1.733884e-01 3.866208e-01 -9.148850e-02 2.870296e-01 8.042656e-01 -1.197247e+00 -9.185966e-01 -8.342924e-01 -1.081799e-01 -3.838192e-01 -3.674257e-01 -2.502022e-02 -1.414411e-01 3.162300e-01 1.783616e-01 1.339107e-01 1.706630e-01 1.329031e-01 2.494771e-02
<VARIANCE> 39
 1.743570e+01 1.714632e+01 3.154189e+01 2.958891e+01 2.567152e+01 4.480523e+01 3.961811e+01 2.918600e+01 2.848212e+01 3.147156e+01 2.283926e+01 2.289353e+01 1.794389e+00 2.767696e+00 3.683844e+00 5.422884e+00 5.310961e+00 4.595777e+00 6.175297e+00 6.502280e+00 5.397996e+00 5.358985e+00 5.189019e+00 4.999417e+00 3.405713e+00 1.807490e-01 3.473023e-01 3.365004e-01 4.178340e-01 4.529682e-01 4.934929e-01 4.929205e-01 6.645110e-01 6.326774e-01 4.844842e-01 6.251020e-01 4.551025e-01 4.471124e-01 2.270324e-02
<GCONST> 1.163315e+02
<MIXTURE> 2 1.781239e-01
<MEAN> 39
 -1.256481e+01 -4.634744e-01 -4.060858e+00 2.446167e+00 1.263835e+00 -1.546732e-01 1.071116e+00 -1.602871e+00 -2.601151e-01 -1.051286e-01 -9.768578e-01 1.695481e+00 -6.284113e+00 -2.219063e-01 -6.190503e-02 -7.367548e-02 1.633341e-01 6.429625e-02 1.873359e-01 1.704225e-01 1.541122e-01 1.881508e-01 1.759004e-01 8.857086e-02 -2.296758e-02 9.629343e-03 3.543062e-01 1.212118e-03 1.376268e-01 3.478785e-02 2.477498e-01 2.007250e-01 2.939717e-01 3.164786e-01 2.617990e-01 1.740865e-01 9.177230e-02 -5.123695e-02 6.468458e-02
<VARIANCE> 39
 1.190209e+01 1.614142e+01 1.395701e+01 1.541208e+01 1.551806e+01 1.852925e+01 1.954875e+01 1.730264e+01 1.852729e+01 1.781120e+01 1.833759e+01 1.586919e+01 2.017165e+00 5.427796e-01 6.905913e-01 7.435796e-01 1.107729e+00 1.128353e+00 1.161952e+00 1.331454e+00 1.500350e+00 1.313532e+00 1.307996e+00 1.447382e+00 1.276429e+00 7.536145e-02 2.101323e-01 1.614146e-01 1.840976e-01 2.264724e-01 2.310774e-01 2.592761e-01 2.362440e-01 2.712540e-01 2.612790e-01 2.650407e-01 2.786646e-01 2.593626e-01 1.368862e-02
<GCONST> 8.261066e+01
<MIXTURE> 3 1.371042e-01
<MEAN> 39
 -1.315612e+01 -2.515930e+00 -3.455806e+00 2.675747e+00 2.521396e+00 1.631838e+00 3.284469e+00 2.283437e+00 3.348943e+00 2.126117e+00 1.355193e+00 2.005435e+00 -5.972331e+00 -1.265942e+00 -6.505234e-01 -9.066789e-01 -4.618271e-01 -3.927414e-01 1.802210e-02 5.892717e-02 4.942460e-01 6.793973e-01 7.988635e-01 6.127420e-01 4.135546e-01 1.222640e-02 9.903461e-01 4.060996e-01 3.390963e-01 1.103715e-01 -3.513820e-02 -1.752594e-01 -2.663043e-01 -3.891079e-01 -4.207244e-01 -2.590189e-01 -2.213148e-01 -1.987252e-01 9.611701e-02
<VARIANCE> 39
 1.322931e+01 1.286389e+01 1.598921e+01 1.635262e+01 1.704382e+01 1.948463e+01 2.012369e+01 2.012675e+01 1.940658e+01 1.665803e+01 1.856329e+01 1.418014e+01 1.937597e+00 1.847375e+00 1.345770e+00 1.460791e+00 1.401770e+00 1.472902e+00 1.559873e+00 1.665817e+00 1.739524e+00 1.688436e+00 1.577784e+00 1.619435e+00 1.443641e+00 1.233380e-01 3.794924e-01 2.322742e-01 3.036390e-01 3.472765e-01 3.750639e-01 3.319770e-01 4.024601e-01 3.797564e-01 3.684700e-01 3.180642e-01 3.340479e-01 3.039087e-01 2.097271e-02
<GCONST> 9.252621e+01
<MIXTURE> 4 1.064054e-01
<MEAN> 39
 -7.578215e+00 2.788212e+00 2.172006e+00 6.939295e+00 4.425428e+00 2.591481e+00 1.845893e+00 -8.712801e-01 9.422550e-01 -1.634683e+00 4.533269e-01 -2.166271e-01 -6.436510e+00 -4.575094e+00 -8.573502e-01 -5.699635e-01 5.481854e-01 6.888775e-01 1.131880e+00 1.111812e+00 1.508338e+00 1.589750e+00 9.759852e-01 1.430724e+00 9.929819e-01 -6.972541e-01 7.299258e-01 -6.066611e-01 -4.671302e-01 -8.374754e-01 -6.058972e-01 -4.021228e-01 -1.896647e-01 5.459816e-02 -8.933785e-02 2.973882e-01 -1.210983e-01 8.389064e-02 3.034221e-01
<VARIANCE> 39
 2.064582e+01 2.147273e+01 1.960713e+01 1.783535e+01 2.083324e+01 2.429274e+01 2.394068e+01 2.490169e+01 2.599844e+01 2.408019e+01 2.329138e+01 1.671382e+01 2.378623e+00 2.486321e+00 2.822871e+00 3.586904e+00 3.934579e+00 3.358572e+00 4.085397e+00 3.290149e+00 3.621166e+00 3.481029e+00 3.412971e+00 2.979434e+00 2.477380e+00 2.715109e-01 4.904429e-01 6.016883e-01 5.230438e-01 5.859754e-01 6.196716e-01 6.473701e-01 6.454631e-01 7.132702e-01 6.889622e-01 6.666428e-01 5.654787e-01 4.368616e-01 3.154187e-02
<GCONST> 1.126537e+02
<MIXTURE> 5 1.165746e-01
<MEAN> 39
 -1.435818e+01 -2.102372e+00 -3.753350e+00 3.361195e+00 3.040177e+00 2.127501e+00 3.494172e+00 1.782408e+00 3.076700e+00 1.917276e+00 4.146051e-01 1.604301e+00 -5.749950e+00 -4.209623e-03 1.002882e-01 3.899457e-02 1.151061e-01 1.026129e-01 8.396678e-02 -5.763017e-02 -1.284222e-02 6.370418e-02 1.877678e-01 1.549607e-01 6.847931e-02 5.846149e-03 3.948637e-01 8.759233e-02 1.500431e-01 -2.411423e-03 1.958150e-02 -8.731173e-02 -7.388576e-02 -1.531169e-01 -1.557103e-01 -1.458075e-01 -3.837286e-02 -2.273756e-02 1.025578e-02
<VARIANCE> 39
 1.086044e+01 1.321159e+01 1.506426e+01 1.657567e+01 1.494472e+01 1.869382e+01 1.795370e+01 1.796146e+01 1.892907e+01 1.684282e+01 2.056414e+01 1.377978e+01 1.422370e+00 3.710817e-01 4.520873e-01 5.811812e-01 7.924417e-01 9.336309e-01 1.162771e+00 1.152903e+00 1.145472e+00 1.175111e+00 1.258432e+00 1.231325e+00 1.156050e+00 2.674736e-02 1.159736e-01 1.109579e-01 1.519468e-01 1.916101e-01 1.878350e-01 2.210219e-01 2.171234e-01 2.360208e-01 2.477596e-01 2.520457e-01 2.908214e-01 2.437667e-01 5.557287e-03
<GCONST> 7.560367e+01
<MIXTURE> 6 1.217094e-01
<MEAN> 39
 -1.255042e+01 -9.371957e-01 -3.408579e+00 3.246131e+00 3.020652e+00 1.272606e+00 3.556051e+00 -2.069932e-01 7.869365e-01 -4.166465e-01 -1.809524e+00 9.651570e-01 -6.216413e+00 -1.855983e+00 -9.572399e-01 -1.034072e+00 -4.410779e-01 -7.896796e-01 -3.678164e-01 -4.732366e-01 -3.764970e-01 -1.887974e-01 -9.001270e-02 -9.000960e-02 1.432450e-01 -1.906550e-01 1.137506e+00 1.278506e-01 6.396970e-02 -2.952075e-01 -1.533170e-01 -1.182790e-01 -2.749424e-01 2.896253e-03 2.929024e-02 2.169513e-01 2.559502e-01 8.381178e-03 2.235137e-01
<VARIANCE> 39
 1.358452e+01 1.286169e+01 1.800049e+01 1.583857e+01 1.714202e+01 1.892701e+01 2.122361e+01 2.019193e+01 2.227083e+01 1.999359e+01 1.683064e+01 1.581688e+01 1.793771e+00 2.530504e+00 1.198465e+00 1.391917e+00 1.670140e+00 1.424113e+00 1.761724e+00 1.913026e+00 1.701440e+00 1.797134e+00 1.470553e+00 1.484296e+00 1.385181e+00 1.416951e-01 5.953605e-01 2.649202e-01 4.647299e-01 4.724034e-01 4.348128e-01 5.129683e-01 5.569021e-01 4.776453e-01 4.906927e-01 4.110490e-01 3.681795e-01 3.817918e-01 2.220728e-02
<GCONST> 9.683647e+01
<MIXTURE> 7 1.157436e-01
<MEAN> 39
 -8.278233e+00 2.171811e+00 -7.744909e-01 5.008575e+00 5.861049e+00 2.461250e+00 5.349215e+00 9.478402e-01 1.493922e+00 1.008061e+00 -1.279608e+00 1.453059e+00 -5.999705e+00 -5.134141e+00 -8.609175e-01 -5.679976e-01 6.078539e-01 3.782182e-01 1.090691e-01 5.498638e-01 3.948630e-01 3.625263e-01 -1.216197e-02 -1.525813e-01 5.008416e-01 -7.213995e-01 8.551498e-01 -6.293542e-01 -2.739864e-01 -7.680554e-01 -7.968211e-01 -2.577659e-01 -7.154429e-01 -1.668499e-01 -1.328770e-01 -2.371313e-02 1.959757e-01 -1.837711e-01 2.898252e-01
<VARIANCE> 39
 2.192526e+01 1.566615e+01 1.897177e+01 1.553523e+01 1.759673e+01 2.271877e+01 2.221542e+01 2.177291e+01 2.330015e+01 1.723507e+01 1.586445e+01 1.620252e+01 1.785326e+00 1.795293e+00 2.308894e+00 4.290875e+00 4.789951e+00 3.003386e+00 4.510547e+00 4.681726e+00 3.461893e+00 3.838498e+00 3.151061e+00 2.681716e+00 2.708579e+00 1.966264e-01 4.713129e-01 3.829212e-01 6.158376e-01 6.473539e-01 4.844779e-01 5.912802e-01 6.817897e-01 6.103909e-01 6.525616e-01 5.113004e-01 4.681473e-01 4.388129e-01 1.918997e-02
<GCONST> 1.087925e+02
<MIXTURE> 8 9.129012e-02
<MEAN> 39
 -1.338541e+01 -1.609075e+00 -3.941671e+00 2.559327e+00 2.340330e+00 1.339625e+00 2.767790e+00 9.996132e-01 1.898528e+00 1.583050e+00 -8.616674e-02 1.520775e+00 -5.838344e+00 8.842316e-03 7.716149e-03 -2.079722e-01 -1.778592e-01 -3.501722e-01 -4.149442e-01 -5.417792e-01 -5.777410e-01 -5.517328e-01 -3.973083e-01 -2.861464e-01 -1.177926e-01 -1.883293e-02 2.699476e-01 -1.104118e-02 9.940600e-02 -1.664306e-03 7.678872e-02 -1.856641e-02 -3.037763e-02 -8.464899e-02 -4.947350e-02 -7.880352e-02 -3.664690e-02 -3.362777e-02 1.469005e-02
<VARIANCE> 39
 1.076398e+01 1.235851e+01 1.395738e+01 1.399111e+01 1.541254e+01 1.849142e+01 1.919881e+01 1.677078e+01 2.242333e+01 1.728624e+01 1.859426e+01 1.502918e+01 1.713730e+00 3.881005e-01 4.619276e-01 6.537864e-01 8.443363e-01 8.503342e-01 1.085256e+00 1.158111e+00 1.327999e+00 1.253957e+00 1.294538e+00 1.263739e+00 1.210955e+00 3.818152e-02 1.209564e-01 1.160292e-01 1.467306e-01 1.975056e-01 1.905105e-01 2.393719e-01 2.515525e-01 2.514474e-01 2.551216e-01 2.566038e-01 2.631027e-01 2.503721e-01 5.763702e-03
<GCONST> 7.682416e+01
<STATE> 3
<NUMMIXES> 8
<MIXTURE> 1 1.282713e-01
<MEAN> 39
 -1.270366e+01 -2.618923e+00 -4.159156e+00 6.479987e-01 1.104404e+00 5.055191e-01 2.774429e+00 1.796803e+00 3.967525e+00 3.260958e+00 3.310872e+00 3.746410e+00 -5.880765e+00 -2.842366e-01 -4.531312e-01 1.175356e-01 -1.777402e-01 -1.246204e-01 2.755821e-02 3.428107e-01 4.265774e-01 4.854202e-01 2.363306e-01 3.915876e-01 2.041055e-01 1.638885e-01 1.101588e+00 5.332070e-01 5.444071e-01 2.930837e-01 1.380772e-01 9.258948e-02 -1.355086e-01 -3.879149e-01 -5.136226e-01 -4.625442e-01 -5.811107e-01 -4.638111e-01 9.579495e-02
<VARIANCE> 39
 1.585491e+01 1.676302e+01 2.265577e+01 2.136400e+01 2.261016e+01 2.440702e+01 1.922772e+01 2.405354e+01 2.216309e+01 2.111277e+01 2.110701e+01 1.601381e+01 2.216086e+00 4.701926e+00 2.166548e+00 2.573943e+00 2.711606e+00 2.565943e+00 2.558690e+00 2.367230e+00 2.426248e+00 2.433386e+00 2.182874e+00 2.025562e+00 1.455557e+00 2.658452e-01 4.413336e-01 3.622486e-01 4.212017e-01 5.012581e-01 5.301921e-01 5.764562e-01 5.349994e-01 5.651387e-01 4.475536e-01 4.351925e-01 4.297705e-01 3.611615e-01 4.572600e-02
<GCONST> 1.056251e+02
<MIXTURE> 2 1.455803e-01
<MEAN> 39
 -1.412668e+01 1.324473e+00 -2.750493e-01 6.905978e+00 4.345027e+00 4.178413e+00 3.879896e+00 1.371422e+00 3.612088e+00 5.907436e-01 3.039953e+00 1.935126e+00 -6.791782e+00 -1.217173e-01 -1.427778e-01 7.073476e-03 2.180095e-01 4.333298e-01 5.335572e-01 5.147848e-01 4.465680e-01 3.826259e-01 2.994703e-01 1.269643e-01 7.800145e-02 2.112282e-02 8.216838e-01 -7.874502e-02 -1.828663e-01 -3.734530e-01 -2.508453e-01 -3.454792e-01 -2.197217e-01 -1.774473e-01 -9.634656e-02 -4.295151e-02 -1.931059e-01 -1.635667e-01 1.287613e-01
<VARIANCE> 39
 1.332200e+01 1.658973e+01 1.579248e+01 1.523741e+01 1.677867e+01 1.509557e+01 1.884164e+01 1.949077e+01 2.087477e+01 1.508148e+01 1.763811e+01 1.423511e+01 2.608890e+00 1.112004e+00 1.101387e+00 9.329626e-01 1.014879e+00 1.221536e+00 1.110387e+00 1.138725e+00 1.449157e+00 1.567896e+00 1.531502e+00 1.518347e+00 1.450443e+00 1.369749e-01 3.622560e-01 2.074039e-01 2.163650e-01 2.584879e-01 2.808476e-01 2.734062e-01 3.229667e-01 3.298886e-01 3.274800e-01 2.735265e-01 2.891992e-01 2.853359e-01 3.398106e-02
<GCONST> 8.829977e+01
<MIXTURE> 3 8.288399e-02
<MEAN> 39
 -1.282854e+01 -2.790607e+00 -4.756204e+00 2.253356e+00 2.399699e+00 8.427916e-01 2.346124e+00 -5.739827e-02 1.458927e+00 7.529423e-01 -1.445760e+00 1.210281e+00 -5.666964e+00 2.261094e+00 5.299426e-01 8.072333e-01 3.960085e-01 6.941644e-01 2.707253e-01 3.806945e-01 4.091747e-01 5.083699e-01 4.185903e-01 2.312260e-01 -1.119500e-01 1.729792e-01 1.713534e+00 2.070314e-01 1.846229e-01 -3.482367e-01 -3.575100e-01 -1.306215e-01 -4.486023e-01 -5.020165e-02 -8.536070e-02 -4.824083e-02 2.507385e-01 -7.678889e-02 2.737478e-01
<VARIANCE> 39
 1.254963e+01 1.201003e+01 1.402819e+01 1.629759e+01 1.693131e+01 1.896881e+01 2.141642e+01 2.144797e+01 1.901949e+01 1.899118e+01 1.577329e+01 1.650885e+01 1.095933e+00 1.454986e+00 1.015375e+00 1.101454e+00 1.313532e+00 1.277673e+00 1.782823e+00 1.522391e+00 1.681724e+00 1.578827e+00 1.849595e+00 1.479307e+00 1.378305e+00 1.128689e-01 1.895109e-01 2.846314e-01 4.284697e-01 4.445518e-01 4.899681e-01 6.170151e-01 6.766272e-01 5.414507e-01 4.913031e-01 4.684839e-01 3.582679e-01 4.547506e-01 1.468185e-02
<GCONST> 9.341214e+01
<MIXTURE> 4 1.493205e-01
<MEAN> 39
 -1.278114e+01 3.341857e+00 -1.872479e+00 4.789828e+00 3.490215e+00 2.462682e+00 3.030887e+00 -6.187295e-01 7.707407e-01 -6.961395e-02 3.553247e-01 2.271551e+00 -7.693161e+00 5.923955e-01 -5.633805e-01 -1.800888e-01 -3.636706e-01 -3.718530e-01 -4.807225e-01 -3.102406e-01 -1.061234e-01 5.950997e-02 -1.391709e-01 -1.534878e-01 -5.088233e-02 3.077193e-01 1.414057e+00 -4.895017e-01 -3.725925e-02 -5.079347e-01 -3.300693e-01 -2.977984e-01 -2.631155e-01 7.587321e-02 9.960166e-02 1.498407e-01 -3.503375e-02 -2.614105e-01 4.259709e-01
<VARIANCE> 39
 1.865214e+01 1.250602e+01 1.897390e+01 1.913802e+01 1.867874e+01 2.232343e+01 2.511840e+01 2.045584e+01 2.362658e+01 1.694906e+01 1.680306e+01 1.423228e+01 2.566836e+00 5.292278e+00 1.846790e+00 1.528247e+00 1.722548e+00 1.699307e+00 1.856408e+00 1.726384e+00 1.857302e+00 1.883164e+00 1.565172e+00 1.512576e+00 1.549156e+00 4.398969e-01 5.824181e-01 3.834527e-01 6.091159e-01 5.158333e-01 4.873976e-01 7.130455e-01 6.121165e-01 5.721027e-01 5.935545e-01 3.671086e-01 4.341446e-01 4.001113e-01 5.176410e-02
<GCONST> 1.033861e+02
<MIXTURE> 5 1.310741e-01
<MEAN> 39
 -1.368534e+01 -3.946435e+00 -5.053760e+00 1.868386e+00 2.062670e+00 3.345957e-01 2.160888e+00 -1.974274e-01 1.515912e+00 1.538426e+00 -8.266006e-01 7.749554e-01 -5.317824e+00 8.101004e-01 -3.168457e-02 2.140501e-01 6.511788e-02 4.419037e-01 2.878424e-01 2.336889e-01 -5.658077e-02 -3.481996e-02 1.683484e-02 -3.123946e-03 -1.265817e-01 6.916028e-02 9.791062e-01 5.000414e-01 3.849830e-01 7.216704e-02 1.266727e-01 1.525864e-01 3.241315e-02 1.102708e-02 -2.360909e-02 -2.920304e-02 1.167331e-01 6.859519e-02 1.150202e-02
<VARIANCE> 39
 1.246254e+01 1.244633e+01 1.640096e+01 1.517572e+01 1.850836e+01 1.904971e+01 1.876084e+01 2.024746e+01 1.869145e+01 1.706127e+01 1.812987e+01 1.166768e+01 1.226225e+00 8.738671e-01 9.049480e-01 1.290556e+00 1.304926e+00 1.366169e+00 1.386074e+00 1.431728e+00 1.492604e+00 1.399395e+00 1.547500e+00 1.453444e+00 1.227843e+00 1.012543e-01 2.636303e-01 1.840256e-01 2.796689e-01 3.018858e-01 3.304805e-01 3.494043e-01 3.690844e-01 3.205377e-01 3.283950e-01 3.028633e-01 2.873321e-01 2.251309e-01 2.094207e-02
<GCONST> 8.740965e+01
<MIXTURE> 6 1.521077e-01
<MEAN> 39
 -1.372378e+01 -8.244106e-01 -1.174206e+00 5.749743e+00 3.579986e+00 4.115672e+00 3.686167e+00 3.148652e+00 5.307539e+00 3.330157e+00 4.820045e+00 2.464076e+00 -6.440597e+00 4.929052e-01 -3.274361e-01 -2.543412e-01 -4.136527e-01 -1.806182e-01 -3.313230e-01 -2.500831e-01 -2.826943e-01 -1.749123e-01 -1.013733e-01 -3.642869e-02 -8.809386e-03 1.033819e-01 1.189959e+00 1.693259e-01 -1.694766e-02 -4.263730e-01 -2.283854e-01 -4.110812e-01 -3.528403e-01 -4.717830e-01 -5.237156e-01 -5.149631e-01 -5.535163e-01 -3.274515e-01 1.947484e-01
<VARIANCE> 39
 1.322045e+01 1.273770e+01 1.384483e+01 1.358733e+01 1.692826e+01 1.647629e+01 1.907215e+01 1.704125e+01 1.692395e+01 1.624610e+01 1.558834e+01 1.152239e+01 2.279805e+00 1.299147e+00 9.769418e-01 1.032844e+00 1.052125e+00 1.284275e+00 1.349105e+00 1.439251e+00 1.447503e+00 1.517488e+00 1.412542e+00 1.220662e+00 1.298591e+00 1.246660e-01 5.300984e-01 2.423475e-01 2.619430e-01 2.944039e-01 3.477725e-01 3.935881e-01 4.139554e-01 3.602699e-01 3.554305e-01 3.079785e-01 2.776741e-01 2.882122e-01 3.555230e-02
<GCONST> 8.925262e+01
<MIXTURE> 7 1.129287e-01
<MEAN> 39
 -1.398372e+01 -3.298200e+00 -4.776965e+00 2.356947e+00 2.362967e+00 8.282673e-01 2.827761e+00 5.327328e-01 2.379557e+00 2.185655e+00 3.334942e-02 1.480471e+00 -5.390073e+00 7.941412e-01 -4.091503e-01 -3.065403e-01 -5.332126e-01 -2.707213e-01 -5.662894e-01 -5.569788e-01 -5.631397e-01 -4.588392e-01 -4.083264e-01 -3.921231e-01 -3.179102e-01 9.133716e-02 9.421118e-01 3.675354e-01 2.882398e-01 3.974432e-02 1.344248e-01 9.356277e-02 -2.756839e-02 -1.045502e-01 -1.117296e-01 -1.439490e-01 -4.261254e-02 -3.693894e-02 1.814625e-02
<VARIANCE> 39
 1.246480e+01 1.160530e+01 1.518639e+01 1.838970e+01 1.847451e+01 1.926673e+01 1.958448e+01 1.936149e+01 2.047944e+01 1.888498e+01 1.525046e+01 1.356410e+01 1.174470e+00 8.326309e-01 7.499646e-01 1.013089e+00 1.209691e+00 1.376433e+00 1.277565e+00 1.452269e+00 1.464136e+00 1.559530e+00 1.445219e+00 1.250221e+00 1.179450e+00 8.121809e-02 2.931493e-01 1.928997e-01 2.327598e-01 2.970442e-01 3.042981e-01 2.906190e-01 3.393760e-01 2.898273e-01 3.198371e-01 3.132315e-01 2.587232e-01 2.490728e-01 1.617809e-02
<GCONST> 8.583318e+01
<MIXTURE> 8 9.783417e-02
<MEAN> 39
 -1.293789e+01 -2.098720e+00 -4.742967e+00 2.584304e+00 3.255295e+00 9.352584e-01 3.069915e+00 1.734379e-01 9.025888e-01 5.313330e-01 -1.458066e+00 5.362681e-01 -5.828748e+00 1.918881e+00 2.548522e-01 4.210948e-01 5.950946e-04 2.345706e-01 -1.670513e-01 -1.659525e-01 -2.801202e-01 -1.319305e-01 -2.010424e-01 -2.575698e-01 -3.809522e-01 8.281039e-02 1.637796e+00 2.652863e-01 1.721483e-01 -3.485093e-01 -3.376180e-01 -7.629509e-02 -4.817485e-01 -1.258640e-01 1.270235e-02 2.794827e-02 2.309480e-01 4.753246e-02 2.548636e-01
<VARIANCE> 39
 1.193233e+01 1.203334e+01 1.340279e+01 1.449812e+01 1.928390e+01 2.035097e+01 2.320869e+01 2.116599e+01 1.846981e+01 1.944400e+01 1.515508e+01 1.435412e+01 1.291774e+00 1.269130e+00 1.031181e+00 1.004855e+00 1.135060e+00 1.225218e+00 1.406291e+00 1.575415e+00 1.402702e+00 1.468052e+00 1.305399e+00 1.213323e+00 1.119432e+00 8.855843e-02 1.483865e-01 2.457442e-01 3.963400e-01 4.219942e-01 4.854914e-01 6.088257e-01 6.319551e-01 4.830464e-01 3.937252e-01 4.339923e-01 3.215386e-01 3.326166e-01 1.501308e-02
<GCONST> 9.016901e+01
<STATE> 4
<NUMMIXES> 8
<MIXTURE> 1 8.893790e-02
<MEAN> 39
 -1.171405e+01 1.005460e-01 3.637485e-01 2.604303e+00 3.575710e+00 2.271167e+00 3.628814e+00 1.023272e+00 2.745705e+00 4.110257e-01 8.659718e-01 1.951870e+00 -5.779520e+00 7.057106e-01 8.368956e-01 7.577673e-01 4.166500e-01 7.771041e-01 6.908990e-01 -2.698837e-02 1.765653e-02 3.437689e-01 4.613465e-01 5.100884e-01 2.827828e-01 -3.871037e-01 4.043827e-01 2.281229e-01 -9.985115e-02 7.953523e-02 2.275723e-02 5.776745e-02 2.288113e-02 -9.546560e-02 -1.480673e-01 8.967513e-02 -2.491245e-02 -4.022486e-02 -5.147494e-02
<VARIANCE> 39
