~o
<STREAMINFO> 1 39
<VECSIZE> 39<NULLD><MFCC_E_D_A_Z><DIAGC>
~v "varFloor1"
<VARIANCE> 39
 9.726257e-01 5.381249e-01 6.651532e-01 6.989120e-01 6.880192e-01 6.224947e-01 6.450717e-01 5.635375e-01 5.311891e-01 4.008754e-01 3.797459e-01 3.082840e-01 1.131276e-01 4.817885e-02 3.519386e-02 3.216594e-02 4.186358e-02 4.215040e-02 4.083050e-02 4.351060e-02 4.295653e-02 3.903697e-02 3.210390e-02 2.959472e-02 2.433364e-02 4.759443e-03 6.696086e-03 5.835324e-03 4.982519e-03 6.833524e-03 6.876886e-03 6.926220e-03 7.477231e-03 7.591971e-03 6.896265e-03 5.920904e-03 5.389229e-03 4.463565e-03 7.207811e-04
~s "silst2"
<NUMMIXES> 12
<MIXTURE> 1 7.457738e-02
<MEAN> 39
 -3.225264e+00 7.027490e-01 -2.073113e+00 1.794827e+00 -8.265537e-02 -6.212915e-01 2.473802e+00 1.303290e+00 2.405772e+00 1.415020e+00 1.617259e+00 3.012734e+00 -7.796657e+00 -7.526295e-01 4.921146e-01 -1.297050e-01 1.187363e+00 6.610242e-01 8.809121e-01 6.712764e-01 5.329294e-01 6.049345e-01 4.531517e-01 3.466910e-01 1.956737e-01 -7.126454e-01 -2.549656e-01 1.110679e-01 2.325798e-01 2.059248e-01 4.007633e-01 3.453652e-01 4.767988e-02 -8.890333e-02 -1.851856e-01 -1.324135e-01 -1.981702e-01 -3.029231e-01 5.815724e-02
<VARIANCE> 39
 2.457224e+01 2.992939e+01 4.420052e+01 3.987942e+01 6.472531e+01 6.900304e+01 5.703571e+01 6.020970e+01 5.624628e+01 5.503366e+01 4.762296e+01 3.498291e+01 4.120354e+00 4.350774e+00 3.871533e+00 4.233226e+00 4.403039e+00 5.705286e+00 6.035810e+00 5.426634e+00 5.097748e+00 5.242122e+00 4.645101e+00 3.841389e+00 3.087942e+00 3.366797e-01 5.914921e-01 6.042686e-01 6.515011e-01 7.821669e-01 9.944668e-01 1.112294e+00 9.990374e-01 1.091701e+00 1.034811e+00 9.774476e-01 8.352048e-01 6.474637e-01 7.082096e-02
<GCONST> 1.315893e+02
<MIXTURE> 2 6.921327e-02
<MEAN> 39
 -5.012350e+00 3.981858e-01 -3.788498e+00 2.631227e+00 3.068117e+00 1.137407e-01 2.657186e+00 -2.083125e+00 -2.433303e+00 -1.750002e+00 -1.408839e+00 1.357356e+00 -9.208996e+00 -1.484416e-01 4.104431e-01 1.148278e-01 3.677364e-01 1.793972e-01 3.013817e-01 2.680851e-01 2.922449e-01 3.305319e-01 3.539584e-01 3.494986e-01 1.365849e-01 -1.506037e-01 -2.224638e-03 3.197194e-02 7.499389e-02 9.532450e-02 1.709816e-01 2.095183e-01 2.487862e-01 4.187729e-01 4.230643e-01 2.094571e-01 1.059155e-01 3.559479e-02 3.283938e-02
<VARIANCE> 39
 1.360437e+01 2.085474e+01 2.540110e+01 2.761010e+01 2.996345e+01 3.678730e+01 3.297259e+01 3.132913e+01 2.729370e+01 2.961581e+01 2.781681e+01 2.127069e+01 8.642700e-01 3.194416e-01 6.004667e-01 8.403518e-01 9.312557e-01 1.123199e+00 1.424923e+00 1.505923e+00 1.603024e+00 1.629731e+00 1.748610e+00 1.577570e+00 1.385389e+00 2.700304e-02 5.562574e-02 8.986906e-02 1.297376e-01 1.709823e-01 2.156179e-01 2.635361e-01 2.822509e-01 2.720914e-01 2.757118e-01 3.168560e-01 2.800384e-01 2.526443e-01 3.022191e-03
<GCONST> 8.299867e+01
<MIXTURE> 3 5.183234e-02
<MEAN> 39
 -3.264225e+00 -4.376555e+00 -4.728265e+00 3.279806e+00 3.087474e+00 1.638548e+00 3.889491e+00 5.254003e+00 2.925493e+00 -4.060487e+00 9.032167e-01 4.010554e+00 -8.599823e+00 2.616459e-02 6.923420e-01 -2.398482e-01 4.937386e-01 4.354344e-01 4.495175e-01 1.468513e-01 1.888670e-01 3.976063e-01 3.982617e-01 1.960855e-01 1.291957e-01 -2.328325e-01 -8.984693e-02 4.064112e-01 3.188082e-01 2.094719e-01 1.930474e-01 1.402696e-01 3.076600e-02 -2.188572e-01 -4.777001e-02 2.613269e-01 -5.126044e-03 -1.873274e-01 1.241946e-02
<VARIANCE> 39
 9.953930e+00 1.377194e+01 2.824269e+01 2.729165e+01 3.326360e+01 3.512543e+01 3.268914e+01 2.865054e+01 3.116213e+01 3.756518e+01 4.311398e+01 2.035773e+01 1.652465e+00 4.394876e-01 1.029836e+00 1.112510e+00 1.176405e+00 1.526340e+00 1.742174e+00 2.025822e+00 2.031361e+00 2.006141e+00 2.233226e+00 1.748439e+00 1.604027e+00 3.676670e-02 1.051886e-01 1.308770e-01 1.968204e-01 2.123937e-01 2.849989e-01 3.214438e-01 3.251559e-01 3.177483e-01 3.849956e-01 4.473251e-01 3.782893e-01 2.872607e-01 5.832544e-03
<GCONST> 9.134924e+01
<MIXTURE> 4 1.032332e-01
<MEAN> 39
 4.201190e-01 4.135990e+00 1.377001e+00 8.083713e+00 5.441007e+00 1.688477e+00 4.907863e+00 -1.838230e-01 -1.009050e+00 -2.223611e+00 -3.815727e+00 -5.652855e-02 -7.257982e+00 -9.656131e-01 -3.704571e-01 -1.729235e-01 4.687008e-01 7.961444e-01 7.349857e-01 5.865666e-01 4.614373e-01 3.824769e-01 -6.169399e-02 6.053728e-02 2.371301e-01 -4.269973e-01 -1.789297e-01 -2.891583e-01 -3.351555e-01 -4.660445e-01 -2.478898e-01 -1.013857e-01 -1.010964e-01 7.215875e-02 1.355998e-01 2.220254e-01 2.798063e-01 1.215481e-01 1.597384e-03
<VARIANCE> 39
 1.713903e+01 2.831091e+01 4.113973e+01 3.750008e+01 4.332249e+01 4.055375e+01 4.499804e+01 5.583827e+01 4.368611e+01 3.848160e+01 3.551733e+01 2.957384e+01 2.526581e+00 1.318247e+00 1.450361e+00 1.837386e+00 2.227257e+00 2.387141e+00 2.357529e+00 2.691403e+00 2.618371e+00 2.464581e+00 2.468126e+00 2.169428e+00 1.942649e+00 8.203785e-02 1.215475e-01 1.894322e-01 2.495428e-01 3.594669e-01 4.105517e-01 3.981999e-01 4.508766e-01 4.752977e-01 4.528155e-01 4.179655e-01 3.895558e-01 3.644875e-01 9.760426e-03
<GCONST> 1.045156e+02
<MIXTURE> 5 8.800388e-02
<MEAN> 39
 -8.553481e+00 2.809695e+00 -1.753216e+00 5.198456e+00 3.797421e+00 2.598349e+00 4.012580e+00 9.462310e-01 1.889351e+00 1.135149e+00 1.275688e+00 2.069769e+00 -1.005750e+01 -6.115495e-02 5.354167e-02 -2.186163e-04 1.730205e-03 3.817843e-02 6.432304e-02 2.728347e-02 2.154391e-03 5.866516e-03 3.394858e-02 1.256879e-02 -3.039585e-03 -1.141318e-02 6.689789e-03 2.231137e-02 2.968522e-02 3.865644e-02 4.009814e-02 2.501901e-02 1.468631e-02 -2.106263e-03 -1.368400e-02 -1.434865e-02 -3.196416e-02 -2.350898e-02 2.573884e-03
<VARIANCE> 39
 1.252824e+01 1.819650e+01 1.767365e+01 2.721765e+01 1.857235e+01 2.649260e+01 2.280280e+01 2.136230e+01 2.251233e+01 1.930845e+01 2.111193e+01 1.422131e+01 4.534362e-01 1.782724e-01 3.533606e-01 5.686958e-01 7.330576e-01 9.236075e-01 1.152640e+00 1.293825e+00 1.489974e+00 1.457309e+00 1.463912e+00 1.384366e+00 1.306378e+00 4.759443e-03 1.766595e-02 3.331121e-02 5.155867e-02 7.341501e-02 8.513353e-02 9.796475e-02 1.180831e-01 1.264526e-01 1.321907e-01 1.322179e-01 1.249896e-01 1.134997e-01 7.207811e-04
<GCONST> 6.219652e+01
<MIXTURE> 6 1.094230e-01
<MEAN> 39
 -4.924347e+00 1.684533e+00 -1.273189e+00 5.230587e+00 5.929774e+00 5.207603e+00 8.354797e+00 1.063044e+00 3.992385e-01 3.990640e-01 -5.173727e-01 1.844060e+00 -8.890215e+00 -9.327484e-01 -6.848989e-01 -9.670151e-01 -6.456759e-01 -2.354991e-01 -3.004840e-01 -1.045483e-01 3.962937e-01 3.905175e-01 1.942362e-01 4.746726e-01 4.177224e-01 -3.106589e-01 2.784651e-01 2.090713e-01 1.243523e-01 -8.630479e-02 -3.337752e-01 -4.097538e-01 -4.987501e-01 -2.679095e-01 -1.837849e-01 -1.180362e-01 -8.307625e-02 -1.386008e-01 1.096926e-01
<VARIANCE> 39
 1.539530e+01 2.107957e+01 3.577987e+01 3.872610e+01 3.920446e+01 3.668526e+01 3.733086e+01 4.205260e+01 3.568211e+01 3.540649e+01 3.392236e+01 2.555826e+01 1.884180e+00 1.069620e+00 1.455538e+00 1.883307e+00 2.229289e+00 2.407987e+00 2.678871e+00 3.051952e+00 3.099093e+00 2.850931e+00 2.903184e+00 2.677349e+00 2.127825e+00 7.107382e-02 1.504409e-01 2.020745e-01 2.816151e-01 4.233555e-01 4.077398e-01 4.263102e-01 4.437859e-01 4.836519e-01 4.829939e-01 4.856146e-01 4.403393e-01 3.884086e-01 1.110944e-02
<GCONST> 1.044367e+02
<MIXTURE> 7 5.818667e-02
<MEAN> 39
 -7.085652e+00 -4.742854e+00 -1.480418e+00 1.218660e-01 2.529760e+00 -1.931588e+00 2.774793e+00 2.849988e+00 1.135341e+00 -1.435050e+00 1.253941e+00 2.492867e+00 -7.245770e+00 3.216050e-01 -3.617551e-02 4.374769e-03 1.909303e-01 1.650800e-01 2.004485e-01 4.011257e-02 2.167044e-01 1.675519e-01 -1.782425e-02 8.124836e-02 1.703489e-01 -1.023461e-01 7.684788e-02 1.475873e-01 7.173723e-03 1.673489e-01 1.439934e-01 2.187508e-01 1.183484e-01 6.326847e-02 7.194481e-02 6.356231e-02 1.338834e-02 1.818106e-02 -1.776258e-02
<VARIANCE> 39
 1.761168e+01 2.041080e+01 2.266907e+01 1.838794e+01 2.889811e+01 2.888760e+01 3.032031e+01 2.668653e+01 2.866952e+01 2.751205e+01 3.416409e+01 1.923188e+01 1.972680e+00 5.200520e-01 4.924250e-01 6.392155e-01 8.586777e-01 1.060763e+00 1.246262e+00 1.345737e+00 1.535876e+00 1.643355e+00 1.556522e+00 1.343831e+00 1.291156e+00 4.619789e-02 5.242386e-02 8.474179e-02 1.105881e-01 1.466293e-01 1.840422e-01 2.206676e-01 2.606898e-01 2.821769e-01 3.020040e-01 2.873296e-01 2.631609e-01 2.482916e-01 3.075937e-03
<GCONST> 8.200540e+01
<MIXTURE> 8 1.252503e-01
<MEAN> 39
 -6.438732e+00 1.376238e+00 -1.798905e+00 3.470633e+00 5.955106e+00 1.953875e-01 5.406321e+00 2.128280e+00 1.024609e+00 1.384241e+00 -3.370419e-03 2.348392e+00 -8.354719e+00 3.509802e-02 8.557357e-02 -1.513883e-02 6.250296e-02 -1.873663e-02 -2.980564e-03 -6.848893e-02 -3.513703e-02 3.261230e-02 -6.691793e-03 -1.151727e-02 -1.155676e-02 -6.528697e-02 8.686478e-03 -3.356558e-02 -5.999997e-02 -7.849403e-02 -1.140958e-01 -8.384676e-02 -1.338577e-01 -1.299662e-01 -1.100473e-01 -1.087080e-01 -5.375084e-02 -2.238568e-02 -2.524875e-03
<VARIANCE> 39
 2.325136e+01 3.765678e+01 2.406860e+01 2.797774e+01 2.729320e+01 2.977549e+01 3.131924e+01 3.549854e+01 2.767190e+01 3.206117e+01 2.730465e+01 2.157275e+01 1.519172e+00 1.300943e-01 2.617813e-01 4.066382e-01 5.926335e-01 7.771698e-01 9.926891e-01 1.215078e+00 1.327995e+00 1.338152e+00 1.362064e+00 1.276990e+00 1.186691e+00 1.216157e-02 2.508399e-02 5.355146e-02 8.389588e-02 1.246242e-01 1.607300e-01 2.051524e-01 2.468930e-01 2.788059e-01 2.793818e-01 3.113196e-01 2.842675e-01 2.662733e-01 1.214432e-03
<GCONST> 7.528793e+01
<MIXTURE> 9 1.182880e-01
<MEAN> 39
 -3.846211e+00 -1.996556e+00 -4.469651e+00 7.119718e-01 5.269722e+00 8.427241e-01 1.038953e+00 1.020157e+00 2.356901e+00 -1.438711e-01 -9.449916e-01 4.483165e-01 -8.323299e+00 8.410115e-01 2.320248e-01 -5.846354e-01 6.082749e-01 -2.362234e-01 6.493830e-01 3.787815e-02 -3.261985e-01 -2.583156e-01 -1.610501e-01 -1.641612e-01 -1.154495e-01 -5.219892e-01 -4.261547e-01 4.011621e-01 2.283347e-01 1.937014e-01 -1.346744e-02 1.181353e-01 2.910584e-01 4.459758e-02 -5.478668e-02 3.152063e-02 1.010068e-01 9.707349e-02 6.530884e-02
<VARIANCE> 39
 1.516896e+01 1.517103e+01 2.645293e+01 2.866965e+01 3.063986e+01 3.379059e+01 3.247775e+01 3.199158e+01 3.297560e+01 3.113311e+01 3.159771e+01 2.241748e+01 1.996846e+00 2.033297e+00 2.031214e+00 2.077590e+00 2.436226e+00 2.699344e+00 3.050792e+00 3.127797e+00 2.894908e+00 2.707747e+00 2.679725e+00 2.373013e+00 2.023753e+00 1.146414e-01 2.598805e-01 2.278429e-01 3.398933e-01 3.517097e-01 4.134386e-01 4.676290e-01 4.822606e-01 4.923721e-01 4.881891e-01 4.659181e-01 4.115592e-01 3.670298e-01 2.223347e-02
<GCONST> 1.053518e+02
<MIXTURE> 10 9.186295e-02
<MEAN> 39
 -2.714451e+00 -1.629492e+00 -6.777675e+00 3.246044e+00 5.713505e+00 1.880054e+00 9.083450e-01 8.240734e-01 2.126798e+00 -2.251056e+00 -2.517743e+00 2.054260e-01 -9.227143e+00 -1.163423e-01 5.084428e-01 -7.708148e-02 1.763406e-01 -1.588496e-01 1.668128e-01 -6.002862e-03 -4.518502e-01 -3.426353e-01 2.018080e-02 -5.989119e-02 -1.716449e-01 -1.867049e-01 -1.049052e-01 4.696882e-02 1.235265e-01 -6.466347e-02 -7.912108e-02 -1.580452e-02 1.592650e-01 1.235071e-01 3.277659e-02 1.008830e-01 1.824683e-01 1.564201e-01 2.558968e-02
<VARIANCE> 39
 8.324733e+00 1.212383e+01 1.880092e+01 2.049451e+01 2.273281e+01 3.063225e+01 3.091795e+01 2.727877e+01 2.719598e+01 3.213393e+01 3.162675e+01 2.058206e+01 7.742522e-01 2.699834e-01 5.173730e-01 7.369558e-01 9.501825e-01 1.166412e+00 1.514928e+00 1.715676e+00 1.515119e+00 1.635936e+00 1.758501e+00 1.647682e+00 1.435280e+00 2.297612e-02 4.653331e-02 6.975953e-02 1.151858e-01 1.463669e-01 1.953490e-01 2.565967e-01 2.724663e-01 2.463504e-01 2.642707e-01 2.962840e-01 2.731814e-01 2.519169e-01 2.755561e-03
<GCONST> 7.924329e+01
<MIXTURE> 11 5.551149e-02
<MEAN> 39
 -3.398084e+00 -5.021745e+00 -5.301008e+00 2.346680e+00 2.706503e+00 6.321594e-01 3.205133e+00 4.903232e+00 2.984995e+00 -4.169947e+00 -6.229137e-01 3.669705e+00 -8.525325e+00 -6.644421e-02 3.369698e-01 -5.508676e-01 1.158328e-01 -1.066849e-03 2.889157e-02 -3.473333e-01 -3.745248e-01 -1.522162e-01 -1.629452e-01 -2.712198e-01 -2.468114e-01 -2.430329e-01 -1.042150e-01 3.348377e-01 1.984885e-01 9.803565e-02 8.536089e-02 1.503661e-02 -7.433732e-02 -3.415461e-01 -1.972159e-01 1.356134e-01 -8.975975e-02 -2.509282e-01 -9.314702e-04
<VARIANCE> 39
 9.692003e+00 1.352474e+01 2.785114e+01 2.640989e+01 3.170397e+01 3.301351e+01 3.319807e+01 2.851973e+01 3.297562e+01 3.677716e+01 4.105653e+01 2.070155e+01 1.514676e+00 4.521204e-01 8.820747e-01 1.075475e+00 1.216713e+00 1.540497e+00 1.772856e+00 2.045017e+00 1.959489e+00 2.049562e+00 2.177122e+00 1.739930e+00 1.580809e+00 3.629018e-02 9.523243e-02 1.180077e-01 1.828553e-01 2.077421e-01 2.734340e-01 3.078704e-01 3.122495e-01 3.157744e-01 3.675047e-01 4.242482e-01 3.616110e-01 2.873941e-01 5.527771e-03
<GCONST> 9.028379e+01
<MIXTURE> 12 5.453382e-02
<MEAN> 39
 -7.280027e+00 -5.232627e+00 -2.122865e+00 -5.728909e-01 2.162842e+00 -2.872258e+00 1.789507e+00 2.501884e+00 7.988607e-01 -1.658241e+00 3.159321e-01 2.264772e+00 -7.409409e+00 2.290351e-01 -2.094928e-01 -2.221832e-01 -1.386572e-01 -2.218121e-01 -1.612367e-01 -3.481595e-01 -2.222032e-01 -2.567907e-01 -4.300211e-01 -3.371650e-01 -1.623904e-01 -1.120565e-01 3.657649e-02 7.461772e-02 -6.438188e-02 7.240772e-02 4.053189e-02 1.153885e-01 1.442049e-02 -3.565167e-02 -2.273425e-02 -2.067090e-02 -6.984590e-02 -4.294287e-02 -2.683779e-02
<VARIANCE> 39
 1.636607e+01 1.729761e+01 2.077396e+01 1.598546e+01 2.650013e+01 2.815949e+01 3.081282e+01 2.630942e+01 3.016984e+01 2.693433e+01 3.197914e+01 1.882092e+01 1.913282e+00 5.150502e-01 4.961519e-01 5.920455e-01 8.284234e-01 1.038692e+00 1.199524e+00 1.350419e+00 1.467398e+00 1.553822e+00 1.534174e+00 1.320365e+00 1.315382e+00 4.634801e-02 4.867793e-02 8.041505e-02 1.008294e-01 1.442051e-01 1.812571e-01 2.119559e-01 2.535649e-01 2.715289e-01 2.997723e-01 2.850344e-01 2.454125e-01 2.447040e-01 2.935058e-03
<GCONST> 8.055418e+01
~s "silst3"
<NUMMIXES> 12
<MIXTURE> 1 6.271320e-02
<MEAN> 39
 -6.170893e+00 2.770621e+00 -4.135157e+00 4.606383e+00 2.713127e+00 3.841397e+00 4.894220e+00 1.732008e+00 1.582251e+00 -1.271905e+00 6.253103e-01 2.582341e+00 -1.046416e+01 -9.586607e-01 1.398504e+00 1.390950e+00 1.242715e+00 9.611800e-01 7.791828e-01 1.712947e-01 -7.590231e-02 6.137316e-01 1.130893e+00 5.101551e-01 -2.839153e-01 -6.502486e-02 -2.656153e-02 -1.896003e-01 2.136476e-01 1.300812e-01 1.772712e-01 -5.235315e-02 -1.202407e-01 -3.127310e-02 6.998385e-02 1.313414e-01 2.419462e-02 -8.583440e-02 6.217209e-02
<VARIANCE> 39
 9.337628e+00 1.354296e+01 1.991183e+01 1.959986e+01 2.018843e+01 2.817591e+01 2.478656e+01 2.679921e+01 2.353683e+01 2.651550e+01 3.047229e+01 1.768856e+01 1.131276e-01 5.506089e-01 1.395477e+00 1.622542e+00 1.394011e+00 1.826213e+00 2.131232e+00 2.395517e+00 2.267900e+00 2.264543e+00 2.386362e+00 2.024914e+00 1.758373e+00 1.129652e-02 1.303607e-01 2.232007e-01 2.553549e-01 2.515850e-01 2.924022e-01 3.545830e-01 3.625955e-01 3.813607e-01 3.939491e-01 4.497278e-01 3.949164e-01 3.302033e-01 4.292881e-03
<GCONST> 8.820521e+01
<MIXTURE> 2 7.239629e-02
<MEAN> 39
 -8.120894e+00 4.464561e+00 -3.662924e-01 7.709869e+00 3.898453e+00 3.659327e+00 2.515992e+00 -1.575636e-01 1.837914e+00 7.623487e-01 2.497479e+00 1.937675e+00 -1.048518e+01 -2.502682e-01 2.134868e-01 4.588166e-01 6.086790e-01 6.186365e-01 6.207801e-01 4.596822e-01 4.304953e-01 5.418195e-01 5.926650e-01 4.074347e-01 1.198638e-01 -3.044260e-03 4.867753e-02 -8.647750e-02 -8.555094e-02 -7.229298e-02 4.668229e-02 1.022297e-01 1.849269e-01 1.701906e-01 8.082717e-02 -1.609455e-02 -1.132698e-01 -7.107370e-02 5.171630e-03
<VARIANCE> 39
 8.636627e+00 8.864450e+00 1.181453e+01 1.384033e+01 1.440569e+01 1.724226e+01 1.748601e+01 1.530023e+01 1.725621e+01 1.543304e+01 1.732773e+01 1.277472e+01 1.131276e-01 2.777643e-01 3.593411e-01 5.904718e-01 7.204120e-01 9.110374e-01 1.100801e+00 1.340843e+00 1.386398e+00 1.350288e+00 1.361932e+00 1.278824e+00 1.205112e+00 4.759443e-03 4.222323e-02 6.299731e-02 9.647659e-02 1.330893e-01 1.725449e-01 1.883828e-01 2.102524e-01 2.055349e-01 2.179633e-01 2.191698e-01 2.013206e-01 2.049705e-01 7.207811e-04
<GCONST> 6.386256e+01
<MIXTURE> 3 5.872342e-02
<MEAN> 39
 -8.672542e+00 3.776966e+00 -7.219163e-01 8.416019e+00 5.800985e+00 6.511877e+00 5.784043e+00 3.707695e+00 5.472490e+00 2.506237e+00 2.581981e+00 1.200484e+00 -1.047524e+01 -3.198724e-02 1.441316e-01 1.627916e-01 2.496903e-01 2.651964e-01 2.829241e-01 2.687438e-01 2.753620e-01 3.041300e-01 3.208770e-01 2.873299e-01 1.462800e-01 -1.884921e-03 8.822468e-02 8.505017e-02 8.170626e-02 -5.577333e-03 -8.052734e-02 -1.930154e-01 -2.586352e-01 -3.393496e-01 -3.393292e-01 -1.523243e-01 2.425834e-02 8.932084e-02 6.085201e-03
<VARIANCE> 39
 8.062013e+00 8.633299e+00 1.342812e+01 1.516812e+01 1.481305e+01 1.723439e+01 1.826686e+01 1.556812e+01 1.727085e+01 1.591426e+01 1.927118e+01 1.352188e+01 1.131276e-01 1.539538e-01 2.649870e-01 4.003811e-01 5.743335e-01 7.651559e-01 9.616096e-01 1.140835e+00 1.227357e+00 1.301242e+00 1.283570e+00 1.198484e+00 1.113054e+00 4.759443e-03 4.023219e-02 6.073289e-02 9.222416e-02 1.353603e-01 1.707167e-01 1.942062e-01 2.077785e-01 2.101039e-01 2.226804e-01 2.390895e-01 2.270694e-01 2.236437e-01 7.207811e-04
<GCONST> 6.215942e+01
<MIXTURE> 4 5.846359e-02
<MEAN> 39
 -8.934810e+00 5.601431e+00 1.341520e+00 9.604255e+00 6.524759e+00 5.563389e+00 4.322814e+00 9.936719e-01 3.154701e+00 2.077138e+00 2.483906e+00 1.427317e+00 -1.048393e+01 -2.468531e-01 3.767366e-01 6.323580e-01 6.720502e-01 6.165544e-01 5.007994e-01 2.722623e-01 2.025692e-01 3.371587e-01 4.915808e-01 3.406251e-01 7.035872e-02 -7.706787e-05 2.169286e-01 -2.723958e-01 -3.719805e-01 -3.570545e-01 -2.629169e-01 -1.450528e-01 3.821813e-02 8.813165e-02 -5.731137e-02 -1.537649e-01 -4.966849e-02 9.310769e-02 1.287343e-02
<VARIANCE> 39
 1.360029e+01 1.467368e+01 1.649858e+01 1.926599e+01 1.907413e+01 2.530384e+01 2.679729e+01 2.554472e+01 2.586361e+01 2.206394e+01 2.338580e+01 1.695883e+01 1.131276e-01 9.714425e-01 1.191352e+00 1.571782e+00 1.655453e+00 1.781185e+00 1.850953e+00 2.093592e+00 2.104012e+00 2.114877e+00 2.219405e+00 1.839819e+00 1.649154e+00 4.759443e-03 1.721426e-01 2.517301e-01 2.443316e-01 2.805341e-01 3.286213e-01 3.835405e-01 4.357433e-01 4.393591e-01 4.332657e-01 4.349064e-01 3.617881e-01 3.227047e-01 7.207811e-04
<GCONST> 8.608476e+01
<MIXTURE> 5 1.330483e-01
<MEAN> 39
 -7.896362e+00 3.822651e+00 -2.266535e+00 5.384778e+00 4.476874e+00 2.954198e+00 4.260046e+00 -4.801655e-01 -1.158230e+00 -2.004501e+00 -2.719546e+00 7.729579e-03 -1.045588e+01 -1.245421e-01 1.328307e-01 1.299954e-01 1.237285e-01 7.854853e-02 1.296836e-01 1.046997e-01 1.321375e-01 2.069586e-01 1.913622e-01 1.399291e-01 5.485386e-02 -6.765842e-03 1.969884e-02 -9.888219e-03 2.345609e-02 2.359696e-03 -5.542198e-03 -2.981284e-02 -1.058179e-02 1.279741e-01 3.362254e-01 4.637615e-01 4.480370e-01 2.432400e-01 7.440153e-03
<VARIANCE> 39
 1.203962e+01 1.262474e+01 1.603923e+01 1.844455e+01 1.849391e+01 2.455396e+01 2.249845e+01 2.164639e+01 1.988724e+01 1.914239e+01 1.581208e+01 1.503234e+01 1.131276e-01 1.987759e-01 3.564206e-01 5.022869e-01 7.037640e-01 8.922317e-01 1.132922e+00 1.227648e+00 1.304635e+00 1.386635e+00 1.444775e+00 1.345705e+00 1.213914e+00 4.759443e-03 3.903363e-02 6.754027e-02 1.016217e-01 1.475804e-01 1.961311e-01 2.365039e-01 2.490395e-01 2.780211e-01 2.412374e-01 2.126882e-01 1.960546e-01 2.296740e-01 7.207811e-04
<GCONST> 6.737912e+01
<MIXTURE> 6 1.258280e-01
<MEAN> 39
 -7.028482e+00 1.634718e+00 -4.020482e+00 3.942300e+00 3.332939e+00 2.846399e+00 4.361651e+00 9.914067e-01 1.412170e+00 6.948996e-01 7.661121e-01 2.358704e+00 -1.048062e+01 -2.657444e-02 2.864398e-02 -2.250799e-01 -2.669500e-01 -2.328160e-01 -1.538683e-01 -3.121027e-02 -1.853928e-02 -1.134262e-01 -7.879763e-02 -8.939479e-02 -5.372856e-02 -3.121724e-03 -7.098548e-02 1.857191e-01 3.190517e-01 2.855918e-01 1.905927e-01 9.366696e-02 -2.483789e-02 -6.553581e-02 -4.215875e-03 3.365980e-03 -5.300362e-02 -1.311401e-01 8.189271e-03
<VARIANCE> 39
 1.266628e+01 1.679251e+01 2.226025e+01 2.270256e+01 2.715802e+01 3.151955e+01 3.226618e+01 3.279767e+01 3.091574e+01 2.941386e+01 2.833314e+01 2.144200e+01 1.131276e-01 7.076916e-01 1.355111e+00 1.418250e+00 1.671049e+00 1.860973e+00 2.136322e+00 2.161262e+00 2.387824e+00 2.262352e+00 2.272568e+00 2.036988e+00 1.856564e+00 4.759443e-03 1.180229e-01 1.887196e-01 2.173163e-01 2.747539e-01 3.341721e-01 4.066906e-01 4.248683e-01 4.663746e-01 4.556035e-01 4.394547e-01 3.828129e-01 3.628462e-01 7.207811e-04
<GCONST> 8.842936e+01
<MIXTURE> 7 9.111434e-02
<MEAN> 39
 -9.234902e+00 4.960752e+00 6.984752e-02 8.341793e+00 6.144870e+00 4.721292e+00 4.747187e+00 1.212779e+00 3.122165e+00 3.337658e+00 3.131337e+00 3.076669e+00 -1.046766e+01 2.871168e-02 -1.064860e-01 -2.394748e-01 -4.382474e-01 -5.104914e-01 -5.106996e-01 -3.824841e-01 -3.153805e-01 -3.290902e-01 -1.900575e-01 -9.244585e-02 -4.897701e-02 -3.421526e-03 7.225233e-02 -6.673438e-02 -1.172905e-01 -1.941487e-01 -1.645949e-01 -1.231625e-01 -6.985302e-02 -8.105804e-02 -1.814415e-01 -2.827061e-01 -3.078808e-01 -2.060267e-01 4.792047e-03
<VARIANCE> 39
 8.364139e+00 1.093559e+01 1.371515e+01 1.728918e+01 1.412816e+01 2.146560e+01 2.010958e+01 1.714081e+01 1.881407e+01 1.576652e+01 1.983661e+01 1.355532e+01 1.131276e-01 2.842663e-01 4.054480e-01 6.079784e-01 7.513394e-01 8.750120e-01 1.087420e+00 1.234415e+00 1.373287e+00 1.378197e+00 1.397733e+00 1.386860e+00 1.265264e+00 4.759443e-03 5.009853e-02 7.624214e-02 1.121606e-01 1.396884e-01 1.731772e-01 2.145404e-01 2.299100e-01 2.206248e-01 2.430343e-01 2.582676e-01 2.492314e-01 2.390382e-01 7.207811e-04
<GCONST> 6.690911e+01
<MIXTURE> 8 1.099740e-01
<MEAN> 39
 -8.463476e+00 4.247624e+00 -1.218797e+00 6.092499e+00 3.870427e+00 2.547970e+00 2.844656e+00 -1.005556e+00 4.449642e-01 4.660197e-01 7.577767e-01 1.337568e+00 -1.046469e+01 8.133698e-03 5.338172e-02 -1.572816e-02 -1.370664e-01 -2.387327e-01 -2.868974e-01 -4.173915e-01 -5.571544e-01 -5.898299e-01 -4.368332e-01 -2.785433e-01 -1.054557e-01 -4.964391e-03 2.374463e-04 -1.275245e-02 3.187521e-02 4.986549e-02 1.052983e-01 1.480407e-01 1.961961e-01 2.049082e-01 1.773758e-01 1.042691e-01 2.971279e-02 2.847602e-02 4.511090e-03
<VARIANCE> 39
 9.624700e+00 9.969054e+00 1.419502e+01 1.816445e+01 1.451900e+01 2.097705e+01 1.914477e+01 1.810600e+01 1.755605e+01 1.502549e+01 1.418983e+01 1.230128e+01 1.131276e-01 1.194413e-01 2.547096e-01 4.142961e-01 6.061758e-01 6.916203e-01 8.655102e-01 1.055977e+00 1.066238e+00 1.144320e+00 1.191174e+00 1.155695e+00 1.106858e+00 4.759443e-03 2.699103e-02 5.185954e-02 8.362553e-02 1.255457e-01 1.600824e-01 1.888834e-01 2.098352e-01 2.214799e-01 2.160129e-01 1.860778e-01 1.751262e-01 1.956002e-01 7.207811e-04
<GCONST> 6.033953e+01
<MIXTURE> 9 8.605288e-02
<MEAN> 39
 -8.180227e+00 4.533535e+00 -1.713240e-01 6.389571e+00 3.577586e+00 2.491637e+00 2.740434e+00 -4.039690e-01 1.469224e+00 2.358181e+00 2.447867e+00 2.576154e+00 -1.046725e+01 -1.522564e-01 -5.477870e-02 4.868789e-02 1.479214e-01 2.404982e-01 2.758900e-01 1.963712e-01 2.273820e-01 2.066464e-01 1.162733e-01 -2.578485e-02 -7.349616e-02 -4.426805e-03 3.977132e-03 -8.690164e-02 -9.515037e-02 -3.666394e-02 8.736072e-02 1.392224e-01 1.553242e-01 1.277567e-01 -2.563890e-02 -2.247045e-01 -2.578174e-01 -1.742698e-01 4.624675e-03
<VARIANCE> 39
 9.126392e+00 9.025383e+00 1.305433e+01 1.674681e+01 1.362325e+01 1.898114e+01 1.656619e+01 1.626510e+01 1.715653e+01 1.623131e+01 1.515767e+01 1.187413e+01 1.131276e-01 1.733330e-01 2.726155e-01 4.240695e-01 5.905954e-01 6.921528e-01 8.194950e-01 9.325739e-01 1.076375e+00 1.123075e+00 1.197749e+00 1.159029e+00 1.110050e+00 4.759443e-03 2.945259e-02 4.966063e-02 8.041645e-02 1.255338e-01 1.495961e-01 1.705550e-01 1.872736e-01 2.031358e-01 2.134243e-01 2.064263e-01 1.862036e-01 1.967690e-01 7.207811e-04
<GCONST> 5.974635e+01
<MIXTURE> 10 7.973599e-02
<MEAN> 39
 -5.000253e+00 2.272188e+00 -5.020350e+00 3.986604e+00 3.901094e+00 3.279635e+00 3.974570e+00 1.487877e+00 2.525702e+00 3.518154e-01 -4.734454e-01 1.017581e+00 -1.040529e+01 -6.255072e-01 9.606452e-01 6.719558e-01 5.313558e-01 4.995611e-03 3.384353e-01 1.788950e-01 -4.522709e-01 -3.604227e-01 8.649802e-02 1.642011e-01 -3.331753e-02 -1.145065e-01 -1.123606e-01 -9.518868e-02 2.643076e-01 5.544747e-02 1.119131e-01 -6.010877e-02 -8.461956e-02 -7.743318e-02 -1.192351e-01 -8.242613e-02 2.670917e-02 4.264367e-02 8.422292e-02
<VARIANCE> 39
 1.020918e+01 1.056216e+01 1.654033e+01 1.604812e+01 1.803992e+01 2.398068e+01 2.311699e+01 2.419995e+01 2.230366e+01 2.526262e+01 2.398336e+01 1.730924e+01 1.131276e-01 4.074973e-01 7.511413e-01 1.028224e+00 1.089740e+00 1.342974e+00 1.716556e+00 1.906234e+00 1.763177e+00 1.807966e+00 1.937245e+00 1.833358e+00 1.581668e+00 1.845118e-02 1.064521e-01 1.277067e-01 1.815894e-01 2.138916e-01 2.413338e-01 3.043272e-01 3.281108e-01 3.274458e-01 3.403491e-01 3.548340e-01 3.212487e-01 2.988734e-01 4.287717e-03
<GCONST> 8.152455e+01
<MIXTURE> 11 5.997269e-02
<MEAN> 39
 -9.199946e+00 5.303195e+00 7.269106e-01 8.812077e+00 6.166724e+00 4.898515e+00 4.152170e+00 4.344012e-01 2.182403e+00 1.700286e+00 1.488025e+00 1.069695e+00 -1.049038e+01 -2.987338e-01 -6.338278e-02 1.724207e-01 7.192382e-02 1.307971e-01 -3.020194e-03 -1.721011e-01 -3.562312e-01 -3.228243e-01 -9.329054e-02 -1.779229e-01 -2.841750e-01 -3.003912e-03 1.889019e-01 -3.331853e-01 -4.554414e-01 -4.654045e-01 -3.448695e-01 -2.460046e-01 -6.404009e-02 9.213716e-03 -1.327290e-01 -2.176051e-01 -1.637495e-01 2.126590e-02 8.551311e-03
<VARIANCE> 39
 1.411960e+01 1.491212e+01 1.621982e+01 1.945160e+01 1.920164e+01 2.568345e+01 2.798511e+01 2.722309e+01 2.634522e+01 2.304873e+01 2.232137e+01 1.703025e+01 1.131276e-01 1.024361e+00 1.195823e+00 1.666445e+00 1.809112e+00 1.744952e+00 1.883293e+00 2.155943e+00 2.180664e+00 2.188434e+00 2.278181e+00 1.915369e+00 1.624694e+00 4.759443e-03 1.798748e-01 2.575977e-01 2.561732e-01 2.781764e-01 3.420950e-01 3.953862e-01 4.539588e-01 4.437312e-01 4.510074e-01 4.808935e-01 3.864037e-01 3.372026e-01 7.207811e-04
<GCONST> 8.710847e+01
<MIXTURE> 12 6.187007e-02
<MEAN> 39
 -8.782042e+00 3.251779e+00 -1.576174e+00 7.008721e+00 5.147291e+00 5.647582e+00 5.658327e+00 3.002132e+00 4.417591e+00 1.900376e+00 1.164612e+00 7.354536e-01 -1.048071e+01 -1.265102e-01 -4.046354e-02 -4.048849e-02 -1.795698e-02 -3.043204e-02 -6.078465e-02 -1.021675e-01 -1.190372e-01 -1.153082e-01 -7.787464e-02 -1.207827e-01 -1.836554e-01 -3.870985e-03 4.454073e-02 2.251492e-02 1.677690e-02 -9.942836e-02 -1.629647e-01 -3.106638e-01 -3.891160e-01 -4.603484e-01 -4.533753e-01 -2.317953e-01 -6.912954e-02 3.160476e-02 4.431550e-03
<VARIANCE> 39
 8.377963e+00 8.586422e+00 1.444033e+01 1.581115e+01 1.449417e+01 1.798802e+01 1.840330e+01 1.588822e+01 1.721109e+01 1.659149e+01 1.850015e+01 1.315534e+01 1.131276e-01 1.569284e-01 2.667901e-01 4.183955e-01 5.705007e-01 7.738068e-01 9.773985e-01 1.123398e+00 1.210606e+00 1.294479e+00 1.299785e+00 1.247155e+00 1.092720e+00 4.759443e-03 3.666289e-02 5.760523e-02 9.538909e-02 1.332800e-01 1.672146e-01 1.875249e-01 2.118959e-01 2.016760e-01 2.165385e-01 2.397410e-01 2.340633e-01 2.245465e-01 7.207811e-04
<GCONST> 6.222018e+01
~s "silst4"
<NUMMIXES> 12
<MIXTURE> 1 6.440400e-02
<MEAN> 39
 -9.071518e+00 1.545237e+00 -2.742669e+00 2.208773e+00 2.310470e+00 1.808580e+00 4.446919e+00 -5.867950e-01 -8.466603e-01 1.451905e+00 3.552334e-01 6.692404e-01 -9.329537e+00 -8.259443e-02 6.635383e-01 7.779927e-01 6.630502e-01 4.662428e-01 3.912851e-01 3.484693e-01 1.624478e-01 1.030631e-01 2.978842e-01 1.536971e-01 -9.182751e-02 1.763574e-01 5.312585e-01 2.090889e-01 2.415277e-01 2.237672e-01 1.273561e-01 6.242953e-02 -1.301832e-01 8.028835e-02 1.367081e-01 -1.063852e-01 -6.648788e-02 1.325285e-02 1.871738e-01
<VARIANCE> 39
 1.955837e+01 2.104906e+01 3.594428e+01 2.641728e+01 3.405547e+01 3.126508e+01 3.528740e+01 3.759076e+01 3.374042e+01 2.683321e+01 2.846179e+01 2.165967e+01 1.353379e+00 2.178190e+00 1.999616e+00 2.225118e+00 1.900093e+00 1.939320e+00 1.831806e+00 2.077406e+00 2.289257e+00 2.151966e+00 2.094588e+00 1.947452e+00 1.741036e+00 2.529090e-01 4.262262e-01 4.153386e-01 4.890430e-01 4.170024e-01 4.727342e-01 4.325693e-01 5.439097e-01 5.395406e-01 5.366865e-01 4.693170e-01 4.225838e-01 3.803069e-01 6.324816e-02
<GCONST> 1.072391e+02
<MIXTURE> 2 9.421470e-02
<MEAN> 39
 -9.585290e+00 4.419652e+00 -2.827876e-01 8.049758e+00 5.197330e+00 4.829418e+00 3.598780e+00 4.145696e-01 2.090423e+00 1.355864e+00 1.482615e+00 9.709492e-01 -1.048969e+01 -4.777569e-02 1.089534e-01 2.298962e-01 3.096177e-01 3.633777e-01 3.467211e-01 2.966298e-01 2.911194e-01 3.403262e-01 2.880044e-01 1.990898e-01 7.562422e-02 3.791721e-03 3.407250e-01 -2.890148e-01 -7.044493e-02 -4.242017e-01 -2.179144e-01 -2.003460e-01 1.608480e-02 4.516181e-02 -2.230262e-02 -4.766145e-02 -2.225988e-02 6.270474e-02 2.370754e-01
<VARIANCE> 39
 7.183673e+00 8.269374e+00 1.247036e+01 1.491373e+01 1.376195e+01 1.691453e+01 1.853121e+01 1.825221e+01 1.988251e+01 1.658436e+01 1.924574e+01 1.266636e+01 1.131276e-01 2.858016e-01 3.635101e-01 5.763821e-01 7.641929e-01 9.356288e-01 1.020583e+00 1.175298e+00 1.250393e+00 1.341574e+00 1.183829e+00 1.157796e+00 1.196312e+00 4.759443e-03 2.298416e-01 2.955654e-01 3.233205e-01 3.668116e-01 3.675680e-01 3.736823e-01 3.879359e-01 3.669401e-01 3.681164e-01 3.458763e-01 3.185275e-01 2.853071e-01 2.364502e-02
<GCONST> 7.711177e+01
<MIXTURE> 3 1.008619e-01
<MEAN> 39
 -8.873561e+00 -6.135542e-01 -7.622014e-01 3.307636e+00 2.860522e+00 1.631338e+00 2.660079e+00 1.536648e+00 3.933266e+00 2.626716e+00 1.346372e+00 8.230147e-01 -7.394867e+00 1.517264e-01 -6.647594e-02 2.195002e-01 2.260871e-02 3.654774e-01 4.293231e-01 1.486880e-01 -6.929781e-02 -2.766364e-01 -3.162390e-01 -2.843078e-01 -3.015888e-01 8.679034e-02 5.862417e-01 1.869116e-01 -2.013460e-02 -1.987984e-01 -1.590066e-01 -3.787166e-02 -5.314080e-02 -1.379891e-01 -3.615861e-01 -2.493060e-01 -1.244231e-01 -3.874112e-02 5.418965e-02
<VARIANCE> 39
 5.224350e+01 5.260830e+01 6.042680e+01 7.082630e+01 8.797429e+01 6.938397e+01 6.808788e+01 7.320142e+01 6.799146e+01 5.964483e+01 5.443486e+01 4.387951e+01 3.908616e+00 4.878697e+00 4.401356e+00 4.205243e+00 5.719971e+00 6.311157e+00 6.006588e+00 5.428478e+00 5.695689e+00 5.305441e+00 4.573087e+00 4.157201e+00 3.534507e+00 8.072116e-01 1.071742e+00 1.294876e+00 1.103935e+00 1.581134e+00 1.547384e+00 1.414484e+00 1.456695e+00 1.453877e+00 1.354379e+00 1.205410e+00 1.073945e+00 8.866217e-01 1.998423e-01
<GCONST> 1.428630e+02
<MIXTURE> 4 8.010904e-02
<MEAN> 39
 -8.181495e+00 4.711500e+00 1.920243e-01 8.099873e+00 5.591205e+00 5.410277e+00 4.343884e+00 1.590036e+00 3.214351e+00 2.352240e+00 2.448023e+00 1.527596e+00 -1.041260e+01 7.248181e-02 2.594836e-01 4.632411e-01 3.109895e-01 4.227384e-01 4.484224e-01 4.745761e-01 2.847560e-01 2.101437e-01 2.096672e-01 2.164824e-01 1.445954e-01 8.794270e-02 1.667203e-01 -3.164734e-01 -6.929791e-02 -4.011385e-01 -2.045620e-01 -2.855574e-01 -7.180454e-02 -8.088879e-02 -1.336152e-01 -1.867780e-01 -1.075533e-01 2.314929e-02 2.551139e-01
<VARIANCE> 39
 9.615010e+00 1.000413e+01 1.541699e+01 1.589486e+01 1.686081e+01 1.985321e+01 2.162089e+01 2.097647e+01 2.345895e+01 1.924670e+01 2.173082e+01 1.414715e+01 1.131276e-01 3.033332e+00 4.007402e+00 3.379544e+00 4.018300e+00 3.590462e+00 3.748158e+00 3.210871e+00 3.303316e+00 2.973011e+00 2.707394e+00 2.291884e+00 2.078914e+00 3.316174e-01 3.908446e-01 3.874355e-01 3.719439e-01 3.851137e-01 4.201485e-01 4.065555e-01 4.523858e-01 4.372999e-01 4.244762e-01 3.897804e-01 3.509033e-01 3.084762e-01 3.434781e-02
<GCONST> 1.013354e+02
<MIXTURE> 5 1.136503e-01
<MEAN> 39
 -6.717284e+00 3.350098e+00 -2.418595e+00 6.236053e+00 5.181034e+00 3.669403e+00 4.109878e+00 3.820908e-01 1.421769e+00 3.578050e-01 2.705681e-01 1.546857e+00 -1.021185e+01 -8.737090e-02 1.415560e-01 1.041692e-01 8.952294e-02 4.311349e-03 7.693148e-02 -1.133250e-02 -1.497434e-02 5.223022e-02 5.402999e-02 4.692842e-02 -1.189288e-02 -2.056810e-02 2.840768e-02 -3.025608e-02 -1.267005e-02 -1.674184e-02 1.863015e-04 -1.975548e-02 -6.264910e-03 -3.061269e-03 -8.713176e-03 -1.666510e-02 -1.385631e-02 1.052825e-03 9.041235e-03
<VARIANCE> 39
 1.457672e+01 1.551455e+01 2.244278e+01 2.196343e+01 1.950666e+01 2.668701e+01 2.658089e+01 2.662561e+01 2.595820e+01 2.545615e+01 2.795611e+01 1.719217e+01 3.412863e-01 1.463778e-01 3.203755e-01 5.171020e-01 7.347125e-01 9.564396e-01 1.162740e+00 1.368009e+00 1.535180e+00 1.593251e+00 1.602546e+00 1.473343e+00 1.388431e+00 4.759443e-03 1.153921e-02 2.408777e-02 3.889101e-02 5.536113e-02 7.097377e-02 8.315301e-02 1.022283e-01 1.068277e-01 1.167595e-01 1.177461e-01 1.092088e-01 9.746297e-02 7.207811e-04
<GCONST> 6.079198e+01
<MIXTURE> 6 5.206877e-02
<MEAN> 39
 -3.847321e+00 5.393302e-02 -3.858605e+00 2.449160e+00 1.762673e+00 1.602200e+00 3.986861e+00 1.115452e+00 8.534207e-01 -9.662338e-01 -1.476138e+00 4.390130e-01 -8.296253e+00 6.983314e-01 -5.586352e-01 3.611391e-01 -8.434219e-01 -3.117067e-01 -6.712953e-01 -9.900911e-02 1.875825e-01 -1.473837e-01 -1.696396e-01 -1.343045e-01 8.886687e-02 7.507784e-01 -2.644360e-01 2.407814e-01 3.725110e-01 1.884144e-01 2.429423e-01 1.814185e-01 4.920706e-03 7.167435e-02 1.839048e-01 2.968396e-01 3.014910e-01 1.243530e-01 9.071414e-02
<VARIANCE> 39
 2.083087e+01 3.870378e+01 4.022204e+01 3.723430e+01 3.942427e+01 4.188187e+01 3.467913e+01 3.620540e+01 3.153815e+01 2.784922e+01 3.330191e+01 2.309359e+01 2.341769e+00 4.633420e+00 3.753018e+00 3.606512e+00 3.691431e+00 4.051464e+00 3.229469e+00 3.296510e+00 3.288155e+00 2.980708e+00 2.816142e+00 2.589588e+00 2.314739e+00 3.722832e-01 5.645894e-01 6.274034e-01 5.161818e-01 6.142930e-01 5.511166e-01 5.707338e-01 5.625541e-01 5.139094e-01 4.791173e-01 4.612175e-01 4.454850e-01 3.990390e-01 5.695729e-02
<GCONST> 1.171429e+02
<MIXTURE> 7 1.022285e-01
<MEAN> 39
 -9.107067e+00 3.810265e+00 -3.228494e-01 7.448692e+00 5.128139e+00 5.430448e+00 4.784200e+00 1.131311e+00 2.710521e+00 1.848634e+00 1.559326e+00 9.502730e-01 -1.039305e+01 2.105929e+00 -1.443026e-01 6.653779e-01 -1.110073e+00 -9.605888e-01 -5.495487e-01 -3.186955e-01 -6.814556e-01 -1.115386e+00 -6.710612e-01 -7.802778e-01 -5.436966e-01 9.377305e-01 1.095812e+00 -3.594345e-01 -3.060701e-02 -9.253181e-01 -7.636403e-01 -5.912215e-01 -4.382203e-01 -1.832432e-01 -3.152380e-01 -1.909229e-01 -2.178795e-01 -1.148959e-01 5.571651e-01
<VARIANCE> 39
 1.005128e+01 1.294188e+01 2.113602e+01 2.073991e+01 2.438943e+01 2.608997e+01 2.838570e+01 2.754481e+01 2.808071e+01 2.435960e+01 2.646454e+01 2.037172e+01 1.131276e-01 3.237562e+00 4.322293e+00 4.380857e+00 5.467184e+00 5.047521e+00 4.233811e+00 4.414596e+00 4.423512e+00 3.726139e+00 3.537077e+00 3.367372e+00 2.687855e+00 5.302566e-01 3.200899e-01 5.130369e-01 6.689028e-01 6.501573e-01 7.213628e-01 7.601682e-01 7.249501e-01 7.502998e-01 7.000535e-01 6.393809e-01 6.211553e-01 5.075720e-01 5.109918e-02
<GCONST> 1.135990e+02
<MIXTURE> 8 8.278015e-02
<MEAN> 39
 -7.828549e+00 3.011759e+00 -2.155856e+00 4.930042e+00 3.468841e+00 2.610816e+00 3.301670e+00 -4.414530e-01 5.559005e-01 4.635022e-01 2.544916e-01 1.103037e+00 -1.038332e+01 2.494043e-01 -6.091781e-01 -4.368886e-01 -7.782434e-01 -5.328002e-01 -5.921903e-01 -1.905499e-01 -1.339863e-01 -2.640045e-01 -1.548763e-01 -2.137984e-01 -5.610238e-02 1.092619e-01 1.434732e-02 -5.135078e-02 9.718512e-02 3.068119e-02 1.152946e-01 7.442337e-02 8.998070e-02 1.086154e-01 1.016357e-01 8.142027e-02 2.204807e-02 9.899399e-03 1.164911e-01
<VARIANCE> 39
 1.114625e+01 1.350399e+01 1.741980e+01 1.678193e+01 1.716621e+01 2.391895e+01 2.347943e+01 2.252571e+01 2.262997e+01 2.097375e+01 1.958245e+01 1.548681e+01 1.131276e-01 1.264790e+00 1.488203e+00 1.611530e+00 1.539198e+00 1.872678e+00 2.027602e+00 2.198707e+00 2.277059e+00 2.302245e+00 2.173607e+00 1.942394e+00 1.686718e+00 4.369757e-02 1.580721e-01 1.906695e-01 1.888321e-01 2.178814e-01 2.253999e-01 2.791179e-01 3.177206e-01 3.110560e-01 3.276837e-01 3.164274e-01 2.707016e-01 2.528617e-01 7.499873e-03
<GCONST> 8.689407e+01
<MIXTURE> 9 9.515810e-02
<MEAN> 39
 -9.657939e+00 4.192906e+00 -2.102735e-01 7.987116e+00 5.656226e+00 5.622310e+00 4.575887e+00 1.459758e+00 2.883118e+00 2.002345e+00 2.165202e+00 1.439366e+00 -1.048914e+01 6.715988e-02 -5.941054e-02 -1.143962e-01 -2.808176e-01 -2.905242e-01 -3.031784e-01 -2.236545e-01 -3.330446e-01 -4.348547e-01 -3.291885e-01 -3.453377e-01 -2.414074e-01 5.558418e-03 4.058996e-01 -2.225871e-01 -3.134829e-02 -4.037619e-01 -3.022865e-01 -3.477584e-01 -2.014937e-01 -1.483331e-01 -1.648576e-01 -1.525541e-01 -1.413715e-01 -2.074832e-02 2.511339e-01
<VARIANCE> 39
 7.491652e+00 8.861513e+00 1.327197e+01 1.591487e+01 1.720549e+01 1.954978e+01 2.160797e+01 2.146437e+01 2.424112e+01 1.878302e+01 2.134631e+01 1.600411e+01 1.131276e-01 3.316448e-01 4.041406e-01 6.043639e-01 8.092149e-01 9.608824e-01 1.113074e+00 1.254066e+00 1.377244e+00 1.391824e+00 1.491293e+00 1.362754e+00 1.208644e+00 4.759443e-03 2.477501e-01 3.642831e-01 4.185193e-01 4.091058e-01 4.748495e-01 4.562337e-01 4.729108e-01 5.036157e-01 4.915353e-01 4.710426e-01 4.006089e-01 3.710980e-01 2.554602e-02
<GCONST> 8.255849e+01
<MIXTURE> 10 8.187892e-02
<MEAN> 39
 -1.044143e+01 9.175711e-01 -5.372188e-01 2.184925e+00 4.943055e+00 1.636944e+00 3.420704e+00 6.189404e-01 1.162648e+00 2.909802e+00 1.733521e+00 1.630205e+00 -8.738385e+00 -1.368409e-01 -2.333374e-01 -6.203571e-02 -3.488255e-01 -9.256092e-02 -3.095434e-01 -1.884604e-01 -1.708246e-01 -2.181577e-01 -4.753616e-02 -1.008587e-01 -5.526749e-02 1.483115e-01 3.522376e-01 1.509210e-01 -1.155013e-01 2.705549e-01 -8.646055e-02 1.112053e-01 4.985754e-02 6.324290e-04 -4.060401e-03 -2.449943e-01 -1.541408e-01 -6.476710e-02 -2.620542e-02
<VARIANCE> 39
 2.645235e+01 3.348601e+01 3.887517e+01 3.556807e+01 3.954839e+01 4.407607e+01 3.238590e+01 3.554927e+01 3.223056e+01 2.724984e+01 2.235876e+01 2.001933e+01 1.619499e+00 1.323847e+00 1.598113e+00 1.566939e+00 1.815357e+00 1.805465e+00 1.993326e+00 1.952036e+00 1.994583e+00 2.073766e+00 1.850521e+00 1.610686e+00 1.479903e+00 1.353372e-01 3.711397e-01 5.552306e-01 5.508722e-01 5.694089e-01 5.656259e-01 5.827749e-01 5.042160e-01 5.273303e-01 5.250774e-01 4.249476e-01 3.310664e-01 3.539777e-01 3.780758e-02
<GCONST> 1.061271e+02
<MIXTURE> 11 8.103319e-02
<MEAN> 39
 -8.541111e+00 4.252551e+00 -5.959951e-01 7.284327e+00 5.076841e+00 4.770671e+00 4.112069e+00 1.186210e+00 2.475908e+00 1.903701e+00 1.502537e+00 1.288047e+00 -1.045043e+01 8.255678e-02 -4.005458e-01 -1.554778e-01 -3.200686e-01 -1.728086e-01 -1.477360e-01 -5.571928e-02 -2.751687e-01 -3.643849e-01 -3.216710e-01 -3.579669e-01 -2.488923e-01 8.014600e-02 1.435249e-01 -4.091155e-01 -1.431470e-01 -4.447845e-01 -2.787634e-01 -3.714963e-01 -1.765118e-01 -1.499731e-01 -2.129152e-01 -2.675002e-01 -2.110939e-01 -5.974091e-02 2.298820e-01
<VARIANCE> 39
 9.575489e+00 1.064517e+01 1.593144e+01 1.577004e+01 1.649516e+01 1.993131e+01 2.117119e+01 2.110033e+01 2.240438e+01 1.926182e+01 2.015432e+01 1.428506e+01 1.131276e-01 2.909677e+00 4.094356e+00 3.667505e+00 3.951663e+00 3.728319e+00 3.955890e+00 3.316139e+00 3.555678e+00 3.068732e+00 2.771702e+00 2.302971e+00 2.209152e+00 3.010006e-01 3.490750e-01 3.797055e-01 4.001475e-01 3.770791e-01 4.346549e-01 4.048981e-01 4.433607e-01 4.514340e-01 4.340358e-01 3.915589e-01 3.701263e-01 3.075748e-01 2.933929e-02
<GCONST> 1.014206e+02
<MIXTURE> 12 5.162332e-02
<MEAN> 39
 -4.299528e+00 -1.928014e-01 -3.924489e+00 2.268346e+00 1.634548e+00 1.349830e+00 3.680409e+00 8.193340e-01 3.457199e-01 -1.331409e+00 -1.597054e+00 3.370270e-01 -8.580140e+00 6.789700e-01 -1.079650e+00 -2.798137e-01 -1.429469e+00 -9.308504e-01 -1.280145e+00 -6.266721e-01 -3.890638e-01 -7.558401e-01 -8.276006e-01 -8.011445e-01 -3.801963e-01 5.945769e-01 -3.256319e-01 1.728572e-01 2.748780e-01 1.519585e-01 1.812447e-01 7.719311e-02 -6.140387e-02 -3.836174e-02 7.567669e-02 1.989239e-01 1.558611e-01 5.420105e-02 5.333683e-02
<VARIANCE> 39
 1.943534e+01 3.460351e+01 3.788995e+01 3.575199e+01 3.783271e+01 4.092276e+01 3.628406e+01 3.759174e+01 3.163255e+01 2.884756e+01 3.201971e+01 2.446349e+01 2.214274e+00 3.575445e+00 3.678081e+00 3.795091e+00 3.501100e+00 3.984051e+00 3.303258e+00 3.343372e+00 3.641576e+00 3.236449e+00 2.906077e+00 2.852524e+00 2.445828e+00 3.322700e-01 4.670246e-01 5.452980e-01 4.825268e-01 5.623878e-01 5.069433e-01 5.591858e-01 5.374165e-01 5.428109e-01 4.701351e-01 4.756285e-01 4.386681e-01 4.247900e-01 4.763020e-02
<GCONST> 1.161721e+02
~h "b"
<BEGINHMM>
<NUMSTATES> 5
<STATE> 2
<NUMMIXES> 12
<MIXTURE> 1 8.820566e-02
<MEAN> 39
 -8.041467e+00 4.865510e+00 3.846714e-01 9.010653e+00 8.012091e+00 6.075074e+00 3.228673e+00 -7.467056e-02 3.189212e+00 3.284874e+00 2.171416e+00 4.242485e-01 -1.027248e+01 -3.068508e-02 -2.486479e-01 -6.140829e-01 1.406646e+00 9.992927e-02 4.305384e-01 3.685140e-01 3.301731e-01 2.316719e-01 4.731646e-01 3.414525e-01 -4.429705e-02 -7.176972e-01 1.013726e-02 4.351280e-02 1.398110e-01 -7.232374e-01 -3.875457e-01 -5.741508e-01 -1.863461e-01 -3.232183e-02 -2.104742e-01 -4.169733e-01 -1.699905e-01 6.891056e-02 5.879293e-01
<VARIANCE> 39
 8.952493e+00 1.675967e+01 2.253214e+01 1.932754e+01 1.566975e+01 2.352809e+01 2.154183e+01 2.795250e+01 2.247482e+01 2.158752e+01 2.402207e+01 1.630574e+01 2.173040e-01 2.876914e+00 2.800331e+00 3.876611e+00 2.879763e+00 2.656378e+00 2.947332e+00 2.235109e+00 3.394519e+00 2.946091e+00 2.447202e+00 2.192699e+00 2.136250e+00 5.797340e-01 6.359400e-01 3.969395e-01 7.139161e-01 5.712485e-01 5.381202e-01 5.386008e-01 5.018972e-01 6.011428e-01 4.851963e-01 4.829474e-01 3.956029e-01 3.478109e-01 6.134333e-02
<GCONST> 1.063254e+02
<MIXTURE> 2 8.616740e-02
<MEAN> 39
 1.006069e+01 -3.749579e+00 2.402347e+00 3.436288e+00 -2.256677e+00 -7.045877e+00 -9.643608e+00 1.142844e-01 8.496885e-02 -1.124514e+00 1.981190e+00 -1.493376e+00 -2.468315e+00 1.238669e-01 3.965511e+00 -1.162945e+00 2.052997e+00 3.892880e+00 2.662638e+00 2.752207e-01 -3.179348e+00 -7.362451e-01 -3.867430e-01 -4.258734e-01 -8.867154e-01 -1.198394e+00 -7.706907e-01 9.332343e-01 3.112683e-01 1.064174e-02 1.232244e-01 7.440873e-01 9.667294e-01 -2.832077e-01 -4.316593e-01 -1.789910e-01 -2.881376e-01 3.876891e-02 -2.158764e-01
<VARIANCE> 39
 8.298661e+00 1.710097e+01 3.089429e+01 1.914773e+01 3.167099e+01 3.340090e+01 2.674099e+01 3.096662e+01 3.535428e+01 2.950837e+01 2.578822e+01 2.490749e+01 1.456634e+00 1.094204e+00 2.354059e+00 4.202161e+00 4.425891e+00 3.137474e+00 4.376081e+00 7.888920e+00 4.430036e+00 6.090098e+00 4.249899e+00 3.447541e+00 4.372276e+00 1.131225e-01 2.034099e-01 3.388239e-01 4.315754e-01 4.176527e-01 6.457980e-01 6.604536e-01 5.412933e-01 6.095214e-01 5.230803e-01 4.838551e-01 5.567611e-01 4.519139e-01 2.062481e-02
<GCONST> 1.113352e+02
<MIXTURE> 3 6.713808e-02
<MEAN> 39
 8.398338e+00 6.563106e+00 9.426675e-01 7.701707e+00 5.614754e+00 2.128733e+00 -3.538827e+00 -7.060355e+00 -3.348901e+00 -5.386227e-01 1.209253e+00 -3.552675e+00 -5.347147e+00 -8.670661e-01 4.428286e+00 -1.379768e-01 2.387091e+00 2.933906e+00 2.413495e+00 1.890934e+00 -2.250668e+00 -1.262107e+00 -4.497174e-01 -2.084776e-01 -2.729211e-01 -1.213603e+00 -6.411576e-01 -4.358446e-01 6.013166e-01 -4.071241e-01 -7.661173e-01 -4.505587e-01 1.142062e-01 7.143973e-01 1.087660e-01 -1.375807e-01 -1.973186e-01 3.589939e-01 1.485504e-01
<VARIANCE> 39
 6.691031e+00 1.622063e+01 1.541011e+01 1.821787e+01 1.681276e+01 2.419127e+01 2.071587e+01 1.990091e+01 2.512400e+01 2.265894e+01 2.018545e+01 2.125865e+01 1.583691e+00 1.150062e+00 1.877945e+00 4.445599e+00 5.005731e+00 4.398983e+00 4.762356e+00 5.212385e+00 3.906281e+00 5.571630e+00 4.970006e+00 3.230658e+00 3.287926e+00 9.660815e-02 1.721165e-01 4.455440e-01 4.398677e-01 3.893496e-01 5.145888e-01 4.967180e-01 5.074015e-01 4.610668e-01 5.792281e-01 4.332747e-01 4.033288e-01 3.603954e-01 2.473098e-02
<GCONST> 1.060125e+02
<MIXTURE> 4 9.025034e-02
<MEAN> 39
 6.437447e+00 8.799558e+00 2.621301e+00 9.866753e+00 2.477973e+00 -7.437092e-01 -1.035615e+00 -1.144527e+01 -9.727505e+00 -1.508986e-01 7.377638e-01 -3.841530e+00 -5.254318e+00 -2.934836e-01 1.085447e+00 2.451914e-01 2.569465e-01 1.640784e+00 9.005359e-01 -3.068273e-01 7.482289e-01 1.251512e-01 -1.187346e+00 2.382963e-01 6.028333e-01 -4.111052e-01 -2.744662e-01 -4.938782e-01 -7.066368e-02 -5.820664e-01 -1.843212e-01 5.597836e-02 1.007922e-01 6.148065e-01 7.812259e-01 1.253698e-01 -2.031389e-01 2.115692e-01 7.484113e-02
<VARIANCE> 39
 7.517300e+00 1.256307e+01 1.451055e+01 3.319310e+01 2.606322e+01 3.439253e+01 3.853153e+01 3.778934e+01 5.242761e+01 2.903902e+01 3.273824e+01 3.006830e+01 1.380972e+00 7.486857e-01 1.334177e+00 1.427190e+00 2.574128e+00 2.447922e+00 3.564215e+00 4.020687e+00 4.148900e+00 4.538070e+00 3.525865e+00 3.467166e+00 2.880904e+00 7.243022e-02 1.530548e-01 3.056509e-01 2.564123e-01 5.749751e-01 4.245059e-01 4.574442e-01 5.320197e-01 6.163471e-01 8.439377e-01 5.251579e-01 5.549742e-01 5.142546e-01 2.901188e-02
<GCONST> 1.064184e+02
<MIXTURE> 5 9.983757e-02
<MEAN> 39
 1.198040e+01 1.825142e+00 -5.061335e+00 -3.397733e+00 6.308749e-01 5.051045e+00 -4.750793e+00 -6.911967e+00 -3.288319e+00 -2.033748e+00 3.764660e+00 2.232078e+00 -3.037839e+00 -1.057755e+00 3.520297e+00 1.477576e+00 2.992138e+00 1.658827e+00 2.578166e-01 2.569031e+00 -7.625569e-01 -2.101295e+00 -1.922248e+00 -1.599025e+00 1.408322e-01 -1.275564e+00 -5.458767e-01 2.005799e-01 3.994290e-01 4.351544e-01 1.865284e-01 -2.333005e-01 1.715193e-01 3.640174e-01 2.519153e-01 1.189379e-01 -4.512972e-01 -4.164129e-01 -9.169395e-02
<VARIANCE> 39
 9.389494e+00 1.438673e+01 3.016640e+01 4.399982e+01 3.383769e+01 3.274501e+01 4.429465e+01 3.062925e+01 3.462176e+01 3.648323e+01 3.123184e+01 2.810800e+01 1.411476e+00 7.305275e-01 2.541171e+00 2.503263e+00 6.837855e+00 4.934697e+00 4.981701e+00 7.320912e+00 5.162926e+00 5.169356e+00 3.981165e+00 4.705159e+00 4.273933e+00 1.056570e-01 8.320515e-02 2.793886e-01 3.424838e-01 4.408430e-01 4.547027e-01 4.337957e-01 5.277528e-01 4.632027e-01 4.543264e-01 4.562474e-01 5.780142e-01 3.954023e-01 2.012372e-02
<GCONST> 1.106919e+02
<MIXTURE> 6 1.189779e-01
<MEAN> 39
 8.425786e-01 1.157053e+01 4.143541e+00 1.073537e+01 7.133617e+00 3.131352e+00 4.059526e-01 -6.512389e+00 -4.348690e+00 -2.219271e+00 -1.668158e+00 -1.785964e+00 -8.141669e+00 1.038649e+00 9.730424e-01 3.827959e-01 1.019744e+00 6.624140e-01 3.094454e-01 -2.523485e-01 -9.828388e-01 -1.047477e+00 -4.194554e-01 -1.503944e-01 -3.288781e-01 -1.724778e-01 -4.797063e-01 -6.626055e-01 -2.577277e-01 -5.777040e-01 -3.155029e-01 -1.499014e-01 4.274752e-02 4.450381e-01 3.970157e-01 1.567006e-01 1.549405e-01 1.764887e-01 1.909187e-01
<VARIANCE> 39
 2.566573e+01 1.997466e+01 2.217369e+01 2.554407e+01 2.365625e+01 2.539729e+01 3.467325e+01 2.764178e+01 2.902788e+01 2.397556e+01 1.825393e+01 1.885777e+01 1.810453e+00 5.099620e+00 2.964713e+00 2.749741e+00 4.327680e+00 2.908459e+00 3.237750e+00 3.383440e+00 3.960779e+00 3.318073e+00 2.768166e+00 2.316821e+00 2.376950e+00 6.868955e-01 5.551459e-01 6.293591e-01 5.341054e-01 7.324467e-01 6.890282e-01 5.273911e-01 5.733116e-01 6.270413e-01 5.831408e-01 5.308769e-01 4.298076e-01 3.887756e-01 6.904166e-02
<GCONST> 1.144180e+02
<MIXTURE> 7 6.680054e-02
<MEAN> 39
 -9.358413e+00 4.744868e+00 7.483986e-01 8.983782e+00 6.020005e+00 5.342259e+00 3.857340e+00 9.925647e-01 2.728493e+00 1.878413e+00 2.559048e+00 1.443195e+00 -1.048407e+01 7.371482e-01 -3.928266e-01 1.791774e-01 -4.943624e-01 -3.064912e-01 -5.366279e-01 5.865745e-03 1.565216e-01 2.429693e-01 3.231280e-02 1.428343e-01 2.483792e-01 6.180965e-01 1.026899e+00 -3.245075e-01 6.840627e-02 -8.656110e-01 -4.399316e-01 -5.006316e-01 -3.243979e-01 -1.467803e-01 -1.041971e-01 -4.602824e-02 -1.059914e-01 -7.010680e-02 6.721449e-01
<VARIANCE> 39
 6.379313e+00 9.044064e+00 1.177622e+01 1.619167e+01 1.336030e+01 1.618878e+01 2.012955e+01 1.891531e+01 2.168881e+01 1.509809e+01 1.759338e+01 1.370413e+01 1.131276e-01 8.802424e-01 1.050391e+00 1.117746e+00 1.384124e+00 1.306938e+00 1.339659e+00 1.758866e+00 1.710852e+00 1.766883e+00 1.773317e+00 1.377652e+00 1.160613e+00 2.200361e-01 2.629142e-01 2.579421e-01 4.329212e-01 5.030327e-01 4.154827e-01 5.188611e-01 4.778425e-01 4.381291e-01 4.630502e-01 4.126368e-01 3.705084e-01 3.164382e-01 4.111932e-02
<GCONST> 8.921297e+01
<MIXTURE> 8 9.280352e-02
<MEAN> 39
 1.167109e+01 -4.165457e+00 -3.918634e+00 -5.482663e+00 -9.840988e-02 -2.433453e+00 -5.821868e+00 -1.517641e+00 2.068412e+00 6.681162e+00 7.845213e-01 -3.846309e+00 -1.697859e+00 -3.349647e-01 4.730675e+00 1.750060e+00 3.920534e+00 1.300311e+00 1.107285e+00 -1.137203e+00 -3.438711e+00 -2.176539e+00 -1.211754e+00 1.475588e+00 -2.933485e-01 -1.438572e+00 -8.868210e-01 7.931613e-01 5.430619e-01 1.028021e+00 4.072486e-01 4.496362e-01 5.608506e-01 -1.296795e-01 -4.918218e-01 -1.139403e+00 -5.025472e-01 8.822319e-02 -3.111047e-01
<VARIANCE> 39
 8.756400e+00 2.121341e+01 2.893771e+01 4.106274e+01 2.571158e+01 5.906150e+01 4.396994e+01 4.279519e+01 4.145045e+01 3.112719e+01 3.790854e+01 2.797646e+01 1.189096e+00 1.184725e+00 1.951976e+00 3.185470e+00 3.544225e+00 4.098881e+00 7.219562e+00 7.114764e+00 5.230096e+00 4.488131e+00 6.084637e+00 3.140252e+00 5.069593e+00 1.340469e-01 1.730373e-01 4.114733e-01 3.526726e-01 5.356035e-01 5.428440e-01 6.487365e-01 6.092984e-01 7.100536e-01 6.366257e-01 4.354877e-01 6.803164e-01 5.355651e-01 2.497783e-02
<GCONST> 1.153086e+02
<MIXTURE> 9 9.214940e-02
<MEAN> 39
 7.717084e+00 8.217975e+00 6.252151e-01 5.100216e+00 2.058110e+00 -1.772361e-01 -2.764517e+00 -5.082449e+00 -5.630075e+00 -5.300530e+00 -2.774040e+00 -2.969816e+00 -5.334385e+00 -6.239757e-01 1.040569e+00 4.596939e-01 8.350399e-01 9.718415e-01 3.813350e-01 2.708233e-01 -4.857774e-02 1.474460e-01 -3.685287e-01 -3.013558e-01 4.595157e-02 -4.182541e-01 -3.811557e-01 -7.936572e-01 1.847072e-01 -3.401768e-01 -3.055572e-01 -8.630537e-02 2.171313e-02 1.777094e-01 3.817165e-01 5.158262e-01 3.603646e-01 2.890090e-01 1.850087e-01
<VARIANCE> 39
 8.238643e+00 2.852354e+01 2.632244e+01 3.800854e+01 3.072703e+01 4.558238e+01 5.205599e+01 3.824093e+01 4.506513e+01 3.388520e+01 4.254262e+01 4.257083e+01 2.769430e+00 1.062282e+00 2.136319e+00 1.763631e+00 2.921651e+00 2.781244e+00 2.677307e+00 3.023433e+00 3.152742e+00 3.581832e+00 3.178156e+00 3.271649e+00 2.570033e+00 1.532472e-01 2.420195e-01 4.813599e-01 6.016995e-01 8.064352e-01 6.435564e-01 5.863667e-01 9.262163e-01 8.793499e-01 8.727669e-01 7.051100e-01 7.135356e-01 7.225236e-01 2.988048e-02
<GCONST> 1.154330e+02
<MIXTURE> 10 6.994694e-02
<MEAN> 39
 1.128379e+01 4.636786e+00 -6.473587e+00 -5.076029e-01 3.945172e+00 1.733664e+00 -3.707757e+00 -6.424973e+00 -3.286240e+00 -1.467186e-01 3.228002e+00 1.938825e+00 -3.679621e+00 -2.306777e+00 4.324338e+00 3.487812e+00 3.211856e+00 1.258635e+00 1.047170e+00 1.913842e+00 -1.437137e+00 -2.268021e+00 -2.248971e+00 -9.915146e-01 -1.419548e-01 -1.565398e+00 -8.014320e-01 -3.211148e-01 5.541397e-01 4.071817e-01 -3.421333e-02 2.055196e-02 1.285935e-01 6.283751e-01 4.902588e-01 -7.974049e-02 -5.899066e-01 -4.917224e-01 -6.618006e-02
<VARIANCE> 39
 1.073318e+01 1.382990e+01 2.376784e+01 2.913113e+01 2.308624e+01 2.895516e+01 3.711319e+01 2.958674e+01 3.584214e+01 3.413774e+01 2.883093e+01 3.215409e+01 1.474947e+00 1.564680e+00 2.445059e+00 4.266122e+00 6.608376e+00 5.361162e+00 6.534424e+00 8.931834e+00 8.226851e+00 5.809647e+00 5.260319e+00 4.132016e+00 3.412657e+00 1.476048e-01 2.347362e-01 3.240619e-01 4.354897e-01 3.915920e-01 4.470763e-01 4.998597e-01 5.780413e-01 6.228380e-01 6.441910e-01 5.592310e-01 5.340384e-01 4.981604e-01 2.737027e-02
<GCONST> 1.149324e+02
<MIXTURE> 11 6.220126e-02
<MEAN> 39
 8.496029e+00 6.005120e+00 4.823715e-01 6.856184e+00 4.405595e+00 9.191382e-01 -5.201171e+00 -7.905360e+00 -3.828553e+00 -1.067422e+00 5.054322e-01 -4.348691e+00 -5.366670e+00 -1.093196e+00 4.279482e+00 2.818406e-01 2.494236e+00 2.204011e+00 2.095612e+00 1.239208e+00 -2.499808e+00 -1.489477e+00 -1.177339e+00 -5.768428e-01 -7.438667e-01 -1.250717e+00 -7.015159e-01 -5.244471e-01 4.968179e-01 -4.830434e-01 -7.131426e-01 -4.808508e-01 2.272147e-01 8.333496e-01 1.770130e-01 -1.595576e-01 -2.734653e-01 3.509770e-01 1.605401e-01
<VARIANCE> 39
 6.679456e+00 1.822038e+01 1.503610e+01 1.992149e+01 1.812432e+01 2.894303e+01 2.542152e+01 2.146478e+01 2.666427e+01 2.458353e+01 2.382096e+01 2.157253e+01 1.678642e+00 1.215561e+00 1.936159e+00 4.282852e+00 4.948658e+00 4.972738e+00 4.589257e+00 5.853478e+00 4.542097e+00 5.094113e+00 5.282434e+00 3.579295e+00 3.553114e+00 1.163593e-01 2.100113e-01 4.402475e-01 4.785150e-01 3.776772e-01 4.942724e-01 5.737415e-01 5.605542e-01 5.106574e-01 5.649790e-01 5.087277e-01 4.497902e-01 3.972593e-01 2.555552e-02
<GCONST> 1.087544e+02
<MIXTURE> 12 6.551734e-02
<MEAN> 39
 -9.632557e+00 4.517765e+00 3.113524e-01 8.731970e+00 5.769711e+00 5.485656e+00 3.581736e+00 2.827518e-01 2.274088e+00 1.032688e+00 2.117520e+00 1.218393e+00 -1.049438e+01 5.580169e-01 -7.321252e-01 -2.716505e-01 -8.479034e-01 -8.123466e-01 -1.033978e+00 -4.107028e-01 -2.578318e-01 -1.777212e-01 -5.053555e-01 -3.747001e-01 -9.064259e-02 5.178819e-01 9.327600e-01 -3.364288e-01 9.842870e-02 -8.729577e-01 -4.625655e-01 -6.206289e-01 -4.212760e-01 -1.313945e-01 -8.669949e-02 -7.741453e-02 -1.485012e-01 -1.386165e-01 6.603248e-01
<VARIANCE> 39
 6.286682e+00 9.305396e+00 1.256193e+01 1.837574e+01 1.328720e+01 1.720409e+01 1.951342e+01 2.028720e+01 2.049677e+01 1.475044e+01 1.777085e+01 1.447027e+01 1.131276e-01 9.043676e-01 1.221007e+00 1.174176e+00 1.304913e+00 1.316633e+00 1.447794e+00 1.624798e+00 1.629198e+00 1.756725e+00 1.651626e+00 1.233667e+00 1.199967e+00 2.751928e-01 3.057881e-01 3.048060e-01 4.570022e-01 4.709713e-01 4.249231e-01 5.518182e-01 3.805736e-01 4.242694e-01 4.618987e-01 4.099939e-01 3.649559e-01 3.100030e-01 4.718772e-02
<GCONST> 8.991500e+01
<STATE> 3
<NUMMIXES> 12
<MIXTURE> 1 7.643473e-02
<MEAN> 39
 4.119637e+00 1.274441e+01 3.956066e+00 9.822874e+00 8.013103e+00 4.824629e+00 1.133570e+00 -7.508126e+00 -6.416775e+00 -3.156229e+00 -1.751079e+00 -1.137827e+00 -7.592136e+00 -2.092549e-01 1.712671e-01 2.078876e-01 2.982432e-01 3.414698e-01 6.229316e-02 -4.965744e-02 2.188548e-01 1.183582e-01 3.812691e-02 -3.499179e-02 1.985470e-03 -6.581571e-02 -1.607717e-01 -3.874668e-01 -1.358716e-01 -2.285883e-01 -1.964180e-01 -1.919623e-01 -3.813407e-02 2.108471e-01 3.372295e-01 1.863254e-01 -3.389038e-02 5.432583e-02 8.414577e-02
<VARIANCE> 39
 1.544622e+01 1.095492e+01 1.502551e+01 1.721964e+01 1.599331e+01 2.253943e+01 2.500583e+01 2.573484e+01 2.298362e+01 2.309129e+01 2.395780e+01 1.990237e+01 1.624200e+00 5.004379e-01 4.686705e-01 6.269927e-01 9.216919e-01 8.534885e-01 9.007168e-01 1.116262e+00 1.321813e+00 1.321477e+00 1.534915e+00 1.519224e+00 9.936146e-01 5.109574e-02 1.204385e-01 1.860688e-01 1.363420e-01 1.966681e-01 1.939487e-01 2.149941e-01 2.739811e-01 3.496793e-01 3.196474e-01 3.212987e-01 2.913136e-01 2.236710e-01 2.078458e-02
<GCONST> 8.209721e+01
<MIXTURE> 2 9.625763e-02
<MEAN> 39
 6.739280e+00 1.170697e+01 1.090741e+00 6.551778e+00 6.832791e+00 5.003584e+00 1.504218e+00 -7.841150e+00 -7.827107e+00 -5.043195e+00 -1.094990e+00 3.606458e-01 -6.487445e+00 -1.690931e+00 2.785825e+00 1.894678e+00 2.102591e+00 1.368450e+00 5.370424e-01 1.742450e+00 -4.968713e-01 -1.314910e+00 -7.861898e-01 -9.039860e-01 -2.978207e-01 -9.259458e-01 -9.048898e-03 -1.102891e+00 -1.446027e-01 -5.862672e-01 -6.338370e-01 -3.934293e-01 -7.792065e-01 4.972092e-01 8.413996e-01 5.141648e-01 1.888934e-01 -1.013321e-01 3.007729e-01
<VARIANCE> 39
 1.101849e+01 1.190763e+01 1.726543e+01 1.571470e+01 1.947793e+01 1.665442e+01 2.128125e+01 2.268443e+01 2.007054e+01 2.415445e+01 2.711150e+01 2.062295e+01 8.423749e-01 5.522825e-01 1.777927e+00 1.904524e+00 3.203252e+00 2.869153e+00 2.837579e+00 3.660744e+00 2.676126e+00 2.809611e+00 2.531733e+00 2.740060e+00 2.460255e+00 1.031824e-01 1.259873e-01 2.950713e-01 3.525633e-01 4.899902e-01 4.072743e-01 5.342993e-01 4.890912e-01 6.197546e-01 5.696049e-01 4.327206e-01 6.049546e-01 3.991463e-01 1.515477e-02
<GCONST> 9.944773e+01
<MIXTURE> 3 1.177260e-01
<MEAN> 39
 -8.030991e+00 4.523048e+00 4.415398e-01 8.105054e+00 5.750311e+00 4.884610e+00 3.643502e+00 3.369349e-01 2.051702e+00 1.590063e+00 1.625616e+00 8.983338e-01 -9.810588e+00 2.356447e+00 -1.083683e+00 4.858883e-02 -1.813662e+00 -1.352399e+00 -1.759527e+00 -7.241903e-01 -7.471371e-02 1.693230e-01 -2.965594e-01 -1.933224e-01 -9.124333e-03 1.642411e+00 1.247275e+00 -5.347465e-01 -3.474702e-02 -1.030886e+00 -7.337956e-01 -3.799431e-01 -5.574325e-01 -1.986880e-01 -2.139291e-01 3.135251e-02 -4.960152e-02 -1.675495e-01 6.047283e-01
<VARIANCE> 39
 1.148160e+01 1.642981e+01 1.613735e+01 2.069332e+01 2.119650e+01 2.208621e+01 2.008896e+01 2.477081e+01 2.441786e+01 2.022463e+01 2.308022e+01 1.596675e+01 1.189003e+00 2.494231e+00 2.009872e+00 3.065852e+00 3.348314e+00 2.733058e+00 3.359883e+00 2.965027e+00 2.680289e+00 3.308461e+00 2.840040e+00 2.251259e+00 2.037771e+00 2.818387e-01 2.782005e-01 4.630736e-01 8.632783e-01 7.515573e-01 7.042523e-01 7.848779e-01 6.758900e-01 6.773919e-01 7.698911e-01 6.132696e-01 6.683423e-01 4.613166e-01 3.658302e-02
<GCONST> 1.090084e+02
<MIXTURE> 4 5.440015e-02
<MEAN> 39
 3.484326e+00 1.317232e+01 7.145005e+00 1.261350e+01 5.488880e+00 -4.187811e-01 -7.179117e+00 -9.110824e+00 -3.477448e+00 -3.006564e+00 -2.177724e+00 -5.532898e+00 -7.116897e+00 -2.240694e+00 3.758166e-01 1.132861e+00 9.655835e-01 1.033850e+00 1.191836e+00 1.303718e+00 8.256646e-01 2.071105e-02 -7.689736e-01 9.236519e-02 6.782179e-01 -5.666243e-01 3.178720e-02 -1.827909e+00 -8.651279e-01 -1.451587e+00 -8.339130e-01 -2.531284e-01 8.099620e-01 1.216874e+00 6.195890e-01 5.869101e-01 3.759807e-01 6.639277e-01 4.501059e-01
<VARIANCE> 39
 9.095008e+00 8.856127e+00 1.266606e+01 1.744180e+01 2.343303e+01 2.207771e+01 2.623928e+01 2.331115e+01 2.389771e+01 2.877016e+01 2.234416e+01 2.009546e+01 1.651837e+00 1.782120e+00 2.607132e+00 2.211987e+00 3.178364e+00 2.051335e+00 2.739318e+00 2.749213e+00 2.847546e+00 2.539378e+00 2.782301e+00 2.653168e+00 2.070186e+00 3.624857e-01 2.899033e-01 4.402406e-01 7.877737e-01 5.514334e-01 7.695168e-01 7.292877e-01 6.054568e-01 7.694430e-01 9.941701e-01 8.570606e-01 6.536335e-01 5.806193e-01 4.948635e-02
<GCONST> 1.088159e+02
<MIXTURE> 5 5.910604e-02
<MEAN> 39
 1.793803e+00 1.462483e+01 6.221596e+00 9.291963e+00 7.466586e+00 5.048812e+00 3.163800e+00 -4.861789e+00 -6.857251e+00 -5.502441e+00 -3.521775e+00 5.462652e-02 -7.940827e+00 -1.515554e+00 -3.666919e-01 6.856517e-01 8.085121e-01 7.567511e-01 2.958507e-01 3.415586e-01 8.051412e-01 9.263327e-01 2.988396e-01 -1.923924e-01 -7.324438e-02 -2.903976e-01 3.528300e-01 -1.364025e+00 -1.029285e+00 -1.084161e+00 -6.035826e-01 -3.278786e-01 -4.334191e-01 3.075065e-02 7.135020e-01 7.885251e-01 6.172986e-01 1.410733e-01 4.453718e-01
<VARIANCE> 39
 1.338315e+01 7.284924e+00 1.380107e+01 2.165176e+01 2.203773e+01 1.747207e+01 2.101387e+01 2.174403e+01 1.958306e+01 1.723996e+01 2.087090e+01 1.660813e+01 1.509162e+00 1.212988e+00 1.502161e+00 1.343460e+00 1.707284e+00 1.482068e+00 1.279920e+00 1.926713e+00 1.773708e+00 2.087403e+00 2.125545e+00 1.674853e+00 1.408268e+00 1.534925e-01 2.445530e-01 3.082636e-01 3.554494e-01 5.922395e-01 5.956789e-01 4.575370e-01 5.609931e-01 4.845020e-01 4.209962e-01 3.768016e-01 4.708912e-01 3.824430e-01 3.768736e-02
<GCONST> 9.630975e+01
<MIXTURE> 6 1.079805e-01
<MEAN> 39
 7.555640e+00 7.437258e+00 -5.956518e-02 4.189106e+00 2.424699e+00 2.112862e+00 -1.240415e+00 -6.904081e+00 -7.287258e+00 -4.837823e+00 -1.333914e+00 -1.412237e+00 -5.352756e+00 -9.076619e-01 -3.415132e-01 2.676116e-01 -4.223027e-01 1.309766e-01 -6.260095e-02 1.674944e-01 6.728081e-01 1.095222e+00 2.812772e-01 -6.877422e-02 4.092841e-01 -5.750760e-03 4.291530e-02 -1.077593e+00 -1.702047e-01 -8.517765e-01 -5.407874e-01 -3.376603e-01 -4.863939e-01 4.578872e-01 6.498246e-01 6.729950e-01 4.680683e-01 1.438685e-01 4.023986e-01
<VARIANCE> 39
 1.249512e+01 3.133794e+01 2.705572e+01 3.651151e+01 3.049464e+01 4.414051e+01 4.990724e+01 4.147615e+01 4.426542e+01 4.209687e+01 4.305847e+01 4.086868e+01 2.282408e+00 1.835792e+00 2.601528e+00 2.828813e+00 4.978933e+00 3.060664e+00 3.269175e+00 3.883544e+00 4.679886e+00 6.232905e+00 3.584839e+00 4.201225e+00 3.111438e+00 2.272124e-01 3.562860e-01 5.371798e-01 8.140348e-01 9.992700e-01 8.755304e-01 8.184520e-01 1.057571e+00 1.093129e+00 9.857620e-01 9.200385e-01 8.709924e-01 7.013404e-01 3.577537e-02
<GCONST> 1.228492e+02
<MIXTURE> 7 8.880755e-02
<MEAN> 39
 7.183805e+00 1.025625e+01 2.962188e+00 9.226828e+00 3.679644e+00 -4.182604e-01 -8.794720e+00 -1.007716e+01 -3.723659e+00 -1.528577e+00 -1.229274e+00 -7.114566e+00 -6.187047e+00 -2.197740e+00 3.678609e+00 2.061949e+00 3.502240e+00 1.273367e+00 1.193970e+00 -6.968348e-02 -1.897504e+00 -1.438953e+00 -1.917472e+00 -4.425088e-01 -6.301941e-01 -1.281713e+00 -5.142499e-01 -1.544516e+00 -3.294214e-01 -1.236515e+00 -4.439417e-01 -1.719628e-01 9.217965e-01 1.429310e+00 5.539536e-01 2.079111e-01 -1.187643e-01 7.264245e-01 3.380690e-01
<VARIANCE> 39
 6.309358e+00 1.247951e+01 1.478425e+01 2.302510e+01 2.099820e+01 2.569056e+01 2.356524e+01 3.064436e+01 3.085745e+01 3.104608e+01 3.222470e+01 2.197219e+01 1.301375e+00 1.760717e+00 2.438919e+00 3.384816e+00 4.422863e+00 3.356454e+00 5.128186e+00 3.979403e+00 4.475304e+00 4.597746e+00 3.961181e+00 3.608137e+00 3.572343e+00 2.104635e-01 2.615918e-01 3.971758e-01 5.251910e-01 5.573766e-01 6.737962e-01 7.280000e-01 8.031210e-01 8.107824e-01 8.929032e-01 9.105040e-01 7.934042e-01 6.099992e-01 4.326464e-02
<GCONST> 1.135185e+02
<MIXTURE> 8 1.230812e-01
<MEAN> 39
 6.119237e+00 1.235246e+01 1.745501e+00 9.297484e+00 7.920875e+00 4.869985e+00 -6.948810e-01 -1.067884e+01 -7.681048e+00 -2.249810e+00 1.515156e+00 -1.693341e+00 -6.939659e+00 -1.045120e+00 -2.861585e-02 3.649471e-01 2.012079e-02 1.365180e-01 -1.355552e-01 2.698690e-01 2.892885e-01 6.029202e-01 3.950330e-02 -3.959997e-01 2.909921e-01 -6.041803e-02 -6.204840e-02 -1.608046e+00 -1.641848e-01 -1.051712e+00 -1.062152e+00 -8.003289e-01 -4.037410e-01 9.611862e-01 9.903991e-01 3.764958e-01 -3.938485e-02 9.884719e-02 4.667563e-01
<VARIANCE> 39
 8.228270e+00 7.527602e+00 1.130708e+01 1.880388e+01 1.722707e+01 2.077103e+01 2.218562e+01 1.517042e+01 2.107463e+01 2.095772e+01 1.590107e+01 2.173098e+01 9.464995e-01 1.079204e+00 2.189623e+00 1.083759e+00 1.850540e+00 1.598589e+00 1.765422e+00 1.850027e+00 1.886231e+00 2.430628e+00 2.016423e+00 2.023532e+00 1.523337e+00 1.694661e-01 2.474735e-01 4.033144e-01 5.131980e-01 5.894666e-01 5.568250e-01 5.050559e-01 6.067972e-01 5.387463e-01 5.887036e-01 6.230849e-01 4.095441e-01 4.175278e-01 3.092328e-02
<GCONST> 9.739366e+01
<MIXTURE> 9 8.113387e-02
<MEAN> 39
 6.936508e+00 1.277331e+01 1.552723e+00 4.639453e+00 4.154380e+00 6.039859e+00 2.592632e+00 -7.182675e+00 -8.949711e+00 -6.868110e+00 -2.455076e+00 3.743585e-01 -6.674644e+00 -2.278432e+00 2.984215e+00 2.457661e+00 2.809740e+00 1.099384e+00 4.213716e-01 1.852342e+00 1.338640e-01 -8.180858e-01 -1.623275e+00 -1.989981e+00 -5.592690e-01 -1.192627e+00 -1.772554e-01 -1.666541e+00 -4.882666e-01 -7.133192e-01 -3.381691e-01 -5.645659e-01 -8.841195e-01 5.696352e-01 1.190424e+00 1.040169e+00 4.331610e-01 -1.496135e-01 4.020377e-01
<VARIANCE> 39
 1.010314e+01 1.015507e+01 1.539986e+01 1.961291e+01 2.071807e+01 1.954073e+01 2.434988e+01 3.032528e+01 1.991844e+01 2.554701e+01 2.646826e+01 1.690760e+01 1.443713e+00 1.716598e+00 2.389900e+00 3.881560e+00 4.548980e+00 4.016144e+00 4.448694e+00 4.030633e+00 4.777647e+00 3.707178e+00 4.152947e+00 2.885119e+00 2.628736e+00 1.981519e-01 3.042133e-01 4.774552e-01 6.141955e-01 9.336480e-01 6.515099e-01 7.471591e-01 7.406594e-01 9.285932e-01 6.468940e-01 5.979041e-01 6.209279e-01 4.245631e-01 4.468260e-02
<GCONST> 1.116237e+02
<MIXTURE> 10 8.140649e-02
<MEAN> 39
 4.860751e+00 1.251425e+01 5.267130e+00 1.205523e+01 6.255092e+00 5.882560e-01 -4.007058e+00 -6.868639e+00 -1.617851e+00 -1.356171e+00 -2.310850e+00 -4.508034e+00 -7.292666e+00 -6.996788e-01 4.440154e-01 5.968866e-01 5.359652e-01 2.965907e-01 1.046670e-01 1.854475e-01 1.010638e-01 1.595412e-02 -1.544206e-01 -1.781420e-01 9.931407e-02 -2.178068e-01 -8.621538e-02 -8.607077e-01 -3.408262e-01 -6.998568e-01 -2.916124e-01 -1.590717e-02 2.567138e-01 3.441344e-01 2.226449e-02 -1.788483e-02 1.341376e-01 3.494971e-01 2.055130e-01
<VARIANCE> 39
 1.167909e+01 9.853076e+00 1.344412e+01 2.413892e+01 1.950936e+01 2.525079e+01 2.702559e+01 2.210455e+01 1.807751e+01 2.570927e+01 2.078257e+01 1.593162e+01 1.115775e+00 3.660404e-01 8.198927e-01 8.803399e-01 1.030355e+00 8.740034e-01 1.021852e+00 1.144581e+00 1.083125e+00 1.124787e+00 1.322697e+00 1.185092e+00 1.053058e+00 4.145372e-02 1.470120e-01 2.389660e-01 2.457283e-01 3.629926e-01 3.200833e-01 3.727780e-01 3.530424e-01 3.499091e-01 3.231938e-01 3.774488e-01 3.313498e-01 2.690183e-01 2.212509e-02
<GCONST> 8.477207e+01
<MIXTURE> 11 6.001505e-02
<MEAN> 39
 2.083025e+00 1.423072e+01 5.792871e+00 8.845583e+00 6.710578e+00 4.921512e+00 2.880625e+00 -4.980391e+00 -7.114158e+00 -6.122825e+00 -4.068200e+00 -3.382454e-01 -7.997331e+00 -1.688016e+00 -6.031365e-01 5.023185e-01 5.802791e-01 4.017357e-01 -7.370795e-02 2.552296e-01 6.989681e-01 7.993253e-01 1.383336e-01 -4.534399e-01 -3.394671e-01 -2.763006e-01 2.763582e-01 -1.475983e+00 -1.037393e+00 -1.099211e+00 -5.795871e-01 -3.661431e-01 -4.913389e-01 5.623385e-03 7.073253e-01 8.080530e-01 7.073027e-01 1.885682e-01 4.449554e-01
<VARIANCE> 39
 1.461214e+01 7.950130e+00 1.471828e+01 2.288876e+01 2.327768e+01 1.760645e+01 2.071804e+01 2.062145e+01 1.985910e+01 1.916465e+01 2.091320e+01 1.563576e+01 1.534822e+00 1.547549e+00 1.792309e+00 1.316128e+00 1.706876e+00 1.413780e+00 1.313516e+00 1.703261e+00 1.683351e+00 2.037233e+00 2.106628e+00 1.827422e+00 1.288144e+00 1.750983e-01 2.706227e-01 3.675478e-01 3.430179e-01 6.244747e-01 5.649151e-01 4.452324e-01 5.388115e-01 5.235633e-01 4.513326e-01 4.199024e-01 4.401309e-01 3.692137e-01 3.938904e-02
<GCONST> 9.734830e+01
<MIXTURE> 12 5.364191e-02
<MEAN> 39
 3.710173e+00 1.256872e+01 6.473906e+00 1.186113e+01 5.281566e+00 -9.721829e-01 -7.894120e+00 -9.589672e+00 -4.162051e+00 -3.509822e+00 -2.813562e+00 -6.248886e+00 -7.165780e+00 -2.285777e+00 2.938263e-01 9.382734e-01 8.155239e-01 7.164316e-01 8.223354e-01 1.071518e+00 4.170469e-01 -4.285330e-01 -1.085544e+00 -3.061766e-01 2.686247e-01 -5.373200e-01 -4.019678e-03 -1.881648e+00 -8.302476e-01 -1.490641e+00 -8.689027e-01 -2.482993e-01 7.467131e-01 1.227412e+00 6.694034e-01 5.963873e-01 3.592687e-01 6.391507e-01 4.558126e-01
<VARIANCE> 39
 9.174780e+00 1.118333e+01 1.293248e+01 1.790053e+01 2.210155e+01 2.028807e+01 2.706610e+01 2.525043e+01 2.503908e+01 2.679360e+01 2.370590e+01 2.121007e+01 1.693515e+00 2.090288e+00 2.436057e+00 2.201168e+00 3.179385e+00 2.259473e+00 2.981205e+00 2.597395e+00 2.522442e+00 2.656329e+00 2.500237e+00 2.286782e+00 2.014205e+00 4.011367e-01 3.389233e-01 4.712074e-01 8.399420e-01 6.061992e-01 8.097742e-01 7.810557e-01 6.134201e-01 7.870092e-01 1.062338e+00 8.446161e-01 6.074300e-01 5.433242e-01 5.766259e-02
<GCONST> 1.097430e+02
<STATE> 4
<NUMMIXES> 12
<MIXTURE> 1 8.000918e-02
<MEAN> 39
 4.295768e-01 1.267148e+01 7.798622e+00 1.338258e+01 5.492650e+00 1.715184e+00 -4.913599e+00 -8.473372e+00 -5.355082e+00 -5.839300e+00 -2.843125e+00 -4.354859e+00 -8.130236e+00 -2.866585e+00 -2.233841e+00 -6.975664e-01 -6.548110e-01 2.554495e-01 8.581491e-01 2.432904e+00 2.792347e+00 1.965388e+00 6.642905e-01 8.009160e-01 1.207180e+00 -1.451886e-01 6.254576e-01 -1.578749e+00 -1.194744e+00 -1.686569e+00 -7.249013e-01 -4.220051e-01 2.618538e-01 8.699082e-01 7.987130e-01 1.010997e+00 4.928592e-01 3.720605e-01 5.940820e-01
<VARIANCE> 39
 1.297473e+01 9.906495e+00 1.315160e+01 1.780260e+01 1.920179e+01 2.084985e+01 3.076301e+01 2.483934e+01 2.084448e+01 2.261868e+01 1.615499e+01 1.906159e+01 2.036677e+00 2.025847e+00 2.146364e+00 2.142509e+00 3.325575e+00 2.171945e+00 3.288745e+00 2.421769e+00 3.139988e+00 3.343747e+00 3.272445e+00 3.384306e+00 2.352712e+00 5.217500e-01 5.239056e-01 6.111942e-01 6.933442e-01 7.632864e-01 7.234237e-01 6.844902e-01 6.396136e-01 7.162212e-01 6.308103e-01 6.886796e-01 5.360868e-01 4.858618e-01 6.060247e-02
<GCONST> 1.102214e+02
<MIXTURE> 2 8.960800e-02
<MEAN> 39
 -6.826712e+00 3.480689e+00 2.205417e+00 8.583506e+00 7.189439e+00 4.692538e+00 2.803448e+00 4.561573e-01 1.900514e+00 -8.780190e-02 8.515821e-01 -3.115011e-01 -8.284050e+00 -6.673549e-02 -3.204382e+00 -1.940261e+00 -2.584051e+00 -1.219569e+00 -9.724880e-01 4.395200e-01 1.648711e+00 1.992813e+00 1.726625e+00 1.456720e+00 1.159332e+00 1.049257e+00 1.830187e+00 1.395061e-01 -1.866504e-01 -9.050674e-01 -8.041078e-01 -6.197819e-01 -8.642921e-01 -6.631135e-01 -6.751155e-01 -1.501559e-01 -1.261790e-01 -1.216522e-01 5.622317e-01
<VARIANCE> 39
 1.152110e+01 1.981192e+01 1.809852e+01 2.136372e+01 1.720099e+01 2.481028e+01 2.354774e+01 2.392953e+01 2.293785e+01 2.270779e+01 2.343439e+01 1.564754e+01 4.322332e+00 2.635414e+00 1.728171e+00 2.379891e+00 3.248165e+00 2.933754e+00 3.189906e+00 4.041402e+00 4.207603e+00 3.058179e+00 2.873007e+00 2.698028e+00 2.333352e+00 4.409881e-01 3.930416e-01 5.602474e-01 8.847237e-01 8.968105e-01 6.418231e-01 9.565889e-01 7.917502e-01 7.294780e-01 7.256506e-01 7.662240e-01 6.915510e-01 5.355214e-01 6.908592e-02
<GCONST> 1.138706e+02
<MIXTURE> 3 8.975803e-02
<MEAN> 39
 4.747841e+00 3.524858e+00 -3.637144e+00 -4.554227e+00 1.506504e-01 2.213585e+00 1.341371e+00 -5.099617e+00 -1.542127e+00 1.728796e+00 2.519642e+00 3.197899e+00 -2.988475e+00 2.932160e+00 -2.998094e+00 -2.574110e+00 -5.247591e+00 -2.895203e+00 1.260325e+00 -1.003824e+00 -3.154221e-01 1.513647e+00 1.471129e+00 2.211458e+00 -7.619789e-02 1.700266e+00 2.172425e-01 9.174681e-02 1.980873e-01 3.474874e-01 1.348675e-01 5.651503e-01 -3.112673e-02 -4.216763e-02 -8.232463e-02 -2.909599e-01 -1.597560e-01 -6.229107e-01 -1.369984e-01
<VARIANCE> 39
 2.225648e+01 1.446287e+01 1.562476e+01 3.397459e+01 2.648060e+01 2.843569e+01 2.459587e+01 2.373970e+01 2.447759e+01 2.798895e+01 2.407687e+01 1.494581e+01 1.643280e+00 3.643862e+00 5.411412e+00 4.268045e+00 6.440506e+00 5.165425e+00 5.389283e+00 7.060939e+00 6.648664e+00 6.557462e+00 4.729284e+00 4.352651e+00 4.509646e+00 3.342825e-01 4.123752e-01 4.991554e-01 3.584561e-01 6.518710e-01 6.687486e-01 6.386044e-01 6.231779e-01 5.819735e-01 6.832727e-01 5.878885e-01 5.401648e-01 4.089319e-01 4.088663e-02
<GCONST> 1.178992e+02
<MIXTURE> 4 8.254012e-02
<MEAN> 39
 3.645269e+00 1.069601e+01 3.391099e+00 8.071064e+00 5.653657e+00 3.539965e+00 -3.006179e-01 -8.651489e+00 -7.131721e+00 -4.426062e+00 8.205116e-02 -7.144784e-01 -6.322431e+00 3.904287e-01 -3.070261e+00 -2.173518e+00 -3.977671e+00 -1.483111e+00 -2.525768e-01 -1.782879e-01 1.592868e+00 2.554342e+00 1.881779e+00 8.340985e-01 4.575179e-01 1.151257e+00 7.137591e-01 -1.200192e+00 -8.306802e-01 -1.471335e+00 -6.260799e-01 1.187083e-02 -2.430638e-01 4.879172e-01 6.397700e-01 8.565793e-01 1.358762e-01 -2.539123e-01 4.515679e-01
<VARIANCE> 39
 1.387219e+01 1.999586e+01 2.296588e+01 2.775043e+01 2.485354e+01 2.500394e+01 3.055756e+01 2.061233e+01 2.634266e+01 2.118671e+01 2.142907e+01 2.190947e+01 1.799562e+00 1.371553e+00 2.509477e+00 2.075012e+00 4.263958e+00 3.076423e+00 2.936661e+00 3.975077e+00 3.478568e+00 3.994449e+00 3.070931e+00 3.378871e+00 2.613739e+00 2.303073e-01 2.923201e-01 5.969227e-01 5.371892e-01 8.514868e-01 7.293238e-01 9.279934e-01 8.679360e-01 7.710589e-01 8.318923e-01 7.218768e-01 7.738990e-01 5.401589e-01 2.876887e-02
<GCONST> 1.129113e+02
<MIXTURE> 5 9.606937e-02
<MEAN> 39
 4.482078e+00 9.802407e+00 2.851168e+00 1.003211e+01 7.441015e+00 1.097866e+00 -3.371151e+00 -8.494793e+00 -3.031471e+00 -5.730420e-01 -7.558005e-01 -3.817890e+00 -6.463317e+00 -1.084158e+00 -2.873418e+00 6.294305e-01 -1.607738e+00 -2.202373e+00 -1.889329e+00 2.822689e-01 2.156818e+00 1.185184e+00 1.121409e-01 8.707715e-03 1.170955e+00 8.230945e-01 1.806535e-01 -1.180762e+00 3.327408e-01 -1.000818e+00 -1.336717e+00 -4.608771e-01 -1.300803e-01 8.333582e-01 -7.914504e-02 -5.674069e-02 1.692399e-01 3.306873e-01 4.094763e-01
<VARIANCE> 39
 1.492806e+01 1.860164e+01 1.742829e+01 2.686981e+01 2.350622e+01 3.058800e+01 2.763081e+01 2.151261e+01 2.435384e+01 2.151382e+01 2.186526e+01 2.208350e+01 1.931866e+00 2.122015e+00 3.370926e+00 2.916256e+00 4.250781e+00 3.381652e+00 3.550688e+00 4.725128e+00 3.259536e+00 4.831890e+00 2.989517e+00 2.870207e+00 2.395722e+00 3.385473e-01 3.457598e-01 5.191696e-01 6.295384e-01 5.660033e-01 7.863272e-01 7.181526e-01 7.262686e-01 7.054794e-01 8.948682e-01 6.682086e-01 5.048133e-01 4.717633e-01 2.768258e-02
<GCONST> 1.132125e+02
<MIXTURE> 6 5.071495e-02
<MEAN> 39
 -1.177067e+00 5.033050e-01 4.441106e+00 7.154765e+00 6.899891e-01 -5.747451e+00 -9.907532e-02 1.691514e+00 1.887915e+00 -2.546687e+00 4.805684e-02 1.558057e+00 -4.491395e+00 1.486673e+00 -2.740783e+00 3.023613e+00 -2.030855e+00 -4.464884e+00 -2.458827e+00 -8.878798e-01 1.245646e+00 -1.484940e+00 -1.817630e-01 9.163021e-01 9.616376e-01 1.513868e+00 3.896641e-01 4.581602e-01 6.568656e-01 -4.232772e-01 -4.765023e-01 6.384410e-01 -3.143347e-01 -6.359878e-01 -9.622837e-01 2.677456e-01 1.101254e-01 -3.010373e-01 -3.685210e-02
<VARIANCE> 39
 2.286463e+01 1.385025e+01 2.356853e+01 2.265285e+01 2.915680e+01 2.811386e+01 3.535046e+01 2.947099e+01 3.358634e+01 2.193665e+01 2.846063e+01 2.096659e+01 2.500633e+00 3.983860e+00 3.775751e+00 3.410449e+00 5.725521e+00 4.157830e+00 4.276457e+00 5.178997e+00 6.458517e+00 4.781441e+00 5.810523e+00 3.311355e+00 2.794236e+00 3.357677e-01 4.151286e-01 5.019880e-01 4.502795e-01 6.563696e-01 6.651124e-01 7.782499e-01 8.763257e-01 8.768847e-01 8.210216e-01 6.586873e-01 7.858471e-01 4.927845e-01 4.214204e-02
<GCONST> 1.193727e+02
<MIXTURE> 7 9.429410e-02
<MEAN> 39
 -4.119935e+00 8.511719e-01 -3.060514e-01 3.442309e+00 4.338341e+00 1.544357e+00 2.774875e+00 -3.950849e-01 3.004138e+00 1.650184e+00 1.591034e+00 1.793278e+00 -5.599638e+00 3.304071e+00 -2.297894e+00 -1.869337e+00 -3.718250e+00 -1.954517e+00 -1.146847e+00 -1.326682e+00 2.718475e-01 8.916123e-01 1.105510e+00 8.532256e-01 4.051597e-01 1.933298e+00 1.226523e+00 2.666507e-01 -8.729231e-02 -4.187121e-01 -3.548223e-01 1.126521e-01 -6.332324e-01 -2.596056e-01 -5.401930e-01 -2.086293e-01 -1.163122e-01 -2.491574e-01 1.507600e-01
<VARIANCE> 39
 1.304914e+01 2.107747e+01 2.158611e+01 2.421929e+01 2.424440e+01 2.428883e+01 3.151908e+01 2.796792e+01 3.014600e+01 2.444643e+01 2.509051e+01 1.785184e+01 1.844902e+00 3.715048e+00 3.958736e+00 5.183920e+00 5.614316e+00 3.919884e+00 5.363311e+00 5.421743e+00 5.093770e+00 4.526446e+00 3.857790e+00 3.856615e+00 2.895341e+00 3.263611e-01 3.968743e-01 8.388570e-01 7.414209e-01 8.150444e-01 7.619140e-01 9.874792e-01 1.069459e+00 1.010656e+00 9.540021e-01 8.429390e-01 7.727367e-01 6.369596e-01 3.404734e-02
<GCONST> 1.204921e+02
<MIXTURE> 8 9.408714e-02
<MEAN> 39
 -2.695777e+00 1.195086e+01 6.562170e+00 1.319493e+01 9.417796e+00 5.775859e+00 1.894712e+00 -4.000780e+00 -3.093570e+00 -3.728775e+00 -2.717017e+00 -2.035076e+00 -9.264943e+00 -1.470458e+00 -3.161013e+00 -1.803153e+00 -2.087820e+00 -9.251503e-01 -5.684695e-01 7.980948e-01 1.850693e+00 2.258478e+00 1.442697e+00 8.370429e-01 7.509236e-01 5.626282e-01 1.182962e+00 -1.025073e+00 -8.246073e-01 -1.501018e+00 -1.099872e+00 -6.845027e-01 -5.337837e-01 -5.692085e-02 1.758091e-01 5.250155e-01 5.057076e-01 1.888626e-01 6.738944e-01
<VARIANCE> 39
 1.112356e+01 9.892031e+00 1.280562e+01 1.324821e+01 1.525410e+01 1.674359e+01 2.291278e+01 2.277029e+01 2.041289e+01 1.724920e+01 1.576408e+01 1.462200e+01 1.061900e+00 1.876659e+00 1.753737e+00 1.565539e+00 2.708380e+00 2.318650e+00 2.452095e+00 2.695188e+00 2.837074e+00 2.556241e+00 2.629267e+00 2.269656e+00 1.933860e+00 4.771431e-01 3.432641e-01 4.210991e-01 6.457592e-01 5.900493e-01 4.977408e-01 6.877947e-01 5.744444e-01 5.802771e-01 5.718338e-01 5.061048e-01 4.470170e-01 4.173942e-01 3.201556e-02
<GCONST> 1.022986e+02
<MIXTURE> 9 9.589297e-02
<MEAN> 39
 4.087871e+00 3.823241e-01 -2.219772e+00 4.272300e-01 7.204839e-01 -1.847960e+00 -2.991765e+00 -2.189022e+00 3.807834e+00 2.845880e+00 2.701698e+00 -1.772049e+00 -2.623037e+00 2.129050e+00 -4.394464e+00 -1.891794e+00 -4.207965e+00 -2.273217e+00 -1.673658e+00 -9.736255e-01 2.425699e+00 2.203957e+00 1.976297e+00 -3.997098e-01 -1.783664e-01 1.739917e+00 2.175469e-01 1.691077e-01 2.819952e-01 3.254767e-01 1.964211e-01 2.878376e-01 6.535488e-02 -4.307102e-03 -6.343095e-01 -3.819324e-01 -5.640959e-01 -1.587107e-01 -1.523655e-01
<VARIANCE> 39
 1.864419e+01 1.511986e+01 2.119009e+01 2.657392e+01 1.831625e+01 2.912482e+01 2.785077e+01 3.588933e+01 2.401993e+01 2.406322e+01 2.254872e+01 1.749100e+01 1.496769e+00 3.694340e+00 3.849726e+00 5.361187e+00 6.738128e+00 5.689842e+00 6.835236e+00 8.801760e+00 6.894567e+00 6.750912e+00 6.092216e+00 4.969911e+00 3.969389e+00 3.230775e-01 3.031286e-01 4.984183e-01 3.845398e-01 5.895520e-01 5.582469e-01 5.633340e-01 7.010668e-01 7.909815e-01 5.474820e-01 5.925840e-01 5.480657e-01 4.506136e-01 3.696092e-02
<GCONST> 1.182137e+02
<MIXTURE> 10 8.243036e-02
<MEAN> 39
 4.204322e+00 1.183895e+01 3.410898e+00 5.144894e+00 4.679072e+00 4.461370e+00 4.015991e+00 -4.111907e+00 -6.693138e+00 -6.152062e+00 -5.384514e+00 -4.964854e-01 -6.781091e+00 -4.443760e-01 -2.758681e+00 -1.410117e+00 -1.974064e+00 -8.295959e-01 -8.851528e-01 -9.521655e-01 -3.437924e-02 1.699867e+00 1.605671e+00 1.466827e+00 6.622485e-01 8.760641e-01 6.742261e-01 -9.704694e-01 -8.647841e-01 -1.104354e+00 -6.886464e-01 1.710895e-03 -7.270626e-01 -1.512004e-01 5.063817e-01 5.244690e-01 9.544418e-01 2.359364e-01 4.401612e-01
<VARIANCE> 39
 1.843379e+01 2.125572e+01 2.009914e+01 2.249013e+01 2.724793e+01 2.472130e+01 2.383413e+01 2.465812e+01 2.314205e+01 1.946148e+01 2.266521e+01 1.844631e+01 1.600311e+00 3.452991e+00 2.437526e+00 2.001811e+00 4.391625e+00 3.547918e+00 2.370691e+00 2.771038e+00 3.291492e+00 2.969837e+00 2.604363e+00 2.537222e+00 2.090072e+00 3.201805e-01 4.371724e-01 5.017390e-01 5.225167e-01 1.032220e+00 6.277544e-01 8.336300e-01 8.991513e-01 7.572892e-01 7.858385e-01 6.439402e-01 5.135127e-01 5.374637e-01 3.117413e-02
<GCONST> 1.118827e+02
<MIXTURE> 11 9.413738e-02
<MEAN> 39
 -4.378038e+00 2.620671e-01 -5.783102e-01 3.226343e+00 3.752242e+00 9.078343e-01 2.336476e+00 -3.659493e-01 3.184008e+00 1.024310e+00 1.391339e+00 1.310956e+00 -5.698930e+00 3.170115e+00 -2.480454e+00 -1.607512e+00 -3.618191e+00 -2.205387e+00 -1.715445e+00 -1.693573e+00 5.878431e-02 4.120221e-01 6.031699e-01 2.180249e-01 -3.976975e-02 1.900602e+00 1.173280e+00 2.500019e-01 2.064088e-02 -3.281406e-01 -3.630845e-01 4.938278e-02 -6.759244e-01 -2.558611e-01 -5.811956e-01 -1.893675e-01 -2.106668e-01 -3.079650e-01 1.286558e-01
<VARIANCE> 39
 1.285963e+01 2.152567e+01 2.163243e+01 2.316241e+01 2.486995e+01 2.612573e+01 2.925401e+01 2.766055e+01 3.047090e+01 2.593746e+01 2.707148e+01 1.898721e+01 1.860912e+00 4.078593e+00 4.076701e+00 5.020107e+00 5.577052e+00 3.902138e+00 5.155347e+00 5.281702e+00 5.339344e+00 4.680835e+00 4.023775e+00 4.319942e+00 3.000598e+00 3.445096e-01 4.008863e-01 8.349058e-01 8.110604e-01 7.974482e-01 7.828893e-01 1.012582e+00 1.035502e+00 1.004305e+00 9.996361e-01 8.160694e-01 8.191295e-01 6.255180e-01 3.689563e-02
<GCONST> 1.212465e+02
<MIXTURE> 12 5.043969e-02
<MEAN> 39
 -1.225659e+00 6.384709e-02 5.098118e+00 7.254977e+00 3.320081e-01 -6.098604e+00 -6.552579e-01 1.450838e+00 1.379798e+00 -2.959591e+00 1.244949e-01 1.068284e+00 -4.505509e+00 1.327313e+00 -2.927260e+00 3.199944e+00 -2.403046e+00 -4.738753e+00 -2.560186e+00 -1.173384e+00 9.143602e-01 -1.968117e+00 -2.917583e-01 6.746939e-01 5.425189e-01 1.524839e+00 3.729922e-01 4.757262e-01 5.843361e-01 -5.342332e-01 -5.366108e-01 6.862645e-01 -3.134654e-01 -6.641877e-01 -9.843919e-01 2.978574e-01 7.152548e-02 -3.324330e-01 -4.959420e-02
<VARIANCE> 39
 2.439803e+01 1.453943e+01 2.632070e+01 2.358500e+01 3.111023e+01 2.751388e+01 3.577614e+01 3.157197e+01 3.827560e+01 2.263096e+01 3.122972e+01 2.042303e+01 2.221140e+00 4.275757e+00 3.555144e+00 3.481859e+00 5.376500e+00 4.094559e+00 4.276134e+00 5.373467e+00 6.683928e+00 5.110563e+00 5.570477e+00 3.508674e+00 2.869987e+00 3.199749e-01 4.324639e-01 5.232623e-01 5.186161e-01 6.552651e-01 6.828876e-01 8.207411e-01 8.869212e-01 9.151969e-01 9.638849e-01 6.392665e-01 9.242929e-01 4.919448e-01 4.462316e-02
<GCONST> 1.206605e+02
<TRANSP> 5
 0.000000e+00 1.000000e+00 0.000000e+00 0.000000e+00 0.000000e+00
 0.000000e+00 4.832242e-01 5.167758e-01 0.000000e+00 0.000000e+00
 0.000000e+00 0.000000e+00 5.332720e-01 4.667280e-01 0.000000e+00
 0.000000e+00 0.000000e+00 0.000000e+00 6.048246e-01 3.951753e-01
 0.000000e+00 0.000000e+00 0.000000e+00 0.000000e+00 0.000000e+00
<ENDHMM>
~h "d"
<BEGINHMM>
<NUMSTATES> 5
<STATE> 2
<NUMMIXES> 12
<MIXTURE> 1 1.074884e-01
<MEAN> 39
 2.232255e-01 1.253247e+01 8.242923e+00 1.052974e+01 3.489289e+00 -3.421250e-01 -3.523388e+00 -7.261990e+00 -5.095597e+00 -6.066415e+00 -3.700894e+00 -3.332479e+00 -7.530846e+00 -2.797193e+00 -1.776409e+00 -1.090274e+00 -5.384427e-01 1.947090e+00 1.637587e+00 1.155785e+00 1.132540e+00 1.201854e+00 8.587275e-01 1.064664e+00 1.651797e-01 -3.250609e-01 -5.958031e-02 -1.623612e+00 -6.886035e-01 -1.540140e+00 -9.147969e-01 -3.585690e-01 3.893695e-01 8.818834e-01 6.970124e-01 9.056491e-01 6.154632e-01 7.127146e-01 5.341747e-01
<VARIANCE> 39
 1.944080e+01 1.342842e+01 2.212391e+01 2.661966e+01 3.257259e+01 2.918909e+01 3.304795e+01 2.630225e+01 2.674661e+01 2.346792e+01 2.518941e+01 2.363056e+01 1.971783e+00 2.397075e+00 4.220763e+00 3.710317e+00 5.971735e+00 4.165807e+00 4.463227e+00 4.046411e+00 4.833470e+00 4.286180e+00 3.775303e+00 3.941245e+00 3.231030e+00 4.477473e-01 5.844588e-01 7.685894e-01 6.869609e-01 1.004948e+00 8.304060e-01 7.180380e-01 9.222386e-01 8.264312e-01 7.700462e-01 6.261464e-01 7.077663e-01 6.293123e-01 7.140172e-02
<GCONST> 1.204512e+02
<MIXTURE> 2 8.313914e-02
<MEAN> 39
 6.898043e+00 -1.676666e+00 1.572030e+00 3.682843e+00 -4.896668e+00 -3.327157e+00 -3.315537e+00 -4.407790e+00 1.581832e+00 5.235859e-01 -2.761076e+00 -1.936655e+00 -2.782531e+00 -3.603915e-01 6.928362e-01 8.543906e-01 1.065706e+00 2.769071e-01 -1.673616e-01 -1.196544e-02 -8.178962e-01 -3.997655e-01 -1.342378e-01 -1.690044e-01 3.544400e-01 -3.960761e-01 -6.496909e-02 -2.358674e-01 7.153045e-03 -6.333923e-01 -7.638097e-03 1.791888e-01 -1.043216e-01 6.487837e-01 -1.031419e-01 -8.781992e-02 2.914507e-01 1.316557e-01 1.138839e-01
<VARIANCE> 39
 1.286303e+01 3.553491e+01 4.747453e+01 5.196018e+01 5.573864e+01 4.347831e+01 5.405325e+01 6.159133e+01 6.187167e+01 4.455120e+01 3.946508e+01 3.325637e+01 2.436476e+00 1.174258e+00 1.535743e+00 2.975656e+00 3.210965e+00 3.901071e+00 3.977655e+00 5.580075e+00 4.740972e+00 4.490921e+00 3.192231e+00 3.433934e+00 2.874589e+00 1.098703e-01 1.745567e-01 3.328078e-01 4.268638e-01 6.786087e-01 7.601392e-01 6.607429e-01 9.475534e-01 9.019326e-01 8.948109e-01 7.198434e-01 7.509458e-01 5.881077e-01 2.368378e-02
<GCONST> 1.191856e+02
<MIXTURE> 3 7.687918e-02
<MEAN> 39
 -1.084208e+01 5.697539e+00 1.141025e+00 6.477428e+00 6.801095e+00 4.748829e+00 4.148167e+00 4.379665e-01 1.932189e+00 1.431007e+00 7.801356e-01 1.324502e+00 -8.533463e+00 1.123602e+00 -1.214214e+00 -2.155893e-01 -1.329497e-01 -2.201958e-01 -1.476588e-01 -8.768281e-02 -1.326811e-01 -1.295660e-01 4.037505e-02 7.525063e-02 -6.598958e-02 -1.335732e-01 2.773830e-01 -1.926045e-01 2.054038e-03 -6.821990e-01 -5.036991e-01 -6.560916e-01 -2.747214e-01 -3.722089e-02 -1.330790e-01 -1.780739e-01 -2.053768e-02 1.366535e-02 4.942181e-01
<VARIANCE> 39
 2.806805e+01 3.014587e+01 3.186071e+01 3.355170e+01 2.649984e+01 2.554034e+01 2.499095e+01 3.010868e+01 2.414486e+01 1.932778e+01 2.299241e+01 1.514884e+01 5.170105e+00 4.347180e+00 3.144098e+00 4.042366e+00 5.175723e+00 3.173471e+00 3.442501e+00 2.678070e+00 2.436943e+00 2.619757e+00 2.221404e+00 2.006162e+00 1.712956e+00 1.350928e+00 7.209318e-01 6.410707e-01 5.993502e-01 6.032907e-01 6.300387e-01 6.142476e-01 5.134568e-01 5.612875e-01 4.646440e-01 4.373666e-01 3.762417e-01 3.421592e-01 9.860497e-02
<GCONST> 1.154512e+02
<MIXTURE> 4 6.319720e-02
<MEAN> 39
 4.380629e+00 1.836241e+00 8.052032e+00 3.972763e+00 -4.027126e+00 -5.576084e+00 -3.549844e+00 -6.758729e-01 -2.593758e-01 -3.181982e+00 -1.794782e+00 1.125510e+00 -3.720194e+00 -1.109694e+00 3.830889e+00 -1.863405e-01 3.241403e+00 3.289494e+00 1.713291e+00 1.238020e+00 -1.396400e+00 -1.712373e-01 -6.562412e-01 -1.338731e+00 -1.018480e+00 -1.404058e+00 -2.998034e-01 3.396070e-02 -3.133072e-01 -1.363802e-01 3.187973e-01 4.191363e-01 2.468153e-01 6.266277e-02 -5.146267e-02 2.798230e-01 1.595315e-01 -1.325433e-01 -5.913905e-02
<VARIANCE> 39
 1.299609e+01 2.313803e+01 2.908265e+01 3.233185e+01 3.350001e+01 3.930506e+01 3.712123e+01 3.069001e+01 3.534782e+01 2.799786e+01 2.773135e+01 2.465755e+01 1.678237e+00 2.077454e+00 2.839568e+00 3.773029e+00 4.475433e+00 3.973397e+00 4.482384e+00 5.778554e+00 5.183489e+00 5.089867e+00 4.759124e+00 3.815820e+00 2.924652e+00 1.323744e-01 2.786425e-01 5.196176e-01 4.067173e-01 6.147932e-01 5.551974e-01 6.506882e-01 7.184048e-01 5.668355e-01 5.887141e-01 4.924137e-01 4.874832e-01 4.015186e-01 3.007961e-02
<GCONST> 1.152432e+02
<MIXTURE> 5 6.965531e-02
<MEAN> 39
 4.204796e+00 7.370835e+00 6.097855e+00 1.043699e+01 3.129360e+00 -2.479164e+00 -2.208691e+00 -2.970995e+00 -7.319580e-01 -2.796465e+00 -7.345971e+00 -2.753145e+00 -6.392719e+00 -9.887591e-01 3.370281e+00 -1.955457e-01 2.159688e+00 2.870123e+00 8.652006e-01 1.398795e+00 -9.402817e-01 -6.984937e-01 1.724122e-01 -1.360125e+00 -6.039293e-01 -1.157787e+00 -1.711627e-01 -7.348087e-01 4.674288e-02 -9.114276e-01 -7.170478e-01 5.448657e-02 -2.676927e-01 2.037680e-01 -6.508256e-02 6.690243e-02 8.789340e-01 2.965306e-01 2.722555e-01
<VARIANCE> 39
 1.143949e+01 2.687514e+01 2.816025e+01 2.565383e+01 2.927255e+01 2.705404e+01 3.079638e+01 3.484438e+01 2.753466e+01 2.612679e+01 2.183076e+01 1.911278e+01 1.800932e+00 1.347185e+00 2.817909e+00 3.513216e+00 3.491705e+00 4.078168e+00 4.177242e+00 4.244777e+00 4.049085e+00 4.314824e+00 3.947559e+00 3.290472e+00 2.746980e+00 1.481462e-01 1.790751e-01 4.860082e-01 3.499275e-01 4.628327e-01 5.162742e-01 4.832880e-01 6.573597e-01 7.126876e-01 5.827991e-01 4.925288e-01 3.989842e-01 3.699578e-01 2.568499e-02
<GCONST> 1.102572e+02
<MIXTURE> 6 6.104534e-02
<MEAN> 39
 1.663916e+00 1.362839e+01 8.431473e+00 1.263872e+01 4.131720e+00 -8.589294e-01 -1.448790e+00 -3.917244e+00 -1.864222e+00 -3.698938e+00 -4.998668e+00 -1.855503e+00 -7.975525e+00 -7.845221e-01 2.734736e-01 6.836158e-02 3.843981e-01 9.202560e-01 9.390880e-01 6.307888e-01 6.578416e-03 -2.209704e-01 2.066582e-01 3.980338e-01 1.144882e-01 -3.058621e-01 -2.834496e-01 -1.290547e+00 -4.035004e-01 -9.797744e-01 -3.146298e-01 6.145492e-03 1.229126e-01 3.364818e-01 1.740677e-01 2.736893e-01 4.469469e-01 2.581566e-01 2.880334e-01
<VARIANCE> 39
 1.032734e+01 9.197227e+00 1.399809e+01 1.590581e+01 2.255280e+01 2.289092e+01 2.564283e+01 2.624142e+01 2.068530e+01 1.935966e+01 2.092809e+01 1.654427e+01 1.237826e+00 1.386575e+00 2.437743e+00 1.622438e+00 2.164946e+00 1.821286e+00 2.527281e+00 2.275448e+00 1.920458e+00 2.104939e+00 1.739316e+00 1.956625e+00 1.458123e+00 1.764506e-01 2.255421e-01 5.727807e-01 3.342078e-01 5.794456e-01 4.777198e-01 4.503787e-01 4.763293e-01 5.202775e-01 4.758568e-01 4.188159e-01 4.231491e-01 3.536160e-01 5.937785e-02
<GCONST> 9.957892e+01
<MIXTURE> 7 1.159733e-01
<MEAN> 39
 2.936261e+00 1.109498e+01 9.163892e+00 1.032647e+01 -7.995501e-01 -2.237744e+00 -3.692635e+00 -4.966709e+00 -2.777911e+00 -6.263375e+00 -3.784593e+00 -2.722984e+00 -6.730681e+00 -1.659121e+00 2.837136e+00 -2.204460e-01 2.956985e+00 2.750921e+00 1.944851e+00 4.541712e-01 -1.447720e+00 -3.696781e-01 -1.073509e+00 -6.115224e-01 -1.262364e+00 -1.265705e+00 -3.421038e-01 -1.627841e+00 -6.643286e-01 -1.499154e+00 -1.813817e-01 -3.194472e-02 3.382218e-01 6.878758e-01 2.649181e-01 8.768395e-01 4.817209e-01 4.642268e-01 3.824575e-01
<VARIANCE> 39
 1.236636e+01 1.845785e+01 1.986759e+01 2.711294e+01 3.318758e+01 3.056676e+01 2.944899e+01 2.917730e+01 2.881224e+01 2.765354e+01 2.665302e+01 2.742746e+01 1.711824e+00 2.194846e+00 3.771736e+00 4.271418e+00 5.298040e+00 4.681169e+00 4.494833e+00 5.575037e+00 4.218127e+00 4.617489e+00 3.717772e+00 3.404206e+00 3.197601e+00 2.130055e-01 3.506889e-01 6.277511e-01 5.486225e-01 7.753398e-01 7.610500e-01 7.394375e-01 9.234766e-01 8.416341e-01 7.488649e-01 6.517549e-01 6.516347e-01 5.813038e-01 4.898659e-02
<GCONST> 1.181091e+02
<MIXTURE> 8 1.373731e-01
<MEAN> 39
 7.792623e+00 -5.248261e+00 6.211282e+00 -2.064514e-01 -9.797906e+00 -5.847257e+00 -6.499353e+00 1.583670e+00 1.406829e+00 -9.577460e-01 -5.944072e-02 1.621409e+00 -1.896386e+00 -7.928807e-01 3.261417e+00 1.048995e+00 3.511097e+00 1.790041e+00 6.124041e-01 1.897343e-01 -2.632557e+00 -7.011610e-01 -1.149789e+00 -1.007107e+00 -5.093486e-01 -1.206337e+00 -4.925188e-01 7.432318e-01 -4.656734e-01 3.122634e-01 1.138790e+00 4.180005e-01 5.987226e-01 -1.735842e-01 -2.266231e-01 -8.294401e-02 -3.296593e-01 -4.563238e-01 -2.358280e-01
<VARIANCE> 39
 1.015882e+01 2.266297e+01 3.790852e+01 5.343217e+01 3.861751e+01 4.254377e+01 4.941720e+01 4.922373e+01 4.461740e+01 3.928752e+01 3.017444e+01 3.125787e+01 1.195075e+00 1.474475e+00 3.376432e+00 3.775115e+00 4.944023e+00 5.947372e+00 5.115863e+00 7.811116e+00 5.222902e+00 5.391588e+00 4.942701e+00 5.315540e+00 3.589558e+00 1.733535e-01 2.030424e-01 4.941324e-01 4.806624e-01 9.514807e-01 6.476384e-01 7.076792e-01 7.444611e-01 8.252133e-01 7.201188e-01 7.548932e-01 6.006329e-01 5.839431e-01 3.019781e-02
<GCONST> 1.210557e+02
<MIXTURE> 9 1.062446e-01
<MEAN> 39
 5.812083e+00 8.051456e+00 3.307078e+00 5.049528e+00 -2.883120e+00 -8.265778e-01 2.230002e+00 -1.082081e+01 -7.984094e+00 9.476725e-01 -3.373055e+00 -2.532664e+00 -4.928628e+00 -1.453872e+00 -8.434089e-01 2.908402e-01 1.654522e-02 1.431990e+00 1.526438e-03 -1.050324e+00 1.647517e+00 1.459147e+00 -9.787106e-01 3.330820e-01 4.227828e-01 -1.530110e-01 -3.098539e-01 -1.014493e+00 -6.101103e-02 -7.592922e-01 -2.446377e-02 -6.992865e-02 -4.763920e-01 1.219939e+00 8.998439e-01 -1.713751e-01 2.889928e-01 2.753819e-01 2.145852e-01
<VARIANCE> 39
 9.606273e+00 2.237964e+01 2.141731e+01 4.010502e+01 3.863557e+01 4.050525e+01 4.130655e+01 4.753569e+01 3.906504e+01 4.384118e+01 4.128918e+01 3.831525e+01 1.712454e+00 2.394935e+00 4.287295e+00 2.987335e+00 6.498013e+00 4.620894e+00 5.025662e+00 4.664902e+00 5.742608e+00 5.473918e+00 4.819945e+00 4.893791e+00 4.072990e+00 1.700086e-01 4.596705e-01 5.435346e-01 4.755935e-01 7.751030e-01 8.489555e-01 7.979249e-01 9.816745e-01 1.119103e+00 8.872657e-01 9.016039e-01 7.692583e-01 6.277325e-01 4.073538e-02
<GCONST> 1.234808e+02
<MIXTURE> 10 5.641856e-02
<MEAN> 39
 5.722238e+00 4.148890e+00 2.157716e+00 1.657958e+01 5.410078e+00 -7.744632e+00 -6.342813e+00 -2.017255e+00 2.726148e+00 -4.549403e+00 -9.528718e+00 -2.249277e+00 -6.019174e+00 -1.964813e+00 2.939517e+00 1.145146e+00 4.749057e-01 1.634259e+00 1.527977e+00 2.239980e+00 -1.309276e+00 -1.558381e+00 2.639244e-01 -4.331955e-01 -9.408610e-01 -1.013148e+00 -1.122054e-01 -9.240246e-01 -1.265755e-01 -1.776736e+00 -1.002063e+00 6.662824e-01 -1.293753e-01 2.588598e-01 -2.148579e-01 3.245360e-01 1.307417e+00 4.768812e-01 3.602821e-01
<VARIANCE> 39
 1.265525e+01 3.155455e+01 3.471804e+01 2.812585e+01 4.197853e+01 2.826281e+01 4.442445e+01 3.840434e+01 2.904169e+01 3.707102e+01 2.660915e+01 3.163429e+01 2.216985e+00 1.831435e+00 4.367251e+00 6.261805e+00 4.745192e+00 6.305600e+00 5.311543e+00 5.806466e+00 5.399977e+00 4.831356e+00 4.100258e+00 4.539413e+00 3.415088e+00 1.900182e-01 3.232870e-01 8.348539e-01 5.543263e-01 6.888626e-01 9.683589e-01 7.633523e-01 1.294194e+00 1.030877e+00 9.344009e-01 8.774716e-01 5.767418e-01 6.851124e-01 4.527000e-02
<GCONST> 1.235704e+02
<MIXTURE> 11 6.292493e-02
<MEAN> 39
 4.339682e+00 1.585016e+00 8.047332e+00 3.882089e+00 -4.659695e+00 -6.232836e+00 -4.337343e+00 -1.298534e+00 -3.368133e-01 -3.230254e+00 -1.982724e+00 1.176599e+00 -3.839612e+00 -1.288233e+00 3.589786e+00 -2.465310e-01 3.178564e+00 3.041510e+00 1.466798e+00 9.065492e-01 -1.712288e+00 -4.735031e-01 -9.985883e-01 -1.614599e+00 -1.453543e+00 -1.409721e+00 -3.553652e-01 -8.950152e-03 -4.082049e-01 -2.228359e-01 3.381636e-01 4.338471e-01 3.057033e-01 9.621257e-02 -1.208037e-01 2.497675e-01 1.311947e-01 -2.160352e-01 -6.260025e-02
<VARIANCE> 39
 1.291049e+01 2.273780e+01 2.993065e+01 3.325126e+01 3.456701e+01 3.768708e+01 3.912762e+01 3.118374e+01 3.552188e+01 2.892901e+01 2.776874e+01 2.681205e+01 1.765271e+00 2.271938e+00 3.041292e+00 3.919049e+00 4.704356e+00 4.439264e+00 4.647401e+00 6.721571e+00 5.474733e+00 5.121678e+00 5.200024e+00 4.036147e+00 3.155074e+00 1.403578e-01 2.857546e-01 4.922018e-01 4.304465e-01 6.343834e-01 5.488298e-01 6.587604e-01 7.532456e-01 5.653136e-01 5.848730e-01 4.909517e-01 5.139588e-01 4.462357e-01 2.950223e-02
<GCONST> 1.166255e+02
<MIXTURE> 12 5.964940e-02
<MEAN> 39
 1.423398e+00 1.310225e+01 8.144640e+00 1.203772e+01 4.089665e+00 -1.327209e+00 -2.110531e+00 -4.272029e+00 -2.463427e+00 -3.923437e+00 -5.177698e+00 -2.357072e+00 -8.112236e+00 -1.058194e+00 -1.623103e-02 -1.545092e-01 1.249002e-01 8.221325e-01 9.795030e-01 5.343673e-01 -1.815205e-01 -4.356672e-01 -8.020552e-02 1.121799e-01 -1.146380e-01 -3.242561e-01 -3.241327e-01 -1.401955e+00 -4.813665e-01 -1.090156e+00 -3.930403e-01 -5.176623e-02 1.355546e-01 3.177797e-01 1.775805e-01 2.716042e-01 4.667729e-01 2.923272e-01 3.380302e-01
<VARIANCE> 39
 1.064333e+01 9.146365e+00 1.415992e+01 1.536306e+01 2.290108e+01 2.541667e+01 2.678847e+01 2.559378e+01 2.046869e+01 1.962763e+01 2.067365e+01 1.668069e+01 1.257510e+00 1.497334e+00 2.609744e+00 1.748455e+00 2.245007e+00 1.884177e+00 2.634242e+00 2.381189e+00 1.842937e+00 2.074396e+00 1.824249e+00 1.992438e+00 1.635734e+00 1.926181e-01 2.615386e-01 6.046495e-01 3.699270e-01 6.134252e-01 5.167366e-01 5.351155e-01 5.177943e-01 5.401673e-01 5.029436e-01 4.446169e-01 4.146808e-01 3.456561e-01 6.159862e-02
<GCONST> 1.011651e+02
<STATE> 3
<NUMMIXES> 12
<MIXTURE> 1 8.722755e-02
<MEAN> 39
 -4.659587e+00 3.036474e+00 4.770164e+00 6.394218e+00 5.525606e+00 3.184241e+00 1.332343e-01 -2.911368e+00 -2.060694e+00 -2.988916e+00 -1.594517e+00 -1.839184e+00 -6.722831e+00 -3.378935e+00 -2.678349e+00 -1.711572e+00 -1.552135e+00 8.769936e-01 1.071502e+00 1.356698e+00 2.184296e+00 2.126064e+00 1.305010e+00 1.666527e+00 9.808972e-01 1.962383e-01 4.541015e-01 9.020715e-02 -1.959913e-01 -5.671362e-01 -8.677221e-01 -6.634447e-01 4.288776e-03 6.826331e-02 1.051706e-01 2.993822e-01 3.691757e-02 3.436321e-01 3.314576e-01
<VARIANCE> 39
 3.388103e+01 4.280115e+01 4.971467e+01 5.130188e+01 4.057788e+01 4.468578e+01 3.331687e+01 2.991569e+01 3.065057e+01 2.553999e+01 2.593903e+01 2.113899e+01 3.138247e+00 3.939200e+00 4.800286e+00 4.134900e+00 6.251830e+00 4.881850e+00 4.979919e+00 4.469155e+00 6.139838e+00 5.041997e+00 4.674206e+00 4.503299e+00 3.766337e+00 4.501337e-01 8.738987e-01 7.133993e-01 9.830074e-01 1.106290e+00 1.014119e+00 1.000005e+00 7.340075e-01 7.574899e-01 7.462041e-01 6.451665e-01 6.765532e-01 5.623072e-01 7.053304e-02
<GCONST> 1.278982e+02
<MIXTURE> 2 1.185241e-01
<MEAN> 39
 4.315266e+00 3.257424e+00 4.151228e+00 5.847509e+00 -2.173129e+00 -3.545308e+00 -2.558389e+00 -3.709955e+00 -1.624001e+00 -2.463994e+00 -1.897375e+00 -1.022395e+00 -4.549367e+00 -1.970404e+00 2.022693e+00 -6.302356e-02 1.192105e+00 2.410001e+00 8.662082e-01 9.229779e-01 -6.721845e-01 -3.091989e-01 -3.941076e-01 -5.094673e-02 -2.631381e-01 -8.817423e-01 -3.134462e-01 -3.821580e-01 -1.611938e-01 -8.125529e-01 -3.009385e-02 2.919076e-01 1.188303e-01 4.652491e-01 5.503193e-02 3.127255e-01 1.943088e-01 1.237426e-01 1.613782e-01
<VARIANCE> 39
 2.405696e+01 3.706789e+01 3.699296e+01 5.124828e+01 4.371507e+01 4.814447e+01 4.210958e+01 4.314752e+01 4.500312e+01 3.991607e+01 3.504281e+01 2.945670e+01 2.763141e+00 3.882124e+00 5.249294e+00 5.695167e+00 6.966329e+00 6.034022e+00 5.928344e+00 6.759031e+00 7.361250e+00 7.026527e+00 4.605467e+00 4.377412e+00 4.452765e+00 2.999251e-01 6.719570e-01 6.338416e-01 7.111500e-01 1.009633e+00 8.644038e-01 9.679974e-01 1.082723e+00 9.555209e-01 8.913856e-01 8.387143e-01 7.778901e-01 5.744355e-01 4.535585e-02
<GCONST> 1.305274e+02
<MIXTURE> 3 1.080843e-01
<MEAN> 39
 -9.381178e+00 4.830273e+00 2.882034e-01 9.077070e+00 6.539479e+00 5.994994e+00 3.535159e+00 9.837041e-01 3.330044e+00 2.011668e+00 2.414001e+00 9.023486e-01 -1.046974e+01 5.281802e-02 -2.247103e+00 -8.528043e-01 -2.428310e+00 -8.715986e-01 -7.931422e-01 1.898167e-01 4.181680e-01 3.025165e-01 4.869127e-01 7.588345e-01 5.732407e-01 9.177477e-01 3.914220e-01 1.413810e-01 3.029839e-01 -8.094424e-01 -6.124146e-01 -9.116918e-01 -3.613091e-01 -2.333323e-01 -3.615590e-01 -3.071687e-01 -2.863860e-01 -3.249880e-02 6.754249e-01
<VARIANCE> 39
 6.821881e+00 8.873219e+00 1.764340e+01 1.766934e+01 1.431535e+01 1.661297e+01 1.907446e+01 1.859417e+01 2.129097e+01 1.741543e+01 1.984619e+01 1.362271e+01 1.131276e-01 2.107684e+00 3.154132e+00 3.315753e+00 4.638258e+00 2.880713e+00 3.391786e+00 3.187962e+00 3.295095e+00 3.214041e+00 2.948682e+00 2.561484e+00 2.157624e+00 9.760274e-01 7.039464e-01 4.150089e-01 5.292767e-01 5.654008e-01 5.973096e-01 5.590494e-01 5.388446e-01 5.749030e-01 5.334832e-01 4.161528e-01 4.180306e-01 3.425145e-01 6.606991e-02
<GCONST> 1.045228e+02
<MIXTURE> 4 5.580881e-02
<MEAN> 39
 1.763183e+00 1.512235e+00 5.535072e+00 4.311526e+00 -6.896619e-01 -7.834830e-01 -1.608815e+00 -4.733615e+00 -2.318331e+00 -2.924528e+00 -2.282695e+00 -3.942225e-01 -4.432615e+00 -5.426083e-01 -2.159082e+00 6.432647e-01 -2.086285e+00 -6.802405e-01 -3.338096e-01 -1.368994e+00 2.359091e+00 1.715711e+00 -2.399269e-02 1.104834e+00 1.059319e+00 5.709058e-01 7.235469e-01 -5.700815e-01 -2.310537e-01 -6.994798e-01 -7.487670e-01 -2.671829e-01 -3.796251e-01 6.610189e-01 2.384915e-01 4.843099e-01 1.729386e-01 2.081294e-02 3.267848e-01
<VARIANCE> 39
 1.417166e+01 3.178216e+01 2.799967e+01 3.812745e+01 3.982940e+01 4.118837e+01 4.099538e+01 4.041222e+01 4.126671e+01 2.645334e+01 2.888627e+01 2.396415e+01 1.455691e+00 1.429254e+00 3.127724e+00 3.101048e+00 4.530301e+00 4.926854e+00 4.871530e+00 6.237068e+00 6.654031e+00 6.747655e+00 5.280877e+00 4.445394e+00 3.647173e+00 1.613939e-01 2.896729e-01 5.479318e-01 6.129068e-01 8.944912e-01 1.041522e+00 1.081081e+00 1.423918e+00 1.168591e+00 1.141290e+00 8.158390e-01 1.012863e+00 6.936269e-01 2.668420e-02
<GCONST> 1.232038e+02
<MIXTURE> 5 9.791322e-02
<MEAN> 39
 -5.221196e+00 -2.085167e+00 4.400976e+00 -1.225963e+00 4.871871e+00 2.519964e+00 2.708205e+00 -6.581151e-01 -2.183768e-01 -1.305315e+00 9.963996e-01 9.978042e-01 -4.601107e+00 -4.373718e-01 -3.237701e+00 -4.749211e-01 -4.111019e+00 -2.066706e+00 -1.523531e+00 -8.805501e-02 1.580713e+00 1.065818e+00 1.370263e+00 1.544828e+00 1.466635e+00 1.465660e+00 1.355514e+00 3.438327e-01 3.181206e-01 3.688455e-01 -1.383942e+00 -9.063205e-01 -8.636382e-01 8.600695e-02 -8.283187e-02 6.350369e-02 -4.008143e-01 -1.385815e-01 1.936674e-01
<VARIANCE> 39
 1.425133e+01 2.323099e+01 2.835181e+01 3.313616e+01 3.735509e+01 4.137495e+01 3.572338e+01 3.043793e+01 3.075602e+01 2.720921e+01 3.098518e+01 2.343169e+01 1.201761e+00 2.025768e+00 2.344389e+00 2.748374e+00 2.367239e+00 3.766002e+00 3.418586e+00 4.801229e+00 4.030126e+00 3.754866e+00 3.072371e+00 2.730788e+00 2.491043e+00 2.432761e-01 2.924877e-01 5.372781e-01 8.350471e-01 9.571796e-01 1.051698e+00 1.096602e+00 1.127911e+00 1.052849e+00 1.036296e+00 8.701000e-01 8.600629e-01 8.379811e-01 2.703760e-02
<GCONST> 1.182568e+02
<MIXTURE> 6 1.005151e-01
<MEAN> 39
