~o
<STREAMINFO> 1 39
<VECSIZE> 39<NULLD><MFCC_E_D_A_Z><DIAGC>
~v "varFloor1"
<VARIANCE> 39
 9.726257e-01 5.381249e-01 6.651532e-01 6.989120e-01 6.880192e-01 6.224947e-01 6.450717e-01 5.635375e-01 5.311891e-01 4.008754e-01 3.797459e-01 3.082840e-01 1.131276e-01 4.817885e-02 3.519386e-02 3.216594e-02 4.186358e-02 4.215040e-02 4.083050e-02 4.351060e-02 4.295653e-02 3.903697e-02 3.210390e-02 2.959472e-02 2.433364e-02 4.759443e-03 6.696086e-03 5.835324e-03 4.982519e-03 6.833524e-03 6.876886e-03 6.926220e-03 7.477231e-03 7.591971e-03 6.896265e-03 5.920904e-03 5.389229e-03 4.463565e-03 7.207811e-04
~h "b"
<BEGINHMM>
<NUMSTATES> 5
<STATE> 2
<NUMMIXES> 6
<MIXTURE> 1 1.918356e-01
<MEAN> 39
 8.081482e+00 6.950633e+00 2.362410e-01 6.409373e+00 3.945000e+00 1.897879e+00 -1.560397e+00 -7.105955e+00 -5.920587e+00 -2.609454e+00 -1.047865e-02 -2.180804e+00 -5.350262e+00 -7.651764e-01 3.146215e+00 2.290193e-01 1.654749e+00 2.176671e+00 1.392945e+00 1.363191e+00 -8.958049e-01 -7.683191e-01 -8.458796e-01 -4.726763e-01 -1.516703e-01 -9.489020e-01 -4.978531e-01 -3.576965e-01 4.496344e-01 -3.104802e-01 -4.575412e-01 -2.790431e-01 -1.179231e-01 4.191557e-01 3.140177e-01 1.618268e-01 -8.429985e-02 1.332598e-01 1.063553e-01
<VARIANCE> 39
 8.600588e+00 1.697675e+01 1.949631e+01 3.126552e+01 2.242392e+01 3.078172e+01 3.067329e+01 3.197534e+01 3.786624e+01 2.669036e+01 2.783618e+01 2.570066e+01 1.470533e+00 1.144448e+00 3.860559e+00 3.771811e+00 4.909186e+00 4.464558e+00 4.901898e+00 6.090095e+00 5.980964e+00 5.716158e+00 4.721076e+00 4.111844e+00 3.327271e+00 2.052594e-01 1.599110e-01 3.644330e-01 4.081620e-01 4.923645e-01 4.508329e-01 4.803532e-01 5.486323e-01 5.785260e-01 7.061017e-01 4.694968e-01 4.948851e-01 4.031249e-01 2.141341e-02
<GCONST> 1.121048e+02
<MIXTURE> 2 1.361426e-01
<MEAN> 39
 -7.503774e+00 5.539107e+00 1.191788e+00 8.998426e+00 7.184391e+00 5.576966e+00 3.430328e+00 -9.318289e-02 1.904244e+00 1.719784e+00 1.428274e+00 5.707141e-01 -1.006758e+01 -3.331579e-01 -1.057745e-01 -7.103596e-01 1.386248e+00 5.901258e-01 9.156345e-01 7.994075e-01 4.312758e-01 2.402504e-01 7.295205e-01 5.396585e-01 1.620776e-01 -8.433661e-01 4.841828e-02 -1.230348e-01 -8.230362e-02 -6.811998e-01 -3.691106e-01 -4.820970e-01 -1.972616e-01 -2.938097e-02 -9.635540e-02 -1.645599e-01 -7.840984e-02 3.782418e-02 4.762460e-01
<VARIANCE> 39
 1.172999e+01 1.699117e+01 2.308898e+01 1.864897e+01 1.960312e+01 2.269203e+01 2.312820e+01 2.713237e+01 2.673662e+01 2.288060e+01 2.169864e+01 1.808777e+01 5.579765e-01 4.467675e+00 3.134458e+00 3.314874e+00 3.614038e+00 2.800890e+00 3.028381e+00 3.013699e+00 3.515614e+00 3.111427e+00 2.645431e+00 2.430407e+00 2.295563e+00 5.766959e-01 7.745209e-01 4.326831e-01 5.423846e-01 5.456685e-01 5.582532e-01 5.551182e-01 5.644445e-01 5.633644e-01 5.256257e-01 4.835929e-01 4.242493e-01 3.639839e-01 6.177944e-02
<GCONST> 1.096295e+02
<MIXTURE> 3 1.878470e-01
<MEAN> 39
 1.161252e+01 3.728156e-01 -4.031375e+00 -1.487487e+00 7.321767e-01 -5.885382e-02 -6.313143e+00 -4.485531e+00 -1.519390e+00 1.233479e+00 3.346818e+00 -2.403662e-02 -2.801534e+00 -1.138306e+00 4.562762e+00 1.579544e+00 3.105466e+00 2.092284e+00 1.455767e+00 1.448652e+00 -2.407800e+00 -2.160828e+00 -1.836292e+00 -6.742843e-01 -2.852692e-01 -1.465808e+00 -7.721218e-01 3.208641e-01 5.561383e-01 4.699787e-01 1.052767e-01 1.508287e-01 4.946381e-01 3.066677e-01 1.096215e-02 -3.631301e-01 -5.765150e-01 -2.295592e-01 -1.595117e-01
<VARIANCE> 39
 8.901192e+00 2.070975e+01 3.617456e+01 4.812348e+01 3.408760e+01 5.623853e+01 4.186886e+01 3.989531e+01 4.245260e+01 4.538724e+01 3.070759e+01 3.732635e+01 1.414309e+00 1.658158e+00 2.016176e+00 5.990849e+00 6.227248e+00 6.244355e+00 7.321356e+00 9.641769e+00 7.222558e+00 5.957612e+00 5.689913e+00 5.203179e+00 4.286292e+00 1.161900e-01 1.533961e-01 4.150746e-01 4.130456e-01 5.673571e-01 6.418017e-01 6.991068e-01 6.665912e-01 6.559421e-01 6.894334e-01 6.900512e-01 5.270363e-01 5.897152e-01 2.420260e-02
<GCONST> 1.201909e+02
<MIXTURE> 4 3.259875e-02
<MEAN> 39
 -5.404023e+00 1.599656e+00 1.231902e+00 6.064010e+00 3.410838e+00 2.719031e-01 2.804785e+00 3.318517e+00 2.788282e+00 -8.616561e-02 2.230084e-01 1.355457e+00 -7.748909e+00 2.706798e+00 -6.524281e-01 2.395176e+00 -5.861777e-01 -2.768009e+00 -2.411866e+00 -1.296618e+00 -6.813631e-01 -1.771808e+00 -1.276891e+00 -1.520306e-01 -3.431171e-01 1.411114e+00 4.105088e-01 1.816121e-01 8.364233e-01 -3.298232e-01 -7.461402e-01 6.814419e-02 -5.373579e-01 -7.061627e-01 -8.639503e-01 -8.376836e-02 1.898461e-01 -1.395558e-01 2.074332e-01
<VARIANCE> 39
 2.039537e+01 2.608802e+01 3.641294e+01 2.972738e+01 2.987452e+01 4.295569e+01 2.588368e+01 2.510571e+01 2.951533e+01 2.486608e+01 3.302463e+01 2.163912e+01 4.151784e+00 2.148637e+00 2.721180e+00 5.067557e+00 4.573885e+00 5.425138e+00 3.511825e+00 3.530199e+00 4.210405e+00 4.953640e+00 4.094528e+00 2.702189e+00 2.392504e+00 6.901457e-01 4.471636e-01 4.804150e-01 7.262420e-01 8.848848e-01 8.289098e-01 9.555568e-01 6.272899e-01 6.723976e-01 8.558761e-01 9.034259e-01 8.417912e-01 6.081540e-01 1.103137e-01
<GCONST> 1.220215e+02
<MIXTURE> 5 2.549436e-01
<MEAN> 39
 -9.244370e+00 4.380322e+00 -8.319637e-02 8.502044e+00 5.805860e+00 5.370271e+00 3.646006e+00 6.616232e-01 2.498690e+00 1.891298e+00 2.422068e+00 1.099212e+00 -1.048947e+01 3.615851e-01 -2.502091e-01 -1.496829e-01 -1.803744e-01 -3.864740e-01 -4.407517e-01 -1.512897e-01 -1.589923e-01 -1.335265e-01 -2.210766e-01 -1.124677e-01 -7.482967e-02 1.932299e-01 5.944281e-01 -1.243584e-01 1.872072e-01 -5.473873e-01 -2.869782e-01 -4.322172e-01 -2.550974e-01 -1.063163e-01 -1.174393e-01 -1.908351e-01 -1.536021e-01 -6.007304e-02 4.938844e-01
<VARIANCE> 39
 6.508471e+00 8.098181e+00 1.208751e+01 1.496088e+01 1.449316e+01 1.746865e+01 1.791660e+01 1.927566e+01 2.306222e+01 1.694463e+01 1.698255e+01 1.373717e+01 1.131276e-01 9.613208e-01 1.174377e+00 1.373706e+00 1.582415e+00 1.383471e+00 1.656518e+00 1.427768e+00 1.620230e+00 1.721334e+00 1.747584e+00 1.379151e+00 1.316925e+00 3.597603e-01 4.036875e-01 2.666813e-01 3.809194e-01 4.676092e-01 3.989501e-01 4.437217e-01 3.934303e-01 4.173525e-01 4.184389e-01 4.283247e-01 3.406151e-01 3.039245e-01 8.278154e-02
<GCONST> 9.073005e+01
<MIXTURE> 6 1.966256e-01
<MEAN> 39
 5.759956e+00 8.053078e+00 3.013873e+00 8.031635e+00 1.478603e+00 -9.641800e-01 -3.725165e+00 -6.807531e+00 -3.647931e+00 -2.042184e+00 -2.695256e+00 -4.414510e+00 -6.052405e+00 -1.035210e+00 2.749209e+00 3.278238e-01 2.554359e+00 2.028292e+00 1.056465e+00 4.223437e-01 -7.684870e-01 -5.572164e-01 -9.854621e-01 -3.195470e-01 -7.260593e-01 -1.131312e+00 -4.901273e-01 -7.134025e-01 -1.169948e-01 -7.556741e-01 -1.675336e-01 1.065249e-01 2.839327e-01 6.096665e-01 2.660413e-01 1.605006e-01 2.242130e-01 4.525132e-01 1.683845e-01
<VARIANCE> 39
 1.721724e+01 2.199193e+01 2.939584e+01 4.163663e+01 3.714664e+01 3.890280e+01 4.511133e+01 3.657920e+01 4.509001e+01 4.001548e+01 3.507511e+01 3.247161e+01 2.783988e+00 4.183420e+00 5.062222e+00 5.802244e+00 6.919444e+00 5.090301e+00 5.101266e+00 5.644521e+00 6.789234e+00 6.220074e+00 4.675949e+00 4.404290e+00 4.051878e+00 4.832851e-01 3.456887e-01 5.732911e-01 5.530643e-01 7.347538e-01 7.213817e-01 6.654191e-01 8.520913e-01 7.813892e-01 9.070488e-01 8.313154e-01 7.434476e-01 5.782469e-01 3.541881e-02
<GCONST> 1.260143e+02
<STATE> 3
<NUMMIXES> 6
<MIXTURE> 1 2.638488e-01
<MEAN> 39
 3.976540e+00 1.218934e+01 3.366762e+00 9.919168e+00 6.826725e+00 2.997227e+00 -1.379983e-01 -7.078194e+00 -4.932290e+00 -2.437025e+00 -1.916796e+00 -2.119518e+00 -7.604821e+00 -1.295930e-01 2.461867e-01 2.046459e-01 3.810097e-01 5.246462e-01 2.843790e-01 -6.357888e-03 -9.390458e-02 -1.439195e-01 -1.374792e-02 1.506715e-01 8.220668e-02 -8.917787e-02 -2.121891e-01 -5.617234e-01 -5.554908e-02 -3.257776e-01 -2.482319e-01 -1.418124e-01 -5.653632e-02 2.463379e-01 3.015288e-01 1.250785e-01 5.733374e-02 1.099010e-01 1.470083e-01
<VARIANCE> 39
 1.932301e+01 1.353237e+01 1.953470e+01 2.513550e+01 2.222135e+01 2.710609e+01 2.874893e+01 2.460849e+01 2.557673e+01 2.411736e+01 2.420411e+01 2.015511e+01 1.903130e+00 1.104465e+00 1.086138e+00 1.467098e+00 1.748235e+00 1.286412e+00 1.502530e+00 1.585874e+00 1.886444e+00 1.855932e+00 1.583984e+00 1.691740e+00 1.351235e+00 1.010844e-01 2.734334e-01 3.049587e-01 3.410445e-01 5.022899e-01 3.501045e-01 3.576424e-01 4.182786e-01 4.210286e-01 4.012991e-01 3.684004e-01 3.693959e-01 3.160618e-01 3.429234e-02
<GCONST> 9.665751e+01
<MIXTURE> 2 6.189966e-02
<MEAN> 39
 4.923291e+00 6.328557e+00 1.243227e+00 6.772108e+00 1.670003e+00 -1.006481e+00 -2.368283e+00 -6.083002e+00 -5.095531e+00 -2.082738e+00 -3.055292e+00 -4.507511e+00 -6.337636e+00 -5.236951e-01 -1.879236e-01 -4.030221e-01 -6.199504e-01 5.515708e-01 3.785923e-01 4.073308e-01 9.078805e-01 1.095599e+00 4.121077e-02 5.186647e-01 7.366115e-01 -4.188551e-02 -8.843596e-02 -5.746126e-01 7.773371e-02 -7.699652e-01 -3.777161e-01 1.273195e-01 1.257342e-02 3.150583e-01 2.554945e-01 2.785836e-01 4.242729e-01 4.116960e-01 2.832519e-01
<VARIANCE> 39
 3.096019e+01 3.094860e+01 5.496982e+01 5.911531e+01 4.438405e+01 4.730453e+01 7.061704e+01 6.736008e+01 6.871022e+01 5.193233e+01 5.113019e+01 3.943158e+01 4.530989e+00 3.587586e+00 4.649032e+00 5.091372e+00 6.478301e+00 4.835641e+00 4.302103e+00 4.804393e+00 6.710286e+00 7.696665e+00 5.625455e+00 6.222651e+00 3.797266e+00 5.303420e-01 8.229540e-01 9.764214e-01 1.620259e+00 1.941062e+00 1.435903e+00 1.173213e+00 1.194823e+00 1.547898e+00 1.744970e+00 1.342479e+00 1.225488e+00 7.609536e-01 1.110691e-01
<GCONST> 1.398072e+02
<MIXTURE> 3 3.041871e-01
<MEAN> 39
 6.243594e+00 1.230548e+01 2.336724e+00 7.229288e+00 5.697249e+00 3.834479e+00 4.063257e-01 -8.126418e+00 -7.778049e+00 -4.310567e+00 -9.766629e-01 -9.362369e-01 -6.581391e+00 -1.450216e+00 2.114314e+00 1.357136e+00 1.376134e+00 1.191105e+00 5.897530e-01 1.071005e+00 -8.137444e-02 -5.954341e-01 -7.530050e-01 -7.492597e-01 3.192851e-02 -7.404586e-01 -1.047397e-01 -1.338050e+00 -1.911300e-01 -6.701842e-01 -6.436267e-01 -4.394704e-01 -5.441343e-01 5.731623e-01 8.468248e-01 5.086707e-01 1.686714e-01 1.374324e-02 3.354397e-01
<VARIANCE> 39
 8.925142e+00 9.416959e+00 1.632240e+01 2.359813e+01 2.317513e+01 2.708191e+01 3.035687e+01 2.705960e+01 2.825303e+01 2.751005e+01 3.006453e+01 2.417103e+01 1.217221e+00 9.115512e-01 2.681310e+00 2.426414e+00 3.478889e+00 2.906379e+00 2.770967e+00 3.726934e+00 3.303986e+00 3.691260e+00 2.780867e+00 3.026863e+00 2.283473e+00 1.691476e-01 1.769950e-01 3.184809e-01 4.684922e-01 6.064107e-01 5.759969e-01 6.102880e-01 7.358386e-01 6.924233e-01 7.437790e-01 6.149358e-01 6.322470e-01 4.658847e-01 2.462577e-02
<GCONST> 1.072022e+02
<MIXTURE> 4 1.256075e-02
<MEAN> 39
 2.505636e+00 5.439328e-01 1.158178e+01 5.933972e+00 -7.425525e+00 -6.414981e+00 -1.562228e+00 1.835953e-01 -5.577434e+00 -4.074630e+00 1.983650e+00 6.147547e-01 -3.472396e+00 3.038662e+00 -8.502966e-01 3.919405e+00 -1.956466e+00 -4.931877e+00 -1.526973e+00 -2.177750e+00 -2.210713e+00 -3.541075e+00 -7.960227e-01 7.426584e-01 -2.680591e-01 1.587719e+00 -8.322251e-01 4.305485e-01 -4.477472e-01 -3.261620e-01 5.901777e-01 1.038211e+00 1.175949e-01 -3.440996e-01 3.828108e-01 6.004806e-01 -2.429059e-02 5.071805e-02 -4.261276e-01
<VARIANCE> 39
 2.001814e+01 1.530776e+01 2.220105e+01 4.102776e+01 3.102256e+01 2.582293e+01 2.462900e+01 3.273627e+01 3.782267e+01 2.674182e+01 2.950027e+01 1.708827e+01 7.912239e-01 1.173994e+00 2.837971e+00 3.601675e+00 6.678048e+00 3.523429e+00 6.253964e+00 4.329969e+00 5.175369e+00 6.266627e+00 7.424619e+00 6.059054e+00 3.754597e+00 2.516173e-01 2.806084e-01 2.854111e-01 4.698399e-01 4.738471e-01 6.072147e-01 6.455829e-01 4.209571e-01 5.975618e-01 7.928321e-01 6.088852e-01 6.941797e-01 4.144217e-01 1.882648e-02
<GCONST> 1.143832e+02
<MIXTURE> 5 1.960136e-01
<MEAN> 39
 5.426507e+00 1.211583e+01 4.405075e+00 9.878635e+00 3.920684e+00 4.681466e-01 -6.106811e+00 -9.650993e+00 -4.974429e+00 -3.664947e+00 -1.895052e+00 -5.695130e+00 -6.695919e+00 -2.208655e+00 2.215627e+00 1.640404e+00 2.210685e+00 1.193576e+00 1.037145e+00 6.904228e-01 -7.368259e-01 -6.250911e-01 -1.341021e+00 -6.838115e-01 -3.139082e-01 -9.553447e-01 -1.732991e-01 -1.791615e+00 -5.106521e-01 -1.260826e+00 -6.104916e-01 -3.696322e-01 4.328894e-01 1.288332e+00 6.673655e-01 5.573904e-01 2.365874e-01 6.445385e-01 4.255136e-01
<VARIANCE> 39
 1.001986e+01 9.989351e+00 1.835271e+01 2.311200e+01 2.518889e+01 2.803355e+01 4.096217e+01 2.754940e+01 3.075899e+01 3.174494e+01 2.913751e+01 2.538791e+01 1.635306e+00 1.962892e+00 3.580445e+00 4.032793e+00 4.857818e+00 3.309138e+00 4.185552e+00 3.606872e+00 4.327571e+00 3.719961e+00 4.225796e+00 3.191855e+00 2.931713e+00 3.150116e-01 2.855912e-01 3.852966e-01 9.145423e-01 7.280455e-01 9.084576e-01 8.530922e-01 1.147797e+00 9.109442e-01 9.774230e-01 1.000888e+00 7.685844e-01 6.408113e-01 4.713705e-02
<GCONST> 1.174321e+02
<MIXTURE> 6 1.614891e-01
<MEAN> 39
 -5.640557e+00 6.148591e+00 9.654441e-01 8.846830e+00 5.832870e+00 4.391166e+00 2.935750e+00 -1.810127e+00 1.450155e-01 5.628687e-01 8.263074e-01 -1.369178e-03 -9.321527e+00 1.844209e+00 -3.054262e-01 1.072932e-01 -1.070048e+00 -7.035866e-01 -1.043627e+00 -5.114572e-01 -3.977689e-01 -2.507907e-01 -4.342800e-01 -2.429643e-01 -7.063146e-02 1.093214e+00 8.452977e-01 -5.600311e-01 -1.535300e-01 -1.002512e+00 -6.048107e-01 -3.189472e-01 -4.367400e-01 -1.559551e-02 3.307791e-02 6.294031e-02 4.900435e-03 2.152224e-02 5.127065e-01
<VARIANCE> 39
 3.302676e+01 2.582749e+01 1.866092e+01 2.523438e+01 2.140359e+01 2.394478e+01 2.706832e+01 3.044192e+01 3.035220e+01 2.275250e+01 2.231297e+01 1.744889e+01 2.401965e+00 3.283642e+00 2.567004e+00 2.478291e+00 3.073099e+00 2.188179e+00 2.917305e+00 2.900481e+00 2.830035e+00 3.088115e+00 2.397701e+00 1.997067e+00 1.885893e+00 6.680055e-01 7.568412e-01 4.754448e-01 6.481050e-01 8.433242e-01 6.138840e-01 7.397193e-01 6.649340e-01 6.734713e-01 7.056920e-01 5.378280e-01 5.820166e-01 4.322905e-01 8.909489e-02
<GCONST> 1.139722e+02
<STATE> 4
<NUMMIXES> 6
<MIXTURE> 1 1.861314e-01
<MEAN> 39
 1.515037e+00 1.355018e+01 7.022047e+00 1.290045e+01 7.648808e+00 2.704688e+00 -2.774824e+00 -7.851976e+00 -4.732425e+00 -3.578128e+00 -2.072944e+00 -2.944441e+00 -8.022553e+00 -1.896495e+00 -1.061595e+00 5.196020e-03 5.718153e-02 3.985879e-01 5.258677e-01 1.139595e+00 1.343488e+00 9.431987e-01 3.678741e-02 -1.953287e-02 4.439176e-01 -2.153958e-01 3.449215e-01 -1.477826e+00 -8.954939e-01 -1.384922e+00 -8.856334e-01 -4.385318e-01 1.430222e-01 6.769086e-01 6.445280e-01 5.763622e-01 3.709153e-01 2.999089e-01 4.891846e-01
<VARIANCE> 39
 1.162730e+01 6.932528e+00 1.263201e+01 1.518583e+01 1.832620e+01 2.179606e+01 3.398601e+01 2.296235e+01 2.216580e+01 2.240561e+01 1.760271e+01 1.958066e+01 1.601070e+00 1.705809e+00 2.045722e+00 1.605311e+00 2.130074e+00 1.461993e+00 2.079706e+00 2.251118e+00 2.552867e+00 2.627595e+00 2.271834e+00 2.159809e+00 1.697649e+00 2.647543e-01 2.975696e-01 4.070728e-01 5.349757e-01 5.328605e-01 5.437282e-01 5.065921e-01 5.631578e-01 6.195528e-01 5.954074e-01 5.723125e-01 4.557365e-01 3.928516e-01 4.901071e-02
<GCONST> 1.020706e+02
<MIXTURE> 2 9.766139e-02
<MEAN> 39
 5.652543e+00 1.244616e+01 3.475003e+00 7.642704e+00 3.413632e+00 2.863883e+00 -7.482321e-01 -7.791338e+00 -8.004156e+00 -6.219235e+00 -2.604143e+00 -2.809015e+00 -6.407547e+00 -7.237349e-01 -2.186194e+00 -9.536053e-01 -2.164757e+00 -4.768535e-01 -3.410885e-01 8.603373e-02 1.150809e+00 2.034568e+00 1.321048e+00 7.956953e-01 8.737885e-01 6.425154e-01 3.833176e-01 -1.436123e+00 -8.218593e-01 -1.513758e+00 -5.985062e-01 -1.234479e-01 -1.786876e-01 4.428714e-01 7.256511e-01 9.687194e-01 5.008840e-01 2.128368e-01 4.840957e-01
<VARIANCE> 39
 9.468138e+00 1.388888e+01 1.902663e+01 2.729067e+01 2.629572e+01 3.136221e+01 4.721828e+01 3.492254e+01 3.152087e+01 2.556932e+01 3.332166e+01 3.237745e+01 1.384546e+00 2.154050e+00 2.635413e+00 2.233287e+00 5.791215e+00 3.035825e+00 2.726217e+00 3.711017e+00 4.638409e+00 4.476216e+00 3.110853e+00 3.396340e+00 2.726528e+00 3.156958e-01 3.099606e-01 4.877502e-01 6.712193e-01 9.021723e-01 7.432694e-01 8.003889e-01 1.007357e+00 1.189512e+00 9.408734e-01 7.545636e-01 9.092951e-01 7.641398e-01 3.368923e-02
<GCONST> 1.170677e+02
<MIXTURE> 3 2.389154e-01
<MEAN> 39
 -2.574581e+00 9.343625e+00 4.724021e+00 1.119932e+01 8.278761e+00 4.569175e+00 1.337103e+00 -3.908321e+00 -2.077918e+00 -2.299234e+00 -1.398617e+00 -1.722037e+00 -8.433372e+00 -2.946368e-01 -3.200596e+00 -1.501687e+00 -2.737901e+00 -1.671604e+00 -1.034033e+00 3.962645e-01 1.796321e+00 1.963858e+00 1.234504e+00 9.564303e-01 9.478347e-01 1.059166e+00 1.219947e+00 -8.463691e-01 -4.483628e-01 -1.355883e+00 -1.128805e+00 -5.187314e-01 -5.066977e-01 1.469317e-02 -2.929671e-02 3.285387e-01 2.607338e-01 1.624597e-02 6.113991e-01
<VARIANCE> 39
 2.487527e+01 2.145588e+01 1.887607e+01 1.965790e+01 1.784474e+01 2.327975e+01 3.028893e+01 3.253580e+01 2.574149e+01 2.314518e+01 2.243191e+01 1.789053e+01 2.998552e+00 3.546996e+00 2.093132e+00 3.016198e+00 3.374693e+00 3.156024e+00 3.736244e+00 4.430327e+00 3.909938e+00 3.535752e+00 3.233326e+00 2.924040e+00 2.397944e+00 4.764590e-01 4.885001e-01 6.636635e-01 9.245506e-01 7.234840e-01 6.506568e-01 9.675365e-01 7.851377e-01 8.865840e-01 8.289261e-01 7.710575e-01 6.891836e-01 4.982673e-01 4.493567e-02
<GCONST> 1.165931e+02
<MIXTURE> 4 2.290606e-01
<MEAN> 39
 -2.660480e+00 1.594189e+00 -5.574114e-01 2.690222e+00 3.754840e+00 8.516500e-01 1.930938e+00 -1.195361e+00 2.501008e+00 9.826374e-01 1.169976e+00 1.237003e+00 -5.204843e+00 2.569543e+00 -2.865263e+00 -1.726326e+00 -4.055800e+00 -2.319464e+00 -1.132666e+00 -1.107352e+00 6.944366e-01 1.163319e+00 1.307612e+00 7.293929e-01 2.835244e-01 1.788624e+00 1.039542e+00 1.391408e-01 5.454312e-02 -3.291864e-01 -3.785841e-01 1.673146e-01 -5.117285e-01 -2.475274e-01 -5.760389e-01 -1.148439e-01 -1.294722e-01 -3.500566e-01 1.258968e-01
<VARIANCE> 39
 2.301503e+01 2.122055e+01 1.992627e+01 2.830069e+01 2.429020e+01 2.580222e+01 3.226172e+01 3.201994e+01 3.218783e+01 2.654260e+01 2.508708e+01 1.853110e+01 2.881642e+00 4.323946e+00 4.516101e+00 4.714318e+00 5.756942e+00 4.293261e+00 5.789545e+00 5.965802e+00 6.003181e+00 5.618439e+00 4.644388e+00 4.259238e+00 3.140390e+00 3.717814e-01 4.956668e-01 7.770854e-01 6.739559e-01 8.669411e-01 7.359806e-01 9.884873e-01 1.098660e+00 9.985828e-01 9.501771e-01 7.975082e-01 8.219011e-01 5.694693e-01 4.409827e-02
<GCONST> 1.235897e+02
<MIXTURE> 5 1.393701e-01
<MEAN> 39
 5.317541e-01 8.239117e-02 4.795380e+00 5.260445e+00 -7.295969e-01 -4.995656e+00 -1.734996e+00 -4.171623e-01 3.959592e-01 -1.579670e+00 8.809862e-01 5.648181e-01 -3.905646e+00 1.259764e+00 -2.777837e+00 2.225132e+00 -2.703548e+00 -4.056462e+00 -2.058936e+00 -1.178605e+00 9.953142e-01 -9.846239e-01 2.074598e-01 5.955263e-01 6.545846e-01 1.394498e+00 2.571088e-01 5.584705e-01 3.567116e-01 -2.505713e-01 -1.557147e-01 6.187378e-01 -1.421366e-01 -4.233737e-01 -7.007857e-01 9.763983e-02 -9.022515e-02 -2.583084e-01 -1.165335e-01
<VARIANCE> 39
 2.507749e+01 1.696320e+01 4.299596e+01 3.351229e+01 4.343210e+01 3.240985e+01 3.596147e+01 3.552279e+01 4.349232e+01 3.076655e+01 2.549574e+01 2.146507e+01 2.399663e+00 4.236894e+00 4.706364e+00 6.667455e+00 6.078195e+00 5.244781e+00 5.551785e+00 6.316735e+00 8.348333e+00 7.912847e+00 6.297889e+00 4.829533e+00 3.141816e+00 2.940369e-01 5.573980e-01 5.656679e-01 6.853485e-01 8.115488e-01 1.005494e+00 8.494027e-01 9.113421e-01 9.890387e-01 1.070883e+00 7.585536e-01 7.439390e-01 5.023538e-01 6.059612e-02
<GCONST> 1.272223e+02
<MIXTURE> 6 1.088448e-01
<MEAN> 39
 6.523683e+00 1.284740e+01 1.660575e+00 5.881054e+00 5.341612e+00 5.518430e+00 2.288448e+00 -7.047850e+00 -8.211189e+00 -5.704950e+00 -2.052785e+00 -3.314105e-01 -6.790515e+00 -1.256020e+00 -1.390921e+00 2.772914e-01 -4.398628e-01 -4.252607e-01 -9.267966e-01 -2.385852e-01 6.634426e-01 1.409324e+00 6.385989e-01 -1.852701e-01 9.319244e-02 2.903518e-01 1.622878e-01 -1.525256e+00 -3.392926e-01 -9.420668e-01 -8.141086e-01 -5.750725e-01 -7.706842e-01 3.519344e-01 7.528328e-01 6.703596e-01 6.124505e-01 1.360827e-01 4.829820e-01
<VARIANCE> 39
 9.186786e+00 1.307809e+01 1.420540e+01 2.186697e+01 2.535338e+01 2.215041e+01 2.791170e+01 2.725038e+01 1.982199e+01 2.452620e+01 2.921393e+01 2.268204e+01 1.168872e+00 1.344377e+00 2.884159e+00 1.776045e+00 2.877906e+00 2.400037e+00 2.345251e+00 2.007558e+00 2.209502e+00 2.584541e+00 2.387126e+00 2.209024e+00 1.770746e+00 2.420997e-01 2.660905e-01 4.291897e-01 8.653808e-01 7.352043e-01 8.819279e-01 6.900221e-01 6.347203e-01 9.302757e-01 6.966851e-01 7.446966e-01 6.371807e-01 4.791463e-01 3.065304e-02
<GCONST> 1.070044e+02
<TRANSP> 5
 0.000000e+00 1.000000e+00 0.000000e+00 0.000000e+00 0.000000e+00
 0.000000e+00 5.271115e-01 4.728886e-01 0.000000e+00 0.000000e+00
 0.000000e+00 0.000000e+00 4.856720e-01 5.143280e-01 0.000000e+00
 0.000000e+00 0.000000e+00 0.000000e+00 6.637915e-01 3.362084e-01
 0.000000e+00 0.000000e+00 0.000000e+00 0.000000e+00 0.000000e+00
<ENDHMM>
~h "d"
<BEGINHMM>
<NUMSTATES> 5
<STATE> 2
<NUMMIXES> 6
<MIXTURE> 1 1.337090e-01
<MEAN> 39
 -3.179236e+00 9.744001e+00 6.092662e+00 1.115692e+01 6.736591e+00 2.975135e+00 -2.757631e-01 -4.276885e+00 -2.336427e+00 -3.422796e+00 -2.544947e+00 -2.429852e+00 -8.641156e+00 -2.114632e+00 -3.124781e+00 -1.526557e+00 -2.442472e+00 1.838930e-01 7.691407e-01 1.373614e+00 1.665125e+00 1.424230e+00 1.233873e+00 1.645750e+00 1.146680e+00 4.296679e-01 5.103706e-01 -7.962508e-01 -1.756281e-01 -1.132693e+00 -1.188614e+00 -9.001464e-01 -2.032608e-01 3.226959e-01 2.433306e-01 3.614462e-01 1.917536e-01 4.002920e-01 5.738474e-01
<VARIANCE> 39
 2.262058e+01 2.528812e+01 2.399664e+01 2.765134e+01 2.213248e+01 2.647398e+01 2.977244e+01 2.913920e+01 2.723997e+01 2.490629e+01 2.618583e+01 1.729353e+01 2.720097e+00 2.311113e+00 4.090206e+00 3.292840e+00 5.944814e+00 4.425577e+00 4.317653e+00 4.050483e+00 4.242158e+00 3.858569e+00 3.709714e+00 3.197359e+00 2.893211e+00 5.977615e-01 5.514410e-01 7.945541e-01 6.700212e-01 8.041193e-01 7.047095e-01 6.936858e-01 7.758067e-01 7.541010e-01 7.385863e-01 6.134302e-01 6.075199e-01 4.917960e-01 6.451461e-02
<GCONST> 1.192488e+02
<MIXTURE> 2 1.655511e-01
<MEAN> 39
 7.688732e+00 -4.884137e+00 2.529045e-01 3.276711e+00 -6.451561e+00 -3.274820e+00 -4.237094e+00 -1.995984e+00 4.264411e+00 8.035768e-01 -2.062286e+00 -1.607176e+00 -1.976655e+00 -4.964322e-01 8.022803e-01 1.499252e+00 1.422822e+00 1.884772e-01 -4.784776e-01 -1.627241e-01 -1.041496e+00 -6.242039e-01 -1.307470e-01 -1.808411e-01 6.104108e-01 -5.332717e-01 3.122808e-04 -2.251719e-01 7.601224e-03 -7.337665e-01 3.592976e-02 1.305058e-01 -1.084934e-01 5.758735e-01 -2.520846e-01 -2.790573e-02 2.864775e-01 6.780843e-02 1.375339e-01
<VARIANCE> 39
 1.445731e+01 2.288778e+01 5.548013e+01 5.563144e+01 5.356514e+01 4.482263e+01 5.320735e+01 5.310484e+01 5.045981e+01 4.590331e+01 3.488564e+01 3.247551e+01 1.759393e+00 1.572757e+00 1.704952e+00 3.463062e+00 4.463147e+00 4.969084e+00 4.661817e+00 7.430184e+00 5.436484e+00 4.943435e+00 3.995987e+00 4.508499e+00 3.418372e+00 1.061993e-01 1.651560e-01 2.951827e-01 3.850934e-01 7.434757e-01 8.331713e-01 7.197590e-01 9.894200e-01 9.146531e-01 8.346226e-01 7.773400e-01 8.265507e-01 5.399358e-01 2.177946e-02
<GCONST> 1.206817e+02
<MIXTURE> 3 2.263941e-01
<MEAN> 39
 3.094195e+00 1.004539e+01 7.097879e+00 1.106666e+01 2.150431e+00 -2.506587e+00 -2.253692e+00 -5.309915e+00 -2.680125e+00 -3.677983e+00 -5.328731e+00 -2.461317e+00 -6.814250e+00 -1.466686e+00 -3.395262e-02 2.431117e-03 -1.612346e-01 1.289942e+00 8.328801e-01 7.148482e-01 1.795609e-01 1.745967e-01 8.279730e-02 3.199624e-01 3.084025e-01 -3.241183e-01 -7.509381e-02 -1.326470e+00 -2.414037e-01 -1.255613e+00 -7.490422e-01 -6.404945e-02 -1.504310e-01 5.613540e-01 2.759632e-01 3.447280e-01 6.545059e-01 3.622420e-01 4.237436e-01
<VARIANCE> 39
 1.280999e+01 2.793748e+01 2.341595e+01 3.197530e+01 3.630494e+01 3.027629e+01 3.347444e+01 3.757616e+01 3.311974e+01 2.726954e+01 2.872633e+01 2.262718e+01 2.337316e+00 1.851767e+00 6.139925e+00 3.351721e+00 5.436499e+00 4.430389e+00 4.091173e+00 4.466542e+00 4.808620e+00 4.557618e+00 3.289505e+00 3.998516e+00 2.621290e+00 3.554522e-01 3.441918e-01 6.339066e-01 5.385625e-01 8.366217e-01 8.897337e-01 7.145815e-01 9.358602e-01 9.124460e-01 8.261157e-01 6.703207e-01 6.512451e-01 5.165812e-01 5.499468e-02
<GCONST> 1.202564e+02
<MIXTURE> 4 1.266493e-01
<MEAN> 39
 5.149132e+00 7.897379e-01 7.039958e+00 4.621560e+00 -5.805293e+00 -4.966158e+00 -3.353878e+00 -1.107511e+00 -1.820434e-01 -2.609296e+00 -9.905740e-01 1.186331e+00 -3.795733e+00 -1.450580e+00 3.607933e+00 4.637685e-01 3.275394e+00 2.985239e+00 1.271833e+00 7.694257e-01 -1.880660e+00 -5.342338e-01 -1.041498e+00 -1.123305e+00 -9.983974e-01 -1.387758e+00 -3.021549e-01 -1.779729e-01 -3.682592e-01 -5.006159e-01 4.004219e-01 3.197945e-01 2.328472e-01 2.415580e-01 -1.438218e-02 2.337726e-01 6.335727e-02 -1.901453e-01 3.206843e-02
<VARIANCE> 39
 1.863584e+01 3.382590e+01 3.774965e+01 4.600646e+01 5.139735e+01 4.321316e+01 4.281214e+01 4.137940e+01 4.845415e+01 3.818638e+01 3.523332e+01 2.813177e+01 2.420491e+00 2.065087e+00 3.967995e+00 4.407024e+00 5.438949e+00 5.182419e+00 5.581958e+00 6.662640e+00 6.068008e+00 5.891154e+00 5.278368e+00 5.151717e+00 3.522310e+00 1.893020e-01 2.674232e-01 6.392140e-01 4.951115e-01 8.521723e-01 9.242586e-01 8.001541e-01 8.288165e-01 7.292504e-01 7.856259e-01 6.400043e-01 6.620095e-01 5.123697e-01 4.213313e-02
<GCONST> 1.247200e+02
<MIXTURE> 5 1.949328e-01
<MEAN> 39
 2.742551e+00 9.804832e+00 6.983087e+00 1.058564e+01 1.853087e+00 -1.936109e+00 -3.810438e+00 -6.137440e+00 -2.659396e+00 -4.139031e+00 -4.530282e+00 -3.686691e+00 -6.736491e+00 -1.616613e+00 1.260263e+00 2.341642e-01 1.302318e+00 1.824123e+00 1.085885e+00 6.865602e-01 -4.852319e-01 -2.444575e-01 -4.924953e-01 -2.793885e-01 -4.673076e-01 -7.412756e-01 -5.833825e-02 -1.469943e+00 -4.191885e-01 -1.504351e+00 -6.629465e-01 -8.769371e-02 1.195324e-01 7.591376e-01 3.493483e-01 5.494601e-01 5.876080e-01 5.772795e-01 4.473243e-01
<VARIANCE> 39
 1.852536e+01 2.859622e+01 2.822860e+01 3.253545e+01 4.246978e+01 3.502503e+01 3.942132e+01 3.706167e+01 3.447126e+01 3.530445e+01 3.357396e+01 2.682330e+01 2.294749e+00 2.448732e+00 6.088679e+00 4.097370e+00 7.052793e+00 5.216170e+00 5.088556e+00 5.137092e+00 5.302434e+00 4.876990e+00 3.965041e+00 3.942420e+00 3.472116e+00 4.515364e-01 4.986238e-01 7.812569e-01 6.938380e-01 9.487181e-01 1.007256e+00 8.656048e-01 1.204409e+00 9.971061e-01 9.135115e-01 9.521974e-01 8.694420e-01 6.465747e-01 5.584526e-02
<GCONST> 1.266190e+02
<MIXTURE> 6 1.527396e-01
<MEAN> 39
 -7.490531e+00 5.609159e+00 1.476225e+00 8.283248e+00 6.420694e+00 4.940218e+00 3.368787e+00 -7.611787e-02 1.341043e+00 9.218008e-01 6.713840e-01 5.059375e-01 -9.516535e+00 -5.688226e-02 -1.792450e+00 -5.222766e-01 -1.680816e+00 -5.494782e-01 -4.692667e-01 4.419854e-02 2.406441e-01 1.044694e-01 1.542517e-01 3.244836e-01 3.310698e-01 6.064902e-01 2.740894e-01 -1.122175e-01 1.987010e-01 -6.653312e-01 -5.926179e-01 -7.573800e-01 -3.554737e-01 -7.060774e-02 -1.559764e-01 -1.575886e-01 -8.376403e-02 4.266839e-02 5.237229e-01
<VARIANCE> 39
 2.823906e+01 2.518691e+01 3.260970e+01 2.643615e+01 1.997615e+01 2.294325e+01 2.334179e+01 2.672910e+01 2.700900e+01 2.093284e+01 2.491774e+01 1.654314e+01 2.555161e+00 3.209131e+00 4.244802e+00 3.577868e+00 5.364996e+00 2.924915e+00 3.447180e+00 2.923014e+00 2.936831e+00 2.608984e+00 2.414620e+00 2.314065e+00 2.031885e+00 8.951741e-01 6.936885e-01 6.549445e-01 6.859331e-01 6.999123e-01 6.360814e-01 6.082874e-01 5.642443e-01 6.012715e-01 5.259487e-01 4.762514e-01 4.458831e-01 3.712502e-01 9.703471e-02
<GCONST> 1.151003e+02
<STATE> 3
<NUMMIXES> 6
<MIXTURE> 1 1.886997e-01
<MEAN> 39
 -2.994380e+00 -1.556011e+00 4.282904e+00 1.618581e+00 1.831296e+00 1.207859e+00 1.313326e-01 -1.527377e+00 5.820166e-01 -1.962430e+00 5.284513e-01 3.402597e-01 -4.730370e+00 -1.208210e+00 -2.198356e+00 -4.118635e-01 -2.334006e+00 -4.814650e-01 -2.700012e-01 1.881309e-01 1.861619e+00 1.240350e+00 8.755930e-01 1.241294e+00 1.059005e+00 6.370896e-01 1.007443e+00 1.495016e-01 -8.156240e-02 -2.061354e-01 -8.925043e-01 -5.392164e-01 -3.704125e-01 9.161627e-02 -1.896232e-01 2.712134e-01 -2.767500e-01 4.342698e-03 2.445848e-01
<VARIANCE> 39
 2.319325e+01 3.789872e+01 3.870750e+01 4.963585e+01 4.625829e+01 5.087826e+01 4.529569e+01 4.153993e+01 3.999891e+01 2.704306e+01 3.096309e+01 2.291638e+01 1.763826e+00 4.365564e+00 4.374167e+00 4.189570e+00 5.517727e+00 5.704212e+00 4.758966e+00 6.799299e+00 6.044080e+00 5.575519e+00 4.607302e+00 4.171648e+00 3.254984e+00 3.724220e-01 5.672464e-01 1.245509e+00 9.254772e-01 1.382492e+00 1.530668e+00 1.394581e+00 1.339082e+00 1.377424e+00 1.155314e+00 9.498604e-01 1.040357e+00 7.937183e-01 4.802931e-02
<GCONST> 1.315477e+02
<MIXTURE> 2 1.745158e-01
<MEAN> 39
 7.445683e+00 -4.791657e+00 2.039542e+00 3.806859e+00 -6.154428e+00 -3.618371e+00 -5.606732e+00 -3.241922e+00 3.751121e+00 1.949736e+00 -2.317724e+00 -7.937311e-01 -2.226629e+00 2.344005e-01 -3.105083e-01 7.399113e-01 7.118627e-03 -5.430023e-01 -2.942063e-01 -9.613637e-01 8.259432e-01 -2.608710e-01 -1.163058e-01 2.678464e-01 6.027757e-01 -4.492486e-03 5.578618e-02 -3.066235e-01 -3.873337e-01 -7.862393e-01 -5.027509e-02 1.801296e-01 7.456249e-02 8.488071e-01 -2.490770e-02 -2.260828e-01 3.085310e-01 -1.333329e-01 2.017040e-01
<VARIANCE> 39
 1.219180e+01 2.020105e+01 4.383133e+01 4.155350e+01 4.285876e+01 3.805470e+01 3.950229e+01 4.359420e+01 3.887056e+01 3.539690e+01 2.847078e+01 2.736925e+01 1.330323e+00 8.424307e-01 1.051895e+00 2.548282e+00 2.527607e+00 2.630217e+00 3.049319e+00 3.510585e+00 3.764235e+00 3.417861e+00 2.675538e+00 2.551151e+00 2.329667e+00 6.153062e-02 2.014820e-01 2.861738e-01 3.646637e-01 6.476929e-01 9.202948e-01 7.641470e-01 1.146192e+00 9.474987e-01 9.296684e-01 7.218020e-01 7.517231e-01 5.194687e-01 1.476347e-02
<GCONST> 1.112014e+02
<MIXTURE> 3 8.509450e-02
<MEAN> 39
 3.823896e+00 -1.669038e+00 1.042247e+01 1.951488e+00 -7.517021e+00 -4.241951e+00 -5.508514e+00 1.547098e-03 -1.743496e+00 -4.937017e+00 1.756486e+00 1.384169e+00 -3.140619e+00 -5.022174e-01 3.627759e-02 1.455849e+00 -1.434211e+00 -6.476480e-01 -9.318172e-02 -4.408235e-01 2.281822e-01 -9.394392e-01 3.701717e-01 9.247319e-01 2.213535e-02 1.443227e-01 2.500207e-01 -3.755746e-01 -4.119216e-01 -5.926428e-01 -4.126164e-01 -7.296068e-02 2.258299e-01 3.113379e-01 -1.619554e-01 7.115697e-01 -2.083440e-01 -5.096732e-02 2.375259e-01
<VARIANCE> 39
 1.028355e+01 1.923570e+01 1.914853e+01 2.819701e+01 3.338824e+01 2.701431e+01 2.932031e+01 2.638450e+01 3.478001e+01 2.984817e+01 2.456221e+01 1.584336e+01 1.559663e+00 9.437952e-01 2.232607e+00 3.229707e+00 3.567201e+00 3.281248e+00 3.018254e+00 3.952058e+00 4.543444e+00 4.827757e+00 4.138966e+00 3.950247e+00 2.250415e+00 1.194341e-01 1.640688e-01 3.029601e-01 4.458034e-01 7.441460e-01 8.651096e-01 7.605696e-01 1.006608e+00 8.092017e-01 6.874549e-01 6.504014e-01 9.169958e-01 4.493234e-01 1.832640e-02
<GCONST> 1.110705e+02
<MIXTURE> 4 1.725053e-01
<MEAN> 39
 -7.124436e+00 -2.386639e+00 1.927584e+00 -2.767680e+00 4.411149e+00 1.654735e+00 3.123720e+00 1.164626e+00 1.062102e+00 9.923294e-01 3.075823e+00 2.173165e+00 -4.488977e+00 -7.281336e-02 -2.199417e+00 -4.420038e-01 -3.294678e+00 -2.293403e+00 -2.086754e+00 6.708276e-02 1.167474e+00 8.195511e-01 1.002414e+00 1.044471e+00 1.360164e+00 1.474811e+00 1.327702e+00 7.319724e-01 5.754858e-01 8.143020e-01 -1.053676e+00 -7.291601e-01 -7.890594e-01 -3.107315e-01 -2.826380e-01 -3.332842e-01 -6.845195e-01 -2.864760e-01 3.418234e-02
<VARIANCE> 39
 1.721035e+01 2.555877e+01 3.166873e+01 3.208355e+01 3.141294e+01 3.723555e+01 3.349900e+01 2.954099e+01 3.080544e+01 2.845796e+01 3.040288e+01 2.130196e+01 1.534711e+00 3.468603e+00 3.512697e+00 3.256681e+00 3.503706e+00 3.991111e+00 3.311348e+00 4.302640e+00 3.571683e+00 3.777355e+00 3.099469e+00 2.739297e+00 2.284913e+00 3.669945e-01 4.909222e-01 6.982051e-01 8.141815e-01 9.279331e-01 1.060052e+00 9.645792e-01 9.805081e-01 9.220436e-01 9.492621e-01 8.515257e-01 7.962247e-01 7.154427e-01 5.259871e-02
<GCONST> 1.207169e+02
<MIXTURE> 5 2.386104e-01
<MEAN> 39
 -2.356285e-01 -1.375805e+00 4.042253e+00 4.886098e+00 -9.383211e-02 2.626756e-01 2.281698e-01 -3.785752e+00 -1.054763e+00 -2.777580e+00 -2.212718e+00 3.182159e-01 -4.815958e+00 -5.710278e-01 -1.838637e+00 2.205034e-01 -2.087085e+00 -1.163122e+00 -3.952281e-01 -4.732861e-01 1.000359e+00 6.212946e-01 3.179854e-01 9.250478e-01 8.472273e-01 6.094334e-01 7.931176e-01 -1.155638e-01 -3.809838e-02 -6.400353e-01 -7.297487e-01 -4.028927e-01 -7.442598e-01 4.849768e-01 1.317501e-01 3.441322e-01 2.727531e-01 -9.408809e-02 3.149577e-01
<VARIANCE> 39
 2.502573e+01 4.504177e+01 4.908691e+01 4.855801e+01 4.378154e+01 4.933576e+01 4.356792e+01 4.052985e+01 3.833386e+01 2.617734e+01 2.909457e+01 2.245590e+01 1.850674e+00 2.419137e+00 4.383419e+00 3.946892e+00 4.782718e+00 4.476716e+00 4.028964e+00 5.410756e+00 5.421226e+00 5.622179e+00 3.524470e+00 3.729464e+00 2.872286e+00 3.240719e-01 6.271621e-01 1.351167e+00 1.152573e+00 1.298809e+00 1.404880e+00 1.330580e+00 1.368072e+00 1.292473e+00 1.203667e+00 8.898015e-01 1.068432e+00 7.685098e-01 5.125168e-02
<GCONST> 1.297794e+02
<MIXTURE> 6 1.405679e-01
<MEAN> 39
 -8.460314e+00 -1.814512e+00 8.828115e-02 -2.391746e+00 4.359804e+00 2.400997e+00 3.344573e+00 5.235882e-01 9.650095e-01 1.098812e+00 2.466188e+00 1.553011e+00 -4.822009e+00 7.727000e-01 -8.334633e-01 3.395820e-01 -2.716067e+00 -2.298378e+00 -2.614104e+00 -6.758717e-01 -2.274742e-01 -5.258115e-01 -1.971727e-01 5.443636e-02 5.230970e-01 1.613574e+00 1.040113e+00 6.745948e-01 7.418137e-01 7.623589e-01 -8.116106e-01 -6.660289e-01 -6.831009e-01 -1.817902e-01 -1.987266e-01 -2.588476e-01 -4.062506e-01 -1.205621e-01 -1.337378e-02
<VARIANCE> 39
 2.101143e+01 3.069791e+01 3.873560e+01 3.387078e+01 3.313948e+01 3.370910e+01 3.018475e+01 2.906841e+01 3.725746e+01 2.511386e+01 2.761638e+01 1.884473e+01 2.595526e+00 3.297470e+00 3.330424e+00 3.494819e+00 3.073309e+00 3.442729e+00 3.259779e+00 3.262172e+00 3.164181e+00 3.025659e+00 2.774943e+00 2.462357e+00 2.012107e+00 3.579734e-01 5.913169e-01 7.594105e-01 8.993339e-01 9.368366e-01 1.024746e+00 8.168626e-01 8.152739e-01 7.703329e-01 9.993039e-01 7.152079e-01 6.875768e-01 5.619650e-01 7.143079e-02
<GCONST> 1.198535e+02
<STATE> 4
<NUMMIXES> 6
<MIXTURE> 1 1.926910e-01
<MEAN> 39
 -7.947472e+00 -1.907045e+00 1.123972e+00 3.655796e-01 9.001158e-01 -1.083272e+00 2.979038e+00 1.548205e+00 2.601403e+00 5.399609e-01 1.543244e+00 3.031716e+00 -4.707793e+00 -1.857448e-02 5.234542e-01 -9.162521e-02 -4.727171e-02 -2.020270e-01 -1.084429e+00 -1.680090e-01 6.961872e-01 6.600308e-01 4.067032e-01 -1.812293e-02 2.080103e-01 3.333539e-01 9.483426e-01 8.970568e-01 1.764273e-01 8.096764e-01 2.434809e-01 1.392966e-01 -5.145935e-01 -4.983745e-01 -3.493116e-01 -2.295859e-01 -4.130656e-01 -3.896959e-01 -2.170862e-01
<VARIANCE> 39
 3.841998e+01 3.470097e+01 4.209414e+01 4.886673e+01 3.971678e+01 4.100349e+01 3.649053e+01 3.308589e+01 3.498892e+01 2.276353e+01 2.739914e+01 2.081161e+01 1.898424e+00 6.570817e+00 4.583399e+00 3.838164e+00 5.207573e+00 4.490031e+00 4.246210e+00 5.436810e+00 3.738561e+00 3.458155e+00 2.849797e+00 2.826849e+00 2.511349e+00 5.613909e-01 1.007495e+00 9.228969e-01 9.069648e-01 1.070758e+00 9.200427e-01 9.593531e-01 1.062883e+00 7.867262e-01 8.383120e-01 6.373614e-01 6.452929e-01 5.259487e-01 7.074749e-02
<GCONST> 1.259292e+02
<MIXTURE> 2 9.263136e-02
<MEAN> 39
 8.001275e+00 -5.825621e+00 3.619230e+00 4.509982e-01 -8.430643e+00 -4.848312e+00 -5.481249e+00 1.520996e+00 1.707249e+00 1.845599e+00 -1.150145e+00 -4.930627e-01 -1.725777e+00 1.469235e-01 -3.302390e-01 -1.995865e-01 -3.961997e-01 -2.492610e-01 -2.103882e-01 -1.968666e-02 1.034601e+00 -3.004600e-01 -5.336978e-02 2.785171e-01 1.396721e-01 1.446537e-01 -1.849893e-01 1.746933e-01 -2.048167e-01 -1.397345e-01 2.697587e-01 1.091424e-01 2.307912e-01 -6.139040e-03 5.976070e-03 -2.170643e-01 3.199663e-02 -2.873091e-02 -8.007098e-03
<VARIANCE> 39
 1.161666e+01 2.657611e+01 5.642360e+01 4.656067e+01 4.049162e+01 4.155001e+01 4.788000e+01 4.705731e+01 6.168501e+01 3.539785e+01 2.950676e+01 3.158848e+01 1.692514e+00 5.728341e-01 7.908637e-01 1.364175e+00 1.635705e+00 1.986771e+00 2.073406e+00 2.475221e+00 2.659269e+00 2.323771e+00 2.278356e+00 1.929944e+00 1.754386e+00 3.783862e-02 8.652040e-02 1.414821e-01 2.375054e-01 3.525921e-01 4.029419e-01 4.010713e-01 5.135465e-01 4.480960e-01 4.742992e-01 3.232872e-01 3.076143e-01 2.656490e-01 1.265798e-02
<GCONST> 9.948264e+01
<MIXTURE> 3 3.659645e-02
<MEAN> 39
 3.090096e+00 -6.906168e-01 1.307887e+01 -5.380394e+00 -1.129357e+01 -3.859805e+00 -2.629740e+00 -2.155216e+00 -5.733767e+00 4.473114e+00 -1.950220e-01 2.022921e+00 -2.348127e+00 -1.244537e-01 1.785125e-01 6.509464e-02 -2.126564e-01 -1.029800e-01 4.226103e-01 1.646690e-01 -2.504728e-01 8.409341e-02 -1.256108e-01 -7.486185e-02 -3.194384e-01 -5.713686e-02 4.760984e-02 -2.349590e-02 -6.260436e-02 1.076019e-01 8.685142e-02 -1.559090e-02 -7.213797e-02 4.301558e-02 5.946081e-02 -1.926604e-01 -1.264687e-02 -3.229490e-02 -2.217128e-02
<VARIANCE> 39
 9.351268e+00 1.662829e+01 1.510714e+01 4.243248e+01 1.542945e+01 2.408018e+01 2.937641e+01 3.037785e+01 3.349163e+01 6.129793e+01 1.985480e+01 1.017290e+01 2.864194e+00 1.792051e-01 3.374434e-01 4.876395e-01 6.651666e-01 4.768454e-01 1.085029e+00 9.007266e-01 9.985649e-01 1.001613e+00 8.449959e-01 7.091589e-01 6.210153e-01 1.439296e-02 3.055339e-02 6.706980e-02 7.562754e-02 1.298957e-01 1.182980e-01 1.552571e-01 1.693182e-01 1.441782e-01 1.659055e-01 1.940950e-01 1.212344e-01 1.168396e-01 4.177076e-03
<GCONST> 6.826763e+01
<MIXTURE> 4 2.481474e-01
<MEAN> 39
 4.227363e+00 -2.584226e+00 4.439339e+00 8.757490e-02 -5.294996e+00 -5.883068e+00 -5.630538e+00 -9.071854e-01 2.793454e+00 -8.608695e-02 -6.817908e-01 1.416707e+00 -2.245876e+00 1.470117e+00 -1.809120e+00 -2.415417e-01 -1.920901e+00 -2.057246e+00 -9.858335e-01 -1.419173e+00 1.921391e+00 9.309716e-01 7.194729e-01 5.729495e-01 4.390208e-01 8.492217e-01 3.565575e-01 2.595390e-01 -2.624253e-01 2.111513e-01 1.223426e-01 3.573500e-01 1.921639e-01 -3.112388e-02 -3.280310e-01 1.798941e-02 -1.225306e-01 -3.808463e-01 -6.182080e-02
<VARIANCE> 39
 1.767449e+01 2.170577e+01 3.647554e+01 3.877657e+01 3.717818e+01 3.529030e+01 3.715943e+01 3.860907e+01 3.716160e+01 2.957203e+01 2.294864e+01 2.201542e+01 1.173950e+00 2.082207e+00 3.230164e+00 4.179605e+00 5.419080e+00 5.711189e+00 6.183654e+00 6.967384e+00 6.543180e+00 6.363217e+00 5.185406e+00 5.132536e+00 3.852334e+00 2.266085e-01 2.529591e-01 4.871143e-01 3.893382e-01 8.813968e-01 8.596556e-01 7.397978e-01 8.467206e-01 8.425292e-01 8.783730e-01 6.583666e-01 6.714926e-01 5.472354e-01 4.413607e-02
<GCONST> 1.215002e+02
<MIXTURE> 5 2.101851e-01
<MEAN> 39
 4.016120e+00 -2.271498e+00 8.325346e+00 -5.637823e-01 -8.774880e+00 -4.876755e+00 -5.011867e+00 -5.101060e-01 -1.213246e+00 -1.384727e+00 6.863871e-01 1.200695e+00 -2.346159e+00 1.070873e+00 -1.053220e+00 8.351933e-01 -1.670893e+00 -2.217967e+00 -6.618188e-01 -1.042495e+00 1.240691e+00 -4.768463e-01 5.358056e-01 4.839225e-01 1.471534e-01 6.140986e-01 1.506407e-01 1.581013e-01 -4.010163e-01 2.018182e-01 3.468324e-01 2.094751e-01 2.148134e-01 3.498476e-02 -1.601285e-02 8.531931e-02 -2.152127e-01 -2.816134e-01 -6.207824e-02
<VARIANCE> 39
 1.629764e+01 2.851157e+01 3.944968e+01 3.628415e+01 3.644681e+01 3.803922e+01 4.011842e+01 4.856454e+01 4.600060e+01 3.934768e+01 3.163849e+01 2.341972e+01 1.508444e+00 2.738032e+00 3.142535e+00 5.008287e+00 5.332678e+00 5.892754e+00 5.978852e+00 6.001585e+00 5.953655e+00 6.557331e+00 5.587652e+00 6.200479e+00 3.522386e+00 1.725649e-01 2.750903e-01 4.160786e-01 3.993436e-01 7.408454e-01 9.613637e-01 7.729517e-01 8.053244e-01 8.158373e-01 6.766568e-01 6.248432e-01 6.690727e-01 4.738514e-01 4.666323e-02
<GCONST> 1.227406e+02
<MIXTURE> 6 2.197438e-01
<MEAN> 39
 -6.738455e+00 3.988585e+00 3.475625e+00 -3.323080e-01 1.001659e+00 -3.331416e+00 2.273770e+00 -1.460984e+00 -1.932862e-01 -4.782627e-01 9.207648e-01 2.149043e+00 -3.678329e+00 3.060675e+00 -1.398361e-01 1.377439e+00 -7.380450e-01 -3.060374e+00 -2.647072e+00 -2.139954e+00 -2.844588e-01 -6.193664e-01 -4.229883e-01 -6.051233e-01 5.921076e-02 9.882038e-01 1.039192e+00 -1.788875e-01 1.729587e-01 5.785787e-01 -2.685838e-01 3.077633e-01 -6.211167e-01 8.635053e-02 -4.477916e-02 -3.392875e-02 -2.433462e-01 -3.220272e-01 -2.001657e-01
<VARIANCE> 39
 2.402585e+01 3.124483e+01 4.335993e+01 3.469646e+01 3.307469e+01 4.101415e+01 3.603681e+01 3.620942e+01 3.444822e+01 2.574480e+01 2.904220e+01 2.094845e+01 1.584100e+00 3.140790e+00 4.280723e+00 5.597352e+00 6.516382e+00 5.949235e+00 5.294611e+00 4.865661e+00 5.216378e+00 5.300992e+00 4.066957e+00 4.099936e+00 2.955040e+00 5.063710e-01 5.437549e-01 7.411678e-01 8.941219e-01 8.832019e-01 8.241756e-01 9.214101e-01 8.653890e-01 7.965805e-01 8.354774e-01 6.747293e-01 7.591546e-01 5.925816e-01 5.459221e-02
<GCONST> 1.253514e+02
<TRANSP> 5
 0.000000e+00 1.000000e+00 0.000000e+00 0.000000e+00 0.000000e+00
 0.000000e+00 6.274767e-01 3.725233e-01 0.000000e+00 0.000000e+00
 0.000000e+00 0.000000e+00 2.411542e-01 7.588458e-01 0.000000e+00
 0.000000e+00 0.000000e+00 0.000000e+00 2.865482e-01 7.134517e-01
 0.000000e+00 0.000000e+00 0.000000e+00 0.000000e+00 0.000000e+00
<ENDHMM>
~h "f"
<BEGINHMM>
<NUMSTATES> 5
<STATE> 2
<NUMMIXES> 6
<MIXTURE> 1 1.684303e-01
<MEAN> 39
 6.583021e-01 3.832884e+00 -1.732337e-01 4.186240e+00 3.622430e+00 9.462450e-01 1.857709e+00 -1.511320e+00 1.787691e-01 -9.302737e-01 -1.390863e+00 -4.257177e-01 -4.806730e+00 -5.196616e+00 7.771641e-01 3.282472e-01 1.872704e+00 1.554785e+00 9.833384e-01 1.442157e+00 4.635111e-01 6.409783e-01 1.098377e-01 3.997828e-01 7.271165e-01 -1.107729e+00 -4.305610e-01 -9.373922e-01 -2.971341e-01 -6.587352e-01 -5.222674e-01 -9.673577e-02 -2.074042e-01 2.918363e-01 1.608734e-01 2.228132e-01 1.901756e-01 1.019310e-01 1.376395e-01
<VARIANCE> 39
 2.716191e+01 1.729339e+01 2.990923e+01 2.899542e+01 2.546041e+01 3.733308e+01 3.669475e+01 2.861493e+01 2.795318e+01 2.829062e+01 2.074111e+01 2.191687e+01 2.525296e+00 2.926306e+00 3.944322e+00 5.867485e+00 5.709777e+00 4.741019e+00 6.121292e+00 6.308885e+00 5.330271e+00 5.549870e+00 4.918559e+00 4.874438e+00 3.373482e+00 2.101404e-01 5.388701e-01 3.879348e-01 4.830635e-01 5.692534e-01 5.647300e-01 5.498092e-01 7.265715e-01 7.009166e-01 5.465419e-01 6.479204e-01 4.669385e-01 4.888721e-01 3.193524e-02
<GCONST> 1.188548e+02
<MIXTURE> 2 1.363087e-01
<MEAN> 39
 -1.339188e+01 -1.497677e+00 -3.976710e+00 2.986429e+00 2.055066e+00 5.375170e-01 1.981154e+00 -3.067481e-01 1.182168e+00 6.536545e-01 -4.662490e-01 1.548532e+00 -5.879945e+00 -6.549886e-02 4.179060e-02 1.088780e-01 2.733876e-01 3.597369e-01 4.434479e-01 4.381319e-01 3.779116e-01 3.753929e-01 4.050561e-01 2.838880e-01 5.335948e-02 1.988664e-02 4.646765e-01 8.962294e-02 1.655246e-01 8.886461e-03 1.448940e-01 1.087782e-01 1.603140e-01 1.285906e-01 8.849432e-02 5.738014e-02 5.262584e-02 -3.240729e-02 3.210752e-02
<VARIANCE> 39
 1.219683e+01 1.485294e+01 1.386245e+01 1.613490e+01 1.635680e+01 2.100826e+01 2.063406e+01 2.061459e+01 2.048376e+01 1.764605e+01 1.988817e+01 1.479132e+01 1.582270e+00 6.288561e-01 6.208426e-01 7.340644e-01 1.012723e+00 1.103229e+00 1.148965e+00 1.279245e+00 1.409044e+00 1.276446e+00 1.262571e+00 1.358740e+00 1.285183e+00 4.762077e-02 1.990216e-01 1.441325e-01 1.783807e-01 2.218887e-01 2.423137e-01 2.860801e-01 2.750859e-01 3.073135e-01 3.073486e-01 2.705993e-01 2.850186e-01 2.553588e-01 1.143595e-02
<GCONST> 8.229335e+01
<MIXTURE> 3 1.516350e-01
<MEAN> 39
 -1.364673e+01 -2.823132e+00 -4.462473e+00 2.134995e+00 2.308865e+00 1.139667e+00 3.177539e+00 1.310555e+00 2.421389e+00 1.494830e+00 4.482657e-02 1.759848e+00 -5.763076e+00 -5.351199e-01 -4.060893e-01 -5.227419e-01 -3.190449e-01 -3.761368e-01 -1.408741e-01 -1.441187e-01 9.189747e-02 3.308079e-01 4.979555e-01 4.103583e-01 2.515758e-01 2.225894e-02 9.302157e-01 4.144776e-01 3.692175e-01 1.259217e-01 9.997486e-02 -4.247618e-02 -1.326592e-01 -2.100995e-01 -2.155579e-01 -1.131615e-01 -5.488015e-02 -1.171095e-01 7.290483e-02
<VARIANCE> 39
 1.366804e+01 1.196385e+01 1.562143e+01 1.575375e+01 1.688395e+01 1.935221e+01 2.056056e+01 2.194459e+01 2.105423e+01 1.897442e+01 2.001716e+01 1.491930e+01 1.557395e+00 1.774332e+00 9.684792e-01 1.161378e+00 1.315404e+00 1.239923e+00 1.273347e+00 1.423844e+00 1.485038e+00 1.576744e+00 1.433720e+00 1.424555e+00 1.329726e+00 9.300181e-02 3.980084e-01 2.006522e-01 2.623723e-01 3.096812e-01 3.284137e-01 3.536620e-01 4.049333e-01 3.999614e-01 3.822000e-01 3.433191e-01 3.438911e-01 3.046149e-01 1.985969e-02
<GCONST> 9.034631e+01
<MIXTURE> 4 2.226991e-01
<MEAN> 39
 -1.037309e+01 8.331010e-01 -7.915764e-01 5.213557e+00 4.687801e+00 2.615245e+00 4.011084e+00 7.039593e-01 1.911540e+00 4.851856e-01 5.973813e-02 1.137190e+00 -6.505315e+00 -3.885676e+00 -1.232467e+00 -8.342335e-01 -6.339685e-02 -2.623769e-02 3.189891e-01 5.234853e-01 7.562653e-01 7.836216e-01 5.012562e-01 5.494894e-01 6.540307e-01 -4.385892e-01 1.131082e+00 -2.835169e-01 -1.979337e-01 -6.054610e-01 -5.851753e-01 -3.552690e-01 -4.998850e-01 -1.896808e-01 -2.125339e-01 2.345220e-02 -2.015319e-02 -1.222747e-01 3.053894e-01
<VARIANCE> 39
 1.853287e+01 1.793667e+01 2.086653e+01 1.741612e+01 1.972854e+01 2.230527e+01 2.396359e+01 2.320515e+01 2.356432e+01 2.047826e+01 2.116593e+01 1.649441e+01 2.308476e+00 2.928391e+00 1.943922e+00 2.837440e+00 3.037328e+00 2.606719e+00 3.303550e+00 3.248847e+00 3.134472e+00 3.188817e+00 2.769225e+00 2.749902e+00 2.171320e+00 2.423262e-01 4.604909e-01 4.914938e-01 6.456092e-01 6.566851e-01 5.620577e-01 6.225391e-01 6.711602e-01 6.169677e-01 6.620406e-01 5.612528e-01 5.651736e-01 4.445738e-01 2.957855e-02
<GCONST> 1.094050e+02
<MIXTURE> 5 2.118092e-01
<MEAN> 39
 -1.352287e+01 -1.491341e+00 -3.797968e+00 2.954914e+00 2.347067e+00 1.307619e+00 2.562431e+00 4.765877e-01 1.583316e+00 1.300179e+00 -9.060003e-03 1.659154e+00 -5.888846e+00 1.953482e-02 -6.135043e-03 -1.006645e-01 -4.487744e-02 -9.812380e-02 -1.329866e-01 -2.447999e-01 -2.645580e-01 -2.575351e-01 -1.886748e-01 -1.725472e-01 -1.306838e-01 1.021303e-03 3.268677e-01 -8.646986e-04 8.437891e-02 -2.325407e-02 7.840436e-02 -1.897065e-03 3.661799e-02 1.188649e-02 1.796409e-02 -3.721877e-02 -1.564899e-02 -4.184667e-02 2.002503e-02
<VARIANCE> 39
 1.128856e+01 1.325208e+01 1.365151e+01 1.572680e+01 1.608700e+01 1.897636e+01 1.931349e+01 1.934441e+01 2.191603e+01 1.782124e+01 1.909670e+01 1.508914e+01 1.784951e+00 4.014656e-01 4.804739e-01 6.159858e-01 8.746137e-01 9.021298e-01 1.129040e+00 1.165693e+00 1.298652e+00 1.274833e+00 1.336011e+00 1.286091e+00 1.192731e+00 3.788124e-02 1.352009e-01 1.156392e-01 1.467440e-01 2.044190e-01 2.088722e-01 2.455290e-01 2.501453e-01 2.799683e-01 2.788767e-01 2.761179e-01 2.764606e-01 2.503980e-01 7.059151e-03
<GCONST> 7.828339e+01
<MIXTURE> 6 1.090886e-01
<MEAN> 39
 -1.303664e+01 -2.067787e+00 -3.905012e+00 1.992240e+00 2.200364e+00 7.955822e-01 3.119885e+00 4.837661e-01 1.426559e+00 7.828213e-01 -7.829294e-01 1.540118e+00 -5.815488e+00 -7.343715e-01 -6.412896e-01 -9.882516e-01 -4.792825e-01 -8.670537e-01 -6.358423e-01 -7.947307e-01 -6.586006e-01 -3.738519e-01 -2.124934e-01 -1.941333e-01 -1.354765e-02 -1.025655e-01 8.767326e-01 2.938613e-01 2.222487e-01 -1.942432e-02 7.423169e-02 -5.304217e-04 -1.232575e-01 -6.850533e-02 -5.558589e-02 3.161371e-02 6.252472e-02 -5.449646e-02 1.231763e-01
<VARIANCE> 39
 1.257488e+01 1.187749e+01 1.595069e+01 1.535062e+01 1.537467e+01 1.910840e+01 2.058099e+01 1.976315e+01 2.166488e+01 2.059496e+01 1.848042e+01 1.610499e+01 1.586195e+00 2.106097e+00 1.029934e+00 1.247269e+00 1.546197e+00 1.274399e+00 1.375111e+00 1.559583e+00 1.412766e+00 1.577182e+00 1.393348e+00 1.407826e+00 1.387770e+00 1.511184e-01 5.998861e-01 2.278404e-01 3.313842e-01 3.633504e-01 3.311781e-01 3.924336e-01 4.346415e-01 4.049984e-01 4.062726e-01 3.934700e-01 3.496749e-01 3.524425e-01 2.059936e-02
<GCONST> 9.278845e+01
<STATE> 3
<NUMMIXES> 6
<MIXTURE> 1 1.035254e-01
<MEAN> 39
 -1.333861e+01 -1.451498e+00 -2.174856e+00 3.383109e+00 2.692878e+00 1.594375e+00 2.975380e+00 1.592070e+00 3.846695e+00 1.523727e+00 2.258649e+00 2.102680e+00 -5.800685e+00 1.791847e-02 1.967072e-01 5.034958e-01 3.879348e-01 8.086545e-01 8.337911e-01 8.060486e-01 6.375351e-01 7.659751e-01 6.616185e-01 6.215511e-01 3.402885e-01 -6.946054e-02 1.009920e+00 3.727283e-01 1.607556e-01 -3.156038e-02 4.256332e-03 5.911281e-03 -1.363907e-01 -2.875658e-01 -3.553766e-01 -2.076823e-01 -2.722113e-01 -1.800969e-01 3.454001e-02
<VARIANCE> 39
 1.361761e+01 1.511251e+01 2.478685e+01 2.466445e+01 1.970020e+01 2.537273e+01 2.303387e+01 2.421484e+01 2.164687e+01 2.173984e+01 2.501909e+01 1.696258e+01 2.011388e+00 3.192145e+00 1.674132e+00 2.072258e+00 2.048610e+00 1.700504e+00 1.900491e+00 1.946123e+00 1.979030e+00 1.841543e+00 1.819239e+00 1.795800e+00 1.452775e+00 2.811908e-01 4.811364e-01 2.411198e-01 3.825845e-01 5.109667e-01 4.151604e-01 5.288136e-01 5.186033e-01 4.894204e-01 4.159366e-01 4.551114e-01 4.769864e-01 3.777285e-01 5.288097e-02
<GCONST> 1.024123e+02
<MIXTURE> 2 2.514317e-01
<MEAN> 39
 -1.244862e+01 -2.564974e+00 -4.843501e+00 2.264920e+00 2.641995e+00 6.584499e-01 3.000839e+00 -1.228903e-01 1.457132e+00 9.974031e-01 -1.199008e+00 9.901164e-01 -5.747860e+00 2.801803e+00 5.365749e-01 5.884913e-01 1.614228e-02 2.408876e-01 -1.382691e-01 -2.023119e-01 -1.302462e-01 4.404854e-02 1.151234e-02 -7.073326e-02 -3.037432e-01 2.689443e-01 1.688134e+00 1.762918e-01 1.469300e-01 -3.684182e-01 -3.779178e-01 -9.623001e-02 -6.062654e-01 -5.703578e-02 -6.710164e-02 -6.957212e-02 2.261573e-01 -2.368105e-02 2.871526e-01
<VARIANCE> 39
 1.214776e+01 1.337212e+01 1.452291e+01 1.539916e+01 1.791558e+01 1.922588e+01 2.258690e+01 2.134484e+01 1.900429e+01 2.065861e+01 1.415680e+01 1.574872e+01 1.150495e+00 2.172435e+00 1.152982e+00 1.308635e+00 1.452912e+00 1.507418e+00 1.685599e+00 1.828514e+00 1.693439e+00 1.558251e+00 1.566087e+00 1.358718e+00 1.263211e+00 1.348155e-01 1.688773e-01 3.401218e-01 5.074226e-01 4.793881e-01 5.341963e-01 6.527322e-01 7.329161e-01 5.497687e-01 4.727486e-01 5.123190e-01 3.448448e-01 4.314117e-01 1.837599e-02
<GCONST> 9.521633e+01
<MIXTURE> 3 2.072410e-01
<MEAN> 39
 -1.319416e+01 2.252706e+00 -6.061822e-01 5.913488e+00 3.906664e+00 3.526482e+00 3.318126e+00 6.035058e-01 2.874504e+00 1.022927e+00 2.532134e+00 2.256847e+00 -7.412863e+00 6.986401e-02 -1.598685e-01 -3.607900e-02 6.440938e-02 2.206907e-01 2.121325e-01 2.893953e-01 2.482416e-01 2.550291e-01 1.897011e-01 8.719996e-02 5.472097e-02 5.008437e-02 8.434548e-01 -1.621133e-01 -1.033385e-01 -3.195391e-01 -2.128241e-01 -2.890003e-01 -1.386927e-01 -7.095879e-02 -5.082039e-02 -7.313266e-02 -1.906780e-01 -1.789158e-01 2.156250e-01
<VARIANCE> 39
 1.557102e+01 1.497048e+01 1.708980e+01 1.604112e+01 1.758580e+01 1.567059e+01 1.876208e+01 1.935658e+01 2.276612e+01 1.644621e+01 2.098254e+01 1.291201e+01 2.759997e+00 1.105190e+00 1.093353e+00 8.878664e-01 1.014724e+00 1.214434e+00 1.142527e+00 1.056853e+00 1.404197e+00 1.499859e+00 1.341024e+00 1.242882e+00 1.254786e+00 1.774892e-01 4.792286e-01 2.343116e-01 2.709529e-01 2.849719e-01 3.169989e-01 3.295538e-01 3.177053e-01 3.858819e-01 3.827855e-01 3.410065e-01 3.147378e-01 2.750231e-01 4.077718e-02
<GCONST> 9.023185e+01
<MIXTURE> 4 1.077911e-01
<MEAN> 39
 -1.250037e+01 -2.199902e+00 -1.304658e+00 4.862504e+00 3.847513e+00 3.875536e+00 3.388278e+00 2.993394e+00 5.337698e+00 2.247987e+00 4.928278e+00 2.841194e+00 -5.807857e+00 2.857262e+00 6.415362e-01 4.167756e-01 -6.956084e-01 -4.652147e-01 -8.804879e-01 -6.048794e-01 -8.548437e-01 -7.197269e-01 -6.473903e-01 -8.343151e-01 -5.110101e-01 3.797966e-01 1.598161e+00 1.759694e-01 -1.247325e-01 -7.532097e-01 -5.774982e-01 -6.426873e-01 -5.717412e-01 -4.546673e-01 -7.162823e-01 -2.680050e-01 -6.609448e-01 -4.042725e-01 2.790946e-01
<VARIANCE> 39
 1.458418e+01 1.403444e+01 1.803861e+01 2.015783e+01 2.082277e+01 1.993787e+01 2.209702e+01 1.962788e+01 2.261247e+01 1.885395e+01 1.534644e+01 1.420648e+01 1.820505e+00 3.189958e+00 1.527729e+00 2.066162e+00 1.949927e+00 1.977564e+00 2.347001e+00 1.857750e+00 2.084356e+00 2.018414e+00 1.703656e+00 1.581707e+00 1.606594e+00 1.849877e-01 3.190948e-01 3.786762e-01 5.757635e-01 5.480192e-01 5.135555e-01 6.655790e-01 5.745088e-01 5.645591e-01 6.092156e-01 5.065466e-01 4.076107e-01 3.787000e-01 2.752726e-02
<GCONST> 1.012781e+02
<MIXTURE> 5 1.523822e-01
<MEAN> 39
 -1.298529e+01 2.454357e+00 -1.836290e+00 4.955971e+00 2.970767e+00 2.621996e+00 2.766139e+00 3.599986e-01 1.872935e+00 1.006785e+00 1.495366e+00 2.159004e+00 -7.682266e+00 1.408629e-01 -6.762379e-01 -4.372607e-01 -5.198174e-01 -5.277025e-01 -6.246557e-01 -6.063836e-01 -4.358954e-01 -3.488182e-01 -3.641352e-01 -2.727734e-01 -7.946620e-02 1.999453e-01 9.981490e-01 -1.788833e-01 -1.830909e-02 -2.820035e-01 -8.109117e-02 -1.618177e-01 -7.975746e-02 -8.706632e-02 -1.415242e-02 -2.746702e-02 -1.461497e-01 -1.870157e-01 2.859384e-01
<VARIANCE> 39
 1.673119e+01 1.553142e+01 1.922466e+01 1.546889e+01 1.790036e+01 1.736476e+01 2.237972e+01 1.861055e+01 2.180118e+01 1.724961e+01 2.030007e+01 1.285672e+01 2.549125e+00 1.626660e+00 1.456437e+00 9.984809e-01 1.176529e+00 1.387087e+00 1.236451e+00 1.483291e+00 1.537418e+00 1.530712e+00 1.363563e+00 1.376527e+00 1.340363e+00 2.832254e-01 6.607855e-01 3.198051e-01 3.320666e-01 3.472725e-01 3.673461e-01 4.308715e-01 4.165729e-01 4.046611e-01 3.945975e-01 3.364723e-01 3.398366e-01 3.139828e-01 5.858955e-02
<GCONST> 9.517546e+01
<MIXTURE> 6 1.776313e-01
<MEAN> 39
 -1.297271e+01 -3.498537e+00 -4.015046e+00 1.999838e+00 1.838146e+00 1.215490e+00 2.502132e+00 1.802030e+00 3.550007e+00 2.832843e+00 2.377390e+00 2.143016e+00 -5.590858e+00 4.519745e-01 -2.728698e-01 1.716048e-01 -1.603870e-01 1.040722e-01 7.377790e-02 1.417449e-01 8.894876e-03 -1.692312e-02 -1.307647e-01 -4.722025e-02 -1.285594e-01 1.254610e-01 9.503273e-01 5.692101e-01 4.226173e-01 1.391118e-01 1.217983e-01 7.411904e-02 -1.004629e-01 -2.803257e-01 -3.673527e-01 -3.583485e-01 -3.257905e-01 -1.985314e-01 9.988220e-03
<VARIANCE> 39
 1.714733e+01 1.776023e+01 2.462737e+01 2.591840e+01 2.647946e+01 2.478998e+01 2.261514e+01 2.269905e+01 2.333845e+01 2.236331e+01 2.189167e+01 1.574836e+01 1.965369e+00 2.221845e+00 1.660131e+00 1.846968e+00 2.266208e+00 2.053375e+00 2.091968e+00 1.772682e+00 2.056066e+00 1.970506e+00 1.976426e+00 1.720837e+00 1.262638e+00 2.324165e-01 4.395170e-01 3.122739e-01 4.178586e-01 5.354781e-01 5.332714e-01 4.902574e-01 4.861765e-01 4.679319e-01 4.366314e-01 4.597471e-01 4.099878e-01 3.114130e-01 3.726728e-02
<GCONST> 1.022638e+02
<STATE> 4
<NUMMIXES> 6
<MIXTURE> 1 1.219524e-01
<MEAN> 39
 -9.760498e+00 6.070050e-01 -1.388727e+00 3.170935e+00 4.272034e+00 1.901561e+00 2.812516e+00 2.508451e-01 2.051868e+00 9.156792e-01 5.995568e-01 1.827667e+00 -6.464155e+00 1.609481e+00 8.934160e-01 5.059817e-01 2.474231e-01 4.056818e-01 7.605942e-01 7.527893e-02 -1.778180e-01 5.926241e-02 2.131118e-01 3.337228e-01 8.041497e-02 -2.005883e-01 5.025590e-01 -6.995067e-03 -6.640347e-02 -2.739289e-01 -3.280802e-01 4.537394e-02 -6.094925e-03 -9.007581e-02 -1.107422e-01 -1.912902e-02 2.647186e-02 -7.338030e-02 1.692805e-01
<VARIANCE> 39
 2.173351e+01 2.276090e+01 2.918801e+01 3.288252e+01 3.034321e+01 2.844816e+01 2.632738e+01 2.321098e+01 2.720396e+01 2.456329e+01 2.481830e+01 1.398380e+01 3.357382e+00 5.188641e+00 1.816852e+00 2.050740e+00 3.269691e+00 2.731460e+00 2.712359e+00 2.648511e+00 2.381499e+00 2.036392e+00 1.808820e+00 2.124825e+00 1.501431e+00 7.227672e-01 6.762972e-01 4.840358e-01 4.737289e-01 7.229550e-01 6.976746e-01 6.989160e-01 5.847631e-01 5.936292e-01 5.725540e-01 5.426344e-01 4.705218e-01 3.393151e-01 8.102763e-02
<GCONST> 1.121379e+02
<MIXTURE> 2 1.568071e-01
<MEAN> 39
 5.076838e+00 2.375057e+00 -3.602214e+00 1.026892e+00 2.645390e+00 -8.023961e-01 -2.177821e+00 -2.484851e+00 1.495953e+00 9.284570e-01 -5.187038e-01 -3.301668e-01 -3.284496e+00 6.215875e+00 -7.420738e-01 -9.005620e-01 -1.870603e+00 -1.150992e+00 -1.209979e+00 -3.030070e+00 -3.272312e-01 -1.620360e-01 -3.336149e-01 2.179619e-01 -3.622436e-01 1.317736e+00 -8.880878e-01 -6.412235e-01 -6.990389e-02 -8.445904e-02 -2.262452e-01 -2.988287e-02 -1.577866e-02 3.680893e-01 9.309788e-02 -3.622163e-02 1.136997e-01 1.399677e-01 -4.962499e-02
<VARIANCE> 39
 3.177597e+01 1.581314e+01 3.272560e+01 2.392373e+01 1.835984e+01 2.343050e+01 4.152924e+01 2.153760e+01 1.933494e+01 1.786606e+01 1.507400e+01 1.756332e+01 1.275993e+00 1.639105e+00 3.205232e+00 5.861671e+00 5.133732e+00 5.565076e+00 6.801792e+00 8.275505e+00 6.248425e+00 5.652213e+00 5.096102e+00 4.794477e+00 4.655310e+00 1.360618e-01 4.158469e-01 2.500430e-01 3.547905e-01 3.737984e-01 3.588332e-01 4.023153e-01 5.946689e-01 4.890088e-01 3.698325e-01 3.918531e-01 3.153762e-01 3.224806e-01 1.812015e-02
<GCONST> 1.105190e+02
<MIXTURE> 3 2.958101e-01
<MEAN> 39
 -8.200739e+00 -1.058781e+00 -3.190263e+00 3.374254e+00 4.386637e+00 1.809916e+00 3.020959e+00 -2.542399e-01 2.310149e+00 1.973846e+00 -4.151141e-01 6.184172e-01 -6.057819e+00 6.406126e+00 3.546364e-01 -4.687126e-01 -1.803915e+00 -8.416998e-01 6.453511e-02 -1.499892e+00 -5.443532e-01 -1.928281e-01 -3.127929e-01 3.384525e-01 -4.397324e-01 1.097163e+00 9.907832e-01 -4.010853e-01 -3.539909e-01 -7.350227e-01 -5.787662e-01 -1.370162e-02 -6.791733e-01 5.719162e-02 -8.530289e-03 -1.779940e-01 2.401625e-01 -4.722436e-03 3.352931e-01
<VARIANCE> 39
 1.818118e+01 1.559140e+01 1.765793e+01 1.838969e+01 1.728734e+01 2.151069e+01 2.336216e+01 2.215343e+01 2.134964e+01 2.028520e+01 1.770578e+01 1.710240e+01 1.419152e+00 1.418252e+00 2.763890e+00 3.360524e+00 4.582068e+00 4.213162e+00 4.867507e+00 5.891807e+00 3.849246e+00 3.492378e+00 3.090348e+00 2.568047e+00 2.821422e+00 1.437893e-01 3.941955e-01 4.173085e-01 4.477313e-01 5.517289e-01 6.868852e-01 7.189232e-01 8.516972e-01 7.092584e-01 6.304225e-01 6.257686e-01 4.838248e-01 5.358815e-01 1.858623e-02
<GCONST> 1.093933e+02
<MIXTURE> 4 6.960665e-02
<MEAN> 39
 1.577099e+00 1.558271e+00 9.346149e+00 2.545768e+00 -5.608019e+00 -4.830001e+00 1.169174e+00 -1.980945e+00 -4.274332e+00 -1.517420e+00 3.028343e-01 1.087832e+00 -3.571918e+00 4.281083e+00 -1.471631e-01 3.274930e+00 -1.446423e+00 -3.787395e+00 -1.977963e+00 -2.311880e+00 -1.605377e+00 -2.374300e+00 -4.270344e-01 2.954448e-01 -5.852194e-01 1.016060e+00 -9.837199e-01 -2.921477e-01 -4.634908e-01 -3.202416e-01 7.708989e-02 4.323715e-01 -1.048284e-01 9.916481e-02 2.425954e-01 2.279042e-01 1.365534e-01 -1.133356e-02 -6.023815e-02
<VARIANCE> 39
 2.098220e+01 1.492918e+01 3.369416e+01 3.131518e+01 3.507506e+01 3.042927e+01 2.856888e+01 3.696722e+01 2.477815e+01 2.518352e+01 2.195745e+01 1.516413e+01 1.857603e+00 1.946946e+00 2.587360e+00 5.819107e+00 5.714542e+00 2.853603e+00 6.454553e+00 4.588163e+00 5.491515e+00 5.011918e+00 6.756977e+00 6.783097e+00 3.310956e+00 1.610498e-01 4.156812e-01 2.353851e-01 3.904073e-01 3.876475e-01 5.452516e-01 5.148726e-01 6.024913e-01 6.132844e-01 5.842731e-01 4.065503e-01 4.040543e-01 3.076763e-01 2.574917e-02
<GCONST> 1.135932e+02
<MIXTURE> 5 2.269455e-01
<MEAN> 39
 -7.911038e+00 -6.982977e-01 -3.645531e-01 3.759063e+00 2.544598e+00 1.813422e+00 3.915282e+00 1.623438e+00 3.511909e+00 3.409372e-01 1.224304e+00 1.821824e+00 -5.803761e+00 5.418427e+00 1.071426e-01 9.961689e-01 -1.410161e+00 -1.812197e+00 -2.023882e+00 -1.743964e+00 -6.007110e-01 -1.480350e+00 -5.794539e-01 -1.014521e+00 -8.774880e-01 9.806445e-01 7.218304e-01 -3.718672e-01 -2.808588e-02 -6.365876e-01 -6.025727e-01 -4.552686e-01 -6.035103e-01 2.837834e-02 -4.560142e-01 1.103619e-01 -7.356890e-02 -1.497094e-01 2.727239e-01
<VARIANCE> 39
 1.724316e+01 1.522905e+01 2.268340e+01 2.197698e+01 2.193443e+01 2.321399e+01 2.694239e+01 2.440089e+01 2.533017e+01 2.100765e+01 2.443792e+01 1.712287e+01 1.842099e+00 1.747246e+00 3.318931e+00 6.486938e+00 4.709908e+00 3.475559e+00 4.541289e+00 3.630316e+00 4.523859e+00 4.007106e+00 3.116127e+00 3.871862e+00 2.059661e+00 1.838439e-01 3.809072e-01 4.179760e-01 7.306604e-01 5.170510e-01 5.447130e-01 6.785375e-01 7.156963e-01 7.475757e-01 6.795607e-01 6.674133e-01 5.995724e-01 4.438841e-01 2.354447e-02
<GCONST> 1.124521e+02
<MIXTURE> 6 1.288753e-01
<MEAN> 39
 -9.666263e+00 -1.455800e+00 -2.481449e+00 7.719251e-01 2.707577e+00 6.586385e-01 2.580657e+00 -3.608047e-01 -7.390749e-02 1.643651e+00 -3.773030e-01 1.140769e+00 -5.821896e+00 3.129715e+00 9.748893e-01 7.871962e-01 -5.903955e-01 -5.301849e-01 9.461418e-02 -2.381925e-01 -9.583499e-01 -5.735798e-01 -5.683348e-01 -2.686373e-01 -3.738040e-01 3.471031e-01 8.966166e-01 2.256755e-01 4.684798e-02 -1.957781e-01 -4.076937e-01 1.409282e-01 -2.200390e-01 -1.536329e-01 4.473504e-02 -1.998247e-01 1.240094e-01 -3.332416e-02 1.777698e-01
<VARIANCE> 39
 1.928053e+01 2.355401e+01 2.939748e+01 2.993246e+01 2.752836e+01 2.437103e+01 2.938627e+01 2.701473e+01 2.609477e+01 2.007933e+01 2.014928e+01 1.576037e+01 2.673517e+00 5.407988e+00 2.608419e+00 3.159516e+00 2.805553e+00 2.405385e+00 2.476130e+00 2.985101e+00 3.030286e+00 2.531564e+00 2.063073e+00 1.969586e+00 1.358154e+00 3.670714e-01 5.750553e-01 5.103350e-01 5.083620e-01 8.613580e-01 6.672153e-01 6.179353e-01 7.014394e-01 7.086578e-01 6.168218e-01 5.667459e-01 4.634796e-01 3.594275e-01 6.768588e-02
<GCONST> 1.120437e+02
<TRANSP> 5
 0.000000e+00 1.000000e+00 0.000000e+00 0.000000e+00 0.000000e+00
 0.000000e+00 8.297912e-01 1.702088e-01 0.000000e+00 0.000000e+00
 0.000000e+00 0.000000e+00 6.352812e-01 3.647188e-01 0.000000e+00
 0.000000e+00 0.000000e+00 0.000000e+00 4.138258e-01 5.861741e-01
 0.000000e+00 0.000000e+00 0.000000e+00 0.000000e+00 0.000000e+00
<ENDHMM>
~h "g"
<BEGINHMM>
<NUMSTATES> 5
<STATE> 2
<NUMMIXES> 6
<MIXTURE> 1 1.958382e-01
<MEAN> 39
 -8.991432e+00 -4.745546e-02 1.152694e+00 8.726993e+00 7.319136e+00 1.904725e+00 1.254090e+00 2.655978e+00 2.958677e+00 4.146805e-02 1.176406e+00 1.946079e+00 -7.483850e+00 1.035487e+00 1.904314e-01 -2.808769e-01 5.991568e-01 2.860450e-01 1.267626e+00 1.221428e-01 -5.699409e-01 -3.060246e-01 1.797580e-01 -4.286006e-02 -1.775498e-01 -8.979011e-01 6.532185e-02 1.671077e-01 -1.673009e-01 -6.041813e-01 -5.690244e-01 -2.006522e-01 7.402604e-02 -1.825679e-01 -2.943615e-01 1.125381e-01 -1.091496e-01 -6.890801e-02 2.557188e-01
<VARIANCE> 39
 2.392645e+01 4.720452e+01 4.837034e+01 3.669163e+01 5.705578e+01 6.328148e+01 5.568957e+01 5.150812e+01 5.086554e+01 3.886401e+01 3.159134e+01 2.341426e+01 5.764524e+00 3.863628e+00 5.612339e+00 4.907917e+00 4.481968e+00 6.347672e+00 5.501992e+00 4.634980e+00 4.099624e+00 3.895036e+00 3.306385e+00 2.862792e+00 1.902472e+00 1.305402e+00 7.130384e-01 1.270084e+00 1.002529e+00 8.552579e-01 1.157083e+00 1.273680e+00 1.184912e+00 8.323063e-01 8.374943e-01 8.166163e-01 5.615934e-01 5.190801e-01 1.807636e-01
<GCONST> 1.322685e+02
<MIXTURE> 2 1.397734e-01
<MEAN> 39
 3.308300e+00 -1.996068e+00 1.362294e+01 4.171229e+00 -1.163851e+01 -6.925463e+00 -2.217951e+00 5.183801e+00 -1.356421e+01 -4.447923e+00 8.630322e+00 -3.337926e+00 -2.664626e+00 -5.716640e-01 2.782451e+00 4.106154e-02 2.275640e+00 1.676133e+00 3.097822e-01 1.976685e+00 -9.961659e-01 -1.777260e+00 -3.834625e-01 -4.070269e-01 -9.660720e-01 -1.051306e+00 -7.803029e-02 4.360424e-01 -8.365692e-01 9.319551e-02 8.806735e-01 2.324508e-01 1.340241e-01 -4.243316e-01 1.320739e+00 2.672100e-01 -1.026635e+00 3.294191e-01 -1.953322e-01
<VARIANCE> 39
 1.025618e+01 1.453943e+01 2.603365e+01 2.777577e+01 3.408898e+01 3.722904e+01 3.686621e+01 4.197396e+01 4.483393e+01 3.870195e+01 2.026550e+01 2.247935e+01 1.735179e+00 6.221497e-01 2.428220e+00 3.103178e+00 2.422160e+00 2.733151e+00 2.832532e+00 3.834847e+00 5.467015e+00 6.396957e+00 3.935403e+00 3.101182e+00 2.645872e+00 1.361222e-01 1.409688e-01 3.058995e-01 3.253398e-01 4.193282e-01 6.010298e-01 6.149136e-01 6.034718e-01 7.886096e-01 8.022123e-01 5.870254e-01 4.735265e-01 4.016522e-01 2.480049e-02
<GCONST> 1.097597e+02
<MIXTURE> 3 1.882612e-01
<MEAN> 39
 2.161201e+00 1.694985e+00 1.431315e+01 -4.123642e+00 -1.162624e+01 -4.815850e+00 3.752758e+00 -8.453017e+00 -8.468325e+00 9.247478e+00 -4.975797e+00 -1.544666e+00 -2.809529e+00 -1.686496e-01 2.910344e+00 2.824056e-01 3.125411e+00 1.458767e+00 9.024661e-01 -2.125840e-01 -1.953020e+00 6.000571e-02 -9.003381e-01 -9.616464e-01 -8.045684e-01 -1.140330e+00 -1.278585e-01 1.493727e-01 -9.378993e-01 8.934981e-01 9.470467e-01 1.975238e-01 -4.541463e-01 7.927495e-01 6.446131e-01 -1.353645e+00 4.821717e-01 -8.794668e-02 -2.266949e-01
<VARIANCE> 39
 1.125949e+01 2.279642e+01 2.477552e+01 4.310923e+01 2.738502e+01 3.748349e+01 3.029036e+01 4.357987e+01 6.037751e+01 2.967331e+01 3.485216e+01 2.917808e+01 1.823994e+00 1.206655e+00 2.413110e+00 3.259212e+00 4.084671e+00 3.690369e+00 3.695051e+00 4.841958e+00 5.565198e+00 4.541668e+00 6.194468e+00 3.671175e+00 2.771170e+00 2.022820e-01 2.570670e-01 4.703875e-01 3.951434e-01 6.454976e-01 5.860674e-01 7.190028e-01 6.327271e-01 7.099101e-01 1.076561e+00 6.867484e-01 7.257449e-01 6.791148e-01 3.423752e-02
<GCONST> 1.174297e+02
<MIXTURE> 4 1.782169e-01
<MEAN> 39
 5.862483e+00 7.098606e+00 1.238282e+00 5.380783e+00 -8.518863e-01 -2.027776e+00 -6.019592e-03 -5.291144e+00 -7.683248e+00 -2.159473e+00 -4.804598e-01 -2.787271e+00 -5.316369e+00 -1.464137e+00 1.357450e+00 6.428032e-01 1.794450e+00 1.802032e+00 -2.501342e-01 -5.092472e-04 4.772112e-02 5.496219e-01 -7.987911e-01 -7.281977e-01 2.407174e-01 -8.123080e-01 -3.163068e-01 -8.490727e-01 -6.489101e-02 -4.543780e-01 8.485088e-02 5.546060e-02 -2.336916e-01 3.957368e-01 5.278006e-01 3.843571e-01 8.554664e-02 2.747637e-01 1.764170e-01
<VARIANCE> 39
 1.108205e+01 2.431665e+01 2.830690e+01 3.636891e+01 6.123605e+01 4.971650e+01 6.935433e+01 5.721476e+01 5.704086e+01 4.538252e+01 4.072036e+01 3.235807e+01 1.670493e+00 1.665117e+00 7.103734e+00 3.960080e+00 6.941147e+00 7.402870e+00 7.130449e+00 9.500463e+00 9.961556e+00 6.274086e+00 4.969895e+00 5.423848e+00 3.739468e+00 3.486119e-01 2.586896e-01 6.081190e-01 5.481732e-01 6.622121e-01 9.805487e-01 7.101744e-01 1.134820e+00 8.430346e-01 8.994207e-01 7.873020e-01 7.596270e-01 6.416183e-01 3.069102e-02
<GCONST> 1.279529e+02
<MIXTURE> 5 1.757581e-01
<MEAN> 39
 5.370836e+00 4.903125e+00 1.248571e+00 6.270749e+00 2.561931e+00 -5.091769e+00 -5.399338e+00 -3.665121e+00 -4.207460e+00 1.348962e-01 -1.367669e+00 -1.695541e+00 -5.219931e+00 -2.013420e+00 2.913628e+00 1.319805e+00 2.980462e+00 1.211861e+00 1.178710e+00 3.028974e-01 -1.301083e+00 1.040572e-01 -1.675797e+00 -2.294809e-01 -5.313275e-01 -1.387815e+00 -4.473591e-01 -7.665852e-01 -2.403747e-01 -5.745777e-01 -1.291426e-02 5.035005e-01 5.208844e-01 4.873032e-01 4.267945e-01 9.936166e-02 7.274261e-02 1.976743e-01 1.062313e-01
<VARIANCE> 39
 1.637047e+01 2.969050e+01 3.517865e+01 3.621743e+01 5.616359e+01 6.502873e+01 5.443961e+01 6.472169e+01 5.213023e+01 6.446565e+01 3.800428e+01 3.480518e+01 2.087053e+00 2.371054e+00 4.205821e+00 4.860059e+00 5.659494e+00 8.273122e+00 9.029485e+00 8.748336e+00 1.039094e+01 6.179673e+00 5.825853e+00 5.314071e+00 3.771590e+00 2.969037e-01 2.867949e-01 7.656978e-01 5.296670e-01 7.244735e-01 9.557527e-01 1.044478e+00 9.809750e-01 1.131175e+00 9.986757e-01 1.216940e+00 6.809344e-01 7.139411e-01 4.007878e-02
<GCONST> 1.311168e+02
<MIXTURE> 6 1.221512e-01
<MEAN> 39
 4.771865e+00 -3.174220e+00 9.347908e+00 6.132526e+00 -7.864242e+00 -1.082030e+01 -4.964802e+00 9.049824e+00 -8.733565e+00 -7.582850e+00 6.306073e+00 4.307138e-01 -2.986687e+00 -1.073564e+00 3.479732e+00 6.259896e-01 2.121299e+00 1.668102e+00 -1.171832e-02 1.706927e+00 -1.361859e+00 -2.068771e+00 -5.098119e-01 -4.775801e-01 -4.529929e-02 -1.178341e+00 -3.374037e-01 6.201852e-01 -7.690780e-01 -1.101860e-01 8.737185e-01 9.252263e-01 3.374023e-01 -1.135151e+00 9.795774e-01 7.607936e-01 -1.011619e+00 -2.316454e-01 -2.248580e-01
<VARIANCE> 39
 1.418050e+01 2.249157e+01 2.596502e+01 3.312501e+01 4.029097e+01 3.114729e+01 4.717403e+01 4.406025e+01 4.645941e+01 5.594558e+01 2.917983e+01 2.579721e+01 2.075099e+00 1.088297e+00 2.527644e+00 3.466337e+00 3.218130e+00 5.358959e+00 4.535306e+00 4.787432e+00 5.461659e+00 6.613410e+00 5.984674e+00 5.820811e+00 3.540632e+00 1.963213e-01 2.054527e-01 4.445550e-01 3.593514e-01 5.183470e-01 6.388540e-01 5.930635e-01 8.887648e-01 8.323870e-01 9.223793e-01 1.064797e+00 6.238889e-01 5.613983e-01 3.250279e-02
<GCONST> 1.193052e+02
<STATE> 3
<NUMMIXES> 6
<MIXTURE> 1 3.061172e-01
<MEAN> 39
 5.723238e-01 8.335942e+00 4.735246e+00 9.589775e+00 3.598569e+00 -5.096416e+00 -2.664031e+00 -3.943825e+00 -5.498047e+00 -4.475623e+00 -2.310757e+00 -1.364737e+00 -6.795805e+00 -1.422657e+00 -1.765663e-01 -2.011474e-01 6.293624e-01 1.566534e+00 5.964998e-01 2.100982e-01 3.175362e-01 8.885324e-01 1.132385e-01 -4.691365e-01 4.397176e-01 -4.121117e-01 2.465723e-01 -1.154104e+00 -4.111557e-01 -9.884383e-01 -6.573140e-01 3.134776e-01 2.354937e-02 4.160746e-01 2.205559e-01 6.871713e-01 3.997677e-01 1.110483e-01 3.929362e-01
<VARIANCE> 39
 2.960864e+01 3.387343e+01 3.645042e+01 4.762217e+01 4.087722e+01 5.097358e+01 5.532349e+01 5.756030e+01 3.920485e+01 3.931280e+01 3.517017e+01 2.821247e+01 2.285340e+00 3.085462e+00 7.503871e+00 5.937458e+00 5.057952e+00 7.309695e+00 7.170607e+00 7.434789e+00 7.925450e+00 5.870484e+00 5.245072e+00 4.850967e+00 3.536923e+00 4.436987e-01 5.133222e-01 1.046167e+00 8.104156e-01 1.205947e+00 1.049495e+00 1.145014e+00 1.196002e+00 1.189814e+00 9.854758e-01 9.465932e-01 8.424518e-01 6.702474e-01 5.444984e-02
<GCONST> 1.331991e+02
<MIXTURE> 2 9.497055e-02
<MEAN> 39
 3.280455e+00 7.183473e+00 1.050478e+01 9.987064e+00 -7.716763e+00 -5.282081e+00 5.732183e+00 -1.120287e+00 -1.374505e+01 -2.550160e+00 3.528644e+00 -5.138917e+00 -5.889843e+00 -2.918059e-01 2.300473e+00 -8.433467e-01 1.496823e+00 1.953690e+00 4.195519e-01 4.244883e-01 -1.094110e+00 1.160768e+00 -2.216362e-01 -9.574800e-01 1.625420e-01 -8.543258e-01 -1.881024e-01 -7.531490e-01 -3.554720e-01 -6.381177e-01 4.478240e-01 7.950542e-02 -9.044406e-01 1.327132e-01 1.010583e+00 1.074053e-01 -2.816219e-01 5.318803e-01 2.080809e-01
<VARIANCE> 39
 8.806001e+00 1.836064e+01 2.845314e+01 2.293619e+01 2.381763e+01 2.603828e+01 2.924754e+01 3.672824e+01 3.100192e+01 3.935810e+01 2.311471e+01 1.950681e+01 1.774670e+00 1.301948e+00 3.184637e+00 2.228394e+00 3.177364e+00 4.950543e+00 4.309473e+00 4.622152e+00 4.644722e+00 4.832005e+00 3.076487e+00 2.798939e+00 2.536469e+00 3.048307e-01 1.673144e-01 5.087935e-01 4.800889e-01 4.049346e-01 5.592534e-01 5.025774e-01 5.307231e-01 6.442824e-01 7.244359e-01 5.355567e-01 4.510585e-01 3.435644e-01 3.946289e-02
<GCONST> 1.109348e+02
<MIXTURE> 3 1.989227e-01
<MEAN> 39
 2.387004e+00 1.166236e+01 1.003098e+01 7.340630e+00 -4.680946e+00 -1.792095e+00 -1.444131e+00 -9.933149e+00 -4.581522e+00 -3.384650e-03 -4.623213e+00 -5.016198e+00 -6.843869e+00 -1.169745e+00 1.565712e+00 -8.472894e-01 2.754441e+00 2.345328e+00 1.165178e+00 -7.763683e-01 6.800006e-02 9.993678e-01 -2.248093e+00 4.200584e-01 -4.245470e-01 -1.047464e+00 -3.253578e-01 -1.715572e+00 -7.803541e-01 -8.641193e-01 3.681906e-01 -1.884091e-01 2.413703e-01 1.038283e+00 2.463971e-01 3.526236e-01 4.460610e-01 6.543775e-01 3.664566e-01
<VARIANCE> 39
 1.314350e+01 1.336187e+01 2.628303e+01 3.425471e+01 3.360323e+01 2.995086e+01 3.360432e+01 3.188620e+01 3.450866e+01 3.686855e+01 3.675412e+01 2.779576e+01 2.214259e+00 2.580161e+00 3.995461e+00 4.121416e+00 5.155814e+00 4.806010e+00 5.243878e+00 4.339906e+00 6.349568e+00 4.794343e+00 5.128299e+00 3.964448e+00 3.904546e+00 3.541889e-01 2.619050e-01 7.145208e-01 5.970005e-01 8.846055e-01 6.754225e-01 7.169228e-01 8.173003e-01 8.858735e-01 8.705530e-01 9.514483e-01 6.995054e-01 6.390116e-01 6.049838e-02
<GCONST> 1.220870e+02
<MIXTURE> 4 9.727805e-02
<MEAN> 39
 -8.227843e+00 5.714587e+00 2.894673e+00 1.044038e+01 7.080948e+00 4.515783e+00 2.010699e+00 5.485552e-02 6.194717e-01 4.816128e-01 1.052118e+00 1.914947e-01 -9.911017e+00 -9.422612e-01 -7.125661e-01 -9.276778e-01 5.482278e-02 4.919734e-01 1.283031e+00 1.121415e+00 7.245195e-01 9.408985e-01 4.818446e-01 3.139977e-01 4.120676e-01 -3.735218e-01 6.950653e-01 -8.416160e-01 -3.702292e-01 -8.575742e-01 -6.765895e-01 -8.105812e-01 -3.108595e-01 1.038997e-01 -1.209883e-01 1.648851e-01 -9.671207e-02 1.256582e-01 6.460428e-01
<VARIANCE> 39
 1.565383e+01 2.455258e+01 2.142404e+01 2.185842e+01 2.143825e+01 3.138975e+01 2.357961e+01 3.545040e+01 2.953400e+01 2.297988e+01 2.349392e+01 1.555449e+01 8.899084e-01 4.078557e+00 4.659140e+00 3.988029e+00 2.673793e+00 5.362536e+00 5.368842e+00 3.802607e+00 5.186964e+00 4.591841e+00 3.310487e+00 3.048365e+00 2.228822e+00 6.911081e-01 6.869604e-01 1.070771e+00 7.998710e-01 8.421206e-01 7.531688e-01 8.948841e-01 7.363797e-01 1.060035e+00 6.627101e-01 6.274904e-01 5.376127e-01 4.008080e-01 1.173229e-01
<GCONST> 1.193443e+02
<MIXTURE> 5 2.091023e-01
<MEAN> 39
 -1.002688e+01 4.224827e+00 -7.094949e-03 8.997457e+00 5.618755e+00 5.417873e+00 4.019135e+00 1.296374e+00 3.382254e+00 1.771771e+00 1.873632e+00 1.480940e+00 -1.038925e+01 1.032750e+00 -1.793858e+00 -9.880490e-01 -1.227412e+00 -6.882552e-01 -5.035657e-01 -4.386341e-01 -3.589715e-01 -5.010220e-01 4.696302e-01 -3.182839e-01 -8.254737e-03 6.682156e-01 4.664880e-01 -5.334339e-01 9.306066e-02 -6.031169e-01 -3.861676e-01 -8.314863e-01 -5.610024e-01 -6.417459e-02 -3.464798e-01 -4.850569e-02 -1.302943e-01 -2.058896e-02 6.458060e-01
<VARIANCE> 39
 5.729698e+00 1.090258e+01 1.410431e+01 1.491342e+01 1.658169e+01 2.058184e+01 1.876272e+01 2.270327e+01 1.966408e+01 2.129906e+01 2.026103e+01 1.357873e+01 1.679133e-01 2.307341e+00 5.828057e+00 4.015082e+00 4.165821e+00 4.871342e+00 5.178330e+00 4.100293e+00 3.629088e+00 3.440783e+00 3.209495e+00 2.444166e+00 2.218469e+00 1.202731e+00 4.558539e-01 6.361232e-01 5.847583e-01 4.637001e-01 6.754777e-01 7.228974e-01 6.206082e-01 6.043615e-01 5.460162e-01 5.268531e-01 3.910940e-01 3.247097e-01 1.128387e-01
<GCONST> 1.088068e+02
<MIXTURE> 6 9.360807e-02
<MEAN> 39
 2.343821e+00 5.726150e+00 1.070210e+01 1.048177e+01 -4.956204e+00 -8.583273e+00 2.826422e+00 4.155001e+00 -1.319869e+01 -5.960149e+00 4.631614e+00 -1.758870e+00 -5.814702e+00 -1.228542e+00 3.113660e+00 -9.498198e-01 1.379689e+00 2.438632e+00 1.668354e+00 1.228636e+00 -2.602536e+00 1.203916e+00 4.679474e-01 -1.868633e+00 -2.942811e-01 -1.205122e+00 -1.788643e-01 -1.074669e+00 -7.722429e-01 -9.300160e-01 3.585474e-01 5.175975e-01 -7.677969e-01 -1.852878e-01 1.301104e+00 6.579131e-01 -5.500458e-01 2.422490e-01 2.758093e-01
<VARIANCE> 39
 1.286002e+01 1.738216e+01 2.160859e+01 1.999890e+01 2.899631e+01 3.168259e+01 3.061097e+01 4.955523e+01 2.971931e+01 5.754726e+01 2.838758e+01 2.732189e+01 2.131298e+00 1.470432e+00 3.851935e+00 4.891500e+00 3.927050e+00 6.410249e+00 5.207874e+00 5.053864e+00 5.697928e+00 6.721819e+00 5.432891e+00 4.256688e+00 3.315661e+00 2.682778e-01 2.450961e-01 6.148084e-01 4.663442e-01 4.395587e-01 6.993635e-01 6.752087e-01 5.912880e-01 9.348433e-01 7.496178e-01 1.134615e+00 6.580170e-01 5.507614e-01 4.755121e-02
<GCONST> 1.196015e+02
<STATE> 4
<NUMMIXES> 6
<MIXTURE> 1 1.000486e-01
<MEAN> 39
 -4.298771e+00 -2.376681e+00 -1.749805e+00 9.204573e+00 7.664779e+00 5.935534e-01 5.453369e-01 -2.958476e-01 7.701091e-01 -4.733018e-01 -8.335625e-02 -3.653387e-02 -6.307147e+00 -9.674044e-01 -3.769625e+00 -2.662872e+00 -2.332622e+00 8.391249e-01 -1.992232e-01 4.059457e-01 1.812453e+00 1.832298e+00 1.695737e+00 6.821019e-01 1.336280e+00 9.430410e-01 7.791992e-01 8.006241e-01 7.386204e-01 -8.712556e-01 -1.185664e+00 -6.768569e-01 -3.193014e-01 -3.082731e-01 -5.425440e-01 1.859354e-01 -8.672743e-02 -8.800267e-02 3.391905e-01
<VARIANCE> 39
 3.822803e+01 4.577631e+01 5.909196e+01 5.926858e+01 4.697962e+01 4.705653e+01 4.778080e+01 5.237231e+01 5.005982e+01 3.531632e+01 3.070359e+01 2.045784e+01 4.462757e+00 4.636910e+00 4.918510e+00 5.937688e+00 5.530759e+00 5.344128e+00 6.488351e+00 6.682314e+00 6.241993e+00 4.820563e+00 4.555323e+00 4.053432e+00 3.394324e+00 3.197695e-01 1.043015e+00 1.050673e+00 9.955224e-01 1.297008e+00 1.070652e+00 1.033319e+00 1.221886e+00 1.346997e+00 1.074626e+00 1.060355e+00 1.072373e+00 6.164388e-01 6.185070e-02
<GCONST> 1.345941e+02
<MIXTURE> 2 1.633224e-01
<MEAN> 39
 -1.158262e+00 1.217370e+01 7.267267e+00 1.250472e+01 4.286089e+00 1.042105e+00 -2.404001e+00 -6.768032e+00 -3.849375e+00 -4.242369e+00 -2.301570e+00 -2.670270e+00 -8.798941e+00 -1.562557e+00 -3.791939e+00 -2.459803e+00 -1.290707e+00 1.470369e+00 1.004799e+00 8.086107e-01 1.733276e+00 1.454250e+00 9.359649e-01 5.292789e-01 9.727577e-01 3.185647e-01 3.457338e-01 -1.609768e+00 -5.919499e-01 -1.466284e+00 -6.796401e-01 -7.418212e-01 4.576200e-02 6.730394e-01 3.691205e-02 8.346423e-01 2.916593e-01 3.495380e-01 6.515321e-01
<VARIANCE> 39
 1.222198e+01 1.143438e+01 1.581737e+01 1.678555e+01 2.294449e+01 2.487646e+01 2.922141e+01 2.527321e+01 2.083614e+01 2.263028e+01 1.864696e+01 1.826582e+01 1.401475e+00 2.118466e+00 6.257689e+00 4.888139e+00 6.500041e+00 5.202320e+00 4.942611e+00 4.991196e+00 4.665734e+00 4.544924e+00 4.903877e+00 3.620073e+00 2.741533e+00 5.008001e-01 5.412863e-01 8.518022e-01 9.622916e-01 7.972764e-01 8.495618e-01 7.501007e-01 9.750967e-01 1.002264e+00 7.584532e-01 8.090146e-01 6.393203e-01 5.652518e-01 4.851989e-02
<GCONST> 1.185753e+02
<MIXTURE> 3 1.242187e-01
<MEAN> 39
 1.782751e+00 1.194395e+01 8.878352e+00 1.135576e+01 -9.618717e-01 -4.433671e+00 1.822039e+00 -3.099829e+00 -8.334768e+00 -3.644059e+00 -2.911518e-01 -2.296851e+00 -7.541238e+00 -1.065344e+00 -1.036611e+00 -1.299652e+00 -5.812686e-01 1.776540e+00 1.234721e+00 -3.659005e-01 -5.591226e-01 1.269683e+00 1.151968e+00 -1.041742e+00 5.077229e-01 -3.577251e-02 -8.707623e-02 -1.749159e+00 -3.462780e-01 -9.809318e-01 -2.459247e-01 -1.368049e-01 -5.131424e-01 6.513788e-01 1.988218e-01 3.418538e-01 2.982982e-01 2.654771e-01 4.978384e-01
<VARIANCE> 39
 9.372478e+00 1.265971e+01 2.599552e+01 2.228886e+01 3.557870e+01 2.741797e+01 3.059201e+01 3.821083e+01 2.875345e+01 2.964278e+01 2.699044e+01 2.219694e+01 1.552191e+00 1.591846e+00 6.443449e+00 4.083994e+00 3.418456e+00 5.145174e+00 3.864872e+00 3.182607e+00 4.267424e+00 4.230482e+00 4.510128e+00 3.476581e+00 2.481041e+00 3.340867e-01 4.138213e-01 8.539456e-01 6.387022e-01 5.317742e-01 8.774253e-01 6.567307e-01 9.513703e-01 8.981292e-01 7.932857e-01 6.438997e-01 6.482660e-01 4.954772e-01 4.287474e-02
<GCONST> 1.171297e+02
<MIXTURE> 4 2.579671e-01
<MEAN> 39
 -1.661420e+00 -4.530907e+00 -4.466622e+00 9.854615e-02 5.491871e+00 -9.837149e-01 -2.261726e+00 3.220510e-01 -2.619285e+00 4.887819e+00 -9.159459e-01 1.254582e+00 -4.252958e+00 1.198657e+00 -3.457468e-01 2.983318e-01 -1.160034e+00 -1.299531e+00 -1.136565e+00 -1.169498e+00 1.832034e-01 2.214736e-01 2.255446e-01 9.220902e-01 5.833275e-01 9.184108e-01 5.706054e-01 1.110384e+00 9.898223e-01 7.034999e-01 -7.647542e-01 -2.514162e-01 -1.330931e-01 -1.873645e-01 -6.346995e-02 -9.003903e-01 3.063063e-01 -1.965650e-01 -8.011034e-02
<VARIANCE> 39
 2.877985e+01 4.401656e+01 1.006470e+02 5.065484e+01 6.565162e+01 6.621090e+01 5.899172e+01 5.318347e+01 5.428227e+01 4.180526e+01 3.103926e+01 2.356048e+01 1.532554e+00 5.390082e+00 8.313637e+00 7.300275e+00 6.961467e+00 6.370508e+00 4.944134e+00 5.245526e+00 4.951523e+00 4.925730e+00 5.766367e+00 3.443799e+00 2.588863e+00 3.782834e-01 6.064033e-01 1.132634e+00 1.296516e+00 1.014088e+00 1.152970e+00 1.271343e+00 1.240329e+00 1.191426e+00 1.148866e+00 1.013065e+00 8.524030e-01 6.351708e-01 5.442175e-02
<GCONST> 1.348335e+02
<MIXTURE> 5 2.483707e-01
<MEAN> 39
 -4.381756e+00 -6.260981e+00 -2.122756e+00 1.412082e+00 2.898441e+00 -1.873949e+00 5.039864e-01 1.571403e-02 1.492239e+00 2.253496e+00 1.540746e-01 2.243015e+00 -4.198120e+00 1.675736e+00 -3.637463e-01 6.787884e-01 -2.339454e+00 -2.115813e+00 -1.916584e+00 -1.290254e+00 -6.342027e-02 -7.338082e-01 5.744706e-01 -1.110764e-01 -3.768202e-02 1.247736e+00 7.497673e-01 1.362845e+00 9.173464e-01 3.329788e-01 -5.950474e-01 -9.153898e-02 -3.831118e-01 -1.938603e-01 -5.686028e-01 -2.636069e-01 3.381909e-02 -4.592065e-01 -1.282488e-01
<VARIANCE> 39
 2.712312e+01 4.062298e+01 6.694283e+01 4.707410e+01 5.821532e+01 6.098335e+01 5.318007e+01 5.578933e+01 5.462681e+01 3.910173e+01 3.222377e+01 2.536726e+01 1.319806e+00 3.765973e+00 7.361765e+00 5.284162e+00 5.275593e+00 4.927316e+00 4.533009e+00 4.475173e+00 5.058308e+00 4.271857e+00 3.881126e+00 3.799956e+00 2.597623e+00 4.014717e-01 5.438033e-01 9.644015e-01 8.076134e-01 9.956556e-01 1.064585e+00 1.204002e+00 1.076548e+00 1.274599e+00 1.166090e+00 1.001622e+00 9.418526e-01 6.971895e-01 4.819320e-02
<GCONST> 1.310222e+02
<MIXTURE> 6 1.060629e-01
<MEAN> 39
 -4.294228e+00 7.516189e-01 9.614260e-01 8.281181e+00 7.289270e+00 1.954445e+00 1.433102e+00 -7.390125e-01 -1.137023e+00 4.423453e-01 -1.983948e+00 -3.253783e-01 -6.937650e+00 -1.639531e-02 -3.902736e+00 -2.050594e+00 -2.960811e+00 -2.518642e-01 -4.825420e-01 -6.553364e-01 9.540165e-01 5.797300e-01 1.739016e+00 2.266128e-02 7.136788e-01 1.201527e+00 8.399095e-01 2.895976e-01 5.386496e-01 -5.537252e-01 -1.180683e+00 -8.162656e-01 -5.225356e-01 -6.232955e-02 -4.662036e-01 -7.075983e-02 3.992988e-01 -5.957852e-02 3.731315e-01
<VARIANCE> 39
 2.935772e+01 4.387016e+01 5.051873e+01 3.511521e+01 5.127059e+01 4.235379e+01 4.246923e+01 3.578868e+01 4.160732e+01 2.535225e+01 3.320717e+01 1.640789e+01 4.390869e+00 4.065333e+00 5.531894e+00 7.202095e+00 4.162771e+00 6.486109e+00 4.895367e+00 5.665326e+00 6.058197e+00 5.133705e+00 3.951582e+00 3.899251e+00 2.664015e+00 2.772134e-01 5.444056e-01 8.074549e-01 6.683973e-01 7.193014e-01 1.002838e+00 8.301851e-01 9.074238e-01 9.513950e-01 7.723261e-01 7.799593e-01 1.002506e+00 4.051209e-01 4.701964e-02
<GCONST> 1.272950e+02
<TRANSP> 5
 0.000000e+00 1.000000e+00 0.000000e+00 0.000000e+00 0.000000e+00
 0.000000e+00 3.563242e-01 6.436758e-01 0.000000e+00 0.000000e+00
 0.000000e+00 0.000000e+00 5.383865e-01 4.616135e-01 0.000000e+00
 0.000000e+00 0.000000e+00 0.000000e+00 7.438495e-01 2.561505e-01
 0.000000e+00 0.000000e+00 0.000000e+00 0.000000e+00 0.000000e+00
<ENDHMM>
~h "k"
<BEGINHMM>
<NUMSTATES> 5
<STATE> 2
<NUMMIXES> 6
<MIXTURE> 1 1.885438e-01
<MEAN> 39
 2.090336e+00 3.185866e+00 4.208100e+00 6.147056e+00 -1.521441e+00 -6.952101e+00 2.315893e-01 2.130066e+00 -5.891741e+00 -2.724339e-01 1.155188e+00 2.268370e-01 -5.122780e+00 -3.627393e+00 2.101698e+00 -3.127884e-01 2.598089e+00 3.024234e+00 2.451806e+00 9.307928e-01 -9.675232e-01 1.139041e+00 3.247855e-01 -1.222571e-01 4.073277e-01 -1.911180e+00 -4.559825e-01 -9.205376e-01 -6.716490e-01 -5.982238e-01 2.421289e-01 8.690172e-01 1.089809e-01 9.003642e-02 9.285449e-01 2.220335e-01 -7.440674e-02 -1.884899e-04 3.009712e-02
<VARIANCE> 39
 2.100710e+01 3.121761e+01 5.542191e+01 3.566941e+01 7.020244e+01 5.843135e+01 6.645328e+01 8.486633e+01 5.950147e+01 5.191667e+01 4.508704e+01 3.293597e+01 3.288777e+00 2.453784e+00 4.122585e+00 6.295248e+00 5.073309e+00 6.190020e+00 6.953654e+00 7.635950e+00 7.657450e+00 7.122612e+00 6.214345e+00 6.751163e+00 3.587945e+00 2.664725e-01 3.842353e-01 7.297217e-01 6.552001e-01 6.872145e-01 1.028885e+00 9.743835e-01 1.038729e+00 1.444743e+00 1.066489e+00 1.018675e+00 9.284346e-01 7.246065e-01 8.680791e-02
<GCONST> 1.340834e+02
<MIXTURE> 2 1.206153e-01
<MEAN> 39
 -6.382592e+00 5.077764e+00 2.072953e+00 1.053527e+01 5.405686e+00 1.974659e+00 6.828091e-01 -3.369738e-01 7.235585e-01 7.777827e-01 1.465363e+00 7.390356e-02 -9.371742e+00 -3.282184e+00 -7.943600e-02 -6.261580e-01 1.383805e+00 1.766276e+00 2.747559e+00 1.112156e+00 4.973853e-01 2.071023e+00 2.089961e-01 7.762103e-01 4.929339e-01 -1.321057e+00 8.114387e-01 -1.181243e+00 -4.600592e-01 -1.328645e+00 -6.837025e-01 -6.003442e-01 7.248379e-03 2.091811e-01 -1.976625e-01 2.062348e-01 -2.344566e-01 4.703322e-02 7.127336e-01
<VARIANCE> 39
 1.668947e+01 2.104733e+01 2.766075e+01 2.247274e+01 3.266891e+01 3.225904e+01 3.748598e+01 4.754972e+01 4.083450e+01 3.419247e+01 2.933132e+01 2.104113e+01 1.556371e+00 2.929658e+00 4.141936e+00 5.686154e+00 4.327804e+00 6.825363e+00 6.250616e+00 6.526582e+00 7.176912e+00 5.189942e+00 4.796415e+00 5.237257e+00 3.121248e+00 5.318502e-01 4.986280e-01 7.418383e-01 6.900104e-01 7.159845e-01 7.687024e-01 8.830183e-01 8.726137e-01 1.036600e+00 8.565201e-01 9.206451e-01 7.952002e-01 5.317340e-01 8.023617e-02
<GCONST> 1.253940e+02
<MIXTURE> 3 1.854373e-01
<MEAN> 39
 -9.535065e+00 3.997579e+00 6.022570e-01 9.598246e+00 5.877728e+00 5.511655e+00 3.401838e+00 1.587560e+00 4.212671e+00 2.297536e+00 3.174176e+00 1.443384e+00 -1.045989e+01 1.058576e-01 -1.694427e+00 -1.079795e+00 -1.104621e+00 -4.764937e-03 4.083966e-02 4.057964e-01 2.236938e-01 3.160182e-01 5.580861e-01 3.718014e-02 4.580619e-01 5.078577e-01 8.518384e-01 -6.522156e-01 -2.696331e-01 -8.756282e-01 -4.212162e-01 -1.023661e+00 -3.129574e-01 -1.132209e-01 -5.506840e-01 1.343322e-02 -4.035078e-01 -2.023902e-02 7.384162e-01
<VARIANCE> 39
 6.324420e+00 8.501599e+00 1.421415e+01 1.608824e+01 1.695919e+01 1.970477e+01 1.946356e+01 2.067716e+01 2.204836e+01 1.892194e+01 1.981898e+01 1.356744e+01 1.131276e-01 2.376686e+00 4.986721e+00 4.489425e+00 4.067555e+00 3.625512e+00 4.557237e+00 3.554827e+00 3.837733e+00 3.872281e+00 3.289795e+00 2.595993e+00 2.204333e+00 9.163556e-01 5.853621e-01 5.094751e-01 8.599343e-01 6.582568e-01 8.976860e-01 8.747431e-01 8.010986e-01 7.638087e-01 7.184013e-01 6.124094e-01 5.997462e-01 4.044273e-01 9.243031e-02
<GCONST> 1.102181e+02
<MIXTURE> 4 2.044652e-01
<MEAN> 39
 -6.905989e+00 -2.636546e+00 -4.217728e+00 6.535557e+00 8.856822e+00 3.207988e+00 8.952540e-01 1.520081e+00 2.172755e+00 2.280472e+00 9.075328e-01 9.843432e-01 -6.860596e+00 5.394012e-01 -1.585826e+00 -1.599188e+00 -1.214622e+00 4.053195e-02 5.174999e-01 -1.520629e-01 6.588294e-02 2.018729e-01 8.613935e-01 9.930983e-02 2.189552e-01 2.517301e-01 3.097036e-01 4.791373e-01 4.283117e-01 -4.740623e-01 -7.256814e-01 -4.824925e-01 3.704088e-02 -5.347795e-02 -3.168960e-01 -9.303086e-02 -2.116369e-02 -3.384406e-02 2.615032e-01
<VARIANCE> 39
 3.977845e+01 3.951753e+01 6.032574e+01 6.792463e+01 6.239474e+01 5.688460e+01 5.615960e+01 5.429755e+01 5.738443e+01 3.646136e+01 3.308824e+01 2.639845e+01 3.648967e+00 5.338948e+00 5.870491e+00 6.312438e+00 7.843944e+00 6.182183e+00 6.608140e+00 5.772510e+00 6.007305e+00 5.958776e+00 4.235008e+00 3.721358e+00 2.964587e+00 1.844316e+00 9.118028e-01 7.891222e-01 9.671476e-01 1.220572e+00 1.161069e+00 1.122521e+00 1.102117e+00 1.005292e+00 1.040697e+00 7.715024e-01 7.507052e-01 5.545940e-01 1.265457e-01
<GCONST> 1.371513e+02
<MIXTURE> 5 1.769449e-01
<MEAN> 39
 -1.020969e+01 3.670771e+00 -5.059010e-01 7.980285e+00 6.210504e+00 4.608882e+00 4.335438e+00 7.100444e-01 1.844721e+00 2.099672e+00 6.962812e-01 1.541364e+00 -1.044551e+01 9.378901e-01 -2.507937e+00 -1.229776e+00 -1.835688e+00 -6.418756e-01 -5.447695e-01 -5.485248e-01 1.676408e-01 -6.821299e-01 4.880987e-01 -4.456427e-01 -1.100458e-01 1.056666e+00 6.737370e-01 -5.645980e-01 -9.842137e-02 -6.887795e-01 -3.068631e-01 -8.116417e-01 -5.384979e-01 2.039774e-01 -3.423343e-01 8.093495e-02 -4.013649e-02 -5.661185e-02 6.747131e-01
<VARIANCE> 39
 8.094236e+00 1.036868e+01 1.595036e+01 1.794530e+01 1.960406e+01 2.140358e+01 2.361975e+01 2.419875e+01 2.275807e+01 2.183738e+01 1.810728e+01 1.556474e+01 1.131276e-01 2.388524e+00 4.523763e+00 4.407967e+00 4.339251e+00 4.736778e+00 4.617122e+00 4.387014e+00 4.304146e+00 3.884325e+00 3.194649e+00 2.654510e+00 2.247910e+00 7.629572e-01 5.297316e-01 5.307581e-01 6.769620e-01 5.207275e-01 7.890570e-01 7.852030e-01 8.649534e-01 7.103527e-01 6.770805e-01 5.908203e-01 4.736181e-01 4.064018e-01 8.100279e-02
<GCONST> 1.108563e+02
<MIXTURE> 6 1.239558e-01
<MEAN> 39
 -8.263182e+00 4.506388e+00 1.088283e+00 9.057576e+00 6.572121e+00 1.423398e+00 2.704987e+00 -4.522191e-01 -1.438112e+00 4.276459e-01 -9.633124e-01 4.783752e-01 -9.616209e+00 -2.239288e+00 -7.616872e-01 -1.296314e+00 -1.198093e-01 1.253566e+00 2.120212e+00 1.176943e+00 -4.442477e-01 1.408314e+00 9.272894e-01 -4.781522e-01 2.477025e-01 -7.782584e-01 1.031564e+00 -1.158695e+00 -3.089411e-01 -1.151356e+00 -8.405924e-01 -6.192533e-01 -4.990937e-01 4.933490e-01 -1.464710e-01 1.436518e-01 3.101508e-01 -2.357367e-02 8.084326e-01
<VARIANCE> 39
 2.121961e+01 2.469258e+01 2.961486e+01 2.641796e+01 3.319893e+01 3.910937e+01 4.107824e+01 4.843513e+01 4.519870e+01 3.588409e+01 2.880802e+01 2.729744e+01 1.145974e+00 3.630042e+00 4.636755e+00 5.356319e+00 3.836860e+00 6.513264e+00 5.572857e+00 5.599011e+00 6.175352e+00 5.855174e+00 4.948699e+00 3.819314e+00 3.098274e+00 6.518441e-01 7.349723e-01 8.290165e-01 8.311312e-01 8.420370e-01 9.772097e-01 1.082469e+00 1.048015e+00 1.157224e+00 1.035418e+00 9.639947e-01 8.170070e-01 6.841122e-01 7.091458e-02
<GCONST> 1.281180e+02
<STATE> 3
<NUMMIXES> 6
<MIXTURE> 1 1.352066e-01
<MEAN> 39
 -6.594979e+00 -4.262371e+00 -3.327414e+00 -2.993257e+00 1.556625e+00 8.301234e-01 2.176706e+00 4.881850e-01 2.093802e+00 6.859422e+00 1.030643e-02 1.408573e+00 -3.718755e+00 -2.624695e-01 2.133122e+00 1.331004e+00 -2.719111e-01 -8.770962e-02 1.267141e-01 6.268749e-01 -5.487985e-02 6.634126e-01 -2.149048e-02 4.785890e-01 2.662711e-01 1.552296e-02 1.974202e-01 8.567967e-01 6.379460e-01 1.038972e+00 3.054942e-01 2.818384e-01 2.411238e-01 -4.379508e-02 -2.542679e-01 -8.046210e-01 7.654442e-02 -6.738839e-02 -4.424708e-01
<VARIANCE> 39
 2.054437e+01 2.236226e+01 5.102040e+01 3.656789e+01 6.028172e+01 3.925425e+01 5.082611e+01 4.985591e+01 6.045078e+01 3.266207e+01 2.829475e+01 2.564408e+01 1.241308e+00 1.499244e+00 2.288763e+00 1.998696e+00 2.707448e+00 2.599017e+00 3.229762e+00 2.969424e+00 2.894394e+00 2.731461e+00 2.580395e+00 2.348382e+00 1.955204e+00 2.249997e-01 3.742350e-01 5.221841e-01 4.957306e-01 5.991362e-01 8.747228e-01 6.211716e-01 8.324555e-01 8.822563e-01 1.069455e+00 6.785227e-01 6.061845e-01 5.801233e-01 4.141129e-02
<GCONST> 1.162067e+02
<MIXTURE> 2 1.893626e-02
<MEAN> 39
 -3.711464e-01 2.120317e+00 -8.372393e-01 4.267408e-01 -2.812624e+00 -4.530492e+00 1.037664e+00 -4.438741e-01 -1.318085e+00 2.889786e+00 -2.746183e-01 1.600507e+00 -5.492216e+00 -1.955092e+00 8.334078e-02 -1.218808e-01 1.097941e+00 8.014813e-01 4.483692e-01 7.117558e-02 9.812034e-01 1.691318e+00 4.690774e-01 6.171927e-01 1.803109e-01 -5.525403e-01 -4.473237e-01 -4.331782e-01 -5.566403e-02 1.820587e-01 6.188675e-01 6.244408e-01 1.783301e-01 2.831743e-01 1.806812e-01 -1.717310e-01 1.797520e-01 -1.107852e-01 7.276553e-02
<VARIANCE> 39
 2.558524e+01 4.755857e+01 7.013834e+01 7.964752e+01 9.703181e+01 3.935860e+01 6.262238e+01 8.106664e+01 6.295712e+01 6.493610e+01 4.534491e+01 3.623725e+01 2.471407e+00 7.156003e+00 5.367635e+00 4.804306e+00 7.005232e+00 1.218733e+01 8.942551e+00 6.009875e+00 9.136988e+00 6.866601e+00 7.243208e+00 6.950863e+00 5.139488e+00 6.700889e-01 6.967475e-01 1.238344e+00 8.732826e-01 1.910223e+00 2.416873e+00 1.136455e+00 1.417568e+00 1.960745e+00 1.299780e+00 1.489827e+00 1.100781e+00 9.264494e-01 1.564548e-01
<GCONST> 1.449804e+02
<MIXTURE> 3 3.314187e-01
<MEAN> 39
 -3.141695e+00 -9.013949e+00 -8.841428e+00 6.563039e-01 6.054622e+00 -1.428378e+00 -3.500724e-01 2.073294e+00 3.550217e-01 4.378098e+00 -5.297324e-01 1.992000e+00 -4.001057e+00 9.518605e-01 -1.265988e+00 -1.241824e+00 -2.022494e+00 -2.506561e-01 -1.412404e+00 -3.955637e-01 5.332452e-01 2.036916e-01 8.745168e-01 -1.846043e-01 2.620862e-01 1.407755e+00 -3.410336e-01 1.500849e+00 1.209229e+00 5.836835e-01 -1.998965e-01 3.114005e-01 3.207865e-01 -2.625229e-01 6.014328e-02 -4.220790e-01 1.527268e-01 -1.671119e-01 -3.866066e-01
<VARIANCE> 39
 2.232230e+01 2.427994e+01 5.415155e+01 4.968100e+01 5.389355e+01 5.751985e+01 5.901373e+01 4.738352e+01 5.466312e+01 3.621896e+01 3.241387e+01 2.795204e+01 1.505205e+00 3.118889e+00 3.005037e+00 4.041648e+00 3.395656e+00 3.898451e+00 4.219457e+00 4.186371e+00 3.665541e+00 3.805595e+00 3.412044e+00 3.227939e+00 2.526773e+00 2.771314e-01 6.819695e-01 5.832098e-01 7.328625e-01 8.524559e-01 9.839674e-01 1.003090e+00 1.105725e+00 9.660629e-01 1.015477e+00 7.830238e-01 7.350553e-01 6.850085e-01 8.211455e-02
<GCONST> 1.256666e+02
<MIXTURE> 4 1.196118e-02
<MEAN> 39
 -4.049207e-01 3.488111e+00 7.777864e+00 7.183002e+00 -2.597505e+00 -6.662040e+00 3.211834e+00 3.930254e+00 -1.088297e+01 -1.694441e+00 3.041058e+00 -4.366111e-01 -5.562716e+00 -3.944652e+00 -1.572635e-01 -2.024545e+00 6.941411e-01 3.476804e+00 2.676093e+00 7.259456e-01 -1.353982e+00 1.578537e+00 1.555638e+00 -1.874327e+00 1.336183e+00 -1.124450e+00 -4.313021e-01 -1.161658e+00 -6.212997e-01 -1.038741e+00 -9.638667e-04 1.260387e-01 -2.379193e-01 2.709291e-01 1.443338e+00 1.448345e-01 -2.014049e-01 1.401785e-01 3.815593e-01
<VARIANCE> 39
 1.650929e+01 2.528633e+01 4.154823e+01 1.857800e+01 3.652506e+01 2.707545e+01 4.398414e+01 5.339343e+01 4.566175e+01 3.785168e+01 3.297776e+01 3.205309e+01 1.862570e+00 2.261240e+00 2.391452e+00 6.878005e+00 4.249037e+00 5.076674e+00 4.229997e+00 6.630534e+00 8.025871e+00 6.028636e+00 5.636997e+00 6.826548e+00 3.713921e+00 2.254003e-01 3.864143e-01 4.304627e-01 6.664637e-01 3.589945e-01 4.333204e-01 5.569175e-01 6.880267e-01 8.353742e-01 7.095349e-01 6.221059e-01 6.027967e-01 5.894744e-01 4.405564e-02
<GCONST> 1.212573e+02
<MIXTURE> 5 3.369302e-01
<MEAN> 39
 -6.536425e+00 -8.510496e+00 -2.153672e+00 9.016026e-01 2.699270e+00 1.056138e+00 2.433787e+00 1.976900e+00 -7.599236e-01 4.094977e+00 -3.168149e-01 1.769474e+00 -4.870048e+00 1.035790e+00 -1.659901e+00 -3.068715e-01 -2.748772e+00 -1.515049e+00 -1.560611e+00 -5.362490e-01 2.088026e-03 -6.551827e-01 5.653679e-01 -5.698199e-01 2.030830e-02 1.523531e+00 2.577122e-01 1.355724e+00 6.047010e-01 3.949509e-01 -3.750321e-02 -2.571609e-01 -9.733304e-02 -1.208425e-01 4.393700e-02 -3.792420e-01 1.241124e-01 -9.902973e-02 -1.366248e-01
<VARIANCE> 39
 2.682621e+01 2.875122e+01 5.319609e+01 4.505860e+01 5.081349e+01 4.558133e+01 5.445518e+01 4.845602e+01 4.685502e+01 3.221341e+01 2.662604e+01 2.084756e+01 2.122267e+00 2.581440e+00 4.016932e+00 4.161389e+00 3.279596e+00 3.897689e+00 3.752059e+00 4.167813e+00 4.224282e+00 3.644752e+00 3.231155e+00 2.585455e+00 2.099504e+00 2.748443e-01 6.692142e-01 6.151533e-01 6.446310e-01 8.271903e-01 8.755575e-01 7.787454e-01 8.530270e-01 8.185374e-01 8.900330e-01 7.222543e-01 6.084974e-01 5.057639e-01 1.045074e-01
<GCONST> 1.233562e+02
<MIXTURE> 6 1.655354e-01
<MEAN> 39
 -1.782191e+00 -4.047386e+00 -1.133192e+01 -4.483149e+00 7.726155e+00 4.262304e+00 -1.248713e+00 1.333585e+00 -9.746042e-01 7.710850e+00 1.022854e+00 7.529229e-01 -3.913328e+00 -3.927415e-01 8.678910e-01 1.039583e+00 -2.277996e-01 -8.214837e-01 -3.779264e-01 5.147475e-01 -5.398713e-01 3.560100e-01 -2.637246e-01 1.904541e-01 7.051556e-02 5.115489e-02 -3.167015e-01 7.527061e-01 1.211422e+00 1.073547e+00 -3.482458e-01 -1.143980e-01 4.601565e-01 -2.610260e-01 2.056154e-01 -8.424050e-01 -1.480545e-02 1.297891e-03 -4.178128e-01
<VARIANCE> 39
 2.428939e+01 2.835064e+01 5.265115e+01 4.981621e+01 5.150541e+01 5.772789e+01 4.961744e+01 4.868153e+01 6.459239e+01 4.124161e+01 3.990930e+01 2.914370e+01 1.655990e+00 2.348824e+00 2.790037e+00 2.396382e+00 4.355038e+00 3.290490e+00 3.976690e+00 3.523774e+00 3.580781e+00 3.771340e+00 3.132834e+00 2.773808e+00 2.602370e+00 2.536252e-01 5.957357e-01 5.545876e-01 7.498833e-01 9.347804e-01 9.123583e-01 9.734840e-01 9.687850e-01 9.142468e-01 1.147419e+00 8.345904e-01 8.682207e-01 6.488500e-01 6.388115e-02
<GCONST> 1.246571e+02
<STATE> 4
<NUMMIXES> 6
<MIXTURE> 1 2.154822e-01
<MEAN> 39
 -5.093401e+00 -4.625363e+00 -3.694078e+00 4.632212e+00 4.612230e+00 -6.216137e+00 8.369818e-01 5.975746e+00 2.644054e+00 1.863936e+00 -5.248367e-01 2.712380e+00 -4.250630e+00 -1.371871e-01 1.556887e+00 1.147827e+00 -6.866694e-02 1.568401e-01 5.909347e-02 3.502716e-01 -4.676914e-01 5.011489e-01 -5.457756e-01 -2.026389e-01 -3.158315e-01 1.497924e-01 1.802884e-01 5.590026e-01 2.352041e-01 2.125952e-02 1.091889e-01 9.314926e-01 8.479973e-02 -6.328039e-01 -2.391138e-01 -1.346110e-01 9.145457e-02 -3.423011e-01 -1.986282e-01
<VARIANCE> 39
 1.914245e+01 1.881821e+01 2.935482e+01 2.599750e+01 3.616700e+01 2.953045e+01 4.704654e+01 3.374150e+01 4.045100e+01 2.785406e+01 2.973346e+01 2.184457e+01 1.638659e+00 5.999276e+00 3.173167e+00 2.918411e+00 3.412447e+00 4.557239e+00 4.595098e+00 4.104702e+00 3.638063e+00 3.779054e+00 3.039402e+00 3.063482e+00 2.886188e+00 3.766238e-01 5.151852e-01 7.052453e-01 6.757047e-01 5.461010e-01 6.566200e-01 6.191417e-01 8.379282e-01 7.514067e-01 7.850136e-01 5.596961e-01 6.348650e-01 5.552803e-01 6.587997e-02
<GCONST> 1.192192e+02
<MIXTURE> 2 1.849870e-01
<MEAN> 39
 -8.220369e+00 -1.182961e+00 -7.278430e-02 -3.400264e+00 1.528140e+00 2.265541e+00 4.060376e+00 -1.352324e+00 -4.254164e-01 5.202969e+00 -3.689097e-01 1.964885e+00 -4.728005e+00 1.158450e+00 1.657411e+00 1.641828e+00 6.509509e-01 -5.695730e-01 -3.509665e-01 6.073229e-01 7.191356e-02 1.836937e-02 -1.067137e+00 3.757224e-01 8.830813e-02 4.777746e-02 9.249259e-01 -8.081149e-03 1.297906e-01 5.897288e-01 -2.128146e-01 -1.929414e-01 -3.092533e-01 2.460035e-01 -1.910553e-01 -5.730575e-01 1.678943e-01 -1.514423e-01 2.311589e-03
<VARIANCE> 39
 2.601641e+01 2.396944e+01 6.480161e+01 3.283599e+01 4.886192e+01 4.012852e+01 3.878516e+01 3.367775e+01 4.375671e+01 3.425925e+01 2.626655e+01 2.163925e+01 1.653012e+00 2.864157e+00 2.780407e+00 2.423491e+00 3.377216e+00 2.968405e+00 3.336949e+00 3.389458e+00 3.266111e+00 3.198696e+00 3.275912e+00 2.329635e+00 2.012284e+00 1.900645e-01 3.927067e-01 5.477906e-01 5.608929e-01 6.959793e-01 7.230335e-01 6.753323e-01 7.358787e-01 6.873155e-01 8.155675e-01 8.080601e-01 5.651596e-01 4.860924e-01 7.048312e-02
<GCONST> 1.175609e+02
<MIXTURE> 3 2.085378e-01
<MEAN> 39
 -3.041817e+00 -1.169253e+00 -2.233157e+00 8.947392e-01 5.451187e+00 1.006130e+00 3.411702e+00 7.084398e-01 -5.957972e-01 3.081263e+00 -6.713021e-01 1.923710e-01 -4.928103e+00 3.757797e+00 9.428402e-01 9.384890e-01 -7.629824e-01 -2.114974e+00 -2.196873e-01 -7.031233e-01 -5.110342e-01 -5.931022e-01 -1.351844e+00 5.401289e-01 -6.303302e-01 7.867423e-01 6.225682e-01 -3.995717e-01 -2.468685e-01 -4.723921e-01 -6.300546e-01 2.099434e-02 -5.806591e-01 1.324076e-02 3.574618e-02 -1.096468e-01 3.067272e-01 -1.442106e-02 2.285544e-01
<VARIANCE> 39
 1.869304e+01 2.836434e+01 6.228152e+01 3.815524e+01 5.454171e+01 5.217258e+01 5.176365e+01 4.609544e+01 3.756076e+01 3.440765e+01 3.188287e+01 2.485253e+01 1.825598e+00 1.290297e+00 2.937572e+00 4.278204e+00 5.300210e+00 4.570208e+00 6.270372e+00 5.928900e+00 5.584028e+00 4.671038e+00 4.243495e+00 3.916742e+00 3.339212e+00 1.711022e-01 3.718209e-01 5.034786e-01 6.625397e-01 6.292115e-01 6.882597e-01 7.897590e-01 8.350845e-01 8.429056e-01 8.075243e-01 7.657793e-01 6.866646e-01 5.638266e-01 5.894020e-02
<GCONST> 1.232250e+02
<MIXTURE> 4 3.240320e-02
<MEAN> 39
 -7.641410e+00 -1.895167e+00 3.490852e-01 5.985956e+00 5.288383e+00 -1.958281e-01 2.855734e+00 2.756379e+00 -7.804331e-01 2.026068e+00 -8.886173e-01 9.858013e-01 -6.735662e+00 -2.261111e+00 -8.100913e-01 -1.217390e+00 -4.337583e-01 2.027207e+00 1.758201e+00 3.608864e-01 -3.290876e-01 1.657510e+00 5.130669e-01 -1.892531e-01 1.567052e-01 -2.287055e-01 7.055485e-01 4.091529e-02 8.300823e-02 -7.669919e-01 -8.417848e-01 -5.271032e-01 -5.998575e-02 -1.483439e-02 -1.688052e-01 -2.715533e-01 2.600753e-01 -6.008016e-02 4.478534e-01
<VARIANCE> 39
 2.958044e+01 4.435578e+01 6.227062e+01 3.716469e+01 5.324459e+01 3.701751e+01 4.958821e+01 4.741793e+01 5.292537e+01 4.440922e+01 3.730515e+01 2.343800e+01 3.368708e+00 5.144077e+00 3.358217e+00 5.211677e+00 4.996584e+00 4.863791e+00 4.361591e+00 5.045479e+00 6.130359e+00 6.150434e+00 5.800137e+00 4.394455e+00 4.173193e+00 4.083622e-01 8.489150e-01 9.653915e-01 9.718996e-01 7.449601e-01 9.487265e-01 9.747080e-01 9.417654e-01 1.132281e+00 9.309961e-01 9.689317e-01 9.328271e-01 5.522033e-01 6.817655e-02
<GCONST> 1.318979e+02
<MIXTURE> 5 2.150825e-01
<MEAN> 39
